  -0.01308,  -0.02763,  -0.09161,   0.03636,   0.01891,   0.09888,  -0.00872,   0.05817,   0.00000,  -0.04217,  -0.04217,   0.02618,  -0.02617,  -0.05234,   0.00873,   0.00727,  -0.00436,  -0.00872,  -0.01890,   0.01018,  -0.02617,   0.05235,  -0.04944,   0.05090,  -0.03926,  -0.02763,  -0.01308,  -0.03344,  -0.00727,  -0.05089,   0.03054,   0.02618,  -0.07852,  -0.08724,  -0.02763,  -0.02908,  -0.06834,  -0.01163,   0.01454,  -0.07270,   0.05235,  -0.05089,  -0.03490,  -0.03926,  -0.02908,   0.05235,  -0.07997,  -0.02908,   0.00146,   0.06108,   0.01164,   0.04072,  -0.01163,   0.10034,   0.05235,  -0.01745,  -0.07852,   0.01454,   0.01309,  -0.04653,  -0.01018,  -0.02908,  -0.03344,   0.00727,  -0.06107,  -0.01163,  -0.00581,   0.01454,   0.05817,  -0.00872,  -0.01163,  -0.02617,  -0.04798,  -0.00727,  -0.03344,   0.00727,   0.02908,   0.00000,  -0.02617,   0.06544,  -0.01018,  -0.03344,  -0.02908,   0.03490,   0.03345,  -0.07852,  -0.07561,  -0.06543,  -0.05089,  -0.01018,   0.02327,  -0.01018,   0.01600,  -0.01163,  -0.03780,   0.01600,  -0.01308,   0.00146,  -0.03635,  -0.00581,   0.02472,   0.01891,   0.02181,  -0.06252,   0.03345,  -0.01163,  -0.04071,   0.02908,   0.00727,   0.05235,  -0.02035,   0.02036,  -0.00145,   0.06108,   0.00582,   0.00873,   0.00146,  -0.04798,  -0.04653,  -0.01018,   0.03199,   0.03345,   0.00146,  -0.01018,  -0.01745,   0.01454,  -0.05671,   0.00437
  -0.09451,   0.02618,  -0.01745,  -0.01018,   0.02908,  -0.01890,   0.02763,   0.01600,  -0.03926,  -0.09015,  -0.06398,   0.04653,  -0.00291,   0.04944,   0.00582,   0.02181,  -0.07125,  -0.00581,   0.00873,  -0.00872,   0.03199,   0.01454,   0.00727,  -0.02035,   0.07125,  -0.02035,  -0.01308,  -0.03780,   0.02472,   0.02763,   0.01891,  -0.06107,   0.00437,  -0.00727,   0.01454,   0.08579,   0.02036,   0.04072,  -0.01599,   0.06108,  -0.03053,   0.02763,   0.00727,  -0.05962,   0.04799,   0.02908,   0.00437,  -0.02326,  -0.01308,  -0.03344,   0.00727,   0.00000,   0.04217,   0.07271,  -0.02326,   0.00291,  -0.03780,  -0.06398,  -0.01454,  -0.10324,   0.02327,   0.02036,   0.00873,   0.01454,   0.02327,   0.04217,   0.04217,  -0.01454,  -0.02617,   0.00873,  -0.01745,   0.00437,   0.02763,  -0.03053,  -0.01599,   0.00727,   0.07125,  -0.02472,   0.02472,   0.01745,   0.06398,   0.02181,  -0.04798,  -0.02035,   0.00146,  -0.05525,  -0.03199,  -0.01599,  -0.02472,  -0.01890,  -0.03780,   0.03781,   0.02472,  -0.04944,   0.00146,   0.03781,  -0.01745,   0.00291,   0.02327,   0.03199,  -0.01745,   0.05817,  -0.03053,  -0.05089,  -0.01454,  -0.02908,  -0.02472,   0.00873,  -0.02617,  -0.06398,  -0.00727,  -0.06979,   0.00873,   0.03636,  -0.01163,   0.02472,  -0.01308,  -0.00145,  -0.03053,  -0.04653,   0.00291,  -0.01890,   0.03636,   0.00873,   0.00727,   0.01745,  -0.04071,  -0.03926
   0.00291,   0.02472,   0.03345,   0.05380,   0.02036,   0.00146,  -0.01308,  -0.03199,  -0.01163,  -0.03490,   0.05817,   0.01018,  -0.02326,   0.01018,  -0.00436,   0.03781,   0.00291,  -0.01599,  -0.00872,   0.02763,   0.05962,   0.02036,  -0.02472,  -0.02763,   0.02618,  -0.01308,   0.02181,  -0.03490,  -0.00872,   0.04363,  -0.00145,  -0.03926,   0.04799,  -0.06834,   0.05817,  -0.05671,  -0.06398,  -0.04798,  -0.02617,   0.01745,  -0.02472,   0.01745,   0.03490,   0.05526,   0.03345,   0.05817,  -0.01308,   0.00582,   0.01891,   0.03490,  -0.04653,   0.03781,   0.03054,   0.05235,  -0.02472,  -0.02326,   0.00727,   0.00873,  -0.00581,   0.00291,  -0.11196,  -0.02617,  -0.03053,  -0.01890,  -0.00727,   0.00437,  -0.03490,  -0.03635,  -0.02763,  -0.08434,  -0.00436,  -0.01745,   0.00727,  -0.05816,   0.04799,  -0.03053,   0.05817,   0.05526,   0.00873,  -0.04071,  -0.07561,  -0.02763,   0.05090,  -0.02035,  -0.05671,  -0.04653,  -0.03199,  -0.00581,  -0.00436,   0.03926,   0.00146,  -0.04362,   0.05235,  -0.05525,  -0.01308,  -0.00145,  -0.05671,  -0.02181,  -0.03926,  -0.00145,   0.01454,   0.05090,   0.03781,   0.04363,   0.01018,  -0.01018,  -0.02181,  -0.02472,   0.03345,  -0.05089,   0.06689,  -0.02326,  -0.03344,   0.07562,  -0.01018,   0.00146,   0.03490,   0.01309,   0.00437,   0.00437,  -0.02181,  -0.06979,  -0.00581,   0.00146,  -0.01890,  -0.05525,  -0.04798,  -0.06689
  -0.03635,  -0.02763,   0.00582,   0.04072,  -0.01163,   0.02908,  -0.01163,   0.02472,   0.01891,  -0.03926,   0.00582,   0.06980,  -0.05525,   0.02908,  -0.00581,  -0.00872,  -0.00436,  -0.00727,   0.02908,   0.04217,  -0.00872,   0.01891,  -0.03199,  -0.05671,  -0.03635,   0.01454,  -0.01018,  -0.00291,  -0.06543,  -0.02326,  -0.00436,  -0.00727,  -0.01018,   0.01454,   0.00873,  -0.05671,   0.04363,   0.02763,  -0.00727,  -0.01308,  -0.01454,  -0.00727,   0.00437,   0.02181,  -0.02617,   0.00873,  -0.00581,  -0.06252,  -0.04653,  -0.00581,   0.02036,  -0.03780,   0.03926,   0.03636,   0.02763,  -0.03490,  -0.04217,  -0.03635,   0.01454,  -0.01454,   0.05671,  -0.02326,   0.01018,  -0.05234,   0.00727,   0.07125,   0.01018,   0.01454,   0.00146,  -0.02763,   0.02618,  -0.02908,   0.04799,  -0.04217,  -0.06252,  -0.05234,   0.02618,  -0.03053,   0.03781,   0.00000,  -0.00727,  -0.00727,   0.04072,  -0.02763,  -0.05234,  -0.00872,  -0.06543,  -0.04217,  -0.01308,  -0.03926,   0.04799,  -0.05089,   0.07271,  -0.01890,   0.04799,   0.05235,   0.08579,  -0.00727,  -0.06107,  -0.01018,  -0.00872,  -0.02181,   0.00000,  -0.03490,  -0.02181,   0.04653,  -0.03780,   0.09452,  -0.00581,   0.05235,   0.01454,  -0.08870,  -0.04071,  -0.05380,  -0.02617,   0.00437,   0.03345,  -0.00291,  -0.04071,   0.08143,  -0.01018,  -0.00145,   0.04653,   0.01891,  -0.00291,   0.00146,  -0.04362,  -0.00727
  -0.02181,  -0.01745,   0.00000,   0.00873,  -0.05671,   0.05962,   0.00000,   0.02327,  -0.01745,  -0.00291,   0.00727,   0.03345,  -0.03199,  -0.06979,   0.04508,   0.00146,  -0.02181,   0.10906,  -0.03490,   0.04799,  -0.04071,  -0.04362,   0.02763,  -0.07270,  -0.01308,  -0.09015,   0.03054,  -0.00727,  -0.03780,   0.00727,  -0.04362,   0.05235,  -0.01745,   0.00582,   0.02618,  -0.05234,  -0.02763,   0.04653,   0.00437,   0.00291,  -0.06543,   0.05671,   0.06689,  -0.01018,   0.02618,   0.02618,  -0.01163,  -0.00291,  -0.01454,   0.01745,  -0.01745,   0.05962,   0.03781,   0.02181,  -0.00872,  -0.05525,   0.02908,   0.01600,   0.01745,  -0.02181,  -0.00145,  -0.03490,   0.01018,  -0.02472,   0.00291,   0.02472,   0.00146,  -0.02908,   0.02763,   0.09452,   0.02327,   0.00291,   0.02763,   0.00873,  -0.01163,  -0.04071,   0.00291,  -0.01745,  -0.00581,   0.01164,  -0.01163,   0.03199,   0.05090,  -0.05234,  -0.04071,  -0.03053,  -0.02181,   0.04217,   0.01891,  -0.01599,  -0.04944,  -0.02035,   0.04653,   0.04363,   0.01745,   0.01164,   0.00582,   0.03490,   0.00437,   0.00437,   0.00727,  -0.01163,   0.03054,  -0.05380,   0.03781,  -0.00436,  -0.00436,   0.04653,   0.02763,   0.00000,   0.01891,  -0.00727,   0.04508,  -0.02181,  -0.02035,  -0.03780,  -0.10178,  -0.03199,  -0.02326,   0.00291,   0.01309,  -0.03780,  -0.02908,   0.00146,   0.00727,  -0.04507,  -0.04798,  -0.01745
  -0.00145,  -0.04944,   0.02763,   0.06980,  -0.00872,   0.07125,  -0.04798,   0.00727,  -0.07997,   0.01745,   0.01164,  -0.00727,  -0.02763,  -0.02035,   0.00582,  -0.03053,  -0.01018,  -0.05525,   0.01454,  -0.00872,   0.01018,  -0.00436,  -0.01018,  -0.02763,   0.00582,  -0.01599,  -0.04071,   0.02763,  -0.01745,   0.00582,  -0.03635,  -0.01454,   0.07998,  -0.03199,   0.08434,   0.00727,   0.01600,   0.05090,  -0.01890,  -0.06979,  -0.01308,  -0.00145,  -0.04944,   0.00146,   0.01164,   0.03345,  -0.03199,  -0.02617,  -0.03635,   0.00291,   0.03199,   0.01600,   0.05090,   0.06544,   0.03345,   0.03490,  -0.04798,  -0.01018,  -0.03635,  -0.04217,   0.02763,  -0.01745,  -0.07561,   0.02472,  -0.03780,   0.04653,  -0.01890,   0.01018,   0.00727,   0.00437,  -0.02035,  -0.11342,   0.07707,   0.06398,  -0.09451,  -0.03199,  -0.00145,  -0.02326,   0.03345,  -0.04217,  -0.03490,  -0.06543,  -0.00872,   0.06689,  -0.03199,  -0.04507,   0.03345,  -0.06398,   0.01018,  -0.03780,  -0.02472,  -0.06252,  -0.02035,  -0.03635,  -0.01163,   0.00437,  -0.06398,  -0.02181,   0.00582,   0.01454,  -0.00872,   0.02618,   0.00437,   0.00437,  -0.01018,  -0.04362,  -0.01308,  -0.01890,   0.03345,  -0.02908,  -0.08870,   0.05962,   0.01018,  -0.05234,  -0.01454,   0.00727,   0.02181,   0.02472,   0.01891,  -0.09306,  -0.06398,   0.00437,   0.00437,   0.03345,  -0.01018,  -0.04071,   0.06398,  -0.03490
   0.03054,   0.00291,  -0.04507,   0.00873,   0.04799,  -0.03344,   0.01745,  -0.01599,   0.03054,  -0.04798,   0.01018,   0.01309,  -0.00291,  -0.00145,   0.04799,   0.02908,  -0.00436,   0.03490,   0.05671,   0.04799,  -0.06398,  -0.01745,  -0.01454,   0.00873,   0.02763,  -0.00436,  -0.02181,  -0.03635,  -0.04507,  -0.02181,  -0.00436,   0.04363,   0.04653,  -0.02326,   0.01018,   0.03636,  -0.06979,   0.02181,  -0.02326,  -0.00727,  -0.04798,   0.00727,  -0.07997,   0.00873,  -0.02908,  -0.04217,   0.04508,  -0.04944,  -0.05671,   0.05817,  -0.00727,   0.03636,   0.01309,   0.00873,   0.01164,  -0.03490,  -0.00581,  -0.05525,  -0.02472,  -0.02617,   0.03636,   0.00146,   0.01018,  -0.01163,   0.05671,   0.01745,  -0.00145,   0.08289,   0.04363,  -0.01163,  -0.02035,   0.06544,   0.02472,   0.00000,  -0.00727,  -0.00436,  -0.01018,   0.05090,  -0.03926,  -0.05671,   0.00437,  -0.01308,   0.07125,  -0.03926,  -0.02617,   0.05817,  -0.00436,   0.04217,  -0.04798,  -0.01599,   0.02763,   0.01309,  -0.01454,   0.01745,   0.05671,   0.04508,   0.03490,   0.05817,  -0.04653,  -0.00145,   0.00291,  -0.08288,  -0.01163,  -0.00145,  -0.06398,   0.06108,  -0.02035,  -0.03344,  -0.03926,   0.01018,  -0.04653,  -0.01308,   0.02908,   0.02472,  -0.02763,  -0.05962,   0.00291,  -0.04217,  -0.04653,   0.01164,   0.00873,   0.00146,   0.03054,  -0.04362,   0.01454,  -0.02617,  -0.00291,   0.04944
  -0.00872,  -0.05089,   0.04217,   0.03199,  -0.01018,  -0.00727,  -0.06398,   0.00437,   0.02181,   0.00582,   0.02763,  -0.01018,  -0.02035,  -0.07416,  -0.05816,   0.00000,   0.04217,  -0.02035,  -0.06252,   0.04072,  -0.03780,   0.04217,   0.03199,   0.01891,   0.00437,  -0.05089,   0.04653,   0.08579,  -0.02181,   0.00727,  -0.08434,  -0.04217,   0.01164,  -0.03053,  -0.01308,   0.03054,  -0.02035,  -0.03635,   0.04072,  -0.00872,   0.07271,  -0.02908,   0.02036,  -0.01454,  -0.03053,  -0.04653,   0.02618,   0.03345,   0.07707,  -0.03199,   0.02763,  -0.01454,  -0.01890,   0.01018,   0.02618,  -0.00436,  -0.03199,   0.02908,  -0.02181,   0.02618,   0.03781,  -0.00291,  -0.04653,  -0.01890,   0.02908,   0.01891,  -0.07125,  -0.00727,  -0.03490,   0.00873,   0.04508,   0.00437,   0.03054,  -0.03053,  -0.03490,   0.00146,  -0.00727,  -0.00581,  -0.03053,   0.02327,   0.07416,   0.00582,   0.03054,  -0.02472,  -0.01599,  -0.03490,   0.06835,  -0.00727,   0.02763,  -0.01163,   0.02181,  -0.05962,  -0.01308,  -0.03635,  -0.05962,  -0.03053,   0.00437,   0.02181,   0.00146,   0.02763,  -0.03199,   0.01309,   0.03926,   0.01164,  -0.04071,  -0.04217,   0.00873,   0.04508,  -0.04798,   0.04072,   0.00727,   0.06398,   0.04072,  -0.04217,  -0.01745,  -0.03926,   0.05526,  -0.01018,   0.01745,   0.00291,   0.03490,  -0.00145,  -0.02617,  -0.05816,   0.07852,  -0.04653,  -0.01599,  -0.01454
  -0.00727,  -0.03344,  -0.02181,   0.04508,  -0.01890,  -0.07416,  -0.05089,   0.01018,   0.01600,   0.00146,  -0.05816,   0.07271,  -0.00436,   0.06253,  -0.00436,  -0.00872,  -0.01745,  -0.01745,  -0.01454,   0.02763,   0.01309,   0.03490,  -0.00581,  -0.02908,   0.07707,  -0.00581,  -0.00145,   0.00873,  -0.01454,   0.00727,  -0.02181,  -0.04362,  -0.07125,   0.01309,  -0.02472,  -0.02326,   0.01309,  -0.00727,   0.01600,   0.02327,  -0.00145,  -0.05234,   0.00437,   0.01600,   0.01018,   0.01018,   0.04217,  -0.04362,   0.05962,  -0.00872,  -0.03926,   0.00146,  -0.04653,  -0.00581,  -0.03199,  -0.01454,   0.01309,  -0.02617,   0.04217,   0.02763,   0.01164,  -0.01163,  -0.01745,  -0.00145,  -0.02763,  -0.03053,  -0.08434,   0.06108,   0.05380,  -0.04798,  -0.03780,   0.03490,   0.03636,   0.01164,   0.00873,  -0.02763,   0.01309,  -0.01890,  -0.06979,  -0.01599,   0.06108,   0.00146,   0.04508,  -0.00727,  -0.03199,   0.01018,   0.00291,  -0.01163,  -0.02181,   0.01454,  -0.03344,  -0.05962,   0.01309,   0.00873,   0.08870,   0.04653,   0.02472,   0.00437,  -0.05816,  -0.03780,  -0.03926,  -0.02763,   0.01600,   0.01309,  -0.02035,  -0.02035,  -0.00727,  -0.05525,  -0.01745,   0.01309,  -0.02763,   0.01745,   0.02036,   0.02908,  -0.02763,  -0.00436,   0.04363,   0.02327,   0.04944,   0.04653,  -0.00581,  -0.00145,  -0.05962,  -0.00727,   0.00437,  -0.03199,  -0.01599,   0.08579
  -0.01890,   0.07125,  -0.01163,   0.00582,   0.00437,  -0.01308,  -0.00436,   0.03490,  -0.04217,  -0.00581,   0.02472,  -0.00872,   0.01891,   0.06398,  -0.01018,   0.01018,   0.01745,   0.01309,  -0.05525,   0.00582,   0.00437,  -0.03053,  -0.07706,   0.00291,   0.01891,  -0.01599,   0.03636,  -0.02908,  -0.00581,  -0.06107,   0.00582,   0.06253,  -0.06398,   0.02036,  -0.03926,   0.03490,  -0.01308,  -0.01599,  -0.06689,  -0.00581,  -0.01599,   0.02327,   0.00437,  -0.07852,   0.03054,  -0.00291,   0.00582,   0.04508,   0.03636,  -0.02326,   0.01454,  -0.07125,  -0.02181,   0.01600,  -0.00436,   0.03345,   0.04799,  -0.01454,  -0.00581,  -0.00727,   0.00582,   0.00291,   0.01745,  -0.00436,  -0.02181,  -0.02181,  -0.04944,   0.03781,   0.00437,  -0.02617,  -0.04653,  -0.02472,   0.02472,  -0.04653,   0.01891,  -0.01308,   0.01018,   0.04944,  -0.04071,   0.02763,   0.04799,   0.02908,  -0.00727,  -0.06834,  -0.00145,  -0.03344,  -0.03635,   0.00727,  -0.01018,   0.02327,   0.00873,   0.00582,  -0.05380,  -0.05962,   0.00146,   0.00291,  -0.04653,   0.02472,  -0.05671,   0.01745,   0.01309,  -0.01890,  -0.02908,  -0.00436,  -0.02035,   0.03490,  -0.03635,  -0.03199,  -0.05525,   0.00291,   0.00582,   0.07998,   0.01891,   0.00291,   0.03926,   0.04508,  -0.04653,  -0.04217,   0.01600,  -0.01599,  -0.08143,  -0.00581,   0.04799,  -0.06979,   0.04363,  -0.05089,   0.03781,   0.04653
  -0.04217,   0.03490,   0.03054,   0.00146,   0.00582,  -0.05234,   0.06689,   0.07416,   0.02472,  -0.04217,   0.03926,  -0.03344,  -0.01454,   0.01891,  -0.06689,   0.03199,  -0.05380,   0.04944,  -0.04362,   0.02036,   0.07416,  -0.01745,   0.00000,   0.01018,  -0.05525,   0.00146,  -0.05525,   0.00582,  -0.01018,  -0.04798,   0.00000,  -0.02181,  -0.00872,   0.00000,  -0.06107,   0.02181,   0.04944,  -0.05671,   0.06980,  -0.06107,  -0.04362,   0.05526,  -0.04071,   0.02763,  -0.00145,   0.06544,   0.04799,   0.06398,   0.04363,  -0.00581,   0.01309,  -0.00291,   0.00000,   0.04072,   0.02472,  -0.03053,   0.01745,  -0.03926,   0.04944,  -0.02181,  -0.03490,   0.02472,  -0.01018,  -0.01454,   0.02181,   0.03054,   0.05526,  -0.03780,  -0.01890,   0.01454,   0.01600,   0.01164,   0.01891,   0.04217,   0.00582,   0.00873,  -0.01163,   0.10470,   0.02763,   0.00727,  -0.01890,  -0.06979,  -0.01308,   0.00873,   0.03781,   0.01745,  -0.00872,  -0.05816,   0.02036,  -0.00291,  -0.02326,  -0.01018,  -0.01163,   0.00437,  -0.08288,  -0.07997,  -0.01454,   0.00146,  -0.02181,  -0.03926,   0.02618,  -0.02035,   0.01600,   0.03345,   0.01164,   0.04508,   0.04653,   0.03781,   0.00437,   0.03636,  -0.05089,  -0.02908,  -0.07416,   0.00291,   0.02036,   0.04217,   0.03781,  -0.00872,   0.00291,  -0.00581,  -0.00727,   0.00727,  -0.06979,   0.00146,   0.00727,   0.01018,   0.04217,   0.00437
  -0.04944,  -0.04071,   0.04363,  -0.04653,  -0.04071,   0.06398,  -0.05234,   0.04072,   0.07271,   0.08434,  -0.00727,  -0.04944,   0.03199,   0.01309,  -0.00872,   0.02181,  -0.05525,  -0.05380,  -0.01599,   0.02472,  -0.01599,  -0.04798,  -0.00145,  -0.06543,   0.01600,   0.00291,  -0.08724,  -0.02326,  -0.01163,   0.05526,  -0.01018,   0.02908,  -0.02326,  -0.03199,  -0.01308,  -0.00436,   0.02908,  -0.01163,  -0.00291,  -0.06107,   0.00582,  -0.09451,   0.00873,  -0.03199,  -0.01890,  -0.05380,  -0.00291,   0.03636,   0.09888,   0.00727,   0.02036,   0.02181,   0.02327,   0.01454,   0.00437,   0.00146,   0.04217,  -0.04653,   0.01745,   0.00437,  -0.04362,  -0.00581,   0.04072,   0.03199,  -0.11051,   0.00291,  -0.03780,   0.01309,   0.00873,   0.01745,  -0.02908,   0.06835,  -0.02472,   0.01745,   0.04072,   0.03636,   0.03490,  -0.01745,  -0.05234,  -0.02472,   0.03199,   0.02036,   0.02472,  -0.01599,   0.03781,   0.01600,  -0.01890,   0.02181,  -0.00145,   0.05235,  -0.03344,   0.03636,  -0.03635,  -0.02763,  -0.00291,  -0.01745,  -0.05962,  -0.01599,   0.02618,   0.01454,   0.03926,   0.00291,  -0.07416,  -0.01599,  -0.03053,   0.03199,   0.04217,   0.00000,  -0.03780,   0.02036,   0.01309,  -0.03635,  -0.00436,   0.00000,  -0.01454,   0.02472,   0.00582,   0.06689,   0.04363,   0.03054,   0.02618,   0.01309,   0.00291,  -0.03490,   0.04508,  -0.03635,  -0.00581,   0.01600
  -0.02472,   0.02036,  -0.02472,   0.04072,  -0.02617,  -0.01308,   0.04653,  -0.01018,   0.00291,  -0.05234,  -0.03926,   0.00146,  -0.05525,  -0.01454,   0.05235,  -0.03926,  -0.04362,  -0.03635,   0.00873,  -0.03344,   0.06108,  -0.02763,   0.00291,  -0.00436,   0.00146,  -0.03635,   0.08434,  -0.03053,   0.00146,  -0.02617,   0.03199,   0.03199,   0.03199,  -0.02181,  -0.02035,  -0.01745,  -0.04071,  -0.07852,   0.02036,  -0.00872,   0.01164,  -0.00291,  -0.02326,  -0.00291,   0.00146,  -0.00145,   0.03781,  -0.10033,  -0.03926,  -0.03199,   0.03345,  -0.00581,   0.00000,   0.00873,  -0.01454,   0.01309,  -0.01890,   0.01309,   0.01745,   0.04799,  -0.05671,   0.05090,  -0.01018,  -0.02617,  -0.01599,   0.07852,   0.02036,  -0.01018,   0.05671,   0.00727,  -0.01454,   0.06689,   0.03054,   0.03199,   0.03345,   0.01454,   0.04653,  -0.00145,  -0.01745,  -0.02472,  -0.05234,   0.03490,  -0.03926,   0.02327,  -0.06979,   0.05817,   0.00146,  -0.07561,   0.02618,  -0.03053,  -0.01599,   0.03199,  -0.03635,   0.00000,   0.01891,  -0.00872,  -0.03053,  -0.03199,  -0.04071,  -0.00436,   0.02036,  -0.06252,   0.00291,   0.00582,  -0.03780,  -0.04507,   0.04653,   0.00146,  -0.08143,   0.00291,   0.06544,  -0.02472,  -0.02472,  -0.03490,  -0.08143,  -0.04653,  -0.04798,   0.03199,  -0.09451,   0.03054,   0.02181,  -0.01163,   0.01454,  -0.03199,  -0.00145,   0.03199,   0.03490,   0.00582
  -0.00436,   0.09161,  -0.00581,  -0.00581,  -0.03780,  -0.02763,  -0.00145,  -0.04653,  -0.04653,  -0.00436,   0.01309,  -0.01454,   0.02327,   0.04799,  -0.02035,  -0.02763,  -0.01308,  -0.01599,  -0.03053,   0.01309,  -0.09161,  -0.02326,   0.01891,   0.01309,  -0.01599,  -0.01599,   0.05671,  -0.01018,   0.01164,   0.03199,   0.03199,   0.00582,   0.02472,   0.00582,   0.00873,  -0.01018,   0.00873,   0.01891,   0.00291,   0.04653,  -0.02035,   0.01164,  -0.02617,   0.04944,   0.02036,   0.00873,   0.00873,  -0.02472,   0.00000,  -0.00872,   0.09016,   0.00000,  -0.03344,   0.07998,   0.04799,  -0.00581,   0.05090,  -0.06252,  -0.05525,   0.04072,  -0.03199,   0.00291,  -0.01454,  -0.03344,   0.00873,  -0.04944,   0.06108,  -0.02326,   0.01600,  -0.00581,   0.01600,  -0.00581,  -0.00145,   0.02327,   0.01891,   0.02908,   0.02763,   0.02181,  -0.00291,  -0.02472,   0.00291,   0.03054,  -0.03635,  -0.04071,  -0.02326,   0.06108,  -0.01454,   0.00146,  -0.02035,   0.00291,  -0.05525,   0.01454,   0.01891,   0.01309,  -0.02181,   0.01018,  -0.02181,  -0.02181,   0.02763,   0.01454,  -0.03780,   0.03636,  -0.04217,   0.04217,  -0.02908,  -0.04944,   0.00582,   0.01164,   0.01454,  -0.02181,  -0.00145,  -0.03780,   0.02181,   0.00582,   0.01018,   0.01891,   0.04944,   0.02327,   0.03781,   0.04653,  -0.03490,  -0.00581,   0.01164,  -0.07706,  -0.01890,   0.02036,   0.00437,   0.01164
   0.00291,   0.03490,   0.00000,   0.01600,   0.01891,  -0.00436,   0.00727,  -0.03344,   0.00727,  -0.00727,  -0.06107,   0.01164,   0.05090,  -0.06252,  -0.01163,   0.07852,   0.01309,  -0.02326,   0.09016,  -0.00727,  -0.00727,   0.05817,  -0.00872,  -0.01454,   0.00873,   0.00727,   0.04217,  -0.03199,  -0.01599,   0.06544,   0.05671,  -0.07270,  -0.01018,  -0.02035,   0.00437,  -0.03635,  -0.01454,   0.01600,  -0.02472,  -0.01890,   0.00437,   0.04217,  -0.03490,   0.00727,  -0.02908,  -0.00145,   0.00582,   0.03781,   0.01018,   0.04799,  -0.05234,  -0.00727,  -0.00872,   0.00437,   0.02327,   0.05817,   0.01164,  -0.07852,   0.00873,   0.01018,  -0.02908,  -0.06107,   0.02763,   0.04508,  -0.00581,  -0.03926,   0.00873,  -0.08434,   0.02763,   0.07271,  -0.00581,  -0.02617,  -0.03490,  -0.00872,   0.04363,  -0.04217,   0.01164,   0.09161,  -0.02763,   0.02763,   0.00291,   0.00582,   0.03054,  -0.02035,  -0.06834,  -0.06834,   0.02472,   0.03345,  -0.05234,  -0.03490,   0.02908,  -0.04362,   0.00291,   0.06544,  -0.01018,  -0.02908,  -0.01308,   0.07125,   0.06108,  -0.02472,  -0.07852,   0.04363,  -0.05671,   0.01891,   0.03345,  -0.03344,   0.00146,   0.05380,  -0.02617,  -0.02326,  -0.07706,  -0.03490,  -0.05380,  -0.00436,   0.00727,   0.00727,   0.06835,   0.03926,  -0.04362,   0.01745,  -0.03780,   0.02327,   0.00000,  -0.01454,   0.06980,  -0.00291,  -0.04362,  -0.07125
   0.01454,   0.01600,  -0.01745,   0.02908,   0.03490,  -0.03344,   0.04072,  -0.04944,  -0.04507,   0.01454,   0.05235,  -0.01454,  -0.05816,  -0.03490,  -0.01745,  -0.01308,   0.00582,   0.02036,  -0.05525,  -0.02326,  -0.01163,  -0.04217,   0.02036,  -0.07852,  -0.06107,   0.00727,   0.03490,  -0.06107,   0.00000,   0.00437,   0.07707,   0.00582,   0.01164,   0.02763,  -0.02326,   0.02181,  -0.02617,   0.02327,   0.01309,   0.06108,   0.00146,  -0.00872,   0.00582,   0.01454,  -0.05089,   0.01454,  -0.02035,   0.02908,   0.04217,  -0.01745,   0.03490,  -0.01890,   0.01454,   0.02618,  -0.09451,  -0.04362,  -0.03053,  -0.05380,  -0.01308,   0.04217,   0.01891,  -0.01018,  -0.04944,   0.01454,   0.04944,   0.01600,  -0.02763,   0.03926,  -0.01890,  -0.01745,  -0.02908,  -0.03053,   0.03781,  -0.01599,   0.02618,  -0.03926,   0.04072,  -0.00145,  -0.04071,   0.05526,  -0.01018,   0.03199,  -0.04653,   0.02472,  -0.00436,   0.03199,  -0.02908,  -0.04507,   0.04363,   0.05671,  -0.00727,   0.04072,  -0.00727,  -0.01163,   0.04944,  -0.01745,   0.05962,   0.02618,  -0.02181,  -0.00291,   0.03926,  -0.01163,  -0.07416,  -0.05380,  -0.09015,   0.04508,  -0.00436,  -0.00872,  -0.01163,   0.00146,   0.07416,  -0.02181,   0.01745,   0.01600,   0.03926,  -0.02763,  -0.00436,   0.00000,  -0.02908,   0.06835,   0.02908,   0.04072,  -0.04944,   0.01745,   0.00727,  -0.06252,  -0.00727,   0.06108
  -0.01745,   0.05817,  -0.06107,  -0.03780,   0.00582,  -0.04944,   0.05235,   0.03490,   0.00437,   0.03054,   0.02908,   0.00437,  -0.02617,  -0.04071,  -0.01599,   0.09307,  -0.00581,  -0.00291,   0.01454,   0.08143,   0.01309,  -0.05089,   0.00582,   0.02181,   0.00873,  -0.01599,   0.00146,  -0.06107,   0.02181,   0.00000,   0.05235,  -0.01308,   0.07416,   0.06108,  -0.05089,  -0.02908,  -0.00145,  -0.03926,   0.07125,  -0.00436,   0.00873,  -0.01890,  -0.00145,  -0.01599,  -0.01745,  -0.03926,   0.01600,  -0.03344,  -0.00145,  -0.01599,  -0.01890,  -0.03926,  -0.03490,   0.01745,   0.01454,   0.01745,  -0.08579,   0.05526,  -0.02326,  -0.00727,  -0.00581,  -0.07125,   0.04363,   0.00873,  -0.05671,  -0.06398,  -0.04362,  -0.00581,  -0.06107,  -0.00872,  -0.01599,  -0.01745,   0.02036,  -0.00291,  -0.02035,   0.06398,   0.02036,   0.01018,   0.02763,   0.05526,   0.00873,  -0.02763,   0.03926,  -0.06398,  -0.01308,  -0.01599,   0.04217,   0.00291,  -0.04507,   0.00146,  -0.03053,   0.01164,  -0.01018,  -0.03344,  -0.04362,  -0.01018,   0.00291,  -0.03635,  -0.00436,  -0.03199,   0.04799,   0.04072,  -0.02617,  -0.03344,   0.02618,   0.03054,  -0.04071,   0.07271,  -0.01308,  -0.05525,  -0.04944,  -0.06107,  -0.02617,  -0.00872,  -0.01454,  -0.04798,  -0.03199,   0.07416,  -0.01890,  -0.01454,   0.02036,   0.03781,  -0.08579,   0.01164,  -0.02181,   0.00291,  -0.05380,  -0.06398
  -0.01890,  -0.01454,  -0.01599,  -0.02908,   0.05817,  -0.06979,   0.00000,   0.01454,  -0.02908,  -0.05671,   0.03345,  -0.04507,   0.04072,  -0.06543,   0.03490,  -0.00872,   0.03926,  -0.03344,  -0.00436,   0.02763,  -0.02763,  -0.08579,   0.00582,  -0.00581,   0.01018,   0.01745,  -0.01163,   0.01745,   0.03490,  -0.07270,  -0.03926,  -0.02035,  -0.02763,  -0.02763,   0.03054,  -0.02472,  -0.01163,  -0.01454,  -0.02763,  -0.05380,   0.06689,   0.04944,  -0.08579,  -0.00291,  -0.04944,  -0.04071,   0.04653,  -0.00145,  -0.05380,  -0.01890,   0.01745,  -0.00436,   0.06689,   0.02908,  -0.04653,   0.00727,   0.03054,   0.00000,  -0.04217,   0.04653,  -0.00436,  -0.01163,  -0.00291,   0.02472,  -0.01308,   0.00291,  -0.02617,   0.04653,   0.00437,  -0.02326,   0.00873,  -0.06252,  -0.02763,  -0.07706,  -0.00145,  -0.06107,   0.05090,   0.01018,  -0.05962,   0.05526,   0.00727,   0.00582,  -0.08724,  -0.01163,  -0.04217,   0.01745,   0.01309,  -0.05671,  -0.04653,   0.00146,   0.03636,   0.04944,  -0.00436,  -0.01890,  -0.04653,  -0.03926,  -0.05380,  -0.01745,  -0.00581,  -0.04071,  -0.02181,  -0.05089,   0.04072,  -0.00581,   0.03199,   0.02327,  -0.01454,   0.01454,   0.00873,   0.00291,   0.01018,  -0.01745,   0.04363,   0.00582,   0.03054,  -0.03344,   0.06544,   0.00437,  -0.03053,  -0.05962,  -0.02326,  -0.02326,   0.02763,  -0.01599,  -0.06834,   0.00146,  -0.00436,  -0.00727
   0.03926,  -0.03053,   0.05671,  -0.02617,  -0.01163,   0.01018,  -0.05962,   0.04217,  -0.01890,  -0.01454,   0.04799,  -0.01745,   0.03781,  -0.06398,   0.04363,   0.03490,  -0.06252,   0.06253,  -0.03490,  -0.01890,   0.03636,   0.04653,  -0.01308,   0.02036,   0.01164,  -0.07270,   0.07707,  -0.01308,  -0.00145,  -0.03053,   0.01309,   0.00146,  -0.05816,  -0.00145,  -0.01163,  -0.05380,  -0.03344,  -0.05962,   0.04072,  -0.03635,  -0.04653,   0.01600,   0.01745,   0.05090,  -0.01163,  -0.02763,  -0.02908,  -0.03344,   0.01309,  -0.01599,  -0.02035,  -0.01308,   0.02181,  -0.04217,  -0.07706,  -0.01018,  -0.00436,   0.02181,   0.00437,  -0.03199,   0.00146,   0.09597,  -0.04217,   0.00291,  -0.03344,   0.03636,  -0.01308,   0.02618,  -0.02035,   0.03345,  -0.02908,  -0.01454,  -0.03780,   0.07416,  -0.06398,   0.06398,  -0.07561,  -0.00436,  -0.01454,  -0.06543,   0.01018,  -0.02326,   0.06253,   0.00000,  -0.05089,  -0.03053,  -0.02763,   0.01309,   0.06398,   0.00873,  -0.07706,   0.01745,   0.03781,  -0.01163,   0.01891,  -0.03490,  -0.00727,   0.00727,   0.02181,   0.04363,  -0.05089,  -0.00291,   0.01018,  -0.02326,   0.01164,   0.04653,   0.03636,  -0.01163,  -0.01454,   0.02327,   0.00582,  -0.01745,  -0.01599,   0.04653,  -0.08724,  -0.00145,  -0.00727,  -0.03344,  -0.08870,  -0.00291,  -0.02908,   0.06398,  -0.02472,  -0.11051,  -0.01308,   0.05526,  -0.06979,  -0.04944
   0.05235,  -0.00727,   0.07416,  -0.01163,  -0.06252,   0.07998,  -0.02472,   0.00437,   0.00146,  -0.01308,  -0.02763,  -0.04653,   0.04799,  -0.01308,   0.07125,   0.07125,  -0.03780,   0.01164,  -0.01890,  -0.00581,  -0.05380,  -0.01308,   0.03781,   0.02036,   0.02036,   0.04799,   0.00000,   0.02618,   0.00291,   0.01309,  -0.02181,  -0.03635,  -0.02035,  -0.02908,  -0.01163,   0.01891,   0.04653,   0.01891,  -0.02617,  -0.00436,   0.01454,  -0.01454,  -0.02763,  -0.03490,  -0.00436,   0.02181,   0.02036,  -0.02472,  -0.01890,  -0.00727,   0.05526,   0.00291,  -0.02326,   0.00873,  -0.00291,   0.04653,   0.03345,   0.02181,   0.02908,  -0.01454,  -0.05525,   0.02763,   0.02327,   0.01600,  -0.04653,   0.03781,  -0.04507,  -0.04944,   0.01018,   0.06253,  -0.00872,   0.01309,  -0.04071,   0.00727,   0.04072,  -0.02326,  -0.03199,   0.10034,  -0.03490,   0.01891,  -0.02472,  -0.02472,   0.02327,  -0.04798,  -0.05816,   0.04072,   0.02472,  -0.01890,   0.07125,   0.03054,  -0.02763,  -0.00145,  -0.08579,   0.06398,   0.06544,  -0.01890,   0.05962,  -0.03780,  -0.01454,   0.01745,   0.03781,   0.02618,  -0.02035,  -0.03926,  -0.01163,   0.00582,  -0.02326,   0.07707,   0.01018,  -0.01890,  -0.01454,   0.00291,  -0.09888,  -0.02035,  -0.04217,  -0.00291,   0.03199,   0.02327,  -0.00436,  -0.01745,  -0.00727,   0.06689,  -0.01599,   0.04799,  -0.04217,  -0.04653,   0.09452,   0.00582
   0.02618,  -0.05816,   0.07852,   0.06835,   0.01309,  -0.03490,  -0.07997,  -0.02908,   0.03636,  -0.00291,   0.01454,   0.00000,   0.01891,  -0.03199,   0.01309,  -0.01745,   0.05380,  -0.00581,  -0.07125,   0.00291,   0.02181,  -0.02617,  -0.03199,  -0.05380,  -0.05962,  -0.00436,  -0.00436,  -0.03053,  -0.03199,  -0.03926,  -0.02326,   0.00000,  -0.04798,   0.02181,   0.00582,   0.00437,   0.02036,  -0.02181,  -0.06689,  -0.00727,   0.05671,  -0.03344,   0.00146,  -0.02908,   0.03345,   0.01018,   0.02036,  -0.00291,   0.05090,  -0.01308,   0.04944,   0.03926,   0.02181,  -0.01745,   0.01745,   0.00000,   0.01745,  -0.02326,  -0.06689,  -0.07852,   0.05090,  -0.01454,  -0.00872,   0.02763,  -0.05525,   0.00291,   0.02036,   0.15123,  -0.02472,   0.02472,  -0.00581,  -0.03635,   0.02472,  -0.01308,   0.03781,  -0.00145,  -0.04944,  -0.01745,  -0.04798,  -0.02763,   0.03490,  -0.00872,  -0.05962,   0.04653,  -0.01018,   0.05962,  -0.00581,  -0.08724,  -0.01745,  -0.01890,   0.03490,  -0.02035,  -0.01018,  -0.05234,   0.03490,   0.04072,   0.01891,  -0.00145,  -0.05816,  -0.08579,   0.06544,   0.06689,  -0.01454,   0.06980,   0.01454,   0.05380,  -0.04798,  -0.00872,  -0.03490,  -0.04798,   0.00727,  -0.05089,  -0.03926,   0.03781,  -0.01745,  -0.01890,  -0.04071,  -0.02763,  -0.04798,  -0.02035,   0.06398,  -0.00291,   0.04363,  -0.06543,  -0.04507,   0.00437,   0.00582,  -0.00145
  -0.00291,   0.03199,   0.00727,   0.01600,  -0.04071,   0.04072,   0.00000,  -0.04217,  -0.01745,   0.08579,   0.03199,  -0.02035,   0.02327,   0.06253,  -0.02472,   0.01309,  -0.01163,   0.03054,  -0.00727,   0.00437,   0.02036,   0.06108,  -0.00291,  -0.00291,   0.06108,   0.01891,  -0.01018,   0.03636,  -0.07270,  -0.03926,   0.03199,   0.02036,  -0.01308,   0.02181,   0.02181,   0.00291,   0.01454,  -0.04362,  -0.00872,   0.08579,   0.03490,   0.00146,  -0.00872,  -0.02035,   0.00291,  -0.00291,  -0.03344,   0.01745,   0.03054,  -0.01599,   0.04217,   0.00000,  -0.02472,   0.01164,  -0.00581,   0.01600,  -0.02763,  -0.07270,  -0.00436,  -0.03053,   0.03926,  -0.02472,  -0.00727,   0.00000,   0.00437,   0.05962,  -0.02035,  -0.05234,   0.05817,  -0.00727,  -0.01454,   0.00437,  -0.01018,  -0.01163,  -0.02181,   0.01891,  -0.03053,  -0.07270,  -0.01745,   0.09161,   0.01891,  -0.05671,  -0.00872,   0.01454,  -0.05089,   0.06544,  -0.01454,  -0.00145,  -0.03635,  -0.03490,   0.05380,   0.10615,   0.01891,   0.03345,   0.00437,  -0.01890,   0.00873,  -0.03780,  -0.01745,   0.00000,   0.01164,  -0.05234,   0.01164,   0.03054,  -0.05816,   0.01600,   0.06108,   0.00873,   0.09161,   0.05526,   0.02327,   0.02472,  -0.03344,  -0.01308,  -0.03780,  -0.02763,   0.00873,   0.02181,  -0.03199,   0.01891,  -0.03926,  -0.02035,  -0.08579,  -0.01163,  -0.02035,  -0.03780,  -0.08579,   0.05235
   0.01454,   0.03926,  -0.07706,   0.00291,   0.05962,   0.02763,   0.04944,   0.01600,  -0.04362,  -0.04653,   0.01745,  -0.03780,  -0.07125,  -0.00581,  -0.05962,   0.00000,   0.08289,   0.03490,   0.04217,  -0.03344,  -0.04507,   0.01018,   0.01309,  -0.05089,   0.01018,   0.00873,  -0.04071,  -0.00291,   0.03636,  -0.02908,   0.00146,   0.02472,  -0.01308,  -0.03344,  -0.03199,   0.08725,   0.00582,  -0.00436,  -0.03926,  -0.06107,   0.00873,  -0.00145,   0.08143,  -0.00145,  -0.04362,   0.06253,  -0.01163,  -0.01890,   0.00582,  -0.03053,   0.03490,  -0.02326,  -0.00581,  -0.02326,   0.08143,  -0.00727,  -0.01890,   0.00437,  -0.00291,   0.02472,   0.04799,  -0.01454,   0.00000,  -0.04217,  -0.02763,   0.02908,  -0.02908,   0.00146,   0.07707,  -0.03926,  -0.01745,   0.00291,  -0.01018,   0.04944,   0.05671,   0.07271,   0.03636,  -0.06689,  -0.03926,  -0.03780,  -0.02763,   0.05962,  -0.02617,  -0.03635,  -0.00436,  -0.01890,   0.00437,  -0.06543,   0.02908,   0.04217,   0.02908,   0.01018,   0.00727,   0.00437,  -0.01308,  -0.00872,  -0.02472,   0.01891,  -0.00436,   0.00000,   0.01745,   0.00000,  -0.03926,   0.05671,  -0.01745,   0.00873,   0.01891,   0.03345,   0.06108,   0.03199,  -0.02617,  -0.05089,  -0.01599,   0.00727,  -0.01308,  -0.00581,   0.02327,   0.00582,  -0.01890,  -0.01890,  -0.05525,  -0.01745,  -0.01163,  -0.03053,  -0.00727,  -0.03926,   0.01745,  -0.00872
  -0.01163,  -0.07416,  -0.01745,   0.00437,  -0.00436,  -0.00872,  -0.02035,  -0.03344,  -0.02617,  -0.00291,   0.00582,  -0.06252,   0.03345,  -0.01454,   0.01600,   0.03199,  -0.03490,  -0.01308,  -0.04653,  -0.02908,  -0.03344,   0.02327,  -0.00145,   0.09888,  -0.02763,   0.00146,   0.04072,  -0.04217,  -0.06543,  -0.01745,  -0.00727,   0.00727,   0.00582,   0.03199,   0.03054,  -0.03780,  -0.01599,   0.01018,   0.00291,   0.02181,  -0.03926,   0.02327,  -0.05962,  -0.03926,   0.02618,   0.03636,   0.05526,   0.00146,  -0.00291,  -0.05816,  -0.04798,  -0.07706,  -0.01599,  -0.02326,   0.00437,  -0.00291,   0.05526,   0.07416,   0.00873,   0.00437,   0.01164,   0.02327,  -0.01599,  -0.05089,  -0.01308,   0.05817,  -0.01308,   0.01600,  -0.07270,  -0.05234,  -0.05962,   0.04508,   0.02181,  -0.03053,   0.05817,   0.03636,   0.01309,   0.00146,  -0.01018,   0.02181,  -0.02617,   0.01164,  -0.01018,   0.00727,  -0.01018,  -0.02181,  -0.00145,   0.00727,   0.02763,   0.02618,  -0.01599,  -0.01599,   0.04799,   0.00000,  -0.01163,   0.01018,   0.03199,  -0.02181,  -0.01890,   0.00146,  -0.08870,   0.00291,  -0.04798,  -0.02181,  -0.05380,  -0.00436,   0.04217,  -0.01308,   0.03345,  -0.00291,   0.06835,   0.05671,   0.03926,  -0.01745,  -0.03926,   0.00291,   0.07707,   0.05962,  -0.03199,  -0.01308,   0.01600,  -0.00145,   0.02036,  -0.05816,  -0.00145,   0.00437,   0.01018,   0.02036
  -0.10469,  -0.06252,  -0.02763,   0.00437,   0.02181,  -0.04071,   0.04799,  -0.04507,   0.01454,  -0.02181,  -0.07852,   0.03490,   0.00437,  -0.00581,   0.06108,  -0.04362,   0.02036,  -0.05525,   0.01164,  -0.03926,  -0.00436,  -0.06252,  -0.00145,   0.00582,   0.01018,   0.01018,   0.00146,   0.04944,  -0.00291,   0.01745,  -0.03199,   0.00437,   0.07416,   0.02472,  -0.00145,  -0.02035,   0.00582,  -0.04217,  -0.02908,   0.00291,  -0.02181,  -0.03344,  -0.05525,   0.03345,  -0.00291,   0.02908,   0.02036,   0.00000,  -0.02617,   0.02763,   0.02327,   0.03054,  -0.04653,  -0.01018,  -0.05089,  -0.08724,  -0.01018,  -0.05380,  -0.01599,  -0.06543,   0.01745,  -0.02181,   0.00582,   0.00146,   0.04799,  -0.00581,  -0.00872,  -0.01454,   0.05380,   0.01018,  -0.04507,  -0.03344,  -0.04944,   0.04072,  -0.02763,  -0.01308,   0.00291,  -0.05380,  -0.00727,  -0.01454,  -0.00727,   0.06980,   0.02181,   0.00000,   0.01745,   0.01600,   0.02618,   0.02618,  -0.05089,  -0.02908,  -0.00436,  -0.05380,   0.03345,  -0.00727,  -0.01018,  -0.01745,   0.02472,  -0.03053,   0.00146,   0.03926,  -0.02326,  -0.08724,  -0.04217,   0.06398,  -0.02326,   0.02036,  -0.03053,  -0.03199,  -0.01890,  -0.00581,  -0.05525,  -0.02617,   0.06689,  -0.03053,   0.02908,  -0.04944,   0.01891,   0.00873,   0.03345,   0.01454,  -0.02035,  -0.05671,  -0.02763,   0.00873,   0.06835,  -0.06107,  -0.03199,   0.09597
  -0.02181,  -0.00581,  -0.04071,   0.08725,   0.07125,   0.00727,   0.05962,  -0.01599,  -0.00145,   0.06689,  -0.00581,   0.00146,  -0.03490,  -0.05962,  -0.07270,   0.00291,   0.01018,  -0.01745,  -0.02326,   0.00291,   0.06980,   0.01309,  -0.02908,  -0.02472,   0.05962,  -0.03344,  -0.00872,   0.08579,   0.00727,  -0.04362,  -0.00872,  -0.00145,  -0.02472,   0.04799,  -0.03199,   0.00873,  -0.01018,   0.03781,  -0.01308,   0.08579,  -0.01745,   0.00146,  -0.01745,   0.00291,   0.00582,   0.08143,  -0.01599,   0.02618,   0.00727,   0.07125,   0.01600,  -0.03344,  -0.00872,  -0.01745,  -0.00727,  -0.01599,  -0.03490,  -0.01163,  -0.04653,  -0.03053,   0.05090,  -0.01745,   0.01164,   0.02036,  -0.00581,  -0.01163,  -0.01308,  -0.00727,  -0.05089,   0.02472,  -0.06398,   0.00146,   0.07852,  -0.02181,  -0.03199,   0.00000,   0.01018,  -0.02035,   0.01745,  -0.10615,  -0.02035,   0.00582,   0.00582,  -0.07852,   0.05817,  -0.02472,  -0.03053,  -0.00145,  -0.00291,   0.06689,  -0.02617,  -0.00581,   0.03199,  -0.01163,  -0.05816,  -0.02617,  -0.05671,  -0.02181,   0.00873,   0.05671,   0.00291,  -0.01454,   0.06108,   0.05380,  -0.02472,   0.01454,  -0.00436,   0.03490,   0.03636,  -0.01308,   0.01164,   0.02036,   0.03199,   0.06108,  -0.00145,  -0.04798,   0.03926,   0.05671,   0.02763,   0.02908,  -0.07561,  -0.07270,  -0.01308,  -0.01163,   0.02327,   0.04653,   0.11924,  -0.04944
  -0.04507,   0.02036,  -0.04071,  -0.00727,  -0.05962,   0.01891,  -0.04944,   0.03345,  -0.09161,   0.05235,  -0.05380,   0.06398,  -0.01599,   0.06253,  -0.06107,   0.04217,   0.03781,   0.01891,  -0.07416,  -0.00581,  -0.00727,   0.05380,   0.02763,   0.00146,   0.00146,   0.03926,  -0.00436,  -0.05525,   0.04653,  -0.01308,   0.06835,  -0.05234,   0.00291,  -0.00727,   0.00146,  -0.01018,   0.02181,   0.01018,   0.03490,   0.00437,  -0.02617,   0.07852,   0.02327,  -0.02035,  -0.03344,  -0.02326,  -0.01163,   0.03490,  -0.02181,   0.03926,  -0.06689,  -0.07561,   0.04653,   0.03054,   0.00873,  -0.00581,   0.03781,   0.00000,   0.01454,  -0.00581,  -0.02908,  -0.00581,   0.00000,  -0.03199,  -0.05816,   0.01745,  -0.05234,  -0.01308,   0.01454,  -0.02326,   0.02763,  -0.00145,   0.00582,  -0.06252,   0.01600,   0.01018,   0.01309,  -0.01308,  -0.05525,   0.00727,   0.01164,   0.04653,  -0.04507,   0.03636,  -0.02617,  -0.06979,  -0.02617,   0.06398,  -0.00727,   0.04653,   0.01164,  -0.00581,  -0.06689,  -0.05671,  -0.01163,   0.02327,   0.01745,   0.10034,  -0.04507,   0.04072,   0.04799,   0.06398,   0.00000,  -0.01018,  -0.05671,   0.01600,   0.00437,  -0.02181,   0.00582,   0.05671,   0.00146,   0.02036,  -0.01163,   0.06108,  -0.03926,  -0.04653,  -0.04362,   0.03636,  -0.06107,  -0.03926,   0.03054,   0.01164,   0.02908,  -0.00436,   0.00291,   0.06544,  -0.00727,   0.00000
   0.02327,  -0.01163,  -0.02181,   0.00437,  -0.00581,   0.00582,  -0.01308,  -0.00581,   0.01891,   0.03199,  -0.06252,   0.00727,   0.05380,  -0.03344,   0.01164,   0.01454,   0.02327,   0.03054,  -0.02908,   0.02036,  -0.01018,   0.01600,  -0.04071,  -0.04507,  -0.02617,   0.01600,   0.06108,  -0.03926,   0.03345,  -0.04798,   0.02036,  -0.01308,  -0.05671,   0.01891,  -0.05671,   0.04799,   0.01891,  -0.06979,   0.03199,   0.02618,  -0.06107,  -0.02763,   0.02472,   0.00727,  -0.00436,   0.06108,  -0.01890,  -0.00727,   0.04508,  -0.01308,   0.06544,  -0.02763,  -0.05234,  -0.03199,  -0.02617,   0.06253,   0.02181,   0.02908,   0.01454,  -0.01890,   0.03490,   0.03781,  -0.01163,  -0.01890,  -0.01018,   0.00291,   0.03781,  -0.01890,  -0.03199,   0.04072,   0.00146,   0.00146,   0.02908,   0.00873,   0.01454,   0.02763,   0.04072,  -0.03344,  -0.01890,  -0.01308,   0.00582,  -0.02326,   0.07271,   0.03054,   0.00000,   0.02327,  -0.05671,  -0.04944,  -0.03780,   0.00291,   0.02763,  -0.04653,  -0.03199,  -0.01745,  -0.00291,   0.03054,   0.02327,   0.03054,   0.00146,   0.00291,   0.03345,  -0.02908,  -0.00727,  -0.05671,   0.02908,  -0.04217,   0.03490,  -0.02035,  -0.04653,   0.02181,   0.02472,   0.01600,  -0.02326,   0.02036,  -0.05089,  -0.00872,   0.01164,   0.01164,   0.10761,   0.05090,   0.02763,  -0.04653,  -0.00872,   0.02036,   0.02327,   0.06689,   0.06108,   0.05526
  -0.05525,   0.00727,   0.06108,   0.01745,  -0.09888,  -0.03344,  -0.02472,   0.00000,   0.01600,   0.05235,   0.01164,  -0.02181,   0.03781,  -0.00581,   0.05817,  -0.01308,   0.01018,   0.03926,  -0.04217,  -0.03344,  -0.04362,  -0.03199,  -0.03053,   0.01018,  -0.06252,   0.03054,  -0.01454,  -0.01308,   0.02181,  -0.02763,  -0.05089,   0.09743,  -0.05089,  -0.04798,   0.01454,  -0.03053,  -0.05816,  -0.03780,  -0.05380,  -0.07270,  -0.00872,  -0.03199,  -0.00145,  -0.05234,   0.00727,   0.03054,  -0.01745,   0.00000,  -0.02617,  -0.09742,  -0.03199,  -0.02617,  -0.00291,  -0.00436,  -0.01163,   0.00437,   0.04508,   0.05526,   0.04072,   0.05090,  -0.01308,   0.04217,   0.02618,  -0.01890,   0.03490,  -0.05962,  -0.03199,  -0.03199,  -0.03490,  -0.04217,  -0.03780,   0.02763,   0.03636,  -0.01890,   0.02618,  -0.03635,  -0.02617,  -0.02326,  -0.01308,  -0.02472,  -0.00581,  -0.10033,  -0.00436,  -0.01163,   0.03054,  -0.05089,   0.01309,   0.01309,  -0.02181,  -0.03780,  -0.03490,   0.02763,   0.00873,  -0.03780,   0.03054,   0.03199,  -0.02617,  -0.01599,  -0.02181,  -0.04944,  -0.02326,   0.04653,  -0.08288,  -0.01308,   0.01018,   0.05235,  -0.04362,  -0.00145,   0.01600,  -0.04071,  -0.03199,  -0.04217,   0.00582,   0.01309,  -0.04507,   0.05235,   0.00000,  -0.02472,  -0.00727,  -0.01308,  -0.02908,  -0.01454,  -0.02908,   0.04363,   0.04944,   0.07852,  -0.02472,  -0.00727
   0.03054,   0.01891,  -0.01599,  -0.00145,   0.00000,   0.10906,   0.02472,   0.00582,   0.04363,   0.06544,  -0.04653,  -0.05089,   0.04944,   0.01018,   0.02472,  -0.02763,  -0.03780,  -0.06979,  -0.03926,  -0.00145,   0.04217,  -0.06398,  -0.06543,  -0.00581,  -0.04507,  -0.01599,   0.03781,  -0.02326,  -0.00872,   0.03199,  -0.01890,   0.04363,   0.03199,  -0.00436,  -0.03926,   0.04363,  -0.03780,   0.10179,  -0.03926,  -0.02181,  -0.00145,  -0.04362,   0.00146,  -0.00581,  -0.00581,   0.00437,  -0.03926,  -0.03635,  -0.04362,   0.01018,  -0.07561,  -0.01599,  -0.00727,   0.05235,   0.01164,  -0.02763,   0.01164,  -0.02763,   0.06253,   0.02472,   0.01018,  -0.03199,  -0.11487,  -0.03490,   0.02472,   0.00291,   0.02618,   0.00291,  -0.03926,   0.01745,  -0.05089,   0.03199,  -0.01745,   0.04944,  -0.01745,   0.01600,  -0.03926,   0.03490,   0.05090,   0.00146,  -0.02181,  -0.10178,  -0.03635,   0.04653,  -0.00581,   0.03781,   0.01891,  -0.02908,  -0.05525,  -0.04798,   0.02327,   0.03636,   0.06835,   0.10324,   0.02327,   0.04217,   0.01164,   0.01018,   0.01600,  -0.05525,  -0.00872,  -0.02472,  -0.04944,   0.01164,   0.04363,   0.00000,  -0.03490,   0.00873,   0.02763,   0.00291,  -0.04071,   0.00291,   0.04072,   0.02908,  -0.00436,   0.10324,  -0.03344,  -0.07561,   0.02472,   0.01018,  -0.04217,   0.02036,  -0.04071,   0.00437,  -0.02617,   0.02763,  -0.04507,   0.06253
   0.05671,  -0.01454,  -0.02326,   0.00582,   0.04217,  -0.02908,   0.04799,  -0.02472,  -0.02181,   0.01454,   0.02618,   0.08143,   0.02618,  -0.02035,   0.02618,  -0.01018,  -0.03053,   0.01018,  -0.01745,  -0.00291,   0.02472,   0.02472,   0.04363,   0.05090,   0.00437,  -0.02908,   0.02763,  -0.07852,   0.03054,  -0.05089,  -0.01745,   0.02763,   0.01018,   0.00000,   0.00000,   0.01745,  -0.00727,   0.00873,  -0.06543,   0.03781,   0.04363,  -0.04071,   0.09016,   0.01309,   0.03636,   0.06253,  -0.00872,   0.03345,   0.04217,   0.03199,  -0.00436,   0.07852,  -0.01308,   0.00582,  -0.05380,   0.06253,  -0.04217,   0.01891,   0.00000,   0.01891,   0.01891,  -0.00291,   0.01454,   0.00291,   0.05962,   0.07416,  -0.03635,  -0.07416,   0.07416,  -0.00436,   0.02472,  -0.02617,  -0.00145,  -0.01745,   0.01018,  -0.02617,   0.02908,  -0.03780,  -0.05380,   0.05817,   0.05671,  -0.03780,   0.00291,  -0.02326,   0.00146,  -0.00436,  -0.02763,  -0.03635,   0.01891,  -0.04507,   0.00291,  -0.04944,   0.04508,   0.04508,   0.02472,  -0.04653,   0.03490,  -0.05380,  -0.05089,  -0.00436,   0.04217,  -0.00872,  -0.04071,   0.00727,   0.03199,  -0.02181,  -0.01454,   0.11488,   0.02327,   0.04653,  -0.00145,   0.05671,   0.00873,   0.02327,   0.02036,  -0.06834,  -0.03490,   0.00291,  -0.05380,   0.02618,   0.01891,  -0.05671,  -0.05234,   0.02181,  -0.01018,  -0.00872,  -0.01163,  -0.03199
   0.02036,  -0.03053,   0.01600,  -0.02908,  -0.05962,   0.04653,   0.02908,   0.08434,  -0.01163,   0.05962,   0.03345,   0.01164,   0.03199,  -0.07125,  -0.04653,   0.04072,  -0.10033,   0.01600,  -0.02326,   0.00873,   0.02327,  -0.05671,   0.01745,  -0.07270,   0.00437,  -0.07706,   0.06108,  -0.03199,  -0.03490,  -0.04653,   0.01745,  -0.00436,  -0.01890,  -0.01599,  -0.00436,   0.02763,   0.00873,  -0.01454,  -0.02472,  -0.00727,  -0.06398,  -0.02908,   0.06108,  -0.04217,  -0.02326,   0.03054,  -0.04944,  -0.00872,  -0.00727,  -0.00145,   0.02327,   0.04508,   0.02036,   0.05817,   0.03636,  -0.02908,  -0.04217,  -0.04507,   0.00727,  -0.04362,  -0.03635,  -0.06689,   0.03199,  -0.00727,   0.05962,  -0.03199,   0.01309,  -0.07125,  -0.00291,  -0.04944,  -0.00291,   0.01745,  -0.05234,  -0.03053,   0.02618,   0.00000,   0.05090,   0.01891,  -0.04507,   0.02181,  -0.00581,  -0.00436,  -0.02617,   0.08143,  -0.03344,   0.02327,  -0.01308,  -0.03635,  -0.06979,  -0.00436,  -0.01599,  -0.01745,   0.01600,  -0.10033,  -0.04071,  -0.04362,   0.08579,  -0.08724,  -0.04362,  -0.04507,  -0.00291,   0.02036,  -0.08870,   0.02618,  -0.01599,   0.02472,  -0.04071,  -0.04071,   0.03054,  -0.05525,   0.04072,   0.00582,   0.02618,   0.01309,   0.00873,   0.01891,   0.02908,   0.08579,  -0.05525,   0.05235,  -0.01163,   0.03199,   0.02908,   0.00873,  -0.05525,  -0.04071,   0.03199,  -0.04217
  -0.04362,   0.02327,   0.02181,  -0.00291,  -0.04944,   0.01891,   0.00873,   0.13378,   0.05526,   0.01454,  -0.00291,   0.05817,   0.01600,   0.02763,   0.01745,   0.07707,   0.00000,   0.01600,   0.02763,  -0.02908,  -0.04071,   0.00582,  -0.02472,  -0.03053,   0.00000,  -0.03344,   0.06108,  -0.02035,  -0.09597,   0.06253,   0.07562,  -0.01745,  -0.01745,   0.03199,  -0.07706,  -0.02908,  -0.00436,  -0.03199,   0.05235,  -0.02472,  -0.02763,  -0.03199,   0.00437,  -0.00291,  -0.00436,   0.00582,  -0.05234,   0.02036,   0.03636,  -0.03344,  -0.02763,  -0.00291,  -0.03780,   0.05817,  -0.05089,   0.01164,  -0.02035,  -0.06398,   0.05380,  -0.04507,  -0.05380,   0.00000,  -0.02326,   0.00291,  -0.04798,  -0.03780,   0.00291,   0.02763,  -0.01745,   0.00582,   0.01164,   0.03926,   0.07852,  -0.05525,  -0.04507,   0.04363,   0.03926,  -0.02617,  -0.05089,   0.01018,  -0.06398,   0.02618,  -0.00872,  -0.00727,  -0.03053,  -0.03490,  -0.01018,   0.02908,  -0.00291,   0.05380,  -0.01018,  -0.04653,   0.03781,   0.10324,  -0.00581,  -0.01018,  -0.00291,  -0.00581,   0.04508,  -0.01308,  -0.00436,  -0.03199,   0.05090,   0.03781,  -0.00872,  -0.03635,   0.03490,   0.02763,   0.01164,   0.02763,   0.00000,  -0.02035,  -0.02908,  -0.03635,   0.00291,   0.00873,  -0.07852,   0.01018,   0.00582,  -0.00291,   0.01745,  -0.01018,   0.01745,   0.01891,  -0.03490,  -0.01454,   0.00727,  -0.03780
  -0.04944,  -0.02326,   0.01164,  -0.00291,   0.02181,  -0.04217,  -0.02035,   0.03345,  -0.01599,   0.04944,  -0.00436,  -0.03635,  -0.00872,  -0.03490,  -0.06398,  -0.07561,   0.09161,   0.03926,   0.01454,  -0.01599,   0.00291,  -0.00581,   0.07998,   0.00291,   0.10615,  -0.02763,   0.03490,   0.01600,   0.00582,  -0.01018,  -0.01745,  -0.01163,   0.03781,  -0.02908,  -0.03926,  -0.02181,  -0.03926,  -0.03199,   0.05090,   0.07562,  -0.02326,   0.05235,   0.03636,   0.01309,   0.04217,   0.02327,   0.05090,  -0.02908,  -0.00581,  -0.03926,   0.00582,   0.05962,   0.02036,   0.10179,   0.02618,  -0.03926,   0.02472,  -0.03926,   0.02036,   0.00727,   0.00727,   0.02472,  -0.00436,   0.02327,  -0.01308,  -0.01163,   0.00582,   0.04363,  -0.04798,   0.04799,   0.04653,   0.01018,   0.04217,  -0.03635,   0.04217,  -0.04653,   0.01745,   0.01309,  -0.06252,  -0.03344,   0.07998,   0.05235,   0.06108,   0.01600,  -0.09306,   0.03490,  -0.06543,   0.01164,   0.01600,  -0.01599,   0.01454,  -0.03199,  -0.01454,  -0.04507,   0.04072,   0.06689,   0.00146,   0.06108,  -0.04071,   0.00000,  -0.01163,   0.00873,   0.07852,   0.01745,  -0.00727,  -0.03199,  -0.04798,  -0.00872,  -0.04362,   0.01309,  -0.03199,   0.00146,  -0.01308,   0.00146,  -0.01454,  -0.01890,  -0.04798,   0.00727,  -0.05816,  -0.04217,   0.07852,   0.00146,  -0.03780,   0.05526,  -0.02617,   0.05090,   0.01309,  -0.00145
  -0.05816,  -0.01745,  -0.00727,   0.02763,   0.00727,  -0.00727,   0.06398,   0.05380,   0.03199,   0.03926,  -0.00581,  -0.02181,  -0.01454,   0.04944,  -0.01454,   0.05380,  -0.04798,  -0.04071,  -0.04071,   0.00437,   0.08579,  -0.02908,   0.03636,   0.03781,  -0.00727,   0.04363,  -0.04217,  -0.02908,  -0.02472,   0.03490,   0.09161,  -0.04362,  -0.02472,  -0.00727,  -0.02035,  -0.00291,  -0.02908,   0.01164,  -0.01745,  -0.04653,   0.01745,  -0.03053,   0.06835,   0.05235,   0.09307,   0.04944,  -0.04217,  -0.05380,   0.00000,   0.02327,   0.04944,  -0.00436,  -0.03053,  -0.01308,  -0.06107,   0.00582,  -0.01454,  -0.00727,  -0.07270,  -0.03780,   0.00582,  -0.02763,   0.02036,  -0.03780,   0.04217,  -0.00872,  -0.06398,  -0.04362,  -0.01163,  -0.09161,   0.01018,  -0.01308,   0.03199,   0.05380,  -0.03490,   0.02181,  -0.03344,   0.04653,   0.04508,   0.00727,   0.00727,  -0.04944,   0.02618,   0.01018,   0.01454,   0.07416,  -0.01890,  -0.01890,  -0.03926,   0.00727,  -0.03490,   0.00291,   0.00873,  -0.04944,  -0.06979,  -0.11633,  -0.02472,  -0.02181,  -0.07997,  -0.00727,  -0.01308,  -0.01745,  -0.01890,  -0.03053,  -0.03635,   0.01454,   0.01018,  -0.05962,   0.03054,  -0.00436,  -0.04507,   0.03781,  -0.03926,   0.00146,   0.07562,  -0.04071,   0.01600,  -0.06689,  -0.01454,  -0.07125,   0.00873,  -0.04071,   0.03926,   0.00291,  -0.05234,  -0.02472,   0.00873,   0.03490
  -0.01018,  -0.00727,   0.07852,   0.00582,   0.05235,   0.00727,  -0.02181,  -0.00872,   0.00727,   0.02763,   0.00873,  -0.09597,  -0.00581,  -0.04217,  -0.03780,  -0.02326,   0.03199,  -0.06543,   0.03636,   0.02763,   0.03926,   0.00437,  -0.02617,   0.01309,  -0.01890,  -0.08288,  -0.00872,   0.03490,  -0.02617,  -0.07706,   0.06835,   0.03345,  -0.05671,  -0.03053,  -0.04653,   0.03345,   0.03345,   0.02472,   0.03926,  -0.00872,  -0.02763,   0.01891,  -0.01745,   0.02472,   0.03199,   0.00873,  -0.03053,  -0.00291,  -0.03199,   0.00727,  -0.02617,   0.00146,  -0.04217,   0.01018,  -0.11196,   0.01164,  -0.01018,  -0.02908,  -0.02326,   0.01454,   0.04508,  -0.00872,   0.00873,   0.02472,   0.07125,  -0.04362,  -0.00727,   0.08143,  -0.02181,  -0.04071,  -0.03926,  -0.00581,   0.00873,   0.01164,  -0.01308,  -0.08434,   0.04072,  -0.01890,  -0.04798,  -0.01890,  -0.01454,   0.03636,  -0.00291,   0.02327,  -0.04507,  -0.10178,  -0.01308,  -0.03926,   0.00000,   0.04508,   0.06544,  -0.05671,  -0.01163,   0.02763,  -0.04362,  -0.10178,   0.00437,  -0.08434,   0.06835,   0.04072,  -0.00872,  -0.01308,  -0.03344,   0.00437,  -0.04944,   0.01745,   0.00000,   0.00291,  -0.06252,  -0.01308,  -0.03344,  -0.00727,  -0.04944,   0.03054,   0.00146,   0.01600,   0.04508,  -0.02472,  -0.01308,  -0.00727,   0.02763,   0.01309,   0.00146,   0.07416,   0.07998,  -0.00581,  -0.03780,   0.01018
   0.01891,   0.01891,   0.00437,   0.01600,   0.07416,  -0.02908,   0.01600,  -0.01163,  -0.02908,   0.01600,  -0.00436,   0.00873,   0.01164,  -0.05380,  -0.00436,  -0.02181,   0.00727,  -0.00145,  -0.03199,   0.05526,  -0.02617,   0.01164,   0.01745,   0.03054,   0.03054,   0.03636,  -0.04507,   0.01018,  -0.01454,   0.02472,  -0.04798,  -0.00581,   0.01454,   0.00437,  -0.02617,   0.01164,  -0.02472,   0.00000,  -0.00872,  -0.06252,  -0.02181,   0.01745,   0.03199,   0.09307,  -0.01163,   0.02327,  -0.01018,   0.00146,  -0.06398,  -0.02763,   0.01600,  -0.00145,   0.00727,  -0.01454,   0.02908,   0.01164,   0.02472,  -0.01454,  -0.01163,  -0.05962,   0.00437,   0.02327,  -0.10324,   0.02036,  -0.01599,   0.02327,   0.02763,  -0.00436,   0.02327,   0.00727,   0.00000,   0.01600,  -0.04362,   0.03345,   0.00291,   0.04944,  -0.03926,  -0.02617,   0.01164,   0.03926,  -0.09742,   0.04217,   0.01309,  -0.00291,  -0.04362,   0.04799,   0.02327,  -0.05816,   0.05817,  -0.02035,  -0.00436,   0.06835,   0.05380,   0.04072,  -0.02617,  -0.02181,  -0.03199,  -0.01163,  -0.03780,  -0.00291,  -0.00581,  -0.02181,   0.04072,   0.00000,  -0.00291,   0.05235,  -0.01745,  -0.00291,  -0.00145,   0.00291,  -0.02472,   0.02036,  -0.02035,   0.03490,   0.06253,  -0.04217,  -0.04362,   0.03054,  -0.01599,  -0.01890,  -0.02617,  -0.02763,  -0.02472,  -0.01890,   0.00437,   0.03054,   0.02763,   0.01164
   0.01745,  -0.02908,  -0.03053,  -0.06979,  -0.02908,  -0.04653,   0.02763,  -0.00145,  -0.05525,   0.01164,  -0.03780,   0.02618,   0.01309,   0.00582,  -0.03490,   0.05380,   0.03781,  -0.00872,   0.01745,   0.02036,  -0.07270,  -0.06834,   0.06253,   0.04508,  -0.01308,   0.00291,  -0.03490,   0.02327,   0.01454,  -0.02617,  -0.00581,   0.01309,   0.00582,   0.00727,   0.01600,   0.00000,   0.03490,  -0.03926,  -0.02326,   0.04799,   0.07416,   0.00437,  -0.01599,   0.03054,   0.01745,   0.02181,  -0.02617,   0.02618,   0.03781,   0.05235,  -0.01745,  -0.04507,  -0.02326,   0.02763,  -0.01163,   0.05526,  -0.03926,  -0.00581,  -0.02908,   0.01454,   0.01600,   0.02036,   0.01454,   0.03781,   0.00873,   0.03781,  -0.00145,   0.07271,   0.01018,   0.02036,  -0.00581,   0.03781,  -0.02181,   0.02763,  -0.04071,   0.00873,  -0.05089,   0.06108,  -0.02035,  -0.02035,  -0.03490,   0.00873,   0.04363,   0.04363,   0.06980,  -0.00436,  -0.06107,  -0.00291,   0.01309,   0.06253,   0.00437,  -0.06252,   0.01164,  -0.02181,  -0.01890,   0.09743,  -0.06252,  -0.01745,  -0.03780,   0.00437,  -0.04217,   0.03199,  -0.04217,  -0.00581,   0.00146,  -0.01745,   0.04217,  -0.04944,   0.04072,   0.05090,  -0.00727,  -0.00436,  -0.00145,   0.03781,   0.05380,   0.02618,  -0.02908,  -0.04944,  -0.01599,  -0.06107,   0.01454,  -0.03344,   0.03636,  -0.02181,   0.05090,   0.06689,  -0.02617,   0.05380
  -0.04507,   0.08579,   0.02036,   0.05380,  -0.04362,   0.01600,   0.05817,  -0.01018,   0.07562,   0.00437,   0.00146,   0.02472,   0.03636,  -0.06543,   0.02908,  -0.00291,   0.04217,   0.00000,   0.03781,  -0.03199,   0.03490,   0.01891,   0.02908,  -0.00872,   0.04653,   0.04799,  -0.01308,  -0.01018,   0.02181,  -0.01599,  -0.03344,  -0.02035,  -0.05962,  -0.04071,   0.03054,   0.04508,  -0.06107,   0.03054,   0.05380,  -0.05380,  -0.01890,  -0.02617,  -0.02472,  -0.02617,  -0.01018,  -0.01599,  -0.00436,  -0.02326,   0.03926,  -0.02035,  -0.01018,   0.00727,   0.03490,   0.01891,  -0.01308,   0.05671,   0.01454,  -0.02472,  -0.02908,   0.06253,   0.02327,   0.02618,  -0.02181,   0.01745,  -0.03490,  -0.01308,   0.00437,  -0.02763,  -0.01018,  -0.00145,  -0.04798,  -0.01308,   0.04508,   0.01309,   0.04653,   0.07707,   0.04072,   0.02181,   0.06398,   0.00727,  -0.04362,   0.02181,  -0.03490,   0.11779,  -0.00436,   0.02763,   0.06980,   0.03199,  -0.00291,   0.02908,   0.01745,   0.02327,  -0.02035,   0.03490,  -0.06398,   0.01309,  -0.01163,   0.01164,  -0.02181,   0.05235,   0.02472,  -0.01018,  -0.04362,   0.05235,  -0.03926,   0.03199,   0.02181,   0.01891,   0.00873,  -0.00727,  -0.01163,  -0.04944,   0.03199,   0.01309,  -0.03199,   0.03926,   0.03199,   0.01600,   0.03054,  -0.00291,   0.03054,  -0.01308,  -0.02908,  -0.01454,  -0.05089,   0.01454,   0.03781,   0.01309
   0.02618,   0.04508,   0.02763,   0.00000,   0.01309,   0.01018,  -0.01308,  -0.01163,   0.00000,  -0.01745,  -0.02617,  -0.02617,   0.08870,   0.04217,  -0.09015,  -0.03199,  -0.04362,  -0.05962,   0.00146,  -0.00291,   0.01745,   0.00146,   0.04363,   0.02763,  -0.05380,   0.00291,  -0.04362,  -0.01745,   0.02036,   0.05380,  -0.01890,  -0.01308,   0.00146,   0.03345,  -0.03053,   0.04944,   0.05817,   0.03490,   0.03345,   0.02908,   0.00873,   0.00000,  -0.03780,   0.04072,  -0.02326,   0.07416,   0.00291,   0.02327,  -0.01599,  -0.04944,   0.03490,  -0.00145,  -0.05380,  -0.00872,   0.00291,   0.02908,   0.00000,  -0.01745,  -0.00291,  -0.02617,  -0.03780,  -0.01308,  -0.04653,  -0.03053,  -0.03926,   0.06108,  -0.03199,   0.00146,  -0.00581,   0.01600,   0.03781,   0.03054,   0.09016,   0.02036,   0.04944,   0.00873,  -0.01018,   0.02327,  -0.06543,   0.01454,   0.01454,   0.04799,  -0.00145,   0.03199,   0.01164,   0.03345,   0.04072,   0.01600,  -0.01163,   0.00582,   0.00000,   0.07271,   0.04508,   0.03636,  -0.04071,   0.00437,   0.02036,  -0.06398,   0.00000,  -0.03053,   0.03199,  -0.01745,  -0.01018,   0.02181,  -0.03780,   0.00437,  -0.04362,  -0.05089,   0.00146,   0.04944,   0.00582,   0.02763,  -0.05962,  -0.02472,   0.03926,   0.02327,   0.03926,  -0.02035,  -0.02908,  -0.02326,   0.01745,   0.03199,   0.01891,  -0.00581,   0.06544,   0.01454,  -0.02326,   0.01164
  -0.02763,   0.04944,  -0.02035,   0.05526,  -0.04798,   0.05671,   0.04217,  -0.06398,   0.05671,  -0.01454,  -0.03344,  -0.04071,  -0.01599,   0.06835,  -0.01745,   0.02036,   0.01600,  -0.00436,   0.02036,   0.04363,   0.06253,  -0.01018,   0.04363,   0.03926,  -0.02763,   0.07852,   0.03199,   0.02036,   0.00291,  -0.01308,   0.01309,   0.03199,  -0.03344,  -0.01018,   0.02181,  -0.00581,   0.02036,   0.01309,   0.03636,  -0.03780,   0.06253,   0.10179,  -0.03490,  -0.00291,   0.04799,   0.00000,  -0.00581,  -0.00727,   0.02181,  -0.05525,   0.00582,  -0.01454,  -0.02181,  -0.06398,   0.11342,  -0.00727,   0.04653,   0.09888,   0.04799,   0.00291,  -0.02181,  -0.07125,  -0.03053,  -0.02035,   0.01018,  -0.03635,   0.04217,   0.01454,   0.04363,  -0.05089,  -0.03635,   0.03636,   0.01745,  -0.01018,   0.01600,   0.01018,   0.02181,   0.02181,   0.01454,  -0.01890,  -0.01018,   0.00146,   0.00873,  -0.01745,  -0.03344,  -0.01890,  -0.07561,   0.04217,   0.01600,  -0.03926,  -0.00581,   0.00000,  -0.02181,  -0.02181,  -0.02326,   0.00437,  -0.02617,   0.05817,   0.04217,   0.01891,  -0.04798,   0.04944,   0.03781,  -0.03053,   0.04653,   0.03199,   0.01745,  -0.04798,  -0.01308,   0.01309,   0.03199,  -0.08724,  -0.00291,  -0.03490,   0.06253,   0.03636,  -0.02035,  -0.02035,   0.05380,   0.07562,  -0.05816,  -0.00727,   0.03636,  -0.01018,   0.06108,  -0.02472,  -0.00291,   0.00000
  -0.03926,   0.02618,   0.04944,  -0.03635,  -0.03344,  -0.04507,  -0.03635,   0.01018,   0.00000,   0.02036,  -0.03199,   0.07271,  -0.02472,   0.09307,  -0.02763,   0.04944,  -0.00872,   0.00146,  -0.01308,  -0.01308,   0.04799,  -0.01599,   0.01309,   0.01018,   0.00437,   0.04944,   0.03054,  -0.01890,   0.03636,  -0.04071,  -0.04071,  -0.02908,  -0.00291,  -0.07416,  -0.07852,  -0.05816,  -0.00291,   0.02618,   0.02618,  -0.03199,   0.01745,  -0.00727,   0.05817,  -0.00291,  -0.04944,   0.03199,  -0.00872,  -0.02617,  -0.01599,  -0.00727,   0.00582,  -0.00727,  -0.01599,  -0.02181,   0.09307,   0.01309,   0.01600,  -0.02181,  -0.02908,  -0.01745,   0.11051,  -0.08434,  -0.02617,   0.00582,   0.02763,  -0.00727,  -0.01890,   0.01454,   0.00727,   0.07707,   0.00291,  -0.03926,   0.01309,  -0.00872,  -0.06107,   0.01600,   0.04799,  -0.00145,  -0.04798,   0.00727,   0.04944,   0.07707,   0.01745,   0.04653,  -0.04071,  -0.01308,  -0.03053,  -0.01454,   0.01164,  -0.03199,   0.02181,  -0.00872,  -0.02472,  -0.01599,  -0.02617,   0.05090,  -0.02908,   0.01745,   0.01454,  -0.00727,  -0.02035,   0.02763,   0.03199,   0.01600,   0.06544,  -0.00872,   0.04217,   0.02763,  -0.02181,  -0.02326,   0.04653,  -0.03344,  -0.06543,  -0.03490,   0.01745,  -0.03926,   0.00582,   0.01745,  -0.01454,  -0.04653,   0.03345,  -0.01599,   0.01164,  -0.05089,  -0.04362,   0.04072,  -0.01890,   0.05526
  -0.05671,   0.01600,  -0.02617,  -0.02472,   0.01309,  -0.04217,   0.05817,  -0.03199,  -0.06252,  -0.00436,   0.02036,   0.00000,  -0.00436,   0.00727,  -0.03780,  -0.01745,  -0.06543,  -0.00872,  -0.01890,   0.03490,  -0.00291,  -0.06543,  -0.02617,  -0.02035,  -0.01599,  -0.09888,   0.03926,   0.03926,   0.00582,  -0.02181,   0.00582,  -0.03926,   0.01309,  -0.01745,  -0.02763,  -0.02617,  -0.03199,  -0.01599,   0.04653,   0.00437,  -0.01745,   0.00437,   0.00000,   0.02618,   0.01309,   0.03490,  -0.02763,  -0.02472,   0.04217,  -0.03635,  -0.04798,   0.03490,   0.07562,  -0.00581,  -0.02181,  -0.05671,   0.00000,   0.08870,   0.01309,   0.04508,  -0.03490,  -0.04071,   0.00291,  -0.02326,  -0.02472,  -0.03344,  -0.05525,  -0.01454,  -0.06252,   0.01018,   0.00727,   0.00437,  -0.00872,  -0.01599,   0.02763,   0.04508,  -0.03780,  -0.03053,  -0.04944,  -0.09597,  -0.01163,  -0.01454,   0.04653,  -0.01163,   0.01454,   0.00000,  -0.02617,  -0.02908,   0.01891,   0.00873,   0.03345,  -0.00872,   0.02472,   0.02908,   0.01600,  -0.03344,   0.06689,   0.04072,   0.04508,  -0.04798,   0.00873,   0.02908,   0.02181,   0.08143,   0.04653,   0.02763,  -0.06979,  -0.02763,  -0.04798,   0.02472,   0.04072,   0.03345,   0.00000,  -0.02472,  -0.05089,  -0.00145,   0.00582,  -0.04071,   0.00437,   0.03054,  -0.05671,  -0.04362,   0.01891,   0.06980,  -0.02472,  -0.04798,   0.02327,   0.06835
   0.01745,  -0.00145,  -0.02617,  -0.02908,  -0.00581,  -0.04507,   0.02472,  -0.03199,  -0.07270,   0.02181,  -0.04362,  -0.03053,   0.02472,  -0.04944,  -0.03490,   0.00437,  -0.03199,   0.01164,   0.02036,   0.06544,   0.02181,  -0.03635,  -0.06834,  -0.02763,  -0.05380,   0.00000,   0.03054,  -0.03344,   0.00000,  -0.01890,  -0.04217,  -0.04071,   0.01745,  -0.03199,  -0.00436,  -0.04362,   0.02472,  -0.01163,   0.00291,   0.02472,  -0.02617,   0.02908,  -0.00291,   0.02181,   0.03199,  -0.02181,   0.05671,   0.04653,   0.01018,  -0.04653,  -0.07561,   0.00291,  -0.00436,   0.07707,  -0.03344,   0.00582,   0.00000,   0.01309,  -0.05089,  -0.03053,  -0.02035,   0.05090,   0.04799,  -0.05089,   0.02763,  -0.09306,  -0.07561,   0.05671,  -0.03635,   0.00146,   0.00873,   0.00291,   0.03781,  -0.06543,   0.01891,   0.03490,   0.08289,  -0.08143,  -0.04217,  -0.00145,  -0.04071,   0.02181,  -0.02035,   0.00582,  -0.04653,  -0.02326,   0.03345,  -0.05089,   0.02036,   0.00582,  -0.01745,   0.01164,   0.04363,   0.03199,   0.10761,  -0.01018,   0.01018,   0.04072,  -0.01163,   0.03199,   0.02181,  -0.04798,  -0.05380,   0.00582,  -0.01163,  -0.03199,  -0.02326,  -0.01163,   0.07416,  -0.03053,  -0.02763,   0.00873,  -0.06107,   0.05671,   0.05090,  -0.03780,   0.00873,  -0.00291,  -0.03053,   0.04217,  -0.03053,  -0.02326,   0.01454,  -0.02617,  -0.04071,  -0.00872,  -0.01308,  -0.00727
  -0.00727,  -0.00727,  -0.02908,  -0.01018,   0.02472,  -0.03490,  -0.01308,   0.04363,   0.00437,   0.04799,   0.01309,   0.00727,  -0.01745,   0.02036,  -0.04507,   0.06544,  -0.04944,  -0.02908,   0.07125,   0.02908,   0.01454,  -0.01163,  -0.03490,  -0.05525,  -0.08579,   0.00000,  -0.01018,  -0.05380,  -0.05380,   0.00582,   0.04944,   0.04944,   0.04799,  -0.02617,  -0.04217,  -0.05234,   0.01891,   0.06253,   0.05526,  -0.01018,   0.02181,  -0.08434,   0.05671,   0.06544,   0.10034,  -0.08579,  -0.02472,   0.09161,  -0.00872,  -0.01018,  -0.05962,  -0.01454,  -0.05380,   0.01891,  -0.05962,  -0.04362,   0.01891,   0.00291,   0.00873,  -0.03490,   0.00146,   0.04508,   0.00291,  -0.04217,  -0.00581,  -0.00727,  -0.06252,   0.01309,  -0.03635,  -0.03635,  -0.00872,  -0.01745,   0.02327,   0.03054,   0.02036,  -0.05234,   0.01454,   0.02181,  -0.01599,   0.02763,   0.01309,   0.03199,  -0.01599,   0.03199,  -0.03780,  -0.06107,  -0.01163,   0.05235,  -0.00727,  -0.01599,   0.03926,   0.00727,   0.06398,   0.04653,   0.06544,  -0.01018,  -0.02326,   0.04653,   0.00727,   0.01309,   0.05817,  -0.04798,  -0.05380,   0.06398,   0.06835,  -0.00581,   0.01600,   0.08579,  -0.01890,  -0.06107,  -0.02472,  -0.02617,   0.02327,   0.02036,   0.03636,  -0.01163,   0.05380,  -0.03780,   0.03926,   0.03926,   0.00437,  -0.02908,  -0.06398,   0.04508,  -0.02181,   0.06108,   0.01745,  -0.00436
   0.02763,  -0.03490,   0.05526,   0.05817,  -0.05671,   0.05090,   0.01018,  -0.03926,  -0.00436,   0.02763,   0.01454,   0.05090,   0.04653,   0.04944,  -0.01745,   0.05235,   0.02618,   0.03345,  -0.04217,  -0.00872,  -0.00436,  -0.02326,   0.06253,  -0.03490,  -0.01599,   0.00437,  -0.06834,   0.03926,  -0.02035,   0.05526,  -0.10615,   0.03054,  -0.03490,  -0.04507,   0.02908,  -0.02326,  -0.02763,   0.09452,   0.00437,   0.05817,  -0.01890,   0.02908,   0.00727,   0.04653,   0.00437,   0.01018,  -0.01745,   0.00000,  -0.03490,   0.03490,   0.01454,   0.03345,   0.02618,  -0.03635,   0.03490,   0.01600,  -0.06689,  -0.05525,  -0.03053,   0.04653,   0.02908,   0.02618,  -0.05816,  -0.01890,   0.00873,   0.01600,   0.00000,  -0.00145,  -0.01890,  -0.07561,  -0.02472,   0.00582,  -0.04653,  -0.01454,   0.00437,   0.00437,   0.00873,  -0.03635,   0.07707,   0.04799,   0.02472,  -0.05089,  -0.04217,  -0.03490,   0.02618,   0.04363,  -0.01454,   0.03781,   0.05090,   0.01309,   0.02327,   0.04799,   0.03054,   0.03345,  -0.01890,  -0.02326,   0.05380,  -0.02908,   0.01309,  -0.01163,   0.04799,  -0.06689,  -0.00436,   0.00727,  -0.03490,  -0.08870,   0.04217,  -0.01745,  -0.01163,   0.04072,  -0.03635,   0.05671,   0.00873,  -0.05380,   0.00000,  -0.02908,   0.04653,   0.03345,  -0.00727,  -0.04507,   0.00582,  -0.02326,   0.02908,  -0.05234,   0.06253,  -0.02472,   0.03199,   0.02036
   0.00146,  -0.05089,   0.05235,   0.06835,   0.02327,   0.01164,   0.02618,   0.00727,   0.04653,  -0.02035,  -0.00145,  -0.03780,   0.07562,   0.07125,  -0.01163,  -0.03780,  -0.00872,   0.03199,   0.03490,   0.00727,  -0.00727,  -0.05671,  -0.00727,  -0.04507,   0.04653,   0.00146,   0.00437,   0.00582,  -0.01890,  -0.03344,   0.04072,   0.03054,   0.03054,  -0.02617,   0.00437,   0.09016,   0.01309,  -0.02472,   0.05235,  -0.00145,   0.03199,  -0.01018,   0.01164,   0.01309,  -0.09306,   0.04799,   0.00727,   0.02908,  -0.11051,   0.06835,   0.05962,  -0.00436,   0.03636,   0.01454,   0.00582,   0.04072,   0.00437,  -0.11342,   0.01164,   0.01164,  -0.01163,  -0.01454,   0.04799,   0.00582,  -0.03053,   0.00582,   0.05817,   0.00582,  -0.05671,  -0.05089,  -0.02763,   0.03199,   0.01745,   0.05526,  -0.04798,   0.09161,   0.02763,   0.04799,   0.00727,   0.00146,  -0.03344,   0.00437,  -0.02908,   0.02472,   0.03926,  -0.02617,   0.00146,   0.02618,   0.01454,   0.07852,  -0.01599,  -0.04798,   0.00437,   0.03199,  -0.03926,   0.04944,  -0.04217,  -0.04798,   0.00291,   0.03054,   0.01454,   0.01018,   0.00000,   0.01600,   0.05526,   0.04653,  -0.03199,  -0.03635,   0.04072,   0.01164,   0.02036,   0.03490,   0.05090,  -0.01890,   0.04508,   0.01454,   0.02327,   0.02472,  -0.01163,   0.01600,  -0.01890,  -0.02181,  -0.05089,   0.06689,  -0.05962,   0.00000,  -0.06979,   0.00291
  -0.00145,  -0.03344,   0.04799,   0.03781,  -0.02035,   0.01600,   0.02181,  -0.00727,  -0.06252,   0.03054,   0.01309,   0.00000,  -0.00291,   0.01309,  -0.05816,   0.03781,  -0.07561,  -0.02472,  -0.02617,   0.00873,   0.02181,   0.00000,   0.01018,   0.00146,   0.03926,   0.05526,  -0.05525,  -0.10469,  -0.04798,  -0.01018,  -0.05234,   0.00437,   0.05962,   0.02472,   0.01309,  -0.02908,   0.00873,  -0.02763,  -0.06252,   0.02181,  -0.02763,   0.00000,  -0.00872,   0.01454,  -0.08579,   0.00291,   0.02036,  -0.02908,   0.00873,   0.02327,   0.02763,   0.03345,  -0.00291,  -0.02763,  -0.01745,   0.01745,   0.02618,   0.00727,   0.02908,  -0.00727,  -0.01890,   0.06689,  -0.01890,   0.03345,   0.02763,   0.03054,   0.02036,   0.02472,  -0.00581,   0.00873,  -0.03199,   0.00146,  -0.01163,  -0.02908,  -0.02326,  -0.03053,  -0.01745,   0.03490,   0.06835,   0.01018,   0.03199,  -0.03926,  -0.03344,   0.00000,  -0.02181,  -0.01454,  -0.04944,  -0.05089,  -0.04071,   0.03345,  -0.04507,   0.02327,   0.03781,   0.01745,   0.03926,  -0.05234,   0.02036,   0.02908,   0.00291,  -0.02035,   0.03054,  -0.02181,   0.05962,   0.03490,  -0.01745,  -0.02763,   0.04363,   0.06689,  -0.05962,   0.03199,  -0.05089,   0.00437,   0.05671,   0.04363,   0.03490,  -0.05234,  -0.02035,   0.08143,   0.12069,   0.04799,  -0.00436,  -0.01163,  -0.03926,   0.01600,  -0.03490,  -0.00581,  -0.01890,   0.05090
  -0.02035,  -0.03780,   0.02908,  -0.05234,   0.08143,  -0.00872,   0.04944,   0.03490,  -0.02326,  -0.00291,  -0.00145,   0.03199,  -0.06543,  -0.01308,   0.01600,   0.03345,   0.04508,  -0.01890,  -0.02181,  -0.02326,  -0.00436,  -0.08143,   0.03636,   0.02327,  -0.00436,   0.05090,   0.04944,  -0.01745,  -0.03635,   0.00727,   0.00873,   0.00727,  -0.03635,  -0.04944,   0.02763,   0.01891,   0.02327,   0.01164,   0.02036,   0.04653,   0.00000,   0.00582,   0.04363,  -0.01018,  -0.04071,   0.04072,   0.05526,  -0.06689,   0.00437,  -0.06107,  -0.01745,   0.00727,   0.02036,   0.02763,  -0.06398,   0.01454,   0.05962,   0.03781,   0.01891,   0.01745,  -0.00145,   0.00582,  -0.02617,  -0.04653,  -0.00872,  -0.03199,   0.05817,   0.02327,  -0.00727,  -0.02763,   0.04944,   0.02327,  -0.01890,   0.01018,   0.01309,   0.02036,  -0.00436,   0.00873,   0.02036,   0.07852,  -0.03199,  -0.01890,  -0.03780,   0.06544,   0.01018,   0.03636,  -0.01454,   0.04072,   0.04072,  -0.04507,  -0.06979,   0.02908,  -0.00727,  -0.04071,   0.10615,   0.00437,  -0.02763,  -0.06398,  -0.02035,  -0.00872,  -0.00727,  -0.01018,   0.00000,   0.02327,   0.02763,  -0.04507,  -0.01599,   0.03636,   0.03345,   0.03054,  -0.03635,  -0.02617,  -0.03780,  -0.05234,   0.03199,  -0.02617,   0.01600,   0.03490,  -0.07416,   0.07125,  -0.04653,   0.00000,   0.01018,   0.00873,  -0.00436,   0.03054,  -0.04798,   0.03781
   0.01309,  -0.02035,   0.04799,   0.03345,  -0.02617,  -0.07125,  -0.05816,  -0.03635,   0.00873,   0.03926,   0.02036,   0.00727,   0.10615,   0.00437,   0.00000,   0.01600,  -0.03053,  -0.05816,  -0.01018,  -0.04217,   0.02472,  -0.01018,   0.03781,   0.06835,  -0.04071,  -0.03199,   0.01164,  -0.08143,  -0.01018,  -0.01745,   0.01454,  -0.04217,   0.05671,  -0.08724,   0.03926,   0.05962,  -0.02617,  -0.00291,   0.03345,  -0.02326,  -0.00291,   0.03199,   0.03199,  -0.01599,   0.02472,  -0.01018,   0.03345,   0.01309,  -0.01308,   0.03490,   0.08434,  -0.01308,  -0.00727,  -0.04217,  -0.08434,  -0.04071,   0.00146,   0.10179,   0.02908,   0.05380,  -0.03780,  -0.00727,   0.10906,  -0.03780,  -0.02035,   0.03781,  -0.04507,  -0.01018,  -0.00145,  -0.03053,  -0.05089,   0.02036,   0.02181,  -0.01018,  -0.00145,  -0.01454,  -0.04071,   0.02472,   0.07271,  -0.02617,  -0.00291,   0.00000,  -0.04653,   0.02472,   0.06980,   0.03490,  -0.02763,   0.02618,  -0.00436,   0.00000,  -0.01018,   0.00582,   0.03054,   0.00437,   0.03345,   0.04363,  -0.00436,  -0.08870,  -0.00436,  -0.04653,  -0.00581,   0.01600,  -0.00581,  -0.03635,  -0.03053,   0.03781,  -0.06979,   0.00727,  -0.00145,   0.02618,   0.06108,  -0.01163,  -0.06689,  -0.07706,   0.05526,  -0.05234,   0.04944,   0.02763,   0.02327,   0.00146,   0.02181,  -0.01018,  -0.04944,   0.01891,  -0.02181,  -0.01018,   0.00000,   0.00146
  -0.00581,   0.06108,  -0.05671,  -0.02181,   0.01600,   0.02472,   0.02763,  -0.01308,  -0.00727,   0.04217,  -0.02472,   0.04944,   0.00437,   0.00000,  -0.03926,   0.01018,   0.01891,   0.02472,   0.01164,   0.03781,   0.00582,  -0.02908,   0.06689,   0.02327,   0.00146,  -0.02035,   0.02908,  -0.01163,   0.04217,  -0.01890,  -0.03344,   0.08870,  -0.08724,   0.05962,  -0.05380,   0.06835,   0.02327,  -0.02326,   0.03054,  -0.03344,   0.02908,  -0.04217,   0.03781,  -0.01308,  -0.01018,  -0.01018,  -0.02908,   0.00146,   0.02181,   0.01454,   0.02908,   0.00727,  -0.03490,   0.00146,   0.02908,  -0.00581,   0.09452,   0.01164,   0.00437,  -0.00145,   0.04944,   0.01745,  -0.00581,  -0.07561,   0.01164,   0.01454,  -0.04944,   0.02036,   0.01309,  -0.01163,   0.00437,   0.06980,   0.04653,  -0.07416,  -0.03344,   0.03345,  -0.01018,   0.01600,   0.04944,   0.03636,   0.01454,  -0.03926,  -0.00291,   0.03490,  -0.02908,   0.00291,  -0.01163,  -0.01308,  -0.01745,   0.08725,  -0.03635,   0.08434,   0.01891,   0.00291,   0.05090,  -0.03199,   0.01309,   0.02327,   0.03054,  -0.04653,  -0.00291,  -0.01163,   0.02327,  -0.04944,  -0.06979,  -0.04217,  -0.02763,  -0.02181,   0.01891,  -0.04362,  -0.00872,   0.03636,  -0.02763,  -0.02181,   0.00437,  -0.02472,  -0.04798,  -0.04507,  -0.01163,  -0.05234,  -0.02035,   0.03054,   0.04072,  -0.01308,   0.00291,   0.05817,  -0.02908,   0.00437
  -0.01308,   0.03199,  -0.00436,   0.04217,  -0.01308,   0.03926,  -0.03199,  -0.04217,  -0.01745,  -0.04362,   0.02327,  -0.03053,  -0.06834,   0.05817,   0.02618,  -0.00872,  -0.03780,  -0.03926,   0.05090,   0.03054,   0.09016,  -0.06834,   0.01745,  -0.04071,   0.02763,   0.00582,  -0.01599,   0.01891,  -0.01745,   0.00873,  -0.08143,   0.01018,  -0.00581,  -0.01018,  -0.01308,  -0.06398,  -0.01163,  -0.05380,   0.00582,   0.05671,   0.00000,   0.03636,  -0.04507,   0.02181,   0.05526,  -0.00581,   0.00000,   0.04799,  -0.01890,  -0.00145,   0.03781,   0.05962,  -0.02035,   0.08143,   0.02618,  -0.02035,   0.02763,  -0.02472,   0.02618,   0.02181,  -0.05234,   0.04653,   0.07271,   0.03781,   0.02036,  -0.03053,   0.01309,   0.06835,  -0.01018,   0.02036,   0.00873,  -0.00872,  -0.00872,   0.03781,  -0.01745,  -0.00436,  -0.05089,  -0.05962,  -0.00581,  -0.02035,  -0.01454,  -0.05962,   0.04217,   0.01309,  -0.08870,   0.05526,   0.00291,  -0.05962,   0.00000,  -0.00581,  -0.00291,  -0.02617,  -0.01163,  -0.01745,   0.02908,   0.10761,  -0.00436,   0.05671,  -0.07997,   0.02472,   0.00000,   0.01745,  -0.04071,   0.02036,  -0.02908,  -0.01454,   0.02181,   0.05090,  -0.01163,  -0.00436,   0.02618,   0.04363,  -0.05380,  -0.02035,  -0.00872,   0.01164,  -0.02617,  -0.04653,  -0.02472,   0.02618,  -0.01163,   0.07562,   0.05526,  -0.04944,   0.04072,   0.06108,  -0.06543,  -0.01599
  -0.02472,  -0.01018,  -0.03053,  -0.01745,  -0.04944,  -0.07561,   0.03781,   0.03054,   0.05235,  -0.02472,  -0.00291,   0.01745,   0.01018,   0.03781,  -0.00727,   0.00437,   0.05090,  -0.00291,  -0.01308,   0.02472,   0.02763,  -0.04507,  -0.03199,  -0.03926,  -0.03926,   0.03926,   0.08289,  -0.02326,  -0.03635,  -0.06979,  -0.05962,  -0.01599,  -0.01454,  -0.08579,  -0.01745,  -0.01308,  -0.05234,   0.02036,  -0.04071,  -0.00727,   0.04072,  -0.01745,  -0.02472,  -0.01454,  -0.05525,  -0.03053,   0.06544,  -0.03199,  -0.01745,   0.00437,  -0.02763,  -0.00145,  -0.06689,  -0.01308,  -0.00291,  -0.02763,  -0.02035,   0.02036,  -0.03053,   0.02618,   0.06253,   0.03636,  -0.04217,  -0.03490,  -0.01163,  -0.02326,  -0.01745,   0.01164,  -0.03199,   0.02472,   0.06108,  -0.01454,  -0.03926,  -0.00145,  -0.01599,   0.04944,  -0.01599,  -0.03344,   0.02181,   0.00727,  -0.01745,  -0.00581,  -0.02763,   0.02472,   0.02181,   0.01309,  -0.06689,  -0.06398,   0.01454,   0.05526,  -0.00727,  -0.03344,  -0.02326,   0.03054,   0.04799,   0.00146,   0.04072,  -0.00291,   0.01454,   0.00000,  -0.02326,   0.03345,  -0.03635,  -0.08288,   0.02618,   0.01891,   0.00146,  -0.01745,  -0.06398,  -0.04944,   0.04799,  -0.02035,   0.00582,  -0.01599,  -0.06107,   0.00437,  -0.04653,   0.02327,  -0.04071,  -0.01599,  -0.03780,   0.01600,  -0.03490,   0.05526,   0.02036,   0.01309,   0.06253,  -0.04071
  -0.01308,   0.00873,   0.03199,   0.03199,  -0.01308,  -0.03344,  -0.02035,   0.03781,  -0.07125,  -0.01454,  -0.05089,  -0.00581,   0.00437,  -0.00581,  -0.04362,  -0.04071,   0.05090,   0.00582,   0.02763,  -0.03199,  -0.01890,   0.02763,   0.02618,   0.00873,  -0.03635,   0.07852,  -0.04653,  -0.00727,   0.03054,  -0.02763,  -0.01745,  -0.07270,   0.00437,  -0.03490,   0.01309,   0.04072,   0.01891,   0.05235,   0.01745,  -0.00872,   0.03926,  -0.02181,   0.06253,   0.02327,   0.09452,  -0.05671,   0.01891,   0.04653,   0.00146,  -0.01308,  -0.01599,  -0.01308,  -0.02472,   0.02472,   0.05380,   0.01018,  -0.00291,  -0.05816,   0.01891,  -0.03490,  -0.02181,   0.03926,  -0.01018,  -0.02035,   0.06689,  -0.07561,  -0.08579,  -0.03199,  -0.03344,   0.01745,   0.01309,   0.02472,   0.07125,   0.06980,   0.03926,   0.03781,  -0.00581,   0.04944,   0.02472,   0.03345,   0.05671,  -0.00727,  -0.06252,   0.00000,   0.05235,   0.02036,   0.06253,  -0.01599,   0.00727,   0.01018,  -0.02763,  -0.02763,   0.04944,  -0.02617,   0.04217,  -0.00436,   0.01164,  -0.04071,   0.01454,  -0.00291,   0.04944,   0.01454,  -0.03053,  -0.06543,   0.00146,   0.01891,  -0.02472,  -0.02181,   0.03199,  -0.08143,  -0.05089,   0.03054,  -0.01599,   0.11342,  -0.03780,  -0.03053,  -0.01745,   0.05090,   0.03926,  -0.00291,   0.01454,  -0.00872,   0.02181,   0.01018,   0.02472,   0.04799,  -0.02326,  -0.07997
   0.07852,  -0.03780,  -0.00872,   0.00727,   0.00873,   0.03199,  -0.01890,  -0.06543,   0.02472,   0.02181,   0.00582,   0.04944,   0.01454,   0.05526,   0.04072,   0.00437,  -0.00291,   0.02181,   0.02618,   0.04363,   0.01018,  -0.00581,   0.01309,   0.04944,  -0.00581,  -0.00145,  -0.03926,  -0.01018,  -0.03053,  -0.04071,  -0.00872,  -0.02472,  -0.04944,   0.00146,   0.06398,   0.00437,   0.01600,  -0.02763,  -0.02908,  -0.00436,  -0.05525,   0.06398,   0.08289,   0.00873,   0.05817,  -0.02035,   0.01454,   0.05671,   0.02327,   0.00727,   0.02036,   0.01891,  -0.01018,   0.06689,  -0.01454,   0.03199,   0.02181,  -0.01163,   0.00582,  -0.02181,  -0.04944,  -0.02763,  -0.02326,   0.04217,  -0.04217,  -0.01163,  -0.01890,   0.04799,  -0.01454,  -0.05816,  -0.00727,   0.06253,  -0.00436,   0.02036,  -0.02326,   0.05671,   0.02908,  -0.03199,  -0.06834,  -0.00581,   0.02327,   0.01018,   0.05090,  -0.01018,   0.05090,  -0.04362,   0.01164,   0.05526,   0.00873,  -0.04071,   0.11051,   0.05526,   0.02618,  -0.00145,   0.04944,  -0.02617,  -0.01163,  -0.02472,   0.03199,  -0.02617,   0.03199,   0.02327,   0.04508,  -0.01308,  -0.03780,   0.01309,  -0.06689,   0.02618,   0.06835,   0.04217,  -0.07416,   0.02327,   0.01891,  -0.03490,   0.02036,  -0.01599,   0.01891,  -0.02035,   0.03781,   0.01745,  -0.04944,   0.01600,  -0.01163,  -0.04217,  -0.01018,   0.01454,  -0.02472,  -0.02181
   0.03926,  -0.01308,  -0.09161,  -0.00145,  -0.01163,  -0.03199,  -0.06252,   0.06253,   0.00873,   0.01018,   0.01454,  -0.02181,  -0.03490,   0.00000,   0.01891,   0.02763,  -0.00436,  -0.01018,  -0.01163,   0.05090,   0.04363,  -0.01163,  -0.02472,  -0.04507,  -0.03053,  -0.07852,   0.02036,  -0.07852,  -0.02763,   0.00437,  -0.02326,  -0.02617,  -0.00581,   0.04363,   0.03781,  -0.00872,   0.01309,   0.00291,  -0.03344,   0.04944,  -0.08579,   0.07852,   0.01018,  -0.00291,  -0.00291,  -0.03199,   0.06108,   0.05817,  -0.07270,   0.03781,   0.00873,   0.00437,  -0.02617,  -0.01308,   0.00000,   0.01745,   0.00873,  -0.00581,   0.01891,   0.00873,   0.03781,   0.02763,  -0.03053,  -0.08434,   0.02763,   0.00437,   0.03636,  -0.02908,   0.01600,   0.09016,  -0.05671,   0.02327,  -0.02181,   0.03490,   0.06108,  -0.00727,  -0.01890,   0.00582,   0.01164,   0.03490,  -0.00145,   0.06398,   0.07416,   0.02181,  -0.01308,   0.05090,   0.08434,   0.01164,  -0.00291,  -0.00291,   0.04508,  -0.02617,   0.05962,   0.02763,   0.04653,   0.00291,   0.01164,   0.01164,   0.01600,  -0.05234,  -0.00291,  -0.03635,  -0.03344,  -0.07997,  -0.05525,  -0.06252,   0.00727,  -0.01308,   0.02327,   0.04944,  -0.02181,   0.00727,   0.03054,  -0.02472,  -0.01454,   0.03926,  -0.06107,  -0.02617,   0.05526,   0.06689,  -0.03490,   0.01309,  -0.01890,   0.04799,  -0.01163,   0.03199,   0.02472,  -0.01308
  -0.00291,   0.02181,   0.02181,  -0.08724,  -0.04362,   0.01164,  -0.00291,   0.01454,   0.01891,  -0.01745,  -0.03199,  -0.01745,  -0.02763,   0.02472,  -0.05234,   0.00146,  -0.00872,  -0.01454,   0.04217,   0.06835,   0.00146,  -0.00581,  -0.04362,   0.01164,   0.01018,  -0.04507,  -0.02617,  -0.04653,  -0.01454,  -0.02908,  -0.00145,  -0.06252,   0.07852,  -0.00436,   0.02472,  -0.04798,   0.07125,   0.02763,   0.01309,   0.00437,  -0.05962,   0.07852,   0.02036,   0.02908,   0.02181,   0.02472,   0.03345,   0.04799,  -0.07706,   0.03054,   0.02763,  -0.00581,   0.00727,   0.00000,  -0.00727,  -0.02035,   0.06398,   0.06108,  -0.01018,   0.03490,  -0.02035,  -0.08579,   0.00727,  -0.01308,   0.01745,   0.00000,   0.01309,  -0.03926,  -0.01599,   0.02472,   0.04363,  -0.05671,   0.05235,   0.03636,  -0.07852,  -0.01163,  -0.03780,   0.02036,  -0.03635,  -0.08434,  -0.00145,  -0.00291,   0.07416,  -0.00581,  -0.03344,  -0.04507,   0.02327,   0.03490,   0.05090,   0.02181,  -0.02908,   0.07416,   0.02327,   0.02036,   0.01600,  -0.00581,  -0.05962,   0.00000,  -0.09888,   0.00146,  -0.03344,  -0.00872,   0.00727,   0.00291,  -0.06398,  -0.00291,   0.01745,  -0.00436,   0.02763,  -0.00436,  -0.07416,  -0.02181,   0.00873,  -0.05234,   0.07998,  -0.03635,  -0.00291,   0.01600,   0.05235,   0.02472,  -0.00581,   0.03199,  -0.08288,  -0.04071,   0.00437,   0.04363,   0.04653,   0.02181
  -0.01454,   0.03054,  -0.04944,   0.03199,  -0.05089,  -0.03199,   0.04072,   0.02472,  -0.01018,   0.00000,  -0.04071,  -0.02763,  -0.00145,  -0.02326,   0.00727,   0.01309,   0.03345,  -0.03199,  -0.00436,  -0.01018,  -0.01454,  -0.01018,  -0.02908,   0.02327,  -0.02908,   0.00873,  -0.02035,   0.00146,   0.07852,  -0.05525,   0.01164,   0.04653,   0.07852,  -0.02472,  -0.02908,  -0.01454,  -0.00291,   0.02472,  -0.02472,  -0.01454,   0.06689,  -0.01308,   0.03781,  -0.04653,  -0.05380,   0.01600,   0.03781,  -0.02181,  -0.01163,  -0.02908,  -0.09306,   0.02036,  -0.02181,   0.02472,  -0.04507,   0.04217,   0.05090,   0.03490,   0.02763,   0.05817,   0.01745,   0.01164,  -0.04944,  -0.01018,  -0.02326,   0.00582,   0.00146,  -0.05525,   0.04072,  -0.01308,   0.03781,  -0.01745,   0.01018,   0.00000,   0.04653,   0.00727,  -0.01163,  -0.02763,   0.06108,   0.02327,   0.00727,   0.00146,  -0.00291,   0.04944,   0.04072,   0.07125,  -0.00436,   0.00727,   0.00727,  -0.03053,  -0.02617,  -0.00727,   0.03636,   0.00000,   0.04653,  -0.02472,  -0.02617,   0.00437,  -0.05234,  -0.00727,   0.04799,  -0.05380,   0.05090,   0.01600,   0.00437,  -0.04362,   0.02618,   0.03490,   0.04799,   0.03345,  -0.02326,   0.01745,  -0.03926,  -0.01890,   0.00873,  -0.02908,   0.01164,   0.04072,   0.01891,  -0.01745,  -0.06543,  -0.04362,   0.02472,   0.02181,  -0.04362,  -0.01599,  -0.03780,   0.03199
  -0.04217,   0.04508,  -0.04071,   0.05090,   0.01164,   0.04217,   0.01600,   0.00727,   0.01309,   0.03054,  -0.00145,  -0.00145,  -0.03490,  -0.00436,  -0.02763,   0.01745,  -0.02035,  -0.03053,  -0.09306,  -0.01018,  -0.00872,   0.04217,  -0.03635,  -0.01454,  -0.01890,   0.03926,  -0.04071,  -0.00291,  -0.07416,   0.04072,  -0.02181,   0.02327,   0.00000,  -0.02326,  -0.01018,  -0.04944,  -0.06252,   0.01600,  -0.05671,   0.02327,   0.06398,  -0.02181,   0.04944,  -0.01745,  -0.00291,   0.03490,   0.04217,   0.03490,  -0.04944,   0.00727,  -0.02908,  -0.04071,   0.00000,   0.04217,   0.05090,   0.02327,   0.07562,  -0.08288,   0.03781,  -0.00581,  -0.02326,   0.01745,  -0.11196,  -0.00727,  -0.04653,  -0.02763,  -0.00145,  -0.02763,  -0.06834,  -0.01163,  -0.05962,  -0.11196,   0.07562,  -0.01454,  -0.02763,   0.05526,  -0.01890,  -0.05525,  -0.03780,  -0.04798,   0.00146,   0.02908,   0.06544,  -0.06543,  -0.05380,  -0.00727,  -0.02326,  -0.00872,   0.05090,   0.07998,   0.04508,  -0.03635,   0.07852,  -0.03780,   0.03054,   0.03490,  -0.07852,  -0.00145,  -0.02908,  -0.00872,   0.02763,   0.01018,   0.01891,   0.05962,   0.00146,  -0.02181,   0.02763,   0.01018,   0.06544,   0.05817,   0.00291,   0.02908,   0.02181,  -0.04507,  -0.02181,  -0.03780,   0.00437,  -0.02181,   0.01309,  -0.04798,  -0.02763,   0.02618,  -0.02472,  -0.04653,   0.02908,   0.01600,  -0.03199,   0.00582
  -0.01018,  -0.00436,   0.02763,  -0.04071,   0.03926,   0.02036,   0.07562,   0.01164,  -0.04071,   0.07707,   0.01600,   0.02763,  -0.07997,   0.02472,  -0.00436,  -0.07270,   0.02181,  -0.02763,  -0.03053,  -0.00436,  -0.04798,  -0.04944,   0.03054,  -0.09015,  -0.03635,  -0.00145,   0.02618,   0.02036,  -0.05234,   0.01454,  -0.05671,  -0.04798,  -0.00581,  -0.04507,  -0.03344,   0.04363,  -0.04798,  -0.03199,  -0.02908,   0.01309,  -0.02908,   0.01745,  -0.02617,  -0.05962,   0.00291,   0.07416,   0.06398,   0.11197,   0.00582,  -0.01890,   0.09307,   0.01600,   0.00437,  -0.03635,  -0.01745,   0.03054,  -0.04507,   0.01600,  -0.07416,   0.02618,   0.03926,   0.02327,   0.01164,  -0.02181,  -0.05962,  -0.02472,   0.05235,   0.03781,  -0.03490,   0.06398,  -0.00872,  -0.07270,  -0.05962,   0.05526,   0.02472,   0.01454,   0.02036,  -0.00145,   0.01454,  -0.05525,  -0.01308,   0.03054,   0.14687,   0.05380,   0.00727,   0.00437,  -0.03490,  -0.00436,   0.02618,   0.03345,   0.04508,  -0.02035,  -0.00727,   0.07562,  -0.00872,  -0.02617,  -0.00581,   0.04363,   0.04508,  -0.00145,   0.03926,  -0.00436,   0.03490,   0.04799,   0.01454,   0.01600,  -0.02035,  -0.02472,   0.04217,   0.00291,   0.06689,  -0.03199,   0.03636,  -0.01890,   0.09888,   0.02472,  -0.04362,   0.02763,  -0.01454,   0.08579,  -0.01890,  -0.02181,   0.07125,   0.01018,  -0.00145,   0.01891,   0.01164,  -0.10469
  -0.02908,   0.01454,  -0.04071,  -0.03926,  -0.05671,   0.03490,  -0.05089,   0.02472,   0.00291,  -0.07706,   0.02036,   0.01600,   0.08143,  -0.08143,   0.04944,   0.01164,  -0.03199,   0.00146,   0.00582,   0.03926,  -0.06834,   0.07852,   0.02763,   0.07998,  -0.04071,   0.00000,  -0.00872,   0.02618,   0.05526,  -0.03780,  -0.00581,   0.01309,  -0.01599,  -0.02908,   0.01454,  -0.05525,   0.08143,   0.04363,   0.03199,   0.00146,  -0.00291,   0.02908,  -0.00581,   0.02327,  -0.04944,   0.04944,  -0.03635,   0.01454,   0.02036,  -0.02763,   0.01745,  -0.06398,  -0.04362,   0.05380,  -0.01308,  -0.01454,   0.00873,  -0.08724,  -0.00145,   0.03199,  -0.01745,   0.02618,  -0.03780,  -0.08579,   0.01164,  -0.00727,   0.02327,   0.02181,  -0.01308,   0.04072,   0.04653,   0.04072,   0.03636,  -0.03199,   0.00000,   0.01018,  -0.07416,   0.00291,  -0.01308,  -0.02617,  -0.05525,   0.04508,   0.04653,  -0.03490,  -0.01308,   0.04217,   0.00437,  -0.01745,   0.00146,  -0.05234,   0.00873,   0.02618,  -0.04071,  -0.00872,  -0.01163,  -0.00872,  -0.06252,   0.01309,  -0.00872,  -0.05671,   0.00873,  -0.03053,   0.02763,   0.03199,   0.00437,  -0.07852,   0.01309,   0.01745,  -0.00145,   0.06980,   0.03636,   0.00582,   0.05671,   0.06398,   0.02327,  -0.01308,  -0.11342,  -0.05525,  -0.01745,   0.02181,   0.00437,  -0.02181,  -0.06543,  -0.01599,  -0.02035,   0.03054,  -0.01308,  -0.05816
   0.04217,  -0.03199,  -0.01163,   0.05235,  -0.03926,  -0.01890,  -0.02181,  -0.01018,   0.06689,   0.05090,   0.02327,   0.00146,  -0.01454,   0.02618,   0.00582,  -0.03053,  -0.05525,  -0.02763,  -0.01018,   0.04217,  -0.00145,  -0.00872,  -0.01454,  -0.02763,  -0.03344,  -0.02035,   0.01745,  -0.00291,   0.02327,  -0.00436,  -0.05671,   0.00000,   0.00146,  -0.05962,   0.02763,  -0.07125,  -0.01018,  -0.04944,  -0.01454,  -0.04653,  -0.04944,  -0.02617,   0.02181,  -0.02908,  -0.00436,   0.03926,  -0.01454,  -0.06834,   0.01164,   0.05817,  -0.00145,  -0.03053,   0.01309,  -0.02326,  -0.05816,   0.00146,  -0.04217,  -0.01018,  -0.03635,  -0.03053,  -0.05671,  -0.01599,  -0.01308,  -0.00436,   0.01018,   0.03199,  -0.06107,   0.04072,  -0.03490,   0.10324,  -0.04217,  -0.02472,   0.01164,  -0.01890,   0.07562,  -0.03053,   0.02908,   0.03781,   0.01164,   0.02472,   0.03199,  -0.01599,   0.04072,  -0.03053,   0.00727,   0.02908,  -0.01745,   0.00727,   0.00582,   0.02908,  -0.01018,  -0.01745,  -0.02181,  -0.02617,  -0.00291,  -0.00436,   0.03781,   0.00291,   0.00437,  -0.01018,  -0.04217,   0.03490,   0.01891,  -0.04071,  -0.06979,   0.04508,  -0.01308,  -0.03344,   0.01454,   0.08725,   0.01454,   0.01309,   0.01164,   0.04363,  -0.04362,  -0.00872,  -0.12505,  -0.02472,  -0.01745,   0.01164,   0.02763,   0.05090,  -0.01890,   0.09161,   0.00146,  -0.00727,   0.03926,  -0.05380
  -0.01599,  -0.00727,  -0.02763,  -0.01599,   0.02908,   0.01309,   0.01891,  -0.05234,   0.07125,  -0.01890,   0.03636,   0.03345,   0.00873,   0.01164,  -0.03926,  -0.02617,   0.00146,  -0.01745,  -0.00872,   0.01454,   0.02181,   0.04508,   0.01600,  -0.02763,  -0.05525,  -0.05380,  -0.05234,   0.00291,   0.06835,   0.04072,   0.06253,   0.03636,   0.04653,   0.04799,   0.01891,   0.00437,  -0.02617,  -0.12796,   0.00873,   0.06398,   0.05090,   0.03926,   0.03345,  -0.08143,   0.02472,   0.00437,   0.00146,   0.04217,   0.07852,   0.02908,   0.06398,  -0.00727,   0.03490,   0.04508,  -0.07852,   0.00873,  -0.01745,   0.01018,   0.00000,   0.03054,  -0.03344,   0.03926,  -0.07270,  -0.02617,  -0.03490,  -0.00872,   0.01018,  -0.04653,   0.02472,  -0.06834,  -0.00436,   0.01018,  -0.01018,   0.07998,  -0.00727,   0.00437,  -0.02617,  -0.06107,  -0.03490,   0.02472,  -0.01890,  -0.01599,   0.04508,   0.02472,  -0.05380,   0.00873,   0.04072,  -0.02035,   0.01891,   0.00582,   0.00437,   0.00873,  -0.02763,   0.00000,  -0.03926,   0.01891,  -0.00436,   0.01309,  -0.06834,   0.01745,  -0.01018,   0.03781,   0.03781,   0.04508,  -0.02763,   0.00873,  -0.04362,   0.03054,   0.05235,   0.03781,   0.00437,  -0.02617,   0.04363,  -0.01018,  -0.00436,  -0.01308,   0.04799,  -0.03053,   0.01454,   0.03054,  -0.01308,   0.02327,   0.01600,  -0.02908,   0.02472,  -0.01890,   0.04363,  -0.03053
  -0.01018,   0.02472,   0.02763,   0.02181,   0.05817,   0.02036,   0.00000,   0.01164,   0.01309,  -0.02326,   0.00727,  -0.02035,  -0.04507,  -0.00291,   0.01309,  -0.04071,   0.02472,   0.00437,  -0.01454,   0.05526,   0.03054,  -0.05380,   0.02908,   0.02472,  -0.02617,  -0.08288,   0.02908,   0.01309,   0.00437,  -0.03926,  -0.00436,  -0.05234,  -0.02472,  -0.05380,  -0.01454,  -0.01018,  -0.00872,  -0.04362,   0.02327,   0.03199,  -0.02617,   0.07562,  -0.02908,  -0.00291,   0.01018,  -0.01745,  -0.01163,   0.02181,  -0.00145,  -0.00291,   0.03054,  -0.02035,  -0.02035,   0.06980,   0.00873,   0.07125,  -0.04362,  -0.02035,   0.02181,   0.02181,   0.02908,   0.03781,  -0.02908,   0.01018,   0.00873,  -0.01163,  -0.03926,  -0.00436,   0.04508,  -0.01308,  -0.00291,  -0.04362,  -0.06107,   0.02036,  -0.00145,  -0.05380,   0.00873,  -0.01454,  -0.05671,   0.01454,   0.02036,   0.02327,   0.01600,   0.04217,   0.04217,   0.00727,  -0.01163,  -0.03344,  -0.03490,  -0.07561,  -0.05089,   0.01600,   0.02327,   0.01891,  -0.04362,   0.05817,   0.00146,  -0.01890,  -0.06107,  -0.00291,   0.00582,   0.00000,  -0.08724,   0.00727,  -0.03344,  -0.00436,   0.04217,   0.00146,   0.00727,   0.02472,   0.01600,   0.02181,   0.01891,   0.01745,  -0.03053,   0.03054,   0.00727,   0.01600,  -0.00581,  -0.01454,  -0.07416,  -0.05671,  -0.04944,  -0.01890,  -0.01454,  -0.02908,  -0.01454,  -0.02326
   0.06253,  -0.07125,   0.03054,   0.04508,  -0.06689,  -0.00291,   0.02763,   0.01891,   0.06108,   0.02908,   0.05671,  -0.00145,   0.02908,   0.01745,   0.00873,   0.04363,   0.02472,   0.00000,   0.01745,   0.01309,   0.02763,  -0.09306,  -0.01890,  -0.01163,  -0.08434,   0.01164,  -0.00436,   0.02472,   0.03926,  -0.03780,   0.02472,   0.01309,   0.05090,   0.02181,   0.01600,  -0.07270,   0.06689,  -0.03780,   0.03054,  -0.00291,  -0.04653,  -0.00436,   0.02327,  -0.03635,   0.07416,  -0.06543,  -0.03199,  -0.01454,  -0.05234,   0.02327,  -0.01745,  -0.01599,   0.01164,  -0.01599,  -0.02035,   0.03199,   0.01600,  -0.02326,  -0.01454,  -0.04507,  -0.06107,   0.01309,  -0.06107,   0.00873,   0.04653,  -0.01745,  -0.00436,  -0.02617,  -0.01163,  -0.02326,  -0.00581,   0.03490,   0.02763,   0.05962,   0.04944,   0.05235,   0.04653,  -0.08143,  -0.03199,   0.00146,  -0.00727,  -0.03780,  -0.02181,   0.02472,   0.03926,  -0.01163,   0.00291,  -0.03926,  -0.01599,   0.06108,   0.00437,  -0.02763,   0.05235,  -0.01308,  -0.00727,   0.03781,   0.04363,   0.00873,   0.07707,  -0.07270,   0.03345,  -0.03490,  -0.02326,  -0.03490,   0.01600,  -0.03053,   0.07271,  -0.01890,  -0.01018,   0.02036,  -0.06107,   0.04072,   0.01309,   0.05090,  -0.04507,   0.01891,   0.01164,  -0.02181,  -0.02181,   0.05380,  -0.05380,   0.02618,  -0.00436,   0.02908,  -0.01890,   0.02327,   0.02908,   0.03054
   0.00582,  -0.01890,  -0.02763,  -0.01018,   0.02763,  -0.01018,  -0.03344,  -0.04071,  -0.00727,  -0.01018,   0.02181,  -0.02035,  -0.00727,  -0.03344,  -0.02472,  -0.02472,   0.01600,  -0.01454,   0.03926,  -0.02326,   0.02181,   0.00873,   0.00291,   0.02181,  -0.03635,   0.01891,   0.01309,  -0.00145,   0.00873,  -0.00436,  -0.05089,  -0.02617,   0.03199,   0.03781,   0.06544,  -0.05962,   0.00873,   0.04508,   0.03054,  -0.00291,  -0.02472,   0.06544,  -0.00727,  -0.01308,   0.08434,   0.00000,   0.03345,  -0.03053,  -0.08143,  -0.01163,   0.03054,   0.02327,   0.00437,   0.01745,   0.08289,  -0.03199,   0.04653,  -0.02472,  -0.03199,  -0.00145,   0.00000,   0.00437,  -0.01454,  -0.01745,  -0.01308,   0.05380,   0.00727,  -0.03053,  -0.00872,   0.03054,  -0.04362,   0.03345,   0.02472,   0.00582,  -0.01308,   0.04072,  -0.07125,   0.04799,  -0.04507,   0.00582,   0.00146,   0.02908,   0.00727,  -0.05234,  -0.00581,   0.07852,  -0.03344,  -0.00872,  -0.03780,   0.04653,   0.01745,   0.11924,   0.07125,   0.01164,  -0.01890,   0.05380,   0.01745,   0.07998,   0.03926,   0.00727,   0.04217,  -0.04071,   0.01600,  -0.00145,  -0.01890,  -0.09161,   0.04217,  -0.01163,   0.03490,   0.02908,  -0.04071,  -0.05671,   0.01309,  -0.00145,  -0.00581,  -0.03344,   0.03345,   0.01891,   0.01891,  -0.06979,   0.00727,   0.02472,  -0.04798,   0.05235,  -0.02181,   0.03781,   0.04508,  -0.06689
   0.04363,  -0.00872,  -0.04798,  -0.07561,   0.02181,   0.00000,  -0.04507,  -0.09015,   0.05962,  -0.02326,   0.05235,   0.03490,   0.06398,  -0.03780,  -0.02181,   0.04072,   0.03490,   0.05671,  -0.01308,   0.07707,   0.00000,   0.00582,  -0.04071,   0.03926,  -0.02617,  -0.01599,   0.04072,   0.05235,   0.00727,  -0.00291,  -0.02763,   0.03199,  -0.00291,  -0.04217,   0.01309,  -0.04362,   0.00146,  -0.04217,  -0.01599,  -0.06398,  -0.00581,   0.00727,  -0.11051,   0.05090,  -0.02763,   0.00291,   0.07562,  -0.02472,   0.04944,  -0.01163,  -0.06834,   0.01309,   0.07998,  -0.03490,   0.05962,  -0.02763,  -0.01890,   0.09743,  -0.01745,  -0.00145,   0.00437,   0.04217,  -0.04071,   0.03926,  -0.06107,   0.04508,   0.00727,  -0.02181,   0.05235,  -0.05962,   0.05817,   0.01309,  -0.02908,   0.06835,   0.05671,  -0.03635,  -0.01308,  -0.02035,   0.06108,   0.02036,   0.06253,   0.07416,   0.05380,   0.03636,  -0.01308,   0.01745,  -0.04507,  -0.02035,   0.01745,  -0.05380,  -0.02472,  -0.00581,  -0.04362,   0.02472,  -0.03926,   0.02327,   0.03781,   0.00727,  -0.03780,   0.00873,  -0.05525,   0.04944,   0.00727,   0.00146,   0.02618,   0.01454,  -0.01018,   0.01018,   0.02472,   0.04363,  -0.05380,   0.03926,  -0.01454,   0.06544,  -0.01599,  -0.04217,   0.00582,   0.00727,   0.06398,   0.01018,  -0.04217,  -0.00872,  -0.02763,   0.01309,   0.02327,   0.01454,   0.00873,   0.03199
   0.01745,   0.01891,   0.02472,  -0.04362,   0.02036,   0.01018,   0.04653,  -0.03635,  -0.06398,  -0.01745,   0.03490,   0.00727,  -0.01163,   0.03199,  -0.03490,   0.04508,   0.05671,  -0.01018,   0.01454,   0.09743,  -0.02908,   0.02618,  -0.02472,  -0.04071,  -0.05525,  -0.01308,  -0.04362,   0.00437,  -0.03780,  -0.01890,  -0.03635,  -0.03199,  -0.06689,   0.02181,  -0.04798,  -0.02617,   0.01164,  -0.04362,   0.08143,   0.04799,  -0.04944,   0.01745,  -0.01745,   0.00437,   0.02618,   0.01164,   0.02618,  -0.02908,   0.03490,   0.03199,  -0.01599,   0.02327,  -0.02617,   0.01454,   0.01600,  -0.00581,   0.01600,  -0.01454,   0.02327,  -0.02472,  -0.03780,   0.02618,  -0.04217,   0.00000,  -0.02035,   0.02763,   0.06980,  -0.01018,   0.02472,   0.05090,  -0.01308,   0.00291,  -0.01454,   0.01891,  -0.00145,   0.00727,   0.05526,   0.02181,  -0.00872,   0.02327,  -0.03780,   0.01891,   0.03054,  -0.04071,   0.02036,   0.03054,  -0.05962,   0.01454,  -0.00872,   0.00437,   0.01891,   0.06835,  -0.02035,   0.04072,  -0.01599,   0.05090,   0.02036,   0.00582,  -0.01163,   0.01018,   0.01018,   0.02908,  -0.02035,   0.01745,  -0.01745,  -0.01890,  -0.01308,  -0.01745,  -0.00145,   0.02327,   0.06544,   0.02327,   0.04072,   0.03054,  -0.01018,  -0.04362,  -0.02035,   0.05380,   0.06253,   0.05380,   0.01018,   0.00000,   0.00582,  -0.04944,   0.02472,   0.00146,   0.07852,   0.01600
   0.06398,   0.04944,  -0.03635,  -0.01599,   0.04799,   0.01454,   0.05962,  -0.00581,   0.01600,  -0.01018,   0.06253,  -0.01308,   0.01164,   0.03926,   0.02327,   0.04072,  -0.04944,  -0.02763,   0.07125,  -0.02617,   0.03490,  -0.05962,  -0.08288,  -0.02472,  -0.01308,   0.00146,  -0.01018,  -0.00436,   0.01164,   0.00291,  -0.01454,   0.04072,   0.00146,  -0.02908,   0.02327,  -0.00291,   0.06689,  -0.02035,  -0.01163,  -0.04071,  -0.03635,  -0.01599,   0.02327,  -0.00581,   0.00291,   0.03490,  -0.04798,  -0.01890,  -0.02763,  -0.03926,  -0.03344,  -0.00436,  -0.08724,  -0.02035,   0.04508,   0.01891,  -0.00581,  -0.03780,  -0.01890,  -0.03199,   0.01600,  -0.00436,   0.00582,  -0.00581,   0.01745,   0.04072,   0.04944,   0.03345,   0.00437,   0.01891,   0.01309,  -0.06689,   0.02618,  -0.01018,   0.00873,  -0.04217,   0.02327,   0.00000,  -0.05089,  -0.01745,   0.01164,  -0.01018,   0.03636,   0.01600,   0.00727,  -0.00872,   0.02618,   0.00000,  -0.06543,  -0.00872,   0.07125,   0.02181,   0.06398,   0.00582,   0.05526,  -0.01454,   0.06108,  -0.01599,  -0.08870,  -0.00436,  -0.00727,   0.04072,  -0.04653,   0.08725,   0.02763,   0.05090,   0.01164,   0.01600,   0.01018,   0.06253,  -0.00436,   0.03054,  -0.05234,   0.01309,   0.06689,  -0.02326,  -0.01308,  -0.01308,  -0.02035,  -0.05380,  -0.08870,   0.00146,  -0.06834,   0.04217,   0.03490,   0.05235,   0.00437,   0.03781
   0.02181,  -0.02617,   0.03926,   0.00873,   0.01454,  -0.06834,  -0.00436,   0.01309,  -0.01890,   0.02327,  -0.02472,  -0.06834,  -0.04071,   0.02472,  -0.02763,  -0.00436,  -0.02908,  -0.05234,  -0.02035,   0.04217,  -0.00436,  -0.01745,  -0.01745,  -0.00291,  -0.01308,  -0.01890,   0.07562,   0.00437,  -0.05962,  -0.05671,  -0.02472,  -0.02035,   0.06835,  -0.03926,  -0.03199,   0.01600,   0.01309,  -0.05816,  -0.03926,   0.01454,   0.06253,  -0.02472,   0.01164,   0.04217,  -0.06979,  -0.06398,  -0.02326,  -0.01454,   0.00437,  -0.02763,  -0.06398,  -0.04507,  -0.04653,   0.03054,   0.06544,   0.05380,  -0.07270,  -0.05380,   0.02763,   0.01018,  -0.00727,  -0.02472,   0.02036,   0.01018,   0.04217,   0.00873,  -0.03926,   0.00873,   0.03636,  -0.03635,  -0.03344,   0.01891,   0.02327,  -0.01745,   0.01891,  -0.00291,   0.02763,   0.03345,  -0.00436,  -0.01308,   0.00000,   0.02472,  -0.05380,  -0.00727,  -0.08288,  -0.01163,  -0.01599,   0.03199,  -0.00581,  -0.03635,   0.01745,   0.04799,   0.06980,  -0.00145,   0.01309,  -0.02035,  -0.01308,   0.05526,  -0.02763,   0.03636,  -0.07416,   0.02181,  -0.02035,   0.09888,  -0.01745,  -0.00436,   0.04363,   0.09161,  -0.03635,  -0.05816,   0.05380,   0.00291,  -0.07852,  -0.00436,  -0.00872,  -0.03053,   0.04944,   0.02763,   0.01600,  -0.00291,  -0.03926,  -0.08288,   0.07416,  -0.02617,  -0.00436,   0.00146,  -0.01890,  -0.03344
  -0.02472,  -0.01308,   0.01309,  -0.00291,   0.07707,   0.06108,   0.01309,   0.02327,   0.03781,   0.03636,   0.00000,   0.03490,  -0.01163,   0.01745,  -0.00291,  -0.00727,  -0.01454,   0.06689,  -0.00436,   0.02618,  -0.00291,   0.02618,  -0.01018,  -0.00291,  -0.02908,   0.01018,  -0.00581,   0.03926,   0.02763,  -0.01308,   0.03345,   0.00437,   0.04944,  -0.03635,   0.00437,   0.04653,  -0.03199,  -0.01454,  -0.01599,   0.05817,   0.00291,   0.06980,  -0.02763,   0.02908,   0.15414,  -0.02908,  -0.05816,  -0.00581,  -0.00581,  -0.06979,  -0.01018,  -0.04653,   0.01745,   0.06980,  -0.00727,   0.00873,  -0.02472,  -0.01599,  -0.00291,   0.04944,  -0.04653,   0.04799,  -0.03053,  -0.01599,  -0.06252,   0.00146,   0.00582,  -0.00727,   0.00291,   0.00000,  -0.02617,   0.00727,   0.04653,   0.01164,  -0.02035,   0.01018,  -0.01890,   0.02618,  -0.01890,   0.01164,   0.00437,  -0.07706,   0.07707,   0.02036,   0.00000,   0.04799,   0.03490,   0.03054,  -0.02908,  -0.02763,  -0.04071,   0.01018,  -0.02326,   0.01164,   0.02036,   0.02763,  -0.07997,   0.04508,   0.03345,   0.00437,  -0.02472,   0.00437,   0.03926,   0.05962,   0.00437,   0.03199,  -0.00145,  -0.01308,  -0.03490,   0.02763,   0.01600,   0.02181,  -0.00436,  -0.00145,  -0.02181,  -0.04507,  -0.03344,  -0.04944,  -0.01454,  -0.03926,   0.00291,  -0.06107,  -0.03635,  -0.02035,   0.01745,   0.02181,   0.03054,   0.00873
