  -0.01789,  -0.15958,   0.07300,   0.08102,   0.10241,   0.04092,  -0.22642,   0.03290,  -0.12483,   0.06231,  -0.03126,   0.03825,  -0.06869,  -0.00987,   0.08370,  -0.02591,   0.06498,   0.04092,   0.00884,  -0.04463,   0.02221,   0.05162,   0.15321,  -0.04997,   0.20935,  -0.01522,  -0.10344,   0.01686,  -0.01522,   0.02756,   0.03825,   0.01686,  -0.00452,   0.12380,  -0.08740,  -0.08740,  -0.03928,  -0.04463,   0.00617,  -0.05532,  -0.09007,  -0.03928,  -0.06334,  -0.05799,  -0.14087,  -0.04463,   0.16925,   0.12380,  -0.04997,   0.12380,   0.08637,   0.02221,   0.07300,  -0.06601,  -0.05532,   0.01686,   0.01152,  -0.09542,   0.04627,  -0.15958,   0.10241,  -0.09275,  -0.00720,   0.08904,  -0.15424,   0.04092,  -0.00185,   0.09707,  -0.14621,  -0.03661,   0.27886,   0.14519,   0.05162,   0.15053,   0.00082,  -0.06334,  -0.06334,   0.04092,  -0.05532,   0.09439,  -0.03928,   0.04092,   0.05964,   0.06766,   0.08637,   0.00617,   0.12915,  -0.01522,  -0.12483,  -0.04997,  -0.06334,   0.06231,   0.11845,   0.06498,   0.01419,  -0.00452,  -0.00185,  -0.07403,   0.04894,  -0.00720,  -0.02324,  -0.09542,   0.04092,   0.01954,  -0.06067,   0.09707,   0.03825,   0.11043,  -0.01789,   0.02221,  -0.03928,   0.07568,  -0.00987,   0.03558,   0.01686,  -0.07671,   0.05696,   0.05696,  -0.00720,  -0.05532,   0.04894,  -0.00185,   0.03825,   0.01152,  -0.05532,  -0.05532,   0.10509,   0.06231,   0.03290,   0.09707,  -0.10611,   0.08637,   0.06498,  -0.00987,  -0.01789,  -0.05532,   0.04360,  -0.10611,   0.07835,   0.00082,   0.05162,   0.04894,   0.06498,  -0.03928,  -0.02591,  -0.09542,  -0.00185,  -0.02858,  -0.00452,  -0.06334,   0.02221,  -0.01254,  -0.03928,   0.06766,  -0.16493,   0.04092,   0.04092,   0.03825,  -0.06334,  -0.00987,   0.02488,   0.01419,   0.20935,   0.03023,  -0.04730,  -0.09275,   0.11578,   0.09172,   0.03825,   0.01686,  -0.03393,  -0.05532,  -0.10344,   0.02488,   0.03023,   0.03290,   0.03290,   0.04627,   0.11311,   0.11043,  -0.10879,   0.06766,   0.04360,   0.00350,  -0.04997,  -0.08205,  -0.08740,  -0.05799,  -0.11681,  -0.01522,  -0.09542,  -0.08205,  -0.11413,  -0.02324,  -0.01254,  -0.10344,  -0.02858,  -0.00185,  -0.01789,  -0.03661,  -0.04997,  -0.09275,  -0.13819,   0.12380,  -0.06067,  -0.05799,  -0.13285,   0.06498,   0.04360,  -0.07938,  -0.05265,   0.04894,   0.15321,   0.03023,   0.01419,   0.08102,  -0.18632,  -0.01789,   0.04360,  -0.13819,  -0.05532,  -0.00185,  -0.13017,   0.07300,  -0.07938,  -0.08473,  -0.06601,  -0.02056,  -0.05265,  -0.07938,  -0.07403,  -0.03928,   0.05429,   0.01686,   0.04092,   0.03825,   0.10509,   0.04360,   0.02756,   0.00082,  -0.01254,   0.01954,   0.03558,  -0.01789,  -0.13285,  -0.12215,  -0.05265,  -0.03126,   0.03825,   0.04627,  -0.05532,   0.01419,   0.05696,  -0.22107,   0.00350,  -0.06869
   0.07300,   0.01419,   0.11043,   0.05429,   0.01152,  -0.07938,  -0.07403,  -0.05265,   0.08370,  -0.13285,   0.00884,  -0.10077,  -0.00720,  -0.01254,  -0.07403,   0.02488,  -0.07938,   0.00350,   0.06766,   0.06231,  -0.04997,  -0.14354,  -0.08473,   0.07568,   0.09707,   0.07568,   0.08370,   0.00617,   0.12380,  -0.03928,  -0.04195,   0.01419,   0.06231,  -0.01789,  -0.09809,   0.04894,  -0.09809,   0.08904,   0.01152,  -0.03928,   0.05964,  -0.01789,   0.07033,   0.00082,   0.00617,   0.00884,  -0.15424,  -0.10077,  -0.10611,  -0.05532,   0.07300,   0.02756,   0.00082,   0.01954,   0.09172,  -0.07671,  -0.13552,  -0.10611,   0.00884,   0.02488,   0.02756,   0.12647,  -0.01789,  -0.02324,   0.03290,  -0.12750,   0.03023,   0.11043,  -0.02591,  -0.03928,  -0.00452,  -0.03928,   0.16925,   0.04360,   0.07568,   0.06498,  -0.05799,   0.03825,  -0.08740,   0.01686,   0.06498,   0.10509,   0.00884,  -0.11413,   0.02756,  -0.07403,   0.00350,   0.10509,   0.01419,   0.05696,  -0.05799,  -0.06869,   0.07300,   0.11578,   0.07835,   0.03023,   0.06766,  -0.00452,  -0.10344,   0.02756,  -0.00987,  -0.09542,  -0.02858,   0.00617,   0.00617,  -0.01789,   0.03023,   0.12380,  -0.01522,  -0.12215,   0.02221,   0.04092,  -0.17028,  -0.11146,   0.08370,  -0.04730,   0.14786,   0.04092,   0.07033,   0.01954,   0.05964,  -0.10344,   0.03290,  -0.03393,  -0.07136,  -0.01522,  -0.00452,  -0.05532,  -0.01522,   0.00082,   0.01954,   0.15588,   0.04360,   0.02221,   0.10509,  -0.05799,   0.03558,  -0.06601,   0.05429,   0.03290,  -0.04463,  -0.04463,   0.08904,  -0.02591,   0.06766,  -0.18632,  -0.00185,  -0.11681,   0.07033,  -0.16493,  -0.05265,  -0.16760,  -0.02324,   0.08637,  -0.02858,  -0.00185,   0.09439,   0.03825,  -0.01789,   0.06498,   0.10509,   0.00884,  -0.02056,   0.07033,  -0.06334,   0.02756,   0.06766,  -0.11146,  -0.03126,   0.03290,   0.05696,  -0.07938,  -0.00185,  -0.06869,   0.09974,   0.11578,  -0.08205,   0.06231,  -0.06869,   0.02221,   0.05964,   0.06498,   0.04092,   0.19063,  -0.11681,  -0.03928,  -0.10879,   0.01152,   0.01419,  -0.06334,   0.08102,   0.05162,   0.04894,   0.04627,   0.06498,   0.05964,   0.00617,  -0.00987,   0.03023,   0.10776,  -0.00987,  -0.03393,  -0.00987,   0.10241,   0.01954,   0.01419,   0.00082,  -0.01789,  -0.04997,   0.11845,   0.00884,   0.03290,  -0.11146,   0.11845,  -0.05532,   0.02221,  -0.14889,  -0.05799,  -0.00185,   0.01954,   0.12647,  -0.22642,  -0.05532,  -0.12750,  -0.01789,  -0.02056,  -0.03393,  -0.04997,   0.10241,   0.00350,  -0.00452,  -0.00720,  -0.09809,  -0.04195,   0.02221,   0.00082,   0.08102,   0.02756,   0.05429,  -0.01254,   0.11043,  -0.07403,  -0.10879,   0.23876,   0.05429,   0.02221,  -0.05799,  -0.01789,  -0.08473,  -0.00720,   0.03558,  -0.07671,   0.07300,   0.08102,   0.10241,  -0.00720
   0.02488,   0.11578,  -0.08473,  -0.13819,   0.05162,   0.05964,  -0.10077,   0.08637,   0.08370,  -0.09275,  -0.05532,  -0.02324,   0.09974,  -0.01522,   0.14786,  -0.02324,  -0.04997,  -0.00185,  -0.02056,   0.05696,   0.11845,  -0.04730,   0.03558,  -0.00185,   0.09974,  -0.05265,   0.03558,   0.04894,  -0.03928,   0.01152,  -0.06334,  -0.07136,   0.03558,  -0.02324,  -0.00720,  -0.10077,   0.14519,  -0.12215,   0.13984,  -0.08473,   0.04360,  -0.03126,  -0.02858,  -0.04997,   0.02488,   0.04627,  -0.00987,  -0.06067,  -0.02324,   0.00884,  -0.00720,   0.03825,   0.09974,   0.05162,  -0.01254,   0.03290,   0.09974,  -0.06601,   0.12647,  -0.01789,  -0.01789,   0.04092,  -0.15156,  -0.04195,   0.14519,   0.04894,   0.00082,   0.02488,   0.12113,  -0.14889,  -0.07938,   0.02488,  -0.04997,  -0.08740,  -0.06869,  -0.05532,   0.01686,   0.02221,  -0.01254,  -0.13552,   0.00617,   0.06498,   0.05696,   0.16123,  -0.04195,   0.18261,  -0.09809,  -0.02858,   0.03558,   0.06498,   0.05162,   0.06231,  -0.08205,   0.05162,  -0.00185,  -0.03126,   0.02488,   0.10241,  -0.02324,  -0.06067,  -0.04730,   0.03558,  -0.02591,  -0.00987,   0.13984,   0.02756,  -0.04463,  -0.09275,  -0.07403,  -0.06334,   0.06766,   0.00617,  -0.05532,   0.09172,   0.04360,  -0.02056,   0.05429,  -0.03393,   0.04894,   0.04894,  -0.03393,  -0.14621,  -0.02591,  -0.06334,   0.13449,  -0.02324,  -0.00452,   0.00082,   0.10509,   0.07033,  -0.07136,  -0.14889,   0.01954,  -0.03928,  -0.06601,  -0.08205,  -0.16226,  -0.07938,   0.05964,   0.01419,  -0.06869,   0.05429,   0.03825,   0.08102,  -0.10077,  -0.03393,  -0.10344,  -0.05265,  -0.03126,   0.05696,  -0.14621,   0.03023,  -0.03661,   0.04360,   0.06231,  -0.14354,  -0.09275,   0.02221,   0.10509,  -0.09007,  -0.03661,   0.05162,   0.06498,   0.03023,  -0.04997,   0.12915,  -0.09542,   0.03023,   0.09439,   0.00884,   0.06498,  -0.01254,   0.07300,   0.06766,  -0.02056,   0.00350,   0.04627,  -0.07938,  -0.00987,   0.03290,   0.01686,  -0.06601,  -0.08205,  -0.10344,  -0.00185,  -0.15156,   0.09439,   0.03825,   0.17192,   0.04092,   0.02488,  -0.06067,  -0.05265,  -0.01522,   0.04627,  -0.04463,  -0.02324,   0.04092,  -0.04195,  -0.03393,  -0.00987,  -0.10344,  -0.07136,   0.03290,  -0.04463,   0.07033,   0.08102,   0.08102,  -0.07938,   0.11043,   0.05162,  -0.11948,   0.05162,  -0.02056,  -0.03928,  -0.07938,  -0.02056,   0.06231,   0.06231,   0.12113,   0.14519,   0.01686,   0.17192,  -0.08740,   0.09974,  -0.11681,   0.00082,   0.00082,   0.04360,   0.13717,  -0.06067,   0.13717,  -0.02858,   0.01686,  -0.01522,   0.14519,   0.02221,  -0.04730,   0.11845,  -0.09542,   0.02756,   0.10241,  -0.06869,   0.03023,  -0.08473,  -0.04195,   0.01419,   0.05162,  -0.06067,   0.20400,   0.01686,  -0.01522,  -0.05265,   0.16123,   0.00617,  -0.01789
  -0.00452,   0.07568,  -0.02056,   0.02756,   0.06498,  -0.15424,  -0.03661,  -0.07403,   0.06231,  -0.08205,  -0.07671,  -0.08473,   0.12380,  -0.10879,   0.10776,   0.00350,  -0.05799,  -0.00720,   0.08102,   0.07033,  -0.10879,  -0.01789,  -0.03661,   0.08370,  -0.18632,   0.00617,  -0.05532,  -0.09007,   0.02488,   0.09974,   0.03825,   0.05964,   0.01419,  -0.04463,  -0.14354,  -0.01522,   0.01152,   0.05696,  -0.01254,  -0.02858,   0.01419,  -0.08740,  -0.06067,  -0.04997,  -0.00720,  -0.02324,  -0.00987,   0.00884,  -0.08473,   0.01419,   0.01419,  -0.10879,  -0.03393,   0.15588,  -0.09542,   0.03825,   0.04092,   0.00350,   0.17727,   0.05964,   0.02221,   0.03290,   0.18261,  -0.05532,   0.02221,   0.02488,  -0.06067,   0.03023,   0.10776,  -0.09542,   0.09172,  -0.06334,  -0.02591,   0.09439,  -0.08205,   0.06498,  -0.09275,   0.09172,   0.00082,  -0.03126,   0.10776,  -0.05265,   0.07033,  -0.09275,   0.00350,  -0.15424,  -0.12750,  -0.09542,  -0.14621,  -0.03661,   0.00617,   0.12647,   0.10509,   0.00350,   0.04627,   0.06231,   0.08637,   0.15855,  -0.05265,  -0.07938,   0.02488,  -0.10344,   0.11578,   0.07033,   0.03825,  -0.09275,   0.06498,  -0.11146,   0.00350,   0.15053,  -0.03126,   0.05964,  -0.01522,  -0.07671,  -0.02324,  -0.01254,  -0.11146,  -0.02056,  -0.02858,  -0.09275,  -0.05265,   0.16657,   0.12915,   0.14519,  -0.00720,   0.00617,  -0.15156,  -0.02591,   0.05964,   0.02488,   0.00884,   0.06231,   0.00082,  -0.15958,  -0.00720,  -0.15156,  -0.01254,  -0.00987,   0.21202,   0.07835,   0.09439,   0.11845,  -0.02858,   0.07033,  -0.03661,  -0.05265,   0.16925,   0.09439,  -0.04997,   0.01954,   0.08904,  -0.01789,  -0.08205,  -0.08473,   0.10509,   0.15321,   0.09439,  -0.11681,  -0.12215,   0.08370,   0.02221,   0.03290,  -0.00452,  -0.03661,   0.02488,   0.00350,   0.07300,  -0.04463,   0.02488,  -0.01254,   0.06498,  -0.08205,   0.01419,  -0.02056,  -0.00720,  -0.06601,  -0.04195,   0.00617,  -0.00720,  -0.13819,  -0.03393,  -0.00720,  -0.13285,  -0.02324,  -0.07671,  -0.04463,  -0.00452,   0.05696,   0.06231,   0.08102,  -0.01254,  -0.00720,  -0.08205,  -0.05265,  -0.01789,   0.01152,  -0.08473,   0.12113,   0.05162,   0.06766,   0.03290,   0.00617,   0.01419,  -0.07136,  -0.12750,   0.13717,  -0.09275,   0.00350,  -0.23444,   0.00617,  -0.00987,  -0.07136,   0.05696,  -0.02324,   0.10241,   0.00884,   0.08637,   0.01954,  -0.06334,  -0.03126,   0.11578,  -0.07403,   0.10776,  -0.03393,   0.12113,   0.08904,   0.00617,  -0.00720,  -0.11413,   0.07300,  -0.05532,   0.07033,   0.07835,  -0.01254,  -0.04997,   0.09439,   0.09172,  -0.20236,  -0.14087,   0.00884,  -0.02591,   0.10509,   0.03558,   0.05964,   0.01686,  -0.03661,   0.00082,   0.20667,   0.03290,  -0.09007,   0.17192,  -0.00987,   0.14786,   0.05964,   0.02756,  -0.02324
  -0.06067,   0.07835,   0.01152,  -0.03126,   0.05162,  -0.05799,  -0.00185,  -0.02591,  -0.04997,   0.04092,  -0.06334,  -0.14087,   0.01954,  -0.12483,  -0.06334,   0.19331,  -0.02591,  -0.03126,  -0.00987,  -0.08205,   0.07300,   0.07835,   0.04894,  -0.00452,   0.03825,  -0.01522,  -0.06067,   0.10241,   0.06231,  -0.05799,   0.00082,  -0.11681,  -0.02324,  -0.04997,   0.03023,  -0.07403,  -0.03393,  -0.06869,   0.00350,   0.05696,  -0.01522,   0.04360,   0.00884,  -0.06869,  -0.00185,   0.07033,   0.04360,   0.06231,   0.05696,   0.02488,   0.05696,  -0.02324,  -0.08205,   0.06498,  -0.06067,  -0.08473,  -0.03661,  -0.07136,   0.07033,  -0.00720,   0.00884,   0.05429,  -0.07938,   0.06766,   0.01954,  -0.11413,   0.09974,  -0.03126,  -0.06067,   0.11311,  -0.06334,  -0.11413,  -0.17028,  -0.15691,   0.11043,   0.19063,  -0.05799,   0.04360,   0.12113,  -0.12483,  -0.01789,   0.01686,   0.00350,   0.06231,  -0.11681,   0.01152,   0.09974,   0.13182,  -0.08473,  -0.09809,  -0.10611,  -0.04997,  -0.10077,   0.09439,  -0.17295,  -0.01522,   0.05429,  -0.05265,  -0.05265,   0.06498,  -0.07136,  -0.06869,   0.11578,   0.01152,  -0.08205,   0.01152,  -0.11413,  -0.02324,   0.02488,  -0.08205,   0.01686,  -0.01522,   0.11311,  -0.00987,  -0.00185,  -0.00452,  -0.03126,   0.00350,   0.04627,   0.08370,   0.06498,  -0.05799,  -0.00185,   0.01954,  -0.01522,  -0.00987,  -0.03393,  -0.00720,  -0.13285,  -0.14889,   0.07568,   0.15855,   0.05429,  -0.02858,  -0.11413,   0.11845,  -0.03393,  -0.06601,   0.02488,   0.03825,  -0.04195,   0.03825,  -0.13017,  -0.03126,  -0.02324,   0.05964,  -0.01789,  -0.03661,   0.02221,  -0.09275,  -0.01522,   0.08637,  -0.02858,  -0.01522,   0.09172,   0.08637,  -0.08473,   0.00884,  -0.01789,   0.06231,   0.05162,   0.09172,  -0.02591,   0.06498,  -0.10344,   0.03825,  -0.02591,   0.01152,   0.06498,  -0.04463,   0.00350,  -0.01522,   0.12113,  -0.01789,   0.08370,   0.08637,  -0.05799,   0.16925,   0.02221,   0.11578,   0.02756,  -0.04195,   0.19598,   0.04092,  -0.03928,   0.00617,   0.00082,   0.05429,  -0.07403,  -0.03393,  -0.05799,   0.11578,   0.08370,  -0.10077,   0.09172,   0.08102,  -0.10077,   0.07835,   0.02756,   0.07033,   0.14251,   0.03825,  -0.07671,   0.08102,   0.04627,  -0.03126,  -0.07938,  -0.08740,   0.03825,  -0.05799,   0.03023,   0.03825,   0.12113,   0.05964,   0.01152,  -0.04997,   0.00617,   0.09707,  -0.02858,   0.02221,   0.07033,  -0.03393,   0.11845,  -0.15424,   0.09439,   0.04092,   0.02488,  -0.04195,   0.02221,  -0.10879,  -0.02591,  -0.10077,  -0.21840,  -0.06869,  -0.17562,   0.00617,   0.09439,  -0.01522,  -0.10344,   0.13717,  -0.00185,  -0.07136,  -0.08473,  -0.07938,   0.13984,   0.01954,   0.07033,   0.04894,  -0.05265,  -0.17295,   0.14251,  -0.02056,   0.02756,   0.03825,   0.01954,   0.12915
  -0.11413,  -0.14354,   0.01419,   0.05429,  -0.07136,   0.03290,  -0.06334,   0.07300,   0.02488,  -0.03126,  -0.04997,   0.02221,   0.18529,   0.06766,   0.13984,   0.07835,   0.01686,   0.04092,   0.01686,  -0.06067,  -0.05532,  -0.11948,  -0.00720,  -0.18097,  -0.03126,  -0.06334,  -0.00452,  -0.00185,  -0.09542,  -0.10611,   0.01954,   0.13182,   0.10509,   0.11311,   0.00082,   0.05964,   0.15053,  -0.10344,   0.06766,   0.02221,   0.07300,  -0.05532,  -0.15424,  -0.16226,   0.01954,  -0.02591,   0.13182,  -0.03928,   0.04627,   0.00082,   0.00350,   0.01686,   0.01419,   0.05964,  -0.01254,   0.09172,  -0.03661,  -0.00185,   0.05964,  -0.06869,   0.09172,   0.00617,   0.01954,   0.18796,   0.08102,  -0.03661,   0.02221,  -0.00185,  -0.04463,   0.05429,   0.04092,  -0.03661,   0.01152,  -0.05532,  -0.12750,  -0.02858,   0.00350,  -0.04997,  -0.02858,  -0.06334,   0.05696,   0.02488,   0.14786,   0.01419,   0.03290,  -0.08205,  -0.04195,   0.09439,   0.05696,   0.05162,   0.05696,   0.03023,   0.16390,   0.05162,   0.09974,   0.01419,   0.08102,   0.14519,   0.00350,  -0.07938,   0.02221,  -0.10879,  -0.06601,   0.07835,   0.15855,  -0.12750,  -0.14621,  -0.17562,   0.09974,  -0.02591,  -0.08740,   0.06231,  -0.13017,   0.07033,  -0.03928,   0.00082,  -0.13017,  -0.07136,  -0.11413,  -0.01522,  -0.09542,  -0.07938,  -0.00452,   0.05964,  -0.06601,   0.06498,   0.00082,   0.07300,  -0.12483,   0.06766,  -0.09275,  -0.09007,  -0.07136,   0.04360,  -0.00185,  -0.00185,   0.03558,   0.15588,  -0.15424,  -0.03393,   0.01686,  -0.01789,  -0.08740,   0.03825,  -0.00720,  -0.03126,  -0.22909,  -0.04463,   0.00617,  -0.00185,  -0.07938,  -0.03928,   0.14251,  -0.01522,  -0.10344,   0.01152,   0.06231,   0.07568,  -0.03661,   0.01152,   0.03290,   0.04092,  -0.00720,  -0.00452,  -0.02324,  -0.10611,   0.02221,  -0.03126,   0.01686,   0.07835,   0.02756,  -0.03661,   0.04627,   0.09439,   0.00082,   0.10241,  -0.04997,  -0.01254,   0.01954,   0.03023,   0.14251,   0.02221,  -0.04997,   0.01419,  -0.06601,   0.03023,  -0.09809,   0.11845,   0.06766,   0.06231,  -0.13552,   0.00350,   0.00350,  -0.18899,  -0.09007,   0.05429,   0.02756,   0.07835,   0.03558,  -0.00720,   0.04627,  -0.03393,   0.04092,  -0.02591,   0.05162,  -0.03928,   0.13717,   0.00350,  -0.06067,   0.10509,  -0.03928,  -0.01254,  -0.04195,  -0.10344,   0.02488,  -0.03928,  -0.08473,  -0.01789,   0.07835,   0.04092,  -0.03393,  -0.08473,   0.05696,   0.01419,  -0.18899,  -0.03393,  -0.08473,   0.08102,   0.01419,   0.01152,  -0.06869,  -0.00452,   0.04627,   0.00082,   0.01152,  -0.00452,  -0.08205,   0.05964,   0.00617,   0.02756,  -0.02591,   0.02488,  -0.04463,   0.03023,   0.04092,   0.03825,  -0.01254,   0.18796,  -0.00720,  -0.04997,   0.04360,  -0.02858,   0.03290,  -0.09809,  -0.07938,   0.01954
  -0.05532,   0.11845,   0.00350,  -0.03928,   0.00082,   0.06498,  -0.02056,  -0.01254,  -0.11948,  -0.13819,   0.01954,   0.02221,   0.13449,   0.01954,   0.10241,   0.12915,  -0.07938,  -0.03928,   0.03558,   0.13717,   0.01152,  -0.02591,  -0.01254,   0.06231,  -0.09809,  -0.13017,   0.01686,   0.00350,   0.14251,   0.06231,  -0.02858,  -0.07136,  -0.02324,  -0.04195,   0.04092,   0.10509,  -0.07403,   0.03290,  -0.10879,  -0.11146,   0.07300,   0.11043,   0.05429,  -0.18364,   0.11845,   0.02488,  -0.06601,  -0.09275,  -0.03393,   0.06766,   0.27351,   0.03290,   0.05696,   0.00082,  -0.02324,   0.00350,   0.07568,  -0.09542,  -0.13017,   0.04360,  -0.02591,   0.08637,  -0.10879,   0.03558,  -0.04463,   0.00617,  -0.02324,  -0.08205,  -0.00987,   0.00617,   0.05429,   0.00082,  -0.00720,  -0.02324,  -0.00185,   0.03290,   0.01954,   0.00884,  -0.00185,  -0.05265,   0.00617,  -0.10611,  -0.07136,   0.00082,  -0.07938,   0.03023,  -0.22642,   0.11043,  -0.08473,   0.07568,  -0.03126,   0.15321,   0.07568,   0.09439,   0.15588,   0.07835,   0.05429,  -0.02324,  -0.12215,  -0.04463,  -0.01254,   0.01954,  -0.09542,   0.03558,  -0.16226,  -0.08740,   0.04894,   0.08370,  -0.09007,  -0.11681,  -0.06601,  -0.07938,  -0.00720,   0.03290,  -0.01522,   0.07300,  -0.10879,   0.03825,   0.03558,   0.04894,  -0.11681,   0.01152,   0.03558,   0.00884,  -0.03928,  -0.02591,  -0.06334,   0.03558,   0.07835,  -0.00720,   0.01686,  -0.12215,   0.01152,   0.01152,  -0.08740,  -0.10879,  -0.07671,  -0.01254,  -0.01789,   0.11578,   0.01152,  -0.09542,  -0.20503,   0.07033,   0.04894,  -0.08473,   0.10241,  -0.08740,  -0.13285,  -0.10344,  -0.06067,  -0.08473,  -0.08205,  -0.02324,   0.06766,   0.00884,   0.04894,  -0.00987,   0.02221,  -0.01254,   0.02756,  -0.07403,   0.08102,  -0.05799,  -0.04997,   0.03290,  -0.04730,   0.03290,  -0.00452,  -0.02324,  -0.08740,   0.00617,  -0.12483,  -0.02591,   0.04092,   0.10776,   0.05429,  -0.15958,  -0.01789,  -0.10077,   0.03023,  -0.04195,  -0.10611,  -0.09275,   0.08102,   0.09172,   0.02488,  -0.14087,   0.07300,   0.12915,   0.01686,   0.06498,   0.13182,   0.03290,   0.14786,  -0.03393,   0.03023,  -0.05799,   0.08102,  -0.00987,  -0.04997,   0.04092,  -0.07671,  -0.03126,  -0.16226,  -0.07671,   0.08637,   0.15321,  -0.11146,  -0.09542,  -0.15424,  -0.05799,   0.00884,  -0.02324,  -0.02324,  -0.12483,  -0.00452,   0.01686,   0.12647,   0.05696,   0.08637,  -0.05799,  -0.04730,   0.07568,  -0.10611,   0.05162,  -0.07671,  -0.06869,  -0.11413,  -0.00720,  -0.03661,  -0.09542,   0.07568,  -0.03661,   0.16390,   0.09974,   0.08904,  -0.14889,   0.10241,  -0.04463,   0.03290,   0.03558,  -0.03661,  -0.00185,   0.00082,  -0.01789,   0.05964,   0.00350,   0.03558,   0.00884,   0.00082,  -0.09809,  -0.16493,  -0.06869,   0.00082,  -0.03393
   0.08637,   0.14786,   0.06766,  -0.06334,   0.23074,  -0.11681,   0.09974,   0.01419,   0.01686,   0.04092,  -0.06869,   0.05162,  -0.04463,  -0.00452,  -0.06334,  -0.07136,  -0.02324,   0.06498,  -0.08473,  -0.06067,  -0.06067,   0.03023,   0.09439,  -0.11146,   0.04360,   0.09974,  -0.06067,  -0.01254,  -0.03661,  -0.03126,   0.07033,  -0.13285,   0.02221,   0.00617,   0.09439,  -0.00987,   0.00884,  -0.04463,  -0.05265,   0.02221,  -0.01789,   0.04360,   0.12380,   0.01419,   0.03290,  -0.02056,   0.01954,   0.14251,   0.04092,   0.01419,   0.00884,   0.04360,   0.09974,   0.04627,   0.04627,  -0.02324,   0.03558,   0.11845,   0.04627,  -0.07671,   0.11311,  -0.04730,   0.04360,   0.01152,   0.09707,  -0.04730,   0.03558,  -0.02056,  -0.02858,   0.13984,  -0.04730,  -0.06601,  -0.04997,   0.01686,  -0.07671,  -0.05532,   0.10241,   0.07033,   0.06231,  -0.07136,   0.00884,  -0.01254,   0.15855,   0.11578,  -0.01254,  -0.13552,   0.13449,  -0.02858,  -0.03661,  -0.01789,   0.03023,  -0.00185,  -0.03661,   0.00617,   0.09974,   0.02756,   0.15053,   0.04092,  -0.02324,  -0.02858,  -0.05265,  -0.00452,   0.03023,  -0.05265,  -0.01789,   0.06766,  -0.12215,  -0.02858,  -0.07938,   0.05429,  -0.00720,   0.03558,   0.08370,  -0.09275,  -0.00452,  -0.08473,   0.08637,  -0.00452,   0.02221,  -0.09007,   0.12647,   0.06498,   0.08637,   0.04092,  -0.08205,  -0.11146,   0.05429,   0.01419,   0.09172,  -0.00452,   0.03825,   0.08370,  -0.00185,   0.03558,   0.08637,  -0.02591,  -0.00452,  -0.01789,   0.05429,  -0.02858,  -0.04195,   0.08637,  -0.14889,  -0.08740,   0.07835,  -0.11681,  -0.11681,   0.09439,   0.07568,  -0.04463,   0.05429,   0.01152,   0.04092,  -0.08205,  -0.00452,  -0.00720,   0.00350,   0.08102,  -0.03393,   0.12647,  -0.12750,  -0.03661,  -0.02056,  -0.07671,   0.07300,  -0.01254,   0.01954,  -0.06601,  -0.09275,   0.13449,  -0.01789,   0.18529,  -0.11948,   0.05964,  -0.06601,   0.06766,  -0.05799,  -0.02858,  -0.17295,  -0.08740,   0.01954,   0.07033,  -0.01254,   0.08102,  -0.12483,  -0.03126,  -0.10611,   0.03023,   0.12380,   0.03023,   0.02756,  -0.11948,   0.00082,  -0.11681,  -0.13285,  -0.02858,   0.12647,   0.06766,  -0.13819,   0.05429,   0.05429,   0.05964,   0.00082,  -0.04730,   0.01419,  -0.03661,  -0.02324,   0.08637,  -0.07136,  -0.07136,  -0.05799,   0.09439,  -0.01254,  -0.06601,   0.07033,   0.01686,   0.10241,   0.02488,   0.00617,  -0.06334,   0.09172,  -0.02056,   0.12915,  -0.10077,  -0.05265,   0.08904,  -0.03661,  -0.11146,  -0.13017,   0.00350,  -0.04730,   0.17727,  -0.09542,  -0.12750,   0.04360,   0.06766,   0.00082,   0.06231,  -0.09542,  -0.04463,  -0.09809,  -0.05532,   0.01954,   0.03290,  -0.05532,   0.03290,   0.00884,  -0.08473,  -0.03928,  -0.08473,   0.07568,   0.03825,  -0.16493,   0.04092,   0.00350,   0.12113
  -0.09542,  -0.00452,   0.03290,   0.00350,  -0.09542,   0.08102,   0.02488,   0.02488,  -0.10611,  -0.03393,   0.11043,   0.12113,   0.02221,   0.03558,   0.12915,   0.02488,   0.13717,   0.00617,   0.04092,  -0.06334,  -0.03393,   0.00884,  -0.08473,  -0.02591,  -0.03928,   0.09172,   0.09707,  -0.00452,   0.16123,   0.22539,   0.01152,   0.02488,   0.03558,   0.06766,  -0.03393,  -0.06067,   0.12380,   0.01954,   0.01954,   0.04627,   0.04092,   0.03023,  -0.03126,  -0.08473,   0.00350,   0.03290,   0.03290,  -0.00720,   0.01954,   0.06498,   0.10509,   0.03558,  -0.00720,  -0.01789,   0.01954,  -0.00720,   0.04627,   0.06231,  -0.04730,   0.03290,   0.01152,  -0.06601,  -0.11146,   0.06231,   0.01419,  -0.10344,  -0.00185,   0.03825,   0.03825,  -0.11146,  -0.00185,  -0.02858,  -0.02324,   0.14519,  -0.06601,  -0.07671,  -0.00720,   0.07568,   0.02756,   0.00884,  -0.03928,   0.00082,  -0.00987,   0.03825,   0.02488,  -0.20236,   0.02221,   0.03825,  -0.00987,   0.00082,   0.07033,  -0.11146,   0.03290,   0.04360,   0.06498,  -0.03393,   0.02488,   0.00350,   0.15588,  -0.04195,   0.04092,   0.01152,   0.10509,  -0.07671,  -0.03126,   0.03290,  -0.04195,   0.19598,   0.11578,   0.01152,  -0.17295,  -0.06869,   0.00082,  -0.13017,  -0.00452,  -0.11413,  -0.01522,   0.03825,   0.10241,  -0.11146,  -0.05532,   0.04894,  -0.08205,   0.11845,  -0.03126,   0.14251,  -0.03661,  -0.02324,   0.13717,   0.00082,   0.07033,   0.02221,   0.09707,   0.03023,   0.07300,   0.03558,  -0.02324,  -0.10077,  -0.04195,   0.01686,  -0.06334,  -0.02858,  -0.09809,   0.05696,  -0.14354,  -0.03661,   0.02221,  -0.01789,  -0.11413,   0.01419,   0.01152,   0.10241,   0.04092,   0.07033,   0.05429,  -0.02591,  -0.01522,   0.04092,   0.04894,   0.01152,   0.00350,   0.00082,   0.05696,  -0.03393,   0.04894,   0.08370,   0.04894,   0.03023,   0.07568,   0.01686,  -0.04730,   0.02756,  -0.10879,  -0.02858,   0.00350,  -0.17028,   0.06766,  -0.06334,   0.04894,  -0.01254,   0.07300,   0.02221,   0.10776,  -0.03126,   0.05162,   0.05964,   0.11043,  -0.02591,  -0.07671,  -0.07671,  -0.05532,  -0.00720,   0.08102,  -0.14354,  -0.00452,   0.15588,   0.03023,   0.05429,  -0.04195,   0.01686,  -0.04997,  -0.05532,  -0.02591,  -0.13552,  -0.05265,   0.14251,  -0.09809,   0.06498,  -0.12750,  -0.03126,   0.01419,  -0.11146,   0.06498,   0.07033,   0.00617,   0.00617,   0.01686,  -0.01789,   0.06231,   0.08370,   0.10776,  -0.06869,  -0.01254,   0.00617,   0.06231,   0.01419,  -0.02324,   0.15321,   0.11578,  -0.02858,  -0.05265,  -0.18364,   0.03558,   0.03558,   0.03023,   0.02756,  -0.02858,  -0.07403,   0.06231,  -0.04463,   0.03825,   0.01686,  -0.00452,   0.04092,   0.02488,  -0.08740,  -0.02324,  -0.09542,  -0.04997,   0.00617,   0.10776,  -0.15156,   0.02488,  -0.00452,   0.08102,   0.04092
   0.05429,   0.01419,   0.03825,   0.00082,  -0.05799,   0.02221,  -0.02858,   0.00884,  -0.03393,  -0.09542,  -0.00720,  -0.03928,   0.16925,  -0.07403,   0.13984,  -0.07403,   0.02221,  -0.04997,  -0.05265,   0.05162,   0.13717,   0.02756,  -0.10611,   0.10241,   0.00884,  -0.03393,   0.03558,  -0.08205,  -0.09275,  -0.04730,   0.02756,  -0.02858,  -0.01254,  -0.03393,   0.06231,   0.02488,  -0.03661,   0.06231,   0.05429,  -0.07671,  -0.06334,  -0.03928,  -0.02324,   0.00884,  -0.14621,   0.13717,   0.16123,  -0.08205,  -0.05532,  -0.12483,  -0.03393,   0.07835,  -0.00185,  -0.00720,   0.00884,   0.11311,  -0.00185,  -0.03928,  -0.12750,   0.07300,  -0.02858,   0.11311,   0.10241,   0.03290,  -0.06067,  -0.10344,  -0.18632,  -0.03126,  -0.03928,   0.16390,   0.06498,   0.04627,  -0.05532,   0.11311,   0.03290,   0.00350,   0.05964,   0.01419,   0.04894,   0.07033,  -0.11681,   0.26282,   0.10509,   0.00350,  -0.13017,   0.06498,  -0.00987,   0.11845,  -0.02858,  -0.10879,   0.03290,   0.03825,  -0.00185,  -0.08740,  -0.07403,   0.02756,  -0.04463,  -0.06601,  -0.16493,  -0.14889,   0.12380,  -0.03126,  -0.00720,   0.19598,  -0.00452,   0.07568,  -0.04195,  -0.00452,   0.08102,   0.12380,   0.04092,   0.00884,  -0.07671,   0.04627,   0.02756,   0.15588,   0.02756,  -0.02591,  -0.12750,   0.04360,   0.03023,  -0.12215,   0.00884,   0.11043,   0.03290,  -0.01789,  -0.01254,   0.00884,   0.17727,  -0.17295,   0.04092,  -0.08473,   0.04894,   0.10509,   0.13717,   0.01419,   0.08637,   0.02756,   0.07033,  -0.06601,   0.02221,   0.11311,   0.05429,  -0.06869,   0.09439,  -0.05532,  -0.15156,   0.16925,  -0.06067,   0.06766,   0.20935,  -0.11681,  -0.00452,   0.11043,   0.05162,  -0.05265,   0.23876,  -0.07136,  -0.04730,   0.08370,   0.00082,   0.08370,  -0.14354,   0.14251,  -0.11146,  -0.04997,   0.09974,  -0.04463,   0.05964,  -0.00452,   0.01954,   0.05162,  -0.05532,   0.08637,  -0.11146,  -0.00720,   0.11845,   0.02488,  -0.15958,  -0.10611,   0.15321,   0.00884,   0.02756,  -0.06869,   0.14786,  -0.02591,   0.14786,  -0.01254,   0.00082,  -0.02858,  -0.02056,   0.05429,  -0.08740,  -0.03393,  -0.09275,   0.07835,  -0.06334,   0.05162,   0.05429,   0.07568,   0.03558,   0.08904,   0.00617,   0.05429,   0.07300,  -0.00185,  -0.00185,   0.00082,   0.04092,  -0.17830,   0.06498,  -0.04730,  -0.16760,   0.07033,  -0.12215,  -0.00452,   0.04894,   0.09707,   0.05162,   0.05696,   0.04627,  -0.09542,   0.02488,   0.03023,  -0.03661,  -0.01254,  -0.04195,  -0.00452,  -0.01522,   0.09974,   0.04894,  -0.00720,   0.00082,   0.07568,  -0.02858,   0.06766,   0.04627,   0.01954,  -0.06067,  -0.05799,  -0.00185,   0.05696,  -0.00452,  -0.11681,  -0.01789,   0.01686,  -0.09542,  -0.12750,   0.00884,   0.09172,   0.03290,  -0.06869,   0.04092,   0.01686,   0.03825,  -0.01254
   0.20667,  -0.02056,   0.05696,   0.03558,   0.03023,   0.01419,  -0.03126,   0.00350,  -0.06869,   0.07835,   0.08370,   0.07300,   0.04360,   0.12647,  -0.10077,  -0.04463,  -0.01254,  -0.06067,  -0.06601,   0.01954,   0.11845,  -0.06334,  -0.02591,   0.11311,  -0.01522,   0.04092,  -0.05532,   0.07568,  -0.12215,  -0.09275,  -0.02591,   0.06231,   0.07300,  -0.04997,  -0.10611,  -0.12215,   0.08370,   0.02488,   0.09974,  -0.05265,  -0.06601,  -0.02324,   0.06231,  -0.01254,  -0.01522,  -0.01254,   0.05696,  -0.07938,   0.13984,   0.00884,  -0.04195,  -0.01254,  -0.03661,   0.01954,  -0.04463,  -0.10611,   0.00350,  -0.01522,   0.04092,  -0.02591,  -0.08205,  -0.01522,  -0.02591,  -0.03126,   0.03290,  -0.00720,   0.08904,   0.04627,  -0.02858,  -0.04997,   0.07033,   0.06766,   0.12647,  -0.04463,  -0.05532,  -0.07938,   0.11043,  -0.04730,  -0.00987,   0.02756,   0.18529,  -0.04997,   0.05964,  -0.01789,  -0.02858,   0.00617,  -0.07671,   0.17192,  -0.00185,   0.00617,   0.09974,   0.08102,   0.04360,   0.05964,  -0.01522,   0.00082,   0.05696,   0.01152,  -0.05265,   0.00082,  -0.03393,  -0.11146,   0.01152,   0.03290,   0.03825,   0.05162,  -0.05799,  -0.09275,   0.15321,   0.00082,   0.03825,   0.09707,   0.01686,  -0.02056,   0.07568,  -0.02858,  -0.08740,  -0.02324,  -0.14889,   0.08904,   0.05696,   0.05964,   0.01152,   0.01954,   0.02488,   0.02221,   0.00082,   0.02221,   0.00617,  -0.12483,  -0.00987,  -0.14354,  -0.01789,   0.04894,  -0.01789,   0.06766,  -0.02591,   0.01954,   0.03290,   0.05429,  -0.06067,   0.03290,   0.08370,  -0.15958,  -0.02056,  -0.01789,  -0.12483,   0.02488,   0.14786,  -0.04997,  -0.10879,  -0.07403,  -0.04730,  -0.02858,   0.13984,   0.02756,  -0.03126,   0.08904,   0.01954,  -0.02056,   0.12380,   0.10241,   0.01152,  -0.02858,  -0.04195,   0.02488,   0.03558,  -0.06869,  -0.12483,  -0.08205,   0.04360,  -0.02591,  -0.01522,   0.03290,  -0.12215,  -0.08473,  -0.03393,   0.06231,  -0.06067,  -0.01522,  -0.04997,  -0.05799,   0.06231,  -0.00185,  -0.01789,   0.00350,  -0.01789,   0.03558,  -0.07403,  -0.07403,  -0.12215,   0.05964,   0.03558,  -0.06334,   0.03023,   0.09439,  -0.08740,   0.08102,  -0.04463,   0.05696,  -0.23444,  -0.14621,   0.13449,   0.02756,  -0.04463,   0.02488,  -0.00185,  -0.05799,  -0.05265,  -0.03126,  -0.06869,  -0.02858,  -0.02324,   0.02488,   0.01152,   0.08370,  -0.01254,  -0.04997,   0.13182,   0.12380,  -0.03126,   0.11845,   0.04894,   0.02221,   0.03558,  -0.06067,  -0.06601,  -0.04730,   0.05429,  -0.07671,   0.05162,  -0.08740,  -0.13017,  -0.01254,  -0.11146,  -0.00987,   0.00350,   0.07835,  -0.13017,  -0.04997,   0.05696,  -0.00452,  -0.00452,   0.01419,   0.08904,   0.05162,   0.00082,   0.02488,  -0.07938,   0.08102,   0.11043,  -0.03393,  -0.00987,   0.10241,   0.11845,   0.01419
  -0.11948,  -0.11146,  -0.03126,  -0.05265,  -0.10344,   0.12647,  -0.06601,  -0.02591,   0.02756,  -0.00452,  -0.03661,   0.16390,  -0.07136,   0.02221,  -0.06869,   0.07300,   0.08637,  -0.01789,  -0.10611,  -0.14354,  -0.02858,   0.05429,   0.00884,  -0.06067,   0.12647,  -0.07136,   0.09172,  -0.09542,  -0.03393,   0.11845,  -0.06067,  -0.06869,   0.11311,   0.01419,   0.02756,  -0.03928,  -0.07938,   0.06498,  -0.13017,  -0.04730,   0.01686,   0.04092,   0.09974,  -0.07938,  -0.05265,  -0.00452,  -0.09007,   0.06766,  -0.13552,   0.01954,   0.03023,   0.07568,  -0.03126,   0.06766,  -0.10879,   0.02221,   0.00884,  -0.04463,   0.10509,  -0.06869,  -0.14889,   0.00350,   0.04360,  -0.05532,   0.06498,  -0.01789,  -0.01254,  -0.07403,  -0.03393,  -0.01789,  -0.03126,   0.00884,  -0.02858,   0.02488,  -0.09007,  -0.03126,  -0.11146,   0.14519,   0.01152,   0.02756,  -0.02056,   0.00884,   0.05696,   0.06766,   0.03023,  -0.04463,  -0.04195,   0.01686,  -0.08205,  -0.13285,   0.00350,  -0.10611,   0.04627,   0.11311,   0.14251,   0.02221,   0.06498,   0.11578,  -0.01522,  -0.00185,  -0.07938,   0.02756,  -0.08205,  -0.01254,  -0.14889,   0.00350,  -0.01254,  -0.14889,  -0.04730,  -0.06067,  -0.01789,  -0.04997,   0.05964,  -0.01254,  -0.17562,   0.04627,  -0.10077,  -0.03126,  -0.24780,  -0.10611,   0.00350,   0.00350,  -0.04730,  -0.08205,  -0.04463,   0.05696,   0.04360,   0.08370,  -0.03126,   0.00082,  -0.00185,  -0.08740,   0.07300,  -0.01522,   0.10776,   0.00350,   0.09974,   0.03558,   0.08102,   0.00082,  -0.05532,  -0.01254,   0.02221,  -0.04463,   0.00884,  -0.05265,  -0.01254,   0.03558,  -0.00720,  -0.07136,  -0.04463,   0.19063,  -0.04730,   0.02221,   0.02221,   0.09439,  -0.00720,   0.19063,  -0.01254,   0.04092,   0.05429,  -0.09007,  -0.06067,  -0.04463,   0.00617,  -0.08205,   0.05696,  -0.10077,   0.23074,   0.01152,   0.11578,  -0.08473,  -0.17830,  -0.06067,  -0.03928,  -0.03661,   0.03290,  -0.17028,  -0.02324,  -0.10077,   0.07300,  -0.10879,   0.02756,   0.01686,  -0.01789,   0.15855,   0.00350,  -0.17295,  -0.00452,  -0.02324,  -0.10077,  -0.03393,  -0.06601,   0.13717,   0.14519,   0.08370,   0.03290,  -0.00987,  -0.07403,  -0.00185,  -0.02324,   0.03825,  -0.06067,  -0.09809,   0.04894,  -0.15156,  -0.02858,  -0.03393,   0.09172,  -0.03393,  -0.00987,   0.11311,   0.07300,   0.02221,  -0.01522,  -0.06601,   0.04627,  -0.03126,   0.00617,  -0.12215,   0.13182,   0.00082,  -0.02858,  -0.09275,  -0.08473,   0.02756,   0.06766,   0.05964,   0.04360,   0.08102,   0.04627,  -0.09809,   0.03825,   0.06766,  -0.12750,  -0.03393,  -0.11413,   0.01419,   0.13449,   0.07568,  -0.02056,  -0.07136,  -0.08205,   0.02221,  -0.08740,  -0.02591,   0.05162,  -0.11413,   0.03825,   0.00884,   0.15588,   0.13449,  -0.04463,  -0.12483,  -0.03661,  -0.10879
   0.00884,  -0.16760,  -0.11413,  -0.01522,  -0.05265,   0.07300,   0.02756,  -0.08205,  -0.07403,   0.16925,   0.02488,   0.09707,   0.03023,   0.05162,  -0.00185,  -0.01254,   0.01152,  -0.15691,   0.04627,  -0.07403,  -0.05265,  -0.06067,   0.03290,   0.09707,  -0.07938,  -0.02858,   0.03290,  -0.03126,  -0.01789,  -0.00185,   0.07300,   0.12647,   0.10241,  -0.04997,  -0.07403,  -0.07938,   0.09439,  -0.02858,  -0.02056,  -0.07403,   0.01686,   0.00617,   0.01954,  -0.04195,   0.02221,   0.07835,  -0.02591,   0.06231,   0.05429,   0.09974,   0.01419,   0.03290,   0.05429,  -0.03393,   0.04894,  -0.09275,   0.12915,   0.14251,  -0.10077,   0.01419,  -0.02591,  -0.07671,  -0.04997,  -0.07671,   0.04092,   0.04627,  -0.08205,   0.05429,  -0.07671,   0.09172,  -0.10077,  -0.00987,   0.15588,   0.12113,  -0.02056,  -0.00987,   0.06498,  -0.04463,   0.05162,   0.20667,   0.11845,   0.00082,  -0.03928,  -0.04730,  -0.03928,  -0.01522,   0.00617,   0.00082,   0.06766,  -0.14354,  -0.09007,  -0.06067,   0.08102,   0.06231,  -0.02591,  -0.02858,   0.09707,  -0.06334,   0.00617,   0.05429,  -0.03393,   0.10776,   0.06231,  -0.07136,  -0.11413,  -0.09542,   0.07300,  -0.11413,   0.04894,   0.03825,  -0.07938,   0.00884,  -0.03126,   0.01152,  -0.07403,  -0.03928,  -0.14889,   0.11578,  -0.04730,   0.14786,   0.01152,  -0.00987,  -0.07938,   0.02756,   0.01954,  -0.08205,   0.08102,   0.20400,   0.05964,   0.02756,  -0.05265,   0.11845,  -0.04195,  -0.06067,   0.07300,  -0.15691,  -0.00452,  -0.08473,  -0.11681,  -0.04997,  -0.06334,  -0.10879,   0.03023,   0.15855,  -0.02056,  -0.01254,  -0.05532,   0.03558,  -0.08205,  -0.01522,   0.03290,   0.01419,  -0.09007,   0.13449,   0.00617,   0.15321,   0.08904,   0.03290,   0.05429,  -0.06869,   0.14251,   0.00082,  -0.03661,  -0.10879,   0.07300,  -0.03928,  -0.08473,   0.02221,   0.01954,   0.06498,  -0.06601,  -0.02858,   0.00350,  -0.00185,   0.16390,   0.07835,  -0.04997,   0.09974,  -0.09007,   0.00617,   0.01419,   0.03558,  -0.01522,   0.08102,  -0.13819,  -0.06334,   0.09172,  -0.02324,   0.03825,  -0.10077,  -0.15156,   0.08904,  -0.00452,  -0.05532,  -0.00185,  -0.03661,  -0.05799,   0.12380,  -0.19166,   0.05162,  -0.04997,  -0.00185,  -0.03393,   0.00617,  -0.01254,  -0.00987,  -0.04730,   0.02756,   0.12380,   0.12647,  -0.02858,  -0.08473,   0.03023,  -0.00185,  -0.07671,   0.00350,  -0.02858,   0.05162,  -0.13552,  -0.06334,  -0.05799,  -0.15424,   0.01152,  -0.06067,   0.17459,   0.03825,  -0.07671,   0.04092,   0.00884,   0.11578,   0.04092,  -0.05799,   0.01419,   0.11043,   0.13717,   0.04092,   0.04360,   0.08370,  -0.06869,  -0.01254,  -0.09809,  -0.10879,   0.02488,  -0.06869,  -0.15958,  -0.07671,  -0.01254,  -0.04195,   0.22272,   0.07835,   0.03290,   0.10776,   0.04627,   0.09707,  -0.18632,   0.07033
  -0.10077,   0.01954,  -0.02858,  -0.02056,   0.01954,   0.00617,  -0.00452,  -0.07938,  -0.01254,  -0.03126,   0.04092,   0.03825,  -0.00452,  -0.00452,   0.08637,   0.17727,  -0.10611,   0.09172,  -0.03126,   0.02756,  -0.01254,  -0.17295,  -0.17028,  -0.03393,  -0.02591,   0.07835,   0.02756,  -0.08473,  -0.10344,   0.08904,   0.04894,   0.10776,   0.03558,  -0.09007,  -0.02324,  -0.13819,  -0.04997,   0.00350,   0.00884,   0.05162,  -0.03126,  -0.03393,   0.06231,   0.06231,  -0.07136,   0.16657,  -0.12215,   0.04894,   0.01686,   0.03558,  -0.02858,   0.09974,  -0.09542,   0.07568,   0.02488,   0.09172,   0.06231,  -0.02591,   0.05162,   0.09707,  -0.03661,  -0.09542,  -0.07403,  -0.05799,   0.09172,   0.19063,  -0.08205,  -0.01254,   0.04092,  -0.03393,  -0.04997,   0.04627,   0.00884,   0.08904,   0.03558,  -0.12215,  -0.02858,  -0.05265,  -0.00185,  -0.12483,  -0.01522,  -0.02591,  -0.14889,  -0.04997,   0.04360,  -0.07938,   0.04092,   0.00082,   0.02488,  -0.06334,  -0.02056,   0.08904,   0.10776,  -0.01789,  -0.01522,  -0.07403,   0.06766,   0.10776,  -0.00185,  -0.01254,  -0.03661,  -0.02858,  -0.11681,  -0.04730,   0.01686,   0.07568,   0.02488,   0.01954,  -0.02056,   0.02756,  -0.08740,  -0.06334,  -0.05532,   0.00617,   0.04360,  -0.01789,  -0.12215,   0.04627,   0.03558,   0.04894,   0.03825,   0.14251,  -0.02858,   0.05162,   0.04627,   0.08102,  -0.02591,  -0.03393,  -0.03661,  -0.03928,  -0.19701,  -0.05532,  -0.02591,  -0.00185,  -0.01254,  -0.12215,   0.11043,  -0.07403,   0.02756,   0.16657,  -0.04730,   0.02756,  -0.15156,  -0.07671,   0.17459,   0.08904,   0.08904,   0.04092,   0.04092,  -0.02858,  -0.07136,   0.12915,   0.16390,  -0.06334,  -0.06334,   0.05964,   0.04092,  -0.04195,   0.00350,  -0.03928,  -0.02056,  -0.12215,   0.03558,   0.03825,   0.11043,   0.05162,  -0.08740,   0.04360,  -0.01789,   0.05696,  -0.02591,  -0.18097,  -0.06869,   0.11043,   0.05964,  -0.03928,  -0.00185,   0.13449,   0.00082,  -0.00987,  -0.01789,   0.04627,  -0.02056,   0.01152,   0.08370,   0.12113,   0.03023,   0.12380,   0.00350,   0.00884,  -0.05799,   0.00617,   0.00884,  -0.09007,  -0.04195,  -0.10611,   0.14519,   0.03290,   0.03825,   0.01152,   0.08370,  -0.09275,   0.07033,   0.03558,   0.01954,  -0.02056,   0.03023,   0.20133,  -0.02858,   0.03290,  -0.07671,   0.04092,  -0.00987,   0.07568,  -0.00185,  -0.03661,   0.17994,  -0.08740,   0.01686,  -0.03661,   0.04092,   0.07835,  -0.05799,   0.02488,  -0.04997,   0.14519,  -0.00987,   0.09439,   0.09974,   0.05429,   0.08637,  -0.00452,   0.11311,  -0.06869,   0.05696,  -0.00987,  -0.02858,   0.00884,  -0.01254,  -0.06334,  -0.09007,   0.03290,  -0.00185,  -0.08205,   0.02756,  -0.01789,  -0.04195,   0.08370,  -0.00720,  -0.03126,   0.05696,   0.01686,  -0.09809,   0.03825,   0.00617,  -0.01254
  -0.03393,  -0.03928,  -0.03126,  -0.10344,  -0.04730,   0.05162,  -0.04463,   0.01686,  -0.13552,  -0.03661,   0.01954,   0.05429,  -0.05799,  -0.03393,  -0.06601,  -0.06601,  -0.17830,  -0.04463,   0.03290,   0.01686,   0.01686,   0.03023,   0.09707,   0.04360,  -0.06869,  -0.07671,  -0.07938,  -0.20503,  -0.04730,   0.26014,   0.08637,   0.00884,  -0.03393,  -0.00452,   0.04092,   0.00617,   0.08102,  -0.03393,   0.02221,   0.01686,   0.02488,  -0.06601,  -0.06067,   0.08102,   0.04894,   0.01686,   0.00884,   0.05429,   0.11043,   0.01686,   0.10776,  -0.08740,  -0.01522,  -0.04463,  -0.01789,  -0.08473,  -0.07136,  -0.00987,  -0.10879,   0.10509,   0.00884,   0.01686,  -0.02591,   0.13717,   0.02221,   0.03558,   0.11578,  -0.02591,   0.03023,   0.05162,  -0.15424,   0.09974,   0.04627,   0.02221,  -0.00185,   0.05162,  -0.00987,  -0.04730,   0.06231,  -0.02056,  -0.16493,  -0.09809,  -0.06334,   0.08370,   0.00350,  -0.11413,  -0.04195,   0.00884,  -0.10879,  -0.00452,  -0.00987,   0.02488,  -0.16760,  -0.00987,  -0.01522,  -0.02324,   0.06231,  -0.08740,   0.06766,  -0.03393,  -0.03393,   0.04894,   0.03290,   0.05162,  -0.06067,  -0.00452,  -0.02324,  -0.11681,  -0.06601,  -0.09007,   0.07300,  -0.03928,  -0.08205,   0.02488,  -0.09275,   0.09707,  -0.14354,   0.04894,   0.03290,   0.01954,  -0.06601,  -0.13552,  -0.01522,   0.00884,   0.05696,   0.11578,   0.09439,  -0.00185,   0.06231,   0.04360,  -0.08205,  -0.01522,   0.03290,  -0.11413,   0.06231,   0.04092,   0.04092,  -0.03928,   0.04627,  -0.06601,   0.06231,  -0.04463,   0.01954,  -0.10611,   0.06766,  -0.06601,   0.03825,   0.07300,   0.10509,   0.06498,   0.02756,   0.05429,   0.08102,  -0.08205,  -0.00452,  -0.00185,   0.05696,  -0.02056,  -0.00720,   0.01152,  -0.05265,   0.03023,  -0.16493,  -0.03126,  -0.05265,  -0.00720,  -0.06067,  -0.03126,  -0.04463,   0.08370,   0.00082,   0.03825,   0.00617,   0.10241,  -0.04730,   0.01152,   0.04627,   0.01954,  -0.01254,  -0.06601,  -0.01789,   0.02756,  -0.15424,  -0.07671,   0.07300,   0.03825,  -0.07403,  -0.03928,   0.07300,   0.05964,  -0.02858,  -0.07671,   0.01954,   0.06231,   0.02221,  -0.00452,   0.02221,   0.00350,   0.03023,   0.01954,  -0.05532,   0.10509,  -0.03661,  -0.05799,   0.03825,   0.02221,  -0.02056,   0.04092,  -0.08740,  -0.07403,  -0.06601,  -0.08473,   0.11311,   0.11578,  -0.13819,  -0.08205,  -0.03928,  -0.02858,   0.05964,   0.08637,   0.09974,  -0.06067,   0.16123,   0.03023,   0.18796,  -0.04195,   0.09707,   0.05964,  -0.10611,  -0.09275,   0.01686,   0.01152,  -0.04195,   0.07835,   0.05964,   0.15588,   0.02488,   0.08637,   0.02221,   0.11845,   0.11578,   0.06498,   0.03825,  -0.10879,   0.02221,  -0.02324,  -0.08205,   0.11578,   0.05429,  -0.03126,   0.07835,  -0.02858,   0.00617,  -0.00185,  -0.06601,  -0.06869
  -0.05799,  -0.02056,   0.16123,  -0.14354,   0.12380,  -0.05532,  -0.16760,  -0.01254,   0.06231,   0.10509,   0.02488,  -0.06334,   0.05429,  -0.02056,   0.05429,  -0.09275,  -0.05532,  -0.04997,  -0.02858,  -0.01254,  -0.04730,   0.05429,  -0.01789,   0.04360,   0.09974,   0.14251,  -0.11413,  -0.06869,  -0.09542,  -0.06869,   0.00082,  -0.14087,   0.00617,   0.09172,   0.00350,   0.00884,  -0.04997,  -0.13017,  -0.00987,   0.09439,  -0.06869,   0.12380,   0.02221,   0.07300,   0.01152,  -0.10344,  -0.00452,  -0.02056,  -0.20770,  -0.08740,   0.05429,  -0.03661,   0.00082,   0.10776,   0.03558,  -0.02591,  -0.00720,   0.01152,  -0.10611,   0.07033,   0.07835,  -0.06601,  -0.08473,  -0.01789,   0.07033,  -0.13552,  -0.10879,  -0.16226,   0.07033,  -0.05265,   0.01954,  -0.09542,   0.05964,   0.00082,  -0.10611,  -0.00720,   0.04360,  -0.00185,   0.13717,   0.07300,  -0.09275,  -0.06067,  -0.00185,   0.08904,  -0.02591,   0.05696,   0.03825,  -0.01522,  -0.00185,  -0.08740,   0.02488,  -0.00185,  -0.07938,   0.08370,   0.03023,   0.08904,   0.08370,  -0.01522,   0.07568,   0.08102,   0.07568,  -0.00987,  -0.02056,   0.00350,   0.06498,   0.08637,   0.02488,   0.13182,   0.09439,  -0.09542,  -0.12750,   0.06766,  -0.02591,  -0.04997,   0.03558,  -0.01522,  -0.03661,  -0.00720,   0.19865,  -0.04195,   0.03825,   0.05429,   0.05964,  -0.08740,  -0.06334,  -0.04997,   0.03825,  -0.15691,   0.05429,   0.05162,   0.02221,   0.07033,   0.10509,  -0.09275,   0.04092,   0.06766,  -0.14621,   0.08904,   0.03023,  -0.15424,   0.04092,  -0.07938,   0.01686,  -0.11413,   0.11043,  -0.07403,   0.02221,  -0.05532,  -0.02591,   0.15053,   0.11311,   0.01686,   0.00082,   0.07568,   0.15321,   0.03825,  -0.01254,   0.03558,  -0.09809,   0.02488,   0.03023,   0.11043,   0.01686,  -0.02591,   0.04360,  -0.06334,   0.02221,   0.04092,  -0.03393,  -0.18364,  -0.08740,   0.08904,  -0.17562,  -0.09275,  -0.04463,  -0.04997,   0.05162,   0.01419,   0.10776,  -0.08740,   0.07033,  -0.04997,   0.12915,   0.01152,   0.03023,  -0.00452,   0.05162,  -0.06067,  -0.13552,   0.03023,  -0.02324,  -0.11681,  -0.05532,  -0.00452,  -0.06334,  -0.08740,   0.03023,   0.09439,  -0.04730,  -0.01254,   0.02221,   0.01954,   0.00082,   0.03023,   0.01152,   0.00884,   0.07568,   0.01419,   0.07300,   0.03023,  -0.00185,  -0.03393,  -0.04463,   0.02756,  -0.02324,  -0.08740,   0.04627,  -0.08473,  -0.08205,  -0.12750,  -0.10611,  -0.08740,   0.00617,   0.05964,  -0.06334,  -0.12215,  -0.09275,  -0.03126,  -0.03126,  -0.00452,  -0.19701,  -0.14621,   0.13984,   0.04627,  -0.10611,  -0.17562,   0.14786,  -0.01522,  -0.06334,   0.03023,  -0.03393,  -0.07403,   0.05162,   0.13182,   0.07835,   0.04092,   0.01152,  -0.08205,   0.00082,  -0.12215,   0.08370,  -0.01254,  -0.11681,  -0.01522,   0.02488,  -0.12483
  -0.01254,   0.00617,  -0.01789,   0.01152,  -0.00185,   0.13182,  -0.00987,   0.00617,   0.14786,  -0.00720,  -0.13819,   0.07568,  -0.00452,   0.16657,  -0.04997,   0.10509,  -0.00987,   0.06766,  -0.03126,  -0.02591,  -0.01254,   0.10776,   0.03558,   0.04360,  -0.02056,   0.07835,   0.12113,  -0.09275,   0.04092,   0.10241,  -0.02591,   0.03290,   0.08102,   0.17192,   0.12647,   0.04092,   0.04092,   0.03825,  -0.06334,  -0.07403,  -0.07403,  -0.07671,   0.05696,   0.01954,  -0.02324,   0.06231,   0.08904,  -0.13017,   0.03290,   0.00350,   0.01686,  -0.00185,  -0.07671,   0.13717,  -0.04997,   0.03558,  -0.04997,  -0.09542,   0.06498,  -0.00185,   0.08102,  -0.03661,  -0.04195,   0.16123,   0.02221,   0.07568,   0.10509,  -0.03126,   0.01954,   0.07033,  -0.15691,  -0.05265,   0.00082,   0.08637,  -0.09809,   0.01954,   0.00350,   0.00350,   0.15855,  -0.04997,  -0.04730,  -0.06067,  -0.12483,   0.15053,  -0.01522,   0.05162,  -0.02858,  -0.10344,  -0.17028,  -0.11948,   0.06498,   0.05696,  -0.14354,   0.01686,   0.04894,   0.05964,  -0.06334,   0.03290,   0.05696,  -0.18364,   0.03558,   0.01686,  -0.16760,  -0.06869,   0.00617,  -0.02056,  -0.14354,  -0.07671,   0.05162,   0.07568,  -0.06334,   0.10241,  -0.04997,  -0.01789,   0.01686,  -0.02591,  -0.01789,   0.15855,  -0.02591,   0.15053,   0.13182,  -0.02591,   0.02756,   0.01152,   0.08370,  -0.10344,  -0.00452,   0.08370,  -0.00987,   0.05964,  -0.10344,   0.27886,  -0.15424,  -0.09542,  -0.04195,  -0.17028,  -0.05799,   0.17994,  -0.07671,   0.07568,  -0.05265,  -0.03393,   0.03023,  -0.04463,  -0.01522,   0.05696,  -0.00452,   0.05429,  -0.07136,   0.00350,  -0.02056,   0.11845,  -0.10611,  -0.03126,  -0.00185,   0.13182,   0.09707,  -0.02591,  -0.01254,  -0.02056,   0.03558,   0.01152,   0.15855,   0.05696,   0.03290,   0.12113,  -0.15156,  -0.00452,   0.07033,  -0.11948,   0.00082,   0.09707,   0.06231,  -0.00720,   0.05964,  -0.00987,  -0.00720,   0.08637,  -0.17562,  -0.01522,  -0.00720,   0.07568,   0.01152,  -0.03126,  -0.19701,  -0.02056,  -0.00185,   0.16123,   0.10776,   0.17994,  -0.04730,  -0.07403,   0.12113,  -0.04997,   0.00082,   0.04894,   0.08370,  -0.02324,  -0.04195,  -0.04463,   0.03023,  -0.09007,  -0.07938,  -0.03126,   0.00350,   0.01686,   0.08637,   0.01686,   0.11845,   0.04627,   0.07568,   0.14251,   0.11578,  -0.03393,   0.10776,  -0.05265,  -0.00720,  -0.12750,  -0.07671,  -0.06334,  -0.05265,   0.16123,   0.00350,   0.02221,  -0.00185,   0.01686,  -0.00185,  -0.07938,   0.00617,  -0.02858,  -0.13285,  -0.00185,  -0.01254,  -0.04997,   0.08370,  -0.03393,   0.05429,  -0.04195,  -0.13017,   0.10776,  -0.04463,  -0.12215,   0.03023,  -0.08740,  -0.01254,   0.08102,  -0.10611,   0.11578,   0.03825,   0.06498,   0.09172,  -0.05799,  -0.03928,  -0.06334,   0.05429,  -0.01522
   0.07568,   0.09172,  -0.06334,   0.16925,  -0.03393,   0.07835,   0.01954,   0.04360,   0.01419,   0.07033,  -0.10344,   0.03023,  -0.03126,   0.02221,  -0.03661,  -0.07671,  -0.02858,  -0.00185,  -0.09275,   0.00350,  -0.01789,  -0.16760,   0.01954,  -0.09809,  -0.04463,  -0.10077,  -0.12215,   0.01954,  -0.01254,   0.09172,  -0.07136,  -0.04730,   0.04627,  -0.19434,   0.06766,   0.01954,  -0.00987,  -0.04997,  -0.00987,  -0.07671,  -0.00185,   0.01152,   0.08370,  -0.02324,  -0.01522,  -0.09809,  -0.18899,   0.06498,  -0.02858,   0.03290,  -0.02324,  -0.02858,  -0.07938,   0.06498,  -0.10077,   0.05964,   0.00617,  -0.01522,   0.09172,  -0.09542,   0.04627,  -0.04195,  -0.12215,   0.06498,   0.04627,   0.05162,  -0.08473,   0.00884,  -0.06334,  -0.04195,   0.00617,  -0.09007,  -0.09007,   0.12113,   0.07568,   0.00082,  -0.06601,   0.10509,  -0.02858,   0.10776,   0.01686,   0.00082,   0.13449,  -0.02324,  -0.10077,   0.07300,  -0.01789,   0.08637,   0.13717,   0.09172,   0.15321,  -0.03126,  -0.13552,   0.08370,   0.04360,  -0.06334,   0.05162,  -0.02324,  -0.05799,   0.01152,  -0.03661,   0.00617,   0.07033,   0.06231,   0.10241,  -0.01789,   0.09974,  -0.02591,  -0.16760,  -0.02858,  -0.02056,  -0.12215,  -0.02056,   0.01152,   0.00884,   0.01686,   0.03290,  -0.01522,   0.09439,   0.08637,  -0.00185,  -0.10077,   0.04360,   0.08637,   0.09707,   0.03023,   0.09439,   0.09439,   0.16123,  -0.07671,   0.02488,   0.05429,   0.11845,   0.02756,  -0.03661,   0.05429,  -0.05265,  -0.10344,  -0.06334,   0.04627,  -0.03393,  -0.00185,  -0.03928,   0.10241,   0.00350,  -0.08205,  -0.04195,  -0.00452,  -0.01522,   0.01419,  -0.05532,  -0.01789,  -0.10344,  -0.04195,   0.06766,   0.00884,  -0.05799,  -0.00987,  -0.15156,   0.00350,  -0.05799,  -0.16226,   0.05964,  -0.00185,   0.03825,   0.05162,   0.05696,   0.06498,  -0.06067,   0.06766,   0.08637,   0.01954,   0.01954,   0.13449,  -0.02591,  -0.05265,   0.00350,   0.05162,   0.01954,   0.00617,   0.00082,   0.20400,   0.03290,  -0.01522,   0.02756,   0.01419,   0.00617,  -0.00185,  -0.15958,   0.07568,  -0.04463,   0.06498,   0.06498,   0.07300,  -0.04997,   0.02488,  -0.04730,   0.06498,  -0.03393,   0.02756,   0.13717,  -0.02324,  -0.06869,  -0.03126,  -0.16493,   0.05964,  -0.08473,   0.04360,  -0.04997,  -0.02324,   0.11578,  -0.01254,   0.11845,  -0.02056,  -0.02056,   0.09707,  -0.02591,  -0.03661,  -0.06869,  -0.11948,  -0.10611,   0.01152,   0.07568,  -0.00452,   0.02221,  -0.02858,  -0.00987,  -0.05799,  -0.09275,   0.01152,  -0.04730,   0.06766,   0.05162,   0.09439,  -0.00987,  -0.00452,  -0.05799,   0.01686,   0.03023,  -0.05265,  -0.10077,   0.01152,  -0.18899,   0.12113,   0.05696,  -0.04997,   0.01152,   0.02221,  -0.09809,  -0.10344,   0.00884,  -0.01522,  -0.04463,  -0.14087,  -0.03126,   0.04092
  -0.04997,  -0.06869,   0.07568,  -0.03126,   0.01419,   0.03825,  -0.11146,   0.06231,   0.04360,  -0.01254,   0.11578,  -0.03661,   0.02488,   0.07568,   0.03825,  -0.01789,   0.06498,   0.08904,  -0.09809,  -0.13285,   0.09707,  -0.12215,  -0.09809,   0.02756,  -0.02324,  -0.04195,   0.07568,  -0.01254,  -0.08473,   0.08637,   0.04092,  -0.01789,  -0.10879,   0.10509,  -0.04997,  -0.04997,   0.25212,  -0.00452,  -0.01522,   0.00350,  -0.04195,   0.11578,   0.02756,  -0.00452,  -0.10611,   0.08637,  -0.00720,  -0.03393,   0.13717,  -0.03661,   0.00884,   0.04894,   0.09707,   0.10776,   0.01954,   0.00617,  -0.05799,  -0.01789,  -0.21305,   0.06231,   0.06231,   0.01152,  -0.04195,  -0.11413,  -0.03126,   0.05429,  -0.00720,   0.09974,  -0.08205,   0.07835,   0.07033,   0.00350,   0.09439,   0.01152,  -0.00720,   0.03290,  -0.01522,  -0.01254,   0.16390,   0.01419,   0.05964,  -0.15156,  -0.00720,  -0.00987,  -0.02056,  -0.02056,  -0.06067,  -0.02056,  -0.05532,  -0.00987,   0.14519,  -0.04463,  -0.01254,  -0.07938,  -0.03928,  -0.05265,  -0.04195,  -0.04730,  -0.03928,  -0.03928,  -0.00720,   0.06231,  -0.01789,   0.01152,  -0.02591,  -0.00452,   0.01686,  -0.03661,   0.00350,  -0.02056,  -0.01522,  -0.18364,   0.06231,  -0.03661,  -0.06869,  -0.07403,  -0.01789,   0.03825,  -0.05532,  -0.03661,   0.06498,  -0.02056,  -0.14621,   0.06766,  -0.05532,   0.00617,   0.05429,  -0.08473,   0.10509,  -0.03126,  -0.07671,  -0.19701,  -0.10879,  -0.03661,   0.00617,  -0.04730,  -0.04730,  -0.02324,   0.01954,  -0.02858,   0.11043,  -0.08740,  -0.06869,  -0.03928,   0.01954,   0.02756,  -0.03928,   0.15053,   0.02756,  -0.06869,  -0.09007,  -0.02858,   0.04627,  -0.06601,   0.04627,   0.08904,  -0.03126,   0.04894,  -0.00720,   0.04627,  -0.04463,   0.08102,   0.01152,  -0.02056,   0.06231,   0.11043,   0.16657,  -0.03928,   0.02756,  -0.08740,   0.07033,   0.04360,  -0.10344,   0.04360,   0.02221,  -0.08473,   0.00617,  -0.03661,  -0.04997,  -0.02591,  -0.04997,  -0.11413,   0.08102,  -0.02056,   0.03023,  -0.16226,  -0.04195,  -0.00452,   0.03023,   0.01686,  -0.00185,  -0.00987,   0.07568,   0.17727,   0.00082,  -0.07671,   0.01152,  -0.04997,   0.05429,   0.05429,   0.19331,   0.04627,   0.03558,   0.01686,  -0.10611,  -0.08473,  -0.02324,   0.08102,  -0.00185,  -0.09809,   0.01419,   0.01954,   0.18796,  -0.02056,   0.09172,   0.07835,  -0.04730,  -0.10077,  -0.02858,  -0.04730,   0.08102,   0.13717,   0.02756,   0.05429,   0.03558,   0.09439,  -0.19166,  -0.06869,  -0.04463,  -0.05265,   0.09439,   0.04360,   0.04627,  -0.01789,   0.09707,  -0.12215,   0.09974,   0.08904,  -0.04730,  -0.03393,   0.04360,  -0.02056,  -0.05532,  -0.03661,   0.08370,  -0.01254,  -0.06869,   0.09707,  -0.00720,   0.08370,  -0.09809,   0.11578,  -0.03126,  -0.11681,   0.16925,   0.08904
   0.01152,  -0.06601,   0.01954,  -0.10344,   0.00884,  -0.05265,  -0.00452,  -0.04730,  -0.11681,   0.03023,   0.05429,  -0.06601,  -0.13552,   0.04894,   0.07835,   0.04360,  -0.02591,  -0.08740,   0.07300,   0.00884,   0.00884,   0.00884,  -0.12483,  -0.06869,   0.06231,   0.07300,   0.03825,  -0.02056,  -0.07671,   0.05696,   0.06766,   0.04360,  -0.01254,  -0.07671,  -0.05799,   0.10776,   0.06231,  -0.06869,  -0.13285,  -0.06601,  -0.02858,   0.11578,   0.11578,  -0.00987,  -0.04997,   0.14251,  -0.08740,   0.02756,  -0.06334,   0.12915,  -0.17562,  -0.11413,   0.00082,   0.05696,  -0.09007,  -0.01254,  -0.14354,  -0.12215,  -0.12215,  -0.11146,   0.05429,  -0.05799,  -0.00720,  -0.02324,   0.12915,  -0.04195,   0.01152,   0.01152,  -0.12750,  -0.15156,  -0.01789,   0.00350,  -0.04195,  -0.03661,   0.00617,   0.06231,  -0.00720,   0.10776,  -0.07671,   0.03825,   0.04360,  -0.01522,  -0.00720,  -0.02324,  -0.06601,  -0.04195,   0.17192,  -0.07136,   0.03290,   0.00082,  -0.09542,   0.01419,  -0.01254,  -0.00185,  -0.02056,  -0.08205,   0.06766,   0.01419,   0.01686,   0.17727,   0.04360,  -0.08473,  -0.02858,   0.08102,  -0.09007,  -0.01789,   0.02756,  -0.04195,   0.01954,   0.06498,  -0.01522,   0.08904,   0.03290,   0.04360,   0.06766,   0.03290,   0.07835,  -0.01789,  -0.09275,  -0.03126,  -0.09275,   0.08370,   0.01419,  -0.09275,  -0.02858,   0.04894,  -0.09007,   0.09707,   0.07033,   0.07300,   0.05162,  -0.06601,  -0.10077,   0.00617,   0.02488,  -0.01789,  -0.10879,   0.10509,   0.10776,   0.03290,   0.09974,  -0.06601,   0.11845,  -0.00452,  -0.05265,   0.01686,  -0.01254,   0.05162,  -0.08473,   0.08102,  -0.06067,  -0.02591,  -0.00720,   0.05429,  -0.01789,  -0.03393,  -0.00452,  -0.11146,  -0.00720,   0.10509,  -0.08205,   0.11578,  -0.00987,   0.18796,   0.03290,  -0.05265,   0.07835,   0.03023,  -0.07136,  -0.03126,  -0.13017,   0.06231,  -0.09275,  -0.04195,  -0.11681,  -0.01254,   0.02488,  -0.06869,  -0.07938,  -0.00452,   0.07300,   0.04894,  -0.04195,   0.03023,  -0.00987,  -0.07136,  -0.07136,   0.05162,   0.05429,  -0.03661,   0.01954,   0.04360,  -0.08740,  -0.17028,  -0.10611,  -0.13017,  -0.06869,   0.00884,  -0.11681,  -0.17028,   0.10241,  -0.16493,  -0.04195,   0.17459,  -0.07938,   0.01419,   0.09974,  -0.02591,   0.12113,  -0.04195,   0.20400,  -0.11413,  -0.11948,   0.00350,   0.06231,  -0.03928,  -0.12215,  -0.08473,  -0.06334,   0.04092,  -0.05265,  -0.02591,   0.02221,   0.00884,   0.12113,  -0.03126,  -0.09007,  -0.00185,   0.09974,   0.06766,  -0.05265,   0.03290,   0.01152,  -0.04730,  -0.00452,  -0.00720,  -0.04997,  -0.05799,   0.02488,   0.04627,  -0.00720,  -0.02056,   0.13717,   0.09172,   0.15588,  -0.09542,  -0.26652,  -0.03928,  -0.18097,  -0.00987,  -0.05799,   0.02488,  -0.05799,  -0.16226,   0.03023,   0.12380
   0.03558,   0.06498,  -0.10879,  -0.09809,   0.00082,   0.10509,  -0.00185,   0.22539,   0.01419,   0.04092,   0.04360,  -0.02056,  -0.02591,   0.07033,   0.09439,   0.01419,   0.02756,   0.03290,   0.07033,   0.12113,   0.01419,  -0.04730,  -0.03928,   0.08904,   0.02488,   0.02221,   0.04627,  -0.04195,  -0.02324,  -0.02591,  -0.04195,  -0.06067,   0.10776,   0.15855,  -0.06601,  -0.08205,  -0.13285,  -0.00185,   0.00350,   0.16657,   0.00617,   0.05162,   0.01419,   0.00617,   0.00350,   0.13717,  -0.21305,  -0.03661,   0.00082,  -0.05532,  -0.07136,   0.04092,   0.12380,  -0.04195,   0.02221,  -0.00987,  -0.08740,  -0.10344,   0.00350,  -0.15424,  -0.00452,  -0.04997,  -0.02591,   0.01152,  -0.04730,   0.09707,  -0.00720,  -0.00185,  -0.09007,   0.16925,   0.04627,  -0.06869,  -0.17028,  -0.03661,  -0.09275,  -0.04195,   0.01686,   0.08637,  -0.04463,  -0.10879,   0.14786,   0.01954,  -0.02591,   0.08102,  -0.05799,  -0.05799,   0.01419,   0.02488,  -0.07671,   0.04894,   0.09172,   0.15855,  -0.11146,   0.06498,   0.03023,  -0.08205,   0.07033,   0.01152,  -0.02858,  -0.01522,   0.09439,  -0.05265,  -0.03661,  -0.00720,  -0.05532,   0.07300,  -0.01789,   0.11311,   0.01152,  -0.05532,  -0.10611,   0.07300,  -0.00987,   0.20133,   0.06231,   0.03825,  -0.02324,  -0.04730,  -0.03393,   0.00884,  -0.07403,   0.05696,   0.01954,   0.11845,   0.01686,  -0.12215,   0.06766,   0.06498,   0.07568,   0.12380,  -0.03928,  -0.06334,   0.01152,  -0.09007,  -0.10879,  -0.17830,   0.05429,   0.01686,  -0.11948,  -0.02324,  -0.11948,  -0.10344,  -0.18364,  -0.02858,   0.11845,   0.00617,  -0.07671,   0.03558,   0.11578,   0.03825,   0.00884,   0.11845,   0.01686,   0.10509,  -0.07671,   0.01686,  -0.04997,  -0.10879,  -0.14621,   0.03023,  -0.08473,   0.06766,   0.01686,  -0.09275,   0.00884,   0.19063,  -0.04730,   0.19598,  -0.02858,   0.01954,   0.03825,  -0.00720,   0.05162,  -0.06334,  -0.10077,  -0.02591,  -0.03126,  -0.13285,   0.04627,   0.03023,   0.00884,  -0.11146,  -0.06334,   0.04627,  -0.16493,   0.00350,  -0.00452,  -0.07671,  -0.06869,   0.05429,   0.02756,  -0.05265,   0.04627,  -0.07938,  -0.04463,   0.13717,  -0.01789,  -0.03661,   0.05162,   0.11578,   0.02756,  -0.02324,   0.01419,   0.08370,  -0.11948,   0.02221,  -0.05265,   0.17727,  -0.12483,   0.04092,  -0.09275,   0.08904,  -0.09275,   0.09707,  -0.13017,   0.14251,  -0.03661,  -0.00720,  -0.12750,  -0.15424,   0.07033,  -0.00452,  -0.07136,  -0.06067,   0.08370,   0.05696,   0.04894,   0.04627,  -0.10077,  -0.01789,  -0.02056,  -0.03126,  -0.04195,   0.00350,  -0.02324,   0.07033,   0.06231,  -0.00720,   0.00617,  -0.02858,  -0.00185,  -0.00185,  -0.03393,   0.03290,   0.05429,   0.10241,   0.07033,   0.03558,  -0.00185,  -0.02858,   0.01419,  -0.06601,   0.04092,  -0.07136,  -0.02324,   0.05696
  -0.03126,  -0.01522,   0.12647,   0.02488,   0.00082,  -0.03661,   0.12647,  -0.03126,  -0.00185,  -0.04195,  -0.06067,  -0.06601,  -0.00452,   0.03023,   0.00884,   0.07568,  -0.08740,   0.06498,  -0.01522,  -0.05265,  -0.03928,  -0.07938,  -0.06067,  -0.02056,  -0.04997,  -0.03661,   0.14251,  -0.05532,  -0.01254,  -0.05532,  -0.11146,  -0.07136,   0.03023,   0.13717,  -0.12215,  -0.03661,  -0.12215,   0.00350,   0.07300,   0.07835,  -0.09542,   0.03290,   0.00617,  -0.06869,  -0.06067,   0.06498,  -0.04730,  -0.06869,   0.01686,  -0.05532,  -0.09007,   0.03825,  -0.17562,   0.09439,  -0.08740,  -0.12483,   0.03023,   0.08102,  -0.01254,   0.04360,  -0.04195,  -0.07671,  -0.02324,   0.09172,  -0.03928,  -0.02324,  -0.12215,  -0.10344,   0.06231,  -0.04730,  -0.05799,  -0.19166,   0.06498,  -0.08205,   0.00617,  -0.19166,  -0.17028,  -0.13285,   0.01954,   0.04894,  -0.00452,   0.06231,  -0.07403,  -0.06601,   0.13717,  -0.01789,  -0.06869,  -0.07671,   0.13449,   0.05964,  -0.03126,   0.16390,  -0.04463,  -0.07938,   0.01686,   0.04627,  -0.02591,  -0.05265,   0.01419,   0.01954,   0.00884,  -0.15958,  -0.02858,   0.07033,   0.02756,  -0.10344,  -0.10879,   0.13717,  -0.21840,  -0.08740,   0.05162,   0.00350,   0.14519,  -0.01254,  -0.02324,  -0.00987,   0.03290,   0.01419,  -0.04195,  -0.06869,   0.03290,   0.04894,  -0.03126,   0.00082,   0.02221,  -0.12215,   0.00617,   0.00617,   0.08637,  -0.04195,   0.07835,  -0.00987,  -0.05799,   0.09707,   0.00082,   0.08904,   0.06766,  -0.16493,  -0.11413,  -0.14889,  -0.08473,  -0.01789,  -0.05265,   0.07033,   0.13449,  -0.01254,   0.07300,   0.01152,   0.10509,   0.04360,   0.02221,  -0.06601,  -0.07403,  -0.02858,  -0.02324,   0.08904,   0.11845,   0.10509,  -0.02858,   0.02221,   0.08637,  -0.04195,  -0.03126,  -0.14354,   0.02488,  -0.00987,  -0.02056,   0.00884,  -0.15958,   0.11311,   0.17727,  -0.07671,   0.05696,   0.10509,   0.06231,  -0.03126,  -0.03126,  -0.00452,   0.13717,  -0.10077,  -0.11146,  -0.08473,  -0.16760,  -0.03393,  -0.03661,   0.00617,  -0.08473,  -0.00452,  -0.06334,  -0.05799,   0.09439,   0.05696,  -0.05799,  -0.08473,  -0.06869,  -0.04463,   0.08637,  -0.00452,   0.15855,   0.00082,  -0.01254,   0.09172,  -0.00185,   0.11043,   0.09172,   0.00884,   0.02756,  -0.00720,  -0.13552,   0.03023,  -0.11413,   0.21202,  -0.04463,  -0.13285,   0.08370,  -0.10344,  -0.01789,   0.02221,   0.08904,  -0.02056,   0.08370,   0.07033,  -0.10077,  -0.04730,   0.05964,   0.02756,   0.05429,   0.06766,   0.16657,  -0.02324,  -0.11681,   0.09707,  -0.00452,  -0.00185,   0.02488,   0.10241,  -0.01789,   0.09172,   0.00884,  -0.08473,  -0.01789,  -0.24513,   0.07568,   0.08370,   0.06766,  -0.00987,  -0.13017,  -0.01522,  -0.14889,  -0.05532,  -0.01254,   0.05696,  -0.08740,  -0.06601,  -0.07671,  -0.04463
   0.02221,  -0.10879,  -0.01254,  -0.05799,  -0.11146,  -0.12215,   0.03290,   0.03825,  -0.02324,   0.22806,  -0.03928,  -0.02056,  -0.04463,  -0.00987,   0.09172,   0.05964,   0.07300,  -0.02056,  -0.04730,  -0.08473,  -0.04730,  -0.08473,   0.01152,  -0.08473,   0.01152,   0.08904,   0.07033,   0.04627,   0.02756,  -0.03393,  -0.05265,   0.00617,   0.07835,   0.10241,   0.13984,  -0.04195,   0.03558,  -0.12483,   0.05696,  -0.13285,  -0.10077,   0.04360,  -0.11948,  -0.10879,  -0.03661,  -0.14621,  -0.04730,   0.01954,   0.12647,   0.02756,   0.11043,   0.00350,   0.27886,   0.03290,   0.08637,  -0.06601,  -0.00452,  -0.03928,   0.08637,   0.12647,  -0.02858,  -0.09007,  -0.02056,   0.09974,  -0.12750,  -0.01789,   0.03290,   0.10509,  -0.08473,   0.02756,  -0.00987,   0.12915,  -0.07136,  -0.11146,   0.14519,   0.04092,   0.07568,   0.08904,  -0.05532,  -0.04730,  -0.04730,  -0.08205,   0.06766,   0.02221,   0.04092,  -0.11146,   0.08637,   0.11043,  -0.07136,   0.06498,  -0.04730,   0.10241,  -0.05265,  -0.03661,   0.07835,   0.01152,   0.05162,   0.06498,  -0.02056,   0.05964,  -0.08205,  -0.08473,  -0.02858,   0.07300,  -0.11681,   0.04092,   0.01419,   0.22806,   0.09172,  -0.09542,   0.02756,   0.06231,   0.10509,   0.01686,  -0.01254,  -0.02324,   0.17459,   0.17727,   0.04627,  -0.06067,  -0.05799,  -0.08473,  -0.11146,   0.03558,  -0.07938,  -0.04730,   0.15321,  -0.07136,  -0.07403,  -0.06601,   0.01419,   0.00082,   0.01686,   0.03023,  -0.05532,  -0.05265,   0.02488,   0.13182,  -0.08473,   0.13717,   0.00082,   0.09439,  -0.01789,  -0.04730,   0.05162,   0.08904,   0.02488,   0.05162,  -0.14889,   0.06498,  -0.04997,   0.02756,   0.09172,   0.04894,   0.07033,  -0.12483,   0.08102,   0.01419,   0.11311,   0.05696,  -0.07671,  -0.09007,  -0.10344,  -0.06601,  -0.04730,  -0.00987,  -0.06601,  -0.09275,  -0.11948,   0.07568,   0.08637,  -0.06067,   0.04894,  -0.15958,  -0.05799,   0.00617,  -0.09007,   0.01419,   0.05696,   0.03825,   0.06231,  -0.00987,  -0.05532,  -0.03661,   0.03023,   0.07300,  -0.18364,   0.01686,  -0.03661,   0.14251,   0.13449,  -0.06869,  -0.04195,   0.00884,  -0.02324,   0.07835,  -0.01254,  -0.10879,  -0.02324,  -0.10611,   0.06766,   0.08370,  -0.15424,   0.03023,  -0.13017,  -0.20770,  -0.11413,   0.10509,   0.01686,  -0.22374,  -0.10879,   0.03558,   0.19063,  -0.08473,  -0.06067,  -0.08473,   0.14786,  -0.13552,  -0.09542,   0.03023,   0.01686,   0.04360,   0.12915,   0.05429,  -0.06067,  -0.21840,   0.15321,  -0.03126,   0.06498,   0.02488,  -0.05265,  -0.00452,  -0.07671,  -0.08740,   0.03023,  -0.06067,  -0.00720,  -0.08740,   0.01419,   0.04092,   0.03023,   0.07835,  -0.04997,   0.03825,   0.10776,  -0.04730,   0.03023,   0.06498,   0.05162,   0.00350,   0.07835,   0.03825,   0.10509,   0.02488,   0.06498,  -0.04463
   0.11845,   0.07300,  -0.12483,   0.01152,   0.01419,  -0.03661,  -0.06601,  -0.07938,   0.09172,  -0.07136,  -0.18364,  -0.05799,  -0.14621,  -0.05799,   0.05429,  -0.11948,   0.04092,   0.04092,  -0.03661,  -0.07938,   0.06766,   0.14251,   0.06231,  -0.14621,   0.12113,  -0.13285,   0.01954,   0.15053,  -0.00987,  -0.06334,   0.00617,   0.04627,   0.09974,   0.14251,   0.03290,  -0.01254,   0.05162,  -0.06869,  -0.12215,  -0.16760,  -0.03393,  -0.02591,   0.05429,  -0.09542,  -0.03661,  -0.01254,   0.05696,  -0.02056,   0.00082,   0.03825,  -0.02591,  -0.16493,  -0.04195,  -0.14889,  -0.01522,  -0.00185,  -0.10879,  -0.02324,  -0.03928,  -0.03126,  -0.13819,   0.07568,   0.18261,   0.07300,  -0.00987,  -0.06334,   0.13182,  -0.08473,  -0.02056,   0.06498,  -0.09007,  -0.03126,   0.06231,  -0.02056,   0.10509,  -0.03661,   0.02488,   0.01686,   0.13182,  -0.09275,   0.07033,   0.06498,  -0.01789,   0.10509,   0.15053,  -0.00452,  -0.11948,  -0.10879,   0.03825,   0.00617,   0.06498,   0.00617,  -0.00987,   0.14251,   0.03290,  -0.02056,   0.02756,  -0.05799,   0.09439,   0.11043,  -0.01254,  -0.11948,   0.08637,   0.06498,  -0.00987,   0.05964,   0.10509,  -0.01254,   0.01686,   0.07300,   0.02488,   0.11578,  -0.07403,  -0.00452,  -0.04997,   0.06498,  -0.06601,  -0.14087,   0.03290,  -0.14087,   0.00617,  -0.00987,   0.07568,  -0.08205,   0.03558,  -0.06601,  -0.02591,  -0.04463,  -0.05799,   0.08370,   0.00884,  -0.01522,  -0.07136,   0.01419,   0.03558,  -0.00987,   0.00884,   0.12915,  -0.04997,   0.11043,  -0.23711,   0.03825,   0.02221,  -0.02591,  -0.02591,  -0.06869,  -0.08205,   0.00617,  -0.05532,   0.01152,   0.03290,   0.06766,   0.15053,   0.00617,  -0.01254,   0.00350,   0.08102,   0.11043,  -0.03126,   0.01419,  -0.04997,  -0.00987,  -0.16493,   0.01686,   0.05696,  -0.04730,   0.11311,  -0.09275,   0.08904,   0.06231,  -0.03393,  -0.02324,  -0.06601,  -0.04195,   0.06231,  -0.15156,   0.00350,   0.01419,  -0.11681,   0.01954,  -0.20503,  -0.01254,  -0.01522,   0.00617,   0.09172,   0.01419,   0.02756,   0.00082,  -0.02591,   0.14519,   0.07568,   0.01954,   0.02221,  -0.04463,   0.11043,  -0.12483,  -0.01254,   0.04627,  -0.01254,  -0.04195,  -0.13017,  -0.03928,  -0.01254,  -0.10077,  -0.09809,   0.01686,  -0.05265,   0.17459,   0.05964,  -0.00452,  -0.00720,   0.11043,   0.00617,  -0.14889,  -0.04997,  -0.08205,  -0.09809,   0.07835,   0.11578,  -0.03928,   0.03825,  -0.01522,  -0.05532,   0.18529,   0.04092,  -0.06869,  -0.04463,   0.02221,  -0.00185,  -0.01789,   0.13449,   0.04894,   0.00617,  -0.02324,   0.07568,   0.01686,   0.01419,   0.08370,  -0.03928,  -0.00185,  -0.06601,  -0.02056,  -0.07136,  -0.03928,  -0.03661,   0.12380,  -0.04195,  -0.03393,   0.16123,   0.01954,   0.19063,   0.06766,   0.14519,  -0.08740,  -0.08473,   0.08637
  -0.07938,  -0.00185,   0.18796,  -0.04463,  -0.10077,  -0.03928,  -0.03661,  -0.02591,  -0.09542,   0.06498,  -0.02324,  -0.02056,  -0.15691,  -0.03661,  -0.07403,   0.12380,  -0.14889,   0.01954,   0.11578,  -0.01522,   0.06766,  -0.06869,  -0.11146,   0.06766,   0.12647,   0.00082,   0.01152,  -0.05532,   0.06498,   0.02756,   0.04894,  -0.02858,   0.03825,  -0.01254,  -0.02056,   0.05429,   0.05696,   0.03290,   0.00617,   0.04894,  -0.04997,   0.04360,   0.15053,   0.07300,  -0.06601,   0.09974,  -0.07403,   0.03558,  -0.02324,   0.09439,  -0.00452,  -0.10077,  -0.06601,  -0.00452,   0.16657,  -0.03928,   0.05429,   0.06498,  -0.09275,   0.04360,   0.01954,  -0.07136,  -0.00720,  -0.00452,  -0.08473,  -0.06601,   0.02221,  -0.00452,   0.04627,  -0.04730,   0.03290,  -0.11146,  -0.04997,   0.10776,   0.12113,  -0.02056,   0.09707,  -0.03661,  -0.07938,  -0.05532,   0.10509,   0.09439,   0.03825,   0.00884,   0.03290,   0.03023,   0.04627,  -0.12483,  -0.11681,   0.01954,   0.03558,   0.09172,  -0.00720,   0.16123,  -0.09542,  -0.10077,   0.05429,  -0.08205,  -0.07136,   0.08102,  -0.09542,  -0.01254,  -0.00185,   0.00082,   0.00884,  -0.06601,  -0.04463,   0.08370,   0.01152,   0.07835,  -0.20770,   0.02756,  -0.00452,   0.01152,  -0.04730,  -0.14354,   0.01954,  -0.10611,   0.00617,   0.04360,   0.00082,  -0.06869,   0.10509,   0.05429,  -0.01522,   0.09707,  -0.07671,  -0.00987,   0.09707,   0.15321,  -0.04997,  -0.10879,   0.05964,  -0.06869,  -0.02324,   0.17727,   0.08102,  -0.02858,  -0.00452,  -0.07136,  -0.15958,  -0.01254,   0.05696,   0.01419,  -0.09542,  -0.08740,  -0.01254,  -0.09809,   0.04092,   0.07568,   0.01152,  -0.00185,  -0.04463,   0.05429,  -0.09542,   0.00350,  -0.00452,  -0.06067,  -0.02324,   0.04092,  -0.18632,   0.00350,  -0.07938,  -0.04195,  -0.03661,   0.13449,   0.04627,  -0.01522,   0.02488,   0.03825,   0.01152,   0.07300,   0.08637,  -0.01522,  -0.08473,  -0.03126,  -0.06601,  -0.03126,   0.07568,  -0.00987,   0.01686,   0.04627,   0.01686,   0.01419,  -0.11681,  -0.10879,  -0.11413,  -0.10077,  -0.01522,  -0.04997,  -0.07403,   0.16390,   0.07835,  -0.02591,   0.11043,  -0.02324,   0.01152,  -0.05265,   0.00884,   0.03290,   0.08637,  -0.05532,   0.01954,   0.00617,   0.00350,   0.08102,  -0.04997,  -0.07671,  -0.02056,  -0.18364,  -0.00452,  -0.01789,  -0.04195,   0.02756,   0.12380,   0.08637,  -0.03126,   0.03558,   0.10241,   0.02221,   0.06498,  -0.11146,   0.04894,  -0.00720,  -0.08740,  -0.09007,  -0.07136,  -0.10344,  -0.07136,   0.06766,   0.02221,  -0.11146,  -0.02591,   0.00082,   0.00082,  -0.07403,  -0.04997,   0.03023,  -0.05799,   0.02756,   0.03290,  -0.09542,  -0.12483,   0.05429,   0.05429,  -0.00452,  -0.02591,   0.11043,  -0.17028,   0.04894,   0.21202,   0.06498,   0.12915,   0.07300,   0.06498,   0.09172
  -0.04997,   0.03290,  -0.07938,  -0.10611,  -0.05532,   0.19063,  -0.03661,  -0.02591,   0.03558,   0.02488,   0.04360,  -0.05532,   0.12113,   0.05162,  -0.06869,  -0.12750,  -0.08740,   0.04360,   0.13984,   0.02756,   0.04894,  -0.18364,  -0.07671,  -0.19701,   0.02756,   0.02488,  -0.01789,   0.01686,  -0.04997,   0.01419,  -0.06601,   0.08102,  -0.03661,  -0.18364,   0.05964,  -0.07403,  -0.01254,  -0.02324,  -0.00987,  -0.07671,   0.02221,   0.05429,   0.09707,   0.06498,  -0.00720,  -0.13285,  -0.08740,   0.19598,   0.05162,   0.04627,  -0.07938,   0.09439,   0.03023,  -0.04195,  -0.08473,   0.01419,   0.02756,  -0.07136,   0.06498,  -0.04997,  -0.09007,   0.03558,   0.00082,   0.01152,   0.04894,  -0.14354,   0.01954,  -0.02591,  -0.08205,  -0.03661,  -0.01789,   0.19331,  -0.04997,  -0.04195,   0.00884,   0.12915,   0.10776,  -0.00720,   0.01419,  -0.14354,   0.00350,  -0.01254,  -0.10344,   0.03023,   0.10509,   0.07568,  -0.04730,  -0.09809,  -0.02591,   0.00884,   0.18529,  -0.09542,  -0.17830,   0.02756,  -0.04463,   0.02488,   0.16925,  -0.00987,  -0.12750,  -0.15156,   0.11845,  -0.04195,  -0.21572,  -0.01254,  -0.11146,  -0.04195,   0.09707,   0.05162,   0.08102,  -0.00185,  -0.02056,   0.05696,   0.00082,   0.05696,  -0.06067,  -0.00987,  -0.04730,   0.05964,   0.01152,   0.05964,   0.06766,   0.14251,  -0.02858,  -0.14354,  -0.03661,  -0.09809,   0.12915,   0.11311,   0.02221,   0.00350,   0.08637,  -0.04730,  -0.03661,   0.07568,   0.09974,  -0.05265,   0.07835,   0.04092,   0.04360,   0.08904,  -0.04997,   0.04894,  -0.03661,   0.02756,   0.13449,  -0.04463,   0.01152,  -0.02591,  -0.12215,  -0.04997,   0.05964,  -0.00452,  -0.00185,   0.05162,  -0.05799,  -0.04730,  -0.05265,  -0.06601,   0.04092,   0.02488,  -0.00185,   0.02221,   0.08370,   0.02756,  -0.04463,   0.14519,   0.03825,   0.12113,   0.13182,  -0.02591,   0.10241,   0.14251,   0.09974,  -0.08473,  -0.11681,  -0.05532,  -0.02858,   0.16123,  -0.06869,  -0.04195,   0.04627,   0.15053,   0.09974,   0.04360,   0.01152,   0.00350,  -0.03661,  -0.00452,  -0.16226,  -0.06067,  -0.03393,   0.14251,   0.04627,  -0.03661,   0.08370,  -0.11681,  -0.05532,  -0.10077,   0.14786,  -0.03393,  -0.04463,   0.19063,  -0.08473,   0.07033,  -0.11681,  -0.15424,   0.11043,   0.03290,  -0.00987,   0.04894,   0.14251,  -0.06601,   0.15588,  -0.03928,   0.01419,  -0.00452,  -0.02056,  -0.05532,  -0.10077,  -0.04463,   0.04894,   0.00350,  -0.05532,  -0.08740,  -0.05799,   0.04894,  -0.00185,  -0.28523,  -0.01789,   0.01419,   0.14786,  -0.11948,   0.00617,   0.10509,  -0.06334,  -0.08740,  -0.04997,  -0.09542,  -0.03661,  -0.05265,   0.00884,   0.13182,   0.00617,  -0.11413,   0.03023,   0.00617,   0.04360,  -0.07403,   0.01954,   0.03023,   0.13182,   0.11043,   0.03825,  -0.17028,  -0.05532,  -0.01789
  -0.13285,   0.03290,  -0.16760,  -0.15958,  -0.05265,   0.05696,  -0.03661,  -0.04730,   0.15053,   0.00082,  -0.07403,   0.05964,   0.02756,   0.07835,   0.05429,   0.03558,   0.05429,   0.01152,   0.08370,   0.01419,   0.05429,  -0.02858,  -0.03126,   0.00617,  -0.03393,  -0.09275,  -0.11681,  -0.05532,  -0.10344,  -0.04195,   0.05696,   0.12915,   0.11845,   0.03023,  -0.09007,   0.07568,  -0.18899,   0.04627,   0.06498,  -0.01522,   0.04092,   0.09172,  -0.02591,   0.09707,  -0.15156,   0.04894,   0.05696,   0.03825,   0.13182,  -0.03393,   0.03023,  -0.13819,   0.08637,  -0.12750,   0.13984,   0.18261,   0.06498,  -0.07136,  -0.03661,  -0.00720,  -0.09007,  -0.09275,   0.06766,   0.14519,  -0.06067,   0.06498,   0.05429,   0.07033,  -0.02591,   0.01419,  -0.05265,  -0.12750,  -0.02056,   0.09439,   0.00082,   0.14786,  -0.01254,  -0.04997,  -0.00720,   0.02488,   0.04894,   0.03558,   0.04627,  -0.13017,  -0.18364,   0.12113,  -0.01789,   0.10509,  -0.09809,  -0.10879,   0.07033,  -0.02858,  -0.08740,  -0.05265,   0.03023,   0.11845,  -0.04997,  -0.00720,   0.00350,  -0.11948,  -0.16760,   0.11043,  -0.05799,   0.01954,   0.00350,   0.11043,  -0.08473,   0.00350,   0.00884,  -0.06869,   0.05162,  -0.09275,  -0.04997,  -0.05532,  -0.13552,   0.01419,  -0.05799,  -0.12215,  -0.01522,  -0.06601,   0.01954,  -0.00452,   0.01954,  -0.01789,  -0.06067,   0.07568,  -0.03661,  -0.02591,   0.07835,  -0.03126,  -0.02324,  -0.00185,  -0.05532,   0.16123,  -0.03661,   0.18796,  -0.01522,   0.04894,   0.06498,   0.02756,   0.08102,   0.01152,   0.00082,  -0.00720,   0.04360,   0.01419,   0.03825,  -0.00720,  -0.01789,   0.01152,   0.03558,  -0.12483,   0.03290,   0.01954,  -0.00185,  -0.01254,   0.03825,   0.09707,  -0.06334,   0.03825,   0.00350,  -0.07671,   0.02488,   0.12380,   0.05162,   0.04360,  -0.00185,  -0.00987,  -0.06869,  -0.05799,  -0.00720,   0.03825,   0.11043,   0.07300,  -0.00720,  -0.05532,   0.05696,   0.00350,   0.03290,  -0.05799,   0.07835,   0.10776,   0.02488,   0.05429,   0.05696,   0.04360,  -0.05265,  -0.07938,   0.04894,   0.05964,   0.03290,  -0.01789,  -0.03661,   0.03023,  -0.04997,  -0.04195,   0.01152,  -0.15156,  -0.02324,   0.06766,  -0.09275,  -0.04730,  -0.08740,   0.07300,  -0.00720,  -0.04730,  -0.01254,   0.00082,   0.04894,   0.04894,  -0.10611,  -0.07938,   0.05964,  -0.09809,  -0.03928,  -0.00720,  -0.18632,   0.00350,   0.08637,   0.11311,  -0.03126,  -0.12215,   0.08102,  -0.02591,  -0.06334,  -0.05799,   0.16123,  -0.10077,  -0.07671,   0.12380,   0.04360,   0.05162,   0.11311,  -0.07403,  -0.08740,   0.03023,   0.03290,   0.03558,  -0.06601,   0.07568,   0.04894,  -0.11948,   0.03290,  -0.03928,   0.04894,  -0.04195,  -0.06067,  -0.18899,   0.08102,   0.11311,   0.14519,   0.05162,   0.08370,  -0.01789,   0.00617,   0.01419
   0.10241,   0.04360,  -0.14889,  -0.03661,  -0.06869,   0.04092,   0.07568,  -0.02056,  -0.05799,   0.07568,  -0.06869,  -0.00720,   0.02756,   0.08102,   0.05696,  -0.04463,  -0.06601,   0.13449,   0.07033,  -0.10611,  -0.09809,  -0.00720,   0.05429,  -0.07403,   0.04092,   0.01686,  -0.09275,  -0.11146,  -0.10879,  -0.07671,   0.00350,  -0.06869,   0.05429,   0.12647,   0.00884,   0.05162,   0.10776,  -0.05265,   0.02221,  -0.02858,  -0.00185,  -0.06869,  -0.10879,  -0.02056,  -0.05265,   0.01419,   0.00082,  -0.21840,  -0.02858,   0.12647,  -0.07938,   0.08102,  -0.01254,  -0.06067,   0.14251,  -0.02056,  -0.07136,  -0.02324,   0.10509,   0.07033,  -0.00452,  -0.07671,  -0.05265,   0.09707,  -0.07136,   0.10241,   0.06766,   0.09439,  -0.00987,  -0.07938,  -0.06869,  -0.01254,   0.03825,   0.03023,   0.01152,   0.13717,  -0.02056,   0.05429,   0.04360,  -0.06869,   0.09707,  -0.05265,   0.02488,  -0.02324,   0.08904,   0.11578,  -0.05799,   0.14519,   0.00350,   0.17994,  -0.01254,  -0.03928,   0.16657,   0.11845,  -0.11146,  -0.08473,  -0.01254,  -0.07403,  -0.00185,   0.07835,  -0.06601,   0.05429,  -0.08473,   0.05964,   0.03558,   0.06766,  -0.01789,   0.01954,   0.00884,  -0.20236,   0.09974,  -0.04730,  -0.10077,   0.00350,  -0.02858,   0.02221,  -0.00185,   0.07300,  -0.06067,   0.05696,  -0.04997,  -0.00185,  -0.01522,  -0.13552,   0.08102,   0.04627,   0.06766,  -0.02858,  -0.10611,   0.00617,   0.15053,   0.00617,   0.03023,  -0.08473,   0.04894,  -0.05532,  -0.04997,  -0.06334,   0.01686,   0.12380,  -0.04463,  -0.09809,  -0.10344,  -0.06334,   0.04894,  -0.06334,   0.11578,   0.03023,   0.14519,   0.10776,  -0.07403,  -0.11948,  -0.07671,  -0.00185,  -0.07671,  -0.05532,  -0.13285,  -0.11948,  -0.05532,   0.01954,   0.06231,   0.04092,  -0.03928,  -0.01789,  -0.19968,   0.13717,   0.08904,  -0.01254,   0.04360,   0.05429,  -0.09275,  -0.09275,  -0.10611,   0.02488,  -0.10344,  -0.09007,  -0.05265,  -0.02056,  -0.10077,   0.00350,   0.06231,  -0.01254,   0.17459,   0.11311,   0.01954,  -0.00452,  -0.07136,   0.03825,   0.10776,   0.11043,   0.09172,  -0.01254,   0.05162,   0.08637,   0.03558,   0.05429,   0.02488,   0.11578,  -0.10344,   0.07568,   0.01419,   0.01954,   0.12113,   0.06766,   0.03290,  -0.11146,  -0.06869,   0.01686,   0.04627,   0.02756,   0.00082,  -0.07671,   0.04627,  -0.04730,  -0.06067,  -0.02591,  -0.01254,  -0.00185,   0.04360,   0.03290,   0.09439,   0.01686,  -0.00987,  -0.12483,   0.04894,  -0.03393,  -0.02324,  -0.10077,   0.01686,  -0.01254,  -0.18632,   0.04092,   0.02221,  -0.05265,  -0.06067,   0.08904,  -0.08205,   0.03825,  -0.05799,   0.14519,  -0.09007,  -0.05532,   0.14519,  -0.01254,  -0.02056,   0.03825,   0.00350,   0.00082,   0.04627,   0.06498,   0.01152,   0.08102,   0.23608,   0.03558,   0.06498,  -0.08473
   0.02488,  -0.03928,  -0.07136,   0.05964,   0.07835,  -0.00987,   0.11043,  -0.06869,  -0.10611,  -0.05532,  -0.06067,   0.00082,   0.01419,   0.13717,  -0.05532,   0.04360,  -0.00185,   0.00617,   0.01954,   0.02221,   0.11043,   0.03023,  -0.07938,   0.04894,  -0.05265,  -0.01254,  -0.04463,  -0.04463,   0.07300,   0.03023,   0.05964,  -0.04463,   0.12915,  -0.10344,  -0.04997,   0.12113,  -0.00452,   0.08370,   0.19331,   0.05964,   0.06498,  -0.08740,   0.07568,   0.07835,   0.06231,   0.10509,  -0.01522,   0.05696,   0.04627,   0.02756,   0.01152,  -0.01789,  -0.12750,  -0.03661,   0.17994,   0.08904,  -0.01789,  -0.00452,  -0.01254,  -0.11146,   0.11578,  -0.07671,   0.03825,  -0.01789,   0.01419,   0.12647,   0.08370,  -0.07136,   0.06231,   0.07568,  -0.01522,  -0.08740,   0.13984,   0.07835,   0.05429,  -0.10344,  -0.12483,   0.01419,  -0.08473,   0.00082,  -0.09542,  -0.00452,  -0.04195,  -0.02858,  -0.12750,  -0.01254,   0.14786,  -0.08740,   0.00350,  -0.08473,  -0.05265,   0.03825,   0.04894,   0.11311,  -0.13017,  -0.07403,   0.09172,   0.07033,  -0.09275,  -0.07671,  -0.06334,  -0.00720,   0.01419,   0.18796,   0.01152,   0.06231,   0.07568,  -0.02324,   0.01954,   0.01954,  -0.07403,   0.06231,  -0.04463,  -0.12750,  -0.01789,   0.05964,   0.07300,   0.04360,   0.09439,  -0.14354,   0.04627,  -0.14889,  -0.01254,   0.08904,  -0.00452,  -0.01254,  -0.03661,  -0.11413,   0.00350,  -0.12215,  -0.02324,  -0.02858,  -0.00720,   0.00082,  -0.00452,   0.08370,  -0.02056,  -0.07938,  -0.03928,   0.15588,  -0.06601,  -0.04463,   0.11578,   0.11845,   0.05162,   0.04360,  -0.02858,  -0.04997,  -0.04463,  -0.07403,   0.03023,   0.01686,  -0.01522,   0.07835,  -0.17830,  -0.06067,  -0.04195,  -0.20770,   0.13449,  -0.04730,  -0.02591,   0.06231,   0.11578,   0.02756,   0.05162,   0.05964,  -0.15156,  -0.04463,   0.01152,   0.16123,  -0.13017,   0.03825,   0.03290,   0.00082,  -0.10611,   0.13717,  -0.04195,  -0.01522,  -0.00720,  -0.23444,   0.05964,   0.01419,  -0.18364,   0.02488,   0.06766,  -0.10611,  -0.03928,   0.01419,   0.00350,   0.05964,   0.15588,  -0.00720,   0.05429,  -0.03928,  -0.17028,  -0.10879,   0.09974,  -0.08473,   0.12647,  -0.12483,  -0.18632,   0.03290,   0.06231,  -0.05265,  -0.05532,  -0.00452,   0.04627,   0.05162,   0.01686,  -0.13285,  -0.05799,   0.03023,   0.14786,   0.20400,   0.10241,   0.00082,  -0.03393,  -0.10344,   0.01954,  -0.02858,  -0.00987,  -0.03126,  -0.05799,  -0.04463,   0.02756,  -0.13017,   0.04627,  -0.00720,   0.01686,  -0.12750,   0.05696,   0.03825,  -0.07938,  -0.11681,   0.07568,   0.04092,   0.03558,   0.03290,  -0.02591,   0.00884,   0.09707,   0.09974,   0.02756,   0.01419,  -0.11413,  -0.00720,  -0.05265,  -0.01254,   0.13717,   0.03558,  -0.06067,  -0.07671,  -0.14889,   0.11311,  -0.07671,  -0.04730
   0.01686,  -0.10611,   0.07300,   0.11578,  -0.03126,  -0.06601,  -0.00720,   0.08904,   0.03825,   0.00617,   0.02756,   0.11311,  -0.00720,   0.01686,  -0.00720,  -0.05799,  -0.11681,   0.01419,   0.12915,  -0.12215,   0.01686,   0.03825,  -0.02056,  -0.01522,   0.09172,  -0.01522,  -0.02591,   0.13449,  -0.07403,   0.13717,  -0.08205,  -0.06334,   0.05162,   0.08370,   0.06231,  -0.06869,   0.04092,   0.05696,   0.02756,   0.05429,  -0.04997,   0.23341,  -0.06067,  -0.06601,   0.11043,   0.01419,   0.04894,  -0.22909,   0.03023,  -0.09542,  -0.06067,   0.11578,  -0.02056,  -0.04463,  -0.04463,  -0.07938,  -0.09542,  -0.04195,  -0.03661,  -0.04195,  -0.03661,  -0.10879,  -0.17562,   0.03825,  -0.11146,  -0.05799,  -0.11948,  -0.02591,  -0.17295,   0.00617,   0.03023,   0.06766,   0.04092,  -0.10879,  -0.04463,  -0.03126,  -0.02056,   0.01152,   0.02221,   0.02221,   0.12113,  -0.16760,   0.03825,  -0.01254,   0.03558,   0.05696,  -0.03393,   0.01152,  -0.11146,   0.12915,  -0.00987,   0.07300,   0.05162,  -0.06067,   0.08102,  -0.01522,  -0.12215,  -0.10879,   0.04627,   0.02488,  -0.04463,   0.01954,  -0.25315,  -0.02858,  -0.09275,  -0.11413,  -0.05532,   0.06766,  -0.00185,  -0.02591,  -0.05799,   0.00617,   0.02488,   0.08370,   0.06231,   0.01419,   0.08637,   0.03558,   0.00082,   0.06231,  -0.07938,   0.00082,   0.00617,   0.08637,  -0.11948,  -0.05265,  -0.02591,   0.04894,   0.07033,  -0.06601,  -0.01254,   0.09172,  -0.04997,   0.03558,   0.14251,  -0.13819,   0.05964,  -0.01522,  -0.01789,  -0.10077,   0.09707,  -0.16493,  -0.03661,  -0.10344,   0.03558,   0.08637,  -0.03928,   0.03023,  -0.04730,   0.03023,   0.02221,  -0.03928,  -0.00452,   0.10509,   0.05964,  -0.10879,  -0.11413,  -0.09275,  -0.03661,  -0.02591,   0.08370,  -0.07671,  -0.00452,   0.10776,  -0.02858,   0.13449,   0.00884,   0.03558,   0.05162,  -0.07938,  -0.07938,  -0.06601,  -0.11146,  -0.00987,  -0.08740,   0.02756,   0.02221,   0.00884,  -0.04730,   0.08904,  -0.07938,   0.00884,   0.04894,  -0.06067,   0.04627,   0.04627,   0.09707,  -0.01254,  -0.06067,  -0.03928,  -0.04997,   0.00884,  -0.00185,   0.00350,  -0.04463,   0.00884,   0.01954,   0.02221,   0.06498,   0.00350,   0.03558,   0.13182,  -0.09809,   0.09974,  -0.02591,   0.05696,  -0.00452,  -0.02858,   0.04627,   0.07033,   0.01954,  -0.10077,   0.15053,   0.11311,   0.01419,   0.17994,   0.06498,   0.07835,   0.06498,  -0.16226,   0.15321,   0.00350,   0.00082,  -0.00987,   0.02221,   0.14251,   0.04360,   0.11311,   0.18796,  -0.00987,  -0.04195,   0.02221,   0.10776,   0.04627,   0.01419,   0.12647,   0.02488,  -0.10077,  -0.08740,  -0.00185,  -0.03393,  -0.11146,  -0.00185,  -0.00452,  -0.05532,  -0.13017,  -0.02858,   0.00884,  -0.03928,   0.04627,  -0.01522,  -0.13552,   0.11845,   0.07033,  -0.10611,   0.00082
   0.06766,  -0.03661,  -0.08205,  -0.00185,  -0.07938,   0.05696,   0.00617,   0.08370,  -0.00452,   0.01686,  -0.08473,   0.01686,   0.03558,  -0.08740,   0.05429,  -0.08473,   0.03558,   0.05964,   0.02488,  -0.06601,  -0.07671,  -0.03661,  -0.05532,  -0.16760,   0.00350,  -0.06067,  -0.09809,   0.05429,   0.07835,   0.00617,  -0.05265,   0.04627,  -0.00452,  -0.10611,   0.07835,  -0.04463,  -0.14354,   0.02756,  -0.00987,  -0.06334,   0.00884,  -0.04997,  -0.12750,  -0.04463,   0.03558,   0.02221,  -0.14354,  -0.22909,   0.01686,  -0.03393,   0.19865,  -0.04195,   0.02756,  -0.02858,   0.19598,   0.13984,  -0.02056,   0.03023,   0.04092,  -0.01254,  -0.07671,  -0.00185,   0.01419,  -0.06601,   0.00082,   0.05696,   0.05429,  -0.03661,   0.03825,   0.08637,   0.03825,   0.00350,  -0.05532,   0.01419,   0.00082,  -0.02324,   0.05964,   0.17994,  -0.04463,   0.06498,  -0.05799,  -0.07403,   0.05964,   0.07835,   0.01152,   0.01954,   0.03825,  -0.11413,   0.04627,  -0.03928,   0.03290,   0.06498,   0.01686,   0.00884,   0.02756,  -0.12750,   0.04627,   0.11043,   0.04092,   0.10241,   0.02221,   0.03290,   0.02488,   0.08370,   0.14251,   0.01954,  -0.15424,   0.00082,  -0.00720,   0.02488,  -0.03126,   0.06498,  -0.16493,   0.04627,  -0.06601,  -0.02591,   0.03023,   0.13449,   0.04360,   0.04092,   0.02221,  -0.07136,   0.03023,   0.02488,   0.09707,   0.00884,   0.03558,  -0.00987,   0.04360,  -0.06067,   0.06498,   0.09439,  -0.02591,   0.12647,  -0.12483,   0.06766,   0.01152,  -0.10879,   0.00350,   0.12380,  -0.03126,  -0.03393,   0.08904,   0.00350,   0.03825,   0.03558,  -0.17562,  -0.11413,   0.00617,  -0.00185,   0.01954,   0.10241,  -0.03393,  -0.13552,  -0.13285,  -0.04730,   0.06498,   0.19331,   0.05964,   0.00350,  -0.00987,  -0.00987,  -0.01522,   0.00884,  -0.00185,  -0.03393,  -0.10077,   0.19598,  -0.02056,   0.06231,  -0.06334,  -0.12215,  -0.13285,   0.08904,  -0.04997,  -0.07671,   0.06231,   0.07568,  -0.00185,  -0.04195,  -0.10344,   0.06498,   0.22004,   0.05964,   0.00082,   0.12647,   0.01954,  -0.00185,  -0.01789,  -0.04195,   0.04092,  -0.14889,   0.14519,   0.06766,  -0.01789,  -0.00720,  -0.07136,  -0.00987,  -0.02324,   0.04092,   0.12113,  -0.03126,   0.03290,  -0.00185,   0.05696,   0.04360,  -0.03393,   0.01152,   0.08904,  -0.06334,  -0.03126,   0.03290,   0.22539,   0.12647,   0.02488,   0.07568,   0.01152,   0.07033,   0.09974,  -0.01254,   0.00350,  -0.04730,   0.02756,  -0.02056,  -0.03928,  -0.09007,   0.00350,   0.10776,   0.01686,  -0.00987,  -0.04463,  -0.01254,   0.01686,   0.03023,  -0.00452,   0.03825,   0.02488,  -0.04997,   0.02488,   0.05429,   0.01152,  -0.00720,   0.01419,  -0.10344,   0.00884,  -0.10611,  -0.03661,   0.02488,  -0.05265,  -0.15156,  -0.05265,   0.05964,   0.00082,  -0.15424,   0.03023,   0.03023
  -0.04997,   0.02221,   0.15588,  -0.01522,   0.05696,   0.00350,   0.04092,   0.04092,   0.06498,  -0.17295,  -0.08740,   0.12380,   0.02488,  -0.01522,  -0.02591,   0.04894,  -0.10344,  -0.12215,  -0.00720,  -0.02591,   0.06498,  -0.00720,   0.10509,   0.09439,   0.00617,  -0.01254,  -0.00987,   0.12915,  -0.02858,  -0.04195,  -0.08205,  -0.03661,  -0.02056,   0.03558,  -0.09007,   0.06766,   0.20133,  -0.07938,   0.06498,   0.06766,   0.01152,   0.08370,  -0.18097,  -0.02056,  -0.02324,  -0.03393,   0.02488,  -0.03126,  -0.05265,  -0.01522,  -0.00987,   0.11043,   0.00350,   0.01152,   0.05162,  -0.06334,  -0.16493,   0.04627,   0.03558,  -0.02056,   0.05162,  -0.14621,   0.08102,   0.00082,   0.09172,   0.20133,   0.00617,   0.02221,  -0.06067,   0.09439,  -0.10077,  -0.05799,   0.02221,  -0.10077,  -0.01789,   0.06766,  -0.01789,   0.03290,  -0.05799,  -0.00452,   0.01954,  -0.12750,  -0.08473,   0.12647,  -0.13285,  -0.02858,   0.07300,  -0.05799,   0.04092,  -0.06601,   0.04092,  -0.03928,   0.10241,   0.00082,  -0.04730,   0.04894,   0.02488,   0.09707,   0.02488,   0.02221,   0.18529,   0.02221,   0.11311,  -0.06601,  -0.02056,   0.01152,  -0.15156,  -0.10344,   0.04894,   0.00617,  -0.01789,   0.00617,  -0.06067,   0.05429,   0.11845,  -0.09007,   0.08904,  -0.18632,   0.09172,   0.06498,   0.01152,   0.07300,  -0.01789,   0.14519,   0.04092,   0.08904,   0.08102,   0.04092,   0.16925,  -0.00987,  -0.02324,   0.01954,   0.10776,   0.05696,  -0.03126,   0.00350,  -0.04730,   0.19063,  -0.08205,  -0.00720,   0.14251,  -0.17028,  -0.06601,  -0.02858,  -0.00185,  -0.07136,  -0.06869,  -0.11146,   0.02221,  -0.04195,   0.02488,  -0.12483,  -0.06334,  -0.04463,   0.01152,   0.00884,  -0.02324,   0.02756,  -0.03661,   0.01419,  -0.06067,   0.03558,   0.15588,  -0.06067,   0.02221,   0.00082,  -0.00720,  -0.00987,  -0.08473,   0.01152,  -0.09542,   0.06498,  -0.09809,  -0.04195,   0.02756,   0.00082,  -0.03393,   0.12113,   0.00617,  -0.03661,   0.01954,   0.01686,  -0.07403,  -0.04997,  -0.18632,   0.03290,  -0.06334,   0.09707,  -0.07136,  -0.05799,   0.11043,   0.00617,   0.01686,  -0.06869,   0.06498,  -0.06601,   0.09707,  -0.04730,   0.06231,  -0.01789,   0.05429,   0.04092,   0.04627,  -0.06067,  -0.05799,  -0.03928,  -0.10077,  -0.03928,   0.12380,   0.01152,   0.13182,   0.01152,  -0.06067,  -0.01254,  -0.06067,   0.00350,  -0.04997,   0.07568,   0.07835,  -0.00452,  -0.00452,   0.03290,  -0.00452,   0.06498,  -0.13552,   0.06766,   0.03023,  -0.08740,   0.00884,  -0.03661,  -0.00452,  -0.08205,  -0.06869,  -0.04997,   0.05696,  -0.01254,  -0.12483,  -0.02056,  -0.01789,   0.12915,  -0.02324,   0.01954,   0.12647,  -0.00452,   0.07300,   0.05429,  -0.01254,   0.09172,   0.07835,  -0.01522,  -0.01522,  -0.11681,  -0.14621,  -0.04463,   0.10776,  -0.03126
  -0.03928,  -0.01522,  -0.00720,   0.01954,  -0.09275,  -0.01522,   0.07033,  -0.02056,  -0.13552,  -0.11948,   0.00350,  -0.02056,   0.10509,  -0.06869,  -0.07403,   0.11845,   0.07835,  -0.03126,  -0.06067,  -0.00987,   0.01419,  -0.01254,   0.07568,   0.08370,   0.02488,   0.09172,   0.06231,   0.08370,   0.02221,  -0.06869,  -0.07403,  -0.11146,  -0.06067,   0.14786,   0.16657,   0.02488,   0.04360,  -0.15958,   0.06231,   0.10776,  -0.08205,   0.07835,   0.01686,  -0.03126,   0.14786,   0.01152,  -0.05265,  -0.07671,  -0.11146,   0.05696,  -0.02056,  -0.07671,   0.00082,   0.06766,   0.07033,  -0.07136,  -0.10077,   0.11043,  -0.08740,  -0.03126,  -0.19701,   0.09172,   0.20667,  -0.09275,  -0.07136,   0.00617,  -0.02591,  -0.07136,  -0.01254,  -0.05799,  -0.06067,   0.04360,  -0.07671,  -0.00720,   0.01686,   0.01419,  -0.06334,  -0.12215,   0.10776,   0.12647,   0.00884,  -0.04195,   0.05162,  -0.07938,  -0.03393,  -0.05265,  -0.05265,  -0.06601,   0.00350,  -0.07403,   0.01686,  -0.06334,  -0.06334,   0.05964,  -0.10611,   0.02756,   0.07300,   0.00350,   0.03290,   0.15053,  -0.03661,  -0.00185,   0.09172,  -0.03661,  -0.03393,  -0.21572,  -0.01254,  -0.09809,   0.11311,   0.18796,  -0.03393,   0.06231,   0.07300,   0.05162,  -0.03126,  -0.09007,  -0.15958,   0.15321,  -0.07403,  -0.06334,   0.15588,  -0.01789,   0.00082,   0.03290,  -0.08473,  -0.00987,  -0.03393,   0.08637,  -0.07938,  -0.02056,  -0.03661,   0.00350,  -0.00452,  -0.12215,  -0.01789,   0.01954,  -0.15691,   0.04627,   0.05696,  -0.19166,   0.01419,   0.05696,  -0.03393,  -0.01789,   0.11311,   0.04627,   0.03290,  -0.06601,  -0.01522,  -0.04997,   0.09172,  -0.09275,  -0.07403,   0.03290,  -0.21305,   0.01419,  -0.01522,  -0.03928,   0.04092,   0.00082,  -0.00185,  -0.06067,   0.00884,   0.03023,  -0.06334,   0.13984,   0.02756,   0.13984,  -0.09275,  -0.02591,   0.01954,   0.12647,  -0.10344,   0.09707,   0.04627,   0.05429,   0.00082,  -0.07671,  -0.07938,   0.13449,   0.16123,  -0.05799,   0.03825,  -0.03661,   0.11043,   0.03023,   0.05696,  -0.00720,   0.01954,   0.02488,  -0.07403,   0.04092,  -0.13017,   0.02488,   0.01152,  -0.02591,  -0.09007,  -0.05265,  -0.14354,  -0.00720,  -0.07938,  -0.06334,  -0.03661,   0.06498,  -0.02858,  -0.04997,  -0.04730,   0.05696,   0.06231,   0.01419,   0.05429,  -0.04195,  -0.03393,   0.00617,   0.16390,   0.12647,   0.02488,   0.11845,  -0.00720,   0.09707,  -0.13017,  -0.01254,  -0.03126,  -0.04195,  -0.07136,  -0.05265,  -0.03928,  -0.01522,   0.05696,  -0.10879,   0.08370,   0.00082,   0.10241,  -0.04463,  -0.09809,  -0.02591,  -0.13819,  -0.08473,   0.08904,   0.10509,  -0.07938,  -0.07938,   0.09974,   0.00350,  -0.04195,  -0.00987,   0.03023,  -0.01522,   0.01419,  -0.10077,  -0.02056,   0.05429,   0.14786,  -0.03661,   0.05429,  -0.07671
   0.03825,   0.00350,   0.13717,  -0.03928,   0.02756,  -0.02591,  -0.09542,  -0.04997,   0.08904,  -0.09275,  -0.03126,   0.03290,  -0.06334,   0.03023,  -0.12215,  -0.00987,  -0.00452,   0.09974,  -0.03661,   0.12380,   0.08904,  -0.06601,  -0.02056,  -0.03393,  -0.02858,   0.04627,   0.17192,  -0.12215,  -0.00452,  -0.07671,  -0.19434,  -0.00987,  -0.05799,  -0.02056,  -0.06334,  -0.04463,   0.00617,  -0.04730,   0.08904,  -0.10879,   0.00617,  -0.07938,   0.00884,  -0.00185,   0.05964,   0.02221,  -0.06334,   0.09707,   0.01954,   0.01152,  -0.10077,  -0.06067,  -0.12483,  -0.03393,   0.01686,   0.04627,  -0.00185,  -0.07938,   0.01419,  -0.04195,   0.03290,   0.03825,   0.05162,   0.02488,   0.00617,   0.01152,   0.00617,   0.09439,  -0.03661,  -0.02324,   0.13449,   0.05964,  -0.08205,  -0.06334,  -0.07136,   0.12380,   0.01419,  -0.21038,   0.04894,  -0.05532,  -0.09275,   0.13182,   0.07835,   0.03558,   0.09439,   0.04360,   0.01686,   0.08370,   0.04627,   0.04894,   0.01686,  -0.08205,  -0.14621,  -0.04997,   0.03558,  -0.03126,   0.03825,  -0.01522,  -0.02858,   0.10509,  -0.10879,  -0.01522,   0.08904,  -0.08205,  -0.02324,  -0.06869,   0.07033,   0.13984,  -0.06869,  -0.05532,   0.08904,   0.01419,  -0.11948,   0.06231,  -0.01789,   0.10509,  -0.03126,  -0.04195,   0.09707,  -0.07403,  -0.07403,   0.03290,   0.09172,  -0.02858,  -0.02056,   0.00617,   0.00082,   0.03558,  -0.05799,  -0.01522,   0.11578,  -0.11413,   0.02221,  -0.00452,  -0.10077,   0.10241,  -0.09007,   0.08904,  -0.12215,  -0.15156,   0.11578,   0.09439,  -0.06067,   0.02488,   0.08102,   0.02488,   0.13182,  -0.04463,   0.04092,   0.00082,   0.05964,  -0.04463,   0.07835,   0.08904,  -0.01254,   0.13449,  -0.00452,   0.10509,  -0.03393,  -0.10879,  -0.03393,  -0.03928,   0.07033,  -0.05265,   0.01152,  -0.00452,   0.11043,  -0.00987,   0.02756,   0.05429,  -0.00185,  -0.01789,  -0.05265,   0.05964,  -0.03393,  -0.00987,  -0.00452,  -0.03126,  -0.04997,  -0.15958,   0.03023,  -0.10344,   0.03558,   0.01152,   0.00082,  -0.06334,   0.07033,   0.02221,   0.02221,   0.00884,   0.16657,   0.00884,  -0.08740,   0.09707,  -0.06601,  -0.02591,   0.02221,  -0.01522,  -0.03928,  -0.10879,   0.05429,   0.07033,   0.15855,   0.07033,  -0.02056,   0.03023,   0.01686,  -0.14889,   0.11578,   0.06766,   0.14519,  -0.03928,  -0.05265,   0.07033,  -0.17295,  -0.01522,  -0.00185,   0.07568,   0.07033,   0.03825,   0.02756,   0.09172,   0.02756,  -0.01254,   0.01954,  -0.04463,   0.03290,   0.12380,   0.00082,   0.10241,   0.08637,  -0.04997,   0.06766,  -0.00987,  -0.11948,  -0.05265,  -0.07938,  -0.08473,  -0.06334,  -0.01254,  -0.05265,   0.04627,   0.00617,  -0.10077,  -0.13285,  -0.03126,  -0.05532,   0.02488,  -0.03661,  -0.06067,   0.11578,  -0.07136,   0.05964,   0.01686,   0.03825,   0.03825
  -0.17830,   0.05964,  -0.07136,   0.01152,   0.12380,   0.16123,   0.02488,   0.07300,   0.04894,   0.03558,   0.09172,  -0.09007,   0.00350,  -0.11948,   0.13449,  -0.07136,   0.02488,  -0.14621,  -0.00987,  -0.17028,  -0.02324,  -0.03928,  -0.02324,   0.07835,   0.00082,   0.01686,  -0.01789,   0.00350,  -0.09809,  -0.00452,   0.01686,  -0.04463,  -0.17830,   0.06498,  -0.07136,  -0.01789,   0.08904,   0.03023,  -0.14087,  -0.05265,   0.05162,   0.02756,  -0.01254,   0.07300,   0.12915,   0.10509,   0.06766,  -0.14354,  -0.04997,   0.05696,   0.07300,   0.08904,   0.02221,   0.01419,   0.04092,   0.01152,   0.09707,  -0.01254,  -0.06869,  -0.04195,   0.05964,   0.04092,   0.07568,  -0.14621,  -0.04997,  -0.05799,  -0.09809,   0.09172,   0.03825,  -0.04730,   0.05696,  -0.06334,   0.05162,  -0.07938,   0.01686,  -0.04195,  -0.01254,   0.01419,  -0.00452,   0.02488,  -0.13819,   0.00617,  -0.04997,   0.19063,   0.02488,   0.18261,  -0.06067,  -0.03661,   0.10509,  -0.01789,  -0.00720,   0.05964,  -0.08205,   0.00617,   0.03558,   0.05429,  -0.04997,  -0.03126,   0.07568,  -0.04463,  -0.03928,   0.07033,  -0.14354,  -0.12215,  -0.00987,  -0.00452,   0.08637,   0.07568,   0.07835,  -0.02591,  -0.03928,   0.00082,  -0.06601,  -0.02858,   0.02756,  -0.03393,  -0.03393,   0.00884,   0.16390,   0.03023,   0.04360,  -0.00987,  -0.03661,  -0.06067,   0.13182,  -0.11948,  -0.14889,  -0.08473,  -0.01522,   0.05162,   0.09974,  -0.11948,   0.12915,  -0.02056,   0.04627,  -0.17562,  -0.00720,   0.20400,   0.00884,  -0.02324,   0.00082,  -0.12750,   0.10509,   0.10241,   0.05964,   0.01686,  -0.08473,  -0.03393,  -0.01522,  -0.05532,   0.06766,  -0.00452,  -0.10879,   0.06766,  -0.04195,   0.05964,  -0.11681,  -0.11146,  -0.02858,  -0.09542,   0.00884,  -0.02858,   0.04894,   0.01152,   0.07300,  -0.18632,   0.00884,   0.11845,   0.05964,   0.02756,   0.09439,  -0.12483,   0.00884,   0.14786,  -0.09275,  -0.04997,  -0.02591,   0.05696,  -0.02056,   0.05696,  -0.01522,   0.01686,  -0.03928,  -0.05265,  -0.06067,   0.09439,  -0.10611,  -0.06601,   0.05964,   0.00617,   0.05429,   0.08102,   0.01152,   0.04092,   0.03023,  -0.00452,   0.00617,  -0.02056,  -0.03393,   0.03290,  -0.17562,  -0.05532,  -0.03393,   0.02488,   0.00350,  -0.08473,  -0.02591,  -0.07136,   0.01419,   0.05964,  -0.07403,   0.01419,  -0.04997,   0.03023,   0.03023,   0.07835,   0.00082,  -0.01522,  -0.07671,   0.01954,   0.05964,  -0.05532,  -0.10879,  -0.08205,  -0.11413,   0.06231,  -0.06334,  -0.03661,   0.08904,   0.10241,  -0.04730,   0.03023,  -0.03126,  -0.00987,   0.01686,   0.00082,   0.08637,   0.03558,   0.02756,  -0.12483,  -0.01789,  -0.02056,  -0.03661,  -0.03126,  -0.06067,  -0.10879,  -0.10611,   0.08102,  -0.01522,   0.14251,   0.12915,   0.02756,  -0.02591,  -0.10344,  -0.18899,   0.05429
