   0.08040,   0.00864,   0.05306,  -0.02553,   0.02231,   0.12482,  -0.04944,  -0.05969,  -0.07678,   0.04281,   0.07698,   0.00523,   0.07698,   0.16582,   0.03598,  -0.00502,   0.08040,   0.19657,  -0.12803,   0.04281,  -0.06994,   0.14873,  -0.08019,   0.06673,   0.07356,   0.05648,   0.01206,   0.08381,  -0.08703,  -0.24762,  -0.05969,   0.03256,  -0.00844,   0.04965,   0.01206,   0.14532,   0.06331,  -0.05286,  -0.05628,   0.03598,  -0.04603,   0.01206,   0.18974,   0.02914,   0.07356,  -0.02211,  -0.01527,   0.04623,   0.01548,  -0.09386,   0.13848,   0.09748,   0.00181,  -0.04603,  -0.00844,   0.21365,  -0.15878,  -0.17587,  -0.03919,   0.09406,   0.13165,  -0.15195,   0.00181,   0.08723,   0.03939,  -0.00844,  -0.05286,  -0.00161,  -0.22029,   0.05990,   0.10431,   0.02914,   0.13848,   0.11115,   0.06331,   0.05306,  -0.00161,   0.01206,   0.14873,  -0.08019,  -0.09728,   0.06673,   0.02231,   0.12140,  -0.02894,  -0.03578,  -0.09728,  -0.09728,  -0.16220,  -0.12803,  -0.04603,  -0.01869,  -0.16903,   0.20340,   0.07015,   0.06673,   0.01548,   0.13507,  -0.07336,  -0.02894,   0.07015,  -0.03236,  -0.06653,   0.07698,   0.14190,  -0.09045,  -0.10753,   0.04965,  -0.10070,   0.14190,  -0.05969,  -0.02211,  -0.08361,   0.06331,  -0.14170,  -0.01527,   0.09406,  -0.10753,  -0.02553,   0.10431,   0.01206,  -0.08703,  -0.04603,   0.01548,   0.08381,   0.11457,  -0.01869,   0.04281
  -0.05628,   0.01206,   0.00864,  -0.06994,   0.00864,   0.02914,  -0.06653,  -0.05969,  -0.01186,   0.07015,  -0.05969,   0.03256,   0.23074,  -0.04261,   0.00181,  -0.06994,   0.01206,   0.08040,  -0.01527,  -0.06653,  -0.10070,   0.11457,  -0.12120,  -0.07336,  -0.05628,   0.03256,   0.14532,   0.07698,  -0.14511,   0.00523,  -0.17928,  -0.06994,  -0.06311,   0.07356,  -0.09045,   0.01548,   0.10431,  -0.12461,   0.13507,   0.03939,   0.00864,   0.05990,   0.13848,  -0.01186,   0.16923,  -0.10411,  -0.04944,   0.13507,   0.04623,  -0.15537,   0.04281,  -0.04944,   0.03256,  -0.15878,  -0.15195,   0.15898,  -0.04603,  -0.05969,  -0.16562,   0.14873,   0.14873,  -0.09045,   0.19999,   0.07356,  -0.01869,   0.09748,   0.01889,   0.01548,  -0.10753,  -0.00502,   0.05306,  -0.08703,   0.08040,  -0.08361,   0.00181,   0.06331,  -0.00502,   0.15215,   0.14873,   0.00523,   0.13165,  -0.04603,  -0.02553,   0.09406,   0.05990,  -0.03578,   0.10090,  -0.12461,   0.08381,  -0.06994,  -0.12120,  -0.02894,  -0.09045,  -0.09045,  -0.03919,   0.14532,  -0.05628,   0.05990,   0.04965,  -0.04603,   0.02914,  -0.02211,  -0.02211,   0.10773,  -0.03578,  -0.15878,  -0.03578,  -0.11095,  -0.06311,   0.22732,  -0.02894,   0.03256,  -0.10070,  -0.10411,  -0.11436,   0.00523,  -0.06311,  -0.07678,  -0.03236,   0.12482,  -0.07678,   0.07015,   0.07698,  -0.09386,   0.00181,   0.00523,   0.09748,  -0.14511
   0.05990,   0.01548,   0.02914,   0.02231,   0.18974,   0.02573,  -0.11778,  -0.08019,  -0.06994,   0.05648,   0.05648,  -0.04944,   0.07698,  -0.05286,  -0.02894,   0.00864,   0.00181,   0.17607,   0.09406,  -0.16220,   0.10431,   0.04623,   0.12140,  -0.11436,  -0.01186,  -0.03578,   0.21365,   0.13848,  -0.12120,   0.02914,  -0.04603,  -0.09386,  -0.17928,  -0.07678,   0.07698,   0.06673,   0.03598,   0.05990,  -0.13486,  -0.01527,  -0.02211,   0.14873,  -0.03578,  -0.02553,   0.03256,  -0.02894,   0.09406,   0.08381,  -0.07336,  -0.02211,   0.14190,  -0.04603,  -0.03578,  -0.04603,  -0.05286,   0.35374,  -0.21345,   0.07015,  -0.13486,   0.02573,   0.21024,   0.05306,  -0.06994,   0.05306,   0.11798,   0.07356,   0.06673,   0.03598,  -0.16562,  -0.08019,   0.12140,   0.03256,   0.05306,  -0.06653,  -0.11436,   0.09065,   0.08381,  -0.03919,   0.03939,   0.11798,   0.05306,   0.03939,  -0.14511,  -0.00161,   0.04965,  -0.07678,   0.09065,  -0.02894,   0.01206,  -0.03236,  -0.00502,  -0.07336,  -0.00844,   0.14532,   0.01889,  -0.09045,  -0.14511,   0.07698,  -0.15195,  -0.15195,   0.03598,   0.04281,  -0.04261,   0.24441,   0.05306,   0.05990,  -0.04944,  -0.16220,  -0.01869,   0.08723,  -0.03578,  -0.12461,  -0.17928,  -0.12120,  -0.11436,   0.04965,  -0.14511,  -0.05969,  -0.17928,   0.03939,  -0.10411,  -0.15878,  -0.00844,  -0.02894,  -0.08361,   0.05306,   0.04281,  -0.10753
   0.16923,   0.11115,   0.01889,   0.08381,  -0.03919,  -0.01869,  -0.24762,   0.09065,  -0.03236,   0.00181,  -0.11436,   0.08381,  -0.03919,   0.05648,  -0.09045,  -0.00844,  -0.13486,   0.05990,  -0.21345,   0.11457,  -0.04944,  -0.02553,  -0.03919,   0.08040,  -0.02211,   0.11457,  -0.00161,  -0.08019,   0.03939,  -0.08019,  -0.00502,   0.03939,   0.00864,   0.09065,  -0.23737,  -0.14853,   0.07356,  -0.00161,  -0.00844,  -0.04261,  -0.08019,   0.00181,   0.06331,  -0.05286,  -0.09728,  -0.00161,   0.03598,  -0.02211,  -0.02211,  -0.02553,   0.09748,   0.03256,   0.04281,  -0.02211,   0.07015,   0.11115,  -0.04261,  -0.06994,   0.19999,   0.01206,   0.02914,   0.08040,  -0.04603,  -0.08703,   0.01548,   0.05306,  -0.08361,   0.01206,   0.07015,   0.04281,   0.22390,  -0.00502,   0.03598,   0.03256,  -0.15878,   0.15898,   0.12482,   0.01206,   0.03939,  -0.08019,   0.07356,  -0.02894,  -0.01186,   0.05306,   0.02914,  -0.14853,  -0.02211,  -0.04603,  -0.04261,   0.07015,   0.00864,   0.08381,   0.03939,   0.13507,  -0.03578,  -0.02553,   0.02231,  -0.05628,  -0.04603,  -0.05969,   0.12140,  -0.04261,  -0.11778,  -0.01869,  -0.01527,   0.03256,  -0.00502,   0.18632,   0.03256,  -0.07678,   0.09748,   0.06331,   0.01206,  -0.00502,  -0.03919,   0.01889,  -0.08019,  -0.04261,  -0.11436,   0.08381,  -0.00502,  -0.06311,   0.00523,  -0.14511,   0.12482,  -0.02553,  -0.02553,  -0.14170
  -0.00161,   0.03939,  -0.08703,  -0.05628,   0.06331,  -0.08361,  -0.02211,  -0.06311,   0.08723,   0.07015,  -0.04603,   0.04965,   0.07356,   0.00864,   0.07698,   0.00523,   0.11457,   0.11115,  -0.06653,  -0.12120,  -0.09045,   0.11457,  -0.05969,   0.10431,  -0.10070,   0.04623,   0.09065,  -0.09386,  -0.08019,  -0.16220,  -0.04603,  -0.03236,   0.05648,   0.09748,  -0.10070,  -0.14853,  -0.04603,  -0.06311,  -0.01527,  -0.16562,  -0.01869,   0.02914,   0.12140,  -0.05286,   0.04623,  -0.08361,   0.00864,  -0.03578,  -0.10753,   0.00523,   0.04281,   0.03256,   0.01548,  -0.13828,  -0.04261,   0.00864,  -0.05628,  -0.03578,  -0.03919,   0.21365,   0.02573,  -0.09728,  -0.05969,  -0.04944,  -0.01869,   0.02231,  -0.01869,  -0.06311,  -0.10070,  -0.04603,   0.17607,  -0.08361,  -0.08703,   0.04965,  -0.12461,   0.00864,  -0.04261,   0.00523,   0.08381,  -0.12461,   0.29566,  -0.03578,  -0.09045,   0.02914,  -0.01869,  -0.02894,   0.02573,   0.13165,   0.05990,   0.12140,  -0.00844,   0.06673,   0.00864,  -0.04261,   0.00181,   0.10773,  -0.04944,  -0.11095,  -0.05969,  -0.10070,   0.00181,  -0.09386,   0.05990,   0.09748,   0.06673,  -0.06653,  -0.01186,   0.01889,   0.05648,   0.06673,  -0.01869,  -0.01527,  -0.07678,  -0.00161,  -0.11778,   0.07698,  -0.08019,  -0.15878,  -0.03919,  -0.12803,  -0.04261,  -0.04944,  -0.06653,  -0.11436,   0.02231,   0.06331,  -0.14511,  -0.18270
  -0.16903,   0.02914,   0.00523,   0.04623,  -0.09045,  -0.15537,   0.07698,   0.15557,   0.08723,   0.18632,   0.08381,  -0.04603,   0.10773,  -0.04944,  -0.02211,  -0.05628,   0.13848,   0.05990,  -0.17587,  -0.20320,  -0.02553,  -0.07336,   0.10773,   0.13848,  -0.13486,  -0.10411,   0.17949,   0.03256,  -0.06653,  -0.16903,  -0.06311,   0.01889,  -0.06311,  -0.07678,  -0.05628,  -0.17928,   0.00181,  -0.04261,  -0.13145,   0.02573,  -0.11778,   0.08381,   0.13848,  -0.01186,   0.11798,  -0.02894,   0.02231,  -0.13486,  -0.06994,   0.07698,   0.06673,   0.03598,   0.00181,  -0.12120,   0.02231,   0.11798,  -0.01869,   0.04965,  -0.08019,   0.02231,   0.04623,  -0.00161,  -0.26470,   0.01889,  -0.02211,   0.07015,   0.02573,  -0.06653,  -0.03578,   0.01206,   0.22049,   0.07356,   0.15215,   0.01206,  -0.06994,  -0.06311,  -0.04603,   0.06331,  -0.11095,  -0.05969,   0.01889,   0.02573,  -0.12120,  -0.04944,   0.02573,   0.02914,   0.01548,   0.05990,   0.01889,   0.13507,   0.01206,  -0.18270,  -0.10411,   0.02573,   0.00864,   0.06673,  -0.02894,   0.00864,  -0.03578,  -0.00502,  -0.03919,  -0.13486,  -0.12461,  -0.00502,  -0.06653,   0.04281,  -0.08703,  -0.10070,  -0.00844,  -0.02894,  -0.10411,  -0.03578,   0.03256,  -0.03236,  -0.03578,   0.02914,  -0.15537,  -0.00161,  -0.14511,   0.12140,  -0.08361,  -0.06994,   0.00181,  -0.02894,  -0.09045,  -0.11778,  -0.07678,  -0.12120
   0.03598,  -0.00161,   0.01889,  -0.09045,   0.04281,  -0.08019,  -0.12803,  -0.13486,  -0.08019,  -0.11436,  -0.00161,   0.09748,   0.09748,   0.11798,  -0.03578,   0.09406,  -0.10753,   0.08723,  -0.19637,   0.02231,  -0.10753,  -0.09045,   0.00181,   0.19999,   0.04965,   0.16923,   0.08723,   0.11115,   0.09748,  -0.09728,   0.04965,   0.05306,  -0.04261,   0.27516,  -0.09045,  -0.02894,  -0.08361,   0.07356,  -0.01527,  -0.02553,  -0.03236,  -0.01527,   0.04281,  -0.01186,  -0.04944,   0.00864,  -0.01186,  -0.07336,  -0.05286,  -0.08703,   0.03598,   0.03256,   0.03939,   0.01548,  -0.08019,  -0.04603,  -0.00844,  -0.24762,   0.11457,   0.13165,   0.07015,   0.06331,  -0.10070,  -0.02894,   0.02231,  -0.05286,  -0.08019,   0.20682,  -0.01186,   0.06673,   0.12823,   0.02231,  -0.21345,   0.04965,  -0.10753,   0.12140,   0.13165,   0.02231,   0.07015,  -0.08361,  -0.07336,  -0.06653,  -0.11095,   0.01206,   0.04623,  -0.08019,   0.00181,   0.02231,  -0.15878,  -0.02553,   0.04965,  -0.00844,  -0.06994,   0.03598,  -0.04944,  -0.07336,   0.04965,  -0.08019,  -0.14170,   0.01206,  -0.09045,  -0.08019,  -0.10411,  -0.09728,   0.07698,   0.14873,  -0.02553,   0.00181,   0.07698,  -0.05969,   0.11115,  -0.09045,   0.11798,   0.07356,  -0.03578,  -0.11778,  -0.05969,   0.01548,  -0.08361,  -0.04603,  -0.04261,  -0.08019,   0.00523,   0.07015,   0.07015,  -0.00502,  -0.24079,  -0.03578
   0.04965,   0.09406,   0.07015,   0.05990,   0.05306,  -0.09728,   0.01889,  -0.11436,   0.08381,  -0.03919,  -0.11778,   0.06673,   0.04965,   0.10090,   0.07356,   0.00864,  -0.06653,   0.10773,  -0.01527,  -0.12803,  -0.09386,  -0.05628,  -0.01186,   0.20682,  -0.10411,   0.12482,  -0.02553,  -0.14170,  -0.00502,   0.03256,  -0.04603,  -0.05969,  -0.08703,   0.22732,   0.00864,  -0.23395,  -0.14853,   0.06673,  -0.04261,  -0.04603,  -0.02894,   0.00181,  -0.04603,  -0.00161,   0.06331,   0.08040,   0.09748,  -0.02553,  -0.05628,  -0.05969,   0.03598,  -0.02553,   0.01548,   0.01206,  -0.03578,  -0.02894,  -0.06311,  -0.25787,   0.08381,   0.03256,   0.00864,  -0.05628,  -0.10753,  -0.03236,   0.04281,  -0.11778,  -0.20320,   0.02231,   0.17607,   0.12140,   0.26832,   0.12482,   0.02231,   0.06673,  -0.01186,   0.08723,  -0.02553,   0.12823,  -0.00161,  -0.13145,   0.03598,   0.02914,  -0.05286,   0.02231,  -0.05286,   0.00523,  -0.04944,   0.01889,   0.12482,   0.11457,   0.09065,   0.21707,   0.03939,  -0.00844,  -0.07336,  -0.07678,  -0.17587,  -0.14170,  -0.01527,  -0.02553,   0.03939,  -0.02211,  -0.10070,   0.01889,   0.06673,   0.16240,  -0.02553,   0.03939,  -0.01186,   0.19657,  -0.11436,   0.02573,  -0.08361,   0.01889,  -0.10411,  -0.08361,  -0.01527,   0.10773,  -0.02894,  -0.02553,   0.00181,  -0.09045,   0.03939,  -0.02894,  -0.06311,   0.08040,  -0.04261,  -0.05286
  -0.00161,   0.00864,   0.08381,   0.05990,  -0.07678,  -0.10070,   0.13507,  -0.06994,   0.21024,  -0.06311,  -0.07336,  -0.00502,  -0.02553,  -0.02211,   0.03939,   0.12823,   0.02914,   0.07015,  -0.13486,   0.07356,  -0.09386,  -0.22029,   0.12823,  -0.02553,  -0.10411,   0.04965,   0.14190,   0.02231,  -0.00161,  -0.00161,   0.00181,   0.06673,   0.01206,   0.14190,   0.03939,  -0.19978,  -0.07678,  -0.00844,  -0.03578,   0.07698,   0.04281,   0.21365,   0.01889,   0.05306,   0.13507,  -0.12803,   0.06331,  -0.04261,   0.02914,   0.00864,   0.01548,   0.01889,   0.01206,  -0.03578,   0.11457,   0.01548,  -0.11436,  -0.10070,  -0.00844,   0.09748,   0.00523,  -0.06994,  -0.09386,  -0.05969,  -0.02211,   0.09065,  -0.14170,  -0.08703,  -0.05628,   0.06673,   0.19999,   0.01889,   0.05990,  -0.05969,   0.07698,   0.09748,  -0.00844,  -0.07678,  -0.05628,  -0.16903,   0.13165,   0.01889,  -0.19637,  -0.14170,   0.08381,   0.08723,   0.07698,   0.08381,  -0.11436,   0.05648,  -0.06311,  -0.07336,  -0.06311,  -0.00844,   0.00864,  -0.02211,  -0.24762,  -0.00502,  -0.21003,   0.10773,   0.03256,  -0.06653,  -0.19295,   0.07015,   0.22732,   0.17949,  -0.03578,  -0.18953,   0.09748,   0.09065,  -0.12803,   0.11115,   0.07356,  -0.06994,   0.11798,  -0.07678,   0.07015,   0.10090,  -0.02894,   0.08381,   0.05990,  -0.00161,   0.03939,   0.23757,   0.00523,  -0.03919,  -0.04603,  -0.09386
   0.07015,  -0.01527,  -0.03236,  -0.06311,   0.08381,  -0.02894,  -0.05969,  -0.08361,   0.07356,   0.07698,   0.12823,   0.13507,   0.05990,  -0.08019,   0.09748,   0.03598,  -0.05969,   0.15557,   0.05990,  -0.06653,   0.02914,  -0.01869,   0.01548,  -0.04603,   0.09406,   0.02573,  -0.04944,  -0.02553,   0.05990,   0.00181,   0.02573,   0.05990,   0.03256,   0.09065,  -0.03919,   0.12482,  -0.00161,   0.02231,   0.05990,  -0.03578,  -0.03578,   0.12823,  -0.14853,   0.01889,   0.04281,   0.02231,   0.07356,   0.00181,  -0.03578,   0.05306,  -0.00161,  -0.04261,   0.04623,   0.00181,   0.04965,   0.04281,   0.03598,  -0.12461,   0.04281,   0.05990,   0.05306,   0.05306,  -0.02211,  -0.00502,  -0.02211,  -0.06311,   0.02573,   0.09065,   0.01889,   0.00864,   0.01548,   0.14190,  -0.08361,  -0.06994,  -0.05969,   0.01548,  -0.05969,  -0.12120,   0.07356,  -0.04944,  -0.06653,   0.02914,   0.01206,   0.05306,  -0.01869,   0.05990,  -0.10753,  -0.09045,  -0.08361,  -0.06311,  -0.06653,  -0.04944,  -0.10411,   0.09065,  -0.09045,   0.08723,   0.00864,  -0.03236,   0.01206,  -0.01186,  -0.03919,  -0.03919,   0.04281,   0.06673,  -0.01869,  -0.11095,   0.09748,   0.04281,  -0.00161,   0.12823,   0.05648,  -0.23054,   0.11457,   0.08040,   0.15898,  -0.02894,  -0.00844,   0.00523,  -0.02211,  -0.09386,  -0.15537,   0.00181,   0.02231,   0.03939,   0.00181,  -0.04261,   0.06673,   0.03939
   0.01548,   0.16582,   0.04965,  -0.06994,  -0.03578,   0.00523,  -0.02894,   0.03256,  -0.06994,  -0.06994,   0.07356,   0.06331,   0.08381,  -0.02894,  -0.06653,   0.10431,  -0.00161,   0.05306,   0.17949,  -0.03919,  -0.03919,   0.10090,  -0.03578,  -0.06311,  -0.06653,  -0.09045,  -0.01869,   0.00864,  -0.04603,  -0.07678,  -0.10411,   0.03939,   0.12482,   0.00864,   0.09748,   0.09406,  -0.01869,  -0.11095,   0.13507,  -0.10070,   0.02914,   0.08381,  -0.10070,  -0.03919,   0.04965,  -0.04261,   0.07015,  -0.13828,   0.04965,  -0.05969,  -0.02553,   0.01206,   0.12140,   0.00523,  -0.04603,  -0.02894,   0.10773,   0.01548,  -0.02553,  -0.00161,  -0.05969,  -0.05286,   0.06673,  -0.01186,  -0.00161,   0.03598,  -0.02894,   0.06673,   0.03598,  -0.07678,   0.02573,   0.03939,  -0.04261,  -0.11436,  -0.00161,  -0.08019,   0.00523,  -0.23054,  -0.05628,  -0.05628,   0.01206,   0.00181,  -0.09386,  -0.02211,   0.11115,   0.10773,  -0.11778,  -0.09386,  -0.05286,   0.08381,   0.02914,  -0.04261,  -0.08703,   0.04281,  -0.09728,   0.08040,   0.09748,  -0.16220,   0.04281,  -0.10411,   0.01548,   0.00181,   0.02231,   0.06673,  -0.06994,  -0.05628,   0.01548,   0.04965,  -0.02211,   0.08040,   0.00523,  -0.13828,   0.03939,   0.00523,  -0.00502,  -0.10411,   0.00864,   0.10773,  -0.00502,   0.00523,  -0.02211,  -0.06653,  -0.02211,   0.10773,   0.07356,   0.05648,   0.04623,   0.04623
  -0.00502,   0.11115,   0.01889,  -0.04261,   0.07698,  -0.10753,   0.00523,  -0.10070,  -0.04261,   0.07698,   0.04281,   0.08381,   0.03939,  -0.12461,   0.02573,   0.10090,  -0.08361,  -0.03578,   0.04623,  -0.04603,   0.16240,   0.01889,   0.10090,  -0.00161,   0.03598,  -0.03236,  -0.01869,  -0.00161,   0.02914,  -0.04261,   0.05990,   0.03939,   0.07015,   0.07698,   0.02573,   0.00523,  -0.01869,  -0.00844,   0.04965,  -0.08703,  -0.08703,  -0.03578,   0.04965,  -0.09728,   0.02231,  -0.00844,   0.14190,  -0.03919,   0.04965,   0.02231,  -0.08703,   0.04965,   0.02231,   0.10773,  -0.05286,   0.10431,   0.07698,  -0.03578,   0.06331,  -0.04603,   0.03598,  -0.03236,   0.05990,   0.05990,   0.01206,  -0.09386,  -0.09386,   0.15898,  -0.00844,  -0.08361,   0.02231,  -0.11436,   0.01548,   0.09748,   0.01206,  -0.01869,   0.00864,  -0.05969,  -0.00844,  -0.01869,  -0.05969,  -0.00161,   0.01206,   0.17265,   0.00864,   0.05990,  -0.00161,  -0.08019,   0.07015,  -0.04261,  -0.16220,  -0.20662,   0.05306,  -0.01186,  -0.03919,   0.02573,   0.20340,  -0.03236,   0.06331,  -0.04261,   0.03939,  -0.03578,   0.05648,   0.00864,   0.02573,  -0.03578,  -0.03578,   0.07015,   0.00864,  -0.06311,   0.07698,  -0.12803,  -0.02894,   0.09406,  -0.13828,  -0.01186,   0.12140,   0.16582,  -0.03578,   0.01548,   0.09748,   0.10090,   0.13507,   0.16923,  -0.07336,   0.00181,   0.02231,  -0.09728
   0.13848,   0.07015,  -0.08703,  -0.06311,   0.01889,   0.01548,   0.00181,  -0.11095,   0.04623,  -0.14853,   0.11115,  -0.01869,  -0.01186,  -0.08361,  -0.06311,  -0.09728,  -0.03578,   0.17265,   0.04965,   0.00523,  -0.04944,   0.15215,   0.01206,  -0.01869,   0.11457,   0.07698,  -0.17928,  -0.16220,  -0.08019,   0.05990,   0.15557,   0.03598,   0.11798,  -0.17928,   0.11457,   0.06673,   0.03256,   0.00523,   0.02914,  -0.03919,  -0.05286,  -0.06994,  -0.02553,   0.04623,  -0.09045,  -0.03236,   0.01889,   0.00181,  -0.04603,   0.06331,  -0.02211,  -0.03578,   0.02573,   0.06331,   0.09748,  -0.04603,   0.00181,   0.04281,   0.02914,   0.16923,   0.04965,   0.14532,   0.11798,   0.03598,  -0.07678,   0.00864,  -0.08703,   0.02231,   0.09406,   0.10431,   0.09748,  -0.03578,  -0.06311,   0.02573,   0.09065,  -0.06994,   0.07698,  -0.11778,  -0.02553,  -0.04603,  -0.01869,  -0.05286,  -0.05628,  -0.13486,  -0.03236,  -0.04944,  -0.08703,  -0.10411,   0.02231,   0.15557,  -0.05286,  -0.00844,  -0.01186,   0.03256,  -0.03919,  -0.00844,  -0.04944,   0.05306,   0.07356,  -0.00844,   0.11115,   0.04281,   0.05306,   0.00864,   0.00864,  -0.07678,   0.08381,   0.03598,  -0.11095,  -0.02211,   0.05648,  -0.09045,   0.08723,   0.03256,   0.09406,  -0.02894,  -0.06311,  -0.13145,   0.18290,  -0.05286,   0.05990,  -0.00844,  -0.22712,  -0.03578,   0.07015,  -0.13145,   0.03939,   0.02914
   0.06331,   0.00523,   0.05648,  -0.03578,  -0.06994,  -0.11778,   0.08381,   0.02231,  -0.11778,  -0.11095,   0.10431,   0.05648,   0.03598,  -0.17928,  -0.08361,  -0.00844,   0.02573,   0.00523,   0.03256,   0.05990,   0.08040,   0.01548,   0.02914,  -0.15195,   0.00523,   0.02914,   0.02573,   0.22732,  -0.08703,  -0.01869,   0.01548,  -0.02894,   0.09406,  -0.03919,  -0.00502,   0.05648,  -0.06653,  -0.02553,   0.04965,  -0.00844,  -0.00502,   0.03256,  -0.03919,   0.01889,  -0.04944,   0.04623,  -0.08361,  -0.15537,  -0.03236,  -0.07336,  -0.00161,  -0.01869,   0.04965,  -0.02894,  -0.04603,  -0.02553,   0.03256,   0.00864,  -0.08361,  -0.03236,   0.04965,   0.07698,  -0.16562,  -0.09728,   0.06331,   0.04281,  -0.08703,   0.02573,   0.25124,  -0.01186,   0.07698,  -0.04261,  -0.10753,  -0.00161,  -0.10411,   0.00181,   0.03598,  -0.09728,  -0.02553,   0.06331,   0.06331,  -0.06994,  -0.05969,  -0.20662,   0.05990,   0.10431,  -0.11095,  -0.10070,  -0.03578,   0.19315,  -0.05286,  -0.03919,  -0.02553,  -0.05286,  -0.12120,  -0.02553,   0.04965,   0.04281,   0.08040,   0.01206,   0.11798,  -0.04261,  -0.01186,  -0.10070,  -0.03236,   0.01206,  -0.00844,   0.06673,  -0.03919,  -0.04603,   0.06331,   0.01889,   0.08723,  -0.03236,   0.09065,  -0.14853,  -0.01186,   0.01206,   0.04623,  -0.02553,   0.04281,  -0.03919,  -0.18953,  -0.13828,  -0.05628,  -0.21345,  -0.03236,  -0.08019
  -0.03236,   0.13165,  -0.06994,  -0.20662,  -0.01527,  -0.10070,   0.12823,   0.14190,  -0.00161,   0.08723,   0.06331,   0.07015,   0.11798,  -0.07336,  -0.00844,  -0.15195,  -0.07678,   0.13165,   0.08723,   0.05990,  -0.02894,  -0.14511,   0.17607,  -0.08019,  -0.06653,  -0.13828,  -0.01869,   0.01889,  -0.06994,   0.00523,   0.14532,  -0.00502,   0.13848,  -0.08703,  -0.05969,   0.03256,  -0.00161,   0.09748,   0.07356,  -0.06653,   0.01548,  -0.03578,   0.14873,  -0.00502,   0.01548,   0.15557,  -0.03919,  -0.14511,  -0.05969,   0.00181,   0.01206,   0.07698,  -0.05286,  -0.09728,  -0.07678,   0.08381,  -0.06311,  -0.03236,  -0.07678,   0.07698,   0.05990,  -0.02553,  -0.02894,  -0.07336,  -0.18612,  -0.11095,  -0.01527,   0.09748,  -0.01527,  -0.10411,  -0.01527,  -0.07678,   0.01548,  -0.01869,  -0.00161,  -0.05969,   0.00523,   0.01548,  -0.14170,  -0.08703,  -0.05628,  -0.00844,  -0.05286,   0.04281,  -0.06994,   0.07698,  -0.08703,  -0.03236,   0.19999,   0.09065,   0.00864,   0.07356,   0.02573,  -0.04603,  -0.01527,   0.08040,   0.09748,   0.07015,   0.10773,   0.07698,   0.16582,  -0.08019,   0.05648,  -0.07336,  -0.07678,  -0.06994,   0.01206,   0.02231,   0.02573,  -0.10411,   0.03256,   0.08723,   0.00864,  -0.06311,  -0.00844,  -0.07336,   0.14873,  -0.04603,   0.08040,   0.07356,   0.00523,   0.05990,  -0.03236,  -0.08019,  -0.13145,  -0.17928,  -0.01186,  -0.04944
   0.12140,   0.00181,  -0.03919,   0.02914,   0.03939,  -0.09728,   0.17607,  -0.00161,  -0.01186,  -0.12461,  -0.05969,   0.05990,  -0.00844,  -0.00161,   0.11115,  -0.07678,  -0.05286,   0.03939,   0.09748,  -0.20320,  -0.02211,   0.12482,   0.02914,  -0.01527,   0.14190,   0.05990,  -0.07336,   0.00864,  -0.01186,  -0.05628,   0.06673,  -0.01186,   0.00864,  -0.09045,   0.00523,   0.13165,  -0.05628,  -0.02894,   0.00864,   0.07356,  -0.08019,   0.04281,  -0.05286,   0.01206,   0.11457,  -0.04261,   0.04623,  -0.06994,  -0.08703,  -0.03236,   0.00181,  -0.20320,   0.04281,   0.05990,   0.01206,   0.02573,   0.03256,   0.04965,   0.03598,  -0.09386,   0.17265,   0.13848,  -0.02211,  -0.08361,  -0.04603,  -0.06311,  -0.04261,   0.10431,   0.00864,   0.05990,   0.14873,  -0.06994,   0.00181,   0.01548,   0.01889,   0.07356,   0.16582,  -0.11436,   0.03256,  -0.01869,  -0.19978,   0.02231,   0.04623,  -0.13145,  -0.06653,   0.03939,  -0.14170,  -0.06994,   0.12482,   0.03256,  -0.09045,  -0.00502,   0.03598,   0.01206,  -0.06653,   0.01548,  -0.02894,   0.01548,   0.13848,   0.07356,  -0.00844,   0.04623,   0.08040,   0.08381,   0.01548,  -0.03236,  -0.10411,  -0.05286,   0.00181,  -0.01527,   0.03939,   0.02573,   0.04281,   0.02914,   0.15215,  -0.01527,   0.04281,  -0.03236,   0.00181,   0.08381,  -0.06653,  -0.07678,  -0.12461,  -0.00844,  -0.00844,  -0.11436,   0.05990,   0.06331
   0.07356,   0.04623,  -0.00161,   0.05648,  -0.05969,  -0.05969,   0.18974,  -0.03578,  -0.04603,  -0.12803,  -0.08361,   0.03939,   0.01206,  -0.08361,   0.15215,  -0.06994,   0.05990,   0.10773,  -0.08703,   0.00181,   0.08040,   0.06331,  -0.07336,  -0.04603,   0.08723,  -0.00844,  -0.02553,   0.04965,  -0.02894,  -0.00844,   0.07356,  -0.04944,   0.06673,  -0.12120,  -0.03236,   0.19315,  -0.04261,  -0.06653,   0.08381,  -0.03919,  -0.11095,   0.15557,   0.06673,  -0.17245,   0.01548,   0.07015,   0.04965,  -0.23395,   0.05990,   0.00864,   0.04623,   0.06673,   0.00864,  -0.03578,   0.07015,   0.12482,  -0.03578,   0.10090,  -0.09045,  -0.08703,   0.03598,  -0.05286,  -0.03236,   0.09406,  -0.01869,   0.09748,   0.09748,   0.05306,  -0.02211,  -0.01869,   0.03598,  -0.03578,  -0.01186,   0.04965,  -0.01186,  -0.02211,   0.08040,  -0.00161,  -0.14511,   0.01548,  -0.06994,  -0.04944,   0.08040,  -0.22029,  -0.12120,   0.10431,  -0.06311,  -0.07678,   0.00864,   0.12823,   0.06331,   0.04281,  -0.01186,   0.07015,   0.00864,   0.12823,  -0.00161,   0.01206,  -0.05286,  -0.02894,   0.13848,   0.00864,   0.10773,   0.01206,  -0.05628,  -0.03919,  -0.08361,   0.08040,   0.03256,  -0.15195,   0.03939,   0.04281,  -0.02211,  -0.09386,   0.03939,  -0.06994,   0.01206,   0.04281,   0.05990,  -0.05286,  -0.14511,   0.00181,  -0.09386,  -0.09045,   0.00181,  -0.12803,  -0.00844,   0.02573
   0.02914,  -0.01186,  -0.06311,  -0.00161,   0.05990,  -0.05286,   0.08723,  -0.05286,  -0.01186,  -0.11436,   0.02914,   0.01548,   0.14532,  -0.12803,   0.18290,  -0.14511,   0.03598,  -0.05286,   0.01206,  -0.17928,  -0.12461,  -0.10753,   0.02231,  -0.08703,   0.10090,   0.00523,   0.04623,   0.03939,  -0.18612,  -0.03236,   0.02231,  -0.03578,   0.13165,   0.06673,   0.07698,   0.11115,  -0.00161,  -0.04261,  -0.04603,   0.01548,   0.02573,   0.02231,   0.03256,  -0.18270,  -0.01869,  -0.02553,   0.05990,  -0.16220,  -0.03919,  -0.00161,  -0.02553,  -0.01186,  -0.03578,   0.03256,   0.00864,   0.00864,  -0.08361,  -0.06311,  -0.01527,  -0.12120,   0.14190,   0.12140,  -0.15195,   0.10090,  -0.04603,   0.02914,   0.03256,  -0.00502,  -0.15195,   0.05648,   0.05648,  -0.01869,  -0.00844,   0.04281,   0.11798,  -0.06994,   0.02573,   0.17265,   0.00181,  -0.10411,  -0.08361,   0.06673,   0.11115,  -0.03919,  -0.12803,   0.13165,  -0.02894,   0.04623,   0.08723,   0.09748,   0.02231,  -0.00502,   0.05306,  -0.09045,  -0.03236,   0.08381,   0.17265,  -0.01527,   0.05990,   0.04623,   0.04623,  -0.01527,   0.06673,   0.03256,  -0.11095,  -0.13828,  -0.06994,   0.07356,   0.07356,   0.01548,  -0.04261,   0.05306,   0.11798,  -0.02894,   0.01889,   0.16582,   0.10773,  -0.06994,  -0.02211,   0.01548,  -0.01869,  -0.01527,  -0.09728,  -0.15195,  -0.14170,  -0.10753,  -0.03578,  -0.04944
  -0.10753,   0.06331,  -0.01527,  -0.23395,   0.09748,   0.00181,  -0.11436,  -0.13828,   0.06331,  -0.06653,  -0.01527,   0.00523,  -0.14170,   0.02573,   0.01889,   0.27174,   0.12823,  -0.11436,   0.03939,  -0.04603,  -0.04603,  -0.03578,   0.03598,   0.01889,   0.02914,   0.14190,  -0.01186,  -0.07678,   0.06673,   0.00181,  -0.00844,  -0.00844,   0.01206,   0.21707,  -0.02894,   0.03256,  -0.13486,  -0.05628,   0.02231,  -0.01186,  -0.06311,   0.04281,   0.11798,  -0.33304,  -0.02894,  -0.18612,  -0.06653,   0.07356,   0.14873,  -0.11778,   0.10431,   0.01889,   0.13165,  -0.07678,  -0.04261,   0.00181,   0.03256,   0.05648,  -0.02211,  -0.08703,   0.08040,  -0.10411,  -0.01869,   0.03939,  -0.01869,  -0.03919,   0.03598,  -0.00161,  -0.00502,   0.03939,  -0.05286,  -0.11095,   0.00181,   0.12140,  -0.06653,  -0.05286,   0.02231,   0.09748,   0.07698,  -0.04261,  -0.04944,  -0.14170,  -0.01527,  -0.04944,   0.06673,  -0.09728,   0.08381,  -0.02211,  -0.03236,   0.12140,  -0.05286,   0.04965,  -0.08019,   0.03256,  -0.12120,  -0.22370,  -0.16562,  -0.04944,   0.13165,  -0.03236,   0.01206,   0.05648,  -0.13486,  -0.06994,  -0.01186,   0.12482,  -0.07678,   0.01889,  -0.02894,  -0.10411,  -0.01186,   0.05648,  -0.16562,  -0.04261,   0.02573,  -0.07336,   0.04965,  -0.07678,  -0.15537,  -0.02211,  -0.03578,  -0.05628,  -0.00502,   0.06673,   0.00181,   0.04281,   0.12482,   0.01548
  -0.03919,  -0.05628,   0.17607,  -0.11095,   0.01206,  -0.09386,   0.06673,   0.06331,   0.00864,  -0.03919,   0.01889,   0.02231,  -0.04261,   0.10090,   0.12482,   0.10090,   0.07356,   0.01889,   0.05306,  -0.01527,   0.05648,  -0.04944,   0.22390,   0.03598,  -0.04261,  -0.05969,  -0.05286,  -0.06994,   0.04965,   0.02914,  -0.14853,  -0.02894,  -0.00844,  -0.00844,   0.02573,  -0.02553,  -0.11436,   0.04281,   0.11798,   0.01548,   0.09406,   0.05306,  -0.03578,  -0.26129,   0.02231,  -0.03236,   0.02231,  -0.09045,   0.14532,   0.08381,  -0.02211,   0.00523,   0.05306,   0.13848,  -0.17245,  -0.06653,  -0.03578,  -0.09728,  -0.11095,  -0.02211,   0.12482,  -0.02211,   0.00181,   0.25466,  -0.13145,  -0.00502,   0.06331,   0.04965,  -0.12461,  -0.05969,  -0.14853,  -0.03236,   0.01889,   0.02914,  -0.04944,  -0.00161,   0.02914,   0.15557,  -0.09045,   0.03598,  -0.05628,   0.10773,   0.11798,   0.08381,   0.01206,   0.00181,   0.01889,  -0.07336,  -0.06994,  -0.11778,   0.06331,   0.08040,  -0.09728,   0.00181,   0.04965,  -0.04261,   0.00523,  -0.07678,   0.11798,   0.10090,  -0.01869,  -0.04944,  -0.03236,  -0.03578,   0.01548,   0.08723,  -0.21345,   0.02573,  -0.04944,  -0.12803,  -0.09045,   0.09406,  -0.06653,  -0.14170,  -0.01527,  -0.09386,  -0.00844,   0.13165,  -0.11436,   0.05306,  -0.02894,  -0.15195,   0.03939,  -0.02211,  -0.17587,  -0.00502,   0.09748,  -0.02553
  -0.08019,   0.07356,  -0.02894,   0.01206,  -0.07678,  -0.04944,   0.01548,   0.02231,   0.02231,  -0.02894,  -0.08703,  -0.03919,   0.07015,   0.04281,   0.01548,   0.19657,   0.21024,  -0.05628,   0.06331,  -0.03578,  -0.11095,  -0.02553,   0.07356,   0.34008,  -0.12461,  -0.06653,   0.04965,  -0.06653,   0.25807,  -0.04603,  -0.12120,   0.05990,  -0.05628,   0.02573,   0.12482,   0.15557,  -0.12803,  -0.02894,   0.06673,   0.06673,  -0.04261,  -0.01186,   0.19315,  -0.15195,   0.03598,  -0.11778,  -0.17587,   0.16923,   0.11115,   0.09748,   0.00864,  -0.00502,  -0.05969,   0.13507,   0.01889,  -0.15878,   0.09406,   0.01889,   0.09065,   0.18290,   0.23757,   0.03939,  -0.02553,   0.09065,  -0.16220,  -0.06994,   0.18632,  -0.02894,  -0.16903,  -0.13486,  -0.17928,  -0.01869,   0.14873,  -0.01186,  -0.00844,  -0.00161,  -0.04944,  -0.02553,   0.05648,  -0.19637,  -0.03236,   0.13507,   0.01206,   0.11798,  -0.17587,  -0.23395,  -0.10411,  -0.09386,   0.02914,   0.09065,   0.00181,  -0.06994,  -0.27495,  -0.05969,   0.14532,  -0.04944,   0.02573,  -0.05286,  -0.00502,  -0.05628,   0.20682,   0.00864,  -0.01869,  -0.05628,  -0.05286,  -0.08703,  -0.02894,  -0.07678,  -0.14853,  -0.16562,  -0.07678,   0.05990,  -0.03919,   0.03598,  -0.02894,  -0.11436,  -0.04603,  -0.01869,   0.03939,  -0.14511,   0.07698,   0.02914,   0.02231,   0.04281,  -0.04603,   0.04281,  -0.04944,   0.02573
  -0.10753,   0.10431,  -0.02894,  -0.02211,  -0.01527,   0.10773,  -0.05286,  -0.03236,  -0.04944,  -0.07678,   0.02573,   0.14190,  -0.01527,  -0.13145,   0.06673,   0.10431,  -0.00502,  -0.03236,   0.09406,   0.01206,  -0.06653,  -0.10070,   0.08040,  -0.16562,  -0.21345,   0.15898,  -0.07678,  -0.03236,  -0.03578,  -0.14170,  -0.08019,  -0.09045,  -0.03236,   0.13848,  -0.07336,  -0.05286,  -0.14511,   0.04281,   0.13848,   0.01889,  -0.16220,  -0.02553,   0.00864,  -0.03919,   0.04281,  -0.13145,  -0.03919,   0.12482,   0.18290,   0.01548,   0.08381,  -0.08019,  -0.06653,   0.09406,  -0.01186,   0.00523,  -0.02553,  -0.02553,  -0.03236,  -0.12803,   0.04965,  -0.00161,  -0.05969,   0.02573,   0.01206,  -0.00844,  -0.03236,   0.02573,   0.00181,  -0.04603,   0.03256,  -0.13828,   0.00864,   0.08723,  -0.10411,   0.11115,   0.01889,   0.03939,   0.10431,  -0.08019,   0.03939,  -0.04944,  -0.00502,  -0.06653,  -0.11436,   0.02231,   0.10090,  -0.00161,  -0.06653,   0.16923,   0.03598,  -0.03578,   0.03256,  -0.05286,   0.06331,  -0.00844,   0.02914,   0.02231,   0.06331,   0.09748,   0.00864,   0.08381,  -0.03919,  -0.09045,   0.08723,   0.27516,  -0.05286,   0.02231,  -0.02211,  -0.18953,  -0.00844,   0.01206,   0.09065,   0.03598,   0.09406,   0.01889,   0.07698,   0.04965,  -0.03236,  -0.01527,  -0.00161,  -0.12120,  -0.05969,   0.10431,   0.03598,   0.04965,   0.00523,  -0.08703
  -0.11778,  -0.06994,  -0.07336,  -0.03578,  -0.07678,   0.04623,  -0.04603,  -0.13828,   0.02573,   0.08040,  -0.16220,   0.02573,  -0.04261,  -0.05628,   0.18974,   0.00864,   0.02914,  -0.05628,   0.08381,  -0.07678,  -0.16562,   0.12482,   0.26149,  -0.09045,  -0.13145,   0.09748,  -0.01186,  -0.17245,  -0.02894,   0.09406,  -0.17245,   0.07356,   0.14190,  -0.00844,  -0.03919,   0.22390,  -0.01527,  -0.06653,   0.00181,   0.01548,  -0.09045,   0.04623,  -0.01869,  -0.04944,   0.00523,  -0.10070,  -0.17928,  -0.11095,   0.09065,   0.14190,  -0.00502,  -0.12803,  -0.02894,  -0.03236,   0.12823,  -0.09728,   0.00523,  -0.13486,  -0.01527,  -0.15878,   0.24099,  -0.05286,   0.02231,  -0.03919,  -0.11778,  -0.11778,   0.10431,  -0.00161,  -0.12803,  -0.14511,   0.01206,  -0.05286,   0.33324,  -0.09045,   0.09748,   0.01548,   0.08723,   0.01206,   0.15898,  -0.14170,  -0.03919,   0.17607,   0.10431,   0.06673,  -0.06994,  -0.03236,  -0.14170,   0.12140,   0.00523,  -0.03236,   0.01206,   0.02573,  -0.13145,   0.01548,  -0.06653,   0.07356,   0.15215,  -0.08361,  -0.03919,   0.09065,  -0.01186,   0.14190,  -0.14853,  -0.22712,   0.10773,   0.13165,  -0.01527,   0.07015,   0.00181,  -0.10070,  -0.05628,   0.09065,   0.02231,  -0.00502,   0.12140,   0.03256,  -0.05628,  -0.00844,   0.01889,  -0.10753,  -0.14170,  -0.00844,   0.03939,   0.03939,  -0.03919,   0.17265,   0.12482,  -0.06994
   0.02231,  -0.06653,  -0.13145,  -0.07336,  -0.04261,  -0.06653,  -0.17245,  -0.06653,  -0.03578,  -0.05628,   0.03939,   0.02914,  -0.05286,   0.04965,   0.04965,   0.09406,   0.05306,  -0.15537,   0.00523,   0.02914,  -0.15195,  -0.06994,   0.03598,   0.24441,  -0.15878,   0.00181,  -0.01527,  -0.04944,  -0.11436,  -0.01527,   0.07698,   0.15898,   0.15898,   0.04623,  -0.09728,   0.17949,  -0.19978,   0.10090,   0.10431,   0.03256,   0.11457,  -0.17587,   0.06673,  -0.11095,   0.02231,  -0.12461,  -0.06311,  -0.05628,   0.06331,   0.03598,   0.06673,  -0.05969,   0.01206,   0.01548,   0.01548,  -0.17245,   0.21365,  -0.24762,   0.04623,  -0.14853,   0.16240,  -0.01186,  -0.06653,   0.03256,  -0.35696,   0.03598,  -0.04261,   0.12823,  -0.24420,  -0.26129,  -0.12120,  -0.11778,   0.16240,   0.05306,  -0.02553,  -0.14170,  -0.01527,  -0.03236,   0.01889,  -0.12461,  -0.08703,   0.22390,   0.06673,   0.07698,  -0.04944,  -0.21003,  -0.08361,   0.07356,   0.07698,  -0.05628,  -0.02211,  -0.07678,   0.02231,  -0.14170,   0.18290,  -0.01186,   0.03939,  -0.07336,  -0.19637,   0.06331,   0.06673,   0.12140,   0.00181,  -0.11095,  -0.06311,   0.09406,  -0.01869,   0.01206,   0.00523,  -0.06653,  -0.16220,   0.14532,  -0.01527,   0.11115,   0.18290,  -0.05969,  -0.01186,  -0.01527,   0.09065,  -0.21003,  -0.01186,  -0.09386,  -0.13145,  -0.01527,   0.04281,   0.13165,  -0.08019,  -0.03236
  -0.05628,   0.02573,  -0.04261,   0.01206,  -0.08703,  -0.10411,  -0.07336,  -0.05969,   0.02573,   0.03939,  -0.13145,   0.02914,  -0.16562,   0.10773,   0.04623,   0.11457,   0.10773,  -0.06994,   0.17607,   0.11457,  -0.04261,  -0.02211,   0.06673,  -0.01527,  -0.12803,   0.16582,   0.12482,   0.04965,  -0.11436,   0.11115,   0.01889,  -0.01186,  -0.03236,   0.00864,   0.01206,  -0.03919,   0.00864,   0.05990,   0.00523,  -0.04944,   0.05306,   0.00864,  -0.09045,  -0.16220,  -0.10070,  -0.17245,  -0.15537,   0.11115,   0.01206,  -0.04944,   0.13848,   0.08723,   0.02231,   0.06331,  -0.00161,  -0.13828,   0.01206,  -0.03236,  -0.04603,  -0.06311,   0.05648,  -0.05628,  -0.11095,  -0.09728,  -0.00161,  -0.15537,   0.09065,   0.15898,  -0.20662,   0.00864,   0.07356,   0.08381,   0.10431,   0.04281,  -0.09728,   0.14532,  -0.02211,   0.03939,   0.06673,  -0.05969,  -0.02211,   0.15898,   0.14190,   0.17265,  -0.01869,   0.10090,  -0.02211,   0.13165,   0.00864,  -0.09045,   0.05306,  -0.02553,   0.00864,   0.02914,   0.03939,  -0.09045,  -0.16220,   0.04965,  -0.06653,  -0.01186,   0.09065,   0.04623,   0.08723,  -0.06994,   0.07015,   0.10090,  -0.05286,   0.01548,   0.05648,  -0.21687,   0.13507,  -0.00844,   0.02573,   0.02914,  -0.06311,  -0.09386,  -0.00844,  -0.02553,  -0.05628,  -0.19295,   0.00523,  -0.10411,  -0.01869,   0.13848,  -0.00502,   0.16582,   0.03598,  -0.16220
  -0.06311,  -0.00502,   0.06673,   0.04965,  -0.10070,  -0.13145,  -0.07678,  -0.01527,   0.16923,   0.15898,  -0.12461,   0.05306,  -0.08019,  -0.04261,   0.03256,   0.17949,  -0.12461,  -0.16903,   0.22390,  -0.05628,   0.02914,  -0.02894,   0.16240,   0.02231,  -0.04261,   0.06331,   0.16582,  -0.15878,  -0.14853,   0.11798,   0.00523,   0.06331,   0.00181,  -0.01527,   0.06331,   0.02231,   0.03598,   0.00523,  -0.00844,   0.04281,   0.08040,  -0.07336,  -0.14511,  -0.17587,  -0.00502,  -0.18612,  -0.10411,  -0.14170,   0.05648,   0.10773,   0.11457,  -0.10411,  -0.05628,   0.02914,   0.11798,  -0.05628,   0.05648,  -0.01186,  -0.02211,  -0.25104,   0.13507,  -0.24420,  -0.00844,  -0.03236,  -0.05286,  -0.21345,  -0.04261,   0.10773,  -0.16903,  -0.19978,  -0.05969,  -0.05628,   0.17949,  -0.13145,  -0.08703,  -0.00844,   0.03939,  -0.01527,  -0.17587,  -0.13828,  -0.01186,   0.13507,   0.17949,   0.16582,  -0.10753,  -0.04944,  -0.02553,   0.03598,   0.05990,  -0.18612,  -0.14511,   0.07356,  -0.06653,  -0.12461,  -0.13828,   0.07015,  -0.04603,   0.07698,  -0.25787,  -0.04261,  -0.00844,   0.14873,  -0.10753,   0.00864,   0.00864,   0.04623,  -0.02211,   0.03939,  -0.03919,   0.00523,  -0.03578,  -0.18270,  -0.03236,  -0.05969,  -0.12120,   0.07698,  -0.04603,   0.00523,  -0.13145,  -0.12461,   0.19315,   0.01548,   0.01889,   0.01889,   0.07356,   0.22732,   0.03598,  -0.03919
   0.10773,   0.05648,  -0.03919,  -0.00844,   0.01548,  -0.11778,  -0.08703,   0.02573,   0.04965,  -0.06311,  -0.00502,   0.01548,  -0.06653,  -0.09045,   0.05990,  -0.10753,   0.04965,  -0.11436,   0.05306,   0.00523,  -0.06311,  -0.10753,  -0.00161,   0.18632,  -0.15537,  -0.16220,   0.12140,  -0.05286,   0.02231,  -0.08361,   0.03598,   0.08381,   0.08040,   0.05990,   0.12823,  -0.15537,  -0.00161,  -0.05969,  -0.13486,   0.05990,  -0.09386,  -0.10411,   0.04965,   0.06673,   0.12823,   0.08723,  -0.04944,  -0.12461,  -0.01869,  -0.02211,  -0.04261,  -0.00161,  -0.04603,   0.05990,  -0.00844,   0.09748,   0.17949,  -0.10070,   0.01548,  -0.14511,  -0.02211,  -0.05628,   0.07015,  -0.05969,   0.01206,   0.13507,  -0.08019,   0.02231,  -0.14853,   0.06673,  -0.06653,  -0.10411,   0.17265,  -0.12461,  -0.03236,  -0.04261,   0.04623,  -0.08019,   0.01206,  -0.07678,  -0.00161,   0.12823,   0.17265,   0.08040,  -0.04944,  -0.01186,  -0.06311,   0.13848,   0.01206,   0.08040,  -0.00844,  -0.04261,   0.05990,  -0.13828,   0.22732,   0.00523,  -0.00161,   0.16240,  -0.02894,   0.06331,   0.16923,   0.02914,  -0.32621,  -0.19637,   0.06673,   0.09065,   0.03598,   0.10090,  -0.13486,   0.12823,  -0.05969,  -0.03578,  -0.07678,   0.19999,   0.04281,   0.11115,   0.05990,   0.08723,  -0.13486,  -0.04944,   0.14873,   0.08040,  -0.04603,  -0.05969,   0.00864,   0.10090,  -0.06653,  -0.06994
   0.00864,   0.30933,  -0.04944,  -0.14170,   0.04965,  -0.01186,   0.11115,  -0.01869,  -0.09728,   0.06331,  -0.02553,  -0.02553,   0.02914,  -0.03236,   0.12140,  -0.06994,  -0.06653,   0.13848,  -0.06994,  -0.06653,  -0.23737,  -0.06653,  -0.11436,   0.11457,  -0.14511,  -0.12803,  -0.06653,  -0.19295,   0.18290,  -0.12461,   0.00523,  -0.05969,  -0.04944,   0.05648,   0.08040,   0.07698,   0.25466,  -0.06653,  -0.06653,   0.02231,  -0.10411,   0.10773,   0.15215,  -0.03236,   0.13848,  -0.06311,   0.09748,   0.16582,  -0.08361,  -0.00844,   0.24782,  -0.06311,   0.09065,  -0.03578,  -0.04944,  -0.02211,   0.15898,  -0.04944,   0.07698,  -0.11436,  -0.08361,   0.05648,   0.13165,   0.11115,  -0.02894,   0.03939,  -0.19637,  -0.03919,  -0.05969,  -0.07678,  -0.00161,   0.11115,   0.16240,   0.09748,  -0.21345,   0.00864,   0.16240,   0.05306,   0.12482,  -0.02553,  -0.08361,   0.09406,   0.11115,   0.03256,  -0.19637,  -0.22712,   0.02231,  -0.08019,  -0.01186,  -0.16562,  -0.15878,   0.01889,  -0.01869,   0.08381,   0.08040,   0.05306,  -0.06311,  -0.07336,   0.06331,  -0.07678,   0.13165,  -0.08019,   0.10090,  -0.00502,   0.01548,   0.01548,  -0.08703,  -0.09728,  -0.06311,   0.12482,  -0.07336,   0.25466,  -0.01527,  -0.05969,  -0.03919,  -0.01869,  -0.05286,  -0.00502,   0.18290,   0.04623,  -0.01527,   0.08381,   0.00864,  -0.00161,   0.17607,   0.19657,  -0.01869,   0.03939
   0.09406,   0.18632,   0.00864,   0.10431,   0.03256,   0.08040,   0.01889,  -0.08019,  -0.04261,   0.00523,   0.17949,   0.23416,   0.02914,   0.03939,   0.10090,   0.03256,  -0.10753,   0.05306,  -0.05628,  -0.07336,  -0.02894,   0.00181,   0.02914,   0.09065,   0.03256,  -0.01527,   0.11457,  -0.08703,   0.15215,  -0.11095,  -0.07336,   0.01206,  -0.07336,   0.00181,   0.25466,   0.06673,   0.02914,  -0.06653,   0.04281,   0.02573,  -0.07678,   0.13507,   0.03598,  -0.02894,  -0.03578,   0.24441,   0.05648,   0.03256,   0.09748,  -0.00844,   0.06331,  -0.00844,   0.15215,   0.12140,  -0.01527,  -0.04944,  -0.07678,  -0.16903,   0.10773,   0.03256,   0.04281,   0.01548,   0.03939,   0.03939,   0.03256,   0.05648,   0.01206,   0.00181,   0.07015,   0.12482,  -0.04603,   0.09406,   0.03939,   0.18632,  -0.04603,  -0.06994,   0.03256,   0.07015,  -0.10070,   0.16240,   0.03256,  -0.04261,  -0.15195,   0.01206,  -0.11095,  -0.22029,  -0.10070,   0.01889,  -0.12120,   0.00864,  -0.15878,  -0.02211,  -0.00844,   0.16240,   0.11457,   0.06673,  -0.01527,  -0.02894,  -0.08361,  -0.14511,   0.09406,  -0.08361,  -0.00844,   0.08381,   0.08723,   0.00181,  -0.03236,  -0.01186,   0.07015,   0.07698,   0.04965,   0.10090,  -0.12461,  -0.03578,   0.00864,  -0.01186,   0.05306,   0.09065,  -0.19637,  -0.03236,   0.07698,  -0.01869,  -0.06311,  -0.10411,   0.03939,   0.02573,  -0.07678,   0.13165
   0.18974,   0.06331,   0.07356,   0.10090,  -0.10753,   0.14190,  -0.06653,  -0.06311,  -0.03236,   0.00181,   0.03598,   0.10431,   0.06331,   0.18974,   0.14873,  -0.04261,  -0.09386,   0.01206,  -0.05969,  -0.19637,  -0.17587,  -0.06994,  -0.09045,   0.11115,  -0.08361,  -0.02553,   0.03256,   0.00523,  -0.18270,  -0.15537,  -0.06311,  -0.07678,  -0.15878,   0.02573,   0.10431,  -0.01527,   0.01206,  -0.16562,   0.12140,   0.02231,   0.02914,  -0.02553,  -0.03578,  -0.00502,   0.02231,  -0.12120,   0.24441,   0.11457,   0.04623,   0.16923,  -0.01527,  -0.11095,   0.10773,   0.00181,  -0.05628,  -0.09728,  -0.05969,  -0.17587,  -0.16903,   0.02914,  -0.08019,  -0.04261,  -0.09386,   0.05306,  -0.02894,  -0.11095,   0.00864,  -0.07678,  -0.05628,   0.00864,  -0.14511,  -0.04261,  -0.13828,   0.07356,   0.11457,   0.12140,  -0.05628,  -0.04261,  -0.02894,   0.07015,  -0.12461,  -0.10753,   0.07698,   0.04965,  -0.07678,  -0.06994,   0.07698,  -0.03578,   0.14532,  -0.12120,  -0.09045,   0.02573,  -0.07678,   0.06331,  -0.00161,  -0.00161,   0.12482,  -0.05286,  -0.09728,  -0.12120,   0.05648,  -0.10411,  -0.16562,   0.01206,  -0.17245,   0.10090,  -0.06311,  -0.10070,  -0.00161,  -0.05628,  -0.03919,  -0.08019,  -0.09045,  -0.21003,   0.06331,  -0.04603,   0.24782,  -0.11778,  -0.04603,   0.01206,  -0.10070,  -0.01869,  -0.17245,  -0.11436,  -0.03919,   0.05990,  -0.02211,   0.12823
   0.20340,   0.18974,  -0.07678,  -0.18270,   0.04281,  -0.06994,   0.02914,  -0.05286,  -0.03578,   0.11798,   0.08040,  -0.03578,   0.12823,  -0.00502,   0.08723,  -0.17587,   0.09748,  -0.04944,  -0.07678,  -0.04603,  -0.13145,  -0.09728,   0.00864,   0.16240,  -0.06653,  -0.16562,  -0.05628,  -0.15537,   0.07698,  -0.18270,   0.00523,  -0.22712,  -0.01186,  -0.08019,   0.09748,   0.13848,   0.17265,  -0.12803,  -0.03236,   0.05648,  -0.08019,   0.16240,   0.03939,  -0.03578,   0.03598,  -0.06994,   0.21024,  -0.04944,  -0.09386,   0.00523,   0.08723,  -0.05286,   0.02573,   0.07356,  -0.02553,   0.20682,   0.03256,   0.03256,  -0.04261,  -0.08019,   0.00864,   0.12823,   0.15898,  -0.05286,  -0.12120,   0.16240,  -0.12461,  -0.04944,   0.08723,  -0.04261,  -0.04261,   0.07356,   0.09406,  -0.01186,  -0.08361,  -0.12120,   0.34349,   0.12823,   0.02914,   0.03939,   0.05306,   0.14873,   0.07015,   0.01548,   0.10431,  -0.25104,  -0.10070,   0.04965,   0.09406,  -0.17245,  -0.16562,   0.03256,  -0.09045,   0.05648,   0.04623,  -0.05286,  -0.06311,   0.04965,  -0.09386,  -0.00502,   0.14532,  -0.14170,   0.08723,  -0.00502,   0.02231,   0.15557,  -0.09728,   0.01206,   0.12823,   0.05306,  -0.11095,   0.17265,  -0.08703,  -0.06994,  -0.11095,  -0.07678,   0.00864,   0.09748,   0.05306,   0.10431,   0.03598,  -0.00502,   0.10090,   0.03598,   0.13165,   0.07698,  -0.07336,  -0.08019
   0.05648,   0.06331,  -0.03236,   0.00864,   0.01206,   0.04281,   0.02914,   0.07698,  -0.19978,  -0.02211,   0.27516,   0.12140,   0.11457,   0.04965,   0.02573,  -0.06311,  -0.14853,   0.21024,   0.08040,  -0.21345,  -0.08703,   0.01548,   0.09065,   0.13165,  -0.01527,  -0.16220,  -0.03236,  -0.05969,   0.00523,  -0.16220,   0.02231,   0.09065,  -0.06653,   0.07015,   0.10090,  -0.03919,   0.01548,  -0.09045,  -0.13486,   0.15215,   0.00864,   0.05990,   0.05306,  -0.08703,   0.00523,   0.03598,   0.19315,  -0.03578,   0.16923,   0.09065,   0.03256,   0.02573,   0.11798,   0.05990,   0.02573,   0.03256,  -0.08703,  -0.25787,   0.03939,   0.00181,   0.00181,   0.10773,   0.01548,  -0.00844,  -0.08019,   0.11798,  -0.02553,   0.03939,   0.00181,   0.10773,   0.04623,   0.01548,   0.06673,   0.13165,  -0.13145,   0.01889,   0.34691,   0.09406,   0.01548,   0.00864,  -0.09045,   0.02573,  -0.13145,   0.03256,  -0.07336,  -0.21003,  -0.02553,  -0.02894,  -0.12461,  -0.13828,  -0.22029,   0.03939,  -0.04603,   0.10773,   0.13165,   0.09748,   0.03939,   0.08040,  -0.06653,  -0.08361,   0.19657,  -0.12120,  -0.02553,   0.09748,   0.15215,   0.20682,  -0.20662,  -0.02211,  -0.02894,   0.15898,  -0.06653,   0.14190,  -0.09045,  -0.01186,   0.24099,   0.09065,  -0.03578,   0.07015,  -0.05628,   0.15215,   0.07698,   0.01206,   0.06331,   0.03598,   0.03598,   0.02914,  -0.01186,   0.00523
   0.07356,  -0.02894,   0.02914,  -0.04944,  -0.06994,   0.14873,  -0.10070,  -0.06311,  -0.14511,  -0.13145,   0.15898,   0.08381,   0.00523,   0.18974,   0.01889,  -0.02894,   0.09406,   0.05990,   0.01548,  -0.01186,  -0.13145,  -0.04261,  -0.01869,   0.15898,  -0.07678,  -0.03236,  -0.08703,  -0.10070,   0.03939,   0.03939,   0.08040,  -0.00161,  -0.04944,  -0.03236,  -0.08019,   0.03598,  -0.07678,  -0.26129,  -0.22370,  -0.03578,   0.13848,  -0.08019,   0.00181,   0.12482,   0.02231,  -0.16903,   0.16240,   0.06331,  -0.16220,   0.10773,   0.18974,  -0.07678,   0.01889,   0.01548,   0.05990,  -0.03578,  -0.04603,  -0.11436,  -0.10070,  -0.09728,  -0.13486,  -0.00161,  -0.02211,   0.02914,   0.05990,   0.15215,   0.06331,   0.04623,  -0.19637,   0.09065,  -0.04261,  -0.08361,   0.03598,   0.19657,  -0.00161,   0.12482,   0.10090,  -0.02211,  -0.10411,  -0.03236,  -0.06994,  -0.09045,   0.13848,   0.01548,   0.00181,  -0.18612,   0.02573,  -0.03578,   0.00181,  -0.22712,  -0.02211,   0.02573,   0.10773,   0.07356,  -0.00844,  -0.08361,  -0.15195,   0.04623,   0.02573,   0.04623,   0.12823,  -0.16903,   0.00864,  -0.03919,  -0.01527,   0.05306,   0.00864,  -0.08019,  -0.01527,   0.07356,  -0.04261,   0.03598,   0.07698,  -0.15195,   0.21707,   0.08723,   0.05648,   0.00864,   0.15898,  -0.01186,  -0.08703,  -0.03236,   0.02573,  -0.13486,  -0.01527,   0.26491,  -0.08361,   0.16582
   0.27516,  -0.02894,  -0.04603,   0.03256,  -0.10070,  -0.02553,  -0.05969,  -0.16903,   0.14532,  -0.04603,   0.02231,   0.07015,   0.03256,   0.08723,  -0.01186,  -0.13828,   0.13848,   0.05648,  -0.01527,   0.10773,  -0.23737,   0.03598,   0.19999,   0.00181,   0.01206,   0.10431,   0.05990,  -0.09386,   0.13848,  -0.18270,   0.03256,  -0.25787,   0.02231,   0.00523,  -0.00161,  -0.00844,  -0.00502,   0.23416,  -0.16220,   0.03256,   0.11798,  -0.03236,   0.14873,   0.10431,  -0.02894,   0.02914,   0.07698,   0.04281,  -0.04261,  -0.05969,   0.18632,  -0.12120,   0.05990,   0.21707,  -0.04603,   0.08723,   0.14873,  -0.12803,   0.00181,  -0.08703,  -0.13145,  -0.11436,  -0.01869,   0.04281,  -0.13145,   0.06331,  -0.21345,   0.05306,   0.00864,  -0.09386,   0.09748,  -0.05969,   0.01206,  -0.05628,  -0.15537,   0.09065,   0.13507,   0.04623,  -0.02553,   0.08723,   0.06673,  -0.01869,   0.02231,   0.03598,   0.09065,  -0.22370,  -0.14170,   0.09748,  -0.08361,  -0.05628,   0.00864,   0.19315,   0.01548,  -0.06653,   0.02573,  -0.00161,   0.09065,  -0.01869,  -0.02894,   0.07015,   0.08040,  -0.03236,   0.01548,  -0.06311,   0.15898,   0.15898,   0.03256,   0.04623,   0.07698,   0.03256,  -0.03919,  -0.04261,  -0.01186,  -0.09728,   0.07015,  -0.08361,   0.04623,   0.09065,   0.03939,  -0.15878,  -0.04603,  -0.05286,   0.05990,  -0.13486,   0.17265,  -0.01186,  -0.05969,  -0.13486
   0.04623,  -0.01869,  -0.09386,   0.12482,   0.13165,  -0.02894,  -0.11778,   0.10090,  -0.04603,   0.10090,  -0.00161,   0.02573,   0.00864,  -0.08703,  -0.05969,   0.04965,  -0.14853,   0.03598,   0.20340,   0.15215,  -0.05628,  -0.02211,   0.20682,   0.01206,   0.01206,   0.02573,   0.04965,  -0.05286,  -0.06994,   0.00523,  -0.07678,   0.02573,   0.04281,  -0.05628,  -0.08703,  -0.06311,   0.05990,  -0.00161,  -0.24762,  -0.03578,   0.16582,   0.00864,   0.12482,   0.04623,   0.11457,   0.09406,  -0.04261,  -0.15195,   0.01889,   0.02231,  -0.04944,  -0.00844,   0.04623,  -0.00161,   0.04623,   0.05648,   0.15557,  -0.22029,  -0.09728,  -0.16562,  -0.00161,   0.02914,   0.01206,   0.04623,  -0.11436,   0.17265,  -0.16903,   0.06331,   0.07356,   0.06673,  -0.06311,   0.01889,   0.07698,  -0.10753,  -0.00844,  -0.07678,   0.11115,   0.05990,  -0.02553,  -0.01186,  -0.03919,  -0.09386,  -0.08703,   0.15557,  -0.09045,  -0.11095,   0.04623,   0.15898,   0.12140,  -0.09045,  -0.07678,   0.00864,  -0.00161,  -0.14511,   0.02914,   0.04965,  -0.07336,  -0.02894,   0.02573,  -0.00844,   0.15215,  -0.07678,  -0.14170,   0.01548,  -0.00844,   0.07698,  -0.15537,   0.09065,   0.13848,   0.06331,   0.01548,   0.11457,  -0.03919,   0.08040,   0.17607,   0.04623,   0.00523,  -0.06653,  -0.06311,  -0.06311,   0.08381,   0.12140,   0.00181,  -0.04603,  -0.13828,  -0.07336,   0.03939,  -0.06311
   0.19315,  -0.12803,  -0.06311,   0.08381,  -0.08019,   0.09065,  -0.05628,  -0.00844,  -0.02211,  -0.21687,   0.00864,   0.03939,   0.11457,   0.13848,  -0.09045,  -0.11778,   0.11798,  -0.01869,   0.10431,   0.11798,  -0.10070,  -0.03578,   0.02573,   0.02914,   0.02231,   0.05990,  -0.23737,   0.25807,  -0.00844,  -0.13145,   0.17607,  -0.11436,  -0.08703,   0.05648,   0.04281,   0.03256,  -0.00502,  -0.03919,   0.01206,  -0.02894,   0.00523,  -0.10070,   0.16240,   0.08040,   0.15215,  -0.03236,   0.05648,   0.06331,  -0.07678,   0.04623,   0.04281,  -0.03919,  -0.03236,   0.04965,   0.09406,   0.13165,   0.12823,  -0.23395,   0.01889,   0.13165,   0.01206,  -0.08703,  -0.09386,  -0.01186,  -0.10753,   0.11115,   0.03256,   0.03256,  -0.02211,   0.27857,   0.02914,  -0.14853,  -0.12803,   0.01889,  -0.00161,  -0.11778,   0.13165,   0.05648,   0.03256,   0.16582,  -0.18953,  -0.08019,   0.06331,  -0.05628,  -0.13828,  -0.08019,   0.08723,   0.11457,   0.02231,  -0.08361,   0.04281,   0.07015,   0.00523,  -0.03236,   0.13507,   0.12140,   0.09406,  -0.00502,  -0.00844,  -0.02553,   0.05648,   0.03256,  -0.09045,  -0.04261,  -0.03919,  -0.03236,  -0.07336,  -0.15537,   0.11457,   0.11457,   0.12823,   0.09065,   0.18290,   0.00864,   0.04623,   0.04965,   0.08381,   0.01548,  -0.00161,  -0.05286,  -0.01869,   0.13507,   0.06673,  -0.08019,  -0.05286,  -0.21345,  -0.06994,   0.01206
   0.08723,   0.18974,  -0.14853,  -0.09386,   0.04965,  -0.04944,   0.11798,  -0.09045,  -0.01869,  -0.06311,   0.13507,  -0.00502,   0.04281,  -0.00502,   0.14873,  -0.04603,   0.00523,   0.04623,  -0.04261,  -0.03236,  -0.11778,  -0.07678,   0.05306,   0.02231,  -0.04261,   0.02914,  -0.17245,  -0.07336,   0.00181,  -0.00502,   0.18290,  -0.00161,  -0.02211,   0.15215,  -0.00161,   0.17265,  -0.05969,   0.02231,  -0.06994,  -0.12120,  -0.08703,   0.07698,   0.04965,   0.19315,  -0.00161,  -0.02553,   0.05648,   0.13165,   0.09748,  -0.06994,   0.22390,  -0.06653,   0.05648,   0.09406,  -0.02553,  -0.05286,   0.00181,   0.05648,  -0.00502,  -0.10753,   0.02914,   0.02231,   0.12823,  -0.03236,  -0.04944,  -0.09728,   0.04281,   0.10431,  -0.05286,  -0.06311,  -0.00844,   0.05990,  -0.04944,   0.06331,  -0.09728,   0.10773,   0.00864,   0.06331,   0.07356,   0.09748,  -0.03236,  -0.02894,  -0.07336,  -0.05286,  -0.18612,  -0.10411,   0.18632,  -0.05628,  -0.04944,  -0.03236,   0.04965,   0.02573,  -0.05969,   0.06331,  -0.10411,  -0.01869,   0.10090,  -0.04261,   0.05990,  -0.22712,   0.05648,   0.00523,   0.18632,   0.11115,  -0.11436,  -0.12120,  -0.07336,   0.09748,  -0.00502,   0.22049,  -0.05628,   0.14532,   0.01548,   0.12482,   0.09065,   0.11457,   0.06331,  -0.03236,  -0.09045,   0.00181,   0.03598,   0.09065,   0.00523,   0.04965,   0.13507,  -0.02894,  -0.02211,  -0.01186
   0.10431,  -0.05969,   0.00523,  -0.08703,   0.00523,  -0.04603,   0.14532,   0.00181,  -0.01869,   0.02231,  -0.00161,  -0.04261,  -0.07336,  -0.07336,   0.00864,   0.10773,   0.00181,  -0.04603,  -0.10070,  -0.14853,   0.13848,  -0.13828,   0.08040,   0.14873,   0.17949,  -0.07336,  -0.01186,   0.03256,   0.17949,  -0.01869,   0.01548,  -0.04261,  -0.02894,  -0.09045,  -0.05628,   0.16240,  -0.12461,  -0.12120,  -0.02894,  -0.05286,  -0.06311,   0.05990,   0.09406,   0.21707,   0.05306,  -0.05628,  -0.12803,  -0.01527,   0.19315,  -0.08703,   0.02231,   0.03939,  -0.04261,   0.08381,  -0.04261,  -0.21003,   0.00864,  -0.09045,  -0.01869,   0.08040,  -0.10753,   0.15898,   0.18290,   0.09065,  -0.01186,   0.01206,   0.01889,   0.21365,  -0.06653,  -0.00502,  -0.06653,   0.04623,  -0.01869,  -0.01869,  -0.14853,  -0.01869,   0.08381,  -0.12120,   0.14532,   0.10431,   0.05648,   0.02914,   0.13507,  -0.00502,  -0.10753,  -0.01869,   0.13848,  -0.01527,  -0.03578,   0.13165,  -0.10411,   0.03939,  -0.04603,   0.03256,  -0.07336,  -0.03236,  -0.04944,   0.03939,  -0.00161,  -0.11095,   0.08723,  -0.02894,   0.26149,  -0.01869,  -0.09728,  -0.16220,  -0.27495,   0.08040,   0.03256,   0.20340,  -0.16903,   0.04965,   0.01889,   0.04623,  -0.17928,  -0.02211,  -0.01527,  -0.05969,   0.05990,   0.13165,   0.12823,  -0.03919,  -0.03919,   0.00181,   0.02573,   0.01206,   0.01889,   0.01889
   0.18290,   0.14532,  -0.10070,   0.13507,   0.15557,  -0.11436,   0.07698,  -0.00844,   0.04281,   0.00181,  -0.04944,  -0.06994,  -0.09045,   0.04623,  -0.06994,   0.00864,  -0.11436,   0.02573,   0.07698,  -0.14853,   0.10773,  -0.05969,   0.21024,   0.07356,   0.03256,   0.02231,  -0.03236,   0.02573,  -0.08361,   0.04281,  -0.15537,  -0.21003,   0.01889,   0.01889,   0.01548,   0.14873,   0.04281,  -0.21003,   0.02914,   0.01889,  -0.00161,   0.18290,   0.09406,  -0.09386,   0.02231,   0.06331,   0.07015,   0.07698,   0.03939,  -0.00844,  -0.02553,   0.06673,   0.08723,   0.18632,  -0.08703,  -0.05286,  -0.02553,  -0.16562,  -0.14170,   0.09065,   0.08381,   0.28199,   0.27174,   0.00864,  -0.04261,   0.14532,  -0.02553,   0.17607,   0.10431,  -0.09386,  -0.06994,  -0.01186,   0.06331,  -0.13828,  -0.01527,   0.11798,   0.03598,   0.00523,   0.13507,   0.21024,  -0.10753,  -0.05628,   0.11798,  -0.00844,   0.03598,   0.02573,   0.13848,   0.07015,   0.01206,  -0.08361,  -0.02211,  -0.01527,   0.00523,   0.01548,   0.05306,  -0.09386,  -0.08361,  -0.08019,   0.02573,   0.00864,   0.22390,   0.03598,  -0.02553,   0.00864,  -0.15878,  -0.13145,  -0.26470,  -0.08019,   0.03256,  -0.16220,   0.10431,  -0.00161,  -0.00844,   0.02231,  -0.02894,   0.05990,  -0.04944,  -0.01186,   0.05990,   0.00523,   0.08381,   0.14532,  -0.02211,   0.06331,  -0.14853,   0.16923,   0.14532,   0.07015
  -0.09386,  -0.01186,  -0.06311,  -0.08361,   0.06331,   0.00181,   0.16582,  -0.10753,  -0.06653,  -0.06994,   0.10431,  -0.12803,   0.00864,  -0.10753,   0.04281,  -0.01869,  -0.03919,  -0.12120,  -0.00844,   0.05648,  -0.03919,  -0.01869,   0.15557,  -0.02894,   0.08723,  -0.04261,  -0.00844,  -0.06994,  -0.03919,   0.07015,  -0.02211,  -0.04944,   0.12140,   0.20340,  -0.02211,   0.02231,  -0.00844,  -0.00161,   0.03598,  -0.02211,  -0.12120,  -0.02894,   0.06331,   0.11115,  -0.13486,  -0.21003,   0.13848,  -0.03919,  -0.02211,  -0.03919,   0.04965,   0.02231,  -0.10070,  -0.02211,  -0.00502,  -0.01527,   0.03256,   0.12823,  -0.03919,  -0.10411,   0.06673,   0.01889,   0.07015,  -0.06994,  -0.04261,   0.15215,   0.10773,  -0.02894,  -0.00502,  -0.02894,   0.11115,  -0.09386,   0.01206,  -0.02553,  -0.04603,  -0.13145,   0.08381,  -0.18270,   0.08723,   0.13507,  -0.04603,   0.12140,  -0.01186,  -0.11436,  -0.04944,   0.09406,   0.17949,   0.23757,  -0.06994,  -0.00502,  -0.10070,   0.00181,  -0.07336,  -0.14853,   0.02573,   0.06673,   0.14873,  -0.03578,  -0.04944,  -0.26129,  -0.07336,  -0.04944,   0.19999,   0.12482,  -0.04261,   0.01206,   0.03256,  -0.00844,   0.06331,   0.08723,   0.00864,   0.07015,  -0.06994,   0.09406,  -0.00844,  -0.19637,  -0.06311,  -0.09728,   0.08723,  -0.08703,   0.07356,   0.02573,  -0.05286,  -0.11436,   0.10773,   0.06673,  -0.03236,  -0.03578
   0.13507,  -0.09386,  -0.04261,  -0.03919,   0.02231,  -0.08361,   0.15215,   0.11798,  -0.03236,   0.10773,   0.08040,  -0.07678,  -0.08019,  -0.03236,   0.03939,  -0.06653,   0.02231,  -0.23395,  -0.10070,  -0.10411,   0.06673,  -0.05286,   0.12823,   0.08723,   0.01548,  -0.08019,  -0.03578,   0.04281,  -0.07678,   0.12140,  -0.08361,   0.02573,   0.10090,  -0.00161,  -0.04944,   0.11798,  -0.03236,  -0.17587,  -0.12120,  -0.08703,  -0.00844,  -0.14511,   0.10431,   0.06673,  -0.06653,  -0.01527,  -0.03236,  -0.00844,   0.07356,  -0.00161,  -0.09386,   0.01548,  -0.18612,  -0.09728,  -0.04261,  -0.10070,   0.12140,  -0.01527,  -0.15878,   0.09748,  -0.05628,  -0.04603,  -0.04261,  -0.07678,   0.14873,   0.13848,   0.08723,  -0.00161,  -0.04261,  -0.12120,  -0.09728,  -0.05286,   0.00181,  -0.05969,  -0.03236,  -0.04261,   0.23416,  -0.05286,  -0.14511,   0.07015,   0.02231,   0.02914,  -0.04944,  -0.09728,  -0.08019,   0.09748,  -0.05969,   0.06673,  -0.05286,   0.05306,  -0.03919,   0.10773,   0.05990,  -0.09386,  -0.06994,   0.00181,  -0.04944,  -0.06994,  -0.08361,  -0.10070,   0.07015,   0.05990,   0.09065,  -0.09386,  -0.04944,  -0.13145,  -0.06994,   0.01889,   0.10090,   0.08381,   0.01889,   0.06331,  -0.02211,   0.09065,  -0.14853,  -0.01186,   0.03598,   0.02231,   0.02573,  -0.04603,  -0.02894,  -0.17245,   0.05648,  -0.19295,  -0.02211,   0.05306,   0.01548,   0.04965
   0.06673,  -0.00844,  -0.02211,   0.03256,   0.19315,  -0.03919,   0.06673,   0.08040,   0.19657,  -0.03578,   0.02573,  -0.12120,   0.00523,  -0.10070,  -0.14170,   0.12482,   0.22390,  -0.04603,   0.01548,  -0.01186,   0.00523,  -0.08019,   0.03598,  -0.04944,  -0.03919,  -0.03919,  -0.16562,  -0.00161,  -0.01527,   0.23416,  -0.18612,  -0.03236,  -0.01869,  -0.12803,  -0.13145,   0.08040,  -0.08019,  -0.19978,  -0.03236,  -0.02211,  -0.09045,   0.01206,  -0.02894,  -0.08019,  -0.10070,   0.01548,   0.00523,   0.07356,   0.03598,  -0.10753,   0.03939,   0.10431,   0.12823,   0.04965,  -0.00502,  -0.30571,   0.14532,   0.02231,  -0.14853,   0.12482,  -0.04944,  -0.00502,  -0.06653,  -0.05628,   0.04281,   0.12823,  -0.01869,  -0.05628,   0.11457,  -0.00844,   0.07698,   0.05990,   0.04623,  -0.03919,  -0.04261,   0.04281,   0.23074,  -0.04603,  -0.06653,   0.02914,  -0.01869,   0.07015,  -0.08703,   0.03598,   0.00864,   0.01548,   0.07015,  -0.07678,   0.01206,   0.02573,   0.02573,   0.02231,   0.18290,  -0.04261,  -0.23737,  -0.07678,  -0.04944,   0.01889,  -0.03919,   0.02573,  -0.03919,   0.04623,  -0.02553,  -0.00161,  -0.08703,  -0.12803,   0.03598,   0.13165,  -0.00502,  -0.01527,   0.07015,   0.15215,   0.06331,   0.06331,   0.04281,  -0.00161,   0.02914,   0.07698,   0.09065,  -0.00844,   0.09748,   0.01548,  -0.03236,  -0.15878,  -0.00502,   0.09748,   0.06673,  -0.00502
  -0.01186,  -0.13828,  -0.01527,   0.07015,  -0.03919,   0.01548,   0.08723,  -0.03236,   0.16582,   0.04965,   0.02231,  -0.05969,  -0.02553,  -0.00502,  -0.01186,   0.16582,   0.01889,   0.13507,  -0.13486,  -0.03919,  -0.01186,   0.03256,   0.16240,  -0.00502,  -0.19295,   0.08723,  -0.13828,  -0.10411,  -0.06311,  -0.12120,   0.00181,   0.07698,   0.12140,   0.14190,   0.02231,  -0.02211,  -0.08019,   0.10431,  -0.10411,  -0.00161,   0.07698,   0.06673,   0.05990,   0.00181,   0.01548,  -0.07336,   0.03939,  -0.01869,  -0.12120,   0.08381,   0.08381,  -0.05969,   0.02573,   0.18974,  -0.00161,  -0.11436,   0.17949,   0.03598,   0.08723,   0.03598,   0.01206,   0.05648,   0.23074,  -0.01186,   0.00864,   0.10773,   0.11115,   0.04623,  -0.10411,  -0.12461,  -0.01527,   0.05306,  -0.04603,  -0.02894,  -0.05286,   0.05648,  -0.05628,  -0.08019,   0.00181,   0.00523,  -0.05628,   0.05306,  -0.13145,  -0.14170,  -0.07336,  -0.04261,   0.10090,   0.05648,   0.02914,  -0.14511,   0.10431,   0.12823,   0.07698,   0.06673,   0.07356,   0.05306,   0.19657,  -0.04603,   0.00523,  -0.22370,  -0.05969,  -0.02894,   0.14190,  -0.01527,   0.04281,  -0.00502,  -0.03236,   0.00181,   0.01889,   0.11798,   0.10431,  -0.01186,  -0.08361,   0.00864,   0.05990,  -0.17587,   0.12140,   0.03598,   0.18632,  -0.09386,  -0.06311,  -0.13828,  -0.09045,   0.07356,   0.04965,  -0.16220,  -0.12461,  -0.10070
  -0.15195,  -0.13486,  -0.03919,   0.13507,   0.07015,  -0.06311,   0.17607,   0.02914,  -0.00844,   0.07698,  -0.00844,  -0.02553,   0.02914,  -0.04261,   0.04965,   0.16923,  -0.03919,  -0.13828,   0.05306,   0.20682,   0.14873,  -0.00161,   0.04281,   0.28541,  -0.10070,   0.08381,  -0.12461,   0.11457,  -0.12461,   0.03256,  -0.04261,  -0.00844,   0.10431,  -0.02211,   0.02914,   0.00181,  -0.12803,  -0.02211,   0.01548,   0.02914,   0.09748,   0.08381,   0.14873,  -0.05628,  -0.10411,   0.03256,   0.18974,  -0.02553,   0.01889,  -0.12461,  -0.00502,  -0.12803,  -0.03236,  -0.00161,   0.20340,  -0.23395,   0.05648,   0.00181,  -0.22370,   0.07015,   0.06331,   0.06673,   0.13165,   0.01548,  -0.02211,   0.37425,   0.06673,   0.08723,   0.11457,  -0.19637,  -0.03578,  -0.05969,   0.04965,  -0.04944,   0.13507,  -0.05969,   0.25466,   0.10090,   0.03256,   0.05990,  -0.18270,  -0.14853,  -0.05969,  -0.15195,  -0.14853,  -0.01186,   0.05306,  -0.03236,  -0.13828,  -0.11436,   0.05990,  -0.03578,   0.14532,  -0.08019,   0.02231,  -0.11095,  -0.00502,  -0.00502,  -0.02894,   0.01206,   0.15215,   0.01206,  -0.00844,  -0.07678,   0.02231,   0.01206,   0.03256,   0.07015,   0.13165,   0.11457,  -0.00161,   0.00864,  -0.08703,   0.09748,  -0.04603,  -0.16220,   0.05648,  -0.03578,   0.07015,  -0.07678,   0.10090,  -0.13828,   0.05648,  -0.06994,   0.01889,   0.02573,   0.04965,  -0.09045
   0.04281,  -0.03236,   0.08381,   0.20682,  -0.01869,   0.09065,   0.12823,  -0.05628,   0.15557,  -0.08703,  -0.06653,   0.01548,  -0.06653,  -0.04944,  -0.04261,   0.08040,  -0.07336,  -0.19295,   0.12140,  -0.08019,   0.12482,  -0.14170,  -0.04944,   0.02573,  -0.03919,   0.12823,  -0.10411,   0.03256,  -0.13828,   0.12482,  -0.12803,  -0.09386,   0.13848,   0.14532,  -0.03578,   0.07356,  -0.03236,  -0.08019,   0.12140,   0.07698,  -0.12803,  -0.01527,   0.03256,  -0.14511,   0.10090,  -0.11778,   0.00523,   0.07698,   0.05306,  -0.18270,   0.07698,   0.04623,   0.01889,   0.05990,   0.07698,  -0.02553,   0.13165,   0.04623,  -0.22712,  -0.14170,   0.04965,   0.00181,  -0.00844,  -0.08361,   0.01889,   0.34008,   0.01889,  -0.07336,   0.03256,  -0.13145,   0.02914,  -0.07678,  -0.00502,  -0.09386,   0.15557,  -0.00844,   0.09748,   0.17607,   0.05990,  -0.18612,   0.02914,   0.07015,  -0.13828,  -0.07336,   0.02573,   0.10090,   0.01206,  -0.06653,   0.00181,  -0.17587,   0.09065,  -0.03236,   0.16582,   0.04965,  -0.02211,  -0.06653,  -0.05286,   0.02573,  -0.15537,  -0.00502,   0.03939,  -0.03919,   0.03939,  -0.10753,   0.00181,  -0.00502,   0.12482,   0.08723,   0.00523,  -0.08019,   0.07015,  -0.03236,  -0.08361,  -0.06994,  -0.06653,  -0.25104,  -0.00502,  -0.03919,  -0.12803,  -0.11095,   0.00523,   0.03939,   0.08381,  -0.14853,  -0.05286,   0.02573,   0.02231,  -0.02211
  -0.02211,   0.08723,  -0.07678,  -0.21345,  -0.00844,  -0.01869,  -0.00844,  -0.07336,   0.00864,   0.02914,   0.01889,   0.00181,  -0.01869,   0.09065,  -0.06994,   0.00523,  -0.11778,   0.01889,  -0.04603,  -0.05286,  -0.12461,  -0.04261,  -0.01186,   0.04623,  -0.11778,   0.15557,   0.11798,  -0.09386,   0.02573,   0.03939,  -0.11095,   0.08723,  -0.01527,   0.13507,  -0.02211,   0.07356,   0.02573,  -0.01186,   0.09406,   0.01889,  -0.13828,  -0.04603,  -0.02894,   0.04281,   0.00181,   0.04623,   0.05990,  -0.03578,   0.00523,   0.05306,   0.11115,   0.01889,  -0.00161,   0.10090,   0.07356,   0.19999,   0.02231,  -0.14853,   0.09065,   0.06673,   0.09748,  -0.01186,  -0.11436,   0.13507,   0.03598,  -0.04944,  -0.08703,   0.14190,  -0.03578,   0.11457,  -0.01869,  -0.04261,   0.04281,   0.00864,  -0.17587,  -0.05628,  -0.08703,   0.08381,   0.00864,  -0.05969,  -0.07678,   0.06331,   0.23757,   0.12482,  -0.11436,   0.04623,  -0.06994,  -0.09728,   0.00181,   0.09406,   0.00181,  -0.04944,  -0.09728,   0.12823,   0.12823,  -0.01186,  -0.06994,   0.01889,   0.01206,   0.02914,   0.04623,   0.00864,  -0.05286,   0.15215,   0.23757,  -0.14853,  -0.04261,  -0.07336,  -0.03919,   0.01548,  -0.06994,  -0.16220,  -0.01186,  -0.06653,   0.05990,   0.01206,  -0.10070,  -0.01869,  -0.00161,  -0.05628,   0.04623,  -0.09386,  -0.00161,   0.04281,   0.07698,  -0.03919,  -0.11095,   0.09748
   0.10773,   0.01206,  -0.05628,  -0.06311,   0.08040,   0.03939,  -0.02553,  -0.06311,   0.15215,   0.03256,   0.11798,   0.10090,  -0.01869,   0.03939,  -0.07336,  -0.01869,  -0.00161,   0.00864,  -0.12120,   0.05990,  -0.09045,   0.09748,  -0.17928,   0.00181,   0.00523,   0.19657,   0.05306,   0.02231,  -0.01186,   0.01548,  -0.03236,   0.02231,  -0.00502,   0.05648,   0.10773,   0.17949,   0.02573,  -0.03236,   0.12140,  -0.04261,  -0.09045,   0.03598,   0.00523,   0.10773,   0.01548,  -0.08019,   0.24099,  -0.00844,   0.12823,   0.09065,   0.13507,   0.13165,   0.10431,  -0.07678,   0.00181,   0.14873,  -0.08019,  -0.19295,   0.05648,  -0.03578,   0.01206,   0.08040,  -0.06653,   0.04965,   0.07698,  -0.06311,  -0.09728,  -0.01186,   0.02231,  -0.00502,   0.00523,  -0.09045,   0.10431,  -0.01527,  -0.05286,  -0.10070,  -0.06994,  -0.08019,   0.03939,  -0.12461,   0.06331,   0.00864,   0.10773,  -0.02553,  -0.08703,  -0.07336,  -0.09728,  -0.09728,   0.09065,  -0.01186,   0.00181,  -0.22029,   0.03939,   0.06673,  -0.09386,   0.13165,  -0.04944,   0.04281,   0.07015,   0.09065,   0.05648,  -0.21687,  -0.06653,   0.24441,   0.09065,  -0.10411,  -0.04944,   0.00864,   0.08040,   0.07698,  -0.21687,   0.02573,  -0.00844,  -0.09386,   0.00181,   0.08723,   0.03939,  -0.09045,   0.10773,   0.02573,   0.12823,   0.03939,  -0.09045,   0.03256,   0.11798,  -0.01869,  -0.00161,  -0.00502
  -0.01869,   0.03256,   0.02573,  -0.01186,   0.13848,   0.01206,   0.02573,  -0.01869,  -0.00844,   0.06673,   0.07015,   0.07015,   0.02573,   0.14190,   0.00181,   0.15215,   0.08381,  -0.00161,   0.01889,  -0.00502,   0.03256,  -0.02211,   0.03939,   0.11115,  -0.16562,   0.00864,   0.15898,   0.04281,  -0.16220,  -0.01527,  -0.03236,  -0.08361,  -0.07678,   0.06331,   0.06673,   0.14873,  -0.09728,   0.01206,   0.09406,  -0.01186,  -0.02553,   0.04623,  -0.00502,   0.25466,   0.07356,  -0.14170,   0.16923,   0.00181,   0.11798,  -0.06311,   0.13165,   0.00523,   0.07698,   0.01548,  -0.10070,   0.28882,  -0.12461,  -0.05628,   0.01889,   0.12140,   0.03256,   0.16240,   0.07356,   0.19657,   0.08040,   0.08723,  -0.15195,  -0.10411,  -0.09386,  -0.12803,   0.16240,  -0.05628,   0.01548,  -0.12461,  -0.16562,   0.00181,  -0.03236,  -0.02553,   0.00181,  -0.01869,  -0.03236,  -0.05286,  -0.04944,   0.03939,  -0.10070,  -0.02894,   0.01548,   0.01206,  -0.01869,   0.00181,  -0.15195,  -0.10070,   0.06331,  -0.03236,   0.02231,   0.04965,  -0.01869,  -0.14170,  -0.01527,  -0.02894,   0.14190,  -0.09045,  -0.05286,   0.12140,   0.06673,   0.07356,  -0.01869,  -0.02553,  -0.01186,   0.23074,  -0.17245,  -0.00502,  -0.08361,  -0.04944,  -0.11095,  -0.00502,  -0.04944,  -0.14170,   0.10090,   0.15557,   0.04623,  -0.06311,   0.08040,   0.00864,  -0.05286,   0.09406,   0.08381,  -0.02211
   0.04281,   0.04965,  -0.13486,   0.02573,   0.10090,  -0.09386,  -0.02553,  -0.06653,  -0.04261,   0.03598,   0.04965,   0.04623,   0.04623,   0.01206,   0.00523,   0.03598,  -0.03578,   0.00523,  -0.06994,   0.04965,  -0.06653,   0.05990,  -0.04944,   0.12140,  -0.02894,   0.18632,   0.11115,  -0.14511,  -0.00502,  -0.02894,  -0.13145,   0.00864,  -0.02211,   0.18290,  -0.07678,   0.07015,  -0.14853,  -0.07678,  -0.06994,   0.01206,  -0.14170,  -0.02211,   0.06331,  -0.22029,  -0.11778,  -0.00161,   0.25807,  -0.05969,  -0.09386,   0.16582,   0.12140,   0.01889,  -0.10753,   0.00864,  -0.04261,  -0.04944,   0.00864,  -0.00161,   0.10431,   0.03256,   0.09748,  -0.07678,  -0.00161,   0.16240,  -0.03578,  -0.03578,  -0.06311,   0.04281,   0.08381,   0.09748,   0.01548,  -0.06311,   0.01206,   0.08723,  -0.04603,  -0.18953,  -0.06653,   0.07015,  -0.02553,  -0.06994,  -0.14853,   0.05306,  -0.01869,  -0.01869,   0.10773,  -0.09045,  -0.04261,  -0.04261,  -0.03578,  -0.09386,  -0.02894,  -0.02894,   0.05648,  -0.02553,  -0.06653,  -0.04261,  -0.03578,   0.08381,  -0.13828,  -0.03578,  -0.04603,  -0.11095,  -0.02553,   0.15215,  -0.02211,  -0.08703,   0.08381,   0.16582,   0.15557,   0.11798,  -0.01186,  -0.04261,  -0.07678,  -0.12803,  -0.01869,  -0.12120,  -0.10070,  -0.02211,  -0.06311,   0.04623,  -0.07336,  -0.08019,  -0.00844,   0.01206,  -0.06311,  -0.04261,   0.00523,  -0.00844
   0.00864,  -0.17245,  -0.04944,  -0.24762,   0.05648,  -0.16562,  -0.01186,  -0.08703,   0.02914,  -0.06653,  -0.03578,   0.00523,   0.08723,  -0.28179,  -0.17587,   0.05648,   0.03939,   0.00864,  -0.09728,   0.08723,  -0.19978,   0.14873,   0.03598,   0.05306,   0.04623,   0.26832,   0.13165,   0.16240,   0.00523,   0.01889,   0.13848,  -0.00844,  -0.08019,  -0.00161,   0.06673,   0.08040,   0.01548,   0.07698,  -0.07336,  -0.02553,  -0.13145,   0.15898,  -0.00161,   0.02231,   0.01548,   0.02231,   0.10090,  -0.11778,  -0.09386,   0.00864,   0.08723,   0.21024,  -0.06653,   0.01206,  -0.05628,   0.14532,  -0.00502,  -0.09386,   0.02914,   0.06673,  -0.06994,   0.04623,  -0.05628,   0.20340,  -0.19295,  -0.14511,  -0.02553,  -0.00161,   0.01206,  -0.01527,  -0.00161,  -0.12461,   0.01889,  -0.01186,  -0.08703,  -0.07336,  -0.22712,   0.04281,  -0.01869,  -0.21687,  -0.08361,   0.12823,   0.04623,  -0.19978,  -0.14853,  -0.19978,  -0.23737,   0.11798,  -0.08361,   0.00864,   0.05990,  -0.12461,  -0.04944,   0.10431,   0.00523,  -0.08703,   0.05990,  -0.06994,  -0.01186,   0.03939,  -0.07336,  -0.02211,  -0.06311,   0.13507,   0.06673,  -0.08361,   0.20340,   0.14532,   0.05648,  -0.22370,   0.00181,  -0.02211,  -0.03919,  -0.08361,   0.03939,  -0.01186,  -0.16562,  -0.07336,  -0.19295,  -0.01527,  -0.08361,  -0.06311,   0.11798,   0.01889,   0.07356,  -0.03236,  -0.02894,  -0.07678
  -0.10070,   0.01548,  -0.04261,   0.07015,   0.06673,  -0.17587,   0.25124,   0.01548,   0.05306,   0.05306,  -0.01186,   0.01548,   0.11798,  -0.01527,  -0.02894,  -0.04261,  -0.23395,   0.05648,   0.10090,   0.00523,  -0.02553,   0.10431,   0.10773,   0.09406,  -0.06653,   0.17607,   0.03939,  -0.04603,  -0.12461,  -0.03578,   0.04281,   0.02573,   0.08381,   0.10431,   0.09406,  -0.05969,   0.07015,  -0.13486,   0.03256,  -0.10411,  -0.06653,   0.00523,   0.01206,   0.00864,   0.00864,  -0.25787,   0.04281,  -0.04944,   0.01206,  -0.04603,   0.02573,   0.07356,  -0.08361,  -0.07678,  -0.04261,   0.15215,  -0.19295,  -0.00502,  -0.12120,   0.09748,  -0.06653,   0.07356,  -0.21003,   0.13165,  -0.06311,  -0.04944,  -0.22370,   0.06331,   0.10773,  -0.01186,   0.17607,  -0.14853,   0.12482,   0.10431,  -0.09045,   0.15898,  -0.11436,  -0.04603,   0.17607,   0.04281,  -0.14853,  -0.08703,  -0.03578,   0.01206,   0.12140,  -0.01527,   0.00523,   0.11457,  -0.00502,   0.09748,   0.02914,   0.03939,   0.05648,  -0.02211,   0.09065,  -0.03919,  -0.11095,  -0.06653,   0.15898,   0.03939,  -0.02211,  -0.07678,  -0.06994,   0.08723,   0.04965,  -0.11436,  -0.08703,   0.08723,   0.10773,  -0.07336,  -0.01186,   0.05990,   0.04281,  -0.05628,  -0.13486,  -0.26812,  -0.03578,   0.00523,  -0.10753,   0.02573,  -0.01186,  -0.03578,   0.06331,  -0.00161,   0.03939,  -0.16562,  -0.04603,   0.03939
  -0.03578,   0.11115,   0.00864,  -0.00844,   0.03256,  -0.13145,  -0.10070,  -0.05628,  -0.01869,   0.03598,   0.05648,   0.08381,   0.06331,  -0.07336,   0.03598,  -0.08703,   0.04965,   0.17607,   0.15898,   0.10431,  -0.07336,  -0.01527,  -0.02553,   0.25807,   0.12140,   0.20340,   0.10431,  -0.10411,   0.09406,   0.02573,   0.09406,  -0.04603,  -0.06311,   0.15557,  -0.04261,   0.08381,  -0.02553,  -0.05969,  -0.17245,  -0.09728,  -0.03236,  -0.06994,   0.03256,   0.06331,   0.07356,  -0.08019,   0.02914,   0.09065,  -0.02211,   0.01548,   0.14532,   0.08723,   0.13507,  -0.27154,   0.07356,  -0.01869,   0.07356,  -0.22712,   0.06331,  -0.03236,   0.11115,   0.13507,   0.03939,   0.07356,  -0.10411,  -0.07678,   0.01548,   0.04623,   0.02231,  -0.01869,   0.13507,   0.14190,  -0.11778,  -0.01869,   0.03598,   0.09406,  -0.08361,  -0.06994,   0.06331,   0.00523,  -0.02553,  -0.08703,  -0.23737,  -0.10411,  -0.03578,  -0.14853,  -0.01186,  -0.11436,   0.07356,  -0.01527,   0.04281,   0.00523,   0.02914,   0.01206,  -0.00161,   0.04281,  -0.06653,  -0.15537,   0.10773,   0.05306,   0.12823,  -0.04261,  -0.14511,  -0.05969,  -0.08361,  -0.02211,  -0.08019,   0.00864,   0.04965,   0.06673,  -0.00161,  -0.03578,   0.01206,   0.06331,   0.22390,  -0.08361,  -0.07336,   0.08381,   0.05306,  -0.03919,   0.04623,  -0.03919,  -0.02894,   0.11115,   0.06673,  -0.00161,  -0.06311,   0.21365
   0.04281,   0.16240,  -0.03919,   0.04965,   0.00523,  -0.02553,   0.04965,  -0.04944,   0.04281,   0.08381,  -0.00502,  -0.08361,  -0.00161,  -0.10411,  -0.11095,  -0.15878,   0.01548,   0.07698,   0.03939,   0.08723,  -0.16903,  -0.01186,  -0.04603,   0.16582,   0.07698,   0.09748,   0.23074,  -0.00844,   0.10090,  -0.03919,  -0.03236,  -0.04944,  -0.18612,   0.10090,   0.00523,  -0.18270,  -0.17245,   0.03256,  -0.18953,  -0.12461,  -0.05286,  -0.07678,  -0.07336,  -0.01186,  -0.07336,   0.01206,   0.09065,  -0.08703,   0.03256,  -0.04261,  -0.05969,   0.05990,   0.11798,  -0.01186,   0.03939,   0.05648,   0.01548,   0.09406,   0.01548,   0.01548,   0.15215,   0.15215,  -0.08361,  -0.09386,  -0.05628,  -0.22370,   0.02573,  -0.01527,   0.06331,  -0.00844,   0.10090,  -0.04944,  -0.07678,   0.08381,  -0.05286,   0.07015,  -0.12461,   0.01889,  -0.03236,  -0.15878,   0.00523,  -0.09045,  -0.09386,   0.10431,  -0.04944,  -0.20662,  -0.11436,  -0.01869,   0.03939,   0.15898,   0.05990,  -0.05286,  -0.02894,   0.10431,   0.24782,   0.13507,  -0.06994,  -0.06311,  -0.00502,   0.14873,  -0.03236,  -0.01527,   0.07015,   0.00864,   0.08381,  -0.10070,  -0.08703,   0.03256,   0.06673,  -0.11436,   0.03256,  -0.01527,   0.12823,   0.03598,  -0.06653,  -0.12803,  -0.11436,   0.02573,  -0.09045,  -0.01869,  -0.09386,  -0.17587,  -0.02894,  -0.01527,   0.15898,  -0.13486,  -0.09728,  -0.02894
   0.00523,   0.08723,  -0.11095,   0.08040,  -0.04603,  -0.11436,   0.02231,   0.01548,  -0.03919,  -0.04944,   0.03939,  -0.02553,   0.07698,   0.05990,  -0.11778,  -0.04603,  -0.08019,   0.16582,   0.08723,   0.08723,  -0.05628,  -0.11095,   0.10090,   0.14190,   0.03598,   0.14532,   0.05306,  -0.00161,  -0.01869,   0.07015,   0.11115,   0.04965,   0.04281,   0.07356,   0.06673,  -0.00844,   0.04965,  -0.04944,  -0.22370,  -0.08703,   0.09406,  -0.04944,   0.13165,  -0.02553,  -0.05286,  -0.11436,   0.17265,   0.07356,  -0.13828,  -0.04261,  -0.07336,   0.03256,  -0.00161,  -0.09045,   0.06331,  -0.00502,  -0.00844,   0.03598,   0.12823,  -0.04261,  -0.00502,   0.12823,  -0.14853,   0.13507,  -0.09386,  -0.12120,   0.08040,   0.00523,  -0.00844,  -0.03578,   0.21024,   0.03939,   0.11457,   0.10090,  -0.17587,  -0.13486,  -0.02894,   0.04623,  -0.02211,   0.02573,  -0.06311,   0.08040,  -0.03236,   0.02914,   0.05990,  -0.07678,  -0.05286,   0.06673,  -0.08703,  -0.09045,  -0.01527,   0.00523,   0.15898,   0.08040,   0.23416,   0.00864,  -0.01186,  -0.17587,   0.03598,   0.07015,  -0.02553,  -0.04261,  -0.08703,   0.17949,   0.04281,   0.09065,  -0.18270,  -0.00161,   0.13507,   0.00181,  -0.01869,   0.08040,   0.15557,   0.00864,  -0.13486,   0.01206,   0.03598,   0.04965,  -0.15537,   0.05648,   0.11798,  -0.10753,   0.23757,   0.07356,   0.03939,   0.12823,  -0.09728,   0.10773
   0.05648,  -0.03578,   0.04623,   0.18974,   0.19999,   0.05306,  -0.13828,  -0.01186,  -0.02553,  -0.06653,  -0.04261,   0.11457,  -0.14853,   0.02573,   0.03598,   0.19315,   0.00181,  -0.05286,   0.20682,   0.02231,  -0.09045,   0.05648,   0.07698,  -0.09386,  -0.01186,   0.10090,   0.14873,   0.05648,   0.00523,  -0.07336,  -0.01869,  -0.02553,  -0.04603,  -0.02553,  -0.05628,   0.06673,  -0.05286,  -0.01869,  -0.00502,   0.11115,   0.04623,  -0.05286,   0.12140,  -0.09386,   0.05306,  -0.11778,   0.13848,  -0.01869,   0.07356,  -0.01186,  -0.00161,  -0.02894,   0.04281,  -0.15878,   0.08381,  -0.12803,   0.11115,  -0.08019,   0.01548,   0.12482,   0.06673,   0.02573,   0.03256,   0.02573,   0.04965,  -0.02211,   0.11115,   0.15898,   0.04623,  -0.08703,   0.03598,  -0.06311,   0.07015,  -0.10411,  -0.08361,  -0.00161,   0.13165,  -0.03578,   0.08040,  -0.18953,  -0.06311,   0.08381,   0.16240,   0.03939,  -0.05286,  -0.15878,  -0.09386,  -0.04261,   0.09406,  -0.06311,  -0.01869,  -0.00844,  -0.04261,  -0.00502,  -0.10411,   0.02231,  -0.10753,  -0.12461,  -0.01869,  -0.00502,   0.10773,   0.02914,  -0.17587,   0.03598,   0.02914,  -0.06311,   0.01548,  -0.01186,  -0.00844,  -0.04944,  -0.04944,  -0.00161,  -0.04261,  -0.00844,  -0.06311,   0.07356,  -0.05628,   0.02573,  -0.08019,   0.01889,  -0.16903,  -0.09045,   0.08723,   0.12823,  -0.06994,   0.07015,  -0.00844,  -0.03236
   0.12482,  -0.04603,  -0.00844,   0.09406,   0.10431,   0.24099,  -0.14511,  -0.07678,   0.03256,  -0.02553,   0.11798,   0.08723,  -0.00844,   0.00181,  -0.18612,   0.03256,   0.04965,  -0.08361,   0.14190,   0.07698,  -0.00502,   0.12823,  -0.05286,   0.04623,  -0.01186,   0.00181,   0.11457,  -0.05286,  -0.14511,  -0.00161,  -0.05628,  -0.01869,  -0.11436,  -0.11436,   0.12482,   0.26832,  -0.04603,   0.07015,  -0.16220,   0.11115,   0.07356,  -0.16562,  -0.02553,  -0.03919,  -0.05628,  -0.05969,   0.02573,   0.10431,   0.11798,   0.04965,  -0.11436,  -0.12120,  -0.05969,   0.12823,   0.03256,  -0.01869,  -0.04603,   0.00523,   0.10090,   0.01889,  -0.05628,  -0.12120,  -0.04603,  -0.04944,  -0.01186,  -0.08361,   0.09065,  -0.10411,  -0.11095,  -0.11095,   0.01548,  -0.06311,   0.15215,  -0.07336,  -0.01186,  -0.04944,  -0.01527,  -0.03578,   0.02573,   0.02573,  -0.03578,  -0.04944,   0.07356,   0.06331,  -0.10070,   0.03256,   0.21365,   0.03939,   0.06673,   0.01889,  -0.01869,  -0.17245,   0.10431,  -0.00502,   0.09748,  -0.03578,   0.04965,  -0.02894,  -0.08019,  -0.01527,   0.10431,  -0.07678,   0.01548,   0.04281,   0.01889,  -0.03578,   0.04281,  -0.04603,  -0.08703,   0.17265,   0.04281,  -0.04603,   0.01206,  -0.07678,  -0.01186,  -0.01186,  -0.06994,  -0.08361,  -0.21345,   0.05306,   0.04623,  -0.08703,  -0.15878,   0.05306,  -0.14511,   0.04623,  -0.00502,  -0.04603
   0.08381,  -0.07678,   0.01548,   0.14532,  -0.04261,   0.10431,  -0.04261,   0.08040,   0.02914,   0.02231,   0.06673,   0.05648,   0.06673,  -0.02211,   0.01206,  -0.02211,  -0.04603,  -0.19295,   0.06331,  -0.04261,   0.09065,  -0.04261,   0.05306,   0.04623,  -0.06653,   0.00523,   0.09406,  -0.00844,  -0.11095,  -0.10753,  -0.03236,   0.09748,   0.01548,  -0.00502,  -0.00161,   0.13848,  -0.02894,   0.00181,  -0.15537,   0.04965,  -0.01186,  -0.09386,  -0.01527,   0.09748,  -0.10411,  -0.00844,  -0.01527,   0.11115,   0.18974,   0.11457,  -0.19295,  -0.08361,  -0.02211,   0.01206,   0.05648,  -0.02553,  -0.10070,   0.00523,   0.16582,  -0.26470,   0.05990,  -0.04944,  -0.05286,  -0.04603,   0.00523,  -0.05628,   0.09406,  -0.06653,  -0.17928,  -0.02553,   0.01889,  -0.07678,   0.11798,   0.01206,   0.04965,  -0.01527,   0.00181,  -0.06994,  -0.02894,   0.01889,  -0.11778,  -0.10070,   0.13848,  -0.11095,  -0.06994,   0.09406,   0.08381,  -0.07678,   0.03256,  -0.01186,   0.01889,   0.06673,  -0.00502,   0.15215,  -0.05286,  -0.03236,   0.12482,   0.03598,   0.04965,   0.01548,   0.12482,  -0.04603,  -0.05628,   0.09065,   0.08040,   0.06331,  -0.13145,  -0.12461,  -0.14170,   0.12823,  -0.05969,   0.02573,   0.01889,  -0.10070,  -0.00502,   0.18632,  -0.01186,  -0.04261,  -0.19978,  -0.18612,  -0.06653,  -0.08703,   0.11115,   0.09406,  -0.12803,  -0.00844,  -0.11436,   0.08723
  -0.01527,   0.08723,   0.13507,   0.06673,   0.02231,   0.11798,  -0.04261,  -0.03919,   0.07356,  -0.23054,  -0.03236,   0.08381,  -0.00161,  -0.02211,   0.04281,   0.16582,  -0.05969,  -0.11095,   0.07015,   0.05648,  -0.24420,  -0.01186,   0.14190,  -0.18953,  -0.22029,  -0.03236,   0.10431,  -0.04261,  -0.02894,  -0.24420,   0.00864,  -0.12461,   0.09406,  -0.01186,   0.07356,   0.04281,  -0.13145,   0.04281,  -0.02211,   0.11798,  -0.07678,   0.02573,   0.00864,  -0.03578,  -0.05969,  -0.01869,   0.01889,  -0.03236,   0.09406,  -0.13828,   0.09065,  -0.13145,   0.04281,  -0.08361,   0.03256,  -0.09045,   0.16923,  -0.08019,   0.08723,  -0.07678,  -0.03919,   0.03939,  -0.10753,  -0.05628,   0.20682,   0.03939,   0.23074,  -0.08019,  -0.16562,   0.02573,  -0.01869,  -0.16220,  -0.02211,  -0.03236,  -0.08019,  -0.00844,   0.12823,   0.09748,   0.05990,  -0.07678,  -0.10070,  -0.04603,   0.08723,   0.05990,  -0.07336,   0.05648,   0.07356,  -0.10411,  -0.03578,  -0.09045,   0.05306,   0.06673,  -0.00502,  -0.10070,  -0.14511,   0.05648,   0.03256,  -0.03919,   0.05648,  -0.05628,   0.03598,   0.01889,  -0.13828,   0.01206,   0.13507,   0.09406,   0.11457,   0.00523,  -0.02894,   0.02231,   0.16582,  -0.05969,   0.09406,  -0.14170,   0.03256,   0.06673,  -0.09386,   0.05306,  -0.02211,  -0.06653,  -0.18612,  -0.09728,   0.11798,   0.05990,  -0.14170,   0.07015,  -0.12120,  -0.11778
  -0.16903,   0.07015,   0.15215,   0.02914,   0.09748,   0.12140,   0.07015,   0.02573,   0.01548,  -0.10070,  -0.11436,   0.07015,  -0.03236,   0.03939,  -0.02211,   0.09406,   0.09748,  -0.27154,  -0.02894,   0.06331,  -0.17245,   0.12823,  -0.04603,  -0.16220,  -0.06311,  -0.06994,   0.17607,   0.12140,  -0.09386,  -0.11778,  -0.08019,   0.14532,  -0.16562,  -0.17587,   0.01206,   0.27857,  -0.17587,   0.17949,  -0.00161,   0.04965,  -0.19637,  -0.09728,  -0.10070,  -0.12461,   0.12823,   0.09748,   0.00181,  -0.02211,   0.07698,   0.02231,   0.07015,  -0.16903,  -0.06653,   0.13848,   0.03598,  -0.05969,   0.06331,  -0.05969,   0.20340,  -0.21345,  -0.01869,   0.13848,  -0.14853,   0.01889,  -0.12803,   0.04623,   0.05990,  -0.13828,  -0.07336,  -0.10753,   0.01206,  -0.10411,   0.06673,  -0.04261,  -0.04603,  -0.00161,  -0.23395,  -0.01527,   0.05990,  -0.00844,   0.02573,   0.05990,   0.13848,  -0.07678,  -0.17245,  -0.04944,   0.08040,  -0.02894,   0.00864,   0.12482,   0.07698,   0.18290,   0.07015,  -0.03578,   0.02573,  -0.09386,  -0.02211,   0.08381,   0.10773,  -0.01527,  -0.02553,   0.07356,   0.02914,  -0.14170,  -0.01869,  -0.00844,   0.18290,  -0.13145,   0.07015,   0.04623,   0.05648,  -0.08703,   0.09748,  -0.13145,  -0.03236,  -0.03578,   0.03939,  -0.18612,  -0.06653,   0.11798,  -0.06994,  -0.19295,  -0.11778,   0.09748,  -0.07678,   0.06673,  -0.09728,   0.00181
   0.02231,   0.10090,   0.07356,   0.29566,  -0.03236,   0.02231,  -0.08019,  -0.00161,   0.05990,   0.02573,  -0.02894,  -0.10070,   0.04965,  -0.02211,  -0.08361,   0.04965,  -0.04603,  -0.19637,   0.07698,   0.04281,  -0.07336,   0.02231,   0.12482,   0.03939,  -0.09728,   0.00181,   0.05648,   0.09406,  -0.08703,  -0.11436,  -0.00844,   0.04965,  -0.08703,  -0.09045,   0.05648,   0.19657,  -0.19637,  -0.07336,   0.06331,  -0.00502,   0.00864,  -0.11436,  -0.00844,  -0.27154,  -0.04944,  -0.23395,  -0.15537,  -0.13145,   0.11798,  -0.00502,  -0.09386,  -0.16220,  -0.07336,  -0.03919,   0.10773,  -0.05969,   0.07698,   0.06331,   0.13165,  -0.42530,  -0.08019,   0.08723,  -0.12461,   0.00864,  -0.01869,   0.08040,   0.06673,  -0.08361,  -0.09045,  -0.04603,   0.00523,  -0.03236,   0.05990,   0.10431,  -0.13145,   0.03256,   0.00864,  -0.01869,  -0.07678,   0.06673,  -0.12120,   0.05648,   0.14873,  -0.10411,   0.01206,   0.05306,  -0.13486,  -0.22029,  -0.16220,  -0.09045,  -0.03578,   0.16582,   0.01889,   0.07698,  -0.10070,  -0.09728,   0.07356,   0.19315,   0.11115,   0.22732,   0.19657,  -0.03578,  -0.08361,  -0.08361,   0.18632,   0.08040,  -0.09045,  -0.08703,  -0.05969,   0.09748,  -0.05969,   0.09065,   0.04281,  -0.04944,  -0.00161,   0.09748,  -0.05286,  -0.11436,  -0.15537,  -0.18612,  -0.04944,  -0.01527,  -0.01527,   0.00181,  -0.15537,  -0.04603,   0.10773,   0.10431
   0.02231,   0.05990,   0.16240,   0.02914,   0.04281,   0.00864,   0.01889,   0.01889,   0.05648,  -0.11095,  -0.03236,   0.02573,  -0.20662,  -0.00844,  -0.07678,   0.03256,   0.25807,  -0.08019,   0.19999,   0.02573,  -0.07678,   0.10773,   0.09065,  -0.09386,  -0.25104,  -0.11436,   0.11115,  -0.07678,   0.17607,   0.00864,   0.03939,   0.01548,  -0.00161,   0.01206,   0.03939,  -0.13486,  -0.11095,   0.12482,   0.05306,   0.06673,   0.03256,  -0.07678,   0.16923,  -0.10070,  -0.04261,  -0.00502,   0.13848,  -0.02894,  -0.11095,  -0.02553,   0.14873,  -0.10070,   0.01548,  -0.04603,  -0.08019,   0.02573,   0.04965,  -0.10070,  -0.05286,  -0.10753,  -0.08703,  -0.01869,  -0.18612,  -0.08703,   0.05648,  -0.01869,   0.02573,  -0.09045,  -0.06311,  -0.04603,  -0.24079,  -0.06311,   0.11457,   0.05648,  -0.17928,  -0.06311,   0.17265,  -0.01186,   0.11798,  -0.10411,  -0.00502,  -0.14853,  -0.02553,  -0.03919,   0.03256,  -0.21687,  -0.10411,  -0.08019,   0.04965,  -0.06653,   0.01889,  -0.04603,  -0.04944,   0.05990,  -0.01869,   0.09748,   0.01889,  -0.08019,   0.09065,  -0.03919,   0.19657,   0.07015,   0.01206,  -0.08019,   0.29566,   0.22049,   0.07015,  -0.01527,  -0.04261,  -0.13145,  -0.05969,  -0.00844,   0.03939,   0.07356,   0.04281,   0.13507,   0.07356,   0.02573,   0.07015,  -0.01869,   0.02914,  -0.19637,  -0.12120,   0.02231,  -0.11778,   0.01889,  -0.13486,  -0.09386
  -0.00502,  -0.15195,   0.12823,  -0.02553,  -0.02894,   0.06673,   0.07015,   0.02231,  -0.05628,  -0.15537,   0.06673,   0.08723,  -0.02894,   0.28541,  -0.10070,   0.14873,   0.12482,   0.04965,   0.22390,   0.10773,  -0.24762,   0.11115,   0.06673,   0.12823,  -0.11436,  -0.08703,   0.08723,   0.14873,  -0.08019,  -0.09728,  -0.02211,   0.14873,  -0.05628,  -0.07336,   0.11457,  -0.02211,  -0.23054,   0.07015,   0.05306,  -0.10070,  -0.08703,  -0.22029,  -0.11436,  -0.02211,  -0.13828,   0.08723,   0.00864,   0.01548,   0.10773,  -0.06994,   0.05306,  -0.16562,   0.01206,   0.04281,   0.06673,   0.01206,   0.02231,  -0.01186,  -0.01869,  -0.21003,  -0.05628,  -0.11095,  -0.01527,   0.01206,   0.10431,  -0.12461,   0.03256,  -0.11095,  -0.19637,   0.01206,  -0.04261,  -0.03236,   0.03256,  -0.07336,   0.04965,  -0.05969,  -0.12803,   0.12823,  -0.00502,  -0.16903,   0.01548,   0.02231,   0.00864,  -0.01527,  -0.01527,  -0.12120,   0.02573,   0.22390,  -0.10753,  -0.05286,   0.05306,  -0.09045,  -0.18270,   0.03256,   0.01206,  -0.05969,  -0.06653,  -0.12461,   0.13848,   0.07698,   0.10090,   0.07015,   0.11798,  -0.03919,   0.00523,   0.11798,   0.11457,  -0.01869,  -0.15537,  -0.00844,  -0.03236,   0.04281,   0.05990,   0.14190,   0.08381,  -0.02553,   0.00181,  -0.03578,  -0.06994,  -0.12803,  -0.07678,  -0.04603,  -0.23737,  -0.09386,  -0.06311,   0.03256,  -0.21345,   0.03598
  -0.25445,  -0.12803,   0.19999,  -0.11095,  -0.12803,   0.07015,  -0.00844,   0.09406,   0.07698,   0.15557,   0.00181,  -0.04603,   0.04623,   0.15215,  -0.12120,  -0.01527,   0.19999,  -0.12803,   0.26149,   0.16240,   0.02231,   0.12482,   0.09065,   0.09065,   0.01548,  -0.14170,   0.01889,   0.13848,   0.22732,   0.08381,  -0.10411,   0.06331,  -0.00844,  -0.24079,   0.06673,   0.04623,   0.04965,  -0.02211,   0.08381,  -0.05628,   0.04965,  -0.21003,  -0.09386,  -0.16562,  -0.12461,  -0.10411,  -0.08703,   0.00864,   0.16582,   0.05648,   0.02914,  -0.01869,   0.00523,   0.00864,   0.05648,   0.09065,   0.03939,  -0.00161,   0.10090,  -0.28521,   0.15557,   0.00864,  -0.16220,  -0.12803,  -0.03236,  -0.11778,   0.01206,  -0.04261,   0.01548,   0.03598,  -0.00161,   0.00181,   0.08381,   0.09065,  -0.11778,  -0.00502,  -0.08703,  -0.00161,  -0.09045,  -0.05969,  -0.16903,  -0.04944,  -0.06994,   0.06673,  -0.00502,  -0.00502,  -0.02211,  -0.03578,  -0.15537,  -0.14511,  -0.05969,   0.15898,  -0.03919,  -0.02211,  -0.02894,  -0.01869,  -0.01186,  -0.06653,   0.14532,   0.26832,   0.14873,   0.11798,   0.07698,   0.01889,   0.01206,   0.05306,   0.10431,   0.05306,   0.00181,   0.00864,   0.00864,   0.12823,   0.12482,   0.12140,   0.08040,   0.04281,  -0.00502,  -0.12803,  -0.02894,  -0.13486,   0.05306,  -0.11095,  -0.00502,  -0.06311,  -0.03578,   0.00523,  -0.02894,   0.06673
   0.03256,   0.10431,  -0.03919,  -0.09386,   0.08723,   0.12482,  -0.09045,  -0.03236,   0.01889,  -0.03578,   0.01206,  -0.05628,   0.06673,   0.04623,   0.01889,  -0.06311,  -0.11778,  -0.00161,  -0.04944,  -0.00161,  -0.06653,  -0.01869,  -0.05628,  -0.07336,  -0.08703,   0.01548,   0.15898,   0.01889,   0.04965,  -0.17587,  -0.00502,   0.07698,  -0.04603,   0.03598,  -0.09728,   0.00523,  -0.02894,  -0.04603,  -0.08703,   0.04623,   0.05990,  -0.11778,  -0.04603,  -0.04603,  -0.02211,  -0.04261,   0.09065,   0.11798,  -0.12120,  -0.03236,   0.08723,  -0.05286,   0.31958,   0.02914,   0.02231,   0.03256,   0.10090,  -0.18270,   0.17265,   0.03598,  -0.05969,   0.15215,   0.02914,   0.08723,   0.11457,   0.05306,   0.00523,   0.06331,  -0.07678,   0.13165,   0.04281,   0.01889,  -0.10070,  -0.04261,  -0.06994,   0.02573,  -0.02211,   0.01548,   0.05306,  -0.01527,  -0.00502,   0.05990,  -0.04603,  -0.01869,   0.01206,  -0.10070,  -0.03236,  -0.07678,  -0.04603,   0.07356,  -0.11436,  -0.06994,  -0.03236,  -0.05628,   0.06331,   0.04623,   0.02914,   0.09406,   0.23757,  -0.02553,   0.08381,   0.02914,  -0.01869,   0.11798,  -0.12461,  -0.04944,   0.00523,  -0.05969,   0.00864,  -0.08361,   0.12823,   0.00181,  -0.08019,   0.16582,  -0.00502,  -0.00161,   0.05306,  -0.10070,   0.04623,   0.14873,  -0.03578,   0.00523,  -0.26129,  -0.03578,   0.13165,   0.09406,   0.00864,  -0.11095
   0.11115,  -0.07678,  -0.02894,  -0.03919,   0.09406,   0.22049,  -0.14511,   0.05306,   0.00523,   0.10773,   0.02914,   0.10431,  -0.02894,   0.08381,  -0.05286,   0.12140,   0.10090,  -0.17928,   0.05990,  -0.07678,   0.04965,   0.09065,  -0.02211,   0.07015,  -0.05286,  -0.03919,   0.08040,   0.02914,   0.09406,  -0.04261,  -0.14511,   0.24441,  -0.04944,   0.00864,  -0.01527,   0.10431,  -0.21345,  -0.02894,  -0.14511,  -0.12120,   0.11115,  -0.08019,   0.13507,  -0.05628,   0.10090,   0.14532,   0.05306,   0.01889,   0.09406,   0.11457,   0.00864,  -0.14853,   0.21707,  -0.02553,   0.00181,   0.04965,  -0.04261,  -0.17587,   0.22390,   0.02573,  -0.13828,   0.06673,   0.02914,   0.01548,   0.03939,  -0.04603,   0.06673,   0.03256,   0.12140,   0.01889,   0.00181,  -0.04944,  -0.02894,  -0.01186,  -0.10411,   0.14190,  -0.09728,   0.02573,   0.16582,   0.03939,   0.01548,   0.03939,  -0.08019,  -0.04603,  -0.00502,  -0.20662,   0.09406,  -0.11436,   0.01889,  -0.01527,  -0.09728,  -0.03578,   0.04623,   0.10090,   0.09748,   0.09748,   0.05306,   0.08040,   0.17265,  -0.10753,   0.02573,   0.11115,  -0.05628,   0.00523,   0.07015,  -0.04261,   0.04281,  -0.09386,  -0.07336,   0.03256,  -0.00502,   0.00181,  -0.04261,   0.10431,   0.11798,   0.01889,  -0.09045,   0.14190,   0.09065,  -0.03578,   0.04623,   0.07015,  -0.07336,  -0.05628,   0.02231,   0.11457,  -0.01186,  -0.11095
   0.15557,   0.04281,   0.00181,   0.13165,   0.08040,   0.27174,  -0.13486,   0.04623,  -0.05969,   0.15557,  -0.03236,   0.00181,   0.10431,   0.09406,  -0.01869,   0.02914,  -0.06653,  -0.08703,   0.02231,  -0.23395,  -0.07336,   0.08381,  -0.01527,   0.03256,  -0.11778,  -0.19978,   0.10773,  -0.07678,   0.18974,  -0.05286,  -0.12461,  -0.00502,  -0.05969,   0.04281,   0.16582,   0.07698,  -0.32279,  -0.12803,  -0.00844,   0.10090,   0.12823,   0.09748,   0.02573,  -0.07678,   0.00181,   0.00181,   0.05648,   0.03256,  -0.03578,   0.03939,   0.07698,  -0.14853,   0.13848,   0.03939,   0.05648,   0.12482,  -0.13486,  -0.16220,   0.08040,   0.06673,   0.03939,   0.09748,  -0.01186,   0.03598,  -0.13486,  -0.13828,   0.14190,   0.08040,   0.04965,   0.04281,  -0.09045,  -0.11436,   0.01548,   0.03939,  -0.04944,  -0.01186,  -0.11436,   0.12140,  -0.01869,  -0.11778,  -0.13145,   0.05648,  -0.20662,   0.03598,   0.09406,  -0.00502,  -0.06994,  -0.03578,   0.02573,  -0.02211,  -0.01869,   0.10431,  -0.13145,  -0.08361,  -0.20662,   0.07015,   0.20340,   0.03598,  -0.03236,  -0.13486,   0.18290,   0.04623,  -0.02553,   0.00181,  -0.13486,   0.12140,   0.15557,  -0.05286,  -0.17587,  -0.06994,  -0.00844,  -0.03919,  -0.00844,   0.05306,  -0.00502,  -0.07678,  -0.00161,  -0.10411,   0.14532,  -0.11778,  -0.02553,   0.01206,  -0.06994,  -0.05628,  -0.09728,   0.09748,  -0.12803,   0.03598
   0.03256,   0.16923,  -0.08019,  -0.15878,   0.14532,   0.05648,   0.12482,  -0.01527,   0.01548,  -0.08361,   0.07356,   0.02573,   0.05990,   0.05648,   0.14190,  -0.09728,  -0.03578,   0.00864,  -0.11095,  -0.05628,  -0.13828,   0.17949,  -0.08361,   0.01889,  -0.08019,   0.02573,   0.17607,   0.01548,  -0.01186,  -0.04261,   0.01206,  -0.05628,  -0.00502,   0.00864,  -0.01527,   0.22390,  -0.11436,  -0.07678,  -0.13828,  -0.04261,   0.08723,  -0.09045,   0.06673,  -0.06653,   0.07698,  -0.01527,   0.08040,   0.12140,  -0.01527,  -0.09386,   0.10431,  -0.11778,   0.16240,   0.25466,  -0.09728,   0.05306,   0.05990,  -0.07678,   0.11457,  -0.01869,  -0.11778,   0.01548,   0.07698,   0.06331,  -0.05286,  -0.01869,  -0.02894,   0.04281,  -0.05628,  -0.02211,   0.00181,  -0.04944,   0.00181,   0.01206,  -0.12803,  -0.02894,   0.03939,   0.11115,   0.07015,  -0.03919,   0.08040,  -0.02894,   0.12823,   0.08040,  -0.03578,  -0.16903,   0.13165,  -0.12803,   0.03598,   0.02231,  -0.05286,   0.11457,  -0.04261,  -0.03236,   0.12140,  -0.05969,  -0.06311,   0.13848,  -0.00844,  -0.00161,  -0.04944,   0.02231,   0.07015,   0.09065,   0.04965,   0.01889,  -0.08019,   0.04281,  -0.04603,   0.10431,   0.10773,   0.03939,  -0.04261,   0.04623,  -0.00844,   0.04623,   0.00864,  -0.14853,  -0.10070,   0.11798,   0.18974,  -0.04261,  -0.05286,   0.05648,   0.16240,   0.07356,  -0.01869,  -0.02211
  -0.06311,  -0.04944,  -0.06994,  -0.04944,   0.02573,   0.13848,  -0.01869,   0.03256,  -0.11095,  -0.06311,   0.03256,   0.18974,   0.02231,   0.01548,   0.03256,  -0.02553,  -0.04944,   0.05306,  -0.06653,  -0.18270,  -0.30571,   0.12482,  -0.11778,   0.15898,  -0.04944,  -0.17587,   0.03598,   0.13848,   0.07356,  -0.02553,   0.11798,   0.06673,  -0.11436,  -0.14853,   0.01548,   0.21365,  -0.02553,   0.02914,   0.05648,   0.08723,  -0.05286,   0.04623,   0.16240,  -0.00844,   0.07356,   0.17607,   0.10773,   0.06331,   0.09065,   0.11457,   0.07698,   0.02914,   0.08381,  -0.09386,   0.02914,   0.08723,  -0.10411,  -0.13828,   0.13848,  -0.09386,  -0.11778,   0.05306,   0.02231,   0.00181,  -0.07336,   0.08723,   0.12823,   0.11115,  -0.15537,   0.13507,  -0.04944,   0.14873,  -0.08019,   0.01206,  -0.11095,  -0.02211,   0.01889,   0.09065,  -0.04603,  -0.11778,  -0.02211,   0.04623,   0.02231,   0.01889,   0.04281,  -0.05628,   0.05648,  -0.20662,   0.06673,  -0.03236,   0.01548,  -0.04944,   0.05648,   0.06673,   0.10773,  -0.03919,   0.05648,   0.21365,   0.07015,  -0.01869,   0.01206,  -0.00502,  -0.01186,   0.27516,  -0.13486,  -0.04261,  -0.14170,  -0.01186,  -0.12461,  -0.09045,   0.19657,   0.13848,   0.07356,   0.12140,   0.16923,   0.03256,  -0.08019,  -0.11778,  -0.07678,  -0.08019,   0.03598,  -0.03578,  -0.09045,   0.00864,   0.08381,   0.00523,   0.07356,   0.00523
   0.18632,  -0.00844,  -0.15537,   0.01548,   0.12482,   0.09065,  -0.12120,   0.02914,  -0.03919,   0.07015,  -0.03578,   0.08723,   0.09065,  -0.00502,  -0.11436,   0.13507,  -0.06994,  -0.05969,  -0.06994,  -0.17928,  -0.21003,  -0.01527,  -0.14170,   0.24099,  -0.03578,  -0.06994,  -0.11095,   0.07356,   0.05306,  -0.03919,  -0.15195,  -0.15878,  -0.05969,  -0.09728,   0.03256,   0.21707,   0.02573,  -0.07678,  -0.06311,   0.13165,  -0.06653,  -0.11095,  -0.14853,   0.05990,  -0.05628,  -0.02894,   0.01206,   0.11457,  -0.13828,   0.16240,   0.18632,  -0.22370,   0.20682,   0.11457,  -0.07678,   0.28199,  -0.14170,  -0.23054,   0.06331,   0.07015,  -0.14853,   0.12823,  -0.09728,  -0.06311,   0.02573,  -0.01869,   0.04281,   0.08381,   0.04281,  -0.05286,   0.09065,   0.21365,  -0.03236,  -0.00502,  -0.21345,   0.03939,   0.04965,   0.05306,  -0.10070,  -0.03919,   0.14190,  -0.00161,  -0.01527,   0.07356,   0.00523,  -0.19295,  -0.01186,  -0.08703,   0.03256,  -0.09386,  -0.09045,  -0.06311,   0.07015,  -0.00161,  -0.01869,   0.12482,   0.04965,   0.15215,   0.04281,  -0.12120,   0.29908,   0.16923,   0.01206,   0.06331,   0.00864,  -0.02894,  -0.08361,  -0.04603,  -0.15878,   0.07698,  -0.17587,  -0.05286,   0.07356,   0.02573,   0.08040,   0.05990,  -0.10070,  -0.13486,   0.09748,  -0.19295,   0.01548,   0.16240,  -0.10753,  -0.11436,   0.01206,   0.11457,  -0.05969,   0.00864
  -0.00161,   0.16923,   0.03598,  -0.05969,   0.15215,   0.08040,  -0.05286,  -0.02894,   0.09748,  -0.08361,   0.04281,   0.12482,   0.13848,  -0.05628,   0.09065,  -0.02211,   0.10773,  -0.03236,  -0.03578,   0.01548,  -0.19295,   0.17949,  -0.00844,  -0.01186,   0.05648,  -0.06653,   0.10773,  -0.17245,  -0.04261,  -0.02894,  -0.03236,  -0.04944,   0.06331,  -0.02553,  -0.00502,   0.04281,  -0.06994,  -0.08361,  -0.12461,   0.06331,   0.13848,  -0.02553,   0.09748,   0.02573,  -0.08361,   0.12823,   0.13848,   0.10431,  -0.13145,   0.05648,   0.13848,  -0.12120,   0.17607,  -0.13828,  -0.08361,   0.23416,   0.11457,  -0.13828,   0.13165,  -0.02211,  -0.04261,   0.10090,   0.05990,   0.04965,  -0.07336,  -0.00161,   0.01889,   0.18974,   0.04965,   0.18290,  -0.02553,  -0.03919,   0.02573,   0.10773,  -0.06653,   0.09065,   0.23757,   0.08381,   0.15557,   0.02231,  -0.01186,  -0.10070,  -0.00844,   0.14190,  -0.06311,  -0.15195,  -0.06653,   0.02573,  -0.12461,   0.18290,   0.00523,  -0.02211,  -0.05628,  -0.01527,   0.19315,   0.02914,  -0.09728,   0.14532,   0.03598,  -0.04261,   0.10773,  -0.05969,   0.11798,   0.01206,   0.04623,   0.07698,  -0.09045,  -0.11778,  -0.09045,   0.07356,  -0.11778,   0.11457,   0.05990,  -0.02894,  -0.00844,   0.03598,  -0.06994,   0.01889,  -0.17245,   0.03256,   0.06673,  -0.04944,  -0.06994,  -0.11778,   0.01548,  -0.04261,  -0.13828,  -0.01869
   0.04965,  -0.08361,   0.04623,  -0.08703,  -0.03919,   0.00523,   0.01889,   0.04281,  -0.07678,  -0.05286,  -0.00161,  -0.06311,  -0.00502,  -0.10070,  -0.01869,   0.03256,   0.01889,  -0.03578,   0.01889,  -0.19295,  -0.12120,   0.02573,  -0.13486,  -0.04944,  -0.02211,  -0.04603,   0.17607,   0.02573,   0.10431,   0.03598,  -0.11095,  -0.05286,   0.16582,  -0.20662,   0.03256,   0.00181,   0.24441,  -0.09728,  -0.12461,   0.11457,   0.07698,  -0.12803,  -0.05286,  -0.22712,   0.08381,   0.02231,   0.05990,  -0.10070,  -0.09386,   0.30249,   0.02573,   0.01206,   0.24782,  -0.14170,   0.10090,   0.18974,  -0.04944,  -0.14511,   0.02231,  -0.08361,  -0.04261,   0.02914,  -0.00161,  -0.12803,  -0.12803,   0.05306,   0.06331,   0.10090,  -0.03919,   0.03939,  -0.15195,   0.11115,   0.03598,  -0.00844,   0.12140,  -0.06994,   0.24782,   0.15898,   0.11798,  -0.03578,  -0.27837,   0.05306,  -0.04944,   0.20682,  -0.08703,  -0.13828,   0.01206,  -0.10070,   0.11115,  -0.04944,  -0.04944,   0.08723,  -0.16220,   0.03939,   0.06673,   0.11115,  -0.04944,   0.17265,   0.03598,   0.04623,   0.12823,   0.02573,   0.03939,  -0.01186,  -0.08361,   0.05990,  -0.04603,  -0.04603,  -0.04944,   0.10431,  -0.03578,   0.17265,   0.16923,   0.02231,   0.18290,  -0.04261,  -0.15195,  -0.07678,  -0.08361,   0.03598,   0.07015,   0.04281,  -0.16220,  -0.18953,  -0.05969,   0.05306,  -0.00844,  -0.10070
