   0.02711,   0.02446,   0.05899,   0.01250,  -0.01008,   0.05501,  -0.00344,   0.08025,  -0.07119,   0.00984,   0.00719,  -0.05259,  -0.00344,   0.03110,  -0.01540,  -0.08049,  -0.03266,   0.01516,   0.05235,   0.04040,  -0.05923,   0.03243,  -0.12167,  -0.01805,   0.04970,  -0.00211,   0.00719,   0.05899,  -0.03001,   0.02180,   0.01250,  -0.07650,  -0.00743,  -0.04993,  -0.03266,  -0.01805,   0.02180,   0.00586,  -0.02204,   0.01250,   0.03375,  -0.01672,  -0.01805,  -0.00078,  -0.01540,   0.03508,  -0.02204,  -0.03798,  -0.02337,  -0.00875,  -0.04728,  -0.01141,   0.02047,   0.01117,   0.01649,   0.04970,  -0.00211,   0.00055,   0.08689,   0.09486,  -0.03001,   0.07759,  -0.01672,   0.03774,  -0.01540,  -0.03665,   0.02180,   0.03907,  -0.03001,   0.00187,  -0.02071,   0.01781,  -0.01008,  -0.02469,  -0.06986,  -0.03532,   0.02180,  -0.04595,  -0.03399,  -0.03266,  -0.02868,  -0.05658,  -0.02071,  -0.04728,   0.00984,  -0.02071,   0.02711,   0.04970,   0.00055,   0.00320,   0.01516,  -0.02868,   0.05235,   0.04837,   0.00320,   0.03508,  -0.08049,  -0.00875,   0.00852,  -0.03266,   0.01914,  -0.05790,  -0.02337,  -0.07252,   0.04970,  -0.00078,   0.01781,   0.01250,   0.00320,   0.01649,   0.04305,  -0.03266,  -0.04595,   0.02047,   0.04040,  -0.01540,   0.00984,  -0.02204,  -0.06189,  -0.02204,  -0.00078,  -0.04196,   0.00453,  -0.08846,  -0.03665,   0.00984,   0.07892,  -0.00078,   0.02578,   0.01649,  -0.04196,  -0.04462,   0.05767,   0.05368,   0.06962,   0.02844,   0.00984,  -0.03001,  -0.02868,   0.01914,   0.01117,  -0.04196,   0.02047,  -0.01540,   0.00055,  -0.07916,   0.03243,   0.01516,  -0.00875,  -0.02735,  -0.01540,   0.04040,   0.02578,   0.03907,   0.03774,  -0.01407,  -0.03001,  -0.02735,  -0.05525,  -0.00344,   0.00984,  -0.08314,  -0.01008,  -0.02469,   0.03907,   0.02180,   0.03243,   0.00055,  -0.00610,   0.02711,  -0.01008,   0.03243,  -0.01407,   0.00852,  -0.00875,   0.01117,  -0.06720,  -0.06056,   0.01781,  -0.08713,  -0.01672,   0.00453,   0.05102,  -0.05525,   0.00453,   0.02446,   0.10682,  -0.04196,   0.05102,  -0.04063,  -0.01805,   0.01250,  -0.02071,  -0.07252,  -0.00211,   0.03110,   0.01383,  -0.00344,   0.04040,   0.07892,  -0.06853,  -0.01008,  -0.10041,  -0.00875,  -0.03532,  -0.01672,  -0.02337,  -0.00610,   0.00187,  -0.03266,  -0.04196,  -0.02868,  -0.00743,  -0.00078,   0.09088,  -0.05126,  -0.05392,   0.00984,   0.00852,  -0.03798,   0.01383,  -0.01540,  -0.04063,   0.05102,  -0.00211,   0.04970,   0.01781,  -0.01407,   0.05634,  -0.04993,   0.01117,   0.04173,  -0.05658,  -0.03665,   0.00453,   0.05368,   0.03243,  -0.00875,   0.02578,  -0.05126,  -0.05923,  -0.01407,  -0.06720,   0.01117,   0.04571,  -0.02337,  -0.03001,   0.10947,  -0.03001,   0.01781,  -0.03798,   0.03110,   0.02313,  -0.00743,   0.05368,   0.08689,   0.00320,  -0.09377,  -0.02204,  -0.02602,  -0.04861,  -0.03001,  -0.03931,  -0.01540,  -0.06189,  -0.04728,  -0.04993,   0.04173,   0.04305,   0.02977,  -0.02868,  -0.06322,  -0.05923,  -0.04196,   0.04173,  -0.01672,  -0.03532,   0.01914,  -0.01540,   0.01383,  -0.00211,   0.06431,   0.02844,   0.00055,   0.01649,  -0.06986,  -0.03399,   0.02446,  -0.04728,  -0.06455,  -0.00477,   0.00055,   0.00586,  -0.00875,  -0.07650,  -0.04728,  -0.04462,  -0.01938,  -0.03665,  -0.07252,   0.00586,  -0.05392,   0.02977,  -0.06056,  -0.00477,  -0.02337,  -0.03532,   0.04305,  -0.00211,   0.00719,   0.02977,   0.04438,  -0.07517,   0.03641,  -0.04196,  -0.03266,  -0.04329,   0.04704,  -0.06853,  -0.02602,  -0.02071,   0.01117,   0.02313,  -0.07384,  -0.01672,  -0.03266,  -0.01672,  -0.02071,   0.03907,  -0.08181,  -0.01008,  -0.00743,  -0.00078,   0.04704,  -0.03798,  -0.08713,   0.05102,   0.05368,   0.01117,  -0.06322,   0.06564,  -0.06853,   0.00187,   0.01649,  -0.01938,   0.04438,  -0.01540,   0.00055,   0.04040,   0.02578,  -0.02071,   0.01250,  -0.04196,   0.01914,  -0.07650,   0.03641,  -0.04329,   0.02977,  -0.00610,   0.06962,   0.05368,   0.05102,  -0.00211,  -0.00344,  -0.01274,  -0.02868,   0.04837,   0.02977,   0.04173,   0.04970,   0.05368,   0.05634,   0.03641,  -0.02735,  -0.06986,   0.00187,   0.01781,  -0.05525,  -0.00211,  -0.02868,  -0.02469,  -0.03798,  -0.01805,   0.04040,  -0.05790,   0.04305,  -0.06986,   0.00055,  -0.02469,   0.01649,  -0.08447,  -0.06720,   0.04305,  -0.03134,   0.01117,  -0.01938,   0.00586,  -0.06986,   0.02180,   0.06165,  -0.00211,  -0.07384,  -0.04728,  -0.00211,  -0.00477,  -0.03001,  -0.03266,   0.00719,   0.02578,   0.04040,  -0.04462,  -0.04063,   0.01649,  -0.06587,   0.02047,  -0.00743,  -0.00743,  -0.03665,   0.02180,  -0.02204,  -0.04063,  -0.01274,   0.06564,  -0.08713,  -0.04329,  -0.03399,   0.01649,   0.03907,  -0.00477,  -0.01141,   0.06032,  -0.00078,  -0.03931,   0.00586,  -0.00078,   0.01781,  -0.04462,   0.05634,   0.02446,  -0.00875,  -0.08181,  -0.00610,   0.02711,   0.00055,  -0.01407,   0.08423,  -0.00477,  -0.01274,   0.02047,  -0.04063,  -0.04861,  -0.01141,   0.03110,  -0.01008,  -0.02868,   0.02180,   0.06431,  -0.02337,   0.02446,   0.04305,   0.00187,   0.01516,  -0.00078,   0.04173,   0.02047,  -0.00477,  -0.04329,   0.04040,  -0.10041,   0.00719,   0.02446,  -0.01805,   0.01117,  -0.04462,   0.00719,  -0.01407,  -0.00344,  -0.00344,  -0.04196,   0.00055,  -0.03001,  -0.03001,   0.01649,  -0.05392,  -0.03931,  -0.01672,  -0.06986,   0.01383,   0.06165,  -0.00211,  -0.00078,  -0.02204,  -0.01938,   0.04704,  -0.01407,   0.08025,  -0.03532,   0.04173,  -0.01672,   0.01781,   0.04305,  -0.00743,  -0.06587,   0.05767,  -0.00344,  -0.01008,  -0.06322,  -0.03001,   0.01914,   0.08689,   0.01914,  -0.04861,  -0.04196,   0.00586,  -0.03665,   0.05102,  -0.04595,  -0.04196,  -0.06986,  -0.03266,   0.07493,  -0.00610,   0.01649,  -0.03134,  -0.00610,   0.00055,   0.04305,   0.03243,   0.01383,   0.03110,  -0.01938,  -0.00078,  -0.03665,  -0.04063,   0.08423,  -0.01805,   0.00586,  -0.02469,   0.00586,   0.00453,  -0.02469,  -0.00743,  -0.01008,   0.00852,  -0.08049,   0.05235,  -0.01407,  -0.00211,   0.00055,   0.01516,  -0.02602,   0.00055,   0.04040,   0.01516,   0.02711,   0.01516,   0.00055,  -0.08049,   0.01117,   0.06032,  -0.01407,  -0.10041,   0.00586,   0.00984,   0.02180,   0.05634,   0.07626,  -0.01407,   0.04837,  -0.02204,   0.00187,   0.01649,  -0.01141,   0.03243,  -0.00477,  -0.02469,   0.00055,   0.02047,   0.01383,   0.07759,  -0.02735,   0.01383,  -0.02204,  -0.02071,  -0.03001,  -0.04595,   0.00320,   0.00984,   0.05634,  -0.03665,  -0.03665,   0.00719,   0.01649,   0.00055,  -0.00875,   0.01117,  -0.00211,  -0.01274,   0.04305,   0.04970,  -0.02071,   0.02711,   0.01914,   0.02578,  -0.00477,   0.01117,   0.00719,  -0.04993,   0.00055,  -0.05259,   0.03641,   0.03907,  -0.04196,   0.00719,   0.02578,  -0.04462,   0.07493,  -0.07384,  -0.02735,   0.01250,   0.00320,   0.06829,  -0.05392,  -0.00078,   0.05634,  -0.04329,   0.01914,  -0.00078,   0.02047,   0.05501,   0.02977,   0.03907,   0.03641,  -0.06455,   0.03110,  -0.02204,   0.00984,   0.04305,  -0.01141,  -0.01008,  -0.01008,  -0.06189,  -0.01805,   0.04438,  -0.03532,   0.03508,   0.00852,   0.00852,   0.02313,  -0.01540,   0.01781,  -0.03266,   0.05368,  -0.00875,   0.00852,  -0.01008,   0.00719,   0.03243,  -0.01938,   0.08822,  -0.04196,  -0.02337,   0.04040,   0.01781,  -0.09111,   0.00719,   0.02977,  -0.01274,   0.00984,   0.06829,  -0.01672,   0.01250,   0.03110,  -0.06853,  -0.01938,   0.03907,  -0.02469,  -0.06189,  -0.02071,   0.01649,   0.03508,   0.03243,   0.04040,  -0.00875,   0.00984,  -0.04728,   0.06032,   0.05102,   0.00852,  -0.00875,  -0.02469,  -0.06720,  -0.00875,   0.06165,   0.02047,  -0.02868,  -0.03001,  -0.01407,  -0.01141,   0.07361,   0.03243,  -0.05525,  -0.00477,   0.03907,  -0.00610,   0.04040,   0.04438,  -0.02868,   0.00453,   0.03243,   0.02047,   0.06431,  -0.03399,   0.00719,  -0.08049,   0.06696,   0.03375,  -0.01672,   0.01516,   0.05501,  -0.02735,  -0.03134,   0.02446,  -0.04196,  -0.04063,  -0.04329,  -0.02204,  -0.02071,   0.00984,  -0.02071,   0.02844,   0.06298,  -0.02204,   0.00586,  -0.05658,  -0.00211,   0.01649,   0.03641,  -0.04993,  -0.00344,   0.02711,  -0.00078,   0.00984,   0.02313,   0.07493,  -0.12299,   0.04040,  -0.01805,  -0.04329,   0.02180,   0.04305,   0.00055,  -0.03001,  -0.05923,   0.00852,  -0.02337,  -0.04063,  -0.03665,   0.08158,   0.08689,   0.00453,   0.01250,  -0.09776,  -0.04462,   0.03508,  -0.03532,  -0.01274,   0.02313,   0.00187,   0.03907,   0.03774,  -0.06322,   0.03110,   0.02446,   0.02578,   0.02711,  -0.03001,   0.04173,   0.03907,   0.04305,   0.02711,  -0.05392,   0.01914,   0.02446,  -0.01274,  -0.02071,   0.00320,   0.00453,  -0.05126,  -0.03931,  -0.00610,   0.00586,   0.01781,   0.00320,  -0.01540,   0.05368,  -0.06455,   0.00586,   0.02977,  -0.05259,  -0.04329,  -0.05259,   0.01649,  -0.04595,   0.01250,  -0.07384,  -0.01274,  -0.02071,  -0.03266,  -0.01141,   0.01117,  -0.04063,  -0.03001,   0.00719,  -0.02204,  -0.02602,   0.03508,   0.09353,  -0.02735,   0.01516,  -0.08314,   0.00852,   0.04438,   0.01250,  -0.00078,  -0.00875,   0.01781,   0.04173,  -0.08049,   0.04970,   0.05102,  -0.02735,  -0.01008,  -0.02337,   0.03110,   0.05102,  -0.07650,   0.09486,   0.07361,  -0.04595,  -0.00344,   0.01250,   0.00719,  -0.04063,  -0.07650,   0.04173,  -0.03266,   0.02446,  -0.02602,   0.01649,   0.02711,   0.04571,   0.01250,  -0.03798,   0.00320,  -0.05923,   0.02977,  -0.07119,  -0.01008,   0.00984,   0.03508,  -0.02204,  -0.06189,   0.00852,  -0.08846,  -0.04063,   0.02180,  -0.00344,  -0.03399,   0.00055,   0.02180,  -0.05790,  -0.00477,   0.02844,   0.02711,  -0.01540,   0.06962,   0.07361,   0.01914,  -0.03665,   0.02446,  -0.00211,  -0.02602,  -0.05658,  -0.00875,   0.01649,   0.02446,  -0.00078,   0.05899,  -0.12831,  -0.04728,   0.02313,  -0.00477,   0.00586,  -0.00477,   0.00187,   0.08556,   0.00187,   0.08556,   0.05102,  -0.04595,   0.02047,   0.01649,  -0.01141,   0.03907,  -0.01540,  -0.01805,   0.01649,  -0.00344,  -0.05126,   0.00453,   0.01914,  -0.01938,   0.04305,   0.00453,  -0.08846,   0.03375,   0.01383,   0.05368,  -0.00477,  -0.01540,  -0.00875,   0.01781,  -0.00875,   0.00719,  -0.08447,  -0.01540,   0.02977,  -0.01672,   0.05767,  -0.01141,   0.03508,  -0.04329,   0.01649,   0.05501,  -0.01274,   0.02446,   0.01250,   0.05235,   0.07228,   0.01383,   0.00719,   0.02977,  -0.03798,  -0.05923,   0.00586,   0.10814,   0.00984,  -0.02735,  -0.02071,   0.01516,   0.06962,  -0.00211,  -0.01407,   0.01117,   0.00187,  -0.06986,  -0.05525,   0.00055,  -0.03399,  -0.00078,   0.02047,   0.04571,   0.00453,  -0.02735,   0.04438,   0.00852,   0.03110,  -0.02735,   0.04173,  -0.08713,   0.01649,  -0.02337,  -0.02469,   0.04305,   0.00984,  -0.02337,  -0.00610,   0.02446,   0.02446,   0.01383,  -0.03399,  -0.00743,  -0.05525,  -0.08314,  -0.01672,   0.02578,   0.02180,  -0.05658,   0.08423,  -0.01540,  -0.10971,   0.02313,  -0.00875,  -0.00875,  -0.01141,  -0.01008,   0.01781,  -0.06455,  -0.02602,   0.00586,   0.01250,   0.00719,  -0.04196,  -0.03532,  -0.01274,   0.00055,   0.05368,   0.04970,   0.01649,   0.05899,  -0.02602,  -0.01938,   0.02047,   0.01516,   0.01117,   0.05634,  -0.05259,   0.02180,   0.04438,   0.02180,  -0.02337,   0.02844,   0.00852
   0.06431,   0.01516,  -0.01274,  -0.03665,   0.02313,  -0.02071,   0.02446,   0.07095,   0.00187,  -0.02071,  -0.00344,  -0.01274,   0.00719,   0.02711,  -0.01008,   0.03641,   0.07361,  -0.07119,  -0.06986,   0.07228,   0.00453,   0.04040,   0.00984,  -0.10971,   0.06298,  -0.02204,  -0.07650,  -0.00610,   0.01383,  -0.05790,   0.02047,   0.01250,  -0.02337,  -0.03266,  -0.08049,   0.03110,   0.02844,   0.00320,  -0.02469,  -0.00477,  -0.02735,  -0.00211,   0.01383,   0.04040,   0.00453,   0.04040,   0.01781,   0.01383,   0.00984,  -0.02071,  -0.08447,   0.05102,   0.06431,   0.04837,  -0.00610,   0.02313,   0.03375,   0.04040,  -0.00477,   0.03110,  -0.01141,  -0.03399,   0.01383,   0.04305,   0.01781,   0.00984,  -0.07252,  -0.09111,   0.04173,  -0.01540,   0.01383,  -0.02204,  -0.06056,  -0.05126,  -0.01274,  -0.01141,   0.03243,  -0.04329,  -0.02602,   0.00719,   0.01914,  -0.01407,  -0.00477,  -0.02204,   0.03774,   0.03641,  -0.05790,  -0.05790,   0.01516,   0.00586,  -0.00211,   0.00984,  -0.08846,   0.00586,  -0.01407,   0.02578,   0.00187,  -0.00743,  -0.00477,  -0.01805,   0.02047,   0.01781,   0.06032,  -0.00477,   0.02313,  -0.02204,   0.03110,   0.00984,  -0.06056,  -0.04595,   0.05501,   0.03243,   0.08158,   0.02047,  -0.03399,  -0.06986,   0.00320,   0.00852,  -0.01274,   0.06696,   0.05634,   0.01914,  -0.04196,   0.03907,   0.01383,   0.05899,   0.06431,  -0.04993,  -0.01407,  -0.01407,  -0.01274,   0.04438,   0.03243,   0.04571,  -0.00211,  -0.04861,   0.02578,  -0.02204,   0.02047,  -0.05658,   0.01649,   0.02446,  -0.05126,  -0.04196,  -0.01008,   0.01649,  -0.02868,   0.01781,   0.04837,  -0.03134,   0.00852,   0.04305,  -0.01540,  -0.00211,  -0.03134,  -0.00477,  -0.06189,   0.07361,   0.03774,   0.00320,  -0.03266,   0.07361,  -0.03399,   0.07361,   0.03774,   0.00984,  -0.13495,  -0.00610,  -0.01805,   0.04438,  -0.04196,  -0.01008,  -0.00610,   0.02313,   0.06032,  -0.08049,   0.00984,  -0.01540,   0.02313,  -0.03532,   0.04040,  -0.05126,   0.08556,  -0.01805,  -0.01938,   0.02844,  -0.01141,  -0.01938,  -0.01008,   0.05501,   0.02977,  -0.02071,  -0.02469,  -0.01938,  -0.00211,   0.04837,   0.04571,  -0.00477,  -0.04861,   0.00586,  -0.01407,  -0.01805,   0.01781,  -0.01141,  -0.05259,  -0.00610,   0.00984,  -0.04329,  -0.07517,   0.00320,   0.00852,   0.07493,   0.02180,   0.00055,  -0.05259,   0.03110,   0.03641,   0.01117,   0.05501,  -0.03532,   0.09752,  -0.00211,  -0.07252,  -0.03001,   0.02844,  -0.02868,   0.06298,   0.04704,   0.01914,  -0.03665,   0.00852,  -0.05259,  -0.06455,   0.03774,  -0.01805,  -0.01672,  -0.02071,   0.03243,   0.00055,   0.02977,  -0.00078,   0.03641,   0.04305,  -0.05525,  -0.00875,   0.02313,  -0.04861,  -0.01407,  -0.07916,   0.00984,  -0.01672,  -0.01141,  -0.00477,   0.01250,   0.05634,   0.05235,   0.00055,   0.00719,   0.01914,   0.00852,   0.02047,   0.02313,  -0.01407,  -0.06986,  -0.06322,  -0.01274,   0.01781,  -0.00875,   0.06032,  -0.02204,  -0.02204,  -0.06056,  -0.05658,   0.07228,  -0.04462,   0.06829,  -0.00078,   0.05767,   0.01117,   0.03243,  -0.04728,   0.07892,  -0.01540,  -0.00211,  -0.06720,  -0.03134,  -0.01274,  -0.01008,  -0.07517,  -0.04196,  -0.00078,   0.03110,   0.02977,  -0.01938,  -0.03798,   0.08423,  -0.01008,   0.03641,   0.02711,   0.02711,   0.03110,  -0.03931,   0.04438,   0.07626,   0.01516,  -0.00875,   0.05102,   0.02844,  -0.01672,  -0.01274,  -0.08580,  -0.05923,  -0.01008,   0.03243,  -0.07916,   0.05899,   0.01781,   0.04438,   0.05501,   0.01649,  -0.02602,   0.01516,   0.01914,   0.05899,   0.00187,  -0.01540,  -0.04993,   0.02711,   0.07228,   0.06829,   0.00984,   0.06564,   0.04704,   0.07361,   0.02977,  -0.01274,   0.03243,  -0.07650,  -0.06189,   0.06431,  -0.00875,  -0.03134,  -0.06322,  -0.00743,   0.06032,   0.04970,  -0.04196,   0.01516,   0.04571,   0.01914,   0.02047,   0.02844,  -0.03798,   0.05368,  -0.00344,   0.04970,  -0.08713,   0.02047,   0.01781,  -0.01008,   0.01516,  -0.06322,   0.01516,   0.04173,   0.04571,  -0.02469,  -0.00610,   0.00852,  -0.04595,  -0.03001,   0.05634,   0.01250,   0.02578,  -0.00875,  -0.09510,  -0.02469,   0.01649,  -0.03001,  -0.01672,   0.03375,  -0.00875,  -0.03001,   0.04040,  -0.01672,   0.00055,   0.00852,  -0.02602,  -0.08181,   0.05501,  -0.03798,  -0.03798,   0.00719,  -0.03532,  -0.01008,   0.07892,   0.00719,   0.00984,  -0.03266,  -0.02469,   0.03907,   0.03375,   0.04571,  -0.07384,  -0.02204,  -0.02868,   0.01383,   0.00852,  -0.03399,  -0.05923,  -0.01274,   0.01781,  -0.02868,   0.09752,   0.00453,  -0.04063,   0.00055,   0.06696,   0.04305,  -0.02602,   0.02711,  -0.06853,   0.01914,   0.01649,   0.05501,   0.01250,  -0.01141,  -0.00743,   0.02047,   0.04704,   0.01914,  -0.00610,   0.01250,   0.03641,   0.03243,  -0.00078,   0.03641,  -0.02735,  -0.01274,   0.01516,  -0.02337,  -0.03665,   0.03375,   0.03243,  -0.02204,   0.02047,   0.06298,  -0.01672,   0.02844,  -0.02469,  -0.03532,   0.01250,   0.05501,   0.00187,  -0.02868,   0.01117,  -0.03134,  -0.00477,   0.01649,   0.07361,  -0.00743,  -0.00743,  -0.00875,   0.02180,   0.03508,   0.02446,  -0.05392,   0.02313,  -0.02602,   0.01781,   0.03243,   0.00984,   0.00320,   0.04173,   0.04040,   0.00984,  -0.00211,   0.03641,   0.04305,  -0.02469,   0.00586,   0.01383,   0.09353,   0.02313,   0.03243,   0.01781,   0.01649,   0.05102,   0.01117,   0.10416,  -0.01008,   0.08556,   0.00586,   0.04040,  -0.10041,   0.04173,  -0.03931,  -0.03798,  -0.03665,   0.01250,   0.00453,  -0.08181,   0.09220,   0.04571,  -0.03665,  -0.01672,   0.00055,  -0.01141,   0.00320,  -0.01540,  -0.02204,  -0.00211,   0.02711,  -0.04329,  -0.00211,   0.07626,  -0.00211,  -0.01141,  -0.00477,   0.03641,  -0.04728,   0.01383,  -0.06189,   0.06431,  -0.04993,  -0.03134,   0.05634,  -0.02204,   0.05102,   0.01781,  -0.05259,   0.02578,  -0.06720,  -0.01141,   0.03774,  -0.05392,   0.01914,   0.04837,   0.06032,  -0.03665,  -0.01805,   0.01914,  -0.00078,  -0.00078,   0.04837,   0.02711,  -0.06853,   0.03774,   0.01117,   0.03243,  -0.01274,   0.05235,   0.00320,   0.05235,  -0.03266,  -0.01141,  -0.02204,   0.00984,  -0.00078,   0.07228,  -0.03931,  -0.02071,  -0.00078,   0.02047,   0.01250,  -0.00078,   0.02446,  -0.03134,  -0.04329,  -0.00078,  -0.00211,  -0.01805,  -0.00477,  -0.03665,   0.03907,   0.06962,   0.00984,   0.06829,  -0.01274,  -0.02204,  -0.01274,  -0.08181,   0.02711,  -0.01672,   0.02180,   0.00320,   0.00320,  -0.01407,   0.04704,   0.01516,  -0.01407,   0.01781,   0.00719,  -0.02868,  -0.05259,  -0.00743,   0.02446,  -0.03266,   0.04571,   0.01781,   0.05235,  -0.09510,  -0.02469,   0.04970,   0.01516,  -0.05259,  -0.00610,  -0.00610,   0.02446,   0.01649,   0.01914,  -0.03798,  -0.00477,  -0.03665,   0.02180,   0.02578,   0.02180,   0.04173,   0.00453,   0.04173,  -0.02735,   0.00586,  -0.04462,   0.02047,  -0.01540,  -0.06455,   0.01117,   0.00586,  -0.01407,   0.00187,  -0.08049,   0.01649,   0.01383,   0.00586,  -0.03134,   0.03907,   0.01649,  -0.01274,  -0.03399,   0.03375,  -0.02337,   0.02446,   0.04305,   0.02977,   0.05501,  -0.01407,  -0.01540,  -0.02204,  -0.01938,  -0.02337,  -0.07252,  -0.05259,   0.00719,   0.04704,   0.01516,   0.02844,   0.05501,  -0.03665,  -0.00610,  -0.00211,   0.03774,  -0.02868,  -0.03798,  -0.04595,   0.03641,   0.03375,  -0.01540,  -0.02337,   0.01250,   0.04704,  -0.03001,   0.00187,   0.06165,   0.08158,   0.05235,   0.08158,  -0.03532,   0.09088,  -0.00875,  -0.01141,   0.08423,  -0.02469,  -0.02602,  -0.02735,   0.01250,   0.03110,   0.03110,  -0.03532,  -0.04329,  -0.02071,   0.02578,   0.03774,   0.01914,   0.00320,  -0.01407,  -0.01938,   0.00187,   0.07493,   0.02180,   0.04970,   0.01516,  -0.01407,  -0.03665,  -0.00610,  -0.01938,   0.01914,   0.04837,  -0.05790,  -0.01672,  -0.08314,  -0.00875,   0.02844,  -0.01274,  -0.02868,   0.05235,   0.00453,  -0.03266,   0.01914,  -0.02337,   0.04305,  -0.00477,   0.02844,   0.02977,   0.00984,   0.04970,   0.05899,  -0.04595,  -0.01805,   0.02711,  -0.06587,  -0.02337,   0.00453,   0.03508,   0.03243,   0.00055,   0.04040,   0.01383,   0.03110,  -0.00477,   0.08025,  -0.01805,   0.02711,  -0.00743,   0.03375,   0.03508,  -0.00610,  -0.01805,  -0.04595,   0.02047,  -0.00078,  -0.05525,   0.01914,   0.03774,   0.06696,  -0.03134,  -0.00610,  -0.02204,   0.02047,   0.02313,   0.01516,   0.04571,   0.07361,   0.00187,   0.02180,   0.00852,  -0.02868,   0.02977,  -0.03266,  -0.05923,   0.02313,   0.00984,   0.01516,  -0.04993,  -0.07119,  -0.05259,   0.01117,  -0.05126,   0.01117,   0.02578,  -0.10174,  -0.02602,  -0.03532,   0.01914,   0.02313,   0.04305,  -0.08713,   0.03774,   0.03243,  -0.03399,  -0.01141,   0.03375,   0.00719,   0.00453,  -0.03134,   0.03375,   0.00055,   0.05102,   0.04571,   0.03774,   0.00852,  -0.02337,   0.05235,   0.01250,   0.08291,  -0.01141,  -0.04462,   0.01781,  -0.00078,  -0.03001,  -0.00344,  -0.05392,  -0.03266,   0.06829,   0.02446,   0.04571,   0.00984,   0.02977,  -0.03266,  -0.00875,   0.01914,  -0.02071,  -0.03134,   0.05899,   0.05368,   0.01781,  -0.03134,  -0.01672,  -0.01407,   0.03907,   0.00187,   0.01781,   0.00320,  -0.00477,   0.00453,  -0.07252,   0.05767,   0.03774,  -0.01008,   0.00852,  -0.10838,   0.10150,   0.00320,   0.02578,   0.03774,   0.05102,  -0.07916,  -0.04595,   0.00055,  -0.02071,   0.03774,   0.00719,  -0.06587,   0.02977,  -0.04595,   0.02180,  -0.01805,   0.02313,   0.00320,   0.00453,   0.06696,  -0.02204,   0.04704,  -0.01540,  -0.02204,   0.00719,   0.00453,   0.02313,   0.03641,  -0.04861,  -0.03134,   0.01516,  -0.00875,   0.00187,   0.00320,   0.07626,   0.01914,   0.01914,  -0.01938,  -0.05525,  -0.04993,   0.02844,   0.05767,  -0.00477,   0.04704,  -0.01407,   0.00586,   0.02180,   0.01649,  -0.01008,   0.00852,   0.04438,   0.02844,   0.00852,  -0.00743,   0.03243,   0.02313,   0.00586,  -0.02337,   0.02446,   0.04173,   0.00055,  -0.02337,   0.04305,  -0.07119,  -0.03532,  -0.00477,  -0.03798,   0.00719,   0.06165,  -0.00743,   0.09752,  -0.01407,   0.04438,   0.01516,  -0.04595,   0.07759,  -0.02469,   0.01383,   0.09885,   0.04704,   0.01383,   0.00055,  -0.03001,  -0.03134,   0.05235,  -0.05126,   0.04305,  -0.04861,   0.06431,   0.01117,  -0.03931,   0.00586,   0.01649,  -0.01008,  -0.02868,   0.06298,  -0.00344,   0.06431,  -0.01938,  -0.05126,  -0.02204,   0.04173,  -0.02204,   0.01914,   0.01516,   0.02578,   0.04704,  -0.01805,   0.02711,   0.00719,  -0.00875,  -0.00477,  -0.01141,   0.09486,   0.01383,   0.01250,  -0.02204,   0.02047,   0.03375,  -0.03532,  -0.06189,   0.02313,   0.06962,   0.02313,  -0.02204,   0.03774,   0.03375,   0.01117,  -0.00743,  -0.00344,  -0.03798,   0.01383,   0.00187,  -0.01141,   0.02844,  -0.02337,  -0.07252,   0.00984,   0.02446,   0.01383,  -0.00477,   0.05767,   0.02844,   0.00984,  -0.05525,   0.00453,   0.01781,   0.02446,  -0.04993,   0.00984,   0.00984,   0.02977,   0.02047,   0.02047,   0.00586,   0.02446,   0.03641,  -0.03399,   0.00055,  -0.02469,  -0.03266,  -0.01407,  -0.02204,  -0.02868,  -0.04462,  -0.01540,   0.03907,   0.02578,   0.00586,  -0.02204,   0.00320,   0.00984,   0.02446,  -0.01141,   0.00984,   0.03774,  -0.03798,  -0.01274,  -0.00477,  -0.00610,   0.03375,  -0.00875,  -0.02602,   0.06696,   0.00055
  -0.03399,  -0.00610,  -0.02868,  -0.02735,  -0.03665,   0.01383,   0.02313,  -0.02469,  -0.00344,   0.02313,   0.01516,   0.04305,   0.00984,  -0.00344,   0.03641,   0.06032,   0.00187,  -0.01141,   0.02844,  -0.02469,   0.02047,  -0.03001,   0.01117,   0.01516,  -0.00211,  -0.02337,  -0.00078,  -0.03798,  -0.01805,   0.02180,   0.04173,  -0.05259,   0.00719,   0.02844,   0.01649,  -0.01938,   0.02047,  -0.01805,   0.00719,  -0.01938,   0.04704,   0.03110,   0.02446,  -0.06056,   0.03774,   0.02977,  -0.02337,  -0.03665,  -0.05525,   0.00187,  -0.03266,   0.02313,   0.05235,  -0.01141,   0.07892,  -0.02735,   0.03243,   0.03375,  -0.01540,  -0.00610,   0.02180,  -0.09908,  -0.02868,   0.02180,  -0.02204,   0.02977,   0.01649,  -0.00211,  -0.00610,   0.01117,   0.01383,   0.00984,  -0.02204,   0.02047,  -0.00477,   0.01250,  -0.01805,   0.03641,   0.00187,  -0.02868,   0.01250,   0.01781,   0.04305,   0.00852,  -0.00078,  -0.02868,   0.02977,  -0.07252,   0.06829,  -0.00477,   0.05501,  -0.00477,  -0.02735,  -0.00477,  -0.06986,   0.08822,  -0.00610,  -0.03134,  -0.04595,   0.01117,   0.02047,   0.03508,  -0.01805,   0.02844,  -0.04595,   0.02313,  -0.07119,  -0.00610,   0.01383,   0.00320,  -0.02735,  -0.00477,  -0.01141,  -0.03798,  -0.02602,  -0.01938,  -0.03798,   0.05501,  -0.04196,  -0.03266,  -0.01407,   0.00852,  -0.02204,   0.00320,   0.03641,   0.00984,  -0.03399,  -0.02337,  -0.01672,  -0.03798,   0.08158,   0.04173,  -0.00344,  -0.05923,   0.03774,  -0.01805,  -0.03665,  -0.08314,  -0.00610,  -0.04329,  -0.06056,   0.02977,  -0.02602,  -0.01938,   0.06962,   0.00320,   0.04173,   0.03110,   0.04438,  -0.03001,   0.06962,   0.00719,   0.02047,  -0.05790,  -0.03532,  -0.03798,   0.02446,  -0.02469,   0.00586,  -0.03665,   0.03375,   0.01250,  -0.09643,  -0.00610,   0.04438,   0.04040,  -0.02071,  -0.04595,   0.03907,  -0.01672,   0.00320,   0.00055,   0.06165,   0.06431,  -0.00344,  -0.00477,   0.02977,   0.00984,  -0.00743,   0.04704,  -0.06587,  -0.02469,  -0.02602,   0.04571,   0.01781,  -0.00477,   0.01250,  -0.07252,  -0.02602,   0.04571,  -0.01407,   0.08291,  -0.01274,   0.00586,  -0.01008,  -0.07252,   0.01781,  -0.04462,   0.01516,  -0.03266,   0.00320,   0.02578,  -0.00875,   0.03508,   0.05501,  -0.02868,  -0.00211,  -0.07517,   0.02313,  -0.01274,   0.03110,   0.02578,   0.05368,   0.00852,  -0.01407,  -0.01407,   0.00984,   0.01117,   0.00187,   0.02446,   0.00586,  -0.00078,  -0.01008,   0.08689,   0.01250,   0.07095,   0.08025,  -0.02204,  -0.05259,   0.01781,  -0.03798,   0.06696,   0.01781,  -0.01141,  -0.01938,  -0.01008,   0.06431,  -0.06322,   0.00453,  -0.04462,   0.01383,  -0.06986,  -0.04196,   0.00453,   0.06696,  -0.00211,   0.01383,  -0.03001,  -0.08049,  -0.01407,   0.00055,  -0.08049,  -0.01938,   0.04173,   0.08025,   0.08822,  -0.04595,   0.00453,   0.04173,   0.00187,   0.03907,   0.06431,  -0.00211,   0.04305,  -0.00743,   0.05368,  -0.05126,   0.01649,   0.02711,   0.00187,  -0.00344,  -0.02469,   0.05368,  -0.01008,   0.00586,   0.01383,   0.02578,   0.07759,   0.04040,   0.03110,   0.01649,  -0.00743,   0.01250,   0.00586,   0.04173,   0.02446,  -0.01141,   0.01117,  -0.01008,  -0.02469,  -0.02337,  -0.01672,  -0.04329,   0.03243,   0.02844,  -0.00211,   0.03508,  -0.07916,   0.06032,   0.00852,  -0.02868,  -0.07916,   0.04970,   0.07361,  -0.06587,  -0.01141,   0.01250,  -0.01407,  -0.03931,  -0.03665,   0.06564,   0.01914,   0.03774,  -0.04462,  -0.00211,  -0.01274,  -0.09111,  -0.01008,   0.08025,   0.01649,   0.02047,  -0.00078,   0.00320,   0.01649,  -0.04196,  -0.01141,   0.08158,  -0.01540,  -0.02868,  -0.01008,  -0.01805,   0.08822,   0.02578,   0.00187,   0.03375,  -0.09244,   0.05634,   0.02047,   0.02711,  -0.03798,  -0.06056,  -0.06056,  -0.03399,   0.01516,   0.04837,   0.00187,  -0.00211,  -0.04196,  -0.00211,   0.00719,   0.01781,  -0.01274,  -0.07783,   0.01781,   0.02313,   0.02446,   0.01781,  -0.03532,  -0.08979,   0.00453,  -0.00743,   0.03774,  -0.04993,  -0.00875,  -0.05923,  -0.06587,  -0.03399,   0.00852,   0.03110,   0.06696,   0.12807,  -0.10440,  -0.03798,   0.04837,   0.00320,  -0.03001,   0.03774,   0.07493,   0.00852,  -0.01407,   0.02446,   0.01383,  -0.04462,   0.00852,   0.01914,  -0.03931,  -0.05923,  -0.00211,  -0.01672,  -0.02602,  -0.00344,  -0.01938,  -0.00875,   0.05368,  -0.01540,   0.04704,   0.00055,   0.07361,  -0.00610,   0.01117,  -0.00211,  -0.04861,   0.02844,  -0.02204,   0.00055,   0.06298,  -0.00078,   0.03110,  -0.00211,   0.02711,  -0.00078,  -0.08049,  -0.01540,  -0.01938,  -0.05923,   0.03508,  -0.00211,   0.00852,   0.06431,  -0.08979,   0.03375,  -0.03001,  -0.04462,   0.01117,  -0.08713,   0.02711,   0.03508,  -0.06853,   0.00586,  -0.00610,  -0.00875,  -0.01274,   0.00852,   0.01649,   0.04040,   0.01250,  -0.04196,   0.07493,   0.05235,  -0.06587,  -0.09111,  -0.01672,   0.00984,  -0.02204,   0.00984,  -0.01274,  -0.01407,  -0.03266,  -0.01672,  -0.07783,   0.00453,  -0.01672,  -0.03134,  -0.04329,   0.06564,   0.01649,   0.02047,   0.01649,   0.02047,   0.01383,  -0.02204,  -0.06056,   0.05102,   0.02977,   0.05767,  -0.02337,   0.01250,   0.07626,   0.02578,  -0.01540,  -0.03532,   0.01117,  -0.03266,   0.06165,  -0.07783,   0.07626,   0.06564,   0.01117,  -0.02735,   0.04837,   0.00719,  -0.00477,  -0.00211,   0.02446,   0.01914,   0.00586,  -0.01540,   0.00055,   0.02180,  -0.03931,  -0.04063,  -0.01008,  -0.00875,   0.02977,  -0.00211,   0.00055,  -0.02204,   0.04704,   0.00187,   0.02578,  -0.03001,  -0.01008,  -0.00477,   0.00320,   0.04970,  -0.01540,  -0.00610,  -0.01938,  -0.01672,  -0.00344,  -0.00078,   0.00453,  -0.03931,  -0.06455,   0.00320,  -0.01008,   0.05501,  -0.00078,  -0.04595,   0.01781,   0.04173,  -0.04993,   0.04438,  -0.03399,   0.04040,   0.08955,  -0.04728,   0.07361,  -0.00743,   0.05767,  -0.04462,  -0.01274,  -0.00078,   0.00984,   0.03110,  -0.03399,   0.02711,   0.02578,  -0.03399,  -0.00610,   0.07095,  -0.01407,  -0.02337,  -0.06587,   0.01250,   0.02977,  -0.01407,  -0.00344,  -0.03266,  -0.01141,   0.01781,  -0.01672,   0.06298,   0.04438,   0.00586,   0.02313,   0.03641,   0.04837,   0.07361,  -0.00610,   0.02313,   0.00586,   0.02047,   0.10150,  -0.03001,  -0.02868,   0.05102,  -0.02602,   0.03243,   0.03907,   0.04571,   0.00453,   0.01383,   0.01250,  -0.02602,  -0.00078,   0.05368,  -0.01407,   0.00719,  -0.07252,   0.03641,  -0.02071,   0.05235,   0.02047,  -0.04063,   0.04173,  -0.08713,   0.03907,  -0.03931,  -0.03665,   0.00852,  -0.01274,   0.02446,  -0.00344,   0.01117,   0.01383,  -0.01274,  -0.00743,  -0.01938,   0.02578,  -0.00610,   0.06032,  -0.01407,  -0.00477,   0.03110,   0.04571,   0.01117,   0.04571,  -0.00211,   0.04173,   0.02313,  -0.01540,   0.06829,   0.00586,  -0.08580,  -0.01805,  -0.03001,  -0.02204,  -0.05923,   0.01914,  -0.01008,   0.00453,  -0.04728,   0.06564,   0.02446,   0.06564,  -0.02868,  -0.04329,  -0.03931,   0.02047,   0.01649,  -0.01407,   0.01781,   0.02313,   0.00187,   0.04040,   0.01781,   0.02180,   0.00984,   0.05235,  -0.05658,   0.04173,  -0.03134,  -0.02071,  -0.03532,   0.00586,  -0.01672,   0.05368,   0.02711,  -0.04329,   0.06829,   0.04571,   0.03641,  -0.02071,  -0.00477,  -0.00078,  -0.00610,  -0.03134,   0.00055,   0.01250,   0.00055,  -0.01141,   0.03243,   0.02446,  -0.07252,   0.05102,  -0.00875,  -0.01274,   0.04173,  -0.00477,   0.00719,  -0.00477,   0.01781,   0.01250,  -0.07916,  -0.04063,   0.05368,  -0.04595,   0.00453,   0.05235,  -0.00078,  -0.05126,   0.04704,   0.00586,  -0.00610,  -0.03798,  -0.00610,  -0.01938,  -0.07119,  -0.02071,   0.02047,   0.06696,   0.01781,   0.04305,  -0.04462,   0.00719,  -0.04329,   0.04970,   0.02977,   0.07759,   0.02977,   0.08291,   0.05634,   0.01383,   0.00984,   0.06431,   0.04040,   0.05102,  -0.01274,  -0.03931,  -0.01141,  -0.04063,   0.04305,  -0.02071,   0.05102,   0.03375,  -0.05923,  -0.00477,  -0.04196,   0.00984,   0.08822,  -0.00743,   0.01383,  -0.08846,   0.04305,  -0.03665,  -0.03931,   0.00187,   0.06165,   0.02313,   0.08158,  -0.03532,  -0.00875,  -0.02735,   0.07892,  -0.05126,   0.09486,  -0.02602,  -0.03931,   0.00719,  -0.01540,   0.00586,  -0.03798,   0.04571,  -0.03001,   0.06564,  -0.01274,  -0.02071,  -0.02337,  -0.00875,   0.00984,  -0.05126,  -0.06986,   0.00453,  -0.06986,   0.02180,  -0.02735,   0.07626,  -0.03134,  -0.02337,  -0.04196,   0.00719,   0.05501,  -0.03931,  -0.01407,   0.02711,   0.01781,   0.00453,   0.06298,  -0.01540,  -0.03399,  -0.06853,   0.06431,  -0.02868,   0.02180,  -0.01540,   0.04305,   0.03641,  -0.05126,  -0.04861,   0.07759,  -0.03399,   0.02047,   0.00586,  -0.03134,  -0.02602,  -0.02204,  -0.00078,  -0.05126,  -0.01274,   0.02047,   0.03907,  -0.08580,   0.00453,  -0.01672,  -0.03931,   0.01117,  -0.02469,  -0.00344,  -0.01141,  -0.00477,  -0.00875,  -0.09377,  -0.02735,  -0.01274,   0.04970,   0.05767,   0.04438,   0.04837,   0.02578,   0.00187,  -0.01008,   0.07228,   0.03774,   0.00719,  -0.02071,  -0.00875,  -0.02868,  -0.02071,  -0.03134,   0.00852,  -0.01938,  -0.08314,  -0.08181,  -0.02337,   0.03110,  -0.03532,   0.01117,  -0.00477,  -0.01274,   0.02180,   0.02578,  -0.04462,  -0.00875,  -0.02071,  -0.01805,  -0.01540,  -0.00211,  -0.05525,  -0.05259,  -0.03665,  -0.02204,  -0.05259,   0.02180,  -0.00078,   0.05368,   0.05102,   0.00586,   0.07493,  -0.02602,   0.02047,  -0.00078,   0.03641,  -0.03001,  -0.03532,   0.04305,   0.01516,   0.04173,   0.03110,  -0.01141,   0.00586,   0.08291,   0.09885,  -0.06455,  -0.07783,  -0.03931,  -0.02469,  -0.00743,   0.03243,   0.03375,   0.03508,  -0.00078,  -0.01407,  -0.01540,   0.00055,   0.07095,  -0.01141,  -0.02602,  -0.01141,   0.00187,  -0.02735,   0.01250,   0.00453,  -0.01008,  -0.04861,  -0.00078,  -0.03399,   0.03907,   0.00984,   0.00719,  -0.01938,   0.03774,   0.01117,  -0.01141,   0.02578,   0.03774,   0.00719,  -0.03399,  -0.04196,  -0.03798,  -0.07384,   0.00984,  -0.03001,  -0.03266,  -0.06056,  -0.00875,   0.01383,   0.02313,   0.02711,   0.02977,   0.02711,  -0.03665,  -0.01672,   0.01781,  -0.02735,  -0.04728,   0.03110,  -0.01938,   0.00984,   0.02313,   0.02844,   0.00586,   0.01383,  -0.03665,   0.00852,   0.02180,  -0.00211,  -0.00875,   0.07361,  -0.01274,   0.06431,  -0.09908,  -0.05259,  -0.04329,  -0.00078,   0.00320,   0.00453,   0.00984,   0.03508,  -0.00211,  -0.02204,   0.02446,  -0.04728,  -0.04063,   0.09486,   0.02313,   0.01781,  -0.02071,   0.00719,   0.02446,   0.04173,   0.05634,   0.01649,  -0.01540,  -0.06056,   0.02047,  -0.05126,   0.05767,   0.00586,   0.04173,   0.08291,   0.01781,   0.00984,   0.00187,   0.02711,   0.06165,   0.02844,   0.02844,   0.06696,  -0.06587,  -0.04993,   0.06298,  -0.01141,  -0.04329,   0.01649,   0.04305,   0.01516,  -0.01008,  -0.01141,  -0.00211,  -0.03134,  -0.01274,   0.02711,  -0.00477,   0.04040,  -0.01672,  -0.01672,  -0.01938,   0.02844,  -0.01274,  -0.07916,   0.02844,   0.02047,  -0.01540,   0.00320,   0.01516,   0.05899,  -0.00743,  -0.02735,   0.02180,  -0.03266,  -0.01008,   0.00586,   0.05899,   0.04173,  -0.03931,  -0.02204,   0.00320,  -0.03532,   0.02313,   0.02578,  -0.05658,  -0.10041,   0.04173,  -0.03798,  -0.03798,  -0.04728,   0.03375,   0.04571,  -0.03665,  -0.03266,  -0.03266,   0.00984,  -0.01407
  -0.03001,   0.03375,   0.03641,  -0.04993,  -0.04462,   0.00187,   0.04305,  -0.04063,  -0.02071,  -0.02735,   0.03375,   0.05767,  -0.02602,   0.02047,   0.03907,  -0.09244,  -0.09111,   0.06032,   0.06032,  -0.04196,   0.03243,  -0.02868,   0.01781,   0.01649,   0.02446,   0.00453,   0.00320,   0.03907,  -0.03266,  -0.02204,  -0.00610,   0.02446,   0.03375,  -0.02602,   0.03907,   0.00719,  -0.01938,  -0.01141,   0.01117,  -0.02337,   0.11346,   0.02313,  -0.03266,  -0.00477,  -0.00477,  -0.05923,  -0.03532,   0.07892,  -0.00344,  -0.03134,  -0.03532,   0.06431,   0.03774,  -0.02204,  -0.00344,  -0.06853,  -0.01141,  -0.03266,  -0.03798,   0.01516,   0.00187,   0.03508,   0.02180,   0.06165,   0.00055,  -0.02868,   0.00984,  -0.07517,  -0.03399,   0.02578,  -0.10440,   0.03641,   0.01516,  -0.00211,   0.05102,   0.03375,   0.02446,   0.01383,   0.04704,   0.01781,  -0.00078,  -0.05525,   0.04305,  -0.08447,  -0.05923,   0.03110,   0.04438,   0.06564,   0.03774,  -0.02337,   0.01649,   0.00852,  -0.05525,   0.05102,  -0.01274,   0.00055,   0.04438,   0.00719,  -0.05923,  -0.08447,  -0.04595,  -0.00344,   0.01383,   0.02446,  -0.02337,   0.06962,   0.01781,   0.05767,  -0.00610,   0.01914,   0.07228,  -0.01141,   0.01649,  -0.04993,   0.00320,  -0.03399,   0.02578,   0.05899,  -0.01407,  -0.03399,   0.04040,   0.01516,   0.00187,  -0.00344,  -0.02735,  -0.04196,   0.03110,   0.07626,  -0.02071,  -0.01672,  -0.04861,   0.01781,   0.02446,   0.03375,  -0.08049,   0.02844,   0.04305,  -0.05658,  -0.02469,   0.06564,  -0.00477,   0.07361,  -0.02469,   0.07228,   0.02446,   0.03774,  -0.01540,   0.04173,  -0.00875,   0.02180,   0.01383,   0.02578,  -0.01141,  -0.06455,   0.03508,  -0.02602,  -0.00078,   0.07095,   0.02446,   0.04040,   0.06431,  -0.00875,  -0.02602,   0.00187,   0.01117,  -0.00743,   0.05501,  -0.04329,  -0.02337,   0.01649,  -0.06056,   0.02313,  -0.06056,  -0.05392,  -0.02071,  -0.03798,   0.02977,   0.01516,   0.04040,  -0.05658,   0.00055,   0.05235,  -0.02337,   0.01649,  -0.06189,  -0.03399,  -0.05790,   0.03375,   0.02711,   0.02446,  -0.00477,   0.01781,  -0.03001,   0.04040,  -0.02868,   0.00055,   0.02446,  -0.01805,  -0.06322,   0.04173,   0.01516,   0.01516,  -0.02469,  -0.01672,  -0.01274,  -0.00211,   0.05501,  -0.00344,  -0.02868,  -0.07916,  -0.02868,   0.02844,   0.04173,   0.02977,   0.03375,  -0.03134,   0.06829,  -0.05525,   0.07626,   0.00984,  -0.02735,   0.00055,  -0.00477,   0.00453,   0.00320,  -0.04728,   0.08158,  -0.02071,   0.00187,   0.01516,  -0.00743,   0.00719,   0.07493,  -0.01008,  -0.00477,   0.06564,   0.02313,   0.03907,  -0.03798,  -0.00078,  -0.02868,  -0.03931,  -0.03931,  -0.00078,  -0.00344,  -0.06455,  -0.04993,  -0.00344,   0.01250,  -0.06455,   0.03375,  -0.00344,  -0.00078,   0.00055,   0.01117,  -0.04595,  -0.01008,  -0.01274,   0.01250,  -0.03001,  -0.01274,   0.01250,   0.02313,  -0.00211,   0.03774,   0.04704,   0.02844,   0.04970,   0.00187,  -0.02735,   0.02180,  -0.03399,  -0.02868,   0.04040,   0.01781,   0.00586,   0.02047,  -0.00477,  -0.05126,   0.01516,   0.02977,   0.02446,  -0.00344,  -0.03665,   0.05634,  -0.05658,   0.03907,  -0.03665,  -0.04462,   0.00320,   0.05634,  -0.02469,   0.08423,   0.02446,  -0.01938,   0.00320,  -0.01805,  -0.01672,  -0.08447,  -0.01008,  -0.00875,  -0.02204,  -0.06587,  -0.03532,  -0.04993,  -0.00875,   0.02844,  -0.01274,   0.00453,   0.00852,  -0.00875,   0.00984,  -0.03665,   0.00320,  -0.03001,   0.03110,   0.05501,  -0.01008,  -0.01540,  -0.00875,   0.03907,  -0.00211,   0.03907,  -0.06587,  -0.08314,  -0.03001,   0.04704,  -0.02469,  -0.00078,   0.02180,  -0.06322,  -0.02602,   0.06564,   0.00852,  -0.05790,   0.00187,   0.02180,  -0.05525,  -0.01008,  -0.03399,  -0.02735,   0.02711,  -0.08447,  -0.03399,   0.01117,   0.02047,   0.09619,   0.00453,   0.03110,  -0.02204,   0.01914,  -0.01008,   0.01383,  -0.02868,  -0.03266,   0.02578,   0.04438,   0.01781,  -0.09908,  -0.00211,   0.03907,  -0.00078,   0.03774,   0.00984,   0.00586,  -0.05259,  -0.08049,  -0.03134,   0.04438,   0.00187,  -0.01407,  -0.05790,  -0.02337,  -0.05392,  -0.02071,  -0.00078,  -0.01141,   0.01781,   0.02180,   0.05899,   0.01250,  -0.05790,  -0.01938,   0.02180,  -0.01141,   0.04438,  -0.01407,   0.00586,  -0.03399,  -0.00344,   0.05767,   0.10283,   0.03641,   0.00586,   0.14003,  -0.00875,   0.01914,  -0.01672,   0.00187,   0.04970,  -0.06853,  -0.03532,  -0.00344,  -0.04728,  -0.04861,  -0.04196,   0.04173,  -0.00211,  -0.02204,   0.05634,   0.03110,  -0.05658,  -0.04063,  -0.02071,   0.08291,  -0.04993,   0.03508,  -0.03665,   0.01914,   0.02446,   0.02313,  -0.00610,   0.03774,  -0.00743,   0.01383,  -0.00477,   0.00852,  -0.06986,  -0.01805,   0.03774,   0.03375,   0.00852,   0.01250,   0.07892,   0.03243,  -0.04196,   0.00852,   0.00453,   0.02313,  -0.06720,   0.04040,  -0.07517,  -0.04595,   0.04040,  -0.02071,  -0.07384,  -0.02204,  -0.03931,   0.01117,   0.01383,   0.04305,  -0.07517,  -0.03266,  -0.03532,  -0.04196,   0.02711,  -0.06853,  -0.01407,  -0.01407,  -0.02469,   0.01250,   0.03641,  -0.02204,  -0.04329,  -0.05525,  -0.02469,   0.00187,  -0.04196,   0.00852,  -0.03001,  -0.02337,   0.04970,   0.08423,   0.04173,  -0.02602,  -0.07384,   0.02180,   0.03375,   0.04970,   0.03508,   0.01516,   0.05368,   0.00586,  -0.01805,  -0.01540,   0.02047,  -0.11768,  -0.01672,   0.01649,   0.02180,   0.05634,   0.04040,   0.04040,  -0.00344,  -0.00078,  -0.01938,   0.00187,   0.01117,  -0.05525,   0.05368,   0.08158,  -0.06587,  -0.02602,   0.04704,   0.00187,  -0.04196,   0.03375,  -0.05658,   0.06431,   0.03508,  -0.03134,   0.02578,   0.00984,  -0.02204,  -0.07783,  -0.01141,   0.00453,  -0.05259,  -0.03266,   0.00984,   0.01117,  -0.00743,   0.08423,   0.00586,  -0.00477,  -0.03001,  -0.04462,   0.05368,  -0.03001,   0.01383,   0.01914,  -0.00875,   0.05235,   0.02711,  -0.01938,  -0.02204,  -0.01540,   0.00055,   0.01516,   0.01383,   0.02844,   0.02711,   0.00586,   0.01117,   0.00586,   0.02047,   0.02313,  -0.03266,  -0.00477,   0.00187,   0.01117,  -0.00743,  -0.00211,  -0.08049,  -0.04329,   0.03907,   0.00320,   0.00586,   0.07361,   0.07095,  -0.01141,  -0.03001,  -0.00078,  -0.00610,  -0.02204,   0.00453,  -0.04462,   0.00320,  -0.02204,   0.05899,  -0.01008,   0.04438,  -0.01540,  -0.00211,   0.01117,  -0.04861,   0.04970,   0.02711,   0.04438,   0.05235,   0.02578,   0.04305,  -0.00078,  -0.07252,  -0.00610,   0.02844,   0.00586,  -0.04861,   0.00984,   0.00320,   0.02844,  -0.01407,  -0.01938,   0.06564,   0.00453,   0.02047,  -0.01008,   0.03243,  -0.00078,   0.00719,   0.03907,  -0.02337,  -0.04993,   0.04837,  -0.00610,   0.02446,  -0.01008,  -0.01805,  -0.01540,   0.02446,   0.07892,  -0.01672,   0.00984,   0.01914,  -0.00078,   0.08689,  -0.03399,   0.00984,  -0.06322,  -0.00610,   0.04438,  -0.07384,   0.01649,  -0.00875,   0.04040,   0.01914,   0.00719,  -0.06720,   0.02844,  -0.05923,  -0.03399,   0.04173,   0.07626,   0.05368,  -0.00875,  -0.02071,   0.00453,  -0.04063,  -0.00743,  -0.01141,  -0.02602,   0.05102,   0.03508,   0.02180,  -0.01407,   0.06696,  -0.02469,  -0.03931,  -0.03798,   0.00852,  -0.05126,   0.02180,   0.03110,  -0.00344,  -0.01805,  -0.01008,  -0.04993,   0.03641,   0.00719,  -0.01805,  -0.03399,  -0.03532,  -0.00875,  -0.00344,   0.01649,  -0.00211,   0.00719,  -0.03001,  -0.03134,  -0.01938,   0.07759,   0.02711,  -0.01008,  -0.00743,   0.05501,   0.02180,   0.01914,   0.06032,  -0.03665,   0.01250,  -0.00344,   0.03375,  -0.02204,   0.01649,  -0.04329,  -0.04595,   0.03508,  -0.01805,  -0.01672,  -0.03399,  -0.01938,   0.02047,  -0.00078,  -0.02337,  -0.00211,   0.05899,  -0.02602,  -0.05923,   0.03774,   0.02180,   0.08955,  -0.04728,   0.00719,   0.03243,   0.00984,   0.04040,   0.00320,  -0.03266,   0.00055,   0.00719,  -0.00211,   0.00984,   0.03508,  -0.00743,  -0.04196,  -0.02337,   0.02844,   0.01117,   0.04704,   0.00719,  -0.03798,  -0.04595,  -0.01805,   0.00320,  -0.00078,  -0.02602,  -0.00477,  -0.01407,   0.00055,   0.03641,   0.03774,  -0.03266,   0.00984,   0.02446,  -0.00344,   0.02446,  -0.00344,  -0.03665,   0.06032,   0.02313,  -0.09244,  -0.03399,  -0.02602,   0.00320,   0.00984,  -0.00344,  -0.04728,  -0.00875,  -0.06455,   0.02711,  -0.02868,  -0.02735,   0.02446,  -0.08713,   0.00187,  -0.03532,   0.02313,   0.04173,   0.03375,  -0.01938,   0.00453,  -0.05126,   0.04970,   0.03243,  -0.02469,  -0.01938,   0.00852,   0.05368,   0.04438,  -0.06853,  -0.01938,   0.02711,   0.04305,  -0.02602,   0.08025,   0.01383,   0.03774,   0.05235,  -0.02071,  -0.05525,   0.02578,   0.04704,  -0.03665,   0.03110,  -0.00078,  -0.02204,  -0.03134,   0.04305,   0.00320,  -0.02602,  -0.00743,   0.01383,  -0.11502,  -0.03532,  -0.06853,   0.03641,  -0.02868,  -0.01274,  -0.01008,   0.03774,  -0.00477,   0.00719,  -0.01141,  -0.00875,   0.06564,  -0.02071,  -0.01805,   0.03907,  -0.00477,   0.04305,  -0.00344,   0.05501,   0.01117,  -0.00875,  -0.02868,   0.02313,   0.00852,   0.04837,  -0.01407,   0.00984,  -0.01274,   0.03508,   0.05899,   0.01117,   0.07759,   0.00586,   0.05501,  -0.04462,  -0.02469,  -0.04329,   0.02844,  -0.05525,   0.02977,   0.01117,  -0.00875,   0.00187,   0.03508,  -0.04728,   0.02578,   0.02711,   0.06431,  -0.04462,  -0.05126,   0.04571,   0.00187,   0.00719,  -0.00875,   0.00586,   0.00453,   0.00187,   0.00984,  -0.04728,   0.01914,  -0.09643,   0.01914,   0.01250,   0.07626,   0.03375,  -0.09510,  -0.02204,  -0.01141,  -0.04196,   0.04305,   0.01250,  -0.01407,   0.02977,   0.01914,  -0.04861,  -0.09111,   0.02180,  -0.01805,   0.03508,  -0.06986,   0.05235,   0.01914,   0.08025,   0.01781,   0.04970,   0.00852,  -0.06720,  -0.06853,  -0.06455,  -0.01008,   0.06829,   0.02180,   0.04040,   0.01250,   0.00055,  -0.03001,  -0.03665,   0.05235,  -0.04728,   0.07493,   0.00984,   0.01250,  -0.01407,   0.02313,   0.05235,  -0.01274,  -0.01672,  -0.05126,   0.01516,   0.02844,  -0.05790,  -0.02337,   0.04837,   0.06032,  -0.00875,   0.05634,   0.03243,   0.05368,   0.01516,  -0.01672,   0.01516,   0.03907,   0.01117,   0.02711,  -0.00875,  -0.05259,   0.01914,  -0.00211,   0.00984,  -0.00477,  -0.06853,   0.04704,   0.01781,  -0.00211,   0.03508,   0.04438,  -0.00211,   0.00453,   0.05102,   0.05235,   0.00320,   0.03508,   0.02047,   0.03110,   0.05235,   0.10150,  -0.02469,   0.02844,  -0.02204,  -0.01805,  -0.00610,  -0.03798,   0.02977,   0.04438,  -0.12565,  -0.01938,   0.00320,   0.02977,   0.02180,  -0.07384,   0.07095,  -0.03399,   0.05235,  -0.03001,  -0.01938,   0.00586,  -0.05392,   0.01250,   0.01117,  -0.03532,   0.03907,   0.01117,  -0.01805,   0.03375,  -0.01141,   0.00586,   0.04438,   0.00187,   0.00055,  -0.01672,  -0.00344,  -0.00610,  -0.02204,   0.02313,   0.06298,  -0.05790,   0.04704,   0.01383,  -0.01672,  -0.00078,  -0.05525,  -0.03001,  -0.05259,   0.01649,   0.02180,   0.01250,  -0.04462,   0.02313,   0.07493,  -0.05525,  -0.04861,  -0.07252,  -0.00078,  -0.01008,  -0.02337,   0.01117,   0.03375,  -0.03266,  -0.01805,  -0.02204,  -0.02469,  -0.05525,   0.00719,  -0.01141,  -0.04196,   0.01914,   0.01117,   0.04704,   0.02047,   0.07228,  -0.00078,  -0.01008,  -0.00211,   0.08689,  -0.05923,  -0.00875,   0.01383,  -0.00610,  -0.03399,  -0.05790,  -0.02735
   0.01250,  -0.04063,  -0.00344,  -0.00078,  -0.04329,  -0.01274,  -0.04462,   0.01914,   0.01516,  -0.03665,   0.01649,  -0.04196,   0.02844,  -0.01938,  -0.02735,  -0.02602,   0.03110,  -0.01008,   0.01383,  -0.02469,   0.02180,   0.01117,   0.04040,   0.01117,   0.01516,   0.02313,   0.05634,  -0.05392,   0.02313,  -0.00078,  -0.03931,  -0.00610,   0.03375,   0.07361,   0.00453,  -0.04861,  -0.02602,   0.00852,   0.03774,   0.02446,  -0.00344,   0.02844,   0.02047,   0.01649,   0.01516,   0.02578,  -0.02602,  -0.04196,   0.02578,  -0.07916,   0.03110,  -0.01141,  -0.04462,  -0.03399,  -0.00875,  -0.04329,  -0.08447,   0.03641,   0.02180,   0.03375,   0.00187,  -0.02868,   0.00719,  -0.00875,   0.02180,  -0.02868,  -0.06189,  -0.01540,  -0.05259,  -0.01141,   0.00719,  -0.01540,   0.00984,   0.01516,  -0.01540,   0.04837,  -0.07384,   0.02047,  -0.02071,  -0.00610,   0.06298,  -0.00743,   0.01781,  -0.03001,  -0.00610,   0.11080,   0.04438,   0.11213,   0.02844,  -0.00211,   0.00187,  -0.01672,   0.04040,   0.01383,   0.08556,   0.02446,  -0.03266,   0.08423,   0.04571,  -0.00211,   0.03774,  -0.08979,  -0.00078,  -0.05790,   0.02977,  -0.02469,  -0.06189,   0.04173,   0.02313,  -0.03532,  -0.03798,   0.03907,  -0.03001,  -0.03665,  -0.04063,   0.04173,   0.00055,  -0.01008,   0.01117,   0.00320,   0.02047,   0.00187,   0.03110,  -0.07252,   0.03243,  -0.04993,   0.01250,   0.01516,  -0.02071,   0.02977,  -0.02868,   0.03774,   0.01649,   0.02844,   0.00852,  -0.01805,   0.10549,  -0.01274,   0.03907,   0.03641,  -0.00875,  -0.00610,  -0.00477,   0.03375,  -0.01672,  -0.00078,   0.00453,   0.09088,  -0.02071,  -0.01805,  -0.04462,   0.02047,  -0.00610,   0.00719,  -0.00875,  -0.02602,   0.01516,   0.02313,   0.00187,   0.01649,  -0.06455,   0.08423,   0.00055,   0.04970,  -0.05126,   0.01914,  -0.01008,   0.01117,   0.03375,  -0.01805,   0.04571,  -0.04595,  -0.00078,  -0.06455,   0.03375,   0.03508,   0.04173,  -0.01141,  -0.04728,  -0.00610,   0.04970,   0.04704,   0.02047,  -0.01274,   0.00586,  -0.01672,   0.03508,  -0.01672,  -0.03665,  -0.00477,   0.04571,   0.05899,   0.06032,   0.03243,  -0.01274,   0.03110,   0.08291,  -0.08181,   0.08689,  -0.02735,  -0.00344,   0.01649,  -0.00610,  -0.04329,   0.00586,   0.01914,   0.01781,   0.04305,   0.00453,  -0.01540,  -0.00211,   0.04704,  -0.06056,   0.04970,   0.00719,   0.00320,   0.02180,   0.02047,  -0.05259,   0.03907,  -0.03399,   0.03774,  -0.05790,   0.06431,   0.07095,  -0.00344,  -0.01407,   0.03243,  -0.03665,  -0.00078,   0.03774,   0.03508,   0.03907,  -0.00875,  -0.01805,   0.02844,   0.04173,  -0.03134,  -0.00875,   0.02578,   0.00453,  -0.00344,  -0.07384,  -0.00211,   0.04837,  -0.00344,  -0.00078,  -0.05259,  -0.00743,  -0.00610,  -0.02204,  -0.01274,   0.06032,   0.02180,  -0.04329,   0.01117,   0.00055,   0.02844,   0.04837,  -0.04329,  -0.04329,   0.04173,   0.04438,  -0.04462,  -0.06986,   0.03243,   0.04970,   0.04040,  -0.03798,  -0.01805,   0.03774,  -0.10838,   0.04173,   0.05235,  -0.01672,   0.02047,  -0.01008,  -0.01540,   0.01516,  -0.05259,   0.00719,  -0.03798,  -0.00344,  -0.02337,  -0.00875,   0.04040,  -0.03266,   0.07626,   0.03375,  -0.02071,  -0.03399,   0.02446,   0.01516,   0.00055,  -0.02071,  -0.04462,   0.02711,   0.02977,   0.00586,  -0.08979,   0.10682,  -0.01540,   0.02446,  -0.00344,  -0.00610,   0.01117,  -0.03532,   0.02578,   0.07493,  -0.03134,  -0.03001,  -0.01672,   0.00586,   0.06564,   0.00453,  -0.08049,   0.03641,  -0.02469,  -0.03134,  -0.05259,   0.04040,  -0.02337,  -0.02204,   0.08423,  -0.00344,   0.02446,  -0.03266,   0.00719,   0.02578,   0.01117,  -0.00477,   0.08291,  -0.00211,  -0.02469,   0.00187,  -0.02868,   0.04438,   0.04173,  -0.01672,   0.06829,   0.01914,   0.04704,  -0.04063,  -0.03532,  -0.07384,  -0.06853,  -0.01672,  -0.04196,   0.02180,  -0.04595,   0.05501,  -0.01274,   0.00984,   0.00586,  -0.07119,   0.00320,   0.01516,   0.05102,   0.03508,  -0.05259,   0.00984,   0.06298,  -0.02469,   0.00586,  -0.00344,   0.04837,  -0.01274,   0.01649,  -0.08447,   0.00852,  -0.05525,  -0.02071,  -0.03001,  -0.01805,   0.01781,  -0.05658,  -0.01274,   0.09486,  -0.01938,  -0.00875,   0.08689,  -0.08580,   0.01914,  -0.02071,   0.05501,  -0.00078,   0.02711,   0.00852,   0.01383,  -0.04462,  -0.00477,   0.01781,   0.08025,  -0.03665,   0.00187,   0.03110,  -0.01938,   0.00719,   0.04571,   0.01383,  -0.08314,   0.01383,   0.00984,  -0.00078,  -0.00477,   0.05102,   0.07759,  -0.06455,  -0.03798,   0.03243,  -0.08580,  -0.00344,  -0.04861,   0.00320,  -0.01008,   0.01117,   0.04837,   0.07361,  -0.00610,  -0.03532,  -0.01805,   0.03774,  -0.00078,  -0.01008,  -0.03532,   0.00187,  -0.04063,   0.05102,   0.00320,  -0.02469,  -0.02735,   0.08025,   0.01649,  -0.01938,   0.01781,   0.04704,   0.01117,   0.00453,  -0.02602,  -0.05658,   0.00586,   0.02977,   0.00852,   0.00453,  -0.00743,  -0.02868,  -0.01008,  -0.08979,   0.00055,  -0.01407,  -0.00610,   0.02844,  -0.04329,  -0.00875,  -0.02204,   0.00320,   0.04970,  -0.06056,   0.01250,  -0.00211,  -0.02469,  -0.08049,   0.03907,  -0.04595,  -0.00875,  -0.06322,   0.01914,  -0.04728,   0.02313,  -0.07252,  -0.00875,  -0.04329,  -0.03532,   0.00055,  -0.02469,  -0.03266,   0.00586,  -0.01141,   0.01914,   0.03508,  -0.08049,  -0.02204,   0.07228,  -0.01008,   0.03508,  -0.04861,   0.00453,   0.02711,   0.00453,  -0.09111,   0.00187,   0.02313,   0.04040,   0.01117,  -0.02602,  -0.01141,  -0.01672,   0.05767,  -0.02337,   0.02711,   0.03907,  -0.04861,   0.05368,   0.00453,   0.06298,   0.00320,   0.03110,  -0.00344,   0.04305,  -0.05126,   0.06564,  -0.03399,  -0.01805,  -0.02337,  -0.04329,  -0.04728,  -0.00477,   0.00055,  -0.03665,  -0.02071,   0.04040,   0.05102,  -0.07517,   0.01516,  -0.01938,   0.03641,  -0.02337,  -0.01805,   0.07228,   0.01516,   0.00320,   0.00719,   0.00187,   0.04571,   0.02844,  -0.04595,  -0.06720,  -0.00610,   0.03641,   0.01516,  -0.04462,  -0.02337,   0.00055,   0.05899,  -0.01407,   0.02047,  -0.03399,  -0.03665,   0.11479,  -0.03532,  -0.01540,   0.03641,   0.03641,   0.02313,   0.03774,   0.00586,  -0.06056,   0.05899,   0.02446,  -0.02204,   0.06298,  -0.04595,   0.00852,   0.08955,  -0.03931,   0.04173,   0.02578,  -0.01540,  -0.00344,   0.07493,  -0.01141,  -0.02204,  -0.03665,  -0.01672,  -0.03001,   0.01781,   0.00453,  -0.05259,  -0.00211,   0.02977,  -0.03266,  -0.03134,   0.03243,  -0.01672,   0.02977,  -0.00743,  -0.01141,   0.02047,  -0.01274,  -0.01805,  -0.01540,  -0.03134,   0.02977,   0.06696,   0.01649,  -0.02071,   0.01117,   0.00586,  -0.03798,  -0.06455,  -0.01672,   0.03110,  -0.00344,  -0.07252,  -0.04329,   0.02578,   0.00055,  -0.06322,  -0.05259,   0.01250,   0.02711,   0.01383,  -0.01672,  -0.02337,  -0.04462,  -0.02602,  -0.01540,  -0.00344,  -0.03001,   0.00984,  -0.01540,   0.03774,  -0.00078,   0.04040,  -0.00743,  -0.01407,   0.02446,   0.00055,   0.00984,  -0.05923,   0.06829,   0.02578,   0.02977,   0.04970,  -0.03665,   0.06564,   0.01649,   0.08291,   0.00852,  -0.03532,   0.02711,   0.01250,  -0.05259,  -0.00610,  -0.03665,   0.00055,   0.03243,  -0.05923,  -0.07517,   0.00984,  -0.00743,  -0.00477,  -0.03001,   0.04970,   0.02578,  -0.00078,  -0.01938,  -0.01672,  -0.01540,   0.04173,  -0.03532,  -0.01407,   0.00055,  -0.00743,   0.06696,  -0.01540,   0.04040,  -0.00078,  -0.01274,   0.01250,  -0.04595,   0.02977,  -0.01938,  -0.02602,  -0.00875,   0.02578,  -0.02337,   0.01250,  -0.01407,  -0.09776,   0.02446,   0.00320,   0.00984,   0.00852,  -0.04728,   0.04438,   0.00852,   0.06696,   0.05634,   0.06829,   0.05501,  -0.01672,  -0.00344,  -0.01540,   0.02047,   0.01250,   0.02313,   0.00984,   0.02313,   0.00719,   0.00187,   0.05235,  -0.00344,   0.02313,   0.01250,  -0.02735,  -0.08846,   0.05501,   0.05899,   0.01649,   0.01914,   0.11213,  -0.05259,   0.04571,   0.01250,  -0.03798,  -0.02204,  -0.02735,  -0.06322,   0.05899,   0.02047,   0.04305,   0.00852,   0.00586,  -0.05658,  -0.02469,   0.07626,  -0.01141,   0.05634,  -0.02337,  -0.01938,  -0.03266,  -0.01938,  -0.02337,   0.07892,   0.08556,  -0.04462,  -0.01141,  -0.03399,  -0.03931,  -0.02071,  -0.01141,  -0.00875,  -0.01274,   0.02844,  -0.01938,   0.03508,   0.02578,   0.01781,   0.01383,  -0.02469,   0.01516,  -0.06455,   0.00187,  -0.02469,  -0.02602,  -0.00344,  -0.02204,  -0.01274,  -0.03001,   0.01117,   0.00984,  -0.01938,   0.02711,   0.11346,   0.02047,  -0.05923,   0.04040,  -0.01141,  -0.02071,   0.05501,   0.01250,  -0.00610,   0.05368,  -0.03931,   0.01383,  -0.04861,   0.02313,  -0.02071,   0.00719,   0.01781,  -0.00875,   0.01914,   0.02578,   0.04837,  -0.00875,  -0.05923,   0.02977,  -0.02735,  -0.03266,  -0.01805,  -0.05525,  -0.07783,   0.02844,   0.02047,   0.01781,  -0.04462,  -0.01540,   0.11346,   0.02180,   0.02047,  -0.02204,   0.01914,   0.05368,   0.06165,   0.02446,   0.08291,  -0.08181,   0.06431,  -0.00875,  -0.02071,  -0.01938,   0.00984,   0.00719,   0.04571,   0.00719,  -0.02469,  -0.00477,  -0.09643,   0.02180,  -0.02735,   0.01516,   0.00055,  -0.05126,  -0.08181,  -0.02071,  -0.06189,   0.01516,  -0.00078,  -0.04063,  -0.01407,  -0.02204,  -0.02602,   0.00719,  -0.01938,   0.02313,   0.03907,   0.00187,  -0.02735,   0.03907,  -0.04196,   0.00586,   0.01516,   0.03641,   0.01914,  -0.06720,   0.02047,   0.01250,  -0.00477,   0.02446,  -0.01141,   0.02711,   0.01516,  -0.02204,   0.02446,  -0.02071,  -0.04993,   0.00320,   0.00055,  -0.00610,  -0.00344,  -0.06189,   0.03641,   0.02180,   0.01250,  -0.00743,  -0.00211,  -0.00743,   0.06165,  -0.00743,   0.03641,   0.06165,  -0.01008,   0.01781,   0.06696,   0.00055,  -0.02469,  -0.03931,   0.00586,   0.04837,  -0.03001,   0.00320,   0.00852,  -0.02337,   0.03243,  -0.04063,   0.02446,   0.00187,  -0.00078,   0.01383,   0.00320,  -0.02868,  -0.01407,   0.02047,   0.01781,  -0.04993,   0.03907,  -0.00211,   0.02844,   0.03641,  -0.00211,  -0.03798,   0.02313,  -0.02071,   0.00984,  -0.01141,  -0.04728,  -0.02602,   0.06165,  -0.01805,  -0.02337,  -0.01540,   0.02180,   0.04837,  -0.02071,  -0.01805,   0.05368,  -0.04329,   0.01383,  -0.06056,  -0.03399,  -0.08979,  -0.09908,  -0.03798,   0.03641,   0.02047,  -0.03931,  -0.02204,  -0.04462,   0.00320,  -0.01672,  -0.02469,  -0.08447,  -0.02602,  -0.01540,   0.03907,  -0.03134,   0.04970,   0.00719,   0.03641,  -0.00211,  -0.07783,   0.03508,   0.01383,   0.03641,   0.01117,  -0.03798,  -0.01672,   0.01117,   0.01117,  -0.03931,  -0.01141,   0.06032,   0.02047,  -0.03532,   0.02313,   0.00055,   0.07892,  -0.03134,   0.02313,  -0.08314,  -0.02868,  -0.00875,   0.04704,   0.01781,   0.01383,  -0.00743,   0.03375,  -0.01805,  -0.08447,   0.02711,  -0.01141,  -0.12831,   0.00320,  -0.03532,   0.02180,   0.07493,  -0.02071,  -0.08580,   0.01781,  -0.00743,   0.00187,   0.01117,  -0.05790,   0.01250,  -0.06189,   0.05767,   0.07361,   0.01117,   0.03774,   0.10549,  -0.07650,  -0.01274,   0.03508,  -0.01805,   0.06032,  -0.06720,  -0.01274,  -0.05126,  -0.05525,  -0.08049,   0.02047,  -0.02204,  -0.08049,   0.04173,  -0.00875,  -0.02204,  -0.04196,   0.03243,  -0.04063,   0.04970,   0.02977,   0.00586,   0.10947,   0.01914,   0.04438,  -0.04462,  -0.05790,  -0.01805,  -0.03266,   0.03907,  -0.00211,   0.01516,  -0.08049
   0.06431,   0.00719,  -0.01938,   0.06696,  -0.01672,   0.03641,   0.06564,   0.01383,  -0.00875,  -0.06322,   0.04438,   0.01516,   0.03375,   0.06564,  -0.05392,  -0.01274,   0.03508,   0.02313,  -0.06189,  -0.01672,   0.04305,   0.01117,  -0.02469,  -0.03665,   0.00453,   0.01781,  -0.04595,   0.02711,   0.01117,   0.05767,   0.07626,   0.00055,  -0.02868,  -0.01938,  -0.02602,  -0.02337,   0.04837,  -0.02868,  -0.05525,  -0.05259,   0.06298,  -0.03001,   0.08291,   0.00984,  -0.04595,   0.01649,  -0.02469,   0.01649,  -0.04063,  -0.03134,  -0.02337,  -0.00078,   0.03774,   0.00719,   0.02313,  -0.03665,   0.03641,  -0.01672,  -0.06189,   0.02578,   0.06962,  -0.00211,  -0.02469,   0.07626,  -0.01540,  -0.07119,   0.05501,   0.00320,   0.04837,  -0.02868,   0.00852,  -0.02204,   0.00320,   0.00852,   0.01781,  -0.05126,   0.00852,   0.01250,  -0.00078,   0.02977,  -0.02337,   0.06564,  -0.07252,   0.05501,   0.05634,   0.00055,   0.03907,   0.10682,  -0.03798,  -0.04861,  -0.08181,   0.00453,  -0.08314,   0.00453,   0.05501,   0.05899,   0.01914,  -0.02735,  -0.04196,   0.02844,  -0.06986,   0.00453,  -0.02204,   0.05501,   0.04571,   0.04571,  -0.03266,  -0.04728,   0.01781,  -0.01141,  -0.07119,   0.05634,  -0.05658,  -0.01540,  -0.01938,   0.02047,   0.01117,  -0.07384,   0.01250,  -0.07517,   0.04571,  -0.00875,  -0.00078,  -0.03001,   0.06165,  -0.07783,  -0.03798,  -0.04993,  -0.07517,   0.04970,  -0.04462,  -0.04595,  -0.01672,   0.03907,   0.02844,   0.02047,   0.01383,  -0.08979,   0.02047,  -0.04063,  -0.04196,   0.04040,  -0.01407,   0.00852,   0.03110,  -0.06455,  -0.00875,   0.05501,  -0.09377,   0.08822,   0.03907,  -0.06720,   0.00453,   0.00586,  -0.01274,   0.03774,   0.00320,  -0.09244,  -0.02602,   0.02578,   0.02977,   0.06564,  -0.03532,  -0.00743,  -0.00344,   0.01914,   0.02313,  -0.02337,  -0.00211,  -0.00610,  -0.04462,   0.03641,  -0.05259,   0.07095,   0.06564,   0.02047,   0.00187,   0.04040,  -0.01938,   0.07095,  -0.03266,  -0.04196,  -0.06056,  -0.03001,   0.03907,   0.00453,   0.05634,  -0.03399,  -0.00610,  -0.03532,  -0.00078,  -0.09244,  -0.02337,   0.03110,   0.03508,  -0.01805,  -0.00211,  -0.02602,  -0.01938,  -0.00344,   0.04173,  -0.04728,  -0.03399,  -0.00743,  -0.01141,  -0.00875,   0.03508,   0.03508,  -0.00875,   0.00187,  -0.01141,  -0.00211,  -0.03798,   0.01516,  -0.08181,  -0.02071,   0.00055,  -0.04993,  -0.03931,  -0.02868,  -0.04063,   0.02446,   0.02977,   0.02711,  -0.02071,   0.02977,  -0.11104,   0.03774,  -0.05658,  -0.04196,   0.04305,   0.00586,  -0.04462,   0.06298,   0.01117,   0.02446,  -0.00078,   0.02180,  -0.04063,  -0.00211,  -0.06322,   0.01383,  -0.04063,   0.03243,   0.03243,   0.04704,  -0.01540,  -0.04993,  -0.05658,   0.03375,   0.02047,  -0.01938,  -0.02868,  -0.08447,   0.04040,   0.04040,  -0.03001,   0.09486,   0.02313,  -0.00875,   0.00852,   0.02047,   0.00187,  -0.04196,   0.00984,  -0.01540,  -0.04063,   0.01649,  -0.05790,  -0.02204,   0.01250,  -0.05923,  -0.02868,  -0.00211,  -0.03532,   0.05235,  -0.01008,  -0.02071,   0.00320,  -0.00743,   0.02844,  -0.01805,  -0.06587,  -0.01141,  -0.04196,  -0.03532,  -0.02735,   0.02047,   0.01117,  -0.00610,   0.00055,  -0.00344,   0.04704,  -0.00875,  -0.01407,   0.01781,   0.01383,   0.04305,   0.02711,  -0.07783,  -0.00078,  -0.03001,   0.03508,   0.04571,  -0.03266,  -0.07650,  -0.02602,   0.04305,   0.01516,  -0.03266,  -0.04728,  -0.04462,   0.05899,   0.01250,  -0.04329,  -0.01274,   0.00586,  -0.00610,  -0.04728,  -0.03266,   0.04704,  -0.06455,  -0.01805,  -0.00610,   0.08423,  -0.01141,   0.02711,   0.02446,  -0.00078,   0.00187,  -0.01407,  -0.02071,   0.03641,  -0.02204,  -0.00078,   0.02180,   0.03375,  -0.07783,   0.03774,  -0.03665,   0.00852,   0.02977,  -0.03001,  -0.00743,  -0.02868,  -0.00875,  -0.03134,   0.00055,   0.02446,   0.00453,  -0.04329,   0.06962,   0.07892,  -0.04728,   0.00719,   0.00055,   0.00320,  -0.05126,   0.01914,  -0.04861,   0.03641,  -0.04462,   0.00187,  -0.02204,  -0.06322,   0.03375,  -0.01672,  -0.00078,  -0.09643,  -0.00211,  -0.04595,   0.00719,  -0.00078,   0.01117,  -0.01274,   0.01914,  -0.06587,  -0.01407,   0.02578,  -0.00875,   0.01383,  -0.03931,   0.05368,   0.01117,   0.02446,  -0.05525,  -0.02469,   0.06298,  -0.04993,   0.02313,  -0.01274,   0.06165,   0.01383,   0.02844,  -0.01008,   0.05235,   0.00586,   0.05235,   0.02446,   0.00320,   0.03375,   0.03641,  -0.00078,   0.01250,  -0.00344,   0.00719,   0.01781,  -0.01540,  -0.04595,   0.02047,  -0.01008,   0.00320,  -0.01805,   0.00719,   0.01649,  -0.02469,  -0.08314,  -0.02204,  -0.08979,  -0.02735,   0.01649,   0.02047,   0.02711,  -0.06189,   0.02977,   0.05501,   0.01383,  -0.02469,  -0.07783,  -0.05658,   0.03774,  -0.02071,   0.07626,   0.04970,  -0.01672,   0.00984,  -0.01407,  -0.01274,  -0.00211,  -0.02337,   0.00055,  -0.01141,   0.01516,  -0.01672,  -0.01008,   0.00453,   0.04438,  -0.00078,  -0.06720,  -0.00610,  -0.03532,   0.02313,   0.00719,   0.02977,  -0.04063,   0.03375,   0.02313,  -0.01008,   0.06165,  -0.04861,   0.04970,  -0.01540,  -0.03931,   0.03641,   0.04837,  -0.07517,   0.03110,   0.06431,   0.00055,   0.02313,  -0.00743,   0.08689,  -0.02204,  -0.01938,   0.01383,   0.04704,  -0.01274,  -0.08979,   0.04438,  -0.03931,  -0.01274,  -0.02204,  -0.00211,  -0.02071,  -0.00477,   0.00453,   0.01117,  -0.03001,   0.01781,  -0.02071,   0.04837,  -0.02071,  -0.00211,   0.05235,   0.01117,  -0.03798,   0.00984,  -0.00211,   0.00320,  -0.01407,  -0.02204,   0.00719,  -0.07252,  -0.04728,  -0.03532,  -0.02071,   0.02047,   0.02711,  -0.00610,   0.02180,   0.02047,   0.06962,  -0.03266,  -0.04196,  -0.08314,  -0.01274,   0.00055,   0.00984,  -0.00211,  -0.05525,  -0.00477,  -0.01407,  -0.00875,  -0.00477,  -0.02204,  -0.00078,  -0.00610,   0.01649,   0.00320,  -0.07384,   0.02047,   0.04970,   0.04837,  -0.03399,  -0.01938,   0.00055,   0.00852,  -0.02204,   0.00453,   0.02180,  -0.05259,   0.03110,   0.05102,   0.00852,  -0.00211,   0.02977,  -0.04329,  -0.00211,   0.07626,   0.04438,  -0.01407,  -0.01274,   0.00320,  -0.05658,  -0.00344,   0.04040,   0.02180,   0.01117,  -0.01805,  -0.07119,   0.04173,   0.02711,  -0.01540,  -0.07119,  -0.03266,   0.00719,  -0.02337,  -0.04595,   0.05235,  -0.05790,   0.02180,  -0.02337,  -0.01407,   0.03907,   0.08556,   0.00055,   0.01516,  -0.01008,  -0.07384,   0.02047,   0.07095,   0.04438,   0.00453,  -0.00078,  -0.02204,  -0.00344,   0.08158,  -0.01805,  -0.01540,   0.07361,  -0.00344,  -0.03134,   0.01117,   0.00719,  -0.00610,  -0.01672,   0.01914,   0.06032,   0.04571,   0.04704,   0.04571,   0.04040,   0.09885,   0.00586,   0.03375,   0.02711,   0.02446,   0.03110,   0.08025,  -0.03266,   0.05899,   0.05102,  -0.01008,   0.04704,   0.04704,  -0.00743,   0.00852,   0.01914,  -0.00078,  -0.05392,  -0.01540,   0.03508,   0.00852,  -0.03798,  -0.01008,   0.08291,   0.02446,  -0.03798,   0.01649,  -0.00344,   0.08291,  -0.08979,  -0.04993,  -0.00875,   0.00586,  -0.00477,  -0.03001,  -0.05525,   0.09353,   0.00320,   0.01383,   0.00320,   0.00187,  -0.02204,   0.02047,   0.02711,   0.01781,  -0.03665,   0.07228,   0.00586,   0.00320,   0.08822,  -0.04993,  -0.05658,  -0.04595,  -0.00875,  -0.00610,   0.02977,   0.10017,   0.03243,  -0.07384,   0.04040,  -0.01938,  -0.02071,  -0.04993,  -0.00211,  -0.04595,   0.00187,  -0.06056,  -0.06455,   0.00719,  -0.09776,  -0.01407,  -0.02071,  -0.04063,   0.00586,  -0.01407,   0.01914,   0.00055,  -0.00743,  -0.02868,   0.00320,  -0.01008,  -0.00477,  -0.04861,   0.06829,   0.01383,  -0.05126,   0.04438,  -0.03001,   0.05767,  -0.02602,  -0.05923,  -0.01540,  -0.01141,   0.00320,   0.03375,  -0.04063,   0.00320,   0.10017,  -0.02735,  -0.00477,   0.09220,   0.03774,  -0.01407,  -0.06322,  -0.01141,   0.01914,   0.08689,   0.05634,  -0.05392,  -0.01672,  -0.04861,  -0.06189,  -0.01540,   0.01781,   0.02180,   0.05235,   0.00187,  -0.04196,  -0.01805,  -0.03931,   0.01914,  -0.00743,  -0.01805,  -0.02337,  -0.01274,   0.01117,   0.00852,  -0.03931,   0.02446,   0.04704,   0.08822,   0.02711,   0.00586,  -0.00078,  -0.02868,  -0.02735,  -0.02204,   0.05634,   0.01516,  -0.03798,  -0.00875,   0.02313,  -0.03798,  -0.02337,   0.10947,  -0.00875,   0.02977,  -0.05790,   0.04438,   0.05634,   0.00719,  -0.03798,  -0.00078,  -0.05525,  -0.01938,   0.02313,   0.03110,  -0.04728,  -0.03134,  -0.07783,  -0.03798,  -0.01672,   0.05235,  -0.00477,  -0.00477,   0.10814,   0.05368,   0.00719,  -0.02337,   0.00055,   0.01781,  -0.05658,  -0.01672,   0.03375,   0.00320,   0.00320,  -0.06720,  -0.04595,  -0.07517,   0.05767,  -0.01938,  -0.04861,  -0.04595,   0.00852,   0.06165,   0.02180,  -0.02735,   0.03641,   0.07095,  -0.03665,  -0.02735,  -0.03399,   0.00187,  -0.05259,  -0.01141,   0.01117,  -0.06322,   0.02844,  -0.06189,  -0.01274,  -0.05658,  -0.04993,   0.03243,  -0.04728,  -0.01805,  -0.00875,   0.07892,  -0.04329,  -0.03266,   0.00719,   0.03110,  -0.00344,   0.03641,  -0.01141,  -0.01938,  -0.04329,  -0.05658,  -0.02469,   0.01117,  -0.01938,  -0.03134,   0.00984,  -0.07783,   0.00719,   0.04571,   0.04305,   0.00453,   0.02578,   0.02977,  -0.06455,  -0.02204,   0.05767,   0.00852,  -0.06587,   0.00719,  -0.00477,   0.07892,  -0.02204,  -0.03266,   0.02711,  -0.00477,  -0.02204,   0.02977,  -0.02602,  -0.01141,   0.04704,  -0.00743,  -0.01540,  -0.00477,   0.05368,  -0.01672,  -0.06720,   0.03375,   0.04837,  -0.00875,   0.02047,   0.02047,  -0.03532,   0.04173,   0.08291,   0.02047,   0.00852,  -0.00875,  -0.04196,  -0.01008,   0.00320,   0.02711,  -0.01274,  -0.01008,   0.03110,  -0.03532,   0.00984,   0.08689,  -0.01407,  -0.02071,   0.00187,  -0.02735,   0.08158,  -0.00477,   0.00055,   0.09752,   0.07493,  -0.03931,  -0.03798,  -0.01672,  -0.01805,   0.05102,   0.04837,   0.02711,   0.00320,  -0.02071,  -0.02204,  -0.04861,  -0.01672,   0.08025,   0.02180,   0.08025,  -0.00875,   0.00984,  -0.02204,  -0.07517,  -0.08580,   0.01250,   0.01649,   0.03508,   0.02977,   0.02446,  -0.00211,   0.02180,  -0.02204,   0.00586,   0.04438,   0.01781,  -0.01805,   0.00984,   0.02977,  -0.00078,   0.03243,  -0.00743,  -0.03931,  -0.03399,  -0.02868,   0.04571,  -0.05126,   0.02578,  -0.03665,  -0.02735,   0.01649,  -0.07252,  -0.04993,  -0.04063,   0.00453,  -0.02469,   0.01649,  -0.00078,  -0.03134,   0.01516,  -0.00078,   0.01781,  -0.08447,   0.02313,   0.00453,  -0.01141,   0.01117,   0.01914,   0.01649,   0.00055,  -0.02868,   0.04305,  -0.00211,  -0.02868,   0.01516,   0.07626,  -0.02602,   0.07095,  -0.03532,   0.04040,   0.01250,  -0.02337,   0.02446,   0.00984,  -0.03134,   0.02313,   0.07759,  -0.05259,   0.02844,   0.02047,  -0.04728,   0.02711,  -0.03665,  -0.03399,  -0.01938,   0.03641,   0.01914,   0.01383,   0.03508,   0.03243,   0.04571,   0.04438,  -0.05790,   0.01117,  -0.01008,   0.03641,  -0.02602,  -0.04196,  -0.04063,   0.00719,   0.04837,  -0.04196,   0.03243,  -0.06587,   0.06165,  -0.00344,  -0.02868,  -0.08181,   0.05235,  -0.03798,   0.05899,  -0.01274,  -0.07384,  -0.03134,  -0.08181,   0.04438,  -0.04329,  -0.04728,  -0.04063,  -0.04728,   0.00586,   0.03641,   0.00586,   0.00453,  -0.01008,  -0.00875,  -0.05790,  -0.01805,  -0.00211,  -0.00211,   0.08025,   0.04438,   0.03375,   0.02047,  -0.00078
   0.00719,   0.04040,   0.03243,  -0.02071,   0.00852,   0.02313,  -0.00477,   0.07361,   0.02180,  -0.00743,  -0.00875,  -0.00477,  -0.02735,  -0.03001,  -0.05525,  -0.01805,   0.00055,   0.03774,  -0.03001,  -0.01805,  -0.03001,  -0.03532,  -0.01938,   0.02578,   0.00055,   0.04970,   0.03641,   0.03243,   0.00852,   0.02578,   0.05235,   0.07493,   0.02313,   0.02711,  -0.00743,  -0.05658,   0.07759,   0.03508,   0.02578,   0.02578,  -0.00078,   0.03243,  -0.01805,  -0.01805,   0.00320,   0.03110,  -0.05790,   0.03641,  -0.03399,  -0.03001,  -0.00344,  -0.01141,  -0.03001,  -0.04861,  -0.03266,   0.03243,   0.02711,  -0.02868,   0.06298,  -0.02602,   0.01781,  -0.05923,   0.03243,  -0.04063,   0.01117,  -0.05923,  -0.01805,   0.01649,  -0.01141,   0.02047,  -0.04595,  -0.00078,   0.02446,   0.02711,   0.00984,  -0.07384,  -0.01141,   0.04438,  -0.04329,  -0.08181,  -0.02071,  -0.02204,   0.06962,   0.02047,  -0.04063,   0.01781,   0.06829,  -0.02204,  -0.06455,   0.00187,  -0.00477,  -0.05126,  -0.01274,   0.03110,   0.03508,  -0.01274,   0.01781,   0.06298,  -0.02868,  -0.05790,  -0.07517,  -0.01407,   0.07892,  -0.00344,  -0.02204,  -0.00743,  -0.05790,   0.00320,  -0.03399,   0.01117,   0.05767,   0.02180,  -0.01938,  -0.07252,  -0.03001,   0.00187,  -0.02868,  -0.00078,  -0.03001,  -0.04728,  -0.07783,   0.04571,   0.10549,   0.03907,   0.00320,  -0.05525,  -0.04993,   0.04173,  -0.01938,   0.04040,  -0.01141,   0.00320,   0.01914,  -0.02469,  -0.02204,   0.06962,  -0.02602,  -0.04063,  -0.01672,   0.00453,   0.00719,   0.01781,  -0.01805,   0.00719,  -0.02204,   0.01649,  -0.01141,   0.01117,  -0.04993,  -0.04329,   0.02180,   0.01250,  -0.01672,  -0.04728,  -0.01008,   0.00320,  -0.01274,   0.01117,  -0.02071,  -0.03665,   0.06962,  -0.00078,  -0.01805,  -0.04728,  -0.04728,  -0.01141,   0.07228,  -0.01141,   0.03641,  -0.02735,  -0.00477,  -0.04993,   0.04704,  -0.08049,   0.03907,   0.04305,  -0.04595,  -0.05259,  -0.01540,   0.10814,   0.02180,   0.03907,   0.00320,  -0.03134,  -0.02735,   0.00055,   0.01383,  -0.02868,  -0.02071,  -0.01938,  -0.01274,  -0.01407,   0.00320,  -0.00211,   0.06032,  -0.02602,  -0.01141,   0.01516,  -0.09377,  -0.00211,   0.03774,  -0.00477,  -0.02868,  -0.02204,   0.01516,  -0.03001,  -0.01141,   0.01117,  -0.04329,  -0.04861,  -0.03134,  -0.01274,   0.01516,  -0.02602,  -0.00743,  -0.04196,   0.04438,   0.02180,  -0.01274,   0.09486,   0.07095,   0.06962,  -0.01407,  -0.06986,   0.02711,  -0.05790,  -0.03399,  -0.02735,   0.04837,   0.01383,  -0.07517,   0.05368,  -0.00743,  -0.05658,  -0.03798,   0.00719,  -0.01540,  -0.01540,  -0.06720,  -0.01938,   0.00719,   0.03774,  -0.02735,   0.02578,   0.01117,   0.01781,   0.03243,   0.04305,   0.03641,   0.02446,   0.03110,  -0.00610,   0.00453,   0.02711,  -0.01805,  -0.08979,  -0.01540,  -0.03532,   0.08291,   0.04173,  -0.05658,  -0.03798,  -0.01274,  -0.06322,  -0.06587,   0.00719,  -0.06587,  -0.02868,   0.08291,  -0.03798,  -0.04728,   0.03508,  -0.04196,  -0.02602,   0.03508,  -0.04728,  -0.01008,   0.02578,   0.03907,  -0.08447,  -0.04728,   0.00055,   0.02180,  -0.04595,   0.03243,   0.01649,  -0.03266,  -0.05392,  -0.04063,  -0.03665,   0.01117,  -0.01938,  -0.02204,   0.01250,   0.03243,  -0.00875,  -0.00743,  -0.01008,   0.00852,  -0.07916,  -0.06322,  -0.02602,  -0.01141,  -0.05126,  -0.00211,   0.05899,   0.00453,  -0.02071,  -0.02204,  -0.01008,  -0.01008,  -0.02337,  -0.00477,  -0.05126,   0.03907,   0.00187,   0.02180,  -0.06587,  -0.04595,  -0.08314,  -0.01938,   0.07626,   0.00852,  -0.05923,  -0.04993,  -0.02469,   0.05767,   0.01383,  -0.03798,  -0.03399,   0.02711,   0.00852,  -0.04196,   0.01649,   0.01516,  -0.03001,   0.00719,   0.03375,  -0.02868,  -0.01805,  -0.02071,   0.02977,  -0.01938,  -0.00610,  -0.00078,   0.01914,   0.02047,  -0.02071,   0.01516,   0.04173,   0.03375,  -0.01274,  -0.06322,   0.03375,  -0.05790,  -0.03665,  -0.05525,   0.04704,  -0.02469,  -0.02337,   0.04305,  -0.09377,  -0.00344,  -0.04063,   0.01914,  -0.02735,  -0.03532,  -0.04329,   0.11346,  -0.06189,   0.02313,  -0.01008,   0.06032,  -0.04595,   0.04438,   0.05767,   0.03375,  -0.04993,  -0.05259,  -0.02735,  -0.02735,   0.00586,   0.03243,   0.00453,  -0.02868,   0.00984,  -0.05525,   0.00453,   0.04040,  -0.09510,   0.01117,   0.01383,   0.02711,   0.04438,  -0.00211,  -0.04063,   0.01117,  -0.00743,  -0.04993,  -0.06322,  -0.01672,   0.02844,   0.04173,  -0.02602,  -0.05126,  -0.03665,   0.00453,   0.06564,   0.00055,  -0.02602,  -0.02868,  -0.01008,  -0.00344,  -0.06587,   0.05767,   0.04305,   0.07892,  -0.04595,  -0.04063,   0.01250,   0.02446,   0.00055,   0.03243,   0.02446,  -0.00211,  -0.02735,   0.05767,  -0.01805,   0.12409,  -0.01008,  -0.00875,  -0.03134,   0.02711,   0.03110,  -0.05392,   0.02977,   0.00320,  -0.03266,   0.01781,   0.03110,   0.01117,  -0.02469,   0.02578,  -0.06322,  -0.05525,   0.03774,   0.05634,  -0.01938,  -0.10573,   0.02180,  -0.06986,  -0.06056,   0.00320,  -0.02071,   0.01383,   0.03641,  -0.00743,  -0.00743,   0.03110,  -0.00344,  -0.01141,   0.00187,  -0.02469,  -0.05658,   0.03641,   0.00719,  -0.00344,  -0.04329,   0.02844,  -0.02602,  -0.01540,  -0.01938,  -0.00344,   0.00586,  -0.04329,  -0.03266,   0.00586,   0.01250,  -0.00211,  -0.02602,   0.00055,   0.05501,  -0.05392,  -0.04462,  -0.03001,   0.04173,   0.00719,  -0.06056,   0.01516,   0.00055,   0.04970,   0.00320,   0.00586,  -0.04329,  -0.00477,   0.00453,   0.00320,  -0.09111,  -0.02071,  -0.00344,  -0.04728,  -0.00610,  -0.02868,  -0.02337,  -0.01008,   0.07095,   0.00586,  -0.00743,  -0.05923,  -0.06455,   0.04438,  -0.03134,  -0.02337,  -0.01274,  -0.02071,  -0.01938,  -0.02469,  -0.07650,   0.04040,  -0.01008,  -0.07384,   0.05634,   0.03774,   0.03243,   0.04438,  -0.00743,   0.06696,   0.03508,  -0.00610,   0.08955,  -0.02204,   0.04571,   0.04305,  -0.05658,   0.00320,  -0.00477,   0.03110,   0.02446,  -0.02469,   0.04970,  -0.01938,  -0.01141,   0.00586,   0.00187,  -0.02735,  -0.04861,  -0.01008,   0.00055,   0.02711,  -0.01540,  -0.05392,   0.02047,  -0.03266,  -0.05126,  -0.04993,  -0.03134,   0.02711,  -0.01540,  -0.04063,   0.03774,   0.05368,  -0.04861,  -0.02735,   0.03508,  -0.02602,  -0.04196,   0.07626,   0.03110,  -0.00477,  -0.02868,   0.01781,  -0.04196,  -0.06322,   0.05501,   0.02446,  -0.02337,  -0.01008,  -0.01805,  -0.07119,   0.02047,   0.04438,  -0.01805,  -0.02071,  -0.00078,  -0.03266,   0.06298,   0.02047,  -0.06587,  -0.02337,   0.01250,   0.07095,  -0.08049,   0.02578,  -0.01938,  -0.02204,   0.00453,   0.03641,  -0.01008,   0.01117,   0.01516,  -0.06587,   0.03641,   0.06962,   0.00453,  -0.01805,   0.03641,   0.03110,  -0.03931,   0.02047,  -0.00610,  -0.00875,  -0.05259,   0.06032,   0.06829,   0.00719,   0.02047,   0.00719,  -0.05259,   0.00187,   0.02578,   0.02313,  -0.07916,   0.03110,  -0.05923,   0.02711,   0.00852,  -0.06986,  -0.03665,   0.05899,  -0.00211,  -0.05259,  -0.06986,  -0.02071,   0.00320,  -0.01938,  -0.01008,  -0.00078,  -0.06455,  -0.01141,   0.04040,  -0.02469,   0.07493,  -0.03399,  -0.03399,   0.03907,   0.06696,   0.05102,  -0.02337,   0.02180,   0.03243,   0.03641,  -0.05126,  -0.00743,   0.01383,  -0.05259,  -0.00743,   0.01649,  -0.02204,  -0.01141,  -0.04329,  -0.01008,  -0.03931,   0.03375,   0.01117,  -0.00743,  -0.02602,   0.01516,  -0.07916,  -0.01008,   0.02711,  -0.02071,  -0.01540,  -0.04196,  -0.05126,   0.07095,   0.04173,  -0.01938,  -0.03266,  -0.02735,  -0.03931,  -0.00743,  -0.05259,   0.00719,  -0.01540,  -0.06056,   0.02711,  -0.11104,  -0.07384,   0.02844,   0.01117,  -0.03399,   0.01781,   0.03641,  -0.04063,   0.02047,  -0.03931,  -0.00344,  -0.02602,  -0.01672,  -0.03665,   0.00852,   0.07759,   0.01117,   0.02047,  -0.03931,  -0.01672,   0.01914,   0.02313,   0.00187,  -0.00477,  -0.03931,  -0.00078,  -0.07252,   0.03375,   0.01250,  -0.04196,  -0.03798,  -0.09510,   0.05368,  -0.03134,  -0.01938,  -0.02735,   0.03375,   0.02313,  -0.06322,  -0.00344,  -0.05658,   0.01781,  -0.03399,   0.03774,  -0.01141,   0.05634,  -0.04861,   0.01516,   0.02180,  -0.01805,  -0.07252,   0.00852,  -0.02204,  -0.03001,  -0.01938,  -0.03001,   0.01516,   0.02977,  -0.03931,   0.01914,   0.03110,  -0.00344,   0.00453,  -0.01274,   0.02313,  -0.02868,  -0.02204,  -0.03266,   0.01250,  -0.01274,  -0.01540,   0.03508,  -0.04329,   0.02844,   0.01516,   0.00984,   0.01914,  -0.03266,  -0.03798,   0.00586,   0.05501,  -0.01274,   0.06298,  -0.00743,   0.02047,  -0.02868,  -0.02071,  -0.06189,  -0.00211,   0.05767,   0.03243,  -0.01407,   0.02047,   0.00984,  -0.03134,   0.03110,  -0.01274,   0.05767,   0.00719,  -0.05658,  -0.01672,   0.00453,  -0.01008,  -0.03931,  -0.01938,  -0.00875,   0.02977,   0.00719,  -0.01141,   0.02446,  -0.03001,   0.07759,  -0.00610,  -0.09377,   0.00320,  -0.01407,  -0.04728,   0.01781,   0.02047,   0.08291,   0.10814,  -0.00211,   0.01914,  -0.00078,   0.01117,  -0.08049,   0.00055,   0.00320,  -0.05525,   0.01914,  -0.08447,  -0.02602,  -0.02071,   0.02446,   0.06564,   0.02313,  -0.05525,  -0.06587,   0.04704,   0.05501,   0.02711,  -0.00743,  -0.00875,  -0.02735,   0.00852,   0.01383,   0.03508,  -0.00743,  -0.00477,  -0.02868,  -0.01540,   0.01516,   0.02180,   0.01383,   0.07759,  -0.01407,  -0.04196,   0.03774,  -0.00743,   0.03641,  -0.02071,   0.09220,   0.02313,  -0.02204,   0.00055,  -0.01141,  -0.04993,  -0.04063,   0.03907,   0.00187,  -0.08580,  -0.04595,  -0.03134,  -0.04063,   0.07493,  -0.01008,   0.07228,  -0.01938,  -0.04993,   0.08158,  -0.02735,  -0.02071,  -0.03931,   0.06165,   0.02844,  -0.06720,   0.05767,  -0.02602,  -0.03266,  -0.00743,   0.00719,  -0.03134,   0.00719,  -0.00344,   0.04970,  -0.01008,  -0.00743,  -0.01938,  -0.01407,   0.05368,   0.01781,  -0.02469,  -0.05392,   0.00984,   0.00320,  -0.02469,   0.07493,  -0.04063,   0.03508,  -0.02602,  -0.01672,   0.00719,  -0.05658,  -0.01805,  -0.05126,   0.00852,  -0.00743,   0.06032,  -0.01274,   0.01117,   0.00453,   0.04704,   0.04571,  -0.01008,  -0.10041,  -0.00344,   0.02180,  -0.03134,  -0.00078,   0.03110,  -0.01938,   0.01383,   0.00453,   0.02180,   0.03907,  -0.02071,  -0.00610,  -0.02071,  -0.05126,  -0.00743,  -0.00875,  -0.00610,  -0.01407,  -0.01407,  -0.05392,  -0.01938,  -0.06189,  -0.05126,   0.02977,   0.00187,  -0.03266,  -0.03532,   0.04438,  -0.01540,  -0.03798,  -0.03532,  -0.01274,  -0.01407,   0.00719,   0.02578,  -0.05923,  -0.06720,   0.05235,  -0.04462,   0.00453,   0.08025,   0.05102,   0.00187,   0.02578,  -0.07916,  -0.01407,  -0.07119,  -0.03665,  -0.00078,  -0.02337,  -0.01407,   0.04305,  -0.00875,  -0.02868,  -0.02602,   0.01250,   0.03907,  -0.00477,   0.00984,  -0.03798,  -0.07252,  -0.02868,  -0.05525,  -0.03532,   0.01649,   0.00055,  -0.06056,   0.05899,  -0.00743,   0.01117,  -0.03665,   0.00984,  -0.08181,  -0.03134,   0.00586,  -0.11104,  -0.01805,   0.04438,   0.01383,  -0.03266,  -0.01540,   0.01649,  -0.00344,  -0.05525,   0.04837,   0.01649,  -0.00344,   0.07095,   0.01250,  -0.06189,  -0.09908,   0.01117,  -0.00610,  -0.01407,  -0.01407,  -0.04595,  -0.06056,   0.00719,  -0.04462,   0.02977,  -0.01407,   0.02977,  -0.01407,  -0.04329,   0.02047,   0.00320,  -0.01672,   0.00586,   0.00187,  -0.04063,  -0.03532,  -0.08181,  -0.04462
   0.08556,   0.02313,   0.00719,  -0.02602,   0.01516,  -0.08049,   0.05501,  -0.03001,   0.01117,   0.03375,   0.04970,  -0.03134,   0.05767,   0.06032,   0.00852,  -0.06455,   0.02047,  -0.01938,  -0.02337,  -0.06189,   0.00719,  -0.00875,  -0.02071,  -0.00211,  -0.07916,   0.03907,  -0.04063,   0.05235,  -0.03665,  -0.05790,  -0.02602,  -0.02204,   0.02711,  -0.01540,   0.01516,   0.05102,   0.08556,  -0.03665,  -0.00610,   0.08556,   0.02446,  -0.01938,   0.02180,  -0.02071,  -0.00477,   0.02313,  -0.01540,   0.02844,  -0.05658,   0.04040,   0.04305,   0.02844,   0.00320,  -0.05392,   0.04305,  -0.01008,   0.02180,   0.06696,   0.05102,  -0.01938,  -0.02868,   0.00453,   0.07892,   0.00719,   0.00320,  -0.07517,  -0.04462,   0.06564,  -0.04063,  -0.00743,   0.04173,  -0.02204,   0.02047,  -0.00344,  -0.02868,  -0.01008,  -0.01540,   0.00984,   0.03641,   0.03508,  -0.00211,  -0.02735,   0.05102,  -0.02071,   0.02578,  -0.02469,  -0.01141,  -0.00211,   0.00453,  -0.01938,   0.04704,   0.02711,  -0.00477,   0.02047,   0.03243,   0.01516,   0.04305,  -0.01274,  -0.09377,  -0.07650,  -0.02735,   0.02180,  -0.00477,  -0.04861,   0.01383,  -0.01938,  -0.02469,  -0.00743,   0.02578,   0.02313,   0.02844,  -0.05790,  -0.06056,   0.03641,   0.01250,  -0.02735,   0.04837,   0.05102,   0.03508,  -0.07916,  -0.00875,  -0.09111,  -0.02602,  -0.04329,  -0.05392,  -0.00477,   0.08025,  -0.06056,  -0.04861,  -0.02602,   0.05634,   0.03774,  -0.05259,   0.01117,  -0.01008,   0.06298,   0.00719,  -0.07252,  -0.01274,   0.02446,  -0.03134,  -0.03665,  -0.06189,   0.01250,   0.06829,  -0.01274,  -0.01805,   0.03641,  -0.03665,  -0.05525,   0.00984,  -0.04462,  -0.06986,  -0.03665,   0.01250,   0.03907,  -0.00344,  -0.00610,  -0.05126,  -0.01141,  -0.01938,   0.02711,  -0.07650,  -0.03931,  -0.13761,   0.04970,  -0.02868,  -0.00078,   0.02711,  -0.01008,  -0.01141,   0.02446,   0.06298,  -0.01672,   0.04173,   0.00852,  -0.08447,   0.03508,   0.02446,   0.03243,   0.01117,  -0.01672,  -0.00743,  -0.01672,  -0.00875,   0.00453,  -0.01672,   0.01250,   0.03508,   0.02977,   0.04970,  -0.03134,  -0.04728,   0.00984,  -0.05392,  -0.03399,   0.01649,   0.02844,  -0.00078,  -0.00743,  -0.06455,  -0.04196,  -0.00875,   0.05634,  -0.05392,   0.02578,   0.00984,   0.03774,   0.07095,   0.04571,   0.00320,  -0.00875,  -0.01008,  -0.03266,  -0.03399,   0.02446,  -0.01141,  -0.08314,  -0.05259,  -0.07916,  -0.01407,   0.00984,  -0.03399,  -0.07650,  -0.06455,   0.02047,   0.05501,  -0.02204,  -0.02735,   0.01649,   0.05235,  -0.03931,  -0.01407,  -0.02469,  -0.00610,   0.01649,  -0.05525,  -0.04728,  -0.00477,  -0.03134,  -0.09111,   0.01117,   0.01649,   0.02180,   0.00984,   0.04571,   0.00055,   0.10416,   0.00453,   0.00852,  -0.04595,  -0.03798,   0.01250,  -0.01407,   0.00984,   0.00984,   0.00320,   0.01383,  -0.00875,  -0.01540,   0.06165,   0.03774,   0.02977,   0.05634,   0.02313,   0.02844,   0.02711,  -0.01008,  -0.02602,  -0.03399,   0.00984,   0.05899,  -0.00477,  -0.04595,  -0.02602,   0.00984,  -0.02735,   0.02977,   0.02977,  -0.09111,   0.03508,  -0.01141,  -0.04728,   0.05102,  -0.01274,   0.00320,  -0.00875,   0.08955,  -0.08580,   0.08556,   0.03774,  -0.00344,  -0.00344,  -0.00743,   0.00586,  -0.03134,  -0.00875,   0.01516,   0.03774,   0.02446,   0.05102,  -0.04861,   0.01914,  -0.03532,  -0.04329,  -0.08979,  -0.00477,   0.03907,   0.05767,  -0.03665,  -0.02469,   0.06165,   0.01516,  -0.01407,  -0.00078,   0.02180,   0.01516,  -0.00875,  -0.00875,  -0.03266,  -0.01938,   0.04438,   0.01117,  -0.08314,  -0.01407,   0.00586,  -0.03798,  -0.07916,  -0.01008,   0.03375,  -0.04329,   0.01649,  -0.02735,   0.03641,   0.00984,   0.04438,   0.02180,   0.07361,   0.05102,  -0.04462,   0.08556,  -0.04329,   0.01914,  -0.00610,  -0.02735,  -0.02868,  -0.03001,   0.01914,  -0.01407,  -0.03665,  -0.02469,  -0.00477,   0.07493,   0.02578,   0.02446,   0.02446,   0.00453,   0.00055,   0.02578,   0.07361,  -0.02868,  -0.03665,   0.00453,   0.02313,  -0.01540,   0.00984,  -0.05923,   0.01383,  -0.04462,  -0.04993,   0.01383,   0.02047,   0.04305,  -0.01672,   0.01516,  -0.00610,  -0.06986,   0.03508,  -0.07783,  -0.01540,   0.02446,  -0.03798,  -0.00743,  -0.01274,  -0.02469,  -0.00875,  -0.04728,   0.02977,   0.09752,  -0.00477,  -0.05126,  -0.04595,   0.07095,   0.04970,  -0.04329,  -0.05392,  -0.02204,   0.00055,  -0.04595,  -0.07252,   0.12010,  -0.03266,   0.03907,  -0.02868,  -0.04462,  -0.03399,  -0.02204,  -0.00477,  -0.00078,   0.02446,  -0.02469,  -0.04462,   0.04970,  -0.02735,   0.00320,  -0.01938,   0.00984,  -0.02602,  -0.00875,   0.01383,   0.03110,  -0.01141,   0.01649,   0.04704,   0.04173,  -0.07916,  -0.03266,  -0.01672,  -0.02469,   0.04704,   0.07892,  -0.05658,   0.00187,   0.02446,   0.01383,  -0.04595,  -0.00610,  -0.03134,   0.01649,  -0.03399,   0.03508,  -0.02469,   0.04837,  -0.00875,  -0.01407,  -0.01008,  -0.02337,   0.03641,   0.04704,   0.01516,  -0.02602,   0.03508,   0.00055,  -0.00344,   0.07361,   0.03774,  -0.01008,  -0.01141,  -0.03665,   0.05235,   0.03907,   0.03641,   0.08955,  -0.02204,   0.00055,   0.03508,   0.00586,  -0.01805,   0.00320,  -0.04993,   0.00719,  -0.01805,  -0.06853,  -0.04329,   0.04970,  -0.02071,  -0.05392,   0.00852,   0.01914,  -0.01008,   0.00453,   0.00719,  -0.05923,   0.01250,   0.03774,  -0.06720,  -0.00344,  -0.05392,  -0.05790,  -0.01938,   0.08822,   0.04438,   0.01250,   0.07095,   0.03907,  -0.03399,   0.10947,  -0.00743,  -0.04329,  -0.02204,   0.00187,  -0.02469,   0.00984,  -0.04063,  -0.03931,   0.02977,  -0.03134,  -0.05126,  -0.04329,   0.06165,   0.02180,  -0.02071,   0.00586,   0.04704,  -0.02735,   0.01781,  -0.00211,  -0.00211,   0.03375,  -0.11901,  -0.00078,  -0.03931,   0.06696,  -0.03134,  -0.04329,   0.03375,   0.00719,  -0.01805,   0.00586,  -0.01672,   0.02844,  -0.03399,  -0.00344,   0.02977,  -0.00477,   0.01781,   0.00586,   0.00586,   0.00719,  -0.01407,  -0.03931,  -0.02337,  -0.00344,  -0.07384,  -0.00875,   0.03243,   0.01117,  -0.00610,  -0.00477,   0.00320,   0.01117,  -0.00610,   0.00187,  -0.06322,  -0.00344,  -0.01407,  -0.01540,  -0.06853,   0.01649,  -0.03134,   0.03110,  -0.01805,  -0.01938,  -0.07252,  -0.04063,  -0.00477,  -0.00344,   0.04438,   0.08689,  -0.01141,  -0.04462,  -0.04861,  -0.03001,  -0.03931,  -0.00743,   0.04837,   0.02047,  -0.02204,   0.00453,  -0.01141,  -0.06322,   0.00055,  -0.01672,   0.02047,   0.02711,   0.00055,  -0.00344,  -0.01008,  -0.02602,   0.06564,   0.04571,  -0.01407,   0.05501,  -0.04728,  -0.04595,  -0.05790,  -0.01805,  -0.00078,  -0.01141,   0.02844,  -0.02071,   0.00984,   0.01250,  -0.04462,  -0.03266,  -0.01540,  -0.01141,  -0.05525,   0.00984,  -0.02204,  -0.00743,  -0.01540,   0.06165,  -0.02602,   0.02977,  -0.06853,   0.00852,  -0.02071,   0.01117,   0.02180,   0.02446,   0.00453,  -0.00344,   0.01649,  -0.01672,   0.07493,  -0.08580,  -0.05790,   0.06564,  -0.06056,   0.00453,  -0.06986,   0.00453,   0.01383,  -0.04063,  -0.01008,   0.01117,  -0.01008,  -0.07650,   0.00984,   0.00719,   0.06298,   0.01117,  -0.03532,   0.07095,  -0.02204,  -0.03665,   0.08556,  -0.08447,   0.02977,   0.00984,   0.01516,  -0.00211,   0.00055,  -0.05126,   0.04571,  -0.01008,  -0.02204,  -0.01274,  -0.02337,   0.00719,   0.00719,   0.02711,   0.00320,   0.00719,  -0.02337,   0.03375,   0.01250,  -0.00743,   0.05767,  -0.00743,   0.08955,   0.05368,  -0.03665,   0.03375,  -0.02735,   0.02977,   0.05899,  -0.01540,  -0.00211,   0.02446,   0.07626,  -0.03266,   0.03110,   0.01914,   0.02578,   0.04040,  -0.02071,   0.03110,   0.03375,   0.03243,   0.02844,  -0.00078,   0.07361,  -0.01141,   0.03375,  -0.04728,  -0.04063,  -0.00875,   0.00453,   0.03774,   0.02180,   0.02844,   0.06829,   0.07361,   0.01516,  -0.02735,  -0.04595,   0.01516,   0.01781,  -0.00078,  -0.07916,   0.00984,  -0.03266,  -0.04861,   0.01117,  -0.00211,   0.01516,  -0.04993,  -0.01141,  -0.01805,  -0.03134,  -0.01141,  -0.04595,  -0.08979,   0.00719,   0.02446,   0.01117,  -0.03266,   0.10416,   0.04305,  -0.05259,   0.05102,  -0.02337,   0.04040,   0.00984,  -0.00610,   0.00187,  -0.04595,  -0.02602,   0.01250,   0.04704,   0.01649,   0.02180,  -0.02204,  -0.03134,  -0.04462,  -0.00344,   0.10017,  -0.07252,  -0.05658,   0.04837,  -0.00477,   0.07361,  -0.04196,  -0.04861,  -0.01008,   0.00984,   0.00055,  -0.01141,   0.00320,  -0.03266,   0.03907,  -0.01141,  -0.04861,   0.00055,  -0.02469,   0.00320,   0.06298,   0.06696,   0.04040,   0.02446,  -0.04329,   0.00586,   0.03243,   0.04571,   0.01516,   0.04040,   0.01383,   0.02578,   0.03375,   0.02711,  -0.03931,   0.00719,   0.00984,  -0.05126,  -0.07119,  -0.00875,   0.01781,   0.00852,   0.00320,   0.01516,   0.04970,  -0.02204,  -0.01672,   0.08291,  -0.00743,   0.00453,   0.01649,   0.00586,  -0.00477,  -0.00344,  -0.01008,   0.03508,   0.01117,   0.00586,   0.08158,  -0.03134,  -0.00477,   0.05501,   0.00984,  -0.04728,   0.00320,   0.04438,   0.01649,  -0.01672,  -0.01274,  -0.01805,   0.02047,   0.01250,  -0.00344,   0.02180,  -0.00610,   0.02844,  -0.05923,   0.02977,  -0.00743,  -0.04329,  -0.04993,  -0.01938,  -0.00743,  -0.02469,   0.03243,  -0.02602,  -0.00078,  -0.03798,   0.00320,   0.00984,  -0.08181,  -0.01407,   0.01649,  -0.00743,   0.00055,   0.01781,  -0.01008,   0.04438,  -0.01540,  -0.08314,  -0.01938,   0.00719,   0.04040,  -0.03399,  -0.00610,  -0.05126,  -0.03532,  -0.01008,   0.07892,  -0.00078,  -0.00344,   0.06165,  -0.01008,   0.00453,  -0.02204,   0.02977,   0.03774,   0.00984,  -0.00211,  -0.03266,  -0.06986,   0.02313,  -0.06056,  -0.08314,  -0.01008,  -0.01274,   0.13737,   0.00984,   0.03641,  -0.01540,  -0.00078,  -0.06189,   0.05235,   0.00586,   0.07228,   0.02977,   0.04438,  -0.01672,  -0.02337,   0.00984,  -0.04329,   0.01516,   0.02844,   0.05102,   0.01781,  -0.00875,   0.05102,   0.00586,   0.00320,   0.04438,   0.04173,   0.05634,   0.02977,  -0.02469,  -0.03532,  -0.00875,  -0.03001,   0.00719,  -0.05259,   0.04173,   0.00719,   0.02313,  -0.01805,  -0.08181,   0.05634,   0.02977,   0.05102,   0.00984,  -0.00078,   0.01516,  -0.03134,  -0.01008,  -0.00875,   0.00984,   0.01516,   0.03774,   0.02313,   0.01250,  -0.00875,  -0.03134,  -0.04462,   0.04040,  -0.04196,   0.02047,  -0.04063,  -0.02204,  -0.00344,  -0.00875,  -0.04063,  -0.02602,   0.01117,  -0.03399,  -0.01274,   0.02578,   0.03907,  -0.00211,   0.00055,   0.00187,   0.00719,   0.02977,  -0.03931,  -0.03134,   0.02844,   0.02844,  -0.00743,   0.03907,  -0.06720,   0.02446,  -0.00875,   0.01516,   0.00719,   0.00453,  -0.00610,  -0.01407,   0.00320,   0.03375,  -0.02868,   0.03243,   0.00852,   0.05368,  -0.00477,   0.10549,  -0.00211,  -0.03134,  -0.06853,  -0.02337,   0.01914,   0.03774,   0.00984,   0.01914,  -0.05126,  -0.03266,  -0.02735,   0.01383,  -0.03399,   0.03375,   0.00586,   0.01914,  -0.01141,   0.02180,  -0.05392,   0.00586,  -0.01540,   0.03641,   0.00984,  -0.03001,  -0.07517,  -0.03798,   0.04040,  -0.04329,   0.00453,  -0.09244,   0.01516,   0.03774,   0.00187,  -0.06986,  -0.00610,   0.01914,   0.05102,   0.01649,  -0.07252,  -0.02735,   0.02180,   0.01914,   0.02180,   0.00852,   0.03243,  -0.00344,  -0.01805,   0.03508,   0.03375,   0.00453,   0.05899,  -0.04728,   0.04040,   0.03243
