  -0.07219,  -0.10124,   0.07572,   0.04138,   0.02025,   0.05459,   0.08364,   0.07044,   0.04667,  -0.04049,  -0.02729,  -0.02993,   0.05723,   0.06251,   0.02818,  -0.08804,  -0.04842,   0.00441,   0.03346,   0.09157,  -0.00352,  -0.04314,  -0.04049,  -0.14350,   0.10213,   0.02290,  -0.01936,   0.01497,  -0.02201,   0.07572,  -0.00088,   0.01233,  -0.04578,  -0.01936,  -0.09068,  -0.00088,  -0.02201,   0.01761,   0.01497,  -0.00352,   0.04931,   0.03874,   0.06780,   0.01233,  -0.00088,  -0.11973,  -0.01144,  -0.02729,   0.07044,  -0.06427,   0.07044,   0.18929,  -0.09860,   0.03346,   0.00441,   0.03346,   0.09949,  -0.11181,  -0.00616,  -0.03521,   0.05987,   0.00441,  -0.02201,  -0.03257,   0.02818,  -0.10388,  -0.07747,  -0.14614,  -0.09860,  -0.13030,  -0.03785,  -0.00352,   0.09685,  -0.06691,  -0.00352,  -0.02465,   0.00441,  -0.02465,  -0.03785,   0.01233,  -0.05634,   0.00441,   0.00705,   0.01497,   0.04138,   0.00705,   0.09157,  -0.04049,   0.13647,  -0.04049,   0.00705,  -0.02729,   0.14175,   0.00441,   0.02818,   0.16552,   0.04667,  -0.15935,  -0.05106,  -0.04842,   0.01233,   0.03082,   0.04138,  -0.04578,   0.08100,   0.04138,  -0.12501,  -0.03257,  -0.03785,  -0.02201,   0.06251,   0.09685,   0.11270,  -0.01672,   0.11270,  -0.03257,   0.07836,   0.00705,  -0.01408,   0.06516,  -0.04314,  -0.01936,  -0.06162,  -0.01672,  -0.10917,   0.02025,  -0.09068,   0.13383
  -0.04842,   0.10213,   0.01233,  -0.06955,  -0.06427,   0.00441,  -0.05898,  -0.06162,  -0.01936,  -0.04049,  -0.00088,   0.03346,   0.00969,   0.02025,   0.02025,  -0.11709,  -0.04578,   0.07836,   0.04931,  -0.06691,  -0.09596,  -0.11445,  -0.05898,  -0.08540,   0.10477,   0.14175,  -0.11181,  -0.12766,  -0.04049,   0.00441,   0.00441,  -0.03785,  -0.01672,  -0.01408,   0.07308,   0.05195,   0.02290,   0.02025,   0.00177,   0.04667,  -0.00616,   0.04931,  -0.02993,   0.10741,   0.07836,  -0.02729,   0.06251,  -0.05370,   0.00969,   0.16552,  -0.02993,   0.02025,   0.00177,  -0.00880,   0.03082,  -0.10653,  -0.05370,  -0.14879,   0.08100,   0.07308,   0.10477,   0.04667,  -0.04049,  -0.04578,   0.09157,   0.08100,  -0.11973,   0.07044,   0.00177,   0.04403,   0.02025,   0.13383,  -0.01936,  -0.05898,  -0.01672,   0.04403,  -0.01144,   0.03346,   0.00441,  -0.15407,   0.09421,   0.02818,   0.05195,   0.04667,   0.07044,  -0.03257,   0.07308,   0.11798,  -0.08540,  -0.02993,  -0.05634,  -0.05106,  -0.01144,  -0.00088,  -0.02993,   0.03610,   0.10213,  -0.04578,   0.06251,   0.07044,   0.05987,   0.02290,  -0.03785,  -0.07483,   0.00177,  -0.02993,   0.05723,  -0.05898,  -0.02729,  -0.05106,   0.03346,  -0.13558,  -0.01408,  -0.05370,   0.04931,   0.00969,  -0.00352,   0.07308,   0.09949,   0.07572,   0.01497,   0.05723,   0.02818,   0.17345,  -0.10917,  -0.11181,   0.01761,  -0.13558
   0.02025,   0.13119,  -0.01144,  -0.09068,  -0.05634,   0.04667,   0.01497,  -0.03257,  -0.03521,  -0.06427,  -0.01672,  -0.06162,   0.01761,   0.04138,   0.06251,   0.02290,   0.01761,  -0.00088,   0.02290,   0.00177,   0.01761,  -0.01936,  -0.02465,   0.02818,   0.10213,   0.16552,   0.05723,   0.12854,   0.14439,  -0.09332,  -0.03257,  -0.04578,   0.08364,   0.03082,  -0.12237,   0.03346,   0.00705,   0.04138,  -0.07219,  -0.00616,  -0.06691,  -0.03521,  -0.04842,   0.04403,   0.01233,  -0.01672,   0.04403,   0.00441,  -0.04842,   0.09685,   0.10213,  -0.05898,   0.03610,  -0.00616,  -0.00352,   0.08893,   0.13911,  -0.03257,   0.04931,   0.08364,   0.00969,   0.03082,  -0.06955,   0.00705,   0.15760,  -0.08011,   0.01761,   0.07836,  -0.07219,   0.11006,  -0.00616,  -0.00352,  -0.05106,   0.03874,  -0.00352,   0.00441,  -0.00616,   0.06516,   0.03346,  -0.20161,   0.03610,   0.08364,  -0.00088,   0.07836,  -0.03257,   0.03082,   0.04931,  -0.09332,  -0.00880,  -0.00088,   0.07308,   0.03082,   0.03610,   0.09685,   0.03082,   0.07308,  -0.01936,  -0.18840,  -0.03257,  -0.01144,   0.12062,  -0.05898,  -0.00088,   0.02290,  -0.02465,  -0.06955,  -0.01672,   0.02290,  -0.06162,  -0.03257,  -0.05898,   0.02818,  -0.02993,  -0.09068,   0.17609,   0.08893,  -0.04842,   0.08893,   0.04403,   0.00705,   0.01497,  -0.11973,   0.04931,   0.03874,  -0.05634,  -0.16199,   0.02290,  -0.00616
  -0.00880,   0.02025,  -0.02465,  -0.09596,  -0.06162,  -0.05898,  -0.09596,   0.01497,   0.11534,  -0.01408,   0.01761,  -0.04049,   0.06251,   0.00441,   0.07572,   0.04931,   0.00177,  -0.06162,   0.03082,   0.02818,  -0.04314,   0.00441,   0.05987,  -0.09860,   0.04667,  -0.02729,  -0.08011,  -0.02465,   0.00969,   0.05723,  -0.01144,   0.08893,  -0.11445,  -0.11709,  -0.12501,  -0.10917,  -0.02201,  -0.05370,   0.03610,  -0.02465,   0.08364,  -0.18048,   0.20514,   0.00177,   0.10213,  -0.14350,   0.17080,  -0.01144,  -0.07483,  -0.00616,  -0.16992,  -0.06162,  -0.14350,  -0.04578,  -0.03521,  -0.00880,  -0.02729,  -0.06427,   0.03610,  -0.05106,  -0.04842,  -0.08804,   0.07044,   0.08628,   0.09157,  -0.09068,   0.04931,  -0.11445,   0.04667,   0.00969,  -0.13558,   0.00177,  -0.02729,  -0.04842,  -0.09332,  -0.04049,  -0.02201,  -0.00088,  -0.08011,  -0.00352,   0.12590,   0.05723,  -0.05370,   0.05459,   0.02554,   0.02290,  -0.11709,   0.17873,  -0.04314,  -0.04842,  -0.08540,   0.00177,   0.03346,   0.11270,  -0.13030,   0.01761,   0.10213,   0.03610,   0.06516,  -0.05634,  -0.04049,   0.02554,  -0.13558,  -0.02201,  -0.11445,  -0.00352,   0.14439,   0.02554,   0.02290,  -0.05106,   0.02025,  -0.02465,  -0.02465,  -0.00880,   0.09421,  -0.09068,   0.04931,   0.08893,   0.02025,   0.04403,   0.06780,   0.09421,   0.13911,   0.03874,  -0.01408,  -0.03521,   0.07044,  -0.01408
   0.01233,  -0.00880,  -0.09860,  -0.10388,   0.14439,  -0.07747,  -0.09068,  -0.07219,  -0.09860,   0.00177,   0.05459,   0.05987,  -0.01672,   0.07044,  -0.03785,   0.06516,   0.14967,  -0.04578,  -0.05106,   0.00705,   0.00705,  -0.03521,  -0.07219,   0.05723,  -0.06162,   0.03082,  -0.05898,   0.00441,  -0.01936,   0.03874,   0.04403,   0.09949,  -0.03257,  -0.01672,   0.03082,  -0.09596,  -0.13822,  -0.03257,   0.09949,   0.10741,   0.01233,  -0.00616,   0.08893,  -0.08540,  -0.09596,  -0.04842,   0.04667,  -0.08011,  -0.07219,   0.05723,   0.02290,   0.01233,  -0.01936,   0.00177,   0.07308,  -0.06691,  -0.12237,   0.07044,   0.02025,   0.00705,   0.14175,  -0.10124,   0.12854,  -0.15935,   0.04403,  -0.08540,   0.13383,  -0.01936,  -0.00088,  -0.02465,   0.00969,  -0.04578,   0.04138,  -0.06427,  -0.08540,   0.06251,  -0.14879,  -0.04314,  -0.07747,   0.06780,  -0.01144,   0.07836,  -0.14086,   0.04138,   0.04931,  -0.11181,   0.10477,  -0.06691,  -0.04049,  -0.11709,   0.04931,  -0.01144,  -0.06162,   0.06780,  -0.01144,  -0.02993,   0.16816,  -0.02993,   0.04667,  -0.01672,  -0.02465,   0.00177,  -0.13294,  -0.09596,  -0.15671,  -0.10388,   0.01233,  -0.11709,   0.11798,  -0.09596,  -0.00880,   0.16288,  -0.04578,   0.00177,   0.08364,   0.03874,  -0.04049,  -0.09860,   0.09685,   0.05723,  -0.03257,   0.07308,  -0.09596,  -0.04578,   0.11006,   0.08364,   0.08364,  -0.05898
   0.02554,   0.04667,  -0.05634,   0.14703,   0.00705,   0.04931,  -0.07747,   0.11798,   0.03082,   0.01761,  -0.01144,  -0.02201,  -0.12501,  -0.06162,  -0.00616,   0.06780,   0.17873,  -0.02729,  -0.01408,   0.00177,   0.17080,  -0.11181,  -0.12237,  -0.08011,  -0.06427,  -0.04314,  -0.11973,   0.05459,  -0.04578,  -0.10388,   0.02818,  -0.05898,   0.10741,  -0.02729,  -0.01408,  -0.01144,  -0.08540,  -0.04314,  -0.04314,   0.10741,  -0.05634,  -0.09332,   0.17345,  -0.01936,   0.03082,  -0.03257,  -0.02201,  -0.06427,  -0.09068,  -0.04049,   0.16288,  -0.00880,   0.09685,  -0.03521,   0.04138,   0.01497,  -0.08540,   0.02290,  -0.05106,   0.02290,   0.07572,   0.06516,   0.00177,  -0.00088,   0.02554,  -0.00352,   0.09949,   0.11270,  -0.11973,  -0.13030,   0.00177,  -0.02993,   0.07572,   0.00177,  -0.07747,   0.07308,  -0.03521,  -0.06162,   0.02554,   0.00705,   0.22891,   0.07836,   0.11534,   0.08364,  -0.04842,  -0.09596,   0.17609,  -0.00088,   0.03610,  -0.01144,  -0.10917,   0.05459,  -0.05634,  -0.06691,   0.02290,   0.05987,  -0.09596,   0.03874,   0.05459,   0.03346,   0.07044,   0.15232,   0.06780,  -0.00880,  -0.05370,  -0.17256,  -0.01144,   0.01761,  -0.06427,   0.06251,   0.07044,   0.20514,   0.06780,   0.09949,   0.02554,   0.04931,  -0.07219,  -0.09860,   0.05459,  -0.01408,   0.09949,   0.08364,   0.11270,   0.05195,   0.02818,  -0.07747,   0.07572,  -0.06162
  -0.08275,  -0.04314,   0.04403,   0.04403,   0.03874,  -0.07219,  -0.01144,   0.11534,  -0.08804,   0.02554,  -0.03521,  -0.08275,   0.08100,   0.06516,  -0.09332,  -0.11181,  -0.05898,  -0.08540,   0.01761,   0.01233,   0.00969,  -0.06955,  -0.02729,  -0.00352,   0.04667,  -0.00088,  -0.05106,  -0.08011,  -0.08804,   0.01761,  -0.02465,   0.18929,  -0.18576,   0.01233,  -0.09332,  -0.05898,  -0.09068,  -0.15671,   0.04403,  -0.07219,   0.00177,  -0.10124,   0.04403,  -0.03257,  -0.03785,  -0.15143,  -0.01144,  -0.08804,  -0.01936,   0.02818,  -0.05370,  -0.00088,  -0.08540,  -0.04842,  -0.04578,   0.02818,   0.11006,   0.06251,   0.20250,   0.19986,   0.08628,   0.04667,   0.05723,   0.09157,  -0.01144,  -0.16463,  -0.06162,  -0.05106,  -0.03257,   0.03346,  -0.11973,  -0.12237,   0.02554,   0.08628,  -0.01936,   0.01233,   0.03082,  -0.02729,  -0.11181,   0.12326,   0.01233,   0.04403,  -0.03257,   0.02025,  -0.00616,   0.04931,   0.00705,   0.00705,   0.07044,  -0.01144,  -0.08011,  -0.05106,   0.04931,  -0.04049,  -0.02465,   0.01233,   0.01233,   0.11534,  -0.04314,   0.00969,   0.11534,  -0.10653,   0.07572,  -0.05898,   0.14439,   0.03346,  -0.04049,  -0.05106,  -0.04314,  -0.07747,  -0.04842,   0.02025,  -0.02201,   0.13119,   0.00177,  -0.02729,  -0.13558,   0.08364,  -0.01408,   0.03610,   0.02290,   0.04667,  -0.02993,   0.07836,   0.01761,  -0.05898,  -0.05106,  -0.03257
  -0.05634,   0.02025,  -0.04842,  -0.07483,   0.14703,  -0.00352,  -0.06162,   0.05459,   0.01761,   0.03346,   0.09157,   0.11006,   0.01761,  -0.09068,  -0.16199,   0.03082,  -0.11445,  -0.01408,  -0.01672,  -0.06955,   0.00969,  -0.02993,   0.00705,  -0.05106,   0.00177,  -0.10388,  -0.13558,  -0.09068,  -0.08275,  -0.02465,   0.13119,   0.03346,   0.06251,  -0.06691,   0.15232,  -0.01936,   0.02025,  -0.01144,  -0.05370,  -0.05898,  -0.02465,  -0.06691,   0.13647,   0.20514,  -0.01936,   0.00441,  -0.13822,  -0.08804,  -0.09860,   0.05459,  -0.00088,   0.00705,  -0.04314,  -0.05898,  -0.01408,   0.01233,   0.00969,   0.09685,   0.04403,  -0.02465,   0.01761,   0.02818,   0.11006,  -0.02993,  -0.01144,   0.03874,   0.03082,   0.04667,  -0.11445,  -0.00352,  -0.04842,  -0.03521,   0.01233,   0.09685,  -0.00616,  -0.04314,   0.12590,   0.00969,  -0.05370,  -0.06691,   0.07836,   0.15760,  -0.06691,   0.05459,  -0.04842,   0.15232,  -0.00616,  -0.05106,  -0.00616,   0.05987,   0.11534,  -0.02465,  -0.06427,   0.01761,  -0.05106,  -0.13294,   0.00705,  -0.00880,  -0.06162,  -0.01144,   0.04138,  -0.03521,  -0.07483,   0.04931,  -0.09332,  -0.11181,  -0.05634,   0.02554,   0.00969,  -0.06427,   0.00705,  -0.02465,  -0.05106,   0.11798,  -0.01672,   0.03346,  -0.10124,  -0.00616,   0.12062,   0.10213,   0.11270,   0.11798,   0.04138,   0.00177,   0.03874,   0.02818,   0.03874,   0.07572
  -0.03785,   0.08364,  -0.01936,   0.00705,  -0.00088,  -0.05106,  -0.00880,   0.08893,  -0.08540,  -0.01144,   0.00441,  -0.10917,  -0.10124,  -0.01672,  -0.04578,   0.04138,   0.04403,  -0.03257,   0.01761,  -0.11181,   0.04667,  -0.03785,  -0.10124,  -0.00088,   0.12854,  -0.06955,   0.01761,  -0.01672,  -0.10124,   0.01497,   0.02025,   0.00441,   0.00441,  -0.05898,   0.05195,  -0.00352,   0.01497,  -0.11445,  -0.03257,  -0.09596,   0.09421,   0.04138,   0.12326,   0.02554,   0.02554,   0.06251,   0.02818,  -0.09596,  -0.05370,  -0.06162,  -0.07483,  -0.09332,  -0.04049,  -0.05370,  -0.01144,  -0.06427,  -0.06162,   0.07308,   0.06780,   0.02818,   0.07044,   0.01233,  -0.08804,   0.13647,   0.03610,  -0.01936,   0.04931,  -0.00880,  -0.16992,   0.10213,   0.06780,  -0.05898,  -0.01672,   0.03082,  -0.15935,   0.10477,   0.13911,  -0.00880,   0.03346,   0.03346,  -0.03521,   0.09949,   0.03346,  -0.08275,  -0.06955,  -0.11181,   0.02025,  -0.07747,   0.07308,  -0.03521,   0.02818,  -0.04578,   0.05987,   0.02290,  -0.04842,   0.16552,   0.03082,  -0.09596,  -0.00088,  -0.04314,   0.00177,  -0.08275,   0.03874,  -0.10388,   0.07044,  -0.05370,  -0.09596,  -0.11973,   0.05987,  -0.07219,   0.02818,  -0.01408,   0.09157,  -0.09596,  -0.02729,  -0.02993,  -0.08540,   0.01497,   0.16024,   0.04138,   0.00705,   0.09685,   0.00177,   0.01497,  -0.01408,  -0.05106,  -0.00616,  -0.00088
   0.09685,   0.07572,   0.04667,  -0.10653,   0.04138,   0.04138,  -0.07747,  -0.01672,  -0.03521,  -0.10917,  -0.01408,   0.14175,   0.05195,   0.11534,  -0.05898,  -0.01672,   0.05195,   0.01497,  -0.05634,   0.04667,   0.15496,  -0.04578,   0.05723,  -0.01672,   0.02025,  -0.01144,   0.02290,  -0.01408,   0.03610,   0.00441,   0.00969,  -0.04842,   0.10477,   0.05987,  -0.04842,   0.01233,  -0.06691,   0.09421,  -0.14350,   0.08364,   0.00969,   0.02290,  -0.03785,   0.08364,  -0.05898,   0.00969,  -0.14879,   0.09685,   0.09421,   0.02290,   0.02554,   0.09949,  -0.04578,   0.00441,   0.07572,   0.03874,   0.07572,  -0.00616,  -0.05106,  -0.10388,   0.02025,   0.02290,   0.05987,  -0.01672,  -0.02465,  -0.05634,   0.08364,   0.03082,  -0.00088,   0.04138,   0.02290,  -0.11445,   0.00969,   0.02818,  -0.15407,  -0.01672,  -0.05634,   0.01761,   0.05195,   0.01233,   0.07572,  -0.00352,  -0.02993,   0.02025,   0.03346,   0.02025,  -0.08540,  -0.05898,  -0.05898,  -0.05370,  -0.04314,   0.01233,  -0.02465,   0.07836,  -0.05634,  -0.02993,   0.01497,  -0.05634,   0.15496,   0.06251,   0.04403,  -0.00616,   0.07308,  -0.00880,   0.00177,   0.05987,   0.07044,  -0.08011,  -0.08804,   0.10741,   0.07572,  -0.13030,   0.09949,  -0.09332,  -0.05634,   0.01761,   0.01497,   0.12326,   0.05987,   0.08364,   0.03082,  -0.15407,   0.01761,  -0.00352,   0.01233,  -0.04049,   0.05987,   0.09949
   0.04931,   0.09685,  -0.01408,   0.03610,   0.05459,  -0.02993,  -0.12766,   0.03874,   0.06780,  -0.02729,  -0.03785,   0.02554,   0.04403,   0.02818,   0.01233,   0.04403,   0.01497,  -0.03257,  -0.11445,   0.09157,   0.03874,  -0.00088,   0.02025,  -0.01408,  -0.00616,   0.03610,   0.02554,   0.05195,  -0.01936,   0.01497,   0.02025,   0.03874,  -0.02465,   0.04667,   0.01233,   0.10741,   0.01497,   0.02025,  -0.06691,  -0.02465,  -0.00352,  -0.00352,  -0.08540,   0.18665,   0.03082,  -0.14350,   0.02554,   0.08100,   0.09949,  -0.00352,  -0.08804,  -0.01408,   0.25268,   0.01497,   0.05195,  -0.01672,  -0.09596,  -0.10653,  -0.03257,  -0.01672,   0.07308,   0.01497,   0.09421,  -0.02465,   0.08893,   0.04138,   0.02290,   0.01761,  -0.14879,  -0.00616,   0.04931,  -0.12501,  -0.06691,  -0.02465,  -0.16199,   0.07836,   0.09421,   0.01233,  -0.02201,  -0.13030,  -0.00088,   0.00441,  -0.05634,  -0.06162,  -0.11973,  -0.01144,   0.04403,   0.01233,  -0.19105,  -0.01936,   0.09157,   0.01761,   0.04138,   0.03610,  -0.12237,   0.04931,  -0.08804,  -0.04049,   0.07308,  -0.01144,   0.01497,  -0.01672,   0.01497,  -0.07483,  -0.00880,  -0.04578,   0.16024,  -0.01408,   0.03346,   0.00177,  -0.07219,  -0.10388,   0.12062,  -0.02729,   0.15760,  -0.04842,   0.03346,  -0.06427,   0.07572,   0.00441,  -0.00880,  -0.02201,   0.03610,   0.16024,  -0.03785,  -0.06162,   0.03610,   0.03346
   0.11798,   0.07308,   0.03874,   0.00177,   0.03874,  -0.02993,   0.06251,  -0.03785,  -0.04842,  -0.00088,  -0.03521,   0.04667,   0.02554,  -0.03257,  -0.02993,  -0.09332,   0.06251,  -0.14350,  -0.07219,   0.07572,  -0.13558,   0.16024,  -0.02729,  -0.00088,   0.11270,   0.07044,  -0.10653,   0.11270,  -0.04314,  -0.05106,   0.04931,   0.02554,   0.05723,   0.08364,  -0.03785,   0.00705,  -0.06162,   0.00969,  -0.08804,  -0.03785,   0.13911,   0.02554,  -0.04578,   0.09949,   0.02290,  -0.03521,  -0.07747,   0.01233,  -0.02201,   0.08628,   0.01233,  -0.11445,   0.04138,  -0.00088,   0.19722,   0.08100,  -0.10388,   0.01761,   0.04667,  -0.11445,   0.05987,   0.00705,  -0.09068,   0.04403,   0.04403,   0.08100,   0.00969,   0.08100,  -0.00352,  -0.01936,   0.00705,  -0.01936,  -0.14879,   0.05195,  -0.05898,  -0.04314,  -0.04578,   0.14439,   0.07044,  -0.12237,  -0.12237,   0.02025,  -0.03257,  -0.04314,  -0.01408,   0.05195,  -0.10124,  -0.09596,   0.00441,   0.04403,  -0.11181,   0.00177,  -0.10124,  -0.00352,  -0.16463,   0.06251,  -0.08540,  -0.04314,  -0.06427,   0.03346,  -0.01408,   0.07572,  -0.00880,  -0.09068,  -0.07483,   0.09949,   0.05987,  -0.01144,  -0.02201,   0.05459,  -0.00352,  -0.03521,   0.17873,   0.03346,  -0.02201,   0.17873,  -0.00616,   0.03082,   0.14175,   0.08364,  -0.00352,  -0.00880,   0.13647,   0.06251,  -0.11445,  -0.17520,  -0.03785,   0.07836
   0.03874,  -0.02201,  -0.04049,  -0.11181,   0.04138,  -0.01672,  -0.03257,   0.05987,   0.11798,  -0.00880,   0.16024,   0.19193,   0.10741,   0.09685,   0.02554,   0.07308,   0.10741,   0.08893,  -0.04049,  -0.04049,   0.10213,  -0.01408,  -0.07219,  -0.00088,   0.01233,   0.03346,  -0.02729,   0.00441,  -0.08275,   0.00177,   0.12062,   0.08364,   0.03346,   0.02554,  -0.16463,   0.09949,   0.04138,   0.03346,   0.04931,   0.02290,  -0.14879,   0.04931,  -0.01672,  -0.04314,  -0.16727,  -0.02201,   0.04138,   0.01761,  -0.05634,   0.14703,  -0.00880,   0.02025,   0.00705,  -0.03521,  -0.01936,   0.03346,   0.07572,   0.02818,  -0.12237,  -0.01144,   0.10477,  -0.01408,   0.10213,  -0.11181,   0.03082,  -0.00088,  -0.04049,   0.00177,  -0.09332,   0.00177,   0.14175,  -0.01144,   0.07044,   0.05195,   0.05987,   0.02818,  -0.03521,   0.08893,   0.03346,  -0.06955,   0.22099,   0.00177,   0.00705,   0.08100,   0.11006,  -0.06162,  -0.06955,  -0.01672,  -0.12237,   0.00441,   0.08364,   0.03610,   0.04667,   0.13119,   0.03082,   0.02554,  -0.05634,  -0.01672,   0.02818,   0.01497,  -0.03521,  -0.00088,  -0.05898,   0.03610,  -0.02465,   0.00705,   0.06516,  -0.02729,   0.02554,  -0.01144,   0.03082,  -0.01672,  -0.07747,   0.03874,   0.06251,  -0.00880,  -0.00088,   0.00177,   0.04931,   0.01497,  -0.06955,  -0.10124,  -0.09596,   0.05987,   0.03346,   0.02025,  -0.03521,   0.01761
   0.02025,   0.07044,   0.03610,  -0.04314,  -0.05898,   0.00441,   0.11006,  -0.02993,   0.06516,   0.04667,  -0.05106,  -0.01672,   0.05459,  -0.01144,   0.01233,   0.04138,   0.01233,   0.03082,  -0.05370,   0.17345,   0.03082,   0.00177,  -0.00880,  -0.03257,   0.09157,   0.08364,  -0.13558,   0.07308,   0.00441,  -0.11181,   0.05195,  -0.15935,  -0.11181,  -0.04842,  -0.06427,  -0.08011,   0.12854,   0.11798,  -0.09860,   0.00177,  -0.00880,  -0.06691,  -0.10653,   0.04931,   0.01233,  -0.07219,  -0.00352,   0.11270,  -0.05370,   0.14703,  -0.17256,   0.00705,   0.09949,  -0.12501,   0.25004,   0.05987,   0.03346,   0.13119,  -0.06691,  -0.11445,  -0.06691,   0.12854,   0.02290,  -0.07747,   0.10741,  -0.00616,  -0.03521,   0.05723,   0.10213,   0.11270,  -0.08011,  -0.10917,  -0.00352,  -0.07483,  -0.05106,  -0.08011,  -0.03521,  -0.09332,   0.07836,  -0.03521,   0.06516,  -0.04049,  -0.16727,   0.00969,   0.05195,   0.05459,   0.00705,  -0.12501,  -0.02993,   0.03346,   0.07044,   0.24740,   0.14175,  -0.11973,  -0.03521,  -0.04842,  -0.06162,   0.18929,  -0.10124,   0.07572,   0.01761,  -0.13294,  -0.14350,  -0.00880,   0.10477,  -0.06162,  -0.02993,   0.07836,  -0.07483,  -0.07219,   0.01761,   0.09421,  -0.21746,   0.01761,   0.19986,   0.12062,   0.14967,  -0.24915,   0.00969,  -0.04578,   0.01761,   0.03346,   0.03346,  -0.05634,   0.11534,   0.00441,   0.07836,  -0.00088
  -0.00880,  -0.07219,  -0.00616,  -0.06691,  -0.21482,  -0.07747,  -0.05370,   0.07836,  -0.11973,   0.08364,  -0.02201,   0.04667,  -0.09860,  -0.07483,  -0.01408,  -0.06955,   0.02818,  -0.06427,  -0.04314,   0.12326,  -0.16992,   0.07308,  -0.09860,  -0.14614,   0.04667,  -0.06691,  -0.14350,  -0.13558,   0.17080,  -0.06427,  -0.04049,   0.00969,  -0.02993,   0.02290,  -0.10388,  -0.11973,   0.01761,  -0.07219,  -0.04049,  -0.04049,  -0.04314,  -0.06955,   0.03874,  -0.04578,   0.11006,  -0.06162,   0.09421,   0.25004,  -0.03521,  -0.12766,   0.05723,   0.03610,   0.04403,  -0.12237,   0.15496,  -0.00880,  -0.06427,  -0.03257,  -0.12766,  -0.09068,  -0.02465,  -0.01672,   0.01497,  -0.09596,   0.02554,  -0.13558,  -0.02993,   0.13119,  -0.03785,  -0.11973,   0.00441,   0.03082,   0.03346,  -0.04049,  -0.11973,   0.21306,   0.15232,  -0.00880,   0.05195,  -0.04049,   0.02818,   0.06251,   0.15760,  -0.00880,  -0.00088,   0.09949,  -0.02729,   0.10741,  -0.02993,  -0.06691,   0.05195,   0.04403,  -0.08275,   0.01233,  -0.00352,  -0.06955,  -0.00352,   0.01233,  -0.11181,  -0.09596,   0.17080,   0.00441,  -0.10388,  -0.00880,  -0.01408,  -0.04314,  -0.03257,  -0.09596,  -0.02729,   0.09949,  -0.16463,   0.05987,   0.02554,   0.10477,   0.01761,   0.12326,   0.07308,   0.00969,  -0.08804,   0.13383,  -0.03257,   0.07308,   0.32400,   0.09685,  -0.02465,  -0.07219,  -0.07219,  -0.01408
   0.00705,  -0.02465,   0.00969,   0.00177,   0.03610,  -0.04314,  -0.05634,   0.04403,  -0.08011,   0.04138,   0.01233,  -0.04842,   0.11798,   0.00441,   0.02818,   0.02818,   0.00441,   0.05459,  -0.03785,   0.04403,  -0.02729,   0.00177,   0.04667,  -0.12766,  -0.02465,   0.02025,   0.01497,   0.03874,  -0.04314,   0.15760,   0.02025,   0.08893,   0.00705,   0.10477,  -0.05898,  -0.03521,   0.01233,   0.00441,   0.12590,   0.04403,  -0.02993,  -0.00880,   0.07836,  -0.17256,  -0.02729,  -0.05106,  -0.07219,  -0.02993,  -0.14614,  -0.05106,   0.02025,   0.08364,  -0.06427,  -0.04578,   0.03082,  -0.06955,  -0.05898,  -0.10653,   0.12062,   0.13647,  -0.10388,   0.09685,   0.01497,   0.00177,   0.04667,   0.01761,  -0.10124,  -0.01144,  -0.07483,  -0.06691,   0.02818,  -0.09596,  -0.05370,   0.03082,  -0.05634,   0.01761,  -0.00352,   0.11534,  -0.06691,   0.03082,   0.10213,  -0.03785,  -0.05106,   0.02025,   0.05723,  -0.00616,  -0.00352,   0.02818,  -0.06162,   0.04931,  -0.02729,  -0.07219,  -0.02993,  -0.05634,  -0.06691,   0.01497,  -0.03521,  -0.02993,  -0.05370,   0.00177,  -0.04842,   0.00705,  -0.00616,  -0.04049,   0.01233,  -0.01672,   0.02025,  -0.07483,  -0.03257,  -0.00088,  -0.04314,  -0.01672,  -0.08804,   0.00969,  -0.05106,  -0.07219,  -0.04314,  -0.05898,  -0.05898,  -0.01672,  -0.10653,  -0.03785,   0.00441,  -0.05106,   0.16288,  -0.01672,   0.09949,  -0.03521
  -0.08011,   0.08364,  -0.12766,  -0.06691,   0.05723,  -0.00088,  -0.00880,  -0.05370,  -0.05106,   0.07572,   0.14439,  -0.04842,  -0.05106,   0.04403,  -0.04842,   0.08628,  -0.07219,  -0.09332,  -0.03521,   0.02554,  -0.16199,  -0.04842,   0.13911,   0.04667,  -0.06691,   0.02554,  -0.07219,  -0.07219,  -0.05370,   0.07044,   0.02818,   0.04931,   0.01233,   0.11006,   0.07572,  -0.01144,  -0.08011,  -0.07747,   0.06516,  -0.05370,   0.04403,   0.08364,  -0.07747,   0.03874,   0.05459,   0.04667,  -0.00880,  -0.10388,  -0.01672,   0.21306,   0.00177,  -0.05370,  -0.12237,  -0.12237,  -0.04314,   0.09949,   0.11006,  -0.08011,  -0.01408,   0.13647,  -0.02993,   0.09685,   0.12326,   0.04138,  -0.00352,  -0.04049,   0.07572,   0.00969,  -0.04578,  -0.00880,  -0.10388,  -0.07219,  -0.05898,  -0.14350,   0.03610,   0.09157,   0.00441,  -0.00880,   0.04931,  -0.06427,  -0.00616,   0.00705,  -0.06691,   0.07836,   0.02554,   0.02290,   0.04667,  -0.07483,  -0.16463,  -0.10388,  -0.14614,   0.05987,  -0.02993,  -0.04578,  -0.04049,  -0.08011,   0.12062,   0.14439,  -0.19897,   0.03874,  -0.14350,  -0.04314,  -0.08275,   0.06251,  -0.17520,   0.03610,   0.02290,  -0.03785,  -0.01936,   0.09421,   0.04138,   0.03610,   0.02554,  -0.03785,   0.08628,   0.06516,   0.04667,  -0.02729,  -0.02993,  -0.15671,   0.04138,  -0.02993,   0.04931,  -0.01936,  -0.08540,  -0.04578,   0.14439,  -0.09068
   0.03082,   0.07308,  -0.01936,  -0.06162,  -0.17256,  -0.04049,   0.02554,   0.03610,  -0.05106,   0.00177,   0.06251,   0.03346,  -0.07219,  -0.03785,  -0.02729,   0.07572,  -0.09596,  -0.02729,   0.04403,   0.08893,  -0.01408,   0.01761,   0.01761,   0.05195,   0.04667,   0.05723,   0.00177,  -0.11973,  -0.07219,   0.02025,  -0.01408,  -0.13294,   0.00969,  -0.01936,  -0.08540,  -0.02993,   0.03082,  -0.05634,  -0.12501,   0.01761,  -0.06427,   0.05987,   0.16552,   0.03346,  -0.01408,   0.04138,  -0.05370,   0.11534,  -0.04578,  -0.06691,  -0.09596,  -0.04842,  -0.08804,  -0.08275,   0.04138,  -0.00616,   0.03082,   0.11270,  -0.03257,   0.16288,  -0.02729,   0.16288,  -0.13294,  -0.01144,  -0.00088,   0.02025,   0.12590,  -0.03785,  -0.05370,   0.04667,  -0.01144,  -0.23066,   0.05459,  -0.01936,  -0.07747,   0.01233,   0.27381,  -0.01408,  -0.11973,   0.01497,   0.07044,   0.16288,   0.17873,   0.03346,   0.01761,  -0.05106,   0.02554,  -0.05898,   0.01497,   0.00969,  -0.07747,  -0.06162,   0.06516,   0.03082,  -0.01144,   0.02025,   0.09949,  -0.01144,  -0.02993,   0.01761,  -0.05634,  -0.02201,   0.00969,   0.00441,  -0.07219,   0.13911,  -0.04049,  -0.04049,   0.12326,  -0.01936,  -0.04049,   0.02818,  -0.01408,   0.01761,  -0.07747,   0.03082,  -0.02465,  -0.10653,  -0.06955,  -0.11709,  -0.03785,   0.10213,   0.06251,  -0.06691,  -0.06955,  -0.06427,   0.05195,  -0.02465
  -0.06955,   0.06251,  -0.00616,  -0.00352,   0.00705,  -0.01408,   0.06516,   0.01761,   0.00441,  -0.00088,   0.05987,  -0.05634,   0.02290,   0.07836,  -0.07483,  -0.02201,  -0.01408,  -0.04578,   0.06251,   0.00441,   0.01233,   0.11270,   0.08100,   0.05459,  -0.01672,   0.00441,   0.00969,  -0.05634,   0.12590,   0.04138,  -0.02993,  -0.08275,  -0.01408,   0.01761,  -0.10653,  -0.08011,   0.04931,  -0.00880,  -0.15143,  -0.02729,  -0.10388,  -0.01144,   0.13911,   0.11534,  -0.02465,  -0.01144,  -0.01936,  -0.08804,  -0.04578,   0.03082,  -0.04578,  -0.06955,   0.02818,  -0.02201,   0.03874,   0.00177,  -0.07483,  -0.08804,  -0.02993,  -0.01936,  -0.07483,   0.01233,   0.10741,  -0.07219,  -0.02465,  -0.00352,   0.01497,  -0.02993,   0.07836,  -0.02201,  -0.01144,  -0.00880,   0.03610,   0.04667,  -0.00880,   0.08364,   0.09421,   0.01233,  -0.10388,  -0.12501,  -0.00352,  -0.04314,  -0.00352,  -0.12237,  -0.01936,  -0.00880,  -0.09068,   0.00177,   0.10741,  -0.04842,  -0.00880,  -0.07747,  -0.01672,   0.11270,   0.05459,   0.00177,   0.03346,  -0.14350,   0.11534,  -0.02993,   0.05459,  -0.00616,  -0.00616,   0.09949,   0.01233,  -0.10124,   0.14967,  -0.03521,  -0.12766,  -0.01936,   0.06780,   0.02290,   0.06516,  -0.06691,  -0.04842,   0.00705,   0.01233,   0.01497,   0.05459,   0.05195,   0.00177,  -0.05634,  -0.13294,  -0.05370,   0.05987,  -0.00880,  -0.00352,  -0.07219
   0.00177,   0.06516,  -0.08804,  -0.10917,   0.07572,  -0.15407,  -0.04578,   0.07572,   0.01233,  -0.07747,   0.07044,  -0.00352,   0.04667,   0.07308,  -0.04578,  -0.00880,  -0.04578,  -0.06162,   0.04667,  -0.02201,  -0.01144,   0.00705,  -0.01144,   0.04667,   0.07836,  -0.06691,  -0.00616,   0.07044,   0.09685,  -0.05898,   0.12062,   0.00969,  -0.05106,  -0.11973,  -0.02201,  -0.14614,   0.00177,   0.00705,   0.03874,   0.04138,  -0.05898,   0.01233,  -0.03521,   0.12590,   0.03346,  -0.04842,  -0.06162,  -0.00088,   0.15760,  -0.09332,  -0.09596,  -0.06162,   0.01761,   0.08100,  -0.15671,   0.01233,  -0.06162,   0.03082,  -0.03785,  -0.16727,  -0.06162,  -0.08275,   0.02290,  -0.00616,   0.26061,   0.09421,   0.09949,   0.00441,   0.08364,   0.05987,  -0.04314,   0.00705,   0.08893,  -0.00616,  -0.02729,  -0.07747,  -0.01672,   0.08893,   0.03082,   0.02554,   0.04138,   0.02290,  -0.07483,  -0.09860,  -0.04578,  -0.09596,  -0.09596,   0.00969,  -0.05634,  -0.07483,   0.03874,  -0.05634,   0.00441,   0.03346,  -0.00880,   0.02554,  -0.03257,  -0.02729,   0.06251,   0.17873,   0.15232,   0.00441,  -0.15671,   0.05195,  -0.14086,   0.07308,  -0.00088,  -0.02465,   0.02025,   0.07836,   0.00705,  -0.14879,   0.00969,   0.00441,   0.01761,  -0.09860,   0.04931,   0.03610,   0.02818,   0.11798,  -0.02729,   0.14439,   0.19458,  -0.20425,  -0.05898,  -0.02729,   0.09685,   0.03874
   0.06516,   0.06516,   0.08364,   0.01497,   0.08628,   0.05723,   0.04667,   0.13383,  -0.01936,  -0.00880,   0.00969,  -0.09596,   0.01761,   0.14175,   0.02818,  -0.09860,   0.13383,   0.01497,  -0.05898,  -0.00352,   0.02554,   0.14175,  -0.13294,  -0.04049,  -0.10388,   0.17609,   0.04667,   0.07044,   0.06251,   0.12326,   0.03082,   0.07044,   0.15760,  -0.12237,  -0.08275,  -0.00352,   0.03346,  -0.18840,   0.04667,  -0.06955,   0.13911,  -0.02993,   0.08628,   0.03346,   0.12590,   0.03610,  -0.04049,  -0.01408,  -0.18840,  -0.00352,   0.15760,  -0.06955,   0.02554,  -0.01144,   0.03874,   0.02554,  -0.05370,  -0.08804,   0.05195,   0.04667,  -0.16992,  -0.07747,  -0.08275,   0.02025,   0.06516,   0.12326,  -0.05106,  -0.08275,  -0.09068,  -0.03257,   0.11534,   0.03082,   0.05459,   0.02818,   0.04931,   0.05459,   0.12326,   0.12590,  -0.09068,   0.03346,  -0.02465,   0.02025,  -0.00088,   0.05987,  -0.08011,  -0.06691,  -0.01408,   0.09685,   0.00705,  -0.10917,   0.07308,  -0.01408,   0.02290,  -0.09332,  -0.11709,   0.10477,   0.07044,   0.05723,  -0.09596,   0.14175,   0.07308,  -0.02729,  -0.01936,  -0.01408,   0.03082,   0.15760,  -0.03521,  -0.03257,  -0.12237,   0.01761,  -0.11445,  -0.11181,  -0.07483,  -0.09068,   0.00441,   0.12590,   0.07308,   0.17345,   0.08628,   0.00441,  -0.06162,  -0.10653,   0.22627,  -0.12237,  -0.04842,  -0.06162,   0.07308,   0.03346
  -0.05898,   0.01761,  -0.05634,   0.04667,  -0.00088,   0.17080,  -0.01144,  -0.01408,  -0.01936,   0.02025,  -0.01936,   0.02554,   0.03874,   0.02554,   0.06780,   0.03610,  -0.09596,  -0.06691,   0.16024,  -0.02993,  -0.08275,  -0.02993,  -0.09068,  -0.11181,  -0.07747,  -0.02729,  -0.10653,   0.04931,   0.12326,  -0.00352,  -0.03257,  -0.14614,   0.07836,  -0.05634,  -0.05106,  -0.01144,   0.11270,  -0.05370,   0.00705,   0.09685,  -0.12501,  -0.02201,  -0.10388,   0.00705,  -0.09860,  -0.05106,  -0.02993,  -0.05106,   0.07308,   0.04667,  -0.05634,  -0.03521,  -0.07747,   0.08893,   0.05987,  -0.02465,   0.06251,   0.06516,   0.09157,   0.06516,   0.00969,  -0.01936,   0.04138,   0.04403,  -0.01144,   0.03346,  -0.04049,   0.08364,   0.05459,  -0.05106,   0.00441,   0.03346,  -0.03785,  -0.07219,  -0.08011,   0.00969,   0.00441,   0.13119,  -0.01408,   0.03874,  -0.04049,   0.05987,   0.12854,   0.03610,   0.01497,  -0.10124,   0.01497,   0.03874,  -0.05634,  -0.00880,   0.03874,  -0.00352,   0.09157,   0.10213,   0.11534,   0.07836,  -0.08011,  -0.11973,  -0.00616,  -0.10388,   0.04667,  -0.08540,   0.02818,  -0.01408,   0.04138,  -0.02993,   0.01761,   0.07308,  -0.05634,   0.02025,  -0.04049,   0.13383,   0.14967,   0.06251,   0.15232,  -0.04314,  -0.05106,  -0.05634,  -0.08275,   0.02025,   0.04403,  -0.11973,  -0.20689,   0.04403,  -0.12237,  -0.01672,  -0.01672,  -0.03521
  -0.15935,   0.13383,   0.00441,   0.02025,  -0.04842,  -0.09068,  -0.04049,   0.01761,  -0.01936,   0.06516,  -0.13558,   0.01233,  -0.03785,   0.05987,   0.03346,   0.08628,   0.03082,  -0.05370,  -0.08540,   0.08893,  -0.09332,   0.01233,  -0.04578,   0.12062,   0.00705,   0.01233,  -0.13822,   0.03874,   0.03874,  -0.06955,   0.00705,   0.05195,   0.12854,  -0.04049,   0.04667,  -0.08540,   0.09685,  -0.02729,   0.00969,  -0.15671,   0.05195,  -0.03521,   0.03346,   0.01497,  -0.07219,  -0.07219,  -0.00880,  -0.01672,  -0.03785,   0.06251,  -0.02993,   0.02025,   0.05987,   0.08100,  -0.03785,  -0.02465,  -0.00352,  -0.05634,  -0.09596,  -0.07219,   0.02818,  -0.03785,  -0.17784,   0.15760,   0.08628,   0.02818,   0.00441,  -0.01936,  -0.04578,  -0.06955,  -0.05106,   0.04931,   0.11798,   0.07836,  -0.08275,   0.14175,   0.15232,  -0.00616,  -0.00880,   0.02025,  -0.00880,  -0.01672,   0.03874,  -0.02729,   0.17609,  -0.09332,  -0.00088,  -0.01672,  -0.07483,   0.08364,  -0.02201,  -0.02465,   0.01497,   0.00441,   0.06780,   0.05459,  -0.05370,  -0.07483,  -0.05370,   0.11006,   0.13383,  -0.01672,   0.04403,   0.11270,  -0.02993,  -0.00088,   0.02290,  -0.06427,  -0.08804,  -0.02465,  -0.06427,   0.12854,   0.06516,   0.00969,  -0.03785,  -0.04842,  -0.05370,  -0.09596,   0.08364,   0.18665,  -0.10388,  -0.02201,  -0.17520,  -0.04049,   0.00705,  -0.04314,   0.07308,   0.02025
   0.03346,   0.13119,  -0.10388,   0.01761,   0.08364,   0.12062,  -0.07483,  -0.00880,  -0.13030,   0.04667,  -0.01408,   0.00441,   0.04403,   0.11534,  -0.08275,   0.14175,   0.01497,  -0.01672,   0.07572,   0.09949,  -0.28085,   0.00441,  -0.09068,  -0.04314,  -0.07747,  -0.10917,  -0.16199,  -0.03785,   0.11798,  -0.10653,   0.04403,  -0.05370,   0.13647,   0.07308,  -0.02993,   0.00441,   0.05987,  -0.12501,   0.02025,   0.08628,   0.05987,  -0.03257,  -0.11973,  -0.05106,  -0.02465,  -0.02201,   0.05459,  -0.00088,  -0.00880,  -0.01408,   0.07308,   0.12326,   0.00705,  -0.09596,  -0.03521,   0.09949,  -0.03785,   0.02025,   0.06251,  -0.02729,   0.09949,  -0.09860,  -0.20425,   0.04403,   0.03346,  -0.12501,   0.01761,   0.05195,  -0.07483,   0.02290,   0.00177,  -0.01672,  -0.11445,   0.04403,  -0.06427,  -0.00352,  -0.08540,   0.09685,   0.12590,  -0.15407,   0.11534,   0.01233,  -0.00088,   0.03082,  -0.15143,   0.17873,  -0.05898,  -0.00616,  -0.04314,  -0.03521,   0.00705,   0.06251,  -0.00616,   0.05459,  -0.05634,  -0.02993,  -0.01144,  -0.09596,  -0.13822,  -0.01672,  -0.01144,   0.04403,   0.11534,   0.04138,  -0.11709,   0.05459,  -0.01144,  -0.13030,  -0.17256,   0.06780,  -0.08804,   0.06780,  -0.00088,   0.11798,   0.00969,   0.04931,   0.01761,   0.00177,   0.06251,  -0.01144,   0.08364,   0.02290,   0.16816,   0.02290,  -0.04578,  -0.08011,  -0.08540,   0.08893
  -0.05370,  -0.10124,  -0.01144,  -0.04314,   0.11798,  -0.04578,  -0.05106,  -0.13294,  -0.04314,  -0.09068,  -0.07483,   0.00969,  -0.04842,  -0.01936,   0.04931,  -0.13294,   0.12590,   0.12062,   0.05195,   0.04403,   0.10477,  -0.02993,   0.12062,  -0.03785,   0.00441,  -0.05634,   0.02025,   0.01233,  -0.20953,   0.06516,   0.18929,   0.02554,  -0.08804,   0.12326,  -0.05898,  -0.04842,   0.04403,  -0.01672,  -0.02993,  -0.02201,  -0.03521,   0.01497,   0.10477,   0.00969,   0.01233,  -0.04578,   0.02818,  -0.12501,  -0.04842,  -0.01144,   0.04667,   0.10741,  -0.06691,  -0.13030,  -0.01936,   0.13383,   0.02818,  -0.08011,   0.02025,   0.03082,   0.00705,   0.03874,   0.03874,   0.05195,  -0.10917,   0.04667,   0.04138,  -0.04049,   0.05195,  -0.04314,   0.00441,  -0.10653,   0.05987,   0.04138,   0.04931,  -0.05370,   0.07572,  -0.08275,  -0.02993,   0.03346,   0.15232,  -0.02729,  -0.04578,   0.06251,   0.09949,   0.06251,  -0.01936,   0.07836,  -0.07483,  -0.00088,   0.01761,   0.05459,  -0.09596,   0.03346,   0.00441,  -0.05370,  -0.09068,  -0.06162,  -0.00616,   0.01233,   0.01497,   0.12326,  -0.08540,  -0.10388,   0.07836,   0.11006,  -0.05898,   0.08628,  -0.04314,  -0.06427,  -0.00616,   0.10213,  -0.00352,  -0.01672,   0.07044,   0.00705,  -0.02465,   0.04931,  -0.01408,  -0.07483,  -0.06691,   0.06780,  -0.03785,  -0.09068,  -0.06427,  -0.02465,  -0.05106,  -0.05634
  -0.07219,  -0.08275,  -0.01672,  -0.02465,  -0.08011,  -0.12237,   0.05195,  -0.16463,   0.10741,   0.04403,   0.12854,   0.15232,   0.05723,   0.02025,  -0.12501,  -0.02729,   0.00969,  -0.02465,  -0.00088,   0.01497,  -0.03257,  -0.03521,  -0.00880,  -0.00616,   0.06516,   0.09157,   0.04667,  -0.01936,   0.00177,  -0.05634,   0.01233,   0.04931,   0.06516,   0.16288,   0.00177,  -0.08275,   0.05723,   0.00177,   0.06780,  -0.06955,   0.11534,   0.03346,   0.09421,  -0.03521,  -0.09596,  -0.09596,   0.00177,   0.04403,   0.01497,   0.05459,  -0.01408,  -0.10653,  -0.09332,  -0.17784,  -0.06691,  -0.04842,   0.08628,   0.06516,  -0.13294,  -0.04049,   0.03610,   0.12062,   0.11534,   0.02818,   0.05723,   0.01761,  -0.03521,   0.05195,  -0.09332,   0.12326,  -0.00352,  -0.06691,  -0.10124,  -0.01672,   0.04667,   0.05723,   0.02025,   0.04667,  -0.03785,   0.07308,   0.03082,  -0.05106,   0.01497,   0.10477,   0.06780,   0.03346,   0.02818,   0.10213,   0.02025,  -0.07483,  -0.04842,   0.02554,  -0.05370,  -0.06691,   0.04931,   0.06516,  -0.04049,  -0.11973,  -0.07747,  -0.05898,  -0.06427,  -0.00616,  -0.03785,  -0.05370,  -0.09332,  -0.09860,  -0.03785,   0.19722,  -0.01408,   0.04931,   0.01761,  -0.02465,   0.04931,   0.15760,   0.04667,  -0.00616,   0.00177,   0.06251,   0.09157,  -0.04049,  -0.07219,  -0.02201,  -0.25972,   0.14967,   0.13119,  -0.01408,   0.08364,  -0.07219
  -0.05370,  -0.02201,  -0.03785,   0.03082,   0.07044,  -0.18048,  -0.00880,  -0.04842,  -0.04842,   0.07572,  -0.05370,  -0.00352,   0.06780,  -0.01144,  -0.09860,   0.02290,  -0.11445,  -0.00352,  -0.02729,  -0.00352,   0.03874,  -0.12237,  -0.09068,  -0.10124,   0.09421,  -0.03257,   0.02290,  -0.06162,  -0.13294,  -0.00088,   0.07836,   0.04931,  -0.01672,   0.11270,   0.03082,   0.02818,   0.00705,  -0.04842,   0.12326,   0.04403,  -0.03521,   0.09157,   0.03082,  -0.09068,  -0.10388,  -0.01936,  -0.05898,  -0.05634,  -0.09068,  -0.06162,   0.05987,  -0.10917,   0.16288,   0.07572,   0.02290,  -0.09596,  -0.01672,  -0.04842,  -0.02201,   0.12062,   0.04138,   0.05987,   0.02818,  -0.12766,  -0.01408,   0.13911,   0.03082,   0.05987,  -0.05634,   0.03082,  -0.07747,  -0.09068,  -0.07483,   0.07308,  -0.09332,  -0.13030,   0.09685,  -0.00616,  -0.03785,   0.02025,   0.07308,   0.01761,   0.05459,  -0.05106,  -0.08275,   0.12326,  -0.01408,   0.02818,   0.00969,  -0.16199,   0.00177,  -0.03257,   0.02818,  -0.00880,   0.00969,  -0.07483,  -0.09332,  -0.00616,  -0.10388,   0.03082,   0.01761,   0.07308,  -0.07483,   0.11798,  -0.11181,   0.00441,   0.06251,  -0.09068,  -0.00880,  -0.09860,  -0.00616,   0.29494,   0.07308,   0.10477,  -0.06427,  -0.02201,  -0.00880,  -0.10388,   0.03346,   0.05195,  -0.02993,   0.02290,  -0.00088,   0.00441,   0.03346,   0.04931,   0.14175,   0.10741
  -0.00352,  -0.09332,  -0.05898,  -0.17784,  -0.09596,   0.03082,   0.00705,   0.02025,   0.07836,  -0.03257,  -0.12501,  -0.06691,  -0.04842,   0.06516,   0.03346,  -0.02465,   0.06780,   0.09421,   0.07836,   0.05195,   0.14175,   0.04931,   0.03346,   0.01233,  -0.05634,   0.00705,   0.14967,   0.01233,  -0.08275,   0.06780,  -0.05106,  -0.01672,   0.04138,  -0.00880,  -0.08540,  -0.09860,  -0.00616,   0.03346,   0.00177,  -0.02201,  -0.06427,   0.05459,   0.05723,   0.21571,   0.09421,  -0.14086,  -0.02201,   0.01497,   0.10477,   0.02818,  -0.01144,   0.12062,  -0.10917,  -0.02729,  -0.00352,   0.01233,  -0.06955,   0.09421,  -0.07483,  -0.11709,   0.00441,  -0.05634,  -0.07483,  -0.09596,   0.00969,   0.02818,  -0.13294,  -0.01936,  -0.02993,   0.00177,   0.02554,  -0.04578,   0.04138,   0.03874,  -0.13558,  -0.02729,   0.02554,   0.02025,  -0.01672,  -0.15407,   0.09685,   0.02290,  -0.00088,  -0.00616,   0.03082,  -0.02729,  -0.02201,   0.04138,   0.14967,   0.06780,   0.03346,   0.03346,  -0.02993,  -0.08804,  -0.00616,  -0.01936,  -0.07219,  -0.04049,  -0.06427,   0.08893,  -0.12237,   0.06251,  -0.00088,   0.03874,   0.04403,  -0.12766,   0.13647,   0.00177,  -0.06162,   0.13119,  -0.08275,  -0.11973,   0.00705,  -0.01936,  -0.00352,  -0.05898,  -0.04314,   0.06516,  -0.03257,  -0.01408,  -0.01408,  -0.03257,   0.03874,  -0.09332,  -0.05898,   0.01497,   0.03610,  -0.06427
   0.04403,   0.01233,  -0.08540,  -0.03785,  -0.09860,   0.09157,  -0.01408,  -0.01672,   0.08893,  -0.03521,  -0.02201,   0.05195,   0.03874,   0.03874,  -0.02729,   0.18401,   0.07836,   0.13911,   0.01761,   0.04403,   0.00177,  -0.02201,   0.02290,   0.07044,  -0.01408,  -0.00352,   0.10213,  -0.05106,  -0.00352,  -0.04578,  -0.03257,  -0.05898,   0.14967,  -0.08540,  -0.07219,   0.07836,  -0.12237,  -0.15143,   0.03082,  -0.01672,   0.10477,  -0.11445,   0.12590,   0.07044,   0.05195,  -0.03257,  -0.07483,   0.07044,  -0.02729,   0.10477,  -0.01936,  -0.06427,   0.12062,   0.07308,   0.07044,  -0.04049,   0.02290,  -0.04314,  -0.11445,  -0.13558,   0.03610,   0.12590,   0.01233,   0.02554,   0.03346,   0.05723,   0.04403,   0.14175,  -0.09860,   0.08364,   0.12854,   0.01233,   0.07044,   0.01761,  -0.02201,   0.05195,   0.11798,   0.07836,   0.07044,  -0.08540,   0.06780,  -0.08804,   0.03346,  -0.06691,  -0.03521,  -0.01936,  -0.05898,  -0.09860,   0.02554,  -0.01144,  -0.04578,  -0.04578,   0.00177,   0.06516,  -0.05370,  -0.00880,  -0.06691,  -0.02465,  -0.00352,   0.10477,  -0.01144,  -0.18048,  -0.16463,   0.11534,  -0.06955,  -0.06162,  -0.05634,   0.02290,  -0.04578,  -0.01936,  -0.00880,  -0.11181,   0.04138,  -0.05898,  -0.04842,   0.04931,   0.05987,  -0.04578,   0.12062,  -0.16992,   0.00969,  -0.04314,   0.00441,  -0.06955,  -0.08540,  -0.04314,  -0.01408,  -0.07483
  -0.06162,   0.00441,   0.00705,  -0.04314,   0.07572,   0.04931,  -0.11709,   0.12854,  -0.11181,  -0.08540,   0.06780,   0.02025,  -0.06691,   0.13383,   0.02290,   0.16288,   0.04667,   0.10213,  -0.01144,   0.03610,  -0.12237,   0.08893,  -0.13294,  -0.04049,  -0.04049,  -0.02201,   0.17873,  -0.01936,  -0.11709,  -0.01936,  -0.05106,   0.07044,  -0.00880,   0.04138,   0.02290,   0.02818,  -0.03521,  -0.03785,  -0.06691,  -0.05370,   0.01761,  -0.04049,   0.13647,   0.08100,  -0.04314,  -0.05370,   0.00177,  -0.00088,  -0.06691,  -0.00352,  -0.12237,  -0.00088,   0.06780,   0.00705,   0.09685,   0.02025,  -0.02465,  -0.02201,   0.05723,  -0.12237,   0.09949,   0.05195,  -0.05106,  -0.06162,   0.06516,  -0.01408,   0.01233,   0.12854,  -0.10388,   0.05195,   0.14439,  -0.00616,  -0.00088,  -0.05370,  -0.04049,   0.10477,   0.02818,  -0.00616,   0.03346,   0.00969,  -0.02993,  -0.16463,  -0.09596,   0.08893,  -0.11709,   0.06516,  -0.11709,  -0.06427,   0.00969,   0.11006,  -0.00616,   0.10741,   0.04403,   0.01233,   0.04931,   0.11006,  -0.05106,   0.03610,  -0.00616,  -0.11973,  -0.06955,  -0.00352,  -0.07219,  -0.05370,  -0.04314,   0.07836,   0.04667,   0.05459,   0.07308,  -0.02465,  -0.09596,   0.08628,   0.05723,  -0.03521,   0.08364,   0.03346,  -0.01672,   0.03610,   0.07572,  -0.04578,   0.07044,  -0.02201,  -0.00880,   0.00177,  -0.18576,  -0.02993,   0.09949,   0.09157
  -0.02993,   0.03082,  -0.01144,  -0.08540,   0.04138,   0.03346,   0.07044,  -0.03521,   0.09157,   0.00705,  -0.04842,  -0.00352,  -0.18576,   0.03874,   0.01497,  -0.01144,   0.02025,   0.02818,  -0.10124,   0.09685,   0.07572,   0.03346,   0.02554,   0.00705,   0.11270,   0.00441,   0.01761,   0.09949,   0.00705,   0.06780,   0.03346,   0.09421,   0.07308,  -0.06427,  -0.09332,  -0.08540,  -0.07747,   0.10741,  -0.18576,   0.00441,  -0.12237,  -0.00880,   0.07044,   0.08893,  -0.00616,  -0.06427,  -0.04578,  -0.06427,   0.04403,  -0.18840,   0.05459,   0.02818,  -0.05634,  -0.16463,  -0.04314,  -0.07483,  -0.13822,  -0.02993,   0.08893,  -0.02993,  -0.03521,  -0.02993,   0.13647,   0.00705,   0.00705,   0.04403,   0.03346,   0.10213,   0.21306,   0.05987,   0.13647,   0.02025,   0.03874,  -0.03785,  -0.05106,  -0.04578,   0.09157,   0.02025,   0.05987,  -0.02465,  -0.09068,   0.11534,  -0.05634,  -0.06691,  -0.04842,  -0.02465,   0.15496,  -0.09860,  -0.05370,   0.10213,  -0.04578,   0.06516,  -0.08011,   0.09685,  -0.03521,  -0.16463,  -0.19369,  -0.08275,  -0.00616,   0.04138,  -0.02729,   0.13119,  -0.00880,  -0.08275,  -0.01144,   0.05459,   0.07836,   0.06780,  -0.02201,   0.06780,  -0.07747,  -0.12501,  -0.00352,   0.08364,  -0.09068,   0.04138,  -0.08540,   0.02025,   0.10213,  -0.08804,  -0.03785,  -0.01936,   0.00705,   0.02818,   0.05195,  -0.00352,  -0.05898,  -0.07219
  -0.07483,  -0.01936,  -0.00088,  -0.02729,  -0.08540,   0.08893,   0.15232,   0.14703,   0.11006,   0.02554,  -0.10388,   0.11006,  -0.02993,   0.00705,   0.22099,   0.18137,   0.07308,   0.17345,  -0.01936,   0.00969,  -0.01672,  -0.07219,  -0.15143,  -0.01144,   0.01497,   0.07044,   0.18401,  -0.04842,  -0.09332,   0.00705,  -0.02465,  -0.12501,   0.10213,   0.03874,   0.15760,   0.03082,   0.05195,  -0.06427,  -0.06691,  -0.11445,   0.06516,  -0.00352,  -0.02201,   0.08364,  -0.15671,   0.08364,  -0.07219,  -0.06691,   0.01233,   0.10741,  -0.05370,  -0.10653,  -0.07483,   0.06251,   0.05987,  -0.01144,  -0.13294,   0.03346,  -0.24915,  -0.08540,  -0.14614,  -0.01408,   0.04138,  -0.15671,   0.05459,   0.09421,  -0.12237,   0.02025,   0.04667,   0.05459,  -0.08275,  -0.04314,   0.11534,  -0.00616,  -0.00880,  -0.09860,  -0.10124,  -0.10124,   0.06780,   0.02554,   0.05987,   0.08628,   0.02290,   0.08893,  -0.00880,  -0.07219,  -0.07219,  -0.03257,   0.11798,   0.14439,  -0.14879,   0.09157,   0.04931,   0.04138,   0.13119,   0.04931,  -0.08275,   0.11534,  -0.10388,   0.23948,  -0.05634,  -0.02993,  -0.06955,  -0.04842,   0.01497,   0.07836,   0.13647,   0.00177,  -0.09068,   0.09421,  -0.07483,  -0.13030,  -0.01144,  -0.01408,   0.01233,   0.04403,   0.04931,   0.03610,   0.04667,  -0.09596,   0.03082,  -0.02729,   0.03346,   0.01497,   0.03346,   0.02554,  -0.00616,  -0.05370
   0.00705,   0.07572,  -0.06162,  -0.13822,  -0.00880,   0.16024,   0.01497,   0.07836,  -0.09068,  -0.11181,  -0.12766,   0.04138,   0.09157,   0.00177,   0.00705,   0.05195,   0.06251,  -0.00880,  -0.06427,  -0.00352,   0.00969,   0.09421,  -0.06691,  -0.11709,  -0.05370,  -0.02993,  -0.12237,  -0.11181,  -0.13558,   0.03610,   0.21306,   0.05195,  -0.01144,  -0.03257,  -0.01936,   0.02290,  -0.01672,  -0.07219,  -0.04842,  -0.05370,   0.04403,  -0.14350,  -0.05898,  -0.02465,   0.07572,  -0.01144,  -0.08275,  -0.01144,  -0.05106,  -0.04842,  -0.04578,   0.07572,   0.08628,  -0.07219,   0.11798,  -0.00880,  -0.01144,  -0.02201,  -0.09596,   0.03082,  -0.06955,   0.05459,  -0.04049,   0.14175,  -0.03257,  -0.03785,  -0.06427,   0.02290,  -0.00088,  -0.04578,   0.07044,   0.01761,   0.08628,  -0.06955,  -0.01936,   0.11798,   0.16816,   0.02818,   0.12590,  -0.10917,   0.13911,   0.04138,   0.03082,   0.07308,   0.01233,   0.04667,   0.03082,  -0.07219,   0.01761,  -0.10917,   0.02818,  -0.06162,  -0.11709,   0.02025,   0.01497,   0.03346,  -0.00880,  -0.01672,  -0.08804,   0.02554,  -0.02729,  -0.06955,   0.12590,   0.10213,  -0.09860,   0.24476,   0.01233,  -0.09068,  -0.09332,  -0.01936,   0.06251,  -0.03521,   0.04667,  -0.09068,  -0.00352,   0.09157,  -0.05634,  -0.08011,   0.02290,  -0.09332,  -0.02201,  -0.04314,   0.00177,   0.05459,  -0.02729,   0.06516,   0.03346,   0.13911
   0.04403,   0.16288,  -0.02993,  -0.15407,   0.03082,  -0.08804,   0.06251,   0.01497,  -0.09068,   0.03346,  -0.04842,  -0.00880,  -0.06427,   0.01233,  -0.01672,  -0.01408,   0.00969,   0.02554,  -0.05634,  -0.04842,   0.08628,   0.00969,   0.03346,   0.07836,  -0.06427,   0.03346,  -0.03521,   0.11798,  -0.12237,  -0.02201,  -0.01672,   0.02818,   0.11006,   0.10213,  -0.02993,  -0.08011,   0.08628,   0.01233,  -0.08275,  -0.04842,   0.07836,   0.04931,  -0.03785,  -0.02993,   0.05723,  -0.06427,  -0.03785,  -0.04314,  -0.05106,  -0.14086,   0.07044,   0.12326,  -0.03785,  -0.20689,  -0.10917,  -0.14350,   0.07572,  -0.06427,   0.09157,  -0.01144,   0.13647,  -0.08275,  -0.11709,   0.16024,   0.04403,   0.07836,  -0.06955,  -0.02201,  -0.10124,  -0.08804,   0.10213,  -0.03785,  -0.05106,   0.12590,  -0.01408,  -0.05898,   0.01761,   0.00969,  -0.01408,   0.00441,  -0.00352,   0.18665,   0.00177,   0.02025,   0.18665,  -0.06955,   0.03610,  -0.11973,   0.07572,  -0.02993,   0.11798,  -0.00616,   0.00441,   0.03874,   0.00177,  -0.10388,  -0.16992,  -0.06691,  -0.01936,   0.13119,   0.01497,  -0.08540,  -0.06162,  -0.02201,   0.07572,   0.03082,   0.03874,   0.09421,  -0.04049,   0.05195,  -0.05370,   0.01497,  -0.02993,   0.13119,  -0.02201,  -0.03785,  -0.08275,   0.07308,  -0.04314,   0.18929,  -0.07747,   0.07308,   0.01497,   0.00969,   0.08628,   0.04138,  -0.01144,  -0.00616
  -0.07219,  -0.06162,   0.14175,  -0.02465,   0.06780,   0.09949,   0.07308,   0.18665,   0.08364,   0.03346,   0.01233,  -0.05370,   0.09157,   0.20514,   0.08100,   0.09685,   0.08364,   0.17873,   0.01233,  -0.03521,  -0.13558,  -0.02993,   0.11006,  -0.04842,  -0.01672,   0.05723,  -0.05634,  -0.09860,  -0.03521,   0.11798,  -0.08011,  -0.05370,   0.05195,   0.16288,   0.09421,  -0.04842,  -0.04842,  -0.14614,  -0.13558,  -0.13294,   0.22099,   0.04403,   0.02554,   0.06780,  -0.06691,  -0.06162,   0.05723,  -0.09332,  -0.02993,   0.04403,   0.03082,  -0.06427,  -0.03521,   0.09949,  -0.04049,  -0.02729,  -0.12237,  -0.02465,  -0.02729,   0.08893,   0.02554,  -0.00088,   0.05723,  -0.04578,   0.00441,   0.13911,  -0.00352,  -0.01144,  -0.09068,   0.08893,  -0.15143,  -0.08275,  -0.10124,   0.02290,   0.06516,   0.00705,   0.11798,  -0.08011,   0.00441,  -0.10653,  -0.02729,  -0.21482,  -0.04314,  -0.00352,   0.00177,  -0.00352,   0.04667,   0.02025,  -0.00088,  -0.10124,   0.04667,   0.04931,   0.08628,  -0.06427,  -0.06691,   0.01497,   0.00969,  -0.02729,  -0.08540,   0.04931,  -0.05106,  -0.08011,  -0.01672,   0.18137,   0.00441,   0.00969,  -0.03785,   0.11798,   0.05195,   0.14439,   0.02025,  -0.19105,   0.03874,  -0.03785,   0.07572,   0.05723,   0.08100,  -0.02993,  -0.03785,  -0.21218,  -0.03257,   0.03082,   0.04667,  -0.08804,  -0.01408,   0.05987,   0.07308,  -0.03785
  -0.03785,   0.17873,  -0.04049,  -0.12766,  -0.02201,  -0.08275,   0.01497,  -0.13294,   0.04403,   0.09421,   0.14439,   0.03874,  -0.01144,  -0.01936,  -0.04049,   0.09685,  -0.11445,   0.02025,  -0.02729,  -0.02465,   0.00441,   0.00441,   0.05987,  -0.10653,  -0.09332,  -0.06955,   0.08893,  -0.05634,  -0.00088,  -0.05106,  -0.04842,   0.00441,  -0.03785,   0.17873,   0.17609,  -0.07747,   0.00177,  -0.13294,  -0.03257,   0.01233,   0.07572,   0.02290,   0.04667,  -0.03785,   0.05723,  -0.06691,  -0.07483,  -0.04314,  -0.18048,  -0.08804,  -0.05370,  -0.01672,   0.01233,  -0.08540,  -0.05106,   0.00969,   0.03610,  -0.07219,  -0.01936,   0.00969,  -0.01672,   0.17080,   0.04138,  -0.01408,  -0.05898,   0.04667,   0.04931,   0.09157,   0.11798,  -0.00616,  -0.08011,   0.00177,   0.07308,  -0.01936,  -0.05634,  -0.05898,  -0.05106,   0.05723,   0.04667,  -0.11709,   0.01233,  -0.05106,   0.05987,   0.07308,   0.04667,   0.08628,   0.07044,  -0.07219,   0.04403,   0.11534,   0.05987,   0.03610,   0.03346,   0.05987,  -0.04842,   0.08100,   0.01233,  -0.02993,   0.02290,  -0.01672,  -0.01144,  -0.04842,  -0.04578,   0.01761,  -0.06691,  -0.00616,   0.06251,   0.07836,  -0.04049,  -0.07483,   0.10741,  -0.11709,   0.03874,   0.07836,  -0.04578,   0.02818,  -0.11181,   0.14439,  -0.06955,  -0.02201,  -0.00616,  -0.05370,  -0.02201,  -0.12237,  -0.06955,   0.08893,   0.14967,   0.03082
   0.00441,  -0.02465,   0.01233,   0.07572,   0.07308,   0.01497,   0.02554,  -0.01936,   0.00969,  -0.09596,  -0.04842,  -0.00880,  -0.06955,  -0.02465,   0.04403,   0.09157,   0.00969,   0.02290,   0.02290,  -0.02729,  -0.06162,   0.03610,  -0.03257,   0.05195,   0.06251,   0.09685,  -0.09068,   0.00177,   0.04403,   0.05195,  -0.01936,   0.10741,  -0.00352,   0.04403,   0.07308,  -0.01408,  -0.06955,  -0.02465,  -0.05898,   0.00177,  -0.13558,  -0.02729,   0.06780,   0.19722,  -0.12501,  -0.02201,   0.00441,   0.02290,   0.14967,  -0.00616,  -0.13822,  -0.24387,  -0.13030,  -0.10653,  -0.02729,  -0.03785,  -0.09068,  -0.08804,   0.04667,  -0.05898,  -0.05370,  -0.02465,  -0.02993,   0.06251,  -0.12766,  -0.00352,   0.12854,   0.07044,   0.01233,   0.04931,   0.07836,  -0.01144,   0.00177,   0.02818,   0.03610,   0.03610,  -0.00880,   0.05723,  -0.06691,   0.14175,  -0.05106,  -0.09332,   0.03082,  -0.10388,   0.02818,  -0.10124,   0.08893,  -0.00088,  -0.05898,   0.06516,  -0.00088,   0.02290,   0.16552,   0.13119,   0.01761,   0.11270,  -0.03257,  -0.15143,  -0.11973,  -0.01144,  -0.02729,   0.02554,  -0.02729,   0.00177,   0.05723,  -0.05370,  -0.01936,   0.00705,  -0.05634,  -0.00880,  -0.14086,  -0.03785,  -0.07483,  -0.04314,   0.05459,  -0.10917,   0.05723,   0.11534,   0.09685,  -0.09860,  -0.03521,   0.01233,   0.03082,   0.00441,  -0.05370,  -0.10653,  -0.01144,   0.15760
   0.03082,   0.06516,  -0.09332,  -0.01936,  -0.08804,   0.07044,   0.03346,   0.00177,  -0.03257,   0.02554,  -0.06691,  -0.15671,   0.00441,  -0.01144,   0.02554,   0.14703,   0.06780,   0.03082,  -0.03785,   0.02025,  -0.16199,  -0.03785,   0.02025,   0.11798,   0.07308,   0.16288,  -0.05370,   0.00441,  -0.03257,  -0.00352,  -0.05634,  -0.02201,  -0.00616,  -0.02465,  -0.13294,  -0.05634,  -0.00616,  -0.05634,   0.01497,  -0.08011,  -0.15671,  -0.02201,  -0.14350,  -0.04842,   0.07044,  -0.02993,  -0.06955,  -0.00352,   0.07044,  -0.10917,  -0.06162,  -0.10917,  -0.18048,   0.08100,   0.02554,  -0.02993,  -0.07219,   0.00705,   0.03610,  -0.06427,   0.18137,  -0.02729,  -0.00880,  -0.00352,  -0.02465,  -0.03521,  -0.08011,   0.23948,   0.17873,   0.06251,  -0.11181,   0.20778,  -0.03257,  -0.04314,   0.01233,  -0.02993,  -0.07219,   0.03874,   0.05195,  -0.08540,  -0.00616,  -0.02729,  -0.01672,  -0.04578,   0.12062,  -0.01936,  -0.09068,  -0.04842,   0.13911,   0.09685,   0.02290,  -0.08540,  -0.08275,  -0.01672,   0.09157,   0.12590,   0.06780,   0.03874,  -0.01144,  -0.10917,  -0.05898,  -0.03521,  -0.02465,  -0.06691,   0.04138,   0.11270,   0.09685,  -0.03785,   0.01761,   0.09685,   0.11006,  -0.15671,  -0.00088,   0.05723,  -0.08804,  -0.02201,  -0.03257,   0.01497,  -0.10653,  -0.07219,  -0.06955,  -0.10917,  -0.09596,  -0.06427,  -0.02201,   0.03874,   0.02290,  -0.00088
  -0.09332,   0.11798,  -0.05106,  -0.05634,   0.04138,   0.14439,   0.07308,   0.07572,  -0.02465,  -0.04842,  -0.05898,   0.02290,  -0.04314,   0.05987,  -0.13030,  -0.03521,   0.02554,  -0.02993,  -0.00616,   0.00441,  -0.16199,   0.13911,  -0.10388,  -0.06691,  -0.01144,   0.08628,  -0.00352,  -0.06162,  -0.12766,   0.02290,   0.02818,   0.06780,   0.00969,   0.06780,   0.05987,  -0.06162,   0.03082,  -0.02729,  -0.03785,   0.00177,  -0.08011,  -0.05898,   0.10741,  -0.06162,   0.02290,  -0.09332,   0.00177,  -0.09332,  -0.03785,  -0.10124,  -0.08804,  -0.19897,  -0.04049,   0.05723,  -0.07747,  -0.03257,  -0.05898,   0.02818,   0.12326,  -0.02993,   0.00177,  -0.10388,   0.00441,   0.03874,   0.06516,  -0.02729,  -0.05634,   0.11798,   0.00705,   0.06516,  -0.03521,   0.03610,  -0.04314,   0.13911,   0.10741,   0.04403,  -0.02201,   0.04931,   0.00969,  -0.13822,  -0.10124,  -0.04578,  -0.13294,  -0.02993,  -0.02993,   0.05723,   0.03874,  -0.06427,   0.07308,  -0.02465,   0.06780,   0.13383,   0.07308,   0.07044,   0.11534,   0.11534,   0.05195,   0.03610,   0.05195,   0.05459,  -0.03521,  -0.05370,  -0.11445,  -0.07483,  -0.02729,  -0.04049,  -0.00880,  -0.03521,  -0.04049,   0.09157,   0.00969,  -0.04842,   0.02025,  -0.04314,  -0.00616,   0.11534,  -0.01936,  -0.00088,  -0.05634,  -0.01936,   0.04931,   0.00969,  -0.05106,   0.02554,  -0.01144,  -0.04578,   0.04403,  -0.06691
  -0.04842,  -0.12501,  -0.09068,  -0.11181,  -0.04049,  -0.03785,  -0.01144,  -0.06427,   0.07572,  -0.01408,  -0.13294,  -0.04842,  -0.04842,  -0.06162,  -0.03257,  -0.06955,  -0.06955,   0.01233,  -0.05898,   0.01497,   0.07836,  -0.02993,   0.03874,   0.05723,  -0.11181,   0.04403,   0.02290,   0.02554,   0.08364,   0.05723,  -0.00616,   0.04931,  -0.15671,  -0.09068,   0.08364,  -0.03257,   0.07308,  -0.07747,  -0.00616,   0.00969,   0.02290,  -0.01936,  -0.09596,   0.25532,   0.03346,  -0.08540,  -0.05634,  -0.06162,   0.05459,  -0.18312,   0.04667,   0.01233,  -0.22274,  -0.06691,   0.01761,  -0.10124,  -0.06162,   0.02818,  -0.01408,  -0.03785,   0.06251,  -0.11181,   0.07572,   0.11270,   0.01497,  -0.07219,  -0.02201,  -0.02993,   0.07308,  -0.06162,  -0.02201,  -0.07219,  -0.04049,   0.07308,   0.05195,  -0.06427,   0.01761,  -0.10124,  -0.01408,  -0.01408,  -0.00880,  -0.08540,  -0.06955,   0.02290,  -0.19105,  -0.01936,  -0.02201,   0.18137,   0.05987,  -0.08011,  -0.01936,  -0.04842,  -0.00352,   0.17609,  -0.00880,  -0.14350,  -0.04842,  -0.06427,   0.03082,   0.14703,   0.02290,   0.07044,  -0.13558,  -0.14086,  -0.03785,  -0.12766,   0.12326,   0.05987,  -0.16463,   0.04138,  -0.02465,  -0.07747,   0.07836,  -0.06162,  -0.03521,   0.05195,  -0.01672,  -0.00088,  -0.07483,  -0.03521,  -0.08804,   0.03346,   0.04403,  -0.05898,  -0.11973,   0.01233,  -0.00088,  -0.00616
  -0.11973,   0.05987,   0.02290,   0.04403,  -0.09332,   0.06516,   0.04138,   0.03082,   0.07836,  -0.02993,  -0.00880,  -0.14350,   0.04667,   0.10477,   0.17609,   0.12062,  -0.05634,   0.09949,   0.03082,  -0.03257,   0.11006,   0.07044,  -0.09332,   0.03874,  -0.03257,   0.06251,  -0.02729,   0.01761,   0.01233,   0.09421,   0.05723,  -0.18840,  -0.02465,   0.01233,  -0.04314,  -0.08011,  -0.06427,  -0.00352,  -0.03785,   0.07308,   0.12062,   0.03346,  -0.07747,   0.08364,  -0.00616,   0.13911,   0.18665,  -0.06691,   0.03346,  -0.05898,   0.23684,  -0.08804,  -0.12237,   0.01497,  -0.05106,  -0.01144,   0.12590,   0.01497,  -0.06427,   0.02554,   0.16816,   0.03610,  -0.09860,   0.05459,   0.10741,  -0.07483,  -0.06162,   0.17609,   0.08628,   0.15760,   0.07836,   0.05723,  -0.03521,   0.03610,  -0.08804,  -0.02465,   0.04403,   0.08100,   0.07572,  -0.01936,   0.13119,   0.04403,  -0.15143,  -0.00352,   0.05459,   0.00177,  -0.03785,   0.08628,   0.00177,   0.08364,  -0.04578,  -0.03785,  -0.07747,  -0.01936,  -0.14350,   0.00705,  -0.08540,  -0.10388,  -0.09860,  -0.07483,  -0.19633,   0.15496,   0.12590,  -0.06427,  -0.01144,   0.11798,   0.12062,  -0.02465,  -0.00352,  -0.05634,  -0.16727,  -0.02993,   0.00441,  -0.11709,  -0.04314,  -0.02201,   0.05195,   0.06780,  -0.10653,   0.00705,  -0.07483,   0.09157,  -0.09332,  -0.02201,  -0.08275,   0.00969,  -0.25179,  -0.07483
  -0.11445,   0.09685,  -0.01672,  -0.04578,  -0.13558,  -0.01936,   0.05195,   0.01497,  -0.06691,   0.03610,  -0.00616,  -0.06427,   0.05459,  -0.01936,  -0.00880,  -0.05106,  -0.03521,  -0.03257,  -0.05106,   0.04138,   0.03874,  -0.13030,  -0.26236,  -0.04578,  -0.12766,   0.10477,   0.09421,   0.02818,  -0.08540,  -0.01936,   0.05459,  -0.04578,   0.15232,   0.03610,   0.08628,  -0.00088,  -0.15407,  -0.19369,   0.03874,   0.07044,  -0.06691,  -0.05106,   0.06780,  -0.12501,  -0.19897,   0.03346,   0.03610,  -0.02993,  -0.06162,   0.01233,   0.01497,  -0.07747,   0.01761,   0.07044,   0.14175,   0.07308,   0.10477,  -0.01936,  -0.04842,  -0.05370,   0.12590,   0.10213,   0.07572,   0.01497,  -0.05898,  -0.13294,  -0.03521,   0.12326,  -0.06955,  -0.05898,   0.01497,   0.10741,  -0.02201,   0.02818,   0.03874,   0.02818,   0.11534,  -0.04842,  -0.10653,   0.03082,  -0.06427,   0.18401,  -0.13030,   0.08364,  -0.03785,   0.07308,   0.03874,  -0.11973,   0.12854,   0.22099,   0.24212,  -0.07219,   0.02554,  -0.11709,   0.00177,   0.02818,   0.01497,  -0.00352,  -0.11973,  -0.06955,   0.04667,  -0.05106,   0.20250,  -0.16727,  -0.00880,   0.07044,   0.02025,  -0.07747,  -0.10388,  -0.04842,  -0.04842,  -0.07747,  -0.04578,  -0.12237,  -0.00616,   0.04403,  -0.01936,   0.10741,   0.02554,  -0.05898,  -0.09860,  -0.00352,   0.13119,  -0.00880,   0.00177,  -0.06427,  -0.02465,   0.02554
  -0.01672,  -0.01672,  -0.03257,  -0.10388,  -0.01672,  -0.08540,  -0.09596,  -0.05106,  -0.05634,   0.08364,  -0.10917,  -0.00352,   0.01233,  -0.02993,  -0.08804,  -0.15143,  -0.06691,  -0.03785,   0.03082,  -0.02729,  -0.12237,   0.00177,   0.06516,   0.03346,  -0.11709,  -0.01672,  -0.18576,  -0.05106,   0.01761,   0.01761,  -0.11445,   0.01761,  -0.17256,   0.03610,  -0.03257,  -0.04578,  -0.01672,  -0.12766,   0.00705,  -0.04842,   0.12854,   0.13383,  -0.04049,   0.09157,   0.04931,   0.05987,  -0.11973,  -0.04578,  -0.01672,   0.08628,  -0.01144,  -0.01408,  -0.09332,  -0.10388,   0.00705,   0.04667,   0.03610,  -0.06955,  -0.02993,   0.07308,   0.08893,   0.03346,   0.11534,   0.06780,  -0.06162,  -0.09068,  -0.06691,   0.04931,   0.06251,  -0.00880,   0.04931,  -0.08011,  -0.05370,  -0.01672,   0.03082,  -0.04314,  -0.20953,  -0.04578,  -0.08011,   0.00177,   0.08364,  -0.01936,   0.01497,  -0.08011,  -0.02201,  -0.02993,   0.03082,   0.03082,  -0.00088,  -0.08011,   0.03610,  -0.05898,   0.07836,   0.03610,  -0.08804,   0.00969,  -0.06955,  -0.02729,   0.09949,   0.05987,  -0.00616,   0.02554,  -0.01936,  -0.10124,   0.01761,  -0.04049,  -0.02993,   0.07044,   0.07044,   0.06516,  -0.05106,  -0.11709,  -0.04842,   0.12854,  -0.13030,   0.09421,  -0.07483,  -0.08011,  -0.00352,   0.07044,   0.09685,   0.02554,  -0.01672,  -0.01144,  -0.02993,   0.00441,   0.02025,   0.01497
  -0.16727,  -0.02201,   0.01761,   0.01233,   0.10741,  -0.02729,   0.06516,   0.09157,   0.00969,  -0.00880,   0.08628,  -0.00088,   0.07572,   0.11006,  -0.07747,   0.03346,  -0.01408,   0.00969,  -0.06427,  -0.03521,   0.00705,  -0.08011,   0.17873,  -0.08804,  -0.00616,   0.01761,  -0.10124,  -0.01144,  -0.06162,   0.09157,  -0.05370,   0.04931,  -0.06691,  -0.05634,   0.11798,  -0.06162,  -0.02465,  -0.04049,  -0.00088,  -0.08011,  -0.03785,   0.09421,   0.10213,   0.01233,  -0.05634,   0.06516,  -0.14350,  -0.04314,  -0.01408,   0.06780,  -0.04314,  -0.08540,   0.00705,  -0.02729,  -0.04049,   0.06780,  -0.00352,  -0.02729,   0.15760,   0.11534,  -0.01144,   0.22627,   0.11006,  -0.14614,   0.02554,  -0.15935,  -0.04049,   0.12326,   0.03874,   0.01761,   0.04667,  -0.08540,  -0.06691,   0.02290,  -0.10124,  -0.08011,  -0.07219,   0.14175,  -0.14086,   0.05987,  -0.02993,   0.02025,   0.01497,   0.04138,  -0.14614,  -0.00088,   0.02818,   0.02818,   0.03082,  -0.15671,  -0.06955,   0.00969,   0.16816,  -0.12501,  -0.04314,   0.12854,  -0.00616,  -0.13558,   0.05195,  -0.01144,  -0.18840,  -0.04314,   0.13383,  -0.08804,   0.03082,  -0.13030,  -0.06162,   0.17345,   0.03610,  -0.00880,   0.04667,  -0.15671,   0.16552,   0.11798,   0.01233,   0.05195,   0.02554,  -0.04314,  -0.15671,   0.00441,   0.04138,   0.06516,  -0.07483,   0.02554,  -0.17256,   0.02025,   0.08100,   0.01497
  -0.06955,   0.09157,  -0.13558,  -0.10388,  -0.06162,  -0.00880,  -0.10653,   0.05723,  -0.04049,   0.05723,   0.17873,   0.02025,   0.08893,   0.00441,   0.07308,  -0.03257,   0.00969,  -0.02201,   0.08100,   0.02818,   0.02025,  -0.02465,   0.05195,  -0.10653,   0.00177,  -0.02993,   0.15760,   0.02290,  -0.11181,  -0.07219,  -0.09332,  -0.04842,  -0.11445,   0.04403,   0.08628,  -0.10653,  -0.11445,  -0.00880,   0.05459,   0.01233,   0.08893,  -0.00352,   0.24740,  -0.09068,  -0.04049,  -0.02201,  -0.04842,  -0.04578,  -0.13030,  -0.04049,   0.08628,  -0.02201,   0.00177,   0.05459,   0.01497,   0.03874,  -0.01936,   0.07308,  -0.12766,  -0.00352,  -0.20689,  -0.02465,  -0.08804,   0.04403,  -0.04842,  -0.06955,  -0.05106,  -0.00088,  -0.01672,  -0.06162,   0.07308,  -0.12766,   0.11270,  -0.06427,  -0.06691,  -0.01144,   0.06780,  -0.02993,  -0.03785,  -0.06427,  -0.00088,  -0.05370,   0.02290,   0.08364,  -0.14086,   0.12854,   0.04931,  -0.00088,   0.02818,   0.10213,   0.14175,  -0.02993,   0.23419,  -0.01672,   0.02290,   0.02554,   0.08893,  -0.00088,  -0.01672,   0.11798,  -0.09068,  -0.02201,   0.06780,   0.00177,  -0.01672,  -0.09068,   0.04403,  -0.00352,   0.08628,  -0.05898,   0.16552,  -0.11709,   0.07836,  -0.13294,  -0.11445,   0.05459,  -0.04314,  -0.10388,  -0.17256,  -0.02201,  -0.00088,  -0.04049,   0.09421,   0.20250,   0.13383,   0.15496,   0.22627,   0.00969
   0.04667,  -0.06162,  -0.09332,   0.05195,   0.00177,  -0.05634,   0.04403,  -0.06955,   0.10741,   0.06516,   0.04931,  -0.04314,   0.02818,   0.01233,   0.04667,   0.05987,  -0.09332,  -0.12766,   0.06251,   0.05723,  -0.11709,   0.04138,  -0.05898,   0.13119,   0.01233,  -0.00352,  -0.05106,   0.09685,  -0.01144,   0.03610,   0.00441,   0.05723,   0.04403,   0.07836,  -0.00616,  -0.06427,  -0.00616,   0.07308,   0.05195,  -0.04578,  -0.11181,   0.08628,   0.20514,   0.01497,   0.04931,  -0.06691,   0.01233,  -0.00088,   0.07308,  -0.04049,  -0.06427,  -0.08540,  -0.03257,   0.08628,  -0.01672,  -0.03785,   0.06516,  -0.00352,   0.03610,   0.02290,  -0.06427,  -0.01408,  -0.00088,  -0.10653,  -0.05370,  -0.07219,   0.07836,  -0.02729,   0.12326,   0.05987,   0.15760,  -0.04049,  -0.00880,  -0.03785,   0.11270,  -0.05106,   0.06780,  -0.00880,   0.02818,  -0.04049,   0.01233,  -0.02201,   0.00177,  -0.06691,   0.01233,   0.02818,  -0.06955,   0.03874,   0.06251,  -0.05106,  -0.08011,   0.15760,   0.09421,   0.07308,   0.15232,   0.04138,   0.04931,  -0.06427,  -0.06162,   0.03610,   0.00177,  -0.02201,   0.03346,  -0.07219,   0.02290,  -0.17784,  -0.02993,  -0.01144,  -0.05106,   0.04403,  -0.03257,   0.04138,  -0.04049,  -0.01144,   0.10213,  -0.05106,   0.09421,   0.03874,  -0.03257,  -0.12766,  -0.04049,   0.02818,  -0.01672,  -0.02993,   0.01497,  -0.02201,   0.01233,  -0.01408
   0.03346,  -0.06427,  -0.06691,   0.12590,  -0.02993,  -0.03521,   0.09421,   0.03346,   0.03610,  -0.01936,   0.03082,  -0.00880,   0.08364,  -0.08540,   0.15232,  -0.01408,   0.05195,  -0.08540,  -0.02201,  -0.06955,   0.00177,  -0.05106,  -0.08804,   0.03874,   0.03082,  -0.06427,  -0.05898,  -0.11445,  -0.12501,   0.08364,  -0.03785,  -0.04314,  -0.01144,  -0.05370,  -0.11445,  -0.04314,  -0.04578,  -0.06691,   0.03346,  -0.09596,  -0.15671,   0.07836,   0.01497,  -0.16727,  -0.05370,  -0.08540,   0.02554,  -0.09068,  -0.02729,   0.01761,   0.02818,   0.07308,  -0.16463,   0.03610,  -0.00880,   0.05195,  -0.01936,   0.02554,  -0.07747,  -0.09068,   0.06516,   0.06780,   0.02290,  -0.11445,   0.15496,   0.09949,   0.17080,   0.05723,  -0.06955,  -0.07219,  -0.01936,   0.01233,  -0.04578,  -0.00352,  -0.05370,  -0.06162,  -0.06162,   0.07572,   0.07572,   0.01761,  -0.02465,   0.02818,   0.09685,   0.00969,  -0.11973,   0.07044,   0.08100,  -0.00880,   0.01233,  -0.06162,  -0.02201,   0.04138,   0.01497,   0.02818,  -0.01408,   0.01497,  -0.04578,  -0.07219,  -0.08540,  -0.00880,  -0.04578,  -0.13822,   0.11534,  -0.04842,   0.00969,   0.02025,  -0.00880,  -0.09068,   0.02554,  -0.02201,   0.22363,  -0.16727,  -0.01672,  -0.03257,  -0.10388,   0.07308,  -0.10388,  -0.03521,   0.03082,  -0.09068,  -0.06427,  -0.00616,  -0.08011,   0.01761,   0.07308,  -0.05634,   0.02554,  -0.06691
   0.03610,  -0.00352,  -0.14614,   0.07308,  -0.00088,   0.01497,  -0.02993,   0.06516,  -0.01936,   0.02554,   0.12326,  -0.02993,   0.00177,   0.12590,   0.05195,   0.10477,   0.00969,  -0.14086,  -0.06162,   0.06251,   0.19722,  -0.11709,  -0.09860,  -0.07483,  -0.00088,  -0.02993,  -0.10917,  -0.13558,  -0.07747,  -0.11709,  -0.02465,   0.00969,   0.09157,   0.03874,  -0.03785,   0.04667,  -0.00352,   0.05723,  -0.05370,   0.02818,   0.00705,   0.02025,   0.10213,   0.00705,   0.01497,  -0.08275,   0.09949,   0.02290,  -0.13030,  -0.06162,   0.03082,  -0.08275,  -0.10124,  -0.06162,   0.16288,   0.03874,   0.08893,   0.05459,  -0.03257,   0.00969,  -0.03257,   0.01761,  -0.00352,  -0.09860,   0.00441,  -0.00352,  -0.00352,   0.05987,   0.07836,  -0.03257,  -0.00088,  -0.04049,  -0.01672,   0.14439,   0.11006,  -0.05634,   0.00705,  -0.10124,   0.00441,   0.03346,   0.06516,   0.09157,   0.09685,  -0.11445,  -0.17520,   0.08628,  -0.03257,   0.07572,  -0.04049,  -0.02729,  -0.01936,   0.05723,  -0.05634,   0.13911,   0.02290,   0.00441,   0.01233,  -0.01408,   0.05459,  -0.01672,   0.00969,  -0.00616,  -0.01936,   0.00441,  -0.03785,  -0.08275,  -0.08275,  -0.05898,   0.00441,  -0.01408,  -0.02465,  -0.09068,   0.07836,   0.03874,  -0.02993,   0.11534,  -0.14614,  -0.13030,   0.03082,   0.00441,  -0.02201,  -0.01144,   0.13647,   0.11006,   0.00177,  -0.04842,   0.05987,   0.02818
   0.05195,   0.03874,  -0.14350,   0.14703,  -0.06427,   0.02554,  -0.07483,  -0.07483,  -0.11709,   0.01233,  -0.05898,  -0.03257,   0.04403,   0.02025,  -0.05370,   0.12590,  -0.01672,  -0.10388,  -0.00352,   0.07572,  -0.09596,  -0.04842,   0.07572,  -0.00616,  -0.00880,  -0.02993,  -0.05634,   0.02025,   0.02554,   0.03610,  -0.06691,   0.11534,  -0.00880,   0.04667,   0.09685,  -0.07747,   0.06780,   0.03874,   0.02025,   0.00177,   0.00969,  -0.03785,   0.03082,   0.01761,  -0.02729,  -0.03521,   0.13647,   0.10213,  -0.05370,  -0.07219,  -0.00352,  -0.07747,   0.02290,   0.04931,  -0.16727,   0.01497,   0.11006,  -0.02729,  -0.10653,   0.02818,  -0.00880,  -0.01672,   0.06516,  -0.10388,  -0.02465,  -0.02993,  -0.00352,  -0.02465,   0.09949,  -0.00880,  -0.02729,   0.01233,   0.01233,  -0.05634,  -0.00616,   0.03874,   0.03082,  -0.00616,  -0.07219,  -0.08540,   0.05987,  -0.01672,  -0.13294,  -0.01408,   0.04403,   0.08893,  -0.01144,  -0.06427,   0.13119,  -0.04578,   0.04667,   0.20778,   0.14703,   0.05195,   0.03082,  -0.04049,   0.10477,  -0.15407,   0.02554,  -0.02465,   0.13383,  -0.06427,   0.03346,  -0.04578,   0.00705,  -0.02729,  -0.01144,   0.02025,  -0.08275,   0.03346,  -0.00616,  -0.10388,   0.10741,  -0.10124,  -0.09596,  -0.05634,   0.03610,   0.00177,   0.03874,   0.04138,   0.01761,   0.06780,  -0.07483,  -0.04578,  -0.04049,   0.02025,   0.11798,  -0.15143
  -0.07483,  -0.02465,  -0.05898,   0.16024,   0.04931,  -0.01672,   0.00705,  -0.01144,   0.00177,   0.06251,   0.11270,   0.12062,  -0.01672,  -0.05370,   0.14175,  -0.00088,  -0.01672,   0.04138,   0.10741,   0.04138,   0.06516,  -0.03521,   0.11006,   0.03346,  -0.06162,  -0.02729,   0.01233,   0.07572,   0.05459,  -0.00616,  -0.00352,   0.03082,  -0.08275,   0.02818,  -0.00088,  -0.10388,  -0.05106,   0.04931,   0.04931,  -0.02993,  -0.03257,   0.12062,   0.12326,   0.00705,   0.01233,  -0.13822,   0.04403,  -0.19369,  -0.04314,  -0.03257,   0.06251,  -0.02465,   0.11270,   0.07044,  -0.02729,   0.09949,  -0.10388,   0.03610,   0.04138,  -0.01144,   0.11798,  -0.00352,  -0.08804,  -0.03785,   0.04138,  -0.00880,  -0.11445,   0.08893,   0.03610,  -0.02729,  -0.02465,  -0.10388,  -0.11709,  -0.03521,  -0.06162,  -0.15935,   0.00441,   0.06780,   0.18929,  -0.05634,  -0.03257,  -0.02201,   0.04403,   0.18665,   0.07308,   0.04667,  -0.13294,  -0.11973,  -0.08275,  -0.09596,  -0.12237,   0.10741,   0.00177,   0.03082,  -0.03785,   0.14175,   0.02818,  -0.13558,  -0.02729,  -0.08011,  -0.05106,  -0.14614,  -0.11709,  -0.05106,   0.06780,  -0.05370,  -0.07747,  -0.01408,   0.29758,  -0.01936,   0.00177,   0.02290,   0.09421,  -0.06691,  -0.06691,  -0.05898,  -0.00088,  -0.01672,   0.03610,   0.18401,   0.05459,   0.19458,  -0.06162,  -0.06955,   0.11270,   0.05987,   0.01233,  -0.05634
   0.08628,   0.07572,  -0.00616,   0.10477,   0.01761,  -0.22274,  -0.02729,  -0.00088,  -0.07219,  -0.05106,  -0.05898,   0.10213,  -0.11445,  -0.06427,   0.11270,   0.08893,   0.03346,  -0.20425,  -0.01144,   0.00705,  -0.06162,   0.01761,  -0.10917,  -0.12501,   0.06251,   0.04931,   0.04931,   0.12326,  -0.05634,  -0.10653,  -0.04842,   0.07572,  -0.01936,   0.00705,  -0.13294,  -0.06691,   0.06780,  -0.06691,   0.11798,   0.18929,  -0.04314,  -0.08540,  -0.10653,  -0.16199,  -0.02729,   0.00441,   0.06251,  -0.00352,  -0.05898,  -0.10388,   0.05723,   0.02818,   0.06251,   0.02818,   0.05195,  -0.02465,   0.03874,   0.13911,  -0.07219,  -0.02201,  -0.13558,   0.09421,  -0.06691,  -0.13822,   0.14967,   0.12590,  -0.06162,  -0.06162,   0.04667,  -0.05370,   0.04931,  -0.05634,  -0.18312,   0.05987,   0.10741,   0.03610,   0.13647,   0.02818,  -0.11973,   0.01761,  -0.00880,   0.06516,   0.09421,   0.12062,  -0.01672,   0.12062,   0.13119,   0.00969,  -0.04049,   0.03874,   0.03874,   0.02554,   0.17873,   0.16816,   0.12590,   0.11270,  -0.00616,  -0.10917,  -0.04578,  -0.01672,  -0.01408,  -0.06162,   0.02554,  -0.06162,  -0.09596,  -0.04842,  -0.03521,  -0.08275,  -0.06427,   0.03874,  -0.11445,  -0.11709,   0.07044,   0.08893,   0.01761,   0.12326,  -0.08275,   0.13647,   0.10213,   0.15760,   0.06780,   0.00441,   0.08364,   0.01761,   0.04667,  -0.03257,  -0.08275,   0.00705
  -0.04314,  -0.05898,  -0.12237,   0.09949,  -0.01936,   0.14175,  -0.02465,  -0.01144,   0.18929,  -0.01144,  -0.00616,   0.01761,   0.15232,   0.06251,  -0.06955,   0.13647,  -0.11709,   0.04403,   0.00969,   0.17609,   0.05987,   0.09949,   0.16816,  -0.06955,  -0.02201,   0.02818,  -0.06691,   0.02025,   0.06251,   0.12326,  -0.00352,  -0.01936,  -0.13030,  -0.00616,   0.06780,  -0.08275,   0.03874,  -0.22274,   0.03874,   0.04931,  -0.08540,  -0.08804,   0.08100,   0.04403,  -0.11445,  -0.08540,   0.03610,  -0.05106,  -0.03785,   0.02818,  -0.05370,   0.04931,   0.02290,  -0.01672,  -0.01672,   0.08364,  -0.02729,   0.02025,   0.10213,   0.06251,   0.14439,  -0.07219,   0.11798,  -0.03785,  -0.05370,  -0.09596,  -0.03257,   0.01233,  -0.07219,   0.02290,  -0.02729,  -0.00880,  -0.05106,  -0.07219,   0.01497,  -0.09332,  -0.04842,   0.08100,   0.04931,   0.00177,   0.25004,   0.11798,  -0.09596,  -0.01936,   0.04403,   0.11270,   0.12062,  -0.04049,   0.13647,  -0.09332,   0.02290,   0.02818,   0.09157,   0.21306,  -0.08275,   0.03874,   0.08100,  -0.02465,  -0.17520,  -0.00088,   0.07044,  -0.13294,   0.09949,   0.11798,  -0.02465,   0.00441,  -0.04578,  -0.06955,   0.04931,   0.02025,   0.09685,  -0.00088,   0.00441,   0.10741,  -0.01144,  -0.12237,  -0.04578,   0.10741,   0.05459,   0.02818,   0.01233,   0.00705,   0.02554,  -0.04842,   0.00705,  -0.04842,  -0.06955,   0.14439
  -0.04842,   0.07308,  -0.04842,   0.05723,   0.16288,   0.08364,  -0.10388,   0.05723,  -0.02201,   0.05987,   0.00705,   0.08628,   0.04931,   0.09685,  -0.05898,  -0.06691,   0.06516,  -0.07219,  -0.05106,  -0.01144,  -0.04842,  -0.04314,   0.03874,  -0.01408,  -0.05106,   0.06516,  -0.05370,  -0.02993,  -0.05106,  -0.09068,  -0.11445,   0.07308,  -0.04842,  -0.06427,  -0.14086,  -0.19633,  -0.11445,   0.09421,   0.04403,  -0.10124,   0.17873,  -0.08804,   0.19722,  -0.08540,   0.03874,  -0.10653,   0.04667,  -0.05370,   0.02554,  -0.00352,  -0.07747,  -0.08011,   0.06251,  -0.05898,  -0.07219,   0.08628,   0.00177,  -0.01936,   0.01233,   0.07572,   0.10741,   0.03874,  -0.07747,  -0.00088,   0.01497,  -0.06427,  -0.00880,  -0.15407,  -0.11973,   0.17345,   0.14967,   0.02554,   0.03610,   0.01233,  -0.06691,   0.00177,   0.00441,  -0.08275,  -0.00616,   0.14175,   0.00969,   0.07836,   0.10477,   0.06516,  -0.06955,   0.15496,   0.13119,  -0.06427,  -0.05898,  -0.04842,  -0.20161,   0.02290,   0.10741,   0.14175,  -0.10653,   0.09685,   0.06516,   0.07308,  -0.04314,  -0.02729,  -0.06691,   0.03082,  -0.06955,  -0.01408,   0.02818,   0.01761,   0.05459,  -0.05898,   0.02025,  -0.04049,   0.12062,  -0.14614,   0.00441,   0.01497,  -0.13558,  -0.15143,   0.06516,  -0.05634,  -0.14879,   0.05723,   0.08628,   0.05195,   0.00705,  -0.07219,   0.13647,   0.06780,   0.15232,   0.03082
  -0.01144,   0.04138,   0.06516,   0.05987,   0.05195,   0.03610,  -0.10917,  -0.08011,   0.09157,   0.09157,  -0.04842,  -0.11973,  -0.04049,   0.05723,  -0.08540,   0.03082,   0.01233,  -0.14614,   0.12590,  -0.00880,  -0.05634,   0.02554,   0.04931,  -0.09332,   0.03346,  -0.01144,   0.00441,  -0.00616,  -0.13294,  -0.06955,  -0.03257,   0.01761,   0.05987,  -0.01672,  -0.01936,  -0.06162,  -0.01672,   0.01497,  -0.04578,   0.08893,   0.11006,  -0.12237,   0.14967,   0.05987,  -0.03521,   0.16552,  -0.12501,   0.02290,  -0.00880,  -0.08540,   0.01233,  -0.00616,   0.05723,  -0.03785,   0.11270,   0.03610,  -0.03257,   0.07836,   0.04138,   0.15496,  -0.12501,   0.02554,   0.05195,  -0.06427,   0.20778,  -0.04049,  -0.02465,   0.02554,  -0.00616,   0.06780,   0.15760,   0.02554,  -0.14614,   0.03082,   0.00177,   0.05459,   0.16552,   0.10477,   0.02554,  -0.09860,  -0.07747,   0.05723,   0.22627,   0.03610,  -0.18312,   0.10213,   0.01761,   0.00177,   0.01233,   0.02554,  -0.00352,   0.09949,   0.12854,   0.01497,   0.05195,   0.00441,   0.03346,   0.02025,  -0.13558,   0.06780,  -0.02993,  -0.03785,   0.00177,  -0.15143,  -0.01408,   0.04667,   0.09949,  -0.15935,   0.05195,   0.11006,  -0.07483,  -0.04842,  -0.02993,   0.04667,  -0.04842,   0.07044,  -0.05634,  -0.11973,  -0.07483,  -0.07219,   0.12062,   0.21306,   0.06780,   0.05987,   0.08628,   0.06780,   0.06516,  -0.00880
  -0.07483,   0.13647,  -0.02465,   0.02818,  -0.00352,   0.03082,  -0.09332,   0.18401,   0.08364,  -0.08804,  -0.04314,   0.11270,   0.09949,   0.08628,   0.01233,  -0.03257,  -0.01408,   0.06516,  -0.02729,  -0.01144,   0.02290,  -0.03257,   0.02818,  -0.06427,  -0.03257,  -0.03785,  -0.11445,   0.04667,   0.01233,   0.01497,  -0.05898,   0.05459,  -0.00352,   0.03610,   0.04138,  -0.00880,  -0.06427,  -0.02993,   0.04138,  -0.04578,  -0.23331,   0.04931,   0.08893,   0.03346,  -0.02201,   0.07308,  -0.03521,  -0.00880,   0.02290,   0.00705,  -0.02729,  -0.04314,   0.04667,   0.03082,   0.05195,  -0.07747,   0.01497,  -0.01408,   0.16552,  -0.12766,   0.03610,   0.05195,   0.05987,  -0.04842,  -0.09332,   0.02554,  -0.05898,   0.03874,   0.12326,   0.02554,   0.02025,  -0.03257,   0.07836,  -0.04842,   0.02818,  -0.05634,  -0.05370,   0.07836,   0.02554,   0.05987,   0.16552,  -0.04842,  -0.11445,   0.01761,   0.03610,  -0.09860,  -0.06955,  -0.02729,  -0.08275,  -0.02465,  -0.01936,  -0.00088,   0.03610,   0.05195,  -0.06162,  -0.00880,  -0.07747,  -0.11445,   0.00969,   0.04931,   0.01497,   0.00441,  -0.02201,  -0.03257,  -0.04842,  -0.06162,  -0.02201,   0.00441,   0.01233,  -0.01936,  -0.00880,  -0.02729,  -0.01936,  -0.00352,  -0.07219,  -0.06162,  -0.06427,  -0.00616,  -0.05370,  -0.04578,  -0.08011,  -0.16727,  -0.09068,  -0.10124,  -0.13030,   0.07308,  -0.10124,  -0.07483
   0.03346,   0.06516,   0.13119,   0.09949,  -0.10124,   0.06251,  -0.04842,   0.09157,   0.05195,  -0.03257,  -0.03257,  -0.01408,   0.07308,  -0.01408,   0.07836,   0.04931,   0.13647,   0.13911,  -0.06162,  -0.06955,  -0.11445,   0.12590,  -0.01672,   0.10477,  -0.06162,  -0.03257,  -0.15407,  -0.06427,  -0.07747,   0.14967,  -0.06691,   0.00177,   0.01497,  -0.07747,  -0.01408,  -0.00880,  -0.04842,   0.04667,   0.09949,   0.00969,  -0.11445,   0.06251,   0.18929,  -0.12766,   0.04931,   0.02554,   0.01761,  -0.11973,  -0.00352,   0.00969,   0.09685,   0.06516,  -0.04049,   0.11534,  -0.00880,  -0.05106,  -0.08011,   0.18929,   0.03610,  -0.01408,   0.03346,   0.04138,   0.21306,   0.04138,   0.02818,   0.00441,  -0.00088,   0.01233,   0.08628,   0.07572,  -0.10653,   0.04931,   0.03874,   0.07572,   0.01497,  -0.01672,  -0.04314,  -0.09332,  -0.12501,  -0.00616,  -0.01936,  -0.01408,  -0.17256,   0.05459,   0.14439,  -0.07219,  -0.04049,   0.01761,  -0.05634,   0.07044,  -0.09596,   0.04403,  -0.03521,   0.10213,   0.09421,   0.07572,  -0.05370,   0.05459,  -0.00088,  -0.05898,  -0.01144,  -0.03785,   0.09157,  -0.08011,  -0.06955,   0.02290,  -0.06427,  -0.11709,  -0.06162,   0.03346,   0.01497,  -0.13558,  -0.00352,  -0.03257,  -0.08540,   0.00177,   0.07572,  -0.05898,  -0.00352,  -0.15935,  -0.07219,  -0.00880,  -0.14879,   0.11006,  -0.04842,  -0.00616,   0.03874,  -0.16992
  -0.03521,   0.03082,  -0.00352,  -0.03257,  -0.08540,   0.01761,   0.02290,  -0.03785,   0.00705,  -0.02201,  -0.08011,  -0.08275,   0.09685,   0.03610,  -0.10653,   0.04403,  -0.03257,   0.01497,  -0.08011,   0.02554,   0.05987,  -0.05106,  -0.09332,  -0.09068,  -0.01936,   0.02818,   0.03874,   0.00969,  -0.08275,  -0.02729,  -0.03785,   0.04931,   0.07572,   0.05987,  -0.00880,   0.04138,  -0.08275,   0.03874,  -0.05106,   0.00441,   0.03346,  -0.13294,   0.04403,  -0.08804,   0.05723,   0.11798,  -0.02729,   0.00177,   0.01761,  -0.02993,  -0.06427,  -0.06691,   0.04138,   0.07044,   0.11006,  -0.06427,   0.04138,   0.05987,  -0.09332,  -0.08011,  -0.09068,   0.05987,   0.00705,  -0.05370,   0.00969,  -0.03785,  -0.05898,   0.02818,  -0.03521,   0.13119,   0.00441,  -0.01408,  -0.01672,   0.12854,   0.14967,   0.05195,  -0.04578,  -0.06427,   0.00705,  -0.01144,  -0.00880,  -0.10124,  -0.08275,  -0.01936,   0.05195,  -0.02729,  -0.03257,   0.01497,   0.03082,   0.05987,  -0.04842,   0.04138,   0.06780,   0.01497,   0.06780,  -0.02201,   0.13647,  -0.00352,  -0.04578,   0.01761,   0.05195,  -0.13030,   0.01497,   0.03082,  -0.06691,  -0.01408,  -0.02201,   0.10213,  -0.10388,  -0.05898,  -0.02465,   0.08628,  -0.08804,  -0.10653,  -0.07483,   0.08893,   0.02290,  -0.09332,   0.19722,  -0.04314,  -0.00880,  -0.09860,   0.08628,  -0.00352,   0.04667,  -0.06955,   0.05195,  -0.04842
  -0.09596,  -0.02201,   0.00441,  -0.01672,  -0.00352,  -0.11181,  -0.07747,  -0.00616,  -0.06162,  -0.00880,   0.00177,  -0.02993,  -0.00352,   0.02818,  -0.07219,   0.10213,   0.09157,  -0.00352,   0.10741,  -0.00880,   0.11798,   0.04138,   0.06780,   0.05459,   0.05723,  -0.02201,  -0.09860,  -0.04578,   0.14967,  -0.12501,  -0.00880,   0.07044,  -0.15935,   0.09157,  -0.13822,  -0.14879,  -0.15407,   0.11534,  -0.10653,   0.09685,  -0.00880,  -0.04314,  -0.03521,  -0.04842,  -0.14879,  -0.06691,   0.13647,   0.05195,   0.04403,  -0.05370,  -0.03257,  -0.02201,  -0.04314,  -0.03785,  -0.00880,  -0.06427,  -0.10917,   0.11006,  -0.02729,   0.00705,  -0.11709,   0.00705,   0.00705,  -0.08011,   0.01761,  -0.04049,   0.05987,  -0.08275,   0.02554,   0.01497,  -0.07219,   0.02554,   0.08628,   0.01233,   0.03082,  -0.11445,  -0.04314,  -0.04578,   0.06780,  -0.04578,   0.09157,  -0.11709,  -0.03257,   0.09685,   0.03610,   0.04138,  -0.08011,  -0.11445,  -0.03785,   0.03610,   0.06251,   0.01761,  -0.06427,   0.09421,   0.01761,  -0.02729,  -0.18312,   0.06516,   0.09157,   0.05459,   0.05723,  -0.00088,   0.03082,  -0.02729,  -0.04578,  -0.03257,   0.03346,  -0.08804,  -0.06427,   0.01233,   0.07044,  -0.05106,  -0.00352,  -0.00088,   0.11798,  -0.02465,   0.09949,   0.00969,   0.09421,   0.10741,  -0.00616,  -0.00616,  -0.02729,  -0.00880,  -0.05106,   0.08893,   0.01497,  -0.12766
  -0.10917,   0.03610,  -0.08540,   0.11006,   0.12326,  -0.00088,  -0.03785,  -0.05106,  -0.06162,   0.09157,   0.19193,  -0.11181,   0.05459,  -0.03521,   0.19458,   0.03610,   0.05195,  -0.04049,  -0.03521,   0.05195,   0.06251,  -0.00880,   0.00969,   0.04667,  -0.01144,  -0.10124,   0.00177,  -0.03521,  -0.11445,  -0.13822,   0.03610,   0.08893,  -0.10124,   0.05987,  -0.02993,  -0.11181,  -0.10653,  -0.10653,  -0.06427,   0.09685,  -0.05106,  -0.01672,  -0.01672,  -0.08804,  -0.04049,  -0.09068,   0.09949,   0.02818,   0.16552,  -0.02729,   0.13647,   0.11006,  -0.05106,   0.05723,   0.02025,  -0.08011,  -0.05370,   0.06780,  -0.06955,   0.09949,  -0.07219,  -0.13822,   0.02818,   0.05195,   0.00177,  -0.01144,  -0.17520,   0.11006,   0.09949,   0.11534,  -0.06162,   0.00969,   0.08893,  -0.09860,  -0.07219,   0.11006,  -0.08540,   0.00177,   0.00441,  -0.07219,  -0.01936,   0.06251,  -0.05370,   0.03082,  -0.07219,   0.09421,  -0.05370,  -0.06162,   0.04667,   0.05723,   0.07308,  -0.02465,  -0.05898,   0.06780,  -0.00616,  -0.01408,  -0.07747,  -0.09068,  -0.00880,  -0.02993,   0.00177,  -0.06162,  -0.04049,   0.02554,   0.08893,   0.01761,  -0.00880,   0.08893,   0.09949,  -0.11445,  -0.10124,  -0.09596,   0.02818,  -0.03785,  -0.03257,  -0.11973,   0.03874,   0.16288,   0.04403,   0.02818,  -0.07747,   0.18665,   0.04667,  -0.09332,   0.03346,   0.04403,   0.07836,  -0.02993
  -0.09860,   0.16024,  -0.00880,   0.05459,  -0.11709,  -0.01672,  -0.08275,   0.03082,  -0.03521,   0.08100,   0.08364,  -0.00088,   0.03874,  -0.10388,   0.04138,   0.09685,   0.06780,  -0.16199,   0.08100,  -0.02201,  -0.02993,  -0.09860,  -0.20425,  -0.11445,  -0.05898,   0.01233,   0.05459,   0.06251,  -0.07219,  -0.09332,   0.01233,   0.18665,  -0.06427,  -0.00616,  -0.04314,  -0.01144,  -0.02993,  -0.00616,   0.00705,   0.03610,   0.11270,  -0.05898,   0.00441,  -0.04578,  -0.05370,   0.06251,  -0.04842,  -0.03785,  -0.04049,  -0.10653,  -0.03257,   0.04667,   0.05723,   0.12062,   0.05459,   0.04403,   0.12590,   0.12062,  -0.13294,   0.00441,  -0.08804,  -0.02993,   0.00969,  -0.04842,   0.04138,  -0.04578,  -0.06427,   0.19193,  -0.14614,   0.04931,   0.06780,   0.03874,  -0.00880,   0.07044,   0.05459,   0.09949,   0.01761,  -0.00088,   0.04138,   0.00705,   0.06780,  -0.04578,  -0.06427,   0.11006,  -0.10653,   0.02554,   0.07836,  -0.12501,   0.13647,   0.15496,   0.10213,   0.02290,   0.10477,  -0.04049,   0.14703,   0.12062,   0.04403,  -0.00880,  -0.04314,   0.03874,   0.02290,   0.02025,  -0.06427,  -0.01936,   0.00177,   0.09685,  -0.05634,  -0.08275,   0.08893,  -0.04578,  -0.04842,   0.09685,  -0.07483,  -0.04842,  -0.00352,   0.14439,  -0.19105,  -0.04578,   0.04931,  -0.08804,   0.00969,   0.05195,   0.03874,   0.13383,   0.00177,   0.18929,   0.00441,  -0.16463
  -0.07483,   0.05195,   0.02290,   0.01497,   0.09685,  -0.09068,  -0.00616,   0.08628,   0.07308,   0.16288,   0.04403,   0.00441,   0.08100,   0.17609,   0.03874,   0.00969,   0.01761,  -0.00880,  -0.00088,   0.02818,  -0.07219,   0.03610,   0.08364,   0.05459,  -0.06691,  -0.07219,  -0.00352,   0.01761,  -0.02465,  -0.05898,   0.04667,   0.13911,  -0.08540,  -0.04049,  -0.16727,  -0.06162,  -0.08540,  -0.11181,  -0.04314,   0.03610,  -0.01936,  -0.04842,  -0.03521,  -0.01144,  -0.09596,  -0.09332,  -0.06427,  -0.04049,  -0.06427,   0.02025,  -0.00088,   0.00705,   0.06251,  -0.15143,  -0.10124,  -0.14350,  -0.01408,  -0.01144,  -0.05898,   0.08893,  -0.03785,   0.02554,  -0.04049,  -0.02729,   0.01233,   0.01497,   0.02290,   0.07308,  -0.01672,  -0.06691,  -0.02465,  -0.03785,  -0.01936,  -0.08540,   0.04138,   0.05459,  -0.02993,   0.12590,  -0.04049,   0.05723,   0.10741,  -0.05634,  -0.00880,   0.01761,   0.01761,   0.04138,   0.03610,  -0.02993,  -0.19633,  -0.09596,  -0.04842,  -0.03785,   0.06780,   0.04931,   0.05195,   0.10741,  -0.03785,  -0.06427,   0.07836,   0.09421,  -0.00880,  -0.02465,  -0.08275,   0.10213,   0.13383,   0.01761,  -0.05634,  -0.01144,  -0.07483,   0.06251,   0.05459,  -0.08540,   0.08628,   0.12062,   0.01497,   0.01497,  -0.06427,  -0.03257,   0.04403,   0.06251,   0.01497,  -0.07747,  -0.05634,  -0.13822,   0.11798,   0.02554,   0.00177,   0.05195
  -0.12501,  -0.00088,   0.00177,  -0.03257,   0.06780,   0.06251,   0.04931,   0.00969,   0.15496,  -0.00352,   0.06516,   0.01233,   0.02554,   0.09685,   0.09421,  -0.08275,   0.10477,  -0.05370,  -0.01936,  -0.00616,  -0.00352,  -0.00616,   0.04138,  -0.01672,   0.04138,  -0.05370,   0.00441,   0.00969,  -0.06955,   0.06780,   0.00969,  -0.11181,  -0.02465,  -0.03785,   0.07044,  -0.02201,   0.02554,  -0.00880,  -0.09332,   0.08628,   0.04667,  -0.00616,   0.00177,  -0.00088,  -0.13294,  -0.00352,   0.04931,  -0.01672,  -0.07483,  -0.05106,   0.03082,   0.05987,   0.06516,  -0.17256,   0.03346,  -0.04842,   0.04138,   0.01761,   0.04138,   0.12854,  -0.08011,  -0.08275,  -0.00880,   0.00177,   0.00705,  -0.06691,  -0.05106,   0.04138,   0.02290,  -0.01672,   0.07044,  -0.11709,   0.03346,  -0.05898,  -0.01672,   0.01233,   0.09685,  -0.06691,  -0.05634,   0.03874,  -0.05898,   0.11270,   0.05987,   0.08100,  -0.11181,  -0.05898,  -0.11973,  -0.00616,   0.01233,  -0.00352,   0.04138,  -0.13030,   0.05987,  -0.00616,   0.09157,  -0.01144,  -0.05898,   0.09421,  -0.08275,   0.06516,  -0.06691,  -0.00352,   0.01497,  -0.04578,   0.03610,  -0.07747,   0.09685,  -0.09860,  -0.06691,   0.03082,   0.10741,  -0.05634,  -0.00352,   0.12590,  -0.10917,  -0.00880,   0.06251,  -0.05370,  -0.04842,   0.04931,   0.05987,   0.00441,  -0.01144,  -0.13822,   0.08100,   0.16816,   0.02025,  -0.07483
  -0.04578,   0.15232,  -0.03785,  -0.03257,   0.04403,   0.04931,  -0.04314,  -0.06955,   0.06251,  -0.01936,  -0.01408,  -0.00088,   0.00177,  -0.04049,  -0.02465,   0.00177,   0.05195,   0.07572,  -0.06691,   0.00969,   0.04138,   0.07308,  -0.15935,  -0.07483,  -0.04049,  -0.01936,   0.04138,  -0.06955,  -0.01144,   0.03082,   0.02818,  -0.00088,  -0.05106,   0.03610,   0.07308,  -0.02201,  -0.03257,  -0.20689,  -0.06955,   0.02025,   0.09157,   0.05459,   0.09157,  -0.03257,  -0.00616,  -0.01936,  -0.16199,  -0.05634,  -0.06427,  -0.11709,  -0.09068,   0.00441,   0.18929,  -0.02993,   0.03874,  -0.05370,   0.05987,   0.07572,  -0.02993,  -0.02201,  -0.00088,   0.06251,  -0.00616,   0.06516,   0.16288,   0.02290,   0.01497,   0.10741,  -0.14086,  -0.08804,   0.00177,  -0.02729,  -0.05634,   0.13911,   0.04138,   0.03082,   0.05459,  -0.00352,  -0.09860,  -0.03257,  -0.01144,  -0.05106,   0.03082,   0.11270,  -0.07219,   0.00705,   0.05723,  -0.09068,  -0.04314,   0.11798,   0.02554,  -0.11709,  -0.04578,   0.00969,  -0.00616,   0.08628,   0.17345,   0.00177,  -0.05634,   0.00441,   0.01497,  -0.05370,   0.00441,  -0.02729,  -0.11445,   0.06780,  -0.03257,  -0.15407,   0.03082,  -0.10388,  -0.08011,   0.05195,   0.02554,   0.05723,   0.03610,   0.07572,  -0.08540,  -0.15671,  -0.01672,  -0.04049,  -0.05106,   0.11534,   0.18929,  -0.01144,   0.03346,  -0.00880,   0.03082,  -0.02465
  -0.09068,  -0.09596,  -0.07747,  -0.00880,  -0.02729,   0.09157,  -0.15935,   0.00705,  -0.03521,   0.03082,  -0.14086,   0.01497,  -0.06955,  -0.00880,  -0.01936,   0.01761,  -0.12237,  -0.00616,   0.00969,   0.03874,  -0.11445,  -0.01672,  -0.06162,  -0.06955,  -0.00880,  -0.04578,  -0.15143,   0.01497,  -0.05370,   0.08893,   0.03082,   0.03346,  -0.00088,   0.07836,   0.02290,  -0.04578,  -0.02201,   0.05723,   0.02290,   0.02818,  -0.05106,  -0.02465,   0.01233,   0.10213,  -0.13030,  -0.01408,  -0.10653,  -0.01144,  -0.05634,  -0.02201,  -0.00616,   0.01233,   0.11534,   0.05195,  -0.09332,  -0.04314,   0.13647,  -0.19105,   0.08364,  -0.05898,  -0.00352,   0.17609,  -0.00616,   0.01233,  -0.01672,   0.02290,  -0.00088,   0.02290,   0.03610,  -0.03785,  -0.02465,  -0.02729,   0.08364,   0.02025,  -0.06427,  -0.01672,  -0.09332,   0.07836,  -0.05106,   0.04931,   0.16288,   0.00969,  -0.07483,   0.05195,   0.04403,  -0.04842,   0.02554,  -0.00880,  -0.11973,   0.09685,  -0.04049,   0.07572,   0.00177,  -0.00616,  -0.07219,   0.07572,  -0.04842,  -0.06162,   0.12854,  -0.05634,   0.09685,  -0.02993,  -0.05370,  -0.06427,  -0.01672,   0.00705,  -0.06162,  -0.01144,  -0.10388,  -0.02465,  -0.01672,  -0.06427,   0.00441,   0.04931,   0.00969,  -0.11445,   0.06251,   0.07836,   0.04667,   0.05459,   0.03082,  -0.00088,  -0.02465,   0.00441,  -0.04842,   0.01497,  -0.05106,  -0.00088
  -0.04842,   0.09421,  -0.02729,   0.14439,  -0.05898,  -0.09068,  -0.04314,   0.10213,   0.03082,  -0.06162,  -0.11973,  -0.02993,  -0.16992,   0.06780,  -0.01936,   0.01497,  -0.00088,   0.00705,  -0.01672,  -0.08540,  -0.14086,   0.02554,  -0.08540,  -0.05898,  -0.05370,   0.07836,  -0.02729,  -0.01408,  -0.09596,  -0.01936,   0.08364,   0.12062,   0.09421,  -0.09596,  -0.02993,   0.05459,   0.02290,  -0.04049,   0.00705,   0.10477,   0.04931,   0.00177,  -0.13558,  -0.06162,  -0.13030,   0.08628,  -0.25708,  -0.10124,   0.00441,  -0.04314,  -0.02729,  -0.00352,   0.05195,   0.20778,   0.06516,  -0.10653,  -0.07747,   0.01761,  -0.01144,  -0.10124,   0.12062,   0.03874,  -0.00616,  -0.14614,  -0.02201,  -0.00616,  -0.04578,   0.09421,   0.07836,  -0.06955,   0.00441,   0.05723,   0.07572,   0.04667,  -0.00616,   0.00441,   0.12854,   0.02554,   0.11534,   0.03874,   0.02554,  -0.09068,  -0.02201,   0.10213,  -0.03785,  -0.10124,  -0.04842,  -0.03521,   0.00705,   0.06780,  -0.06955,   0.09949,  -0.04578,   0.17345,  -0.02465,   0.07836,  -0.01672,  -0.02465,  -0.02465,  -0.03521,   0.00705,  -0.00088,   0.05195,  -0.06427,   0.04403,   0.09421,  -0.04314,  -0.00352,  -0.12237,   0.00705,   0.04931,  -0.06955,  -0.05634,  -0.01408,  -0.03521,   0.04138,  -0.04314,   0.09421,   0.03082,  -0.02729,  -0.02993,   0.01497,  -0.02201,  -0.04578,  -0.02201,   0.03346,   0.05195,  -0.05898
  -0.08540,   0.02818,  -0.06162,  -0.05898,  -0.06162,  -0.01408,  -0.01144,   0.05195,  -0.11973,  -0.03521,  -0.03785,  -0.05634,   0.04403,  -0.15407,   0.17873,   0.16552,  -0.04314,   0.03874,   0.08100,  -0.00088,  -0.06162,   0.02290,  -0.11709,  -0.00616,   0.04138,   0.15496,  -0.02993,   0.01233,  -0.02465,  -0.12237,   0.04138,   0.02290,   0.15496,  -0.05106,  -0.04049,  -0.06427,   0.01497,  -0.06162,   0.02554,   0.10741,  -0.02465,  -0.10124,  -0.02993,   0.00969,   0.10477,   0.08100,  -0.19897,   0.06516,   0.05987,  -0.03257,  -0.00616,  -0.06427,   0.00441,   0.04138,   0.04931,  -0.05370,  -0.00616,  -0.08011,   0.05723,  -0.05370,  -0.05106,  -0.02465,   0.12326,  -0.04314,  -0.10124,  -0.00616,  -0.08011,   0.01233,   0.03874,  -0.10124,  -0.05634,   0.03346,   0.04138,   0.09685,   0.02818,   0.02025,   0.00705,   0.05195,   0.04138,  -0.05634,  -0.00352,  -0.03785,   0.01761,  -0.00352,  -0.01144,   0.08628,   0.04667,  -0.02201,   0.03610,  -0.09332,   0.09421,   0.16288,   0.00441,   0.08100,   0.02818,  -0.05370,   0.09421,  -0.02993,  -0.09332,  -0.07219,   0.08628,  -0.05370,  -0.00880,  -0.05106,   0.04667,  -0.03521,   0.02025,  -0.04842,  -0.05898,  -0.00880,  -0.08011,  -0.01144,  -0.02729,  -0.11445,  -0.10653,   0.02025,  -0.02465,   0.22627,   0.01233,  -0.08540,  -0.00880,  -0.03785,  -0.01144,  -0.02993,  -0.06162,   0.15232,  -0.02201,   0.03874
  -0.05370,   0.05987,  -0.04842,   0.00441,   0.02818,  -0.19633,  -0.10388,  -0.06427,   0.01761,   0.10741,  -0.07219,  -0.02993,  -0.01144,  -0.01936,   0.15232,   0.11270,   0.06516,  -0.01144,   0.05459,  -0.13030,  -0.03785,  -0.01672,  -0.06162,  -0.09068,  -0.16199,   0.03082,   0.01761,   0.09949,  -0.08275,  -0.08804,   0.06516,   0.10477,   0.05987,   0.04403,  -0.03257,  -0.15935,  -0.08275,   0.00969,   0.01497,   0.08364,  -0.04842,  -0.02201,  -0.09596,  -0.02201,  -0.02201,  -0.04578,   0.07044,   0.04138,  -0.06955,  -0.02465,  -0.00616,   0.04138,   0.04667,  -0.05106,  -0.09332,  -0.07747,   0.20250,  -0.02993,   0.03610,  -0.10917,   0.02025,   0.12590,  -0.04049,  -0.00880,   0.03874,   0.07572,   0.20778,  -0.01672,   0.02025,  -0.04842,  -0.01144,  -0.09860,   0.06516,   0.05459,  -0.08275,   0.04403,  -0.05898,  -0.01144,  -0.04049,   0.03082,   0.10213,  -0.07747,   0.09157,  -0.02465,  -0.00088,  -0.04049,  -0.01408,   0.11534,  -0.04049,   0.02554,   0.04403,   0.05723,  -0.06162,   0.02554,  -0.06691,  -0.02465,  -0.06427,  -0.07747,   0.10477,  -0.06955,   0.17609,   0.18665,   0.01233,  -0.00352,  -0.08804,  -0.00880,  -0.10917,   0.07836,  -0.04842,   0.01497,   0.08100,  -0.00880,   0.06780,  -0.04049,   0.03346,  -0.02465,  -0.10653,   0.05987,   0.07836,   0.17873,  -0.06691,   0.10477,  -0.02993,   0.01761,   0.04138,  -0.07219,  -0.04049,  -0.01408
   0.05459,   0.02554,  -0.11709,  -0.10388,   0.03610,  -0.04842,   0.00441,  -0.08540,  -0.04314,  -0.09860,  -0.05634,   0.01233,  -0.06162,  -0.01408,   0.06251,   0.00705,  -0.08804,  -0.07483,  -0.02201,   0.00969,  -0.02465,   0.09157,  -0.02729,   0.00441,   0.02554,  -0.06162,   0.03874,   0.06251,   0.00705,  -0.02729,   0.09157,   0.02025,   0.02554,   0.10477,   0.04667,   0.07044,  -0.10388,   0.00177,  -0.04842,   0.00441,  -0.09860,  -0.01144,  -0.03785,  -0.11181,  -0.04049,   0.13647,  -0.11181,   0.13383,   0.03082,  -0.00616,   0.02290,  -0.01672,   0.23419,   0.14175,  -0.03521,  -0.02465,  -0.10917,  -0.08804,   0.01497,  -0.05634,   0.02554,  -0.09596,  -0.13030,  -0.01408,   0.03610,   0.01233,   0.12326,  -0.05634,   0.06780,  -0.09068,   0.08893,   0.00705,  -0.11973,   0.20778,   0.03610,  -0.16463,  -0.05898,   0.09949,  -0.01144,  -0.04578,  -0.05106,  -0.11445,  -0.13558,   0.02818,  -0.06162,  -0.04842,  -0.06691,  -0.06162,   0.06780,   0.21571,   0.14439,   0.10213,  -0.03785,  -0.04049,  -0.02993,   0.06251,   0.11270,   0.00177,  -0.04314,  -0.00352,  -0.06427,   0.03874,  -0.01144,  -0.02729,   0.04138,   0.01233,   0.06251,   0.11006,  -0.18840,  -0.07483,   0.05987,   0.15760,   0.04138,   0.01761,  -0.00088,   0.07044,   0.12590,   0.10477,   0.05987,   0.13119,   0.00969,   0.16816,  -0.03257,   0.01761,   0.03610,   0.06516,   0.01497,   0.10213
   0.02290,   0.04403,  -0.01936,   0.02025,  -0.05898,  -0.07483,  -0.03257,  -0.01144,  -0.13822,   0.00441,   0.04667,   0.10213,   0.01497,  -0.01672,   0.07572,  -0.06162,  -0.03257,  -0.09068,   0.04138,  -0.13558,  -0.10388,   0.14175,  -0.06691,  -0.01672,  -0.11181,   0.06516,   0.00441,   0.08364,  -0.01144,  -0.11445,   0.05723,  -0.07483,  -0.04842,  -0.06427,   0.08100,   0.00705,   0.05195,  -0.03257,   0.03082,   0.08100,  -0.04842,  -0.08540,   0.04667,   0.00177,  -0.06162,   0.06516,   0.02554,  -0.09596,  -0.05898,  -0.07219,  -0.05634,  -0.00880,  -0.00088,   0.00705,  -0.01936,   0.05195,   0.02818,  -0.03257,  -0.06162,  -0.10917,  -0.11709,   0.05195,   0.05723,  -0.06427,  -0.09596,  -0.04049,   0.01233,   0.12326,   0.05987,  -0.08540,   0.04931,  -0.10917,   0.02818,   0.11798,   0.17080,  -0.01936,  -0.16463,   0.04931,  -0.10917,  -0.01408,   0.05987,  -0.05634,  -0.06691,   0.05987,   0.04931,   0.05987,  -0.09860,   0.10741,   0.00969,  -0.00088,   0.10477,   0.09949,  -0.00880,   0.08893,   0.02290,   0.03610,   0.05723,   0.00441,  -0.02993,  -0.11181,   0.00441,   0.07836,   0.08628,  -0.16463,  -0.09596,  -0.04578,   0.08364,   0.15760,   0.10213,   0.04138,   0.09949,   0.04403,  -0.11973,  -0.07219,  -0.01936,  -0.00088,   0.03874,   0.00705,  -0.09068,   0.03874,   0.11534,  -0.08540,   0.02818,   0.09157,  -0.05634,   0.12062,   0.04138,  -0.02993
  -0.04842,   0.04931,   0.02290,  -0.02993,  -0.12766,  -0.00880,   0.08893,   0.01497,   0.05987,   0.03610,  -0.13030,   0.19986,  -0.00616,   0.06780,   0.06251,  -0.06955,   0.00705,  -0.02993,  -0.05898,   0.02290,  -0.00088,  -0.04049,   0.10741,  -0.02201,  -0.00616,   0.01233,   0.02554,   0.02818,  -0.02201,   0.04931,   0.02818,   0.00441,   0.06251,   0.00441,  -0.01144,  -0.09596,  -0.11181,  -0.09068,   0.02290,   0.05723,  -0.05370,  -0.08804,  -0.05634,  -0.00352,  -0.02465,  -0.04314,  -0.00352,   0.04138,  -0.16463,   0.09157,   0.07572,   0.00441,  -0.00616,  -0.06427,  -0.07483,  -0.03785,  -0.02729,  -0.00352,   0.01497,  -0.03785,   0.10213,   0.02290,   0.01233,  -0.02201,  -0.07747,  -0.04578,  -0.05634,  -0.00352,  -0.10124,   0.02290,  -0.02729,   0.06780,  -0.02201,   0.04403,  -0.13030,   0.03346,  -0.01672,   0.00177,  -0.03257,   0.11006,  -0.01144,  -0.01408,   0.03082,   0.03610,   0.03082,  -0.11445,  -0.00616,  -0.05370,  -0.05106,  -0.01408,   0.18665,   0.00441,   0.17345,   0.09685,   0.04403,   0.13647,  -0.08540,   0.01233,  -0.01936,  -0.12766,   0.10213,   0.01233,  -0.01936,   0.05459,  -0.06162,  -0.03257,   0.02290,  -0.09068,   0.12590,   0.14967,   0.14967,  -0.06955,   0.10477,  -0.01144,   0.00177,   0.00969,   0.08100,  -0.14614,  -0.02993,   0.08364,  -0.03785,  -0.02201,   0.04931,  -0.00616,  -0.06955,  -0.01672,   0.02290,   0.07572
  -0.09596,  -0.06955,  -0.02993,   0.02818,   0.13383,   0.01233,   0.06251,   0.03874,  -0.02201,  -0.09332,   0.01233,   0.05987,   0.03610,   0.04403,  -0.07219,  -0.08275,  -0.03257,  -0.02201,   0.02554,  -0.05370,  -0.00880,   0.11270,  -0.03521,  -0.15407,   0.03082,   0.08100,  -0.00880,  -0.05898,  -0.11973,  -0.14879,   0.09421,   0.16288,  -0.07747,   0.03346,   0.08628,  -0.16463,  -0.05634,  -0.08011,  -0.02201,  -0.04842,   0.08100,   0.00969,   0.16024,   0.06251,   0.01233,  -0.01672,  -0.09596,   0.00177,   0.01233,  -0.05634,  -0.03521,  -0.02201,   0.08628,   0.08628,   0.14439,  -0.01408,  -0.00616,   0.00441,   0.02818,   0.00177,   0.01497,  -0.03521,  -0.08804,   0.12326,  -0.05634,  -0.05898,  -0.05106,  -0.01672,  -0.10388,   0.02818,  -0.04049,   0.04931,   0.04931,  -0.00352,   0.07308,   0.01761,  -0.06427,   0.10213,   0.03874,   0.09421,  -0.01672,  -0.04049,  -0.04578,  -0.11445,   0.05195,   0.02025,  -0.05634,   0.10741,   0.03346,  -0.01144,   0.00969,  -0.03257,   0.10741,  -0.06162,  -0.14086,   0.02818,  -0.07747,  -0.04314,  -0.07483,   0.02818,  -0.13030,  -0.00088,  -0.12766,   0.01233,  -0.07483,   0.04403,   0.00969,   0.00177,  -0.10124,  -0.10124,   0.04667,  -0.00616,   0.04403,   0.07308,   0.07044,   0.01233,   0.05987,  -0.10653,   0.03082,   0.22891,   0.03874,   0.13647,   0.01233,  -0.00880,   0.14175,   0.03874,   0.02818,   0.07572
