   0.13651,  -0.04290,  -0.68364,  -0.51705,  -0.28638,  -0.32482,   0.03399,  -0.24793,  -0.63238,  -0.55549,  -0.06853,  -0.03008,   0.44407,   0.18777,  -0.09416,   0.46970,   0.05962,   0.16214,  -0.37608,  -0.26075,  -0.20949,  -0.14541,   0.29029,   0.25185,  -0.13260,   0.27748,  -0.45297,   0.27748,   0.72600,  -0.31201,   0.41844,  -0.03008,   0.05962,  -0.29919,  -0.24793,  -0.88868,   0.46970,   0.02118,  -0.67083,  -0.61957,   0.43126,  -0.28638,  -0.58112,   0.16214,  -0.15823,  -0.11978,  -0.67083,   0.27748,   0.38000,  -0.33764,   0.45689,   0.11088,   0.26466,   0.04681,  -0.72209,  -0.05571,   0.40563,  -0.27356,   0.40563,  -0.47860,   0.25185,   0.14933,   0.44407,  -0.18386
   0.04681,  -0.26075,  -0.65801,   0.21340,  -0.59394,  -0.15823,  -0.11978,  -0.85024,  -0.54268,  -0.70927,   0.09807,   0.39281,   0.04681,  -0.14541,  -0.00445,   0.50815,   0.44407,   0.96949,  -0.06853,   0.38000,  -0.26075,  -0.33764,   0.14933,   0.17496,  -0.14541,  -0.28638,   0.05962,  -0.17104,   0.38000,  -0.37608,  -0.05571,   0.35437,  -0.18386,  -0.17104,  -0.03008,  -0.26075,   0.07244,   0.25185,  -0.70927,  -0.81179,   0.43126,  -0.03008,  -0.14541,  -0.46579,   0.36718,  -0.81179,  -0.46579,  -0.03008,   0.31592,  -0.06853,   0.08525,  -0.04290,  -0.01727,  -0.09416,  -0.38890,  -0.23512,   0.41844,   0.14933,   0.09807,   0.05962,  -0.08134,  -0.05571,   0.20059,  -0.17104
  -0.60675,  -0.20949,   0.48252,  -0.05571,   0.03399,  -0.88868,  -0.00445,  -0.08134,  -0.32482,   0.02118,   0.03399,  -0.20949,   0.08525,   0.81571,   0.32874,   0.23903,  -0.26075,   0.49533,  -0.00445,  -0.29919,  -0.09416,  -0.63238,  -0.13260,  -0.20949,   0.05962,   0.07244,  -0.46579,  -0.24793,   0.67474,   0.43126,   0.54659,   0.09807,  -0.51705,  -0.73490,  -0.27356,  -0.61957,   0.12370,  -0.64520,   0.18777,  -0.97839,   0.12370,   0.39281,  -0.70927,   0.43126,   0.34155,   0.20059,  -0.70927,   0.18777,   0.20059,   0.02118,   0.12370,  -0.04290,   0.08525,   0.21340,  -0.70927,  -0.18386,  -0.40171,   0.16214,  -0.22230,  -0.91431,  -0.11978,   0.99512,   0.43126,  -0.31201
   0.29029,   0.21340,  -0.42734,   0.63630,  -0.45297,   0.11088,  -0.60675,  -0.87587,  -0.33764,   0.09807,  -0.05571,   0.41844,  -0.82461,  -0.08134,   0.03399,  -0.23512,   0.03399,   0.17496,  -0.33764,  -0.18386,   0.02118,   0.39281,   0.32874,   0.30311,   0.00836,  -0.41453,  -0.76053,   0.57222,  -0.10697,   0.53378,  -0.24793,   0.27748,  -0.54268,  -0.70927,   0.17496,   0.73882,   0.63630,  -0.09416,  -0.60675,   0.17496,   0.67474,   0.21340,   0.35437,  -0.31201,   0.20059,  -0.55549,  -0.35045,  -0.70927,   0.14933,   0.17496,   0.54659,  -0.59394,   0.25185,   0.13651,  -0.13260,  -0.69646,   0.21340,   0.29029,   0.13651,  -0.24793,   0.52096,  -0.14541,  -0.51705,   0.41844
   0.38000,  -0.03008,  -0.13260,   0.13651,   0.32874,  -0.19667,  -0.37608,  -0.54268,   0.17496,  -0.74772,   0.07244,  -0.41453,  -0.22230,  -0.31201,   0.29029,  -0.15823,  -0.10697,   0.72600,  -0.05571,  -0.13260,  -0.19667,  -0.72209,  -0.13260,  -0.29919,   0.54659,   0.12370,  -0.69646,  -0.24793,   0.62348,   0.09807,  -0.18386,   0.35437,  -0.01727,  -0.51705,  -0.45297,  -0.24793,   0.04681,  -0.38890,  -0.47860,  -0.50423,   0.00836,   0.44407,   0.02118,  -0.76053,   0.71319,  -0.47860,  -0.54268,   0.45689,   0.17496,  -0.51705,   0.11088,  -0.17104,   0.30311,   0.40563,  -0.81179,   0.04681,   0.12370,   0.25185,  -0.18386,  -0.06853,   0.39281,   0.59785,   0.44407,   0.36718
  -0.58112,  -0.45297,  -0.23512,   0.39281,  -1.43973,  -0.20949,  -0.01727,   0.32874,  -0.26075,  -0.27356,  -0.18386,  -0.04290,   0.14933,   0.72600,  -0.14541,  -0.24793,  -0.19667,  -0.04290,  -0.13260,  -0.00445,  -0.11978,   0.44407,   0.30311,   0.07244,  -0.41453,  -0.01727,   0.23903,  -0.23512,  -0.27356,  -0.19667,  -0.18386,  -0.36327,  -0.35045,   0.55941,   0.31592,  -0.67083,  -0.29919,   0.40563,  -0.51705,  -0.15823,   0.23903,  -0.59394,  -0.33764,   0.03399,  -0.06853,  -0.17104,  -0.65801,  -0.01727,   0.22622,  -0.47860,  -0.49142,   0.21340,  -0.18386,  -0.22230,   1.36675,  -0.59394,  -0.04290,   0.13651,  -0.31201,  -0.74772,   0.02118,   0.29029,  -0.88868,  -0.23512
   0.38000,   0.35437,  -0.51705,   0.31592,   0.22622,   0.23903,  -0.44016,   0.04681,  -0.38890,   0.21340,   0.04681,  -0.01727,  -0.23512,  -0.44016,  -0.20949,   0.16214,  -0.22230,   0.18777,  -0.61957,  -0.05571,  -0.23512,  -0.00445,   0.04681,   0.16214,  -0.47860,  -0.09416,  -0.50423,  -0.28638,  -0.00445,  -0.64520,  -0.40171,   0.57222,   0.03399,  -0.24793,   0.04681,   0.36718,   0.26466,  -0.18386,   0.13651,   0.49533,  -0.03008,   0.50815,  -0.51705,  -0.09416,   0.20059,  -0.26075,  -0.50423,  -0.10697,   0.02118,  -0.32482,   0.43126,  -0.04290,  -0.37608,   0.39281,  -1.05528,  -0.41453,  -0.37608,   0.26466,   0.34155,   0.41844,   0.36718,   0.21340,   0.34155,   0.36718
   0.34155,   0.14933,  -0.64520,   0.41844,  -0.45297,  -0.40171,   0.16214,  -0.40171,   0.04681,   0.04681,   0.12370,   0.18777,  -0.50423,   0.29029,   0.21340,  -0.22230,   0.00836,   0.54659,  -0.85024,  -0.52986,  -0.28638,   0.07244,  -0.32482,  -0.01727,  -0.51705,  -0.54268,  -0.35045,  -0.58112,  -0.04290,  -0.78616,  -0.46579,  -0.11978,  -0.78616,  -0.33764,   0.16214,  -0.33764,  -0.13260,  -0.14541,  -0.06853,  -0.10697,   0.12370,  -0.06853,  -0.05571,   0.11088,  -0.10697,  -0.35045,  -1.14498,   0.00836,   0.34155,  -0.33764,   0.14933,  -0.14541,  -0.31201,   0.80289,   0.31592,  -0.93994,   0.08525,   0.49533,   0.39281,   0.12370,  -0.26075,  -0.05571,   0.55941,  -0.17104
   0.58504,   0.16214,  -0.13260,   0.63630,  -0.14541,  -0.09416,  -0.33764,   0.00836,   0.11088,  -0.15823,   0.40563,   0.43126,  -0.74772,  -0.50423,   0.29029,  -0.15823,   0.12370,  -0.36327,   0.07244,  -0.05571,  -0.11978,  -0.17104,  -0.26075,   0.32874,   0.00836,  -0.95276,  -0.78616,  -0.24793,   0.30311,   0.16214,  -0.88868,   0.29029,  -0.26075,  -1.01683,  -0.00445,   0.32874,   0.12370,  -0.36327,  -0.18386,  -0.04290,   0.72600,   0.07244,  -0.10697,  -0.05571,  -0.56831,  -0.77335,  -0.61957,   0.08525,   0.16214,  -0.13260,   0.21340,  -0.90150,  -0.13260,  -0.13260,  -0.91431,  -0.18386,   0.55941,   0.27748,   1.13608,  -0.29919,  -0.04290,   0.11088,  -0.58112,   0.52096
  -0.37608,   0.03399,  -0.78616,   0.36718,   0.20059,  -0.96557,   0.20059,   0.03399,   0.54659,   0.08525,  -0.20949,  -0.54268,   0.09807,   0.30311,  -0.23512,   0.45689,  -0.19667,   0.18777,   0.75163,  -0.35045,   0.53378,  -0.93994,  -0.26075,  -0.19667,   0.34155,  -0.58112,  -0.60675,   0.13651,   0.62348,  -0.38890,  -0.01727,  -0.96557,  -0.20949,  -0.64520,   0.54659,   0.17496,  -0.18386,   0.11088,  -0.46579,  -1.05528,  -0.23512,   0.14933,  -0.23512,  -0.91431,   0.39281,  -0.68364,  -0.36327,   0.25185,   0.36718,  -0.04290,   0.03399,  -0.64520,  -0.18386,   0.07244,   0.82852,   0.84134,   0.30311,   0.22622,   0.45689,  -0.20949,   0.14933,   0.64911,   0.30311,   0.53378
  -0.58112,  -0.31201,   0.02118,  -0.05571,  -1.18343,   0.30311,   0.03399,   0.64911,   0.03399,  -0.58112,   0.38000,  -0.22230,  -0.15823,   0.63630,   0.12370,  -0.36327,  -0.05571,   0.09807,   0.21340,  -0.10697,   0.16214,   0.84134,   0.13651,   0.35437,  -0.54268,  -0.11978,   0.18777,   0.05962,  -0.49142,  -0.11978,   0.03399,  -0.14541,  -0.96557,   0.86697,   0.21340,  -0.44016,   0.00836,   0.72600,   0.18777,   0.04681,   0.59785,  -0.50423,  -0.27356,   0.18777,  -0.78616,   0.82852,  -0.32482,  -0.06853,   0.27748,  -0.29919,  -0.15823,  -0.05571,   0.16214,  -0.20949,  -0.04290,  -0.56831,   0.32874,  -0.63238,  -0.13260,  -0.04290,  -0.51705,   0.04681,  -0.32482,  -0.03008
   0.21340,   0.26466,  -0.31201,   0.66193,   0.49533,  -0.22230,   0.14933,   0.00836,   0.38000,  -0.14541,   0.04681,  -0.37608,   0.05962,  -0.61957,   0.67474,  -0.18386,  -0.17104,   0.40563,   0.08525,  -0.31201,   0.14933,   0.11088,  -0.68364,  -0.15823,  -0.11978,  -0.27356,  -0.41453,   0.02118,   0.29029,  -0.31201,  -0.99120,   0.02118,  -0.24793,  -0.10697,   0.76445,   0.53378,  -0.52986,  -0.27356,  -0.06853,   0.20059,  -0.01727,  -0.19667,  -0.55549,  -0.46579,   0.21340,  -0.10697,   0.08525,  -0.55549,  -0.29919,   0.00836,   0.09807,  -0.88868,  -0.28638,  -0.05571,   0.31592,  -0.18386,  -0.20949,   0.17496,   0.22622,   0.31592,   0.61067,   0.00836,   0.23903,   0.09807
  -0.37608,  -0.32482,  -0.24793,   0.29029,  -0.32482,  -1.01683,  -0.10697,   0.46970,  -0.35045,   0.14933,  -0.24793,   0.29029,  -0.06853,   0.36718,  -0.18386,  -0.05571,  -0.59394,   0.35437,   0.22622,  -0.50423,   0.14933,  -0.50423,   0.48252,   0.13651,  -0.46579,  -0.31201,   0.08525,  -0.33764,   0.04681,  -0.37608,   0.17496,  -0.47860,  -0.38890,   0.66193,   0.45689,  -0.05571,  -0.14541,   0.16214,  -0.01727,  -0.65801,  -0.49142,   0.04681,  -0.18386,   0.36718,  -0.29919,   0.34155,  -0.42734,   0.08525,   0.25185,  -0.47860,  -0.49142,   0.17496,   0.18777,   0.12370,   0.26466,   0.43126,   0.43126,   0.35437,  -0.00445,  -0.77335,  -0.24793,   1.08482,   0.03399,  -0.46579
  -0.04290,   0.16214,  -0.18386,   0.61067,   0.34155,  -0.38890,   0.41844,  -0.55549,  -0.33764,  -0.55549,   0.11088,   0.04681,  -0.10697,  -0.60675,   0.16214,   0.18777,  -0.26075,   0.49533,  -0.11978,  -0.36327,  -0.19667,  -0.49142,  -0.09416,  -0.47860,  -0.15823,  -0.22230,  -0.46579,   0.34155,   0.45689,  -0.18386,  -0.04290,   0.08525,  -0.92713,  -0.70927,  -0.26075,   0.04681,   0.04681,  -0.15823,  -0.90150,  -1.01683,   0.00836,  -0.10697,   0.09807,   0.12370,   0.58504,  -0.36327,  -0.45297,  -0.17104,  -0.23512,   0.20059,  -0.01727,   0.02118,  -0.26075,   0.00836,  -0.09416,   0.40563,  -0.06853,   0.67474,   0.13651,  -0.06853,   0.03399,   0.14933,   0.17496,  -0.10697
  -0.22230,  -0.17104,   0.16214,   0.30311,  -1.26032,   0.46970,  -0.04290,   0.41844,  -0.11978,  -0.50423,  -0.15823,   0.18777,  -0.10697,   0.72600,  -0.15823,  -0.08134,  -0.20949,  -0.23512,  -0.10697,   0.35437,  -0.04290,   0.58504,   0.45689,   0.02118,  -0.20949,   0.31592,   0.18777,  -0.20949,  -0.28638,   0.80289,  -0.36327,  -0.36327,  -1.11935,   1.04638,   0.57222,  -0.46579,  -0.08134,   0.77726,  -0.23512,   0.22622,   0.07244,  -0.40171,  -0.38890,  -0.17104,  -0.45297,   0.27748,  -0.13260,  -0.10697,   0.52096,  -0.03008,  -0.32482,  -0.05571,  -0.10697,  -0.29919,   0.02118,   0.11088,   0.40563,  -0.37608,  -0.64520,  -0.42734,   0.14933,   0.17496,  -0.99120,  -0.15823
  -0.26075,   0.39281,  -0.72209,   0.41844,  -1.37565,   1.14890,  -0.44016,   0.22622,   0.12370,  -0.38890,  -0.17104,   0.26466,  -0.33764,  -0.26075,  -0.38890,  -0.83742,   0.18777,   0.38000,  -0.24793,  -0.50423,   0.46970,   0.61067,   1.23860,   0.46970,   0.41844,  -0.63238,  -0.22230,  -0.24793,  -0.44016,  -0.24793,  -0.60675,   0.18777,  -0.88868,  -0.31201,   0.53378,   0.12370,   0.05962,   1.05919,  -0.08134,   0.36718,   0.48252,  -0.86305,   0.04681,  -0.09416,  -0.45297,   0.20059,   0.55941,  -0.50423,  -0.15823,  -0.45297,  -0.15823,  -0.64520,   0.75163,  -0.70927,  -0.18386,  -0.42734,   0.30311,  -0.61957,  -0.67083,  -0.54268,   0.54659,  -0.03008,  -0.82461,  -0.35045
  -0.10697,   0.08525,  -0.06853,   0.48252,  -0.95276,  -0.17104,   0.04681,  -0.31201,   0.44407,  -0.29919,   0.12370,  -0.01727,   0.45689,  -0.00445,   0.25185,  -0.41453,  -0.47860,  -0.36327,  -0.08134,  -0.15823,   0.30311,  -0.46579,   0.20059,   0.22622,  -0.59394,  -0.67083,   0.31592,   0.29029,  -0.00445,   0.67474,  -0.28638,  -0.15823,  -0.40171,   0.36718,   0.30311,   0.39281,   0.11088,   0.31592,  -0.33764,  -0.78616,   0.23903,  -0.09416,  -0.40171,  -0.36327,   0.41844,  -0.45297,  -1.20906,  -0.52986,   0.30311,  -0.09416,  -0.41453,   0.12370,   0.57222,  -0.60675,   0.26466,  -0.05571,   0.22622,   0.54659,  -0.01727,  -1.02965,  -0.18386,   0.48252,  -0.14541,  -0.04290
  -0.19667,  -0.35045,  -0.52986,  -0.29919,  -0.76053,   0.39281,  -0.24793,   0.21340,  -0.03008,  -0.59394,  -0.18386,   0.00836,   0.03399,   0.03399,   0.20059,  -0.23512,   0.21340,  -0.40171,  -0.14541,  -0.69646,  -0.01727,   0.16214,  -0.05571,   0.00836,   0.31592,  -0.17104,  -0.86305,   0.08525,  -0.20949,  -0.45297,  -0.31201,  -0.42734,  -0.83742,   0.14933,  -0.13260,  -0.28638,   0.21340,   0.64911,  -0.52986,  -0.68364,   0.39281,  -0.22230,  -0.26075,  -0.01727,  -1.29876,   0.00836,   0.04681,  -0.42734,   0.84134,   0.07244,  -0.00445,  -0.24793,   0.67474,   0.11088,   0.46970,  -0.08134,   0.70037,  -0.87587,   0.26466,  -0.27356,   0.16214,   0.02118,  -0.51705,   0.21340
  -0.90150,   0.21340,   0.02118,   0.44407,  -1.05528,   0.30311,  -0.49142,  -0.47860,   0.35437,  -0.33764,  -0.06853,   0.95667,  -0.69646,   1.12327,   0.48252,  -0.13260,  -0.13260,   0.14933,   0.43126,   0.13651,   0.45689,   0.41844,   0.40563,   0.18777,  -0.59394,  -0.03008,  -0.79898,  -0.31201,  -0.50423,   0.22622,  -0.58112,  -0.20949,  -0.86305,   0.17496,  -0.09416,  -0.54268,   0.27748,   0.39281,  -0.27356,  -0.38890,   0.39281,   0.17496,  -0.73490,   0.53378,  -0.33764,   0.34155,  -0.00445,   0.03399,   0.26466,   0.12370,   0.29029,  -0.13260,   0.16214,  -0.01727,  -0.06853,  -0.14541,  -0.05571,   0.13651,   0.05962,  -0.33764,   0.11088,   0.09807,  -0.96557,  -0.24793
  -0.67083,  -0.22230,   0.05962,  -0.33764,  -1.11935,   0.17496,  -0.26075,   0.94386,  -0.09416,  -0.03008,  -0.22230,   0.13651,   0.18777,   0.38000,  -0.24793,  -0.42734,  -0.33764,  -0.18386,  -0.13260,  -0.38890,   0.36718,   1.18734,   0.02118,   0.41844,  -0.59394,  -0.36327,   0.57222,  -0.17104,  -0.29919,   0.36718,   0.04681,  -0.72209,  -0.45297,   0.38000,   0.36718,  -0.35045,   0.43126,   0.16214,  -0.05571,  -0.60675,   0.59785,  -0.77335,  -0.40171,  -0.05571,  -0.92713,   0.70037,  -0.35045,  -0.00445,   0.07244,  -0.35045,  -0.29919,   0.30311,   0.23903,   0.31592,   0.41844,   0.03399,   0.27748,  -0.44016,  -0.35045,   0.05962,  -0.50423,  -0.04290,  -0.35045,   0.46970
  -0.99120,  -0.36327,  -0.51705,   0.12370,  -1.31158,   0.18777,  -0.20949,   0.81571,  -0.11978,   0.07244,   0.05962,   0.04681,  -0.33764,   1.31549,  -0.01727,  -0.27356,  -0.63238,  -0.27356,  -0.19667,  -0.00445,   0.20059,   0.55941,   0.29029,  -0.09416,  -0.09416,   0.30311,   0.18777,  -0.32482,   0.00836,  -0.44016,  -0.61957,  -0.65801,  -1.05528,   0.58504,   0.36718,  -0.24793,  -0.36327,   0.30311,   0.31592,   0.30311,  -0.46579,  -0.10697,  -0.26075,  -0.26075,  -0.46579,   0.22622,  -0.35045,  -0.00445,   0.14933,  -0.14541,  -0.05571,  -0.31201,   0.27748,  -0.35045,  -0.04290,  -0.47860,   0.31592,  -0.26075,  -0.77335,   0.02118,   0.08525,   0.22622,  -0.65801,  -0.27356
  -0.24793,  -0.27356,  -0.52986,   0.05962,  -1.02965,   0.13651,  -0.09416,   0.43126,  -0.31201,   0.02118,  -0.08134,   0.36718,  -0.13260,   0.59785,  -0.20949,  -0.31201,  -0.01727,   0.05962,   0.03399,  -0.61957,   0.14933,   0.58504,  -0.27356,   0.45689,  -0.42734,  -0.13260,  -0.18386,   0.18777,  -0.49142,  -0.14541,  -0.22230,  -0.67083,  -0.54268,   0.50815,  -0.46579,  -0.08134,   0.29029,   0.46970,   0.09807,  -0.49142,   0.02118,  -0.65801,   0.27748,   0.22622,  -0.50423,   1.04638,   0.03399,   0.20059,   0.38000,  -0.15823,   0.12370,   0.25185,   0.05962,  -0.08134,  -0.05571,   0.57222,   0.25185,  -0.72209,  -0.40171,  -0.47860,  -0.47860,   0.35437,  -0.14541,  -0.04290
   0.39281,  -0.20949,  -1.13217,   0.04681,  -0.92713,  -0.06853,   0.13651,  -0.45297,  -0.24793,  -0.05571,   0.41844,   0.23903,  -0.54268,  -1.04246,   0.20059,  -0.22230,   0.34155,   0.11088,   0.40563,  -0.68364,   0.41844,   0.59785,   0.12370,   0.40563,  -0.03008,  -0.65801,  -0.76053,  -0.41453,   0.20059,  -0.22230,  -0.24793,   0.05962,  -0.15823,  -0.60675,  -0.22230,   0.67474,   0.36718,  -0.17104,  -0.63238,  -0.29919,   0.34155,  -0.09416,   0.00836,   0.20059,  -0.44016,   0.08525,  -0.23512,  -0.22230,  -0.18386,  -0.63238,   0.12370,  -0.17104,   0.20059,  -0.11978,   0.30311,  -0.14541,  -0.01727,  -0.08134,   0.49533,   0.70037,   0.30311,  -0.26075,   0.58504,   0.16214
  -0.41453,   0.46970,   0.30311,   0.11088,  -0.77335,   0.57222,  -0.35045,  -0.15823,   0.08525,   0.00836,   0.59785,   0.86697,  -1.01683,   0.62348,  -0.14541,  -0.18386,  -0.55549,  -0.55549,  -0.18386,  -0.01727,   0.12370,   0.98230,   0.11088,   0.57222,  -0.40171,  -0.26075,   0.32874,  -0.50423,  -0.44016,   0.43126,  -0.42734,  -0.15823,  -0.54268,   0.57222,   0.87978,  -0.17104,   0.31592,   0.57222,  -0.05571,   0.32874,   0.61067,  -0.08134,  -0.33764,   0.36718,  -0.09416,   0.35437,  -0.61957,   0.25185,   0.41844,  -0.08134,   0.18777,   0.58504,   0.03399,  -0.14541,   0.35437,  -0.36327,   0.16214,   0.11088,   0.09807,  -0.32482,  -0.51705,  -0.36327,  -0.60675,  -0.49142
   0.64911,   0.27748,  -0.01727,   0.32874,   0.59785,   0.07244,  -0.20949,  -0.13260,  -0.26075,  -0.42734,   0.46970,  -0.46579,  -0.17104,  -0.92713,   0.35437,  -0.35045,  -0.08134,   0.52096,   0.12370,  -0.37608,  -0.01727,  -0.09416,  -0.46579,  -0.14541,  -0.31201,  -0.23512,  -0.31201,   0.23903,  -0.29919,  -0.20949,  -0.68364,  -0.26075,  -0.26075,  -0.26075,   0.45689,   1.18734,  -0.18386,   0.16214,  -0.00445,   0.48252,   0.31592,  -0.00445,  -0.14541,  -0.59394,   0.25185,  -0.72209,  -0.10697,  -0.47860,  -0.01727,   0.13651,   0.17496,  -0.36327,  -0.27356,   0.07244,  -0.88868,  -0.22230,  -0.05571,  -0.11978,   0.12370,   0.38000,   0.73882,  -0.14541,  -0.35045,   0.45689
  -0.20949,   0.35437,   0.27748,   0.49533,  -0.88868,   0.67474,   0.04681,   0.12370,   0.07244,   0.05962,  -0.08134,   0.27748,  -0.38890,   0.58504,   0.25185,  -0.11978,  -0.44016,  -0.65801,  -0.28638,   0.72600,   0.66193,   0.62348,   0.22622,   0.20059,   0.20059,  -0.20949,   0.03399,   0.12370,  -0.31201,   0.91823,  -0.78616,  -0.23512,  -0.72209,   0.44407,   1.23860,  -0.03008,  -0.59394,   0.55941,  -0.17104,   0.35437,  -0.00445,  -0.27356,  -0.56831,  -0.54268,  -0.41453,   0.11088,   0.23903,  -0.51705,   0.49533,   0.18777,  -0.35045,  -0.26075,  -0.15823,  -0.49142,   0.50815,  -0.40171,   0.35437,  -0.35045,  -0.46579,  -0.52986,   0.14933,   0.08525,  -0.56831,  -0.47860
  -0.58112,  -0.42734,  -0.19667,   0.22622,  -0.79898,  -0.54268,   0.14933,  -0.22230,   0.43126,  -0.18386,  -0.19667,   0.07244,  -0.40171,  -1.11935,   0.27748,  -0.14541,   0.04681,   1.39238,  -0.65801,  -0.33764,   0.25185,  -0.85024,   0.86697,  -0.36327,  -0.36327,  -0.44016,  -0.19667,  -0.46579,   0.34155,  -0.19667,  -0.27356,  -0.10697,  -1.09372,   0.26466,  -0.04290,  -0.33764,  -0.01727,   0.34155,  -0.31201,  -0.60675,   0.57222,  -0.29919,  -0.00445,  -0.15823,  -0.33764,  -0.29919,  -0.26075,  -0.05571,   0.58504,   0.16214,  -0.17104,   0.14933,  -0.10697,  -0.51705,  -0.46579,  -0.52986,   0.17496,   0.11088,  -0.41453,  -1.10654,   0.18777,  -0.35045,  -0.18386,  -0.19667
  -0.00445,  -0.14541,  -0.69646,  -0.03008,  -1.27313,  -0.22230,  -0.03008,   1.09764,   0.09807,  -0.33764,  -0.11978,   0.12370,   0.26466,   0.90541,   0.00836,  -0.70927,  -0.68364,  -0.31201,   0.22622,  -0.04290,   0.44407,   0.11088,   0.46970,   0.34155,  -0.78616,  -0.50423,   0.27748,  -0.06853,  -0.00445,  -0.09416,  -0.52986,  -0.70927,  -0.46579,  -0.27356,   0.12370,   0.20059,  -0.28638,  -0.04290,   0.23903,  -0.28638,  -0.01727,  -0.78616,  -0.17104,   0.29029,  -0.44016,   0.14933,   0.55941,  -0.37608,  -0.01727,  -0.49142,  -0.40171,  -0.23512,   0.23903,  -0.14541,   0.17496,   0.27748,   0.34155,   0.38000,  -0.06853,  -0.73490,  -0.09416,   0.79008,  -0.22230,  -0.15823
  -0.74772,   0.04681,   0.05962,  -0.29919,  -1.01683,   0.17496,   0.00836,   0.32874,   0.05962,   0.09807,  -0.36327,   0.58504,  -0.38890,   0.66193,   0.36718,  -0.05571,  -0.65801,  -0.04290,   0.02118,  -0.26075,   0.30311,   0.50815,  -0.13260,   0.25185,  -0.49142,  -0.50423,   0.11088,   0.23903,   0.02118,   0.21340,  -0.03008,  -0.13260,  -0.63238,   0.85415,   0.12370,   0.30311,   0.03399,   0.52096,  -0.05571,  -0.36327,   0.55941,   0.07244,  -0.63238,   0.18777,  -0.63238,   0.64911,  -0.78616,  -0.08134,   0.25185,  -0.31201,  -0.41453,   0.20059,   0.32874,   0.07244,  -0.09416,  -0.24793,   0.29029,   0.17496,  -0.54268,  -0.26075,  -0.47860,   0.21340,  -0.61957,  -0.32482
   0.40563,  -0.51705,  -0.17104,  -0.38890,   0.38000,  -0.15823,   0.29029,  -0.55549,  -0.68364,  -0.23512,   0.07244,  -0.27356,  -0.61957,   0.40563,  -0.08134,   0.20059,  -0.24793,   0.50815,   0.43126,  -0.78616,  -0.06853,  -0.67083,  -0.23512,   0.07244,   0.05962,   0.36718,  -0.35045,  -0.52986,   0.18777,  -0.52986,   0.08525,  -0.37608,  -0.60675,  -0.61957,  -0.51705,  -0.40171,   0.05962,  -0.15823,  -0.18386,  -0.31201,   0.09807,   0.59785,   0.30311,  -0.04290,   0.91823,  -0.31201,  -0.83742,   0.12370,  -0.01727,   0.04681,   0.26466,  -0.20949,   0.08525,  -0.00445,   0.09807,   0.40563,   0.35437,  -0.01727,  -0.08134,  -0.17104,   0.57222,   0.27748,   0.66193,   0.29029
   0.13651,  -0.15823,  -0.18386,   0.23903,   0.09807,  -0.19667,  -0.03008,  -0.32482,  -0.46579,  -0.28638,  -0.09416,  -0.08134,  -0.67083,  -0.45297,   0.46970,  -0.01727,  -0.51705,   0.53378,  -0.15823,   0.11088,  -0.35045,  -0.33764,  -0.14541,   0.14933,  -0.09416,  -0.40171,  -0.05571,   0.02118,  -0.08134,  -0.38890,  -0.19667,  -0.26075,  -0.51705,  -0.27356,  -0.37608,  -0.19667,   0.49533,   0.05962,  -0.24793,   0.07244,   0.23903,   0.20059,   0.18777,   0.18777,   0.26466,  -0.38890,  -0.10697,  -0.26075,  -0.08134,   0.30311,   0.08525,  -0.13260,   0.05962,  -0.13260,  -0.10697,  -0.32482,  -0.06853,   0.53378,   0.13651,   0.12370,   0.20059,   0.26466,   0.18777,  -0.20949
   0.20059,   0.18777,   0.54659,  -0.00445,  -1.37565,   0.26466,  -0.04290,   0.43126,  -0.31201,  -0.42734,  -0.37608,   0.45689,  -0.50423,   0.87978,  -0.08134,  -0.37608,  -0.65801,  -0.54268,   0.07244,   0.08525,  -0.15823,   0.80289,   0.14933,   0.12370,  -0.31201,  -0.19667,  -0.27356,  -0.52986,   0.09807,   0.21340,  -0.76053,  -0.20949,  -0.67083,   0.76445,   0.57222,  -0.14541,  -0.36327,  -0.03008,   0.17496,   0.04681,   0.43126,   0.02118,  -0.29919,  -0.13260,  -0.90150,   0.07244,  -0.51705,  -0.32482,   0.30311,  -0.42734,  -0.50423,   0.08525,   0.13651,  -0.19667,   0.55941,  -0.15823,   0.57222,  -0.11978,   0.52096,  -0.19667,  -0.32482,   0.39281,  -0.85024,  -0.37608
  -0.29919,  -0.31201,   0.20059,  -0.37608,  -0.29919,  -1.20906,   0.22622,  -0.09416,  -0.29919,  -0.14541,  -0.20949,  -0.09416,  -0.23512,   0.68756,  -0.44016,   0.22622,  -0.17104,   0.22622,  -0.29919,   0.25185,  -0.19667,  -0.04290,  -0.11978,  -0.06853,  -0.26075,  -0.31201,   0.07244,  -0.54268,  -0.08134,  -0.51705,  -0.37608,  -0.14541,  -0.31201,   0.21340,   0.03399,  -0.38890,   0.32874,  -0.36327,   0.23903,  -0.65801,   0.27748,   0.17496,  -0.27356,   0.00836,   0.09807,   0.14933,  -0.52986,  -0.33764,   0.34155,  -0.36327,   0.55941,  -0.08134,   0.48252,   0.52096,   0.25185,   0.57222,   0.43126,   0.08525,  -0.01727,   0.21340,  -0.08134,   0.45689,   0.61067,  -0.27356
   0.63630,  -0.41453,  -0.76053,  -0.28638,  -0.08134,  -0.27356,   0.09807,  -0.40171,  -0.26075,  -0.55549,   0.09807,   0.09807,  -0.49142,  -1.29876,   0.25185,   0.00836,  -0.19667,  -0.14541,  -0.35045,  -0.63238,  -0.13260,  -0.06853,  -0.42734,   0.22622,  -0.04290,  -0.78616,  -0.86305,   0.11088,   0.58504,  -1.04246,   0.13651,   0.08525,  -0.18386,  -0.88868,   0.04681,   0.53378,   0.44407,  -0.81179,  -0.35045,  -0.64520,   0.32874,   0.30311,   0.26466,   0.18777,   0.79008,  -0.76053,  -0.58112,  -0.60675,  -0.35045,  -0.24793,  -0.40171,  -0.27356,   0.05962,  -0.52986,   0.58504,   0.00836,  -0.09416,   0.03399,   0.40563,  -0.18386,   0.27748,  -0.03008,   0.84134,  -0.00445
  -0.86305,  -0.18386,  -0.40171,  -0.03008,  -1.10654,   0.50815,  -0.19667,   0.91823,  -0.17104,  -0.26075,   0.09807,  -0.15823,  -0.03008,   0.68756,  -0.04290,  -0.45297,  -0.51705,  -0.23512,   0.23903,   0.04681,   0.66193,   0.21340,  -0.47860,  -0.31201,  -0.65801,  -0.24793,   0.54659,  -0.03008,  -0.59394,  -0.01727,  -0.26075,  -0.93994,  -0.51705,   0.91823,   0.68756,   0.35437,  -0.22230,   0.16214,   0.09807,  -0.61957,  -0.06853,  -0.29919,   0.07244,  -0.38890,  -1.19624,   0.25185,  -0.47860,  -0.26075,   0.21340,  -0.18386,  -0.17104,   0.14933,   0.02118,  -0.78616,  -0.83742,   0.16214,   0.35437,  -0.14541,  -0.04290,  -0.24793,  -0.18386,   0.40563,  -0.83742,  -0.10697
  -0.65801,   0.07244,   0.58504,   0.11088,  -0.81179,  -0.15823,  -0.06853,  -0.28638,  -0.10697,   0.09807,   0.18777,   0.58504,  -0.65801,   0.46970,   0.18777,   0.21340,  -0.87587,   0.17496,   0.18777,   0.27748,   0.25185,   0.34155,   0.04681,  -0.14541,  -0.24793,  -0.06853,  -0.09416,   0.18777,  -0.24793,   0.40563,   0.07244,   0.04681,  -0.87587,   0.03399,   0.49533,  -0.40171,  -0.17104,  -0.09416,   0.03399,  -0.14541,   0.04681,   0.05962,  -0.63238,   0.20059,  -0.19667,   0.22622,  -1.22187,  -0.15823,  -0.05571,  -0.04290,   0.02118,  -0.19667,  -0.49142,  -0.08134,   0.05962,  -0.82461,  -0.08134,   0.36718,  -0.22230,  -0.46579,  -0.15823,   0.23903,  -0.38890,  -0.31201
   0.54659,   0.04681,  -0.28638,   0.18777,  -0.19667,  -0.20949,  -0.04290,  -0.08134,  -0.24793,  -0.13260,  -0.40171,   0.04681,  -0.11978,  -0.92713,  -0.00445,   0.45689,  -0.42734,   0.77726,  -0.11978,   0.02118,   0.07244,  -0.56831,   0.64911,  -0.08134,   0.54659,  -0.38890,  -0.77335,  -0.50423,   0.22622,  -0.06853,  -0.10697,   0.44407,  -0.10697,  -0.65801,  -0.97839,   0.63630,   0.12370,   0.03399,  -0.36327,  -0.45297,  -0.19667,  -0.03008,  -0.36327,  -0.68364,   0.32874,  -0.27356,  -0.76053,   0.38000,  -0.27356,  -0.33764,  -0.18386,   0.38000,  -0.17104,   0.04681,   0.53378,  -0.05571,  -0.11978,   0.22622,   0.12370,   0.48252,   0.58504,  -0.01727,   0.64911,  -0.17104
  -0.49142,   0.12370,   0.13651,  -0.03008,  -0.08134,  -0.64520,  -0.24793,  -0.58112,  -0.42734,  -0.05571,   0.30311,   0.21340,  -0.09416,   0.67474,   0.68756,   0.64911,  -0.40171,   0.76445,   0.17496,  -0.10697,   0.04681,  -0.69646,  -0.05571,  -0.06853,  -0.00445,   0.09807,  -0.40171,  -0.05571,   0.12370,   0.02118,   0.05962,   0.04681,  -0.54268,  -0.54268,  -0.08134,  -0.44016,   0.48252,  -0.03008,   0.20059,  -0.67083,   0.21340,   0.02118,  -1.13217,   0.14933,   0.57222,  -0.56831,  -0.29919,   0.08525,   0.07244,  -0.15823,   0.35437,  -0.06853,  -0.46579,   0.50815,  -0.92713,  -0.33764,   0.18777,   0.44407,  -0.35045,  -0.50423,  -0.28638,   0.62348,   0.13651,   0.11088
  -0.36327,   0.22622,   0.03399,   0.41844,  -1.28595,  -0.24793,  -0.20949,  -0.28638,   0.05962,  -0.81179,   0.75163,   1.09764,  -0.00445,   0.96949,  -0.45297,  -0.18386,  -0.54268,  -0.17104,  -0.65801,   0.30311,   0.22622,   0.08525,  -0.27356,   0.32874,   0.02118,  -0.03008,  -0.06853,   0.32874,   0.17496,   0.45689,   0.20059,   0.25185,  -0.65801,  -0.13260,   0.13651,  -0.26075,   0.66193,   0.21340,  -0.17104,  -0.32482,   0.62348,  -0.23512,  -0.10697,   0.59785,  -0.19667,  -0.19667,   0.64911,  -0.52986,   0.89260,  -0.04290,  -0.13260,   0.07244,  -0.03008,  -0.24793,  -0.31201,  -0.58112,   0.23903,   0.84134,  -0.08134,  -1.02965,   0.16214,  -0.56831,  -1.32439,  -0.45297
  -0.22230,  -0.14541,  -0.61957,   0.13651,  -0.33764,  -0.27356,   0.11088,   0.04681,  -0.36327,  -0.45297,   0.09807,  -0.82461,  -0.04290,   0.07244,   0.00836,  -0.44016,   0.00836,   0.05962,  -0.05571,  -0.52986,  -0.28638,  -0.13260,  -0.18386,  -0.18386,   0.09807,  -0.76053,  -0.61957,  -0.45297,   0.36718,   0.04681,  -1.04246,   0.08525,  -0.32482,  -0.55549,  -0.33764,   0.09807,  -0.13260,  -0.28638,  -0.45297,   0.21340,  -0.27356,   0.00836,  -0.03008,  -0.42734,   0.13651,  -0.10697,  -0.05571,  -0.35045,   0.00836,   0.08525,   0.08525,  -0.46579,   0.25185,   0.02118,   0.36718,   0.08525,   0.40563,   0.29029,   0.03399,   0.07244,   0.86697,   0.02118,   0.34155,  -0.04290
  -0.26075,  -0.08134,  -0.69646,  -0.08134,  -0.31201,  -0.14541,  -0.06853,   0.45689,   0.20059,  -0.36327,  -0.40171,  -0.41453,   0.84134,   0.58504,   0.45689,  -0.32482,  -0.08134,   0.36718,   0.29029,  -0.72209,   0.54659,  -0.11978,   0.44407,   0.20059,  -0.50423,  -0.81179,  -0.06853,   0.54659,   0.20059,  -0.76053,  -0.38890,  -0.81179,  -0.24793,   0.50815,  -0.15823,  -0.38890,   0.17496,   0.07244,  -0.17104,  -0.60675,  -0.04290,  -0.70927,  -0.36327,   0.44407,   0.14933,   0.08525,  -0.77335,  -0.19667,   0.04681,  -0.38890,  -0.20949,  -0.37608,  -0.01727,   0.05962,   1.31549,   0.16214,   0.20059,  -0.18386,  -0.05571,  -0.01727,   0.26466,   0.27748,   0.25185,  -0.09416
  -0.79898,  -0.00445,  -0.31201,  -0.52986,  -0.20949,  -1.04246,   0.31592,   0.34155,   0.07244,  -0.38890,  -0.05571,  -0.45297,  -0.20949,   0.49533,   0.41844,  -0.23512,  -0.32482,   0.91823,  -0.22230,  -0.76053,   0.14933,  -1.05528,   0.26466,  -0.59394,   0.50815,   0.09807,  -0.06853,  -0.41453,   0.48252,  -0.79898,  -0.42734,  -0.86305,  -0.14541,   0.23903,  -0.51705,  -0.13260,  -0.37608,  -0.67083,   0.36718,  -0.08134,   0.00836,   0.09807,  -0.29919,  -0.33764,  -0.47860,   0.03399,   0.26466,   0.07244,   0.07244,   0.00836,   0.36718,  -0.59394,   0.14933,   0.14933,   0.79008,   0.43126,   0.40563,   0.12370,  -0.47860,  -0.46579,   0.31592,   0.68756,   0.63630,  -0.54268
   0.36718,   0.13651,  -0.91431,   0.08525,  -0.14541,   0.04681,   0.12370,  -0.52986,  -0.04290,  -0.00445,  -0.17104,   0.21340,   0.07244,  -0.65801,   0.21340,  -0.14541,   0.03399,  -0.15823,   0.40563,  -0.46579,   0.31592,   0.72600,  -0.20949,   0.49533,   0.12370,  -0.11978,  -0.18386,   0.26466,  -0.24793,  -1.01683,  -0.47860,   0.12370,  -0.60675,  -0.52986,  -0.22230,  -0.19667,   0.52096,  -0.03008,  -0.18386,  -0.47860,   0.52096,   0.08525,  -0.19667,   0.00836,   0.17496,   0.08525,   0.11088,  -0.09416,   0.17496,   0.00836,   0.08525,  -0.31201,   0.55941,   0.14933,   0.31592,   0.08525,   0.18777,   0.04681,   0.36718,  -0.03008,   0.40563,   0.13651,   0.00836,  -0.08134
  -0.38890,  -0.01727,  -1.64476,   0.16214,  -1.50380,  -0.13260,  -0.45297,  -0.35045,   0.25185,  -0.04290,   0.00836,  -0.01727,  -0.60675,  -0.40171,  -0.01727,   0.20059,   0.08525,  -0.05571,   0.09807,  -0.27356,   0.07244,   0.94386,   0.32874,   0.62348,  -0.52986,  -0.56831,   0.13651,   0.50815,  -0.33764,  -1.20906,   0.32874,  -0.22230,  -1.01683,  -0.36327,  -0.22230,  -0.31201,   1.09764,   0.30311,  -0.26075,  -1.06809,   0.49533,  -0.32482,  -0.55549,   0.23903,  -0.15823,   0.45689,  -0.14541,   0.34155,   0.72600,   0.04681,  -0.13260,  -0.49142,   0.66193,   0.20059,   0.58504,   0.27748,   0.07244,   0.29029,   0.27748,  -0.33764,  -0.04290,  -0.49142,  -0.13260,   0.31592
  -0.29919,  -0.27356,   0.13651,   0.34155,  -0.04290,  -0.47860,  -0.52986,   0.52096,   0.18777,  -0.13260,  -0.11978,   0.53378,   0.02118,   0.39281,  -0.08134,  -0.38890,  -0.09416,   0.36718,   0.07244,  -0.61957,   0.26466,  -0.11978,  -0.00445,   0.23903,  -0.56831,  -0.45297,   0.12370,  -0.32482,   0.03399,  -0.29919,  -0.68364,  -0.52986,   0.11088,   0.71319,  -0.05571,  -0.01727,   0.11088,  -0.17104,   0.08525,  -0.74772,   0.09807,  -0.32482,  -0.04290,  -0.09416,  -0.35045,   0.62348,  -0.51705,  -0.24793,   0.40563,  -0.33764,  -0.49142,  -0.10697,   0.32874,  -0.50423,   0.93104,   0.57222,   0.31592,  -0.22230,  -0.20949,   0.08525,  -0.24793,   0.44407,   0.31592,  -0.08134
   0.62348,   0.49533,  -0.40171,   0.14933,   0.03399,  -0.74772,   0.05962,  -0.73490,  -0.26075,   0.50815,  -0.03008,   0.23903,  -0.24793,  -0.14541,   0.49533,  -0.08134,  -0.17104,   0.55941,  -0.23512,  -0.01727,   0.22622,   0.14933,   0.38000,   0.46970,  -0.67083,  -0.05571,  -0.27356,  -0.14541,   0.59785,  -0.23512,  -0.54268,   0.03399,  -0.40171,  -0.74772,  -0.03008,  -0.49142,   0.52096,  -0.18386,  -0.10697,  -0.70927,   0.63630,   0.46970,  -0.09416,   0.12370,   0.68756,  -0.33764,  -0.45297,  -0.01727,   0.62348,  -0.15823,  -0.10697,  -0.11978,   0.00836,   0.17496,  -0.63238,  -0.01727,   0.29029,   1.11045,  -0.17104,   0.32874,  -0.17104,   0.36718,   0.52096,  -0.22230
  -0.10697,   0.79008,  -0.01727,   0.16214,   0.68756,   0.08525,   0.02118,   0.26466,   0.93104,   0.52096,  -0.74772,   0.14933,  -0.15823,  -0.54268,   0.76445,   0.08525,  -0.28638,   0.77726,  -0.45297,  -0.44016,  -0.17104,  -0.18386,  -0.06853,  -0.35045,  -0.54268,  -0.56831,  -0.32482,   0.00836,   0.43126,  -0.76053,  -1.19624,   0.46970,  -0.85024,   0.29029,  -0.04290,   0.72600,  -0.10697,  -0.55549,  -0.17104,  -0.68364,   0.32874,  -0.04290,  -0.17104,   0.03399,   0.05962,  -0.58112,   0.17496,  -0.17104,   0.03399,  -0.68364,   0.09807,  -0.86305,   0.11088,  -0.01727,   0.00836,  -0.26075,   0.46970,  -0.37608,   0.14933,  -0.32482,   0.21340,  -0.37608,   0.26466,  -0.04290
  -0.52986,  -0.06853,   0.14933,   0.02118,  -0.58112,  -0.28638,  -0.03008,  -0.72209,   0.29029,  -0.14541,  -0.14541,   0.75163,  -0.51705,   0.50815,  -0.01727,  -0.31201,  -0.61957,   0.02118,  -0.65801,   0.50815,  -0.15823,   0.02118,  -0.50423,   0.35437,  -0.14541,   0.70037,   0.11088,  -0.09416,   0.45689,   0.87978,  -0.58112,   0.49533,  -0.05571,  -0.35045,   0.26466,  -0.60675,  -0.10697,  -1.04246,  -0.27356,  -0.08134,   0.66193,   1.13608,   0.13651,  -0.40171,   0.23903,  -0.38890,  -0.79898,  -0.10697,   0.64911,   0.00836,   0.48252,  -0.50423,   0.29029,   0.25185,  -0.37608,  -0.22230,   0.61067,   0.73882,  -0.00445,  -0.63238,  -0.15823,   0.57222,   0.16214,   0.04681
   0.04681,   0.41844,  -0.46579,  -0.24793,   0.05962,  -0.03008,  -0.42734,  -0.20949,   0.14933,   0.16214,  -0.01727,   0.45689,  -0.72209,  -0.50423,   0.77726,   0.04681,   0.04681,   0.73882,  -0.28638,   0.03399,  -0.03008,   0.00836,   0.11088,   0.16214,  -0.23512,   0.08525,  -0.37608,  -0.81179,   0.25185,  -0.04290,  -0.23512,   0.14933,  -0.26075,  -0.87587,  -0.09416,  -0.01727,   0.05962,  -0.18386,  -0.22230,   0.48252,   0.34155,   0.43126,  -0.33764,  -0.06853,  -0.35045,  -0.18386,  -0.35045,  -0.01727,  -0.09416,  -0.00445,   0.00836,  -0.67083,   0.26466,   0.35437,  -0.91431,  -0.26075,  -0.24793,   0.55941,   0.40563,   0.04681,  -0.54268,  -0.17104,   0.20059,   0.12370
   0.30311,   0.00836,  -0.33764,  -0.20949,   0.25185,  -0.03008,   0.13651,  -0.45297,  -0.05571,   0.14933,   0.05962,  -0.42734,  -0.45297,  -0.46579,   0.23903,   0.41844,  -0.22230,   0.46970,  -0.03008,   0.45689,   0.00836,   0.00836,  -0.18386,  -0.37608,   0.44407,  -0.22230,  -0.65801,  -0.40171,  -0.18386,  -0.04290,   0.08525,   0.34155,  -0.31201,  -0.74772,  -0.44016,   0.11088,   0.34155,  -0.24793,  -0.11978,  -0.03008,  -0.29919,   0.32874,   0.12370,  -0.04290,   0.58504,  -0.35045,  -0.17104,  -0.22230,  -0.03008,  -0.50423,  -0.32482,  -0.22230,   0.08525,   0.38000,  -0.46579,  -0.22230,  -0.08134,   0.26466,   0.53378,  -0.10697,   0.25185,   0.41844,   0.38000,  -0.51705
  -0.19667,   0.32874,  -0.59394,   0.41844,  -0.23512,  -1.13217,   0.13651,  -0.72209,  -0.18386,   0.04681,   0.25185,   0.05962,   0.00836,  -0.08134,   0.20059,   0.62348,  -0.45297,   0.72600,  -0.60675,  -0.44016,  -0.37608,  -0.44016,  -0.05571,  -0.01727,  -0.13260,  -0.54268,  -0.93994,   0.13651,   0.44407,  -0.13260,  -0.13260,  -0.13260,  -0.24793,  -0.42734,  -0.17104,  -0.08134,   0.08525,   0.08525,   0.00836,  -0.18386,   0.13651,   0.29029,  -0.18386,   0.03399,   0.16214,  -0.76053,  -0.50423,   0.11088,   0.04681,  -0.04290,  -0.50423,   0.27748,   0.14933,   0.25185,  -0.85024,  -0.26075,   0.22622,   0.90541,   0.31592,  -1.33721,   0.04681,   0.80289,  -0.19667,  -0.00445
   0.48252,   0.45689,  -0.18386,   0.57222,  -0.42734,  -0.04290,  -0.13260,  -0.05571,   0.17496,  -0.27356,  -0.23512,   0.38000,  -0.52986,   0.14933,   0.05962,  -0.23512,  -0.11978,   0.38000,  -0.59394,   0.29029,   0.23903,  -0.23512,   0.14933,   0.21340,   0.00836,  -0.44016,  -0.10697,   0.16214,  -0.29919,   0.00836,  -0.96557,   0.40563,  -0.90150,  -0.29919,   0.38000,   0.09807,  -0.08134,   0.23903,  -0.00445,   0.35437,  -0.03008,  -0.40171,  -0.11978,  -0.46579,  -0.00445,  -0.85024,  -1.00402,  -0.61957,   0.54659,  -0.14541,  -0.31201,  -0.65801,   0.02118,  -0.19667,  -0.41453,  -0.81179,   0.39281,   0.09807,   0.35437,  -0.35045,   0.52096,  -0.44016,   0.08525,  -0.59394
  -0.44016,  -0.35045,  -0.03008,  -0.08134,  -1.14498,   0.09807,  -0.37608,   0.32874,  -0.03008,  -0.76053,  -0.18386,   0.62348,   0.03399,   0.77726,  -0.01727,  -0.38890,  -0.35045,  -0.28638,  -0.13260,  -0.05571,   0.34155,   0.52096,   0.00836,   0.46970,  -0.51705,  -0.64520,   0.43126,   0.26466,   0.02118,   0.76445,  -0.29919,   0.31592,  -0.42734,   0.68756,  -0.54268,  -0.55549,   0.53378,   0.30311,  -0.42734,  -0.41453,   0.17496,  -0.69646,  -0.19667,  -0.24793,  -0.77335,   0.93104,  -0.46579,   0.09807,   0.20059,  -0.23512,  -0.11978,   0.20059,   0.20059,   0.17496,  -0.13260,   0.29029,   0.32874,  -0.37608,  -0.40171,  -0.28638,  -0.28638,  -0.10697,  -0.55549,   0.48252
  -0.64520,  -0.14541,   0.08525,  -0.01727,  -1.04246,   0.03399,   0.02118,   0.79008,  -0.00445,  -0.19667,   0.11088,  -0.47860,   0.20059,   1.02075,   0.30311,   0.03399,  -0.46579,   0.41844,   0.12370,  -0.49142,   0.41844,   0.20059,  -0.19667,  -0.10697,  -0.70927,   0.00836,  -0.09416,   0.34155,  -0.01727,  -0.37608,  -0.14541,  -0.64520,  -0.70927,   1.18734,   0.16214,  -0.19667,  -0.19667,   0.31592,  -0.32482,  -0.38890,  -0.45297,  -0.50423,  -0.13260,  -0.03008,  -0.78616,   0.07244,  -0.29919,   0.11088,   0.41844,   0.16214,   0.27748,  -0.22230,  -0.31201,  -0.31201,   0.11088,   0.43126,   0.46970,  -0.14541,  -0.47860,  -0.32482,   0.45689,  -0.01727,  -0.42734,  -0.22230
  -0.55549,  -0.35045,   0.76445,  -0.23512,  -0.61957,  -0.18386,  -0.41453,   0.00836,  -0.33764,  -0.19667,  -0.37608,   0.30311,  -0.08134,   0.07244,  -0.20949,   0.04681,  -0.83742,  -0.18386,  -0.00445,   0.79008,   0.61067,  -0.49142,  -0.31201,  -0.03008,  -0.41453,  -0.41453,  -0.10697,  -0.08134,  -0.10697,   0.79008,  -0.31201,   0.34155,  -0.33764,   0.31592,   0.46970,   0.44407,  -0.03008,  -0.47860,  -0.27356,  -0.60675,   0.09807,  -0.23512,  -0.79898,  -0.03008,  -0.40171,   0.55941,  -1.17061,  -0.42734,   0.40563,  -0.37608,  -0.86305,   0.29029,  -0.29919,  -0.20949,  -0.55549,  -0.37608,   0.32874,   0.32874,  -0.09416,  -1.05528,  -0.33764,   1.12327,  -0.26075,   0.22622
   0.22622,   0.29029,  -0.32482,  -0.05571,   0.61067,   0.12370,  -0.35045,  -0.22230,  -0.15823,  -0.05571,   0.08525,   0.03399,  -0.24793,  -0.08134,   0.58504,  -0.06853,  -0.51705,   0.61067,  -0.08134,  -0.17104,  -0.19667,   0.07244,   0.09807,   0.38000,  -0.01727,   0.09807,  -0.35045,  -0.58112,   0.36718,  -0.31201,  -0.31201,   0.32874,  -0.11978,  -0.55549,  -0.18386,   0.39281,   0.00836,  -0.14541,  -0.15823,  -0.05571,   0.35437,   0.44407,  -0.06853,  -0.23512,   0.12370,  -0.58112,  -0.26075,   0.09807,  -0.19667,  -0.35045,  -0.19667,  -0.44016,  -0.32482,   0.44407,  -0.08134,   0.49533,  -0.10697,   0.23903,  -0.01727,   0.46970,  -0.06853,   0.08525,   0.50815,  -0.14541
  -0.64520,  -0.09416,   0.03399,   0.26466,   0.41844,   0.26466,  -0.28638,  -0.27356,  -0.04290,  -1.08091,   0.18777,   0.45689,  -0.81179,   0.11088,   0.39281,   0.27748,  -0.70927,   0.25185,  -0.18386,   0.50815,   0.16214,  -0.04290,  -0.45297,  -0.40171,  -0.33764,   0.38000,  -0.11978,   0.17496,   0.29029,   0.43126,  -0.10697,   0.00836,  -0.72209,   0.16214,   0.26466,   0.03399,   0.11088,  -0.32482,  -0.83742,  -0.06853,   0.07244,   0.80289,  -0.33764,  -0.44016,   0.46970,  -0.26075,  -0.58112,  -0.31201,   0.20059,   0.44407,   0.13651,  -0.22230,  -0.24793,   0.00836,   0.38000,  -0.44016,   0.40563,   0.44407,  -0.46579,  -0.49142,   0.21340,   0.46970,  -0.29919,   0.08525
   0.18777,  -0.17104,  -0.63238,   0.52096,  -1.87543,   0.26466,  -0.49142,   0.75163,   0.57222,   0.30311,   0.40563,   0.39281,  -0.37608,   0.34155,  -0.10697,  -0.77335,  -0.09416,  -0.20949,  -0.17104,  -0.27356,   0.34155,   0.84134,  -0.46579,   0.59785,  -0.54268,  -0.00445,  -0.22230,  -0.24793,  -0.00445,   0.26466,  -0.40171,  -0.27356,  -0.41453,   0.75163,   0.45689,  -0.28638,   0.32874,  -0.00445,  -0.27356,  -0.19667,   0.38000,  -0.28638,   0.08525,  -0.60675,  -0.91431,   0.08525,   0.04681,   0.13651,   0.03399,  -0.22230,  -0.24793,  -0.60675,   0.22622,  -0.54268,   1.04638,   0.44407,   0.26466,  -0.51705,   0.36718,   0.07244,  -0.51705,  -0.63238,  -0.45297,   0.13651
   0.71319,  -0.37608,  -0.28638,  -0.31201,   0.16214,  -0.14541,  -0.01727,  -0.64520,   0.36718,  -0.40171,   0.03399,  -0.55549,   0.26466,   0.32874,   0.12370,   0.00836,   0.12370,  -0.35045,   0.39281,   0.38000,  -0.22230,  -0.72209,   0.17496,  -0.38890,   0.09807,  -0.47860,  -0.05571,   0.22622,   0.46970,  -0.61957,  -0.86305,   0.20059,   0.04681,  -0.37608,   0.27748,  -0.10697,   0.16214,  -0.15823,  -0.55549,  -1.24750,   0.38000,  -0.05571,  -0.08134,  -0.49142,   0.55941,  -0.37608,  -0.50423,  -0.10697,   0.22622,   0.14933,  -0.00445,  -0.46579,  -0.11978,  -0.05571,  -0.29919,   0.04681,   0.45689,   0.39281,   0.31592,  -0.41453,   0.30311,  -0.23512,   0.14933,   0.44407
   0.91823,   0.09807,  -0.78616,   0.46970,  -1.35002,  -0.65801,  -0.26075,  -0.15823,   0.22622,   0.27748,  -0.33764,   0.20059,  -0.96557,  -0.59394,   0.11088,  -0.28638,   0.00836,   0.09807,  -0.70927,  -0.64520,  -0.01727,   0.40563,   0.32874,   0.39281,   0.43126,  -0.56831,  -0.10697,   0.39281,  -0.20949,  -0.60675,  -0.38890,   0.55941,  -0.51705,  -0.65801,  -0.23512,  -0.11978,   0.99512,  -0.19667,  -0.72209,   0.09807,   0.08525,  -0.29919,   0.68756,  -0.08134,  -0.03008,  -0.33764,  -0.29919,  -0.42734,   0.23903,  -0.09416,   0.12370,  -0.79898,   0.81571,  -0.01727,   1.13608,  -0.52986,   0.13651,  -0.03008,   0.17496,   0.17496,   0.18777,  -0.33764,   0.63630,   0.03399
   0.14933,  -0.20949,  -0.87587,   0.14933,   0.17496,  -0.10697,  -0.11978,  -0.65801,  -0.55549,  -0.63238,   0.13651,  -0.05571,  -0.37608,  -0.78616,  -0.11978,   0.16214,  -0.11978,   0.04681,  -0.14541,  -0.17104,  -0.14541,   0.04681,  -0.19667,  -0.14541,   0.64911,  -0.28638,  -0.99120,  -0.28638,   0.53378,  -0.49142,   0.02118,  -0.04290,   0.04681,  -0.33764,  -0.31201,  -0.13260,   0.07244,   0.07244,  -0.36327,  -0.69646,   0.18777,   0.48252,  -0.20949,  -0.01727,   0.89260,  -0.09416,  -0.76053,  -0.17104,  -0.00445,  -0.10697,  -0.03008,  -0.32482,  -0.04290,   0.05962,  -0.19667,   0.17496,   0.26466,   0.63630,   0.25185,   0.02118,   0.41844,  -0.14541,   0.64911,   0.43126
  -0.47860,  -0.23512,   0.31592,  -0.38890,  -0.73490,  -0.08134,  -0.04290,   0.36718,  -0.29919,   0.04681,   0.02118,   0.81571,   0.03399,   0.62348,  -0.18386,  -0.05571,  -0.49142,  -0.32482,  -0.01727,   0.11088,   0.05962,   0.48252,  -0.04290,   0.31592,  -0.72209,   0.02118,   0.18777,  -0.32482,  -0.38890,   0.44407,  -0.05571,  -0.27356,  -0.61957,   0.55941,  -0.44016,  -0.31201,  -0.08134,   0.05962,   0.16214,  -0.00445,   0.35437,  -0.14541,  -0.46579,   0.30311,  -0.93994,   0.68756,  -0.49142,  -0.14541,   0.16214,  -0.03008,  -0.09416,   0.59785,   0.12370,   0.31592,  -0.15823,   0.39281,   0.44407,   0.04681,  -0.05571,  -0.23512,  -0.20949,   0.64911,  -0.20949,  -0.22230
   0.16214,   0.48252,  -1.23469,  -0.04290,  -0.23512,   0.00836,   0.08525,  -0.28638,  -0.33764,   0.20059,  -0.37608,  -0.20949,  -0.55549,  -0.24793,   0.13651,  -0.27356,   0.18777,   0.04681,  -0.42734,  -0.68364,  -0.26075,   0.05962,   0.39281,  -0.13260,   0.34155,  -0.33764,  -0.40171,   0.32874,   0.30311,  -0.04290,  -0.03008,  -0.01727,  -0.14541,  -0.86305,  -0.18386,  -0.08134,   1.00793,  -0.49142,  -0.32482,  -0.49142,   0.17496,   0.59785,   0.67474,   0.39281,   0.53378,  -0.28638,  -0.72209,  -0.65801,   0.18777,  -0.20949,   0.03399,   0.12370,   0.17496,   0.35437,  -0.03008,  -0.08134,   0.40563,   0.13651,   0.11088,  -0.36327,   0.11088,   0.04681,   0.27748,   0.45689
  -0.04290,  -0.00445,  -0.79898,   0.05962,  -0.05571,  -0.56831,   0.23903,  -0.23512,  -0.35045,   0.03399,   0.13651,  -0.37608,   0.00836,  -0.13260,   0.32874,  -0.13260,  -0.06853,   0.32874,  -0.29919,  -0.13260,  -0.10697,  -0.55549,  -0.24793,  -0.27356,   0.14933,  -0.04290,  -0.64520,   0.12370,   0.55941,  -0.50423,   0.11088,   0.18777,  -0.60675,  -0.58112,  -0.19667,  -0.08134,  -0.04290,  -0.24793,  -0.15823,  -0.46579,   0.02118,   0.05962,   0.39281,  -0.10697,   1.31549,  -0.49142,  -0.08134,  -0.04290,   0.16214,  -0.26075,   0.00836,  -0.35045,  -0.20949,  -0.18386,   0.45689,   0.43126,   0.09807,   0.48252,  -0.06853,  -0.36327,   0.86697,   0.11088,   0.64911,  -0.38890
