  -0.16399,   0.06742,   0.00694,   0.01220,  -0.01673,   0.03323,  -0.03776,   0.07005,   0.02009,  -0.07984,   0.03060,  -0.07195,  -0.07721,  -0.04565,  -0.07721,  -0.12980,   0.09109,  -0.00358,   0.02535,   0.12527,   0.10949,   0.01483,  -0.02199,   0.07531,   0.03586,  -0.08247,  -0.07984,  -0.08510,   0.11475,   0.04901,  -0.09562,  -0.08510,  -0.11928,  -0.08247,  -0.02988,  -0.01936,   0.05690,   0.04375,  -0.08773,  -0.08247,  -0.02199,  -0.07721,   0.02009,  -0.03514,  -0.00095,   0.05953,  -0.15347,   0.00431,   0.02798,  -0.02199,   0.06216,   0.02009,   0.07005,  -0.09562,  -0.01147,   0.11738,   0.05953,  -0.01410,   0.08846,   0.07794,   0.08846,   0.03586,   0.00957,  -0.09825,   0.08846,   0.01746,  -0.03776,  -0.04828,  -0.01410,   0.08320,  -0.13506,  -0.02725,   0.01220,  -0.02199,  -0.07195,  -0.03514,  -0.19028,  -0.11665,   0.13316,   0.01483,  -0.06406,  -0.00358,  -0.00095,  -0.02725,  -0.17713,  -0.00884,   0.04901,   0.01483,   0.06742,   0.10423,  -0.03776,  -0.01936,  -0.07195,  -0.00621,  -0.08773,   0.07268,   0.06742,   0.10160,   0.10686,   0.16471,   0.02535,   0.03323,   0.06742,  -0.07721,   0.01746,   0.03586,  -0.15610,  -0.00884,  -0.07458,  -0.07721,   0.00431,  -0.05354,  -0.00358,   0.14631,   0.02798,   0.03586,  -0.12191,   0.04901,  -0.04039,   0.01483,  -0.00884,   0.04112,   0.13053,   0.12527,  -0.02462,   0.03586,   0.04638,  -0.01410,   0.03323,   0.07005,  -0.00884,  -0.03514,   0.05427,   0.14894,  -0.04828,   0.10949,  -0.06143,   0.05164,  -0.11139,  -0.05091,   0.18049,   0.02009,   0.08846,   0.07794,  -0.02462,  -0.08247,  -0.12717,  -0.09036,   0.10160,  -0.02199,   0.02272,   0.10423,  -0.00358,  -0.00358,   0.06479,  -0.02988,   0.02009,  -0.03776,   0.00431,  -0.01936,  -0.11402,  -0.06669,   0.11738,  -0.05617,  -0.06406,   0.12001,   0.04375,   0.01220,   0.06479,  -0.02199,  -0.06143,   0.05427,  -0.12454,   0.04112,   0.00431,  -0.01936,  -0.01410,  -0.04302,  -0.00884,   0.05164,  -0.02988,  -0.01147,  -0.16136,   0.04901,   0.02798,  -0.00095,   0.14105,  -0.03514,   0.00957,  -0.00358,   0.16471,   0.02009,  -0.00095,   0.02009,  -0.04828,   0.06742,   0.00957,   0.05427,   0.00168,  -0.04828,  -0.08773,   0.10423,   0.09109,   0.02798,   0.08583,  -0.14295,  -0.11139,  -0.05091,   0.05690,  -0.11139,  -0.00095,  -0.01147,   0.01746,  -0.03776,   0.09109,   0.13579,   0.00168,   0.01483,   0.00694,  -0.07721,   0.07531,   0.03849,  -0.14821,   0.12001,  -0.03514,   0.02009,  -0.01673,  -0.04302,   0.02798,   0.03323,  -0.04828,  -0.14295,  -0.09299,  -0.05617,   0.25675,   0.07794,   0.04901,  -0.01147,   0.07005,  -0.04828,   0.05164,   0.02009,  -0.00884,  -0.10350,   0.05953,   0.04112,  -0.11402,  -0.14032,  -0.17450,  -0.13243,   0.02535,  -0.10613,   0.00431,  -0.02462,  -0.02988,   0.03323
  -0.05880,  -0.02199,  -0.00621,   0.06742,   0.01220,  -0.01936,   0.07005,  -0.02725,  -0.10088,   0.02798,   0.03060,  -0.01936,   0.06216,  -0.15084,   0.05164,   0.03586,  -0.03251,   0.00168,  -0.05617,  -0.06669,  -0.05617,  -0.01410,  -0.09299,   0.09109,   0.11212,  -0.09562,  -0.05617,  -0.08510,   0.08057,  -0.14295,   0.00431,  -0.09299,   0.00431,   0.04638,   0.06216,   0.05690,   0.04901,  -0.00621,   0.02535,  -0.02462,   0.13053,  -0.03251,  -0.02988,  -0.05354,  -0.00358,   0.10949,   0.07005,   0.01220,  -0.04828,  -0.19817,  -0.10613,  -0.00884,   0.13579,  -0.11402,   0.03586,  -0.01410,  -0.09825,   0.18575,  -0.02988,  -0.05091,   0.01220,   0.02272,  -0.15873,   0.01746,  -0.03776,   0.10423,   0.06216,  -0.10350,  -0.00358,  -0.09562,  -0.11665,  -0.01673,   0.02272,   0.02009,   0.02535,   0.09634,  -0.09299,   0.07794,   0.02535,  -0.01410,   0.16471,   0.01746,   0.06216,  -0.02988,   0.05164,  -0.13769,  -0.08247,   0.07268,  -0.05091,   0.01483,   0.05690,  -0.05880,   0.04112,  -0.07195,  -0.03251,   0.00168,   0.10423,  -0.16399,   0.01746,   0.01746,   0.06479,   0.06479,  -0.10350,  -0.06406,   0.03586,   0.10686,  -0.09825,   0.00168,  -0.00621,  -0.04302,   0.11212,   0.07268,  -0.15873,   0.07794,   0.00431,  -0.02725,  -0.00095,  -0.08247,  -0.16399,   0.16208,  -0.09562,  -0.00095,   0.07005,   0.09372,   0.09372,  -0.00621,  -0.04039,  -0.00884,  -0.02199,  -0.05880,  -0.01147,  -0.01673,  -0.06143,   0.07005,   0.16208,   0.01746,  -0.03251,   0.04112,  -0.01410,  -0.08510,   0.12001,   0.00957,  -0.02462,  -0.00884,  -0.02988,   0.06479,  -0.04828,   0.11212,  -0.09036,  -0.00884,   0.05164,   0.01483,   0.06216,  -0.03776,  -0.00358,   0.00431,   0.05164,   0.09109,   0.01220,  -0.03776,   0.00431,   0.16471,   0.03849,   0.13316,  -0.04039,  -0.05880,  -0.02462,   0.10949,  -0.06669,  -0.00621,   0.03323,  -0.00884,   0.02535,   0.04375,  -0.03776,   0.02798,   0.00957,   0.04638,   0.03849,  -0.08247,   0.00168,   0.13053,  -0.01673,  -0.03251,  -0.00884,  -0.01410,  -0.12980,  -0.05354,  -0.06143,  -0.00095,  -0.14558,  -0.10088,   0.06216,  -0.03776,   0.09109,   0.09109,   0.01746,   0.03323,  -0.18502,  -0.05354,   0.10686,  -0.03251,   0.10686,   0.05690,   0.04375,   0.00431,   0.04375,   0.00957,   0.13579,  -0.00621,  -0.00358,   0.03586,   0.02272,   0.01746,   0.04901,  -0.02462,   0.01220,  -0.18765,  -0.00095,   0.02009,   0.10949,  -0.10088,  -0.08773,  -0.02199,  -0.11665,   0.06742,   0.05427,   0.05953,   0.01220,   0.03323,   0.00431,   0.01483,  -0.07458,   0.02535,  -0.09825,  -0.00884,  -0.05617,  -0.08510,  -0.06932,   0.14105,  -0.02725,  -0.16924,  -0.04565,   0.12001,   0.28305,   0.06216,   0.15946,   0.08320,  -0.13506,  -0.01673,  -0.10613,  -0.10088,   0.10686,   0.08057,   0.07268,   0.02272
   0.04638,   0.06742,  -0.02199,   0.05427,   0.08057,   0.08583,   0.02009,   0.00957,  -0.01410,   0.01220,   0.05427,   0.03060,   0.07005,  -0.06669,  -0.07195,  -0.05880,  -0.01936,  -0.01147,  -0.10613,  -0.03251,   0.05164,   0.10686,  -0.04565,   0.03586,  -0.00358,   0.13053,   0.12264,  -0.11139,   0.01220,   0.05164,   0.11475,  -0.04302,   0.06479,  -0.06143,   0.05953,   0.02009,   0.03323,  -0.01673,  -0.00095,   0.01220,   0.04638,  -0.06406,  -0.08773,  -0.07458,   0.02009,  -0.03514,   0.04638,  -0.03776,   0.04112,  -0.06406,   0.00694,  -0.02988,   0.00957,  -0.07458,   0.04112,   0.06216,  -0.04565,  -0.01673,   0.14631,   0.02272,   0.01746,   0.01483,  -0.01673,   0.00431,   0.06742,  -0.10613,  -0.06669,   0.08846,   0.00694,   0.00431,  -0.07195,   0.03323,   0.01483,   0.12001,   0.01746,   0.04112,  -0.03514,   0.10423,   0.02798,  -0.02725,  -0.06143,   0.12264,  -0.04039,   0.13053,   0.05164,  -0.03251,   0.06742,   0.01220,  -0.07458,   0.04901,   0.00694,   0.04901,   0.07005,  -0.07721,   0.02272,   0.00694,  -0.03514,  -0.05880,  -0.04565,   0.07794,  -0.05091,  -0.01147,  -0.12717,  -0.04565,   0.02798,   0.03323,   0.14368,  -0.06669,  -0.01673,   0.01220,   0.11475,  -0.02462,  -0.09825,   0.00957,   0.01483,   0.14368,   0.08583,   0.04375,   0.04638,   0.00694,   0.09634,   0.05690,  -0.02725,   0.15946,   0.21205,   0.10423,   0.02272,   0.03323,   0.13579,  -0.00621,   0.14368,   0.14105,  -0.01936,  -0.08247,  -0.03251,   0.01220,   0.00168,   0.03060,   0.00694,   0.06742,   0.00168,   0.05690,  -0.02725,   0.03586,  -0.06669,  -0.00621,   0.12790,   0.09372,  -0.08510,   0.12527,  -0.04828,  -0.04302,   0.02535,  -0.00358,  -0.12717,   0.03586,  -0.00358,   0.10686,  -0.04565,  -0.02462,  -0.12717,  -0.00358,  -0.07721,  -0.07721,  -0.03776,  -0.01936,   0.11212,   0.01746,  -0.09036,  -0.08247,  -0.04039,  -0.01147,   0.05164,   0.04901,  -0.04039,   0.07268,   0.06479,  -0.10613,   0.00957,   0.10160,   0.02272,   0.11475,  -0.07721,   0.04901,   0.03060,  -0.01936,   0.04901,  -0.01147,   0.14894,  -0.09299,  -0.00621,   0.08846,   0.17260,   0.00957,   0.05690,   0.00431,  -0.19817,  -0.18239,   0.07794,  -0.04565,   0.07005,   0.00168,  -0.04039,  -0.10613,   0.05164,  -0.06143,   0.02272,  -0.09562,  -0.06669,   0.08583,   0.09634,  -0.01936,   0.11738,  -0.13243,  -0.14558,   0.01746,   0.08846,  -0.08773,   0.02009,  -0.01673,  -0.04828,   0.03060,   0.07005,   0.04638,  -0.04828,   0.03849,  -0.01936,   0.00431,  -0.10876,   0.08057,  -0.01936,  -0.03776,   0.01746,  -0.05354,   0.04375,  -0.10088,  -0.06143,   0.11212,  -0.13769,   0.09634,  -0.15610,   0.07531,   0.01746,  -0.06143,  -0.09299,  -0.07721,   0.06742,   0.02009,   0.01746,   0.12001,  -0.08773,  -0.15610,  -0.03514,  -0.05880,  -0.01936,   0.02009
   0.05427,  -0.05880,   0.16208,  -0.00358,   0.08583,  -0.06406,   0.01483,  -0.06932,  -0.05617,   0.08320,   0.06216,  -0.01936,  -0.09299,   0.10949,  -0.11665,  -0.05617,   0.01220,  -0.00095,   0.05953,  -0.00095,  -0.01673,   0.08846,   0.00168,   0.05164,   0.04112,   0.00168,  -0.02462,  -0.07195,  -0.06406,  -0.08247,   0.04112,   0.02009,   0.14894,   0.02535,   0.03586,  -0.02199,  -0.11928,   0.00957,   0.00431,   0.01483,   0.16734,   0.06479,   0.05953,   0.11212,  -0.01936,   0.04375,  -0.00621,  -0.09036,   0.11475,  -0.20080,  -0.04828,   0.10423,   0.02009,   0.04375,  -0.07721,  -0.01936,   0.07005,  -0.07721,   0.06479,  -0.03251,  -0.07721,  -0.03251,   0.05690,   0.05690,   0.15683,   0.00168,  -0.12980,  -0.06143,  -0.11928,  -0.04039,  -0.06143,  -0.01936,   0.00694,  -0.20343,  -0.12717,  -0.05880,  -0.00095,  -0.04302,   0.03586,   0.09897,   0.01746,   0.08320,  -0.07984,  -0.00884,   0.07531,  -0.18239,   0.07268,   0.01483,  -0.06669,  -0.14821,  -0.05354,  -0.01410,   0.07268,   0.08057,  -0.05880,  -0.11402,  -0.10876,  -0.04302,   0.06479,  -0.01410,  -0.14821,  -0.11665,   0.00957,  -0.05354,  -0.04302,  -0.02462,  -0.09825,   0.02009,  -0.00358,  -0.04039,  -0.02988,   0.00694,   0.09372,   0.05953,  -0.08510,   0.05164,  -0.01147,   0.00957,   0.15157,   0.06742,   0.02009,  -0.02988,   0.07268,  -0.04828,   0.15420,  -0.05617,   0.04901,  -0.04828,  -0.11139,   0.12790,   0.02272,   0.08583,  -0.05880,  -0.08773,  -0.07195,  -0.08247,  -0.08510,   0.02535,   0.07005,   0.03060,  -0.02725,   0.02272,  -0.02988,  -0.05354,   0.12264,   0.06742,   0.02535,  -0.01410,   0.02272,  -0.04828,  -0.06143,   0.00168,   0.02535,   0.02535,   0.05427,  -0.06669,  -0.01147,  -0.00621,  -0.15873,  -0.06669,   0.00957,   0.00168,   0.03060,   0.07531,   0.10686,  -0.09036,  -0.16399,  -0.07984,  -0.07458,   0.05953,   0.00168,  -0.09299,  -0.01673,  -0.01673,   0.01220,   0.11475,   0.00694,  -0.01147,   0.01746,   0.03060,  -0.06143,   0.14894,  -0.02199,   0.07531,   0.02798,   0.01746,   0.18575,   0.07794,  -0.00095,   0.14368,   0.03849,  -0.03776,   0.03849,   0.04375,   0.00431,   0.07794,  -0.01147,   0.08057,  -0.11139,   0.01220,   0.16997,   0.00168,   0.02009,   0.04638,  -0.01673,  -0.07721,   0.02535,   0.05690,   0.01220,  -0.09562,  -0.05880,  -0.04565,   0.11738,  -0.04039,   0.09109,   0.03323,   0.09897,   0.02009,  -0.04828,   0.21731,   0.05690,   0.00957,  -0.01410,  -0.00095,   0.05690,  -0.08773,  -0.18502,   0.05164,  -0.04039,   0.02272,   0.05427,   0.20153,  -0.09825,   0.05953,   0.00957,  -0.04039,  -0.01147,  -0.07195,   0.09897,   0.05690,   0.01220,   0.00431,  -0.01673,  -0.00884,   0.06479,  -0.02199,   0.01220,   0.03060,   0.04901,  -0.06143,  -0.05091,   0.13579,   0.11738,   0.11212,  -0.05617,  -0.08247
  -0.07458,   0.21468,   0.10686,   0.05164,   0.04638,  -0.01936,  -0.00621,   0.00168,  -0.02988,   0.10160,   0.00431,   0.07531,   0.03060,   0.00168,  -0.01147,   0.00168,  -0.02462,  -0.03514,   0.04638,  -0.01673,  -0.14295,  -0.00884,  -0.05354,  -0.01410,   0.00431,  -0.06143,   0.07005,   0.11738,  -0.07458,  -0.22447,  -0.03251,  -0.06143,   0.02009,   0.05953,  -0.08510,   0.01220,   0.04901,  -0.06143,  -0.09036,   0.09634,  -0.06669,   0.02535,  -0.09825,  -0.16136,  -0.01147,  -0.10613,   0.06479,   0.08057,   0.03586,   0.15420,   0.10423,   0.10160,  -0.00621,  -0.10613,   0.13842,  -0.01673,  -0.16399,   0.05690,  -0.07458,  -0.05880,  -0.02199,  -0.01936,  -0.09562,  -0.01673,   0.05164,   0.01483,   0.22257,  -0.02462,  -0.06143,  -0.10350,   0.02272,  -0.04039,  -0.02199,   0.03586,   0.11738,   0.02535,   0.12527,  -0.03514,  -0.03514,   0.13053,   0.04375,  -0.00095,   0.00431,  -0.00884,   0.06479,   0.05690,   0.01746,   0.05953,  -0.01673,   0.12527,  -0.02199,  -0.00358,   0.03849,   0.14631,  -0.03776,   0.02272,   0.02798,   0.03323,   0.02535,  -0.03251,   0.09897,   0.09634,  -0.10613,  -0.01673,  -0.00358,   0.02009,   0.00431,  -0.03776,  -0.09036,   0.04638,  -0.04302,  -0.04565,   0.05164,   0.16471,   0.14105,   0.03323,  -0.07721,  -0.05617,   0.00168,  -0.06932,  -0.02199,  -0.00884,  -0.00095,   0.05953,   0.08057,  -0.00621,   0.05953,  -0.02199,   0.03060,   0.04901,  -0.02725,  -0.01410,  -0.01410,   0.00168,  -0.00884,   0.07005,  -0.05091,   0.03586,   0.02535,  -0.05880,  -0.11139,   0.10160,   0.06216,  -0.05354,   0.12790,  -0.00095,   0.07005,   0.14105,  -0.12191,  -0.00884,  -0.01673,   0.00957,   0.03849,   0.18049,   0.10423,   0.15683,   0.05427,   0.09372,   0.03849,  -0.01410,  -0.03514,  -0.07721,  -0.00884,   0.12790,   0.03586,  -0.02462,   0.05427,  -0.02199,   0.03849,  -0.00621,   0.10160,   0.06479,  -0.01147,   0.09897,  -0.02988,   0.02798,  -0.07721,   0.03586,   0.09897,   0.03849,  -0.02988,  -0.01936,   0.05427,   0.01220,   0.12527,  -0.00621,   0.03586,   0.16208,   0.02272,   0.03060,  -0.04565,   0.11738,  -0.00884,   0.00168,  -0.08510,   0.03586,   0.01483,   0.03323,  -0.01936,  -0.04039,  -0.16136,  -0.05091,  -0.07195,  -0.07984,  -0.06669,  -0.04828,   0.06216,   0.00168,  -0.05354,  -0.06932,   0.00168,   0.01220,   0.02535,   0.07268,  -0.07458,   0.09372,  -0.06932,   0.13842,   0.08057,  -0.03776,   0.00694,  -0.00621,   0.09372,   0.03586,  -0.05617,  -0.04565,  -0.00884,  -0.02199,   0.05690,  -0.06669,   0.02535,   0.09372,   0.11475,   0.01483,  -0.10613,   0.03849,  -0.04828,  -0.00095,  -0.10613,   0.00694,   0.03323,  -0.01673,   0.14105,  -0.07721,   0.07005,  -0.02725,  -0.01147,   0.05164,   0.00694,  -0.06406,   0.07794,   0.04901,   0.06479,  -0.04828,  -0.02988,  -0.03251
   0.08057,   0.03060,  -0.07721,   0.10423,   0.18575,  -0.09562,   0.03060,   0.03323,  -0.13506,   0.00957,  -0.02988,  -0.07984,   0.05953,  -0.04828,   0.09372,   0.17260,  -0.11665,  -0.10088,   0.15420,   0.00694,   0.18575,  -0.20343,   0.05953,  -0.01936,   0.07268,   0.05164,  -0.10350,  -0.26654,   0.12001,   0.11738,   0.03849,   0.02009,  -0.07984,   0.07794,  -0.06669,   0.04638,  -0.12717,  -0.00358,   0.00168,  -0.08510,   0.13053,  -0.00095,  -0.01410,   0.07794,   0.05427,  -0.01673,   0.09634,  -0.07458,   0.03849,   0.01483,   0.14368,  -0.02725,  -0.00358,  -0.17713,   0.04112,   0.18312,   0.08057,   0.00431,  -0.03251,  -0.06669,  -0.05880,  -0.03251,  -0.01936,   0.03323,   0.01220,  -0.00621,   0.04375,   0.09897,  -0.13769,  -0.13506,   0.12264,   0.09372,   0.10686,  -0.01673,  -0.18502,  -0.00621,   0.02798,   0.03849,   0.06742,   0.01746,   0.04375,  -0.04565,   0.07531,  -0.01410,  -0.15084,  -0.00358,   0.02009,   0.06479,  -0.03776,  -0.02988,   0.09897,   0.10160,  -0.00621,  -0.06932,  -0.26654,  -0.04039,   0.00694,   0.07794,  -0.08773,   0.05690,  -0.00621,   0.15157,  -0.06669,  -0.06143,  -0.02988,   0.03586,  -0.01936,   0.00957,  -0.00621,  -0.15873,   0.07268,  -0.05091,   0.03849,  -0.05880,   0.05164,   0.03323,   0.06479,   0.00957,   0.11212,   0.05690,   0.00694,   0.18575,  -0.05880,   0.05164,   0.10160,   0.02009,   0.11212,  -0.01673,  -0.00095,  -0.06669,  -0.07984,  -0.03514,  -0.07458,   0.04638,   0.01483,   0.09109,   0.03060,   0.01483,   0.00431,   0.06479,   0.00168,   0.06216,  -0.00358,  -0.00884,  -0.06143,   0.00431,  -0.11928,   0.03323,   0.01483,  -0.11402,   0.02272,  -0.00884,  -0.02725,  -0.03514,   0.02009,   0.06742,  -0.17187,  -0.06669,  -0.00621,   0.04375,   0.03586,   0.06216,   0.09109,  -0.07195,  -0.07984,   0.01220,   0.03586,  -0.01147,  -0.02725,  -0.13506,   0.01746,   0.00957,   0.00431,   0.09897,   0.03060,  -0.15873,   0.03323,   0.00431,  -0.02199,  -0.00358,  -0.09299,   0.00957,  -0.07458,   0.08583,   0.04112,  -0.11139,  -0.00095,   0.00168,   0.07531,  -0.03776,  -0.06669,   0.03060,  -0.01936,  -0.10876,  -0.02988,   0.03586,  -0.02462,   0.10949,  -0.09036,   0.01220,  -0.05354,  -0.09036,  -0.14295,   0.05164,   0.05427,  -0.14032,  -0.07195,  -0.04302,  -0.04828,   0.08320,   0.09109,   0.04112,  -0.04565,  -0.08510,   0.01746,  -0.08773,  -0.05091,   0.16734,   0.06216,  -0.01410,  -0.02988,   0.12527,   0.03849,  -0.09036,   0.02798,  -0.06932,   0.05690,  -0.02462,   0.01483,   0.00957,  -0.01410,  -0.04302,  -0.01410,  -0.03251,   0.10686,   0.02272,   0.06216,   0.00431,  -0.02462,  -0.02988,   0.01483,  -0.09036,  -0.08773,  -0.02988,   0.14105,  -0.06932,  -0.06143,   0.01746,   0.04112,  -0.00358,  -0.00621,  -0.06143,  -0.12191,  -0.09562,  -0.10876,   0.05953
  -0.05617,  -0.00095,  -0.21132,  -0.05354,  -0.09825,  -0.05354,   0.19364,   0.10423,   0.01220,  -0.05354,  -0.01147,   0.12001,   0.07005,  -0.08773,   0.06742,   0.00168,   0.06742,  -0.07195,  -0.03251,  -0.00095,  -0.06669,  -0.07984,   0.00694,  -0.04565,   0.10949,  -0.09562,   0.00694,  -0.04039,   0.07531,  -0.12454,   0.01220,   0.15683,  -0.09299,   0.00168,  -0.09562,  -0.01673,   0.05690,   0.05427,  -0.17187,  -0.05880,  -0.05091,   0.05427,  -0.00621,   0.02009,   0.01220,   0.06479,   0.02535,   0.03586,   0.06479,   0.03586,  -0.04565,   0.06742,   0.08057,  -0.03776,   0.02798,   0.06216,  -0.05091,   0.02009,   0.02535,   0.05427,   0.09634,   0.02009,   0.05690,  -0.00358,  -0.09825,  -0.16136,   0.03586,  -0.06143,   0.12790,  -0.01936,  -0.02199,  -0.14295,  -0.12454,   0.00957,   0.07531,   0.02272,   0.00168,   0.02798,   0.08583,   0.05953,  -0.01147,   0.09372,  -0.08247,  -0.00358,  -0.04039,   0.01483,  -0.17450,   0.00694,   0.03323,   0.05690,   0.03060,  -0.09562,  -0.04828,  -0.01936,  -0.01410,   0.03323,  -0.00358,   0.11212,   0.09897,   0.07268,   0.04375,   0.09109,  -0.00884,   0.01483,   0.13316,  -0.05091,   0.02535,  -0.09825,   0.03060,  -0.06932,   0.02009,   0.05690,  -0.01410,  -0.01147,   0.12264,   0.05690,   0.11212,   0.02798,   0.00957,  -0.02199,   0.04638,   0.04638,   0.00168,  -0.13243,   0.00168,   0.05690,   0.05953,  -0.01673,   0.07531,  -0.01410,   0.02009,   0.00957,  -0.07721,  -0.02462,   0.05953,   0.01746,  -0.00358,   0.04112,  -0.01410,  -0.11139,  -0.06669,   0.00957,   0.17786,   0.00431,  -0.06143,   0.08057,   0.10949,   0.09372,   0.04901,   0.01483,  -0.19554,  -0.06143,   0.12264,   0.00431,  -0.04302,   0.01746,  -0.01936,   0.02535,   0.11475,   0.00168,   0.07531,   0.10686,  -0.13243,  -0.02462,   0.01220,  -0.18765,  -0.04039,  -0.02725,   0.06742,   0.02798,  -0.00884,  -0.12191,  -0.17450,   0.02535,   0.12527,   0.15420,  -0.01673,   0.11212,  -0.05091,  -0.00095,   0.15946,  -0.00358,  -0.06406,   0.02009,   0.05427,   0.03060,   0.08057,   0.03586,  -0.16399,   0.09109,  -0.04039,   0.00168,  -0.06932,  -0.04039,   0.10160,  -0.01147,   0.16208,   0.03849,   0.10160,  -0.01673,   0.04375,   0.02272,  -0.14295,  -0.08773,  -0.02462,   0.00168,  -0.09036,   0.10949,   0.02009,  -0.10350,  -0.17450,  -0.01147,  -0.08510,  -0.04039,   0.00957,   0.12264,  -0.03514,  -0.00621,  -0.00095,  -0.06669,  -0.04565,   0.02009,   0.04901,   0.02535,   0.06479,  -0.04039,  -0.07458,   0.08583,  -0.01673,   0.08583,  -0.08247,  -0.09036,   0.16471,  -0.06669,  -0.05354,   0.05164,   0.12001,   0.00431,  -0.01673,  -0.10088,  -0.04302,  -0.00095,  -0.08773,   0.02272,   0.05427,   0.03849,   0.04901,   0.02535,  -0.06143,   0.07268,   0.08583,  -0.06143,   0.12527,  -0.09562,  -0.08773,  -0.04565
  -0.01936,  -0.03776,  -0.00095,  -0.01410,   0.06742,   0.24097,  -0.09562,   0.18312,  -0.04565,   0.03586,   0.08846,  -0.04039,   0.02798,  -0.01410,   0.12264,  -0.04302,   0.02272,   0.16471,   0.08846,   0.03849,   0.00431,   0.06216,  -0.08247,  -0.09562,  -0.05617,  -0.04828,   0.03323,   0.03849,   0.01483,   0.01483,   0.00694,   0.04638,   0.08320,  -0.04828,  -0.11139,   0.02798,  -0.09825,  -0.04828,  -0.00621,  -0.06669,  -0.05091,   0.03060,   0.05164,   0.07531,  -0.04039,  -0.03776,   0.13316,  -0.03251,   0.05427,   0.05953,   0.04638,   0.03586,   0.03323,   0.06216,   0.13053,   0.03060,   0.07531,  -0.13506,   0.05953,  -0.06143,  -0.04565,  -0.05880,   0.00431,   0.11475,   0.06479,  -0.05880,   0.10949,  -0.01410,  -0.01936,  -0.23761,  -0.01673,   0.05164,   0.03849,  -0.06669,   0.04638,   0.19627,  -0.11928,  -0.05091,  -0.02462,   0.05427,   0.07005,   0.12527,  -0.07458,  -0.02199,  -0.00884,   0.06216,  -0.02988,  -0.05617,  -0.00884,  -0.02988,  -0.12717,   0.01220,   0.07268,   0.03849,  -0.11665,   0.12264,  -0.14821,   0.05953,   0.07794,  -0.01936,  -0.00358,   0.07794,  -0.11665,  -0.01410,  -0.06406,   0.02009,  -0.01673,  -0.08247,  -0.09562,   0.03060,   0.12527,   0.03849,   0.10686,   0.08320,   0.05690,   0.04375,   0.00957,  -0.01147,   0.08846,   0.01483,   0.05427,  -0.06406,   0.00957,   0.00431,  -0.02462,   0.01220,   0.03849,   0.08320,   0.11212,   0.03849,  -0.12454,   0.07794,  -0.10350,  -0.01673,  -0.04828,  -0.00884,  -0.08510,   0.04638,   0.00694,  -0.04828,   0.04375,   0.08846,   0.04638,   0.04375,   0.02009,  -0.01936,  -0.04828,  -0.01936,  -0.01410,  -0.12454,  -0.09299,  -0.06669,  -0.05354,   0.11738,  -0.04039,   0.02535,  -0.06406,  -0.05091,  -0.05091,   0.13053,   0.03586,  -0.00884,   0.20153,  -0.07984,   0.00431,   0.00168,   0.00694,  -0.03776,  -0.01936,  -0.07458,  -0.04302,   0.08583,   0.01483,   0.00957,   0.03060,  -0.02462,   0.02272,   0.01483,  -0.02462,   0.03060,  -0.04565,   0.01220,   0.02272,   0.14894,   0.07794,   0.10949,  -0.02725,   0.12527,  -0.01410,   0.09897,  -0.04828,  -0.07721,   0.12527,  -0.05091,   0.03323,  -0.06669,  -0.06932,  -0.12717,  -0.06669,   0.02798,   0.02009,  -0.09562,  -0.02988,   0.00957,  -0.03776,  -0.00884,   0.04901,  -0.12717,   0.06742,   0.06216,  -0.07195,  -0.02988,   0.02535,  -0.04565,   0.01483,   0.01746,  -0.00884,   0.05690,  -0.05880,  -0.05880,   0.01483,  -0.17713,   0.05427,   0.05164,  -0.09825,   0.06742,   0.03060,   0.10949,  -0.10350,  -0.09299,  -0.01410,   0.17786,   0.00431,   0.03323,   0.00957,   0.03323,   0.02798,  -0.14032,  -0.15610,   0.09634,  -0.07458,  -0.13243,   0.04375,  -0.01147,  -0.02725,   0.07794,  -0.04565,  -0.13506,   0.02535,  -0.13506,   0.15946,   0.02535,  -0.04302,   0.03586,  -0.03514,   0.11212
  -0.04039,  -0.04302,   0.00168,   0.03060,   0.00431,  -0.00621,  -0.07458,   0.12790,  -0.09562,   0.00694,  -0.01410,  -0.14558,   0.05427,  -0.01410,   0.08320,   0.05953,  -0.05354,  -0.03514,  -0.11665,  -0.00095,   0.03849,  -0.11139,   0.09372,   0.11738,   0.09634,   0.08846,   0.04638,   0.10686,  -0.06406,   0.03586,  -0.06669,   0.07531,   0.13053,   0.10686,  -0.06932,   0.08320,   0.00431,   0.00168,  -0.00884,  -0.09825,  -0.03251,  -0.05617,  -0.02462,   0.00957,   0.08583,   0.05427,  -0.09299,   0.04901,  -0.01410,  -0.03776,   0.02009,  -0.01410,   0.09109,   0.08846,  -0.00095,  -0.00358,  -0.00358,   0.05690,   0.06216,   0.03849,  -0.06143,  -0.03776,  -0.05617,  -0.13506,   0.00168,   0.00957,   0.02272,   0.12527,   0.07531,  -0.03514,  -0.02725,   0.02798,   0.06216,  -0.00358,   0.10423,   0.00957,  -0.00095,  -0.05354,  -0.15347,   0.10423,   0.00431,   0.10949,   0.03323,   0.02798,   0.02009,  -0.00358,   0.04112,   0.09634,   0.04375,  -0.12980,   0.09372,  -0.00095,   0.02535,   0.03586,   0.03323,  -0.19817,  -0.14295,  -0.06143,  -0.06406,  -0.06406,  -0.17976,  -0.02725,   0.02272,  -0.05617,  -0.02199,   0.11738,  -0.02199,   0.13579,   0.00168,   0.07531,  -0.04302,  -0.02462,   0.06479,   0.15157,   0.08320,  -0.11928,  -0.13769,   0.05427,  -0.02199,   0.15157,   0.12001,   0.04901,   0.01483,   0.09897,  -0.00358,   0.00168,  -0.12980,  -0.07195,   0.00168,  -0.12454,   0.06216,   0.04375,  -0.01410,  -0.00621,  -0.07458,   0.08583,  -0.02988,   0.00168,   0.19101,   0.10686,   0.00431,   0.12527,   0.11212,  -0.02199,  -0.04039,  -0.01410,   0.03323,  -0.01673,   0.09372,  -0.06406,   0.00431,  -0.11928,  -0.14295,   0.03060,   0.09372,   0.08057,  -0.05091,   0.03323,  -0.00095,  -0.18765,   0.00168,   0.01483,  -0.04302,   0.03849,   0.02009,   0.09634,   0.02272,   0.02798,  -0.02199,   0.07794,  -0.01673,   0.02535,  -0.01410,  -0.01936,  -0.03514,   0.07794,  -0.00358,   0.08320,   0.08583,   0.18838,  -0.00884,   0.00431,  -0.01147,   0.03849,   0.07005,   0.00168,   0.03060,  -0.09299,   0.09634,  -0.03776,  -0.02462,  -0.11402,  -0.09562,   0.00694,   0.08583,  -0.01673,  -0.02462,  -0.01673,  -0.11402,  -0.04039,   0.18575,  -0.05880,   0.03060,   0.02009,  -0.04828,   0.00694,  -0.01147,   0.04112,  -0.05354,  -0.00358,  -0.07721,   0.00694,  -0.07984,   0.00694,  -0.02725,  -0.09562,   0.00957,  -0.13506,   0.06479,  -0.05354,   0.10949,   0.09372,  -0.06932,  -0.12454,  -0.08773,   0.02535,  -0.06143,   0.07531,  -0.01936,  -0.03776,  -0.04828,   0.04112,   0.03849,   0.01746,   0.16734,   0.09897,  -0.06669,   0.00168,  -0.06932,   0.14368,   0.07794,  -0.01147,  -0.04828,  -0.11665,   0.08846,  -0.04565,   0.11738,   0.17260,   0.07268,   0.01220,   0.00431,   0.07794,   0.05427,   0.02009,   0.14894,  -0.03776
  -0.05880,  -0.13506,  -0.13769,   0.02272,   0.02535,  -0.13506,  -0.07721,  -0.06143,  -0.11402,   0.01746,  -0.09562,   0.00168,  -0.09562,   0.14368,   0.04112,   0.16471,   0.10423,   0.08846,  -0.00884,   0.09897,  -0.04565,   0.03849,   0.07531,   0.04112,   0.01220,  -0.04565,   0.00957,   0.00431,  -0.11402,  -0.14032,   0.09634,   0.00168,  -0.01410,   0.02535,   0.00168,   0.02535,  -0.04828,   0.02272,   0.03849,  -0.03251,   0.08583,  -0.12454,   0.00431,  -0.04565,  -0.02462,  -0.04828,   0.02798,   0.03323,  -0.05354,   0.09109,   0.00694,   0.05690,  -0.09825,   0.03323,  -0.07984,  -0.04039,  -0.10876,   0.01746,   0.02272,   0.01483,  -0.00884,  -0.07984,  -0.16662,   0.03323,   0.00694,  -0.00358,   0.11212,   0.11475,   0.09372,  -0.01936,  -0.09036,   0.07268,  -0.02462,   0.02798,  -0.07195,  -0.02462,  -0.05354,  -0.01147,   0.06216,   0.00957,   0.03060,   0.00957,   0.00694,   0.08583,  -0.03776,  -0.05091,   0.05690,  -0.01673,   0.06479,   0.02009,   0.09634,  -0.00358,  -0.06932,  -0.07984,   0.01746,   0.07268,   0.08846,  -0.09825,   0.06742,  -0.09562,  -0.03514,  -0.00621,   0.08057,   0.01220,  -0.00884,   0.11738,   0.03060,   0.03849,   0.04375,  -0.02725,  -0.02725,  -0.03514,   0.08583,   0.07005,   0.07268,   0.08057,  -0.06143,   0.09372,  -0.09299,  -0.01410,   0.06742,  -0.06932,   0.06742,  -0.00095,  -0.05880,  -0.03776,   0.02272,   0.04375,   0.07005,   0.20416,  -0.05617,   0.08320,   0.12790,   0.01746,   0.03323,  -0.03514,   0.04901,   0.04112,  -0.06669,  -0.10350,  -0.03776,   0.09372,   0.05164,   0.00168,  -0.02199,  -0.07458,  -0.08510,   0.13053,   0.00957,   0.03323,   0.13579,  -0.00358,  -0.06143,   0.02535,   0.05953,   0.03323,   0.02535,   0.02535,  -0.07458,   0.06216,   0.09634,  -0.11665,  -0.07195,  -0.01673,   0.21731,  -0.07984,   0.05690,   0.02535,   0.08583,  -0.03251,   0.06216,   0.02798,   0.10160,   0.12264,  -0.05880,   0.00957,  -0.02462,   0.10423,   0.07005,  -0.09036,   0.04112,  -0.06143,   0.12790,   0.03849,  -0.02988,  -0.03251,  -0.16662,   0.03060,   0.00168,  -0.05354,   0.07005,   0.13053,   0.00957,   0.01220,  -0.01410,   0.13842,  -0.09562,   0.01220,   0.10423,   0.07268,  -0.02462,   0.09897,   0.01746,  -0.06143,  -0.09825,   0.00957,   0.03849,   0.05690,  -0.01147,  -0.11139,  -0.01147,  -0.03514,  -0.07195,  -0.07458,   0.00694,   0.08846,   0.04638,   0.04375,  -0.05354,  -0.04302,  -0.00884,   0.05427,  -0.13243,   0.00957,   0.18575,   0.09634,  -0.02462,  -0.01673,  -0.11928,  -0.00358,   0.02272,   0.02798,   0.03323,   0.06216,   0.10949,   0.04901,  -0.10350,  -0.05880,   0.00168,  -0.03776,  -0.06932,   0.07268,   0.01746,  -0.13243,  -0.03514,   0.02009,   0.10160,   0.04638,  -0.06406,   0.07531,   0.06479,  -0.07721,  -0.08773,   0.01483,  -0.04302,   0.04901
  -0.02988,  -0.03251,  -0.03251,  -0.00621,  -0.07195,   0.17786,  -0.02462,   0.07531,   0.00431,   0.11738,   0.02535,  -0.00621,  -0.00621,   0.07794,  -0.10350,   0.06216,  -0.00095,   0.07531,  -0.11139,  -0.08247,   0.02272,  -0.03776,   0.01483,  -0.00095,   0.09109,   0.17786,  -0.05354,  -0.02462,  -0.04565,   0.00431,  -0.04039,  -0.03514,  -0.04302,  -0.04302,   0.02535,   0.03586,  -0.05617,   0.03060,   0.00957,  -0.00884,   0.09109,  -0.05354,   0.01220,   0.10949,  -0.07195,   0.01746,   0.03060,  -0.05617,   0.02009,  -0.01673,   0.04638,  -0.04039,   0.04638,   0.13316,   0.00694,  -0.00095,  -0.06669,   0.00957,  -0.03514,   0.13579,  -0.13769,  -0.00358,  -0.01673,  -0.07458,   0.02535,  -0.15347,  -0.02462,  -0.01410,   0.03323,  -0.03514,   0.00431,   0.03323,   0.07268,   0.04375,   0.01220,  -0.06406,  -0.10350,   0.06216,  -0.02988,   0.03849,   0.04638,   0.09372,  -0.03251,   0.06479,   0.09897,  -0.06406,   0.01483,   0.04112,   0.02009,   0.00431,  -0.02199,  -0.12717,   0.05690,  -0.03514,   0.07268,   0.08846,   0.02535,  -0.13769,   0.03060,   0.06216,  -0.10350,   0.07005,  -0.09299,   0.09897,   0.07268,   0.01746,  -0.03251,  -0.01936,  -0.10876,  -0.05880,  -0.00358,   0.07531,  -0.04039,  -0.03776,  -0.17187,   0.12264,  -0.01936,   0.11738,   0.10949,  -0.12191,  -0.02199,  -0.02725,   0.12001,  -0.03251,   0.06216,   0.00431,   0.04901,  -0.05354,   0.00694,   0.02272,  -0.06669,   0.06742,   0.03323,  -0.00621,  -0.05354,   0.07794,  -0.12454,   0.00957,   0.01220,  -0.02988,  -0.04302,   0.14105,   0.09372,   0.06742,  -0.01147,   0.04375,   0.04112,  -0.04565,  -0.11665,   0.17260,  -0.07458,  -0.08773,   0.16208,  -0.05617,  -0.07984,  -0.11139,   0.00957,   0.06479,  -0.01147,   0.11738,  -0.07458,  -0.07195,  -0.00621,  -0.11665,   0.08057,  -0.03514,  -0.05091,  -0.09562,   0.03060,  -0.01936,  -0.04302,  -0.02199,   0.00431,  -0.10876,   0.11738,  -0.07984,   0.02272,  -0.02462,  -0.10876,  -0.09562,  -0.15347,  -0.11402,  -0.02988,   0.02009,  -0.12717,   0.04375,  -0.06143,   0.05427,  -0.06932,  -0.05617,  -0.19817,   0.12790,   0.05953,  -0.03251,   0.02009,   0.08583,  -0.03251,   0.04112,  -0.10088,   0.02009,  -0.08510,  -0.06143,   0.01483,   0.04638,  -0.09825,  -0.04302,   0.01746,   0.00957,   0.21731,   0.00431,  -0.12191,  -0.02462,  -0.08247,   0.06742,   0.06742,  -0.09036,  -0.03514,   0.00694,  -0.13769,   0.13316,   0.07268,   0.00431,  -0.00358,   0.09372,  -0.01147,  -0.01673,   0.04901,   0.09634,  -0.05617,   0.03586,   0.01220,   0.01746,  -0.05091,  -0.08510,   0.07531,   0.01220,   0.13053,   0.08057,  -0.05091,   0.05690,   0.01746,   0.02535,   0.04375,   0.05690,  -0.01673,   0.03849,   0.02535,  -0.03776,  -0.02462,   0.05164,  -0.11928,  -0.05617,  -0.07195,   0.06216,  -0.06932,   0.07005
  -0.00884,   0.02798,  -0.00884,  -0.05091,  -0.08247,  -0.00884,   0.03586,   0.03060,   0.05427,  -0.08773,   0.06479,   0.00957,   0.19364,  -0.01147,   0.05953,  -0.02988,  -0.10350,   0.08583,  -0.02988,  -0.04039,   0.10160,   0.04638,   0.02272,   0.01746,   0.04375,   0.05953,  -0.10088,   0.04112,  -0.06143,  -0.04565,  -0.01673,   0.03060,   0.01220,   0.00957,   0.07268,  -0.00884,   0.04638,  -0.09036,   0.01483,  -0.04828,   0.00957,   0.04901,   0.16997,  -0.12454,  -0.05354,  -0.14821,   0.04375,   0.01483,   0.02798,  -0.01410,   0.08846,   0.05953,   0.02535,   0.04112,   0.10686,   0.07268,  -0.05091,   0.04638,  -0.05880,   0.11475,   0.00694,   0.00694,   0.02009,   0.07268,   0.00957,  -0.11665,   0.07794,  -0.08510,  -0.04828,   0.09897,  -0.02725,  -0.02725,   0.03060,  -0.00621,   0.00431,   0.08320,   0.09372,   0.02009,  -0.01673,  -0.03514,  -0.05617,   0.04901,  -0.03776,  -0.02725,   0.03323,  -0.04828,  -0.10876,   0.05690,   0.01483,  -0.14032,  -0.00358,   0.12001,  -0.08247,  -0.12717,   0.02535,   0.07005,  -0.13243,   0.05427,  -0.05617,   0.05690,  -0.01410,   0.05164,  -0.07458,  -0.04302,   0.03849,  -0.05880,   0.03323,   0.01746,  -0.11665,   0.04112,  -0.01936,  -0.17187,  -0.04039,  -0.06932,   0.04901,   0.01483,   0.03586,  -0.03776,  -0.02988,  -0.04302,  -0.06669,  -0.05354,   0.08846,   0.03586,   0.00957,   0.00431,   0.01220,   0.02272,  -0.06143,   0.06479,  -0.02725,   0.07531,   0.00168,  -0.11402,  -0.04565,   0.04638,   0.02009,  -0.06669,  -0.03776,   0.00168,  -0.00095,  -0.00358,   0.11475,  -0.11402,  -0.05880,   0.00694,  -0.02725,   0.15157,   0.04901,   0.04638,  -0.03776,   0.04375,   0.07005,  -0.14821,  -0.11928,   0.04375,   0.01746,   0.01746,  -0.06932,  -0.00358,  -0.06143,  -0.01936,   0.06216,  -0.14295,  -0.07984,   0.02272,  -0.02462,   0.16734,  -0.07984,  -0.02462,   0.03323,   0.03849,   0.06479,  -0.10350,  -0.01147,   0.03060,  -0.01936,  -0.03776,   0.05164,  -0.03776,  -0.06406,   0.04112,  -0.02725,  -0.04828,   0.13842,  -0.05091,  -0.05354,   0.02272,  -0.02988,   0.07005,   0.02798,   0.03060,  -0.11139,  -0.13243,   0.10160,  -0.02725,   0.03323,   0.00957,  -0.05354,   0.10423,  -0.03514,  -0.09562,  -0.07984,   0.10686,   0.03849,  -0.00358,   0.04375,   0.05953,   0.00957,   0.03060,  -0.05091,  -0.05354,   0.00694,  -0.03251,  -0.06932,  -0.16136,   0.00168,  -0.13769,   0.02798,   0.00957,   0.00694,  -0.00621,   0.00957,   0.01220,  -0.00358,  -0.04565,   0.05427,   0.10423,  -0.05091,   0.09109,   0.01483,   0.05953,  -0.00621,  -0.08773,  -0.11928,   0.03586,   0.02009,   0.02009,  -0.00884,   0.02009,   0.02009,   0.10686,  -0.06143,   0.06479,  -0.03514,   0.03849,   0.01220,   0.07005,  -0.10350,  -0.05091,  -0.07984,  -0.06143,   0.07531,   0.00431,   0.05690,   0.02272
   0.03060,  -0.01673,  -0.08773,  -0.06932,   0.09372,  -0.06932,  -0.06143,  -0.06669,   0.08846,  -0.11928,   0.13316,   0.00694,  -0.11665,  -0.00358,   0.07268,   0.02009,   0.10160,   0.07268,   0.03060,  -0.03514,  -0.00095,  -0.06143,  -0.00884,   0.00694,  -0.00621,   0.07531,  -0.16399,  -0.00095,  -0.15873,  -0.06406,  -0.02725,  -0.11402,  -0.00358,   0.10160,  -0.05091,   0.04638,   0.06742,   0.00694,   0.00957,  -0.06669,   0.03586,   0.07268,  -0.12717,  -0.02725,  -0.01936,   0.00168,  -0.10350,  -0.01673,  -0.04039,   0.03586,  -0.01936,   0.00957,   0.00694,   0.04375,  -0.08247,  -0.03514,   0.03060,  -0.04039,   0.16997,  -0.07984,  -0.03514,  -0.05354,   0.09634,   0.02009,  -0.00884,   0.00694,   0.01483,   0.00694,  -0.06669,   0.00431,   0.04375,   0.03586,   0.11475,   0.10160,  -0.06932,  -0.02725,  -0.04565,   0.09897,   0.00431,   0.09897,  -0.00095,   0.08057,   0.11212,  -0.19028,  -0.02462,  -0.04828,  -0.01936,  -0.01410,  -0.07195,  -0.04565,   0.14631,   0.02798,  -0.06932,   0.09109,  -0.06406,  -0.06143,   0.06742,  -0.02988,  -0.10350,  -0.00095,   0.00957,  -0.12980,  -0.10876,   0.04638,  -0.00095,  -0.04302,   0.10160,  -0.04828,  -0.13243,  -0.05880,  -0.08510,  -0.00095,   0.07531,   0.08583,  -0.03251,   0.05690,  -0.00358,  -0.07195,   0.08320,   0.03849,   0.05164,  -0.03251,   0.10423,   0.01483,  -0.07721,   0.07794,   0.10423,   0.13579,  -0.05354,   0.04112,   0.10686,   0.03060,   0.03323,  -0.08247,  -0.02725,  -0.08510,  -0.00621,   0.07794,   0.13579,   0.08846,   0.02009,  -0.02988,  -0.08247,  -0.15347,   0.03586,  -0.02725,  -0.11665,  -0.01410,   0.07794,  -0.12191,  -0.04565,   0.00168,   0.06742,   0.05690,   0.03060,  -0.05617,   0.05427,  -0.18765,  -0.00884,   0.12790,   0.01220,   0.00957,  -0.09299,  -0.09036,  -0.05091,  -0.12191,   0.08583,   0.03060,  -0.02199,  -0.08510,  -0.06406,   0.03849,   0.05953,   0.09372,  -0.02199,   0.05164,   0.04375,  -0.01673,  -0.12191,   0.08583,   0.01483,  -0.04302,   0.00694,  -0.04039,  -0.05617,   0.05953,  -0.12191,  -0.04828,  -0.04039,  -0.05880,  -0.02199,   0.15683,   0.04901,   0.14105,  -0.01936,   0.05164,  -0.02988,  -0.19291,   0.05953,   0.07531,   0.01220,  -0.04302,  -0.00884,   0.12527,  -0.02725,   0.04638,  -0.00095,  -0.16399,  -0.01673,  -0.01410,   0.09897,  -0.01147,  -0.00358,  -0.03776,   0.00957,  -0.07984,  -0.13243,  -0.05091,  -0.02462,   0.03323,   0.04638,  -0.08247,  -0.03776,   0.01746,  -0.11665,  -0.01936,   0.03849,   0.03586,  -0.03251,  -0.10613,   0.03323,  -0.08773,   0.02009,  -0.02988,   0.00168,   0.09372,  -0.09299,  -0.11665,  -0.06406,   0.08583,  -0.08510,  -0.03251,   0.00694,   0.00694,   0.07794,   0.04901,  -0.12191,   0.07005,   0.20679,   0.04375,  -0.04565,  -0.08247,   0.08320,   0.08583,  -0.07195,  -0.14821
   0.00957,   0.00957,   0.03060,   0.00431,  -0.07458,  -0.04565,  -0.10350,  -0.03251,   0.00431,  -0.23761,   0.03849,  -0.03514,   0.03060,  -0.04828,   0.03323,   0.03060,   0.05953,   0.03849,  -0.02462,   0.09109,  -0.01410,   0.03849,   0.01746,  -0.06406,  -0.04039,   0.16734,   0.05690,   0.06742,   0.01483,  -0.12191,  -0.05354,   0.00431,   0.09109,  -0.11665,   0.04901,   0.05427,  -0.05354,   0.01220,  -0.07195,   0.08846,   0.07794,   0.13053,   0.09109,  -0.10613,  -0.06669,  -0.14032,   0.09109,  -0.02725,   0.00168,  -0.01673,   0.04375,   0.05427,  -0.13506,   0.01220,   0.00694,  -0.01410,  -0.08773,   0.05164,   0.02009,   0.12001,  -0.10613,  -0.00621,   0.10160,  -0.09036,   0.18838,   0.02272,   0.03323,   0.00431,  -0.04828,   0.02009,  -0.10613,   0.05427,  -0.09562,  -0.06143,   0.05953,  -0.00358,   0.00431,  -0.02988,   0.00431,  -0.06406,   0.15157,   0.02798,  -0.07984,  -0.11928,  -0.09299,   0.05690,   0.12264,  -0.13506,  -0.04302,   0.00957,  -0.05091,   0.03323,   0.09109,  -0.02988,   0.03060,  -0.05354,   0.04638,  -0.01410,   0.07268,   0.01220,  -0.04039,   0.12527,  -0.01936,   0.05427,   0.16471,   0.08057,   0.04112,  -0.07984,  -0.03776,  -0.01673,   0.04638,   0.05953,   0.00694,   0.14368,  -0.05354,  -0.00884,   0.20153,  -0.06406,  -0.05091,   0.04901,  -0.00621,   0.05953,   0.02535,   0.12001,  -0.07984,  -0.04828,  -0.11139,   0.04901,  -0.04039,   0.10423,   0.12527,  -0.06406,   0.11738,  -0.05880,   0.06216,  -0.07984,  -0.12454,   0.08846,   0.00168,  -0.07721,   0.05427,   0.10160,   0.09634,   0.09372,  -0.05354,   0.03060,   0.03060,   0.11475,   0.05164,   0.10949,  -0.05091,   0.05427,  -0.05617,  -0.01673,  -0.01673,  -0.03251,   0.07794,  -0.01673,   0.00168,   0.08583,  -0.06143,  -0.00095,   0.00694,  -0.06143,   0.02535,   0.05690,  -0.03776,   0.03323,   0.05164,   0.02535,   0.07005,   0.06216,  -0.04828,   0.12264,   0.05427,   0.10160,  -0.02988,  -0.00095,   0.05164,  -0.06669,   0.12264,  -0.03776,   0.12527,  -0.07458,  -0.09036,   0.08583,   0.03060,  -0.06143,  -0.10876,  -0.08510,  -0.04302,  -0.05617,  -0.04302,  -0.19817,   0.01483,   0.01483,   0.02272,   0.06216,   0.10160,  -0.04302,   0.08057,  -0.05091,  -0.02462,   0.03849,   0.04375,   0.05953,   0.06216,   0.07531,   0.00431,  -0.02725,   0.08320,  -0.03776,   0.00431,   0.02009,   0.09372,   0.01483,   0.08583,   0.07268,   0.00431,   0.12001,   0.02009,   0.00694,  -0.05617,   0.10423,   0.06742,  -0.00884,  -0.00884,  -0.12980,  -0.08773,  -0.01673,  -0.08247,  -0.08510,   0.08846,  -0.05091,  -0.10350,   0.12264,  -0.04039,  -0.03514,   0.01220,  -0.14032,   0.09634,   0.03849,   0.01746,  -0.02462,   0.12264,  -0.07721,  -0.06669,  -0.00095,  -0.04039,  -0.00095,   0.03323,   0.12790,  -0.00621,   0.03060,  -0.07195,   0.19101
   0.09109,   0.00431,   0.03849,   0.08057,   0.08583,   0.02272,  -0.02462,   0.08846,  -0.06406,  -0.02199,  -0.02462,  -0.09825,  -0.03776,  -0.06932,  -0.06406,   0.01746,  -0.00358,   0.06216,   0.05427,  -0.13243,   0.04112,   0.07005,   0.03060,  -0.09825,   0.04638,  -0.05617,  -0.04302,  -0.14558,   0.05164,   0.06742,  -0.08773,   0.07268,   0.10949,  -0.10088,   0.11212,   0.01746,   0.03849,   0.00168,   0.09109,  -0.03251,   0.04638,  -0.00358,   0.04901,   0.02535,  -0.06669,   0.07005,  -0.00095,  -0.03251,   0.04638,  -0.02725,   0.01483,  -0.05617,   0.04638,   0.06479,   0.14368,   0.03323,   0.00694,  -0.04828,   0.02009,  -0.11139,  -0.01147,   0.06479,   0.05427,   0.05427,   0.13842,   0.02798,   0.04638,   0.02272,   0.02272,   0.05164,  -0.11928,  -0.05354,   0.04901,   0.01483,   0.06216,   0.10423,   0.02272,   0.10423,   0.13316,   0.02272,  -0.17976,   0.13579,  -0.03251,  -0.10088,  -0.07195,   0.02009,   0.02009,  -0.00358,  -0.09825,   0.07531,   0.04375,  -0.09036,  -0.04302,  -0.01936,   0.07268,   0.03586,   0.01220,   0.05953,  -0.07984,   0.05690,  -0.10350,  -0.00621,   0.08057,   0.09109,  -0.00358,  -0.05091,  -0.11402,   0.03323,  -0.09562,  -0.01147,  -0.04302,  -0.05354,   0.02535,  -0.05091,   0.08057,   0.12264,   0.03586,   0.09897,   0.01220,   0.21205,  -0.04565,   0.00431,   0.03323,   0.00694,  -0.02199,   0.02009,   0.04901,   0.03586,  -0.14295,   0.06479,   0.06479,   0.03060,  -0.07195,   0.05690,   0.03323,  -0.10088,   0.04375,  -0.11402,   0.03323,  -0.05354,   0.09897,   0.09109,  -0.04039,  -0.11402,   0.01220,  -0.03776,  -0.04302,  -0.03251,   0.03060,  -0.17450,  -0.04565,  -0.00884,  -0.08247,  -0.18502,  -0.02988,   0.01220,   0.01220,   0.05427,   0.03323,   0.05164,   0.17786,  -0.08510,   0.03060,   0.10160,  -0.01147,  -0.11139,  -0.01936,  -0.02199,  -0.05880,  -0.00621,   0.10686,   0.00957,  -0.00358,  -0.09299,  -0.12980,   0.06479,  -0.06932,   0.08583,   0.07531,   0.03849,   0.08846,  -0.04302,  -0.04039,  -0.10088,  -0.09036,   0.15157,   0.08320,   0.04112,   0.06216,  -0.02199,  -0.00358,   0.04638,   0.08583,  -0.04039,   0.04638,   0.09109,   0.05953,  -0.05880,  -0.04828,   0.01220,   0.05690,   0.08320,  -0.12191,   0.05427,  -0.03514,   0.06216,  -0.14032,  -0.12454,  -0.04828,  -0.05880,   0.03060,   0.01483,   0.07005,   0.11475,   0.05953,   0.10949,   0.13053,   0.03060,   0.10686,   0.08583,   0.02009,   0.04901,  -0.01410,   0.09109,   0.08583,   0.00694,   0.00431,  -0.06932,  -0.08510,  -0.04565,   0.02798,   0.03060,  -0.07984,  -0.06932,  -0.11139,   0.07268,  -0.04565,  -0.01147,   0.07268,  -0.14295,  -0.00621,  -0.11139,  -0.02988,  -0.03251,   0.09372,   0.06479,   0.07268,  -0.02988,  -0.04039,   0.00957,   0.02798,   0.07005,  -0.07195,  -0.07195,   0.24623,   0.08320
   0.02009,   0.07268,  -0.07458,  -0.02199,  -0.01673,   0.02798,   0.06742,  -0.04565,  -0.06932,   0.02272,  -0.00621,  -0.02725,   0.00957,   0.06742,   0.14105,   0.02798,  -0.00358,   0.03849,  -0.08773,   0.00957,   0.13579,   0.05690,  -0.05354,  -0.15873,  -0.03514,  -0.01410,   0.07268,  -0.05617,   0.01746,  -0.08247,  -0.04039,   0.01483,   0.00431,  -0.00095,   0.07794,   0.17523,  -0.07984,   0.02798,   0.01746,  -0.04828,  -0.01410,   0.16734,  -0.06932,  -0.02462,  -0.03251,  -0.01410,  -0.05354,   0.04901,  -0.01147,   0.02798,  -0.01673,   0.03323,  -0.07195,  -0.09825,  -0.08247,   0.02798,  -0.06932,   0.18049,   0.00694,  -0.06143,   0.04112,  -0.12717,  -0.12980,  -0.12980,  -0.01936,  -0.11402,   0.07005,  -0.12191,   0.11738,   0.10686,  -0.05617,  -0.09299,   0.02009,   0.06479,  -0.06932,   0.03586,  -0.05091,   0.10160,  -0.03514,  -0.08510,   0.03060,   0.22257,  -0.04302,  -0.04039,   0.02272,  -0.09299,  -0.06406,   0.05953,  -0.12717,   0.09634,  -0.05091,   0.02272,   0.11212,  -0.07458,   0.08583,  -0.17187,   0.16471,   0.14105,   0.13579,  -0.02199,  -0.03514,   0.04901,  -0.04039,  -0.04565,  -0.07458,   0.07794,  -0.01673,  -0.13769,   0.02535,   0.01483,   0.01746,  -0.00884,  -0.01936,   0.01220,  -0.00358,  -0.15873,  -0.03251,  -0.12454,   0.04375,  -0.05880,  -0.00095,   0.03060,   0.05690,   0.01483,   0.01220,  -0.05617,  -0.11139,  -0.00621,   0.05427,   0.06479,  -0.01673,   0.05427,   0.07794,  -0.09036,   0.07531,   0.00694,   0.21731,   0.01220,   0.01220,  -0.08510,  -0.05354,  -0.04828,  -0.04828,  -0.02199,   0.04638,   0.17260,   0.00431,   0.02798,   0.09372,   0.12264,   0.06742,   0.03060,   0.06479,  -0.03514,   0.13053,   0.05427,   0.08057,   0.02009,   0.06479,   0.04112,   0.03586,   0.06742,   0.07005,   0.08057,   0.16208,  -0.12454,  -0.11665,   0.00957,  -0.00884,  -0.10350,  -0.15873,  -0.00358,  -0.04039,  -0.05354,  -0.12191,  -0.02988,  -0.04039,   0.01746,  -0.03251,  -0.01673,   0.01746,  -0.05617,   0.15157,   0.05953,  -0.09299,  -0.11139,   0.10686,   0.01746,   0.05427,   0.05953,   0.02009,  -0.01410,   0.10423,  -0.03514,  -0.00095,   0.04112,   0.03060,  -0.07984,  -0.07458,  -0.05880,   0.00694,  -0.09036,  -0.01673,  -0.03776,  -0.02199,  -0.02725,   0.04375,  -0.05091,  -0.02199,   0.05953,   0.04901,   0.04638,   0.00694,   0.13316,  -0.04828,  -0.01147,   0.12527,   0.10949,   0.01746,  -0.04828,  -0.09562,  -0.00884,   0.04112,   0.08846,   0.07268,   0.00168,  -0.10088,  -0.09036,  -0.08510,  -0.08510,   0.00957,   0.10160,   0.04112,   0.01746,   0.02009,  -0.01673,   0.12790,  -0.05091,  -0.06932,   0.09372,  -0.01936,  -0.08510,  -0.09299,   0.03849,   0.03323,  -0.10088,   0.09634,  -0.11928,   0.01483,  -0.04565,  -0.04039,   0.06216,   0.05690,  -0.03251,  -0.02988,  -0.02725
   0.04375,   0.09372,  -0.01147,   0.02798,  -0.01673,   0.01746,   0.00694,   0.12790,   0.07005,  -0.04302,   0.02272,  -0.07458,  -0.03251,  -0.12191,   0.04901,  -0.07458,  -0.11139,   0.01746,  -0.11139,  -0.09299,   0.01483,   0.14894,   0.03849,  -0.02988,  -0.03251,  -0.11402,  -0.02199,   0.03323,  -0.07458,  -0.00358,  -0.11665,  -0.04302,   0.06742,  -0.08510,  -0.16924,  -0.06406,   0.05164,   0.09634,  -0.06669,   0.02009,   0.00957,  -0.13243,   0.06479,   0.10160,  -0.01410,  -0.02725,  -0.13506,   0.14105,  -0.04302,   0.02535,   0.07005,   0.18049,   0.03323,   0.04375,   0.07531,  -0.00095,  -0.05091,   0.08846,  -0.03251,   0.03323,  -0.01147,  -0.03514,  -0.06669,  -0.02199,  -0.00358,  -0.05354,  -0.03514,   0.03586,  -0.05617,  -0.06932,  -0.04039,   0.00957,   0.03323,  -0.00358,   0.04112,   0.06479,   0.04375,  -0.00621,   0.13316,  -0.02725,   0.04112,  -0.03251,  -0.02199,  -0.01410,  -0.15084,  -0.07458,  -0.04302,   0.07794,   0.10423,   0.00431,   0.05690,   0.11738,   0.10423,   0.01483,   0.08846,   0.08057,   0.14105,   0.11738,  -0.05617,  -0.06669,   0.09372,  -0.12191,  -0.04565,  -0.02988,   0.09634,  -0.00358,   0.02272,  -0.01673,   0.01220,  -0.04828,   0.04638,  -0.01147,  -0.05617,  -0.01936,   0.07005,   0.01483,  -0.05617,   0.07005,   0.05690,  -0.04039,  -0.09036,  -0.07195,  -0.08247,   0.10686,   0.02535,  -0.06143,  -0.05880,   0.12264,   0.06479,   0.06479,   0.07794,   0.00957,  -0.06143,   0.07005,   0.07005,  -0.02462,  -0.08773,   0.04112,  -0.02988,   0.03060,  -0.02462,  -0.06932,  -0.00621,  -0.07721,  -0.06932,  -0.11928,   0.12264,   0.09897,   0.03849,  -0.00884,  -0.01147,   0.14894,  -0.07458,  -0.05617,  -0.11139,  -0.04828,   0.03849,  -0.01936,   0.03060,   0.05164,   0.03586,   0.10686,  -0.04039,   0.02798,   0.11738,   0.10423,  -0.02725,  -0.07195,  -0.13769,  -0.01673,  -0.08773,  -0.00095,  -0.09299,  -0.07195,   0.09634,  -0.02725,  -0.09299,  -0.02462,  -0.02988,  -0.09562,  -0.02988,   0.03060,   0.01483,  -0.01410,   0.05427,   0.00168,   0.10423,  -0.05617,  -0.05880,   0.07531,   0.04638,   0.13842,   0.00168,  -0.06932,   0.07794,  -0.01936,   0.02272,   0.02798,   0.01746,  -0.05617,  -0.10088,  -0.01936,   0.06216,   0.00694,  -0.04039,  -0.09825,  -0.04828,   0.03586,  -0.01673,  -0.04565,   0.10160,   0.02272,  -0.06406,  -0.02199,  -0.00095,   0.03586,  -0.00358,   0.02009,   0.02272,  -0.13506,  -0.02462,  -0.10876,  -0.04039,  -0.12191,   0.09897,   0.01483,  -0.02725,   0.05690,   0.14894,   0.03586,  -0.02199,   0.09372,   0.02009,   0.10160,  -0.03514,   0.02009,   0.00694,  -0.04565,  -0.00095,   0.04638,  -0.00095,  -0.11139,  -0.02988,   0.03849,  -0.08510,   0.02798,   0.12527,  -0.11139,   0.03586,   0.08320,   0.03323,   0.08846,  -0.05617,  -0.04039,  -0.01147,   0.04901
   0.05427,  -0.10876,   0.09372,   0.06479,  -0.17187,   0.05427,   0.02009,  -0.06406,   0.06216,   0.03323,  -0.04565,  -0.06143,   0.09634,  -0.03251,   0.04638,  -0.11402,  -0.06143,  -0.14821,  -0.12191,   0.02535,  -0.06932,  -0.06669,   0.11475,   0.07268,  -0.07721,  -0.00884,   0.02009,  -0.13506,  -0.04302,   0.00957,   0.04901,   0.01483,   0.00168,   0.03323,   0.01483,   0.03323,  -0.00095,  -0.02988,  -0.09299,   0.18049,  -0.08773,   0.04375,   0.00431,   0.05164,   0.06742,  -0.21395,   0.11738,   0.03323,  -0.02462,  -0.05091,   0.00168,   0.17523,  -0.04828,   0.01746,  -0.08510,   0.07794,  -0.09562,   0.04112,  -0.15084,   0.05427,  -0.07984,   0.02535,  -0.12454,   0.07005,   0.01746,  -0.07458,   0.10423,  -0.19291,  -0.09036,   0.04112,   0.06216,  -0.03251,   0.04638,   0.07005,   0.01220,   0.01220,   0.03849,   0.01483,  -0.07195,  -0.15873,   0.02009,   0.00431,   0.08846,   0.03849,   0.02535,   0.14631,  -0.03776,  -0.02988,  -0.15347,  -0.08773,  -0.01147,   0.02009,  -0.08247,  -0.03776,   0.00957,   0.06216,  -0.06406,   0.04375,   0.10949,   0.03586,  -0.07195,  -0.05354,  -0.07984,   0.05953,   0.05690,  -0.07721,  -0.06669,   0.02798,  -0.06143,   0.01746,   0.10423,  -0.06406,  -0.08510,   0.00168,   0.11738,   0.01746,   0.08057,   0.01483,  -0.00095,  -0.11402,   0.03060,   0.17260,  -0.03514,   0.07794,  -0.12980,  -0.11402,   0.02798,  -0.01410,  -0.07195,   0.03586,   0.09897,   0.03323,   0.00957,   0.02535,   0.04638,  -0.11928,  -0.10088,   0.00957,   0.04638,   0.02798,  -0.03514,  -0.06669,   0.10949,  -0.01147,   0.02272,   0.00957,  -0.01147,   0.04638,   0.05164,  -0.04828,   0.09372,   0.10160,  -0.06669,  -0.02462,  -0.05880,  -0.11139,   0.13842,  -0.00621,  -0.02988,   0.02798,   0.02798,  -0.02988,   0.10686,  -0.05617,  -0.02462,  -0.02462,   0.14368,   0.04638,  -0.10613,   0.04375,   0.09372,   0.01483,   0.14105,   0.01220,  -0.04565,  -0.02462,   0.10949,  -0.02199,   0.11212,  -0.05880,   0.08846,   0.00168,   0.03060,   0.11212,  -0.15873,   0.07531,  -0.11928,  -0.07721,  -0.02199,  -0.09299,  -0.02988,  -0.08773,  -0.06669,  -0.04828,  -0.09036,   0.07794,   0.00694,  -0.09562,  -0.04565,   0.00694,   0.00694,   0.03849,  -0.05091,   0.01483,   0.03323,   0.04112,  -0.01936,   0.01220,  -0.04039,  -0.18765,   0.04375,   0.07794,   0.00957,   0.03849,  -0.00884,   0.06216,  -0.06932,   0.07268,   0.14368,  -0.09299,   0.04112,   0.12527,  -0.05617,  -0.04302,   0.06479,   0.02009,  -0.07721,  -0.02199,  -0.14032,   0.09897,  -0.04302,   0.02272,  -0.03514,  -0.07458,   0.01746,  -0.00358,  -0.01936,   0.09897,  -0.02988,   0.08583,  -0.04565,  -0.04302,  -0.02462,   0.13053,   0.02535,   0.00694,   0.03323,   0.13053,   0.10949,  -0.00095,   0.05690,   0.09372,  -0.07984,  -0.00358,   0.19364,  -0.00358
  -0.04828,  -0.00621,   0.12001,   0.01483,  -0.01147,   0.09897,  -0.05617,   0.00168,   0.00694,  -0.01410,  -0.15873,   0.00168,  -0.06143,   0.02798,  -0.06406,   0.06216,  -0.02462,  -0.01673,  -0.00358,  -0.09825,   0.07268,   0.00957,  -0.15084,  -0.01936,   0.08583,  -0.05880,   0.05953,  -0.00095,   0.05953,   0.02272,   0.01746,   0.08057,   0.03849,   0.03060,  -0.03251,   0.08057,  -0.01410,  -0.14295,  -0.03776,   0.00957,   0.07794,   0.03849,  -0.03514,   0.06479,  -0.06669,  -0.01673,  -0.11139,  -0.05880,  -0.06143,   0.13316,  -0.12191,   0.03060,  -0.14558,  -0.07984,  -0.04302,  -0.02988,  -0.02725,   0.04901,  -0.03776,   0.05953,   0.06216,  -0.07458,  -0.06669,  -0.05617,  -0.08773,   0.09634,  -0.05091,   0.06216,   0.01483,   0.07531,   0.02009,  -0.02725,   0.08057,  -0.00358,   0.07268,   0.09897,   0.06742,   0.12001,   0.00957,   0.04112,  -0.07195,  -0.06669,   0.02272,  -0.12717,  -0.00884,  -0.08773,   0.02798,  -0.14032,  -0.05354,   0.20679,   0.10949,  -0.04302,  -0.14558,  -0.06143,   0.03849,   0.12001,  -0.15610,  -0.01673,   0.01220,  -0.04565,  -0.03776,  -0.03251,   0.00694,   0.08320,  -0.05354,  -0.04302,  -0.13769,   0.06216,  -0.18502,   0.05427,  -0.14032,   0.09897,   0.19627,   0.01746,   0.00431,   0.02009,  -0.11402,   0.09372,   0.03060,  -0.15084,   0.02272,  -0.03776,  -0.10613,  -0.08247,  -0.06669,   0.05953,   0.05690,   0.00957,   0.14105,   0.09372,   0.00957,  -0.03776,  -0.05880,  -0.03251,   0.00694,  -0.03251,   0.09109,  -0.01410,   0.10686,  -0.01936,  -0.12191,   0.03586,  -0.05354,   0.01746,  -0.04039,  -0.01410,   0.01483,  -0.02988,  -0.10876,   0.03323,   0.00694,   0.02009,   0.06742,  -0.01410,  -0.07458,  -0.00884,  -0.07458,  -0.00884,  -0.08247,  -0.04565,  -0.08773,   0.07005,   0.13053,   0.03849,  -0.10613,  -0.10088,   0.05427,   0.16734,  -0.06932,   0.05427,   0.03060,  -0.05354,   0.01746,  -0.01410,  -0.00095,  -0.08247,  -0.02199,  -0.06669,  -0.06932,   0.02272,  -0.14821,   0.02535,  -0.05617,   0.00168,   0.04901,   0.07005,  -0.03776,  -0.01147,  -0.07458,  -0.06143,   0.09109,   0.02535,  -0.00621,  -0.08510,  -0.12191,  -0.02199,   0.05690,  -0.06406,   0.02009,   0.07794,  -0.00884,  -0.06143,  -0.02988,   0.08320,  -0.07458,   0.04375,  -0.06406,   0.06216,  -0.00095,   0.05164,   0.08320,  -0.00884,  -0.05880,   0.02009,  -0.03251,   0.04638,  -0.07721,   0.05427,   0.06479,   0.00168,   0.03586,  -0.08773,  -0.01147,   0.04112,   0.01483,  -0.11139,   0.06216,  -0.02725,  -0.07721,  -0.13243,   0.14105,   0.06742,  -0.05354,   0.00431,   0.09372,  -0.01147,  -0.04565,   0.00694,   0.08583,   0.09634,   0.03849,   0.05690,   0.17523,   0.04638,   0.09109,   0.00957,  -0.14032,  -0.00095,   0.04901,  -0.04039,  -0.06669,   0.01746,   0.05690,  -0.00358,  -0.05354,   0.02798
  -0.04039,   0.01746,   0.16208,   0.09372,   0.05690,  -0.07195,  -0.06669,  -0.02199,   0.02535,   0.07268,  -0.07458,   0.00957,  -0.03514,   0.02535,  -0.09562,  -0.04302,   0.02009,   0.04638,   0.07268,  -0.17450,   0.00431,   0.02798,   0.05953,  -0.13769,   0.05164,  -0.07458,  -0.10613,  -0.05091,   0.12790,  -0.00884,   0.02272,  -0.10088,  -0.01147,  -0.11665,  -0.09299,   0.05690,  -0.02199,   0.10686,   0.02272,   0.01483,   0.07005,  -0.07721,   0.00957,   0.05690,  -0.00621,   0.00694,  -0.06143,  -0.04039,   0.08057,  -0.04302,   0.10160,  -0.10088,  -0.16662,  -0.01936,  -0.00884,  -0.06932,   0.09109,  -0.04828,  -0.02462,   0.03849,  -0.09036,   0.00168,   0.13053,  -0.05354,  -0.02462,  -0.02725,  -0.10088,  -0.05617,   0.06742,  -0.06143,   0.16208,  -0.01147,  -0.04039,   0.05427,   0.07531,  -0.10088,  -0.09299,  -0.06932,   0.12790,  -0.03776,  -0.00621,   0.08583,  -0.02725,  -0.01673,  -0.09562,  -0.01410,  -0.01410,  -0.06406,  -0.05091,  -0.05617,   0.02535,   0.01220,   0.00957,   0.01220,  -0.00095,   0.00431,   0.01483,  -0.04565,  -0.01410,  -0.07195,   0.00168,   0.19364,  -0.06406,  -0.06932,  -0.03251,  -0.00095,   0.11475,   0.03323,  -0.00884,  -0.09299,   0.01746,   0.10423,   0.03849,  -0.11928,   0.08320,  -0.01673,  -0.02462,   0.08320,   0.06216,  -0.09299,  -0.07195,   0.04375,  -0.01147,   0.11475,  -0.05880,   0.01220,  -0.03776,   0.04112,  -0.05091,  -0.03514,  -0.00095,   0.00168,  -0.09036,  -0.01410,   0.00694,  -0.02988,  -0.01147,  -0.10350,  -0.01673,  -0.00621,   0.01483,  -0.06932,   0.18049,   0.00694,   0.12790,  -0.11928,   0.05953,  -0.01673,   0.05427,  -0.05091,   0.02535,   0.13842,   0.07531,  -0.00884,   0.15157,  -0.18239,   0.11475,   0.04638,   0.02535,   0.00168,  -0.01673,   0.01746,  -0.11139,   0.07268,   0.13579,  -0.03776,   0.05427,  -0.06669,   0.09109,   0.07268,  -0.03251,  -0.00095,  -0.01410,   0.03586,   0.00168,   0.00957,   0.05164,   0.08846,   0.00168,  -0.00621,  -0.12980,  -0.00884,   0.07268,   0.18575,  -0.11402,  -0.06143,  -0.10350,  -0.01673,   0.02535,   0.08583,   0.03060,  -0.16399,  -0.03776,  -0.06406,  -0.07721,   0.04375,  -0.07984,  -0.09825,  -0.09299,   0.09897,  -0.07195,   0.09109,   0.09634,  -0.00884,  -0.00884,   0.06479,   0.05427,   0.09109,   0.00957,  -0.14821,  -0.20606,  -0.05880,  -0.07721,   0.05690,  -0.02199,   0.03060,   0.02535,  -0.03776,  -0.02988,  -0.01147,  -0.10088,  -0.09825,  -0.12191,   0.04112,   0.06742,   0.12527,  -0.00095,   0.08320,  -0.10350,   0.12001,   0.12527,  -0.20080,   0.03849,  -0.07458,   0.01483,  -0.08510,  -0.01147,  -0.13769,  -0.01673,   0.04112,   0.05690,  -0.16924,   0.01483,   0.00431,   0.03849,  -0.07721,  -0.05091,  -0.11139,   0.04112,   0.10686,   0.04375,  -0.05091,   0.11212,   0.02798,  -0.00358,  -0.00358
   0.01220,  -0.07984,  -0.04302,  -0.05880,   0.07794,  -0.00358,  -0.11402,  -0.00884,  -0.04039,  -0.05617,   0.06216,   0.02798,  -0.00358,  -0.01673,  -0.02462,   0.06216,   0.08057,   0.02798,  -0.16136,  -0.04565,  -0.10613,   0.11738,   0.02798,  -0.01147,   0.02272,   0.06216,   0.17786,  -0.01147,   0.04112,  -0.04828,  -0.01673,   0.08846,  -0.05354,  -0.14295,  -0.07458,   0.06479,  -0.10350,  -0.01410,  -0.02725,   0.12790,  -0.04565,  -0.02988,   0.17523,  -0.15084,   0.05953,   0.03060,  -0.04039,   0.14894,  -0.07721,  -0.14032,   0.02798,  -0.08510,  -0.01147,  -0.05354,  -0.06932,   0.15683,   0.00168,   0.08583,  -0.01673,   0.09109,  -0.00884,   0.20942,   0.05427,   0.02272,   0.04901,   0.02272,  -0.05354,   0.04638,  -0.06669,   0.03849,  -0.00358,   0.06742,   0.13316,   0.03323,   0.00431,   0.04638,  -0.10350,   0.01746,  -0.01410,  -0.00621,  -0.14032,  -0.14821,   0.03849,  -0.01147,  -0.05354,   0.07531,   0.08320,  -0.01410,   0.02798,   0.03060,   0.04901,   0.05690,   0.03323,  -0.06932,   0.10686,  -0.06932,   0.01220,   0.05427,  -0.04565,   0.05953,   0.09109,  -0.04039,   0.04901,   0.15157,   0.02798,   0.09109,  -0.00621,   0.04638,   0.02272,  -0.01673,  -0.07721,   0.00168,  -0.10350,   0.07268,   0.00694,  -0.10876,   0.04638,   0.19627,   0.02535,   0.07005,   0.00431,   0.00957,   0.05427,  -0.05354,  -0.05354,  -0.05091,  -0.01410,  -0.07721,  -0.03251,  -0.05354,   0.02009,   0.06742,   0.01220,  -0.02988,   0.02272,   0.02009,   0.09372,   0.15420,  -0.05091,   0.06479,  -0.03251,  -0.06669,   0.00168,  -0.03251,  -0.09562,   0.04375,   0.05427,   0.03849,  -0.04302,  -0.02462,  -0.07458,  -0.01147,  -0.14032,  -0.02199,   0.03586,   0.05690,  -0.04565,  -0.09562,   0.01220,   0.10160,   0.05427,  -0.13769,   0.11212,  -0.00884,   0.02009,   0.06479,  -0.24287,  -0.12191,  -0.02462,  -0.02462,   0.00168,   0.09897,   0.09372,   0.10949,   0.05164,  -0.05880,   0.10423,  -0.08510,  -0.05617,   0.04112,  -0.11402,   0.02535,   0.07531,   0.04901,   0.00694,  -0.02988,  -0.05354,  -0.12454,   0.05953,  -0.03514,  -0.13243,   0.00957,   0.00957,  -0.11928,   0.01220,   0.05427,  -0.03776,   0.00431,   0.02535,  -0.06406,  -0.00358,   0.09634,  -0.02199,   0.06742,  -0.07721,  -0.05354,  -0.03251,   0.04901,  -0.04302,  -0.00095,   0.02272,   0.08320,  -0.00358,  -0.03776,   0.08057,  -0.05354,  -0.00358,  -0.06406,  -0.01147,  -0.02725,   0.00431,   0.00168,   0.02009,   0.01483,  -0.01410,  -0.02725,  -0.01147,   0.04375,  -0.09825,  -0.02988,  -0.13769,  -0.04039,   0.02798,  -0.03514,  -0.14032,   0.02272,   0.04638,  -0.10876,   0.04901,  -0.02199,  -0.09825,  -0.09036,  -0.02462,  -0.04039,  -0.07195,   0.03586,  -0.06406,  -0.03776,   0.07794,  -0.02988,   0.17260,  -0.01673,  -0.01673,   0.02798,   0.08846,   0.07268
  -0.11139,  -0.03514,   0.01220,  -0.03776,  -0.02462,   0.04112,  -0.14821,   0.00431,  -0.05617,  -0.04302,  -0.08247,   0.06479,  -0.02725,   0.00957,  -0.14295,  -0.12191,   0.03586,  -0.06669,  -0.10088,   0.12790,   0.06479,  -0.03251,   0.02535,  -0.06932,   0.11475,  -0.17976,  -0.19291,   0.04112,   0.05953,   0.00168,   0.06742,   0.00694,  -0.05091,   0.03849,   0.06216,  -0.01147,  -0.09036,  -0.04039,   0.11738,   0.06216,  -0.02988,  -0.02462,  -0.00884,   0.10949,  -0.06406,   0.12527,  -0.07721,  -0.04565,  -0.03251,   0.02009,  -0.00621,   0.07794,  -0.05354,  -0.14558,   0.00168,  -0.01410,  -0.11139,   0.01483,   0.04112,  -0.02199,   0.05427,  -0.00358,   0.00694,   0.09897,  -0.04565,   0.09634,  -0.05617,  -0.06669,  -0.04565,  -0.00884,   0.06742,   0.01220,   0.00168,   0.07005,  -0.06143,   0.05427,   0.04112,   0.00431,   0.02009,   0.06216,  -0.10350,   0.00168,   0.01483,   0.00431,  -0.04565,   0.07531,  -0.11139,  -0.10350,  -0.09036,  -0.01673,  -0.09825,  -0.02725,   0.02272,   0.14368,  -0.01147,  -0.02462,   0.18575,  -0.00358,   0.04638,  -0.01410,   0.10160,   0.02009,   0.04112,   0.03060,  -0.10876,   0.01483,   0.16471,   0.09372,   0.07005,  -0.11928,  -0.03776,  -0.08510,   0.04901,   0.18838,  -0.10088,   0.00957,  -0.07195,  -0.14821,  -0.06406,  -0.05091,   0.08320,   0.09109,   0.03060,   0.05953,  -0.03251,  -0.08510,  -0.09299,   0.04638,  -0.12454,   0.04638,   0.15420,   0.00431,  -0.02462,  -0.03251,   0.09109,   0.05427,   0.03060,  -0.06669,   0.00431,   0.09634,  -0.04302,  -0.04039,   0.15946,   0.02535,  -0.04565,  -0.01410,   0.00168,   0.02009,   0.05164,  -0.07458,  -0.06143,   0.00957,   0.02535,  -0.20869,  -0.01936,   0.12790,  -0.00621,  -0.09562,   0.10423,   0.02009,  -0.02462,  -0.03514,   0.03323,   0.10949,   0.08846,   0.08320,  -0.00621,  -0.10350,   0.07005,   0.08583,   0.07531,   0.09634,  -0.19291,   0.06216,   0.00957,   0.01746,   0.01220,   0.05164,   0.05953,   0.02535,  -0.13506,  -0.11402,   0.02009,  -0.01147,   0.03323,  -0.10350,   0.13579,  -0.06932,   0.02272,   0.04638,  -0.05880,   0.02535,  -0.04302,   0.11475,   0.14368,   0.06742,   0.05427,  -0.05091,   0.02798,   0.08320,  -0.03251,   0.04901,   0.05690,   0.02798,  -0.03776,   0.08320,   0.06216,   0.14894,  -0.07458,   0.14894,   0.01483,   0.07531,   0.04112,  -0.12454,   0.08320,  -0.04039,  -0.00621,   0.06742,  -0.06406,   0.01220,   0.01746,   0.02272,   0.00168,   0.08057,  -0.16136,  -0.06669,   0.08846,  -0.07195,   0.07794,  -0.00884,  -0.09562,  -0.01936,  -0.04039,   0.01746,  -0.00621,  -0.05617,   0.02798,  -0.05880,   0.05427,   0.04901,   0.04112,  -0.09299,   0.03060,  -0.07458,   0.02009,  -0.11665,   0.07531,  -0.00095,  -0.08510,  -0.09036,   0.09897,   0.03323,   0.02535,  -0.16924,   0.00957,   0.00168
   0.11475,   0.07794,   0.16471,   0.01483,  -0.06669,  -0.03776,  -0.04302,  -0.07984,   0.05164,  -0.10088,  -0.11139,  -0.07984,  -0.05091,   0.09634,  -0.05091,  -0.01410,  -0.03251,  -0.06143,  -0.00358,   0.12264,  -0.01147,  -0.06669,  -0.09036,   0.00431,   0.04375,  -0.08247,   0.09372,  -0.05880,  -0.02199,  -0.03514,   0.07531,   0.04638,  -0.07984,   0.16208,  -0.02725,   0.00694,  -0.00884,   0.03060,   0.11475,   0.03849,   0.05690,  -0.01936,   0.01220,  -0.10613,   0.00694,  -0.08773,   0.02535,   0.10423,  -0.03251,  -0.01147,  -0.04039,  -0.11928,  -0.05354,   0.03060,  -0.03514,   0.10423,   0.02535,  -0.05354,   0.04375,   0.07268,  -0.03251,   0.08583,  -0.10876,  -0.15610,   0.01220,   0.14894,  -0.07721,  -0.06143,   0.00957,   0.02009,   0.02535,   0.03586,  -0.02725,   0.03849,  -0.02199,  -0.03251,   0.07531,  -0.02199,  -0.16662,  -0.06932,   0.04375,   0.08583,  -0.04828,  -0.02725,   0.00694,  -0.08773,   0.01483,   0.04112,  -0.15610,  -0.00884,   0.00957,   0.04901,  -0.02462,   0.06216,   0.03849,  -0.05617,   0.07005,   0.08583,  -0.00095,   0.13842,   0.03586,  -0.00358,  -0.02462,   0.04638,  -0.08510,   0.04375,  -0.01936,  -0.04039,   0.01483,  -0.10088,   0.08320,   0.01483,  -0.00358,   0.04638,   0.09634,  -0.00884,  -0.10088,  -0.04828,  -0.03514,   0.05690,   0.08320,  -0.04039,  -0.15610,  -0.07984,   0.04638,  -0.10613,  -0.02199,  -0.12980,   0.08320,  -0.02725,  -0.02988,   0.05164,   0.10160,   0.15683,   0.06742,  -0.02725,  -0.05880,   0.13842,  -0.12980,   0.02272,  -0.08247,   0.00168,   0.07531,  -0.05617,   0.02272,  -0.08247,  -0.06669,   0.03060,   0.00957,   0.03849,  -0.10613,   0.12264,   0.06479,  -0.10350,  -0.13769,  -0.04302,   0.00694,  -0.02725,  -0.04565,   0.14631,   0.03323,  -0.08773,  -0.01673,  -0.04302,  -0.06669,  -0.07458,   0.12001,  -0.04039,  -0.00884,  -0.08510,  -0.03514,   0.12264,   0.07005,  -0.08247,  -0.07458,   0.00168,  -0.07458,   0.02272,   0.03060,  -0.00095,  -0.00358,  -0.11402,  -0.12454,  -0.02199,  -0.01673,   0.00694,  -0.05354,  -0.04302,  -0.05091,  -0.02462,   0.02009,   0.00694,   0.00431,  -0.05880,   0.03323,   0.03323,   0.21468,   0.04112,   0.06216,   0.00431,  -0.00884,  -0.11928,  -0.06669,   0.03586,   0.07005,   0.07531,  -0.04828,   0.06742,  -0.10088,  -0.04565,  -0.09299,  -0.10088,   0.03586,  -0.02462,  -0.02462,   0.00694,   0.07531,   0.04901,   0.13842,  -0.02988,  -0.02988,  -0.10088,  -0.08773,  -0.09299,  -0.05354,  -0.11139,  -0.05880,  -0.02199,   0.03849,   0.00957,  -0.09562,  -0.14032,  -0.07984,   0.00168,   0.12264,  -0.06143,  -0.07458,   0.02272,  -0.03776,   0.10423,   0.05164,   0.09109,  -0.03251,   0.03849,  -0.01147,   0.09897,   0.01220,  -0.06406,   0.00431,  -0.11665,  -0.09562,  -0.10088,   0.00168,   0.02009,  -0.02199,  -0.05880
   0.04638,  -0.03776,  -0.08247,   0.03586,   0.10423,  -0.09562,   0.03060,   0.08846,  -0.06932,  -0.06669,  -0.09299,   0.06216,  -0.06143,   0.00168,   0.01220,  -0.00621,   0.08583,  -0.05880,  -0.01410,  -0.06406,  -0.01410,  -0.07458,   0.04375,  -0.02462,   0.11738,   0.10949,   0.12001,  -0.04828,  -0.13243,   0.06216,   0.10423,  -0.00358,  -0.02988,   0.02009,  -0.09299,   0.01746,   0.14105,  -0.07984,  -0.08510,   0.08320,  -0.01410,   0.02009,   0.01483,   0.08057,   0.10949,   0.03323,  -0.02462,  -0.04828,  -0.06932,   0.03060,   0.04375,   0.00957,   0.09372,   0.05427,  -0.15084,  -0.22447,  -0.02725,   0.07005,  -0.00358,   0.00957,  -0.06932,  -0.03776,   0.05164,   0.02798,   0.02535,   0.05953,  -0.04828,  -0.00095,   0.00957,   0.07268,   0.07794,  -0.00095,  -0.00095,  -0.01936,   0.01483,   0.20679,  -0.01673,  -0.04302,  -0.14821,  -0.04565,   0.09897,   0.03586,   0.00168,   0.00431,   0.00694,  -0.05091,   0.00694,  -0.14295,  -0.01673,  -0.00095,   0.07005,   0.07005,  -0.00621,  -0.07721,  -0.07195,  -0.02988,  -0.12717,  -0.05880,   0.12264,  -0.05091,   0.03323,   0.00431,   0.10160,   0.05164,   0.08057,  -0.12454,  -0.17450,   0.04375,  -0.01673,   0.07794,   0.02009,  -0.03514,   0.15420,  -0.01936,   0.11738,  -0.02725,  -0.07721,   0.02272,  -0.01673,  -0.02462,   0.06479,  -0.10088,   0.05164,   0.00957,  -0.08247,  -0.14821,   0.17260,  -0.04828,  -0.02725,   0.00694,   0.19364,   0.01220,  -0.14295,   0.09372,   0.05953,   0.01483,   0.07794,  -0.01147,   0.12001,  -0.10613,  -0.04039,   0.02272,   0.02535,  -0.06669,  -0.03776,   0.02535,  -0.10088,  -0.08510,   0.02009,  -0.10876,  -0.06932,   0.03323,  -0.02988,   0.03060,   0.04112,   0.09897,  -0.17713,  -0.02725,  -0.09825,  -0.00358,   0.15157,  -0.00095,   0.05164,   0.03586,  -0.16662,  -0.12191,   0.05427,  -0.03514,   0.03060,   0.00694,   0.03323,  -0.05617,  -0.12191,   0.11738,  -0.06143,   0.09897,  -0.07458,   0.12264,   0.05164,  -0.01147,  -0.01147,  -0.04565,   0.05427,  -0.05354,  -0.01147,   0.03586,  -0.12454,  -0.04565,  -0.00095,   0.08846,   0.09109,   0.08320,   0.05427,   0.03586,  -0.00095,   0.09897,  -0.10350,   0.03060,  -0.02462,  -0.00884,  -0.06932,  -0.03251,  -0.04828,  -0.06932,  -0.06143,   0.04901,  -0.08510,   0.05690,  -0.03514,   0.04112,  -0.06143,   0.07531,   0.02009,  -0.05617,   0.00431,  -0.11928,   0.05427,  -0.09562,  -0.11139,   0.00431,   0.12264,   0.03060,   0.05690,   0.07531,   0.05953,   0.07005,   0.01746,  -0.06406,   0.10949,   0.09634,   0.05690,  -0.00358,  -0.01410,  -0.00358,  -0.10350,  -0.00621,  -0.00095,  -0.01147,   0.07268,  -0.00095,   0.02798,   0.15946,  -0.07721,  -0.07458,  -0.05617,  -0.04039,  -0.10350,  -0.00095,  -0.04565,  -0.03776,  -0.02199,   0.00168,  -0.09825,  -0.01147,  -0.02199,  -0.00621
   0.05953,   0.09897,  -0.00095,  -0.06669,   0.10686,   0.04112,   0.09372,  -0.05354,   0.10949,  -0.07195,   0.02009,  -0.00358,  -0.04828,   0.09372,   0.00957,  -0.06669,   0.05164,  -0.06406,   0.02535,   0.04112,  -0.25865,  -0.12454,   0.06742,  -0.07984,   0.04901,  -0.07195,   0.18575,   0.07005,   0.04638,   0.08320,   0.05164,  -0.10350,  -0.07721,  -0.07721,  -0.11665,  -0.04828,   0.04901,   0.00694,   0.05427,   0.02272,  -0.04039,   0.02535,   0.00168,   0.12001,  -0.02199,   0.05164,  -0.10613,  -0.17713,  -0.07721,  -0.00884,  -0.02725,   0.03060,   0.04638,   0.04901,   0.11738,  -0.03251,   0.01483,  -0.03251,  -0.01936,  -0.01673,  -0.03776,   0.06216,  -0.17450,   0.05164,  -0.04565,   0.05427,   0.01746,   0.01483,  -0.02199,  -0.00358,  -0.01936,  -0.01147,   0.06742,   0.05427,  -0.02462,   0.02009,   0.05690,   0.00431,  -0.00358,  -0.12980,   0.11212,   0.01746,  -0.07458,   0.04638,  -0.01673,   0.08320,  -0.00884,   0.04901,  -0.14295,  -0.07458,   0.08846,   0.07794,  -0.00621,   0.07005,   0.06742,  -0.04565,   0.14631,   0.01220,   0.10423,  -0.09036,   0.08057,  -0.05354,   0.06216,  -0.01673,   0.04375,   0.03060,  -0.09036,  -0.00621,  -0.06932,  -0.10876,  -0.02725,   0.01483,  -0.07195,   0.11738,  -0.05880,   0.09897,   0.01220,  -0.01147,  -0.05880,   0.13842,   0.13579,   0.06479,   0.02798,  -0.04302,  -0.11402,   0.10949,   0.01220,   0.02009,  -0.06932,  -0.05354,  -0.07195,   0.07268,  -0.07721,   0.01220,   0.13053,  -0.11665,  -0.08510,   0.11212,  -0.06143,   0.02798,   0.03060,   0.00957,  -0.15347,   0.10160,  -0.06932,  -0.00095,  -0.05354,   0.06216,   0.03323,   0.01483,   0.02535,  -0.11139,  -0.05617,   0.08583,  -0.09825,   0.03849,   0.02009,  -0.02199,   0.11212,   0.00957,   0.06742,   0.07005,   0.00694,   0.00168,  -0.03514,   0.00957,  -0.08510,  -0.02462,   0.01483,  -0.02199,   0.03060,   0.11212,   0.01483,   0.06742,   0.00694,  -0.00358,  -0.06669,  -0.03776,  -0.00095,  -0.16136,  -0.08510,  -0.05617,  -0.02725,   0.00431,   0.02798,   0.06479,   0.00168,  -0.02199,  -0.07721,  -0.02462,   0.04638,  -0.03514,  -0.02725,  -0.00621,   0.04112,  -0.03776,  -0.06932,   0.03323,   0.03060,   0.05953,  -0.01673,   0.03586,   0.01746,  -0.09562,   0.00168,   0.03323,  -0.10613,  -0.03251,  -0.04828,   0.08583,   0.17260,  -0.10350,  -0.00621,   0.13316,  -0.06932,   0.11212,   0.00168,  -0.03776,  -0.06669,  -0.01147,   0.11475,   0.04638,   0.08583,  -0.05617,  -0.01936,  -0.01936,   0.05427,   0.08057,  -0.09825,  -0.04302,  -0.00358,  -0.03251,   0.05953,   0.02009,  -0.02199,   0.02535,  -0.04565,  -0.05354,   0.00168,  -0.03776,  -0.03251,   0.11738,   0.08583,  -0.01673,   0.10160,  -0.02462,  -0.03776,  -0.02462,   0.07268,   0.09109,   0.04112,   0.05164,  -0.13769,   0.04375,  -0.07721,   0.00431
  -0.09562,  -0.04302,   0.04375,   0.05427,  -0.00095,   0.00431,   0.02535,  -0.10088,   0.06479,  -0.02199,  -0.05354,   0.04375,   0.07268,   0.02272,  -0.05880,   0.05164,  -0.06932,  -0.05617,  -0.05091,  -0.07721,   0.13053,   0.02272,   0.06479,   0.12264,  -0.06669,   0.01220,  -0.08510,  -0.13769,   0.06479,   0.14368,   0.10686,   0.05164,  -0.02988,  -0.05091,   0.00431,  -0.06669,  -0.10876,  -0.02988,   0.07268,  -0.13506,   0.04901,   0.02798,  -0.03514,   0.06742,   0.00694,   0.07268,   0.08583,   0.00957,  -0.12717,   0.09634,   0.09372,   0.06479,   0.00694,  -0.04302,   0.09634,   0.01220,  -0.06932,   0.05690,  -0.00358,   0.03586,   0.10686,  -0.01673,   0.06742,  -0.01936,  -0.08773,   0.13053,  -0.01410,  -0.01673,  -0.12191,   0.05427,  -0.10613,  -0.12191,   0.05427,  -0.02988,  -0.04039,  -0.02199,  -0.06143,  -0.08247,   0.09897,  -0.00358,   0.14105,   0.06479,  -0.03251,   0.01220,   0.06216,   0.06742,   0.00694,   0.19364,   0.08320,   0.11475,  -0.00358,   0.04112,   0.17260,   0.15946,  -0.04565,   0.14105,   0.05953,  -0.04565,  -0.00884,   0.02272,   0.00694,   0.15157,  -0.04302,   0.12001,   0.02798,  -0.02988,  -0.13769,  -0.05880,   0.07794,  -0.07721,   0.02535,   0.07794,  -0.04828,  -0.04039,  -0.05091,  -0.03514,   0.08320,   0.08846,  -0.09825,  -0.05617,  -0.04565,  -0.00884,   0.04112,  -0.05880,  -0.01147,  -0.01410,   0.07005,  -0.08773,  -0.02462,  -0.07984,   0.00694,   0.05690,  -0.04565,   0.00431,   0.02009,   0.04901,   0.04375,   0.02535,   0.08057,  -0.02199,   0.02009,   0.00431,   0.09897,  -0.03251,   0.11475,  -0.01147,   0.02272,  -0.00621,   0.10686,   0.12001,   0.00431,   0.01483,   0.10160,  -0.00358,  -0.00884,   0.01483,  -0.11139,  -0.07458,  -0.03776,   0.09372,   0.08057,  -0.02462,  -0.00358,   0.13579,   0.03060,  -0.03776,   0.14631,  -0.15610,  -0.02462,  -0.05354,   0.02798,  -0.07195,  -0.05880,  -0.08773,   0.20679,  -0.02462,  -0.06932,  -0.09036,  -0.07984,   0.01483,  -0.00884,   0.03060,   0.07005,  -0.01147,  -0.00095,   0.01746,   0.02798,   0.03323,  -0.09825,  -0.05354,   0.08320,   0.10949,   0.02272,   0.20679,   0.06216,   0.00957,   0.09372,  -0.06669,   0.01483,   0.03849,   0.01746,   0.05427,  -0.08773,   0.04375,   0.02272,  -0.05354,  -0.01410,  -0.12717,   0.20153,   0.01220,  -0.02988,  -0.29547,  -0.00884,   0.08057,  -0.08510,   0.09109,   0.13579,  -0.02199,  -0.02988,   0.08320,  -0.09036,  -0.02199,  -0.04828,   0.06479,   0.05690,   0.08846,  -0.05617,  -0.08773,  -0.02725,  -0.00884,  -0.06406,   0.03586,   0.08057,  -0.05617,   0.02009,  -0.10350,   0.02009,  -0.07721,  -0.06406,   0.10949,   0.01483,  -0.08773,  -0.09825,  -0.01410,   0.00168,   0.11212,   0.05690,  -0.03251,  -0.00095,   0.04375,  -0.00358,   0.04112,   0.10686,  -0.08247,  -0.17713,  -0.05880
  -0.00621,   0.05427,   0.07794,   0.03323,   0.09634,  -0.04039,   0.09897,  -0.01673,   0.02798,   0.09109,  -0.11665,   0.04375,  -0.15084,  -0.02725,   0.00957,   0.13316,  -0.02725,   0.04901,  -0.01147,   0.01746,   0.08846,  -0.04302,   0.03060,  -0.06932,   0.10949,  -0.06406,   0.06479,  -0.00095,   0.10160,  -0.05354,   0.00694,  -0.09036,  -0.04565,  -0.01673,  -0.04565,   0.03060,  -0.04828,   0.04375,   0.03060,   0.02535,   0.02272,   0.05690,  -0.07984,  -0.07984,   0.04638,  -0.11402,  -0.07458,   0.00431,  -0.05354,  -0.06143,   0.10949,   0.04112,   0.02272,  -0.08773,  -0.03776,  -0.05880,   0.00431,   0.14631,   0.12264,  -0.02725,  -0.08510,   0.03323,  -0.03514,  -0.08773,   0.03060,  -0.03514,   0.04112,  -0.05880,  -0.03251,   0.04112,   0.09897,   0.11212,  -0.10613,   0.06479,  -0.04828,   0.04112,  -0.10876,  -0.02725,   0.03586,  -0.08773,   0.13842,   0.02535,   0.05953,   0.10949,   0.02798,   0.03060,   0.08846,  -0.05091,  -0.01410,   0.04901,  -0.01410,  -0.04828,   0.02009,   0.03060,  -0.01673,  -0.17187,   0.05164,  -0.11928,   0.05953,   0.01483,   0.04901,  -0.00884,   0.00694,   0.07794,   0.03323,   0.00168,   0.03060,  -0.09562,   0.03060,   0.04638,   0.02272,   0.00957,   0.01746,   0.11738,  -0.07984,  -0.11665,   0.07268,  -0.04565,   0.10423,  -0.05354,  -0.03776,  -0.05880,   0.05953,   0.08057,  -0.00358,   0.04112,  -0.04302,   0.00168,  -0.00358,   0.00431,   0.10949,  -0.05091,  -0.05880,  -0.06143,  -0.02199,   0.09372,   0.05953,  -0.10350,   0.02798,  -0.01147,   0.04638,  -0.05091,   0.06742,   0.00694,   0.03849,   0.00694,   0.18838,   0.09372,   0.02009,   0.09372,  -0.02725,  -0.02988,   0.06479,  -0.01147,   0.02009,  -0.03514,   0.03323,   0.04112,  -0.07458,   0.02798,  -0.04565,  -0.02988,   0.01746,   0.09634,   0.01220,   0.00957,  -0.00621,   0.06742,  -0.09562,   0.09897,   0.10160,   0.03849,   0.04901,  -0.04565,   0.08583,  -0.07721,  -0.03251,   0.01483,   0.02009,  -0.07721,   0.12790,  -0.10613,   0.03060,  -0.12454,  -0.04828,   0.01483,   0.07005,   0.01220,   0.04112,   0.05953,  -0.07458,  -0.09562,   0.08583,  -0.16136,  -0.16662,   0.00957,   0.04638,   0.08583,   0.09109,   0.05164,   0.13842,  -0.18765,   0.03586,   0.10686,   0.09897,   0.14368,  -0.09825,   0.06216,   0.05427,  -0.00095,   0.06479,  -0.06406,  -0.11928,  -0.11139,  -0.11139,   0.12001,   0.02272,  -0.01673,   0.09897,   0.09372,  -0.06669,   0.09372,  -0.04039,  -0.06406,   0.03323,   0.02535,  -0.03251,   0.07005,   0.08320,   0.12001,  -0.04302,  -0.05880,   0.02009,  -0.06669,  -0.07458,  -0.05091,  -0.00621,   0.00431,   0.04375,   0.10949,   0.15946,  -0.05880,  -0.09562,  -0.06932,  -0.07984,  -0.01410,   0.07005,  -0.11928,   0.10160,  -0.01147,  -0.01410,  -0.04828,   0.05427,  -0.05617,   0.11212,   0.00694
  -0.06669,  -0.14295,   0.08057,  -0.12454,  -0.04828,  -0.05617,  -0.30335,   0.05690,  -0.04039,   0.14105,  -0.08247,  -0.01410,   0.04112,   0.09897,   0.09634,  -0.00095,  -0.00621,   0.01746,  -0.11402,   0.10686,   0.10949,   0.08583,   0.04375,  -0.17187,  -0.10613,   0.02798,  -0.01147,  -0.07458,   0.01746,  -0.03251,   0.16471,   0.05164,  -0.05880,   0.04901,   0.03849,   0.01746,  -0.04302,  -0.08510,   0.02272,   0.07531,   0.03586,  -0.04302,   0.11738,   0.00168,   0.00957,   0.07268,   0.00957,  -0.03514,   0.07005,  -0.08773,   0.01220,   0.05164,  -0.04302,  -0.12980,  -0.08247,   0.00431,  -0.07721,  -0.07984,  -0.00095,   0.01220,   0.06216,   0.00957,  -0.06932,  -0.02462,  -0.06406,  -0.09825,   0.00694,  -0.12717,  -0.11928,  -0.14558,   0.00694,   0.05164,  -0.04828,   0.08320,   0.08846,  -0.10350,  -0.16136,  -0.10088,   0.05690,  -0.01936,  -0.00095,  -0.01410,  -0.10088,  -0.15347,   0.05164,   0.00431,  -0.05354,  -0.04828,  -0.02199,   0.02009,  -0.05354,   0.05953,  -0.00358,  -0.12980,  -0.09299,   0.01746,   0.03586,   0.03060,   0.06216,  -0.00884,  -0.01673,  -0.04828,  -0.11665,   0.03060,   0.02535,   0.13316,  -0.02725,   0.02535,  -0.05880,   0.04112,  -0.11402,  -0.12717,  -0.06406,   0.05690,  -0.01936,   0.09897,   0.00431,   0.11738,   0.01220,  -0.01673,   0.06479,   0.12790,   0.14894,   0.01220,  -0.06143,   0.05953,   0.02535,  -0.01147,   0.00694,   0.03586,   0.14368,   0.00168,  -0.01410,   0.04112,   0.00957,  -0.07195,   0.01746,  -0.02725,  -0.05091,   0.02009,  -0.09299,  -0.02462,   0.02272,  -0.01673,   0.02009,   0.04112,  -0.05354,  -0.02725,   0.04375,  -0.00884,  -0.01410,  -0.02462,  -0.02462,  -0.08773,   0.02272,  -0.10876,   0.08846,   0.01220,   0.02535,  -0.17450,  -0.03776,  -0.10613,  -0.06669,  -0.02725,   0.04638,   0.08057,  -0.02199,   0.01483,  -0.05880,   0.02009,   0.04112,  -0.10088,   0.01483,   0.05690,  -0.08247,  -0.11665,  -0.07458,  -0.00358,   0.08583,   0.07531,  -0.05617,  -0.01673,  -0.03251,  -0.03251,   0.08057,  -0.10088,  -0.18765,  -0.06143,  -0.04039,   0.03586,   0.09897,  -0.01410,   0.07005,   0.01746,   0.02009,   0.08320,  -0.11139,   0.07531,  -0.06406,  -0.04039,  -0.00358,   0.04638,   0.05953,  -0.10613,   0.10160,  -0.08510,   0.08583,  -0.03514,  -0.01147,   0.08583,  -0.01936,   0.04901,   0.08583,   0.03323,  -0.11402,   0.02272,   0.07268,   0.06742,  -0.08510,   0.03586,  -0.01410,   0.01220,  -0.09036,  -0.10088,  -0.00621,   0.02009,   0.04901,  -0.09562,  -0.06406,   0.07794,   0.09109,  -0.02725,  -0.01673,  -0.01147,   0.14368,  -0.04565,   0.02272,   0.00168,  -0.15873,  -0.12980,  -0.11928,  -0.04565,   0.01483,  -0.01673,  -0.06406,   0.03849,   0.01220,   0.06216,   0.00694,  -0.10876,   0.12264,  -0.07984,  -0.04302,  -0.07195,  -0.04302,  -0.00884
  -0.11139,   0.09372,   0.00957,  -0.08773,   0.02798,  -0.09562,  -0.02462,  -0.00095,   0.08583,  -0.11139,  -0.00358,  -0.06669,  -0.04828,   0.05427,  -0.02199,   0.06216,  -0.12454,   0.07531,  -0.02725,   0.04112,  -0.04828,   0.03323,   0.02535,   0.04901,  -0.07195,  -0.06406,   0.10686,  -0.05880,  -0.04828,   0.03060,   0.14105,   0.08057,   0.05690,   0.11212,   0.04638,  -0.10613,   0.10686,   0.05427,  -0.01410,   0.07005,   0.05164,   0.02798,  -0.05091,  -0.06669,  -0.01410,  -0.02988,  -0.00358,   0.09109,   0.07005,  -0.07458,   0.04901,  -0.14558,  -0.09825,   0.07794,   0.11738,   0.00957,   0.08583,   0.08846,  -0.00095,   0.07005,  -0.05880,  -0.17187,   0.08320,   0.16208,  -0.05091,   0.26990,   0.01220,  -0.04039,   0.00168,  -0.05880,  -0.03514,   0.10686,   0.03060,  -0.00095,  -0.06143,  -0.09562,   0.03323,  -0.03514,  -0.09299,   0.07794,   0.16208,   0.03060,  -0.07721,  -0.05617,  -0.07458,   0.20153,   0.10686,  -0.04039,  -0.01673,   0.01746,   0.05690,   0.12527,   0.11212,  -0.03776,   0.09897,   0.06479,   0.05690,   0.12001,   0.03323,   0.02009,  -0.10088,   0.09634,  -0.02988,   0.10686,  -0.02988,  -0.14295,   0.01746,   0.04901,  -0.01410,   0.18312,   0.01483,  -0.06143,   0.05953,   0.00168,  -0.00358,   0.04375,  -0.00358,   0.07794,  -0.03251,  -0.17187,  -0.00621,  -0.06406,  -0.08510,   0.07794,  -0.00884,  -0.04039,   0.02535,  -0.09825,  -0.07721,   0.04901,   0.02009,  -0.03776,  -0.10876,   0.09634,  -0.01410,  -0.02199,   0.04901,   0.16471,  -0.05354,  -0.11139,  -0.04828,  -0.06932,  -0.04828,   0.03586,  -0.00095,   0.05690,  -0.28758,   0.04901,  -0.01147,   0.11212,  -0.01673,   0.10423,   0.06216,  -0.00095,   0.10160,  -0.09036,  -0.00621,   0.04901,   0.02272,   0.04375,   0.00694,   0.14105,  -0.10350,   0.06742,  -0.01410,   0.05427,  -0.09299,   0.03849,   0.11475,  -0.05354,   0.08320,  -0.05617,   0.03323,   0.13053,   0.05427,   0.14105,   0.02272,   0.06216,  -0.05617,  -0.14295,  -0.00358,  -0.07721,   0.00957,  -0.05880,   0.09372,  -0.00621,   0.03586,   0.02535,  -0.01147,   0.04638,  -0.02988,   0.06742,  -0.04828,   0.01220,  -0.06932,   0.00168,  -0.07721,  -0.12454,   0.02272,  -0.09299,   0.01746,   0.02272,  -0.06669,  -0.04039,  -0.06669,  -0.09036,   0.03323,   0.01483,  -0.02199,   0.12264,  -0.07195,   0.19627,   0.01220,  -0.04039,  -0.02988,  -0.02725,  -0.03776,  -0.09299,  -0.00095,  -0.04828,   0.05164,  -0.05617,   0.00168,  -0.04828,   0.03060,   0.00168,   0.07794,  -0.09299,   0.10160,   0.02009,   0.20153,   0.05953,   0.00168,  -0.00621,   0.02798,   0.05164,  -0.03776,   0.03586,  -0.02725,  -0.03514,   0.02535,   0.11475,  -0.15873,   0.01220,  -0.06669,   0.00168,   0.13579,  -0.03776,  -0.05617,   0.05427,   0.00168,  -0.01673,   0.09634,  -0.03514,  -0.08247,   0.02009
  -0.06669,  -0.03251,  -0.07721,   0.01220,   0.03060,   0.08320,  -0.07721,   0.01746,  -0.08247,  -0.01410,   0.02272,   0.02535,  -0.04565,   0.04112,   0.16208,  -0.09562,   0.05427,  -0.03251,  -0.07984,   0.07268,  -0.02462,  -0.02988,  -0.09562,   0.00957,   0.19101,   0.00694,   0.07531,  -0.04565,  -0.12191,   0.12001,  -0.09825,   0.12790,   0.07268,  -0.09036,  -0.12980,  -0.08773,  -0.05091,  -0.14032,   0.09109,  -0.01147,   0.03060,  -0.02725,   0.07794,   0.04375,   0.07268,   0.01483,   0.00957,  -0.08247,  -0.16136,   0.09634,  -0.03251,   0.04375,   0.12527,   0.07794,   0.03849,   0.03060,   0.10949,   0.05690,  -0.01410,  -0.05617,   0.04901,   0.00957,  -0.12191,   0.03323,   0.06216,   0.07268,   0.10686,   0.07005,  -0.02725,   0.05427,  -0.04302,  -0.04302,  -0.10088,  -0.04828,   0.02798,   0.01746,  -0.15084,  -0.11928,   0.06479,   0.04112,  -0.11928,  -0.09036,   0.05164,   0.10160,  -0.14295,   0.02272,  -0.14821,   0.02009,   0.08583,  -0.12717,  -0.10088,  -0.15084,   0.14631,  -0.00884,   0.04638,   0.03849,  -0.03251,   0.01220,  -0.11139,   0.00957,  -0.04039,   0.01220,  -0.00621,  -0.08773,   0.01746,  -0.04302,  -0.04039,   0.17523,  -0.00095,  -0.09299,  -0.06143,  -0.17187,  -0.02988,   0.02009,  -0.00095,   0.01483,   0.09372,  -0.03514,  -0.10613,  -0.10876,  -0.05617,   0.10160,  -0.00884,   0.04638,  -0.00358,  -0.00621,  -0.05880,  -0.01410,  -0.00095,  -0.07721,   0.18575,   0.07268,   0.17260,  -0.12454,   0.07268,  -0.03776,  -0.01147,  -0.09562,  -0.08247,  -0.00095,  -0.00358,   0.01483,   0.04112,  -0.13243,   0.14894,   0.00957,   0.08583,  -0.02725,  -0.11665,   0.05164,  -0.18765,  -0.04039,   0.01220,  -0.07458,  -0.01673,   0.04375,  -0.03776,  -0.00884,  -0.01410,  -0.02199,  -0.02988,  -0.04039,   0.03060,  -0.01673,  -0.04828,   0.08057,   0.00168,  -0.06669,  -0.11402,   0.07005,   0.04112,  -0.02988,  -0.01147,   0.06216,  -0.08510,  -0.08510,  -0.06143,  -0.01410,  -0.00884,  -0.02199,  -0.00095,  -0.03776,   0.09634,   0.03586,  -0.05880,   0.00168,   0.01483,   0.11212,  -0.01673,   0.03849,  -0.06669,  -0.16924,  -0.07984,   0.00957,   0.05164,  -0.05354,   0.04901,   0.07531,   0.08057,  -0.11402,  -0.01673,  -0.11928,   0.02009,  -0.01936,   0.05164,  -0.01410,   0.04375,   0.07005,  -0.03251,  -0.11139,   0.02798,  -0.06143,   0.01483,  -0.01410,  -0.08773,   0.12001,   0.05164,   0.00431,   0.03323,  -0.02462,  -0.03251,  -0.01410,   0.01483,   0.05164,  -0.03251,   0.05164,  -0.04039,  -0.01147,   0.02009,   0.04901,  -0.02988,  -0.05354,   0.04638,   0.03060,   0.02535,   0.03849,  -0.01936,  -0.05354,  -0.03251,   0.00694,   0.07794,   0.02272,  -0.10350,  -0.03514,  -0.06932,  -0.01410,   0.00957,  -0.02462,   0.00957,   0.04901,  -0.03251,   0.02535,   0.00957,   0.06216,   0.10686,   0.02798
  -0.07458,  -0.01410,  -0.07458,  -0.02725,  -0.09036,  -0.15347,  -0.01673,   0.08057,   0.05690,  -0.08247,  -0.05091,  -0.07458,   0.04638,   0.00694,  -0.04302,  -0.01410,  -0.04565,   0.10949,  -0.08773,  -0.11665,   0.00957,   0.02009,  -0.00621,  -0.11928,   0.03586,   0.02798,  -0.00621,  -0.05091,  -0.01147,   0.11475,   0.01220,   0.00431,  -0.03514,   0.07268,   0.02009,   0.02535,   0.03323,   0.07005,  -0.05617,   0.09372,  -0.03251,  -0.04039,  -0.08773,   0.05953,  -0.04302,   0.04112,   0.00168,  -0.03514,  -0.00621,  -0.03776,  -0.04039,  -0.01410,   0.00168,   0.01220,   0.06742,  -0.03514,  -0.01410,   0.03586,   0.00168,   0.00694,   0.15420,   0.01746,   0.05164,  -0.08510,   0.06216,   0.01746,  -0.02988,   0.03060,   0.03323,  -0.01673,   0.08057,   0.03323,  -0.05354,   0.00168,   0.06216,   0.07005,  -0.00884,  -0.02988,  -0.01147,   0.08320,  -0.15873,  -0.03251,  -0.05354,  -0.03251,  -0.05880,  -0.02462,  -0.17450,  -0.13243,   0.03849,  -0.08773,  -0.00358,  -0.05617,   0.03323,   0.05953,  -0.07984,   0.05427,   0.07268,  -0.12980,  -0.09036,  -0.09562,  -0.05880,  -0.01410,  -0.02199,  -0.02462,  -0.03514,  -0.01147,  -0.01410,  -0.05091,  -0.00884,   0.06479,   0.02009,  -0.07721,  -0.12717,   0.02535,  -0.01936,  -0.06669,  -0.08510,   0.05690,  -0.02988,  -0.01410,   0.09897,   0.04112,   0.02535,   0.02798,   0.11738,  -0.04828,   0.07005,  -0.09825,  -0.05091,  -0.04828,   0.03586,  -0.05617,   0.00168,  -0.06932,   0.02798,   0.01746,  -0.08247,  -0.02462,   0.12001,   0.15683,  -0.04828,   0.02798,  -0.01936,   0.13579,  -0.07458,   0.20679,  -0.06143,   0.18575,   0.00957,   0.03060,  -0.03251,  -0.03251,  -0.05091,   0.17786,  -0.02462,  -0.06669,   0.04112,  -0.07458,  -0.00095,   0.01746,  -0.05880,   0.00168,   0.00168,   0.00694,   0.00694,  -0.12980,  -0.12717,   0.15420,  -0.00621,  -0.03514,   0.05164,  -0.06406,   0.12001,  -0.11928,  -0.05880,   0.11475,   0.03849,  -0.01147,  -0.04039,  -0.02725,  -0.00621,   0.02272,   0.07794,  -0.01410,  -0.11928,  -0.03514,   0.03849,  -0.05617,   0.02798,  -0.09825,  -0.03776,   0.04375,  -0.02988,  -0.00358,  -0.04828,   0.07005,  -0.06406,  -0.07195,   0.00168,   0.00431,  -0.00358,  -0.14032,  -0.04039,  -0.07984,   0.14631,  -0.02988,   0.12790,  -0.01147,  -0.09825,   0.02009,  -0.02725,   0.04112,   0.09109,  -0.08773,  -0.03776,  -0.02725,   0.00431,   0.00694,  -0.00358,  -0.04565,   0.01746,  -0.05880,   0.00694,  -0.02199,  -0.00884,   0.09634,  -0.00621,   0.07531,  -0.00621,  -0.05354,  -0.01936,   0.06479,  -0.02725,  -0.07721,  -0.19817,   0.02272,   0.06742,   0.01220,   0.18312,  -0.02199,  -0.01673,   0.09372,   0.08583,  -0.00621,   0.02009,   0.01746,   0.10423,   0.16471,   0.00168,   0.09897,  -0.09299,  -0.04302,   0.04901,  -0.06406,  -0.00621,   0.04901
   0.00431,  -0.02725,   0.00168,  -0.08510,   0.01483,   0.09372,   0.05427,  -0.12980,  -0.00621,  -0.09299,  -0.01410,  -0.08247,  -0.04039,   0.01220,  -0.02462,  -0.04565,  -0.00358,  -0.08773,  -0.06406,   0.02535,  -0.10088,  -0.00095,   0.08846,   0.06216,  -0.03514,   0.03849,   0.13316,   0.00168,   0.02535,   0.11475,   0.00694,   0.00431,  -0.03514,  -0.03514,  -0.08247,  -0.05617,   0.03060,  -0.01936,   0.07794,  -0.10088,   0.01220,  -0.15347,   0.01746,   0.04638,   0.02009,  -0.00621,  -0.05091,   0.11738,  -0.06669,   0.14105,  -0.02725,   0.08057,   0.12264,   0.06742,  -0.01410,  -0.09825,   0.15420,  -0.03251,   0.05164,   0.07268,  -0.10613,  -0.08247,  -0.03251,  -0.00358,   0.06479,   0.14368,  -0.11665,  -0.06669,  -0.01410,  -0.01936,   0.02009,   0.01746,  -0.02725,   0.10160,   0.00168,   0.12790,  -0.01147,  -0.00095,  -0.00621,   0.16734,  -0.06406,  -0.00095,  -0.02199,  -0.10350,  -0.01410,  -0.00358,  -0.02199,   0.02535,   0.01483,   0.01483,   0.00168,  -0.00095,  -0.00621,   0.05953,  -0.10350,  -0.08247,  -0.01936,  -0.01147,   0.00957,  -0.10350,   0.10949,   0.05953,  -0.10613,   0.00431,   0.02009,  -0.00095,  -0.02462,   0.01483,  -0.12980,   0.12001,  -0.02199,   0.03323,  -0.12454,   0.08583,  -0.07195,   0.06216,   0.03060,   0.15946,   0.00957,   0.11212,   0.00168,   0.08846,  -0.05880,   0.11475,   0.04375,   0.04901,  -0.18765,   0.06479,   0.00431,  -0.06932,   0.04901,   0.04901,  -0.07984,  -0.06669,  -0.02462,   0.03586,  -0.02988,  -0.05880,   0.00694,   0.14894,  -0.00621,   0.02535,   0.10160,   0.12527,   0.06479,  -0.06932,  -0.04828,   0.12527,  -0.06143,   0.05427,  -0.01147,  -0.04302,  -0.02462,   0.05427,   0.01220,  -0.10613,   0.09109,  -0.04302,   0.00431,  -0.04828,  -0.01936,  -0.05091,   0.05953,  -0.05617,   0.01746,  -0.04828,  -0.03514,   0.00694,   0.03060,   0.13842,   0.07268,  -0.11402,   0.08320,   0.11738,   0.03586,  -0.09562,   0.10686,  -0.06143,   0.16997,  -0.01410,  -0.03514,   0.00694,   0.05953,  -0.05617,  -0.03514,   0.12264,   0.01483,  -0.14821,  -0.03251,   0.07005,  -0.07984,   0.06216,  -0.04039,   0.05164,   0.02272,   0.10949,  -0.04565,  -0.05091,   0.03323,  -0.03514,  -0.05617,  -0.00884,  -0.05617,  -0.08247,   0.20679,   0.03586,   0.02798,  -0.06143,   0.18838,   0.03586,   0.09897,   0.06742,   0.03323,  -0.05091,   0.11212,  -0.05617,  -0.02199,   0.00694,   0.05427,   0.05953,   0.12790,  -0.11139,   0.21205,   0.07531,   0.03849,  -0.03776,  -0.05354,   0.08583,  -0.00095,  -0.02988,  -0.00621,   0.00694,  -0.09825,   0.11738,  -0.08247,   0.12264,   0.05164,   0.06479,   0.12001,   0.15946,   0.06216,   0.04638,   0.02009,   0.01483,   0.10423,   0.19364,   0.07531,  -0.10613,  -0.04828,   0.02798,   0.12264,   0.16734,  -0.06669,  -0.02199,  -0.02725,  -0.07721
   0.08583,   0.01220,   0.10949,   0.11212,   0.03323,   0.00957,   0.04638,   0.05953,  -0.03776,  -0.01673,  -0.05354,   0.02798,   0.00431,  -0.02199,  -0.05354,  -0.01410,   0.04901,  -0.07195,   0.07005,  -0.12717,   0.07005,  -0.00621,  -0.14821,   0.03060,  -0.10876,  -0.03514,  -0.05880,  -0.24287,  -0.14558,  -0.06932,  -0.00621,   0.06742,   0.12001,   0.04375,  -0.06143,   0.12527,  -0.00358,  -0.03514,   0.02009,   0.04112,   0.17523,   0.12001,   0.13579,  -0.01410,   0.00694,   0.02272,   0.04375,   0.14631,  -0.05091,  -0.04039,   0.05953,   0.01220,  -0.01410,  -0.04302,  -0.00621,   0.08320,  -0.07721,   0.07005,  -0.02725,   0.06216,  -0.05617,  -0.02199,   0.12790,  -0.00621,   0.00957,   0.00694,   0.00957,  -0.03514,  -0.05091,  -0.02462,   0.12790,   0.07005,   0.07268,  -0.01673,  -0.09036,   0.04638,   0.04901,   0.03323,   0.12790,  -0.13243,  -0.03776,   0.07005,  -0.03251,  -0.11402,   0.07268,   0.09372,  -0.03251,  -0.02199,  -0.00358,   0.02798,   0.01483,  -0.03251,   0.00957,  -0.04828,  -0.04039,   0.09372,   0.07794,  -0.05091,  -0.03776,  -0.02988,  -0.12454,   0.02535,  -0.03251,   0.05953,   0.07005,  -0.06406,   0.09897,   0.03060,   0.09372,   0.04901,  -0.07195,  -0.09299,   0.15420,   0.20153,   0.05427,  -0.05091,  -0.00358,  -0.00095,   0.07268,   0.13842,   0.01483,  -0.03251,  -0.03251,   0.05427,   0.06479,  -0.00621,  -0.03251,  -0.01673,   0.01746,   0.07005,   0.00431,   0.02009,   0.02535,   0.14105,  -0.02199,  -0.11928,  -0.00884,  -0.05354,   0.04901,   0.00168,  -0.03514,  -0.19817,  -0.01936,   0.11212,   0.08320,   0.00957,   0.02009,   0.01746,  -0.04039,   0.10686,   0.02798,  -0.05617,  -0.07984,  -0.02462,  -0.00621,   0.02009,   0.04901,   0.00168,  -0.07984,  -0.05880,   0.10160,   0.03849,  -0.05880,  -0.07721,   0.13579,   0.00957,  -0.07721,  -0.06406,  -0.13506,   0.00168,  -0.04302,   0.09372,   0.05427,  -0.06932,  -0.10088,  -0.00621,  -0.04565,   0.06742,  -0.02199,   0.00168,   0.02535,  -0.07984,   0.02535,   0.10686,  -0.10876,   0.12527,   0.04375,  -0.04828,   0.08057,  -0.15873,  -0.07984,  -0.07984,  -0.02725,   0.09372,   0.05164,   0.05427,  -0.21658,  -0.00358,  -0.04565,   0.07794,  -0.05354,  -0.05617,  -0.05091,  -0.02988,   0.16734,   0.03323,   0.13316,   0.10423,   0.04112,  -0.11928,   0.12527,  -0.02725,   0.04901,  -0.00095,  -0.03514,  -0.08773,  -0.07195,  -0.07721,  -0.00621,  -0.11139,   0.05427,   0.02009,  -0.02988,   0.10423,  -0.02725,   0.04638,   0.01746,  -0.04828,  -0.02725,   0.08846,   0.09372,   0.04375,  -0.05880,  -0.02988,  -0.07984,   0.01220,  -0.02199,  -0.04039,  -0.10350,  -0.05091,  -0.02199,  -0.02725,  -0.00095,  -0.07458,  -0.09562,   0.03849,  -0.04039,   0.04375,   0.02535,   0.08320,  -0.12980,  -0.02988,  -0.09825,  -0.03514,  -0.07195,  -0.08510
   0.00168,   0.13316,   0.00431,   0.04638,  -0.01147,  -0.01147,  -0.06669,   0.05427,   0.02535,  -0.04302,  -0.05091,   0.02798,  -0.03776,   0.01746,  -0.00884,  -0.10876,  -0.21921,  -0.05091,  -0.05880,  -0.00358,  -0.13506,   0.01220,   0.02798,   0.09897,  -0.09562,  -0.06143,  -0.04565,   0.01746,   0.09109,  -0.09036,  -0.10876,  -0.00621,   0.07531,  -0.11139,   0.08846,   0.03586,  -0.07458,   0.05690,   0.07005,   0.00694,  -0.06406,   0.07005,   0.11212,  -0.01147,  -0.04565,  -0.10876,   0.05164,   0.09109,   0.02798,   0.02798,  -0.05617,   0.05953,   0.09634,   0.03586,  -0.09299,  -0.01673,   0.06479,  -0.02462,  -0.00095,   0.08846,  -0.00358,   0.03323,   0.04638,  -0.04828,   0.13316,  -0.03514,  -0.00095,   0.19101,   0.00168,  -0.14558,  -0.00621,  -0.01936,   0.01746,  -0.05354,  -0.04302,   0.01483,  -0.04039,  -0.10350,  -0.01673,  -0.05617,   0.03586,   0.02009,  -0.02462,   0.03060,   0.03323,  -0.04039,   0.08057,   0.04901,   0.04638,  -0.01147,   0.00431,  -0.06143,  -0.13769,  -0.03251,  -0.09299,  -0.00884,   0.05164,  -0.01673,  -0.02725,   0.00431,   0.12264,  -0.01147,  -0.07195,  -0.02199,  -0.06406,  -0.00621,  -0.03776,  -0.06143,  -0.13506,   0.10160,   0.04375,  -0.04828,   0.08057,   0.08846,  -0.01147,   0.04901,   0.04901,   0.09109,  -0.05617,   0.02535,   0.13842,   0.18838,   0.04375,   0.02272,  -0.06932,   0.03060,  -0.01936,  -0.04039,  -0.02199,   0.10686,   0.01746,   0.01483,  -0.15347,  -0.04039,   0.09109,   0.03323,  -0.00358,  -0.05880,  -0.06406,  -0.15084,  -0.01673,  -0.01147,   0.13842,  -0.08510,  -0.00884,   0.04375,   0.19101,  -0.03514,  -0.09036,  -0.04565,  -0.01147,   0.02535,   0.00957,   0.00431,   0.04638,  -0.03776,  -0.01147,  -0.09036,   0.10686,   0.08583,   0.00168,  -0.00095,   0.08320,  -0.09036,   0.09372,  -0.09036,   0.01483,  -0.09825,  -0.10088,  -0.01410,  -0.06143,   0.04375,  -0.00884,  -0.01936,   0.05953,   0.02535,  -0.06406,   0.01483,  -0.00621,  -0.04828,  -0.10876,  -0.03251,  -0.06143,  -0.06143,  -0.07984,   0.08583,   0.05953,  -0.11665,  -0.07195,   0.07794,   0.10686,   0.01220,  -0.21921,   0.00431,   0.08057,  -0.06669,   0.03849,  -0.04039,  -0.00095,   0.07268,  -0.08773,  -0.01147,   0.00694,  -0.01147,  -0.08773,   0.03323,   0.12527,   0.12790,  -0.00095,  -0.07721,  -0.08510,   0.01746,   0.12001,  -0.02462,   0.05690,  -0.06143,  -0.11402,   0.04901,   0.06216,   0.00694,   0.15420,   0.00957,   0.05164,   0.04901,   0.04638,  -0.02725,   0.02009,  -0.03514,  -0.05617,  -0.00095,  -0.11139,   0.02798,   0.04638,  -0.15610,  -0.01936,  -0.01673,  -0.10613,   0.09372,  -0.01410,  -0.01147,   0.00957,   0.02272,  -0.11402,   0.07268,  -0.03514,   0.02272,   0.00957,   0.17260,  -0.09036,   0.03323,  -0.04565,  -0.09562,   0.05690,  -0.11139,   0.06479,   0.06479
   0.00431,   0.18838,   0.07531,  -0.04565,   0.02009,  -0.16399,  -0.14032,   0.06742,  -0.23498,   0.08320,   0.07794,   0.07794,  -0.02988,  -0.05091,   0.12264,  -0.09299,  -0.09036,   0.09897,   0.00431,   0.00694,   0.05953,  -0.09562,  -0.02725,  -0.09299,   0.12264,  -0.11928,   0.05164,  -0.07195,  -0.05617,   0.10949,  -0.03251,   0.01483,   0.09372,  -0.07458,   0.05164,   0.03060,   0.13316,  -0.06143,  -0.04302,   0.01746,  -0.07458,  -0.11928,   0.02535,   0.01483,  -0.10088,  -0.14295,   0.03323,   0.05164,  -0.07195,   0.01746,   0.02535,  -0.04565,   0.01746,  -0.04565,   0.17523,  -0.07984,   0.06742,  -0.07984,   0.04375,   0.06216,  -0.10613,  -0.03251,  -0.06143,  -0.00095,  -0.01410,   0.17523,   0.01483,   0.01746,   0.02272,  -0.04302,   0.11738,  -0.01147,   0.04638,   0.07531,   0.03323,  -0.11665,   0.16997,   0.25149,   0.04375,  -0.02462,   0.09109,  -0.01936,  -0.11402,   0.00957,  -0.00095,  -0.09036,  -0.07721,  -0.05091,   0.01483,  -0.04039,  -0.04302,   0.03060,   0.03060,  -0.09562,   0.04375,   0.02798,   0.04901,  -0.03776,   0.00694,   0.04901,   0.03586,  -0.04828,   0.04375,  -0.00095,   0.03323,  -0.15084,   0.10686,  -0.18502,   0.04375,   0.01483,  -0.11665,  -0.07195,   0.05953,  -0.14032,  -0.02199,   0.09634,  -0.05617,  -0.02462,  -0.12454,   0.14368,   0.08057,  -0.04302,   0.07531,  -0.04039,  -0.02462,   0.00431,  -0.10613,  -0.11139,   0.05690,   0.11475,   0.00957,   0.14105,   0.02798,   0.03323,   0.09634,   0.12001,  -0.02725,   0.08057,   0.02798,   0.15157,  -0.03514,  -0.08773,   0.01483,   0.04375,  -0.04039,  -0.01147,  -0.01673,  -0.02462,   0.02798,  -0.12980,   0.01483,  -0.00621,  -0.04828,  -0.10876,   0.03060,   0.03323,  -0.10876,  -0.11139,   0.00431,  -0.05354,   0.00957,  -0.06932,   0.07268,  -0.01147,  -0.00095,   0.05427,   0.09634,  -0.01410,  -0.04565,   0.00957,  -0.02725,  -0.08247,  -0.10613,  -0.06932,  -0.05091,  -0.02199,  -0.04302,   0.05690,   0.07531,  -0.05091,  -0.01410,  -0.07458,  -0.01147,   0.09109,   0.07005,   0.06479,  -0.16136,  -0.05617,  -0.03251,   0.00694,  -0.06669,   0.06742,  -0.06406,  -0.02199,  -0.08247,   0.08583,  -0.02462,   0.03849,   0.05690,   0.06479,   0.03849,   0.02272,  -0.08247,  -0.01147,  -0.15873,  -0.07458,   0.05953,   0.00694,  -0.00095,  -0.00358,  -0.10876,  -0.00621,  -0.01147,  -0.17187,   0.13316,   0.15420,  -0.02462,  -0.03514,  -0.04828,   0.10423,   0.07794,   0.03060,  -0.02988,  -0.00884,   0.14894,  -0.01673,  -0.06143,   0.01220,   0.13053,  -0.10350,   0.15420,  -0.04039,  -0.04565,   0.12001,   0.05164,  -0.10350,   0.20942,   0.01483,   0.02009,   0.05164,   0.01220,   0.04112,   0.00957,  -0.00358,  -0.06932,  -0.10350,   0.02009,  -0.04565,  -0.14032,   0.07531,   0.08583,   0.11475,   0.07531,   0.01483,  -0.02462,   0.10949
