   0.13026,  -0.02066,  -0.00131,  -0.04001,   0.08769,   0.01416,  -0.30316,  -0.07871,  -0.03614,   0.10704,   0.09930,  -0.02840,   0.15735,   0.02964,   0.10704,   0.26570,   0.07608,   0.02577,   0.09156,  -0.16771,  -0.10967,   0.11091,  -0.18319,   0.14574,  -0.01292,  -0.03614,   0.21926,  -0.15224,  -0.07097,   0.16509,   0.03738,   0.05286,  -0.02453,   0.08769,  -0.01292,   0.33536,   0.14574,   0.11865,   0.13413,  -0.00905,   0.15735,  -0.11741,  -0.19480,   0.16896,  -0.00905,  -0.16384,   0.10317,   0.11091,   0.21152,   0.18056,   0.03738,   0.04125,   0.07608,   0.11091,   0.08769,  -0.18706,   0.09543,  -0.09419,   0.02577,   0.16122,   0.05673,   0.06834,   0.15735,  -0.04001,   0.06447,  -0.02453,   0.04899,   0.12252,   0.02577,   0.03738,  -0.00518,  -0.09032,  -0.00905,  -0.07871,  -0.16384,   0.00643,  -0.10193,  -0.22576,  -0.00518,   0.09543,  -0.03227,   0.07221,  -0.00131,  -0.13676,   0.07608,   0.01029,   0.01803,   0.01803,   0.06447,  -0.19480,   0.09156,   0.13413,  -0.04001,   0.19604,   0.24635,  -0.08645,   0.01416,   0.06060,  -0.04775,   0.02190,  -0.15224,   0.13026,  -0.04001,   0.13413,  -0.08645,  -0.04001,  -0.26833,   0.09156,  -0.05162,   0.20765,  -0.16384,   0.01029,  -0.11354,   0.08382,   0.02577,  -0.07097,  -0.06710,   0.06060,  -0.09032,  -0.13676,   0.06834,  -0.08645,   0.17670,  -0.06323,  -0.15611,   0.17670,   0.04512,  -0.13289
  -0.13676,  -0.48891,  -0.10193,  -0.15998,   0.04899,  -0.31090,  -0.17158,  -0.09806,   0.25409,   0.19604,   0.15348,   0.13413,  -0.10580,  -0.12128,  -0.26446,   0.06060,  -0.36120,   0.15348,   0.09930,   0.15348,   0.13413,  -0.21028,  -0.08645,  -0.13289,   0.12252,   0.14961,  -0.05936,   0.01803,   0.00643,  -0.15998,  -0.15611,   0.02190,  -0.04775,  -0.10193,   0.01416,   0.31988,   0.11478,  -0.14450,  -0.00518,   0.13800,   0.28118,  -0.00518,   0.03351,   0.06834,   0.18056,   0.17670,   0.02190,  -0.01292,   0.16896,   0.24635,   0.14961,  -0.20254,  -0.20254,   0.12252,   0.02190,  -0.00518,  -0.22189,  -0.03614,  -0.04388,  -0.01292,   0.11865,   0.03351,  -0.12515,  -0.31090,  -0.09032,  -0.16384,   0.04125,  -0.01292,   0.11865,  -0.15224,   0.06447,  -0.14450,  -0.29929,   0.19991,   0.15735,  -0.27220,  -0.05549,   0.34310,   0.00256,  -0.19867,  -0.12902,  -0.05936,   0.49789,   0.45145,   0.30827,   0.04899,   0.01416,   0.20765,   0.16122,  -0.03227,   0.10317,  -0.02840,   0.12639,  -0.10193,   0.03738,  -0.07871,   0.14187,   0.07221,  -0.04388,  -0.01292,  -0.18319,  -0.17158,  -0.12902,   0.08382,   0.14187,  -0.12515,  -0.20254,   0.19604,   0.26957,  -0.14450,  -0.08258,   0.03738,   0.16896,  -0.11354,   0.21152,  -0.04001,   0.18443,  -0.17932,   0.21926,   0.17283,   0.02964,  -0.07484,  -0.04775,  -0.09419,  -0.13676,  -0.21802,  -0.12902,  -0.08645
   0.03738,  -0.05936,  -0.04001,  -0.10193,   0.19217,   0.02964,  -0.00518,  -0.06710,   0.03351,  -0.07097,  -0.09806,   0.14961,  -0.05936,  -0.19867,  -0.27220,   0.06834,  -0.00131,  -0.14063,   0.05673,  -0.02066,   0.15735,  -0.05162,  -0.12902,   0.05286,  -0.00518,   0.04125,   0.37018,  -0.31090,   0.14961,  -0.11741,  -0.19867,   0.12639,   0.04125,  -0.11354,  -0.10580,   0.01416,   0.02577,   0.02964,   0.09156,  -0.03614,   0.04899,  -0.19867,   0.12639,  -0.10193,   0.23087,   0.09156,   0.01416,  -0.09419,  -0.04388,   0.05286,   0.02964,   0.02190,  -0.00518,  -0.04775,   0.12639,  -0.21028,   0.12639,  -0.04001,   0.25409,  -0.17932,   0.26570,  -0.02453,  -0.14837,  -0.03227,  -0.34572,  -0.14837,  -0.23737,   0.07608,  -0.08645,   0.07221,  -0.24511,  -0.26446,  -0.11354,   0.03738,  -0.09032,  -0.16771,   0.09156,  -0.07097,  -0.01679,  -0.00905,   0.26957,  -0.20254,  -0.03614,   0.06834,  -0.11354,   0.11478,  -0.05549,   0.19217,   0.13800,   0.07608,   0.24248,  -0.21415,   0.10704,  -0.13676,   0.21152,  -0.04001,   0.11478,  -0.09419,   0.19217,  -0.07871,   0.20765,  -0.10193,  -0.02453,   0.15735,   0.04125,   0.17283,  -0.02066,   0.17283,   0.08382,   0.07608,  -0.03227,  -0.04388,  -0.04775,  -0.14450,   0.04899,  -0.14837,   0.08769,  -0.06710,   0.04899,  -0.04388,  -0.09806,  -0.09032,   0.19217,   0.12639,   0.00643,  -0.13676,  -0.05162,  -0.04001
   0.02190,   0.02964,   0.09930,   0.04512,  -0.01292,   0.08382,  -0.02453,   0.24635,   0.02190,  -0.14450,   0.06060,  -0.06710,   0.05286,   0.06834,   0.10317,  -0.05549,   0.10317,  -0.00905,   0.12252,  -0.05549,   0.05673,  -0.00131,  -0.19093,   0.04512,   0.20378,   0.10704,   0.06834,   0.17283,   0.04899,  -0.10580,  -0.12902,   0.10704,  -0.07484,   0.02964,  -0.01679,   0.01029,   0.04899,  -0.10193,  -0.30703,   0.03351,  -0.01679,  -0.04388,  -0.02066,  -0.00518,  -0.01679,  -0.02066,   0.06447,   0.21926,  -0.15611,  -0.18706,  -0.00131,  -0.22189,  -0.03227,  -0.10193,   0.00643,   0.02964,   0.06447,  -0.21415,   0.02964,  -0.17158,  -0.05162,   0.03351,   0.07221,   0.02964,  -0.09806,   0.07608,  -0.14450,   0.31988,  -0.16384,   0.04125,   0.04899,  -0.01292,   0.09543,  -0.07097,   0.06447,   0.07221,   0.17283,   0.06834,   0.00643,  -0.04775,   0.01029,  -0.00518,   0.10704,  -0.00905,  -0.21802,   0.02190,  -0.12515,  -0.04388,  -0.05162,  -0.04775,  -0.10193,   0.20765,  -0.15611,   0.07995,  -0.12902,  -0.08258,   0.08382,   0.08769,   0.03738,   0.16896,  -0.14837,   0.09156,   0.09156,   0.00256,  -0.12902,   0.14961,   0.02964,   0.07221,   0.03738,   0.03351,   0.10704,   0.18830,   0.07995,  -0.01292,  -0.02453,   0.01416,   0.05286,  -0.00518,  -0.04775,  -0.06323,  -0.08645,   0.13413,   0.10317,  -0.01679,   0.12252,  -0.05936,   0.03351,  -0.11741
  -0.05936,   0.02964,  -0.04775,  -0.07484,   0.02190,  -0.06710,   0.04125,   0.07995,   0.00643,  -0.06323,  -0.05162,  -0.00131,   0.00643,  -0.03614,  -0.06323,   0.03351,  -0.09419,  -0.00518,   0.09930,   0.01029,   0.04512,   0.19604,  -0.02066,   0.06834,   0.07995,   0.05286,  -0.07871,   0.04899,  -0.10193,  -0.00905,   0.11478,  -0.10580,  -0.00905,  -0.02840,   0.09156,  -0.11354,  -0.12515,   0.01029,   0.04899,  -0.10193,   0.02577,  -0.02453,  -0.13289,  -0.20254,  -0.02066,   0.15348,  -0.01292,  -0.12128,  -0.08258,  -0.09806,   0.03351,   0.03738,   0.03351,  -0.05162,   0.04512,   0.06447,   0.21152,  -0.10967,  -0.14450,   0.00643,   0.19217,  -0.06323,  -0.01679,   0.01416,  -0.09419,  -0.05162,  -0.02840,  -0.07097,  -0.01292,  -0.05162,  -0.03227,   0.10317,   0.04512,  -0.03614,  -0.02453,   0.05673,  -0.11354,  -0.07484,   0.09156,  -0.11354,  -0.10580,   0.09156,  -0.01679,  -0.07097,  -0.04388,   0.04899,   0.03351,   0.16896,   0.03351,   0.12252,  -0.10580,  -0.05549,   0.10317,  -0.05162,   0.06834,  -0.06710,   0.12252,  -0.04001,  -0.05936,   0.23861,   0.06834,  -0.03227,  -0.05549,  -0.10193,  -0.03227,  -0.02840,   0.12252,   0.02190,   0.14187,   0.11478,  -0.17545,  -0.00905,   0.02190,  -0.00518,  -0.07097,  -0.00905,  -0.29155,  -0.16384,   0.21539,  -0.07097,   0.09930,  -0.04388,  -0.00518,   0.02190,   0.04512,   0.03351,  -0.09032,   0.04125
   0.14187,   0.00643,   0.04125,   0.29279,   0.09156,   0.12639,  -0.04775,  -0.00131,  -0.04001,  -0.09806,  -0.01679,  -0.22189,   0.06060,  -0.06323,  -0.08645,  -0.10967,  -0.13676,  -0.13676,   0.07995,  -0.00905,  -0.00905,  -0.13289,  -0.14063,   0.11478,  -0.09032,  -0.03227,  -0.00131,  -0.05936,   0.09156,  -0.04775,   0.04125,   0.10704,  -0.12515,  -0.02066,  -0.10580,  -0.07871,  -0.12128,   0.06447,  -0.21802,   0.06834,  -0.11741,  -0.12128,  -0.12515,   0.06834,  -0.12902,  -0.01292,   0.06447,  -0.06323,   0.05673,  -0.00905,  -0.01292,   0.09930,  -0.00131,   0.09543,  -0.03227,  -0.00131,   0.13413,  -0.15224,  -0.00518,   0.01803,  -0.05549,   0.30440,   0.17670,  -0.08645,   0.06447,   0.08382,   0.10704,   0.04899,  -0.07484,   0.18443,   0.06447,  -0.02840,  -0.14063,  -0.04001,  -0.00131,  -0.14063,  -0.02066,  -0.13676,   0.01803,  -0.07484,  -0.00518,   0.14574,   0.06834,  -0.00518,   0.00643,  -0.12902,  -0.00131,   0.06060,  -0.00131,   0.11865,   0.07995,  -0.31864,  -0.14450,  -0.06710,  -0.09419,   0.22313,   0.14961,  -0.16771,  -0.00905,   0.07995,  -0.02066,   0.04125,  -0.05162,  -0.15224,  -0.19093,  -0.17545,  -0.09419,  -0.10580,  -0.08645,  -0.02453,  -0.13676,  -0.02453,  -0.10967,   0.11865,  -0.17932,   0.01416,   0.14574,   0.04512,   0.02577,   0.14187,  -0.05936,   0.03738,  -0.04388,   0.02190,   0.13026,   0.14574,   0.03738,   0.00256
  -0.20641,   0.14961,   0.03351,  -0.03227,  -0.00131,  -0.03614,   0.29666,  -0.02066,  -0.10967,  -0.08258,  -0.01292,  -0.02453,  -0.06710,  -0.15611,  -0.00131,  -0.02066,   0.29279,  -0.03227,   0.00643,   0.14961,   0.07995,   0.05673,  -0.02066,  -0.02066,   0.11478,   0.14574,  -0.04001,  -0.13676,  -0.06323,  -0.05936,  -0.02453,  -0.06710,  -0.00131,  -0.07871,   0.04125,   0.00643,  -0.14450,  -0.00905,   0.14961,   0.00643,   0.02190,   0.21926,  -0.07484,   0.00643,  -0.10193,   0.21539,   0.05286,   0.00256,  -0.08645,   0.04125,  -0.10193,   0.19217,   0.08769,   0.04125,   0.16896,   0.09930,   0.07608,   0.09930,   0.03351,  -0.02066,   0.10317,  -0.09419,  -0.09419,   0.20765,  -0.05162,   0.01416,  -0.09032,  -0.04388,  -0.00131,   0.09543,   0.18443,   0.14961,   0.14574,  -0.23350,  -0.04388,   0.34310,  -0.25285,   0.06060,  -0.04001,  -0.05936,   0.06060,  -0.15611,  -0.15611,   0.07221,  -0.04775,  -0.04001,  -0.09032,  -0.02453,   0.19604,  -0.10193,  -0.10580,  -0.09419,   0.14574,  -0.02066,  -0.01292,  -0.05936,   0.21152,  -0.02840,  -0.04001,  -0.14837,   0.20378,  -0.09806,   0.01029,  -0.01679,   0.14187,   0.19604,   0.10317,  -0.04001,   0.15735,   0.01416,  -0.00518,   0.11865,  -0.08645,  -0.07871,   0.07608,  -0.05936,  -0.04388,  -0.04001,  -0.08258,  -0.15224,  -0.01292,  -0.33798,  -0.14837,  -0.03614,  -0.21415,  -0.08645,   0.01803,  -0.03227
  -0.14837,  -0.01292,   0.00256,  -0.10580,  -0.03614,  -0.10967,   0.01803,   0.00256,  -0.09806,  -0.00905,  -0.15611,   0.08382,   0.11091,   0.02190,   0.09156,   0.30053,   0.10704,  -0.07097,  -0.00518,   0.05673,  -0.17932,  -0.13289,  -0.05162,  -0.25672,   0.09543,   0.19217,   0.13413,   0.10704,   0.01803,  -0.01292,  -0.09806,   0.05673,   0.06447,   0.17670,   0.07221,   0.01029,  -0.10193,  -0.16771,   0.04125,   0.09156,   0.03351,  -0.02840,   0.16122,  -0.07484,  -0.13289,  -0.08258,  -0.07097,  -0.02453,   0.10704,  -0.06323,  -0.07484,   0.16122,   0.21539,   0.06060,  -0.05162,   0.21152,  -0.21028,   0.11091,  -0.16771,  -0.02066,   0.01416,   0.10317,   0.14574,  -0.15998,  -0.07871,  -0.04388,  -0.05936,   0.04512,   0.06060,  -0.07871,   0.00256,  -0.00518,   0.11091,  -0.11741,  -0.01292,  -0.10193,  -0.15224,   0.29279,  -0.03614,  -0.06323,  -0.12515,  -0.00518,   0.13413,  -0.11741,  -0.05549,   0.04512,   0.15735,   0.01803,  -0.04388,   0.07995,  -0.08645,   0.06834,   0.23087,   0.23861,  -0.13676,   0.15348,  -0.18319,   0.00643,   0.10317,   0.01803,  -0.09806,  -0.13289,   0.15735,  -0.03227,   0.08382,  -0.31477,  -0.04388,  -0.10193,   0.03738,  -0.17545,   0.09156,  -0.06710,   0.06447,   0.01803,  -0.02453,  -0.11354,   0.03738,  -0.09419,  -0.09806,   0.01803,   0.02964,  -0.23737,  -0.02840,  -0.15224,   0.06447,   0.13800,   0.11091,   0.01029
   0.00643,  -0.12128,   0.16509,  -0.11354,  -0.24124,  -0.10967,   0.04512,   0.18056,   0.08769,   0.20765,  -0.16384,   0.00643,  -0.19867,   0.09543,   0.02577,   0.09930,  -0.03227,  -0.23350,   0.01803,  -0.01679,   0.13026,  -0.21802,  -0.15611,  -0.02453,   0.14961,   0.07995,  -0.06323,   0.07221,   0.14574,   0.07608,  -0.08645,  -0.24898,  -0.11741,  -0.04388,  -0.14063,  -0.01679,   0.04125,  -0.12902,  -0.06710,   0.19604,   0.19217,  -0.04001,  -0.02066,   0.03738,   0.08769,   0.09543,   0.02190,  -0.13676,  -0.00905,   0.01803,  -0.06323,  -0.24124,   0.13413,  -0.09806,  -0.03614,   0.13413,   0.06447,  -0.32638,   0.01029,  -0.04388,   0.02964,  -0.11741,  -0.24511,   0.16122,  -0.00905,   0.09156,   0.05673,   0.02964,   0.12252,  -0.04775,  -0.20641,  -0.00518,   0.19217,   0.03351,   0.15348,  -0.13289,   0.00643,   0.30053,  -0.07097,   0.12252,   0.07608,   0.05286,   0.11865,  -0.02453,  -0.08258,   0.06834,   0.11091,   0.04512,  -0.19867,  -0.09806,  -0.09419,  -0.01292,   0.03738,   0.11865,   0.08382,  -0.14837,   0.04899,   0.00256,  -0.15611,  -0.14063,  -0.00905,  -0.16771,  -0.07484,   0.20765,   0.06834,   0.12639,   0.23861,  -0.02066,   0.26183,   0.10704,  -0.01679,  -0.11354,  -0.22189,   0.00643,  -0.24124,  -0.07484,  -0.07871,  -0.08645,  -0.28381,   0.00256,   0.01029,  -0.10193,  -0.03614,  -0.08258,   0.00643,  -0.12902,  -0.12902,   0.00256
  -0.24898,  -0.02066,   0.07608,  -0.12902,   0.07221,  -0.08258,   0.12252,   0.11865,  -0.22576,   0.00643,   0.04899,  -0.02453,  -0.03614,  -0.10193,  -0.08645,  -0.15998,   0.06834,  -0.15998,   0.18443,   0.05673,   0.01029,   0.03738,   0.08382,   0.18443,  -0.08645,   0.07221,   0.04125,   0.30827,  -0.16771,   0.13413,  -0.13289,   0.00643,  -0.04001,   0.18056,  -0.08258,   0.09156,   0.05673,  -0.00131,   0.06060,  -0.12515,  -0.01679,   0.10317,   0.17670,   0.17670,  -0.06710,   0.19991,  -0.03614,   0.14961,  -0.00518,   0.08769,  -0.02066,  -0.08258,   0.02190,   0.04125,  -0.20254,   0.01803,  -0.02840,  -0.10580,  -0.18706,  -0.03227,  -0.04388,   0.08769,   0.12639,   0.08382,   0.15735,   0.04512,   0.05286,   0.07608,   0.10317,  -0.08258,  -0.09032,  -0.00905,   0.26570,   0.01029,  -0.09419,  -0.11741,   0.26183,  -0.02453,   0.05673,   0.07221,  -0.04775,   0.05673,   0.10704,   0.10704,   0.03738,   0.07995,  -0.25672,  -0.31864,   0.15735,  -0.18319,   0.08382,   0.01803,  -0.12128,  -0.04388,  -0.00905,   0.11865,  -0.17545,   0.00643,  -0.05162,  -0.08645,  -0.02453,  -0.10580,   0.13800,  -0.08645,  -0.09419,   0.07221,  -0.28381,  -0.01292,   0.17283,  -0.05936,   0.10704,   0.06834,   0.07995,   0.08382,   0.07995,   0.02577,   0.00643,   0.13413,   0.13413,  -0.14837,   0.00256,  -0.16384,   0.07995,  -0.06710,  -0.07484,  -0.20641,   0.05673,  -0.21415
  -0.00518,  -0.15224,   0.02964,  -0.18319,  -0.05936,   0.06447,   0.01803,   0.03351,  -0.24511,  -0.08645,  -0.02840,  -0.12515,   0.14961,   0.00643,   0.03351,   0.03351,   0.10704,  -0.10580,   0.08769,   0.01803,  -0.13289,  -0.12515,   0.14574,  -0.00905,  -0.01292,   0.09543,  -0.07871,  -0.18319,  -0.02453,   0.25409,  -0.17932,  -0.21028,   0.11478,  -0.10967,  -0.00518,  -0.10580,   0.21152,   0.05673,  -0.00905,  -0.15611,  -0.12515,   0.06447,   0.05286,  -0.09419,  -0.07484,  -0.13676,   0.27344,  -0.20641,   0.04125,  -0.19480,  -0.17932,  -0.08258,  -0.09032,   0.19991,  -0.03227,   0.06060,   0.12252,  -0.07484,   0.13800,   0.10704,  -0.14063,  -0.11354,  -0.05162,  -0.12128,   0.11865,   0.04512,  -0.02840,   0.02577,   0.16122,  -0.02840,   0.07608,  -0.26833,   0.13413,   0.19217,  -0.18319,   0.11091,   0.00643,  -0.00518,  -0.05936,   0.01029,  -0.09419,  -0.20254,   0.03738,  -0.12128,   0.00643,   0.09930,  -0.22963,   0.16122,  -0.02066,  -0.10967,  -0.04001,  -0.09806,  -0.03614,  -0.09806,  -0.14837,  -0.04775,   0.16122,  -0.14837,  -0.12515,   0.01416,  -0.01679,  -0.17158,  -0.10967,  -0.08258,   0.06060,   0.14187,  -0.07871,   0.07608,   0.08382,   0.26183,  -0.27607,  -0.08258,  -0.08258,  -0.12128,  -0.05936,   0.05286,   0.16896,  -0.15611,  -0.00905,   0.00256,  -0.25285,  -0.16384,  -0.16771,   0.18830,  -0.05549,   0.13800,  -0.10967,  -0.00518
  -0.05549,  -0.27220,  -0.17545,  -0.03227,   0.15348,  -0.15998,   0.11091,  -0.01679,  -0.06710,  -0.38055,  -0.24124,  -0.31090,   0.16509,  -0.19480,  -0.01292,  -0.19480,  -0.09419,   0.09543,   0.00256,   0.17670,  -0.05936,   0.04125,  -0.11354,   0.21539,  -0.19480,  -0.05162,  -0.06323,  -0.22963,  -0.15998,  -0.19867,   0.13026,  -0.16384,  -0.04388,  -0.13289,   0.08382,  -0.20254,   0.13800,  -0.12902,   0.02964,   0.03351,  -0.02066,  -0.03227,  -0.00905,   0.02964,  -0.01292,   0.07995,   0.03351,  -0.04388,   0.10704,  -0.04388,   0.02577,   0.06834,  -0.04775,   0.40501,  -0.14837,   0.15735,   0.11865,  -0.02066,   0.29666,  -0.15998,   0.16509,   0.05673,  -0.09419,  -0.19867,   0.06447,   0.32375,   0.04899,   0.02964,   0.20765,  -0.01679,   0.02577,  -0.02066,   0.23474,   0.32762,   0.02190,  -0.07871,  -0.06710,  -0.20254,   0.14574,   0.19604,  -0.15224,   0.02190,  -0.04388,  -0.10580,   0.04125,  -0.07871,   0.17283,   0.11091,  -0.05162,   0.18056,  -0.02840,  -0.01679,   0.17670,   0.05673,   0.03738,  -0.11354,  -0.03614,  -0.12515,  -0.06323,  -0.01292,   0.02964,  -0.02840,   0.23087,   0.00643,  -0.11741,  -0.04388,  -0.18706,   0.00643,  -0.14450,  -0.12902,  -0.10967,  -0.07097,   0.01029,  -0.13289,   0.09930,   0.17670,  -0.24511,   0.34310,  -0.19867,  -0.10580,  -0.21028,  -0.12128,  -0.02453,   0.26183,   0.02190,  -0.02453,   0.05673,   0.15348
  -0.00131,   0.18830,  -0.04388,  -0.14450,   0.12252,  -0.00905,   0.14187,  -0.06323,   0.10317,  -0.10580,   0.03351,   0.16896,  -0.12515,  -0.04001,   0.25409,  -0.14063,  -0.09032,   0.12252,  -0.07097,   0.15735,   0.19217,   0.14574,  -0.03614,  -0.12515,   0.19604,  -0.13676,   0.12252,   0.01029,  -0.14063,  -0.22963,  -0.01292,   0.02190,  -0.11354,  -0.11354,  -0.13289,  -0.00131,   0.08382,  -0.05162,  -0.03614,  -0.05162,  -0.04001,   0.00643,  -0.04775,  -0.14063,  -0.29929,   0.00643,   0.07608,  -0.10967,  -0.09806,  -0.05936,  -0.21415,   0.03738,   0.06060,  -0.09419,  -0.13289,   0.25796,   0.00256,  -0.00905,   0.07995,   0.01029,   0.21926,  -0.02066,   0.01029,  -0.12902,   0.07995,  -0.00131,   0.21926,  -0.08258,   0.23087,   0.14574,   0.23861,   0.03351,  -0.04001,  -0.07097,  -0.05162,   0.07221,  -0.09806,   0.04512,   0.04899,   0.11091,  -0.17545,  -0.01679,  -0.13289,   0.16509,  -0.19093,  -0.10967,  -0.05549,   0.05673,   0.03738,   0.04899,  -0.09419,  -0.19480,   0.04512,   0.01803,   0.00256,  -0.09806,   0.06834,   0.09543,  -0.09419,   0.05673,   0.15735,   0.09930,  -0.07871,   0.08382,   0.01803,  -0.03614,   0.02964,   0.34697,   0.11478,  -0.03227,   0.02190,  -0.09032,  -0.04775,  -0.03614,  -0.17545,  -0.06323,  -0.14837,   0.08382,   0.12252,  -0.12902,   0.11091,  -0.14450,   0.06834,   0.03351,   0.19604,  -0.06710,   0.03738,  -0.21802
  -0.04001,   0.06447,   0.12639,   0.21539,   0.16896,   0.15348,  -0.03614,   0.07995,  -0.02066,  -0.14450,   0.08769,  -0.17545,   0.17283,   0.04899,   0.13413,  -0.16384,   0.02577,  -0.05549,  -0.09032,  -0.09032,   0.21152,  -0.06710,   0.07608,  -0.02453,   0.08769,   0.08769,  -0.02066,   0.01803,  -0.19480,  -0.15998,   0.06060,   0.00256,   0.10317,   0.15348,   0.00643,  -0.07484,  -0.04001,  -0.06323,  -0.03614,  -0.09419,  -0.16771,  -0.04001,   0.31214,   0.00256,   0.02190,   0.01416,   0.07221,   0.01029,   0.18056,   0.07608,  -0.18319,  -0.04001,  -0.04388,   0.02190,   0.19217,  -0.14063,   0.08382,  -0.21028,  -0.00131,  -0.15224,  -0.14837,  -0.19093,   0.05673,  -0.08645,   0.26183,   0.07995,   0.09156,  -0.10580,  -0.07097,  -0.12128,   0.15348,  -0.17545,  -0.07871,   0.08769,   0.14574,  -0.14837,   0.08769,  -0.14063,   0.27344,   0.31601,   0.01803,   0.22313,  -0.17545,  -0.02066,   0.13800,   0.00643,  -0.10193,  -0.16771,  -0.43086,   0.15735,   0.01416,   0.01803,   0.03351,  -0.04001,  -0.03614,   0.05673,   0.18443,  -0.01679,   0.03738,  -0.02453,  -0.10967,   0.02964,   0.03351,  -0.13289,   0.00256,   0.23861,  -0.14063,   0.07608,   0.06060,  -0.17932,   0.00256,   0.10704,   0.01803,  -0.04388,  -0.09806,   0.04512,  -0.15998,   0.23087,  -0.14450,   0.02577,   0.09543,   0.19217,   0.06060,   0.24635,   0.00256,   0.00643,   0.01416,   0.00256
   0.04899,  -0.06323,   0.15735,   0.05286,  -0.19093,   0.21926,  -0.04388,   0.13026,  -0.07484,   0.18443,  -0.01292,  -0.00131,  -0.11354,  -0.06323,  -0.09806,  -0.12515,  -0.08258,  -0.10580,  -0.06323,   0.06060,   0.13413,   0.20378,  -0.00905,   0.11091,   0.02577,   0.06060,  -0.15224,   0.09930,   0.17283,   0.04125,  -0.12515,   0.14187,  -0.09032,  -0.06323,  -0.02453,  -0.05549,   0.15348,   0.02190,  -0.02066,  -0.04001,  -0.05162,  -0.16771,   0.02190,   0.07608,  -0.08645,   0.04512,  -0.05162,   0.00643,  -0.09419,  -0.01292,   0.14187,  -0.00905,  -0.02066,   0.16122,   0.00643,  -0.04388,  -0.07871,   0.01416,  -0.04775,   0.15348,   0.02577,   0.00256,  -0.03614,  -0.05549,  -0.05549,   0.08769,   0.13026,   0.27344,  -0.19480,  -0.07484,  -0.00518,   0.02964,  -0.05162,  -0.05936,  -0.06323,   0.13026,   0.14961,   0.18830,   0.06060,   0.16509,  -0.15611,  -0.14063,  -0.10193,  -0.00131,  -0.23350,   0.23861,   0.25022,   0.16896,   0.14961,   0.16122,   0.07221,   0.05673,  -0.29155,   0.17283,  -0.11354,   0.03351,   0.13800,  -0.05936,   0.07995,  -0.02066,  -0.06323,   0.02190,   0.25022,  -0.08258,  -0.20641,  -0.17545,   0.06834,   0.01803,   0.05673,   0.02577,  -0.11741,   0.17283,  -0.16771,   0.20378,  -0.09806,   0.18443,   0.07995,  -0.02066,  -0.10580,  -0.15998,   0.05286,  -0.02453,   0.11478,  -0.03227,  -0.06710,  -0.17545,  -0.25285,   0.07221
  -0.15998,  -0.14837,   0.01803,   0.19217,   0.11478,   0.19604,  -0.20254,  -0.11741,  -0.10193,  -0.14837,  -0.08258,  -0.04775,  -0.06710,  -0.15998,   0.24248,  -0.07097,   0.06447,  -0.18706,   0.05673,  -0.01679,   0.11865,   0.07995,  -0.19480,  -0.07871,  -0.05549,   0.12252,  -0.20641,  -0.01292,   0.06834,  -0.02066,  -0.02840,  -0.07871,   0.00643,  -0.09419,   0.06060,  -0.16384,   0.07221,  -0.02840,   0.10317,   0.17670,   0.22700,   0.13413,  -0.07097,   0.13413,   0.03351,  -0.20641,  -0.03614,   0.07995,   0.20765,  -0.17158,  -0.08258,   0.10317,   0.13800,  -0.15611,   0.04899,  -0.00905,   0.07608,  -0.01679,  -0.21415,  -0.03614,  -0.21415,   0.01029,  -0.00131,   0.06834,  -0.17545,  -0.10580,  -0.06323,   0.19991,   0.13026,  -0.02453,   0.02577,  -0.14450,   0.03738,  -0.08258,   0.08769,  -0.06323,  -0.04775,   0.09930,   0.18830,  -0.02453,   0.15348,  -0.03614,   0.10317,  -0.04001,   0.01416,  -0.06710,  -0.12515,   0.11865,  -0.12902,  -0.12902,  -0.09032,  -0.02453,  -0.10580,   0.12639,   0.20378,  -0.04001,   0.03351,  -0.03227,   0.02577,   0.14187,  -0.05162,   0.10704,   0.14187,   0.04125,   0.01803,  -0.01679,  -0.01679,  -0.06710,  -0.02066,  -0.09806,  -0.01292,  -0.07484,   0.05286,  -0.03614,  -0.01679,  -0.14450,  -0.10193,  -0.07871,   0.09543,  -0.07484,  -0.07097,  -0.29542,   0.09930,  -0.20641,   0.01416,  -0.00518,   0.01029,  -0.01679
  -0.06323,  -0.12128,  -0.04388,   0.05286,   0.18056,   0.15735,  -0.02840,   0.13026,  -0.02066,   0.08382,   0.03351,  -0.26446,   0.11091,  -0.05936,   0.14961,  -0.01679,  -0.00518,  -0.19480,   0.12252,  -0.00518,  -0.03614,   0.05286,  -0.10580,   0.28892,  -0.11354,   0.15348,  -0.12515,  -0.15224,  -0.07871,  -0.04775,   0.06060,  -0.11741,   0.00643,   0.00256,   0.13026,  -0.03614,  -0.00905,   0.07221,   0.08769,   0.05673,   0.04899,  -0.09032,   0.04899,  -0.15224,  -0.05936,   0.13026,   0.17670,  -0.09419,  -0.15998,   0.02964,   0.06060,  -0.14450,   0.00643,  -0.03614,   0.13413,   0.13800,   0.02190,  -0.13676,   0.06834,   0.07995,   0.12252,  -0.00905,  -0.15224,   0.02190,   0.01416,  -0.17158,  -0.08258,  -0.02453,   0.07608,   0.21539,   0.01416,  -0.09806,  -0.07484,   0.17283,  -0.02066,   0.05673,   0.10317,  -0.03227,  -0.00131,   0.05673,   0.00643,   0.26183,   0.18056,  -0.04001,  -0.17158,   0.01416,   0.16509,  -0.12902,   0.30827,  -0.07097,   0.08382,  -0.17545,  -0.14837,   0.03738,  -0.13289,  -0.05936,   0.20765,   0.00256,   0.01803,   0.02577,   0.03738,  -0.09032,   0.01803,   0.15735,  -0.13289,   0.07608,   0.19217,  -0.09419,  -0.11741,  -0.01679,  -0.11741,  -0.06323,   0.26183,  -0.22576,  -0.17158,   0.13026,   0.09930,   0.06834,  -0.02066,   0.03738,  -0.01679,  -0.16771,  -0.10967,  -0.15611,  -0.06710,  -0.02840,  -0.21415,  -0.14837
  -0.06710,   0.19604,  -0.05549,  -0.05936,   0.01029,  -0.04001,  -0.05936,  -0.04001,   0.11865,  -0.00518,   0.13413,  -0.07484,  -0.12902,  -0.07097,  -0.10193,   0.23087,   0.16122,  -0.03227,   0.00643,   0.00256,   0.09543,  -0.13676,  -0.21802,   0.07995,  -0.21415,  -0.00518,  -0.02840,  -0.10580,   0.06447,   0.21539,   0.10317,   0.06060,  -0.01679,  -0.04775,   0.05673,   0.03351,  -0.05549,   0.11091,  -0.04001,   0.01416,   0.06447,  -0.12515,   0.10704,  -0.07484,   0.04512,  -0.19867,  -0.00131,  -0.09806,   0.05673,   0.09930,   0.28892,   0.18056,  -0.00131,   0.02964,  -0.24124,  -0.08645,   0.00643,   0.18443,   0.01416,  -0.06323,  -0.14063,   0.11478,  -0.10193,  -0.09419,  -0.19480,   0.13800,  -0.09419,  -0.12902,  -0.11741,  -0.00905,   0.01803,  -0.09806,   0.09156,  -0.19867,  -0.23737,   0.26183,   0.18056,   0.29279,   0.16896,   0.10317,   0.09156,  -0.09032,  -0.00518,  -0.11354,  -0.17932,  -0.05936,   0.09156,   0.03738,  -0.00518,  -0.07484,   0.12252,  -0.12515,  -0.21028,   0.00643,  -0.00518,  -0.00518,   0.01029,  -0.24511,   0.03351,   0.06834,   0.00256,  -0.07097,   0.28892,   0.24248,  -0.09806,   0.18830,   0.07995,  -0.03227,  -0.02840,   0.02964,  -0.26446,   0.08769,  -0.16771,  -0.14450,   0.02964,   0.06447,  -0.01679,   0.04125,  -0.08645,  -0.14837,  -0.10580,  -0.00518,   0.04899,   0.04125,   0.07608,   0.00256,  -0.17932,   0.29666
  -0.04388,  -0.04001,  -0.05162,  -0.03227,   0.19604,  -0.05162,  -0.06710,   0.14187,  -0.00131,  -0.22963,  -0.14450,  -0.02840,   0.11865,  -0.04388,  -0.02066,   0.06447,  -0.12515,  -0.03614,  -0.04001,  -0.17545,   0.22700,   0.18443,   0.25022,   0.00256,  -0.11354,  -0.02066,  -0.15611,  -0.01292,  -0.08258,  -0.05162,  -0.04775,  -0.04001,  -0.14063,   0.17283,  -0.01679,   0.04512,   0.02577,  -0.01679,   0.07995,   0.13800,   0.10704,   0.14961,   0.11478,   0.13026,   0.11478,  -0.08258,  -0.11741,   0.08769,  -0.08258,  -0.17158,   0.08769,  -0.04775,   0.02577,  -0.03227,   0.02964,   0.03738,  -0.21028,   0.04512,  -0.07097,  -0.19867,   0.01803,   0.08769,  -0.04001,  -0.01292,   0.11865,   0.08382,  -0.10580,  -0.18706,   0.09156,   0.01029,  -0.11741,  -0.09032,  -0.02066,   0.14187,  -0.24124,   0.14574,   0.02577,  -0.05936,   0.15735,  -0.23737,   0.12252,  -0.20641,   0.03351,   0.13413,   0.00643,  -0.16771,   0.23861,   0.07995,  -0.05162,  -0.03227,  -0.05162,   0.12639,   0.03351,   0.21926,   0.01029,   0.16509,   0.16122,   0.29666,   0.09543,  -0.04775,  -0.13676,  -0.02453,  -0.05549,  -0.02066,   0.01029,   0.02577,  -0.03227,  -0.05936,  -0.02066,  -0.08258,  -0.01292,   0.09543,   0.08769,  -0.15611,   0.09930,   0.00643,   0.04512,  -0.04001,  -0.03614,   0.22700,  -0.19093,   0.06447,  -0.27220,  -0.11354,  -0.10967,   0.17670,   0.01416,  -0.05162
  -0.09806,  -0.10580,  -0.17158,  -0.19093,   0.03351,  -0.14837,   0.21152,  -0.06323,  -0.02840,   0.20765,   0.17283,   0.01803,   0.04125,   0.18056,   0.11478,   0.04125,  -0.17932,   0.04512,  -0.14837,   0.00643,  -0.07871,   0.09543,   0.14961,   0.09156,   0.16509,  -0.11354,   0.31214,   0.08382,   0.07221,   0.07995,   0.03738,   0.04125,  -0.09419,   0.06060,  -0.27220,   0.06060,  -0.06323,  -0.10193,   0.22313,   0.19217,  -0.03227,   0.12639,  -0.10580,  -0.19093,   0.11091,  -0.05162,   0.12639,  -0.14063,  -0.00905,  -0.09419,  -0.21028,  -0.16384,  -0.04775,  -0.06323,   0.08769,   0.09156,   0.00643,   0.04899,  -0.02453,  -0.24511,  -0.05936,   0.06447,  -0.08258,  -0.13676,   0.13026,  -0.04388,   0.04512,  -0.23737,   0.05673,  -0.10580,   0.17670,  -0.16771,  -0.00131,  -0.10580,  -0.15998,   0.19217,  -0.07484,   0.05673,   0.05286,   0.21152,   0.05286,  -0.11741,   0.16896,   0.05673,   0.03738,  -0.01292,   0.06834,   0.12252,  -0.11354,   0.10317,   0.32762,   0.07221,  -0.17932,  -0.19480,   0.19991,   0.01803,   0.02190,  -0.00131,  -0.23350,  -0.09419,   0.14187,   0.09543,  -0.02840,  -0.10580,   0.00256,  -0.01679,  -0.07097,   0.07995,  -0.08645,  -0.06323,  -0.12902,  -0.04775,   0.17670,   0.07608,   0.11091,   0.02964,  -0.02453,   0.19604,  -0.17545,  -0.25672,  -0.04775,   0.05286,  -0.15224,   0.05286,  -0.08645,  -0.07097,  -0.12515,  -0.09032
  -0.18319,   0.20378,  -0.07871,  -0.37281,   0.13026,  -0.24124,  -0.02840,   0.11478,  -0.02840,  -0.21028,  -0.06710,  -0.06710,   0.19604,   0.09543,  -0.20254,   0.02964,   0.12252,  -0.00131,  -0.07871,  -0.17158,  -0.01292,  -0.10967,  -0.00131,   0.02190,  -0.04001,  -0.10193,  -0.07871,  -0.00131,  -0.01292,   0.06447,   0.04512,   0.00256,   0.00256,   0.02577,   0.02577,  -0.16384,  -0.15998,  -0.15998,   0.04125,   0.18830,  -0.06323,   0.12252,  -0.02066,  -0.05936,   0.21152,  -0.24898,   0.09930,  -0.10967,  -0.14837,   0.18056,   0.11865,  -0.04001,   0.01029,   0.05673,   0.07221,   0.09156,  -0.26833,   0.02964,   0.33149,   0.03351,  -0.02066,   0.02964,  -0.01679,   0.16122,  -0.04388,   0.10704,  -0.09032,  -0.01292,  -0.05549,   0.11091,  -0.01679,  -0.29542,   0.14187,   0.13800,  -0.22963,   0.06447,   0.17283,  -0.11741,   0.09543,  -0.03227,  -0.06323,   0.00643,  -0.02066,   0.12639,  -0.28768,  -0.06710,  -0.09419,  -0.21415,  -0.19480,  -0.12128,  -0.18706,   0.01803,   0.02964,   0.03351,   0.00256,   0.12252,  -0.00131,   0.15735,   0.11091,  -0.20254,  -0.00905,   0.22313,   0.00643,   0.01416,  -0.09032,  -0.15611,  -0.05936,  -0.08645,  -0.07871,   0.03738,  -0.14063,  -0.02840,  -0.03614,   0.18443,  -0.15224,  -0.18319,  -0.06323,   0.07995,  -0.06710,  -0.12128,   0.01029,  -0.00518,  -0.00518,   0.13800,  -0.07097,   0.04899,   0.09930,  -0.17932
   0.26570,  -0.03227,   0.17670,  -0.03614,   0.21152,  -0.06323,  -0.24124,  -0.09806,   0.06060,  -0.07871,  -0.13289,  -0.02840,  -0.10580,   0.06447,  -0.10967,  -0.07871,  -0.03614,  -0.02066,   0.00256,   0.27344,  -0.04775,   0.22313,   0.06834,   0.19217,   0.14574,  -0.09806,  -0.05162,  -0.06710,  -0.00905,   0.01029,   0.14961,   0.19604,  -0.11354,   0.17670,   0.04512,  -0.02840,  -0.07097,  -0.02840,  -0.10580,   0.16122,   0.09930,  -0.13676,   0.04125,   0.04899,  -0.09032,  -0.05936,  -0.10967,   0.17670,   0.01029,  -0.00905,  -0.12515,  -0.17932,   0.33923,   0.06834,  -0.07097,   0.01416,  -0.12128,  -0.14837,   0.05673,  -0.07871,  -0.05162,  -0.04001,   0.13800,   0.00643,   0.04125,  -0.02840,  -0.26833,   0.02964,   0.08382,   0.05286,  -0.14450,   0.07608,   0.17670,  -0.10967,   0.02577,   0.12252,   0.03738,   0.21926,   0.28892,  -0.22576,  -0.07871,   0.05286,   0.12252,  -0.17545,   0.02577,   0.13026,  -0.07871,   0.09930,   0.19991,  -0.07871,  -0.07484,   0.14574,  -0.02066,  -0.02453,  -0.02066,  -0.13289,  -0.19480,   0.03351,  -0.00131,  -0.03227,  -0.26833,   0.01029,  -0.08258,  -0.12128,   0.04125,   0.00643,  -0.05162,   0.00256,   0.11091,  -0.06710,   0.25796,   0.02577,  -0.22189,   0.05673,  -0.09032,  -0.09032,   0.10317,   0.26183,   0.05673,   0.05286,  -0.15224,  -0.04388,  -0.13289,   0.11091,  -0.03227,  -0.02066,  -0.12902,   0.15735
   0.13026,   0.26570,   0.12252,  -0.18706,  -0.14450,  -0.25285,  -0.05936,   0.07995,   0.07608,   0.03738,  -0.33025,  -0.07097,   0.01416,   0.01416,  -0.15224,   0.09543,  -0.10193,   0.09156,  -0.12902,  -0.17158,  -0.02840,  -0.03227,  -0.03614,   0.13800,  -0.03227,  -0.04775,   0.01803,   0.05286,   0.00643,  -0.19480,  -0.15224,  -0.04775,   0.16896,   0.05673,   0.04512,  -0.00518,   0.00643,  -0.31477,  -0.07871,   0.12639,  -0.06710,   0.03738,  -0.06710,  -0.16771,  -0.12128,   0.21152,   0.13026,  -0.10580,   0.05286,  -0.18706,   0.00256,  -0.11741,  -0.05936,   0.05673,  -0.16771,  -0.01679,  -0.05549,  -0.00905,   0.12639,   0.08769,  -0.10580,   0.09930,  -0.06323,  -0.16771,   0.15348,  -0.08645,   0.02964,   0.12639,  -0.17158,   0.02190,  -0.02453,   0.05286,  -0.05549,  -0.00131,  -0.16384,  -0.09032,  -0.12902,   0.00256,   0.11478,   0.17283,   0.06447,  -0.00905,   0.10317,  -0.07484,   0.02964,  -0.09032,  -0.04775,  -0.06710,   0.11865,   0.00643,  -0.04388,  -0.01679,  -0.12128,   0.10704,   0.14187,  -0.04775,   0.05673,   0.01416,  -0.11741,   0.06060,  -0.02066,   0.05286,   0.02964,   0.02577,   0.11091,   0.07221,  -0.12515,  -0.10580,   0.06060,  -0.04388,  -0.21802,   0.02577,   0.31601,  -0.01292,  -0.10967,  -0.07097,  -0.10193,   0.07221,  -0.00518,  -0.19867,   0.06060,   0.00643,  -0.07097,  -0.07484,   0.07221,   0.07608,   0.00256,  -0.12515
  -0.09419,   0.06447,  -0.04001,   0.02964,   0.00643,  -0.18319,  -0.05549,   0.04512,   0.21539,  -0.01292,  -0.04775,  -0.07097,  -0.15611,  -0.09032,  -0.05936,  -0.11354,  -0.00905,   0.09156,  -0.04001,   0.12252,   0.06834,   0.07221,   0.16896,  -0.21028,   0.18830,  -0.03227,   0.06447,  -0.07097,  -0.19480,   0.11478,  -0.18319,  -0.02453,  -0.17545,  -0.02453,  -0.10193,   0.02190,  -0.15998,   0.00643,  -0.15224,   0.16896,   0.03738,   0.18056,   0.13026,  -0.05549,   0.01416,   0.05673,  -0.00905,   0.04512,   0.00256,   0.05673,   0.28505,  -0.11354,   0.13026,  -0.08258,  -0.05936,  -0.19867,  -0.09419,   0.07221,   0.13413,  -0.15611,   0.10317,   0.06060,  -0.00518,  -0.15611,   0.03738,   0.06834,   0.00256,   0.16509,   0.19217,   0.02190,   0.08382,  -0.08645,  -0.14063,   0.07995,  -0.03614,   0.08769,   0.12639,   0.03738,  -0.00518,  -0.12902,   0.15348,  -0.00518,  -0.12902,   0.11478,  -0.08258,  -0.08258,  -0.10967,   0.06060,   0.01029,  -0.27607,  -0.10580,   0.02577,  -0.01292,  -0.02840,  -0.14450,  -0.02840,  -0.02066,   0.16509,   0.09930,  -0.21802,  -0.07484,  -0.21028,  -0.05549,  -0.02453,  -0.09419,  -0.03614,   0.03351,   0.28892,   0.07995,   0.13026,  -0.00131,   0.04125,  -0.09419,  -0.05162,   0.14187,  -0.02840,   0.14574,  -0.17158,   0.02964,  -0.04775,   0.01416,   0.16509,  -0.13289,   0.03738,  -0.09032,   0.00256,   0.00256,  -0.06323
  -0.12515,   0.05286,   0.08769,   0.18443,   0.04125,  -0.15611,  -0.21802,   0.03351,   0.17283,   0.16509,  -0.02453,  -0.16771,  -0.10967,   0.05673,  -0.12128,   0.07608,  -0.04775,   0.04125,  -0.12515,   0.03738,   0.01416,  -0.01679,  -0.08258,   0.08769,   0.09930,  -0.10967,   0.17670,  -0.05162,  -0.09806,  -0.05162,  -0.12515,   0.25022,   0.06447,  -0.06710,   0.11865,  -0.03614,  -0.09032,  -0.02840,   0.11865,   0.22313,   0.02577,   0.22700,  -0.01679,   0.09156,   0.14961,   0.00256,   0.00256,  -0.06323,  -0.05162,  -0.09032,  -0.00518,  -0.02840,   0.18056,   0.10704,  -0.01292,   0.16896,  -0.13289,   0.09930,   0.04125,   0.11091,  -0.05162,  -0.18319,  -0.02840,  -0.02840,  -0.06323,   0.19217,  -0.10193,  -0.04388,   0.04512,  -0.10580,  -0.09419,  -0.07871,  -0.00905,   0.01029,   0.12639,  -0.04001,  -0.00518,  -0.02066,   0.22313,  -0.08645,  -0.01679,  -0.14837,   0.07608,   0.18056,   0.04512,   0.02190,  -0.03227,  -0.01679,   0.01803,   0.12252,  -0.00518,   0.00643,  -0.02840,  -0.05936,   0.02190,   0.08769,   0.26957,   0.24248,   0.03351,  -0.10967,  -0.04775,   0.03351,  -0.04001,   0.14574,  -0.03614,  -0.07097,  -0.02066,   0.18056,   0.23861,  -0.02066,  -0.05162,   0.18056,  -0.00905,   0.09930,  -0.11354,   0.07608,  -0.15224,   0.05286,   0.07608,   0.23474,   0.03351,   0.03351,  -0.19093,   0.02190,  -0.03614,  -0.04001,  -0.21802,  -0.28381
  -0.05549,  -0.04775,   0.03351,   0.14574,  -0.26833,   0.10704,  -0.01292,   0.02577,   0.04512,   0.07221,  -0.30316,   0.01416,   0.01803,   0.01029,  -0.24511,  -0.13676,   0.05286,  -0.17932,   0.23474,   0.30827,   0.01803,   0.07608,  -0.36507,   0.17670,  -0.04001,  -0.14837,   0.11478,   0.13026,  -0.03614,   0.07221,  -0.04388,  -0.17545,   0.02577,  -0.12515,  -0.17158,   0.14187,  -0.09419,  -0.08645,   0.01416,  -0.12128,   0.04512,  -0.05936,   0.05286,  -0.04388,  -0.02840,  -0.11741,  -0.21415,  -0.15224,   0.07221,  -0.08645,   0.04125,  -0.05549,   0.02577,  -0.03614,   0.01803,   0.06834,   0.05286,   0.07221,  -0.04388,   0.18830,   0.14961,  -0.12128,  -0.05549,  -0.21028,   0.01416,  -0.14450,  -0.11354,  -0.00905,  -0.00905,  -0.04001,  -0.21028,   0.06447,  -0.00131,  -0.04775,  -0.31864,  -0.10967,   0.09156,   0.17670,  -0.01679,   0.03351,  -0.13289,   0.04125,   0.07995,   0.11091,   0.14574,  -0.11354,  -0.07871,   0.02964,   0.23474,  -0.19093,   0.04125,  -0.01679,  -0.04001,  -0.01679,   0.10704,  -0.02840,  -0.00905,  -0.06323,  -0.19093,   0.10317,   0.00256,   0.11865,   0.08769,   0.18443,   0.04512,  -0.00905,  -0.04001,  -0.32251,  -0.12128,   0.19604,  -0.00131,   0.04125,  -0.07097,   0.00643,   0.05673,   0.14187,  -0.04001,   0.07608,  -0.09419,   0.02964,   0.08382,  -0.02840,  -0.07097,   0.20765,   0.11865,   0.28505,   0.09156,  -0.10580
   0.04125,  -0.22963,  -0.00518,  -0.07484,  -0.07871,   0.00643,  -0.01292,   0.24635,  -0.14837,  -0.10580,  -0.04775,   0.04899,  -0.01292,  -0.14450,  -0.07871,   0.02577,   0.12639,  -0.16384,   0.03351,  -0.08645,  -0.05936,   0.14961,  -0.04001,   0.19604,   0.03351,   0.10704,   0.19217,  -0.01292,  -0.11354,  -0.14837,  -0.00518,  -0.04001,  -0.10580,  -0.09806,  -0.07484,   0.02190,   0.02964,   0.04899,  -0.00131,   0.06060,  -0.02066,  -0.01679,   0.02190,  -0.34959,   0.01416,  -0.16771,  -0.02066,   0.02577,  -0.09032,  -0.10193,   0.18443,   0.02577,  -0.21802,   0.12252,  -0.13289,  -0.15998,  -0.02840,   0.16896,   0.13413,   0.11091,   0.08382,   0.04512,   0.04512,   0.00643,  -0.10967,  -0.09032,  -0.11741,  -0.15224,  -0.10580,   0.10317,   0.07221,   0.02577,   0.20765,   0.04899,  -0.12128,  -0.15998,  -0.18319,   0.06834,  -0.07097,   0.09930,   0.11865,  -0.13289,  -0.05162,  -0.04001,   0.00643,   0.08769,   0.01416,  -0.02066,   0.21152,  -0.11741,  -0.00518,  -0.00905,  -0.00518,   0.01416,  -0.07484,   0.01416,   0.21152,  -0.11741,   0.20378,   0.04512,  -0.09806,  -0.00518,  -0.04775,   0.23087,  -0.19867,   0.07221,   0.20765,   0.02577,   0.02190,   0.09156,   0.05673,  -0.00131,   0.01416,  -0.17545,  -0.07871,   0.09156,  -0.04388,  -0.02840,   0.06060,  -0.12515,  -0.17545,   0.14574,  -0.00905,   0.01416,   0.20378,  -0.03227,  -0.02453,   0.06060
  -0.07097,   0.01029,   0.16509,  -0.05549,  -0.15224,   0.07995,   0.01029,  -0.04001,   0.01416,  -0.26059,   0.02964,  -0.14450,   0.06834,   0.06834,   0.09156,  -0.09032,  -0.33411,  -0.02066,   0.04899,   0.20378,  -0.15998,   0.05286,   0.07995,   0.11478,  -0.18319,   0.23861,   0.07995,   0.19604,  -0.26833,   0.04899,   0.12639,  -0.06323,  -0.22963,   0.23474,   0.15348,  -0.22189,   0.06834,   0.12639,   0.29279,   0.02964,   0.06834,  -0.25285,   0.04512,   0.21539,  -0.05549,  -0.08258,  -0.07871,  -0.18319,   0.02577,   0.10704,   0.01416,   0.16122,   0.08769,   0.03351,  -0.07097,   0.19991,   0.00256,   0.11091,  -0.09806,   0.00256,   0.08769,  -0.12128,   0.03351,   0.06060,  -0.00518,  -0.04775,  -0.09032,  -0.05549,   0.07995,   0.29279,  -0.14063,   0.08382,   0.00256,  -0.00518,  -0.16384,   0.00256,   0.04899,  -0.05549,   0.21152,  -0.24898,  -0.02840,  -0.18706,  -0.00518,   0.37018,   0.06060,   0.08769,  -0.19867,  -0.04388,   0.02964,   0.14574,   0.04125,   0.10317,   0.04899,   0.19991,   0.14961,  -0.15611,   0.02577,   0.03351,  -0.13289,   0.04512,   0.18443,   0.04512,  -0.04388,   0.09156,   0.01803,   0.04125,  -0.02066,  -0.04001,  -0.02066,   0.13800,   0.09543,  -0.26833,  -0.13289,   0.12252,  -0.17545,  -0.15998,  -0.13289,   0.19217,   0.11478,   0.21539,   0.06834,  -0.10580,  -0.18706,   0.08382,   0.13800,   0.04125,   0.10317,   0.06447
   0.06060,  -0.09419,   0.21152,  -0.07484,  -0.25285,  -0.12902,  -0.02840,   0.00256,  -0.03227,  -0.07097,  -0.11354,   0.11091,  -0.04001,   0.03738,  -0.04388,   0.27731,  -0.13676,   0.14961,   0.18830,   0.14574,  -0.00518,   0.01029,   0.04899,   0.09156,  -0.01679,   0.02577,  -0.31090,  -0.00518,   0.02577,   0.10317,  -0.14837,   0.00256,   0.04125,  -0.02066,   0.07608,  -0.00905,   0.01416,  -0.10193,  -0.07097,   0.14574,  -0.16771,  -0.22576,  -0.01292,  -0.18706,  -0.07871,   0.09543,  -0.30703,  -0.06710,  -0.00518,  -0.04388,   0.09543,  -0.17158,  -0.13289,  -0.00518,   0.14961,   0.05286,  -0.21028,   0.05673,  -0.14450,   0.35470,  -0.13676,   0.05673,   0.00643,  -0.14063,   0.03351,   0.02577,  -0.07097,   0.09543,   0.06060,   0.06834,   0.15735,  -0.08258,  -0.07484,   0.01029,   0.00643,   0.13026,  -0.12902,   0.02964,   0.02577,   0.06060,  -0.07484,  -0.12128,  -0.05162,  -0.02066,   0.07608,  -0.14450,  -0.03614,   0.08769,   0.08769,   0.03738,   0.01416,  -0.10967,  -0.00905,  -0.09806,  -0.07097,   0.01803,   0.08382,   0.21926,   0.06834,   0.13800,  -0.07484,  -0.05549,   0.09930,  -0.00131,  -0.01292,   0.01416,  -0.03227,  -0.19867,  -0.09806,  -0.07871,  -0.02453,  -0.09806,  -0.02066,   0.02964,  -0.09419,   0.05673,   0.09930,  -0.18706,   0.00256,  -0.03227,   0.13800,  -0.27607,  -0.20641,  -0.13289,   0.04899,   0.24635,  -0.15611,  -0.12128
  -0.18706,  -0.07871,  -0.07097,  -0.05936,  -0.14837,   0.04512,   0.15735,  -0.23737,  -0.08645,   0.15348,  -0.13676,   0.01416,   0.01029,  -0.05936,  -0.04388,   0.06834,   0.03351,  -0.03227,   0.02577,  -0.03614,  -0.10193,  -0.08258,  -0.12902,  -0.02840,  -0.12128,   0.00643,  -0.00905,  -0.16384,  -0.12128,  -0.16771,   0.06447,   0.09156,  -0.08645,   0.00643,  -0.22963,   0.18830,  -0.17545,  -0.38442,   0.01029,  -0.22576,  -0.39603,   0.09930,  -0.14837,  -0.02066,   0.03351,  -0.00518,   0.19991,  -0.11741,  -0.16384,  -0.04001,  -0.14063,  -0.17545,   0.15735,  -0.21415,   0.17283,  -0.13289,   0.09156,  -0.09806,   0.06060,  -0.02066,   0.04512,  -0.02066,  -0.05549,   0.11865,  -0.20641,  -0.06710,   0.00256,  -0.01679,   0.21539,  -0.03614,   0.30827,   0.04899,   0.09156,  -0.06710,  -0.15224,   0.06834,   0.13413,  -0.02453,  -0.03614,   0.08382,   0.02577,  -0.12515,  -0.05162,  -0.14837,  -0.09806,   0.14574,  -0.15611,  -0.11741,   0.09930,   0.05673,  -0.14063,  -0.05162,  -0.11741,   0.04125,  -0.12902,   0.25022,  -0.05936,  -0.18706,  -0.04388,  -0.14837,   0.01803,  -0.09806,  -0.05936,  -0.00905,  -0.21802,   0.04512,   0.12639,   0.03738,   0.06834,   0.04512,   0.01803,   0.13026,  -0.12902,  -0.01292,  -0.11354,  -0.25672,  -0.09419,   0.11478,   0.11865,  -0.07871,   0.17283,  -0.00131,  -0.07871,   0.03738,   0.03738,  -0.04775,   0.19991,  -0.29929
   0.03351,  -0.03227,  -0.12902,   0.23087,  -0.03614,   0.14961,   0.12252,  -0.16384,  -0.17158,   0.05673,  -0.03227,  -0.21028,   0.03738,   0.06060,   0.21926,   0.00256,   0.04899,  -0.04388,   0.20765,  -0.15998,  -0.09419,  -0.13676,  -0.10967,   0.01029,  -0.26833,  -0.04001,  -0.06323,  -0.12128,   0.14187,  -0.10193,   0.08769,  -0.03614,  -0.05936,  -0.08645,  -0.10967,  -0.02453,  -0.15998,  -0.09032,  -0.01679,   0.17283,  -0.12515,  -0.10967,   0.02964,  -0.04001,   0.07221,   0.05673,  -0.12515,   0.09156,   0.07608,   0.07608,  -0.21415,  -0.01679,   0.13800,   0.07995,   0.04512,   0.07221,   0.11091,  -0.12902,  -0.09806,   0.00643,  -0.19093,   0.11865,  -0.00131,   0.07608,   0.17670,  -0.08258,   0.10317,  -0.13289,   0.05286,  -0.02840,   0.11091,  -0.02066,  -0.17158,  -0.16384,  -0.03614,  -0.11741,  -0.05936,  -0.13289,  -0.16771,   0.07221,   0.06834,   0.04899,   0.10317,  -0.01292,  -0.01292,   0.07608,   0.01416,  -0.02066,  -0.05936,  -0.08258,  -0.13676,  -0.02840,   0.07608,   0.19991,   0.14961,  -0.00518,   0.10704,  -0.06323,  -0.10967,   0.26570,   0.12639,  -0.04001,   0.06834,   0.06834,  -0.04775,   0.04512,   0.06060,  -0.04001,   0.05673,   0.00643,  -0.11741,   0.10317,  -0.06323,   0.06834,  -0.16771,  -0.02453,  -0.09806,   0.17670,  -0.05549,  -0.03227,  -0.15998,  -0.11354,   0.19604,  -0.09419,   0.18443,  -0.10967,  -0.07484,  -0.12902
  -0.25672,  -0.05936,   0.06834,  -0.18706,  -0.04775,   0.09543,  -0.14450,   0.17670,   0.07608,  -0.02066,   0.03351,   0.06060,   0.02964,   0.02190,  -0.00518,   0.05286,  -0.04775,   0.09543,   0.07608,  -0.09419,  -0.07097,  -0.20641,   0.09543,   0.09930,   0.05673,   0.16509,   0.01416,   0.35470,   0.13026,   0.12252,  -0.02453,   0.06447,   0.12252,  -0.08258,  -0.04775,   0.02964,   0.06447,  -0.00518,  -0.13289,  -0.07097,   0.05286,  -0.09806,  -0.14063,  -0.04001,   0.09930,  -0.09419,  -0.12902,  -0.05162,  -0.19480,  -0.06323,  -0.04001,  -0.05162,  -0.20641,   0.08769,  -0.05936,   0.04899,   0.06447,  -0.10193,  -0.03614,   0.07608,  -0.02066,  -0.23350,   0.25409,  -0.06323,  -0.03614,  -0.05549,  -0.02453,  -0.08258,   0.14961,   0.09930,  -0.11354,   0.02190,  -0.10580,   0.11478,   0.06060,  -0.14837,  -0.19480,  -0.01292,  -0.03227,  -0.17545,  -0.06710,   0.11478,   0.07995,  -0.05162,  -0.09806,   0.31214,   0.00643,  -0.06710,  -0.02066,   0.08382,   0.04899,  -0.08645,  -0.05936,   0.22313,  -0.00131,  -0.07871,   0.04512,  -0.11354,  -0.15224,   0.02964,   0.04899,   0.25022,   0.09156,   0.14187,  -0.10580,   0.16122,   0.01029,  -0.23737,  -0.11741,   0.02190,  -0.05162,  -0.16384,  -0.12128,  -0.19093,   0.04899,  -0.09806,  -0.10580,  -0.02453,   0.10704,  -0.13289,   0.07608,  -0.14450,  -0.02066,   0.03738,  -0.04388,   0.08769,  -0.01292,   0.15735
   0.10317,   0.09543,   0.25796,   0.05286,  -0.14837,   0.31214,  -0.17545,  -0.07871,  -0.06710,  -0.00131,  -0.16384,   0.06447,   0.22313,  -0.17158,   0.06060,   0.04512,  -0.22576,  -0.06323,   0.01803,   0.14961,  -0.11741,   0.22700,  -0.02453,   0.09156,   0.07221,   0.10317,  -0.18706,  -0.08258,   0.13800,   0.19604,  -0.05936,  -0.20254,   0.09543,  -0.05162,  -0.04775,   0.03351,   0.01029,  -0.02840,   0.20378,   0.03738,  -0.07871,  -0.02066,  -0.23350,  -0.02066,  -0.21415,   0.09156,   0.04125,  -0.06710,  -0.10580,  -0.03614,  -0.10193,   0.06834,   0.02190,   0.14187,   0.14187,   0.16509,  -0.02840,  -0.02453,  -0.07871,   0.19604,  -0.03227,   0.03351,  -0.09806,   0.14961,  -0.15611,  -0.02453,   0.12252,   0.19217,  -0.35733,   0.03738,  -0.02840,   0.20378,  -0.09419,  -0.11354,   0.13026,  -0.07097,   0.05673,  -0.10967,   0.04125,   0.05286,  -0.10967,  -0.00905,   0.05286,  -0.08258,  -0.00905,   0.13800,  -0.11354,  -0.04388,   0.24635,   0.11091,   0.02964,  -0.10580,   0.06447,  -0.06710,  -0.04001,  -0.03227,  -0.07871,  -0.04775,   0.01029,   0.21539,  -0.07484,  -0.00905,   0.04512,  -0.20254,   0.06447,  -0.09032,  -0.05549,  -0.16771,   0.19217,  -0.02453,  -0.12515,   0.04125,  -0.16384,  -0.27220,   0.01416,  -0.20254,  -0.18319,   0.00256,  -0.05162,  -0.05936,  -0.10967,  -0.07871,  -0.06323,  -0.04001,  -0.03227,   0.33536,   0.06447,   0.09543
  -0.03227,   0.01803,   0.11478,  -0.14450,  -0.02840,   0.14187,   0.02190,   0.24635,   0.09543,  -0.09032,   0.06834,  -0.19093,  -0.01679,  -0.03227,  -0.08258,   0.04125,   0.15735,  -0.04775,   0.16122,   0.01416,   0.09543,  -0.22189,  -0.04388,  -0.09032,   0.01803,   0.25796,  -0.07097,   0.05286,  -0.08645,  -0.02453,  -0.06710,   0.04899,   0.02190,  -0.04775,   0.12639,  -0.10967,  -0.23350,   0.08382,  -0.05162,   0.02964,   0.20378,   0.13413,   0.04512,   0.19604,   0.02964,  -0.00905,   0.04125,   0.12252,  -0.10193,   0.12639,  -0.04388,  -0.08258,   0.04125,   0.04512,   0.04125,   0.08382,  -0.18706,   0.18443,   0.02577,   0.04512,   0.04512,   0.08382,  -0.03227,   0.06060,  -0.09032,   0.22313,  -0.06710,   0.03738,  -0.03614,  -0.11741,  -0.15224,  -0.02066,  -0.06323,   0.11478,   0.03351,  -0.00131,  -0.08645,  -0.05549,   0.14961,   0.13413,   0.16509,   0.21539,  -0.00905,   0.03738,   0.03738,  -0.11741,  -0.14450,  -0.06710,  -0.01292,   0.03738,  -0.16384,  -0.05162,  -0.10580,  -0.12128,  -0.09419,   0.07608,  -0.02066,   0.07995,   0.00643,   0.00256,  -0.05549,  -0.10580,   0.08769,  -0.05549,   0.11478,   0.03738,  -0.28381,   0.06060,   0.09543,  -0.15224,   0.22700,  -0.14837,   0.14187,   0.11865,   0.23087,  -0.12128,   0.00643,   0.11478,  -0.03227,   0.01416,  -0.15224,  -0.09806,   0.07995,  -0.17158,   0.04512,  -0.07871,  -0.04001,   0.08382
   0.09156,   0.07221,  -0.03614,  -0.02453,  -0.22576,  -0.04001,   0.01803,   0.00643,  -0.05549,  -0.00905,   0.09543,   0.03738,   0.07608,   0.07608,  -0.09419,   0.32375,   0.09930,  -0.15224,   0.03738,   0.27344,   0.08769,   0.11865,   0.07995,   0.06060,   0.03351,  -0.00131,   0.12252,  -0.07097,  -0.09806,   0.27731,  -0.05936,   0.08382,  -0.02840,  -0.21415,  -0.01292,   0.13026,   0.12252,   0.09543,  -0.17158,   0.01803,   0.08382,   0.11865,   0.07608,   0.05286,  -0.09032,   0.19217,  -0.07097,   0.26183,   0.21152,  -0.06710,  -0.01679,   0.17670,   0.09930,  -0.06323,  -0.02840,   0.08382,  -0.19480,   0.02577,   0.07221,   0.06447,  -0.16771,  -0.06323,   0.06447,  -0.05549,   0.05673,   0.18056,   0.06060,  -0.19480,  -0.16384,   0.00643,   0.07995,   0.01803,  -0.05162,   0.06447,   0.00643,  -0.04388,   0.04899,  -0.04388,  -0.08258,  -0.13676,   0.16509,  -0.02840,   0.07608,   0.07608,   0.15348,   0.03738,  -0.07097,  -0.15224,   0.00643,  -0.20641,  -0.14063,  -0.00131,   0.07221,   0.00643,   0.12252,  -0.18319,  -0.06323,   0.02190,  -0.12515,   0.09930,   0.04512,   0.18443,   0.12639,  -0.10193,  -0.07484,   0.13026,   0.09930,  -0.01679,  -0.02840,  -0.02066,   0.11478,   0.10704,   0.07221,  -0.02066,  -0.18319,  -0.01292,  -0.14837,  -0.17158,  -0.13676,   0.14574,   0.11478,   0.02190,   0.02190,  -0.00131,  -0.02840,  -0.00905,   0.01803,   0.01029
   0.01803,   0.02577,  -0.03614,   0.20378,  -0.03227,   0.10704,   0.09543,   0.13800,   0.19991,   0.27344,   0.06834,  -0.02453,  -0.10967,  -0.05936,  -0.21028,  -0.08645,   0.12252,  -0.05162,  -0.20254,   0.10704,   0.03351,  -0.15611,   0.15735,   0.17283,  -0.04775,  -0.05936,   0.20765,  -0.07871,  -0.03227,   0.33923,   0.15348,  -0.03227,  -0.00131,   0.21539,  -0.05936,   0.10317,   0.12252,  -0.11354,   0.21152,   0.04899,   0.13800,  -0.06323,   0.09156,   0.14187,  -0.07871,   0.03351,   0.11478,  -0.09806,   0.18056,  -0.03227,   0.14187,  -0.08645,   0.12252,   0.14961,  -0.05549,   0.19604,  -0.08258,  -0.05549,   0.19604,  -0.00131,  -0.02453,   0.06060,  -0.19867,  -0.08645,   0.02577,   0.07608,   0.06834,  -0.07097,   0.12252,   0.04512,  -0.09806,   0.03738,  -0.06710,   0.06447,  -0.06323,   0.18443,  -0.12515,   0.10317,   0.06060,  -0.12515,   0.28505,  -0.01292,  -0.11741,   0.11865,   0.07608,   0.05286,  -0.23737,   0.23861,  -0.12128,  -0.13289,  -0.08645,   0.04125,   0.22700,  -0.00131,  -0.10967,   0.08769,   0.11478,  -0.02066,   0.14574,  -0.02066,  -0.05936,  -0.10967,  -0.15224,  -0.06710,  -0.07484,   0.21539,   0.18443,  -0.13289,   0.04899,  -0.07097,  -0.07871,  -0.00131,  -0.06710,  -0.10580,   0.04512,  -0.00518,   0.15348,  -0.20254,   0.02190,  -0.07484,   0.13413,  -0.03227,  -0.04775,   0.18443,  -0.00905,   0.16122,  -0.00131,   0.03351
   0.21539,  -0.14450,  -0.10580,   0.14574,   0.00256,   0.01803,   0.18056,  -0.26059,   0.01029,  -0.07484,   0.09156,  -0.22189,   0.10704,   0.12252,   0.11091,  -0.05549,   0.07221,   0.21539,  -0.00905,  -0.12128,  -0.01679,   0.06447,  -0.05936,  -0.06323,  -0.04388,  -0.28768,   0.05673,  -0.08258,   0.13413,  -0.05549,  -0.05549,  -0.18319,  -0.05162,   0.01029,  -0.00905,  -0.04775,   0.00256,  -0.21415,  -0.06323,  -0.01292,  -0.17158,  -0.24898,  -0.13289,   0.03351,   0.05673,  -0.12515,   0.06060,   0.21539,   0.05673,  -0.07484,   0.13413,  -0.22189,   0.01416,  -0.24898,  -0.24511,  -0.05162,  -0.18319,  -0.06710,   0.01029,   0.13800,  -0.05936,   0.26183,   0.21152,  -0.08645,  -0.15998,   0.02964,   0.12639,  -0.19867,  -0.06710,  -0.05549,  -0.21802,  -0.10580,  -0.06710,   0.06447,   0.03738,  -0.08258,   0.02577,   0.01029,  -0.00905,   0.20765,  -0.07484,   0.12639,  -0.05162,  -0.15224,   0.04899,  -0.19867,   0.25022,   0.29279,   0.08382,  -0.00905,   0.13026,   0.01029,  -0.15611,   0.03351,   0.04899,  -0.10193,  -0.11741,  -0.07871,   0.05673,   0.00256,   0.03738,   0.13026,  -0.00131,  -0.09032,   0.08769,  -0.21028,  -0.04001,  -0.18319,  -0.22189,  -0.04001,   0.13413,   0.01029,  -0.16384,   0.02577,   0.09156,   0.21926,   0.18830,   0.06834,   0.19604,   0.07608,  -0.01292,   0.10704,   0.25409,  -0.03614,  -0.17158,   0.12639,  -0.01679,  -0.18706
   0.24248,  -0.05936,  -0.07097,  -0.11354,   0.01803,  -0.14063,  -0.01292,   0.02964,   0.05673,  -0.03227,  -0.02453,  -0.14450,   0.02190,  -0.05162,   0.05286,  -0.14450,  -0.14837,   0.09930,  -0.17545,  -0.09032,  -0.08645,  -0.19867,  -0.05936,  -0.07484,   0.05673,   0.10317,   0.11091,  -0.13676,  -0.17545,   0.00256,  -0.12128,  -0.10193,   0.11865,   0.06447,   0.18056,  -0.18319,  -0.10967,   0.08769,   0.02190,   0.07995,   0.06834,  -0.10193,  -0.14837,  -0.08645,   0.13413,  -0.17545,   0.10317,   0.00256,   0.09930,  -0.05549,   0.05673,  -0.00131,  -0.02066,   0.03351,   0.10704,  -0.17158,  -0.05549,   0.01029,   0.16509,   0.05673,   0.01416,   0.01416,  -0.17158,   0.04125,  -0.08258,   0.03351,   0.02964,   0.02964,  -0.03614,   0.04899,   0.04512,  -0.05936,   0.13026,   0.04125,   0.21539,  -0.05936,   0.07221,   0.03351,  -0.14063,   0.11865,   0.18056,  -0.00905,  -0.02453,  -0.19093,   0.04899,  -0.15611,   0.18443,  -0.06323,  -0.13289,   0.08382,  -0.14063,  -0.04775,  -0.33798,   0.09156,  -0.04388,  -0.03227,   0.10704,   0.07608,   0.08382,   0.04125,  -0.05936,   0.15735,  -0.07871,   0.13800,   0.10704,   0.12252,  -0.15224,  -0.00131,  -0.09806,  -0.03614,  -0.22963,   0.08769,   0.13413,   0.02577,  -0.09032,   0.05673,  -0.11354,  -0.00905,  -0.07097,  -0.31864,  -0.05936,   0.00643,   0.01029,   0.11091,   0.25022,  -0.02453,  -0.21028,   0.20378
  -0.19093,  -0.04775,   0.06060,   0.02964,  -0.03227,  -0.06710,  -0.05162,  -0.29929,  -0.12128,   0.14961,   0.08382,   0.01416,   0.20765,   0.15348,  -0.04775,  -0.09032,  -0.16384,   0.04512,  -0.13676,  -0.00518,  -0.10193,   0.14574,  -0.01679,  -0.04001,  -0.07097,   0.26957,   0.03351,   0.19604,   0.00256,   0.18443,  -0.22963,   0.06447,  -0.10193,   0.01416,   0.07608,  -0.08645,   0.02190,  -0.07871,  -0.03227,  -0.07484,   0.04125,   0.20378,  -0.00518,   0.09543,   0.18830,  -0.05162,  -0.31477,   0.01029,  -0.16771,   0.07995,  -0.01679,  -0.24511,   0.16122,   0.03738,   0.02964,  -0.07484,   0.03351,   0.13800,  -0.08258,  -0.01292,  -0.02840,  -0.16384,  -0.08645,   0.18443,  -0.14837,   0.06834,  -0.07484,  -0.03227,   0.11865,   0.16509,  -0.08645,   0.04899,   0.20378,   0.18056,  -0.19480,  -0.19867,   0.16509,   0.01029,   0.02577,   0.00256,  -0.12128,   0.14187,  -0.00518,  -0.03614,  -0.05549,   0.21152,   0.02577,  -0.19867,  -0.10967,   0.01803,  -0.17545,  -0.08258,  -0.04388,  -0.17158,  -0.26833,  -0.09806,   0.16122,  -0.07871,   0.20378,  -0.17932,  -0.12902,  -0.10580,  -0.12128,   0.05673,  -0.09032,   0.18830,  -0.09032,   0.12252,   0.05286,   0.05673,  -0.02840,  -0.19093,   0.06447,   0.03351,  -0.02066,  -0.10967,   0.09543,   0.05673,  -0.05549,  -0.01679,   0.23474,   0.12639,   0.21539,   0.08769,   0.06447,  -0.08258,   0.08382,  -0.07871
  -0.01679,  -0.17545,   0.25022,  -0.06323,   0.00643,   0.08382,   0.02964,  -0.00905,   0.18830,   0.18830,   0.14574,   0.04125,  -0.02453,  -0.05549,   0.00643,  -0.02840,  -0.10580,  -0.09806,  -0.27994,  -0.12128,   0.06447,   0.02577,  -0.10193,  -0.13289,  -0.00905,  -0.14063,   0.07221,  -0.04001,  -0.05162,  -0.08258,  -0.15611,  -0.15224,  -0.01679,   0.03351,  -0.09032,   0.04125,   0.02577,  -0.06323,   0.04125,   0.09543,   0.16122,   0.13413,   0.09930,  -0.02066,  -0.06323,   0.11478,  -0.05162,   0.06834,  -0.06710,   0.13413,   0.06060,  -0.00131,  -0.15224,  -0.17545,  -0.11354,  -0.19480,  -0.24124,   0.02577,  -0.15611,  -0.12515,  -0.00131,  -0.11354,  -0.06710,   0.14574,  -0.13676,   0.07608,  -0.12902,  -0.07484,   0.00643,   0.00643,   0.14574,  -0.06323,  -0.02453,  -0.07097,  -0.04001,  -0.07097,  -0.13289,   0.04899,  -0.42312,  -0.11354,  -0.10580,   0.14574,   0.03351,  -0.09806,   0.01803,  -0.05162,   0.17283,  -0.01679,  -0.12128,   0.00256,   0.05673,   0.10317,   0.13800,   0.04512,  -0.04388,   0.06447,   0.22700,   0.04125,  -0.07484,   0.03738,  -0.13676,  -0.00131,   0.01416,   0.05286,   0.18056,   0.06447,  -0.00518,  -0.02840,   0.01803,  -0.26833,  -0.16771,   0.30440,   0.01416,  -0.15224,  -0.15611,  -0.05162,   0.24635,   0.08382,  -0.19480,  -0.09806,  -0.09419,   0.03738,   0.07995,   0.01803,   0.00256,  -0.21415,   0.16122,  -0.05936
   0.18443,  -0.08258,  -0.18706,  -0.08645,   0.05673,   0.09930,   0.02577,   0.15348,   0.17670,   0.01029,   0.18056,   0.07995,   0.01803,  -0.17932,   0.21539,   0.06447,  -0.15998,  -0.03614,   0.14574,   0.13026,  -0.15998,   0.02577,  -0.01679,   0.07995,  -0.10580,  -0.07484,   0.09930,  -0.02453,   0.13413,   0.06834,   0.03351,   0.04899,   0.13026,   0.11091,  -0.03227,   0.07608,  -0.05549,  -0.21802,   0.08769,   0.19217,  -0.07097,   0.04125,   0.07221,   0.17670,   0.13413,  -0.11741,  -0.10967,  -0.03614,  -0.10193,  -0.08645,  -0.03227,  -0.05162,  -0.10967,   0.04512,  -0.01292,  -0.09419,  -0.25672,   0.06834,  -0.03614,  -0.10580,  -0.05162,   0.08769,  -0.03227,   0.01416,  -0.03227,   0.14574,  -0.20641,  -0.06323,   0.01029,  -0.27220,  -0.12515,   0.23087,  -0.17932,   0.13026,   0.11865,   0.12639,  -0.05162,   0.06447,  -0.02840,   0.04899,  -0.06323,  -0.24124,   0.03738,   0.28505,  -0.00131,  -0.09806,  -0.02840,  -0.00905,  -0.04388,  -0.04388,   0.00256,   0.14574,   0.05673,  -0.00131,  -0.03614,  -0.05936,  -0.03614,   0.04125,  -0.01292,  -0.14063,  -0.14450,   0.06060,   0.06060,  -0.08258,   0.04125,   0.15348,  -0.15611,   0.05673,  -0.06710,  -0.06323,   0.03738,   0.09543,  -0.17158,   0.22700,   0.02190,   0.08382,  -0.08645,   0.04512,   0.06447,  -0.03227,  -0.10193,  -0.09419,  -0.00518,  -0.09806,   0.02964,   0.21152,   0.08382,  -0.10967
  -0.07484,   0.10704,   0.05286,   0.11091,  -0.04388,   0.12639,  -0.13676,   0.04125,  -0.05162,  -0.12515,  -0.09806,   0.01029,   0.08769,  -0.04388,  -0.13676,  -0.12902,  -0.28381,  -0.03227,   0.07608,  -0.00131,   0.14961,   0.18443,   0.05673,  -0.08645,   0.17283,   0.08382,   0.10704,  -0.08645,   0.15735,  -0.07097,   0.24635,   0.02964,  -0.20254,  -0.01679,  -0.03227,   0.20765,   0.12252,   0.06060,   0.04125,  -0.15611,  -0.09806,  -0.14063,   0.02577,  -0.14837,   0.03738,   0.02964,   0.03738,  -0.04001,   0.23474,  -0.17158,  -0.13676,   0.06060,  -0.24511,  -0.04775,  -0.06710,   0.04125,   0.18443,   0.06060,   0.07995,   0.21539,   0.10704,  -0.24898,  -0.08645,  -0.00131,  -0.12515,  -0.17932,   0.03738,   0.05673,  -0.12128,  -0.10580,   0.06060,   0.07608,  -0.13289,  -0.16384,  -0.06710,  -0.07871,   0.02577,  -0.02840,   0.03738,  -0.06710,  -0.26059,  -0.02066,   0.03351,  -0.08258,  -0.09032,   0.24248,   0.08769,  -0.09806,   0.05673,   0.16122,   0.13026,  -0.31477,   0.08382,  -0.14063,  -0.04001,  -0.09032,  -0.10967,   0.00643,  -0.16771,   0.04125,   0.12639,   0.03738,   0.01803,  -0.07097,   0.25409,   0.00256,  -0.07871,   0.10704,  -0.06710,  -0.09806,  -0.20641,  -0.08645,   0.21926,  -0.03614,  -0.09032,   0.10704,  -0.24124,  -0.22189,   0.01803,   0.02190,  -0.14450,   0.08382,  -0.00131,  -0.01292,   0.14574,  -0.09032,  -0.21415,  -0.00518
   0.07995,   0.02190,  -0.07097,  -0.14837,   0.02577,  -0.05936,   0.20378,   0.02964,   0.05673,   0.12252,   0.01029,  -0.02840,  -0.18706,   0.02577,  -0.06710,   0.17283,   0.14574,   0.10317,   0.02577,  -0.02453,  -0.19093,   0.02190,  -0.03614,   0.14961,  -0.11354,   0.05286,  -0.05549,  -0.14063,   0.08382,  -0.10967,   0.03351,   0.12639,   0.15348,  -0.15998,   0.14574,  -0.19093,   0.16122,   0.15348,   0.13026,   0.12252,  -0.01679,  -0.09419,  -0.12515,  -0.00131,   0.10704,  -0.21802,  -0.00905,  -0.13289,  -0.04001,   0.02964,  -0.19867,  -0.20641,  -0.10193,  -0.05936,  -0.07871,   0.11865,  -0.05162,   0.28892,   0.02190,   0.02577,  -0.10193,  -0.11354,  -0.05549,   0.13800,  -0.08258,   0.16122,  -0.13676,   0.03738,   0.06060,  -0.07871,   0.09930,   0.10317,  -0.08645,  -0.12902,  -0.15224,  -0.09806,   0.10704,   0.00643,   0.06447,  -0.02066,  -0.08258,  -0.14063,  -0.04001,   0.01803,   0.08382,  -0.12515,   0.08769,  -0.00518,  -0.07871,  -0.07871,   0.19991,  -0.04775,   0.24635,  -0.08645,   0.09930,   0.04512,   0.14187,  -0.01679,  -0.17545,  -0.00518,   0.15348,   0.04512,  -0.02066,   0.09930,  -0.08645,  -0.00131,  -0.04388,  -0.05549,  -0.01679,   0.23087,  -0.12515,  -0.07871,   0.06447,   0.07608,   0.04512,  -0.09419,   0.01803,  -0.03227,  -0.09032,   0.05673,  -0.14837,  -0.13676,  -0.04001,  -0.02453,   0.02964,  -0.09419,   0.01029,   0.11478
   0.07995,  -0.00905,   0.12639,   0.03738,   0.00643,  -0.13289,   0.28892,  -0.01292,   0.13413,   0.05286,  -0.15998,   0.10317,  -0.13676,   0.09156,   0.04512,   0.02964,  -0.09419,  -0.19093,  -0.01292,   0.02964,  -0.10193,  -0.09419,  -0.14450,  -0.04388,  -0.07484,  -0.09032,  -0.05936,   0.14187,   0.02190,   0.19991,  -0.08258,   0.22313,  -0.10580,   0.02577,  -0.23737,  -0.02453,  -0.21028,   0.03351,  -0.31864,  -0.14450,   0.10704,   0.04899,  -0.00518,   0.12639,   0.07221,  -0.10193,  -0.07097,  -0.07484,  -0.24898,   0.02964,   0.02190,  -0.02453,  -0.01292,  -0.02453,  -0.17158,  -0.02066,   0.01029,  -0.00518,   0.13413,  -0.02453,   0.16509,   0.21152,  -0.15224,  -0.11354,  -0.14063,   0.19217,   0.14187,  -0.00131,  -0.06323,  -0.09806,  -0.02453,  -0.09806,   0.02190,   0.09543,   0.20378,   0.00643,   0.08769,   0.07995,   0.03351,   0.02964,   0.25022,   0.21926,  -0.04001,   0.01803,   0.13413,   0.21539,   0.04125,   0.02190,  -0.05162,   0.07221,  -0.04001,   0.02190,  -0.13289,  -0.02840,  -0.01679,  -0.08258,   0.17670,  -0.01292,  -0.12128,   0.02577,  -0.06323,  -0.15998,   0.18830,   0.38566,  -0.16771,   0.11478,   0.09156,  -0.09032,  -0.03227,   0.27344,  -0.02840,  -0.05162,   0.09930,  -0.12128,   0.09930,   0.19604,   0.00643,   0.12252,  -0.20641,   0.09156,  -0.12128,  -0.07871,  -0.00518,  -0.04775,   0.00643,  -0.12128,  -0.04001,   0.05286
  -0.02840,   0.02190,   0.12639,  -0.03227,  -0.14450,   0.00256,   0.09930,  -0.16384,   0.07995,  -0.08258,  -0.07871,   0.10704,  -0.34572,   0.01416,   0.27731,   0.02964,  -0.17158,  -0.07484,   0.03738,   0.09930,  -0.01292,   0.23087,  -0.23737,  -0.05549,   0.18056,   0.05673,  -0.03614,  -0.05162,  -0.14450,   0.11478,  -0.02453,   0.09156,  -0.12128,   0.04512,  -0.14063,  -0.09806,  -0.02066,   0.06834,  -0.14450,   0.11478,   0.23087,   0.05286,  -0.21028,  -0.22576,  -0.08258,  -0.02840,  -0.06323,  -0.09032,   0.02190,  -0.13676,   0.01803,   0.25409,   0.07995,   0.10704,   0.02577,  -0.10193,  -0.05549,  -0.04775,  -0.14837,   0.09543,   0.24248,  -0.01679,  -0.01292,  -0.07097,  -0.12128,  -0.04001,  -0.17158,  -0.09806,   0.15348,   0.21539,  -0.03227,   0.09930,   0.04125,  -0.01679,  -0.01292,  -0.00131,  -0.07097,  -0.12128,  -0.04001,  -0.05549,  -0.09032,   0.10317,   0.03738,   0.06060,   0.03351,  -0.11741,  -0.10967,   0.09156,   0.07995,   0.02577,  -0.11741,  -0.02840,   0.11865,  -0.17932,   0.14574,  -0.17932,   0.11478,   0.19991,  -0.17932,   0.01029,  -0.00518,   0.16122,  -0.05162,   0.15735,   0.11091,   0.17670,   0.33536,   0.20378,   0.16896,   0.15348,  -0.20254,  -0.17545,   0.01803,  -0.08258,  -0.03227,   0.18443,  -0.07097,   0.01029,  -0.07871,   0.13413,  -0.02066,  -0.13289,  -0.04388,  -0.05549,   0.13800,   0.10704,  -0.13676,   0.07995
  -0.10967,  -0.04775,  -0.15611,  -0.12902,   0.18830,   0.02964,   0.04512,  -0.11354,  -0.11741,   0.06834,  -0.02066,  -0.02453,   0.25796,   0.04512,   0.31601,  -0.06710,   0.02190,   0.04899,  -0.09806,  -0.05162,   0.07995,   0.06834,  -0.11741,  -0.05936,   0.13026,  -0.17932,   0.05673,  -0.11354,   0.03351,  -0.11354,   0.03351,  -0.12902,   0.07995,  -0.08645,  -0.29542,   0.04512,   0.10704,  -0.02840,   0.04125,   0.12639,  -0.04001,  -0.07484,   0.11478,  -0.12515,   0.13026,  -0.23350,  -0.16384,   0.01416,   0.00643,  -0.18319,   0.02577,  -0.07871,  -0.02066,  -0.16384,   0.06447,  -0.02066,   0.06060,   0.12639,  -0.07097,  -0.01292,   0.09543,  -0.09032,   0.04899,   0.04125,   0.01416,  -0.05936,  -0.04388,   0.13800,  -0.00905,  -0.27220,  -0.02066,  -0.18319,  -0.06323,  -0.09806,   0.17670,   0.08769,  -0.12902,  -0.20641,  -0.24124,   0.06060,  -0.12515,   0.02577,  -0.05162,  -0.21415,  -0.25672,  -0.05936,  -0.07484,   0.04125,   0.01416,  -0.01679,   0.27731,   0.03351,   0.10317,  -0.04775,   0.25796,   0.12639,   0.09156,  -0.04775,  -0.04775,   0.10317,  -0.06710,   0.14961,  -0.03227,  -0.02066,  -0.05936,  -0.04001,   0.09156,   0.19217,  -0.09419,   0.01029,  -0.05549,   0.04125,   0.25022,   0.15735,  -0.04388,  -0.02840,  -0.03614,  -0.10967,  -0.10967,  -0.10193,   0.08382,   0.08769,   0.10317,  -0.22963,  -0.09806,  -0.06710,   0.03351,  -0.04001
   0.01416,   0.06834,  -0.09419,   0.02964,  -0.02840,   0.02964,   0.09543,  -0.03614,   0.16509,   0.06447,  -0.22963,  -0.09806,   0.12639,   0.07995,  -0.15224,  -0.13289,  -0.10580,  -0.02066,  -0.14063,  -0.02840,   0.01416,  -0.04775,   0.11865,  -0.16771,  -0.02066,  -0.09419,   0.08382,  -0.25285,   0.16122,  -0.10580,  -0.19093,   0.04125,   0.01029,   0.00256,  -0.03614,   0.13413,  -0.00905,  -0.00518,  -0.08645,  -0.05162,  -0.01292,  -0.08258,  -0.00905,   0.15735,   0.03351,  -0.02453,  -0.07097,  -0.01679,   0.18056,  -0.05162,  -0.02066,   0.06060,  -0.01679,  -0.04388,  -0.00131,  -0.12902,  -0.12902,   0.10317,  -0.21802,  -0.15224,   0.01416,  -0.11741,  -0.02840,  -0.02066,   0.11865,   0.18056,   0.14574,   0.09543,   0.05673,  -0.07871,  -0.08258,  -0.10967,  -0.02453,   0.08769,   0.00256,  -0.01679,  -0.14837,  -0.01679,   0.01803,   0.12252,   0.12252,   0.14187,  -0.08258,  -0.05936,  -0.03614,   0.00256,  -0.01679,   0.01029,  -0.02453,  -0.00905,  -0.05549,  -0.12128,   0.04125,  -0.10580,  -0.02066,   0.24248,  -0.06323,  -0.04001,   0.18443,  -0.10967,  -0.16771,  -0.11354,  -0.12515,  -0.02453,  -0.07871,  -0.11741,   0.11478,  -0.16771,  -0.16384,  -0.04775,  -0.00518,   0.01416,  -0.03227,  -0.01292,  -0.05549,  -0.37668,  -0.03614,  -0.12902,  -0.07871,   0.13026,   0.08382,   0.04125,  -0.11741,  -0.17545,  -0.15224,   0.05286,  -0.09419,  -0.17545
  -0.08645,   0.06834,   0.23474,   0.09930,  -0.10967,  -0.00518,   0.03738,   0.18830,  -0.11741,  -0.00518,   0.02577,  -0.03614,  -0.01292,  -0.20641,  -0.00518,  -0.10967,  -0.10967,  -0.22576,   0.05286,  -0.15611,  -0.21415,   0.11091,   0.03351,  -0.01679,  -0.24124,  -0.00905,  -0.04388,   0.05673,   0.06447,   0.05673,  -0.05549,  -0.03614,   0.07995,  -0.07871,   0.02964,  -0.02066,  -0.07097,  -0.02840,   0.09156,  -0.05936,  -0.00131,   0.25022,   0.10317,  -0.10580,  -0.37668,  -0.00518,   0.12252,   0.02964,   0.04125,  -0.23350,  -0.10967,   0.06834,  -0.21802,  -0.09032,   0.09930,  -0.01292,   0.02190,  -0.08645,  -0.01292,   0.01029,   0.07995,   0.29666,  -0.02066,  -0.21802,   0.12639,  -0.12128,  -0.13289,   0.00256,  -0.04388,   0.11865,  -0.09806,   0.18443,  -0.13676,  -0.12515,  -0.00518,  -0.11354,  -0.29929,  -0.02840,   0.08382,  -0.01679,  -0.02066,   0.07221,   0.26570,   0.02190,   0.08769,   0.06060,   0.14574,   0.19604,   0.17283,   0.15735,  -0.12515,  -0.15998,   0.03738,   0.09543,  -0.06710,   0.09156,  -0.05936,   0.14187,   0.04899,   0.21539,  -0.08258,  -0.05162,   0.06060,  -0.05549,   0.06447,  -0.01292,   0.05286,  -0.17158,  -0.01679,  -0.14837,   0.01416,   0.10317,   0.00643,   0.05673,  -0.05549,  -0.02453,  -0.19480,  -0.08258,   0.06447,  -0.02840,   0.13026,  -0.03227,   0.02964,   0.04899,   0.03351,  -0.06710,   0.14961,  -0.09806
   0.13800,   0.07221,   0.06834,   0.12639,  -0.16384,   0.11865,  -0.05936,  -0.08258,  -0.07097,  -0.04388,   0.03351,  -0.13676,   0.09543,   0.01029,  -0.04388,   0.07221,   0.08769,  -0.12128,  -0.11741,   0.09543,   0.00643,  -0.03227,  -0.14063,   0.12252,  -0.02840,   0.09156,  -0.07484,   0.02190,   0.19217,  -0.03227,  -0.10193,   0.04512,   0.07608,   0.19604,   0.04899,  -0.11741,  -0.03227,  -0.06710,   0.28118,  -0.00905,   0.04512,   0.00256,  -0.14450,   0.18056,   0.02964,   0.02964,   0.25022,   0.14961,  -0.25672,   0.27731,  -0.13289,   0.14961,  -0.02066,  -0.02453,   0.01803,  -0.04775,   0.04125,  -0.06323,   0.08769,   0.11478,   0.04512,   0.04512,   0.08769,  -0.00518,   0.01416,  -0.03227,  -0.14837,   0.02190,   0.14574,  -0.12902,  -0.24898,  -0.10967,  -0.07484,   0.08382,   0.00256,  -0.16384,   0.13800,  -0.20641,  -0.01292,   0.07221,   0.00643,   0.24635,  -0.24898,  -0.17545,   0.14574,   0.04512,  -0.09806,  -0.07871,   0.05673,   0.23087,   0.16509,  -0.14837,  -0.17932,  -0.01292,  -0.11354,   0.17283,  -0.12128,  -0.13676,  -0.08258,  -0.06323,  -0.29542,   0.26957,  -0.05162,   0.14574,  -0.11741,  -0.06323,  -0.02453,  -0.07097,  -0.04388,  -0.17545,   0.05286,  -0.11354,   0.18443,   0.21539,  -0.04775,  -0.11354,   0.23474,  -0.06710,  -0.23737,  -0.15998,  -0.22576,   0.03351,   0.29279,   0.11478,  -0.34959,   0.03738,  -0.05162,  -0.00905
  -0.01679,  -0.04001,  -0.02066,  -0.02453,  -0.14450,  -0.02453,   0.04899,   0.14187,  -0.05162,   0.11091,  -0.09806,   0.08769,   0.11865,   0.04899,   0.00256,   0.01029,   0.08382,  -0.09419,  -0.09806,  -0.00905,   0.00643,  -0.07484,   0.14574,  -0.00905,  -0.04388,   0.09543,   0.32762,  -0.11354,  -0.12902,  -0.07871,   0.10704,   0.04125,  -0.17158,  -0.03227,   0.11091,  -0.00905,  -0.03227,  -0.07871,   0.19991,  -0.15611,  -0.05549,   0.07221,   0.19217,   0.10704,  -0.09419,   0.02964,   0.07995,   0.17670,   0.16896,  -0.15224,   0.15348,   0.06060,  -0.07097,   0.03351,  -0.19480,   0.11865,   0.00643,  -0.05936,   0.04125,  -0.05936,   0.21926,  -0.04001,  -0.04001,  -0.07097,  -0.01292,  -0.11741,  -0.08258,   0.04899,  -0.02453,   0.05673,  -0.02453,   0.08769,  -0.19480,   0.13026,  -0.19480,  -0.26059,  -0.07871,   0.08769,  -0.01679,  -0.07871,   0.16122,  -0.02453,  -0.12128,   0.19217,   0.07221,   0.17283,   0.12252,   0.25796,   0.01029,   0.14574,   0.02577,   0.09930,   0.02964,   0.21152,  -0.05936,   0.02577,  -0.02066,   0.15735,  -0.17545,   0.02577,  -0.02066,  -0.13676,   0.09543,  -0.04388,  -0.10193,   0.09543,   0.08769,  -0.04388,  -0.14837,   0.04512,   0.00643,  -0.26059,   0.13026,  -0.07484,  -0.12128,   0.11478,  -0.12128,   0.04125,   0.11091,  -0.07484,  -0.07097,   0.00643,   0.01029,   0.01029,   0.20378,   0.06060,   0.29279,  -0.02453
  -0.01679,   0.12639,   0.02577,  -0.05549,   0.09543,   0.12252,   0.05673,  -0.11741,   0.03351,   0.18443,  -0.09806,   0.07995,   0.06834,   0.09156,  -0.13289,   0.06834,  -0.05936,   0.16122,   0.21539,  -0.04388,   0.14574,  -0.02066,  -0.18706,  -0.05549,  -0.04775,   0.07995,  -0.18319,  -0.09806,  -0.03227,   0.02577,  -0.01679,  -0.05549,  -0.03614,  -0.00131,   0.11865,   0.06834,  -0.04001,   0.00643,   0.04512,   0.00643,   0.11478,  -0.09032,  -0.00131,  -0.13676,  -0.02453,   0.12639,  -0.00131,   0.02190,  -0.12515,   0.11865,   0.09543,  -0.01679,  -0.03227,  -0.00131,   0.18830,  -0.15611,  -0.00518,   0.04899,  -0.11741,  -0.02840,   0.01416,  -0.25672,   0.06060,   0.21926,  -0.19093,  -0.09806,  -0.05162,   0.01803,   0.01029,   0.17670,  -0.00905,   0.03738,  -0.11354,  -0.04001,  -0.06323,  -0.04388,   0.14187,  -0.08258,   0.10704,  -0.00131,   0.13026,  -0.01679,   0.04125,  -0.17545,  -0.10193,  -0.02453,   0.11091,  -0.20254,  -0.06710,  -0.18319,   0.05673,   0.11478,  -0.02066,   0.02964,  -0.10193,  -0.13289,  -0.05162,  -0.00131,  -0.17932,  -0.02453,   0.08382,  -0.05549,   0.09930,   0.01803,   0.10704,   0.03738,  -0.00518,   0.02964,   0.21152,   0.27344,   0.01416,  -0.18706,   0.23087,  -0.00131,  -0.02066,  -0.11741,   0.04125,  -0.10580,  -0.02066,  -0.05549,   0.14574,   0.00643,   0.04899,  -0.08258,  -0.12515,  -0.07871,  -0.11354,   0.01416
  -0.07097,   0.02577,  -0.09806,  -0.02840,  -0.00518,  -0.09419,  -0.17932,   0.03351,  -0.07484,  -0.13289,   0.15735,   0.20765,  -0.00131,  -0.12902,   0.04899,   0.10317,   0.08382,   0.14961,  -0.12128,  -0.02453,  -0.10193,   0.07608,  -0.02453,   0.03738,   0.04512,  -0.07097,  -0.00518,   0.02577,   0.02190,   0.09543,  -0.08645,   0.03351,   0.24635,   0.03351,  -0.10193,  -0.01292,   0.10704,   0.15348,   0.00256,   0.04512,  -0.14063,   0.11478,   0.07221,   0.13800,   0.09930,  -0.04388,  -0.02066,   0.03738,   0.01416,  -0.02453,   0.09156,  -0.28381,  -0.04388,   0.05673,   0.01803,  -0.20641,  -0.00518,   0.05673,   0.04125,   0.08382,  -0.05936,   0.05673,   0.09543,   0.10704,   0.10317,  -0.07871,  -0.03614,  -0.13289,  -0.19867,  -0.04775,   0.00256,  -0.24898,   0.11478,  -0.10193,   0.09543,   0.21926,   0.02964,   0.04899,  -0.04775,  -0.12902,  -0.13676,  -0.18706,  -0.20641,   0.08382,   0.01416,   0.05673,   0.21152,   0.09930,  -0.05936,  -0.12902,  -0.04775,  -0.05162,   0.19991,  -0.04388,  -0.14063,  -0.06323,   0.21152,   0.01803,  -0.12515,   0.10704,   0.07221,   0.00643,  -0.04775,   0.00643,  -0.11741,  -0.02066,   0.01803,   0.04125,  -0.12902,  -0.05162,   0.06060,   0.01416,   0.04512,   0.17283,  -0.17932,  -0.00518,   0.04512,  -0.03227,  -0.17932,  -0.18706,  -0.02066,  -0.14837,  -0.04775,  -0.02453,  -0.11354,  -0.07484,  -0.08258,  -0.11354
  -0.17932,  -0.21415,   0.13413,   0.01803,  -0.05162,   0.07995,   0.00643,   0.11478,  -0.21802,  -0.05162,  -0.02453,   0.27344,  -0.13289,   0.02190,  -0.16384,  -0.17932,  -0.04001,   0.24248,  -0.14837,   0.07608,   0.14574,  -0.15611,   0.01416,   0.18830,   0.01416,   0.06060,  -0.17545,  -0.06710,  -0.00518,   0.05673,   0.05286,   0.09156,  -0.14450,   0.18056,   0.16509,   0.01803,  -0.21802,  -0.17545,  -0.01679,  -0.09419,   0.02964,  -0.01679,   0.23861,  -0.16384,   0.02964,  -0.02453,  -0.10580,  -0.01292,  -0.05162,   0.11478,  -0.10580,  -0.00131,   0.00256,   0.09156,   0.07608,  -0.07097,  -0.04001,   0.25796,   0.01803,   0.11865,   0.09543,  -0.03614,  -0.02453,   0.21152,  -0.25672,  -0.08258,   0.03738,   0.21926,  -0.02840,  -0.04001,  -0.05162,  -0.16771,   0.14187,  -0.09419,  -0.02453,  -0.04001,   0.11478,   0.10704,   0.21152,   0.03351,  -0.17158,   0.04125,  -0.04775,   0.12639,  -0.12515,   0.01803,   0.10317,  -0.04775,   0.09156,   0.10704,  -0.12902,  -0.00905,  -0.23737,   0.04899,  -0.28768,  -0.17932,   0.14961,  -0.09032,   0.12252,   0.04899,   0.13800,  -0.14450,   0.09156,   0.03738,   0.23474,   0.28118,  -0.07484,   0.09543,  -0.06323,  -0.05162,  -0.09806,   0.01029,   0.04899,  -0.14063,   0.06834,  -0.01292,  -0.01292,   0.11478,  -0.02066,  -0.28768,   0.08769,  -0.17158,   0.01803,  -0.02066,  -0.07871,  -0.21028,   0.02577,   0.27344
   0.01803,   0.09543,   0.00256,  -0.00518,  -0.20641,  -0.03614,  -0.29155,  -0.01292,  -0.09032,  -0.05549,  -0.12128,  -0.01679,   0.28118,   0.09543,  -0.04388,  -0.13676,  -0.15998,   0.14961,  -0.07871,  -0.24124,   0.08769,  -0.06323,  -0.05936,   0.25022,   0.02577,  -0.11354,   0.10704,  -0.04001,  -0.14450,   0.13413,   0.09930,   0.02577,   0.16896,   0.08382,   0.04512,   0.18830,   0.03738,  -0.21415,   0.04899,  -0.07097,   0.08382,  -0.05162,   0.00643,  -0.08258,   0.02964,  -0.12515,  -0.10967,  -0.24898,  -0.16771,  -0.02840,  -0.01679,  -0.11741,   0.08382,   0.01416,  -0.05162,  -0.12515,  -0.00131,   0.03351,  -0.00131,   0.14187,  -0.01292,   0.02964,  -0.25285,  -0.01292,  -0.10967,  -0.15998,  -0.04775,   0.06060,  -0.02840,  -0.06710,  -0.03614,  -0.09806,  -0.00905,  -0.26059,   0.10317,   0.06447,   0.18830,  -0.07484,  -0.05549,   0.05286,  -0.12515,  -0.08258,  -0.09032,   0.07995,  -0.11354,  -0.25672,   0.16896,   0.03351,  -0.02453,  -0.05549,   0.08382,  -0.14450,  -0.01292,  -0.26446,   0.02577,   0.02577,   0.14961,   0.17670,  -0.11354,   0.05286,  -0.06323,   0.08382,   0.04899,  -0.03614,   0.01803,  -0.09032,   0.03351,  -0.00131,   0.01803,   0.16509,  -0.17932,   0.02190,   0.12252,  -0.03227,  -0.14063,   0.04512,   0.02577,   0.06060,  -0.03614,  -0.19867,  -0.10193,   0.20378,  -0.04388,   0.08382,  -0.00905,   0.00643,  -0.05549,  -0.14450
   0.04512,  -0.04001,  -0.06323,   0.26183,   0.01803,  -0.03614,   0.14574,  -0.22576,  -0.03227,   0.02577,  -0.16384,   0.01416,  -0.12902,  -0.07097,  -0.10967,   0.07608,  -0.08645,   0.02190,  -0.02066,   0.07608,  -0.07097,  -0.10193,  -0.19093,   0.24635,   0.06447,   0.23861,  -0.18319,  -0.09419,   0.19217,   0.01416,  -0.04001,  -0.12902,  -0.05936,   0.07608,  -0.19867,  -0.02453,   0.15735,   0.16509,  -0.01679,  -0.08645,   0.05673,  -0.17158,   0.02190,  -0.04775,  -0.17158,  -0.08258,   0.02964,  -0.11741,  -0.05162,   0.14961,  -0.15611,   0.02964,   0.18056,   0.14187,  -0.09032,   0.01416,  -0.00905,  -0.09032,   0.01416,   0.11865,  -0.15611,   0.06060,  -0.08258,  -0.18319,   0.03351,  -0.07484,  -0.19867,  -0.07484,  -0.16384,  -0.19480,   0.08382,   0.02190,  -0.07484,  -0.11741,   0.10704,   0.11865,  -0.09419,  -0.20641,  -0.02066,   0.02190,   0.06060,  -0.02066,   0.08382,  -0.10967,   0.10317,  -0.16384,   0.23861,  -0.17545,   0.13800,  -0.01292,  -0.04001,   0.02577,   0.06447,   0.16122,   0.09543,   0.01029,   0.23474,   0.03351,  -0.08258,   0.13026,  -0.05162,   0.09543,  -0.11741,  -0.00905,  -0.03227,   0.00256,  -0.04388,  -0.02840,   0.08769,   0.11091,  -0.07871,  -0.10967,   0.03351,  -0.07484,  -0.09806,  -0.07097,   0.03738,   0.07995,  -0.17158,   0.12252,   0.01803,   0.03351,   0.15348,  -0.11354,  -0.31090,   0.07608,   0.06060,   0.11478
   0.05673,   0.07995,   0.08769,  -0.27994,  -0.08258,   0.08382,  -0.06710,  -0.00131,   0.01416,  -0.04388,   0.12252,   0.15735,  -0.01292,   0.19604,   0.05673,  -0.07871,   0.16509,  -0.08645,  -0.26059,  -0.07097,  -0.19480,   0.08382,  -0.03614,  -0.06710,   0.02190,  -0.10580,   0.11478,   0.06060,   0.05286,  -0.07871,  -0.13676,   0.02964,  -0.04001,   0.14961,  -0.04001,  -0.05936,  -0.06323,  -0.02840,   0.07608,  -0.16384,   0.02964,  -0.24124,   0.03738,   0.09156,  -0.04388,  -0.00131,  -0.04775,  -0.03227,   0.04512,   0.13413,   0.08382,  -0.19867,  -0.01679,   0.01803,   0.06060,  -0.21415,   0.03351,   0.03351,   0.09156,   0.06834,  -0.08258,   0.00643,  -0.01292,  -0.08645,  -0.02453,   0.06834,   0.00643,  -0.14450,  -0.07484,   0.11091,  -0.13676,   0.01029,  -0.05549,  -0.05549,  -0.15611,  -0.06323,  -0.06710,   0.01803,   0.17670,  -0.12128,  -0.04001,   0.07221,   0.08382,   0.16896,  -0.10967,   0.06447,   0.11865,   0.07608,  -0.09806,   0.04899,  -0.04388,   0.01029,  -0.09419,  -0.03227,   0.04899,   0.06834,  -0.02840,  -0.04388,  -0.01292,  -0.03227,  -0.04001,   0.09543,   0.06447,  -0.02066,  -0.00518,  -0.00518,   0.28892,  -0.19867,   0.00643,  -0.09032,  -0.14837,  -0.16771,  -0.00518,  -0.10967,  -0.17932,  -0.12128,   0.04125,  -0.19480,  -0.09419,  -0.01292,  -0.04388,   0.11865,  -0.04775,   0.00256,  -0.19480,  -0.00905,  -0.15611,  -0.12902
   0.06447,   0.24635,   0.09543,  -0.20254,   0.08382,   0.09930,   0.01803,   0.16896,   0.04512,  -0.04775,  -0.07871,   0.13413,  -0.04775,   0.07608,   0.07221,  -0.13289,  -0.08258,  -0.20254,  -0.07484,   0.10317,   0.07221,   0.13413,   0.12252,  -0.26059,   0.12252,  -0.00131,   0.23861,   0.03738,  -0.11741,   0.02190,   0.01029,   0.28118,  -0.13289,  -0.21415,   0.02190,  -0.14063,   0.22313,   0.02964,   0.19217,   0.15735,   0.17670,  -0.19480,  -0.11354,   0.04125,   0.02190,   0.17670,  -0.10967,  -0.01292,  -0.05162,  -0.02066,  -0.11741,  -0.04388,   0.13026,  -0.00131,   0.01416,  -0.08258,  -0.05936,  -0.10580,  -0.11741,  -0.04388,   0.12252,   0.00643,  -0.20254,   0.05673,  -0.10967,   0.02577,   0.07995,  -0.10580,   0.13026,   0.05286,  -0.00905,  -0.00905,  -0.15998,   0.06834,  -0.09419,   0.02190,  -0.01292,  -0.02453,   0.19991,  -0.12902,   0.17283,   0.02190,  -0.15611,   0.03351,  -0.07097,   0.00256,  -0.13676,   0.00256,   0.09930,   0.18056,   0.06060,  -0.28768,   0.00256,  -0.03614,   0.01416,   0.10704,   0.21539,   0.01029,  -0.05549,  -0.05549,  -0.15611,  -0.06323,   0.19604,   0.13413,   0.12252,   0.06834,   0.13413,   0.08769,   0.10704,  -0.06323,  -0.11741,  -0.14450,   0.15348,  -0.00518,   0.07608,   0.14574,  -0.08258,   0.02964,  -0.07484,  -0.12902,   0.04125,   0.00256,  -0.09806,  -0.05936,   0.06060,  -0.04001,   0.01029,  -0.06323
   0.05673,   0.00256,   0.06834,  -0.15998,  -0.10193,  -0.09032,  -0.21028,   0.00256,   0.06834,  -0.01292,   0.14574,  -0.09806,   0.00643,   0.01416,  -0.06323,   0.10317,  -0.06710,   0.03738,   0.00643,   0.23474,   0.27731,  -0.17545,   0.00643,  -0.07484,   0.14961,   0.08769,   0.01416,   0.02190,  -0.15611,   0.05286,   0.10317,   0.30440,  -0.04775,   0.06060,   0.02964,  -0.03227,  -0.00518,   0.08382,   0.25796,   0.04512,  -0.14063,  -0.06710,  -0.09419,   0.07608,  -0.21802,   0.07608,   0.00256,   0.08382,   0.05673,  -0.00905,   0.07608,   0.02190,   0.16896,   0.12252,  -0.04388,   0.17283,  -0.10967,  -0.15224,   0.12252,   0.09156,   0.09156,  -0.08258,  -0.12902,   0.20378,  -0.14837,  -0.19093,   0.24635,   0.10317,   0.12252,   0.02577,  -0.01292,   0.13413,   0.09543,  -0.04001,  -0.09806,  -0.09806,  -0.09032,  -0.07097,   0.22700,  -0.04001,  -0.11741,   0.05673,  -0.07871,   0.09156,   0.00256,   0.10704,  -0.10967,  -0.00905,  -0.02453,   0.07995,  -0.18319,  -0.13676,   0.01029,  -0.03614,  -0.14837,  -0.24898,   0.00643,  -0.19093,   0.08382,  -0.21028,   0.11865,   0.04125,   0.14574,  -0.18319,  -0.16771,   0.11865,   0.07608,  -0.08645,  -0.03227,  -0.00518,   0.02964,  -0.05936,  -0.08645,   0.01029,  -0.01292,   0.08382,  -0.14063,  -0.09806,   0.00256,  -0.01679,  -0.26059,  -0.21028,  -0.17932,  -0.16384,   0.04125,  -0.19480,  -0.19093,  -0.02066
  -0.11354,  -0.09032,  -0.13676,  -0.11741,  -0.14063,   0.07995,  -0.09806,  -0.15998,   0.10704,  -0.00131,  -0.09419,  -0.03227,  -0.22963,  -0.10580,   0.14187,   0.01416,   0.13026,  -0.18706,  -0.02066,   0.01416,   0.11478,  -0.10967,   0.04512,   0.12639,  -0.14063,   0.05286,  -0.15611,  -0.12128,  -0.32638,  -0.09806,   0.08382,   0.18443,  -0.15998,   0.21539,  -0.07871,  -0.00518,  -0.05549,  -0.09806,   0.09543,   0.06834,  -0.13289,   0.18056,  -0.10580,   0.01803,  -0.06323,   0.06447,   0.18056,  -0.35346,  -0.03227,   0.17670,  -0.06323,   0.07221,   0.09930,   0.11091,   0.16896,  -0.09806,   0.23861,  -0.07484,  -0.15998,   0.12252,  -0.07871,  -0.03227,  -0.09032,   0.19217,  -0.15224,  -0.07871,  -0.12515,   0.24635,   0.07995,   0.04125,   0.26183,  -0.07484,  -0.21802,  -0.17545,  -0.03227,   0.21152,  -0.01679,  -0.05549,   0.20378,   0.00256,  -0.05162,   0.03738,  -0.00905,  -0.05549,  -0.17158,   0.14961,  -0.04775,   0.11478,   0.05286,  -0.04001,   0.04125,   0.09930,  -0.12902,  -0.25672,   0.07608,  -0.07871,  -0.01292,  -0.11741,  -0.16384,  -0.03227,   0.03738,   0.01803,  -0.11354,  -0.02840,  -0.03227,  -0.02066,   0.00256,   0.03351,   0.21152,   0.09930,  -0.00518,   0.09930,   0.13413,  -0.19867,  -0.13676,  -0.11741,  -0.02453,   0.12252,  -0.04001,   0.17670,   0.14574,  -0.06710,  -0.22963,  -0.07484,  -0.14450,  -0.03227,   0.30053,   0.05286
  -0.06710,   0.10704,   0.10704,  -0.01679,  -0.02840,   0.13413,  -0.01679,   0.03738,  -0.16384,  -0.10193,   0.07995,  -0.29929,   0.14574,   0.20378,  -0.17158,   0.09156,  -0.03227,   0.00643,   0.07608,   0.04512,   0.04899,   0.05673,   0.16896,   0.00643,   0.01803,  -0.00518,   0.05673,   0.02577,  -0.04388,  -0.11741,   0.07608,  -0.15224,   0.14961,  -0.00131,   0.17670,  -0.15998,  -0.05936,   0.25796,   0.00643,   0.08382,  -0.16384,   0.07995,  -0.21028,  -0.00905,  -0.03614,   0.06447,  -0.14837,   0.00256,   0.10704,   0.20378,   0.06834,  -0.09032,   0.01029,   0.08382,   0.13800,   0.19604,  -0.02066,  -0.00905,  -0.12515,  -0.21028,  -0.09806,  -0.03227,   0.02964,   0.01416,   0.13026,  -0.05936,   0.09930,  -0.12902,   0.02577,   0.06447,  -0.31864,  -0.02840,   0.07608,   0.04899,   0.04512,   0.02577,   0.01416,   0.09543,   0.07221,   0.02577,  -0.11741,  -0.00518,  -0.11354,  -0.14063,   0.26183,  -0.00905,   0.07221,  -0.01292,  -0.02066,   0.05286,  -0.04001,  -0.04775,  -0.21802,   0.17670,   0.09930,  -0.13289,  -0.12902,  -0.03227,  -0.10580,  -0.11354,  -0.22576,   0.13800,   0.13800,  -0.20641,   0.03738,   0.09156,  -0.04775,  -0.07484,   0.05286,  -0.10580,  -0.08645,  -0.19093,   0.03351,   0.16509,  -0.12128,  -0.03614,   0.14187,   0.11865,  -0.15998,  -0.14837,  -0.14837,  -0.02453,  -0.07484,   0.15735,   0.07608,   0.09156,  -0.05162,  -0.14837
  -0.04775,   0.03738,   0.03351,   0.13026,  -0.03614,  -0.00518,   0.08382,  -0.00905,   0.05673,   0.16896,   0.14961,  -0.10580,   0.14574,  -0.04388,   0.13026,  -0.08258,   0.00643,  -0.21028,   0.16896,  -0.01292,  -0.13676,   0.04512,   0.20765,  -0.19867,  -0.21028,   0.00256,  -0.10967,  -0.02066,   0.07608,   0.12639,   0.07221,  -0.02840,  -0.10580,  -0.00131,  -0.22963,   0.11478,   0.19991,   0.07995,   0.15348,  -0.21415,  -0.00905,   0.11478,  -0.21415,  -0.16384,   0.06060,  -0.17158,   0.22700,  -0.17932,   0.19991,  -0.10967,  -0.16771,   0.10704,  -0.07484,   0.04125,   0.02190,   0.06060,   0.02577,   0.07995,   0.02964,  -0.10580,   0.14187,  -0.00905,  -0.03227,  -0.15224,   0.02964,  -0.01292,   0.03351,  -0.01292,   0.07608,   0.03738,   0.01803,   0.16509,  -0.29155,   0.00256,  -0.01679,  -0.00518,  -0.21415,  -0.02453,  -0.10580,  -0.04775,   0.04899,  -0.24124,   0.02964,   0.06834,   0.05286,  -0.31477,   0.09543,   0.13800,  -0.02453,   0.07221,   0.09156,   0.00643,   0.06834,   0.08382,   0.31214,  -0.12128,  -0.02066,   0.02577,  -0.05936,   0.15348,   0.32375,  -0.15611,  -0.02453,   0.13026,   0.13413,  -0.03614,   0.14187,  -0.04001,   0.01803,   0.11865,   0.13800,   0.10704,  -0.13289,  -0.03227,   0.09543,  -0.02066,   0.09930,  -0.12128,  -0.12902,   0.13026,  -0.10580,  -0.02840,  -0.16771,   0.03351,  -0.17545,   0.04125,   0.12639,  -0.12902
  -0.01292,  -0.07484,  -0.16771,   0.04512,   0.10704,   0.21539,   0.01803,  -0.17158,  -0.04775,  -0.06323,  -0.13289,   0.03738,   0.11091,   0.04899,  -0.03227,   0.07608,   0.11865,   0.08382,  -0.05936,   0.06447,   0.01416,  -0.19093,   0.13026,  -0.21802,  -0.10580,   0.04512,  -0.01292,  -0.10193,   0.04899,   0.04512,  -0.09419,   0.03738,   0.08769,  -0.01679,  -0.00518,  -0.14450,   0.02964,   0.00256,   0.14574,  -0.11354,   0.05286,  -0.05162,   0.03351,   0.05673,   0.09156,  -0.04388,  -0.00518,  -0.09032,  -0.19093,   0.03738,   0.13413,  -0.04775,   0.10317,   0.13413,   0.39727,  -0.04388,   0.00643,   0.05286,   0.21539,  -0.02066,  -0.03614,  -0.12128,  -0.06323,  -0.00905,  -0.10193,   0.01803,   0.18830,   0.04899,  -0.12128,   0.19217,  -0.03614,  -0.02066,  -0.00518,   0.04899,   0.03738,  -0.03614,   0.01029,   0.06834,   0.15735,  -0.10580,   0.14574,  -0.07871,  -0.20641,   0.06060,   0.21539,  -0.10967,   0.00256,  -0.10193,   0.03738,   0.04125,  -0.11354,  -0.10967,   0.06834,  -0.08645,  -0.03227,   0.07221,   0.18056,  -0.04775,   0.17283,   0.07995,   0.05673,   0.00256,   0.03738,  -0.10193,   0.05673,  -0.01292,   0.18830,  -0.04775,   0.08769,   0.02577,   0.02577,   0.14187,   0.02964,   0.02964,   0.04899,  -0.02453,   0.03351,   0.00643,  -0.04001,  -0.06710,  -0.14837,  -0.07484,   0.01416,  -0.02840,   0.02577,  -0.09806,  -0.05162,  -0.13289
  -0.09419,   0.19604,   0.07221,   0.06060,   0.01029,  -0.07484,  -0.18319,   0.02190,  -0.11354,  -0.03227,  -0.02453,   0.07221,  -0.05162,   0.22313,   0.04899,   0.05673,  -0.04001,  -0.00905,  -0.06710,  -0.12515,  -0.07097,   0.01029,  -0.12902,  -0.17545,   0.16122,   0.01803,   0.07221,   0.16509,  -0.00131,   0.15348,  -0.22963,  -0.06710,   0.08769,  -0.29155,  -0.26833,  -0.17545,  -0.16384,  -0.15224,  -0.02840,   0.12252,  -0.14450,   0.09156,   0.15735,  -0.00131,   0.06060,  -0.15998,   0.06060,   0.02190,   0.14961,  -0.22189,  -0.03227,   0.06834,   0.25022,  -0.14837,  -0.05162,  -0.07871,  -0.00905,   0.06060,   0.00256,   0.04125,  -0.18319,  -0.02840,   0.01803,   0.20378,  -0.02453,  -0.21415,  -0.16384,   0.01029,  -0.05162,   0.14961,  -0.08258,   0.06060,   0.19217,  -0.04775,  -0.21028,  -0.03614,   0.09543,   0.01029,   0.00643,  -0.19093,   0.02190,  -0.07484,  -0.04001,  -0.16384,  -0.04388,  -0.03614,   0.02190,  -0.02066,   0.29666,   0.02190,  -0.17545,  -0.09419,  -0.05549,  -0.03614,   0.16509,  -0.03614,   0.05673,   0.27344,  -0.02453,  -0.00131,  -0.00905,   0.07995,   0.00643,  -0.09419,  -0.19480,  -0.12515,  -0.09419,  -0.02066,   0.14961,   0.16896,  -0.21028,  -0.13289,  -0.08258,   0.02964,  -0.21802,  -0.15611,  -0.16771,   0.05673,  -0.07097,  -0.12902,   0.07995,   0.15735,   0.00643,   0.12639,   0.13800,   0.07995,   0.06834,   0.07221
  -0.03614,  -0.23737,  -0.07097,   0.22700,   0.21539,  -0.03227,   0.00256,  -0.03227,  -0.02453,   0.05673,   0.21539,   0.04899,   0.11865,  -0.36894,  -0.20641,  -0.00518,   0.25022,   0.00643,   0.10317,   0.25022,  -0.15224,   0.05673,  -0.06323,  -0.06710,  -0.10967,  -0.18319,  -0.22189,   0.01029,  -0.12902,   0.07995,  -0.02840,   0.03738,   0.35857,  -0.14837,   0.10317,   0.04512,   0.24635,   0.15735,  -0.15611,  -0.17545,  -0.04388,  -0.28381,   0.02577,   0.17283,   0.13026,  -0.01679,   0.13800,  -0.22189,  -0.18706,  -0.05936,  -0.02840,  -0.05549,  -0.14063,  -0.03614,   0.02964,   0.08769,   0.14574,   0.09930,   0.18443,  -0.03227,  -0.13289,   0.19604,  -0.17158,  -0.06710,   0.19217,   0.01416,   0.00643,  -0.22963,   0.03738,  -0.04001,   0.01416,   0.02190,  -0.18706,  -0.17158,   0.18443,   0.26183,   0.17283,   0.17283,  -0.02066,   0.14574,   0.12639,  -0.11741,  -0.08258,  -0.03227,  -0.00905,  -0.18706,   0.08769,   0.14574,   0.07221,  -0.01292,  -0.04388,   0.07221,   0.13413,  -0.10580,  -0.04001,   0.06060,   0.06834,  -0.10967,  -0.08258,   0.01803,  -0.04001,  -0.00905,   0.32762,   0.22313,  -0.07484,   0.16896,  -0.11354,  -0.18319,  -0.08645,  -0.16771,  -0.21415,   0.42823,   0.08382,   0.19217,  -0.17158,   0.06834,   0.28892,  -0.14837,  -0.06323,  -0.05162,  -0.18706,  -0.05162,   0.03738,   0.40888,  -0.12128,   0.10317,  -0.16384,   0.28118
