  -0.13352,   0.03095,  -0.04604,  -0.04604,   0.02046,  -0.07053,   0.04845,  -0.04604,  -0.02854,   0.09745,   0.04845,   0.04145,   0.18143,  -0.06003,   0.06945,  -0.01104,  -0.17202,  -0.00404,   0.02396,  -0.01454,   0.00646,   0.15344,   0.05195,   0.16044,  -0.01804,   0.04495,  -0.07753,  -0.03204,  -0.03554,   0.12194,  -0.11953,   0.03795,  -0.10203,   0.00996,  -0.04604,  -0.03204,  -0.00404,  -0.07403,   0.00296,   0.19893,  -0.11603,   0.06945,  -0.07753,   0.16044,  -0.17552,   0.03095,  -0.14402,  -0.00054,   0.09045,   0.07995,   0.18493,  -0.03554,  -0.13702,  -0.06003,  -0.02154,  -0.13002,  -0.21751,   0.18143,  -0.09503,   0.05545,  -0.15452,   0.07645,   0.03795,   0.04145,  -0.02154,  -0.11603,  -0.13002,   0.02046,   0.02396,  -0.08803,   0.04845,  -0.03904,  -0.10203,  -0.21751,  -0.12303,  -0.11253,   0.00646,  -0.01454,  -0.15102,   0.07645,   0.04145,  -0.03204,   0.09395,  -0.22101,   0.22693,  -0.02154,  -0.01104,   0.00296,  -0.29800,   0.14644,  -0.12652,   0.12894,   0.17094,  -0.07403,   0.00646,  -0.17552,  -0.27701,   0.02745,  -0.18602,  -0.14752,   0.08345,  -0.08453,  -0.19652,   0.06245,  -0.09153,  -0.06003,  -0.04604,   0.17794,   0.02396,   0.05195,  -0.00754,  -0.16152,  -0.11603,   0.26192,   0.07645,   0.07645,   0.05195,   0.07295,   0.20243,  -0.12652,   0.03795,   0.14294,   0.06595,   0.14994,   0.00996,  -0.08103,  -0.07753,   0.06245
   0.12194,   0.13244,   0.00646,  -0.01804,   0.17444,   0.13244,  -0.03904,   0.12894,   0.02396,  -0.15452,   0.02745,   0.09045,  -0.09153,   0.00296,  -0.02504,   0.26542,  -0.01454,   0.13594,   0.04845,   0.09395,  -0.16152,  -0.21751,   0.16394,  -0.08453,   0.10794,   0.02046,   0.17094,   0.01696,  -0.20701,  -0.11253,   0.07295,   0.01696,   0.06245,   0.11844,  -0.02504,   0.02396,   0.02046,  -0.17552,   0.09745,   0.04845,   0.03095,   0.04845,   0.01696,   0.03095,  -0.09503,   0.10095,  -0.18952,   0.29342,   0.29342,  -0.00754,   0.02745,  -0.05653,   0.14994,   0.21993,   0.13244,  -0.27351,   0.08345,   0.00296,  -0.10203,  -0.07403,  -0.03204,  -0.05653,   0.03095,   0.02396,   0.09745,  -0.03554,   0.23393,   0.02745,  -0.01804,   0.10794,  -0.07403,  -0.10553,   0.14294,   0.03095,  -0.07403,  -0.18952,   0.17794,  -0.04954,  -0.05303,  -0.03554,   0.07995,  -0.08803,  -0.11603,   0.07295,   0.04145,  -0.04254,  -0.02504,  -0.24201,   0.06595,   0.04145,   0.05545,   0.04845,   0.04495,  -0.01104,   0.04845,   0.05895,   0.02396,  -0.20002,   0.09745,   0.03445,   0.00646,  -0.08803,  -0.08453,  -0.09853,  -0.13002,   0.14294,  -0.09153,   0.23043,   0.12544,  -0.00404,  -0.10903,   0.10095,   0.12544,   0.05195,   0.09745,  -0.05303,   0.02046,  -0.01454,   0.06945,   0.01696,  -0.12303,  -0.01804,  -0.01454,   0.15344,  -0.17202,  -0.14052,  -0.21051,   0.05545
  -0.06003,  -0.07053,   0.12544,   0.04495,   0.06245,   0.17094,   0.05195,  -0.01454,  -0.06703,   0.10794,  -0.10903,   0.07645,   0.08345,  -0.12303,  -0.10553,  -0.04254,  -0.09503,  -0.12303,   0.10444,  -0.21051,   0.03095,   0.15344,  -0.05303,   0.14994,  -0.10553,  -0.14052,   0.04845,   0.11494,  -0.30500,  -0.00754,  -0.04954,  -0.11953,   0.01696,   0.05545,   0.02396,   0.13944,   0.05195,   0.24093,   0.01696,  -0.10553,  -0.19302,   0.05545,   0.17094,  -0.00054,   0.04495,   0.29692,   0.02745,   0.07995,   0.04495,  -0.11953,   0.13594,   0.06945,   0.07295,   0.06945,  -0.18252,  -0.07753,  -0.07403,  -0.25951,  -0.03554,  -0.01804,  -0.14752,   0.04845,  -0.06003,   0.11844,   0.05895,   0.02396,   0.01696,  -0.08803,  -0.05303,   0.00996,   0.14644,  -0.08803,  -0.04954,   0.13244,   0.05895,   0.16394,  -0.09853,  -0.04954,  -0.01454,   0.11144,  -0.02854,   0.11144,   0.29342,   0.38441,   0.03445,  -0.14752,   0.06945,  -0.23501,   0.12894,   0.00296,  -0.04954,  -0.13002,   0.22343,   0.29692,   0.07995,  -0.03554,  -0.02504,  -0.00054,  -0.03554,   0.11494,   0.18493,  -0.24201,   0.19543,  -0.31550,  -0.02854,   0.00296,   0.25492,  -0.08453,  -0.07403,  -0.16152,   0.04495,   0.02046,  -0.10553,   0.06595,  -0.15102,  -0.02504,   0.04145,   0.04845,   0.25842,   0.14994,  -0.09503,  -0.18252,   0.02046,  -0.04254,   0.11494,   0.02745,  -0.09153,  -0.20351
  -0.04604,   0.02046,  -0.09853,  -0.05653,  -0.22801,   0.04495,  -0.08103,  -0.14052,   0.01696,   0.10444,   0.03795,   0.08695,   0.04495,  -0.11953,  -0.01104,   0.03795,  -0.13352,  -0.02504,   0.02745,  -0.01804,   0.06945,   0.00296,  -0.03554,  -0.00054,   0.08345,  -0.05303,   0.08345,   0.02745,  -0.17552,   0.14644,   0.11144,  -0.01804,  -0.16852,   0.04145,   0.03445,  -0.05653,   0.03445,   0.12544,  -0.14402,  -0.17902,  -0.03204,  -0.06353,  -0.02154,   0.10794,   0.22693,   0.02396,  -0.08103,  -0.17552,  -0.03904,  -0.00754,   0.07295,  -0.07403,   0.07645,   0.12544,  -0.18252,   0.04145,  -0.01454,  -0.08803,  -0.02504,  -0.05303,   0.10794,  -0.10553,   0.00296,  -0.07403,   0.05895,  -0.11603,  -0.01104,   0.14644,  -0.00754,   0.10444,  -0.27701,   0.05895,   0.04495,   0.02046,  -0.06353,  -0.08453,  -0.01804,  -0.15452,   0.06945,   0.13594,   0.20593,  -0.09153,  -0.07403,  -0.00754,  -0.04954,   0.11844,  -0.04254,   0.02745,  -0.08453,  -0.11953,   0.07995,  -0.11253,   0.14294,   0.05545,  -0.13352,  -0.01804,  -0.09153,  -0.15802,   0.12194,  -0.00054,   0.10444,  -0.12303,  -0.02154,  -0.14402,  -0.21051,  -0.07053,  -0.11603,  -0.07053,   0.03445,  -0.03904,  -0.00754,  -0.10903,   0.07995,   0.02396,  -0.04254,   0.03095,   0.06595,  -0.14752,  -0.01804,   0.07645,   0.00996,   0.01696,  -0.11253,  -0.32950,   0.02046,   0.15694,   0.12894,  -0.13352
   0.14294,   0.14644,   0.27242,  -0.07753,  -0.00754,   0.09395,  -0.25951,  -0.15452,   0.12544,  -0.12652,  -0.04954,  -0.06353,  -0.09153,   0.04845,   0.04845,   0.06245,   0.03795,  -0.09853,  -0.03554,  -0.00054,   0.09395,  -0.04254,  -0.13702,   0.08695,   0.04845,   0.04845,  -0.06353,   0.07995,  -0.19652,   0.03445,  -0.02854,  -0.13352,  -0.01104,   0.09045,   0.03445,   0.06595,  -0.10553,  -0.05653,  -0.19302,   0.07645,  -0.04604,  -0.09153,   0.12544,   0.02396,  -0.07753,   0.13594,  -0.11953,   0.03445,   0.03795,  -0.01454,  -0.03204,   0.03795,  -0.18602,   0.00646,   0.21293,   0.04145,   0.08695,   0.02745,  -0.08103,   0.02396,   0.09745,   0.08695,  -0.27351,  -0.14402,  -0.14402,  -0.00054,   0.14994,   0.02396,   0.04845,   0.00296,  -0.04254,  -0.01804,  -0.01804,   0.13944,   0.06945,   0.07645,   0.00646,  -0.07053,  -0.01804,   0.18143,   0.37391,  -0.02154,   0.07645,  -0.14752,  -0.06003,   0.02396,   0.21993,  -0.05653,  -0.02504,   0.19543,   0.03445,  -0.10203,   0.10095,   0.12544,  -0.12652,  -0.09153,   0.23043,  -0.11603,   0.14644,  -0.08803,  -0.11603,   0.16744,   0.05195,  -0.17202,   0.00646,   0.07295,  -0.07403,  -0.12303,  -0.02504,  -0.07403,   0.04845,  -0.04954,   0.21643,  -0.02504,  -0.08103,  -0.23151,   0.01696,  -0.22801,   0.02396,  -0.06353,  -0.06353,  -0.08453,   0.00646,   0.06945,   0.00296,  -0.02154,   0.17094,  -0.29450
  -0.07403,   0.07645,   0.11144,   0.13244,   0.17794,  -0.08453,  -0.15802,  -0.01804,   0.08345,  -0.03554,  -0.00404,  -0.01454,   0.02396,   0.17794,  -0.01804,   0.21643,  -0.02504,  -0.02504,   0.01346,  -0.14052,   0.04495,  -0.07053,   0.19543,  -0.10553,  -0.27701,  -0.08103,   0.00646,  -0.06003,  -0.01804,  -0.10903,  -0.04254,  -0.12303,   0.16744,  -0.08103,  -0.05303,   0.01696,   0.02745,  -0.18252,  -0.02854,  -0.02154,  -0.01104,   0.12194,   0.07995,   0.19893,  -0.14052,   0.02046,   0.00296,   0.07645,   0.10794,  -0.03904,   0.08345,   0.08345,   0.09395,  -0.06703,   0.01696,  -0.10553,  -0.08803,   0.13244,  -0.03904,  -0.04604,  -0.19302,   0.02046,  -0.01804,  -0.02154,   0.15694,  -0.26301,  -0.20701,   0.02046,   0.04845,  -0.01804,  -0.17552,   0.11494,  -0.00404,   0.07295,  -0.07053,  -0.08803,   0.00646,   0.03445,   0.14644,   0.08345,  -0.06003,  -0.08453,  -0.00754,  -0.02854,  -0.09853,   0.25143,   0.09745,  -0.03204,  -0.05303,   0.11494,  -0.09153,  -0.06003,  -0.18602,   0.12194,  -0.06003,   0.06245,  -0.02154,   0.12194,  -0.00404,   0.06595,  -0.01104,   0.03095,  -0.11953,  -0.04954,  -0.16502,  -0.17902,   0.09045,  -0.04254,  -0.00054,  -0.20701,  -0.03904,   0.06945,  -0.16502,  -0.06003,   0.10794,  -0.13702,   0.17094,  -0.11253,  -0.11953,   0.10444,   0.12194,  -0.04604,   0.07995,   0.06595,   0.02046,   0.02046,  -0.03554,  -0.01454
   0.10794,   0.00646,   0.00996,   0.16394,  -0.02854,  -0.00404,   0.06245,  -0.07403,   0.17094,   0.02046,   0.13944,   0.06945,   0.18493,  -0.12303,  -0.01454,   0.00646,  -0.00754,   0.07295,   0.18493,   0.14994,  -0.03904,   0.04845,   0.09045,  -0.06703,   0.07645,  -0.07753,  -0.06353,   0.25842,   0.10444,   0.15694,   0.02396,   0.19893,   0.02745,   0.12544,  -0.03204,   0.11494,  -0.11953,  -0.01454,   0.10794,   0.00996,   0.08695,  -0.20002,   0.11844,  -0.07403,  -0.13352,   0.04145,  -0.14052,  -0.15102,   0.04145,  -0.06353,   0.09395,  -0.04254,  -0.11253,  -0.16152,  -0.07403,   0.07995,  -0.00054,   0.10794,   0.10444,   0.00646,  -0.12652,   0.07295,   0.01346,   0.03445,   0.06245,  -0.11953,  -0.20351,   0.14294,   0.11494,   0.08695,  -0.03204,   0.05195,   0.06595,   0.07295,   0.00296,  -0.06353,  -0.02854,  -0.02154,  -0.12652,   0.16744,   0.05195,   0.06595,  -0.10903,   0.01696,   0.15694,  -0.14052,   0.13944,   0.09045,   0.17444,   0.02396,  -0.10553,   0.02745,   0.22693,  -0.07753,   0.14994,  -0.14402,   0.06595,  -0.03204,   0.03445,  -0.06353,  -0.24901,  -0.00054,   0.14644,   0.15344,  -0.12303,   0.08345,   0.16394,   0.10794,  -0.25601,  -0.00754,  -0.12303,  -0.02504,   0.05195,   0.13244,   0.00996,  -0.04254,   0.23743,  -0.00754,  -0.12303,  -0.22451,   0.04495,   0.05545,  -0.00404,  -0.32250,   0.00996,   0.03095,   0.01696,   0.24093
  -0.05653,   0.16044,  -0.10203,  -0.01804,  -0.03204,   0.14294,   0.06945,  -0.04954,  -0.05303,   0.10444,   0.10444,   0.16394,  -0.05303,   0.10444,   0.00646,   0.25492,   0.08695,  -0.09153,   0.02046,  -0.19652,   0.09745,   0.06945,   0.19543,  -0.04954,   0.00996,  -0.07753,   0.02745,   0.11844,   0.02396,   0.12194,   0.12544,   0.08695,  -0.06703,   0.19193,  -0.11953,   0.07295,  -0.11953,   0.05545,   0.10794,  -0.00404,  -0.11953,   0.00296,  -0.11253,  -0.20351,  -0.02504,   0.26192,   0.04495,   0.06945,  -0.18602,   0.14294,   0.03445,  -0.01804,  -0.07053,  -0.02854,  -0.10553,  -0.10553,   0.10095,  -0.10203,  -0.09153,   0.05545,  -0.10203,  -0.14402,  -0.09153,  -0.07753,  -0.01804,  -0.15452,  -0.08803,  -0.00754,  -0.04254,  -0.08453,  -0.04254,   0.12894,  -0.02854,  -0.07053,  -0.05653,  -0.16502,   0.01696,  -0.13352,   0.00296,  -0.06703,   0.07645,   0.09395,  -0.11253,  -0.00054,   0.04145,   0.07645,  -0.07053,  -0.13002,   0.00646,   0.20243,   0.16044,   0.06245,   0.09745,   0.05545,   0.02396,   0.02396,  -0.11253,  -0.22451,   0.01346,  -0.07053,   0.00996,   0.10095,   0.04145,   0.00996,   0.15694,  -0.20351,  -0.02854,  -0.18952,   0.06945,  -0.17552,  -0.06703,  -0.25251,  -0.04954,  -0.09853,   0.08345,  -0.00054,   0.07995,  -0.09853,   0.13594,   0.05195,  -0.08103,  -0.11953,   0.14644,   0.08345,  -0.00404,  -0.09503,  -0.16502,   0.11494
  -0.03554,   0.19893,   0.21293,  -0.27701,   0.07995,   0.02396,   0.09395,  -0.03204,  -0.09853,   0.13594,   0.06595,   0.04145,   0.04845,  -0.15102,  -0.01104,   0.08695,  -0.10203,  -0.07403,   0.05895,   0.14644,   0.16044,   0.08695,   0.13944,   0.06245,  -0.07053,   0.04845,  -0.18252,  -0.06353,  -0.03554,   0.05895,  -0.15802,   0.10794,   0.02396,   0.05195,   0.06945,  -0.07053,   0.10794,  -0.08803,   0.08695,   0.02745,  -0.22801,  -0.01104,   0.04845,   0.21293,  -0.12652,   0.16044,   0.15694,  -0.07053,   0.19193,   0.06945,   0.20593,   0.27942,   0.01696,  -0.13702,  -0.06703,  -0.11603,   0.15694,   0.15694,  -0.10553,  -0.04254,  -0.06003,   0.02745,  -0.05653,   0.09395,   0.04845,  -0.07053,   0.25492,  -0.13002,  -0.12303,   0.02046,   0.11844,  -0.03904,  -0.20351,  -0.16852,   0.24093,   0.09745,   0.03095,   0.07645,  -0.04954,   0.12544,  -0.05653,  -0.04604,   0.12894,  -0.12652,   0.16044,  -0.02154,   0.08695,  -0.16502,   0.24793,  -0.12652,  -0.16502,  -0.08453,   0.00996,   0.08695,   0.06245,  -0.02854,   0.05545,  -0.18252,  -0.15802,  -0.01454,   0.13244,  -0.04604,  -0.06003,   0.00646,  -0.00054,  -0.02504,   0.11494,  -0.08453,   0.08345,  -0.04604,  -0.02504,  -0.08453,  -0.15452,  -0.00404,  -0.11953,   0.25143,  -0.07403,  -0.02154,   0.10095,   0.13594,   0.09395,   0.00996,   0.00646,   0.01346,   0.02046,   0.06245,   0.05895,   0.09395
   0.09045,  -0.03204,   0.20593,  -0.10203,   0.04845,   0.11494,  -0.16852,   0.10095,  -0.08803,   0.11144,  -0.01804,  -0.01104,  -0.03904,  -0.03904,  -0.10553,  -0.15452,   0.13944,   0.10095,   0.06945,  -0.07403,   0.11144,  -0.09853,   0.07995,  -0.15452,  -0.00754,   0.21993,   0.07995,  -0.00054,  -0.01454,  -0.09153,  -0.11603,   0.20243,   0.06245,   0.03095,   0.05195,   0.15694,   0.04495,   0.06245,  -0.08103,  -0.00404,   0.05895,  -0.06353,  -0.00754,  -0.08803,   0.01346,  -0.03904,  -0.09503,   0.15344,  -0.12303,   0.09045,  -0.00404,   0.03795,  -0.09853,  -0.10203,   0.02046,   0.02046,   0.04495,  -0.06003,  -0.04604,   0.16394,   0.04145,  -0.21051,  -0.21401,   0.06595,  -0.14052,   0.04145,   0.16744,   0.09395,   0.00646,   0.00646,   0.07645,   0.21993,  -0.20002,  -0.26651,  -0.13002,   0.08345,  -0.17552,   0.04495,   0.09745,   0.11144,   0.01346,   0.03095,   0.01696,  -0.00404,  -0.00054,   0.04145,  -0.24551,   0.02396,  -0.00754,  -0.12652,  -0.02854,  -0.06353,   0.21293,   0.17444,   0.01696,   0.14294,   0.11144,  -0.04604,   0.17444,   0.07295,  -0.30500,   0.14644,  -0.08803,   0.16394,  -0.02154,  -0.11953,   0.03095,   0.06245,   0.14294,  -0.20002,  -0.06003,  -0.04604,   0.09745,   0.14994,   0.05195,  -0.35050,  -0.11253,   0.03795,   0.25842,  -0.21401,   0.18143,   0.02396,  -0.08803,   0.37391,   0.19543,   0.06595,  -0.01804,  -0.01454
   0.28642,  -0.11253,  -0.09153,  -0.10203,  -0.07403,   0.01696,  -0.06353,  -0.11603,  -0.01804,   0.11844,  -0.10203,   0.06595,  -0.15102,   0.22343,   0.21643,  -0.16852,  -0.32250,   0.02046,  -0.03554,   0.07645,   0.13244,  -0.20351,  -0.02504,  -0.02504,  -0.02854,  -0.05303,   0.15694,  -0.06353,  -0.11253,   0.16394,  -0.07753,   0.03795,   0.11844,  -0.06353,   0.02046,   0.09745,  -0.09153,   0.08345,   0.19543,   0.06245,   0.03795,   0.05195,   0.06595,  -0.05303,   0.13944,   0.09745,  -0.07403,  -0.04604,  -0.04254,   0.07995,  -0.08103,  -0.17202,   0.07995,  -0.00054,   0.13244,  -0.15452,   0.23043,   0.03795,   0.00296,  -0.22451,   0.08345,   0.21643,  -0.02854,   0.21293,  -0.24201,  -0.04254,  -0.16502,   0.20243,  -0.00404,  -0.04954,   0.00996,   0.07295,  -0.05303,   0.01696,   0.14994,   0.06595,  -0.02154,   0.02745,  -0.05653,   0.00996,   0.01346,  -0.08803,  -0.15802,  -0.14752,   0.04845,  -0.03904,   0.06945,  -0.08803,  -0.20002,  -0.06703,   0.01696,  -0.02854,   0.00996,  -0.08103,  -0.05653,   0.04495,  -0.13352,   0.11144,   0.10794,  -0.01104,  -0.17552,  -0.21051,   0.10095,   0.01346,   0.17794,  -0.17902,  -0.01104,  -0.02154,   0.19193,   0.05195,  -0.05653,   0.08345,   0.06245,  -0.05653,  -0.03554,  -0.02154,   0.02396,  -0.08103,   0.21293,   0.06245,   0.03795,   0.02745,  -0.01454,  -0.05303,   0.11144,  -0.20002,   0.25842,  -0.04954
  -0.06703,   0.15694,   0.02046,  -0.05653,   0.00296,  -0.13702,   0.25842,  -0.04954,  -0.12303,  -0.09503,  -0.02504,  -0.14052,  -0.10903,  -0.05653,   0.16044,  -0.12303,   0.22693,  -0.06703,  -0.11603,  -0.08803,  -0.15802,  -0.07053,  -0.13002,   0.01346,   0.21293,  -0.16502,  -0.10553,   0.02745,   0.12194,  -0.13702,   0.23043,  -0.04604,  -0.03904,   0.03445,   0.04495,   0.13594,   0.24443,  -0.04254,   0.11144,  -0.12303,   0.00646,  -0.08453,  -0.17202,   0.06245,   0.08345,   0.08695,  -0.10903,  -0.22451,   0.00296,   0.11144,  -0.00404,  -0.04954,   0.28992,   0.10444,  -0.01104,   0.10444,   0.04845,  -0.00054,   0.04845,   0.00996,  -0.18252,  -0.02504,  -0.02504,   0.15694,   0.08695,  -0.06003,  -0.10553,   0.12894,  -0.23151,   0.02745,  -0.02854,  -0.02854,  -0.10203,   0.08345,  -0.03204,   0.09395,  -0.09853,   0.01696,   0.00646,   0.06595,  -0.00404,  -0.18252,  -0.02504,   0.13594,  -0.15802,   0.03095,   0.18143,   0.14994,  -0.01104,  -0.09503,  -0.11253,  -0.16502,  -0.18602,   0.05895,   0.12894,  -0.04954,   0.18143,   0.11494,  -0.02504,   0.12194,   0.01696,  -0.06703,  -0.04254,   0.18843,   0.08695,  -0.10203,  -0.05653,   0.11144,  -0.02854,   0.03445,   0.04845,  -0.03204,   0.02046,  -0.00754,  -0.10553,  -0.07053,   0.15694,  -0.10203,   0.20243,  -0.07053,  -0.03904,  -0.05303,   0.12194,  -0.15102,   0.21643,   0.04845,   0.11844,  -0.07753
   0.14644,   0.03095,   0.07295,  -0.07403,   0.04145,  -0.21751,  -0.17902,  -0.17202,  -0.01104,  -0.08103,   0.00996,   0.10444,   0.13244,  -0.03904,   0.21293,   0.09045,  -0.23851,  -0.00054,  -0.07053,  -0.03554,   0.34241,   0.02396,  -0.18602,   0.00646,  -0.13702,  -0.01104,   0.04495,   0.10095,  -0.17202,   0.00296,   0.08695,  -0.14752,   0.03445,  -0.20351,  -0.00404,  -0.03204,   0.00996,   0.14994,  -0.11603,   0.06595,  -0.06353,   0.05895,  -0.16152,   0.18843,  -0.00054,  -0.07753,   0.02396,   0.24093,   0.11144,  -0.09503,   0.09395,  -0.05653,   0.18493,   0.24443,  -0.06003,   0.04145,   0.18493,   0.00996,   0.00646,   0.19893,  -0.12303,  -0.20351,  -0.03904,  -0.07403,   0.13244,  -0.03204,  -0.14402,  -0.08103,  -0.19302,  -0.07753,   0.01696,  -0.11603,  -0.20701,   0.03445,   0.19893,   0.06245,   0.00296,  -0.14752,  -0.05303,   0.03445,  -0.08803,  -0.24201,  -0.01454,  -0.16852,  -0.05303,   0.00996,  -0.16152,   0.11144,  -0.16502,  -0.08803,   0.03445,   0.00996,  -0.02154,  -0.08803,   0.08695,   0.30392,  -0.11953,   0.11844,  -0.10903,  -0.15802,   0.00996,  -0.00754,  -0.04254,  -0.08803,  -0.01454,  -0.07053,  -0.07753,   0.00296,   0.24793,   0.11144,   0.14644,  -0.24201,   0.01346,   0.15344,  -0.20002,  -0.02504,   0.20243,  -0.16852,   0.10794,  -0.05303,   0.07995,   0.01696,  -0.26301,   0.25842,   0.05195,   0.03795,   0.12194,  -0.03554
   0.13944,   0.27942,   0.05895,   0.01346,   0.03095,   0.03795,  -0.13702,  -0.03904,   0.03445,  -0.14402,  -0.11603,   0.04845,  -0.16852,  -0.07053,  -0.05653,   0.05545,  -0.14402,   0.17444,   0.00996,   0.07295,  -0.00404,   0.11144,  -0.07753,  -0.08803,   0.03095,  -0.05653,   0.07295,   0.07295,  -0.17202,  -0.05653,  -0.11253,  -0.05653,   0.09045,   0.02745,  -0.05653,  -0.08103,   0.06595,   0.04145,   0.13244,  -0.15802,  -0.09153,  -0.03204,   0.03095,   0.14994,   0.08695,  -0.09503,  -0.01454,  -0.14052,   0.11844,  -0.02504,   0.00296,  -0.04604,  -0.19302,   0.11494,  -0.15802,  -0.00754,   0.15694,  -0.13702,  -0.11603,   0.08345,  -0.12652,   0.10794,   0.15344,   0.03795,   0.10444,   0.17094,  -0.06353,   0.30392,  -0.12303,  -0.10553,  -0.10203,   0.07295,   0.19893,   0.18493,   0.06595,  -0.03204,   0.02396,  -0.17202,   0.00296,  -0.19302,   0.30042,  -0.03904,  -0.04254,   0.02745,  -0.02154,   0.26542,   0.16044,   0.11144,   0.15344,   0.15344,   0.21643,   0.19193,  -0.06003,   0.10095,   0.16394,  -0.11953,  -0.17902,   0.09045,  -0.10903,   0.10444,  -0.18252,  -0.02504,   0.26542,  -0.05303,  -0.06003,   0.04145,  -0.15102,   0.02745,   0.11144,  -0.05303,  -0.10203,   0.04845,  -0.11253,   0.11144,  -0.16502,   0.00996,   0.05195,  -0.25251,  -0.07753,   0.03795,  -0.13002,  -0.13002,  -0.28750,  -0.18952,   0.12544,  -0.18952,  -0.00054,  -0.10903
  -0.13352,   0.13944,   0.04845,  -0.01454,  -0.04954,  -0.07053,  -0.17902,   0.09395,   0.03445,   0.12544,   0.17444,  -0.21751,   0.14294,  -0.08103,  -0.07053,   0.09045,  -0.09503,  -0.04254,   0.00646,   0.11494,  -0.04604,  -0.05303,  -0.14752,  -0.01104,  -0.11603,  -0.03554,   0.03445,   0.00646,   0.13594,   0.01696,  -0.00754,   0.13944,  -0.00404,   0.10095,   0.06245,   0.06245,  -0.27701,  -0.03204,   0.07645,   0.07295,   0.21293,  -0.07053,   0.06945,  -0.13702,   0.00296,  -0.08453,  -0.00754,  -0.09503,   0.03795,  -0.12303,   0.10095,  -0.04254,  -0.06353,   0.09395,   0.03095,  -0.05303,  -0.07753,   0.08695,  -0.00754,  -0.00404,  -0.02504,   0.15344,  -0.06353,   0.00996,   0.07645,   0.04845,  -0.15802,  -0.04604,   0.04495,  -0.13352,   0.03445,   0.13944,   0.15694,  -0.07053,   0.11844,  -0.00754,   0.09745,   0.09395,   0.12544,   0.10444,  -0.08803,  -0.04254,  -0.13002,   0.04845,   0.07645,   0.13594,  -0.11603,   0.03795,  -0.08803,  -0.16152,  -0.01454,  -0.06703,  -0.11953,  -0.05303,   0.00296,   0.06245,  -0.02154,  -0.05653,  -0.10903,   0.09745,   0.19543,   0.02046,  -0.09153,   0.02745,   0.00646,  -0.00054,   0.04845,  -0.15102,   0.09395,  -0.03204,  -0.00754,   0.17094,   0.07295,   0.04145,   0.01346,   0.05545,   0.03795,  -0.14752,   0.02046,  -0.06353,   0.06945,  -0.08453,   0.12194,  -0.01454,  -0.02154,  -0.11603,  -0.01804,  -0.09853
   0.06245,   0.07645,   0.02745,  -0.11953,  -0.01104,  -0.17552,  -0.17202,  -0.09853,  -0.04954,  -0.01104,   0.02046,   0.11494,  -0.05653,  -0.08453,   0.03095,   0.15694,  -0.22801,   0.13944,   0.09045,   0.22343,   0.02046,  -0.04954,  -0.02854,  -0.01804,  -0.08103,  -0.05653,  -0.00404,  -0.07053,  -0.16852,   0.13944,  -0.03554,   0.09045,   0.04145,   0.14294,  -0.14402,   0.03795,   0.10095,  -0.01104,  -0.03554,   0.10095,   0.14644,   0.04845,   0.12194,   0.14994,  -0.10553,   0.17794,  -0.06003,  -0.06703,  -0.02154,  -0.05303,   0.04145,   0.01346,  -0.01454,  -0.24201,   0.09395,  -0.04254,   0.10444,   0.06245,  -0.06353,   0.00646,  -0.15102,  -0.00754,  -0.06003,   0.07295,  -0.14052,   0.04495,   0.10095,   0.06245,   0.18143,  -0.07753,  -0.09853,   0.09045,   0.11494,  -0.01804,   0.10444,   0.21643,  -0.04604,  -0.06003,   0.10444,  -0.21401,  -0.07753,  -0.06703,  -0.22101,  -0.10553,   0.09045,   0.04145,   0.03445,  -0.07053,   0.01696,  -0.18602,   0.28292,   0.13944,   0.22343,   0.05545,  -0.11603,  -0.06003,   0.07645,  -0.09853,   0.14294,  -0.13702,   0.07295,   0.24093,  -0.03904,  -0.30500,  -0.20351,   0.15694,  -0.07753,  -0.00404,  -0.07403,   0.00996,  -0.05303,  -0.01454,  -0.04254,  -0.04604,  -0.04604,   0.01346,   0.13594,  -0.10903,   0.13594,  -0.03204,  -0.13002,   0.14294,   0.01346,   0.12194,   0.07995,  -0.10553,   0.09045,  -0.25251
   0.19543,  -0.05303,   0.10444,  -0.01454,  -0.12303,  -0.05303,   0.06595,   0.17094,  -0.01104,   0.04845,  -0.03904,   0.13594,  -0.03904,  -0.14752,  -0.01804,   0.04845,  -0.13702,  -0.10903,  -0.09853,  -0.03904,   0.13594,  -0.16852,   0.03445,  -0.03904,   0.00646,   0.29692,   0.04845,  -0.06003,   0.04495,   0.00646,   0.06945,   0.05545,  -0.10553,   0.21293,   0.07645,  -0.04954,  -0.03554,   0.04845,   0.00646,   0.01696,   0.08695,   0.14644,   0.07995,  -0.22451,   0.20943,  -0.01104,   0.03795,   0.00646,  -0.00404,  -0.08803,   0.09395,   0.03795,  -0.00754,   0.10794,  -0.05653,   0.09395,   0.03095,   0.04145,   0.22343,   0.16394,  -0.22101,  -0.04254,   0.22343,  -0.24901,  -0.03554,   0.03095,   0.07645,   0.10095,  -0.05653,   0.17094,   0.01696,   0.08695,  -0.04954,   0.14294,  -0.09153,  -0.02504,  -0.15452,   0.28292,   0.09745,   0.13944,  -0.19302,  -0.05653,   0.23393,   0.05195,   0.03445,   0.03095,  -0.05303,  -0.01454,  -0.22451,   0.01696,  -0.05653,   0.03445,  -0.03204,  -0.01804,   0.00296,   0.07645,  -0.12303,  -0.00754,  -0.06703,   0.10095,   0.09045,  -0.17902,  -0.03554,   0.09045,  -0.10903,  -0.18952,  -0.01454,  -0.11253,   0.13594,   0.07295,   0.09045,   0.01346,  -0.03904,   0.07645,   0.04845,   0.02046,  -0.09153,  -0.01104,   0.01346,   0.00996,   0.00296,  -0.03204,  -0.04254,   0.08695,  -0.02504,  -0.05653,   0.00646,   0.03445
  -0.01804,  -0.01454,   0.06945,   0.03095,  -0.09853,  -0.17902,   0.10794,   0.07995,  -0.15102,  -0.03904,  -0.08803,   0.16044,   0.16744,   0.11494,  -0.18252,   0.09395,  -0.10903,   0.16394,   0.08345,   0.00996,   0.17794,  -0.10903,  -0.07403,  -0.14752,  -0.01804,  -0.18252,   0.13594,   0.23743,  -0.01804,   0.10444,  -0.00754,  -0.02854,   0.03095,   0.23393,   0.26542,   0.09395,   0.02396,  -0.02854,   0.00996,  -0.07753,   0.10095,  -0.04604,  -0.01454,   0.05195,   0.15344,  -0.24551,  -0.13352,   0.10095,  -0.15802,  -0.04954,  -0.04254,  -0.05303,   0.11494,   0.00996,   0.11844,  -0.03904,  -0.00404,   0.18493,   0.21293,  -0.03554,  -0.08103,  -0.18252,  -0.04954,   0.00996,   0.21643,   0.05895,   0.04845,  -0.04254,   0.10794,   0.06595,  -0.03904,  -0.10553,  -0.10903,  -0.12652,   0.00646,   0.06595,  -0.05303,  -0.04954,   0.00646,  -0.09153,  -0.02154,  -0.10203,  -0.02854,  -0.05303,  -0.13352,  -0.20701,  -0.04954,   0.00996,  -0.15452,   0.16394,   0.16394,  -0.04604,   0.13244,  -0.05653,   0.11144,   0.03095,  -0.01454,   0.06945,   0.03445,   0.16044,   0.09045,   0.11144,   0.11494,   0.11144,  -0.09853,  -0.14402,   0.03095,   0.02745,   0.04145,  -0.05303,   0.11844,   0.10444,   0.07995,   0.13944,   0.17094,   0.10794,   0.02396,  -0.09153,  -0.02504,  -0.11603,   0.19193,   0.00646,   0.08345,   0.19193,   0.06945,   0.07645,   0.08695,  -0.09153
  -0.10203,   0.01696,   0.02745,  -0.03904,  -0.11253,  -0.20701,   0.03095,   0.03445,   0.12894,  -0.16502,  -0.05653,  -0.04604,   0.07295,   0.00996,  -0.19302,   0.05195,  -0.01804,   0.04845,   0.10095,   0.08695,  -0.01454,   0.03795,  -0.23151,  -0.16502,   0.15694,  -0.20701,  -0.05303,   0.01346,   0.03795,  -0.11253,   0.26192,   0.13944,   0.04495,  -0.02504,  -0.15802,   0.05895,   0.09395,  -0.00054,   0.05545,  -0.01454,   0.03095,   0.08345,   0.00996,  -0.21751,  -0.13702,  -0.06003,  -0.06003,  -0.11603,   0.07295,  -0.11603,  -0.06353,  -0.02504,  -0.08103,  -0.03204,  -0.17902,   0.11144,   0.16744,  -0.00754,   0.06595,  -0.03554,  -0.02854,  -0.07403,   0.07995,   0.09045,  -0.14752,  -0.13002,  -0.03904,   0.25842,   0.07295,  -0.12303,  -0.10553,   0.06945,  -0.12303,  -0.03904,   0.05195,  -0.04954,  -0.03554,  -0.14752,  -0.08803,  -0.07053,  -0.02504,   0.07645,   0.12194,   0.00646,  -0.05653,  -0.11953,   0.12544,   0.10444,  -0.06703,  -0.04254,   0.15694,   0.03095,   0.08695,   0.02396,   0.03795,  -0.11603,   0.25492,  -0.03904,   0.09395,   0.06245,  -0.01104,  -0.02504,  -0.03904,   0.02396,  -0.07403,  -0.00754,   0.02745,  -0.04254,   0.12894,   0.18843,  -0.23851,   0.03795,   0.06945,  -0.00754,  -0.15802,  -0.11253,   0.09395,  -0.03554,   0.05545,  -0.01454,  -0.21051,  -0.05303,  -0.24551,  -0.08103,   0.04845,  -0.11253,   0.04495,  -0.07753
   0.00996,   0.00996,  -0.03204,   0.00296,   0.01696,   0.12194,   0.06245,  -0.15452,   0.02745,  -0.27001,  -0.02854,  -0.14402,   0.39141,  -0.12652,  -0.00754,  -0.08453,  -0.14752,  -0.03904,   0.09395,  -0.01454,  -0.01454,   0.14644,   0.04145,  -0.10903,  -0.13702,  -0.02854,   0.10444,  -0.09503,  -0.03204,  -0.06353,  -0.09153,  -0.00404,   0.03445,   0.18493,  -0.16502,   0.07295,   0.01696,  -0.09503,   0.20243,   0.15344,  -0.18952,   0.04495,  -0.17902,  -0.08103,   0.02046,  -0.23151,   0.04145,   0.05195,   0.18143,   0.01696,   0.17094,  -0.07053,   0.15344,   0.11144,   0.03095,   0.24443,   0.06245,  -0.03904,  -0.06003,   0.11494,   0.11144,  -0.10203,   0.16044,   0.01346,   0.01346,   0.03795,   0.24093,   0.12894,  -0.05303,   0.11144,   0.27242,  -0.01454,  -0.07053,   0.02046,   0.10095,  -0.18602,   0.15344,   0.10444,   0.05195,  -0.13352,  -0.05653,  -0.11953,  -0.05303,  -0.13702,  -0.07053,   0.09745,  -0.09503,   0.06245,   0.02396,  -0.07403,   0.11144,   0.10444,  -0.04254,  -0.18252,   0.20593,   0.06595,   0.13244,   0.07295,   0.30742,   0.14644,   0.05545,   0.07995,  -0.06003,   0.02396,  -0.10203,   0.09395,   0.01346,   0.16744,   0.00296,   0.05195,  -0.07053,  -0.02154,   0.08695,  -0.02154,  -0.09153,   0.07645,  -0.03554,  -0.06703,  -0.07403,   0.00996,   0.00996,  -0.02854,  -0.21751,   0.03445,  -0.06353,   0.10444,  -0.06353,  -0.09503
   0.02745,  -0.04604,  -0.15452,   0.13594,  -0.07053,   0.05195,  -0.03204,  -0.15452,   0.09045,   0.14644,   0.12544,   0.01346,   0.08695,  -0.01454,  -0.15802,  -0.20002,   0.07645,  -0.27001,   0.11844,   0.00646,  -0.05303,   0.05195,  -0.25601,   0.12544,  -0.03554,  -0.24201,   0.06945,  -0.09853,  -0.04254,   0.06245,  -0.11953,   0.08695,   0.10095,   0.07995,   0.14994,  -0.03904,   0.03445,  -0.04604,  -0.07403,   0.04845,  -0.10903,  -0.04254,   0.03795,   0.02396,   0.01696,  -0.00754,   0.00646,  -0.12303,  -0.13702,   0.00296,  -0.10203,   0.00646,   0.05195,  -0.10903,   0.13944,   0.04495,   0.05545,   0.14994,  -0.20351,   0.07645,  -0.07753,  -0.11953,   0.01346,  -0.00404,  -0.01454,  -0.21751,   0.03795,   0.17444,  -0.00404,  -0.10553,  -0.14052,   0.02396,   0.04145,   0.02396,   0.01696,   0.02396,  -0.07053,  -0.02854,  -0.19652,  -0.02504,   0.18143,   0.00646,   0.01346,  -0.07403,  -0.02854,  -0.18252,   0.19193,   0.00996,   0.20943,   0.14644,   0.00296,  -0.06353,   0.06945,  -0.18252,  -0.05653,   0.11144,  -0.15102,   0.14294,   0.01346,   0.13244,  -0.06703,  -0.16852,   0.10095,  -0.12303,  -0.01454,   0.35991,  -0.03204,   0.06945,  -0.19652,  -0.04604,   0.11494,  -0.06353,   0.00996,  -0.10203,  -0.06353,   0.08695,   0.06595,   0.02046,   0.14644,  -0.28750,   0.06245,   0.20243,   0.01696,  -0.05653,  -0.08103,  -0.00054,   0.04495,  -0.04954
  -0.00054,  -0.04604,  -0.18252,  -0.17902,  -0.15102,   0.03095,   0.05195,  -0.01804,  -0.13702,  -0.01104,  -0.06703,   0.17444,   0.03445,  -0.04254,   0.17794,  -0.06353,   0.08345,   0.33541,   0.11494,   0.08345,   0.17444,   0.05545,  -0.01804,  -0.04254,  -0.07053,   0.02745,   0.00646,  -0.04954,   0.14994,  -0.19652,  -0.14052,   0.18143,   0.16044,  -0.09853,  -0.05653,  -0.18602,   0.16744,  -0.03204,   0.06945,  -0.02154,  -0.05653,  -0.01804,  -0.22801,  -0.19652,  -0.00754,  -0.04954,   0.09045,  -0.17202,   0.07645,  -0.06003,  -0.08103,  -0.16852,   0.26892,  -0.12303,   0.04845,   0.16744,  -0.03204,  -0.11953,   0.01346,   0.20243,  -0.22101,  -0.02154,  -0.06003,  -0.22101,  -0.03554,  -0.01454,   0.13944,   0.00646,   0.03445,   0.25143,  -0.04604,  -0.01454,   0.13244,   0.00646,   0.01346,  -0.03554,   0.14644,   0.01696,  -0.15102,  -0.03554,   0.03095,   0.08345,  -0.03554,   0.14294,  -0.25951,  -0.08103,  -0.06003,  -0.08803,   0.09045,   0.18493,   0.16744,  -0.02854,   0.05545,  -0.05653,   0.16394,  -0.04254,  -0.10553,   0.24093,   0.01696,  -0.13002,  -0.01454,   0.00996,   0.23743,  -0.04604,   0.05895,   0.11144,   0.11144,   0.19193,   0.12194,   0.09045,   0.01346,   0.22343,  -0.11253,   0.31792,  -0.14402,   0.12894,  -0.15452,   0.09045,   0.24093,  -0.07403,  -0.05653,   0.15694,  -0.02854,   0.06245,   0.01346,   0.08345,   0.05895,   0.10794
  -0.11253,  -0.15452,   0.11144,  -0.11253,  -0.22801,   0.07295,   0.00646,  -0.10203,   0.00296,  -0.16852,  -0.02504,   0.03445,   0.12544,  -0.00054,  -0.13702,   0.19193,   0.02396,   0.04845,  -0.16152,   0.07295,  -0.03904,   0.09045,   0.05895,  -0.20351,  -0.08803,  -0.05303,   0.22693,   0.21293,  -0.02854,  -0.18602,  -0.09853,   0.00646,  -0.01804,  -0.09153,  -0.04604,  -0.04604,   0.12194,   0.02046,   0.05545,  -0.01804,   0.13594,   0.16744,   0.05195,   0.11844,  -0.04604,   0.12894,   0.04495,  -0.03904,   0.12894,   0.32142,   0.08695,  -0.09153,   0.08695,   0.16044,   0.09045,  -0.07403,  -0.13702,  -0.01454,  -0.06703,   0.04495,   0.18843,  -0.07403,  -0.03554,  -0.06703,   0.03795,  -0.10553,  -0.09153,   0.10095,  -0.13702,  -0.12303,  -0.06353,  -0.20351,   0.03445,  -0.11253,   0.04145,  -0.00054,   0.23393,   0.07295,  -0.06703,  -0.04604,   0.12194,  -0.00404,  -0.01804,  -0.01454,   0.06595,  -0.03904,   0.19193,  -0.16152,  -0.13352,   0.01346,  -0.04954,   0.31092,   0.00646,   0.03445,   0.00296,  -0.02854,  -0.01104,  -0.06353,  -0.06703,  -0.16502,  -0.00754,  -0.16852,   0.05545,  -0.06003,   0.22693,   0.00646,  -0.03904,   0.03445,  -0.14402,   0.04845,  -0.02854,   0.00996,  -0.03204,   0.05545,   0.02396,   0.13944,   0.12544,  -0.09153,   0.09745,   0.07645,  -0.06003,  -0.00404,  -0.10553,   0.20243,   0.00996,   0.13594,   0.12544,   0.09045
  -0.16852,  -0.11603,   0.09745,   0.20943,  -0.03554,  -0.09153,  -0.13352,  -0.04604,   0.14994,   0.19193,  -0.08453,   0.25492,   0.15344,  -0.15102,   0.13594,   0.08695,   0.00296,  -0.08103,   0.04145,   0.16744,   0.09045,  -0.07753,   0.04145,  -0.03204,  -0.06703,   0.07295,   0.00996,  -0.18252,   0.02046,   0.17444,   0.07295,   0.17794,   0.03795,  -0.15452,  -0.08103,  -0.01804,   0.15344,  -0.18602,  -0.10903,  -0.03904,  -0.06353,  -0.14752,  -0.08103,   0.11144,  -0.17202,  -0.06703,   0.20943,   0.02046,  -0.12303,  -0.10203,  -0.05653,  -0.18602,   0.11144,  -0.07403,   0.03445,   0.13244,   0.29692,   0.08695,   0.02046,  -0.02504,  -0.06353,  -0.02854,   0.10794,  -0.05303,  -0.00054,   0.09745,  -0.32950,  -0.17552,  -0.08103,  -0.07403,  -0.01454,   0.07995,   0.13944,   0.03795,   0.06945,  -0.05303,   0.23393,  -0.17202,  -0.12303,   0.05545,   0.09745,   0.06595,   0.05895,  -0.06003,   0.03445,  -0.02854,   0.19893,  -0.15452,  -0.06003,   0.10095,  -0.09503,  -0.08453,  -0.10203,   0.09045,   0.18493,   0.06595,  -0.04604,  -0.07753,  -0.00754,  -0.05303,   0.06245,   0.06245,   0.11144,   0.02046,   0.06595,   0.16394,  -0.03554,  -0.10553,   0.01696,  -0.10903,   0.13244,  -0.26651,   0.00296,   0.06595,   0.15344,   0.21993,  -0.11953,  -0.17902,   0.06245,  -0.00754,   0.09395,  -0.11953,  -0.07403,  -0.25951,  -0.03204,  -0.09153,   0.06595,  -0.01804
   0.17444,   0.05545,  -0.02154,   0.23043,  -0.06003,   0.10444,  -0.02504,  -0.07053,   0.00296,  -0.10903,  -0.09853,  -0.14052,  -0.09153,   0.05895,  -0.16152,  -0.12303,   0.02046,  -0.03554,  -0.03904,   0.15344,   0.11844,  -0.22101,  -0.15452,   0.00996,   0.03795,   0.19893,  -0.04604,   0.10444,  -0.00054,  -0.21401,  -0.00754,   0.06245,  -0.00754,   0.17094,  -0.08803,  -0.11253,   0.07995,  -0.16852,  -0.18952,  -0.11603,  -0.07053,  -0.00404,   0.13594,   0.09045,  -0.15802,  -0.23151,   0.11144,   0.13244,   0.11844,  -0.17202,  -0.00754,  -0.01454,  -0.19652,  -0.02854,   0.06245,   0.29342,   0.06595,  -0.06703,  -0.00754,  -0.10903,  -0.16152,  -0.06003,  -0.05303,  -0.01104,  -0.13352,  -0.11953,   0.12194,   0.16044,  -0.21051,  -0.13702,  -0.06003,   0.02396,  -0.03904,  -0.11603,  -0.01454,  -0.06003,  -0.10903,  -0.12303,   0.08695,   0.16394,  -0.16152,  -0.08803,   0.10095,   0.00646,  -0.12303,  -0.01454,   0.02046,   0.11144,   0.14294,  -0.17902,   0.04845,   0.02396,   0.03095,   0.00646,  -0.00754,  -0.12652,   0.02745,  -0.06003,  -0.07403,   0.03095,  -0.06353,  -0.01104,   0.06595,   0.04495,   0.09395,   0.00646,   0.02046,  -0.23851,  -0.00754,   0.00296,   0.00996,  -0.03904,  -0.03204,  -0.11603,   0.00296,   0.09745,   0.16394,   0.00646,  -0.01804,  -0.09503,   0.15694,   0.04145,  -0.08803,  -0.13702,  -0.02854,   0.04845,   0.12194,   0.07295
  -0.05303,   0.20243,  -0.01104,   0.10444,   0.02396,   0.02046,  -0.09503,  -0.04254,  -0.15102,   0.12194,  -0.16502,  -0.04254,  -0.19652,   0.00296,  -0.22801,  -0.01104,  -0.09853,  -0.10203,   0.07295,  -0.13702,   0.20593,   0.13944,   0.00996,  -0.17902,  -0.26651,   0.04145,  -0.26651,  -0.02504,   0.17794,   0.02396,   0.14644,   0.04845,   0.03445,  -0.00754,  -0.32600,  -0.04604,  -0.22801,   0.07995,  -0.07053,  -0.08103,   0.12894,   0.10794,  -0.16152,  -0.07753,   0.03095,  -0.00754,  -0.04254,  -0.08803,  -0.02854,   0.07645,  -0.02854,  -0.21051,   0.10444,  -0.00054,  -0.04254,  -0.02504,   0.21643,   0.02046,  -0.10903,  -0.16152,   0.01696,  -0.00054,   0.10095,  -0.10203,   0.17794,  -0.11603,   0.04145,   0.02745,   0.06595,  -0.13002,  -0.06353,  -0.22801,   0.08345,  -0.04954,  -0.01104,  -0.05653,   0.04845,  -0.13002,   0.23043,  -0.09153,   0.09745,  -0.08803,   0.16394,   0.04845,  -0.05653,  -0.05303,  -0.08803,   0.09745,  -0.04254,  -0.04954,  -0.02504,   0.02745,  -0.01804,   0.06245,   0.10444,   0.23743,  -0.02154,  -0.20351,  -0.07753,  -0.00404,   0.05895,   0.10444,  -0.19652,   0.07295,   0.20593,   0.04495,  -0.20351,  -0.03904,   0.12194,  -0.04254,  -0.02854,   0.00646,  -0.23501,   0.05545,   0.29342,  -0.11253,   0.05895,  -0.12652,   0.06595,  -0.03904,  -0.10203,  -0.05653,   0.03445,  -0.04954,   0.00996,  -0.02854,   0.15344,   0.02046
   0.22343,   0.04495,   0.13244,   0.06945,   0.11494,   0.07645,  -0.01454,   0.04495,  -0.08803,  -0.13702,   0.07295,  -0.14402,   0.19543,   0.05895,  -0.09153,  -0.14052,   0.08695,   0.11144,  -0.07053,  -0.03204,  -0.05303,   0.08345,  -0.02854,  -0.05653,   0.02745,   0.05195,  -0.08103,   0.19193,  -0.06353,  -0.08103,   0.02046,  -0.13352,   0.16394,   0.16394,   0.01346,   0.20593,   0.07295,  -0.01104,  -0.12652,  -0.18252,   0.08345,   0.13244,  -0.04254,   0.03445,   0.09395,  -0.05653,  -0.04604,  -0.00754,   0.05195,  -0.08803,  -0.09153,   0.09045,   0.06245,   0.04495,   0.23043,   0.17794,   0.10794,  -0.07753,   0.24443,   0.10794,   0.02745,   0.09045,   0.10444,   0.04845,   0.04145,   0.06945,   0.12194,   0.05195,   0.17094,  -0.02154,   0.06945,   0.03795,  -0.11953,  -0.16502,   0.07295,   0.16744,  -0.04604,   0.08345,  -0.13702,  -0.28050,  -0.10553,  -0.07753,  -0.00404,   0.11494,  -0.00754,  -0.24201,  -0.01104,   0.08345,  -0.16152,   0.02745,   0.10095,  -0.11253,  -0.00404,   0.12544,  -0.01104,  -0.02504,  -0.14402,  -0.07753,   0.09395,  -0.05303,  -0.00054,  -0.19302,  -0.09853,   0.07995,  -0.01454,   0.10095,   0.00996,   0.20593,   0.01346,  -0.06003,   0.01696,  -0.01104,   0.03445,   0.15694,  -0.04254,   0.11844,   0.12194,   0.16394,  -0.04254,  -0.12652,  -0.04954,  -0.07753,   0.08695,   0.05895,  -0.03904,   0.10095,   0.11494,  -0.01104
   0.31092,   0.04845,  -0.08803,  -0.22801,  -0.02504,   0.00296,  -0.01104,  -0.01454,  -0.03554,   0.09395,  -0.14752,   0.13244,  -0.20351,   0.11844,  -0.02504,   0.09045,  -0.05303,  -0.04954,   0.12194,  -0.17202,   0.24793,  -0.25601,  -0.08803,   0.16744,   0.05895,  -0.02154,   0.13244,  -0.10203,   0.07995,   0.12194,  -0.16852,   0.03095,   0.11844,   0.14294,  -0.06703,   0.11494,  -0.05303,   0.05195,  -0.23851,  -0.02154,  -0.07053,   0.13594,   0.10444,   0.06945,   0.00296,   0.13594,   0.04495,   0.00646,   0.09045,  -0.04604,  -0.05303,  -0.11953,   0.06945,   0.03445,  -0.08803,   0.13594,   0.20943,  -0.16152,  -0.11603,   0.09045,  -0.10553,  -0.14752,  -0.00754,  -0.00404,   0.03095,   0.01346,   0.10444,  -0.08103,  -0.02854,   0.06245,  -0.09153,  -0.10903,  -0.00054,   0.02396,   0.07645,  -0.14752,  -0.10903,  -0.03554,  -0.14402,   0.18843,   0.03795,   0.03095,  -0.01454,  -0.13702,  -0.05653,   0.11844,   0.03095,  -0.05303,   0.14994,  -0.16152,  -0.05303,  -0.16852,   0.02046,   0.03445,  -0.11953,  -0.00054,   0.15694,   0.22693,   0.12544,   0.04145,   0.11494,   0.09745,  -0.10553,  -0.18952,  -0.03554,   0.23043,  -0.04604,   0.05545,   0.13594,   0.05195,   0.11494,  -0.16502,  -0.16502,   0.01696,  -0.15452,   0.06595,  -0.17552,  -0.07403,   0.01346,   0.11144,  -0.01104,   0.08695,  -0.06703,   0.29342,  -0.03204,   0.22343,  -0.08103,  -0.07403
   0.13594,  -0.01104,  -0.16852,  -0.05653,   0.11144,   0.00996,   0.04145,  -0.00404,  -0.03904,  -0.07753,  -0.00054,  -0.04954,   0.07645,  -0.04954,   0.09395,   0.07645,  -0.02154,   0.00646,  -0.01804,   0.04495,  -0.04254,  -0.02504,  -0.06703,   0.13944,   0.07995,   0.13594,   0.14644,  -0.00754,  -0.18252,   0.02396,  -0.01104,   0.15344,   0.02745,   0.17794,  -0.09503,  -0.00754,  -0.07403,   0.05195,  -0.10203,   0.10794,  -0.10203,  -0.08803,  -0.23501,   0.13944,   0.16044,  -0.05303,  -0.03554,   0.08695,   0.05895,  -0.02854,   0.14644,   0.06245,   0.09045,   0.06945,  -0.01454,  -0.07753,   0.12544,  -0.01454,   0.09395,  -0.05303,  -0.09503,  -0.15102,  -0.08453,   0.07645,  -0.04604,   0.12894,  -0.06703,   0.14294,  -0.02854,   0.07295,   0.02396,  -0.00754,   0.04495,  -0.10903,   0.05895,  -0.12303,  -0.01454,   0.03445,   0.05895,   0.14994,   0.13244,   0.00996,  -0.02154,   0.01696,  -0.01454,   0.10095,  -0.04254,  -0.02504,   0.09395,  -0.02854,  -0.04254,  -0.05653,  -0.08803,  -0.13352,  -0.14052,   0.11494,   0.03445,  -0.04604,  -0.27001,  -0.11953,   0.05195,   0.06595,  -0.10903,  -0.13352,   0.11494,  -0.00054,  -0.04254,   0.20243,   0.03795,  -0.06703,  -0.09503,  -0.16502,   0.20243,  -0.15102,  -0.01104,   0.05195,  -0.01454,  -0.11953,  -0.18252,  -0.02504,  -0.10553,  -0.01104,  -0.24901,   0.08695,  -0.13002,   0.15344,  -0.04954,   0.09045
  -0.02854,   0.10095,   0.02396,   0.25143,  -0.08453,  -0.04254,   0.00646,   0.05195,   0.03445,   0.00996,  -0.03904,   0.18843,   0.17794,   0.02396,  -0.01104,   0.07995,   0.01696,   0.07645,  -0.00054,   0.00296,  -0.11603,  -0.10903,   0.04145,  -0.03554,  -0.08453,  -0.07403,   0.09045,   0.05545,  -0.15452,  -0.16502,   0.06945,  -0.05653,   0.04845,   0.23743,  -0.02504,  -0.11603,  -0.04954,   0.02396,  -0.13702,  -0.05653,  -0.00054,  -0.08103,  -0.14752,  -0.01454,   0.16394,  -0.17902,   0.10095,  -0.07053,  -0.06353,   0.14994,   0.02046,   0.03445,   0.05195,  -0.00054,   0.13594,  -0.13702,  -0.16852,  -0.04954,   0.05895,  -0.02504,   0.02745,  -0.02154,  -0.06003,  -0.02504,   0.05195,   0.17444,   0.21993,  -0.16502,   0.14294,   0.18843,  -0.00754,   0.10794,   0.11494,  -0.07753,  -0.10203,   0.14294,   0.10444,  -0.01454,   0.07645,   0.02046,   0.10444,  -0.02154,   0.12194,   0.22693,   0.09745,   0.01346,  -0.01804,   0.21993,   0.09395,  -0.10203,   0.14994,   0.14294,  -0.23851,  -0.02504,   0.02745,  -0.00404,   0.25143,   0.05195,  -0.08803,   0.36341,   0.13244,  -0.28400,   0.14294,  -0.06353,   0.11144,  -0.04954,  -0.07053,  -0.11603,  -0.03204,  -0.04954,  -0.03904,  -0.10203,   0.05895,  -0.00754,  -0.03904,  -0.02154,   0.15344,  -0.03554,   0.12894,   0.03095,  -0.17202,   0.05195,  -0.08103,   0.09745,  -0.09503,  -0.04254,   0.10095,   0.04845
   0.19893,   0.09395,  -0.01104,  -0.08453,   0.02396,  -0.14052,   0.21993,  -0.15452,   0.04845,   0.03095,  -0.10203,  -0.05653,  -0.03554,   0.21293,  -0.00754,   0.07645,   0.00996,  -0.02504,  -0.20351,  -0.18602,  -0.03554,  -0.15452,  -0.07753,  -0.09853,  -0.02854,  -0.04954,   0.10794,   0.09745,   0.02046,  -0.02154,  -0.05653,   0.01346,   0.17094,   0.13594,  -0.04254,   0.06245,   0.19193,  -0.12303,  -0.01104,  -0.09853,   0.02046,  -0.06003,  -0.14052,   0.18843,  -0.02854,  -0.01804,  -0.04604,  -0.06353,   0.02396,  -0.10203,  -0.00754,   0.00296,  -0.00404,   0.04145,   0.17794,   0.00646,   0.11844,  -0.02854,   0.09395,   0.18143,  -0.17552,   0.06595,  -0.08803,   0.00296,  -0.14052,  -0.26301,   0.03445,   0.07295,  -0.32600,   0.04845,  -0.16152,   0.00296,   0.14294,   0.04145,  -0.10903,   0.01696,   0.03095,   0.35641,   0.05195,   0.14644,   0.04495,  -0.11253,   0.11494,  -0.19652,   0.11144,   0.00296,   0.04845,  -0.17902,  -0.16502,   0.14294,   0.17794,   0.00296,   0.04145,   0.06595,  -0.16852,   0.01346,  -0.18252,   0.09045,   0.05545,  -0.02854,  -0.00754,   0.07645,  -0.00404,   0.14294,   0.01696,   0.17444,   0.09045,   0.11144,   0.01346,   0.19893,   0.11144,  -0.07753,   0.19543,  -0.27351,  -0.20701,  -0.14752,  -0.13702,   0.05545,   0.17794,   0.13594,  -0.12652,  -0.01104,   0.02745,   0.03795,  -0.12303,  -0.04604,   0.04845,  -0.05653
  -0.10903,   0.20593,  -0.03904,   0.12194,   0.04145,  -0.06003,  -0.10553,  -0.11953,  -0.35749,   0.07645,   0.04845,   0.23393,   0.12194,  -0.10553,   0.08345,   0.03795,  -0.11953,  -0.18602,   0.05195,  -0.03204,   0.06245,  -0.12303,   0.03795,   0.05545,  -0.11253,  -0.04954,  -0.00054,  -0.08453,  -0.06703,   0.12894,   0.05895,  -0.04954,  -0.11603,  -0.16502,  -0.03204,   0.08345,   0.08695,   0.18143,   0.05545,   0.12544,   0.05195,  -0.11603,  -0.01804,  -0.09853,   0.05545,  -0.16502,   0.06945,   0.14294,   0.06945,   0.08695,  -0.02854,   0.01696,  -0.07753,   0.17094,  -0.10553,  -0.02504,  -0.05303,   0.02745,  -0.15102,  -0.03904,   0.24793,  -0.19302,  -0.07403,  -0.01804,  -0.14402,  -0.24551,   0.02396,   0.12894,   0.10095,   0.13244,  -0.07053,  -0.17902,  -0.06003,  -0.14402,  -0.06003,  -0.14052,  -0.01454,  -0.07753,  -0.05303,   0.09745,   0.01346,  -0.03204,   0.14644,  -0.16852,  -0.12303,  -0.07053,   0.04495,  -0.09153,   0.23393,  -0.03554,  -0.21751,  -0.07053,   0.08695,   0.05195,  -0.27351,   0.16044,   0.12194,   0.00996,  -0.09853,   0.15344,  -0.01454,   0.06245,  -0.19652,   0.05545,  -0.18602,  -0.09503,   0.02396,  -0.16852,   0.06245,   0.11494,   0.16044,  -0.26301,  -0.06353,  -0.08103,   0.12544,  -0.03904,   0.13944,  -0.10903,  -0.06353,   0.08695,  -0.19652,   0.05895,  -0.08103,   0.13944,   0.00296,  -0.01804,  -0.10903,   0.03795
  -0.11603,  -0.00054,  -0.04604,   0.05195,   0.03445,   0.09045,   0.12544,   0.01346,  -0.30500,  -0.26651,   0.16394,   0.10794,  -0.15102,  -0.04604,  -0.28050,  -0.12652,  -0.10203,  -0.08803,  -0.15452,   0.14644,   0.06245,   0.16744,  -0.07053,  -0.04604,   0.27242,   0.08345,   0.06595,   0.02396,   0.08695,  -0.27001,  -0.25951,  -0.17202,   0.12544,  -0.06703,   0.08345,  -0.00404,   0.12194,  -0.05653,  -0.00054,   0.16744,   0.08695,   0.11144,  -0.06703,  -0.10903,  -0.00404,   0.02745,  -0.16502,   0.24443,  -0.02154,  -0.01454,   0.04495,   0.06595,   0.12894,   0.19893,  -0.12652,  -0.05303,  -0.01804,  -0.10203,  -0.03904,   0.02745,   0.19543,  -0.24551,  -0.03204,   0.06245,  -0.08103,  -0.12652,  -0.02854,   0.05545,  -0.06353,  -0.07753,   0.25492,  -0.28750,  -0.00754,  -0.06003,  -0.15102,  -0.00054,  -0.08103,  -0.09503,  -0.21401,   0.20943,  -0.13702,  -0.00404,  -0.00404,  -0.07753,  -0.06353,  -0.15802,  -0.21051,   0.05895,   0.16394,   0.06945,   0.02046,   0.20243,   0.17444,   0.01346,  -0.05303,  -0.04604,   0.13244,   0.02745,  -0.16852,  -0.13352,   0.06245,  -0.09503,   0.05895,  -0.10903,  -0.02504,   0.05195,  -0.21051,  -0.01454,   0.09045,  -0.03204,   0.13594,   0.04845,  -0.06353,   0.07295,  -0.09853,  -0.11253,   0.10095,  -0.01804,  -0.04954,   0.04145,   0.04845,  -0.06003,  -0.01104,  -0.02854,  -0.01454,  -0.14052,   0.19893,  -0.05303
   0.01696,  -0.11603,  -0.05653,   0.25492,  -0.00404,   0.04495,  -0.00754,  -0.07053,  -0.11953,  -0.06003,   0.24093,  -0.04254,  -0.07403,   0.08695,  -0.03204,   0.14294,   0.09045,   0.18143,  -0.18602,  -0.08453,  -0.09503,   0.11144,   0.13944,   0.02745,  -0.05303,   0.13594,   0.09395,  -0.00054,   0.00646,   0.21293,  -0.19652,  -0.08453,   0.00296,  -0.00404,  -0.07403,  -0.18952,   0.15344,  -0.15802,   0.02046,   0.04845,  -0.03204,  -0.09853,  -0.15102,   0.13594,  -0.11953,   0.06945,  -0.20002,   0.07295,  -0.06703,   0.01346,  -0.12303,  -0.01454,   0.01346,   0.00296,   0.10444,  -0.00754,   0.07645,  -0.09503,  -0.08803,   0.11144,   0.04845,  -0.03554,   0.05195,   0.20943,   0.05195,   0.02745,  -0.15452,   0.05545,  -0.00754,  -0.15102,  -0.02504,   0.01696,  -0.01804,   0.11144,   0.12894,   0.06945,   0.28642,   0.17094,   0.06245,  -0.07753,   0.04495,   0.14994,  -0.04254,  -0.07403,  -0.12303,  -0.00054,  -0.19302,  -0.01804,   0.07645,  -0.01454,   0.04145,   0.05895,  -0.14052,   0.13944,  -0.09153,   0.01696,   0.09395,   0.08695,   0.17794,   0.13244,  -0.08453,  -0.16502,  -0.03904,   0.09045,  -0.07053,   0.02396,   0.13594,  -0.01804,   0.05195,  -0.05653,   0.25143,   0.02745,  -0.04954,   0.02396,  -0.08103,  -0.06003,   0.22693,  -0.12303,  -0.06353,  -0.18602,   0.01346,  -0.06003,  -0.16502,  -0.02154,  -0.11253,  -0.11603,   0.25143,   0.23043
  -0.10553,  -0.01804,  -0.08103,   0.02745,   0.09395,   0.21293,   0.04145,   0.15694,   0.10794,   0.09045,  -0.04954,   0.01696,  -0.19652,  -0.20351,  -0.13002,  -0.01804,   0.03095,  -0.18252,  -0.05303,   0.02396,   0.07645,  -0.10203,  -0.07753,  -0.09153,   0.13244,  -0.10203,   0.20943,   0.11494,  -0.05653,  -0.04954,  -0.17902,   0.03445,  -0.02504,   0.03795,  -0.08453,   0.06245,   0.06945,  -0.12303,   0.12894,   0.05545,  -0.03204,  -0.06353,  -0.07753,  -0.09853,  -0.02504,  -0.18602,  -0.10203,  -0.04954,   0.08695,   0.11144,   0.05195,   0.00646,  -0.17552,   0.05545,   0.07295,  -0.04604,  -0.04254,   0.12544,  -0.08103,  -0.18252,  -0.03904,  -0.04254,  -0.23851,  -0.14402,   0.01696,  -0.10903,   0.16044,   0.04495,  -0.14752,   0.12544,  -0.06703,  -0.04954,   0.08695,  -0.27701,   0.04145,  -0.17552,   0.14994,  -0.00054,  -0.08453,  -0.06003,  -0.19302,  -0.12652,   0.06945,  -0.04604,   0.21993,  -0.00754,  -0.03904,  -0.15102,  -0.12303,   0.07295,   0.14644,  -0.10903,  -0.10553,  -0.04604,  -0.04254,   0.16044,   0.01346,   0.12894,   0.01346,   0.09395,   0.19893,  -0.10553,  -0.01454,   0.13944,  -0.11953,   0.00646,  -0.02154,   0.11844,   0.01696,   0.19543,  -0.03904,  -0.26301,  -0.06353,  -0.04254,   0.06595,   0.09395,  -0.14052,  -0.13352,  -0.14052,   0.10444,   0.14994,  -0.17202,   0.12194,  -0.01804,   0.02046,  -0.06353,   0.15694,   0.07645
   0.06245,  -0.00404,   0.02046,  -0.07403,  -0.14402,   0.04145,  -0.08103,  -0.15452,  -0.09853,   0.06595,   0.00296,  -0.22101,  -0.02854,  -0.16852,  -0.08453,  -0.27701,   0.09395,   0.10444,  -0.06003,   0.12544,   0.06945,   0.08345,   0.13244,  -0.00754,   0.09395,   0.03445,   0.03795,   0.10444,  -0.02854,   0.04145,  -0.03554,   0.09745,   0.15344,  -0.09153,  -0.15452,   0.04495,  -0.09153,   0.07295,  -0.16502,   0.04145,  -0.02504,   0.12194,  -0.16502,   0.03095,  -0.22801,   0.07995,  -0.01804,  -0.07053,   0.02745,   0.16744,   0.03795,  -0.29800,   0.07295,   0.06595,   0.10444,   0.20243,   0.06595,   0.04845,  -0.06703,   0.08695,   0.09395,  -0.00404,  -0.13352,  -0.06703,   0.06595,  -0.08453,  -0.00054,   0.11844,   0.11494,   0.00296,  -0.09503,  -0.16152,  -0.00054,  -0.14052,   0.08345,   0.07995,  -0.01454,  -0.07053,  -0.01104,   0.03445,   0.07645,   0.04845,  -0.09153,   0.07295,   0.03095,   0.03795,   0.10095,  -0.11253,   0.16744,   0.21293,   0.00996,   0.13944,   0.13244,   0.19543,   0.02046,   0.01346,   0.04845,   0.04845,  -0.16152,   0.05195,  -0.17552,  -0.00754,   0.00996,  -0.09153,   0.05545,   0.00996,   0.10095,   0.12544,  -0.06003,  -0.09853,  -0.04604,  -0.07403,   0.12544,   0.18493,   0.10095,  -0.04954,   0.07295,   0.16044,   0.19893,   0.02396,   0.10095,   0.15344,  -0.01454,  -0.13002,  -0.19302,  -0.02154,   0.06595,   0.03795
   0.07645,  -0.02504,  -0.14052,  -0.16852,  -0.01804,  -0.01804,  -0.07053,  -0.01454,  -0.17202,   0.08345,   0.00296,   0.05195,   0.04145,   0.00296,  -0.17552,  -0.20701,  -0.07753,  -0.15452,   0.11494,   0.24093,  -0.08803,  -0.01454,  -0.18252,   0.09745,   0.05195,  -0.02854,   0.12894,  -0.16152,   0.10095,   0.18843,   0.00296,   0.03445,   0.08345,   0.13244,   0.08345,   0.15344,   0.13244,   0.00996,  -0.07403,  -0.06003,  -0.11953,  -0.19302,  -0.04604,  -0.32950,  -0.06703,   0.01346,  -0.09153,  -0.14402,  -0.20002,   0.02396,  -0.00754,  -0.00404,  -0.06353,   0.07995,   0.02046,  -0.02854,  -0.03204,   0.11844,  -0.27351,   0.05895,  -0.21751,   0.14994,  -0.00404,   0.11144,  -0.19652,   0.04145,   0.22693,  -0.00054,  -0.04254,   0.06595,  -0.14402,  -0.07403,  -0.07053,   0.23743,  -0.02154,  -0.02504,  -0.07403,   0.08695,  -0.04954,  -0.00404,  -0.02854,   0.13594,   0.16044,  -0.08453,   0.12194,  -0.03204,  -0.14052,  -0.04254,   0.06945,   0.01696,   0.05195,  -0.03554,   0.11144,   0.04145,  -0.02504,  -0.09503,   0.15694,  -0.15452,   0.18143,   0.01696,  -0.13352,  -0.05653,  -0.09503,   0.01696,  -0.09853,  -0.21751,  -0.10903,   0.17444,   0.08695,  -0.03554,   0.05895,   0.12544,  -0.08453,   0.07295,  -0.08103,  -0.00054,   0.09045,   0.06595,   0.11844,  -0.22101,   0.26542,   0.30392,  -0.07403,  -0.27001,  -0.03904,  -0.05653,  -0.02854,  -0.04604
   0.07995,  -0.24901,   0.10794,   0.00296,  -0.36799,   0.01696,   0.06595,  -0.07403,  -0.13352,  -0.25251,  -0.13702,   0.13244,   0.06945,  -0.15452,  -0.09503,  -0.08103,  -0.13352,  -0.36449,   0.01696,  -0.00754,   0.20943,  -0.01104,  -0.08453,   0.18843,  -0.00054,   0.12894,  -0.14402,  -0.01454,   0.00646,   0.00296,  -0.08103,  -0.05653,  -0.03554,  -0.27001,  -0.01104,  -0.05653,   0.12194,   0.04845,   0.08345,  -0.08803,   0.02745,  -0.01804,  -0.22451,   0.07995,  -0.05303,   0.16044,  -0.08803,  -0.00404,  -0.11603,  -0.10553,  -0.00054,   0.02046,  -0.09153,   0.07645,  -0.09153,  -0.03554,   0.03445,   0.07645,  -0.10903,  -0.03554,  -0.19652,   0.03445,  -0.17902,  -0.10903,  -0.11953,  -0.15452,   0.01696,   0.03795,   0.11844,   0.02396,  -0.04954,  -0.08803,  -0.09503,  -0.16852,  -0.36099,  -0.06703,   0.09395,   0.01346,   0.10095,   0.10444,   0.04145,   0.11144,   0.19893,  -0.07053,   0.00646,  -0.09853,  -0.06703,  -0.16152,  -0.15102,   0.01346,  -0.08103,  -0.10903,  -0.02154,   0.25143,   0.11144,   0.21643,  -0.11953,  -0.21751,   0.09045,   0.16394,   0.17094,  -0.13002,  -0.11603,  -0.10203,  -0.11253,   0.08345,   0.04495,   0.18143,   0.12194,  -0.12303,   0.05195,  -0.09503,  -0.20351,   0.08345,  -0.02154,   0.13944,  -0.04604,  -0.04254,   0.16044,   0.06945,   0.03095,   0.07295,  -0.06003,  -0.03554,  -0.07403,  -0.13352,   0.01696,   0.20943
  -0.04954,   0.03095,  -0.02154,   0.25143,  -0.13352,  -0.00054,   0.04495,   0.02396,   0.04145,   0.13944,   0.07645,  -0.11953,  -0.07053,   0.08695,   0.14644,   0.18143,  -0.01804,   0.03095,   0.11844,  -0.13002,   0.13594,   0.20943,   0.09045,   0.00996,   0.03095,   0.14294,   0.11494,   0.23043,  -0.12303,  -0.04954,   0.09045,   0.05195,   0.09045,   0.16044,  -0.07403,   0.00996,   0.06595,  -0.25601,   0.09745,   0.10794,   0.04495,  -0.22101,   0.05545,   0.01696,   0.02745,  -0.03904,   0.03795,  -0.07403,  -0.24201,  -0.02854,  -0.20701,  -0.09153,  -0.02154,   0.03795,   0.33541,  -0.00754,  -0.01804,  -0.05303,  -0.07403,   0.12894,  -0.01104,   0.07645,   0.19543,   0.05545,   0.06245,  -0.06003,  -0.09153,  -0.06003,   0.17094,  -0.13352,   0.03445,   0.16044,  -0.17552,  -0.03904,   0.08345,   0.00646,   0.04845,   0.12894,  -0.24201,  -0.00404,   0.09045,  -0.27351,  -0.14052,   0.05895,  -0.04604,  -0.03204,  -0.11603,  -0.08103,   0.02396,   0.15694,   0.02046,   0.09045,  -0.04954,  -0.13702,   0.05195,   0.17094,   0.01346,  -0.00754,   0.12544,  -0.12303,  -0.14052,  -0.19652,   0.24093,   0.08345,  -0.05653,  -0.05303,   0.17094,   0.00296,   0.13594,  -0.14402,  -0.04254,   0.06245,   0.12194,   0.23393,  -0.06003,  -0.01804,   0.03095,   0.10444,   0.11494,   0.08345,   0.24443,   0.24093,  -0.12303,  -0.21401,   0.13944,  -0.10203,  -0.11603,   0.11494
   0.06945,   0.03445,  -0.16152,  -0.08803,   0.00296,  -0.11953,   0.15344,  -0.15102,   0.08345,  -0.10903,   0.03445,  -0.19652,   0.07295,  -0.08453,  -0.13002,  -0.07753,  -0.24551,   0.11494,   0.14644,  -0.07753,   0.16394,   0.13244,   0.03095,   0.03095,  -0.03204,  -0.07753,  -0.01454,   0.04495,  -0.04954,  -0.11953,  -0.03904,  -0.09503,  -0.01804,  -0.06703,  -0.16502,  -0.02154,  -0.07753,  -0.05653,  -0.10553,   0.27592,  -0.00754,  -0.14402,  -0.05653,  -0.11253,  -0.03204,   0.01346,  -0.03204,  -0.08453,   0.00646,  -0.20701,   0.10794,   0.04495,   0.03795,  -0.07053,  -0.24201,   0.05895,   0.00296,   0.03795,  -0.07403,  -0.04954,  -0.13002,  -0.18252,   0.04495,  -0.23151,  -0.01804,   0.05895,   0.09745,  -0.11603,  -0.07053,  -0.17202,   0.09045,  -0.01454,  -0.00054,   0.03095,  -0.01104,  -0.16852,  -0.16852,   0.11844,  -0.03204,  -0.00404,   0.00996,  -0.09853,   0.01696,  -0.09503,  -0.11253,   0.17094,  -0.02504,   0.11144,  -0.09503,   0.14294,   0.13244,   0.09045,   0.15694,  -0.07753,  -0.11603,  -0.11603,  -0.02854,   0.06595,   0.05895,  -0.08803,  -0.02504,   0.17794,  -0.01804,   0.15344,  -0.03204,  -0.11953,   0.22343,   0.12194,  -0.19652,   0.18493,   0.06945,  -0.04254,  -0.13702,   0.06245,  -0.17202,   0.16744,  -0.16502,  -0.01104,   0.13244,   0.01346,   0.00646,  -0.11603,  -0.03904,  -0.00404,   0.27942,   0.05195,   0.00996,   0.12194
   0.10095,  -0.11603,   0.01696,   0.05545,   0.01696,  -0.09503,   0.01696,   0.09045,  -0.13002,  -0.01454,  -0.04254,  -0.15802,   0.06595,  -0.02854,   0.17794,  -0.16152,  -0.02854,   0.07645,  -0.19302,   0.23393,  -0.02854,  -0.27001,  -0.09153,  -0.08103,   0.08345,  -0.10203,  -0.00054,   0.09745,   0.10444,  -0.05303,   0.00996,  -0.07753,   0.00996,   0.11144,   0.05895,   0.17444,  -0.07403,  -0.07753,  -0.04604,   0.04845,  -0.05653,   0.06245,   0.07295,  -0.02504,  -0.19302,  -0.08453,   0.04145,  -0.07403,  -0.05653,  -0.06003,  -0.00054,  -0.03204,   0.10444,   0.11494,  -0.03554,   0.04845,   0.13244,  -0.06353,   0.13944,   0.03795,  -0.01804,  -0.05653,   0.03095,   0.08695,  -0.09153,   0.10794,  -0.04954,  -0.10553,   0.16044,  -0.00404,   0.39491,   0.08345,   0.01346,   0.15344,  -0.22801,   0.12194,  -0.07053,  -0.05303,   0.08345,  -0.11953,   0.09395,  -0.09853,  -0.03904,   0.02396,  -0.08103,   0.10444,   0.11494,  -0.00054,   0.19893,   0.05195,   0.12194,   0.11494,  -0.02154,   0.14644,   0.11144,   0.15344,   0.02745,   0.22343,   0.17094,  -0.11253,  -0.08803,   0.05545,   0.07295,   0.03795,   0.01346,   0.00296,   0.02046,   0.03445,   0.03445,  -0.11953,   0.06945,   0.12194,   0.01696,   0.03795,  -0.07753,   0.04495,  -0.10903,   0.20593,  -0.06353,  -0.07753,  -0.17552,   0.02745,   0.09395,  -0.03204,  -0.00054,  -0.04604,  -0.08453,   0.05195
  -0.14052,   0.11494,  -0.00754,  -0.00054,  -0.18252,  -0.07403,  -0.06003,   0.29342,  -0.02854,   0.13594,  -0.04604,   0.00646,  -0.09853,   0.17794,  -0.01804,  -0.09503,   0.07995,   0.01696,  -0.05653,  -0.17902,   0.02745,   0.10794,  -0.02504,  -0.14752,   0.02396,   0.08695,  -0.10903,   0.05195,  -0.05303,   0.00996,   0.05895,   0.20243,  -0.02154,   0.12894,  -0.06353,   0.03795,  -0.10203,  -0.10203,  -0.00404,   0.00646,   0.05195,   0.28292,  -0.09503,  -0.09503,  -0.07753,  -0.08453,   0.13594,  -0.12652,  -0.02504,  -0.01104,  -0.19302,   0.12194,  -0.15102,   0.00996,  -0.02504,   0.03795,  -0.09503,   0.10444,  -0.22801,  -0.14752,   0.21993,   0.11144,   0.22343,   0.07645,  -0.09853,  -0.01804,   0.05895,   0.00646,  -0.04254,   0.05895,   0.04845,  -0.01104,   0.01696,  -0.11953,   0.05545,  -0.08453,   0.20943,  -0.00404,   0.14644,   0.01346,   0.01346,  -0.07403,   0.01696,  -0.07403,   0.07995,  -0.03554,  -0.06003,   0.29692,  -0.01804,  -0.23151,  -0.03904,  -0.08803,  -0.04604,  -0.10203,   0.07645,   0.12194,   0.12544,  -0.10903,   0.02396,   0.06595,  -0.29800,  -0.02154,  -0.03204,  -0.00754,   0.21643,   0.19543,  -0.08803,   0.10794,  -0.09153,  -0.01454,  -0.01454,   0.11844,  -0.19302,  -0.08803,  -0.09853,   0.02046,  -0.13352,   0.06595,   0.03795,  -0.09853,  -0.04254,   0.24443,  -0.04954,   0.14644,  -0.20002,  -0.10903,   0.17444,   0.10095
   0.05545,   0.05895,   0.14644,  -0.01454,  -0.14052,  -0.06003,  -0.08103,  -0.07753,  -0.19652,   0.08345,  -0.14052,  -0.02854,  -0.07053,   0.00646,   0.00296,  -0.00404,  -0.01104,   0.10794,  -0.11253,  -0.04604,  -0.07053,   0.08695,   0.03795,   0.16394,   0.14294,   0.02745,   0.00646,  -0.13702,  -0.14752,   0.01696,  -0.06003,  -0.08803,  -0.01454,  -0.06703,   0.09045,   0.04845,  -0.13702,   0.16394,   0.15694,   0.05895,   0.15344,  -0.03904,   0.11144,   0.00296,  -0.00754,   0.00296,   0.02046,   0.15344,  -0.14752,  -0.04954,  -0.18252,   0.02396,  -0.11603,  -0.06703,   0.16394,   0.02046,  -0.04604,  -0.10203,  -0.17552,  -0.10903,   0.12194,  -0.07403,  -0.07753,  -0.11603,   0.02396,   0.12194,   0.16044,   0.25842,  -0.14402,   0.05895,  -0.11953,  -0.10203,   0.08345,  -0.19652,  -0.08453,   0.20243,   0.06245,   0.19893,   0.07645,  -0.14402,  -0.03554,   0.02745,  -0.01804,   0.16044,  -0.16152,  -0.05653,  -0.21051,  -0.03904,   0.06245,  -0.03554,   0.23043,  -0.22101,  -0.01454,   0.16744,  -0.03554,   0.07295,   0.03795,  -0.02504,   0.09045,  -0.20351,   0.05545,   0.10444,   0.01696,   0.07995,   0.03795,  -0.03204,  -0.03554,   0.01346,   0.08345,   0.00996,   0.21643,  -0.05653,  -0.06003,  -0.18952,   0.03445,   0.01346,  -0.08803,  -0.16852,  -0.00404,  -0.07403,  -0.00754,  -0.03904,  -0.06003,   0.05195,   0.13594,  -0.02154,  -0.01804,   0.12544
   0.06595,  -0.07753,  -0.15102,   0.10444,   0.04845,   0.16744,   0.02046,  -0.09503,   0.04845,  -0.09503,   0.07995,   0.21643,   0.06945,  -0.04954,   0.10794,  -0.00404,  -0.13352,   0.17444,  -0.00404,  -0.04604,   0.03095,   0.14644,   0.07295,   0.00996,  -0.08453,   0.05545,   0.06595,  -0.20701,  -0.02854,  -0.12652,  -0.05653,   0.09395,  -0.05303,   0.04495,   0.13944,  -0.08103,   0.12544,  -0.22801,  -0.15102,   0.21993,   0.14294,   0.01346,   0.02745,  -0.08453,  -0.22451,   0.04145,   0.12194,   0.08695,   0.00296,  -0.00404,   0.06245,  -0.11603,  -0.03554,  -0.12652,  -0.21401,   0.08695,  -0.09503,  -0.15452,  -0.00054,   0.05195,   0.16394,  -0.01454,  -0.05303,  -0.02154,   0.16044,  -0.16502,  -0.16852,   0.03795,  -0.03204,   0.00996,   0.06945,  -0.27701,  -0.18252,  -0.01104,  -0.07753,  -0.08803,   0.09745,   0.04845,   0.02396,   0.06945,  -0.02854,  -0.15452,  -0.06703,  -0.16852,   0.08345,  -0.09153,   0.02396,   0.11144,  -0.03554,   0.11844,   0.09745,   0.06245,  -0.23501,   0.05195,   0.16394,  -0.07753,   0.02396,  -0.00054,   0.05195,  -0.11953,   0.11494,  -0.05303,   0.05895,  -0.02504,   0.02046,  -0.04254,   0.07995,  -0.01454,  -0.03554,  -0.17902,   0.26192,  -0.03904,  -0.07053,  -0.03554,  -0.00054,  -0.03204,  -0.06003,   0.03445,   0.01696,   0.09395,   0.24443,  -0.04954,   0.11844,   0.00296,  -0.12652,   0.13244,  -0.17202,  -0.22801
   0.00996,  -0.01104,   0.09045,  -0.18602,   0.06245,  -0.01454,   0.10095,   0.00296,   0.09395,  -0.12303,   0.20593,  -0.01104,   0.10444,  -0.00754,  -0.10903,   0.11494,  -0.02854,   0.06245,   0.12544,  -0.15452,  -0.03204,   0.01696,   0.24443,   0.10095,   0.04845,  -0.04254,  -0.06353,  -0.02854,  -0.08453,  -0.09853,   0.02745,  -0.08103,   0.07995,   0.21293,   0.09045,  -0.06703,   0.05545,   0.00996,  -0.06703,   0.02046,   0.12194,   0.07645,  -0.17202,   0.04145,  -0.01804,   0.08695,   0.07995,  -0.06003,   0.12544,  -0.07753,   0.06945,   0.01696,  -0.16502,  -0.27701,   0.12194,   0.05895,  -0.02154,   0.04845,   0.04145,  -0.18252,  -0.05303,  -0.17902,   0.21293,  -0.03204,  -0.05653,   0.11844,  -0.00754,   0.06945,  -0.03204,  -0.00404,  -0.07753,   0.02396,  -0.24201,  -0.20002,   0.13594,  -0.04254,   0.04845,   0.11844,  -0.09153,  -0.11253,  -0.01104,  -0.17902,  -0.18252,  -0.15802,   0.02396,   0.05895,   0.08345,   0.03795,  -0.06703,   0.16044,   0.04845,  -0.04254,   0.16044,  -0.01804,  -0.06353,  -0.09153,  -0.14402,  -0.03204,   0.04495,  -0.08803,   0.01346,   0.16744,  -0.01104,  -0.00054,   0.00646,  -0.04604,  -0.07403,  -0.00754,   0.06245,  -0.24551,   0.00296,  -0.15102,  -0.18602,  -0.02854,   0.21993,  -0.01104,  -0.00404,   0.00996,   0.07995,   0.00296,  -0.17902,  -0.14052,  -0.08103,  -0.12303,  -0.14052,  -0.10903,  -0.25951,   0.16394
  -0.01804,   0.03445,   0.05545,   0.00646,   0.14294,   0.01696,   0.22693,   0.05895,   0.03095,  -0.11953,   0.30042,   0.05545,  -0.14402,   0.09395,  -0.04254,   0.13244,  -0.02504,  -0.05303,  -0.03904,   0.02745,  -0.10203,   0.08345,   0.06595,   0.05545,   0.00996,  -0.03204,   0.07995,   0.06945,   0.15694,   0.02745,  -0.05303,   0.07995,  -0.22801,   0.09045,   0.06945,  -0.15102,  -0.16852,  -0.11253,   0.01696,  -0.05653,   0.03795,   0.21993,  -0.00404,   0.03445,  -0.02154,  -0.09853,  -0.01454,   0.00646,  -0.12303,   0.02046,  -0.00054,   0.06595,  -0.08803,  -0.14052,  -0.08453,  -0.04604,  -0.16152,  -0.11603,  -0.11253,  -0.08103,   0.38091,  -0.11603,   0.05195,  -0.01454,   0.17094,  -0.08103,   0.04845,   0.05195,   0.02745,  -0.17552,  -0.20351,  -0.13352,  -0.03904,  -0.22101,  -0.07053,   0.02046,   0.24793,  -0.08103,   0.02745,  -0.11603,  -0.07753,   0.02396,  -0.11603,   0.06245,   0.02046,  -0.09503,   0.04495,   0.02745,   0.04845,  -0.00404,   0.06245,   0.03445,   0.00646,   0.01696,   0.14644,   0.13944,  -0.24201,  -0.09503,  -0.07403,   0.07995,   0.00646,   0.03095,  -0.26301,  -0.06003,  -0.00054,   0.04145,  -0.03554,   0.32492,  -0.05303,  -0.11603,  -0.01804,  -0.00404,   0.05545,   0.09745,   0.05195,  -0.00404,   0.20593,  -0.06703,   0.02745,   0.13244,   0.05195,   0.01696,   0.00296,   0.04845,  -0.17202,  -0.13352,  -0.00404,   0.04145
  -0.14752,  -0.16152,   0.23743,  -0.18952,  -0.02854,   0.18143,  -0.06703,   0.04495,   0.06945,   0.02745,   0.13944,  -0.13002,  -0.01104,   0.25842,  -0.21751,  -0.02854,  -0.17552,   0.05895,  -0.03554,   0.04145,   0.12544,   0.04845,   0.02396,   0.08345,  -0.10203,   0.11494,  -0.05303,  -0.03904,  -0.06353,  -0.00404,   0.13244,   0.06245,   0.20593,   0.17794,  -0.03204,  -0.02854,  -0.04604,  -0.04254,  -0.13002,   0.23043,  -0.10553,   0.33191,   0.10444,   0.16744,   0.07295,  -0.06703,   0.12544,  -0.17202,  -0.07403,  -0.03904,   0.10095,   0.01346,   0.03445,  -0.12652,   0.15694,   0.13244,  -0.12652,   0.06595,   0.03795,   0.00996,  -0.10903,  -0.21751,  -0.09503,  -0.03904,   0.05895,   0.02396,   0.04845,  -0.10903,  -0.10903,  -0.08103,   0.07295,  -0.15802,   0.02396,  -0.01454,   0.11844,  -0.00404,   0.06945,   0.10794,  -0.21401,  -0.13352,   0.05895,   0.14994,   0.01346,   0.09745,  -0.00754,  -0.11953,  -0.06353,  -0.14052,  -0.19652,   0.33541,   0.16044,  -0.02854,  -0.13002,  -0.06353,  -0.08453,  -0.14402,  -0.22801,  -0.30150,  -0.00054,  -0.10903,  -0.03904,   0.05545,  -0.07753,   0.24443,   0.07295,  -0.13002,   0.12194,   0.00296,  -0.02154,  -0.17902,  -0.02154,   0.06245,   0.07995,   0.03095,  -0.16852,  -0.07403,   0.06595,   0.15344,  -0.06353,   0.05895,  -0.12652,  -0.19652,  -0.32250,   0.17094,  -0.21051,   0.10095,   0.04845,  -0.10203
   0.03095,   0.14644,   0.01346,   0.05545,  -0.11953,  -0.24901,  -0.24551,  -0.08103,   0.00996,   0.01346,   0.07295,   0.09395,  -0.07753,  -0.16502,   0.14644,  -0.15452,  -0.03554,   0.02396,  -0.04254,  -0.02854,   0.07645,  -0.03554,   0.00296,   0.09745,   0.12194,  -0.09503,  -0.07753,  -0.11953,  -0.10203,   0.13244,  -0.03204,  -0.01804,  -0.04604,   0.05195,  -0.18252,  -0.00754,   0.03445,  -0.02854,   0.06945,   0.19893,  -0.35050,  -0.18952,  -0.07753,   0.14294,   0.09395,   0.02046,  -0.19302,   0.09745,   0.14994,  -0.01804,   0.09745,  -0.04604,   0.04845,   0.09395,  -0.07403,   0.02396,   0.06245,  -0.13352,  -0.17552,  -0.20701,   0.09045,   0.05545,   0.05545,   0.03095,  -0.13002,  -0.02854,  -0.08803,   0.05195,   0.21293,  -0.15102,   0.13244,  -0.08103,  -0.00054,  -0.13352,   0.00296,  -0.08103,   0.29342,  -0.11603,   0.10095,   0.12544,   0.04495,  -0.02154,   0.00646,  -0.04604,  -0.07403,   0.04145,  -0.06703,   0.07995,   0.03445,   0.04145,   0.06595,  -0.01804,   0.03795,  -0.13002,  -0.16502,   0.11144,   0.01346,   0.02396,  -0.01454,  -0.08453,   0.02745,   0.17444,   0.10444,   0.09395,  -0.03554,  -0.08103,  -0.10903,   0.16394,  -0.15452,   0.07295,   0.00646,   0.07995,  -0.09503,  -0.12303,  -0.00754,  -0.11953,   0.15694,  -0.22801,  -0.10553,  -0.04604,  -0.03554,   0.01696,  -0.18252,   0.07995,  -0.04254,  -0.02154,   0.00996,   0.01346
   0.05195,   0.03795,   0.07645,  -0.16502,  -0.05653,   0.19543,  -0.05653,  -0.04604,  -0.05303,   0.01346,   0.05545,  -0.09853,   0.01696,   0.00996,   0.01696,  -0.12303,   0.03095,  -0.00754,   0.00646,  -0.09853,   0.00646,  -0.04954,   0.00996,  -0.06703,   0.02396,   0.04495,   0.07645,   0.01346,   0.14994,   0.04145,   0.05895,  -0.00754,  -0.17552,   0.06595,   0.02046,  -0.14052,   0.12894,  -0.12303,  -0.04254,  -0.12652,   0.13594,   0.11494,   0.04845,  -0.06703,  -0.03204,   0.10095,   0.05545,   0.06945,  -0.00054,  -0.02854,  -0.13702,  -0.02154,  -0.04954,  -0.22101,   0.02046,  -0.07753,   0.02745,   0.14994,   0.03095,   0.02396,   0.00646,   0.00296,   0.11144,  -0.04254,   0.10794,  -0.01804,  -0.09853,   0.12894,  -0.04954,  -0.08453,  -0.13702,  -0.17902,  -0.14752,  -0.20701,  -0.07403,   0.23393,   0.15344,   0.01346,   0.17094,   0.19543,  -0.03904,  -0.16502,  -0.04954,   0.09045,  -0.09153,   0.11144,  -0.14752,  -0.02504,  -0.13002,  -0.13352,   0.17794,  -0.06003,  -0.00404,  -0.09853,   0.16044,  -0.06353,   0.01346,  -0.11253,   0.07295,  -0.17552,  -0.06003,   0.06945,   0.00296,   0.11144,   0.00996,   0.04145,  -0.09853,   0.02046,   0.15344,   0.16394,   0.04145,  -0.10203,   0.06245,  -0.00054,  -0.06703,  -0.14052,   0.03445,  -0.14402,   0.02396,   0.04495,   0.21993,   0.02046,   0.13594,  -0.00404,   0.04145,  -0.02154,  -0.02154,   0.11844
  -0.01104,  -0.19302,   0.07995,  -0.00754,   0.17094,  -0.03204,  -0.06353,   0.12894,   0.11494,   0.08695,   0.06245,   0.02046,  -0.11953,   0.06245,   0.02396,   0.07295,   0.02745,  -0.35400,  -0.02854,   0.10444,   0.05545,  -0.00754,   0.04145,  -0.04604,   0.10095,   0.17444,   0.05895,  -0.08453,   0.15344,   0.16394,  -0.03554,   0.08345,   0.14994,   0.16394,  -0.02154,   0.07295,  -0.07403,  -0.00054,   0.04145,   0.05895,   0.14294,   0.13944,  -0.16852,  -0.15102,   0.08695,  -0.07403,   0.06595,  -0.10553,   0.00646,   0.18493,   0.06245,   0.12894,   0.11144,  -0.11603,   0.11844,  -0.10203,   0.19193,  -0.00404,   0.12544,   0.10444,   0.20593,  -0.14752,   0.00996,   0.02745,   0.06595,   0.00296,  -0.06703,  -0.19302,   0.05545,  -0.02504,  -0.18952,  -0.23151,   0.01696,  -0.02504,   0.02046,   0.02745,  -0.02504,  -0.05303,  -0.14752,  -0.08803,  -0.07753,  -0.06703,  -0.00054,  -0.03554,   0.05195,   0.01346,  -0.03204,   0.00646,  -0.10203,   0.06595,   0.10794,   0.02046,  -0.05303,  -0.00054,  -0.02154,  -0.03904,   0.27242,  -0.07753,  -0.01454,   0.08345,   0.03445,  -0.00404,  -0.04954,   0.06245,  -0.00404,  -0.20701,   0.09395,   0.09395,   0.03445,  -0.05303,   0.02396,   0.07295,   0.09395,  -0.02504,  -0.04954,  -0.25601,   0.03095,  -0.16502,   0.00646,   0.16044,  -0.07403,   0.02046,   0.11494,   0.16744,  -0.00404,   0.10095,   0.11844,   0.17444
   0.14994,  -0.07753,   0.11844,   0.12894,   0.11844,  -0.00404,   0.10444,  -0.03554,   0.02046,  -0.07753,   0.03445,   0.12894,  -0.11253,   0.23043,  -0.17202,  -0.16152,  -0.13002,   0.10794,   0.05545,  -0.09853,  -0.05303,  -0.18602,  -0.03554,  -0.03204,  -0.12652,   0.12194,   0.09745,   0.13594,  -0.04254,  -0.21751,  -0.10903,  -0.09153,  -0.04604,   0.13944,   0.13594,  -0.17902,   0.18843,   0.00996,  -0.00054,  -0.06353,  -0.01804,  -0.05303,   0.22343,   0.05895,  -0.09503,   0.06595,  -0.18602,  -0.03904,   0.08345,   0.12894,  -0.13002,   0.12894,  -0.03904,   0.12544,   0.05895,  -0.17552,   0.02396,   0.01346,   0.04145,   0.02046,   0.08695,  -0.01104,  -0.04254,  -0.00404,  -0.19302,  -0.02854,   0.09395,  -0.06703,  -0.05303,  -0.28400,   0.03795,  -0.12652,   0.06945,   0.11844,   0.09395,  -0.15452,   0.13594,   0.21293,  -0.13702,  -0.00754,   0.05895,  -0.09853,   0.04145,  -0.17202,   0.09745,  -0.02154,   0.06245,   0.02046,  -0.03904,  -0.11603,   0.07295,   0.16394,   0.23043,   0.04145,  -0.15452,  -0.09153,   0.07995,  -0.04604,  -0.06003,  -0.04604,  -0.13702,   0.16744,  -0.21751,   0.01346,   0.11494,   0.03095,   0.00996,   0.06595,   0.04495,  -0.07053,  -0.03204,   0.02046,  -0.04604,  -0.02504,  -0.04954,  -0.24551,  -0.11253,  -0.01104,  -0.23151,   0.09745,   0.03095,   0.03445,  -0.05653,   0.13244,   0.13594,  -0.03904,   0.02745,  -0.06003
  -0.06353,  -0.04254,   0.25842,  -0.16152,  -0.30850,   0.16044,  -0.11253,   0.23393,   0.10095,  -0.05303,   0.07995,  -0.01454,   0.32492,   0.22693,   0.05545,   0.26892,   0.00296,  -0.11253,  -0.04604,   0.07645,   0.08695,  -0.12303,  -0.22101,  -0.11253,  -0.08803,   0.09745,  -0.14402,   0.04495,   0.13944,  -0.13702,  -0.01804,   0.07645,   0.16044,  -0.03904,   0.09395,  -0.10903,  -0.05653,  -0.13352,  -0.03904,  -0.11253,   0.13244,   0.12894,   0.02046,  -0.03204,   0.04495,   0.21643,  -0.00404,  -0.11953,  -0.01804,   0.20943,  -0.08453,   0.16744,  -0.14052,   0.11844,   0.03445,  -0.06003,   0.10794,   0.09745,  -0.12303,   0.05545,   0.02745,   0.04145,   0.09045,   0.25492,   0.05195,   0.07995,  -0.02154,  -0.02154,  -0.12303,   0.03445,  -0.17552,  -0.08103,  -0.01104,  -0.22801,  -0.14752,   0.04845,  -0.01454,   0.17794,  -0.05653,   0.10794,  -0.08103,   0.08345,   0.21993,  -0.13002,   0.16744,   0.00646,   0.01696,   0.01346,  -0.05653,   0.01696,   0.06245,   0.24793,  -0.00054,  -0.12652,  -0.06353,  -0.14752,   0.15694,   0.07645,  -0.07053,   0.22693,   0.09045,   0.04845,  -0.10203,  -0.16852,  -0.06353,  -0.09153,   0.08695,  -0.08103,  -0.06003,  -0.03204,  -0.00754,  -0.07403,   0.06595,  -0.04954,   0.02396,  -0.14402,   0.04145,   0.09045,   0.01696,  -0.05303,  -0.00404,  -0.21751,  -0.16852,   0.05195,  -0.12652,   0.13244,  -0.00404,   0.10444
   0.10444,   0.16394,   0.05895,  -0.19652,  -0.08103,  -0.28400,  -0.01104,  -0.04954,  -0.01104,  -0.00754,   0.21293,   0.05895,   0.14294,   0.12894,  -0.00404,   0.07995,  -0.00404,   0.00646,  -0.01804,  -0.00054,   0.14644,   0.08345,  -0.03204,  -0.15802,   0.00296,  -0.13702,  -0.23151,  -0.10553,  -0.18602,   0.05545,  -0.11253,   0.04145,   0.06945,   0.17794,   0.09045,  -0.07753,   0.04495,   0.11844,  -0.09503,  -0.11603,   0.13244,   0.08345,   0.05545,  -0.03554,  -0.03554,   0.02046,  -0.13002,   0.02396,  -0.03204,  -0.21751,  -0.02154,   0.11494,  -0.20351,  -0.08103,  -0.00404,   0.02046,   0.09045,   0.13594,   0.14644,   0.15344,  -0.25251,   0.17794,   0.01346,  -0.25951,  -0.11603,  -0.03204,   0.09395,  -0.02154,   0.09745,  -0.04954,   0.00646,  -0.09503,   0.06945,  -0.15802,  -0.26651,   0.00996,  -0.10553,   0.03795,  -0.06703,   0.02046,   0.09745,  -0.07753,  -0.15102,  -0.22451,  -0.02154,   0.07295,  -0.10203,   0.04845,   0.13594,   0.03795,   0.00296,  -0.10553,  -0.06003,  -0.08103,   0.11494,  -0.02154,  -0.08103,  -0.06353,   0.18143,  -0.04954,  -0.09853,   0.11844,  -0.17552,  -0.08103,  -0.08453,  -0.02154,  -0.06003,  -0.01104,   0.14644,  -0.20002,   0.21643,   0.11844,  -0.13002,  -0.03904,  -0.18602,  -0.06003,  -0.10203,  -0.17552,  -0.12652,  -0.17552,  -0.06353,   0.09745,   0.08345,  -0.03554,   0.15344,  -0.11603,   0.04145,  -0.05303
   0.10444,  -0.15102,   0.05195,   0.12894,  -0.18252,   0.00996,  -0.07753,   0.05195,   0.18843,   0.13944,   0.01346,   0.13944,   0.13244,  -0.03554,  -0.03204,  -0.01104,   0.12544,  -0.12303,  -0.04954,   0.03095,  -0.06003,  -0.10553,  -0.15802,   0.03795,   0.13244,   0.04145,   0.07995,   0.05545,  -0.07403,   0.07995,   0.13244,  -0.12303,  -0.18252,  -0.20351,  -0.07403,   0.00996,   0.00296,  -0.07753,  -0.13002,  -0.09153,   0.05195,  -0.22451,  -0.18602,  -0.18602,   0.02046,  -0.13702,   0.11844,  -0.08103,  -0.13702,   0.05895,   0.09745,  -0.08453,  -0.18252,   0.07645,   0.08695,   0.13244,  -0.09503,   0.08695,   0.05895,  -0.06353,   0.07295,   0.09395,  -0.10553,  -0.14052,  -0.04954,  -0.20701,   0.02745,   0.13944,  -0.16502,  -0.00754,  -0.06353,  -0.03554,   0.04495,   0.04495,  -0.16852,  -0.08803,   0.05195,   0.10794,   0.03445,  -0.09503,  -0.01804,   0.18143,   0.06595,  -0.01104,   0.10444,   0.06595,  -0.09503,   0.14294,  -0.04254,  -0.20351,   0.13244,  -0.02504,  -0.05303,  -0.00754,   0.09395,  -0.01804,  -0.17552,  -0.09503,  -0.07053,  -0.08103,  -0.06703,  -0.16152,  -0.04604,  -0.08803,   0.02046,  -0.04954,  -0.07053,   0.03445,  -0.08453,   0.03095,  -0.04604,  -0.05303,  -0.09853,   0.05195,  -0.00404,   0.04845,   0.11844,  -0.08453,  -0.04954,   0.05195,   0.05545,   0.02396,  -0.03904,   0.09745,  -0.07403,  -0.00754,  -0.20002,  -0.00054
  -0.09853,  -0.05653,   0.00646,  -0.02504,   0.22343,   0.01696,  -0.06003,   0.03095,   0.11494,  -0.08803,   0.04845,  -0.03554,  -0.06353,   0.07645,   0.12544,  -0.06003,  -0.04954,  -0.07053,   0.03445,  -0.28750,   0.14644,  -0.02154,   0.02396,  -0.09503,   0.02046,  -0.14402,   0.07645,   0.20243,   0.03095,   0.02745,  -0.02154,  -0.18602,   0.07295,   0.25143,  -0.13352,  -0.00404,   0.00996,  -0.17552,   0.03445,   0.05195,  -0.09853,   0.18843,   0.09045,   0.12894,  -0.03554,  -0.04254,   0.00996,   0.12544,  -0.00754,   0.00296,  -0.03204,   0.00296,   0.03795,   0.18843,   0.00996,  -0.10203,  -0.19652,   0.03095,  -0.07053,  -0.14052,  -0.09153,  -0.02504,   0.27242,  -0.03554,   0.01696,  -0.08103,   0.11494,  -0.08103,   0.05895,   0.13594,  -0.00404,  -0.18602,   0.12194,  -0.00404,   0.02745,   0.09395,   0.05895,   0.11144,  -0.18602,  -0.23851,  -0.14052,  -0.03204,  -0.06703,   0.04145,  -0.07053,  -0.14752,   0.04145,   0.05895,   0.02046,   0.06595,   0.12894,  -0.00754,  -0.02154,  -0.06003,  -0.13352,  -0.27701,   0.01696,   0.00996,  -0.05653,  -0.09503,   0.02745,   0.00296,   0.04495,   0.13944,   0.02745,   0.02046,   0.02046,   0.04845,   0.03445,   0.03445,   0.01346,   0.05545,  -0.00404,  -0.09853,  -0.21401,  -0.06003,   0.09395,   0.13244,  -0.14752,  -0.00054,  -0.05653,   0.03795,  -0.02854,  -0.22451,   0.05195,  -0.03554,   0.10794,  -0.11603
   0.10095,   0.11144,  -0.15452,   0.13244,  -0.15802,  -0.00054,   0.08695,  -0.04604,  -0.01454,  -0.10203,   0.03795,  -0.00054,   0.00646,  -0.06353,  -0.05303,  -0.01104,  -0.00404,  -0.00054,  -0.14752,   0.13244,   0.22343,  -0.07053,  -0.00754,   0.19193,   0.14644,   0.00296,   0.14294,   0.14994,  -0.15452,  -0.09503,  -0.08103,   0.08695,   0.01346,  -0.10553,  -0.02854,  -0.11953,   0.02396,   0.08345,  -0.13352,  -0.00754,   0.03795,  -0.09853,   0.09045,  -0.10553,   0.00646,   0.11844,   0.12894,   0.08345,  -0.18952,   0.11144,  -0.07053,  -0.08103,  -0.06353,  -0.05303,  -0.03904,  -0.09503,   0.11844,   0.07295,  -0.00754,   0.01346,  -0.05653,  -0.16502,  -0.03204,   0.09045,  -0.14402,  -0.05653,  -0.04604,  -0.02504,   0.13594,  -0.02154,   0.20593,  -0.00404,  -0.02854,   0.00296,  -0.21401,  -0.20351,   0.16744,   0.03445,  -0.18252,  -0.10203,   0.00646,  -0.05653,  -0.14402,   0.02396,   0.15694,   0.15694,  -0.04954,  -0.01104,  -0.01454,  -0.03554,  -0.00054,  -0.11253,   0.04495,  -0.22801,  -0.16502,   0.08345,   0.13594,  -0.08103,   0.15694,   0.16044,   0.08695,   0.19893,  -0.14052,  -0.19302,   0.04845,  -0.11953,  -0.05303,  -0.08103,   0.03445,   0.05545,  -0.12652,  -0.04254,  -0.03554,   0.10794,   0.05545,   0.16044,  -0.00054,  -0.01104,   0.04495,  -0.07403,  -0.04954,   0.12194,  -0.03204,  -0.06703,  -0.01454,  -0.11603,   0.04495,   0.24093
   0.07645,  -0.01104,   0.09045,  -0.01454,   0.06945,   0.04495,  -0.03204,  -0.03554,   0.00296,  -0.07753,  -0.04254,   0.01696,   0.12544,  -0.06003,  -0.07053,  -0.11953,   0.31092,   0.07645,  -0.05653,   0.15344,   0.10095,   0.05545,  -0.07753,  -0.12652,  -0.05303,   0.10095,   0.03445,  -0.06353,  -0.01804,   0.00646,   0.08695,   0.26192,  -0.13352,  -0.08453,  -0.17902,   0.18493,  -0.02854,   0.01696,   0.11144,  -0.04254,  -0.05303,   0.08345,   0.08695,  -0.03204,  -0.20002,  -0.10903,   0.02396,   0.03095,   0.07295,  -0.08103,  -0.14402,  -0.16502,  -0.10903,  -0.00754,   0.02046,  -0.10553,  -0.13352,   0.00646,   0.13244,  -0.06003,   0.05895,  -0.06703,   0.13594,  -0.16152,   0.21293,  -0.07753,   0.10444,  -0.23501,  -0.04954,  -0.20002,  -0.10203,  -0.08103,  -0.13002,  -0.05653,  -0.08453,  -0.05303,  -0.00404,  -0.04604,  -0.00404,  -0.00404,   0.13944,   0.01696,  -0.00054,  -0.10553,  -0.03554,   0.26542,   0.09395,   0.03445,   0.06595,   0.11844,  -0.09853,   0.06245,  -0.08103,  -0.04954,   0.18843,   0.05195,   0.04145,  -0.15102,  -0.16502,  -0.03904,  -0.04254,   0.03445,   0.26192,  -0.00054,   0.01696,   0.03095,   0.09745,   0.18843,   0.24093,   0.03445,   0.24443,   0.07645,   0.02396,   0.13244,   0.03795,   0.00996,   0.11144,  -0.06003,  -0.11953,  -0.06003,   0.02745,   0.02745,   0.01346,   0.10794,  -0.00054,  -0.29450,  -0.10203,  -0.03904
  -0.38549,  -0.09503,  -0.21751,  -0.10203,  -0.00404,  -0.08103,   0.07995,   0.00296,  -0.08453,   0.14994,   0.18843,  -0.13002,  -0.00754,   0.06595,   0.08345,  -0.00054,   0.06245,  -0.17202,   0.01346,   0.11144,  -0.09853,   0.04145,  -0.09853,  -0.07403,   0.11494,   0.04845,  -0.12303,  -0.01104,   0.03445,   0.09395,  -0.22451,  -0.16852,   0.09045,   0.06245,  -0.15452,   0.20943,  -0.05653,   0.27242,  -0.03554,   0.14994,  -0.11953,   0.07645,  -0.00054,   0.02396,   0.08695,  -0.15452,   0.07995,  -0.00404,   0.23043,   0.19543,   0.00646,  -0.04954,   0.02396,   0.12544,  -0.03904,   0.08695,  -0.05303,   0.18143,   0.10444,   0.04145,  -0.13352,  -0.04954,  -0.07753,  -0.07403,  -0.10903,   0.08695,  -0.08103,  -0.10203,   0.04845,  -0.07053,   0.06945,   0.13944,   0.06245,   0.07295,   0.10444,  -0.07053,  -0.00754,   0.06245,   0.06945,   0.03795,   0.11144,  -0.25251,   0.05545,  -0.10203,   0.17094,   0.07295,  -0.16152,   0.09045,  -0.16852,   0.05545,  -0.16152,  -0.11953,  -0.04254,   0.02046,   0.09045,   0.03095,   0.01696,   0.17094,   0.10095,   0.06945,  -0.00054,  -0.00054,  -0.04254,  -0.02504,  -0.14752,   0.00996,   0.13244,  -0.07053,  -0.24201,  -0.03904,   0.33891,  -0.13002,   0.10794,   0.08345,   0.10095,  -0.11953,   0.04845,   0.06945,   0.08695,  -0.07403,   0.04145,  -0.02154,  -0.14752,  -0.03554,  -0.14052,  -0.12303,   0.02396,   0.10095
  -0.01804,   0.03445,  -0.03904,   0.00296,  -0.17552,  -0.08453,   0.09745,  -0.07403,   0.04495,   0.13944,  -0.03904,   0.00646,  -0.02154,   0.26892,  -0.08103,  -0.13352,   0.22343,  -0.14752,  -0.13702,   0.17794,  -0.05303,  -0.10203,   0.07645,  -0.00404,  -0.18252,   0.14994,   0.13594,  -0.01804,   0.09395,   0.05195,   0.05895,   0.05195,  -0.17902,   0.00296,   0.32492,   0.00646,   0.12544,  -0.20351,   0.05895,  -0.13702,   0.11494,   0.02396,  -0.00404,   0.17094,   0.07295,   0.13944,  -0.21051,   0.03795,   0.01696,   0.12194,  -0.07403,  -0.19652,   0.06245,   0.01346,  -0.02854,  -0.08453,   0.12894,   0.19893,  -0.14402,   0.17444,  -0.04954,  -0.06703,  -0.00754,   0.10095,   0.11144,   0.16394,  -0.06353,   0.13594,   0.01696,  -0.06003,   0.02046,  -0.04604,  -0.14052,  -0.19302,   0.07995,   0.11844,  -0.03904,   0.02745,  -0.07403,  -0.03904,  -0.06003,  -0.12303,  -0.15102,   0.12194,  -0.22451,  -0.25601,   0.06245,   0.13244,  -0.14052,  -0.12303,  -0.12652,   0.05195,   0.06595,   0.05895,   0.08345,   0.14294,   0.04845,   0.18143,   0.03095,   0.03795,   0.03095,  -0.06703,  -0.02504,   0.01696,   0.28642,  -0.06003,  -0.14402,   0.04495,   0.08695,   0.12894,  -0.06703,   0.03095,   0.18493,   0.05195,   0.22343,   0.07995,   0.12544,  -0.06003,  -0.04254,  -0.20002,   0.15344,  -0.03204,  -0.02854,  -0.20701,   0.04495,  -0.03204,   0.31092,  -0.22801
   0.11144,  -0.03554,  -0.04604,  -0.05653,  -0.04954,   0.02396,   0.17794,  -0.09503,  -0.08803,  -0.01804,   0.21293,   0.00996,  -0.03554,   0.09395,   0.10095,  -0.05653,   0.06245,   0.02046,  -0.01104,   0.22343,  -0.04604,   0.04495,   0.01696,  -0.13352,   0.02745,   0.06945,   0.03445,   0.07995,   0.02396,   0.23393,  -0.23151,   0.24793,  -0.07753,   0.23393,   0.14644,   0.10444,   0.20243,  -0.01454,   0.24793,  -0.05653,  -0.03904,   0.08695,  -0.00054,  -0.00754,   0.07645,   0.02396,   0.01696,  -0.02854,  -0.04954,   0.07995,  -0.00754,  -0.04954,   0.17094,  -0.06003,   0.07645,   0.03095,  -0.22801,  -0.02504,  -0.00754,  -0.11603,   0.03095,  -0.21401,   0.07295,   0.10794,   0.05895,  -0.09153,  -0.04604,  -0.12303,   0.08345,   0.01696,  -0.09503,  -0.14052,   0.14294,  -0.15802,  -0.25251,  -0.01804,   0.08695,   0.00296,  -0.25251,  -0.00754,  -0.04954,  -0.07753,  -0.01454,   0.10444,   0.07995,  -0.25251,   0.05195,  -0.22101,   0.06595,   0.17094,   0.03795,  -0.07403,   0.03095,  -0.04604,   0.02745,   0.18843,  -0.01454,   0.05895,  -0.01804,   0.09045,  -0.09153,  -0.10203,   0.02046,  -0.08103,  -0.02854,   0.06245,   0.04145,  -0.19652,   0.04495,   0.19193,   0.09395,   0.14294,   0.05895,  -0.11253,  -0.01104,  -0.20351,  -0.09153,  -0.03554,  -0.13702,   0.04845,   0.07295,   0.20943,   0.02396,  -0.00754,   0.01696,   0.20243,   0.33541,  -0.06353
   0.03795,   0.07645,   0.13244,  -0.07053,  -0.03204,  -0.03204,  -0.09503,   0.00296,   0.01346,  -0.11253,  -0.09153,  -0.12303,  -0.01804,  -0.04604,   0.00296,  -0.07753,   0.00646,   0.04145,  -0.13702,   0.04145,  -0.09853,   0.04145,   0.00296,   0.06245,  -0.02154,  -0.10903,  -0.07753,  -0.06703,  -0.10903,   0.01346,  -0.35749,   0.16044,  -0.09503,  -0.06003,   0.00996,   0.16044,   0.01696,  -0.02154,   0.20593,  -0.13002,  -0.03904,   0.03095,   0.05195,  -0.17552,  -0.12652,   0.02396,   0.26892,  -0.13002,   0.12194,   0.05895,   0.05195,  -0.08453,  -0.13002,  -0.01804,  -0.06703,  -0.02854,   0.02396,   0.05195,  -0.17202,   0.07645,  -0.01454,   0.05895,  -0.22451,   0.03445,  -0.06353,   0.18493,   0.09745,  -0.18252,  -0.03904,   0.04145,  -0.14402,   0.08345,   0.16044,  -0.03554,  -0.04954,  -0.02154,  -0.10203,   0.00296,   0.06595,  -0.01454,   0.16744,   0.09045,   0.05195,  -0.09503,   0.02745,  -0.21051,  -0.00054,  -0.02504,  -0.04604,  -0.05303,   0.00296,   0.07295,  -0.01104,  -0.11603,   0.10095,   0.23743,   0.10794,  -0.12652,   0.08345,   0.10444,  -0.00754,   0.03095,  -0.15102,  -0.02154,   0.05545,   0.08345,  -0.05303,  -0.05303,   0.02046,   0.00996,  -0.09153,  -0.30850,  -0.04604,   0.07295,  -0.18952,  -0.03904,   0.14994,  -0.08103,   0.09745,   0.01696,   0.04495,   0.06245,  -0.04954,  -0.11603,  -0.31900,   0.17444,   0.04495,   0.15694
  -0.11603,  -0.07403,  -0.07403,  -0.16852,   0.20243,  -0.09503,   0.00646,   0.02396,  -0.03204,   0.04495,   0.26892,   0.06595,  -0.15452,  -0.11253,  -0.08803,  -0.18252,   0.11144,  -0.25951,  -0.03904,  -0.01454,   0.03795,  -0.01104,  -0.04954,   0.13944,   0.05195,  -0.01104,  -0.21051,  -0.00054,   0.06945,  -0.06703,   0.16394,   0.05895,  -0.05303,   0.09395,   0.08695,   0.01696,  -0.02504,   0.02396,  -0.01104,   0.09745,  -0.13352,   0.07995,   0.01696,   0.17444,   0.10095,   0.11144,  -0.01104,   0.16394,  -0.13702,   0.00996,  -0.18952,  -0.21401,  -0.07403,   0.01346,   0.09395,   0.04145,  -0.15102,  -0.20701,  -0.04604,   0.05895,   0.19193,  -0.17552,   0.04845,  -0.03554,   0.09045,   0.05195,  -0.10553,  -0.08803,  -0.00754,  -0.02504,  -0.10903,   0.20243,  -0.00404,  -0.08453,   0.07295,  -0.02854,  -0.13702,  -0.03554,  -0.01454,  -0.00054,   0.06595,  -0.08803,   0.09395,   0.00646,  -0.06703,   0.10444,   0.03445,  -0.14052,  -0.07053,  -0.22451,  -0.18252,  -0.15452,  -0.04954,   0.03095,   0.11494,   0.02046,   0.02396,  -0.03904,   0.05195,  -0.01454,  -0.13352,   0.02046,  -0.13352,  -0.13352,  -0.00054,   0.00996,   0.13244,  -0.10903,  -0.03904,   0.05545,  -0.03904,  -0.18952,   0.07995,  -0.11253,   0.10095,   0.05195,  -0.17552,  -0.14402,   0.11844,   0.16044,  -0.16152,   0.03445,  -0.05653,  -0.02504,  -0.03204,  -0.17552,   0.07295,  -0.18952
   0.06945,  -0.03204,   0.20243,  -0.27701,   0.16744,   0.20943,  -0.07053,  -0.06353,  -0.10903,   0.12544,  -0.00404,   0.09745,   0.06595,   0.12194,  -0.25951,   0.00646,   0.18143,  -0.08103,  -0.04954,  -0.11953,   0.07295,   0.09045,   0.11144,  -0.00404,   0.08695,   0.02046,  -0.03554,   0.19193,  -0.18602,   0.05895,   0.03445,   0.23043,  -0.09153,  -0.18602,  -0.00404,   0.02046,  -0.04254,   0.00296,  -0.19652,   0.07645,   0.23043,   0.14644,  -0.12303,  -0.02154,  -0.19652,   0.04495,  -0.12303,   0.04845,   0.10095,  -0.24201,  -0.07753,  -0.15452,   0.05895,  -0.16852,   0.16744,   0.07995,  -0.32250,  -0.03904,  -0.20351,  -0.17552,  -0.09503,   0.19193,   0.09395,   0.00996,  -0.08103,   0.12544,  -0.00404,   0.12894,   0.04145,  -0.25951,  -0.03204,   0.05195,  -0.08453,  -0.07053,  -0.00754,  -0.02854,   0.10095,  -0.12303,  -0.17202,   0.10095,   0.01696,  -0.17552,   0.05895,  -0.15102,  -0.11603,  -0.07753,  -0.09853,  -0.00054,  -0.07403,  -0.01804,   0.03095,   0.07995,  -0.02854,  -0.08453,   0.20943,   0.01696,  -0.06703,   0.04495,  -0.09853,   0.03795,   0.03445,   0.03095,  -0.00054,   0.11844,  -0.13702,   0.04845,  -0.03554,  -0.13002,   0.30742,  -0.00404,  -0.01804,  -0.01104,   0.00646,   0.06595,  -0.02504,  -0.10553,   0.13944,   0.04145,   0.21993,   0.38791,   0.06945,  -0.01454,   0.10794,   0.00646,   0.04495,  -0.18952,   0.17794,  -0.12652
  -0.12652,   0.08695,   0.23743,  -0.00054,   0.00996,  -0.00404,  -0.00404,   0.07995,  -0.13702,   0.01346,   0.23043,  -0.09153,   0.13244,   0.04845,   0.15694,  -0.11253,  -0.15802,   0.18143,  -0.08803,   0.13244,   0.19543,  -0.10203,  -0.04254,   0.19893,   0.21293,  -0.06003,   0.04495,   0.03095,  -0.05303,  -0.05303,   0.08695,   0.25143,   0.04845,   0.00296,  -0.02854,   0.50689,   0.08345,   0.02046,  -0.11953,   0.12544,   0.03795,   0.06245,  -0.04604,   0.09745,  -0.09153,  -0.03204,   0.16044,   0.04145,   0.10095,  -0.05303,   0.04495,  -0.11603,   0.05545,  -0.00054,  -0.04604,  -0.16502,   0.10444,  -0.03904,   0.13244,  -0.17902,  -0.00754,   0.02396,  -0.07753,  -0.02854,  -0.11603,  -0.19652,  -0.03554,   0.02046,  -0.03554,  -0.02504,   0.10444,  -0.15452,  -0.16852,   0.04495,  -0.12652,  -0.12652,  -0.04604,   0.00996,  -0.09853,   0.12894,  -0.09503,   0.00296,   0.23043,   0.03095,  -0.01104,  -0.16502,  -0.03204,   0.06945,  -0.26651,   0.06595,   0.04845,   0.22693,   0.16394,   0.04145,   0.09745,  -0.05303,   0.03095,  -0.07053,  -0.06353,   0.13244,  -0.08453,   0.11144,   0.04495,   0.09045,  -0.12652,   0.07995,  -0.17552,  -0.09503,  -0.07403,   0.11494,   0.16394,  -0.17552,  -0.06003,   0.04145,   0.11494,   0.05545,   0.08345,  -0.03554,  -0.02154,   0.19193,  -0.09153,  -0.04954,  -0.00054,   0.09045,  -0.02504,  -0.05303,  -0.04954,  -0.02154
