  -0.02711,  -0.06242,   0.01407,  -0.08007,  -0.00799,   0.05084,  -0.01829,   0.05673,  -0.03300,  -0.00505,   0.10968,  -0.03594,   0.06849,   0.00819,  -0.01388,   0.05084,  -0.02123,  -0.00505,  -0.06977,  -0.02564,   0.00083,  -0.04771,   0.02584,  -0.00799,  -0.03006,  -0.03300,   0.08615,   0.08909,  -0.01829,   0.01113,   0.01995,   0.04790,   0.01260,  -0.06977,   0.03319,   0.00378,  -0.03594,  -0.07860,   0.00672,  -0.01535,  -0.00505,   0.02878,   0.10085,   0.02290,   0.02143,  -0.00211,   0.05231,   0.01260,   0.06555,  -0.05212,  -0.09036,  -0.02564,   0.00672,   0.01113,  -0.00211,  -0.01976,  -0.00064,  -0.02123,  -0.01535,  -0.00211,  -0.01388,  -0.02858,   0.04790,   0.05231,  -0.04918,  -0.00799,   0.01260,  -0.02711,   0.02584,  -0.03447,   0.01554,  -0.01388,  -0.01976,  -0.05065,   0.03319,   0.03908,   0.06555,   0.04349,   0.04055,  -0.00652,   0.06849,  -0.01682,  -0.03594,   0.07144,  -0.01093,  -0.00211,  -0.03594,  -0.10948,  -0.03300,  -0.01240,  -0.01535,  -0.04329,   0.03613,   0.05379,  -0.00652,  -0.00946,   0.01260,   0.01701,  -0.00946,  -0.05065,   0.04937,  -0.02564,  -0.02711,   0.03025,   0.03172,  -0.01976,   0.01407,  -0.04918,   0.03172,  -0.06242,   0.01113,   0.01113,   0.07144,   0.05673,   0.11262,  -0.07860,   0.00819,  -0.05947,   0.00672,   0.04643,  -0.01240,   0.03613,   0.03172,   0.03319,   0.01554,  -0.02270,   0.06849,  -0.02123,  -0.03594,   0.06408,   0.06408,  -0.01829,  -0.02858,   0.03613,   0.04790,   0.04055,   0.00525,  -0.04182,   0.05526,   0.06997,  -0.00652,  -0.01829,  -0.03153,   0.01554,  -0.07271,  -0.05800,   0.00966,  -0.02417,   0.02878,   0.02731,  -0.00211,   0.06849,  -0.03594,   0.03466,   0.05526,  -0.07860,  -0.07712,  -0.05506,  -0.01682,   0.06408,  -0.07712,  -0.00064,   0.02437,  -0.00358,  -0.03300,  -0.06242,   0.00083,   0.00378,   0.00378,  -0.00505,  -0.05653,  -0.02123,   0.03025,   0.04349,  -0.04035,   0.00230,   0.00966,   0.13616,  -0.00799,   0.04496,   0.06114,  -0.03006,   0.06849,   0.05526,   0.03908,  -0.00505,  -0.00946,   0.07291,   0.07438,  -0.00064,  -0.03300,  -0.02270,  -0.03006,  -0.06094,   0.00819,  -0.04182,   0.00083,   0.00966,  -0.00652,  -0.01093,   0.06555,  -0.00505,   0.00083,   0.02437,  -0.04035,  -0.00799,   0.03908,   0.02143,  -0.05800,   0.01995,  -0.02123,   0.00230,   0.05967,  -0.03153,   0.04643,  -0.03888,   0.01554,   0.01554,  -0.06830,   0.04937,   0.02437,  -0.00358,  -0.04624,   0.00819,   0.00378,   0.02878,  -0.00799,  -0.05359,   0.01995,   0.04202,  -0.08301,   0.01407,   0.01113,  -0.02858,  -0.00358,   0.02878,  -0.00211,  -0.00946,  -0.05065,   0.00230,  -0.00358,   0.14645,   0.01407,  -0.04476,   0.00525,   0.07291,   0.00966,  -0.00799,  -0.09036,   0.00819,   0.00966,   0.05673,   0.00672,  -0.01829,  -0.01388,  -0.02711,  -0.02564,   0.02290,  -0.01976,   0.00378,   0.01407,   0.00230,  -0.06683,  -0.04182,   0.07732,  -0.01976,  -0.01976,  -0.02123,  -0.01829,  -0.01682,  -0.02270,   0.05673,   0.00378,   0.06555,   0.00672,   0.05231,   0.08320,  -0.01240,  -0.00946,   0.01407,   0.00966,   0.06997,   0.02878,  -0.02123,  -0.00064,   0.01113,   0.00966,  -0.04771,   0.02584,   0.03172,   0.02731,   0.01995,  -0.05506,  -0.05506,   0.09203,  -0.03741,  -0.00064,   0.01995,   0.03908,  -0.00505,   0.00230,  -0.09772,   0.01701,  -0.01682,  -0.00358,  -0.01976,  -0.08154,  -0.01093,   0.04496,  -0.00211,  -0.04182,   0.06702,  -0.00652,  -0.06389,   0.07291,   0.01995,  -0.02123,  -0.02564,   0.01260,  -0.01535,   0.07732,  -0.02417,  -0.03300,   0.00525,  -0.00505,  -0.02858,   0.01701,  -0.02711,   0.04790,   0.03172,   0.05820,   0.00672,   0.02878,  -0.00799,  -0.01388,  -0.00799,   0.09938,  -0.00946,  -0.00799,  -0.03447,   0.03025,   0.02731,  -0.04182,  -0.05212,   0.03466,  -0.01093,  -0.01388,   0.00083,  -0.01240,  -0.05800,   0.09056,  -0.02270,   0.03613,   0.01701,   0.00378,   0.01113,   0.01848,  -0.03447,   0.05820,  -0.02564,  -0.04182,  -0.06830,  -0.02270,  -0.00799,   0.04496,   0.05820,  -0.00946,   0.01995,   0.01407,  -0.02417,   0.01995,  -0.04329,  -0.05506,   0.05967,  -0.01976,   0.07732,   0.03466,   0.03761,   0.01113,  -0.04476,   0.00378,   0.04937,  -0.02564,  -0.01682,   0.04643,   0.03613,   0.00378,   0.01407,  -0.04918,   0.03319,   0.07732,   0.06997,  -0.04035,  -0.05065,   0.02290,  -0.00946,   0.05084,  -0.00064,  -0.02711,  -0.02711,   0.02437,  -0.03006,  -0.03006,  -0.01976,  -0.00652,  -0.00946,  -0.01093,   0.05673,  -0.03006,   0.01701,  -0.02564,  -0.09625,  -0.05947,  -0.04918,   0.03466,  -0.08154,  -0.00946,  -0.01535,  -0.00652,  -0.03594,  -0.00946,  -0.05653,   0.01113,  -0.09183,   0.01848,  -0.00799,   0.00819,   0.02437,   0.01260,  -0.08448,   0.01848,  -0.04918,  -0.00946,  -0.00946,   0.05673,   0.01113,  -0.00358,  -0.04624,  -0.01240,  -0.03006,  -0.01535,  -0.01388,   0.00525,   0.01407,  -0.04771,  -0.01240,  -0.05653,  -0.02858,  -0.02270,   0.01701,  -0.00064,   0.02143,   0.02584,   0.02290,  -0.05065,   0.09056,   0.00083,   0.04937,  -0.02123,  -0.02123,   0.00966,   0.01554,  -0.01093,   0.06849,  -0.01535,  -0.00505,  -0.04182,   0.10380,   0.04349,   0.01848,   0.03761,   0.02290,  -0.02564,   0.06114,   0.01260,  -0.02123,  -0.01240,  -0.03300,  -0.05653,   0.01113,   0.03466,   0.02143,  -0.00652,  -0.03741,   0.01848,   0.04496,   0.08173,  -0.07565,  -0.00505,   0.04937,   0.01701,  -0.01388,  -0.08301,  -0.02123,  -0.03153,  -0.01240,   0.02584,  -0.01682,   0.00966,   0.02584,  -0.05506,   0.00525,   0.02731,  -0.01535,  -0.02417,  -0.09330,  -0.00064,  -0.06830,   0.03025,   0.03025,   0.03172,  -0.06094,  -0.03594,   0.02731,   0.02437,  -0.07860,  -0.00652,  -0.01535,   0.01260,  -0.06242,  -0.04476,   0.01113,  -0.04182,  -0.03153,   0.09644,   0.06555,   0.03319,  -0.00211,   0.11998,   0.06702,  -0.00211,   0.02878,   0.01260,   0.05967,  -0.06389,  -0.05359,  -0.01240,  -0.00946,   0.04349,  -0.03300,   0.07144,  -0.02123,  -0.01388,   0.04055,  -0.05212,   0.00083,   0.05231,  -0.00652,  -0.05359,   0.06408,   0.02731,   0.02143,   0.03172,  -0.08301,  -0.01093,   0.00083,   0.01554,  -0.04771,   0.02290,   0.04202,   0.01995,  -0.04182,  -0.03153,   0.03172,  -0.00358,   0.00819,  -0.02564,   0.00672,  -0.04182,   0.02437,  -0.07418,   0.00819,   0.02731,  -0.05800,   0.06408,   0.09056,  -0.01976,   0.00378,  -0.01388,   0.05820,  -0.00064,   0.05231,   0.00672,  -0.03006,   0.00819,   0.04202,  -0.03594,  -0.00064,   0.04496,  -0.03741,   0.02878,   0.00672,  -0.01535,  -0.04918,  -0.02123,  -0.02270,  -0.02417,  -0.07860,   0.01995,  -0.04329,   0.05379,   0.00966,   0.04937,  -0.04771,  -0.06389,  -0.05065,  -0.01682,  -0.03153,   0.07732,   0.03908,  -0.00064,  -0.03153,  -0.02564,  -0.02858,  -0.03300,   0.00672,  -0.07565,   0.05526,   0.02731,   0.01113,  -0.04182,   0.02731,  -0.03447,   0.01554,   0.00378,  -0.03447,   0.00230,  -0.00211,   0.02290,   0.06114,   0.01848,  -0.00652,   0.06555,  -0.07418,   0.03466,   0.09791,  -0.06830,   0.04349,   0.05526,  -0.06977,  -0.04329,   0.02143,  -0.01829,   0.04790,   0.04937,   0.03908,  -0.02711,  -0.03741,   0.06408,   0.02143,  -0.04329,   0.02290,  -0.05359,  -0.03006,  -0.03006,  -0.11831,  -0.02417,  -0.08301,  -0.06830,   0.00378,  -0.05065,  -0.08301,  -0.06830,  -0.02270,  -0.03300,  -0.05947,  -0.01682,   0.00230,  -0.02417,   0.04790,   0.00230,   0.08173,   0.03319,  -0.00799,  -0.06683,  -0.01682,  -0.01829,  -0.01535,  -0.07860,  -0.00799,  -0.00064,  -0.04182,   0.06408,  -0.02417,  -0.00211,   0.00525,  -0.05065,  -0.03153,  -0.08742,   0.02290,  -0.00505,   0.01260,   0.05379,   0.03908,  -0.02858,  -0.06830,   0.03761,  -0.03741,  -0.03300,  -0.04918,  -0.04035,  -0.01829,  -0.02417,  -0.00064,  -0.02564,  -0.02270,   0.05526,   0.03319,   0.01848,   0.06849,   0.01995,   0.10527,  -0.08154,   0.01113,  -0.01829,  -0.02564,  -0.10654,   0.03908,   0.08467,   0.01554,  -0.06536,   0.02143,   0.01995,  -0.03006,  -0.01535,  -0.07271,   0.03613,  -0.04329,   0.04790,   0.00966,  -0.00799,  -0.02711,  -0.03153,  -0.03300,   0.01848,   0.05673,  -0.00064,  -0.02270,   0.08320,   0.01848,   0.01113,  -0.01240,  -0.05506,  -0.02858,  -0.01829,  -0.05947,  -0.06242,  -0.00652,   0.02731,  -0.06830,   0.05673,  -0.00946,   0.10968,  -0.00652,   0.00083,   0.00083,   0.00378,   0.00230,  -0.03300,  -0.01976,   0.01701,  -0.01240,   0.00378,  -0.00064,   0.01995,  -0.00652,   0.05084,  -0.05506,  -0.01093,  -0.00505,  -0.03888,   0.01260,   0.00525,  -0.02711,   0.00819,  -0.00211,   0.06555,   0.01113,  -0.06242,   0.00966,   0.06261,   0.02731,   0.03172,   0.01260,   0.02584,   0.00819,  -0.01976,  -0.01535,   0.02584,   0.05526,   0.03466,  -0.07271,  -0.01240,  -0.01976,  -0.03153,   0.03172,   0.02878,  -0.03741,  -0.01388,  -0.01976,  -0.00064,   0.03025,  -0.02270,  -0.06977,  -0.01682,   0.00966,  -0.03300,  -0.09036,   0.00083,   0.00966,  -0.02858,  -0.02123,  -0.04035,  -0.00652,  -0.01976,  -0.05506,  -0.05653,  -0.03006,  -0.00505,   0.02143,   0.02437,  -0.01976,  -0.04182,   0.00966,   0.02143,   0.00672,   0.06114,  -0.00652,  -0.03006,  -0.03594,   0.00672,  -0.00211,  -0.01682,   0.01701,   0.02143,   0.04055,  -0.07418,  -0.00799,   0.03025,  -0.05947,   0.07732,   0.08173,  -0.04182,  -0.00211,  -0.02123,   0.04349,  -0.03447,  -0.05800,   0.01260,   0.01260,  -0.01535,  -0.00799,  -0.00505,  -0.00652,   0.07438,  -0.03594,  -0.01240,   0.01701,  -0.01682,   0.02878,   0.03319,  -0.04182,   0.03319,  -0.00652,  -0.03447,   0.03025,  -0.03447,  -0.05359,  -0.06389,  -0.00211,   0.00819,  -0.03888,  -0.01682,  -0.00505,  -0.05065,   0.00672,   0.11262,  -0.00505,  -0.05212,  -0.01240,  -0.00799,  -0.00211,  -0.01682,  -0.04624,   0.00672,  -0.03153,  -0.03300,   0.04055,  -0.00946,   0.04937,   0.04055,   0.05379,  -0.04476,  -0.02270,   0.03761,  -0.01682,   0.03319,  -0.07271,  -0.01388,   0.03319,  -0.04035,   0.00819,  -0.05947,  -0.03888,  -0.04329,  -0.03300,  -0.02858,   0.01995,   0.02143,   0.03172,  -0.01535,  -0.01093,   0.01113,  -0.01535,  -0.03006,  -0.00946,   0.00378,  -0.07124,  -0.04624,  -0.06389,  -0.01388,   0.01554,  -0.03300,  -0.00211,  -0.01829,  -0.04771,   0.01113,  -0.01240,   0.04349,   0.00672,   0.04790,   0.00819,  -0.02123,   0.05379,   0.07438,   0.02584,  -0.01388,   0.05967,  -0.01093,   0.03319,   0.02731,   0.02437,   0.01260,  -0.03594,  -0.08154,  -0.05653,  -0.04918,  -0.00211,   0.08026,  -0.00211,   0.02143,  -0.04476,  -0.08448,  -0.03006,   0.03761,  -0.01093,  -0.02711,  -0.06830,   0.00230,   0.00819,   0.15675,  -0.01829,  -0.00799,  -0.01976,  -0.04624,  -0.03447,  -0.03153,  -0.05800,  -0.07124,  -0.03447,   0.08762,   0.05820,   0.00378,   0.03025,   0.05084,  -0.01682,   0.01995,   0.03025,   0.00525,  -0.04329,   0.01260,  -0.02564,   0.04055,  -0.04329,  -0.05947,  -0.02564,   0.02878,  -0.07712,   0.08762,  -0.01240,   0.03761,   0.05379,  -0.04771,  -0.00652,  -0.00799,  -0.04182,  -0.01535,  -0.06094,  -0.02417,   0.03466,   0.01260,   0.04790,   0.04496,   0.03466,  -0.01093,  -0.04918,  -0.02417,   0.04349,   0.00819,  -0.07271,  -0.02564,  -0.12419,  -0.02270,   0.00819,   0.06997,   0.02290,   0.03613,   0.00966,  -0.07418,   0.00230,   0.04202,   0.02731,   0.08026,   0.01701
   0.03319,   0.00819,  -0.03594,   0.09203,   0.01701,  -0.00652,  -0.01976,   0.00966,   0.00230,   0.00378,   0.02878,  -0.01976,  -0.00652,   0.02143,  -0.02417,   0.01995,  -0.05212,   0.08909,  -0.05947,   0.04055,  -0.00211,  -0.01240,   0.01407,  -0.00652,   0.02437,   0.02731,   0.02437,   0.01113,  -0.04771,  -0.02270,  -0.03888,  -0.06094,  -0.00652,  -0.01976,   0.02437,  -0.01388,  -0.00505,   0.03613,   0.00230,  -0.01829,   0.06849,   0.00819,   0.01995,   0.02290,  -0.02417,  -0.03447,   0.01848,  -0.01829,   0.02878,   0.01113,  -0.01093,  -0.01976,   0.01407,   0.09203,   0.01113,  -0.02270,  -0.01388,  -0.02858,  -0.10213,  -0.00652,   0.00966,  -0.06536,   0.01701,  -0.05800,   0.02143,  -0.01240,   0.03319,   0.01407,   0.00083,  -0.04329,  -0.00358,   0.05526,  -0.06094,  -0.00652,   0.04937,   0.05820,  -0.02564,  -0.00652,  -0.00064,   0.09203,  -0.08154,   0.02731,   0.09938,  -0.03153,  -0.03741,  -0.02123,  -0.04624,   0.08026,  -0.07565,   0.03761,   0.02731,   0.12439,  -0.02270,  -0.01829,   0.02290,   0.00525,  -0.01240,   0.03613,   0.03761,  -0.00799,  -0.03447,  -0.00652,  -0.01093,  -0.00064,   0.03319,   0.07144,   0.01407,  -0.02711,  -0.00652,  -0.03888,  -0.00652,   0.00230,   0.00230,   0.02290,   0.04937,  -0.00064,   0.00525,   0.00672,   0.04790,   0.00083,   0.01701,  -0.06977,   0.04643,   0.07291,  -0.04182,   0.04937,   0.09497,  -0.01682,  -0.02270,  -0.01093,  -0.05065,  -0.03447,   0.05526,  -0.03300,  -0.04182,  -0.00799,  -0.05800,  -0.07712,   0.04496,   0.05673,  -0.09036,   0.01701,   0.04496,  -0.01388,   0.00378,  -0.00799,   0.01554,   0.04055,  -0.09036,   0.04055,  -0.01388,  -0.01388,  -0.00799,  -0.04182,  -0.01535,   0.01554,  -0.01976,  -0.01093,   0.05379,  -0.00064,   0.01260,   0.00672,  -0.01682,   0.00672,  -0.03594,   0.02290,   0.01260,  -0.02417,  -0.02270,  -0.01093,   0.01848,  -0.01093,  -0.03006,  -0.05800,  -0.01093,  -0.00064,  -0.05653,  -0.07124,  -0.00799,  -0.03153,  -0.03153,   0.01995,   0.04055,   0.04202,  -0.07418,  -0.03447,   0.08467,   0.01995,  -0.03741,  -0.02123,   0.03319,  -0.01093,   0.05820,   0.05820,   0.04055,  -0.02123,  -0.05065,  -0.00064,   0.05967,  -0.01240,  -0.01829,  -0.01535,   0.01554,   0.01995,   0.01995,  -0.04771,  -0.00211,  -0.06683,  -0.03300,   0.00966,   0.02143,  -0.02123,   0.01701,  -0.00211,   0.00378,   0.01554,  -0.02123,  -0.00358,   0.01701,  -0.05800,  -0.01388,   0.01407,  -0.01093,  -0.01535,  -0.03300,   0.01113,  -0.03153,  -0.04624,  -0.05506,  -0.01093,   0.01995,   0.09791,  -0.00652,  -0.06242,  -0.00358,   0.02290,   0.02290,   0.04790,   0.01848,   0.01113,  -0.00064,  -0.03447,   0.03466,   0.01407,  -0.03006,   0.08320,  -0.04771,   0.01260,   0.05379,  -0.00211,  -0.01093,  -0.03006,  -0.02123,  -0.00505,   0.05526,  -0.01829,  -0.07124,  -0.04035,  -0.05800,   0.00378,   0.00672,  -0.00652,  -0.01093,   0.00083,   0.02290,   0.04496,   0.02437,   0.05820,  -0.03888,   0.03908,   0.01260,   0.05967,   0.00966,   0.08026,   0.02584,   0.02143,   0.01554,   0.00525,  -0.05065,  -0.02270,  -0.03300,  -0.01388,  -0.04182,  -0.03594,   0.02437,   0.01113,  -0.10801,   0.03908,   0.03908,  -0.04624,   0.03025,  -0.04918,   0.04496,   0.02290,   0.05084,   0.02143,  -0.00064,  -0.04329,  -0.01535,   0.04496,   0.01554,   0.04055,  -0.04771,   0.00672,  -0.03888,  -0.02858,  -0.04918,  -0.00505,  -0.02123,   0.04643,  -0.01240,  -0.00211,  -0.00358,   0.06408,   0.04496,   0.04349,  -0.00799,   0.01848,   0.03466,  -0.01093,   0.00083,   0.00966,   0.07291,  -0.05065,  -0.04182,  -0.00064,   0.01701,   0.00083,   0.00966,   0.02290,   0.01995,   0.00672,   0.00525,  -0.00064,  -0.01093,  -0.01829,   0.01407,  -0.01829,  -0.01682,   0.09350,  -0.03594,  -0.02564,   0.02290,   0.00819,   0.06555,   0.00378,  -0.08448,   0.01995,  -0.01976,   0.01407,   0.05526,   0.02731,   0.03908,  -0.05065,   0.03466,   0.02878,  -0.03153,   0.05231,  -0.04624,   0.00230,   0.02143,   0.03319,   0.02143,  -0.00358,   0.01407,   0.00525,  -0.01682,   0.00230,  -0.03594,   0.02437,   0.00819,   0.02731,   0.01701,   0.02143,  -0.02270,   0.00819,  -0.01093,   0.02584,   0.01554,   0.03908,   0.07144,   0.00083,  -0.02417,  -0.03888,   0.01407,  -0.00064,   0.07438,  -0.03594,   0.00083,  -0.00652,   0.02437,   0.01701,   0.04937,  -0.09772,   0.03613,  -0.01388,  -0.05506,  -0.05800,  -0.01976,   0.00966,   0.03025,  -0.05065,  -0.04182,   0.02290,  -0.01240,   0.03466,  -0.00652,  -0.01388,   0.01113,  -0.01240,  -0.04918,  -0.01682,   0.06261,  -0.01093,   0.02731,   0.00083,   0.01260,  -0.00211,   0.00966,  -0.04918,  -0.03153,  -0.03741,   0.01407,  -0.05947,   0.01260,   0.10527,   0.00672,  -0.01535,  -0.01976,   0.06261,   0.00083,   0.01995,  -0.00358,   0.04937,  -0.07565,   0.06114,   0.01554,  -0.05359,   0.06114,  -0.02270,  -0.01976,  -0.02417,   0.07291,   0.03908,   0.07438,  -0.03594,   0.02143,  -0.03300,   0.04349,  -0.06830,  -0.01976,   0.02290,  -0.03447,   0.00525,  -0.00211,   0.03172,  -0.03006,   0.01995,   0.03025,  -0.05065,   0.00230,  -0.00358,   0.02437,  -0.00652,   0.01995,  -0.03006,  -0.05653,  -0.03006,   0.03172,  -0.03006,  -0.03447,  -0.01093,   0.01995,  -0.03594,   0.00672,  -0.08154,  -0.01535,  -0.01829,   0.00672,   0.00230,  -0.01682,  -0.03594,   0.03025,  -0.02858,  -0.04624,  -0.00799,  -0.01682,  -0.03153,   0.01260,  -0.00211,   0.03319,  -0.00505,   0.01113,   0.00378,  -0.09625,   0.04790,  -0.00799,  -0.00358,  -0.00211,   0.02878,  -0.03153,  -0.01093,  -0.04182,   0.01554,   0.04643,   0.06408,   0.00672,   0.08762,  -0.00064,   0.02290,  -0.02417,   0.05084,   0.00525,   0.00230,  -0.05359,  -0.01240,   0.03908,   0.03466,  -0.11684,  -0.01240,   0.03319,  -0.02417,   0.04349,   0.05673,   0.06702,   0.01701,   0.05379,  -0.01535,  -0.06683,  -0.00211,  -0.04035,  -0.00211,  -0.00799,  -0.01976,   0.01701,   0.03025,  -0.00064,  -0.05212,  -0.02858,  -0.00946,   0.09791,  -0.00946,  -0.03447,   0.03025,   0.01995,   0.06408,  -0.02564,   0.03025,  -0.06536,   0.04790,   0.04055,   0.00672,  -0.04329,  -0.04329,   0.05820,   0.01260,   0.03025,  -0.12419,  -0.08742,   0.01260,  -0.03594,   0.03172,  -0.00946,   0.06261,   0.00672,  -0.07860,   0.04349,   0.02584,   0.04643,   0.02584,  -0.02417,  -0.04182,  -0.00064,  -0.06830,  -0.01976,   0.09791,  -0.05800,   0.03761,   0.02731,   0.01260,  -0.01829,  -0.03153,   0.00378,  -0.03153,  -0.05065,  -0.03153,   0.06114,  -0.01535,  -0.01976,   0.04055,  -0.02711,   0.05526,   0.02290,   0.06114,  -0.02123,   0.07144,  -0.03447,   0.01554,  -0.00211,  -0.02123,  -0.02123,   0.00672,   0.05673,  -0.03300,   0.04790,   0.01260,  -0.02564,   0.03908,   0.00378,   0.01701,  -0.02270,   0.04055,  -0.08007,   0.04643,   0.01260,  -0.01535,   0.07879,  -0.03300,   0.02437,  -0.00652,   0.03908,  -0.01976,   0.02878,  -0.08595,  -0.03300,   0.07879,   0.04937,  -0.02417,  -0.05065,  -0.00652,  -0.08742,  -0.01388,   0.03319,   0.01260,   0.01113,   0.06702,  -0.00652,   0.01701,   0.01701,   0.00525,  -0.03594,  -0.03594,   0.05084,   0.01554,   0.00378,  -0.01535,  -0.05212,  -0.07418,  -0.00946,   0.02290,   0.01407,  -0.05506,  -0.04918,   0.04349,   0.03172,  -0.02123,  -0.08007,  -0.02711,   0.01554,  -0.02123,   0.01113,  -0.04476,   0.00378,   0.03761,  -0.00652,  -0.04918,  -0.03594,   0.02437,   0.02731,  -0.00799,  -0.01829,   0.04790,   0.02437,  -0.01976,  -0.00946,   0.04055,  -0.00946,  -0.01976,  -0.03300,   0.04937,  -0.00505,  -0.00211,  -0.00946,  -0.04476,  -0.00946,  -0.01388,   0.01995,   0.01848,  -0.02417,   0.05820,  -0.01093,  -0.01682,   0.01113,   0.00378,  -0.04329,   0.01848,   0.04937,  -0.01535,  -0.01535,  -0.02417,   0.07291,   0.01701,   0.02143,  -0.00799,   0.00819,  -0.01388,   0.00230,  -0.04035,   0.02584,  -0.00799,   0.00819,   0.09350,  -0.01093,  -0.00064,   0.02584,  -0.03153,   0.00378,  -0.02417,  -0.02711,   0.05526,   0.02731,   0.00966,   0.00966,  -0.00505,  -0.03153,   0.03025,  -0.01829,   0.01407,   0.02878,  -0.01240,   0.08173,   0.00083,   0.03025,   0.02290,   0.03025,   0.00083,   0.01407,   0.02437,  -0.02417,   0.03908,  -0.00505,   0.01848,   0.08467,   0.01995,   0.03908,   0.01113,  -0.02858,   0.02290,  -0.06683,   0.05379,  -0.06683,  -0.04476,   0.04790,  -0.05065,  -0.00799,   0.00672,  -0.02270,  -0.04035,  -0.02417,  -0.01093,  -0.01682,  -0.03006,  -0.00211,   0.01407,  -0.03741,   0.07438,   0.01995,   0.03466,   0.01554,   0.02878,   0.00525,  -0.03741,   0.00230,  -0.05359,  -0.08301,  -0.03888,  -0.06094,   0.06261,  -0.00652,   0.02143,  -0.06094,  -0.04182,   0.01995,   0.01701,  -0.00064,   0.06849,   0.00378,   0.01554,  -0.01535,  -0.02711,   0.03025,   0.00525,   0.01995,   0.00525,  -0.03741,  -0.01388,   0.00672,   0.01407,  -0.03300,  -0.00358,   0.01260,   0.05231,  -0.01240,  -0.05653,   0.06261,   0.00525,  -0.03300,  -0.02417,   0.07585,   0.01848,   0.00083,  -0.00946,  -0.02711,   0.01260,   0.07144,   0.01701,  -0.01093,  -0.00946,   0.00230,  -0.04624,  -0.00652,  -0.01535,  -0.01240,  -0.04918,  -0.02417,   0.02878,  -0.03447,   0.03908,  -0.00211,  -0.07860,  -0.01388,  -0.01240,  -0.02270,   0.00378,  -0.01240,   0.01113,   0.02143,  -0.04035,   0.00230,  -0.02564,   0.00230,   0.02290,  -0.04035,   0.05526,  -0.00652,   0.01554,   0.05673,  -0.06977,   0.01701,   0.03172,  -0.07860,  -0.01535,   0.07438,   0.00525,   0.03613,  -0.01240,   0.03613,  -0.02417,   0.02290,  -0.00946,  -0.00358,  -0.00064,  -0.01093,  -0.04624,   0.03761,   0.08467,   0.01995,   0.06114,   0.08467,  -0.03300,  -0.01240,   0.02584,  -0.01093,  -0.04182,   0.00672,   0.03319,   0.00378,   0.00378,   0.05526,  -0.01682,  -0.02123,   0.06849,  -0.01240,  -0.05800,   0.02731,   0.01848,   0.04349,  -0.06242,  -0.03153,   0.06114,   0.03466,   0.03319,   0.05967,   0.04790,  -0.01093,  -0.00064,   0.04349,  -0.01535,   0.02878,   0.00083,  -0.08595,  -0.05653,   0.01848,  -0.02270,  -0.04918,  -0.04476,  -0.03594,  -0.01240,   0.01407,   0.02731,  -0.04035,  -0.07124,   0.03613,   0.00083,   0.03761,  -0.01093,  -0.02564,   0.04790,  -0.00064,  -0.01093,   0.00083,   0.04055,   0.01995,   0.00966,   0.01407,  -0.01093,  -0.00064,   0.03319,   0.00525,  -0.07860,  -0.01829,  -0.03594,  -0.03888,  -0.07418,   0.03025,  -0.01388,  -0.04771,  -0.04035,   0.01848,  -0.01093,  -0.02564,  -0.00358,  -0.04182,  -0.07271,  -0.03006,  -0.02711,  -0.00064,  -0.03888,  -0.11537,   0.05231,  -0.02123,   0.00819,  -0.03447,   0.02878,   0.02878,   0.01995,  -0.03447,   0.01848,   0.04055,   0.00819,  -0.03741,   0.06261,  -0.02564,  -0.03888,  -0.04624,   0.06849,   0.03172,   0.04790,  -0.02123,  -0.00799,  -0.01388,   0.07438,   0.01260,   0.00230,   0.05526,   0.04790,  -0.00211,   0.01260,  -0.00946,  -0.04476,   0.01848,  -0.02711,  -0.02417,  -0.03888,   0.02584,  -0.00505,  -0.03006,   0.05379,  -0.04624,   0.13027,  -0.08301,   0.04202,  -0.03741,   0.04202,   0.00819,  -0.06830,  -0.01976,   0.03466,  -0.03447,   0.05084,   0.03466,   0.05673,  -0.00211,   0.07144,   0.01995,   0.03172,   0.04937,  -0.03153,   0.01260,  -0.00799,  -0.04771,   0.03025,  -0.07271,  -0.05212,   0.00672,  -0.02123,  -0.02270,   0.03025,   0.01701,   0.02143,  -0.03300,   0.06261,   0.02731,  -0.05359
   0.04790,   0.00525,  -0.00946,  -0.01240,   0.07732,   0.06408,  -0.05653,   0.05084,  -0.03594,   0.03025,  -0.02417,  -0.03153,   0.02437,  -0.08889,  -0.02858,  -0.00652,  -0.00505,   0.04790,  -0.04624,   0.00230,   0.05820,  -0.03888,  -0.00505,   0.08762,   0.01995,  -0.02564,   0.05967,   0.02290,   0.04937,   0.01554,   0.08762,   0.01554,  -0.04476,  -0.06242,  -0.08889,   0.01407,   0.00672,   0.00525,  -0.00211,   0.03908,   0.04496,  -0.09330,  -0.00505,   0.07585,   0.04055,   0.05526,   0.07879,   0.05820,   0.06261,  -0.03153,  -0.09330,   0.03319,  -0.03300,   0.02731,   0.07732,   0.01407,   0.02437,   0.01260,   0.04349,  -0.04771,  -0.00211,  -0.07124,  -0.05359,  -0.04476,  -0.03594,   0.05820,   0.00083,  -0.05506,   0.00083,   0.06555,  -0.01535,   0.05673,   0.00819,   0.09203,   0.01260,   0.03613,   0.03466,  -0.03153,  -0.07124,   0.02437,  -0.07565,  -0.00064,   0.01407,  -0.00064,   0.00819,  -0.02711,  -0.01388,  -0.01976,  -0.05359,  -0.01976,  -0.00946,   0.03025,   0.08320,  -0.01240,   0.00378,  -0.00652,  -0.00064,   0.00230,  -0.00505,   0.05526,   0.05084,  -0.02858,  -0.03594,   0.00083,   0.00378,   0.00083,   0.02731,   0.03025,   0.01407,   0.05673,  -0.01240,   0.02437,   0.04790,  -0.03006,   0.02731,   0.07732,   0.00819,   0.02437,   0.00966,  -0.03447,  -0.04624,   0.01701,   0.05379,   0.02437,   0.00525,  -0.01240,   0.01260,   0.01407,   0.03761,  -0.00064,   0.01113,   0.05379,  -0.00358,   0.04496,   0.00083,   0.01701,  -0.00799,  -0.00211,   0.03172,  -0.00211,  -0.06389,   0.02584,   0.04349,   0.05084,  -0.04624,   0.03172,   0.00672,   0.02584,  -0.01093,   0.01407,   0.03172,   0.08173,   0.01848,  -0.01535,  -0.05653,   0.04202,  -0.00799,  -0.03153,  -0.04035,   0.03172,  -0.04329,  -0.00211,  -0.00652,  -0.01535,   0.01260,  -0.00358,  -0.02123,   0.02584,  -0.01093,   0.12586,   0.01554,  -0.01093,  -0.02123,   0.04202,   0.01554,   0.09056,  -0.03888,   0.02584,   0.03908,  -0.04771,  -0.03300,  -0.02417,   0.03466,  -0.01535,  -0.02711,   0.04055,  -0.00946,  -0.00211,  -0.05065,  -0.01388,   0.02878,   0.06261,   0.04643,  -0.04476,  -0.03300,   0.02584,  -0.03300,  -0.02858,  -0.01240,   0.07144,   0.05673,   0.08320,   0.01554,   0.02437,  -0.03153,   0.02143,   0.04643,   0.03172,  -0.04329,  -0.03006,  -0.07565,  -0.06094,  -0.03741,  -0.04918,  -0.00505,   0.01554,   0.03908,  -0.01388,   0.01848,   0.03319,   0.00525,   0.04496,  -0.00652,   0.01701,   0.04790,   0.00525,   0.02584,   0.01407,   0.01995,  -0.03888,  -0.00946,  -0.01240,  -0.07418,  -0.06536,   0.06849,   0.09938,  -0.00211,   0.02731,   0.02878,  -0.07271,  -0.01976,   0.01407,   0.00966,  -0.01388,  -0.00211,   0.00819,  -0.01682,  -0.01829,   0.01260,   0.01848,   0.06849,   0.05379,  -0.02123,  -0.04476,  -0.03447,   0.09791,  -0.00652,  -0.00652,  -0.01682,  -0.04182,   0.03319,   0.03319,   0.05084,   0.03761,  -0.05653,   0.03172,  -0.06242,   0.03761,  -0.01829,   0.05526,  -0.01535,   0.03466,   0.03466,  -0.01240,  -0.00211,   0.01848,   0.00525,  -0.01240,  -0.06536,  -0.03447,  -0.03888,   0.04055,  -0.00946,  -0.02270,   0.00672,   0.05379,   0.03025,  -0.01682,   0.08467,   0.06114,   0.00378,   0.02290,   0.01554,   0.02437,  -0.00652,  -0.04476,   0.00230,  -0.11243,   0.00230,  -0.03594,  -0.02858,  -0.08154,  -0.01976,   0.01407,  -0.05065,  -0.01535,   0.05231,   0.06114,  -0.03006,   0.03908,  -0.08154,   0.08762,  -0.02711,  -0.02417,  -0.03888,   0.05967,   0.00966,  -0.01829,  -0.01976,   0.03319,  -0.05359,  -0.03447,  -0.00799,  -0.03153,   0.02584,  -0.05212,   0.03466,  -0.04182,  -0.03888,  -0.01535,  -0.06977,  -0.01535,  -0.02711,  -0.00358,  -0.01976,  -0.03888,   0.02437,   0.02731,  -0.01829,  -0.00211,   0.03908,  -0.02417,   0.04349,   0.04790,   0.01701,  -0.04771,   0.04496,  -0.04771,   0.02437,   0.05084,   0.02437,   0.04643,  -0.07271,   0.03613,   0.01260,  -0.03153,   0.01407,   0.00378,  -0.05065,   0.01260,  -0.02123,   0.00819,   0.00966,  -0.04476,   0.01554,  -0.00652,  -0.00946,  -0.00211,   0.01113,  -0.00652,  -0.00652,   0.01407,  -0.04329,   0.00819,  -0.05359,   0.00525,   0.00819,  -0.10360,  -0.00358,   0.07585,   0.03761,  -0.00946,  -0.01240,  -0.03300,  -0.02270,   0.02878,   0.05379,  -0.01976,  -0.03300,  -0.05653,  -0.01240,  -0.00799,   0.05967,  -0.00358,  -0.00946,   0.00966,   0.00378,  -0.00652,   0.01554,  -0.00064,   0.10674,   0.03319,  -0.03006,   0.00966,   0.01113,   0.00083,  -0.06536,   0.01701,  -0.02123,   0.07291,   0.01701,  -0.00211,   0.02143,  -0.00358,  -0.00358,  -0.02270,   0.02584,  -0.01388,   0.04349,  -0.04329,  -0.01093,   0.03319,  -0.02564,  -0.08889,  -0.00505,   0.05673,   0.04496,   0.04790,   0.00966,  -0.03888,   0.03908,   0.00083,  -0.05212,   0.01113,  -0.01535,   0.04202,  -0.00946,  -0.01976,  -0.01093,  -0.05800,  -0.02123,  -0.07271,   0.00230,  -0.06536,   0.03613,  -0.03888,   0.02290,  -0.04624,  -0.01682,   0.01701,   0.01113,  -0.02270,   0.00525,  -0.02417,   0.08173,   0.03466,   0.03319,  -0.00505,  -0.06389,   0.00083,  -0.01388,  -0.02711,  -0.00799,  -0.05212,  -0.01829,  -0.02123,  -0.04035,   0.00525,   0.04055,  -0.00946,   0.02290,   0.07732,   0.00966,  -0.00211,  -0.01976,   0.01554,   0.01995,  -0.00799,  -0.03594,   0.01995,  -0.02417,   0.00525,  -0.00064,   0.01995,  -0.01388,   0.00966,   0.00230,  -0.00946,  -0.00358,  -0.01388,  -0.00358,  -0.02711,   0.02290,  -0.00505,   0.06408,   0.00378,  -0.04035,   0.01995,  -0.05800,  -0.04771,   0.01995,  -0.00652,  -0.00064,  -0.05653,   0.01113,  -0.01682,   0.00378,  -0.00211,  -0.00652,  -0.01976,   0.04349,   0.04202,   0.00672,  -0.03300,   0.04937,  -0.00505,   0.03613,  -0.00505,  -0.03153,   0.06261,  -0.00946,   0.06702,  -0.02123,  -0.02564,   0.04349,  -0.05947,  -0.03447,   0.06114,  -0.01682,   0.03761,  -0.06242,   0.00819,  -0.04624,  -0.04035,   0.05820,   0.04202,  -0.00211,  -0.05065,  -0.05212,  -0.01388,   0.03172,  -0.02417,   0.01995,   0.00819,   0.01260,  -0.00064,   0.04790,   0.04496,   0.00525,   0.00378,  -0.01093,   0.02878,  -0.08742,  -0.08007,   0.02290,  -0.01093,   0.07438,   0.06114,   0.08909,  -0.04329,  -0.02564,   0.00378,  -0.03006,   0.05967,   0.06408,  -0.03006,   0.02437,  -0.00799,   0.00966,  -0.02564,   0.03025,  -0.04329,  -0.00358,   0.00083,   0.02290,   0.06849,  -0.00358,  -0.00064,   0.05379,   0.03172,   0.08026,   0.03319,  -0.03594,  -0.03153,   0.04643,  -0.02417,   0.04349,   0.04349,   0.01554,   0.01554,   0.04055,   0.00966,  -0.04182,  -0.04918,   0.01113,   0.05967,   0.04055,   0.02878,   0.03908,   0.00525,  -0.00064,  -0.01682,  -0.04329,  -0.06977,  -0.04918,   0.01113,   0.02290,   0.00819,  -0.01682,  -0.06242,  -0.01535,  -0.00652,  -0.01093,  -0.02711,  -0.01093,  -0.02564,   0.05967,  -0.03594,  -0.03006,  -0.01976,  -0.00505,   0.05673,   0.10085,  -0.00505,   0.03466,  -0.01976,   0.01995,   0.02584,   0.01848,  -0.01535,   0.02878,   0.05967,   0.01554,   0.05526,   0.01260,   0.05820,   0.02878,  -0.01388,  -0.05947,  -0.07712,  -0.00505,  -0.04624,   0.00083,  -0.00946,  -0.03006,   0.01113,  -0.01976,  -0.04771,   0.05967,   0.03613,  -0.00799,  -0.03594,  -0.05506,  -0.01240,   0.02290,   0.03319,  -0.00799,   0.01848,  -0.02270,   0.05967,   0.00525,   0.00230,  -0.02270,  -0.05800,  -0.01240,  -0.03153,  -0.06536,   0.06261,  -0.02123,  -0.01535,   0.02584,   0.03172,   0.01407,  -0.02270,   0.04349,   0.07291,   0.02290,   0.01554,  -0.01093,  -0.01976,   0.03172,  -0.01976,  -0.01388,  -0.02858,  -0.03006,  -0.02564,  -0.00358,   0.00230,   0.00819,   0.01407,   0.09056,  -0.00652,  -0.02417,   0.04937,  -0.02711,  -0.01829,  -0.00064,  -0.07271,   0.01260,   0.10380,  -0.05359,   0.04643,  -0.00799,  -0.05506,   0.00672,  -0.00064,  -0.02270,  -0.03594,  -0.00211,  -0.01240,  -0.04329,   0.02584,   0.07144,  -0.00505,   0.03172,   0.00378,   0.00378,   0.02143,  -0.03300,   0.01848,  -0.02123,  -0.01829,   0.03172,  -0.05065,  -0.02123,  -0.06536,  -0.03447,  -0.05947,   0.02143,   0.06261,  -0.00652,   0.04055,   0.02143,   0.03908,   0.00378,   0.02878,   0.01554,   0.08026,  -0.03153,   0.07144,   0.06114,  -0.01535,   0.01554,  -0.00505,  -0.05065,   0.03172,   0.05231,   0.00525,  -0.04771,   0.03172,  -0.03447,  -0.04035,  -0.05506,   0.01113,   0.02731,   0.07438,  -0.05653,  -0.02858,  -0.03888,   0.03466,   0.04496,  -0.04624,  -0.03006,  -0.00946,   0.02878,  -0.02564,   0.06555,   0.03466,  -0.05065,  -0.05800,  -0.03447,  -0.03594,  -0.03888,   0.03466,   0.01554,   0.03466,  -0.02270,  -0.02858,  -0.03594,   0.02437,  -0.01682,  -0.03153,  -0.02711,  -0.00358,   0.04790,   0.05967,  -0.00799,  -0.02270,   0.02437,   0.04643,  -0.03300,   0.02290,   0.00525,  -0.02858,   0.02290,  -0.03153,   0.02731,   0.04496,   0.00819,  -0.01388,   0.04643,   0.01554,  -0.00946,  -0.02858,   0.02290,  -0.01388,  -0.03153,  -0.00799,   0.00378,  -0.05653,  -0.01388,  -0.03153,   0.00083,  -0.05212,  -0.04035,  -0.01388,  -0.03594,   0.00966,   0.04055,  -0.03153,   0.06114,  -0.06977,   0.01701,  -0.04329,   0.00672,   0.02731,   0.01113,  -0.03888,  -0.06830,  -0.00505,  -0.00211,   0.04937,   0.06261,  -0.00652,  -0.00211,   0.05820,   0.07585,  -0.03447,  -0.01829,  -0.05065,   0.02290,  -0.02858,  -0.05212,   0.02878,   0.04643,   0.01260,  -0.09625,  -0.04624,   0.01260,   0.01113,   0.00083,   0.00525,  -0.00358,   0.00672,  -0.06977,   0.02143,  -0.01535,   0.01554,   0.04496,   0.07732,  -0.07124,  -0.05212,   0.02878,  -0.04035,  -0.00946,  -0.04476,   0.00525,   0.03025,   0.08173,  -0.06977,  -0.04035,  -0.00652,  -0.01829,  -0.03153,  -0.08742,   0.01701,  -0.03594,  -0.01976,   0.00819,   0.04790,   0.00672,   0.00819,   0.01407,  -0.00358,  -0.01535,  -0.02270,  -0.06094,  -0.06977,  -0.00652,  -0.03741,  -0.03153,   0.02143,   0.03466,  -0.01388,   0.03761,   0.08467,   0.05379,   0.02143,  -0.08154,  -0.00064,  -0.03594,  -0.04918,   0.02437,   0.07879,  -0.00064,   0.00672,   0.00819,  -0.00799,  -0.03006,   0.06555,  -0.02123,   0.04202,   0.02437,  -0.04476,   0.00083,   0.01995,  -0.03447,   0.04937,   0.02143,  -0.01535,  -0.02564,   0.05379,  -0.00946,   0.02731,  -0.00064,  -0.01682,   0.00083,  -0.05212,  -0.02711,   0.01113,  -0.02711,   0.01407,   0.01995,   0.02731,  -0.00064,   0.07144,  -0.01976,   0.00378,   0.04937,   0.02143,  -0.03594,   0.05820,   0.08173,  -0.03153,   0.06555,  -0.00064,   0.00819,  -0.04918,   0.06997,   0.01554,   0.03025,  -0.02858,  -0.04771,   0.02290,   0.00083,  -0.01535,   0.02290,   0.00819,   0.01995,  -0.06536,   0.06702,  -0.05800,   0.04496,   0.01848,  -0.00358,  -0.03888,   0.02290,   0.04496,  -0.00505,  -0.02270,   0.02731,   0.01113,  -0.00946,  -0.07124,  -0.04182,   0.00083,   0.05084,   0.02143,   0.00672,   0.01848,   0.02878,  -0.01093,  -0.01535,   0.09497,  -0.03300,   0.06408,   0.04937,   0.00672,   0.00083,   0.08173,   0.02143,  -0.00799,   0.01995,   0.04496,  -0.04035,   0.01113,  -0.04329,   0.09938,  -0.01240,   0.01113,  -0.04918,  -0.01829,  -0.03153,  -0.04476,  -0.03447,   0.00525,   0.03613,  -0.07712,   0.01995,  -0.08301,   0.00378,   0.00672,  -0.03594,   0.04349,   0.07291,   0.00083,  -0.05065,  -0.06830,   0.02584,  -0.02417,   0.00525,  -0.04035,  -0.04624,  -0.04476
  -0.05947,   0.02290,  -0.03594,   0.00525,  -0.03447,  -0.03300,   0.00083,   0.06555,   0.00230,   0.08762,  -0.07712,   0.12439,  -0.02564,   0.02290,   0.01260,  -0.05653,  -0.02711,   0.01554,   0.01701,   0.03025,   0.01995,  -0.03153,   0.08026,   0.07144,   0.00230,  -0.03888,  -0.01682,   0.02878,  -0.05653,  -0.00946,  -0.06536,  -0.06977,  -0.09183,   0.01848,   0.04349,  -0.01976,   0.00525,  -0.06977,   0.02290,   0.01701,   0.01848,  -0.04476,   0.00672,  -0.08448,  -0.03447,  -0.01976,  -0.00799,  -0.01829,  -0.01388,  -0.00211,  -0.02564,  -0.02858,  -0.05947,  -0.04918,   0.01701,  -0.03153,   0.00083,  -0.04624,  -0.00358,  -0.00211,  -0.02858,  -0.04329,  -0.00799,  -0.04035,  -0.06389,  -0.07712,  -0.02711,   0.00083,   0.10380,  -0.01240,  -0.02564,   0.05231,  -0.04624,   0.03761,  -0.00064,  -0.01829,  -0.04035,  -0.04035,  -0.00358,   0.00672,   0.02878,  -0.02417,  -0.01093,  -0.04771,   0.06702,  -0.00799,  -0.03006,  -0.01093,  -0.02711,  -0.02564,   0.03613,  -0.02270,   0.09644,   0.01995,  -0.01093,  -0.01535,   0.01260,  -0.12125,  -0.03006,  -0.04476,  -0.02417,  -0.01976,   0.04349,  -0.03153,  -0.02270,  -0.03741,  -0.04624,  -0.01976,   0.01554,  -0.02123,  -0.01682,   0.00966,  -0.05065,  -0.01829,  -0.03447,  -0.03888,  -0.01535,   0.00525,  -0.00064,   0.06555,  -0.00211,   0.00083,   0.03761,  -0.02417,   0.07732,   0.03761,  -0.02270,   0.02584,  -0.01535,  -0.02123,  -0.00799,  -0.03594,   0.01260,   0.00378,   0.00525,  -0.02858,  -0.00799,   0.00819,   0.00819,  -0.00946,  -0.00358,   0.03466,   0.01701,  -0.08154,  -0.00505,  -0.00799,  -0.03594,   0.00083,  -0.04624,  -0.00358,   0.06702,   0.01995,   0.04202,   0.05967,   0.04643,   0.02143,  -0.00358,  -0.02711,   0.03466,  -0.03594,   0.03172,  -0.00799,   0.00083,  -0.01388,   0.00525,   0.03172,  -0.00211,  -0.00211,  -0.00064,  -0.01829,   0.00083,  -0.06683,   0.04055,  -0.04035,  -0.04918,  -0.01682,  -0.00211,   0.02878,  -0.00358,  -0.02711,  -0.03300,   0.01995,   0.01848,   0.07879,   0.00672,  -0.06536,  -0.03594,  -0.08889,   0.06702,   0.00819,  -0.01829,   0.05231,  -0.08301,   0.00378,  -0.03447,   0.00378,  -0.00211,   0.00230,   0.00525,  -0.04035,  -0.01388,  -0.02711,   0.08615,  -0.06683,   0.09644,   0.00819,   0.04643,  -0.01535,   0.02584,   0.00378,  -0.01976,   0.00819,   0.10085,   0.03319,   0.04496,   0.02437,  -0.00946,   0.00672,  -0.06389,   0.03613,  -0.00946,   0.04937,  -0.00358,  -0.01093,  -0.00358,  -0.03153,  -0.04918,  -0.02711,   0.07879,   0.02878,   0.04055,  -0.00505,   0.04202,  -0.02564,   0.01260,  -0.00064,  -0.00064,  -0.04035,  -0.05065,   0.02878,   0.01848,   0.04790,  -0.00505,   0.01113,  -0.00946,   0.04496,  -0.01388,   0.05526,   0.03761,   0.04349,  -0.01388,   0.01995,  -0.04624,  -0.01240,  -0.01535,   0.01407,  -0.05359,   0.03613,   0.01113,  -0.03153,   0.03319,  -0.06389,  -0.02417,   0.00819,  -0.10360,  -0.01682,  -0.01829,   0.05084,  -0.06094,  -0.03741,  -0.08154,  -0.02270,   0.03908,   0.05526,  -0.02123,  -0.01976,   0.01407,  -0.01829,   0.03908,   0.04643,  -0.04771,   0.00819,   0.01260,  -0.04624,   0.04937,  -0.03447,  -0.03006,   0.02437,  -0.00946,   0.00378,  -0.03447,   0.01554,   0.03025,   0.00672,   0.03025,   0.01407,   0.01260,   0.01407,   0.03908,   0.01848,   0.02878,  -0.00505,   0.02143,   0.02437,   0.00378,  -0.02711,  -0.03447,   0.02584,   0.04496,   0.02143,  -0.04182,   0.01848,  -0.04035,  -0.00946,  -0.02417,   0.11409,   0.03319,  -0.02123,  -0.01682,   0.01554,   0.04643,   0.08026,   0.03025,  -0.10066,  -0.01240,  -0.04035,  -0.04329,   0.01701,  -0.01388,  -0.00211,   0.00819,   0.04790,  -0.02711,  -0.03153,  -0.00799,  -0.00064,   0.05084,  -0.03300,   0.06997,   0.05967,   0.03025,   0.03025,   0.09644,  -0.04771,   0.01848,  -0.00064,   0.02584,  -0.06536,   0.06408,   0.00230,   0.02143,  -0.05653,   0.07291,  -0.04771,   0.05526,  -0.01829,  -0.04771,  -0.01388,  -0.04771,   0.04643,  -0.01535,   0.01113,   0.03761,  -0.03741,  -0.04476,  -0.04476,   0.03613,  -0.01682,  -0.01388,  -0.04182,  -0.00358,  -0.05506,   0.04496,   0.03908,   0.02290,   0.01554,  -0.04476,   0.02437,  -0.04476,   0.05526,   0.03025,   0.00230,  -0.03300,  -0.02858,  -0.05212,  -0.04624,  -0.00211,   0.01848,   0.01554,  -0.00064,  -0.05212,   0.05526,  -0.00358,   0.02437,   0.04349,  -0.00358,   0.00672,   0.03761,  -0.01976,  -0.03447,  -0.03447,  -0.01829,   0.01260,   0.01995,   0.02290,   0.03908,   0.02878,   0.05673,   0.01554,   0.03466,  -0.05506,   0.00966,  -0.05800,  -0.02270,   0.02731,  -0.01682,   0.01848,  -0.05359,   0.06408,  -0.00211,   0.02437,  -0.05947,   0.02731,  -0.07565,  -0.01976,   0.00819,  -0.05212,   0.00083,  -0.05947,  -0.05947,  -0.01388,  -0.02858,  -0.02270,  -0.02417,  -0.06389,  -0.02270,   0.00378,   0.02584,  -0.01535,  -0.02858,  -0.02123,  -0.04329,   0.02143,   0.02143,  -0.03006,  -0.04182,  -0.00652,   0.00966,  -0.04035,   0.00672,   0.08762,  -0.03153,   0.03761,  -0.04771,  -0.03888,  -0.00799,  -0.00064,   0.02437,   0.00378,   0.06408,  -0.00211,  -0.01240,  -0.01093,   0.00378,  -0.01535,   0.01701,  -0.01976,   0.05526,  -0.03888,   0.09644,  -0.06242,   0.00672,  -0.04918,   0.09497,  -0.00799,   0.04496,   0.02437,  -0.08154,   0.01848,  -0.03447,   0.00966,  -0.01829,   0.00230,  -0.01829,  -0.07124,   0.05084,  -0.05212,   0.01554,  -0.01829,  -0.02270,  -0.05506,   0.06849,  -0.01976,   0.01995,  -0.06683,   0.03172,   0.03319,  -0.02564,   0.02143,   0.07732,   0.04937,  -0.03006,  -0.03594,   0.01995,   0.01260,   0.02290,   0.02290,   0.04349,  -0.01535,  -0.03888,   0.01113,  -0.01240,   0.03908,  -0.03594,   0.02143,   0.01113,  -0.02123,  -0.04771,  -0.01535,  -0.00064,  -0.02123,  -0.03006,  -0.01682,  -0.02711,   0.02437,   0.03319,  -0.06389,   0.04496,   0.00083,  -0.01535,  -0.00211,   0.04937,   0.03172,   0.01554,   0.03319,   0.03613,   0.00819,   0.03025,  -0.06977,   0.03613,   0.00525,   0.06261,   0.02437,  -0.01976,   0.03025,   0.03025,   0.01995,   0.01554,   0.00083,  -0.00358,   0.09497,   0.05526,   0.04790,  -0.03888,  -0.01388,  -0.05359,  -0.03300,  -0.01976,   0.02290,   0.01848,   0.03466,  -0.04182,  -0.01093,  -0.01535,  -0.04476,   0.07144,  -0.00505,  -0.00064,  -0.08154,  -0.10654,  -0.03594,  -0.00946,  -0.05653,  -0.06242,  -0.03300,  -0.01976,  -0.00358,   0.04496,   0.00672,   0.09938,   0.04790,   0.04790,  -0.03447,  -0.04182,   0.03172,  -0.05506,  -0.06536,  -0.01829,  -0.06830,   0.00525,   0.01113,  -0.00358,  -0.02270,   0.05820,   0.03319,   0.04349,   0.00525,  -0.06977,   0.00378,   0.06702,   0.00378,  -0.02123,  -0.00799,  -0.02858,   0.00525,   0.00525,   0.01554,   0.01995,  -0.05065,  -0.00211,  -0.09036,   0.01407,  -0.02564,   0.02290,  -0.01535,   0.00083,   0.04055,  -0.00064,   0.00083,  -0.00946,   0.01113,  -0.01093,   0.00378,  -0.05800,  -0.04035,  -0.00064,   0.01995,   0.01260,  -0.05359,  -0.00946,   0.01260,   0.03172,  -0.05359,  -0.00946,  -0.07565,   0.04496,  -0.08889,  -0.01829,  -0.04182,   0.03025,  -0.01976,   0.04496,   0.02731,  -0.09183,   0.01260,   0.00083,   0.03319,  -0.03006,   0.02143,  -0.09478,   0.05084,   0.08909,  -0.02417,   0.01407,  -0.04771,   0.00525,   0.04055,  -0.01093,   0.04202,  -0.01240,   0.00378,  -0.04182,   0.05231,   0.00230,   0.00083,  -0.04035,  -0.00946,   0.03761,  -0.00652,   0.09056,  -0.06683,  -0.04329,  -0.00505,  -0.04035,  -0.01976,  -0.06536,  -0.00064,   0.00230,   0.01554,   0.05820,  -0.06094,  -0.00505,   0.04055,  -0.02711,   0.00230,   0.02143,  -0.01535,   0.00819,  -0.03741,   0.02731,   0.03319,  -0.01535,  -0.03594,  -0.09183,   0.03466,  -0.00358,   0.00819,  -0.02123,  -0.01976,   0.05967,   0.00230,   0.01848,   0.05526,   0.00819,  -0.01682,   0.00378,   0.00378,  -0.01535,   0.06261,  -0.10507,   0.00819,  -0.03006,   0.01407,   0.08320,  -0.00652,   0.02878,   0.00672,  -0.03741,   0.00819,  -0.06977,  -0.01388,   0.11409,  -0.00358,   0.00672,  -0.05212,   0.00230,   0.06114,  -0.04035,  -0.03006,   0.00672,   0.02290,  -0.03888,   0.08762,   0.00378,   0.04937,  -0.00211,  -0.01829,  -0.00799,   0.00083,  -0.03888,  -0.04035,  -0.01682,   0.04496,   0.02143,   0.05673,  -0.03300,  -0.04182,   0.02143,   0.00230,   0.00525,  -0.00652,  -0.09330,   0.02584,  -0.02711,  -0.03300,  -0.07418,   0.06114,  -0.03153,   0.03908,   0.07585,   0.02143,  -0.02417,   0.01995,  -0.00358,  -0.03594,  -0.01682,  -0.03741,  -0.03594,  -0.03447,   0.01848,  -0.03153,  -0.02858,  -0.06242,   0.06849,   0.07291,  -0.04035,  -0.03741,   0.01113,  -0.01829,   0.03172,   0.01113,  -0.05947,  -0.00799,  -0.03006,  -0.07271,   0.00672,  -0.04771,  -0.00505,  -0.01682,  -0.05065,  -0.02858,  -0.00358,  -0.01388,  -0.04329,   0.08173,   0.09056,   0.01701,  -0.02123,  -0.03006,   0.02290,  -0.01388,   0.03319,   0.01407,   0.03172,  -0.08007,  -0.02417,   0.00819,  -0.02123,   0.06555,  -0.03447,  -0.03006,   0.04937,   0.04790,   0.01260,   0.00672,   0.04790,  -0.05212,   0.08320,  -0.02858,  -0.03594,   0.00525,  -0.08154,   0.06114,  -0.00211,  -0.03447,   0.05526,   0.02143,   0.01113,   0.03319,   0.05673,  -0.01976,   0.00672,   0.02290,  -0.03741,   0.01701,   0.05084,  -0.00211,  -0.02711,  -0.01093,   0.05820,   0.02731,  -0.01388,   0.04643,  -0.01535,  -0.02123,   0.05379,  -0.05359,   0.01701,  -0.03300,  -0.07712,   0.02290,   0.04349,   0.01554,   0.05084,   0.01407,   0.08320,   0.05379,   0.04055,  -0.11537,   0.02584,   0.06261,   0.05379,   0.00083,   0.00819,   0.06849,   0.05084,  -0.01829,   0.01113,  -0.02123,  -0.03888,   0.01995,   0.06555,   0.05673,  -0.02858,  -0.00799,   0.05084,   0.03761,  -0.02564,  -0.07124,  -0.01388,   0.00378,   0.01260,   0.00966,   0.05967,   0.05673,   0.02290,   0.01995,   0.00378,  -0.00358,   0.02437,   0.00525,  -0.06242,  -0.00799,   0.07438,   0.03466,   0.02290,  -0.06242,   0.02143,   0.02143,  -0.02858,   0.04055,  -0.03006,  -0.04918,  -0.01829,   0.01407,   0.05084,  -0.03153,   0.04055,  -0.03741,   0.00672,  -0.04035,   0.10968,  -0.05212,   0.02731,   0.03025,   0.03025,  -0.08154,   0.03172,  -0.00505,   0.06997,  -0.04771,  -0.00505,   0.02731,  -0.03300,  -0.00211,   0.00378,   0.00966,  -0.04918,  -0.02417,   0.02290,  -0.02858,  -0.05359,  -0.01829,   0.03761,   0.03466,  -0.04182,  -0.02564,   0.04496,   0.04349,   0.08026,   0.04055,   0.00819,   0.04349,   0.00672,   0.03908,   0.06702,  -0.02858,   0.04937,  -0.02711,  -0.05653,   0.01113,   0.01260,  -0.03006,   0.00083,  -0.01388,  -0.00946,  -0.01535,  -0.05065,   0.02290,   0.04349,  -0.04476,   0.01407,   0.00672,  -0.00799,   0.02731,   0.01260,   0.01848,  -0.04182,  -0.01093,   0.06408,  -0.05800,  -0.05947,  -0.08154,   0.10674,   0.03466,   0.00525,  -0.00211,  -0.01976,  -0.00652,  -0.00652,  -0.00946,   0.00966,   0.00083,   0.01407,   0.05820,   0.01113,  -0.07271,  -0.00211,   0.00819,   0.00230,   0.03172,  -0.06830,  -0.02123,   0.04055,   0.06408,  -0.02858,  -0.01976,  -0.01829,  -0.03447,   0.07732,  -0.00358,  -0.02123,   0.00230,   0.05379,  -0.01240,   0.06555,   0.01848,  -0.04624,   0.04055,  -0.09036,  -0.00652,  -0.01682,   0.03172,  -0.00799,   0.03613,  -0.09036,  -0.03594,   0.05231,  -0.02123,   0.08026,   0.00966,   0.03319,  -0.03594,  -0.00652
  -0.03300,   0.01260,  -0.01093,   0.04496,  -0.03594,   0.01260,  -0.08154,   0.01407,   0.00083,  -0.01829,  -0.03300,  -0.11095,  -0.00358,  -0.07124,  -0.03888,  -0.08007,  -0.02858,   0.00083,   0.00230,  -0.02123,   0.03908,   0.02731,  -0.02564,  -0.01388,   0.06261,  -0.05653,   0.08762,   0.01554,  -0.06094,  -0.01240,  -0.00946,  -0.04182,  -0.01240,   0.04349,   0.03908,   0.07585,   0.00819,   0.08173,   0.00378,  -0.06094,  -0.00946,  -0.00799,   0.00819,   0.02290,   0.01113,   0.01995,   0.00672,  -0.07271,   0.02143,  -0.02711,  -0.05359,   0.04496,   0.03172,   0.01848,   0.04496,   0.02143,  -0.10066,  -0.01535,   0.08173,  -0.04476,   0.06114,   0.04643,  -0.06094,   0.05379,  -0.05212,   0.07144,   0.00230,  -0.05947,  -0.05212,   0.05526,   0.02143,  -0.03006,  -0.04035,  -0.03006,  -0.01093,  -0.02564,   0.01995,  -0.03006,   0.00230,   0.07291,  -0.03006,   0.02731,   0.00378,   0.00378,  -0.07124,   0.02584,   0.00819,   0.08615,   0.04790,   0.01113,   0.01260,   0.01554,  -0.05506,   0.06261,   0.01554,  -0.03447,   0.02290,   0.01554,   0.00230,  -0.04035,  -0.03153,   0.00966,  -0.00358,   0.00525,  -0.03153,   0.00966,   0.02731,  -0.03447,   0.00819,  -0.01682,  -0.00799,   0.02878,   0.04202,  -0.00358,  -0.06977,  -0.00946,   0.03908,  -0.04624,  -0.05065,  -0.01240,  -0.07418,  -0.01976,  -0.03447,   0.01554,  -0.01535,  -0.02123,   0.03319,  -0.00211,   0.01407,   0.06555,  -0.01093,   0.04790,  -0.00799,  -0.03153,  -0.03447,   0.09056,  -0.03741,   0.01554,  -0.02270,   0.02143,   0.01701,  -0.04035,  -0.04035,  -0.06683,  -0.01976,  -0.06683,  -0.03888,   0.00672,   0.01113,   0.05526,  -0.00946,   0.02437,  -0.00358,   0.06114,  -0.09183,   0.04496,   0.00672,  -0.03153,  -0.00799,  -0.04182,   0.00083,  -0.04771,  -0.04624,  -0.01829,   0.00230,  -0.03300,  -0.03594,  -0.05359,  -0.05212,   0.04349,  -0.01829,   0.03319,   0.03613,   0.08615,   0.00378,   0.00378,   0.00083,  -0.05506,  -0.05359,   0.02584,  -0.10213,   0.00819,  -0.01388,  -0.01976,   0.02731,  -0.05212,  -0.05359,   0.06555,  -0.04035,   0.04055,  -0.01682,  -0.02123,  -0.02123,  -0.00211,   0.07732,  -0.00064,  -0.01093,   0.13763,  -0.00652,   0.04496,  -0.05212,  -0.02564,  -0.06389,  -0.00211,  -0.05800,   0.00230,   0.00819,  -0.04918,   0.01848,   0.02290,   0.06261,  -0.00946,  -0.05506,  -0.05212,   0.00672,  -0.01976,  -0.06683,   0.02290,   0.03025,   0.03025,  -0.01976,   0.00525,   0.00966,   0.03319,  -0.03006,   0.03613,   0.00819,  -0.09330,   0.04202,   0.05084,  -0.01240,   0.01554,   0.03908,  -0.01535,   0.01848,   0.08320,   0.06408,  -0.00652,  -0.00358,   0.00230,  -0.07860,   0.00672,  -0.03300,   0.02584,   0.03613,  -0.00505,   0.02437,   0.00966,   0.00378,   0.01113,  -0.00799,   0.00083,  -0.02564,  -0.03741,  -0.05359,   0.03613,  -0.04771,  -0.01682,  -0.05065,  -0.05800,   0.02731,   0.05084,   0.02143,  -0.01388,   0.04496,   0.04202,  -0.03006,  -0.00652,   0.02437,   0.00525,  -0.04329,   0.01554,   0.01260,  -0.00211,  -0.01976,  -0.00064,  -0.05506,   0.09497,  -0.01829,   0.03025,   0.06555,  -0.00799,   0.01848,   0.00672,   0.08615,   0.06555,   0.02584,  -0.07418,  -0.03300,   0.03613,  -0.00946,   0.04055,   0.02143,  -0.02858,  -0.01535,   0.05379,   0.04937,  -0.07124,   0.01554,  -0.04329,   0.06114,   0.00083,   0.00819,  -0.00946,   0.00966,   0.03761,   0.05084,  -0.01093,  -0.05506,  -0.00652,  -0.00652,   0.08026,   0.01995,  -0.05947,  -0.02858,   0.01260,  -0.00505,  -0.03153,   0.10233,  -0.01093,  -0.08154,  -0.05212,   0.01260,  -0.04329,  -0.04182,   0.00672,   0.01407,  -0.04918,   0.03761,  -0.01829,  -0.08595,   0.05231,  -0.01535,  -0.04918,   0.04937,  -0.00505,   0.04055,   0.00672,  -0.02711,  -0.02711,  -0.00946,   0.03466,  -0.00652,   0.01113,  -0.03888,   0.00083,  -0.01240,   0.10085,  -0.03447,  -0.00505,   0.02143,   0.03319,  -0.06242,   0.00966,   0.04496,  -0.01240,   0.00083,   0.01407,  -0.02417,   0.08762,  -0.07712,  -0.04771,   0.01260,  -0.00358,   0.00672,   0.04790,   0.00672,   0.06555,  -0.04476,  -0.01829,   0.07732,   0.02584,  -0.04035,  -0.07124,   0.04496,  -0.03594,  -0.00652,   0.00819,  -0.03594,  -0.05800,   0.00083,  -0.02564,   0.01848,   0.04055,   0.02878,  -0.01388,   0.01407,  -0.00358,   0.01848,   0.00378,   0.04643,   0.00083,  -0.00358,   0.00819,   0.07585,  -0.00799,  -0.03006,  -0.01240,  -0.01535,   0.03025,   0.01260,  -0.09330,   0.08615,   0.05231,  -0.01682,  -0.00505,   0.02731,  -0.01388,  -0.01240,  -0.05800,  -0.06536,  -0.04329,   0.07291,   0.02290,  -0.01976,  -0.03741,   0.06261,   0.03025,  -0.00064,  -0.01535,   0.01407,   0.02584,   0.01407,  -0.04771,  -0.08742,   0.05379,   0.01995,   0.03172,  -0.04182,   0.02731,  -0.04476,   0.04496,  -0.08301,  -0.03006,   0.01407,  -0.01829,  -0.01388,   0.04202,  -0.01240,  -0.03300,  -0.03447,  -0.01976,   0.02437,  -0.04771,  -0.03006,   0.00230,   0.04349,  -0.03447,  -0.05212,   0.01701,   0.02143,   0.01407,  -0.03741,  -0.00064,   0.01407,  -0.00799,   0.00966,  -0.02270,  -0.00652,   0.03466,  -0.02123,  -0.01240,  -0.03006,  -0.07271,   0.04937,   0.02584,   0.01407,  -0.05212,   0.02437,  -0.02123,   0.00672,   0.00525,  -0.02564,  -0.00652,  -0.00652,  -0.02858,  -0.00505,   0.03761,  -0.05800,  -0.00505,  -0.05065,   0.03025,  -0.02417,  -0.04476,   0.02290,   0.01701,  -0.05506,  -0.00358,   0.05967,   0.02437,   0.02878,   0.00966,  -0.01829,  -0.03153,  -0.00652,   0.08909,  -0.00652,  -0.04476,  -0.01535,  -0.05065,   0.02731,   0.06997,  -0.05506,  -0.03594,  -0.09919,   0.00083,  -0.03888,  -0.04329,   0.02143,  -0.04182,  -0.00064,   0.03613,   0.04643,   0.06997,   0.05526,  -0.01093,   0.00378,  -0.04918,   0.05379,  -0.15802,  -0.00505,  -0.01535,  -0.01535,   0.05379,  -0.02123,   0.05673,   0.01260,   0.03908,   0.00525,   0.01407,  -0.00064,   0.01701,  -0.02711,   0.04349,  -0.02858,  -0.06242,   0.06408,   0.04937,   0.06261,  -0.02123,   0.05820,  -0.03006,  -0.02858,   0.04349,  -0.01388,   0.02878,  -0.01388,   0.01260,   0.03613,   0.02290,   0.01848,   0.03319,  -0.01976,   0.03908,  -0.00505,   0.05526,   0.07144,  -0.00652,  -0.00358,   0.01848,   0.05231,  -0.03006,  -0.04771,   0.01554,   0.02143,  -0.05800,  -0.05065,  -0.00799,  -0.02270,   0.02878,   0.02290,  -0.05212,  -0.05359,  -0.02564,  -0.00652,   0.07291,  -0.01240,   0.00083,   0.05231,   0.06114,  -0.03006,  -0.03006,  -0.01976,   0.04055,   0.01995,   0.00966,  -0.03741,  -0.05653,  -0.08595,  -0.05065,   0.01554,   0.01701,   0.00378,   0.02290,  -0.01093,  -0.06536,  -0.03006,  -0.05065,   0.00525,   0.04643,  -0.02858,   0.01260,   0.07144,  -0.00799,  -0.03594,  -0.01976,  -0.03153,   0.01260,   0.12733,   0.04055,   0.03908,  -0.01535,   0.07732,   0.11115,  -0.02711,  -0.07418,  -0.00211,  -0.05212,  -0.00652,  -0.07124,  -0.00211,   0.03908,  -0.01976,  -0.02270,  -0.03888,  -0.02417,   0.05820,   0.04496,  -0.02123,   0.00230,   0.01701,   0.00819,   0.01554,  -0.00505,   0.00230,  -0.00211,   0.05967,   0.05673,   0.02878,  -0.03153,   0.04643,  -0.00946,   0.01554,   0.00230,   0.03761,   0.00083,   0.03613,  -0.06242,  -0.01388,   0.04496,  -0.09330,   0.02584,   0.02437,  -0.02858,  -0.02858,   0.07291,  -0.01976,  -0.01976,   0.01113,   0.00966,  -0.02711,   0.01701,   0.01260,  -0.00946,  -0.04771,   0.03172,  -0.00799,   0.07291,  -0.03741,   0.05379,  -0.02711,  -0.03888,  -0.01535,   0.05379,  -0.00358,   0.06261,   0.03761,  -0.00358,   0.02878,   0.02143,   0.01848,   0.07291,  -0.04771,  -0.09036,   0.02731,  -0.03300,   0.00083,  -0.01829,  -0.00799,  -0.01682,   0.00966,  -0.00211,   0.00083,  -0.01093,  -0.03888,   0.01701,  -0.00358,   0.03025,   0.03761,   0.08320,   0.00378,  -0.03447,  -0.03888,   0.01701,   0.03172,   0.05820,  -0.00211,  -0.04182,  -0.04624,   0.03466,  -0.01829,  -0.00358,   0.02878,  -0.05359,   0.02437,   0.05820,   0.00083,  -0.01388,   0.02731,   0.07732,  -0.04624,   0.06849,   0.01554,  -0.01976,  -0.01976,  -0.02270,   0.03025,  -0.02270,  -0.05212,  -0.00505,  -0.01093,  -0.06830,   0.05084,  -0.03153,   0.03025,   0.05967,  -0.00505,   0.02437,   0.02584,  -0.07418,   0.00378,   0.04349,  -0.04035,  -0.04329,   0.00083,   0.01113,   0.02143,  -0.03447,   0.01554,  -0.01093,   0.04202,   0.05231,   0.04055,   0.03319,  -0.01093,   0.02437,   0.03319,   0.00672,   0.01260,   0.01113,   0.02290,   0.01260,   0.00672,   0.03761,  -0.01682,   0.02878,   0.01260,  -0.05800,  -0.04035,   0.02437,  -0.02123,  -0.08448,  -0.01388,   0.00083,  -0.02417,  -0.03006,   0.01407,   0.01113,   0.03319,  -0.07124,  -0.10654,  -0.03888,   0.04202,  -0.05653,   0.01407,   0.01113,   0.01113,  -0.06977,  -0.06977,   0.05231,  -0.01093,  -0.03741,   0.07291,  -0.01388,  -0.06536,   0.02731,   0.02731,  -0.02711,   0.00672,   0.05231,  -0.00799,  -0.01240,  -0.00358,  -0.05212,   0.09350,   0.06555,   0.04055,   0.01554,   0.03172,  -0.00946,   0.01260,   0.02731,  -0.01829,  -0.00505,  -0.02417,  -0.03888,  -0.05065,   0.06114,   0.03466,  -0.00358,  -0.04624,  -0.01535,  -0.04476,   0.00966,   0.02143,  -0.02858,  -0.04329,   0.00083,   0.02143,   0.01995,  -0.00799,  -0.02564,   0.05231,  -0.04182,  -0.00211,   0.01407,  -0.00358,   0.02731,  -0.02270,  -0.03006,  -0.05653,  -0.01240,  -0.01682,  -0.01240,  -0.01240,   0.02731,  -0.06977,   0.00672,  -0.05800,  -0.03741,   0.02143,  -0.01976,  -0.00652,   0.00378,  -0.01829,   0.01113,   0.00966,   0.03908,  -0.01388,  -0.01240,  -0.03006,   0.01260,  -0.04035,  -0.01093,  -0.03741,   0.05231,  -0.01388,  -0.03006,  -0.04035,   0.02584,   0.04055,  -0.00064,   0.00966,   0.04643,   0.02878,   0.01260,  -0.03741,  -0.03006,   0.00672,   0.06849,  -0.00064,  -0.02711,  -0.04182,   0.03613,  -0.00505,  -0.01829,  -0.01093,   0.03319,   0.00230,   0.03319,   0.01554,   0.05967,   0.11703,   0.00230,   0.08615,  -0.03153,   0.06997,  -0.00211,   0.00525,  -0.05947,   0.00525,   0.01554,  -0.06683,  -0.03888,   0.05967,  -0.02123,  -0.01682,   0.00672,  -0.06683,   0.01701,   0.02584,   0.06114,  -0.03447,   0.00378,  -0.00799,  -0.01240,   0.00819,   0.07144,  -0.00358,  -0.09772,   0.04937,  -0.05506,  -0.06683,  -0.03594,  -0.03153,   0.00378,   0.00819,   0.00378,  -0.03300,   0.00525,  -0.02858,   0.05673,   0.06261,  -0.05065,  -0.01976,  -0.05506,  -0.02564,   0.00672,  -0.00946,   0.04643,   0.02731,  -0.06977,   0.09350,  -0.03153,  -0.00064,  -0.00652,  -0.03153,  -0.01829,  -0.03741,  -0.02270,   0.01848,  -0.02564,   0.02878,   0.05673,  -0.03153,   0.05967,   0.03319,   0.01554,   0.03908,  -0.01535,   0.00525,  -0.05506,   0.01848,  -0.04918,  -0.02270,  -0.01240,  -0.05359,   0.03466,  -0.03153,  -0.01093,   0.00966,  -0.03153,   0.02584,  -0.00505,   0.01995,   0.02878,   0.03761,  -0.03447,  -0.01388,   0.00525,  -0.02270,  -0.08154,   0.04643,  -0.04035,  -0.01682,   0.00966,  -0.03153,   0.05967,   0.00525,   0.02878,   0.00966,   0.05673,  -0.00946,   0.02584,  -0.01240,   0.00525,   0.01554,  -0.02711,  -0.11390,   0.04790,  -0.02711,   0.04790,  -0.01388,   0.00378,   0.03025,  -0.02564,   0.00230,  -0.00799,   0.07585,  -0.00799,  -0.02123,   0.01260,  -0.06094,  -0.09919,  -0.01682,   0.06261,   0.02878,   0.10968,   0.04643,   0.00819,  -0.02858,  -0.00211,   0.01848,   0.05820
  -0.02123,  -0.03888,   0.05673,  -0.03888,   0.00083,  -0.06094,  -0.02417,   0.00966,   0.01995,  -0.03741,  -0.00358,   0.03319,  -0.05359,   0.01407,  -0.00799,   0.12145,  -0.03741,   0.01554,  -0.08742,  -0.01240,   0.02143,   0.05084,  -0.00358,  -0.03300,   0.00819,  -0.05947,   0.04202,   0.03466,  -0.03888,  -0.02711,  -0.04476,  -0.03888,  -0.06977,  -0.01682,   0.02878,   0.09644,   0.02731,   0.01701,   0.03613,  -0.03888,   0.00966,   0.05526,  -0.02270,   0.05673,  -0.01976,  -0.00358,   0.04055,  -0.05359,  -0.05506,  -0.00064,   0.01407,   0.08909,  -0.00064,   0.01848,  -0.02270,   0.02878,   0.00966,  -0.02417,   0.02143,  -0.03006,  -0.03741,  -0.02858,  -0.00946,  -0.01240,  -0.00064,  -0.02711,   0.04496,   0.04643,   0.02878,   0.00819,  -0.04329,   0.00083,  -0.01535,  -0.02564,   0.01260,   0.09938,  -0.02123,  -0.07271,  -0.06094,  -0.00358,   0.06702,  -0.02123,   0.03466,  -0.04329,  -0.01682,  -0.01682,  -0.02711,   0.02437,  -0.00064,   0.01554,   0.03908,   0.05084,   0.04055,   0.01701,   0.03319,   0.01848,  -0.07271,   0.01995,  -0.01976,  -0.02711,  -0.02123,  -0.01682,   0.00672,   0.07879,   0.03025,   0.00230,  -0.02123,   0.04937,   0.03025,   0.02878,  -0.01976,   0.02143,  -0.03888,  -0.01535,   0.03466,   0.05526,   0.00819,   0.05967,   0.03466,   0.01701,  -0.01535,  -0.06683,  -0.04918,  -0.00946,   0.00966,   0.03466,   0.03319,   0.02878,   0.02143,  -0.07418,   0.00378,   0.06555,   0.00525,   0.05379,   0.00819,   0.02437,  -0.00799,   0.03613,  -0.06242,   0.01554,  -0.00946,  -0.02858,  -0.00799,  -0.00505,   0.05084,   0.04055,   0.04055,   0.01554,  -0.11537,   0.05820,  -0.01535,  -0.01240,  -0.02123,  -0.02564,   0.01113,  -0.06094,   0.02437,   0.00672,  -0.02711,  -0.05506,  -0.03153,  -0.02564,   0.01995,  -0.02564,  -0.06830,  -0.00946,   0.01848,   0.03466,   0.03908,  -0.03594,   0.06261,   0.04496,  -0.01682,   0.03908,   0.02290,  -0.02711,   0.05673,  -0.01240,   0.01701,   0.00525,  -0.03300,  -0.00652,   0.05820,   0.01701,   0.02731,  -0.08007,  -0.01388,  -0.02564,   0.05673,  -0.05212,  -0.02270,   0.01995,  -0.09625,  -0.04624,   0.01701,  -0.00358,  -0.03006,   0.00672,   0.12145,   0.00230,   0.00378,  -0.08154,  -0.01829,  -0.01976,   0.00966,  -0.01388,  -0.06094,  -0.02711,  -0.01240,   0.07144,  -0.07124,   0.01407,  -0.03594,  -0.07271,   0.00230,  -0.08595,   0.05231,   0.00083,  -0.16979,  -0.02123,  -0.04035,   0.03319,   0.02584,   0.00672,  -0.01829,   0.01113,   0.01260,   0.02437,   0.05526,  -0.03594,  -0.00358,  -0.01240,   0.00378,   0.00083,   0.00230,  -0.00652,  -0.00652,   0.03761,   0.00672,   0.02290,   0.03466,  -0.03006,  -0.04918,   0.00083,   0.01554,  -0.03594,   0.05673,  -0.03741,   0.08026,   0.01848,  -0.03153,   0.00230,  -0.01682,  -0.04624,  -0.07860,   0.00230,  -0.03594,  -0.06242,   0.01701,   0.00525,   0.01113,   0.00378,  -0.03006,   0.00672,  -0.05653,  -0.00211,   0.03613,  -0.00505,   0.00525,  -0.03741,  -0.02564,  -0.00358,   0.06849,   0.04202,  -0.01388,   0.08026,  -0.08007,  -0.04476,  -0.01093,  -0.05947,  -0.00064,  -0.00064,  -0.03300,   0.01113,   0.02584,  -0.05653,   0.02290,  -0.00799,   0.02290,  -0.07712,   0.08909,   0.04643,  -0.02564,   0.00378,   0.00819,   0.02584,  -0.02564,   0.02731,   0.07732,  -0.03447,  -0.00211,  -0.02270,  -0.00799,   0.01554,  -0.00064,   0.00378,  -0.01682,   0.14498,  -0.01535,   0.03761,  -0.00652,   0.06555,   0.06408,   0.00378,  -0.06389,  -0.00211,   0.09203,   0.02731,   0.03761,   0.03908,  -0.03300,   0.01995,  -0.00652,   0.06555,  -0.00211,  -0.00946,  -0.01976,   0.00378,  -0.08448,  -0.03153,  -0.03447,  -0.02564,   0.01113,  -0.00064,  -0.07124,  -0.06389,  -0.06536,  -0.01535,  -0.05947,  -0.01093,   0.06997,  -0.01388,   0.00378,  -0.01535,  -0.09183,  -0.06830,  -0.02417,   0.05084,   0.03908,  -0.07860,  -0.00358,   0.03613,  -0.10360,  -0.00358,   0.00672,   0.00230,   0.01260,  -0.01682,  -0.00211,  -0.00358,  -0.05947,   0.05820,  -0.05947,   0.03172,   0.08026,  -0.08595,   0.00083,  -0.00211,   0.06555,   0.01260,   0.01554,   0.02143,  -0.00211,   0.05379,   0.03613,   0.02584,  -0.01093,   0.02143,  -0.01682,  -0.10066,   0.00525,  -0.01388,  -0.01388,  -0.01388,  -0.03741,   0.03908,   0.00083,  -0.01976,   0.00230,   0.04937,  -0.01976,   0.06261,   0.03319,  -0.00505,   0.01701,   0.00378,   0.00230,  -0.00946,  -0.00799,   0.01701,   0.00966,   0.08173,  -0.01535,  -0.03300,  -0.00946,   0.01995,  -0.04182,  -0.01535,  -0.05506,  -0.00505,   0.00083,  -0.04035,   0.01260,  -0.04329,  -0.00652,  -0.05359,  -0.02417,   0.04202,  -0.04182,  -0.05212,   0.00378,  -0.03153,   0.03466,  -0.02417,  -0.02270,  -0.04035,  -0.05212,  -0.03300,   0.01995,   0.00819,   0.03613,   0.03319,   0.03025,   0.06261,   0.10674,   0.00966,  -0.10801,   0.06114,   0.01554,   0.08320,  -0.00211,   0.02878,  -0.00946,   0.02731,   0.06114,  -0.04329,   0.04202,  -0.00799,  -0.04329,  -0.01240,   0.01113,   0.01995,   0.02290,  -0.02564,  -0.00211,  -0.01829,   0.00230,   0.03025,   0.00230,   0.04643,  -0.02858,   0.00819,  -0.01682,   0.01554,  -0.00211,   0.07585,  -0.07124,   0.04643,  -0.03888,   0.01113,  -0.03300,   0.03319,   0.02878,  -0.00652,   0.03761,  -0.01240,   0.00819,   0.06261,  -0.03594,  -0.03888,   0.02731,   0.05673,   0.01554,   0.06702,  -0.05506,  -0.01388,  -0.03153,  -0.00358,  -0.00799,   0.03761,  -0.01682,  -0.00358,   0.03466,   0.00083,  -0.01682,   0.04202,   0.04643,   0.03908,  -0.04329,   0.04055,   0.00083,  -0.03153,  -0.01240,   0.01554,  -0.00211,   0.00083,  -0.00505,  -0.05359,  -0.00505,   0.01701,   0.08467,   0.00819,   0.03908,  -0.01976,  -0.00211,  -0.06536,   0.02437,  -0.03447,  -0.02711,   0.01260,  -0.07565,   0.01260,  -0.01535,  -0.00064,   0.02878,  -0.07271,  -0.04182,   0.02731,   0.03172,  -0.01535,   0.00672,   0.01554,  -0.04918,   0.00230,   0.04496,   0.04496,   0.01407,  -0.01240,   0.07144,  -0.00652,  -0.00505,  -0.02711,   0.01407,  -0.02270,   0.09497,   0.01848,   0.07291,   0.00525,  -0.01388,  -0.03300,  -0.01976,  -0.00652,  -0.00799,  -0.00064,  -0.03447,   0.00525,   0.05084,   0.04643,  -0.01093,  -0.01976,   0.00966,  -0.02123,  -0.03006,   0.07144,   0.00819,   0.01260,   0.03761,  -0.00505,   0.04937,   0.04349,   0.00378,   0.01260,  -0.03888,   0.01554,   0.03319,   0.06114,  -0.08007,   0.05673,  -0.03447,  -0.01829,   0.02437,   0.00819,  -0.00064,   0.00230,  -0.00505,  -0.01388,  -0.00358,  -0.03006,   0.04055,   0.05673,  -0.03741,  -0.05212,   0.02290,   0.02731,   0.02290,   0.03172,  -0.01535,   0.01701,   0.00672,  -0.07860,   0.05231,   0.00672,   0.00525,   0.04202,   0.02143,   0.04202,   0.03025,  -0.01682,  -0.02711,  -0.00211,  -0.02858,  -0.03741,  -0.00358,  -0.05359,  -0.02123,  -0.04182,   0.04055,  -0.02270,   0.02290,   0.05231,  -0.03447,   0.09791,  -0.04329,  -0.04182,   0.00378,  -0.00358,  -0.04182,   0.05967,  -0.00652,  -0.04476,   0.01995,   0.04055,  -0.00064,   0.01260,  -0.00358,   0.02731,  -0.10066,   0.08026,  -0.01976,   0.01113,  -0.00799,  -0.10948,  -0.00358,   0.01701,   0.01260,  -0.10360,  -0.01682,   0.02731,  -0.01682,   0.00230,  -0.01240,   0.02143,  -0.05065,  -0.04182,   0.00819,  -0.01535,  -0.07418,  -0.00211,   0.01407,  -0.07565,   0.00378,   0.00230,   0.00230,  -0.01535,   0.02731,   0.03761,  -0.02858,   0.00525,   0.00378,   0.02731,   0.00672,   0.01407,  -0.04329,   0.02143,  -0.04476,   0.02584,  -0.01388,   0.04790,  -0.13008,   0.04937,  -0.00799,   0.00525,  -0.00799,  -0.04771,   0.01701,  -0.01093,  -0.00946,   0.04790,  -0.05947,  -0.03594,   0.01995,   0.00525,   0.04496,   0.01260,  -0.03594,  -0.01535,   0.01260,  -0.01535,  -0.02417,  -0.00505,   0.01113,   0.04349,  -0.00358,  -0.03153,   0.03172,   0.01407,  -0.02270,   0.03908,   0.05231,   0.01848,   0.02878,  -0.03006,   0.00966,   0.00819,  -0.03153,  -0.01682,  -0.02417,  -0.03594,   0.00966,   0.02290,  -0.09183,  -0.04771,  -0.04771,   0.03613,  -0.03741,  -0.03741,  -0.03447,  -0.00211,  -0.03300,   0.01848,  -0.04329,   0.04790,  -0.02564,   0.03761,   0.08467,   0.00819,   0.08173,   0.01995,   0.01995,   0.05673,   0.05379,  -0.04476,   0.08173,  -0.02858,   0.01407,  -0.00211,   0.03908,   0.04202,  -0.03888,   0.00672,  -0.00358,   0.00083,   0.00525,   0.05084,  -0.03300,  -0.01240,  -0.01093,  -0.06094,  -0.02711,   0.02143,   0.03025,   0.05673,   0.01554,   0.01848,  -0.01240,   0.02143,  -0.08007,  -0.05065,   0.04790,   0.05673,  -0.00946,   0.04055,  -0.01829,   0.01995,   0.01113,   0.06408,  -0.04182,  -0.02564,   0.05231,   0.03319,  -0.04182,  -0.02564,  -0.07124,  -0.03888,  -0.01388,  -0.04035,  -0.01976,   0.00672,   0.04055,  -0.05506,  -0.02123,   0.03466,  -0.00652,  -0.02270,  -0.03153,   0.04937,  -0.00799,   0.00966,   0.07585,  -0.04771,  -0.03006,   0.03025,  -0.01240,  -0.07271,   0.01995,  -0.04329,  -0.05800,  -0.00505,  -0.03888,   0.09056,  -0.01240,  -0.03300,  -0.00799,   0.03172,  -0.01535,  -0.06977,  -0.02270,  -0.00064,   0.00230,   0.02731,   0.00672,  -0.00946,   0.04937,  -0.05947,  -0.03153,  -0.02417,   0.03761,   0.06849,  -0.00946,   0.02584,  -0.02123,   0.00083,  -0.03741,   0.03613,   0.04349,  -0.01976,  -0.03594,  -0.00211,   0.05526,   0.01260,   0.03172,   0.00083,   0.03172,  -0.01093,   0.06997,  -0.07712,   0.03025,  -0.07860,  -0.00505,   0.00819,  -0.03741,   0.00672,   0.03025,   0.07732,   0.01701,   0.01554,   0.07732,  -0.06536,   0.00525,   0.03908,   0.01995,   0.05231,  -0.01682,  -0.01829,  -0.03594,   0.02143,   0.00230,  -0.01240,  -0.03741,   0.01701,   0.01113,   0.01554,   0.06114,   0.01848,  -0.03447,  -0.00211,  -0.03741,  -0.07124,  -0.03594,   0.00525,   0.01407,   0.02290,   0.02290,  -0.00652,  -0.04035,   0.01260,  -0.00358,   0.06261,   0.02290,  -0.00064,   0.05820,   0.06997,  -0.05506,  -0.03153,  -0.00505,   0.01260,   0.07291,   0.02584,  -0.01093,   0.07879,   0.06261,   0.01407,   0.02731,  -0.00799,   0.04202,   0.02731,  -0.00505,   0.00672,   0.11850,   0.03613,   0.01260,   0.03613,  -0.05065,   0.11850,  -0.03888,  -0.03888,   0.00819,  -0.00505,   0.04349,   0.02290,  -0.08889,   0.00230,   0.06114,  -0.06683,  -0.00211,   0.06849,   0.02878,   0.03172,  -0.03006,  -0.03888,   0.03172,   0.00819,  -0.01535,   0.04202,  -0.00358,   0.00672,  -0.04035,  -0.03888,  -0.01093,   0.03172,   0.03025,   0.00525,   0.02143,  -0.03888,   0.00230,   0.04202,   0.00525,  -0.01535,   0.02437,  -0.04035,   0.07585,   0.02437,  -0.02123,   0.00525,  -0.02270,   0.00672,   0.00525,  -0.06536,   0.03466,  -0.03447,   0.03319,  -0.07418,   0.02143,  -0.02123,   0.00378,   0.04496,   0.01554,  -0.00652,   0.01848,   0.01701,  -0.03741,  -0.00064,   0.02290,   0.01407,   0.03466,   0.00819,   0.03466,  -0.01535,   0.03761,   0.06702,   0.05967,   0.05231,   0.00083,  -0.00211,  -0.01093,  -0.01240,  -0.04182,  -0.00211,  -0.02270,  -0.07124,  -0.02270,   0.02437,   0.00672,   0.04643,   0.02143,   0.01848,  -0.00064,   0.01554,   0.00966,   0.05379,   0.01407,   0.02437,   0.04937,  -0.04182,   0.00819,   0.00819,   0.02437,   0.01407,  -0.02270,  -0.03153,  -0.01240,  -0.00064,  -0.07565,   0.00966,   0.02731,   0.00525,  -0.03594,  -0.03006,  -0.00799,   0.04349,  -0.00505,  -0.05359,   0.01113,   0.06849
  -0.00064,  -0.03006,  -0.03447,  -0.06389,   0.04937,  -0.04035,  -0.09330,  -0.00358,   0.00230,  -0.01829,   0.03466,   0.06997,   0.04055,  -0.03594,   0.00819,   0.07438,   0.06408,   0.06261,   0.02878,   0.00525,  -0.07860,   0.04055,   0.00378,   0.00378,  -0.01829,   0.01995,  -0.00064,   0.01407,  -0.04476,  -0.02564,  -0.02417,  -0.06242,  -0.07565,  -0.00064,  -0.04771,   0.05967,   0.00083,   0.01113,  -0.00064,  -0.02417,  -0.02417,  -0.03741,  -0.00211,  -0.03006,  -0.05359,   0.04643,   0.00083,   0.01995,   0.02878,   0.05820,   0.05231,  -0.07860,  -0.00211,  -0.03447,  -0.04476,   0.03613,   0.00378,   0.01113,   0.07144,  -0.03447,   0.05967,   0.05820,  -0.06389,  -0.03888,   0.00083,   0.01701,   0.00966,  -0.06977,  -0.04035,   0.01260,   0.05231,  -0.04771,   0.05084,  -0.04771,   0.01848,   0.00378,  -0.10507,  -0.10507,  -0.00064,  -0.03300,   0.03761,  -0.01829,  -0.03006,   0.00083,  -0.02564,   0.02584,  -0.04918,  -0.09183,   0.02437,  -0.00799,  -0.00064,   0.02143,   0.00966,  -0.01682,   0.03761,  -0.06536,  -0.02270,   0.00083,   0.05526,  -0.08889,  -0.09772,   0.03466,  -0.04771,   0.01848,  -0.10948,   0.02143,   0.03319,  -0.05065,   0.03613,   0.07585,  -0.01682,  -0.04035,   0.01260,   0.08026,   0.04643,   0.00672,   0.00378,   0.03761,  -0.06536,  -0.03741,   0.00083,   0.03172,   0.01554,   0.05673,  -0.00064,   0.05084,  -0.05359,   0.00525,  -0.04476,  -0.05800,   0.00378,  -0.02858,  -0.02711,   0.01995,  -0.00358,   0.04349,  -0.04918,  -0.03594,   0.00230,  -0.04182,  -0.02417,   0.04643,  -0.03888,  -0.01093,   0.14204,  -0.02564,  -0.06242,  -0.01093,   0.04349,  -0.05065,  -0.03447,   0.05084,  -0.02858,  -0.00505,   0.03613,   0.01848,   0.01407,  -0.01976,   0.01848,   0.03466,  -0.03888,   0.00819,   0.01407,   0.08320,  -0.03300,   0.03319,  -0.02417,  -0.09919,   0.02878,   0.02584,  -0.05506,  -0.01976,  -0.04476,   0.04496,  -0.04182,  -0.03447,  -0.06094,   0.03172,   0.03466,   0.00966,  -0.02858,  -0.03300,  -0.02417,  -0.04771,   0.02731,  -0.03888,   0.05673,  -0.00064,  -0.03741,  -0.01240,  -0.03888,  -0.07565,  -0.00946,  -0.00358,   0.03613,  -0.01093,  -0.08301,   0.00525,  -0.02711,  -0.02417,  -0.02123,   0.05967,  -0.03006,   0.00083,  -0.00652,  -0.03594,   0.03466,   0.05084,  -0.03300,   0.02731,  -0.00505,  -0.02123,   0.00525,  -0.02564,   0.03319,  -0.10066,   0.03761,  -0.05653,   0.09203,  -0.07124,  -0.04624,  -0.02711,   0.05820,  -0.00946,   0.04055,   0.01848,   0.07879,  -0.08448,   0.03319,  -0.08448,  -0.01388,  -0.02417,   0.02878,  -0.08007,   0.00378,   0.03025,   0.02731,  -0.02123,  -0.03006,  -0.02711,  -0.04476,   0.04790,   0.05967,   0.04790,  -0.05947,  -0.00358,   0.01995,  -0.03447,  -0.02711,   0.04790,   0.04055,   0.06408,  -0.05947,  -0.01829,  -0.05800,  -0.02270,   0.07144,  -0.01240,   0.00525,  -0.01829,  -0.04182,  -0.04476,   0.01554,  -0.06389,   0.01701,  -0.03447,  -0.04035,   0.04643,   0.02143,  -0.00211,  -0.04476,   0.07144,   0.00819,   0.03613,  -0.00211,   0.05084,  -0.04624,   0.02584,  -0.00505,  -0.05506,  -0.02270,  -0.01829,   0.05231,   0.01113,   0.03025,  -0.07860,   0.00230,  -0.05212,   0.00083,  -0.02417,   0.06849,  -0.02417,   0.06702,   0.01554,   0.01407,  -0.05653,   0.02143,   0.05379,  -0.01829,   0.07291,   0.01554,   0.03908,   0.02878,   0.03908,  -0.00211,   0.04055,  -0.03447,  -0.00505,  -0.03741,  -0.07418,  -0.02564,  -0.00064,   0.00378,   0.00966,   0.02878,   0.03319,  -0.01388,  -0.05065,  -0.08154,  -0.04329,   0.02584,  -0.00358,  -0.06683,   0.00525,  -0.05506,   0.04202,  -0.01240,  -0.03447,   0.02731,  -0.00652,   0.04790,  -0.01093,   0.00230,  -0.03447,   0.00819,  -0.02123,  -0.00946,  -0.00358,   0.02878,  -0.05653,   0.01113,   0.04202,   0.03025,  -0.00946,  -0.03153,  -0.01682,   0.04937,   0.01848,  -0.01682,   0.02584,   0.04202,   0.00819,  -0.01535,   0.00230,   0.03613,   0.04055,   0.04349,   0.03761,  -0.01240,  -0.05800,  -0.04476,  -0.04771,   0.01260,   0.01113,  -0.01829,  -0.05212,   0.03466,   0.04202,   0.00525,   0.06849,   0.01995,  -0.08742,   0.04202,  -0.00652,   0.08320,   0.00672,  -0.06830,  -0.04918,  -0.03300,  -0.03006,   0.01701,  -0.03741,   0.07291,  -0.02123,   0.00672,  -0.02858,   0.03172,  -0.09919,   0.07438,   0.01260,   0.02143,  -0.02123,   0.02731,   0.00083,  -0.00211,   0.07732,   0.05820,   0.01701,   0.00966,  -0.02417,   0.00672,   0.04055,  -0.01829,   0.02584,   0.09644,  -0.12125,   0.00230,  -0.03300,   0.00966,  -0.07860,  -0.00652,   0.03613,   0.00378,   0.05084,  -0.00358,  -0.00652,  -0.12566,   0.00083,   0.01260,  -0.04035,  -0.00505,   0.03025,  -0.01976,   0.00966,  -0.01388,  -0.03447,  -0.04329,   0.00672,   0.01260,   0.03025,   0.05673,   0.00819,  -0.05212,  -0.01829,  -0.01240,   0.01260,  -0.05065,  -0.00211,  -0.00799,   0.02584,   0.01407,   0.01848,   0.01995,  -0.04329,  -0.04035,  -0.04624,   0.05526,  -0.00064,   0.03466,  -0.07860,  -0.00652,   0.03466,   0.01554,  -0.02711,   0.00083,  -0.06242,   0.01848,  -0.00946,   0.10085,  -0.00211,   0.05526,   0.01848,   0.02143,   0.00378,  -0.00505,  -0.06830,   0.01848,   0.03319,   0.00819,   0.04202,   0.01701,  -0.07124,  -0.02270,   0.06408,   0.04937,   0.04790,   0.01554,   0.01554,  -0.03594,  -0.04771,  -0.05653,   0.08026,  -0.02123,  -0.00505,   0.03172,  -0.04329,  -0.03153,   0.01407,   0.00672,   0.00378,   0.03172,   0.02143,   0.04790,   0.03172,   0.00378,  -0.05065,   0.01113,   0.04349,   0.01113,   0.00378,  -0.01682,  -0.04035,   0.01407,   0.06114,  -0.07712,  -0.01829,  -0.03153,  -0.06536,  -0.00652,   0.01701,  -0.02711,   0.03172,   0.03613,   0.00525,  -0.00505,   0.01701,   0.00230,   0.01995,  -0.01240,   0.02731,  -0.01682,  -0.02858,   0.13910,   0.04790,  -0.04182,  -0.03594,  -0.00946,   0.06702,   0.02584,   0.05084,   0.00819,   0.03319,   0.00525,   0.02731,  -0.04624,  -0.00946,  -0.05947,   0.00966,   0.02731,   0.09056,  -0.08889,   0.01848,  -0.02564,   0.02290,  -0.08007,  -0.01388,  -0.06389,   0.04202,  -0.03594,   0.03613,   0.08026,  -0.00505,   0.04202,   0.00230,  -0.00946,  -0.04476,   0.00378,   0.07438,   0.03172,   0.03025,  -0.02858,   0.06849,  -0.04182,  -0.00064,  -0.05359,  -0.01535,  -0.07565,  -0.05065,   0.00083,  -0.00799,  -0.01388,   0.00083,   0.05673,  -0.02417,   0.01260,  -0.03741,   0.03025,  -0.04035,  -0.02564,  -0.02123,   0.09791,  -0.03153,  -0.03594,  -0.03006,   0.01848,   0.02290,   0.02731,  -0.01388,  -0.07271,  -0.03594,  -0.02270,  -0.00505,  -0.00799,  -0.02711,   0.02437,  -0.05653,   0.10085,  -0.00358,   0.00966,   0.00230,   0.01260,   0.01407,   0.00819,  -0.04476,  -0.03447,  -0.03447,  -0.05359,  -0.05065,   0.02437,   0.04202,   0.03319,   0.04790,   0.03613,  -0.02858,   0.08909,   0.01407,  -0.00358,  -0.03300,  -0.01093,  -0.00799,  -0.00652,  -0.06094,  -0.05359,   0.04055,   0.00083,  -0.00652,   0.01260,   0.02143,   0.09203,   0.09938,  -0.00799,  -0.00505,  -0.04329,  -0.07565,   0.02143,  -0.01829,  -0.04624,   0.07438,  -0.10213,  -0.06977,  -0.00946,   0.03319,  -0.00358,   0.00378,  -0.01535,  -0.02711,  -0.05065,   0.00378,  -0.02417,   0.03761,  -0.06536,  -0.05506,   0.04055,   0.02143,  -0.00064,   0.01848,   0.06408,  -0.04624,  -0.00211,  -0.06094,  -0.04624,  -0.05653,   0.03761,  -0.00946,  -0.04182,   0.08173,   0.03466,  -0.04182,   0.07585,   0.02731,   0.00819,  -0.02711,   0.02290,   0.02143,  -0.02564,  -0.02564,  -0.06094,  -0.04329,  -0.03888,  -0.00064,   0.03908,   0.06849,  -0.06389,  -0.00946,   0.03319,   0.02731,   0.04496,   0.03466,  -0.02711,   0.07438,  -0.07565,  -0.06094,  -0.00064,   0.00672,  -0.00799,   0.02437,   0.00083,   0.02731,  -0.00652,   0.06261,   0.06849,  -0.04035,  -0.00946,   0.02878,  -0.02270,   0.03761,  -0.00358,  -0.04182,  -0.02564,  -0.01388,   0.00230,   0.04937,   0.06114,  -0.04035,   0.07732,  -0.00211,  -0.01240,   0.00230,  -0.07271,   0.02437,   0.02878,  -0.02564,  -0.01535,  -0.04771,  -0.03888,  -0.03888,  -0.04329,  -0.09183,  -0.00211,   0.04349,  -0.01682,  -0.04918,   0.00819,  -0.01829,  -0.00358,   0.01554,  -0.07712,   0.01407,  -0.01829,  -0.04771,   0.01554,  -0.00505,  -0.05359,  -0.03741,  -0.01976,  -0.04329,  -0.01093,  -0.02858,   0.04055,   0.04202,   0.01701,   0.06408,   0.05673,  -0.00652,  -0.02858,  -0.04624,   0.00230,   0.01701,   0.02290,   0.02584,  -0.00358,   0.00230,  -0.03153,  -0.01682,   0.08762,  -0.07271,   0.03908,  -0.04624,   0.00672,  -0.02417,  -0.03741,  -0.02858,  -0.01976,  -0.09036,   0.01995,  -0.01535,  -0.05212,  -0.07271,  -0.08448,   0.01407,  -0.01240,   0.03613,  -0.13155,  -0.07712,  -0.02711,  -0.02270,  -0.09919,   0.05820,  -0.01535,  -0.01240,  -0.01093,   0.04202,   0.02731,   0.03025,   0.07585,  -0.00505,   0.00672,   0.06408,   0.03319,  -0.05947,   0.00819,   0.02878,  -0.02123,  -0.08889,   0.07732,  -0.03594,  -0.02417,   0.06997,   0.06849,  -0.00505,  -0.02858,   0.03319,   0.03466,  -0.02123,  -0.03006,  -0.02711,  -0.03888,  -0.03300,   0.00378,   0.11556,  -0.06094,   0.11409,   0.02584,   0.03319,  -0.04771,   0.01554,   0.03319,  -0.01682,  -0.02270,   0.03025,  -0.07712,  -0.00652,   0.00966,  -0.05359,  -0.02270,  -0.05065,   0.04496,   0.04496,   0.04349,   0.00525,   0.00525,  -0.08448,   0.02731,  -0.00064,   0.01701,  -0.00505,   0.03172,   0.01113,   0.00966,  -0.01976,  -0.09478,  -0.06830,  -0.05506,   0.08026,  -0.04771,  -0.06977,  -0.00358,  -0.00211,  -0.01682,  -0.03447,  -0.05065,  -0.00799,  -0.03741,   0.02290,  -0.02270,  -0.02711,   0.05379,  -0.01682,  -0.05212,   0.02878,  -0.01240,  -0.04035,   0.03172,   0.06261,  -0.01535,   0.01995,  -0.00946,   0.01260,  -0.01240,   0.07438,  -0.01093,  -0.00652,   0.03172,  -0.03153,  -0.03300,  -0.01682,   0.15528,   0.02290,   0.01260,   0.03025,  -0.02564,  -0.09625,   0.04349,   0.04937,   0.03172,  -0.01829,  -0.02123,   0.00672,  -0.06830,   0.00819,  -0.00211,  -0.08007,   0.06408,  -0.04035,  -0.00652,  -0.06094,   0.03908,  -0.03153,  -0.03741,  -0.04771,  -0.01682,  -0.01388,  -0.03006,  -0.03300,  -0.02417,   0.04496,  -0.06536,  -0.03006,   0.08909,   0.08909,   0.00672,  -0.01388,   0.00966,  -0.03006,  -0.01682,  -0.07712,   0.02290,   0.05820,   0.06849,  -0.05359,   0.00819,  -0.00799,  -0.00946,   0.03613,  -0.03006,  -0.01535,  -0.01535,   0.03908,   0.01113,  -0.11831,  -0.00799,  -0.05065,   0.07585,  -0.05359,   0.02437,   0.02290,   0.04496,   0.06261,   0.01260,  -0.00946,   0.07144,  -0.04329,   0.04937,  -0.00505,   0.05820,   0.02143,   0.02584,  -0.06094,  -0.02564,  -0.03594,  -0.03594,  -0.06683,  -0.00211,  -0.01240,   0.00083,   0.03025,   0.05967,   0.01554,  -0.02564,   0.04643,  -0.01388,   0.04937,   0.01260,  -0.05212,  -0.01240,   0.04790,  -0.03153,   0.02290,   0.01848,  -0.02270,   0.04349,  -0.10360,  -0.03153,  -0.04771,   0.02290,   0.01113,  -0.01682,  -0.05065,  -0.01535,  -0.02711,  -0.04771,   0.01260,   0.01113,   0.06555,  -0.00505,   0.00378,   0.04055,   0.05231,  -0.05653,   0.02584,  -0.00652,  -0.04624,  -0.02417,  -0.01535,  -0.04035,   0.05820,  -0.01093,  -0.07124,  -0.07124,   0.04349,   0.02731,  -0.04182,   0.00525,  -0.07860,  -0.01388,  -0.01535,  -0.04329,  -0.05359,   0.02731,  -0.01388,  -0.03594,  -0.02858,   0.06408,  -0.03006
  -0.05653,  -0.03594,   0.06555,  -0.02270,  -0.00946,   0.02437,  -0.02270,  -0.07860,  -0.02711,   0.08467,  -0.01829,  -0.01240,   0.00966,  -0.00064,   0.07732,   0.01260,  -0.02417,  -0.04624,   0.06555,  -0.01093,   0.00525,   0.05526,   0.02437,  -0.07124,   0.02731,   0.00378,  -0.03006,  -0.03006,   0.03172,   0.03613,   0.03172,   0.01554,   0.01260,   0.04055,  -0.06830,  -0.04035,   0.00819,  -0.01240,  -0.02858,  -0.04329,  -0.04771,  -0.07712,  -0.02858,  -0.05800,  -0.01829,   0.02584,  -0.07565,  -0.00211,  -0.06830,   0.02437,   0.03613,  -0.00505,   0.02437,   0.04349,  -0.00358,   0.00819,   0.03025,  -0.02123,   0.05820,  -0.00358,   0.05379,   0.05673,  -0.03300,   0.04790,   0.00672,  -0.02711,   0.02878,  -0.02564,  -0.07565,  -0.00064,  -0.04918,  -0.02270,   0.08467,  -0.02270,   0.01554,  -0.00946,  -0.04035,  -0.01829,   0.01407,  -0.00652,  -0.01240,   0.02878,  -0.06389,   0.01113,  -0.00505,  -0.00211,   0.03613,  -0.01976,  -0.03741,   0.00819,   0.03908,   0.00672,   0.02143,  -0.03888,   0.03319,  -0.06094,   0.05084,  -0.07860,   0.02731,   0.02437,  -0.02417,   0.03466,  -0.04329,   0.02143,   0.00966,   0.02290,  -0.00505,  -0.00505,   0.01995,  -0.01535,   0.01407,   0.04055,   0.01554,  -0.03447,  -0.00358,   0.03466,  -0.04918,  -0.02417,   0.03319,  -0.02270,  -0.00946,   0.00378,   0.03025,  -0.04329,  -0.00064,   0.02878,   0.00378,  -0.03741,  -0.04771,   0.01260,  -0.00211,   0.02143,  -0.06683,   0.01113,  -0.02270,   0.05967,  -0.02123,  -0.00358,  -0.00211,  -0.05653,  -0.01535,  -0.00064,  -0.01829,  -0.02270,   0.01260,   0.00966,  -0.01388,   0.02290,  -0.00652,   0.01701,  -0.02417,   0.02437,   0.04349,   0.03319,  -0.06830,  -0.03153,  -0.03300,  -0.00652,  -0.04771,  -0.02417,   0.06114,  -0.04476,  -0.02858,   0.06261,  -0.00358,   0.03172,  -0.05065,  -0.03447,   0.03025,  -0.03594,  -0.04771,   0.01701,  -0.00358,   0.01554,  -0.01682,   0.03319,   0.06702,  -0.08301,   0.10527,  -0.01682,  -0.00799,   0.01995,   0.01554,   0.01260,  -0.04329,  -0.00358,   0.06261,  -0.03888,  -0.02858,  -0.00505,  -0.00505,   0.00378,  -0.00946,  -0.03447,  -0.04624,   0.00378,  -0.00358,   0.00525,  -0.05506,   0.00525,  -0.04918,  -0.03888,  -0.01240,   0.05967,   0.00378,  -0.01093,  -0.06536,  -0.03300,   0.09497,   0.01113,  -0.07860,  -0.03006,  -0.02564,   0.05673,   0.02878,   0.00819,   0.03613,  -0.03888,  -0.02858,  -0.01976,  -0.01093,  -0.02711,  -0.03594,   0.03908,  -0.02270,  -0.00211,  -0.00505,   0.01995,   0.01995,  -0.00652,  -0.03888,   0.03613,  -0.02417,  -0.02270,   0.03172,  -0.00505,  -0.07712,   0.02437,  -0.00799,  -0.01240,  -0.01976,  -0.03741,  -0.03300,  -0.00505,  -0.00946,   0.01113,  -0.01093,  -0.01976,   0.03319,   0.01848,   0.05673,   0.02437,  -0.00064,   0.05820,   0.00525,   0.01554,   0.05379,  -0.00505,  -0.02711,   0.01848,  -0.05359,   0.00378,   0.05967,   0.01995,  -0.06242,  -0.04624,  -0.01388,  -0.08742,  -0.02711,  -0.00358,   0.00819,   0.03908,   0.02878,   0.00378,  -0.01388,  -0.00358,  -0.00505,   0.10968,  -0.00211,  -0.00211,   0.00083,   0.06114,   0.03761,   0.00672,   0.00083,  -0.01388,   0.05231,   0.01554,   0.05820,  -0.02564,  -0.02564,   0.00819,  -0.00799,   0.05379,   0.07732,  -0.06389,   0.04937,  -0.03006,  -0.04476,   0.02878,   0.01113,   0.01407,  -0.02123,  -0.04035,   0.05084,  -0.03300,  -0.04918,  -0.02711,  -0.04035,   0.06997,  -0.01240,  -0.00652,  -0.00505,  -0.02123,  -0.01976,  -0.03741,  -0.01388,  -0.02270,   0.06997,  -0.04476,  -0.00505,   0.00819,  -0.03741,   0.01407,  -0.01388,  -0.02711,  -0.03741,   0.01260,   0.02878,  -0.04918,   0.00378,  -0.02858,   0.00083,   0.02437,  -0.02564,   0.02731,   0.00672,  -0.00799,   0.03025,   0.02143,   0.05526,   0.05820,  -0.02711,   0.08026,   0.02878,   0.01554,  -0.00505,  -0.03006,  -0.06536,  -0.05506,  -0.07124,  -0.00946,   0.04202,   0.00083,   0.00230,   0.02731,   0.02290,  -0.02711,  -0.03006,   0.00525,   0.01113,  -0.06683,  -0.02564,  -0.06830,   0.00525,   0.00525,   0.05526,   0.03172,   0.06408,   0.01113,   0.05084,  -0.04182,   0.03466,   0.04202,   0.00378,   0.03025,   0.08320,   0.01260,  -0.01535,  -0.01829,  -0.03153,   0.01995,  -0.00211,   0.02437,  -0.02564,  -0.01535,   0.01995,  -0.02270,  -0.00505,   0.06849,   0.00230,   0.04643,  -0.06094,   0.05231,  -0.03594,  -0.02564,   0.02290,   0.03613,  -0.00211,  -0.00358,  -0.03594,  -0.01829,  -0.05800,   0.04790,   0.02437,  -0.00652,   0.10821,   0.04790,  -0.01682,   0.02437,   0.00083,   0.00525,   0.00525,  -0.06683,  -0.03594,   0.05379,  -0.04624,   0.00083,   0.07438,  -0.02123,  -0.02564,   0.02731,   0.01848,   0.00672,  -0.11537,   0.05526,   0.03613,   0.01113,  -0.03006,  -0.00064,  -0.09036,   0.01995,   0.05379,  -0.05212,   0.06702,   0.03613,  -0.03447,   0.04790,  -0.05800,   0.00819,  -0.05065,  -0.01535,   0.08173,   0.07732,   0.00230,  -0.01535,  -0.03888,   0.05231,   0.05379,  -0.00946,   0.05526,   0.02143,   0.02584,   0.04790,   0.05084,  -0.02858,  -0.01829,   0.00230,  -0.06389,   0.05820,   0.00083,   0.00378,  -0.00946,  -0.04771,  -0.06094,  -0.05947,  -0.05653,   0.03319,   0.07144,   0.02290,  -0.04918,  -0.04329,  -0.01682,  -0.04182,  -0.02711,   0.05967,   0.06114,   0.02731,  -0.04035,   0.03613,   0.00378,   0.05820,  -0.00799,   0.01113,  -0.05359,  -0.04329,   0.04055,  -0.03006,  -0.04182,  -0.09625,   0.04790,  -0.06977,  -0.02711,  -0.05065,  -0.07860,  -0.03006,  -0.02417,   0.01113,  -0.04035,  -0.01093,   0.01554,  -0.01535,   0.01113,  -0.03300,   0.00083,   0.00083,  -0.04182,  -0.01535,   0.02584,  -0.01093,  -0.05359,  -0.02417,  -0.02123,  -0.08007,  -0.02123,   0.00819,  -0.01976,  -0.05212,   0.00966,  -0.01388,  -0.03006,  -0.00946,  -0.08595,  -0.02564,  -0.02123,   0.05673,   0.05084,   0.00672,   0.01995,  -0.04329,   0.03172,   0.01995,  -0.08154,   0.03466,  -0.01829,   0.02437,   0.01848,  -0.04035,  -0.02417,   0.03761,  -0.03447,  -0.01535,   0.00083,  -0.03006,   0.01995,   0.04643,   0.02584,   0.03172,   0.01554,   0.00525,   0.08615,  -0.03006,   0.08615,   0.02437,   0.05673,  -0.00358,   0.03025,   0.00819,  -0.04771,  -0.00358,   0.02878,  -0.00652,  -0.00064,   0.01995,  -0.00064,  -0.00358,  -0.01240,   0.01554,   0.02437,   0.00230,  -0.02123,   0.06114,   0.04496,  -0.02564,   0.07585,  -0.09772,  -0.03300,  -0.00358,   0.06555,   0.10085,  -0.00358,  -0.02564,   0.03172,  -0.04035,   0.03025,  -0.00064,  -0.00358,   0.02584,  -0.00505,   0.00525,  -0.03006,   0.00966,  -0.01093,  -0.00211,   0.00083,  -0.02123,   0.00230,  -0.02123,  -0.02564,  -0.00358,   0.00083,   0.04055,   0.04202,   0.06261,   0.00966,   0.02143,  -0.00505,  -0.04918,  -0.04329,  -0.02858,  -0.02711,   0.03025,  -0.04918,   0.00819,   0.06261,   0.01113,  -0.00211,   0.05526,  -0.00358,   0.05820,   0.03466,   0.07144,   0.00083,   0.03466,   0.00672,   0.04643,   0.08762,  -0.04918,  -0.00652,  -0.04035,   0.01701,  -0.06242,  -0.01388,  -0.01682,  -0.05359,  -0.06977,  -0.02270,   0.02731,   0.00525,   0.00378,   0.09350,  -0.01388,  -0.00652,   0.05379,   0.00083,   0.01995,   0.02437,   0.07879,   0.00378,   0.06261,   0.05231,   0.00230,  -0.01093,   0.02878,  -0.02123,   0.00230,  -0.06389,   0.04496,  -0.05653,   0.01995,   0.00819,  -0.03006,   0.01260,   0.03613,  -0.07712,   0.01260,  -0.00064,  -0.00505,  -0.07565,  -0.05653,  -0.00505,  -0.02711,  -0.05800,  -0.00358,  -0.01682,  -0.01388,   0.00378,   0.00378,   0.03025,   0.04937,  -0.06389,   0.01260,   0.03025,   0.00672,  -0.05359,  -0.01829,  -0.06094,  -0.00064,  -0.00211,  -0.00358,  -0.06389,  -0.00946,  -0.01388,  -0.02564,   0.01554,   0.01848,  -0.02270,   0.03908,   0.07144,  -0.07860,   0.00230,   0.00672,   0.00966,  -0.04329,   0.01407,  -0.01682,  -0.00358,   0.00525,   0.02290,  -0.04476,   0.06408,  -0.00358,  -0.04771,  -0.07271,   0.02878,  -0.00505,   0.01554,   0.07438,  -0.01535,  -0.01682,  -0.10213,  -0.00652,   0.00966,   0.00230,  -0.01240,   0.01113,   0.01407,  -0.06977,  -0.02711,   0.00083,  -0.01682,   0.02143,   0.00672,  -0.10507,   0.01113,  -0.04476,   0.02731,  -0.01535,   0.04496,  -0.06094,   0.01701,  -0.02711,   0.03613,   0.04349,   0.07879,  -0.07565,  -0.01388,   0.00672,  -0.01976,  -0.03447,   0.01113,  -0.03888,   0.04496,   0.03319,   0.00083,   0.02878,  -0.01535,  -0.05212,  -0.04182,   0.03025,  -0.00946,   0.03172,  -0.01976,   0.00525,  -0.03594,  -0.05800,  -0.03741,   0.00378,   0.01701,  -0.05947,   0.00525,   0.03466,   0.02437,  -0.00799,  -0.02858,   0.01113,   0.00378,   0.04055,   0.03025,  -0.02270,  -0.04771,  -0.08007,   0.08026,  -0.03300,  -0.05800,   0.03025,  -0.04182,  -0.03741,   0.03172,  -0.00799,  -0.01535,  -0.05947,   0.02290,  -0.01976,   0.03025,  -0.01388,   0.02143,   0.00525,  -0.05212,  -0.00799,  -0.03741,   0.00672,   0.05526,  -0.00064,   0.00819,   0.00083,   0.11262,   0.00525,   0.03025,   0.01848,  -0.07271,   0.04496,  -0.00505,   0.01995,   0.00672,  -0.04771,   0.02731,  -0.00358,   0.09350,  -0.03153,  -0.00652,  -0.00505,  -0.05506,   0.00819,  -0.05212,  -0.00505,   0.01848,   0.04055,   0.04496,   0.03761,   0.00819,   0.02584,  -0.00799,  -0.01240,  -0.04035,  -0.00799,   0.00378,  -0.02123,   0.00966,   0.01848,   0.00230,  -0.00799,   0.01407,   0.01113,  -0.02417,   0.04202,  -0.01093,   0.00966,  -0.03447,  -0.03594,  -0.00064,  -0.00211,   0.00966,  -0.01535,  -0.03594,   0.00525,  -0.02123,   0.02584,   0.02290,   0.03761,   0.00672,  -0.03594,  -0.04918,  -0.03447,  -0.05359,  -0.04182,  -0.01682,  -0.03447,   0.00230,  -0.03006,  -0.00064,  -0.05359,  -0.00358,  -0.06977,  -0.02270,  -0.01388,  -0.02564,   0.07585,  -0.02564,  -0.07418,  -0.03447,   0.02584,  -0.01388,   0.00672,   0.04643,   0.03172,   0.03025,   0.00672,   0.03025,  -0.01535,  -0.01093,   0.01113,  -0.06389,   0.02584,   0.03319,  -0.03594,   0.00378,   0.02290,  -0.00799,   0.07291,  -0.04035,   0.01113,   0.02437,  -0.05506,   0.04202,  -0.02858,  -0.06094,  -0.01535,   0.04349,  -0.02123,  -0.01976,  -0.02417,   0.00525,  -0.05947,   0.01407,   0.01701,  -0.03447,   0.01848,   0.01848,  -0.04182,  -0.01829,   0.01701,   0.00378,   0.08615,   0.01113,  -0.02711,   0.01848,   0.04643,  -0.04035,   0.01554,   0.02584,  -0.02417,  -0.03153,   0.05084,   0.09203,   0.07585,   0.01701,  -0.08007,  -0.00064,   0.05673,  -0.02711,   0.03466,   0.02584,  -0.00946,  -0.03153,   0.01260,   0.02878,   0.04790,   0.00672,  -0.04035,   0.04643,   0.00230,   0.01260,  -0.03006,  -0.00358,   0.01995,  -0.03006,   0.02731,   0.00230,  -0.04476,  -0.00505,  -0.01535,  -0.03153,   0.01701,   0.06261,  -0.00799,   0.03466,   0.03319,  -0.00358,   0.04496,  -0.01829,  -0.02123,  -0.04918,   0.05379,   0.00230,   0.00819,  -0.01093,   0.03466,   0.00525,   0.05526,   0.05820,   0.03172,  -0.00799,   0.00819,  -0.06683,   0.02584,   0.00083,   0.00378,  -0.02564,  -0.04329,   0.01995,   0.01113,  -0.00358,  -0.04329,  -0.02564,  -0.04476,  -0.01093,  -0.02417,   0.03319,  -0.06389,  -0.01976,  -0.01240,  -0.01682,   0.01701,   0.06997,  -0.04182,  -0.03888,   0.02290,  -0.01976,   0.00966,  -0.03300,   0.02143,   0.03172,  -0.01093,   0.00378,   0.03761,  -0.01829,  -0.02564,   0.03613,  -0.03006,  -0.04476,  -0.03447,  -0.01682,   0.00378
