  -0.20073,   0.16492,  -0.03888,   0.15293,  -0.00292,   0.13495,   0.09899,   0.17691,  -0.44649,   0.17691,   0.02106,  -0.10482,  -0.12280,   0.02106,   0.13495,  -0.03888,   0.05103,   0.00308,  -0.21271,   0.05103,   0.05103,   0.02106,  -0.03888,   0.33875,  -0.09283,   0.06302,   0.14694,   0.03305,   0.05103,   0.20688,  -0.18274,  -0.08084,   0.05703,  -0.21271,   0.06302,  -0.34459,  -0.02689,   0.11097,  -0.01490,   0.38671,  -0.04488,   0.19489,   0.08100,   0.09299,   0.02106,  -0.17675,  -0.07485,  -0.03888,  -0.00891,  -0.17675,   0.35674,  -0.34459,  -0.17075,  -0.32061,  -0.32660,   0.00907,  -0.01490,   0.30279,  -0.03888,  -0.02090,   0.21288,  -0.08084,   0.36273,  -0.02090
  -0.05686,   0.10498,  -0.14078,  -0.08683,  -0.20073,  -0.14078,   0.02706,   0.17092,   0.02106,  -0.05686,   0.27282,  -0.00891,  -0.08683,   0.11697,  -0.13479,  -0.32660,  -0.11081,   0.09299,  -0.20672,   0.31478,   0.06901,  -0.02090,  -0.35058,  -0.10482,   0.20089,  -0.02090,   0.39870,   0.12296,  -0.32660,   0.09899,  -0.39853,   0.02706,  -0.26666,  -0.17675,  -0.10482,  -0.08084,   0.14694,   0.20089,  -0.00292,  -0.12280,  -0.41052,  -0.12280,  -0.33260,  -0.33260,  -0.17075,   0.02706,   0.18890,   0.16492,  -0.24868,  -0.19473,  -0.21871,   0.27282,   0.08100,   0.18290,   0.06302,  -0.09283,  -0.17075,   0.07501,  -0.09882,   0.17092,  -0.00292,   0.06901,  -0.18274,  -0.14078
   0.09899,   0.32077,   0.12896,   0.07501,   0.33276,  -0.02090,  -0.18874,   0.00907,   0.05703,  -0.14078,   0.18290,  -0.02689,   0.04504,   0.01507,   0.24884,   0.08700,  -0.09882,  -0.12879,   0.06901,   0.20688,   0.09899,  -0.20073,   0.17092,   0.01507,   0.21288,   0.14095,  -0.20073,  -0.32660,  -0.04488,  -0.16476,  -0.48245,   0.10498,   0.05103,  -0.11081,  -0.01490,   0.12896,   0.14095,   0.28481,  -0.12879,  -0.20672,   0.06302,  -0.10482,   0.00308,  -0.03888,   0.00308,   0.02106,  -0.08084,   0.16492,   0.00308,  -0.02090,  -0.08084,   0.04504,  -0.26666,  -0.27266,  -0.16476,  -0.19473,  -0.18274,   0.22486,  -0.10482,   0.21288,  -0.09283,   0.16492,  -0.23070,  -0.21271
   0.29080,   0.00308,  -0.02689,  -0.74620,  -0.15277,  -0.06286,  -0.12280,  -0.01490,   0.08700,  -0.18274,   0.25484,  -0.00292,  -0.02689,   0.32077,  -0.17075,  -0.04488,   0.07501,  -0.38655,   0.03305,   0.11097,  -0.03289,   0.15293,  -0.31462,  -0.07485,  -0.12879,   0.23685,   0.27282,  -0.19473,  -0.04488,  -0.06286,  -0.16476,  -0.02689,  -0.03289,  -0.15277,   0.13495,   0.19489,   0.06901,  -0.01490,  -0.06885,   0.20089,  -0.03289,   0.20688,  -0.02689,  -0.10482,  -0.17675,   0.00907,  -0.05087,  -0.07485,  -0.18874,   0.00308,   0.08100,   0.33875,  -0.12280,  -0.26067,   0.11697,   0.02706,  -0.10482,   0.11697,  -0.23669,  -0.09283,   0.00907,  -0.10482,  -0.04488,   0.02106
  -0.06286,   0.30878,  -0.15277,   0.03904,  -0.19473,  -0.12280,   0.05703,   0.04504,   0.02106,   0.11097,  -0.06286,   0.01507,  -0.00292,  -0.16476,  -0.06885,  -0.29064,  -0.05686,   0.02706,  -0.23669,   0.12296,  -0.18274,  -0.02689,  -0.08683,   0.16492,  -0.07485,  -0.39853,   0.04504,   0.27881,  -0.01490,   0.12896,  -0.05686,   0.08100,  -0.17675,  -0.23669,  -0.06286,  -0.18874,   0.03904,   0.08100,  -0.19473,  -0.09882,  -0.15877,  -0.38055,   0.31478,  -0.12280,   0.14694,   0.11697,  -0.35058,   0.08100,  -0.24868,  -0.13479,   0.11697,  -0.27266,   0.44665,   0.00308,   0.18290,  -0.10482,  -0.21271,  -0.24268,  -0.12879,   0.08700,  -0.09882,   0.07501,  -0.11081,   0.11097
   0.21288,   0.14095,   0.24285,  -0.11681,   0.13495,  -0.17075,  -0.05686,   0.05103,  -0.06885,  -0.05686,   0.00907,   0.02706,   0.33276,   0.14694,   0.03305,  -0.18874,  -0.06286,   0.03904,   0.21288,  -0.01490,  -0.21271,  -0.11681,  -0.03289,  -0.14078,   0.13495,  -0.00292,  -0.16476,  -0.22470,  -0.27266,  -0.02689,   0.04504,   0.26682,   0.04504,   0.04504,   0.05103,  -0.05087,  -0.05087,  -0.31462,  -0.09283,   0.05703,  -0.04488,  -0.18874,   0.03305,   0.18290,  -0.06286,   0.01507,   0.30878,  -0.05087,   0.01507,   0.05703,   0.10498,   0.21288,  -0.00292,  -0.02090,   0.01507,  -0.17675,   0.15293,  -0.05087,  -0.12280,   0.06302,   0.21288,  -0.09283,   0.09899,   0.35674
  -0.15877,   0.06901,  -0.05686,  -0.31462,  -0.08683,   0.00308,  -0.00292,  -0.04488,  -0.17075,  -0.00292,  -0.11081,  -0.05087,   0.02106,   0.09299,   0.12296,  -0.00292,   0.11697,  -0.00292,   0.15293,  -0.08084,   0.05703,  -0.26067,  -0.09283,  -0.08084,  -0.07485,  -0.17675,  -0.05686,   0.35074,  -0.12280,  -0.37456,  -0.18874,  -0.09283,  -0.33859,  -0.01490,   0.03904,  -0.07485,  -0.16476,  -0.11081,  -0.03289,  -0.28464,   0.00907,  -0.03289,   0.07501,   0.11097,   0.05103,  -0.38655,   0.11697,   0.35674,  -0.23070,   0.09299,   0.23086,  -0.30263,  -0.10482,   0.00907,  -0.03289,  -0.03289,  -0.02090,  -0.06885,   0.18290,   0.00907,   0.17092,  -0.26067,   0.02706,  -0.07485
   0.04504,  -0.35657,  -0.21271,   0.17092,  -0.18274,  -0.11681,  -0.15877,  -0.08084,   0.12896,   0.38071,   0.02106,  -0.04488,   0.03904,  -0.12280,  -0.07485,   0.30878,   0.09299,   0.01507,   0.06901,  -0.37456,   0.44066,   0.02106,   0.03305,   0.08100,  -0.11681,  -0.24268,  -0.03289,   0.12896,   0.17691,   0.11097,   0.11097,  -0.21271,  -0.29663,   0.35674,  -0.38655,  -0.12879,   0.16492,   0.13495,   0.06302,  -0.26666,  -0.16476,   0.09299,   0.41069,   0.11097,  -0.20073,  -0.22470,   0.07501,  -0.07485,  -0.12879,  -0.12280,   0.17691,   0.00308,  -0.32660,  -0.11081,  -0.26666,  -0.07485,  -0.02090,   0.37472,  -0.42251,   0.02106,   0.55455,  -0.06885,   0.02106,   0.08700
  -0.14078,  -0.42851,  -0.01490,  -0.09283,   0.06302,  -0.01490,   0.02106,   0.18890,  -0.00292,  -0.10482,   0.15293,   0.21887,   0.33276,  -0.01490,  -0.08084,   0.03904,   0.02106,   0.28481,  -0.16476,  -0.10482,  -0.58435,  -0.03888,  -0.15277,   0.11097,   0.17691,   0.12296,   0.00308,  -0.03289,   0.17092,  -0.32660,   0.33875,  -0.17075,  -0.06286,   0.11697,   0.03305,   0.03904,  -0.30862,  -0.21871,   0.55455,   0.17691,   0.01507,   0.09299,  -0.41652,   0.12896,   0.02106,  -0.12879,   0.14095,  -0.33859,   0.12296,   0.22486,  -0.17675,  -0.33260,   0.05703,   0.00907,  -0.03888,   0.05103,  -0.19473,   0.12296,  -0.16476,  -0.31462,   0.06901,  -0.19473,  -0.27865,   0.02106
   0.17092,  -0.10482,   0.17691,  -0.08683,   0.20089,  -0.12879,  -0.07485,   0.10498,   0.00308,  -0.01490,   0.29680,  -0.06286,  -0.12280,   0.04504,  -0.02090,  -0.03888,  -0.09882,  -0.20073,   0.25484,   0.24884,   0.14095,  -0.25467,  -0.26067,   0.31478,  -0.09882,  -0.24268,   0.01507,  -0.33859,  -0.29663,   0.04504,  -0.07485,   0.14095,   0.02706,  -0.33260,   0.20089,  -0.11081,   0.11697,   0.15893,   0.02706,  -0.44049,  -0.06286,   0.10498,   0.00907,  -0.18274,  -0.08683,   0.13495,  -0.15277,   0.00308,   0.00308,  -0.40453,   0.01507,  -0.04488,  -0.13479,   0.05703,  -0.02689,   0.09899,  -0.11681,  -0.12879,   0.09299,   0.01507,  -0.08683,   0.38071,   0.24285,   0.00308
  -0.08084,   0.12296,   0.15293,  -0.11681,   0.21887,   0.14095,  -0.05686,   0.01507,   0.21887,  -0.02090,  -0.19473,  -0.09283,   0.08700,   0.09299,  -0.02090,  -0.15877,   0.17691,   0.17092,   0.03904,   0.12896,  -0.13479,   0.04504,   0.03904,   0.11097,  -0.03888,   0.09899,   0.31478,  -0.13479,  -0.02689,  -0.03289,  -0.17675,   0.19489,  -0.35058,  -0.05087,   0.10498,   0.09299,   0.18290,   0.20688,  -0.05686,  -0.10482,  -0.10482,   0.05703,   0.27881,   0.09899,  -0.11681,   0.18290,   0.17691,  -0.14678,   0.23086,   0.11697,   0.13495,   0.11697,   0.15893,  -0.05087,   0.03904,   0.01507,   0.26083,   0.14095,   0.09299,  -0.11081,  -0.06286,   0.13495,  -0.44049,   0.11697
   0.17691,   0.37472,   0.03904,   0.18890,   0.13495,  -0.27865,  -0.03289,  -0.08084,  -0.03888,  -0.12879,  -0.15277,  -0.10482,   0.21288,   0.18890,  -0.06885,   0.33276,   0.15293,  -0.19473,   0.12896,  -0.26666,  -0.00891,   0.09299,   0.08100,  -0.00292,   0.14694,  -0.18274,   0.11097,   0.12896,   0.11697,  -0.15877,   0.12296,  -0.08683,   0.14095,  -0.12879,  -0.24868,  -0.03888,  -0.11681,  -0.29663,   0.19489,   0.03305,  -0.17675,   0.23086,  -0.11681,  -0.28464,   0.12296,  -0.01490,  -0.05686,   0.19489,  -0.09882,   0.15893,   0.05703,  -0.03888,  -0.00292,   0.14694,   0.27282,   0.20089,   0.27881,   0.02706,   0.01507,  -0.30263,  -0.21271,   0.09299,   0.05703,  -0.04488
  -0.02090,   0.02706,   0.17092,  -0.17075,   0.38671,  -0.01490,   0.05103,   0.24285,  -0.21871,   0.29680,  -0.21871,  -0.23669,  -0.14678,   0.04504,  -0.11681,   0.05703,   0.01507,   0.00308,   0.02106,   0.01507,   0.02706,   0.24285,  -0.14678,   0.12896,  -0.09882,  -0.02090,   0.22486,  -0.23070,  -0.04488,  -0.24268,   0.05703,  -0.15277,   0.20089,   0.15893,  -0.12280,   0.13495,   0.02106,   0.03305,   0.09299,  -0.10482,   0.05103,   0.01507,   0.13495,  -0.06286,  -0.20672,   0.03305,  -0.03289,  -0.02090,  -0.09882,  -0.01490,  -0.10482,   0.10498,  -0.25467,  -0.12280,   0.21288,  -0.03289,   0.04504,   0.03305,  -0.04488,  -0.23070,  -0.00891,  -0.38655,  -0.00292,   0.21288
  -0.15277,  -0.38055,  -0.21271,   0.11097,  -0.32660,   0.13495,  -0.04488,  -0.29064,   0.09299,  -0.03289,   0.13495,   0.00907,  -0.01490,   0.16492,   0.09899,   0.01507,  -0.12879,  -0.12879,   0.06302,  -0.00292,  -0.08683,   0.26682,  -0.00292,   0.04504,   0.09899,  -0.15277,   0.28481,   0.08700,  -0.08683,   0.03305,  -0.14678,   0.07501,  -0.14078,   0.01507,   0.12896,   0.08100,  -0.13479,  -0.08084,   0.15293,  -0.17675,   0.00907,  -0.02090,  -0.02090,   0.00308,  -0.17675,   0.05103,  -0.20073,   0.09299,  -0.07485,   0.19489,  -0.15877,  -0.02090,   0.01507,   0.08100,   0.04504,   0.14694,   0.06901,   0.05703,   0.23086,  -0.06286,   0.04504,   0.14694,  -0.10482,   0.02106
  -0.07485,   0.09899,  -0.06885,   0.18890,   0.15893,   0.18890,   0.01507,  -0.00292,  -0.28464,   0.01507,   0.09299,  -0.00891,   0.14095,  -0.35058,  -0.00891,  -0.17075,  -0.19473,   0.01507,  -0.04488,  -0.12280,   0.20688,   0.06901,  -0.19473,   0.16492,  -0.06286,  -0.40453,  -0.00891,  -0.19473,   0.29680,   0.15293,   0.03305,  -0.06885,  -0.34459,   0.07501,  -0.07485,  -0.08683,   0.14095,   0.14694,  -0.08084,  -0.06885,  -0.33859,   0.03305,   0.00308,  -0.15877,   0.28481,   0.12896,  -0.26067,   0.24285,  -0.01490,  -0.03289,   0.10498,  -0.00891,   0.05103,  -0.06885,   0.00907,   0.04504,   0.15893,  -0.47046,   0.05703,  -0.24868,  -0.06286,   0.22486,  -0.15877,  -0.13479
   0.01507,   0.20688,   0.08100,   0.20089,   0.04504,  -0.15277,   0.20089,  -0.00891,   0.15293,   0.30878,  -0.07485,  -0.02090,   0.12296,   0.06901,  -0.08084,  -0.00292,   0.13495,  -0.08084,   0.07501,  -0.13479,   0.27282,  -0.17675,   0.12296,  -0.22470,   0.00907,  -0.08683,   0.06302,  -0.05686,  -0.08084,   0.15893,   0.07501,   0.23685,   0.09299,   0.18890,   0.16492,  -0.13479,   0.17092,   0.15293,  -0.17675,  -0.04488,  -0.06286,  -0.16476,  -0.15277,   0.17092,  -0.17675,   0.02706,  -0.12280,   0.00308,  -0.13479,  -0.15877,  -0.23669,  -0.08683,   0.12296,   0.49460,  -0.04488,  -0.41052,  -0.15277,   0.00308,   0.05103,  -0.24868,   0.08100,  -0.03289,  -0.23669,  -0.03888
   0.09299,   0.18290,  -0.04488,  -0.04488,  -0.05686,  -0.26666,  -0.02689,   0.06901,  -0.00292,   0.00308,   0.00308,   0.07501,   0.02706,   0.07501,  -0.02689,   0.09899,  -0.03289,   0.12896,   0.19489,  -0.17075,  -0.30263,   0.15293,  -0.10482,   0.20688,  -0.26067,  -0.08683,  -0.09882,   0.15893,  -0.18874,  -0.21271,  -0.02689,   0.03904,   0.16492,  -0.00891,  -0.21271,   0.27282,   0.02706,  -0.02090,   0.02106,   0.12896,   0.04504,   0.09299,   0.14694,   0.11097,  -0.03888,  -0.05686,  -0.08683,  -0.13479,  -0.06885,   0.05703,   0.06901,  -0.17675,  -0.21871,  -0.08084,  -0.02689,   0.21288,   0.11697,   0.16492,  -0.01490,  -0.05087,   0.27282,   0.15293,   0.06302,   0.18290
   0.05703,  -0.04488,  -0.27865,   0.03904,   0.15293,  -0.13479,  -0.02090,   0.00907,  -0.03289,  -0.09882,  -0.09882,  -0.16476,  -0.44049,  -0.12879,  -0.59035,   0.03904,   0.07501,   0.00308,   0.12296,  -0.03289,   0.11097,  -0.11681,  -0.02090,   0.09299,   0.12296,   0.21887,  -0.11081,   0.12296,  -0.00292,  -0.54240,   0.03305,   0.02106,   0.09899,  -0.05686,   0.18290,   0.00907,  -0.04488,  -0.32061,   0.06901,   0.03305,  -0.01490,  -0.38655,  -0.18274,   0.19489,   0.21887,  -0.08683,   0.20688,   0.10498,  -0.12879,  -0.00292,   0.03305,   0.04504,   0.06302,   0.17691,   0.09899,  -0.38655,  -0.14678,  -0.15277,   0.00907,  -0.86608,  -0.11681,   0.24285,  -0.53640,   0.05703
  -0.17675,   0.11097,   0.14095,  -0.02090,   0.00308,   0.00308,   0.09299,   0.12296,   0.01507,  -0.08683,   0.18890,  -0.01490,   0.27881,  -0.20073,  -0.07485,   0.00907,  -0.00891,  -0.17675,   0.01507,  -0.34459,   0.03305,  -0.12879,  -0.23070,  -0.02689,   0.20688,  -0.09283,   0.13495,   0.26682,   0.02106,  -0.20073,  -0.02090,   0.38071,   0.16492,  -0.00891,   0.09299,   0.17092,   0.05703,  -0.16476,  -0.11681,  -0.24868,  -0.18274,  -0.07485,   0.24285,   0.21288,   0.10498,   0.02706,   0.12896,  -0.12879,   0.15893,   0.45264,  -0.24268,  -0.02689,  -0.02689,  -0.18274,   0.21288,  -0.27266,  -0.20073,  -0.29663,  -0.27865,   0.05103,   0.11697,   0.03305,  -0.06286,   0.25484
   0.21887,   0.23086,   0.13495,   0.09299,   0.16492,  -0.15877,  -0.04488,  -0.05686,   0.04504,   0.14095,  -0.20073,   0.09899,   0.14694,  -0.02090,  -0.15877,  -0.28464,  -0.16476,  -0.26067,   0.00907,   0.16492,  -0.02689,   0.05103,  -0.20073,  -0.24868,   0.17691,   0.18890,  -0.11681,  -0.06286,   0.02706,  -0.00891,  -0.09882,   0.20089,   0.06901,   0.25484,   0.01507,   0.02106,   0.12296,   0.05703,  -0.16476,  -0.08084,  -0.02090,   0.02106,   0.03305,  -0.13479,   0.08100,   0.32677,   0.34475,   0.31478,  -0.20073,  -0.09283,  -0.24868,  -0.02090,  -0.01490,   0.06302,   0.12296,   0.03305,  -0.26666,  -0.04488,   0.33875,  -0.16476,   0.16492,  -0.05087,  -0.28464,   0.06901
   0.21288,  -0.02689,   0.32677,   0.25484,  -0.10482,   0.15893,  -0.14678,  -0.03888,   0.39870,  -0.11081,  -0.06885,  -0.15277,   0.20688,  -0.29663,   0.09899,   0.26083,   0.00308,   0.00907,   0.03904,  -0.21271,  -0.24268,   0.00907,   0.02106,   0.00308,   0.20688,   0.10498,   0.06302,  -0.21271,   0.03904,   0.20688,   0.04504,  -0.04488,  -0.00891,  -0.02689,   0.22486,   0.12896,   0.11097,   0.24884,  -0.01490,   0.15893,   0.08700,   0.21887,  -0.06885,   0.24884,   0.04504,   0.24884,  -0.23669,   0.17092,  -0.09882,  -0.01490,   0.00308,  -0.25467,  -0.14078,  -0.20672,  -0.20073,  -0.00891,  -0.15277,   0.18890,  -0.48845,  -0.12879,  -0.11681,   0.08700,  -0.17075,   0.13495
   0.10498,  -0.20073,  -0.31462,   0.06302,   0.18290,  -0.33859,  -0.12879,  -0.37456,   0.05703,  -0.11081,  -0.35058,   0.09299,   0.02106,  -0.03289,   0.15893,   0.05103,   0.30279,  -0.29064,   0.05703,  -0.12879,  -0.23669,  -0.04488,   0.19489,  -0.18874,  -0.09882,   0.06302,  -0.12280,   0.00308,   0.04504,  -0.18274,  -0.02689,  -0.22470,  -0.19473,  -0.27865,  -0.20672,   0.24285,   0.04504,  -0.23070,  -0.23070,   0.16492,  -0.11081,   0.18290,  -0.26067,  -0.12280,   0.12296,   0.43466,   0.11097,  -0.06286,  -0.07485,   0.15293,   0.09899,  -0.11681,  -0.12280,  -0.03289,  -0.30862,  -0.08084,   0.13495,   0.27881,  -0.06885,   0.00907,   0.14694,  -0.02090,  -0.01490,  -0.02090
  -0.10482,   0.05103,  -0.11681,   0.21887,   0.09899,  -0.14678,   0.03904,  -0.29064,  -0.11081,   0.12296,   0.12296,   0.14095,   0.36273,  -0.06286,  -0.04488,   0.24884,   0.12296,   0.05103,   0.21288,   0.32077,   0.27881,   0.18890,   0.06901,   0.32077,  -0.15277,   0.08100,  -0.20672,   0.06302,   0.07501,  -0.20672,   0.05103,   0.14095,  -0.16476,  -0.29064,   0.01507,   0.16492,   0.08100,   0.05103,   0.29680,  -0.08683,   0.05103,  -0.11081,  -0.21271,  -0.26067,   0.12296,   0.00308,  -0.05087,  -0.00292,  -0.31462,  -0.20672,  -0.00292,  -0.23669,  -0.27865,  -0.13479,  -0.18874,   0.27881,   0.27881,   0.00308,  -0.05686,  -0.00292,  -0.06885,   0.09299,  -0.14678,  -0.01490
  -0.23669,   0.14694,   0.03305,  -0.26067,  -0.09283,   0.29680,   0.12296,  -0.06286,  -0.12879,  -0.05686,  -0.21271,   0.00907,  -0.11681,  -0.36856,   0.14694,  -0.03888,   0.10498,   0.24285,  -0.12879,   0.01507,  -0.09882,   0.09299,  -0.19473,  -0.07485,   0.20089,  -0.06286,   0.11097,   0.16492,   0.06901,  -0.32660,   0.08100,  -0.00891,  -0.02689,  -0.16476,  -0.11681,   0.12296,  -0.14678,  -0.11081,  -0.14678,   0.21887,   0.09899,   0.07501,  -0.18874,   0.01507,   0.02706,   0.18290,  -0.18874,  -0.08084,   0.21288,   0.10498,   0.29080,   0.27282,   0.04504,  -0.08084,  -0.00891,  -0.18274,  -0.06286,  -0.11681,  -0.43450,  -0.00292,   0.17092,  -0.16476,  -0.05087,   0.09899
   0.05103,  -0.29663,  -0.06286,  -0.10482,   0.22486,   0.00907,   0.15293,  -0.17075,  -0.28464,  -0.27266,  -0.07485,  -0.05087,   0.19489,  -0.05087,   0.00907,   0.23086,  -0.02090,   0.12896,  -0.05087,   0.16492,   0.23086,   0.05103,   0.16492,   0.14694,  -0.05087,   0.07501,   0.03904,  -0.27865,  -0.08084,   0.04504,  -0.05686,  -0.23669,   0.36873,   0.15293,   0.03305,  -0.29064,   0.07501,  -0.15277,   0.36873,  -0.05087,   0.11097,  -0.03289,   0.49460,   0.12896,   0.07501,  -0.05087,   0.08700,  -0.03888,  -0.06286,  -0.00292,   0.26682,   0.17691,   0.06302,   0.09899,  -0.08683,  -0.17075,   0.03904,   0.03904,   0.04504,   0.20089,   0.12296,   0.11697,   0.05103,   0.02106
   0.01507,   0.21887,   0.23685,  -0.02689,   0.04504,  -0.06286,   0.36273,  -0.05087,   0.03904,   0.15293,   0.03904,  -0.03888,   0.16492,   0.02706,   0.21887,  -0.19473,   0.03305,  -0.09283,  -0.08683,   0.05703,   0.12296,  -0.14078,   0.09899,   0.12896,   0.32077,   0.00907,   0.45864,  -0.05087,   0.08700,   0.10498,  -0.08084,   0.17691,   0.08700,  -0.12280,   0.20688,   0.09899,   0.20688,  -0.17675,  -0.23669,   0.05703,  -0.17075,  -0.16476,  -0.06885,   0.17691,  -0.11681,   0.06302,   0.15893,   0.22486,  -0.03888,   0.03305,  -0.08683,   0.02706,  -0.02689,   0.18290,   0.10498,   0.04504,  -0.31462,  -0.06885,  -0.02689,   0.09299,   0.14095,  -0.14078,  -0.24268,  -0.18274
   0.18890,  -0.10482,   0.12896,   0.02706,  -0.02090,   0.13495,  -0.39254,  -0.04488,   0.00907,   0.22486,   0.06302,  -0.18874,   0.17691,   0.08700,   0.09899,   0.04504,  -0.06286,  -0.17075,  -0.29663,  -0.02090,   0.04504,   0.32077,  -0.30862,   0.26083,   0.20688,   0.08700,  -0.05686,  -0.13479,  -0.29064,   0.02706,   0.16492,   0.15893,  -0.06286,  -0.27865,  -0.09283,   0.17691,  -0.20672,   0.17691,   0.24285,  -0.32061,  -0.14078,   0.17691,   0.07501,  -0.26067,  -0.21871,  -0.02090,   0.05703,  -0.02689,   0.02106,  -0.14678,   0.13495,   0.12296,  -0.24868,  -0.15277,   0.00907,  -0.01490,   0.04504,   0.08700,   0.33276,   0.10498,   0.05103,  -0.17075,  -0.17075,  -0.31462
   0.25484,  -0.34459,   0.11697,   0.18890,   0.17691,  -0.22470,   0.32077,   0.09899,  -0.16476,   0.02106,  -0.20073,  -0.04488,  -0.00891,   0.29080,  -0.17075,  -0.01490,   0.17691,  -0.10482,  -0.09283,   0.09899,   0.00907,  -0.06885,   0.26682,   0.08100,  -0.02689,  -0.02090,   0.17092,   0.11097,   0.15293,   0.06901,  -0.03888,  -0.32061,   0.07501,   0.08100,  -0.15277,   0.02106,   0.27282,   0.26682,   0.21887,  -0.15877,  -0.37456,   0.04504,  -0.00891,  -0.00891,  -0.01490,  -0.00292,   0.09899,   0.16492,  -0.03888,  -0.04488,   0.03904,  -0.08683,   0.01507,  -0.04488,   0.30279,   0.21887,   0.06901,   0.33875,  -0.07485,  -0.14078,   0.10498,  -0.00891,   0.05703,   0.12296
  -0.30862,   0.24884,   0.03904,   0.32077,   0.20688,  -0.07485,  -0.24268,   0.37472,  -0.22470,  -0.25467,  -0.03888,   0.14095,   0.14694,   0.18890,  -0.21271,  -0.21871,   0.09899,  -0.07485,  -0.59634,  -0.27266,  -0.06286,  -0.03289,  -0.15277,   0.03904,   0.05703,   0.10498,   0.17691,  -0.00292,  -0.17675,   0.02706,   0.09899,   0.18890,   0.12296,  -0.17675,   0.10498,  -0.31462,   0.14095,   0.12896,  -0.12280,   0.25484,  -0.11081,  -0.27266,  -0.10482,   0.03305,   0.05703,  -0.05686,   0.31478,   0.00907,  -0.05686,   0.01507,   0.11097,  -0.16476,  -0.04488,   0.20688,  -0.02689,   0.08700,  -0.11681,  -0.11681,  -0.08084,   0.06901,  -0.03289,  -0.06885,  -0.39853,  -0.08683
  -0.06885,   0.07501,   0.17691,   0.06302,   0.14694,   0.05103,   0.02106,   0.18890,  -0.17075,  -0.24868,  -0.21871,  -0.24868,  -0.11681,   0.23086,   0.00907,  -0.05087,  -0.27266,  -0.05686,   0.05703,   0.09899,  -0.03888,   0.06901,  -0.32061,   0.32077,  -0.00292,  -0.04488,  -0.00891,  -0.15277,   0.29680,   0.07501,  -0.23669,  -0.26666,  -0.03888,  -0.27266,   0.26083,  -0.11681,   0.27881,   0.02706,   0.05103,   0.03904,   0.06302,  -0.21871,  -0.13479,   0.10498,  -0.20073,  -0.28464,   0.13495,  -0.14078,   0.09899,  -0.08084,   0.12896,  -0.46447,  -0.25467,   0.06901,  -0.14078,   0.05703,  -0.15277,  -0.44649,   0.03904,  -0.06286,   0.00907,   0.02106,   0.24285,  -0.09882
   0.13495,   0.03305,   0.09299,   0.04504,   0.26682,  -0.05686,   0.07501,   0.12296,  -0.08683,   0.07501,  -0.12879,   0.15293,   0.10498,  -0.00292,   0.25484,   0.12896,  -0.03289,  -0.05087,   0.20089,  -0.06885,  -0.12280,   0.08100,   0.16492,   0.08700,   0.15293,   0.12296,   0.18290,   0.05103,   0.02706,  -0.08084,   0.03305,   0.01507,  -0.02689,  -0.02689,   0.12296,   0.03305,  -0.04488,  -0.02689,   0.12296,   0.06901,   0.17691,   0.20688,   0.28481,   0.03305,   0.23685,   0.25484,  -0.15277,  -0.06885,  -0.05087,  -0.23669,   0.24285,  -0.08084,  -0.06885,  -0.02090,   0.11097,  -0.24868,  -0.03888,   0.45264,   0.03305,   0.07501,  -0.08683,  -0.05087,   0.25484,   0.05703
  -0.09882,   0.00907,   0.12296,   0.11097,   0.06901,   0.08100,   0.14694,  -0.41052,  -0.08683,   0.01507,   0.07501,  -0.08084,   0.02706,   0.00907,   0.10498,  -0.14678,  -0.14078,  -0.10482,  -0.12879,   0.08700,   0.06302,   0.25484,  -0.08683,   0.29680,  -0.23669,  -0.11681,   0.24884,  -0.09283,   0.02106,   0.35674,  -0.06885,  -0.00292,  -0.06885,   0.12896,  -0.13479,   0.10498,  -0.01490,  -0.06286,   0.05103,  -0.14078,  -0.21271,  -0.00891,  -0.03289,   0.06901,   0.16492,  -0.12280,   0.21887,   0.02106,   0.03305,  -0.14678,   0.05103,  -0.10482,  -0.02090,  -0.11681,   0.09299,  -0.14678,   0.06901,  -0.02689,  -0.08683,   0.07501,   0.19489,  -0.04488,  -0.28464,   0.05703
  -0.00891,   0.08700,   0.27282,  -0.07485,  -0.01490,  -0.11081,   0.11697,   0.11697,  -0.16476,   0.08700,  -0.13479,   0.01507,  -0.11081,   0.05703,  -0.13479,  -0.28464,   0.03305,   0.12896,  -0.05686,  -0.29064,  -0.09882,  -0.19473,  -0.15877,   0.11697,   0.22486,   0.43466,   0.06302,  -0.30862,   0.01507,  -0.22470,   0.31478,   0.21288,   0.10498,   0.17092,   0.09299,  -0.23070,   0.24884,  -0.16476,   0.24285,   0.20089,   0.20688,  -0.02090,  -0.29064,   0.08100,   0.15293,   0.00907,  -0.24868,  -0.07485,  -0.12879,  -0.41652,   0.01507,  -0.21271,  -0.32660,   0.15293,  -0.18874,  -0.50643,  -0.16476,   0.26682,   0.28481,   0.21288,  -0.16476,  -0.12280,  -0.54839,   0.33875
   0.51259,   0.17092,  -0.00292,   0.30878,  -0.18274,  -0.19473,   0.08100,   0.39870,   0.27881,  -0.01490,   0.12296,  -0.06885,   0.23685,   0.33875,   0.11097,   0.15293,  -0.07485,  -0.04488,   0.35074,  -0.44649,  -0.11681,  -0.12879,   0.04504,   0.03305,   0.03305,  -0.00891,  -0.05087,   0.17691,  -0.05686,   0.15293,  -0.18274,   0.06302,  -0.10482,   0.44066,   0.02706,  -0.09283,   0.02706,   0.26083,   0.24884,  -0.24268,   0.23685,  -0.02090,  -0.18874,  -0.00891,   0.05703,   0.03305,  -0.26067,   0.06302,  -0.09882,   0.21288,   0.04504,  -0.03289,   0.16492,   0.03904,   0.04504,   0.14694,   0.12296,   0.39870,   0.15893,   0.02106,  -0.08683,   0.09899,   0.32677,   0.26682
  -0.01490,   0.02106,  -0.30862,  -0.46447,   0.14694,   0.17092,   0.09299,   0.20688,   0.22486,   0.07501,  -0.27865,  -0.27865,   0.04504,  -0.04488,   0.32677,  -0.21271,   0.33276,   0.03305,   0.04504,  -0.10482,   0.06901,   0.02106,   0.02706,   0.09899,   0.02106,  -0.04488,   0.12296,   0.07501,   0.30279,  -0.00292,   0.21887,  -0.27865,  -0.12879,   0.23086,  -0.02689,   0.12296,  -0.13479,  -0.00891,  -0.10482,  -0.04488,   0.00308,   0.06302,  -0.06286,  -0.19473,  -0.33260,   0.17691,  -0.01490,  -0.11081,  -0.05686,  -0.29064,  -0.18874,  -0.05686,   0.02106,  -0.28464,   0.15293,   0.18290,  -0.15277,  -0.20073,  -0.13479,  -0.06286,  -0.02090,  -0.26666,  -0.18874,   0.15893
   0.00308,  -0.04488,  -0.06885,  -0.12879,   0.27282,  -0.20672,   0.03904,   0.35074,   0.03305,   0.23685,   0.02706,  -0.11681,  -0.16476,   0.09899,   0.02706,  -0.08084,  -0.03289,  -0.08683,  -0.14078,   0.00907,  -0.09283,  -0.06885,  -0.07485,  -0.00292,  -0.20073,  -0.44049,   0.01507,  -0.15277,  -0.18274,  -0.00891,  -0.12280,   0.16492,   0.02106,   0.09299,   0.06901,   0.11097,   0.18890,   0.24285,   0.16492,   0.22486,  -0.06885,  -0.11681,   0.06901,  -0.09882,  -0.40453,  -0.27865,   0.22486,   0.18890,  -0.00292,  -0.16476,  -0.31462,  -0.14678,  -0.35058,   0.06302,   0.06302,   0.21288,  -0.03888,  -0.09882,   0.05103,   0.00308,   0.18290,   0.24285,  -0.12280,   0.24884
  -0.21871,   0.02706,  -0.21871,   0.12896,   0.39870,  -0.14678,  -0.14078,   0.04504,  -0.08683,   0.12896,  -0.05686,  -0.35058,  -0.10482,  -0.01490,   0.34475,   0.02706,   0.08700,  -0.00292,  -0.23669,  -0.21271,   0.00907,   0.18290,  -0.14078,  -0.03888,   0.06901,  -0.15877,  -0.03888,   0.09299,  -0.05087,  -0.08084,  -0.41652,   0.12896,   0.10498,   0.13495,   0.21887,  -0.13479,   0.03305,  -0.24868,  -0.30263,   0.18290,   0.00907,   0.27282,  -0.33260,   0.33875,   0.05103,   0.04504,   0.13495,  -0.11681,   0.03904,   0.21288,   0.38071,  -0.00891,   0.20688,  -0.28464,   0.19489,  -0.15277,   0.08100,  -0.02689,   0.21288,  -0.01490,  -0.26666,  -0.12879,  -0.09283,   0.12896
  -0.06286,  -0.10482,   0.14694,  -0.21871,   0.17691,  -0.31462,   0.09299,  -0.08084,   0.06302,  -0.06286,  -0.03289,  -0.41652,   0.06302,   0.24884,  -0.03289,   0.18890,  -0.05686,  -0.03888,   0.12296,  -0.02689,   0.21887,  -0.07485,   0.11697,  -0.05686,   0.29080,  -0.00891,  -0.13479,  -0.27266,   0.12896,   0.11697,   0.05703,   0.08100,   0.27881,   0.35074,   0.20688,  -0.27865,  -0.00292,  -0.14078,   0.08100,  -0.26067,   0.02106,  -0.00292,  -0.35657,   0.21887,  -0.08084,   0.09899,   0.14694,   0.13495,   0.07501,   0.46463,   0.09899,  -0.13479,   0.10498,   0.39270,  -0.06885,   0.09299,   0.36873,  -0.13479,   0.15293,  -0.27266,   0.23685,   0.26682,  -0.23070,  -0.08683
   0.09899,   0.03904,  -0.47046,   0.24884,   0.13495,  -0.10482,  -0.08683,  -0.18274,  -0.02090,   0.03305,   0.20688,   0.20688,   0.03904,  -0.05686,  -0.13479,   0.08700,  -0.03888,  -0.17675,  -0.20672,  -0.36856,  -0.19473,  -0.23669,  -0.00292,   0.09299,  -0.19473,  -0.36856,   0.15293,   0.06302,   0.03305,  -0.08683,  -0.19473,   0.42867,   0.15293,   0.08700,  -0.02090,  -0.02689,   0.11097,  -0.17075,   0.18290,  -0.09283,  -0.21271,   0.03305,   0.04504,   0.27881,   0.16492,   0.27881,   0.05103,   0.12896,  -0.09882,  -0.06286,  -0.07485,  -0.04488,   0.10498,  -0.24268,   0.00308,   0.07501,   0.17691,   0.00308,  -0.05686,   0.00308,   0.11697,   0.22486,  -0.24268,   0.09899
  -0.05087,   0.02106,   0.05703,  -0.22470,  -0.08683,  -0.20073,  -0.07485,   0.12296,  -0.00891,   0.24285,  -0.04488,   0.23685,   0.11097,  -0.07485,  -0.27266,   0.16492,   0.17092,   0.11097,   0.00308,   0.12896,  -0.09882,  -0.00891,   0.09299,   0.15893,  -0.08683,  -0.06885,  -0.09283,   0.15293,  -0.03888,   0.30878,  -0.22470,  -0.21271,  -0.08084,   0.09299,  -0.06885,  -0.04488,   0.26682,   0.00308,   0.27881,  -0.21871,  -0.08084,   0.08700,   0.01507,   0.15893,  -0.05686,   0.01507,  -0.20672,   0.00907,  -0.35657,  -0.03888,   0.06901,  -0.14078,  -0.00891,   0.00308,  -0.10482,   0.07501,  -0.01490,   0.05103,  -0.10482,  -0.14678,  -0.10482,  -0.02090,  -0.04488,   0.12896
  -0.03888,  -0.27865,  -0.24868,   0.23086,   0.17691,  -0.12879,  -0.03888,   0.01507,   0.21288,   0.02706,   0.02106,  -0.11081,  -0.28464,  -0.14678,   0.05103,  -0.03289,   0.02106,  -0.03289,   0.24884,   0.29080,   0.14694,  -0.08084,  -0.29663,   0.51858,  -0.25467,   0.09899,   0.07501,  -0.20073,   0.11697,   0.07501,   0.30878,   0.10498,  -0.03888,  -0.11681,   0.17691,  -0.09283,   0.07501,   0.06901,  -0.00292,  -0.11081,   0.04504,   0.00907,   0.12296,   0.13495,   0.09899,  -0.17075,  -0.02090,  -0.02090,   0.03305,  -0.20073,   0.00907,  -0.06286,  -0.08084,  -0.20073,   0.12296,  -0.03888,  -0.09882,  -0.12879,   0.23086,   0.05103,   0.30878,   0.06302,  -0.01490,   0.05703
   0.28481,  -0.15277,   0.04504,   0.01507,   0.11697,  -0.20672,   0.07501,  -0.12879,  -0.08683,   0.00308,   0.17691,  -0.33260,   0.06901,  -0.11081,   0.35074,  -0.01490,   0.20688,  -0.21871,  -0.09283,  -0.12280,  -0.21871,  -0.05686,   0.09899,   0.32077,  -0.24268,  -0.05087,   0.13495,  -0.15877,  -0.00292,  -0.18274,   0.15893,   0.09899,   0.06302,  -0.04488,  -0.09882,   0.30279,   0.26083,   0.21887,  -0.14678,  -0.06885,  -0.12280,   0.12896,   0.02706,   0.29080,   0.20089,   0.39270,  -0.05686,  -0.02090,  -0.14078,   0.05703,  -0.04488,  -0.05087,   0.03904,   0.02706,  -0.17075,   0.14694,   0.27881,  -0.00891,   0.02706,  -0.16476,   0.08700,  -0.08084,  -0.05686,   0.10498
   0.09299,  -0.02689,  -0.53640,   0.09299,   0.15293,  -0.24868,   0.09899,   0.19489,  -0.14078,   0.05703,  -0.02689,   0.06901,   0.11097,   0.05103,  -0.00292,   0.00907,   0.39270,  -0.20672,   0.27881,   0.09899,   0.08100,   0.12296,  -0.09283,   0.09899,  -0.08084,  -0.00292,  -0.26666,  -0.03888,   0.00308,   0.08100,   0.03305,  -0.01490,  -0.14678,  -0.05087,  -0.13479,   0.08100,   0.05703,   0.04504,   0.06302,  -0.05686,  -0.20073,  -0.08683,   0.07501,   0.23685,   0.00907,  -0.00292,   0.05703,   0.06302,  -0.14078,  -0.36257,   0.03305,  -0.08084,  -0.01490,  -0.13479,  -0.10482,  -0.03289,   0.00907,   0.29080,  -0.02090,   0.23685,  -0.03289,  -0.14678,   0.19489,   0.24884
   0.19489,   0.03305,   0.06302,   0.18890,   0.23685,   0.02706,  -0.14678,   0.19489,  -0.22470,   0.11697,  -0.05087,   0.05103,  -0.09882,  -0.55438,   0.33276,  -0.18874,  -0.18274,   0.00308,  -0.11081,   0.06901,   0.26682,   0.11697,   0.13495,  -0.03888,  -0.17075,   0.01507,  -0.11081,  -0.28464,  -0.04488,  -0.13479,   0.06302,  -0.05087,   0.02106,   0.02106,   0.12896,  -0.30263,   0.04504,   0.11097,   0.11697,  -0.29663,  -0.02689,  -0.07485,   0.11697,   0.25484,   0.02706,  -0.06286,  -0.13479,   0.14694,   0.06302,  -0.36257,   0.13495,   0.15893,  -0.05686,   0.51858,  -0.23669,  -0.19473,   0.03305,   0.02106,  -0.18874,  -0.16476,   0.00907,   0.18290,  -0.09283,   0.20688
   0.12896,  -0.11081,  -0.33260,  -0.05686,  -0.14678,  -0.23669,  -0.06885,  -0.27865,  -0.17675,   0.06901,   0.15893,  -0.24868,  -0.03289,   0.06901,  -0.28464,  -0.12280,  -0.20672,   0.02706,   0.08700,   0.14694,   0.30878,  -0.38655,   0.29680,  -0.15277,   0.22486,  -0.00891,  -0.34459,   0.29080,  -0.02689,  -0.65629,  -0.12280,   0.26083,  -0.30263,   0.14095,  -0.30862,  -0.59634,   0.19489,   0.11097,   0.06901,  -0.06885,  -0.11081,  -0.30263,   0.58452,  -0.08084,   0.08100,  -0.17075,  -0.12280,   0.19489,   0.12296,   0.11697,  -0.18874,  -0.46447,  -0.08084,   0.20089,  -0.35058,   0.32677,  -0.29064,   0.12896,  -0.18274,  -0.65629,  -0.03289,  -0.11681,  -0.09882,   0.08100
   0.30279,   0.42867,  -0.11681,  -0.20073,   0.15293,   0.05703,   0.24884,   0.10498,   0.11697,  -0.33859,   0.04504,   0.06302,   0.29080,  -0.10482,   0.15893,   0.41668,  -0.21271,  -0.22470,  -0.01490,   0.00907,   0.10498,  -0.39853,   0.02106,  -0.06885,  -0.06286,   0.08100,  -0.23070,  -0.27266,  -0.00292,   0.21887,   0.43466,   0.26083,   0.07501,   0.06901,   0.02106,   0.00907,   0.11697,  -0.10482,   0.13495,  -0.14678,  -0.02689,   0.33875,  -0.21271,  -0.27266,  -0.24268,   0.12896,  -0.11081,   0.46463,   0.12896,   0.31478,  -0.08084,   0.05103,  -0.13479,   0.01507,   0.08100,   0.33875,   0.26083,   0.25484,   0.05703,   0.06901,  -0.05087,  -0.05686,   0.20688,   0.00308
  -0.06885,  -0.23669,  -0.26067,  -0.26067,   0.14694,   0.00907,  -0.12280,   0.48262,  -0.09283,   0.00308,   0.20688,  -0.27865,  -0.23070,   0.36273,   0.13495,  -0.08084,  -0.01490,  -0.18274,  -0.12879,   0.12296,  -0.12879,   0.06901,   0.09899,   0.20089,  -0.18274,  -0.25467,   0.19489,   0.09299,  -0.16476,   0.37472,   0.01507,  -0.14678,   0.51259,   0.12896,  -0.38655,  -0.29064,   0.08100,   0.20089,   0.11097,  -0.05087,  -0.20672,  -0.49444,  -0.15877,   0.07501,  -0.55438,   0.20089,  -0.12879,   0.06302,  -0.35058,   0.17691,   0.24285,   0.02706,   0.15893,  -0.19473,   0.22486,   0.05703,   0.25484,  -0.06286,   0.06302,   0.00907,   0.22486,   0.17691,  -0.00891,   0.06901
   0.19489,   0.01507,   0.06901,  -0.02090,   0.12296,   0.15293,   0.23086,  -0.29064,   0.06901,  -0.09283,  -0.09882,   0.33276,   0.06302,  -0.15277,  -0.16476,   0.02706,   0.08100,  -0.10482,   0.03305,   0.01507,  -0.08683,   0.10498,   0.17092,   0.23685,  -0.23070,  -0.03289,   0.35674,  -0.04488,  -0.09882,   0.14694,  -0.19473,  -0.11081,   0.08700,  -0.11681,  -0.25467,   0.41069,   0.22486,   0.06302,   0.09299,  -0.08683,  -0.12879,   0.05103,  -0.11081,  -0.02090,   0.23086,  -0.46447,   0.30878,   0.20688,  -0.08683,   0.27881,  -0.06286,   0.11097,   0.03904,   0.24884,   0.05703,   0.06302,   0.10498,  -0.07485,   0.06901,  -0.09283,   0.26083,   0.12296,   0.05103,  -0.06286
  -0.12280,  -0.22470,  -0.23070,   0.02106,  -0.10482,  -0.29663,  -0.00292,   0.00308,  -0.12280,   0.14694,  -0.03289,   0.25484,   0.23685,   0.00308,  -0.25467,   0.09299,   0.36273,   0.29080,  -0.05087,   0.04504,  -0.21871,   0.14095,  -0.26666,  -0.05686,  -0.20073,   0.01507,   0.11697,   0.18290,   0.27282,  -0.01490,  -0.05087,   0.05703,  -0.02090,  -0.04488,   0.00308,  -0.08084,  -0.14078,   0.05103,  -0.23070,  -0.06885,  -0.29663,   0.26682,   0.26083,   0.18890,   0.05103,  -0.11081,  -0.26666,   0.10498,  -0.30862,   0.23086,   0.20089,   0.08100,   0.14694,   0.06302,   0.21288,   0.08700,  -0.09882,  -0.24868,   0.18890,   0.07501,   0.06901,   0.11097,   0.02106,   0.20688
   0.44665,  -0.08683,   0.17691,   0.05103,   0.21887,  -0.00891,  -0.00292,   0.03305,   0.42867,  -0.11081,   0.06901,   0.01507,   0.14095,   0.16492,  -0.21871,   0.03904,   0.07501,   0.13495,  -0.00891,  -0.07485,  -0.14678,   0.20089,   0.14694,  -0.21871,  -0.18874,  -0.15277,  -0.11081,   0.00308,   0.00308,   0.08100,   0.31478,  -0.12280,  -0.13479,   0.60849,   0.09299,   0.06901,  -0.02689,  -0.19473,   0.24884,   0.08100,   0.03305,   0.42867,  -0.11081,  -0.12879,  -0.27865,  -0.13479,  -0.36257,  -0.23669,  -0.09283,  -0.08683,   0.00308,   0.22486,  -0.10482,   0.26682,   0.00907,   0.06901,   0.27881,   0.15293,  -0.16476,  -0.00891,  -0.09283,  -0.25467,   0.18290,   0.29080
  -0.06286,  -0.17075,  -0.09283,   0.16492,   0.00907,  -0.26666,   0.27881,  -0.03888,   0.08700,   0.06901,   0.07501,  -0.12879,   0.08700,   0.24884,  -0.02090,  -0.11081,   0.17691,  -0.03289,   0.17691,  -0.11681,   0.09899,   0.04504,   0.17691,   0.17691,   0.03904,   0.16492,  -0.09882,   0.09899,  -0.11081,   0.12896,   0.08100,   0.35074,  -0.26666,   0.26682,   0.23086,   0.09899,  -0.08084,   0.35074,  -0.26067,   0.03904,   0.08700,   0.10498,  -0.01490,  -0.19473,  -0.11081,   0.26682,  -0.02689,   0.34475,   0.12896,   0.26083,  -0.33859,  -0.08084,   0.09299,  -0.12280,   0.03904,  -0.10482,   0.30878,   0.02706,   0.11097,   0.35674,   0.00308,   0.06901,  -0.15877,   0.21887
  -0.06286,  -0.25467,  -0.20672,  -0.52441,  -0.09882,  -0.74020,   0.14095,  -0.32061,  -0.01490,  -0.25467,  -0.17075,   0.30878,   0.30279,   0.09299,   0.15293,  -0.21871,   0.05103,  -0.30263,   0.15893,  -0.13479,   0.12896,   0.14095,   0.07501,  -0.00891,   0.06901,  -0.20672,  -0.17675,  -0.08683,   0.15293,   0.01507,   0.02106,   0.33276,  -0.27865,  -0.02090,  -0.17075,  -0.11081,  -0.12280,   0.03305,   0.03305,  -0.15277,  -0.18274,  -0.18874,   0.05703,  -0.00891,  -0.11681,   0.23685,   0.06302,   0.14095,  -0.36257,  -0.22470,  -0.06286,   0.06302,  -0.11081,   0.21887,  -0.10482,   0.12896,  -0.26666,   0.06901,  -0.05087,   0.09899,   0.06302,   0.28481,   0.12896,   0.09899
   0.06901,   0.26083,   0.00907,   0.05103,  -0.05686,  -0.08084,   0.08700,   0.05703,  -0.07485,   0.09299,  -0.06885,  -0.07485,  -0.12280,  -0.12879,  -0.12280,   0.05103,   0.18290,  -0.03289,   0.16492,   0.06302,  -0.18874,  -0.07485,   0.04504,   0.08700,  -0.17075,  -0.00891,   0.06302,  -0.06286,  -0.02689,  -0.02689,   0.02106,  -0.20672,   0.08100,   0.08100,   0.06901,   0.09899,   0.11697,   0.03305,   0.02106,   0.08700,  -0.18274,  -0.09882,   0.17092,  -0.05087,  -0.02090,   0.12896,  -0.03888,  -0.03289,   0.27282,  -0.11681,   0.12296,  -0.02689,   0.12296,  -0.36257,   0.04504,  -0.21271,   0.39870,   0.07501,   0.09299,  -0.03888,   0.07501,  -0.19473,   0.00907,  -0.03289
   0.52458,   0.09899,   0.00308,   0.14694,   0.66244,  -0.09283,   0.23685,  -0.12280,   0.11697,  -0.23070,  -0.12280,   0.01507,   0.32077,  -0.18274,  -0.24268,   0.37472,   0.03904,   0.18890,   0.40469,  -0.48845,   0.09299,  -0.02689,   0.11697,  -0.02090,  -0.15877,  -0.08683,  -0.26067,  -0.18874,   0.42267,   0.12296,   0.25484,  -0.00891,   0.08100,   0.41069,   0.05103,   0.43466,  -0.09283,   0.14095,   0.25484,   0.07501,  -0.14678,   0.21288,  -0.05087,   0.17092,   0.03305,   0.03305,  -0.09882,   0.27881,   0.19489,   0.50060,   0.02706,  -0.20672,   0.02706,  -0.38055,  -0.30263,   0.28481,   0.18290,   0.30878,  -0.14678,   0.20688,   0.06901,   0.00308,   0.18290,   0.16492
  -0.06885,  -0.22470,  -0.14678,  -0.20672,   0.00907,   0.12296,  -0.14078,  -0.61433,   0.08700,   0.18290,   0.15293,   0.13495,  -0.26067,  -0.18274,  -0.03888,  -0.08084,   0.11697,  -0.03289,  -0.05087,   0.03305,  -0.18874,   0.06302,   0.05703,  -0.08683,  -0.12879,   0.12296,   0.08700,  -0.01490,  -0.03289,  -0.21271,  -0.08084,  -0.08683,   0.36273,   0.19489,  -0.02689,   0.11697,   0.00907,  -0.21271,  -0.00292,   0.15293,   0.02106,   0.03305,   0.06901,   0.06302,  -0.26067,   0.00907,   0.11097,   0.09899,  -0.11681,  -0.17075,   0.06901,   0.05703,  -0.01490,  -0.15877,  -0.03289,  -0.19473,  -0.07485,   0.08100,  -0.14078,  -0.01490,   0.42267,  -0.25467,  -0.14678,  -0.01490
   0.13495,  -0.09882,   0.05103,  -0.19473,   0.01507,   0.05103,  -0.08084,  -0.19473,   0.12296,  -0.12280,   0.27881,   0.02706,   0.18890,   0.05703,  -0.03289,   0.12896,  -0.27865,   0.29680,  -0.17675,   0.21288,  -0.01490,  -0.03289,   0.07501,   0.32677,  -0.19473,  -0.06885,  -0.19473,  -0.02689,   0.01507,  -0.24868,   0.12296,   0.15893,   0.03904,   0.05103,   0.31478,  -0.26067,   0.01507,  -0.08683,  -0.13479,   0.09299,   0.03305,  -0.24868,   0.03904,   0.04504,   0.08700,  -0.06885,  -0.07485,   0.11097,   0.10498,  -0.16476,   0.00907,  -0.27865,   0.06302,   0.12296,   0.03305,   0.11697,  -0.17075,  -0.00292,   0.00308,   0.51259,   0.22486,  -0.00891,   0.09899,   0.20089
  -0.04488,   0.19489,  -0.03888,   0.08100,   0.16492,  -0.36856,   0.27282,   0.15893,   0.02706,   0.34475,   0.23086,  -0.26666,   0.23685,  -0.30263,  -0.39254,  -0.27266,  -0.01490,  -0.05686,  -0.06885,   0.09899,  -0.07485,  -0.31462,   0.12896,   0.13495,   0.08700,  -0.07485,  -0.04488,  -0.15277,  -0.18874,  -0.20672,   0.05703,   0.30878,  -0.13479,   0.29680,  -0.17075,  -0.29064,   0.10498,  -0.09882,   0.05103,   0.07501,   0.14095,  -0.15277,   0.06901,   0.03305,   0.15893,   0.32677,  -0.18874,   0.29080,  -0.08084,  -0.17675,  -0.28464,   0.15893,   0.00907,   0.11097,   0.21887,  -0.05686,  -0.09283,   0.19489,  -0.05686,   0.10498,   0.19489,  -0.15277,  -0.18874,   0.24285
  -0.14678,  -0.10482,   0.16492,  -0.25467,  -0.00292,  -0.06885,   0.09899,  -0.22470,   0.06901,  -0.79415,   0.11097,  -0.23070,   0.27282,   0.16492,   0.42867,   0.18890,   0.15893,   0.05103,  -0.03888,  -0.00891,  -0.23669,   0.12896,  -0.18874,   0.14694,   0.08700,   0.04504,  -0.10482,  -0.08683,   0.28481,  -0.25467,  -0.10482,  -0.14078,   0.08700,  -0.29064,  -0.11081,  -0.05686,   0.15293,  -0.04488,   0.20089,  -0.09283,  -0.17075,  -0.27865,  -0.07485,   0.35074,  -0.08084,   0.17691,   0.39870,  -0.12879,  -0.01490,   0.03305,   0.38071,  -0.00292,  -0.42251,  -0.11681,  -0.15877,  -0.12280,   0.39870,  -0.03289,  -0.12879,   0.12296,  -0.06885,   0.02106,   0.09299,   0.06302
  -0.18274,   0.44066,  -0.21871,   0.05703,   0.15293,  -0.11681,   0.09899,  -0.18274,  -0.15277,   0.29080,   0.03904,  -0.11081,  -0.02090,   0.05103,   0.24285,  -0.30862,  -0.25467,  -0.06286,  -0.08084,  -0.14678,   0.04504,  -0.01490,  -0.26067,   0.08100,   0.23685,  -0.21871,  -0.00292,  -0.10482,  -0.11681,  -0.03289,   0.16492,   0.08700,   0.06302,  -0.00292,   0.10498,  -0.15877,  -0.01490,  -0.02090,  -0.13479,  -0.21871,  -0.26666,   0.05703,   0.14095,   0.08100,  -0.15877,   0.24285,   0.14095,   0.15293,   0.25484,  -0.12879,  -0.03289,   0.11697,  -0.06885,   0.09299,  -0.02689,  -0.03888,  -0.25467,   0.02106,  -0.11681,   0.18290,   0.00907,  -0.09283,   0.00308,  -0.47646
   0.06901,   0.01507,   0.24285,  -0.14678,  -0.22470,  -0.19473,   0.06901,   0.21887,   0.08700,  -0.08084,   0.36273,  -0.21871,   0.11697,  -0.08683,   0.14095,   0.03305,   0.08700,  -0.09882,   0.12296,  -0.27865,   0.05103,   0.17691,  -0.12280,  -0.09882,   0.06901,  -0.24868,   0.25484,  -0.03888,   0.06302,   0.11097,   0.22486,   0.23086,  -0.16476,   0.12296,   0.21288,   0.20688,  -0.01490,  -0.02090,  -0.03289,  -0.08683,  -0.18274,   0.03305,   0.06302,   0.24285,  -0.05087,   0.17691,  -0.30862,   0.34475,  -0.16476,  -0.18874,   0.01507,  -0.09283,   0.06302,  -0.19473,   0.03904,  -0.20073,  -0.34459,   0.11697,   0.03904,  -0.15277,   0.12296,  -0.09882,   0.01507,  -0.23070
  -0.31462,  -0.00891,   0.15293,  -0.05686,  -0.00292,   0.08100,  -0.07485,  -0.35058,  -0.02689,   0.16492,   0.08100,  -0.00891,  -0.01490,   0.12296,  -0.03888,   0.27282,   0.34475,   0.23685,  -0.12280,  -0.06286,   0.28481,  -0.10482,   0.04504,   0.05103,   0.20688,  -0.15277,   0.01507,   0.20089,   0.03305,   0.06302,   0.21288,   0.01507,  -0.08683,   0.01507,   0.07501,  -0.04488,   0.08100,  -0.02689,   0.23086,   0.04504,   0.08100,  -0.01490,  -0.00292,   0.27282,   0.12296,  -0.05686,   0.12896,   0.11097,  -0.21271,  -0.06286,  -0.02689,  -0.03888,   0.17691,   0.22486,  -0.00292,  -0.09283,   0.08100,  -0.17675,  -0.14678,   0.10498,   0.12296,   0.01507,  -0.33260,   0.20089
   0.02106,  -0.04488,   0.00308,  -0.12280,  -0.27266,  -0.24268,   0.09899,   0.19489,   0.29080,  -0.11681,  -0.00292,  -0.19473,   0.18290,   0.20089,  -0.06286,  -0.11681,  -0.23669,   0.03305,  -0.01490,   0.02106,   0.25484,  -0.08084,   0.00907,  -0.27865,   0.04504,   0.05103,  -0.05686,   0.10498,  -0.18874,  -0.12879,  -0.11081,   0.33875,  -0.00891,  -0.16476,   0.20688,  -0.06286,   0.50659,   0.00907,   0.02706,   0.12296,   0.12896,  -0.20073,   0.08100,  -0.05087,  -0.07485,   0.11697,   0.04504,   0.08700,  -0.08084,   0.04504,  -0.14078,  -0.04488,   0.04504,  -0.07485,  -0.08683,   0.17691,   0.02106,  -0.26666,   0.11697,  -0.03888,   0.11697,   0.17092,  -0.21271,   0.32677
   0.08700,  -0.09283,  -0.23669,   0.12896,  -0.00292,  -0.29663,   0.19489,  -0.06885,   0.19489,   0.15293,   0.24285,  -0.20672,  -0.14078,  -0.02090,  -0.04488,  -0.07485,  -0.06286,   0.03305,  -0.17675,   0.12896,  -0.00292,  -0.04488,  -0.09283,  -0.08683,  -0.24868,  -0.06286,   0.15293,   0.15293,   0.23685,  -0.01490,  -0.07485,  -0.07485,  -0.15877,   0.17691,  -0.09882,  -0.30862,   0.13495,   0.08700,   0.23685,  -0.11681,  -0.29064,  -0.06885,  -0.12879,   0.15893,  -0.08084,   0.08100,  -0.11081,  -0.15877,   0.09299,  -0.07485,  -0.12879,   0.00308,  -0.27865,   0.06901,  -0.26067,   0.45264,  -0.33260,   0.02706,  -0.03289,   0.11697,   0.04504,   0.08100,  -0.09283,   0.06901
   0.12896,  -0.08084,  -0.08084,  -0.03888,  -0.02689,  -0.20672,   0.02706,   0.16492,  -0.11681,   0.14095,   0.16492,  -0.00292,   0.35074,   0.20089,   0.15293,   0.01507,   0.11097,   0.15293,   0.01507,   0.25484,  -0.05686,   0.20089,  -0.27865,   0.34475,  -0.28464,  -0.36856,   0.12296,   0.13495,   0.13495,   0.06901,  -0.04488,  -0.45848,  -0.11681,   0.08100,   0.03305,  -0.11081,   0.24884,  -0.08084,   0.15293,   0.03305,   0.02106,   0.00308,   0.10498,   0.05103,  -0.02090,  -0.17075,  -0.10482,  -0.04488,  -0.06885,   0.06901,  -0.02689,   0.06302,   0.04504,  -0.00292,  -0.17675,   0.05703,  -0.17675,  -0.09882,   0.03904,  -0.08084,   0.51259,   0.07501,   0.15293,   0.15893
