  -0.11345,   0.02473,   0.04776,  -0.03669,   0.04520,  -0.16207,  -0.19022,   0.02729,  -0.01622,   0.00681,  -0.01877,  -0.03669,  -0.11601,  -0.00598,  -0.06228,  -0.06483,  -0.03157,  -0.09298,  -0.03413,  -0.01110,  -0.04948,  -0.03413,   0.09126,   0.12708,   0.05543,   0.04264,  -0.23628,  -0.19534,  -0.13648,  -0.09298,  -0.11345,  -0.05204,  -0.07507,  -0.09298,  -0.16463,   0.08102,   0.08358,  -0.08786,  -0.01622,   0.06055,  -0.06483,   0.01961,  -0.06483,   0.07846,   0.13220,  -0.00086,   0.15011,   0.03496,   0.07334,  -0.16719,  -0.08019,  -0.05716,  -0.04436,  -0.08531,   0.02729,  -0.03413,  -0.08531,  -0.00342,   0.08358,   0.00170,  -0.08531,  -0.08019,   0.03496,  -0.17742,  -0.10834,   0.06567,   0.11685,  -0.08019,  -0.04948,  -0.07507,   0.04776,   0.00426,  -0.06739,   0.11429,   0.06311,   0.00426,   0.00681,   0.01961,   0.04008,   0.02473,   0.01193,  -0.06739,   0.02729,   0.02729,  -0.10834,  -0.02133,  -0.14160,   0.09126,   0.00426,   0.12196,  -0.05204,   0.11429,  -0.01877,  -0.02901,  -0.02389,  -0.05972,  -0.01110,   0.04264,   0.00937,   0.10405,  -0.11857,   0.04520,   0.05287,  -0.06995,  -0.01366,   0.06055,  -0.03413,  -0.00598,   0.12196,   0.02729,   0.00937,   0.00681,  -0.18766,   0.11940,   0.02984,   0.02984,   0.03240,  -0.03157,  -0.12113,  -0.06995,   0.03496,   0.00681,   0.12964,  -0.21069,  -0.08275,   0.02217,   0.03752,  -0.12625,  -0.01110,  -0.03669,   0.01193,  -0.13392,  -0.01877,  -0.07507,   0.00170,   0.00170,   0.04008,   0.12452,   0.04776,  -0.02133,  -0.08275,  -0.00342,   0.04008,   0.02473,   0.10661,  -0.10578,  -0.01622,   0.02217,   0.01449,  -0.02133,  -0.05972,  -0.03157,  -0.14672,   0.11173,  -0.21069,  -0.05460,  -0.09042,   0.14499,  -0.09810,  -0.22860,   0.12196,  -0.03413,   0.09637,   0.04776,  -0.02645,  -0.06228,  -0.02901,  -0.09810,   0.13476,  -0.02901,   0.01961,   0.00937,  -0.00598,  -0.05460,   0.01193,  -0.00854,   0.14243,  -0.12881,  -0.08275,   0.00170,   0.17826,  -0.07251,  -0.03669,  -0.07251,  -0.02133,   0.09637,  -0.03925,   0.06567,  -0.03157,   0.16802,   0.02729,   0.09637,  -0.01366,   0.03496,  -0.08275,   0.19105,   0.02729,  -0.05204,   0.00170,   0.04520,  -0.00854,  -0.03669,   0.11940,  -0.01877,   0.04776,   0.06055,  -0.06995,   0.16291,   0.00426,  -0.03413,  -0.03157,   0.01449,  -0.04948,   0.05799,   0.02729,  -0.04948,  -0.10834,   0.10405,   0.02217,  -0.14416,  -0.00086,  -0.18254,  -0.04180,   0.05032,   0.00937,   0.02473,  -0.07507,  -0.03413,  -0.06228,  -0.02133,  -0.03413,   0.09126,   0.05799,   0.00170,  -0.03669,   0.04520,   0.04520,  -0.12113,   0.01449,  -0.08019,   0.00426,   0.05543,   0.05032,   0.00681,   0.17058,   0.06823,  -0.12881,  -0.15951,   0.10661,  -0.11857,   0.08358,  -0.02389,  -0.03413,   0.00681,   0.08102,   0.04776
   0.01705,  -0.08019,   0.00937,  -0.08531,   0.05287,   0.15267,  -0.08275,   0.05287,  -0.04948,  -0.08786,  -0.06739,   0.04008,  -0.04436,  -0.01622,  -0.12625,  -0.02133,  -0.02389,  -0.07251,   0.03752,   0.06823,   0.02473,  -0.17231,  -0.03925,   0.02729,   0.07846,   0.03752,   0.11173,  -0.04436,  -0.06483,   0.13732,  -0.02133,   0.03752,  -0.10322,   0.09893,  -0.13904,   0.01961,  -0.03669,   0.00170,   0.03496,   0.13220,   0.06055,   0.15779,   0.10405,   0.02729,  -0.14672,  -0.05716,  -0.01366,  -0.04436,   0.12452,  -0.04180,  -0.06483,  -0.12881,   0.00170,  -0.12113,  -0.00854,  -0.01622,  -0.00086,  -0.04180,  -0.11857,  -0.03925,   0.11173,   0.01449,   0.09637,  -0.07763,   0.08102,  -0.01366,   0.17826,  -0.05716,   0.05799,   0.13476,  -0.06483,   0.12452,  -0.11089,  -0.02389,  -0.08786,   0.06823,  -0.13648,  -0.02389,   0.03496,   0.00170,  -0.14160,   0.20385,   0.13988,   0.02984,   0.10917,  -0.11857,   0.12964,   0.08870,   0.02217,   0.06823,   0.04264,  -0.02133,   0.05799,  -0.09810,  -0.09810,  -0.10834,   0.06567,   0.01961,   0.11685,   0.03752,  -0.07251,  -0.08275,   0.04264,  -0.00086,  -0.12625,   0.06823,   0.00170,  -0.03925,  -0.10066,  -0.04436,  -0.05972,  -0.05204,  -0.11089,  -0.22093,   0.00426,   0.06311,   0.02217,  -0.00342,  -0.08275,   0.03240,   0.17570,  -0.01110,   0.06823,   0.05799,  -0.04180,  -0.06995,  -0.06483,  -0.10578,   0.07590,   0.00426,  -0.10578,   0.04520,   0.17058,   0.04264,  -0.07763,  -0.05716,   0.02729,  -0.07507,  -0.08531,  -0.09810,  -0.08275,  -0.14672,  -0.06739,   0.22432,  -0.19022,  -0.01110,  -0.04948,  -0.06739,   0.05287,  -0.01877,   0.04008,  -0.06995,  -0.09298,   0.00170,  -0.09810,  -0.03413,   0.13220,   0.00681,   0.16546,  -0.01622,   0.01961,   0.10405,   0.05287,  -0.01110,  -0.00086,   0.08102,   0.09126,   0.05543,  -0.01622,  -0.05716,  -0.03157,   0.01705,  -0.04948,  -0.11345,  -0.10066,   0.01705,   0.09382,  -0.00086,   0.00426,   0.03752,  -0.08531,   0.00426,  -0.07251,  -0.23116,  -0.01877,   0.03752,  -0.06483,   0.10405,  -0.13392,  -0.07251,  -0.00086,  -0.02133,   0.15779,  -0.06739,   0.10405,   0.08102,   0.07590,   0.04264,   0.15267,  -0.09810,   0.00681,   0.08358,   0.02984,  -0.02133,  -0.07251,  -0.13392,   0.06311,   0.15779,  -0.10322,   0.04520,   0.13732,  -0.08786,  -0.14160,  -0.02901,   0.02984,   0.17826,  -0.07763,   0.17570,   0.07590,   0.05543,   0.00681,   0.13476,   0.11429,   0.14755,   0.02473,   0.03752,   0.03240,  -0.07251,   0.02473,   0.02729,   0.02729,  -0.01366,  -0.15951,   0.11940,  -0.07763,  -0.06995,   0.07334,  -0.05460,   0.04520,   0.01705,  -0.02133,   0.09637,   0.01449,  -0.00342,   0.01705,  -0.05972,  -0.00598,  -0.01622,  -0.02389,  -0.01110,   0.00681,   0.06311,  -0.02389,   0.00681,   0.02729,   0.05032
   0.09637,   0.11173,  -0.03925,   0.10661,   0.15011,  -0.10834,  -0.07251,   0.06311,   0.03496,  -0.03669,  -0.00342,   0.01961,  -0.21325,  -0.16207,  -0.11345,  -0.14160,   0.06567,  -0.06995,  -0.01366,  -0.10834,  -0.05716,  -0.00598,  -0.02389,  -0.05716,  -0.10066,  -0.05460,  -0.06739,  -0.10834,   0.04008,   0.02984,  -0.00342,  -0.04180,   0.01449,  -0.01366,  -0.01366,  -0.09042,  -0.08275,   0.01705,  -0.07507,  -0.01877,   0.00937,  -0.05460,  -0.16463,  -0.02133,   0.00170,   0.25503,  -0.16719,   0.15267,   0.03496,   0.19873,  -0.10322,  -0.13392,   0.03240,  -0.01622,   0.18338,   0.00681,  -0.08019,  -0.03669,  -0.02133,   0.17314,   0.04264,  -0.02645,  -0.05972,  -0.01366,   0.07079,  -0.07763,   0.03752,  -0.06228,  -0.06483,   0.15267,   0.13220,  -0.19022,   0.04264,   0.09893,   0.04776,   0.03752,  -0.02901,   0.03496,   0.03496,  -0.05204,   0.07846,  -0.06995,   0.00170,  -0.20301,   0.09126,   0.04008,   0.00426,  -0.08275,  -0.07507,   0.02473,   0.18338,   0.24991,   0.01961,  -0.05972,   0.02729,   0.01193,  -0.00086,  -0.18510,   0.04008,  -0.02133,  -0.03669,  -0.03925,  -0.08786,  -0.00598,   0.00426,  -0.09298,   0.03752,  -0.03157,   0.06567,  -0.17998,  -0.12625,  -0.11089,  -0.00598,  -0.04180,   0.05543,  -0.03413,   0.07846,  -0.00598,  -0.11601,  -0.08019,   0.04520,   0.11173,  -0.11345,  -0.08531,  -0.15951,   0.02729,  -0.00342,  -0.03413,   0.03752,  -0.08019,  -0.02901,   0.02473,  -0.00086,   0.08614,   0.10149,  -0.14928,  -0.09554,   0.11940,   0.10149,   0.05543,   0.03752,   0.10661,   0.00170,   0.21152,  -0.01366,   0.05287,   0.05543,   0.05543,   0.13476,   0.05799,  -0.05972,   0.13220,  -0.10322,  -0.08019,  -0.01110,   0.09893,  -0.06483,  -0.17998,  -0.09810,  -0.04692,  -0.02901,  -0.00598,  -0.12881,  -0.05460,   0.07079,  -0.00598,  -0.02645,  -0.01110,   0.01705,  -0.08531,   0.07334,  -0.02645,  -0.14928,  -0.04180,  -0.09298,   0.00937,   0.00170,   0.07590,   0.04776,   0.01449,   0.13476,   0.05032,  -0.01877,  -0.05716,  -0.05716,   0.01449,  -0.02901,  -0.04436,   0.14499,   0.01705,  -0.06995,   0.01449,  -0.21325,   0.04008,   0.02729,   0.01961,  -0.10066,  -0.07507,  -0.06483,  -0.06228,  -0.01366,  -0.00598,  -0.05460,   0.09637,  -0.09298,  -0.13904,  -0.07251,  -0.00086,   0.08870,   0.06055,  -0.01110,  -0.15951,  -0.04948,  -0.04692,   0.09126,   0.07334,  -0.18254,   0.03240,   0.05287,  -0.11345,  -0.08786,   0.00426,   0.10149,   0.03752,  -0.00598,   0.04776,  -0.05972,  -0.00342,   0.03240,   0.18849,  -0.00854,   0.07846,  -0.01110,   0.09637,  -0.04180,   0.00937,   0.04008,   0.08614,  -0.00598,  -0.13904,  -0.10834,  -0.06483,  -0.01110,   0.02217,   0.29853,   0.02473,   0.04776,   0.04008,  -0.12881,   0.04264,  -0.00086,  -0.06995,   0.07846,   0.07334,   0.05799,   0.07590
   0.03240,  -0.09298,   0.06055,  -0.08019,   0.20385,  -0.10322,  -0.01366,  -0.05460,   0.06567,   0.11940,  -0.01110,  -0.03157,  -0.11601,  -0.02901,   0.06055,   0.11940,  -0.04692,   0.04520,   0.01193,  -0.09298,  -0.03925,  -0.02901,  -0.07251,   0.10661,  -0.00854,   0.07846,  -0.01110,  -0.01622,  -0.09042,   0.08102,   0.05032,  -0.08531,   0.19105,   0.01705,   0.07846,   0.14243,   0.07590,  -0.09554,   0.03240,  -0.07763,   0.01961,   0.12196,   0.06823,  -0.03157,  -0.00854,   0.00170,  -0.08531,  -0.01110,  -0.09298,  -0.12113,   0.05032,  -0.12625,  -0.05460,  -0.08275,  -0.05204,  -0.10834,  -0.13392,   0.01961,   0.03240,   0.01193,  -0.10834,  -0.10578,  -0.01366,   0.11173,  -0.08531,   0.02473,  -0.05204,   0.04264,   0.08102,  -0.06995,  -0.03925,  -0.02389,   0.02984,  -0.01366,  -0.12881,   0.00426,   0.00170,   0.00170,   0.12196,  -0.04692,  -0.04436,   0.02984,   0.06823,  -0.05716,  -0.00854,   0.02984,  -0.11089,   0.08102,  -0.04948,   0.12196,  -0.07251,   0.07079,   0.00937,  -0.09554,  -0.15440,  -0.05204,   0.05287,  -0.05972,  -0.13904,   0.01193,  -0.03669,   0.03496,   0.18594,   0.13732,  -0.03413,   0.11429,   0.05287,  -0.00342,   0.09382,   0.03752,   0.05543,   0.07079,   0.08358,  -0.01877,   0.09893,   0.10149,   0.02473,   0.06055,  -0.02389,  -0.08531,  -0.02133,   0.03752,   0.02217,   0.02729,  -0.03157,  -0.08531,  -0.08531,  -0.03413,   0.03240,  -0.13904,   0.12964,  -0.08019,   0.01961,   0.09126,  -0.02645,   0.03752,   0.04776,   0.01449,  -0.07507,   0.12708,   0.08870,  -0.01622,   0.11173,   0.06311,  -0.09810,   0.07590,   0.21664,  -0.13392,   0.05543,   0.04776,   0.00937,   0.06055,   0.01961,  -0.02389,   0.04520,   0.04520,  -0.09042,  -0.10066,  -0.13137,   0.01193,   0.06567,  -0.03669,  -0.13904,   0.24735,  -0.03157,   0.15779,   0.05032,  -0.09810,  -0.06739,   0.02729,   0.07334,  -0.08275,   0.06055,   0.08870,   0.09893,   0.10917,   0.01193,  -0.07507,  -0.01877,  -0.05204,  -0.02389,   0.20897,  -0.04436,  -0.01366,   0.02473,  -0.07763,  -0.10066,  -0.00086,   0.06311,   0.09637,   0.02984,   0.02729,  -0.01366,   0.06567,   0.05799,  -0.12369,  -0.05716,  -0.14416,   0.02217,   0.08102,  -0.12113,   0.06311,   0.01193,  -0.07763,  -0.09810,  -0.11857,  -0.06739,  -0.17742,  -0.02645,  -0.11345,  -0.00598,   0.05799,  -0.06483,  -0.04436,  -0.10066,   0.04520,  -0.01877,   0.12964,  -0.03157,   0.04264,  -0.02133,   0.04008,   0.06567,  -0.01622,   0.07334,   0.03752,   0.02217,  -0.17487,  -0.15951,   0.02473,  -0.15440,  -0.15184,  -0.09810,  -0.06483,   0.06311,   0.03752,   0.00937,  -0.12369,   0.05032,  -0.12113,  -0.11345,   0.01705,  -0.01622,   0.04008,   0.01193,  -0.07251,   0.07079,  -0.11345,   0.04008,  -0.01366,   0.03496,   0.13732,  -0.13904,  -0.04436,   0.09637,   0.00170
   0.05032,  -0.05204,  -0.05716,   0.00937,  -0.16975,  -0.02901,  -0.00342,  -0.01366,  -0.15184,   0.06823,  -0.15440,  -0.04948,  -0.05716,  -0.12369,   0.03240,  -0.01366,  -0.10834,  -0.03669,  -0.09298,  -0.14672,  -0.00086,   0.00426,  -0.02133,  -0.06483,   0.00937,  -0.03669,  -0.02389,  -0.09042,   0.00170,   0.00426,  -0.08019,  -0.12881,   0.05032,  -0.07251,  -0.05972,   0.10661,   0.02984,   0.09382,   0.11685,  -0.08531,  -0.12113,  -0.00086,  -0.05460,  -0.00342,   0.08614,  -0.11345,   0.06055,  -0.11345,  -0.01110,  -0.01622,  -0.06228,   0.05287,  -0.20557,  -0.08275,   0.15011,  -0.10322,  -0.03413,  -0.14160,   0.05799,  -0.16207,   0.05799,  -0.01366,   0.16802,  -0.10834,  -0.07763,  -0.06739,  -0.04692,   0.02729,  -0.14928,  -0.00086,  -0.01366,  -0.12881,   0.00170,  -0.06995,  -0.03157,  -0.06995,  -0.00086,  -0.12113,   0.01449,   0.01961,   0.06311,  -0.04180,  -0.14672,  -0.09554,  -0.01366,   0.09382,  -0.12881,   0.09637,  -0.08531,  -0.06739,   0.08614,   0.00681,   0.23967,   0.08614,  -0.04692,  -0.16719,   0.10917,  -0.13137,   0.02217,  -0.03669,  -0.02389,   0.02984,  -0.03157,   0.09637,  -0.05716,   0.05543,  -0.09810,  -0.02645,   0.06567,   0.04264,   0.05799,   0.02217,   0.11173,  -0.03157,  -0.04948,   0.08870,  -0.05716,  -0.10834,   0.12196,   0.04264,  -0.14416,  -0.11345,  -0.10066,   0.13732,  -0.10322,   0.03752,  -0.04948,  -0.08786,  -0.17742,  -0.11345,   0.04776,   0.10405,   0.03496,  -0.13648,  -0.07763,   0.13476,   0.15011,  -0.05972,  -0.14160,   0.06055,   0.02984,   0.10661,  -0.05204,  -0.01366,  -0.03157,  -0.10066,  -0.10322,  -0.05204,   0.01705,  -0.00342,   0.09637,  -0.08275,  -0.01366,  -0.01110,   0.00681,  -0.00086,  -0.14672,  -0.10322,   0.02217,  -0.17742,   0.07590,  -0.03157,  -0.10322,   0.08614,  -0.14928,   0.00681,  -0.14928,  -0.14928,  -0.04436,  -0.01877,   0.08614,  -0.02901,  -0.04436,  -0.00854,   0.03496,  -0.05972,  -0.07251,  -0.03413,   0.06567,   0.02473,   0.00681,   0.06823,  -0.01622,  -0.05972,  -0.01366,  -0.00598,  -0.08019,  -0.15695,   0.20897,   0.00937,  -0.14160,   0.02984,   0.01961,   0.08614,   0.09637,  -0.05972,  -0.09298,  -0.05716,  -0.18254,   0.02984,   0.07079,   0.05799,  -0.00598,  -0.16463,   0.07846,  -0.06228,   0.00937,  -0.08019,   0.02984,   0.04264,  -0.06483,  -0.03925,  -0.08531,  -0.07507,  -0.11601,   0.07846,   0.06055,  -0.00598,   0.00170,   0.02217,   0.05287,   0.13988,   0.04776,  -0.01110,  -0.02389,   0.00937,  -0.01877,  -0.01622,   0.08614,  -0.00598,  -0.05460,  -0.10066,   0.00681,  -0.08531,  -0.02901,   0.02984,  -0.07507,  -0.08786,  -0.00598,  -0.02133,  -0.08275,   0.05032,  -0.03925,   0.11429,  -0.08531,  -0.10578,  -0.01877,   0.04008,  -0.05204,   0.10917,   0.21664,   0.10661,  -0.02389,  -0.04692,   0.02473,  -0.00598
   0.00937,   0.15011,  -0.15695,  -0.00598,  -0.11601,  -0.10578,   0.05032,   0.14755,  -0.04948,   0.03240,  -0.02133,   0.00426,  -0.03413,  -0.09042,  -0.04948,   0.06567,   0.03240,  -0.12625,   0.06311,  -0.06739,  -0.19278,   0.02217,   0.05032,  -0.20301,  -0.15440,   0.08614,  -0.05204,  -0.15695,  -0.10578,   0.12708,   0.01705,   0.11685,   0.03240,  -0.04692,  -0.06483,  -0.08786,  -0.01110,   0.02729,   0.05287,  -0.02389,  -0.08275,   0.00937,  -0.01366,  -0.08275,   0.14755,  -0.04948,   0.05287,   0.04008,   0.07590,   0.00681,   0.07334,  -0.04692,  -0.04948,  -0.10322,  -0.05460,  -0.00342,  -0.07507,  -0.01622,  -0.05972,   0.16035,  -0.09042,  -0.09298,   0.03240,  -0.18254,   0.06311,  -0.09554,   0.02473,   0.11429,  -0.16207,  -0.01366,   0.02729,  -0.08275,   0.00681,  -0.23628,   0.12964,  -0.09810,   0.03496,  -0.00086,  -0.04180,  -0.07507,  -0.02645,   0.08102,   0.01961,  -0.05972,  -0.04948,   0.06055,  -0.14928,   0.05032,   0.06055,   0.02729,  -0.09042,   0.01705,   0.04264,  -0.10066,   0.09637,  -0.01877,   0.05799,  -0.02901,  -0.14416,  -0.03157,  -0.05460,  -0.11857,   0.09126,   0.08102,   0.05543,   0.10405,   0.05287,  -0.15951,  -0.09042,  -0.06483,  -0.13137,   0.00426,   0.01449,   0.00426,  -0.08786,  -0.06995,  -0.18510,  -0.06995,  -0.01622,  -0.05204,  -0.00854,   0.01193,  -0.01622,   0.07334,  -0.06483,  -0.10834,  -0.09042,   0.03496,  -0.03413,  -0.02901,   0.16546,   0.07079,  -0.04692,   0.05287,  -0.09554,   0.02984,  -0.10834,  -0.16207,   0.02984,  -0.07251,  -0.06228,  -0.01622,  -0.02389,  -0.08275,  -0.00598,  -0.06995,  -0.00598,  -0.02389,  -0.03925,   0.01449,   0.05287,  -0.16463,   0.11429,  -0.29002,   0.02473,   0.05287,   0.01449,  -0.08019,  -0.04180,  -0.11089,  -0.06739,  -0.07507,  -0.02901,  -0.04692,  -0.02133,  -0.05460,   0.07079,  -0.10066,  -0.03669,  -0.09298,  -0.06739,   0.02984,  -0.01622,   0.04520,  -0.13904,  -0.06739,  -0.06483,   0.05032,  -0.08275,   0.09637,   0.11173,  -0.03157,  -0.10578,  -0.08531,   0.07846,  -0.13137,  -0.01366,   0.00170,   0.00170,  -0.12369,  -0.05972,  -0.16207,  -0.05716,   0.02984,  -0.03413,  -0.15184,   0.16802,  -0.12625,  -0.10834,   0.06567,   0.06055,   0.12196,   0.06311,  -0.15440,  -0.14416,  -0.01366,  -0.08275,  -0.08531,  -0.01110,   0.12708,  -0.09298,  -0.00854,  -0.06739,  -0.05972,  -0.00342,   0.01449,  -0.09298,   0.09637,  -0.05972,  -0.01110,   0.05543,  -0.15951,   0.13476,  -0.05972,   0.16291,   0.03752,   0.04008,  -0.10322,   0.00937,   0.00426,   0.04776,  -0.04692,  -0.09554,   0.19617,  -0.08531,   0.11429,  -0.01622,  -0.13904,  -0.02389,  -0.05204,   0.06823,   0.13220,  -0.12369,   0.04264,  -0.02133,  -0.01366,   0.08102,  -0.08019,  -0.11089,  -0.01622,   0.19105,   0.05799,   0.04008,  -0.06995,   0.02729,  -0.01877
  -0.03669,   0.01961,  -0.15184,   0.13220,  -0.05204,   0.08358,   0.02217,   0.13220,  -0.11601,   0.00170,  -0.07763,   0.12452,  -0.03669,  -0.06739,  -0.05460,  -0.00598,   0.13988,   0.10661,   0.13220,  -0.07507,   0.04520,   0.09382,   0.02473,   0.00426,   0.17314,   0.19873,   0.16291,   0.00170,   0.19105,   0.25247,   0.10405,  -0.05460,  -0.08275,   0.01705,  -0.02901,  -0.13137,  -0.02901,   0.03496,  -0.09042,   0.05287,   0.01449,  -0.06739,   0.08870,  -0.03925,  -0.11857,  -0.09554,  -0.07251,  -0.13137,  -0.14160,   0.04776,  -0.00854,  -0.06739,   0.06311,  -0.02645,  -0.13904,   0.13476,   0.05799,  -0.07507,  -0.03925,   0.01705,  -0.08275,   0.01961,   0.04776,   0.05799,   0.07846,  -0.01622,  -0.11857,   0.03240,   0.00937,  -0.01622,   0.19361,  -0.02133,  -0.03413,  -0.05716,   0.02984,   0.06311,   0.00426,  -0.00086,   0.10149,   0.02984,   0.08102,  -0.04692,   0.02473,   0.00937,  -0.11345,   0.07079,   0.05287,  -0.02133,   0.00426,  -0.03413,  -0.17998,   0.01449,  -0.01366,   0.21408,  -0.13392,   0.07846,  -0.03925,  -0.14416,  -0.06228,   0.15267,   0.00937,  -0.03413,   0.02473,   0.02729,   0.00170,   0.00937,   0.04008,  -0.04692,   0.02729,   0.01961,  -0.16463,   0.04264,   0.00937,   0.15779,  -0.04692,   0.08102,  -0.11857,   0.16291,   0.02217,   0.12196,  -0.05204,  -0.05716,   0.06823,   0.02473,   0.05799,  -0.04948,  -0.00342,  -0.01622,   0.20641,  -0.08019,  -0.00086,   0.05032,  -0.12113,   0.00937,  -0.08275,  -0.10322,  -0.17998,  -0.10578,  -0.00342,   0.08870,  -0.02389,   0.02473,  -0.15440,  -0.01877,  -0.01110,   0.15011,   0.16546,   0.12452,  -0.06483,  -0.01877,   0.14755,  -0.04180,  -0.13392,   0.06055,   0.04264,  -0.05460,   0.22432,  -0.01622,   0.00937,  -0.04180,  -0.00342,  -0.05460,   0.01705,  -0.09298,   0.06055,  -0.05204,  -0.09298,  -0.00342,   0.02729,  -0.01877,  -0.11089,   0.06567,   0.02984,   0.01705,   0.16035,   0.00937,  -0.03157,  -0.06228,   0.17058,   0.07079,   0.03496,   0.02217,  -0.00086,  -0.08019,   0.06055,   0.03752,  -0.01877,  -0.05460,  -0.05716,   0.04776,  -0.16463,   0.06311,   0.05032,  -0.11089,  -0.12369,  -0.01366,   0.05287,   0.20641,  -0.09042,   0.01449,   0.09893,  -0.01877,  -0.02133,   0.07590,  -0.06739,   0.09637,  -0.01366,  -0.04948,  -0.03157,   0.12196,   0.03752,   0.00170,  -0.00342,  -0.01622,   0.10405,  -0.01877,  -0.08531,  -0.02645,  -0.13648,  -0.07763,   0.00426,  -0.02389,   0.07079,   0.03752,  -0.07251,   0.01193,   0.06567,   0.16802,   0.01961,  -0.05204,  -0.09298,   0.10149,  -0.06228,  -0.04180,  -0.03157,  -0.12113,   0.03752,  -0.20813,  -0.06228,  -0.06228,   0.06311,  -0.05204,  -0.16207,  -0.10066,  -0.00086,   0.03496,  -0.03157,   0.09126,  -0.02389,   0.02729,  -0.16207,  -0.00854,   0.10917,   0.06823,  -0.12625,  -0.02901
   0.01449,  -0.07251,  -0.02645,  -0.02133,   0.02729,  -0.08531,  -0.17998,  -0.01366,  -0.09810,   0.07590,   0.03240,  -0.01110,  -0.05716,   0.16802,  -0.06995,   0.00681,   0.00170,  -0.00598,  -0.26699,  -0.02901,   0.00681,  -0.00086,   0.06567,  -0.07251,  -0.07507,  -0.03669,   0.10149,   0.05543,   0.02729,   0.00426,  -0.09298,  -0.03157,   0.07334,   0.01961,  -0.12369,  -0.02133,   0.10149,   0.02984,   0.00937,   0.01961,   0.07079,   0.03752,   0.09893,  -0.06995,   0.00170,   0.11685,  -0.05972,   0.06055,   0.10405,  -0.01622,   0.00426,  -0.07251,   0.12196,  -0.00598,  -0.04180,  -0.01622,  -0.08786,   0.11429,   0.13988,  -0.01877,   0.06055,  -0.00854,   0.11685,  -0.03413,  -0.02133,   0.00681,  -0.02389,   0.01961,   0.00937,   0.13476,   0.04520,   0.06567,  -0.02645,  -0.07251,  -0.05204,  -0.02645,  -0.12625,  -0.12881,   0.12964,  -0.02389,   0.04008,   0.10405,  -0.14416,  -0.04948,   0.10917,  -0.00086,  -0.08275,  -0.05204,  -0.02645,   0.01193,  -0.14672,   0.03496,  -0.03925,  -0.09554,  -0.02133,  -0.10578,  -0.01110,   0.05799,   0.02217,   0.08870,  -0.01366,  -0.10066,   0.02984,   0.07590,  -0.03413,  -0.02389,  -0.11345,   0.04264,  -0.06483,  -0.04436,   0.01193,  -0.03669,   0.05799,  -0.10322,   0.05287,  -0.03925,   0.06823,  -0.03669,   0.03752,   0.13732,   0.17058,   0.07334,   0.00426,  -0.02389,   0.02473,   0.05287,  -0.02645,   0.08870,   0.06311,   0.04520,   0.01705,  -0.08786,   0.10917,  -0.04948,  -0.01877,   0.09893,  -0.02901,  -0.02133,   0.01193,   0.01193,   0.04520,  -0.12113,  -0.03157,   0.00937,  -0.10578,  -0.03413,  -0.05972,   0.08870,   0.07079,   0.02217,  -0.05204,   0.00937,  -0.17998,   0.06823,  -0.03157,  -0.06739,   0.07846,   0.11685,   0.13220,  -0.01366,   0.00170,  -0.11601,   0.10917,  -0.04692,   0.04776,  -0.14928,   0.01705,  -0.00086,  -0.16207,   0.02217,   0.03496,   0.01705,  -0.01622,   0.05287,  -0.06995,  -0.04692,  -0.13392,   0.17058,  -0.06483,  -0.00854,  -0.06228,  -0.03669,   0.04520,   0.10661,   0.10917,  -0.08019,  -0.00342,  -0.08019,   0.02473,  -0.08275,   0.04520,   0.03752,  -0.10322,  -0.11089,   0.02984,   0.00426,  -0.02389,   0.12196,  -0.05204,  -0.15184,  -0.05716,  -0.07251,   0.10661,   0.02217,   0.10149,  -0.04180,  -0.02901,   0.14243,   0.11173,   0.02473,   0.01449,   0.07846,  -0.06739,   0.07079,   0.01705,   0.00170,  -0.08275,  -0.06483,  -0.00086,  -0.02901,  -0.03157,  -0.06483,   0.10661,   0.15011,  -0.04436,   0.08870,   0.14755,  -0.05716,   0.05287,  -0.07251,  -0.04180,  -0.04436,  -0.14160,  -0.03925,   0.04520,   0.06567,  -0.11345,   0.06055,   0.02984,  -0.03669,   0.03752,  -0.00086,  -0.01877,  -0.06483,  -0.22860,   0.04776,   0.02729,   0.06311,  -0.14160,  -0.05716,   0.00937,  -0.05204,  -0.05204,   0.00170,  -0.01877,  -0.02133
   0.01961,   0.07846,  -0.01110,  -0.02133,  -0.11345,  -0.03157,   0.06823,  -0.06995,  -0.06228,  -0.04692,  -0.09810,  -0.11601,   0.08102,  -0.15440,  -0.07251,  -0.12113,  -0.05460,   0.05543,  -0.14416,  -0.12881,  -0.05716,  -0.05716,  -0.00086,  -0.06483,  -0.17487,  -0.09554,  -0.03925,  -0.12625,   0.09637,   0.12708,  -0.01622,  -0.04948,   0.04008,  -0.05972,  -0.05460,   0.01705,  -0.17487,  -0.02901,   0.16802,  -0.00854,   0.02984,   0.06567,   0.07590,  -0.04948,   0.12196,  -0.05204,   0.01449,  -0.10066,  -0.13137,   0.01193,  -0.01622,  -0.05460,  -0.06483,  -0.05972,  -0.03669,  -0.06483,  -0.14928,  -0.15184,   0.04776,   0.08358,  -0.15184,  -0.02901,   0.14499,  -0.00598,  -0.04436,  -0.00854,  -0.16207,  -0.00342,   0.02729,  -0.10834,  -0.02645,  -0.11601,   0.05543,   0.08870,  -0.09554,   0.04008,  -0.08275,  -0.01366,  -0.03669,   0.02729,  -0.19534,   0.14243,  -0.07251,  -0.11345,  -0.10834,  -0.03925,  -0.07507,  -0.00086,   0.04776,   0.08102,   0.06311,   0.04264,   0.03496,  -0.09810,   0.14755,  -0.10834,   0.00937,  -0.09810,  -0.01877,   0.07334,  -0.04436,   0.03240,  -0.03925,   0.05543,  -0.14928,   0.12196,  -0.03157,  -0.07251,   0.01961,   0.07846,  -0.00598,  -0.18510,  -0.08531,   0.09893,  -0.08275,   0.05799,  -0.10834,  -0.01877,  -0.16207,  -0.13392,  -0.03157,   0.09382,  -0.17487,   0.19105,  -0.04692,   0.05543,  -0.03413,   0.02217,  -0.12881,  -0.11089,   0.04776,  -0.01877,   0.00426,  -0.16207,  -0.08786,  -0.10834,   0.17058,   0.00170,  -0.14160,   0.15267,  -0.18766,  -0.14160,  -0.05460,   0.10149,  -0.12625,  -0.13137,  -0.03925,  -0.13648,  -0.22860,   0.12708,   0.06055,  -0.07507,  -0.10834,  -0.10578,   0.04264,  -0.01366,  -0.05716,  -0.06739,  -0.07763,   0.06823,   0.19105,  -0.12881,   0.00426,   0.08614,  -0.15951,  -0.02645,   0.21664,  -0.00342,  -0.15184,  -0.02645,  -0.10066,  -0.14160,  -0.06739,  -0.10066,   0.03752,  -0.09042,   0.06567,  -0.13137,  -0.06228,  -0.00086,   0.00170,  -0.22604,  -0.11601,   0.02217,   0.09637,  -0.09554,  -0.17487,  -0.06228,   0.12452,  -0.04948,   0.06567,  -0.14416,  -0.01110,   0.11685,   0.02729,  -0.14928,   0.07846,   0.09382,   0.00170,  -0.07763,   0.11429,   0.12196,   0.12708,   0.00170,   0.00426,  -0.07507,   0.05032,  -0.09298,  -0.02133,  -0.10322,   0.05287,   0.03752,  -0.04436,  -0.09042,  -0.01366,  -0.00086,   0.13732,   0.01193,  -0.15951,  -0.07763,  -0.06483,   0.09126,   0.10661,  -0.05204,   0.10149,  -0.03157,  -0.09298,  -0.18766,   0.08614,   0.03240,   0.06823,  -0.03413,  -0.11857,  -0.01877,  -0.06739,  -0.00342,  -0.00342,  -0.04692,  -0.00342,  -0.11857,   0.08102,   0.02729,  -0.00598,   0.03240,  -0.08275,   0.00937,   0.17570,   0.06311,   0.00937,  -0.14160,   0.03240,   0.07846,  -0.02901,   0.05799,   0.06823,   0.00681
  -0.09810,   0.10405,   0.07079,   0.00937,  -0.12369,  -0.06739,   0.04264,   0.02729,  -0.12113,  -0.08531,  -0.13648,  -0.00854,  -0.14160,   0.02473,  -0.02645,  -0.13648,   0.09126,   0.01449,  -0.04180,  -0.04180,  -0.02133,  -0.05972,   0.03752,   0.00170,  -0.02645,  -0.01110,  -0.07507,  -0.25931,  -0.13392,  -0.03669,   0.09637,   0.06311,   0.02729,  -0.01366,   0.05032,   0.09637,  -0.03669,   0.03752,  -0.01366,  -0.02645,   0.10149,   0.13732,   0.09382,   0.00681,  -0.08275,  -0.04692,   0.01705,   0.00170,  -0.00086,  -0.02645,  -0.12369,  -0.06995,   0.09893,  -0.01877,   0.03496,   0.00681,  -0.04948,  -0.04692,  -0.12113,  -0.03413,   0.02984,   0.01449,   0.04520,   0.10405,  -0.14160,   0.05287,   0.05287,  -0.06483,  -0.15440,  -0.02901,   0.00937,   0.01961,  -0.05460,  -0.03669,  -0.03413,  -0.04948,  -0.00854,   0.01705,   0.04008,   0.03752,   0.09382,   0.10917,   0.00426,  -0.02389,  -0.04180,  -0.06228,  -0.12625,   0.10149,  -0.07251,   0.05287,  -0.03157,  -0.12881,  -0.05972,   0.04776,  -0.06228,   0.08870,  -0.06995,   0.16035,   0.07846,  -0.00598,  -0.07507,  -0.11857,  -0.15951,  -0.01877,   0.15267,  -0.04948,  -0.00342,   0.02473,  -0.03157,  -0.03925,   0.04520,   0.00937,   0.13476,   0.02729,  -0.06739,   0.11685,   0.06311,  -0.06739,  -0.07507,  -0.05972,  -0.00342,   0.15779,  -0.00342,   0.00937,  -0.01366,  -0.03157,  -0.08019,  -0.03669,   0.00426,   0.06055,  -0.12625,   0.13988,   0.17570,   0.07846,  -0.02389,   0.02729,  -0.05716,  -0.01877,   0.08870,   0.20385,  -0.04948,   0.04776,   0.06567,   0.04520,   0.06823,   0.09126,  -0.12625,  -0.10066,   0.00681,  -0.16207,  -0.01110,  -0.09298,  -0.05460,   0.06823,   0.09126,   0.15011,   0.02217,   0.15779,  -0.03669,  -0.00854,  -0.08275,   0.08358,  -0.09042,  -0.01110,   0.11173,  -0.06483,   0.09382,  -0.07507,  -0.00854,   0.05543,  -0.09298,  -0.05460,   0.01193,   0.09382,  -0.10322,   0.03752,  -0.01877,  -0.02645,   0.08614,   0.09893,  -0.08019,  -0.00598,   0.01705,   0.09382,  -0.16463,   0.04008,  -0.02133,  -0.01366,   0.09637,   0.15011,   0.19361,   0.09126,   0.04520,   0.01449,   0.01449,  -0.02389,   0.00937,   0.00170,   0.05287,   0.11685,   0.08614,  -0.03669,   0.11685,  -0.04436,  -0.02389,  -0.07763,  -0.03925,  -0.06739,   0.08102,  -0.08019,   0.10405,  -0.08275,   0.03752,  -0.11601,   0.17314,   0.09637,  -0.09298,  -0.00086,  -0.06739,   0.12964,  -0.03157,  -0.12625,  -0.03925,   0.04008,   0.05287,  -0.10834,   0.05287,   0.09637,  -0.04180,  -0.11857,  -0.00598,   0.06311,  -0.04180,   0.19873,   0.19361,  -0.01622,   0.06567,   0.05543,   0.05287,   0.12964,   0.10917,   0.08870,   0.01961,  -0.00854,   0.16035,  -0.01366,   0.06311,  -0.02901,   0.06055,  -0.04692,   0.09637,   0.01961,  -0.13137,   0.06311,  -0.04180,  -0.03413
  -0.04948,  -0.19022,  -0.11345,  -0.03925,  -0.01110,   0.02729,   0.01961,   0.06311,   0.01449,   0.11685,   0.00681,  -0.11857,   0.04264,  -0.01110,   0.04264,   0.09126,  -0.09298,   0.00170,   0.08358,  -0.00342,  -0.01877,  -0.02133,   0.06311,  -0.02133,  -0.10066,  -0.05972,   0.12452,  -0.00854,   0.08102,   0.00937,   0.06055,  -0.05204,  -0.12369,  -0.06995,   0.00937,  -0.05204,  -0.06995,  -0.19022,  -0.07251,  -0.07507,   0.03496,  -0.02133,  -0.05204,   0.01961,   0.17314,   0.08870,  -0.05716,  -0.04436,  -0.00854,  -0.00342,  -0.00598,  -0.12625,  -0.07251,  -0.04180,  -0.03157,  -0.06483,   0.10405,  -0.03413,  -0.03157,   0.26526,  -0.09810,  -0.20045,   0.04008,   0.05543,  -0.04180,  -0.01110,  -0.03157,  -0.05204,   0.03752,   0.08102,   0.08870,  -0.08275,  -0.00598,   0.05543,  -0.00342,   0.01193,   0.04264,   0.00426,  -0.09042,   0.12196,  -0.10834,  -0.07763,   0.02217,   0.01193,   0.00426,   0.06311,  -0.10834,  -0.00086,   0.03496,  -0.02645,   0.02984,   0.08614,  -0.09554,  -0.04692,   0.02984,   0.05543,  -0.00598,  -0.03413,  -0.07251,  -0.19278,   0.05799,   0.23711,  -0.00598,  -0.05716,   0.02729,  -0.09810,   0.03240,  -0.04180,   0.14243,   0.18082,   0.08614,   0.04520,   0.04520,  -0.11089,  -0.02389,  -0.02645,  -0.11601,   0.02984,   0.02217,  -0.04692,   0.06311,  -0.06228,   0.11940,  -0.00854,   0.05032,  -0.02645,   0.07590,   0.05287,  -0.03925,  -0.01877,  -0.00598,   0.00426,   0.02984,  -0.03413,  -0.00854,   0.03752,   0.12708,  -0.01622,  -0.00598,   0.23967,   0.07079,   0.12452,   0.08102,  -0.10834,  -0.03413,   0.05543,  -0.19534,   0.18338,   0.10405,   0.04264,  -0.10834,   0.01193,  -0.01110,  -0.03413,  -0.08531,   0.07334,  -0.02389,  -0.00598,  -0.04692,   0.00681,  -0.05460,  -0.15695,   0.10405,  -0.07763,  -0.00086,   0.04776,   0.02217,   0.10917,  -0.01622,   0.15267,   0.07334,  -0.01110,   0.07334,   0.07334,   0.05543,   0.01705,   0.12196,   0.14243,   0.03752,  -0.01877,  -0.04948,   0.07590,  -0.01622,   0.00426,   0.07846,  -0.00854,   0.06567,   0.11429,   0.02473,   0.01449,  -0.04948,   0.02473,  -0.04436,  -0.15695,  -0.09042,   0.05543,   0.24223,  -0.16975,  -0.05716,  -0.05204,  -0.12369,  -0.04948,  -0.10322,  -0.02901,  -0.10834,   0.04776,  -0.00854,   0.02473,  -0.05716,   0.02984,   0.01193,   0.11685,   0.16035,  -0.01110,   0.11685,  -0.03669,   0.02729,   0.10917,  -0.00854,   0.18338,  -0.06483,   0.06823,   0.07079,   0.13476,   0.08870,  -0.00854,  -0.09554,  -0.18254,  -0.16719,   0.08870,  -0.10322,  -0.06228,   0.01449,  -0.03413,   0.01449,   0.11685,  -0.00342,   0.05032,   0.04520,   0.14243,  -0.05204,  -0.06995,  -0.10066,  -0.10834,   0.10149,   0.13988,   0.12708,   0.11173,  -0.06483,  -0.00342,  -0.08531,  -0.18254,  -0.01877,  -0.01622,   0.08614,  -0.01622
  -0.03413,  -0.15184,   0.17826,   0.06823,   0.01961,   0.06567,  -0.06739,  -0.03669,  -0.07251,  -0.00342,   0.11429,  -0.01877,  -0.07507,   0.03240,  -0.18766,   0.11940,   0.04776,  -0.03157,  -0.02901,  -0.07763,   0.03496,  -0.04180,  -0.07507,   0.01193,   0.09637,   0.09893,   0.04520,   0.01193,   0.00170,  -0.04948,  -0.06228,   0.02473,  -0.02901,   0.04520,  -0.01110,  -0.00598,   0.06055,   0.07590,  -0.10578,   0.00170,   0.02217,   0.02984,  -0.06995,   0.00681,   0.06055,   0.05543,  -0.16719,  -0.10322,   0.00681,   0.00681,  -0.01877,  -0.02389,  -0.03413,   0.13476,   0.03496,   0.02984,   0.03496,  -0.14672,  -0.15184,   0.07846,  -0.10066,  -0.07763,   0.04776,   0.03240,   0.03752,   0.10405,   0.03496,  -0.02133,  -0.00854,   0.07590,  -0.05204,  -0.00598,  -0.00854,   0.07334,   0.05287,   0.10405,  -0.09810,   0.04776,  -0.04692,   0.00937,   0.16291,  -0.10322,   0.02729,  -0.02645,   0.03496,   0.09893,  -0.11089,   0.07334,  -0.04948,  -0.03157,  -0.15440,  -0.12625,   0.01193,   0.07846,   0.11429,  -0.02901,  -0.12881,  -0.05972,   0.04776,   0.03496,  -0.02645,  -0.01877,  -0.01622,   0.02217,  -0.07251,   0.07334,   0.09382,   0.11940,   0.02984,   0.07079,   0.02473,  -0.02901,  -0.01877,   0.07334,   0.00937,   0.16802,  -0.17742,  -0.03669,  -0.07763,  -0.03157,   0.12708,  -0.03669,   0.01449,   0.06055,   0.00426,   0.13988,  -0.01877,  -0.01366,   0.00426,   0.04264,  -0.04180,   0.08102,  -0.06483,  -0.02645,  -0.06228,   0.02984,  -0.04948,   0.05543,  -0.08531,   0.06567,   0.00937,  -0.00086,   0.08358,  -0.00086,   0.05032,  -0.04436,  -0.10834,   0.09126,  -0.12113,  -0.00854,   0.05543,   0.04520,  -0.13392,  -0.01877,   0.12964,  -0.00086,  -0.06228,   0.01961,  -0.03925,   0.11685,  -0.12369,   0.04776,  -0.09042,   0.05543,   0.16802,  -0.05972,   0.03752,  -0.05972,  -0.12113,  -0.03413,   0.02217,   0.11173,  -0.05972,   0.21152,  -0.00086,   0.12964,   0.00170,   0.01961,  -0.14672,  -0.03413,   0.00170,  -0.01110,   0.04264,  -0.00598,  -0.10834,   0.02984,   0.13732,   0.04776,  -0.02389,   0.03240,  -0.13904,  -0.05716,  -0.01366,   0.07846,   0.01705,   0.08358,   0.05032,   0.08870,  -0.15440,  -0.16207,   0.08870,  -0.09554,   0.00937,  -0.16207,   0.02217,  -0.04948,  -0.02901,  -0.02901,   0.08102,  -0.12369,   0.08102,  -0.00342,  -0.19534,   0.00681,   0.05543,  -0.11857,   0.01449,  -0.05972,  -0.09298,   0.00426,  -0.00086,   0.08102,   0.15267,   0.06311,  -0.03669,   0.10405,  -0.06228,  -0.19022,   0.00170,  -0.03669,  -0.16463,  -0.00342,   0.04008,   0.01705,   0.06823,   0.16291,  -0.03413,   0.06567,   0.07846,  -0.00598,  -0.02133,  -0.08275,  -0.13904,  -0.01366,  -0.02901,   0.02217,  -0.07763,   0.06567,   0.05032,   0.01193,   0.10661,  -0.16207,  -0.02645,  -0.18510,   0.10661,  -0.04436
   0.15779,  -0.03157,  -0.09810,  -0.16463,   0.02729,  -0.12625,  -0.01622,  -0.03413,   0.08102,  -0.06483,  -0.05972,  -0.10322,  -0.03669,  -0.13904,   0.00426,  -0.07251,  -0.05204,  -0.09042,   0.05543,  -0.13392,  -0.08786,  -0.11857,   0.08614,  -0.09298,   0.05287,  -0.05716,   0.06823,  -0.11089,   0.09893,  -0.01622,  -0.00598,  -0.00086,  -0.07251,  -0.05972,  -0.16975,  -0.03413,  -0.13137,   0.03240,   0.12708,  -0.12369,   0.02729,  -0.04436,  -0.15440,  -0.18510,  -0.00086,   0.05799,   0.05543,   0.06311,   0.17058,  -0.01622,  -0.00854,  -0.04692,  -0.13137,  -0.08019,  -0.13137,  -0.02389,  -0.00342,  -0.00342,   0.09382,   0.10661,  -0.05204,  -0.02133,   0.01705,   0.04008,  -0.11857,   0.06055,   0.06311,   0.07079,   0.11173,  -0.02133,  -0.14928,  -0.05460,   0.03240,  -0.10066,  -0.05204,   0.10405,  -0.03157,  -0.11089,   0.23711,  -0.04180,  -0.12369,  -0.02389,  -0.00342,  -0.00342,  -0.06739,   0.05543,   0.06055,  -0.08786,   0.06567,  -0.16719,   0.02984,  -0.09810,   0.15267,   0.09893,   0.09893,   0.12708,   0.10149,  -0.05204,  -0.03925,   0.00170,   0.04008,  -0.04692,   0.11173,  -0.10322,  -0.00854,   0.10917,  -0.09042,  -0.15184,   0.11685,   0.20897,  -0.12113,  -0.11601,  -0.06228,   0.08102,   0.07590,   0.09893,  -0.08786,  -0.09554,  -0.00086,  -0.05972,  -0.16207,  -0.10578,  -0.17231,   0.06311,  -0.03413,  -0.13137,   0.06055,   0.13988,  -0.06483,   0.05543,  -0.02901,   0.18338,   0.10661,  -0.02645,  -0.05460,  -0.02901,  -0.04692,   0.05032,  -0.12881,  -0.14416,  -0.17231,  -0.08786,  -0.22860,  -0.06228,  -0.20045,  -0.18254,  -0.05204,  -0.06228,  -0.12369,   0.03752,   0.17826,   0.04776,   0.08614,  -0.04692,   0.03240,  -0.21069,   0.12196,   0.03240,  -0.07251,   0.10149,   0.07590,  -0.18254,  -0.12625,   0.10661,   0.02473,  -0.05972,  -0.04948,  -0.02133,  -0.06228,  -0.07251,  -0.08786,  -0.15184,  -0.10322,   0.05799,   0.07079,  -0.00854,  -0.05204,   0.13988,  -0.20301,  -0.01110,   0.01193,  -0.00342,  -0.06228,  -0.14416,   0.08358,  -0.02645,   0.03240,  -0.05204,  -0.08019,   0.08358,   0.13220,  -0.11857,  -0.12881,   0.06311,   0.06823,   0.12964,  -0.02133,   0.15011,   0.04520,  -0.01877,  -0.00086,  -0.00598,   0.09382,  -0.05716,  -0.14928,  -0.06228,   0.17314,  -0.00086,   0.15523,   0.04264,   0.05543,   0.10405,  -0.09554,   0.00426,   0.08870,  -0.01622,  -0.09298,   0.06055,   0.01449,   0.00681,  -0.09042,   0.10149,   0.16035,   0.04008,   0.11685,  -0.08531,  -0.02133,   0.02729,   0.03752,  -0.08275,  -0.03157,   0.06311,  -0.12369,   0.16035,  -0.01877,  -0.11089,  -0.13648,  -0.04948,   0.01193,   0.00681,  -0.03413,  -0.07251,  -0.00086,  -0.02389,  -0.08019,  -0.13648,   0.00681,   0.07079,  -0.07763,  -0.10578,   0.13476,  -0.03413,   0.08358,  -0.11345,   0.02729,  -0.07251
  -0.03157,  -0.16975,  -0.00342,  -0.03157,   0.01449,  -0.00854,  -0.05972,  -0.04692,   0.02473,   0.02473,  -0.11857,  -0.07507,  -0.00342,  -0.11857,  -0.05460,   0.07590,  -0.09810,  -0.03413,  -0.02901,  -0.01622,  -0.06228,  -0.07251,   0.02984,   0.00170,  -0.02133,  -0.06228,  -0.01110,  -0.07763,   0.02984,   0.06823,   0.09637,  -0.02389,   0.11940,   0.00681,  -0.07507,  -0.06483,  -0.06483,  -0.08275,   0.00681,  -0.20045,  -0.05460,  -0.09810,  -0.07507,  -0.06739,   0.02217,   0.03752,   0.11685,  -0.00086,  -0.00854,  -0.08275,  -0.00854,   0.10917,  -0.05204,  -0.06995,  -0.04180,  -0.05460,   0.00170,  -0.16719,   0.19361,  -0.01366,   0.02217,  -0.00342,   0.04264,   0.06311,  -0.11857,  -0.02901,  -0.02645,   0.16802,  -0.13392,  -0.03669,  -0.02645,  -0.04180,   0.10917,  -0.07251,  -0.09298,  -0.06995,   0.11173,   0.06823,  -0.11857,   0.02984,  -0.11601,  -0.00342,  -0.14416,  -0.08531,  -0.16463,   0.00681,  -0.15440,   0.06055,  -0.02389,  -0.17998,   0.03752,   0.12452,  -0.09042,   0.01449,   0.29085,  -0.01366,   0.08614,  -0.04180,   0.05287,   0.08358,   0.06311,  -0.11601,   0.01449,   0.03240,  -0.03669,  -0.03413,   0.04520,  -0.03413,   0.05287,   0.00170,   0.11429,  -0.00342,  -0.16207,   0.05799,  -0.05204,  -0.12369,  -0.06228,   0.10661,  -0.06739,  -0.06739,  -0.05716,  -0.02133,  -0.00854,   0.05543,  -0.01877,  -0.10834,  -0.04180,  -0.12625,   0.10917,  -0.05716,  -0.05972,   0.03752,  -0.11089,   0.00681,  -0.03925,  -0.00086,   0.03752,   0.06311,  -0.15951,   0.04776,  -0.06739,  -0.05972,  -0.14672,  -0.12881,  -0.03157,  -0.25931,   0.06055,  -0.11345,   0.06055,  -0.00342,  -0.04180,   0.02984,  -0.13648,  -0.08786,   0.08358,  -0.01877,  -0.14672,  -0.04692,  -0.11601,  -0.12369,  -0.01110,   0.07590,  -0.13648,   0.02473,  -0.08019,  -0.06995,   0.08102,  -0.09042,   0.06055,   0.02984,   0.18594,   0.01705,  -0.06739,   0.03496,   0.04008,   0.08102,  -0.00342,  -0.09042,   0.05543,   0.04008,   0.09893,   0.12196,  -0.05460,  -0.08019,   0.09893,  -0.06483,  -0.15440,  -0.04692,   0.09126,   0.10405,  -0.04180,  -0.10834,   0.05032,  -0.03669,  -0.01877,   0.03496,   0.05032,  -0.10322,  -0.01366,  -0.00598,   0.08358,   0.01705,   0.03752,  -0.04692,  -0.01622,  -0.03925,  -0.03157,   0.05799,   0.11173,  -0.02389,   0.04520,  -0.02133,   0.10917,  -0.13648,  -0.14672,  -0.01877,   0.00170,   0.09637,  -0.02645,  -0.19022,   0.00937,  -0.00342,  -0.05204,   0.02729,  -0.10578,   0.12452,   0.07590,  -0.04692,  -0.17487,  -0.01877,  -0.11857,  -0.04180,  -0.15695,  -0.02645,   0.01449,   0.12708,  -0.04692,  -0.01110,   0.11685,  -0.03157,   0.07846,   0.18594,  -0.04692,   0.16291,  -0.09042,  -0.10834,   0.10405,  -0.04180,  -0.11089,  -0.17231,   0.04008,  -0.08531,   0.06567,  -0.09810,  -0.10578,  -0.22860
  -0.01877,  -0.00342,   0.12708,  -0.00342,   0.07334,  -0.06228,   0.05032,  -0.01366,  -0.04180,  -0.05460,   0.04520,  -0.12625,  -0.04692,  -0.01366,   0.21408,  -0.12625,  -0.08786,  -0.03157,   0.02984,  -0.26954,  -0.05972,   0.00170,   0.10661,   0.09893,  -0.07507,  -0.03669,  -0.00086,  -0.14160,   0.02473,  -0.13904,  -0.00342,  -0.09810,  -0.16975,   0.10149,  -0.08275,   0.03496,  -0.05460,  -0.11089,   0.06311,  -0.08786,  -0.03157,  -0.07763,   0.07590,  -0.02389,  -0.01366,   0.09382,   0.07846,  -0.04948,   0.07590,  -0.09810,  -0.06739,   0.16802,   0.13220,  -0.03669,   0.05799,   0.06055,   0.09893,  -0.00598,   0.20129,   0.20641,  -0.05972,   0.08870,   0.00681,   0.00170,  -0.07763,  -0.05204,  -0.03669,   0.06055,   0.04008,  -0.11601,  -0.07507,  -0.02133,  -0.00598,   0.01705,   0.03496,   0.15779,  -0.02901,  -0.08531,   0.10917,  -0.15695,   0.13220,   0.03752,  -0.01110,  -0.00342,  -0.08531,  -0.08531,   0.05287,  -0.11601,   0.10917,  -0.09042,  -0.10322,   0.01961,  -0.01110,  -0.03413,  -0.04948,   0.02729,   0.02217,  -0.03669,  -0.15951,   0.01193,  -0.10066,   0.03496,  -0.21325,   0.15779,  -0.04948,  -0.06228,   0.07846,   0.01193,   0.11940,   0.19361,  -0.05716,   0.10149,  -0.15184,   0.08358,  -0.04436,  -0.05716,   0.03752,  -0.13648,   0.00681,   0.23455,  -0.00342,  -0.06739,  -0.04948,   0.18338,   0.00681,  -0.06739,   0.23711,  -0.01877,   0.04520,  -0.04436,   0.02217,   0.14243,   0.17826,   0.05543,  -0.01877,  -0.05460,  -0.02901,   0.11173,   0.00937,  -0.16719,  -0.01877,  -0.01622,  -0.16207,   0.21920,  -0.17487,  -0.05972,  -0.00598,   0.01705,   0.11173,  -0.01622,  -0.07251,  -0.03669,  -0.06228,  -0.10578,  -0.04692,  -0.12881,   0.02217,  -0.02133,  -0.02901,  -0.24651,   0.01705,  -0.16719,  -0.06228,  -0.06739,  -0.23884,  -0.11601,  -0.05972,   0.07334,  -0.17487,   0.02984,  -0.21069,  -0.01366,   0.02729,  -0.03157,   0.01193,  -0.01877,   0.11173,  -0.19278,  -0.03157,  -0.02133,   0.00170,   0.05543,  -0.06483,  -0.09810,   0.14243,   0.02729,  -0.08531,   0.17314,   0.07590,  -0.02389,  -0.10066,   0.07334,  -0.05716,   0.05799,   0.17570,   0.09893,   0.09126,   0.07846,   0.07334,   0.04776,  -0.13904,   0.09382,  -0.12881,   0.09382,   0.00937,   0.06823,  -0.14416,   0.05032,   0.03240,   0.05799,   0.06311,  -0.00342,   0.03496,   0.04264,   0.07334,   0.02217,   0.04520,   0.03752,  -0.12625,  -0.08019,  -0.05716,   0.06567,  -0.08019,   0.05287,  -0.03669,  -0.01622,  -0.04436,   0.01449,  -0.04692,  -0.17487,  -0.05460,  -0.11601,   0.01449,  -0.11089,   0.05543,  -0.01877,   0.00426,  -0.08275,   0.03752,  -0.23116,   0.00681,  -0.03669,  -0.23628,  -0.00598,  -0.00598,  -0.06483,   0.12196,  -0.04180,  -0.05972,  -0.02645,   0.08102,   0.08614,  -0.05972,  -0.16719,   0.15523,  -0.16719
   0.06567,   0.04520,   0.02729,  -0.12113,  -0.03669,  -0.03413,  -0.08786,   0.23455,   0.06823,   0.01449,   0.16291,   0.01705,  -0.06995,  -0.04180,   0.01449,   0.04776,   0.05799,  -0.08531,  -0.03157,  -0.02645,   0.00937,   0.08102,  -0.11089,  -0.00598,   0.05799,  -0.00342,   0.05799,   0.00170,   0.00681,  -0.00342,   0.07334,  -0.01110,  -0.04692,  -0.00342,  -0.06483,   0.01193,  -0.07251,   0.11940,  -0.00854,   0.01705,  -0.13904,   0.22432,  -0.05204,  -0.02901,  -0.16975,  -0.08786,   0.03240,   0.11940,   0.01449,   0.08102,  -0.03413,  -0.06483,   0.04520,   0.06055,  -0.04948,  -0.01110,  -0.05204,  -0.01366,  -0.00598,  -0.07507,  -0.07763,  -0.01366,  -0.05460,   0.19873,  -0.03669,  -0.06995,  -0.02389,  -0.00598,   0.07590,  -0.15440,  -0.04436,   0.09382,   0.02473,  -0.04436,  -0.02645,   0.11429,  -0.11857,   0.04264,   0.12964,   0.01449,  -0.08019,  -0.13137,   0.07334,   0.14499,  -0.08531,  -0.04948,  -0.12625,   0.08358,   0.00426,  -0.11601,  -0.14416,  -0.06228,  -0.01110,   0.12452,   0.00681,   0.02217,  -0.15184,  -0.01877,  -0.01110,  -0.04180,  -0.07251,  -0.00342,   0.00937,  -0.05204,  -0.05460,  -0.03413,  -0.04180,  -0.10834,   0.05543,   0.05799,  -0.03669,   0.06567,  -0.14928,   0.03496,  -0.03413,   0.11940,   0.09893,   0.06567,   0.18338,  -0.02645,  -0.02133,  -0.06995,  -0.00854,   0.04008,   0.10405,   0.04520,   0.00937,  -0.10834,   0.06567,   0.01705,  -0.12881,   0.10917,   0.02729,   0.05287,   0.05543,  -0.00598,  -0.06739,  -0.06483,   0.06567,   0.06823,  -0.11601,  -0.01110,  -0.02901,   0.01193,   0.06055,  -0.04692,   0.13476,   0.03752,  -0.06228,   0.18082,  -0.01877,  -0.09554,  -0.02389,  -0.01622,   0.02473,  -0.00854,   0.00426,  -0.06739,   0.02217,   0.04264,  -0.10578,   0.15779,   0.00681,   0.04008,  -0.01877,   0.04520,  -0.05460,   0.03496,  -0.08786,   0.18594,  -0.08275,  -0.00598,   0.04776,  -0.10834,   0.06055,  -0.15695,  -0.03157,  -0.05204,  -0.01877,  -0.00854,  -0.03669,   0.01449,  -0.08786,   0.17826,   0.01705,  -0.19278,  -0.02389,   0.08358,  -0.03157,   0.00681,   0.00426,  -0.02645,  -0.01110,   0.20129,   0.10661,  -0.11089,   0.09637,  -0.13137,   0.01449,   0.04520,   0.02984,   0.00937,   0.07079,   0.08102,   0.10917,   0.01961,   0.00426,  -0.04948,  -0.00086,   0.05287,   0.10149,  -0.01622,   0.07846,   0.03752,   0.14499,  -0.10066,   0.10917,   0.03752,  -0.15440,  -0.13392,  -0.05460,  -0.02645,   0.01961,   0.03752,  -0.02133,   0.08870,  -0.09554,  -0.18254,   0.04008,  -0.03925,  -0.08531,   0.00681,  -0.07251,  -0.05716,   0.09382,   0.08358,   0.10149,  -0.01877,   0.05032,   0.01193,   0.08870,   0.07079,  -0.05972,  -0.01110,   0.12964,  -0.05204,  -0.03925,  -0.03925,   0.11940,  -0.11857,   0.07846,  -0.06739,  -0.07507,  -0.10834,   0.00170,   0.14499
   0.11173,   0.06311,  -0.14416,  -0.04436,  -0.10578,   0.04008,  -0.23884,  -0.02901,  -0.14416,   0.11685,  -0.01622,   0.03240,   0.06567,   0.09126,  -0.07507,   0.11429,  -0.06739,  -0.11345,  -0.03413,  -0.05972,  -0.13137,   0.05287,   0.07334,  -0.09554,  -0.07251,  -0.07763,  -0.12625,  -0.02901,  -0.12625,   0.02217,  -0.14416,  -0.09298,   0.00170,  -0.02389,  -0.08531,   0.11173,  -0.01110,  -0.15951,  -0.03925,  -0.04436,  -0.08786,   0.00170,   0.03240,  -0.12113,   0.09637,   0.01193,   0.11429,  -0.16463,  -0.00086,  -0.08786,  -0.09810,   0.03752,  -0.01622,   0.03496,  -0.07507,  -0.09810,  -0.15184,  -0.03413,   0.13476,  -0.12625,   0.12708,   0.17826,   0.05799,  -0.00342,   0.02473,  -0.04180,   0.00170,   0.08870,  -0.11345,  -0.05204,  -0.05972,   0.00426,  -0.07251,  -0.07251,  -0.08531,   0.07079,   0.09126,   0.09893,  -0.22093,   0.02984,  -0.08019,  -0.14928,  -0.01366,  -0.13648,  -0.01366,   0.19617,  -0.09554,   0.06823,  -0.09298,  -0.02389,   0.04776,   0.02217,   0.16546,  -0.09810,   0.00681,  -0.04436,   0.27550,  -0.01622,  -0.06739,   0.11685,  -0.09554,  -0.04180,  -0.01877,   0.12196,   0.02217,  -0.04692,  -0.13392,  -0.06995,   0.01961,   0.04008,   0.10661,  -0.17231,  -0.06228,   0.01961,   0.17570,  -0.12369,  -0.02645,   0.05543,  -0.09810,   0.07079,  -0.03157,  -0.15440,   0.00937,  -0.08019,  -0.03669,  -0.03669,   0.14243,   0.11429,   0.02217,   0.08102,  -0.00086,   0.06823,   0.00937,  -0.16975,  -0.15440,   0.16291,   0.02984,  -0.12625,   0.01961,   0.00170,  -0.10834,  -0.00342,  -0.00854,  -0.10834,  -0.08275,  -0.00598,  -0.10834,  -0.23628,  -0.03157,  -0.01622,   0.06311,  -0.11089,   0.02984,  -0.13137,   0.01961,  -0.10066,  -0.08786,  -0.10834,  -0.02901,   0.05287,   0.04776,   0.01961,   0.06055,   0.13988,  -0.07763,  -0.04180,   0.04264,   0.10661,  -0.00854,  -0.06483,  -0.01366,   0.06823,   0.05543,  -0.00598,   0.09382,  -0.08786,   0.00426,  -0.03669,  -0.15184,   0.03496,  -0.01622,  -0.21069,  -0.00854,  -0.09554,  -0.05972,   0.00170,  -0.06739,  -0.10578,   0.04264,   0.14499,   0.02217,   0.01449,  -0.15695,  -0.01110,   0.14499,   0.03496,  -0.00342,   0.00170,   0.00426,  -0.18254,   0.04264,   0.02729,   0.09382,   0.05799,   0.02217,  -0.01366,   0.00937,   0.01193,   0.08870,   0.04520,  -0.14416,  -0.00598,  -0.07251,  -0.23116,   0.08614,   0.04008,   0.03240,   0.15523,  -0.10578,  -0.06739,  -0.12369,   0.02984,   0.15523,   0.12708,   0.06823,  -0.02645,  -0.05460,  -0.15184,   0.09893,  -0.11857,   0.04776,  -0.02133,  -0.07251,   0.09637,  -0.05716,   0.08614,  -0.00342,  -0.02645,   0.02729,  -0.11857,   0.10149,  -0.00598,   0.03240,  -0.03925,   0.05287,  -0.10322,   0.01193,   0.00681,  -0.14160,   0.01193,   0.09126,  -0.00342,   0.00937,  -0.12113,   0.18594,   0.11429
   0.10917,   0.05799,   0.04264,  -0.01877,  -0.01622,   0.10405,   0.02984,  -0.10066,   0.09126,  -0.26187,  -0.02389,  -0.01622,  -0.07251,   0.01449,  -0.05972,  -0.04692,   0.09637,  -0.05204,   0.03752,  -0.04436,   0.04264,  -0.05460,  -0.11857,  -0.10322,   0.04776,   0.06055,  -0.07763,   0.00170,  -0.10578,   0.01705,  -0.17742,  -0.18254,   0.04264,   0.09126,   0.08614,  -0.11601,  -0.14160,  -0.03157,  -0.12369,   0.00937,  -0.10834,   0.01961,   0.02729,   0.02729,   0.01449,  -0.02133,  -0.05204,  -0.03669,  -0.11345,   0.01449,   0.03240,  -0.04180,   0.01193,  -0.03413,   0.01705,   0.03240,   0.04776,   0.00681,  -0.07763,  -0.07507,   0.01705,   0.01705,  -0.09298,   0.09893,  -0.03925,  -0.01622,   0.17314,   0.00937,   0.01193,  -0.10066,  -0.10834,   0.04264,   0.09126,   0.05543,  -0.04436,  -0.08275,   0.00937,   0.00937,   0.11685,  -0.04948,  -0.06483,  -0.08019,   0.06567,  -0.04948,   0.01449,  -0.08275,  -0.09298,   0.00937,  -0.12881,   0.10405,  -0.11089,  -0.15695,   0.01961,  -0.00342,   0.13220,   0.07846,   0.05032,   0.07590,  -0.03413,   0.12708,  -0.12625,  -0.04436,  -0.03157,   0.03496,   0.00937,   0.00426,  -0.06483,   0.05287,   0.06055,  -0.10834,  -0.08531,  -0.02389,   0.11940,  -0.01366,   0.10149,   0.05799,   0.14755,   0.05543,  -0.00086,  -0.01110,   0.01449,   0.06567,  -0.25163,  -0.02389,   0.11173,  -0.12113,  -0.10322,   0.04264,  -0.07251,  -0.10834,   0.08102,  -0.10834,   0.15267,  -0.01622,   0.10405,   0.01193,   0.06311,   0.09893,   0.10661,   0.00426,   0.02473,  -0.06995,  -0.09298,  -0.00342,   0.08358,   0.04520,   0.11173,   0.01705,   0.02473,   0.10917,   0.16035,  -0.01622,   0.09893,  -0.09298,  -0.08019,   0.08870,  -0.02645,   0.03496,  -0.05716,  -0.03925,  -0.15440,  -0.02901,  -0.05716,   0.05799,   0.08614,  -0.01622,  -0.14672,   0.08614,   0.07846,   0.00937,   0.11173,   0.02729,   0.04008,   0.00937,   0.04776,   0.08870,  -0.19790,   0.01961,  -0.10322,  -0.11345,  -0.07507,  -0.04180,   0.00426,   0.11940,   0.03752,  -0.12625,   0.11173,   0.12452,   0.12452,  -0.12625,   0.06311,   0.04520,   0.05799,  -0.03413,  -0.09042,  -0.08531,   0.01961,   0.09893,  -0.10066,   0.04008,   0.02729,   0.05543,  -0.02389,  -0.00086,  -0.10066,  -0.02901,  -0.12113,  -0.13392,   0.05032,   0.01193,  -0.00342,  -0.00854,  -0.00342,  -0.05204,   0.10149,   0.00426,  -0.01622,   0.00937,  -0.09298,  -0.02389,  -0.05204,   0.05543,  -0.12881,   0.05543,  -0.07763,   0.08102,  -0.04948,   0.08358,  -0.01622,  -0.02389,  -0.06228,  -0.08531,  -0.01110,   0.01449,   0.12708,   0.11173,   0.09637,   0.05287,   0.09893,   0.05032,   0.07079,  -0.01877,   0.01705,  -0.03157,   0.02217,  -0.07251,   0.01193,   0.10917,   0.09382,   0.12452,  -0.06483,   0.12452,  -0.10578,  -0.00854,   0.08614,   0.16802
  -0.01110,  -0.01877,   0.09382,   0.14499,  -0.05460,  -0.04436,  -0.04436,  -0.16463,  -0.03925,   0.13988,   0.01705,  -0.04948,   0.03496,   0.12452,  -0.03413,   0.02217,  -0.02901,  -0.16719,  -0.03669,   0.06567,   0.00426,  -0.19790,  -0.14160,  -0.09554,  -0.07251,  -0.09554,  -0.03925,   0.10405,  -0.04436,  -0.02645,  -0.05204,  -0.14416,   0.10917,  -0.06739,   0.05032,   0.06567,  -0.00854,  -0.08531,   0.08870,   0.10661,   0.01705,  -0.12625,  -0.08786,  -0.06995,  -0.00854,  -0.11345,  -0.01110,   0.03752,  -0.03669,  -0.02901,  -0.15951,  -0.05972,   0.08358,  -0.06739,  -0.28234,  -0.14160,  -0.09554,  -0.08531,  -0.04692,   0.11173,  -0.07763,   0.00170,  -0.03413,  -0.18254,  -0.05204,  -0.12625,  -0.02901,   0.05032,   0.06055,   0.02473,  -0.02389,   0.01193,   0.10405,  -0.17231,  -0.04948,  -0.11089,   0.00170,  -0.08786,   0.16291,  -0.05204,   0.08358,   0.14499,  -0.12881,  -0.20813,   0.02984,   0.07079,  -0.10322,   0.01705,   0.17058,   0.04776,  -0.03157,   0.01193,   0.02217,  -0.11345,  -0.05716,  -0.05460,  -0.00854,   0.03496,  -0.09554,   0.00937,  -0.08531,   0.02217,  -0.02389,  -0.03669,  -0.01622,  -0.05716,   0.03752,  -0.06483,   0.15523,  -0.01110,  -0.02133,   0.06823,  -0.08786,   0.04264,  -0.15951,   0.03496,  -0.08786,  -0.22348,   0.08870,  -0.08531,   0.06311,  -0.07763,  -0.06483,   0.02473,  -0.10578,   0.02217,   0.04008,   0.15267,   0.06311,  -0.01622,  -0.02133,  -0.08786,  -0.00342,  -0.14672,  -0.14416,   0.10405,   0.08614,  -0.12625,   0.03752,   0.01449,  -0.00086,  -0.01877,  -0.11857,   0.06823,  -0.16207,  -0.03925,  -0.02389,  -0.08019,  -0.09298,   0.07079,   0.08102,   0.09893,   0.05287,   0.01193,   0.06311,   0.04520,  -0.02133,   0.01193,  -0.01877,   0.01449,  -0.07251,  -0.05460,   0.01193,   0.06311,  -0.08531,  -0.05460,   0.09382,   0.02473,  -0.04692,  -0.05716,  -0.15695,  -0.03669,  -0.12625,   0.07846,   0.02984,  -0.03157,  -0.12625,   0.02729,  -0.20813,   0.10661,  -0.00854,   0.11685,  -0.05460,   0.04264,   0.15779,  -0.27722,   0.04264,  -0.06739,  -0.00342,  -0.09042,  -0.06995,  -0.02645,  -0.08275,   0.05799,   0.04776,  -0.19790,   0.17058,   0.06823,  -0.12625,   0.08614,   0.11429,  -0.19534,  -0.00598,  -0.14416,  -0.12369,  -0.13137,  -0.01877,  -0.05460,  -0.08019,  -0.01877,  -0.11857,  -0.03669,  -0.14928,  -0.03157,  -0.03413,  -0.06739,   0.05287,   0.01193,  -0.09298,  -0.06228,  -0.13137,  -0.01366,   0.00937,  -0.01366,  -0.18510,   0.04520,  -0.03413,  -0.12113,  -0.03669,   0.02729,   0.06823,  -0.06995,   0.14243,  -0.02389,   0.05543,   0.01193,  -0.01110,   0.01705,   0.05799,  -0.12625,  -0.14928,  -0.08019,   0.14499,   0.02729,  -0.12625,  -0.04180,   0.06567,  -0.22860,   0.06311,  -0.02901,  -0.09042,   0.08870,   0.10149,   0.00170,  -0.05204,  -0.08019
  -0.04948,  -0.01877,  -0.10834,  -0.02645,   0.07846,   0.05032,   0.10149,  -0.03413,  -0.02645,  -0.09554,   0.04776,  -0.11345,  -0.08786,   0.02217,   0.11685,  -0.16975,  -0.05204,   0.04008,  -0.06995,   0.02217,   0.06823,  -0.10322,   0.02473,  -0.03157,   0.03240,   0.02473,   0.11685,  -0.05716,   0.03496,  -0.04948,   0.12708,  -0.00854,  -0.03669,  -0.04436,  -0.05204,  -0.05460,  -0.05204,  -0.01622,  -0.02389,   0.08102,  -0.14928,  -0.06739,   0.07846,  -0.07763,  -0.11857,   0.06311,  -0.03157,   0.09637,  -0.05972,  -0.00086,   0.08102,  -0.28234,   0.03752,  -0.06995,  -0.03925,  -0.08019,   0.01449,   0.02984,  -0.09554,  -0.04692,  -0.10066,  -0.04180,  -0.17231,   0.03496,  -0.05972,  -0.08019,   0.04008,  -0.06228,  -0.19534,   0.07334,  -0.03157,  -0.05204,  -0.10834,   0.09382,  -0.01877,   0.02473,  -0.02389,   0.16035,   0.06823,  -0.05972,   0.02473,   0.07590,  -0.09810,   0.02473,   0.14755,  -0.16719,  -0.15695,  -0.20045,   0.04008,   0.00937,   0.01961,   0.10405,   0.06055,  -0.05460,   0.14499,  -0.02133,  -0.02133,  -0.05460,   0.16291,  -0.16207,   0.01449,  -0.02645,   0.10917,   0.21152,  -0.08275,  -0.04692,  -0.11601,  -0.15695,  -0.03413,   0.11940,  -0.05972,   0.13476,   0.11940,  -0.08786,   0.01705,  -0.08019,   0.08102,  -0.03413,  -0.09298,  -0.10066,   0.23967,   0.04776,  -0.05972,   0.04776,   0.07590,   0.07846,   0.05799,   0.08358,   0.06055,  -0.05972,   0.21152,  -0.03157,   0.09382,  -0.13137,  -0.04948,   0.12196,  -0.04180,   0.13476,   0.13732,   0.05799,   0.05799,  -0.03157,   0.09637,   0.13988,  -0.06483,   0.01193,   0.04264,   0.00937,   0.12708,   0.04776,  -0.17231,   0.03240,   0.00170,  -0.11089,  -0.11857,   0.04008,   0.03496,  -0.02389,  -0.05716,  -0.04180,  -0.02645,   0.08614,  -0.00086,  -0.02389,   0.02984,  -0.15695,   0.09126,  -0.04948,   0.00937,   0.09382,  -0.05460,  -0.04948,   0.04264,  -0.01877,   0.09382,   0.02217,   0.17570,  -0.01366,  -0.01110,  -0.04436,   0.24735,  -0.04180,   0.04776,  -0.09298,   0.05287,  -0.06995,  -0.05460,  -0.02133,  -0.05460,  -0.21581,   0.23967,  -0.02645,   0.00426,   0.10661,   0.00426,   0.11940,   0.13476,   0.11429,  -0.11345,   0.07334,   0.06055,  -0.14160,  -0.08019,   0.13220,   0.07334,  -0.08786,  -0.09554,  -0.03157,   0.11685,   0.03752,   0.13476,   0.09637,  -0.08275,  -0.15951,  -0.00086,  -0.00086,   0.00937,   0.13732,   0.12452,  -0.19790,  -0.17231,   0.07334,  -0.25163,  -0.12369,  -0.09810,  -0.07251,  -0.12881,  -0.00854,  -0.05204,   0.21664,   0.06311,  -0.02901,   0.01961,  -0.08531,  -0.19278,   0.15011,  -0.13137,  -0.14928,  -0.03925,   0.02217,  -0.08531,   0.01449,   0.18338,   0.05543,   0.11685,  -0.11089,  -0.08786,  -0.15695,   0.02473,   0.00937,  -0.12625,   0.01193,  -0.08275,   0.02473,  -0.09042,   0.08870
   0.05287,   0.00681,   0.09126,  -0.03925,   0.06567,   0.05287,  -0.08786,   0.05543,   0.04008,   0.08102,  -0.07507,   0.18849,   0.08358,   0.31900,  -0.08531,   0.02473,  -0.04692,   0.08614,  -0.11857,  -0.09042,  -0.04436,   0.19105,   0.07079,  -0.09298,  -0.03413,   0.04008,   0.02984,  -0.03669,   0.10917,   0.10917,   0.08358,  -0.06228,  -0.12113,   0.02984,   0.02729,   0.09382,  -0.09042,  -0.03413,   0.07079,   0.04776,  -0.03413,   0.06055,  -0.13648,  -0.04692,  -0.01366,  -0.11089,   0.03240,  -0.05972,   0.03752,   0.04008,   0.03752,  -0.01110,  -0.01622,  -0.10322,  -0.03413,  -0.06483,   0.04520,   0.13220,   0.13476,   0.07334,   0.08358,  -0.02133,   0.01705,  -0.03157,   0.03752,   0.06567,   0.05799,   0.03240,  -0.07251,  -0.01366,  -0.13137,  -0.00342,   0.05287,  -0.08531,  -0.09554,  -0.00086,   0.12452,  -0.05204,  -0.06995,  -0.06483,   0.11429,   0.01705,  -0.02901,   0.16035,   0.00681,   0.10917,   0.03240,  -0.04692,  -0.01366,  -0.13648,  -0.11345,  -0.05716,   0.00937,  -0.06995,  -0.04692,  -0.00086,  -0.19790,  -0.03157,  -0.00086,  -0.00854,  -0.03669,  -0.00342,   0.11685,  -0.04180,   0.03240,  -0.04948,  -0.05716,   0.10149,   0.04008,   0.05543,  -0.07251,   0.02217,  -0.01877,  -0.10322,   0.02473,  -0.06483,  -0.13137,  -0.07507,  -0.16463,   0.02984,  -0.09042,   0.01705,   0.13220,   0.16035,  -0.05204,  -0.10066,   0.07079,   0.08358,   0.13476,  -0.14416,  -0.03413,   0.09126,  -0.01622,   0.10661,   0.06823,  -0.02389,  -0.12113,   0.04264,   0.00170,  -0.13648,  -0.05460,  -0.08019,  -0.04436,  -0.08019,   0.01193,  -0.16463,   0.00937,   0.09637,   0.02473,  -0.11345,  -0.01366,  -0.10066,   0.08358,   0.15779,   0.02729,   0.17314,   0.05032,   0.01961,  -0.08786,   0.10661,   0.07846,  -0.04436,  -0.10834,   0.00937,  -0.02133,   0.05287,  -0.01622,   0.14499,  -0.09554,  -0.14416,  -0.01366,  -0.05460,  -0.11601,  -0.05204,   0.10405,   0.04520,   0.04264,  -0.09810,  -0.02389,   0.00937,   0.10405,   0.03752,  -0.08275,  -0.02645,   0.00681,   0.01449,   0.07846,   0.00426,  -0.06995,  -0.04180,   0.03240,   0.25503,   0.01705,  -0.06739,   0.12196,   0.03496,   0.10149,  -0.01622,   0.15523,   0.04264,  -0.03669,  -0.08786,   0.07079,   0.07590,   0.06311,  -0.06483,  -0.10066,   0.01449,   0.05543,   0.17826,  -0.00598,  -0.00598,   0.01705,  -0.05460,   0.00426,   0.15267,   0.13220,  -0.09554,  -0.07763,   0.08102,  -0.12369,   0.04520,  -0.07507,  -0.07251,   0.04008,  -0.23372,  -0.05204,  -0.02645,   0.18082,   0.07079,   0.15779,  -0.00342,  -0.06739,   0.02984,   0.00170,   0.01449,  -0.04180,   0.07846,   0.08102,  -0.10322,  -0.10322,   0.02473,  -0.15695,   0.05543,   0.01449,  -0.04692,   0.05543,   0.04520,   0.09126,  -0.04948,  -0.00598,   0.18082,  -0.11089,  -0.01877,  -0.18766,   0.08870
  -0.07763,   0.07590,  -0.02389,  -0.16463,  -0.08019,  -0.11345,   0.05032,  -0.02389,   0.14499,  -0.18766,   0.01193,  -0.05716,   0.02217,   0.06567,   0.09126,  -0.09042,  -0.03413,   0.06567,  -0.12881,   0.07590,   0.01449,  -0.08019,   0.08358,   0.05287,   0.00681,  -0.03157,   0.07334,  -0.03157,  -0.16975,   0.04776,   0.05032,   0.09126,  -0.06995,  -0.14928,   0.13476,   0.03240,   0.13220,   0.10661,  -0.02645,  -0.03669,   0.00681,  -0.24396,   0.01193,  -0.19022,  -0.12625,  -0.09554,  -0.09810,  -0.01366,   0.05032,   0.03496,   0.15011,   0.00170,  -0.01877,   0.12964,  -0.13648,  -0.00854,  -0.11345,   0.15267,  -0.12625,   0.15267,  -0.16463,   0.24223,  -0.11857,  -0.13392,  -0.01622,  -0.05716,  -0.01110,   0.02729,  -0.05460,  -0.22860,  -0.05716,  -0.03413,   0.09126,  -0.08275,  -0.01110,  -0.01366,  -0.07507,  -0.15951,   0.09637,   0.03496,  -0.10578,   0.08614,   0.01961,  -0.05716,   0.03752,   0.01705,  -0.09554,  -0.09042,   0.11429,   0.03752,   0.09637,  -0.07507,   0.06823,  -0.05204,  -0.05460,  -0.10834,  -0.09298,   0.00937,  -0.01110,  -0.05716,  -0.11089,  -0.08275,  -0.01877,  -0.01877,  -0.05716,   0.11940,  -0.05716,   0.13220,  -0.01110,   0.02217,  -0.15440,   0.01193,   0.11173,  -0.19278,  -0.00854,  -0.10322,  -0.04436,  -0.03157,  -0.04948,   0.02984,  -0.12113,  -0.03669,  -0.09298,   0.07590,   0.01961,  -0.09042,   0.15779,   0.12964,   0.02984,  -0.02645,   0.01449,  -0.03413,  -0.07251,   0.09382,  -0.05460,   0.01705,   0.02217,  -0.09298,   0.06311,   0.11685,  -0.01622,  -0.21069,  -0.00086,  -0.03413,  -0.04436,   0.02984,  -0.06228,  -0.06739,  -0.09042,  -0.10834,   0.10149,   0.01193,  -0.03669,   0.13220,   0.04520,  -0.02645,   0.02984,   0.02984,   0.00681,  -0.01877,  -0.01366,  -0.03669,   0.10149,   0.15011,  -0.03669,   0.01449,   0.02729,   0.12708,   0.05032,  -0.04436,  -0.13392,  -0.07763,  -0.06739,  -0.07763,   0.07590,   0.18849,   0.24479,  -0.04436,  -0.08531,   0.12708,   0.04520,   0.15011,   0.00681,  -0.00086,   0.05032,  -0.04948,   0.09893,   0.08102,  -0.20813,  -0.13648,   0.17058,   0.00681,  -0.10066,   0.05543,  -0.06739,   0.24735,  -0.04692,   0.05543,   0.02729,  -0.08786,  -0.16975,  -0.01366,   0.08102,   0.05287,   0.17826,  -0.00598,   0.02984,  -0.05460,   0.08102,   0.00681,  -0.06739,  -0.05204,  -0.02645,   0.01961,   0.15011,   0.05287,   0.13988,   0.02984,  -0.07763,  -0.06483,  -0.06739,  -0.08275,  -0.14416,  -0.05204,  -0.19278,  -0.02133,  -0.10066,   0.00681,  -0.05716,  -0.21581,  -0.02133,  -0.09042,  -0.08531,  -0.05972,  -0.08019,   0.08358,  -0.06739,  -0.02133,   0.06055,  -0.06228,  -0.13137,   0.10917,   0.26014,  -0.02645,   0.09637,  -0.07251,   0.11429,   0.04776,   0.12964,   0.00937,  -0.00854,  -0.10578,  -0.07763,   0.03496,  -0.05716,  -0.05716
   0.01705,   0.15779,   0.11940,   0.10661,   0.02473,   0.08102,   0.01705,  -0.08786,  -0.02389,   0.07590,  -0.10066,   0.03752,  -0.02133,  -0.08275,  -0.01366,   0.06823,   0.07079,   0.01961,   0.22688,  -0.12881,  -0.04436,   0.08614,   0.07334,   0.03240,   0.18849,  -0.06995,   0.00170,  -0.00854,  -0.03925,  -0.03413,   0.06311,   0.06823,   0.02729,  -0.01622,   0.03240,  -0.12625,   0.01193,   0.06567,  -0.03925,   0.12452,  -0.06483,   0.02729,   0.07334,  -0.17742,   0.08358,   0.03752,  -0.00086,   0.00937,   0.01449,   0.12196,  -0.22093,   0.04520,  -0.03413,  -0.09042,   0.07079,   0.07079,  -0.08531,   0.09382,  -0.01110,   0.04008,  -0.11601,  -0.04692,   0.12196,   0.10917,   0.05799,  -0.04180,  -0.01110,   0.05287,  -0.04180,   0.02217,  -0.00086,  -0.02645,   0.07846,   0.02217,  -0.09554,   0.20641,  -0.20301,   0.03496,  -0.01110,   0.07846,   0.02217,  -0.03925,  -0.02133,   0.02473,   0.09637,  -0.07507,  -0.04180,  -0.10322,  -0.01622,   0.13988,   0.11940,  -0.00086,   0.00937,   0.04776,  -0.02901,   0.20385,   0.15011,   0.00681,   0.16035,   0.08870,   0.10405,   0.16546,  -0.23628,   0.03240,   0.09126,  -0.10578,   0.05287,   0.07590,  -0.07763,  -0.06739,  -0.10322,   0.00426,   0.05287,  -0.03413,  -0.03413,   0.12452,  -0.04180,  -0.17231,   0.07334,   0.00937,   0.13732,  -0.05972,   0.06823,  -0.02901,  -0.06995,   0.02729,   0.02729,   0.10149,   0.05799,   0.07334,  -0.04948,  -0.01877,   0.11429,  -0.07763,  -0.05972,  -0.06739,  -0.08786,   0.14499,  -0.10834,  -0.09554,  -0.01877,   0.02217,  -0.07763,   0.02729,  -0.10834,  -0.02645,  -0.05460,   0.07846,  -0.03157,   0.09893,  -0.01877,   0.07846,  -0.01877,  -0.04436,   0.15011,  -0.05204,   0.04776,   0.01705,  -0.08275,  -0.08786,   0.08614,  -0.01877,   0.03752,  -0.02645,   0.02217,  -0.04436,   0.08614,  -0.00854,  -0.04948,  -0.05716,   0.07846,  -0.02901,  -0.04436,  -0.11089,  -0.05972,  -0.06228,  -0.01110,   0.05287,   0.09382,  -0.10578,   0.13220,   0.05799,  -0.00854,  -0.13392,   0.01193,   0.13732,  -0.15695,   0.08614,   0.11940,   0.00170,   0.04776,  -0.03157,   0.07079,  -0.07507,  -0.04436,   0.04264,  -0.08531,  -0.00342,  -0.11601,  -0.09554,  -0.05204,   0.03496,  -0.01366,   0.02984,   0.03752,   0.09126,   0.02473,   0.18594,  -0.24907,  -0.13137,   0.12964,  -0.07763,   0.02729,  -0.00086,   0.10917,  -0.04180,   0.07334,  -0.08019,  -0.02645,  -0.14672,   0.07334,  -0.08531,  -0.00086,   0.02984,  -0.04436,   0.05799,   0.14755,   0.01961,  -0.01366,  -0.02901,   0.11429,   0.04520,  -0.09554,   0.02473,  -0.16975,  -0.05972,  -0.10066,   0.16035,  -0.00086,  -0.01366,   0.05032,   0.06823,   0.01193,   0.03240,   0.11429,  -0.04948,   0.04520,   0.10661,  -0.20301,  -0.03925,  -0.03925,   0.00681,   0.01193,   0.00426,   0.01961,  -0.04180
   0.05287,  -0.08531,  -0.01366,   0.04008,  -0.07507,   0.08614,   0.14499,  -0.08531,   0.00170,   0.18082,   0.02729,  -0.01366,  -0.01877,   0.10917,   0.00426,  -0.03925,  -0.03925,   0.02217,  -0.08531,  -0.03925,   0.02729,  -0.06739,   0.08614,   0.04520,  -0.13392,  -0.02645,  -0.08275,  -0.04180,   0.04776,   0.03752,  -0.01366,   0.05287,  -0.08275,   0.18594,   0.07846,  -0.14928,  -0.15184,  -0.08275,  -0.04692,   0.12196,   0.02473,  -0.01366,  -0.12881,   0.00937,   0.07590,  -0.03925,  -0.00854,   0.10661,   0.01705,   0.10661,   0.00170,  -0.09810,  -0.00086,  -0.00854,   0.06055,  -0.11345,   0.12708,   0.09382,  -0.10066,  -0.10322,   0.14499,  -0.11601,   0.01193,  -0.06483,  -0.02389,   0.01705,  -0.06228,  -0.04692,  -0.09042,  -0.00086,  -0.06483,   0.03752,   0.04264,   0.00937,   0.13476,  -0.17487,  -0.16719,  -0.09298,  -0.03413,   0.12452,   0.02729,   0.08358,  -0.07251,  -0.05716,   0.04776,   0.16035,   0.09126,   0.15523,  -0.08275,  -0.13648,  -0.01366,   0.01961,  -0.05716,   0.14755,   0.10405,  -0.04692,  -0.11345,  -0.10066,   0.00426,  -0.02133,   0.09893,   0.05287,  -0.00598,  -0.00086,   0.07590,   0.00426,  -0.01110,   0.09382,   0.12964,  -0.08019,   0.09126,  -0.17487,  -0.07763,  -0.07507,   0.19105,   0.03752,  -0.06995,  -0.10066,  -0.01366,   0.09637,  -0.01366,   0.07846,  -0.02645,  -0.00342,  -0.00598,  -0.09298,   0.03496,  -0.00342,  -0.07507,  -0.18510,  -0.04948,  -0.03669,   0.01705,   0.06311,   0.06311,  -0.09042,  -0.03925,   0.03240,  -0.05204,  -0.06228,   0.03496,   0.00426,   0.11429,   0.13476,  -0.00342,   0.01449,   0.05543,  -0.02901,  -0.00342,   0.07846,   0.08102,   0.04008,  -0.05460,  -0.09298,  -0.09554,   0.00937,   0.03496,  -0.09298,   0.09382,   0.01193,  -0.08275,   0.03752,   0.02729,  -0.00598,   0.04520,   0.00681,   0.02217,  -0.12881,  -0.09042,  -0.06995,  -0.00086,  -0.04180,  -0.02901,   0.13476,   0.03496,   0.03496,   0.07846,   0.11429,  -0.10066,   0.01193,   0.05543,  -0.08531,   0.10661,  -0.03925,  -0.08531,   0.15011,   0.01961,  -0.18766,   0.05287,  -0.09298,  -0.00086,  -0.02133,   0.05032,   0.00681,   0.05287,  -0.05204,   0.07334,  -0.02901,  -0.08019,   0.12452,   0.02473,  -0.09042,  -0.05204,   0.04264,  -0.11601,   0.00426,  -0.01877,  -0.03669,  -0.05204,   0.02729,  -0.08275,  -0.22604,   0.04776,  -0.05204,  -0.09042,  -0.06995,   0.00170,   0.09637,   0.04008,  -0.01877,   0.02473,  -0.08786,   0.00681,   0.01193,  -0.05972,  -0.07507,   0.07846,   0.04008,  -0.06995,   0.05799,   0.07334,  -0.02389,  -0.00854,  -0.02901,   0.12452,   0.11940,   0.00426,  -0.01110,   0.11685,   0.06823,   0.26526,   0.05543,  -0.00086,   0.11173,  -0.05716,   0.00681,   0.00170,  -0.09810,   0.00170,  -0.05972,  -0.11089,  -0.16463,  -0.00086,  -0.03413,   0.04264,  -0.05716
  -0.04692,   0.08358,   0.02217,  -0.04436,  -0.06483,  -0.10834,  -0.05972,   0.02729,  -0.03669,  -0.15440,  -0.02389,  -0.01622,   0.16291,  -0.01622,  -0.04436,  -0.09298,  -0.06228,   0.00681,  -0.11345,  -0.04948,   0.05287,   0.06823,  -0.13137,  -0.05716,  -0.11601,   0.05799,   0.02217,  -0.16463,  -0.01366,   0.12452,   0.09382,  -0.17998,   0.06823,  -0.04180,   0.01449,  -0.04436,  -0.08019,  -0.02645,   0.00681,  -0.10834,  -0.01622,  -0.03413,  -0.00598,  -0.03413,   0.07079,   0.09126,  -0.03157,   0.00170,  -0.11857,  -0.04436,  -0.04948,  -0.04436,   0.07079,   0.08870,  -0.01366,  -0.03413,  -0.04692,  -0.00854,   0.01705,   0.03752,   0.05287,  -0.03157,  -0.02901,  -0.01877,  -0.11089,  -0.07507,  -0.01110,   0.08358,   0.02217,  -0.12113,   0.08358,  -0.09298,   0.02473,  -0.00086,   0.02729,  -0.07507,   0.08358,  -0.10066,   0.02217,  -0.00598,  -0.02901,  -0.02133,   0.03752,  -0.07251,  -0.09298,   0.04008,   0.17058,   0.01193,  -0.02133,   0.06311,   0.12452,   0.03240,  -0.11601,  -0.00598,  -0.05972,   0.05032,  -0.09298,   0.03240,   0.00170,   0.05543,  -0.10066,  -0.02645,   0.08358,  -0.00342,  -0.02901,   0.01961,  -0.06483,  -0.10322,   0.08102,  -0.08019,   0.01705,  -0.09810,   0.06823,  -0.05204,  -0.09554,  -0.04948,  -0.04692,  -0.01877,  -0.07251,  -0.09042,  -0.05972,  -0.03157,   0.02984,   0.00681,   0.01449,  -0.08019,  -0.00854,  -0.05972,   0.08358,   0.02729,   0.18594,   0.01193,   0.05543,   0.01449,  -0.04948,   0.01705,   0.00426,  -0.00854,   0.02729,  -0.12113,  -0.04436,   0.02217,  -0.11345,  -0.15695,  -0.01110,  -0.05972,  -0.00598,  -0.07251,   0.04776,   0.06567,  -0.04948,   0.09637,   0.09893,   0.09893,   0.09382,  -0.07763,  -0.14160,  -0.01110,  -0.06995,  -0.06483,  -0.03925,   0.00426,   0.01193,   0.09637,   0.08870,   0.13220,  -0.02389,  -0.02133,  -0.03157,  -0.10322,   0.11429,  -0.20813,  -0.04948,   0.00170,   0.02473,  -0.14416,  -0.05204,   0.03240,   0.01449,   0.06823,   0.02473,   0.13732,  -0.06228,  -0.05204,  -0.00854,  -0.20557,  -0.01877,  -0.06739,  -0.10066,  -0.09554,   0.03240,  -0.11089,  -0.02901,  -0.17487,   0.17570,  -0.20557,   0.01705,   0.01193,   0.11173,  -0.13137,   0.16291,  -0.14416,   0.06055,  -0.09042,   0.04008,   0.01193,  -0.05716,  -0.02901,  -0.00854,  -0.00854,  -0.10578,   0.01449,  -0.06739,  -0.03669,   0.05543,  -0.14928,  -0.05204,  -0.05204,  -0.04180,   0.00170,   0.02729,  -0.07251,  -0.01110,  -0.13904,  -0.03413,   0.06567,  -0.05204,   0.04264,  -0.00086,   0.14243,  -0.11857,  -0.00086,  -0.02389,   0.09126,  -0.04180,  -0.04692,  -0.01366,   0.03752,  -0.05460,  -0.01366,   0.00937,   0.09382,  -0.09042,   0.04008,  -0.11089,  -0.08531,  -0.06228,  -0.00342,  -0.11601,   0.05287,  -0.04436,  -0.08786,   0.03240,  -0.33096,   0.00170,   0.06823
   0.05543,   0.15011,  -0.03413,  -0.06995,  -0.14416,   0.07334,  -0.03669,  -0.17998,   0.07590,   0.04776,   0.08102,  -0.10834,   0.15779,   0.00937,   0.07334,  -0.12369,   0.09893,   0.00937,   0.10149,  -0.11345,  -0.09810,   0.05543,   0.00681,   0.01705,   0.02217,  -0.00086,  -0.16975,   0.22432,   0.01705,  -0.10066,  -0.04180,   0.06311,  -0.06995,   0.03496,  -0.01110,  -0.09810,  -0.19022,  -0.08786,  -0.02133,  -0.11089,   0.15523,   0.08870,   0.01961,  -0.14160,   0.04520,   0.02984,   0.04520,  -0.04692,  -0.06228,  -0.06739,   0.02473,   0.17314,   0.00681,   0.00937,   0.17058,  -0.01110,   0.03240,   0.07079,   0.15523,   0.05287,  -0.11089,   0.13220,  -0.09042,   0.14755,  -0.08531,  -0.01622,   0.19617,   0.00170,   0.08358,   0.22176,  -0.02133,  -0.03157,  -0.08275,  -0.02389,   0.14499,  -0.02389,  -0.04180,  -0.10322,  -0.05204,   0.13476,   0.07846,  -0.10066,   0.18082,  -0.01110,   0.00426,   0.05543,  -0.08531,  -0.04948,  -0.05716,   0.02217,   0.06823,   0.09126,   0.02729,  -0.03413,   0.03752,  -0.02645,  -0.07251,   0.03752,   0.21408,   0.00681,  -0.06483,  -0.08786,  -0.04948,  -0.10578,  -0.14160,  -0.08275,  -0.00598,  -0.07251,   0.04520,  -0.03669,  -0.01877,   0.00170,  -0.00854,   0.09382,  -0.06739,  -0.13392,  -0.06228,  -0.08786,  -0.03925,   0.08358,  -0.08531,  -0.03157,   0.18594,   0.05287,   0.07079,  -0.02645,   0.09637,  -0.01877,   0.00937,   0.05032,   0.17058,   0.15011,   0.07334,   0.05799,  -0.03925,  -0.19022,  -0.01622,  -0.01622,  -0.02133,  -0.02645,  -0.04948,   0.02217,  -0.03157,   0.11173,   0.04008,   0.16291,   0.08358,  -0.01366,   0.17826,  -0.02389,   0.08870,   0.12196,   0.04520,   0.02729,   0.10405,  -0.04180,   0.03240,   0.11429,  -0.00854,  -0.17742,   0.15011,  -0.11601,   0.11429,  -0.12369,  -0.01877,   0.04264,   0.13476,  -0.00854,   0.15011,   0.03496,   0.00170,   0.04776,  -0.08019,  -0.10322,  -0.03925,  -0.02133,   0.04264,  -0.07507,  -0.04436,   0.00681,  -0.00854,  -0.02133,  -0.04436,   0.10917,   0.05543,   0.09637,   0.09893,   0.07590,   0.01193,  -0.07507,  -0.05204,   0.07590,   0.12964,  -0.03669,   0.07846,   0.23200,   0.11940,   0.06567,   0.19361,   0.00426,  -0.01366,   0.00937,   0.08102,  -0.04948,   0.03240,  -0.12881,   0.11940,   0.04008,  -0.03669,   0.12708,  -0.11345,  -0.02645,  -0.02901,  -0.11345,   0.02217,   0.06567,   0.10149,  -0.06995,  -0.02133,   0.15523,  -0.07507,  -0.17487,  -0.02389,   0.01961,   0.00681,  -0.23116,   0.04008,   0.08870,   0.06823,   0.12452,   0.03752,   0.10405,  -0.03413,   0.10917,  -0.01622,  -0.04692,  -0.19022,   0.05543,  -0.00854,   0.00681,   0.03752,  -0.06483,  -0.03157,  -0.16719,   0.03752,   0.06055,   0.09382,   0.10405,  -0.07507,   0.09637,  -0.00598,  -0.02133,  -0.00854,   0.12964,  -0.06483,   0.02984
  -0.04436,  -0.03925,   0.11429,   0.12964,   0.02729,  -0.08531,   0.13476,  -0.07763,  -0.11601,   0.00426,   0.07079,  -0.06739,   0.09637,   0.04776,   0.05799,  -0.01877,  -0.02645,   0.18082,  -0.05972,  -0.06483,  -0.09042,  -0.08786,   0.18594,   0.04520,  -0.10834,   0.04520,  -0.16975,  -0.01366,  -0.00086,   0.03240,   0.02729,   0.02217,   0.13988,  -0.22093,  -0.11601,   0.10661,  -0.02901,  -0.16207,  -0.08786,   0.15011,  -0.06228,   0.15011,  -0.00342,  -0.10322,   0.13732,  -0.02645,  -0.04948,   0.08614,   0.24991,  -0.03669,   0.06823,   0.03496,  -0.13392,   0.00170,  -0.05716,  -0.02645,   0.08358,  -0.00086,  -0.15440,  -0.08019,  -0.18254,   0.01961,  -0.07507,  -0.05204,  -0.02901,  -0.08786,   0.04264,   0.11940,  -0.10322,  -0.08275,   0.03752,  -0.02389,  -0.01622,   0.00937,  -0.08531,   0.00426,  -0.07507,  -0.08786,  -0.09298,  -0.08786,  -0.07251,   0.07846,  -0.01110,   0.09126,  -0.06995,  -0.05204,  -0.01877,   0.04008,  -0.14928,  -0.10834,  -0.08019,   0.06311,   0.14243,  -0.07763,   0.01449,  -0.13392,  -0.10834,  -0.06483,  -0.12625,   0.15523,  -0.03157,   0.22944,   0.04264,  -0.02389,  -0.01110,  -0.03669,   0.12708,  -0.15440,   0.02984,   0.02729,  -0.05204,  -0.00342,   0.01961,  -0.05716,  -0.05204,   0.10405,  -0.03413,   0.00426,   0.01705,   0.06567,   0.00681,   0.06567,  -0.04948,  -0.13904,  -0.04948,   0.19617,   0.03496,   0.01449,  -0.10578,  -0.12881,   0.00937,  -0.12113,  -0.07507,   0.03752,   0.04264,  -0.06483,   0.04776,  -0.13137,  -0.00598,   0.08102,  -0.14928,  -0.06995,   0.00937,  -0.09298,  -0.06739,  -0.00598,  -0.12881,   0.00426,  -0.09298,  -0.07763,   0.06055,  -0.04180,  -0.04948,   0.09382,   0.19873,  -0.01622,   0.00426,  -0.09810,   0.16802,  -0.03925,   0.13988,  -0.01110,  -0.03413,   0.11685,  -0.02645,  -0.02645,  -0.00598,   0.01705,  -0.07763,  -0.07507,  -0.08019,   0.08358,  -0.05716,  -0.09810,   0.12196,   0.05799,  -0.07251,   0.09637,  -0.20301,   0.22176,   0.01193,  -0.07507,   0.04776,  -0.11089,   0.02473,  -0.01110,  -0.07507,  -0.04180,   0.00937,  -0.06739,  -0.01110,   0.07590,  -0.15695,  -0.00086,  -0.10578,  -0.05204,  -0.11857,  -0.00854,  -0.02645,  -0.05204,  -0.01110,  -0.07251,   0.08614,   0.04776,  -0.10578,   0.02729,   0.04264,  -0.04180,  -0.09042,   0.07590,  -0.01877,   0.05543,   0.04520,  -0.21325,   0.06567,   0.08614,   0.08358,   0.10149,  -0.05972,  -0.01877,   0.05032,   0.13476,   0.04776,  -0.05204,   0.12196,   0.00937,  -0.02133,  -0.12113,   0.01705,   0.01193,   0.17570,   0.04008,  -0.04948,   0.09893,   0.17058,   0.05543,   0.14243,   0.02729,   0.01961,   0.01705,   0.00170,   0.00937,   0.09382,  -0.03413,  -0.00086,  -0.04180,  -0.06739,  -0.05716,  -0.06995,  -0.19022,   0.11940,  -0.08786,   0.02984,  -0.05972,  -0.02645,  -0.05716
   0.00170,  -0.03925,  -0.05972,  -0.12881,  -0.19022,  -0.01877,   0.00937,   0.04520,   0.01449,   0.01449,  -0.05972,   0.08614,  -0.04692,   0.10661,  -0.02389,   0.13732,  -0.08531,  -0.03157,   0.08102,   0.01705,  -0.11089,   0.01705,  -0.04180,  -0.00598,   0.04776,   0.10405,   0.00681,   0.10149,  -0.10578,  -0.00854,   0.06311,   0.06055,  -0.03413,   0.00937,  -0.12881,   0.00170,  -0.16463,   0.08102,  -0.03413,   0.04264,   0.05799,  -0.03157,   0.00681,  -0.03157,  -0.01366,   0.05799,   0.01449,   0.01961,   0.09893,  -0.06995,   0.12196,   0.15523,   0.11173,   0.01705,   0.00937,  -0.04692,   0.01961,  -0.05204,   0.01705,  -0.04692,  -0.14928,   0.05799,   0.03496,  -0.08531,   0.02217,   0.08870,   0.02729,  -0.01110,   0.13220,  -0.09042,   0.05032,  -0.02901,   0.01193,   0.06823,   0.13732,   0.06567,  -0.08786,   0.09893,  -0.05716,  -0.03413,   0.05543,  -0.08019,  -0.04692,  -0.04692,   0.05032,  -0.03413,  -0.09042,   0.00426,  -0.13137,   0.01193,  -0.22348,   0.01449,   0.18338,   0.09126,  -0.09042,   0.17314,   0.07079,  -0.01366,  -0.06483,   0.09893,  -0.00854,  -0.05972,  -0.01366,  -0.05972,   0.16035,   0.10661,  -0.02133,   0.05287,  -0.06739,  -0.01110,   0.14499,   0.02217,   0.06823,   0.05799,   0.01961,   0.05032,   0.00681,   0.05287,   0.05543,  -0.07507,  -0.07763,  -0.09298,   0.03496,  -0.03157,   0.07079,   0.02984,   0.05287,  -0.07251,   0.02473,  -0.03669,  -0.02645,  -0.01877,   0.00426,   0.00681,  -0.04436,   0.02217,   0.11940,  -0.03413,  -0.02389,   0.02729,  -0.02901,   0.10149,  -0.03157,  -0.00086,  -0.14416,   0.04776,  -0.01877,  -0.01110,   0.09893,  -0.03413,  -0.07763,  -0.02389,   0.00937,  -0.00854,   0.17314,  -0.07763,   0.15779,  -0.01110,  -0.00086,  -0.06228,   0.07846,  -0.06483,  -0.08531,   0.00426,  -0.01877,   0.02984,  -0.02901,   0.12196,   0.05287,   0.15523,   0.03752,  -0.06228,   0.09126,  -0.00598,  -0.10578,   0.05543,  -0.05204,  -0.02389,   0.05799,  -0.06228,  -0.04436,   0.09893,   0.02217,  -0.12369,   0.03752,   0.03240,   0.12196,  -0.11089,   0.19105,  -0.03157,  -0.01877,   0.06311,   0.06823,   0.06567,  -0.01366,  -0.04436,  -0.09042,   0.04008,   0.03240,  -0.02645,   0.04776,   0.19105,  -0.04180,   0.14499,  -0.13392,   0.01705,  -0.03925,  -0.09554,  -0.05204,   0.16802,   0.11429,   0.01193,  -0.01366,  -0.02901,   0.04008,   0.08614,   0.11940,  -0.04692,   0.04264,   0.08358,  -0.10578,  -0.12369,  -0.00342,   0.00937,   0.04264,   0.10661,   0.13220,  -0.00854,   0.09382,  -0.01110,  -0.21837,  -0.02389,  -0.16463,   0.03752,  -0.12881,  -0.00342,  -0.03157,  -0.11345,   0.11173,   0.11173,   0.13732,  -0.03413,  -0.09554,  -0.01622,   0.02217,  -0.05204,   0.06055,   0.07590,  -0.02901,   0.09382,   0.04776,   0.11685,  -0.19022,  -0.01877,   0.04264,   0.17058
   0.01961,   0.00170,   0.06823,   0.05799,   0.15523,  -0.01622,  -0.16719,   0.03752,  -0.04692,  -0.09554,   0.06311,   0.01193,   0.04520,  -0.08786,   0.00170,   0.04776,  -0.00342,  -0.02901,   0.15779,   0.01449,   0.15011,   0.06823,  -0.22093,  -0.13137,  -0.09554,  -0.13648,  -0.17231,  -0.11601,   0.00426,  -0.08531,  -0.18254,   0.17826,   0.00170,   0.11940,  -0.04436,   0.04264,   0.07846,   0.20641,   0.00170,  -0.16463,   0.05799,  -0.24396,  -0.05460,  -0.04180,   0.01961,  -0.01877,  -0.04180,  -0.02133,  -0.06995,   0.05799,  -0.01110,   0.06823,   0.07846,   0.00170,  -0.12881,  -0.10322,   0.01705,   0.00170,  -0.16975,  -0.11345,   0.01193,  -0.02645,  -0.04692,  -0.06739,   0.01449,   0.02984,   0.01449,  -0.14416,   0.02729,  -0.01622,   0.16546,   0.02729,   0.04520,   0.21920,  -0.13137,  -0.02901,  -0.12625,  -0.00598,  -0.04436,  -0.09298,   0.06567,  -0.01110,   0.01449,   0.13476,  -0.07507,  -0.05460,  -0.00598,  -0.06995,   0.11685,  -0.13392,   0.06823,  -0.16463,   0.07590,   0.07334,  -0.18510,   0.05287,   0.06567,   0.02473,   0.16291,  -0.05716,   0.04520,   0.11940,  -0.12113,  -0.04948,  -0.03925,  -0.02389,  -0.13648,  -0.07251,  -0.19278,   0.06567,  -0.02133,  -0.08531,   0.05032,   0.00426,  -0.05460,   0.12964,   0.08102,   0.05799,   0.06567,   0.00170,  -0.11857,  -0.04948,  -0.05204,  -0.02389,  -0.13648,  -0.14160,   0.03496,  -0.12369,   0.02729,   0.02473,  -0.03925,   0.08870,  -0.03925,   0.04264,  -0.12625,  -0.08275,   0.12196,   0.18082,   0.00170,   0.08870,  -0.03157,   0.11429,   0.02217,   0.06311,  -0.01622,   0.04264,  -0.08786,   0.10149,   0.15523,   0.02729,   0.09893,  -0.16463,  -0.04436,  -0.12881,   0.15011,  -0.05204,  -0.01622,  -0.01877,  -0.06739,  -0.00086,  -0.03925,   0.02473,   0.03240,  -0.04180,   0.07334,  -0.03157,   0.07590,   0.08102,   0.19105,   0.19361,   0.06055,   0.03496,   0.03240,  -0.03925,  -0.19278,  -0.12881,   0.05287,   0.03496,   0.00681,  -0.02645,   0.06567,   0.15011,   0.02729,  -0.03413,  -0.03925,   0.12708,   0.20129,  -0.05460,  -0.06228,  -0.01622,   0.01193,  -0.07251,   0.02217,  -0.09554,  -0.01622,   0.10917,  -0.10322,  -0.11345,   0.07590,  -0.01366,   0.05799,   0.03752,  -0.12625,  -0.04692,  -0.01366,   0.08870,   0.22432,   0.02984,  -0.17742,  -0.20301,  -0.08019,   0.07334,  -0.08531,  -0.10322,   0.08358,   0.04776,   0.10917,   0.08614,   0.00681,  -0.02389,   0.07590,   0.01961,  -0.03669,   0.08102,   0.04776,   0.04008,  -0.10578,  -0.02645,  -0.14160,   0.02473,   0.04776,  -0.05460,  -0.03157,   0.04264,  -0.23884,  -0.02133,   0.18594,   0.09893,  -0.24140,   0.10405,  -0.07763,   0.08614,  -0.01366,   0.17826,  -0.02389,   0.10149,  -0.13392,   0.13988,  -0.03669,  -0.05460,   0.05032,  -0.05972,   0.10405,  -0.00086,   0.06055,   0.00426
   0.07846,   0.16291,   0.08870,   0.07079,  -0.08019,  -0.07507,  -0.02645,  -0.04180,   0.05032,   0.09637,   0.05032,   0.02984,  -0.01877,  -0.03413,   0.04008,   0.06055,   0.06311,   0.07334,  -0.02645,  -0.09554,   0.05543,   0.09126,  -0.01366,   0.06055,   0.05799,  -0.04692,   0.14243,  -0.01366,   0.05287,   0.04520,   0.09637,  -0.02389,   0.07334,  -0.03925,  -0.03669,   0.01705,   0.01705,   0.11940,  -0.08275,   0.01961,   0.17314,  -0.09554,  -0.08019,  -0.06483,   0.07079,  -0.02389,  -0.21325,  -0.06995,  -0.10578,   0.05287,  -0.02645,   0.00170,  -0.06483,  -0.06739,   0.02217,   0.01705,  -0.14928,  -0.08786,   0.14499,  -0.16719,   0.05287,  -0.02645,   0.06823,  -0.01877,   0.05287,   0.00681,  -0.21069,  -0.03157,  -0.03413,  -0.08019,   0.07079,   0.12964,   0.05287,   0.12452,  -0.23628,   0.05799,  -0.11345,   0.06567,  -0.02645,  -0.00086,   0.14755,  -0.05204,   0.09126,  -0.08275,   0.14499,  -0.03413,  -0.05460,  -0.11089,  -0.13648,  -0.12113,   0.01705,  -0.05204,  -0.16719,  -0.09042,  -0.10578,   0.00937,   0.00937,   0.04264,  -0.04180,  -0.00342,  -0.06739,   0.01193,   0.01705,   0.17314,   0.01449,   0.07079,   0.00937,   0.03752,   0.03496,   0.04776,  -0.01110,  -0.01622,   0.25247,   0.05543,   0.17314,  -0.02645,  -0.05972,  -0.01366,   0.08614,   0.00937,  -0.08786,  -0.00854,   0.01705,   0.03496,  -0.12625,  -0.03669,   0.13476,  -0.13904,   0.06567,   0.13476,  -0.01110,   0.08870,   0.00681,   0.14499,   0.06055,  -0.08531,  -0.05716,  -0.04180,   0.02217,  -0.00598,  -0.05204,  -0.11601,   0.08870,  -0.12113,   0.10661,   0.06311,  -0.09810,  -0.05460,  -0.00598,  -0.02133,  -0.00086,   0.05543,  -0.08786,   0.09126,   0.00170,   0.07079,  -0.10834,   0.08102,  -0.12625,  -0.03925,  -0.05716,   0.09893,   0.01705,   0.06055,   0.12964,  -0.01622,  -0.04948,  -0.00598,  -0.10322,  -0.01622,   0.01705,   0.00681,   0.06311,  -0.14672,  -0.09810,  -0.00598,  -0.05972,  -0.16719,  -0.01110,   0.11685,  -0.02133,   0.06823,  -0.11857,  -0.00086,   0.06055,   0.00426,   0.05799,   0.09637,  -0.00598,   0.05799,  -0.10578,   0.02729,   0.08358,  -0.04948,   0.13476,   0.02217,   0.10661,  -0.07507,   0.03240,   0.10149,   0.01961,  -0.08019,   0.03240,  -0.02389,   0.01705,   0.13476,  -0.08786,   0.08358,  -0.14416,   0.06311,  -0.08531,   0.11685,  -0.00342,  -0.00598,   0.06311,   0.02729,  -0.03925,   0.00426,   0.00681,  -0.02901,  -0.05204,  -0.09554,   0.05287,  -0.12113,  -0.04436,  -0.02901,   0.17058,   0.04776,  -0.00598,   0.03752,  -0.12369,  -0.11345,  -0.06739,   0.13220,  -0.04436,  -0.08019,   0.02217,  -0.02645,  -0.04948,  -0.15951,   0.20385,   0.05032,  -0.03925,  -0.13392,   0.00937,  -0.20045,  -0.08531,   0.00426,   0.00937,  -0.00854,  -0.01877,   0.05543,   0.01705,   0.05287,  -0.07251,   0.10149
   0.06055,  -0.14416,  -0.04436,  -0.00342,   0.02984,   0.15779,  -0.10578,   0.13220,   0.16802,   0.05543,   0.04776,   0.03240,   0.00681,   0.10405,   0.00937,   0.07334,  -0.04180,  -0.04436,   0.00426,  -0.07507,  -0.05716,  -0.04948,   0.09126,   0.12452,   0.07079,   0.02217,  -0.09042,  -0.23884,   0.03240,   0.06823,   0.04264,  -0.01366,  -0.00854,  -0.12625,  -0.03669,   0.01705,   0.06055,   0.10917,  -0.01877,   0.09637,  -0.09042,  -0.00086,  -0.08786,   0.01449,  -0.22860,   0.05543,   0.15267,  -0.01110,   0.14499,   0.05032,  -0.03157,   0.01961,   0.06055,   0.07590,  -0.00342,  -0.20045,   0.02984,   0.18849,   0.09382,   0.04264,   0.11173,  -0.17487,  -0.02389,   0.23455,  -0.01622,   0.00426,   0.13220,   0.08102,  -0.02133,   0.00426,   0.01449,  -0.04692,  -0.07507,  -0.03669,  -0.05716,  -0.20045,   0.07590,   0.03752,  -0.01110,  -0.01110,  -0.00086,   0.03240,   0.09382,   0.20385,   0.01449,   0.12708,   0.08870,   0.04008,  -0.04436,   0.00426,   0.08358,   0.03752,   0.07846,  -0.11601,   0.22688,  -0.06483,  -0.03669,  -0.06483,   0.06311,  -0.05460,  -0.04948,   0.13732,  -0.04180,  -0.05204,   0.05287,   0.08870,   0.09126,  -0.09810,   0.06567,   0.06311,   0.06823,   0.10149,  -0.16719,  -0.12113,   0.00681,   0.10405,   0.01193,   0.19873,   0.00937,   0.25247,   0.06055,  -0.04692,   0.07590,  -0.12113,   0.05799,  -0.00854,   0.12708,  -0.10322,   0.04520,   0.20641,  -0.03669,   0.08870,   0.03496,   0.02984,   0.14243,  -0.11601,  -0.00086,   0.08358,   0.12196,  -0.00854,  -0.08019,  -0.19790,  -0.02133,   0.00426,  -0.02389,  -0.14416,   0.02729,   0.11173,  -0.00342,  -0.00342,  -0.09810,  -0.08019,   0.10917,  -0.08531,  -0.04948,   0.00681,  -0.04436,  -0.02645,  -0.09042,   0.12708,   0.03240,   0.08358,  -0.02133,   0.09382,   0.09382,   0.22944,   0.06823,  -0.08786,  -0.08275,  -0.06995,  -0.03413,   0.00681,  -0.04180,  -0.08531,   0.05543,   0.18594,  -0.01877,  -0.05460,  -0.02645,  -0.03669,  -0.03157,   0.10149,   0.07334,   0.06823,  -0.01877,  -0.00854,  -0.00598,   0.00170,   0.11940,   0.04008,  -0.09042,   0.05287,   0.04776,  -0.02645,  -0.12625,   0.14243,   0.03496,  -0.05716,   0.00170,   0.12964,  -0.00086,  -0.13648,  -0.10834,  -0.00086,  -0.14672,   0.06823,  -0.05972,   0.08870,   0.09637,   0.08358,  -0.02389,  -0.08019,  -0.04692,  -0.06995,  -0.00854,  -0.06483,   0.05799,   0.04264,   0.01705,   0.01449,   0.08102,  -0.00342,  -0.08275,   0.02729,  -0.03157,  -0.01366,  -0.03413,   0.03752,   0.08358,   0.12964,   0.00426,   0.00937,   0.13732,   0.25758,  -0.06739,   0.18082,  -0.21325,  -0.02133,  -0.05460,   0.16802,   0.18082,  -0.10578,   0.08614,   0.24479,   0.01961,  -0.04692,   0.04776,  -0.04692,  -0.25419,  -0.23372,  -0.12625,   0.19873,   0.07846,   0.05543,  -0.00598,  -0.07507
  -0.01877,  -0.11089,   0.02473,  -0.14416,  -0.03413,   0.04008,  -0.07251,  -0.06995,   0.09893,   0.01961,   0.14243,   0.11173,   0.04776,  -0.14672,  -0.03669,  -0.09042,   0.08102,   0.10917,  -0.06483,  -0.00854,   0.04008,   0.02217,   0.01193,   0.16035,   0.06055,  -0.01877,  -0.09298,   0.16802,   0.12196,   0.01705,   0.06311,   0.15011,  -0.10066,   0.00681,  -0.02389,   0.04008,   0.05799,   0.12452,  -0.12881,   0.04008,  -0.10066,  -0.01110,   0.04008,  -0.03413,   0.03496,  -0.03925,   0.00426,   0.07079,  -0.04948,  -0.06483,   0.15267,  -0.08786,   0.01449,  -0.04692,  -0.07251,  -0.13904,   0.07590,  -0.09810,   0.04520,   0.07846,   0.10661,  -0.10322,   0.01449,   0.08870,   0.10917,   0.16802,   0.05032,   0.05799,  -0.00598,  -0.14416,   0.06823,   0.11173,  -0.06995,   0.02473,  -0.02133,  -0.02133,  -0.11345,  -0.12881,   0.05543,   0.15523,   0.16291,   0.03496,   0.01449,  -0.04692,   0.03496,   0.04264,  -0.00854,   0.09126,  -0.00598,  -0.03669,  -0.12113,  -0.00342,   0.12452,   0.09893,   0.08614,   0.04776,   0.07079,  -0.00598,  -0.05716,   0.01705,   0.08358,   0.09893,   0.11173,  -0.03413,   0.05799,   0.09637,  -0.06483,  -0.10066,   0.06055,  -0.01877,  -0.06739,   0.03496,  -0.02133,  -0.08019,  -0.00854,   0.10149,  -0.00086,   0.16035,  -0.05972,   0.14243,  -0.07507,  -0.06228,   0.10661,   0.02473,   0.01193,  -0.01110,  -0.08019,   0.13220,   0.03240,   0.06567,  -0.01877,   0.09893,  -0.04180,   0.10405,   0.07079,   0.07590,  -0.01366,  -0.07251,  -0.00342,  -0.10578,   0.02217,  -0.05204,  -0.08019,  -0.06995,   0.01961,  -0.08531,  -0.05972,   0.11173,   0.03752,   0.02473,  -0.01622,  -0.00086,  -0.08531,   0.06567,   0.11685,   0.01449,  -0.04948,  -0.04692,   0.07846,  -0.01366,   0.01449,  -0.07507,  -0.06228,  -0.02133,   0.13732,  -0.04180,   0.02473,   0.09126,  -0.09042,   0.01193,   0.09382,  -0.00086,   0.03240,   0.07334,  -0.10578,   0.05799,  -0.09298,   0.11429,   0.03752,   0.13476,   0.05543,  -0.03157,   0.02729,  -0.14416,   0.01705,   0.03240,   0.05032,   0.16802,   0.10149,   0.03752,  -0.03669,   0.08870,   0.07846,   0.11940,  -0.02901,   0.04264,  -0.06739,  -0.02133,  -0.05204,  -0.11857,   0.02984,   0.04264,  -0.01110,   0.04264,   0.10149,   0.12708,   0.11940,  -0.08786,  -0.01110,   0.07079,  -0.13392,   0.00170,  -0.04948,   0.06311,   0.01193,  -0.11601,   0.06311,   0.24223,   0.13476,   0.07079,   0.00937,   0.12964,   0.14243,   0.09382,   0.02729,   0.10149,   0.03496,  -0.01110,  -0.03925,  -0.09042,   0.09382,  -0.03925,   0.03496,   0.04520,  -0.04692,  -0.05460,   0.07334,   0.00937,   0.13732,   0.00426,   0.06055,  -0.07763,  -0.01110,   0.01193,   0.07590,   0.00426,   0.00170,  -0.13904,  -0.08531,  -0.08531,  -0.10578,  -0.03413,   0.09126,   0.04776,   0.03752,  -0.09554
   0.08614,  -0.14416,   0.02984,   0.01961,   0.18082,  -0.01622,   0.02217,  -0.08531,   0.15523,   0.23455,  -0.02389,  -0.05972,   0.23711,  -0.03157,  -0.10578,  -0.02133,  -0.05716,  -0.07507,   0.00681,  -0.00086,  -0.03413,  -0.03669,   0.00170,   0.05032,  -0.01110,   0.12452,   0.13220,  -0.11601,   0.03240,  -0.11857,  -0.08531,  -0.10578,   0.13220,   0.03240,  -0.08786,   0.04264,   0.09382,   0.03496,  -0.00598,  -0.02133,  -0.01366,  -0.05972,  -0.06228,  -0.13648,  -0.10834,   0.08870,  -0.02901,  -0.03413,   0.08102,  -0.08786,   0.02217,   0.01449,   0.06311,   0.21408,  -0.08786,   0.15779,  -0.01366,   0.05287,  -0.01622,  -0.01877,   0.03752,  -0.13137,   0.12708,   0.02217,   0.15267,  -0.16207,   0.13220,  -0.07251,   0.04520,  -0.08019,  -0.05204,  -0.11601,  -0.01110,   0.08358,  -0.10322,   0.17570,   0.03496,  -0.06228,  -0.02133,  -0.03157,   0.14499,  -0.09810,  -0.07763,   0.11685,   0.02217,  -0.05204,  -0.03925,  -0.16975,  -0.01110,   0.02473,  -0.06483,  -0.05716,  -0.00854,  -0.08275,   0.17826,   0.00681,  -0.02133,  -0.13904,  -0.01366,  -0.10322,   0.01193,  -0.10322,   0.03752,   0.02729,   0.05287,  -0.04436,   0.03752,   0.08102,  -0.01110,   0.00937,   0.06567,  -0.01877,   0.12196,   0.09126,   0.13988,  -0.08019,  -0.00342,   0.05032,  -0.04692,   0.07846,   0.05543,   0.17058,   0.00681,   0.00937,  -0.13137,   0.08614,   0.14755,   0.05032,   0.12196,   0.00681,  -0.03669,  -0.02901,  -0.05972,  -0.04436,   0.01705,   0.00937,   0.00681,   0.01961,   0.12708,  -0.11089,  -0.13904,   0.01193,  -0.05460,   0.05287,   0.19105,   0.00681,  -0.03413,   0.01449,  -0.06995,  -0.04180,  -0.08786,   0.08614,   0.14499,   0.02217,   0.13988,   0.09126,  -0.11345,   0.02473,   0.06823,   0.07846,   0.04264,   0.09893,  -0.10066,  -0.07251,   0.01705,  -0.04436,  -0.14928,  -0.08019,  -0.10578,   0.12964,   0.06311,   0.00170,   0.02729,   0.09637,   0.09382,   0.16546,   0.12452,  -0.00598,   0.10149,  -0.04180,   0.01449,   0.09637,  -0.07507,   0.00681,  -0.04436,  -0.00086,  -0.02901,  -0.03157,   0.05287,   0.00681,   0.02217,  -0.16975,   0.02217,  -0.04436,  -0.11857,   0.16291,   0.07334,  -0.12625,  -0.24140,  -0.05972,  -0.08019,  -0.06228,   0.04520,   0.18594,  -0.12625,  -0.12369,  -0.05972,   0.11685,   0.08358,  -0.05716,   0.09893,   0.13988,   0.05032,  -0.02901,  -0.06739,  -0.03669,   0.08870,   0.00426,   0.17570,  -0.02133,  -0.04692,  -0.06995,   0.18338,  -0.14672,  -0.08531,  -0.15184,   0.05287,   0.17314,   0.21920,  -0.08275,  -0.09298,   0.06823,  -0.02389,  -0.09298,   0.10917,  -0.08019,   0.00681,   0.07334,  -0.03157,  -0.01622,   0.05799,  -0.17998,   0.08358,  -0.06995,   0.04008,  -0.01366,   0.07334,  -0.06995,   0.00426,   0.03752,  -0.17742,   0.12196,   0.04008,   0.03240,   0.09126,  -0.05204
   0.01449,  -0.16463,  -0.13392,  -0.05460,   0.11685,   0.09126,  -0.09042,   0.06055,  -0.10578,   0.00937,  -0.08786,  -0.08531,   0.02217,  -0.00598,  -0.18510,  -0.19534,  -0.13904,  -0.03157,  -0.05972,  -0.00854,  -0.03925,   0.03496,  -0.17231,  -0.19022,  -0.06483,  -0.04436,  -0.05204,  -0.06228,  -0.00598,  -0.03925,   0.02984,  -0.07763,  -0.04436,  -0.09810,  -0.06228,   0.09382,  -0.01366,   0.02473,  -0.01622,  -0.12113,   0.04008,  -0.07507,  -0.08019,  -0.01877,   0.05287,  -0.09042,   0.06055,  -0.17998,  -0.04948,  -0.07507,   0.13220,  -0.03925,  -0.08275,  -0.06739,  -0.04436,   0.11429,  -0.00854,  -0.16463,   0.01193,  -0.02901,  -0.07763,   0.00426,   0.03240,  -0.02133,  -0.15951,   0.04264,  -0.08531,   0.07590,  -0.06995,  -0.05716,  -0.04692,  -0.00854,   0.13476,  -0.08019,  -0.19022,  -0.06739,   0.06567,  -0.00086,  -0.10578,  -0.07763,   0.02984,  -0.14672,  -0.02389,  -0.06995,   0.06823,   0.13220,  -0.01622,   0.17826,  -0.05204,  -0.07763,  -0.03669,   0.02729,  -0.01622,  -0.03413,   0.06567,  -0.01622,   0.05287,  -0.02389,  -0.11601,   0.12964,   0.13988,  -0.00854,   0.23455,   0.08102,   0.07079,   0.04776,  -0.13137,   0.06311,   0.06055,   0.11940,   0.04776,   0.06311,  -0.01622,  -0.06228,   0.04520,   0.07846,  -0.05972,   0.17314,  -0.16463,   0.04008,  -0.12369,  -0.10066,  -0.13137,   0.07079,   0.10661,  -0.04180,   0.21152,   0.04008,  -0.09042,  -0.05204,   0.12708,   0.12708,   0.04776,  -0.01622,  -0.13137,  -0.06739,   0.09637,   0.14243,  -0.07507,  -0.17231,  -0.19022,   0.00426,  -0.01366,  -0.02133,  -0.05204,  -0.10578,  -0.02645,   0.07334,   0.00426,  -0.04948,   0.00426,   0.04264,  -0.10578,  -0.08786,   0.10661,   0.06823,  -0.17487,   0.00937,  -0.01110,  -0.05972,   0.06567,  -0.03669,  -0.03413,  -0.12625,  -0.11345,  -0.02133,   0.08102,   0.01961,   0.09126,   0.04008,  -0.19790,  -0.16207,  -0.08786,  -0.03669,  -0.12113,   0.17314,  -0.03669,  -0.05204,   0.10149,   0.05543,   0.01961,   0.06055,  -0.05716,  -0.02133,  -0.06228,   0.07590,  -0.03413,   0.00170,   0.07846,  -0.01622,   0.04520,   0.00937,  -0.05716,   0.10917,   0.10661,  -0.05716,  -0.03925,  -0.08275,  -0.03157,   0.16291,   0.08358,   0.14755,   0.01449,  -0.01366,  -0.09042,  -0.02389,  -0.04436,   0.02217,   0.06055,  -0.05204,  -0.11601,  -0.11601,  -0.01622,   0.05543,  -0.02389,   0.00426,   0.04008,   0.07590,   0.00426,  -0.00598,  -0.02645,   0.01705,  -0.12113,  -0.08531,   0.08358,  -0.10834,  -0.01877,  -0.02645,   0.11173,  -0.02133,   0.07079,   0.05287,  -0.03157,   0.01961,  -0.06995,   0.00681,   0.06055,  -0.13392,  -0.08275,  -0.13904,   0.08870,   0.12964,  -0.01622,   0.02217,   0.03752,  -0.07251,   0.06823,   0.08358,   0.05799,   0.05543,   0.04776,   0.06567,   0.07590,  -0.09554,   0.09893,  -0.04180
   0.06055,  -0.06228,  -0.09298,  -0.04180,   0.08870,  -0.09810,  -0.07251,  -0.04948,  -0.09810,  -0.01877,  -0.13904,  -0.02645,  -0.05204,   0.02729,   0.00681,   0.10405,   0.12964,  -0.24907,  -0.11089,  -0.22348,  -0.02389,  -0.19534,   0.29085,  -0.03925,  -0.11089,   0.00426,   0.03752,  -0.13904,  -0.10834,  -0.04692,  -0.01877,  -0.06483,   0.08870,  -0.06483,   0.16035,  -0.08786,  -0.03925,  -0.05460,   0.05287,  -0.12625,  -0.09810,  -0.09042,  -0.04948,  -0.07763,   0.02729,  -0.08275,   0.05543,  -0.06483,  -0.15440,  -0.22604,   0.00681,  -0.08019,  -0.05972,   0.06311,  -0.05204,   0.01449,  -0.04180,  -0.01622,  -0.01877,  -0.14416,  -0.08275,  -0.09298,   0.03496,  -0.02645,  -0.09042,  -0.03413,  -0.08019,   0.04776,  -0.04180,   0.08870,  -0.02133,   0.08102,   0.19105,   0.06055,  -0.04180,  -0.06995,   0.07334,   0.00681,   0.00170,  -0.07763,   0.02729,  -0.05460,   0.00426,  -0.01366,  -0.01366,   0.06055,  -0.05972,  -0.00598,  -0.05204,   0.00426,  -0.15951,   0.02217,   0.16035,  -0.03925,  -0.10066,  -0.14672,   0.08102,  -0.05972,  -0.04180,  -0.08531,  -0.04180,   0.03240,   0.04520,   0.02217,  -0.00086,   0.02729,  -0.14672,  -0.17231,  -0.02901,   0.01449,  -0.09042,  -0.06739,  -0.18766,  -0.10834,  -0.13137,  -0.15440,   0.06567,  -0.11089,  -0.01622,  -0.02901,  -0.13392,   0.01449,   0.19873,   0.05543,  -0.04692,  -0.06995,   0.03752,   0.10917,  -0.08019,   0.07334,   0.10661,  -0.01366,   0.05543,   0.05799,  -0.01877,  -0.13904,   0.02984,  -0.02389,  -0.10322,   0.11173,  -0.00854,  -0.10322,  -0.04948,  -0.12369,   0.05799,   0.04008,  -0.05204,   0.06055,   0.01961,  -0.01366,   0.04776,  -0.02901,  -0.08786,  -0.14928,   0.02729,  -0.02645,  -0.04948,  -0.06995,  -0.09298,  -0.14672,   0.11429,  -0.05972,  -0.12369,  -0.19278,  -0.00598,   0.03496,  -0.02645,  -0.09554,  -0.04692,  -0.02645,   0.08870,  -0.08275,  -0.12625,  -0.03925,   0.01449,   0.08358,  -0.10834,  -0.07507,  -0.10066,  -0.01366,   0.07079,  -0.01622,  -0.11857,   0.13732,   0.07846,   0.00170,  -0.03157,  -0.03925,   0.02217,  -0.02389,   0.03240,  -0.09042,  -0.08786,   0.03240,   0.04008,   0.03240,   0.09893,   0.08614,   0.10661,   0.07590,   0.00937,  -0.00598,   0.01961,   0.13988,   0.07334,  -0.06995,  -0.02133,  -0.04948,   0.01449,   0.07590,  -0.04180,  -0.06739,  -0.19790,  -0.02645,  -0.10066,   0.07846,  -0.03925,   0.05799,  -0.04180,   0.02217,  -0.03925,   0.09637,  -0.02389,  -0.08531,   0.05032,  -0.15440,  -0.19534,   0.00937,  -0.00854,   0.11685,   0.03752,  -0.06483,  -0.03925,  -0.07251,  -0.04692,   0.05799,  -0.09810,   0.01449,   0.11173,  -0.08019,   0.04776,   0.13732,  -0.09042,   0.13476,   0.01449,  -0.06995,   0.10661,  -0.14160,  -0.07251,  -0.20045,  -0.02389,  -0.07251,  -0.01877,  -0.03925,   0.03752,  -0.11857
