   0.04511,   0.33947,  -0.00395,  -0.06703,   0.19930,   0.23434,  -0.39644,  -0.06002,  -0.13712,  -0.01096,   0.02408,   0.31144,  -0.22823,   0.17126,  -0.27729,   0.31845,   0.38152,   0.32545,   0.02408,  -0.52960,  -0.11609,  -0.01096,   0.06614,   0.38853,  -0.07404,  -0.10207,  -0.33336,  -0.16515,   0.16426,  -0.18618,   0.24836,  -0.07404,  -0.09506,  -0.13712,  -0.15814,  -0.03199,   0.18528,   0.27639,   0.32545,   0.24135,  -0.12310,  -0.49456,  -0.12310,  -0.49456,   0.08015,  -0.27729,  -0.16515,   0.12921,   0.16426,   0.17827,  -0.36840,  -0.10908,  -0.90106,   0.36050,   0.12220,  -0.58567,  -0.05301,  -0.19318,  -0.18618,  -0.33336,  -0.38943,   0.17126,  -0.23524,  -0.59969
   0.05913,  -0.10207,   0.31144,  -0.24225,  -0.01797,   0.10118,   0.22033,  -0.26327,   0.19229,  -0.13011,   0.27639,  -0.14412,  -0.31233,   0.02408,   0.10118,   0.05913,   0.03109,  -0.20720,   0.01707,  -0.11609,   0.23434,  -0.18618,  -0.21421,  -0.24225,  -0.02498,  -0.06703,  -0.12310,   0.21332,  -0.11609,  -0.33336,   0.03109,  -0.33336,  -0.01797,  -0.02498,   0.20631,  -0.01797,   0.19229,  -0.17216,   0.23434,   0.02408,   0.10118,   0.00306,   0.16426,   0.16426,   0.03109,   0.22033,   0.06614,  -0.12310,  -0.25626,   0.15725,  -0.03899,   0.18528,  -0.17216,  -0.22122,   0.13622,   0.05913,   0.16426,   0.24836,   0.03810,   0.01707,  -0.14412,  -0.11609,  -0.03899,   0.02408
   0.21332,  -0.03199,   0.10118,   0.07314,  -0.24225,  -0.40344,  -0.29131,  -0.31233,  -0.07404,  -0.35438,  -0.03199,   0.07314,  -0.08105,  -0.13712,   0.03109,   0.28340,   0.15024,  -0.24225,   0.25537,   0.10819,   0.10118,  -0.15814,  -0.23524,  -0.10207,  -0.18618,  -0.03199,  -0.15113,   0.05913,   0.21332,  -0.22122,   0.19229,  -0.27028,   0.01007,   0.12921,  -0.11609,  -0.12310,   0.22733,   0.33246,  -0.11609,  -0.46652,  -0.15814,  -0.06703,   0.10819,  -0.16515,  -0.12310,   0.06614,   0.15725,  -0.12310,  -0.15113,   0.07314,   0.00306,  -0.16515,  -0.23524,   0.01707,   0.29742,  -0.03199,   0.05913,   0.24836,   0.14323,   0.05913,   0.10819,  -0.14412,   0.16426,  -0.30532
  -0.09506,  -0.31233,   0.46563,  -0.06002,   0.22033,  -0.44550,  -0.62071,  -0.01797,   0.00306,  -0.52960,  -0.23524,   0.08015,  -0.18618,   0.08015,  -0.04600,   0.08716,   0.30443,  -0.27729,  -0.18618,  -0.34738,  -0.20019,  -0.20720,   0.15024,  -0.12310,  -0.32635,  -0.01797,  -0.31233,   0.12220,   0.25537,  -0.08105,  -0.04600,  -0.29131,  -0.22122,   0.08015,  -0.13712,   0.01707,   0.14323,   0.33246,  -0.08806,   0.21332,  -0.24925,  -0.02498,  -0.06002,  -0.20019,   0.29041,  -0.27729,   0.01007,   0.22733,   0.19229,   0.01007,  -0.01797,  -0.11609,  -0.76789,   0.13622,   0.37452,  -0.43148,   0.15725,  -0.20019,  -0.40344,  -0.10908,  -0.21421,   0.18528,  -0.24225,  -0.59268
  -0.27028,  -0.02498,  -0.27028,  -0.14412,  -0.01797,   0.20631,  -0.21421,  -0.31233,  -0.36139,  -0.27729,  -0.27028,  -0.20019,  -0.07404,  -0.42447,  -0.21421,   0.08015,   0.24836,   0.19930,  -0.26327,   0.04511,  -0.13011,  -0.05301,   0.18528,  -0.09506,   0.23434,   0.02408,   0.09417,   0.10118,  -0.07404,   0.08716,  -0.08806,  -0.05301,   0.45862,   0.04511,   0.16426,   0.12220,   0.02408,   0.17126,   0.16426,  -0.15113,   0.19229,   0.18528,  -0.06002,  -0.20720,   0.29742,   0.31845,   0.05212,   0.28340,   0.18528,  -0.31233,  -0.15814,  -0.29831,   0.15024,   0.12220,   0.23434,  -0.10207,   0.04511,  -0.27729,   0.00306,  -0.14412,   0.18528,   0.08716,  -0.17917,   0.02408
  -0.05301,  -0.22122,   0.19229,  -0.03199,  -0.21421,   0.32545,  -0.06002,   0.05913,  -0.00395,   0.10819,  -0.21421,  -0.26327,  -0.05301,   0.10819,   0.02408,  -0.06703,   0.33246,  -0.27028,  -0.21421,  -0.15113,  -0.24925,   0.12220,   0.05913,  -0.27729,   0.03810,  -0.38242,   0.01707,  -0.24225,  -0.04600,  -0.09506,   0.00306,   0.01707,   0.05212,   0.13622,  -0.07404,   0.11520,   0.05913,  -0.18618,  -0.13712,   0.15024,  -0.17216,  -0.36840,  -0.04600,   0.09417,  -0.08105,  -0.22823,  -0.08806,   0.08015,   0.22033,   0.15024,  -0.01797,  -0.24225,  -0.36139,   0.03109,   0.10118,  -0.28430,   0.01707,   0.27639,  -0.16515,   0.21332,  -0.05301,   0.19930,  -0.04600,  -0.21421
   0.02408,   0.05212,   0.19229,  -0.07404,   0.14323,   0.06614,   0.10118,  -0.23524,   0.12220,  -0.08806,   0.01707,  -0.09506,   0.12220,  -0.02498,  -0.09506,  -0.17917,   0.20631,   0.26939,  -0.10908,  -0.09506,  -0.13712,   0.15024,   0.21332,   0.31845,   0.10118,  -0.34037,   0.01707,  -0.13712,   0.31144,   0.04511,  -0.21421,   0.16426,   0.18528,   0.21332,   0.02408,  -0.13011,   0.12921,   0.12220,   0.06614,   0.06614,   0.26939,   0.11520,   0.05913,  -0.11609,  -0.24925,   0.03810,  -0.18618,   0.26939,  -0.03899,  -0.01096,  -0.18618,  -0.01797,  -0.13712,  -0.10908,   0.30443,  -0.17216,   0.13622,  -0.02498,   0.00306,  -0.02498,  -0.04600,   0.07314,  -0.01096,  -0.14412
  -0.17917,  -0.31233,   0.18528,  -0.05301,   0.26238,   0.10819,   0.22033,   0.19930,  -0.16515,   0.37452,   0.29041,  -0.13712,   0.03109,   0.32545,   0.22733,   0.00306,  -0.23524,   0.22033,  -0.29831,  -0.09506,  -0.27028,   0.37452,  -0.39644,   0.13622,   0.00306,   0.29742,  -0.06703,  -0.33336,   0.24836,   0.15024,   0.31845,   0.16426,  -0.34037,   0.03810,  -0.24225,  -0.12310,   0.11520,  -0.03199,  -0.17917,   0.05913,  -0.06703,  -0.36840,  -0.52259,   0.15725,   0.01007,   0.17126,   0.15725,  -0.18618,  -0.09506,   0.05212,   0.18528,   0.08015,   0.03810,   0.03109,  -0.03199,  -0.00395,   0.10819,  -0.11609,  -0.31934,   0.19229,  -0.02498,   0.24836,  -0.29831,   0.18528
  -0.29131,  -0.35438,  -0.03899,  -0.13011,   0.12220,   0.12220,   0.01707,  -0.19318,  -0.07404,  -0.36840,   0.04511,   0.02408,  -0.16515,   0.17827,  -0.13011,   0.21332,  -0.29131,  -0.27028,  -0.09506,  -0.02498,   0.14323,  -0.12310,  -0.24925,  -0.22823,  -0.16515,  -0.06703,   0.16426,   0.15725,  -0.25626,  -0.19318,  -0.01096,  -0.04600,  -0.12310,   0.24135,   0.09417,  -0.00395,   0.15725,   0.00306,  -0.37541,   0.21332,   0.02408,   0.19930,  -0.08105,   0.29041,   0.21332,   0.03810,  -0.01096,  -0.57165,   0.03810,   0.06614,  -0.14412,  -0.22823,   0.05913,   0.07314,   0.09417,  -0.26327,   0.22033,  -0.10908,   0.39554,  -0.01797,   0.00306,   0.00306,   0.07314,  -0.02498
  -0.02498,   0.24836,   0.08015,   0.09417,   0.05212,   0.02408,  -0.03199,  -0.22122,  -0.05301,   0.01007,   0.32545,  -0.37541,   0.00306,   0.00306,   0.02408,   0.00306,  -0.23524,  -0.29131,  -0.23524,  -0.01096,   0.32545,   0.03109,  -0.27729,  -0.27729,  -0.15814,  -0.11609,   0.04511,  -0.08806,  -0.26327,  -0.13712,  -0.21421,  -0.14412,  -0.10207,   0.08015,   0.21332,  -0.11609,   0.38152,  -0.04600,  -0.06703,  -0.13011,   0.10118,  -0.03899,   0.01707,  -0.41045,   0.24135,   0.16426,   0.19229,  -0.17917,  -0.22823,   0.34648,   0.03810,   0.29041,  -0.10207,   0.10118,  -0.03199,  -0.45250,  -0.21421,  -0.13712,   0.04511,   0.33947,  -0.17917,  -0.06703,   0.15725,   0.21332
   0.05913,   0.02408,   0.11520,  -0.17216,   0.10819,   0.08015,   0.38152,  -0.16515,   0.01007,  -0.04600,   0.03810,  -0.32635,  -0.12310,   0.53571,   0.01007,   0.05212,  -0.13712,  -0.00395,  -0.03899,  -0.18618,   0.41657,  -0.17216,  -0.39644,   0.01007,   0.12220,  -0.41045,  -0.22823,  -0.15814,   0.07314,  -0.01797,   0.02408,   0.03810,   0.19229,   0.02408,   0.08716,   0.28340,   0.00306,   0.19229,   0.31144,   0.15725,   0.04511,  -0.23524,   0.08716,  -0.07404,   0.05913,   0.24836,   0.05913,  -0.24225,  -0.31934,  -0.13712,  -0.06703,   0.15024,  -0.34037,  -0.10908,   0.22733,  -0.17917,   0.24135,  -0.13712,  -0.10207,   0.36751,  -0.33336,   0.16426,   0.21332,   0.03810
  -0.28430,  -0.17917,   0.30443,  -0.29131,   0.22733,  -0.07404,  -0.37541,  -0.06002,   0.01707,  -0.00395,   0.13622,  -0.12310,   0.06614,  -0.05301,  -0.05301,   0.26238,  -0.19318,   0.03109,   0.15725,  -0.20019,   0.12921,  -0.01797,  -0.24925,   0.04511,   0.01007,   0.22033,   0.07314,  -0.22823,  -0.20019,  -0.07404,  -0.18618,   0.45161,  -0.08806,  -0.18618,  -0.25626,  -0.10908,   0.09417,  -0.15814,  -0.13011,  -0.01096,  -0.33336,   0.11520,   0.14323,   0.32545,   0.01007,   0.12921,   0.08716,   0.03109,  -0.18618,  -0.04600,   0.48665,  -0.04600,   0.11520,  -0.02498,   0.05913,   0.15725,  -0.17216,   0.09417,   0.04511,   0.16426,  -0.35438,   0.31144,  -0.16515,  -0.50857
  -0.22823,  -0.25626,   0.33246,   0.13622,   0.01707,   0.36751,  -0.20720,  -0.31233,  -0.14412,   0.19229,  -0.29131,  -0.17917,   0.19229,  -0.07404,   0.01007,   0.01007,   0.27639,  -0.08806,  -0.52960,  -0.22122,  -0.13011,  -0.01096,  -0.01096,  -0.03899,   0.19930,   0.24836,   0.03109,   0.08716,   0.18528,   0.18528,   0.31144,  -0.05301,   0.31144,  -0.10207,   0.13622,  -0.17917,  -0.09506,   0.14323,   0.11520,  -0.13011,  -0.02498,  -0.34738,  -0.13712,   0.08015,   0.04511,   0.26238,   0.45161,   0.20631,  -0.10207,   0.28340,   0.30443,  -0.23524,   0.10819,  -0.15814,   0.21332,   0.12220,  -0.28430,   0.74597,  -0.11609,   0.10819,  -0.12310,  -0.18618,  -0.29131,  -0.41045
  -0.05301,  -0.08806,  -0.09506,   0.17126,   0.14323,  -0.56464,  -0.13712,  -0.03199,  -0.01797,  -0.20720,  -0.01096,  -0.08806,  -0.20720,  -0.06703,   0.22733,   0.12220,  -0.35438,   0.28340,  -0.10908,   0.01707,   0.50768,  -0.27729,  -0.35438,  -0.06703,  -0.13011,   0.29742,  -0.20019,   0.19229,  -0.09506,  -0.09506,  -0.19318,  -0.03899,   0.19930,  -0.18618,  -0.15814,   0.28340,   0.29742,   0.01007,   0.19930,  -0.02498,   0.12220,   0.01707,   0.08015,   0.05212,  -0.28430,   0.04511,   0.19229,  -0.50157,  -0.20720,   0.06614,  -0.18618,   0.33246,   0.02408,  -0.06002,   0.43058,  -0.18618,   0.08716,  -0.51558,   0.28340,   0.08716,  -0.13712,   0.30443,   0.22733,   0.02408
   0.27639,  -0.22122,   0.02408,  -0.10908,   0.15024,   0.00306,  -0.29831,   0.02408,   0.16426,  -0.01797,  -0.01797,   0.13622,  -0.32635,   0.01007,   0.15725,  -0.27028,  -0.15814,   0.33246,  -0.25626,   0.22733,   0.42358,  -0.03899,   0.09417,   0.08716,  -0.23524,   0.24135,  -0.09506,  -0.13712,  -0.08105,   0.07314,  -0.45250,   0.02408,   0.33947,   0.05212,  -0.20720,   0.15024,   0.05212,  -0.22823,  -0.22823,   0.00306,  -0.24925,  -0.15814,  -0.12310,   0.26939,   0.01007,   0.08015,  -0.17216,   0.45161,   0.03810,   0.88615,  -0.05301,   0.10819,   0.01707,   0.12921,   0.17827,   0.04511,  -0.22122,   0.27639,  -0.03199,   0.17126,  -0.01096,   0.27639,   0.13622,   0.28340
  -0.06703,   0.12921,   0.03810,   0.15725,   0.01007,  -0.12310,   0.28340,  -0.05301,   0.18528,   0.10819,   0.24135,  -0.13011,   0.15725,  -0.08806,   0.24836,  -0.14412,  -0.22823,  -0.23524,  -0.06002,   0.31845,   0.17827,  -0.28430,  -0.50157,  -0.05301,   0.38853,   0.22033,   0.17827,  -0.36840,  -0.59268,  -0.20720,   0.03109,  -0.13712,  -0.32635,   0.11520,  -0.10207,   0.04511,  -0.24225,  -0.32635,  -0.45250,  -0.09506,  -0.06703,  -0.03899,  -0.10207,   0.05212,   0.14323,  -0.00395,  -0.22122,  -0.13712,  -0.27729,   0.39554,   0.05913,  -0.16515,  -0.54362,   0.37452,  -0.50157,   0.16426,   0.05212,   0.24135,  -0.29831,  -0.27729,  -0.24925,   0.30443,   0.11520,   0.01007
   0.01707,  -0.00395,  -0.29831,  -0.08105,  -0.00395,  -0.02498,  -0.66977,  -0.10908,  -0.00395,   0.10819,   0.12220,   0.06614,   0.35349,   0.01007,  -0.20720,  -0.13011,   0.70392,  -0.03899,  -0.51558,  -0.11609,  -0.08806,  -0.02498,  -0.06703,   0.06614,  -0.06002,  -0.34037,  -0.06703,  -0.03899,  -0.15814,   0.29041,  -0.15113,   0.22733,   0.19229,  -0.08105,  -0.13011,   0.13622,  -0.15113,   0.47965,  -0.29131,   0.45862,  -0.03199,  -0.22823,  -0.15113,  -0.21421,   0.21332,  -0.29831,  -0.05301,   0.12921,  -0.13011,   0.15725,   0.08716,  -0.04600,   0.09417,   0.06614,  -0.06002,  -0.03899,   0.28340,   0.20631,  -0.28430,  -0.13011,  -0.06002,   0.22033,  -0.06002,   0.07314
  -0.08806,  -0.29831,  -0.20019,   0.15725,   0.22733,   0.05913,  -0.00395,  -0.28430,   0.12220,  -0.01096,  -0.36139,  -0.16515,   0.18528,  -0.04600,  -0.06703,   0.09417,  -0.16515,   0.08015,  -0.24225,   0.03109,   0.20631,   0.23434,  -0.42447,   0.02408,   0.17827,   0.19229,  -0.01096,   0.22033,   0.06614,   0.27639,   0.09417,   0.12921,  -0.22823,  -0.10207,  -0.21421,  -0.05301,  -0.21421,   0.01707,  -0.08105,   0.05913,   0.13622,  -0.12310,   0.10819,   0.03109,  -0.00395,  -0.24225,  -0.21421,  -0.15814,   0.17827,  -0.09506,   0.11520,   0.30443,   0.41657,   0.33947,   0.15024,   0.05212,   0.34648,  -0.27729,  -0.03899,   0.29742,   0.08716,   0.10118,   0.01707,   0.29742
   0.22733,   0.04511,   0.16426,   0.01707,  -0.05301,  -0.25626,  -0.23524,  -0.20720,  -0.19318,   0.26939,   0.11520,  -0.36840,   0.19930,   0.01007,  -0.17917,   0.10118,   0.13622,  -0.09506,  -0.24925,  -0.13011,   0.00306,  -0.24225,  -0.38242,   0.05913,   0.03810,  -0.11609,   0.06614,   0.18528,   0.02408,  -0.04600,   0.14323,   0.19930,   0.24836,   0.04511,   0.24135,   0.15024,   0.10118,  -0.10908,  -0.26327,   0.15725,   0.11520,   0.02408,  -0.01096,   0.05212,   0.23434,  -0.20019,   0.15725,  -0.26327,  -0.09506,  -0.06002,  -0.14412,  -0.08806,  -0.05301,  -0.31934,   0.32545,  -0.06703,   0.08015,  -0.06703,  -0.46652,  -0.14412,   0.15725,   0.17827,   0.17126,  -0.33336
   0.22033,   0.06614,   0.12921,   0.12220,  -0.03899,  -0.42447,   0.15024,  -0.18618,   0.39554,  -0.07404,  -0.08806,  -0.22122,   0.20631,  -0.10207,  -0.13712,   0.10118,   0.38853,  -0.40344,  -0.36139,  -0.03199,  -0.01797,   0.03109,  -0.47353,   0.00306,   0.01707,   0.10819,   0.08015,  -0.10908,   0.27639,   0.31144,   0.29041,  -0.06002,  -0.22122,  -0.16515,  -0.21421,   0.00306,   0.41657,   0.03109,   0.08716,   0.06614,   0.11520,   0.12921,   0.28340,  -0.07404,  -0.16515,   0.24836,   0.19930,  -0.18618,  -0.20720,   0.21332,   0.24135,   0.05212,   0.01707,   0.11520,   0.25537,  -0.12310,  -0.14412,  -0.12310,  -0.10908,   0.43759,  -0.13011,  -0.33336,  -0.06002,   0.10819
  -0.22122,  -0.24925,  -0.06002,  -0.23524,   0.00306,   0.09417,  -0.15113,  -0.20019,   0.27639,   0.03810,   0.00306,  -0.24925,   0.12220,  -0.28430,   0.22733,   0.40956,   0.19229,  -0.15113,  -0.27028,   0.19229,  -0.11609,  -0.01096,   0.29742,   0.17126,   0.17827,   0.04511,  -0.03199,  -0.12310,  -0.03899,   0.27639,  -0.02498,   0.33947,   0.29041,  -0.15814,  -0.01096,   0.01707,  -0.06002,  -0.07404,   0.03109,   0.24135,  -0.16515,   0.03109,  -0.34037,  -0.21421,  -0.03899,   0.04511,  -0.24225,  -0.06703,   0.03109,  -0.10207,   0.01007,  -0.38242,   0.27639,   0.10118,  -0.06703,  -0.21421,   0.05212,   0.28340,  -0.23524,   0.16426,  -0.31233,   0.23434,   0.03109,  -0.05301
  -0.67678,  -0.34037,  -0.03199,   0.36050,   0.10819,  -0.18618,  -0.03199,  -0.09506,  -0.07404,   0.29742,   0.05913,  -0.10908,   0.10819,   0.11520,   0.01007,   0.05212,  -0.25626,  -0.01797,  -0.41045,  -0.34037,  -0.03899,   0.29041,  -0.23524,   0.25537,  -0.24225,  -0.23524,   0.04511,   0.29041,   0.03109,  -0.11609,  -0.39644,   0.11520,  -0.11609,  -0.16515,   0.24135,  -0.13712,  -0.10908,  -0.04600,  -0.41746,   0.08716,   0.22733,  -0.24225,  -0.22122,   0.26939,  -0.01797,  -0.17216,   0.17827,   0.14323,  -0.27729,   0.23434,   0.05212,   0.07314,  -0.57866,  -0.13011,  -0.37541,  -0.29831,   0.03810,  -0.20019,  -0.05301,  -0.24225,  -0.22122,  -0.05301,  -0.27028,  -0.36139
  -0.01797,   0.18528,   0.06614,   0.10819,  -0.29131,   0.30443,  -0.24925,  -0.07404,  -0.01096,   0.24836,  -0.07404,  -0.22823,   0.19930,   0.15725,   0.11520,  -0.20720,   0.32545,   0.26939,  -0.03199,   0.38853,   0.05212,   0.36751,   0.23434,   0.03810,   0.24836,  -0.02498,   0.00306,  -0.25626,  -0.08806,   0.26238,  -0.10908,   0.01707,   0.53571,  -0.21421,  -0.41045,   0.15024,  -0.02498,   0.45862,   0.10118,   0.16426,  -0.16515,  -0.01797,   0.06614,   0.15725,   0.13622,  -0.21421,  -0.41746,   0.52871,   0.08716,   0.33246,   0.07314,  -0.01096,   0.25537,   0.03109,  -0.15113,   0.07314,  -0.03199,   0.24135,  -0.24225,  -0.12310,   0.08015,   0.14323,   0.01007,   0.17827
  -0.08105,   0.23434,   0.12921,  -0.03199,   0.03109,  -0.17917,   0.02408,   0.24836,  -0.04600,  -0.09506,   0.14323,  -0.24225,   0.22033,  -0.08105,  -0.13712,  -0.02498,   0.06614,  -0.31233,  -0.36840,   0.14323,   0.19930,  -0.18618,   0.02408,  -0.16515,   0.27639,  -0.12310,   0.19229,  -0.07404,  -0.17216,   0.19930,   0.28340,   0.05913,  -0.20720,   0.04511,  -0.22122,  -0.26327,  -0.29831,  -0.15814,  -0.18618,  -0.13011,  -0.10908,   0.00306,  -0.07404,  -0.08806,  -0.23524,  -0.03199,  -0.19318,  -0.13712,   0.18528,   0.26238,   0.37452,  -0.31233,   0.04511,  -0.31934,   0.13622,  -0.17917,   0.03810,  -0.11609,  -0.30532,  -0.17216,  -0.25626,  -0.27028,   0.15725,   0.03810
   0.03109,  -0.16515,  -0.05301,   0.21332,  -0.20720,  -0.02498,  -0.38943,   0.09417,  -0.07404,  -0.04600,   0.16426,  -0.04600,   0.10118,   0.22733,  -0.06703,  -0.15113,  -0.04600,  -0.09506,   0.04511,   0.05212,  -0.05301,  -0.29131,   0.42358,   0.24135,  -0.34037,   0.04511,  -0.20720,   0.07314,  -0.34738,   0.12921,  -0.07404,   0.14323,   0.23434,  -0.17216,  -0.02498,   0.05212,  -0.08806,  -0.15814,  -0.01797,   0.10819,   0.31845,   0.02408,   0.19930,  -0.26327,   0.21332,   0.05212,  -0.13011,   0.13622,   0.12921,  -0.06703,  -0.32635,  -0.81695,   0.17827,   0.24836,  -0.21421,  -0.20720,   0.17126,   0.09417,  -0.08806,  -0.18618,  -0.21421,  -0.09506,  -0.06703,   0.15024
   0.41657,  -0.10908,   0.05212,  -0.40344,   0.31144,  -0.17917,  -0.18618,  -0.38242,   0.29041,  -0.20019,   0.47965,  -0.02498,   0.26238,  -0.14412,  -0.10207,   0.36751,  -0.18618,   0.35349,   0.01007,   0.00306,   0.19229,  -0.01096,   0.19229,  -0.28430,   0.12220,  -0.20019,   0.10118,   0.37452,  -0.26327,   0.15024,  -0.44550,   0.01707,   0.03109,   0.28340,   0.01707,  -0.03199,   0.07314,  -0.39644,  -0.22122,   0.29742,   0.32545,  -0.00395,  -0.03199,   0.20631,  -0.03899,   0.08015,  -0.04600,  -0.15814,  -0.16515,  -0.07404,  -0.07404,  -0.07404,   0.10118,   0.07314,   0.38152,  -0.25626,  -0.03899,  -0.24925,  -0.12310,   0.33246,  -0.42447,  -0.14412,   0.22033,   0.15024
   0.08015,  -0.17216,   0.38853,   0.03109,  -0.04600,  -0.34037,   0.10118,   0.10819,  -0.10207,   0.47264,   0.24135,  -0.01797,   0.14323,   0.46563,  -0.32635,  -0.14412,   0.19930,   0.13622,  -0.10207,  -0.19318,  -0.38242,   0.02408,  -0.36139,  -0.14412,  -0.01096,   0.28340,  -0.22122,  -0.13011,  -0.15113,  -0.27028,   0.06614,   0.05212,  -0.27729,  -0.27729,   0.05212,  -0.05301,   0.25537,  -0.23524,   0.15725,  -0.17917,   0.07314,  -0.14412,   0.22733,   0.24135,  -0.20720,  -0.04600,   0.29041,  -0.10207,   0.20631,   0.12921,   0.18528,  -0.08105,  -0.13011,  -0.22823,  -0.13011,   0.26238,   0.09417,   0.00306,  -0.15113,   0.17827,   0.02408,   0.06614,  -0.06002,  -0.16515
  -0.10207,   0.20631,   0.13622,  -0.14412,   0.12220,  -0.04600,  -0.29131,   0.12220,  -0.06002,   0.21332,  -0.01096,  -0.20019,   0.22033,  -0.29131,   0.08716,  -0.12310,   0.12921,  -0.12310,  -0.22823,  -0.34738,   0.24836,  -0.28430,   0.10819,   0.04511,   0.10118,  -0.13011,   0.12220,  -0.35438,  -0.07404,  -0.07404,  -0.26327,  -0.23524,   0.29742,  -0.06703,   0.15024,  -0.08806,  -0.34037,   0.20631,   0.16426,   0.17827,  -0.39644,  -0.03199,  -0.15113,   0.04511,   0.05212,  -0.24225,  -0.55063,   0.13622,   0.24836,   0.24836,  -0.08806,  -0.39644,  -0.32635,  -0.47353,  -0.17917,  -0.21421,  -0.01797,   0.06614,  -0.03899,  -0.03199,  -0.30532,  -0.03199,   0.10118,  -0.39644
   0.33246,  -0.12310,  -0.06703,  -0.18618,  -0.12310,   0.18528,  -0.37541,  -0.20019,  -0.09506,   0.54272,   0.04511,  -0.16515,   0.22033,   0.00306,  -0.25626,   0.03109,   0.22733,   0.51469,  -0.33336,  -0.31233,   0.05913,  -0.00395,   0.01707,   0.09417,   0.10118,  -0.13011,  -0.15814,  -0.13712,   0.26238,   0.52871,  -0.41045,  -0.37541,  -0.09506,  -0.06703,  -0.31934,   0.29742,   0.09417,   0.18528,   0.05212,   0.23434,  -0.55063,  -0.39644,  -0.04600,  -0.24225,   0.29742,   0.04511,  -0.17216,   0.30443,   0.36751,   0.29742,   0.26939,  -0.06703,  -0.72584,  -0.15113,   0.25537,  -0.21421,  -0.10207,  -0.18618,  -0.17216,   0.17827,   0.12921,  -0.20019,  -0.06703,  -0.08806
  -0.05301,  -0.22823,  -0.34738,   0.47264,  -0.15814,  -0.39644,  -0.24925,  -0.33336,   0.11520,   0.17126,  -0.10207,   0.00306,  -0.33336,   0.08716,   0.22033,  -0.17917,   0.05212,   0.00306,  -0.36840,   0.48665,   0.42358,  -0.17917,  -0.32635,  -0.00395,  -0.15113,   0.09417,   0.19930,  -0.03899,   0.32545,   0.07314,   0.03810,  -0.13011,   0.02408,  -0.32635,   0.00306,   0.00306,  -0.24225,  -0.01797,  -0.37541,   0.13622,   0.08015,   0.08015,  -0.07404,  -0.27729,  -0.24225,  -0.12310,  -0.09506,  -0.36139,   0.38853,   0.02408,  -0.18618,   0.22733,   0.31144,  -0.26327,  -0.55063,   0.10118,   0.02408,  -0.24925,   0.19930,  -0.17917,  -0.41045,   0.24836,  -0.36840,  -0.01096
  -0.18618,  -0.11609,  -0.01797,   0.34648,   0.08015,  -0.42447,   0.22033,  -0.19318,  -0.06002,  -0.08806,   0.02408,  -0.20019,  -0.38943,  -0.05301,  -0.07404,   0.17126,  -0.13712,  -0.03899,  -0.25626,  -0.02498,   0.25537,   0.00306,  -0.38242,   0.38152,  -0.20720,  -0.27729,   0.02408,   0.28340,  -0.05301,   0.12220,   0.29041,  -0.06703,   0.01007,   0.17126,   0.06614,  -0.02498,   0.33246,   0.21332,   0.50768,   0.44460,   0.17827,   0.25537,  -0.07404,  -0.23524,   0.00306,  -0.05301,   0.29742,  -0.31233,   0.12921,   0.31845,  -0.33336,   0.15024,  -0.17216,   0.15024,  -0.17917,   0.00306,   0.29742,  -0.03199,   0.17126,  -0.19318,  -0.10908,  -0.11609,   0.19930,   0.13622
   0.22033,  -0.10207,  -0.04600,   0.33947,  -0.06703,   0.19229,   0.14323,  -0.21421,   0.07314,   0.24836,  -0.22823,  -0.04600,   0.04511,   0.16426,  -0.22823,   0.03109,   0.26238,  -0.23524,  -0.31233,  -0.27028,  -0.13712,  -0.05301,   0.13622,  -0.02498,  -0.10908,  -0.08806,  -0.10908,   0.38853,   0.14323,  -0.07404,   0.16426,  -0.08806,   0.29742,  -0.11609,  -0.14412,   0.22733,   0.10118,   0.17827,   0.12921,   0.19229,   0.01007,  -0.18618,   0.02408,   0.34648,   0.10118,  -0.00395,  -0.17917,  -0.00395,   0.01007,   0.01707,  -0.10908,   0.03109,   0.04511,  -0.19318,  -0.01797,  -0.44550,  -0.06703,  -0.06703,   0.10118,  -0.13712,   0.01707,   0.12220,  -0.31934,  -0.24925
   0.03109,  -0.15113,  -0.27729,   0.24836,  -0.10207,  -0.20720,   0.10819,  -0.08105,  -0.24925,   0.15725,   0.08716,   0.08015,   0.31144,   0.07314,   0.44460,  -0.08105,   0.06614,   0.03109,  -0.45250,   0.40956,  -0.17917,   0.24135,  -0.25626,  -0.36840,   0.52170,   0.32545,   0.11520,  -0.03899,   0.13622,   0.10819,  -0.41045,   0.40255,  -0.43849,  -0.28430,   0.01007,   0.01007,  -0.31934,   0.21332,  -0.40344,   0.07314,  -0.08105,   0.11520,  -0.25626,   0.65486,   0.38853,  -0.20720,   0.08716,   0.23434,   0.15725,   0.15024,   0.12921,  -0.17917,   0.45862,  -0.36139,  -0.30532,  -0.10908,  -0.15113,  -0.27028,  -0.10207,   0.03810,   0.14323,   0.17126,  -0.36840,  -0.46652
  -0.13712,   0.39554,   0.12220,   0.27639,  -0.01096,   0.02408,  -0.35438,  -0.07404,   0.01707,   0.10819,   0.08015,  -0.25626,  -0.01797,  -0.38943,   0.26238,  -0.29131,   0.28340,  -0.48054,  -0.39644,   0.21332,   0.22033,   0.01707,  -0.22823,  -0.22823,   0.26939,   0.03810,   0.05913,  -0.10908,  -0.02498,   0.11520,  -0.06002,  -0.06703,  -0.15814,  -0.20019,  -0.50857,   0.17827,   0.20631,   0.18528,  -0.06703,   0.15725,  -0.27028,   0.03810,   0.06614,   0.05212,   0.30443,  -0.05301,   0.00306,  -0.35438,   0.00306,   0.24135,  -0.09506,  -0.01096,   0.08015,   0.53571,   0.09417,  -0.16515,   0.20631,  -0.19318,  -0.37541,  -0.08806,   0.01007,   0.22033,   0.10118,  -0.24925
  -0.00395,  -0.12310,   0.07314,  -0.37541,   0.38152,  -0.13011,  -0.22122,   0.02408,  -0.03899,  -0.20019,  -0.51558,   0.28340,  -0.15113,   0.43058,   0.25537,   0.44460,  -0.15814,  -0.04600,   0.06614,  -0.44550,  -0.01797,  -0.20720,   0.40255,  -0.05301,  -0.16515,  -0.04600,  -0.22122,   0.23434,   0.29742,  -0.45951,  -0.01797,   0.18528,  -0.10207,  -0.10207,  -0.20720,  -0.24225,  -0.09506,   0.08716,   0.31144,   0.24135,   0.24836,   0.04511,  -0.10908,  -0.18618,   0.22733,   0.19930,   0.24135,  -0.01797,   0.03810,  -0.07404,  -0.13712,   0.23434,  -0.57866,  -0.19318,   0.17827,  -0.28430,  -0.10207,  -0.43849,   0.03810,   0.17827,  -0.68379,  -0.08105,  -0.00395,  -0.14412
  -0.06703,   0.11520,   0.08716,  -0.09506,   0.10118,  -0.31934,   0.15024,  -0.27729,   0.17126,   0.17126,   0.00306,  -0.10207,  -0.10908,   0.13622,   0.07314,  -0.06703,  -0.04600,  -0.31233,  -0.34738,  -0.11609,   0.37452,   0.12921,  -0.01797,  -0.00395,   0.15024,  -0.13011,   0.00306,  -0.19318,   0.44460,   0.09417,   0.05913,  -0.16515,  -0.15113,  -0.29831,  -0.10207,   0.09417,  -0.34738,   0.32545,   0.04511,  -0.26327,  -0.26327,  -0.07404,  -0.18618,   0.22733,   0.23434,  -0.10207,  -0.07404,   0.11520,  -0.08105,   0.32545,   0.03810,  -0.47353,  -0.10207,   0.07314,  -0.12310,   0.08015,   0.15725,  -0.08806,   0.12921,  -0.11609,   0.15024,   0.04511,   0.17827,  -0.24225
   0.08015,   0.14323,   0.12220,   0.04511,   0.15024,  -0.13712,  -0.23524,  -0.24925,  -0.20019,  -0.05301,  -0.07404,  -0.06002,   0.05212,  -0.34738,   0.33947,   0.10118,   0.33246,  -0.00395,  -0.39644,  -0.00395,  -0.24925,  -0.03199,   0.12220,   0.15024,  -0.29131,  -0.32635,  -0.08806,   0.01707,   0.22033,   0.15024,  -0.05301,   0.14323,   0.33246,   0.18528,  -0.03199,   0.40956,   0.01707,   0.38152,   0.11520,   0.26939,  -0.12310,  -0.17917,  -0.17216,  -0.39644,   0.03109,  -0.30532,   0.10118,  -0.08105,   0.16426,  -0.01797,   0.28340,   0.04511,   0.03810,  -0.03199,   0.10118,  -0.06002,   0.34648,   0.22733,  -0.30532,   0.00306,  -0.21421,  -0.24225,   0.03810,  -0.05301
   0.00306,  -0.17917,  -0.01096,  -0.09506,  -0.25626,  -0.04600,  -0.36840,  -0.27729,   0.13622,   0.10819,   0.03109,  -0.08105,   0.13622,  -0.07404,   0.12921,   0.32545,  -0.14412,   0.27639,  -0.55763,  -0.03199,  -0.02498,  -0.17216,   0.18528,   0.03810,  -0.13011,  -0.06703,  -0.27729,   0.14323,  -0.37541,  -0.08105,  -0.28430,  -0.37541,   0.16426,   0.26939,   0.08716,   0.25537,  -0.15113,  -0.01096,  -0.12310,   0.04511,   0.01007,   0.26939,   0.03109,  -0.01096,   0.08015,  -0.30532,   0.21332,   0.28340,   0.08716,   0.11520,   0.06614,  -0.46652,  -0.36840,  -0.23524,   0.03810,  -0.01096,   0.30443,   0.01007,  -0.24225,   0.00306,   0.24836,   0.01007,   0.06614,  -0.12310
   0.15725,  -0.43148,   0.17827,  -0.35438,  -0.38242,  -0.27729,   0.26238,  -0.29831,   0.51469,   0.08716,   0.32545,  -0.16515,   0.15024,   0.17126,   0.31144,   0.11520,  -0.26327,   0.22033,  -0.25626,   0.00306,   0.09417,   0.26939,   0.16426,   0.18528,  -0.27028,  -0.21421,   0.12921,   0.12921,  -0.45951,  -0.19318,  -0.08806,  -0.38242,  -0.33336,   0.24836,  -0.06703,   0.02408,   0.03109,  -0.06002,   0.01007,   0.02408,   0.38152,   0.10819,   0.15725,   0.22033,   0.11520,   0.03109,  -0.16515,  -0.69080,  -0.13011,   0.04511,  -0.04600,  -0.04600,   0.08015,  -0.01096,  -0.00395,   0.13622,   0.27639,  -0.45951,   0.40956,   0.36050,   0.15024,  -0.08105,   0.31144,   0.13622
   0.40956,  -0.15113,   0.10118,   0.19930,   0.15024,   0.13622,   0.00306,  -0.44550,   0.10819,  -0.22122,   0.19229,  -0.03199,  -0.34738,   0.10118,   0.15725,  -0.05301,   0.05212,  -0.21421,   0.07314,   0.19930,   0.14323,   0.22033,  -0.13011,   0.33947,  -0.01797,  -0.16515,   0.13622,   0.19930,  -0.19318,  -0.31934,   0.11520,  -0.36139,   0.26939,   0.25537,  -0.11609,   0.15725,   0.05913,  -0.06703,  -0.17216,  -0.20720,  -0.27028,   0.12921,   0.19229,  -0.10207,   0.12921,  -0.16515,   0.10118,  -0.51558,  -0.04600,  -0.02498,  -0.05301,   0.13622,   0.28340,   0.01707,   0.01007,  -0.07404,  -0.03899,  -0.19318,   0.14323,   0.19930,  -0.03899,   0.05212,   0.29742,  -0.06002
  -0.36840,   0.03109,  -0.55763,   0.30443,  -0.10908,  -0.14412,   0.12921,   0.10819,  -0.08105,   0.19930,   0.19930,   0.04511,  -0.07404,   0.04511,   0.09417,   0.15024,  -0.15113,   0.09417,  -0.17917,  -0.04600,   0.19930,   0.10118,  -0.39644,  -0.25626,   0.06614,  -0.24225,   0.06614,  -0.03899,   0.08015,   0.46563,  -0.15113,   0.16426,  -0.04600,   0.09417,  -0.20019,  -0.22823,  -0.19318,  -0.10207,  -0.04600,   0.14323,  -0.29131,  -0.15814,  -0.20019,  -0.00395,   0.19930,  -0.11609,   0.10819,  -0.01096,   0.05913,   0.30443,   0.17827,  -0.09506,   0.02408,  -0.15113,   0.16426,  -0.13011,   0.02408,  -0.05301,  -0.01096,  -0.08105,  -0.34738,   0.34648,   0.20631,  -0.06703
  -0.09506,   0.36751,   0.01007,  -0.03899,  -0.41746,   0.05212,  -0.26327,  -0.24925,  -0.31934,   0.00306,   0.10819,  -0.12310,   0.23434,  -0.02498,   0.24135,  -0.17917,   0.13622,  -0.20720,  -0.34037,   0.22733,   0.25537,  -0.05301,  -0.30532,  -0.22122,   0.39554,  -0.01096,   0.20631,  -0.09506,  -0.04600,  -0.08105,   0.00306,   0.01007,  -0.05301,  -0.14412,  -0.22122,   0.22033,  -0.25626,   0.24836,  -0.24925,   0.15024,   0.08015,  -0.17216,  -0.22122,   0.00306,  -0.13011,  -0.00395,  -0.08806,  -0.01797,  -0.13712,   0.00306,   0.16426,  -0.35438,  -0.59268,  -0.01096,   0.36751,  -0.29131,   0.26939,   0.02408,  -0.12310,  -0.38943,  -0.47353,  -0.00395,  -0.15113,  -0.14412
   0.02408,  -0.16515,  -0.10207,  -0.13712,   0.02408,  -0.22823,  -0.36139,  -0.22122,  -0.27729,  -0.08105,  -0.06002,  -0.08105,  -0.38242,  -0.01096,  -0.00395,  -0.07404,   0.55674,  -0.27028,  -0.24225,   0.16426,  -0.18618,  -0.13712,  -0.22823,   0.03810,   0.05913,  -0.24225,  -0.36840,  -0.14412,   0.17827,   0.15024,   0.01007,   0.10819,   0.09417,  -0.11609,  -0.13011,   0.12921,  -0.13011,   0.30443,   0.11520,   0.01707,  -0.24225,  -0.13011,  -0.27729,   0.15725,   0.05212,  -0.37541,   0.15024,  -0.06703,   0.20631,   0.13622,  -0.06002,  -0.14412,   0.04511,   0.33246,  -0.12310,   0.10118,   0.09417,   0.28340,   0.20631,   0.26939,  -0.23524,  -0.09506,  -0.03899,  -0.03199
  -0.08806,   0.18528,   0.23434,  -0.09506,  -0.04600,  -0.09506,   0.14323,  -0.09506,   0.10819,  -0.10207,   0.36050,  -0.20720,   0.43058,  -0.01096,   0.06614,   0.01707,   0.05913,  -0.09506,  -0.24925,  -0.15113,   0.16426,  -0.03199,  -0.52259,  -0.32635,  -0.21421,   0.15725,  -0.00395,   0.12921,   0.05913,   0.24836,  -0.32635,   0.05913,   0.03810,  -0.00395,  -0.20720,   0.15725,   0.04511,  -0.31934,  -0.13712,   0.31845,  -0.31233,  -0.09506,   0.05913,   0.15024,   0.00306,  -0.27729,  -0.21421,  -0.13011,  -0.15814,   0.30443,  -0.36840,  -0.31934,   0.24135,  -0.15814,  -0.37541,  -0.29131,   0.17827,   0.09417,  -0.36840,  -0.09506,  -0.33336,   0.01007,  -0.24225,  -0.18618
   0.12220,  -0.33336,   0.10118,  -0.17917,   0.37452,  -0.10207,   0.15725,  -0.18618,  -0.01797,   0.24836,  -0.05301,  -0.18618,   0.22733,  -0.24225,   0.11520,  -0.04600,  -0.01096,   0.05212,  -0.38242,  -0.09506,   0.15024,   0.25537,  -0.25626,  -0.06703,   0.13622,   0.13622,  -0.35438,   0.01007,  -0.18618,  -0.00395,  -0.24925,   0.25537,  -0.15113,   0.19229,  -0.13712,  -0.39644,  -0.27028,   0.03810,   0.15725,  -0.00395,  -0.10207,  -0.01096,   0.03810,  -0.16515,   0.04511,  -0.09506,   0.19930,  -0.18618,   0.01007,   0.10118,   0.21332,   0.32545,  -0.08105,   0.08015,  -0.28430,  -0.38242,   0.07314,  -0.17917,   0.08015,  -0.15113,  -0.06703,  -0.24925,   0.21332,  -0.31233
   0.28340,  -0.15113,   0.47965,  -0.36840,   0.26939,  -0.16515,  -0.44550,  -0.24225,   0.12220,   0.23434,   0.22033,   0.03109,   0.01707,  -0.01797,  -0.22122,   0.18528,  -0.16515,   0.11520,  -0.42447,  -0.08105,  -0.20720,   0.29041,  -0.08806,  -0.06002,   0.15725,  -0.24925,   0.05913,   0.12921,   0.10118,   0.06614,  -0.06703,  -0.27028,   0.31144,  -0.38242,  -0.06703,  -0.03899,   0.06614,   0.13622,   0.33947,   0.20631,   0.25537,  -0.31233,   0.29742,   0.07314,   0.26238,   0.40956,   0.21332,   0.00306,  -0.13011,   0.34648,  -0.05301,   0.08015,   0.03810,  -0.00395,  -0.01797,   0.14323,  -0.03199,   0.02408,  -0.36840,   0.22033,   0.08015,  -0.06002,   0.26238,  -0.04600
   0.58477,  -0.50857,  -0.15113,  -0.20019,  -0.06703,   0.12220,  -0.06703,   0.02408,   0.10819,   0.06614,  -0.07404,  -0.05301,   0.10118,   0.09417,  -0.41746,   0.36050,   0.09417,   0.46563,  -0.53661,  -0.22823,   0.12220,  -0.03899,  -0.34037,  -0.05301,   0.19229,  -0.32635,   0.26238,  -0.02498,   0.19229,  -0.01096,  -0.06703,   0.13622,   0.22733,  -0.15113,  -0.02498,   0.31845,   0.21332,   0.29742,   0.48665,  -0.22823,   0.31144,   0.10819,  -0.13011,  -0.15814,   0.35349,  -0.30532,   0.34648,  -0.07404,   0.33947,   0.33947,  -0.02498,   0.17827,   0.31144,   0.14323,   0.36751,  -0.25626,  -0.10908,  -0.17216,   0.07314,   0.24836,   0.19229,   0.17126,   0.12921,  -0.10908
   0.28340,  -0.14412,   0.01707,  -0.19318,  -0.06703,  -0.41746,  -0.06703,  -0.16515,   0.33246,   0.21332,   0.28340,  -0.20019,   0.19930,  -0.03199,   0.26238,  -0.24225,  -0.00395,   0.20631,  -0.06703,   0.29041,  -0.15814,   0.10819,  -0.10908,  -0.15113,  -0.41746,  -0.10908,  -0.45951,   0.19930,  -0.01797,  -0.02498,  -0.25626,   0.21332,   0.08015,   0.13622,  -0.65576,  -0.11609,   0.05913,   0.04511,  -0.13011,  -0.10207,   0.53571,  -0.12310,   0.02408,  -0.14412,  -0.17216,  -0.17216,  -0.23524,  -0.58567,  -0.05301,   0.33947,   0.36751,   0.31144,   0.06614,   0.35349,  -0.15113,   0.15024,   0.27639,  -0.47353,  -0.06703,   0.36751,   0.18528,   0.28340,  -0.13011,   0.22033
  -0.43148,  -0.15814,   0.22033,   0.05913,   0.02408,   0.06614,  -0.01797,  -0.10908,   0.02408,   0.12220,  -0.08105,  -0.09506,   0.03810,   0.33246,  -0.10908,   0.24836,  -0.15113,  -0.03199,  -0.03199,   0.08716,  -0.01797,   0.22033,   0.06614,  -0.23524,  -0.15814,   0.00306,   0.23434,   0.08015,   0.17126,  -0.20720,   0.08015,  -0.06002,   0.22033,   0.01707,  -0.12310,  -0.04600,  -0.06703,  -0.27729,  -0.24925,  -0.03899,   0.37452,  -0.11609,  -0.22823,  -0.01797,   0.08716,   0.19930,   0.08716,  -0.08806,   0.03109,   0.02408,   0.03810,  -0.22823,   0.18528,  -0.23524,  -0.08105,  -0.18618,   0.01707,   0.28340,   0.40255,  -0.10207,  -0.07404,   0.01707,  -0.42447,   0.14323
  -0.59969,   0.36050,   0.14323,   0.24135,  -0.11609,   0.16426,  -0.13011,  -0.29831,  -0.39644,  -0.14412,   0.10118,   0.07314,  -0.10908,  -0.35438,  -0.11609,  -0.20019,   0.12921,  -0.14412,  -0.34738,  -0.13712,  -0.15814,   0.20631,  -0.41746,  -0.27028,   0.37452,  -0.17917,   0.01707,  -0.19318,  -0.11609,   0.02408,   0.33246,   0.09417,   0.39554,  -0.13011,  -0.36840,  -0.40344,  -0.15113,  -0.05301,  -0.03199,  -0.06703,  -0.08806,   0.05913,  -0.50857,  -0.30532,  -0.22823,   0.09417,   0.08015,   0.02408,  -0.07404,   0.13622,  -0.44550,  -0.07404,  -0.08806,  -0.26327,   0.22733,   0.05913,  -0.08105,  -0.34037,  -0.01096,  -0.08806,  -0.31934,  -0.28430,  -0.10207,  -0.11609
  -0.30532,   0.02408,  -0.27729,   0.23434,  -0.10207,  -0.06703,  -0.12310,   0.14323,   0.31144,   0.14323,   0.04511,  -0.12310,   0.22033,   0.29041,   0.11520,   0.49366,   0.26238,  -0.01797,  -0.03899,   0.17126,   0.17126,   0.26939,   0.17827,  -0.16515,   0.05212,  -0.05301,   0.24836,   0.01007,   0.12220,   0.17827,  -0.05301,   0.25537,   0.10819,  -0.20019,  -0.10207,  -0.41045,   0.05913,   0.10118,  -0.17917,   0.26939,  -0.13712,   0.21332,  -0.07404,  -0.13712,   0.07314,   0.08015,  -0.15814,   0.14323,  -0.01096,   0.08716,  -0.06703,   0.03810,   0.18528,  -0.43148,  -0.01797,  -0.08806,   0.00306,   0.27639,  -0.20720,  -0.10207,  -0.19318,   0.12921,  -0.03899,  -0.34738
  -0.03899,  -0.27729,  -0.01797,  -0.20019,  -0.18618,   0.19229,  -0.11609,  -0.03199,   0.39554,  -0.34738,   0.02408,  -0.17917,   0.36050,   0.01007,   0.12220,   0.17126,  -0.10908,   0.05212,  -0.33336,   0.15024,  -0.19318,  -0.31934,   0.35349,   0.12220,  -0.33336,  -0.59969,  -0.32635,  -0.03199,  -0.40344,   0.08716,  -0.38242,  -0.15814,   0.26939,   0.40255,   0.29742,  -0.07404,   0.16426,  -0.21421,  -0.29131,   0.28340,   0.34648,   0.07314,  -0.20019,   0.01707,   0.05913,  -0.00395,  -0.45250,   0.00306,   0.36751,   0.02408,   0.07314,  -0.48054,   0.29041,  -0.18618,   0.17126,  -0.12310,   0.12921,   0.64785,   0.07314,   0.24836,   0.06614,   0.13622,   0.26939,  -0.20720
  -0.02498,   0.08716,  -0.07404,  -0.01797,  -0.01096,   0.31144,  -0.26327,  -0.13712,   0.11520,   0.14323,   0.13622,  -0.00395,   0.40956,  -0.07404,  -0.03899,  -0.17917,   0.47264,   0.75298,  -0.22823,   0.13622,   0.17126,   0.02408,   0.38152,  -0.00395,  -0.00395,  -0.21421,  -0.10908,  -0.13712,  -0.06703,   0.25537,  -0.13011,   0.24836,   0.69691,  -0.03899,  -0.57165,   0.31144,   0.12921,   0.25537,   0.38853,   0.24135,  -0.01797,  -0.14412,  -0.49456,   0.12921,  -0.24925,  -0.08105,  -0.20019,   0.18528,   0.55674,   0.08716,   0.19229,   0.19930,   0.06614,   0.24135,   0.34648,  -0.12310,   0.08015,   0.18528,  -0.12310,   0.47965,   0.17827,   0.27639,  -0.00395,   0.14323
  -0.10207,   0.10819,  -0.03899,   0.15725,  -0.10207,  -0.27729,   0.18528,   0.16426,  -0.19318,  -0.37541,   0.00306,   0.24135,   0.20631,   0.10819,   0.04511,  -0.05301,   0.01007,   0.09417,  -0.50157,  -0.02498,  -0.20019,   0.16426,  -0.71883,   0.08015,  -0.13011,   0.21332,  -0.05301,  -0.12310,  -0.27028,  -0.15113,   0.15725,  -0.01096,  -0.07404,  -0.08105,  -0.24225,   0.01007,  -0.05301,   0.13622,  -0.15113,  -0.06002,  -0.10908,   0.03810,  -0.16515,  -0.29831,   0.04511,   0.12220,   0.20631,  -0.41045,   0.01707,  -0.16515,  -0.28430,   0.45862,  -0.05301,   0.58477,  -0.25626,   0.12921,  -0.12310,  -0.52960,  -0.17917,  -0.13011,  -0.30532,   0.43058,  -0.29831,   0.21332
   0.05212,   0.03109,   0.06614,  -0.37541,  -0.18618,  -0.17216,   0.00306,  -0.42447,  -0.50157,  -0.27028,  -0.40344,  -0.32635,   0.22033,  -0.32635,   0.07314,  -0.00395,   0.24836,  -0.08806,  -0.44550,  -0.35438,  -0.06703,   0.07314,  -0.15814,   0.24135,  -0.01797,  -0.07404,  -0.24925,   0.38853,   0.04511,   0.48665,  -0.05301,  -0.13011,  -0.22122,  -0.03199,  -0.06002,  -0.20019,  -0.48755,   0.08015,  -0.20019,  -0.11609,   0.04511,   0.10118,  -0.36840,  -0.34037,  -0.20019,   0.22033,   0.33246,   0.23434,   0.08015,  -0.08806,   0.06614,   0.02408,  -0.31934,   0.66187,  -0.06002,   0.01007,  -0.24225,  -0.21421,   0.11520,   0.13622,  -0.43849,   0.20631,  -0.29831,  -0.55763
  -0.59268,   0.07314,  -0.13011,   0.05913,   0.09417,  -0.11609,   0.13622,  -0.33336,  -0.01096,   0.08015,  -0.05301,   0.16426,   0.17126,   0.19930,   0.00306,  -0.03199,   0.22033,   0.08716,  -0.24925,  -0.15113,   0.31845,   0.50768,  -0.45951,  -0.15814,   0.05913,  -0.01096,  -0.28430,  -0.08806,   0.17827,  -0.29831,   0.12220,  -0.22122,  -0.05301,  -0.18618,  -0.58567,  -0.34738,  -0.08105,   0.24836,  -0.05301,  -0.01797,  -0.19318,  -0.08806,  -0.29831,  -0.34738,   0.27639,   0.13622,   0.09417,  -0.34738,   0.19229,   0.33947,  -0.05301,   0.36050,   0.33246,   0.00306,  -0.22823,   0.33947,   0.01007,  -0.10908,  -0.02498,  -0.28430,  -0.38242,   0.40255,  -0.07404,  -0.22823
  -0.03199,  -0.48755,   0.60580,   0.00306,   0.05212,  -0.00395,  -0.06703,  -0.25626,  -0.13011,  -0.26327,   0.08015,   0.12921,  -0.22122,  -0.01096,  -0.04600,   0.43058,   0.57777,  -0.23524,  -0.13011,  -0.24925,  -0.13712,  -0.08105,  -0.33336,  -0.17917,  -0.22823,   0.15024,   0.01707,   0.11520,  -0.15113,  -0.27729,   0.01007,  -0.26327,   0.15725,   0.20631,  -0.05301,   0.01707,  -0.04600,  -0.31233,  -0.25626,  -0.04600,   0.01007,   0.26238,  -0.38242,  -0.06703,  -0.13712,   0.15725,   0.05913,   0.01707,   0.29041,  -0.03899,  -0.08806,   0.04511,   0.12220,   0.04511,   0.08015,   0.08015,   0.18528,   0.36751,  -0.13011,   0.16426,  -0.57165,  -0.07404,   0.05212,  -0.20019
  -0.24925,   0.14323,   0.15725,   0.18528,  -0.01096,  -0.17917,  -0.10908,  -0.11609,   0.27639,  -0.39644,   0.15725,  -0.11609,   0.10819,   0.00306,   0.44460,  -0.17216,  -0.17216,   0.13622,  -0.27028,   0.35349,   0.18528,   0.22033,   0.03810,  -0.20019,  -0.11609,   0.22033,   0.01707,   0.25537,   0.11520,   0.12921,   0.01707,   0.08015,  -0.08105,  -0.30532,  -0.33336,  -0.09506,  -0.13712,  -0.22823,  -0.21421,   0.05913,  -0.22122,   0.34648,   0.22033,   0.05913,  -0.08105,  -0.34738,  -0.01096,  -0.27028,   0.01707,  -0.12310,  -0.20019,  -0.20720,   0.38853,  -0.07404,   0.18528,  -0.17216,   0.15725,  -0.31233,  -0.20720,   0.11520,  -0.17216,   0.29742,   0.22033,   0.10118
  -0.20019,  -0.30532,   0.31845,  -0.05301,   0.05913,  -0.10908,  -0.29831,  -0.26327,   0.21332,   0.05212,   0.16426,  -0.19318,   0.36751,  -0.08105,  -0.01797,   0.09417,  -0.25626,  -0.22122,  -0.08806,  -0.06002,   0.05913,  -0.18618,   0.30443,   0.20631,  -0.20720,  -0.36840,  -0.03199,   0.00306,  -0.20720,  -0.18618,   0.04511,   0.19930,   0.03109,   0.01007,   0.10118,  -0.27729,  -0.01096,  -0.02498,  -0.22823,   0.47965,  -0.14412,   0.29742,  -0.08806,   0.21332,   0.07314,  -0.01096,  -0.15814,  -0.35438,  -0.20720,  -0.13712,  -0.34037,  -0.76789,  -0.12310,  -0.06703,   0.43058,  -0.29831,  -0.04600,   0.22033,   0.02408,   0.05212,  -0.07404,   0.10118,  -0.17216,   0.00306
   0.22033,   0.12921,   0.22733,   0.11520,   0.01007,   0.13622,  -0.08105,   0.17126,  -0.14412,  -0.04600,  -0.34738,   0.24135,   0.00306,  -0.08806,   0.18528,   0.22033,  -0.03199,   0.59178,  -0.09506,   0.17126,  -0.13011,  -0.08806,   0.03810,   0.15725,  -0.09506,   0.10819,   0.32545,  -0.22823,   0.10118,   0.15024,   0.26238,   0.17827,  -0.30532,  -0.01797,  -0.28430,   0.12220,  -0.13712,  -0.29831,   0.18528,   0.40956,   0.02408,   0.32545,  -0.60669,   0.15725,  -0.01096,   0.20631,  -0.04600,   0.03810,   0.07314,  -0.08806,  -0.27028,  -0.10207,   0.08716,  -0.02498,   0.01007,  -0.27729,  -0.29131,   0.76700,  -0.14412,   0.03109,  -0.34738,   0.15725,  -0.10207,   0.10118
  -0.08105,  -0.15113,  -0.07404,  -0.01797,   0.05212,   0.13622,  -0.04600,  -0.08105,   0.01707,  -0.09506,   0.22033,  -0.11609,   0.16426,  -0.08105,  -0.07404,  -0.00395,   0.16426,   0.09417,  -0.36840,   0.07314,   0.02408,  -0.08806,   0.17126,   0.10819,  -0.02498,   0.00306,  -0.24225,  -0.06703,   0.00306,  -0.05301,  -0.44550,  -0.06703,   0.31144,  -0.05301,  -0.01797,   0.05913,  -0.19318,  -0.07404,  -0.04600,   0.71093,  -0.36139,  -0.13011,  -0.17917,   0.10819,   0.25537,  -0.01797,  -0.14412,   0.17126,   0.43058,   0.04511,   0.17827,   0.03109,   0.33947,   0.00306,  -0.24925,  -0.32635,   0.39554,   0.27639,  -0.38242,  -0.29831,  -0.45951,  -0.01096,  -0.01797,  -0.08105
   0.03109,   0.05212,   0.33246,   0.50067,   0.19229,   0.10819,   0.14323,   0.12921,   0.03810,   0.12921,   0.09417,  -0.12310,  -0.20019,  -0.10207,   0.33246,   0.30443,  -0.25626,  -0.17917,  -0.34037,  -0.12310,   0.01707,  -0.34037,  -0.29831,  -0.12310,   0.16426,   0.11520,  -0.35438,  -0.03199,  -0.20720,  -0.14412,   0.15725,   0.12921,   0.17126,   0.07314,   0.14323,  -0.21421,  -0.06002,  -0.34037,  -0.01096,   0.11520,   0.03109,   0.06614,  -0.19318,  -0.05301,  -0.52960,  -0.09506,  -0.03899,  -0.51558,  -0.21421,   0.31845,  -0.22122,  -0.05301,  -0.09506,  -0.41746,   0.01707,   0.31845,  -0.31233,   0.22033,  -0.21421,   0.09417,  -0.03899,  -0.17216,   0.06614,  -0.01096
   0.51469,  -0.06703,  -0.12310,   0.16426,  -0.06002,  -0.41045,  -0.03199,  -0.33336,   0.28340,  -0.00395,  -0.03199,  -0.06703,   0.06614,  -0.23524,  -0.04600,   0.10118,  -0.15113,   0.27639,  -0.04600,   0.25537,   0.24135,   0.04511,  -0.08105,  -0.43148,   0.07314,  -0.20019,  -0.17216,  -0.31233,  -0.08806,  -0.01797,  -0.09506,  -0.16515,   0.19229,   0.05913,  -0.24925,  -0.22122,   0.17827,   0.04511,   0.14323,   0.05212,  -0.04600,   0.06614,  -0.03899,  -0.15113,  -0.08806,  -0.14412,  -0.17917,  -0.37541,  -0.04600,  -0.14412,  -0.50157,   0.00306,   0.12921,  -0.21421,   0.05913,   0.30443,   0.44460,   0.47264,   0.10819,   0.18528,   0.01707,   0.16426,   0.29041,  -0.09506
   0.21332,  -0.10908,  -0.28430,   0.04511,  -0.30532,  -0.27729,  -0.05301,  -0.72584,   0.46563,   0.23434,   0.40956,  -0.29831,   0.13622,  -0.13011,  -0.43849,   0.33947,   0.18528,  -0.05301,  -0.49456,  -0.11609,  -0.10908,   0.01707,  -0.24925,  -0.41746,   0.37452,  -0.43148,   0.03109,  -0.31934,   0.22033,  -0.12310,   0.22733,  -0.12310,  -0.01096,   0.04511,  -0.18618,   0.43759,   0.46563,   0.13622,   0.05913,  -0.01797,  -0.02498,  -0.17216,   0.20631,   0.19229,   0.29041,   0.20631,   0.05212,  -0.03899,   0.16426,   0.30443,   0.01707,  -0.24925,   0.17126,  -0.65576,   0.03810,  -0.25626,   0.31144,   0.47965,   0.13622,   0.07314,   0.30443,   0.07314,   0.10118,  -0.13011
