   0.00188,  -0.02572,   0.08469,   0.05709,   0.04837,   0.03094,   0.02077,  -0.02572,   0.00043,   0.00624,   0.02222,  -0.05913,  -0.02427,   0.04692,  -0.05768,   0.06144,   0.02077,  -0.04751,  -0.01119,   0.01350,   0.09486,  -0.00683,  -0.05623,   0.05709,   0.05563,  -0.00683,   0.04401,   0.10067,   0.02513,  -0.00102,  -0.01410,   0.04546,   0.02948,   0.10503,  -0.02281,  -0.00393,   0.05127,  -0.03589,  -0.02281,  -0.01410,  -0.00683,  -0.04896,  -0.03879,   0.06871,  -0.06349,   0.03239,   0.04256,   0.02222,  -0.00538,  -0.02281,   0.00479,   0.03094,  -0.05332,   0.00915,  -0.03153,  -0.00102,   0.01786,  -0.04025,   0.00043,  -0.04896,  -0.05478,   0.00333,  -0.10272,  -0.02427,  -0.01846,  -0.08964,   0.00043,   0.01641,   0.04546,   0.07888,  -0.01265,   0.03965,  -0.03008,  -0.03153,  -0.00393,  -0.02717,   0.02803,  -0.03008,  -0.00829,  -0.00248,   0.04982,   0.02803,   0.03529,  -0.01265,   0.03094,  -0.05332,   0.04692,   0.02367,  -0.04315,   0.03384,   0.05709,  -0.03444,   0.05999,   0.03529,   0.02367,   0.01931,   0.00915,  -0.06785,   0.01060,  -0.03298,  -0.07366,   0.03965,   0.02658,  -0.03589,   0.07452,  -0.02136,  -0.02572,   0.05709,  -0.01700,  -0.01846,   0.06580,  -0.01991,  -0.01119,  -0.02717,  -0.00393,  -0.01846,  -0.04315,  -0.06204,   0.03239,  -0.04461,   0.00915,  -0.03298,  -0.01410,   0.00043,   0.05418,  -0.01846,  -0.09109,  -0.03589,   0.03094,  -0.01119,  -0.00683,   0.00479,   0.06871,   0.00188,   0.04401,  -0.01265,  -0.06059,   0.04111,  -0.03153,  -0.00102,   0.01786,  -0.02427,  -0.04461,   0.00624,   0.02077,   0.07597,   0.09486,   0.03529,  -0.01410,  -0.05042,  -0.02427,  -0.05332,   0.00479,  -0.04170,  -0.03008,   0.01641,  -0.00538,   0.00915,   0.00043,  -0.00538,   0.06290,   0.05273,   0.06871,   0.00188,  -0.01991,   0.01496,   0.01350,   0.00333,   0.01786,  -0.03153,   0.03094,  -0.02572,   0.05127,  -0.02717,   0.02222,  -0.01991,   0.04111,   0.00043,  -0.00248,   0.01931,   0.03094,  -0.04461,  -0.04315,   0.00043,  -0.05187,  -0.00974,   0.05999,  -0.00248,   0.02222,   0.02658,   0.06290,   0.01496,   0.04692,   0.04692,   0.01496,   0.06290,  -0.01700,  -0.00248,   0.00479,  -0.01991,   0.01205,  -0.05187,   0.03384,   0.02658,  -0.01555,  -0.02572,  -0.03879,   0.01350,  -0.04461,   0.00333,   0.03529,   0.00479,   0.04401,  -0.00829,   0.04256,   0.02948,   0.00624,  -0.01265,  -0.01846,  -0.02136,  -0.02863,   0.09340,  -0.02281,   0.02367,   0.01350,  -0.01119,  -0.00393,  -0.02427,   0.03965,  -0.01265,   0.07742,  -0.03153,   0.02948,  -0.05332,   0.01350,   0.00769,  -0.00538,  -0.00102,   0.00333,   0.00769,   0.04256,   0.02658,  -0.03879,  -0.01555,   0.09776,   0.00915,   0.01641,   0.02222,   0.02658,  -0.00683,   0.03965,   0.04256,   0.01060,   0.00915,   0.03239,  -0.01700,   0.08178,   0.06435,   0.02367,   0.00043,   0.07597,   0.05709,  -0.03879,   0.00624,   0.02367,   0.01205,   0.01060,   0.00188,  -0.01700,  -0.00102,  -0.00683,  -0.02717,   0.00333,  -0.03298,   0.02658,  -0.03298,   0.04401,  -0.04896,   0.05418,  -0.01410,  -0.02717,   0.00769,  -0.04461,  -0.00102,   0.00915,  -0.06930,   0.00479,   0.03239,  -0.02863,  -0.00538,  -0.02427,  -0.00538,  -0.00102,   0.03529,   0.01786,  -0.10707,  -0.07511,  -0.03444,  -0.00829,  -0.00829,   0.02222,   0.02513,   0.01786,  -0.02136,   0.01060,  -0.05332,  -0.02281,  -0.04896,   0.01641,   0.02948,  -0.03589,   0.05418,   0.02077,  -0.02136,  -0.01555,  -0.03298,   0.08178,   0.06290,  -0.01555,  -0.03444,   0.10212,  -0.07366,  -0.01846,  -0.00248,  -0.02427,  -0.01991,   0.04837,  -0.01265,  -0.02136,   0.00333,  -0.06204,   0.04401,   0.05563,   0.08614,   0.03384,  -0.04896,  -0.00538,   0.00624,  -0.05623,   0.07597,  -0.02863,   0.03965,   0.03094,   0.01060,   0.02948,   0.03529,   0.07016,  -0.05913,   0.01496,  -0.03589,  -0.05913,  -0.01555,  -0.03153,  -0.03008,  -0.03153,  -0.04606,   0.02367,  -0.02863,   0.03384,   0.03820,   0.03384,   0.04111,  -0.03734,   0.03529,   0.00043,  -0.04461,  -0.02136,   0.03820,   0.04111,  -0.00683,  -0.06059,   0.01496,  -0.01265,  -0.09109,   0.03820,  -0.00829,   0.01931,  -0.01265,   0.04837,   0.04982,   0.04546,  -0.02281,   0.02803,  -0.00683,   0.01350,  -0.01991,   0.02658,  -0.00538,  -0.04025,  -0.05913,  -0.09109,  -0.01555,  -0.03153,  -0.00393,   0.01786,   0.01496,   0.02513,  -0.03153,  -0.03589,  -0.06059,  -0.01410,   0.01641,  -0.01119,  -0.01846,  -0.00102,  -0.01265,  -0.01410,  -0.02281,  -0.01846,  -0.03298,   0.00479,   0.04256,   0.00479,  -0.07802,  -0.04025,   0.02803,   0.06290,  -0.01119,  -0.03444,   0.00333,   0.06871,   0.03239,  -0.02717,  -0.04606,  -0.01410,   0.02803,   0.05418,  -0.04751,  -0.03008,  -0.04751,  -0.07511,  -0.03008,  -0.02863,   0.01496,   0.05563,   0.04837,  -0.04461,   0.02803,   0.01786,   0.02948,   0.00479,  -0.00102,  -0.01991,   0.00333,  -0.00829,  -0.07657,  -0.06930,  -0.01265,   0.02658,  -0.02572,   0.05854,   0.02658,   0.07161,  -0.04170,  -0.06204,  -0.01846,  -0.05768,   0.01641,   0.01786,  -0.07076,   0.02367,  -0.04606,  -0.00829,  -0.02427,   0.03384,   0.05273,   0.08905,   0.07307,   0.02803,  -0.01119,  -0.04751,  -0.04315,  -0.00683,   0.00769,   0.01931,  -0.02717,   0.01641,  -0.00829,   0.00188,  -0.06204,   0.01496,  -0.08819,   0.00188,   0.04256,   0.01496,  -0.09690,  -0.07366,   0.03384,   0.00769,   0.01786,  -0.04461,  -0.03444,   0.05709,   0.02948,   0.01060,   0.04401,  -0.03444,  -0.07366,   0.03384,   0.00624,  -0.00248,  -0.05042,   0.05709,  -0.01991,  -0.01555,   0.01060,   0.00624,   0.01931,  -0.00393,  -0.04025,   0.01931,   0.05999,   0.07307,   0.01786,  -0.01119,  -0.09690,  -0.01555,  -0.01555,   0.10357,   0.09340,   0.03675,   0.02513,  -0.02572,   0.00624,  -0.01410,  -0.09400,   0.01496,  -0.00393,  -0.02863,   0.03820,   0.02367,  -0.01265,   0.03384,  -0.00538,  -0.01846,  -0.00538,   0.00915,  -0.03153,  -0.04461,   0.02658,  -0.00102,  -0.04606,   0.00479,   0.03094,  -0.07802,   0.06144,   0.00624,  -0.04170,   0.03820,  -0.02572,   0.03965,  -0.03298,  -0.03008,   0.05563,  -0.00393,   0.00624,   0.07452,   0.03384,  -0.02281,  -0.02427,  -0.03879,  -0.00248,  -0.00974,  -0.04461,   0.02077,   0.00188,  -0.08092,   0.00479,   0.01350,   0.00769,  -0.00974,  -0.03589,  -0.03008,   0.01931,  -0.09255,   0.02513,   0.02513,  -0.07511,   0.08178,   0.00769,  -0.03734,   0.02077,  -0.00248,   0.02658,   0.06580,   0.01496,   0.04256,  -0.01846,  -0.04751,  -0.01119,   0.05418,  -0.04461,  -0.03444,  -0.06349,  -0.00248,  -0.07366,  -0.00393,   0.00479,  -0.00102,  -0.01119,   0.05709,  -0.03734,  -0.01410,  -0.02572,   0.01205,  -0.05332,   0.03529,  -0.04606,   0.03094,   0.02222,  -0.01846,  -0.02863,   0.03820,   0.02513,  -0.05623,  -0.01555,  -0.00102,   0.01350,  -0.05042,  -0.02281,  -0.04170,   0.00333,   0.01205,  -0.04025,  -0.04751,   0.02077,   0.01060,   0.01205,   0.03820,   0.02513,  -0.03008,   0.02222,  -0.06349,   0.02367,  -0.01410,  -0.00248,  -0.01991,  -0.02863,  -0.00683,  -0.05623,  -0.00248,   0.02948,  -0.02863,   0.02222,  -0.05768,   0.04982,   0.00624,   0.02077,  -0.03589,   0.04692,  -0.02136,  -0.02427,  -0.02427,   0.00769,  -0.02136,   0.01931,  -0.05042,  -0.02427,  -0.06930,  -0.06930,  -0.02281,  -0.06349,  -0.03298,  -0.02863,   0.00188,   0.06290,   0.00769,  -0.02136,   0.06871,  -0.01119,   0.01496,   0.08759,  -0.02863,  -0.00248,   0.00624,   0.01496,  -0.11434,   0.00479,  -0.01410,  -0.05187,  -0.06204,  -0.03444,   0.04546,  -0.00974,  -0.04461,  -0.04170,  -0.00393,  -0.01119,   0.00333,   0.03675,  -0.00393,   0.00188,  -0.04025,  -0.04025,   0.01496,  -0.14920,  -0.03008,   0.03384,  -0.00393,   0.04982,   0.01205,  -0.03008,   0.00188,   0.00769,  -0.01119,   0.01931,  -0.02281,   0.02077,   0.00624,   0.05273,  -0.00393,   0.02077,   0.09050,  -0.10272,  -0.02281,   0.00188,  -0.03879,   0.03239,  -0.03589,   0.00188,  -0.00538,  -0.00393,  -0.02136,  -0.01846,   0.05709,   0.07597,  -0.07076,  -0.01846,  -0.04896,   0.01641,  -0.04461,   0.01496,  -0.00683,   0.00624,   0.06144,   0.01496,  -0.03879,   0.04256,  -0.02717,   0.03965,   0.05563,  -0.02136,  -0.02572,  -0.03734,  -0.05913,  -0.00683,   0.03675,  -0.12160,  -0.00102,   0.00043,  -0.04751,  -0.03008,  -0.00974,   0.00043,  -0.00102,  -0.00974,   0.01350,  -0.04315,  -0.03153,   0.03820,   0.07597,   0.02513,   0.00915,  -0.01265,  -0.01265,   0.00915,  -0.00248,  -0.03298,  -0.03444,   0.00624,   0.02803,  -0.00248,   0.00769,  -0.01700,  -0.03589,   0.02367,   0.02367,  -0.06204,   0.02222,  -0.00393,   0.00915,  -0.04170,   0.01205,  -0.02717,  -0.00829,  -0.00102,  -0.04606,  -0.02427,   0.06290,   0.01496,   0.01641,  -0.03879,  -0.01555,   0.04111,   0.00479,   0.04982,  -0.04606,   0.03239,   0.01060,  -0.00974,   0.00333,   0.07161,   0.08469,   0.02513,  -0.06640,   0.03820,   0.00188,   0.00624,   0.00624,  -0.01265,   0.00624,   0.01205,  -0.03734,  -0.03734,  -0.00683,   0.00915,   0.08469,  -0.00974,   0.01931,   0.05999,  -0.03298,   0.04401,  -0.01991,  -0.02281,   0.00915,  -0.08238,   0.01786,   0.01496,   0.04546,  -0.02136,   0.06871,  -0.00829,  -0.00974,   0.03820,   0.05273,  -0.01119,  -0.01265,   0.05273,   0.03239,  -0.02863,   0.06871,   0.04111,  -0.00102,  -0.00102,  -0.06059,  -0.03879,  -0.04606,  -0.04461,  -0.05623,   0.00624,   0.00043,  -0.04751,   0.02077,  -0.05478,   0.00624,   0.02513,   0.04692,  -0.05187,  -0.03008,   0.07742,   0.00188,   0.00333,  -0.03879,  -0.01846,   0.02658,  -0.03298,  -0.01265,   0.03675,   0.06580,   0.07307,   0.02803,  -0.01119,  -0.00829,   0.03820,  -0.02427,  -0.05042,  -0.04025,  -0.03298,   0.00624,  -0.01555,   0.02222,  -0.00393,   0.02513,   0.00333,   0.01060,   0.03529,   0.04837,  -0.04606,   0.01496,   0.00333,   0.03384,   0.00188,   0.04837,   0.03094,  -0.01265,  -0.01700,  -0.04751,  -0.02136,   0.02367,   0.00624,   0.03529,   0.04256,  -0.02281,  -0.02572,  -0.04025,  -0.00974,   0.00915,  -0.02427,   0.01496,   0.02222,  -0.00829,   0.04256,  -0.03008,  -0.00683,  -0.00974,  -0.02136,   0.01205,  -0.05332,   0.00769,   0.06290,   0.02948,   0.08033,   0.02513,  -0.04461,  -0.01555,  -0.01700,   0.01786,   0.02948,   0.07016,   0.01060,   0.01060,   0.01496,  -0.01265,   0.04546,   0.03384,  -0.02136,  -0.01700,   0.05563,  -0.02427,  -0.00829,   0.01641,  -0.01991,  -0.00248,  -0.00974,   0.06290,  -0.05768,  -0.04170,  -0.01410,   0.08323,   0.04256,  -0.01991,   0.03239,   0.03965,   0.03529,   0.02513,   0.03094,  -0.01991,   0.02077,   0.02658,  -0.04606,  -0.00829,   0.01060,  -0.02572,  -0.06059,  -0.01410,   0.01205,   0.04692,   0.00915,   0.04401,  -0.01265,   0.04546,  -0.01265,  -0.03008,  -0.06204,   0.01060,   0.05273,  -0.02717,  -0.02281,   0.04546,   0.03965,   0.02658,  -0.00248,   0.03384,  -0.02572,  -0.02572,   0.00624,   0.00043,   0.01931,  -0.06494,  -0.01555,   0.06435,  -0.03008,   0.05563,   0.00915,   0.04401,  -0.01119,   0.04982,   0.00479,   0.07452,  -0.12305,   0.00188,  -0.08819,  -0.01410,   0.00624,   0.01205,   0.09050,   0.00188,   0.01786,  -0.02281,   0.03529,  -0.01410,  -0.03008,  -0.03879,  -0.06204,  -0.04315,   0.03965,  -0.01555,  -0.00248,   0.01060,  -0.02136,  -0.03008,  -0.01846,  -0.02281,   0.09050
  -0.00974,  -0.01555,   0.00043,  -0.00538,   0.00333,   0.01641,   0.01786,   0.00479,  -0.01700,  -0.00393,  -0.07076,  -0.00974,   0.02222,  -0.02863,  -0.00538,   0.04546,  -0.03153,  -0.00829,  -0.00538,  -0.01846,  -0.01846,   0.00043,   0.01350,   0.02222,  -0.01410,  -0.05042,  -0.02572,  -0.01410,  -0.03734,   0.03965,  -0.02863,  -0.04461,   0.03675,  -0.04461,  -0.04170,   0.00769,   0.03675,  -0.08092,   0.07016,  -0.01265,   0.01060,   0.01641,  -0.05332,  -0.01555,  -0.03298,   0.01931,   0.00333,  -0.03444,   0.01205,   0.01205,  -0.06059,  -0.04315,   0.03094,   0.11665,  -0.03008,   0.04401,  -0.02136,  -0.05042,   0.03384,  -0.03298,  -0.01119,  -0.05478,   0.02367,   0.00333,  -0.03008,   0.00624,  -0.04896,  -0.03589,  -0.03298,  -0.05042,  -0.06494,   0.01786,  -0.04315,   0.04111,  -0.03734,   0.03529,  -0.02863,  -0.04751,   0.01205,   0.06871,  -0.04461,   0.01060,  -0.00829,   0.02367,  -0.02427,  -0.00974,   0.01205,   0.02513,  -0.01991,  -0.01991,  -0.03008,  -0.03008,   0.00333,  -0.00829,   0.02803,  -0.01700,  -0.01846,  -0.03879,   0.02803,   0.03820,  -0.06640,   0.01350,   0.02658,  -0.07511,   0.01496,  -0.03153,   0.02948,   0.01205,   0.00333,  -0.03589,   0.07452,   0.06144,   0.06435,   0.05563,  -0.05623,   0.02077,  -0.00538,   0.00333,   0.02367,  -0.03008,  -0.02717,  -0.00829,   0.01496,  -0.00829,  -0.04896,  -0.03008,  -0.01700,   0.01350,  -0.03589,   0.02948,  -0.00102,   0.03675,   0.04111,   0.03820,  -0.02136,  -0.04751,   0.04837,   0.01931,   0.00915,  -0.02863,  -0.00829,  -0.02572,  -0.00974,   0.00769,  -0.04315,  -0.04025,  -0.02281,   0.06144,  -0.04170,   0.02948,  -0.01410,   0.00043,   0.05854,  -0.04315,  -0.00974,  -0.04606,   0.01931,  -0.00829,   0.01205,  -0.07947,   0.04692,   0.00624,   0.00188,  -0.08528,   0.07016,  -0.01991,   0.03239,  -0.04315,   0.01496,   0.02077,  -0.04170,  -0.01846,  -0.05187,   0.01786,  -0.07511,  -0.06785,  -0.03298,   0.01641,  -0.01555,  -0.01700,  -0.05768,  -0.01991,  -0.04606,  -0.06494,  -0.06640,  -0.01700,   0.00624,  -0.00393,  -0.12451,   0.02658,  -0.06059,   0.00769,   0.01641,  -0.03444,  -0.04751,  -0.00683,   0.05999,  -0.00829,  -0.03444,  -0.02281,  -0.00974,   0.01496,   0.01060,   0.01496,   0.01060,   0.00043,  -0.01700,   0.02658,   0.02658,  -0.02427,  -0.01991,   0.03965,   0.02077,   0.00333,   0.00188,  -0.07366,   0.09776,   0.02658,  -0.03734,  -0.01991,   0.03384,   0.04401,   0.09776,   0.01060,   0.03239,   0.07742,   0.01205,   0.03965,   0.01496,   0.04546,   0.01350,   0.03820,  -0.00393,   0.11374,  -0.03444,  -0.10272,  -0.03734,   0.00043,   0.01060,  -0.00393,  -0.03879,   0.00043,   0.02077,  -0.00393,   0.01060,  -0.03734,  -0.00538,  -0.01700,  -0.02717,   0.03820,   0.02077,  -0.04461,  -0.07221,  -0.01846,   0.01350,  -0.06930,   0.02367,   0.06580,   0.00769,   0.03675,  -0.09836,   0.00188,  -0.03008,  -0.00248,   0.02222,   0.01060,  -0.08528,   0.08178,   0.02222,   0.00915,   0.04256,  -0.07802,  -0.03589,   0.01350,  -0.04751,  -0.03734,  -0.04315,  -0.07802,  -0.02281,  -0.00538,   0.01060,   0.03239,  -0.00538,   0.03239,   0.00624,  -0.09400,   0.00333,   0.03529,  -0.01555,  -0.00683,   0.00769,  -0.01700,   0.07016,   0.02222,  -0.01410,   0.03239,   0.02367,  -0.01265,  -0.00974,   0.00188,   0.02367,  -0.06059,  -0.02136,  -0.04751,  -0.00683,   0.00188,   0.05127,   0.00624,  -0.01410,  -0.02427,  -0.03298,   0.01786,   0.02948,  -0.02863,   0.01060,  -0.02863,   0.00624,   0.01350,   0.00915,  -0.01991,  -0.05042,  -0.03444,  -0.03153,   0.01786,  -0.03879,  -0.03589,  -0.04461,  -0.01991,  -0.01700,  -0.02863,  -0.04896,   0.04982,   0.00769,   0.01931,   0.02658,   0.03675,   0.07161,  -0.00974,   0.03094,  -0.05623,   0.03094,   0.05273,  -0.00393,   0.00769,   0.04256,   0.03529,  -0.00538,   0.06580,  -0.04461,   0.01350,  -0.01265,   0.03094,   0.00043,  -0.04315,   0.01205,   0.01496,   0.04982,  -0.00538,  -0.00102,  -0.00829,  -0.01846,   0.04401,   0.02077,  -0.01700,   0.02948,   0.00043,  -0.01846,   0.00769,   0.00188,  -0.00974,  -0.04025,   0.04401,   0.00043,   0.07742,  -0.00829,   0.05127,   0.00188,   0.00188,   0.01496,   0.04111,  -0.04170,  -0.04606,   0.09050,   0.01350,   0.04111,   0.04837,  -0.01265,  -0.04606,  -0.04170,   0.03239,  -0.07366,  -0.08674,  -0.02717,   0.05418,   0.03094,   0.02803,   0.02222,   0.02948,   0.00188,  -0.04170,  -0.00974,   0.03820,  -0.00683,  -0.05042,   0.02658,   0.00624,   0.01641,  -0.06204,  -0.04606,   0.02222,  -0.03734,  -0.09109,  -0.01265,  -0.03444,  -0.07366,   0.00624,  -0.02281,   0.00624,   0.00479,   0.00188,   0.03529,   0.05709,  -0.04170,   0.00769,  -0.05478,   0.06871,   0.02658,  -0.06640,   0.05418,   0.03965,   0.07888,  -0.01265,  -0.00393,  -0.03734,   0.02658,   0.03675,   0.03239,  -0.02572,   0.00479,  -0.03589,  -0.03008,  -0.06494,  -0.00102,   0.06435,   0.02077,   0.02077,   0.00769,  -0.02572,   0.00769,   0.04837,  -0.00829,  -0.03298,  -0.01991,   0.00043,   0.01641,   0.01350,   0.05709,   0.00043,   0.00915,   0.04256,  -0.03879,   0.00333,   0.01060,   0.00043,   0.03675,  -0.04025,   0.00624,  -0.03298,   0.06144,  -0.03008,   0.01931,   0.02367,  -0.04170,   0.02803,  -0.02717,  -0.02717,  -0.03734,  -0.04751,   0.03094,   0.02513,  -0.00538,  -0.01555,  -0.02572,  -0.00538,   0.06144,  -0.03298,   0.03239,  -0.01846,   0.06290,  -0.05187,   0.01350,  -0.01265,   0.00479,   0.02222,  -0.04606,  -0.01119,   0.04692,  -0.00683,  -0.03444,   0.00333,  -0.01119,  -0.03153,  -0.01119,   0.01641,   0.02658,  -0.00974,  -0.06640,   0.04546,   0.03529,  -0.00974,   0.02222,  -0.06494,  -0.00102,  -0.07802,   0.00043,  -0.01991,  -0.03734,  -0.04461,   0.04692,   0.01350,  -0.01265,  -0.00393,   0.08033,  -0.03589,  -0.01846,   0.04111,   0.00624,   0.05127,  -0.03153,  -0.00829,  -0.02863,  -0.03734,   0.00915,  -0.01846,  -0.04461,  -0.04606,  -0.00829,   0.09776,   0.01350,  -0.02136,   0.01786,   0.00915,  -0.00102,   0.00915,  -0.06059,   0.03094,   0.01060,   0.00624,  -0.01991,  -0.03444,   0.01931,  -0.03153,  -0.01410,  -0.02572,   0.03239,  -0.00538,   0.02803,   0.05418,   0.03820,  -0.08528,  -0.06640,  -0.02863,  -0.00248,   0.03820,  -0.03008,  -0.01410,  -0.02281,   0.00333,  -0.03298,  -0.08383,   0.04837,  -0.07221,  -0.02572,   0.05709,  -0.02863,  -0.02572,  -0.03008,  -0.03298,   0.06435,   0.04982,  -0.04170,  -0.00974,   0.01060,  -0.05478,  -0.04751,  -0.00248,   0.00624,  -0.01555,   0.03094,   0.00043,  -0.02863,  -0.04025,   0.00915,  -0.01991,  -0.05768,   0.07307,  -0.00102,  -0.05187,  -0.06785,   0.01205,   0.03965,  -0.00683,   0.00915,   0.01931,  -0.00683,   0.02077,   0.00479,   0.04256,  -0.00538,   0.03384,   0.00043,  -0.02863,  -0.06204,  -0.03444,   0.00769,   0.02803,  -0.02863,  -0.00102,  -0.04025,  -0.02281,   0.04692,   0.01931,   0.00769,   0.04546,  -0.02281,  -0.01119,  -0.04896,   0.01496,  -0.00248,   0.00769,   0.02948,   0.07888,   0.03675,   0.02948,   0.02658,  -0.01991,   0.04401,  -0.02572,  -0.01700,   0.00043,  -0.02863,  -0.00829,  -0.01119,   0.01060,  -0.01410,   0.05709,   0.01641,   0.03384,   0.07161,  -0.00538,  -0.00974,   0.05127,   0.00188,   0.02513,  -0.04461,   0.04546,  -0.02281,   0.08905,   0.01931,   0.00624,   0.02222,  -0.01410,  -0.08092,  -0.01991,   0.00769,  -0.02717,  -0.00102,   0.04401,   0.00915,  -0.01555,  -0.04025,  -0.06349,  -0.00102,  -0.02572,   0.02803,  -0.02136,   0.01350,   0.01205,  -0.00829,  -0.03444,  -0.00538,   0.06580,  -0.04461,   0.06435,  -0.01700,  -0.05768,  -0.05768,  -0.05913,   0.05709,  -0.01119,  -0.03734,  -0.01410,  -0.03008,  -0.07802,   0.03384,  -0.05913,   0.07161,  -0.01555,  -0.01119,  -0.07221,   0.06725,   0.00769,   0.02513,  -0.04315,  -0.03879,  -0.01265,   0.00043,   0.01641,   0.00333,   0.02803,   0.03529,   0.01350,  -0.01991,  -0.01265,   0.00333,   0.04256,   0.00915,  -0.00393,  -0.03153,  -0.02863,  -0.03589,   0.02803,  -0.04025,  -0.02136,  -0.02572,   0.05418,   0.03965,  -0.04025,  -0.01119,   0.03820,   0.01786,  -0.03589,   0.05418,  -0.05768,   0.02367,  -0.06930,   0.01496,  -0.02136,  -0.00974,   0.03094,   0.03820,   0.00479,   0.01350,   0.02513,  -0.06785,   0.00333,   0.00043,   0.02077,  -0.03444,   0.05999,  -0.00102,  -0.09255,   0.01205,  -0.03734,  -0.03589,  -0.08528,   0.00479,  -0.05768,  -0.03734,   0.04401,  -0.02281,   0.02948,  -0.03444,  -0.05768,   0.05273,   0.03820,   0.02658,  -0.01846,   0.01496,   0.04546,  -0.00683,   0.01786,   0.02513,  -0.00248,  -0.00393,   0.01786,  -0.00974,  -0.01700,   0.04982,   0.03094,  -0.04461,   0.06144,   0.07016,  -0.01991,   0.01786,  -0.00393,  -0.02427,  -0.04896,  -0.00538,   0.00479,   0.13553,   0.00188,  -0.00974,   0.06725,   0.00769,  -0.00393,   0.06144,   0.05999,  -0.03444,  -0.01991,  -0.05623,  -0.03589,  -0.05478,   0.04692,  -0.01846,   0.00333,  -0.02136,  -0.01846,  -0.06059,  -0.01846,  -0.07947,   0.01786,   0.00188,   0.03239,   0.00333,  -0.02281,   0.00624,   0.04982,  -0.03444,  -0.03444,  -0.01700,   0.03094,  -0.03589,  -0.03879,  -0.02136,   0.09922,   0.03820,  -0.00102,   0.00043,  -0.02717,   0.02948,   0.00624,  -0.00974,   0.04546,   0.00479,  -0.06785,  -0.05332,   0.04546,   0.05709,  -0.02427,  -0.00829,   0.07307,   0.01060,   0.04111,   0.00043,  -0.00248,   0.03965,  -0.06640,   0.01350,   0.04546,   0.04256,   0.01496,   0.01786,  -0.05332,   0.02803,   0.01205,  -0.03734,   0.00479,   0.01641,  -0.05478,   0.00624,  -0.00974,  -0.00102,  -0.04170,  -0.01991,   0.03384,  -0.04461,  -0.01555,  -0.03879,  -0.01410,   0.03239,  -0.04896,   0.00624,   0.03529,  -0.03298,  -0.01991,   0.04546,   0.03384,  -0.02572,   0.02803,  -0.02863,  -0.02281,   0.02948,   0.03239,  -0.05478,   0.06871,   0.02658,  -0.01846,   0.03384,  -0.00974,  -0.08674,   0.04111,   0.06290,   0.02367,   0.04546,   0.01060,  -0.07076,   0.02948,   0.04111,  -0.02717,   0.01931,   0.03675,   0.04401,   0.02513,   0.00479,  -0.00393,   0.01350,   0.05999,  -0.00683,   0.03529,   0.02658,  -0.05042,   0.04401,  -0.01119,  -0.02717,  -0.00974,  -0.04461,  -0.03589,   0.01205,   0.03529,  -0.00248,   0.07452,   0.01496,   0.05563,  -0.02863,   0.11810,  -0.01991,   0.03820,  -0.09255,  -0.02572,  -0.02281,   0.00188,   0.00333,  -0.06930,  -0.01119,  -0.01555,  -0.04606,  -0.04170,   0.00479,  -0.02572,  -0.00393,  -0.05768,   0.04256,   0.02077,   0.01786,  -0.06930,  -0.06349,  -0.02427,  -0.00393,   0.11374,  -0.02281,   0.03094,   0.03239,  -0.00538,   0.04982,  -0.06930,   0.04982,   0.00333,   0.00769,   0.01931,   0.01496,  -0.05478,  -0.01846,   0.00624,   0.02077,   0.02658,  -0.01846,  -0.01119,   0.00333,  -0.00248,  -0.03298,  -0.02136,  -0.00974,  -0.09400,  -0.06494,  -0.02863,  -0.05768,  -0.09109,  -0.00102,   0.01060,  -0.02281,   0.05563,   0.07016,   0.02658,  -0.03589,   0.00624,  -0.01265,  -0.03153,   0.05563,  -0.02136,  -0.06785,   0.02658,   0.00043,   0.03965,  -0.01700,  -0.04461,   0.03239,   0.01205,   0.00188,  -0.05913,  -0.07076,  -0.00538,   0.04401,  -0.05768,  -0.01119,   0.00479,   0.03384,  -0.01991,  -0.01700,   0.03529,  -0.01410,  -0.02136,   0.05709,  -0.01410,   0.05854,  -0.10126,  -0.01410,   0.01496,   0.02513,   0.00333,  -0.01119,  -0.05478,   0.04982,   0.03239
   0.02658,   0.00624,   0.02367,  -0.00248,  -0.00538,   0.00915,  -0.09255,   0.07452,  -0.03444,   0.02658,  -0.02136,  -0.03589,   0.01496,   0.06580,  -0.07366,  -0.07657,  -0.02136,  -0.01410,   0.00043,  -0.04025,   0.05854,   0.00479,  -0.05478,  -0.00829,   0.00479,  -0.05623,  -0.01119,  -0.04170,  -0.00538,  -0.02717,  -0.04025,  -0.01700,  -0.02863,  -0.06059,   0.01205,   0.10648,   0.01350,   0.07597,  -0.01700,   0.00043,   0.02077,  -0.03008,  -0.03444,  -0.00538,   0.02513,  -0.04025,   0.02513,   0.02803,   0.00043,  -0.07947,  -0.06204,   0.00479,   0.03820,  -0.07511,   0.02222,  -0.03008,  -0.03444,   0.03820,  -0.02572,  -0.00102,  -0.05187,   0.00333,   0.02222,  -0.03734,  -0.05478,   0.01350,   0.03675,  -0.05768,  -0.00829,  -0.07947,  -0.00683,   0.00043,   0.00624,   0.01205,  -0.08238,   0.02513,   0.01205,  -0.05768,  -0.02427,   0.04401,  -0.00683,   0.01931,   0.03820,   0.03384,   0.02077,   0.03094,   0.00188,  -0.04315,  -0.00829,   0.04692,   0.03965,   0.03529,  -0.00538,   0.00769,  -0.04606,   0.00188,  -0.01700,  -0.01991,   0.01205,   0.03675,   0.00043,  -0.03589,  -0.01265,  -0.00102,   0.02367,   0.02803,   0.08033,  -0.00538,   0.07597,  -0.05478,  -0.06494,   0.02948,   0.08033,   0.01496,   0.01060,  -0.01700,  -0.00248,   0.01350,   0.01641,   0.00915,  -0.07657,  -0.00538,  -0.02281,   0.00479,  -0.03008,   0.03820,   0.00043,   0.03529,  -0.00829,  -0.02863,  -0.08238,  -0.00102,  -0.00974,  -0.02136,   0.05709,  -0.02572,   0.01641,   0.02803,   0.03094,   0.01931,   0.01641,  -0.04170,  -0.04461,  -0.01700,   0.07016,   0.02658,  -0.00683,  -0.03734,  -0.03444,  -0.00538,  -0.02136,  -0.04896,  -0.01846,  -0.01265,   0.04546,   0.01496,  -0.00829,  -0.00102,   0.07307,  -0.02572,  -0.05623,  -0.00974,   0.00624,   0.02367,   0.02948,  -0.06204,   0.04692,   0.08323,   0.01496,  -0.02717,   0.02367,   0.00624,   0.00188,   0.00188,  -0.01119,   0.01205,   0.01205,   0.04982,  -0.02572,  -0.01265,  -0.06930,  -0.00683,  -0.07947,  -0.07657,  -0.03298,   0.00479,   0.00915,  -0.02136,  -0.03298,   0.01786,   0.03094,  -0.00974,  -0.03734,   0.01931,  -0.01991,  -0.04315,   0.03965,   0.03675,   0.04111,  -0.01991,   0.01641,  -0.04315,  -0.01700,   0.01931,   0.01786,  -0.03008,   0.03094,   0.01060,  -0.02136,   0.00915,   0.00915,  -0.00538,   0.02948,  -0.02136,   0.01060,  -0.06930,   0.01786,  -0.05768,  -0.01991,  -0.00248,   0.00769,   0.00479,  -0.04751,   0.01205,  -0.01846,   0.00915,  -0.00248,   0.00043,   0.01205,   0.03820,  -0.04315,  -0.01846,   0.09631,  -0.03589,  -0.01700,  -0.05042,   0.02077,  -0.02281,   0.00188,  -0.02136,   0.00769,   0.00915,  -0.00974,  -0.04025,   0.05418,  -0.05332,  -0.00683,  -0.03589,  -0.03879,  -0.01119,  -0.02136,  -0.00393,   0.01496,   0.02077,   0.03239,   0.02948,  -0.00393,   0.05127,   0.05709,  -0.04461,  -0.04025,  -0.00102,   0.03384,   0.00043,   0.01931,   0.01786,   0.02222,   0.06580,  -0.00248,   0.12972,   0.09631,   0.04111,   0.01496,   0.02222,  -0.03008,  -0.04025,  -0.00248,   0.00624,  -0.02863,  -0.02717,  -0.07221,   0.02077,  -0.00974,  -0.08819,   0.00769,   0.05418,   0.04982,   0.01060,  -0.03589,  -0.01700,   0.03384,   0.01786,   0.04111,   0.03965,   0.00188,   0.09776,  -0.04315,   0.00188,   0.06435,  -0.00393,  -0.02572,   0.00624,  -0.02572,   0.01786,   0.01060,  -0.01119,  -0.01846,  -0.01119,   0.05709,   0.05854,   0.03384,  -0.00538,   0.01060,   0.01205,   0.00915,   0.02948,   0.00915,  -0.01700,   0.00188,  -0.04170,  -0.01846,   0.06871,  -0.05913,   0.01350,   0.00188,  -0.03008,   0.00333,   0.10212,   0.00624,   0.06871,   0.00333,  -0.02717,   0.03965,   0.03384,   0.04111,   0.08033,   0.02948,  -0.00538,   0.05709,  -0.00393,  -0.04461,   0.03094,   0.03094,  -0.03589,   0.00188,   0.00188,  -0.01555,  -0.03008,   0.00188,  -0.01991,  -0.01555,   0.02658,   0.03965,  -0.04751,  -0.08819,   0.03820,   0.03094,   0.00333,  -0.01119,   0.04401,  -0.03153,  -0.01991,  -0.01265,  -0.00974,  -0.01265,   0.04837,  -0.00974,  -0.06494,  -0.04461,  -0.03298,   0.03675,  -0.03879,  -0.00829,   0.01641,  -0.04461,  -0.00102,   0.02658,   0.04546,  -0.03444,  -0.01555,  -0.04606,   0.02513,  -0.04315,  -0.01991,  -0.04896,  -0.05042,  -0.01410,  -0.02427,  -0.02572,  -0.00248,   0.01641,  -0.01555,   0.02222,   0.00769,  -0.02572,  -0.02427,   0.01496,   0.03239,   0.00624,   0.02513,   0.00624,  -0.04025,   0.06580,   0.03965,  -0.01265,  -0.00393,  -0.04461,   0.04256,  -0.09690,  -0.01119,   0.00043,   0.03675,  -0.03008,  -0.01991,   0.00769,  -0.02863,  -0.07947,   0.01060,   0.01205,  -0.06494,   0.01350,  -0.03879,  -0.01991,  -0.05623,  -0.00683,  -0.04315,  -0.01555,  -0.01410,   0.01205,  -0.03589,  -0.04751,   0.03239,   0.02513,   0.09195,   0.00624,  -0.04461,  -0.03879,  -0.00538,   0.00043,  -0.02136,   0.01641,   0.02222,  -0.02572,   0.04982,   0.04401,  -0.01846,   0.03965,   0.02222,  -0.01119,   0.02658,   0.03529,   0.00915,   0.03675,   0.02367,   0.04401,   0.00915,  -0.01119,   0.05127,   0.01496,  -0.03734,   0.00624,   0.01496,  -0.01846,   0.00479,  -0.00538,   0.04982,  -0.05768,  -0.02863,  -0.01410,   0.00333,  -0.00102,  -0.03298,  -0.03444,  -0.01991,  -0.01265,  -0.03298,  -0.03734,   0.00479,  -0.00102,  -0.01846,   0.07307,   0.01931,  -0.02717,   0.00043,  -0.01846,   0.00624,   0.06871,   0.02948,   0.00624,  -0.03153,   0.06725,  -0.00683,  -0.00974,   0.02077,   0.03384,  -0.02572,  -0.03589,   0.04401,  -0.00102,  -0.00248,  -0.04461,  -0.03008,  -0.00683,  -0.02427,  -0.03298,   0.00043,   0.02077,  -0.00102,  -0.02427,  -0.05623,  -0.01991,  -0.00248,   0.02367,  -0.07366,   0.01205,   0.00043,   0.01496,  -0.05042,  -0.02136,   0.02803,   0.02367,  -0.03298,   0.04111,   0.01496,   0.03529,   0.07452,   0.00769,   0.09486,   0.02513,   0.03239,   0.03965,   0.05418,  -0.00102,   0.02803,  -0.06785,   0.04982,  -0.01991,   0.03965,   0.00333,   0.04546,   0.07016,   0.05273,  -0.05623,  -0.06204,  -0.03298,  -0.00538,   0.03675,  -0.02572,   0.02077,   0.06435,  -0.00829,  -0.03153,   0.01205,   0.01205,   0.04837,  -0.02717,   0.03384,   0.02948,   0.01060,  -0.00393,   0.09631,   0.01641,  -0.00538,   0.00188,   0.00624,   0.09922,  -0.02572,   0.03675,  -0.07511,  -0.04025,   0.05709,   0.07452,   0.01205,   0.04982,  -0.00829,   0.00624,   0.03239,   0.03965,   0.03675,   0.05709,   0.04111,   0.00624,   0.06435,  -0.05042,  -0.01555,  -0.01410,  -0.01119,  -0.01846,  -0.02863,  -0.04315,   0.02513,  -0.01410,   0.01205,   0.05563,  -0.02136,   0.05999,   0.00043,  -0.08528,  -0.02427,   0.01205,   0.03094,   0.05854,  -0.03298,  -0.06930,  -0.02863,   0.00043,   0.01060,  -0.04170,  -0.05768,   0.07888,  -0.00829,  -0.01700,  -0.05913,  -0.01991,   0.02948,   0.04982,   0.02222,   0.02803,  -0.01410,   0.05273,  -0.00683,   0.01350,  -0.03298,   0.05999,   0.01350,  -0.00974,   0.02658,  -0.01555,  -0.04170,  -0.03298,  -0.00829,  -0.02281,  -0.03879,   0.05273,   0.01350,  -0.01700,  -0.01119,   0.00333,   0.04111,  -0.08674,   0.03820,  -0.04606,  -0.01265,   0.03384,   0.04401,  -0.00538,   0.01060,   0.07597,  -0.02863,   0.03239,   0.05999,   0.01350,   0.03820,  -0.02427,  -0.00974,   0.00188,  -0.01410,  -0.02281,  -0.01700,   0.02077,   0.01205,  -0.00683,  -0.04025,   0.02948,  -0.00248,   0.00043,   0.03820,  -0.00393,  -0.01410,   0.02658,   0.00043,   0.00479,   0.02367,  -0.01265,   0.04692,   0.01205,  -0.03734,  -0.01555,  -0.01410,   0.04692,  -0.03444,   0.02513,  -0.01119,  -0.00683,  -0.00974,  -0.00393,  -0.00683,  -0.05768,  -0.01555,   0.02367,   0.03384,  -0.02572,   0.05418,  -0.09981,   0.01350,  -0.01700,  -0.00248,  -0.02136,  -0.04170,   0.02658,   0.00188,  -0.00248,  -0.05042,  -0.02281,   0.02658,  -0.02427,  -0.03734,  -0.01410,   0.06144,   0.01205,  -0.00683,   0.01060,   0.03239,  -0.05623,  -0.00974,  -0.00683,   0.07161,   0.01060,   0.04401,   0.05709,  -0.02281,  -0.02863,   0.01931,  -0.01846,  -0.03734,   0.01931,   0.05999,  -0.01555,   0.02948,  -0.01265,   0.02513,   0.07016,   0.01786,   0.00333,   0.01931,  -0.01991,  -0.07511,   0.00043,   0.01060,   0.05563,  -0.01119,   0.01060,  -0.02572,  -0.01846,  -0.02572,   0.06871,  -0.00683,  -0.04170,  -0.04025,  -0.01700,   0.00479,  -0.05332,   0.02367,  -0.01265,   0.01931,  -0.01410,  -0.02136,  -0.02136,  -0.01410,   0.00915,   0.01931,  -0.00393,   0.04401,   0.02077,   0.01060,  -0.03879,  -0.03444,   0.02077,   0.02077,  -0.02717,   0.00769,  -0.03008,   0.01641,   0.02658,  -0.05768,   0.01205,   0.00188,   0.03239,   0.01060,   0.07307,  -0.05478,  -0.03153,  -0.01555,  -0.03589,   0.01205,  -0.01846,   0.00188,  -0.00248,  -0.00102,  -0.00102,  -0.03008,   0.05563,  -0.00683,  -0.05042,   0.01496,  -0.00393,   0.03820,  -0.00683,  -0.07947,   0.00188,   0.05127,   0.02513,  -0.01265,   0.01641,   0.01060,  -0.00683,  -0.01846,  -0.02281,  -0.00102,  -0.02863,  -0.02717,  -0.08238,   0.02803,   0.08323,   0.00624,   0.04256,   0.02222,   0.00333,   0.03384,  -0.02572,   0.04692,   0.03529,   0.05854,  -0.04170,   0.01786,  -0.01555,  -0.00102,   0.02077,   0.02367,  -0.04025,  -0.00248,   0.00043,  -0.00102,  -0.00974,   0.01786,   0.00769,   0.02222,  -0.01991,  -0.03153,   0.01060,  -0.00248,   0.02948,   0.03384,  -0.06930,   0.03094,  -0.02281,   0.00769,  -0.03589,   0.01205,   0.00043,  -0.03879,   0.00188,  -0.03879,  -0.02281,  -0.03153,   0.00333,  -0.04170,  -0.00829,  -0.03153,   0.01931,   0.00915,   0.01060,   0.01350,  -0.04896,   0.02367,   0.05709,  -0.06494,  -0.03734,   0.01350,  -0.01846,   0.02658,   0.01350,  -0.01991,   0.00915,   0.05273,   0.00043,   0.03675,  -0.06349,  -0.01410,  -0.02136,   0.02513,  -0.01555,   0.00188,  -0.01410,   0.04546,   0.02948,  -0.01555,  -0.03879,   0.02077,  -0.00393,   0.00333,  -0.02572,   0.03820,   0.01060,   0.02222,   0.01786,   0.02077,   0.01786,  -0.03589,  -0.00393,  -0.02717,  -0.04461,  -0.04315,   0.03384,   0.01350,   0.04256,  -0.05623,   0.09340,  -0.07076,  -0.00102,  -0.02136,  -0.00829,  -0.00102,  -0.00974,   0.04837,   0.03239,  -0.01991,  -0.04025,  -0.00829,   0.04111,   0.07307,  -0.03008,   0.01641,  -0.05478,   0.05999,  -0.08528,  -0.03734,   0.00915,   0.02803,   0.05273,   0.04256,   0.10793,   0.00624,   0.00769,  -0.03879,  -0.02572,   0.02077,  -0.03298,  -0.05332,  -0.00102,   0.01931,  -0.03879,  -0.07076,  -0.05913,   0.03675,   0.02222,   0.10648,   0.02077,  -0.02717,  -0.02136,  -0.00829,   0.01350,   0.01641,   0.03384,   0.00624,   0.03965,  -0.00538,   0.05854,   0.02222,   0.01350,   0.05999,  -0.05623,  -0.00248,  -0.03008,   0.01496,   0.01641,  -0.02427,  -0.00683,  -0.02863,   0.01060,   0.06144,   0.02367,  -0.00102,   0.03094,  -0.04461,  -0.00538,   0.08469,  -0.09255,  -0.01555,  -0.01265,   0.02367,  -0.05913,  -0.02717,  -0.06640,  -0.02572,  -0.03298,   0.06144,   0.04111,   0.02658,   0.00624,   0.05854,  -0.00829,  -0.01991,   0.02077,  -0.02717,  -0.01991,   0.04982,  -0.01991,   0.01496,  -0.07511,   0.06580,   0.02948,  -0.01700,   0.02513,  -0.00538,  -0.00248,   0.02222,  -0.00538,  -0.05042,  -0.03008,   0.00188,   0.00479,   0.06144,   0.04401,   0.05854,   0.03675,   0.01931,  -0.00538,   0.03094,   0.00769,  -0.04025,   0.00769,  -0.00683,  -0.00248
  -0.03734,   0.00043,  -0.04170,  -0.04461,   0.01060,  -0.00829,   0.05999,  -0.08528,   0.02803,  -0.00974,  -0.00393,  -0.04170,  -0.04315,  -0.00683,   0.01205,   0.00769,  -0.02281,   0.00188,   0.08614,   0.00479,  -0.00974,  -0.02281,  -0.03879,   0.00624,  -0.05187,  -0.04170,   0.02367,  -0.01265,   0.00769,  -0.10417,  -0.04170,  -0.02572,   0.00624,  -0.04751,  -0.02572,  -0.00538,  -0.00102,  -0.03298,  -0.00393,   0.00769,   0.01931,  -0.00683,   0.01786,   0.01641,  -0.04315,  -0.09690,   0.00769,   0.01931,  -0.05913,   0.04256,   0.03820,  -0.00248,  -0.03589,   0.01786,  -0.03879,  -0.03444,  -0.01991,  -0.03153,   0.07161,  -0.00974,  -0.01991,  -0.01991,  -0.08674,   0.04546,  -0.04461,  -0.01555,   0.05709,  -0.01846,   0.00624,   0.07452,  -0.00248,  -0.02717,   0.00479,   0.01641,  -0.00974,   0.07452,  -0.06785,   0.00915,   0.00915,   0.03094,   0.00479,  -0.01846,   0.00624,  -0.07947,  -0.01555,  -0.01700,   0.03529,   0.05127,   0.01205,   0.00479,  -0.05187,  -0.03008,  -0.08528,   0.03384,   0.00624,  -0.00683,  -0.00393,  -0.04606,  -0.05042,  -0.02136,  -0.00538,  -0.02572,  -0.00974,   0.00043,   0.03384,   0.01641,  -0.00829,   0.02222,  -0.00974,   0.00624,   0.02658,  -0.00393,  -0.03734,  -0.00974,  -0.00102,  -0.03444,  -0.08819,  -0.02281,   0.04837,   0.05709,   0.03384,  -0.05332,  -0.00248,   0.01205,  -0.04896,   0.03094,  -0.06785,   0.02658,   0.09340,   0.06435,  -0.03879,  -0.03589,  -0.03589,  -0.00683,  -0.05042,  -0.01555,  -0.01846,  -0.04170,  -0.02427,   0.04837,  -0.02717,   0.01350,   0.03384,  -0.00974,  -0.07076,  -0.01119,   0.01786,   0.04401,  -0.01991,   0.03675,   0.08614,   0.08178,   0.05273,   0.02948,  -0.02281,   0.00479,  -0.02717,   0.02803,  -0.01846,  -0.02863,  -0.05913,   0.00769,   0.04256,  -0.00974,  -0.03153,   0.02077,  -0.00683,   0.02513,   0.00479,  -0.06930,  -0.07657,   0.02658,  -0.02281,  -0.03008,   0.03094,   0.07452,   0.05999,  -0.00974,   0.02077,  -0.02281,   0.01641,   0.06725,  -0.09545,   0.00479,  -0.06494,  -0.07657,   0.07452,  -0.07802,   0.04256,   0.02077,  -0.01846,  -0.04170,  -0.07366,   0.00479,  -0.03879,  -0.03008,  -0.02572,   0.00915,  -0.02427,  -0.01555,  -0.05478,   0.04256,  -0.00538,   0.00188,  -0.03298,   0.01060,  -0.02281,  -0.02136,  -0.03879,  -0.01265,   0.00043,  -0.03008,   0.06871,   0.06435,   0.05127,   0.03529,  -0.06059,  -0.01265,   0.02658,  -0.00102,   0.01786,   0.03094,  -0.05042,   0.00624,  -0.00538,   0.04256,   0.03675,   0.02658,  -0.00683,  -0.00829,   0.00915,   0.00479,  -0.02136,   0.06580,   0.00043,   0.00188,   0.03675,  -0.03153,  -0.00393,   0.01205,  -0.01265,   0.01350,  -0.03444,   0.04692,   0.02658,  -0.03153,  -0.00683,  -0.04025,   0.01786,   0.00188,   0.02367,  -0.00974,  -0.02427,   0.00769,   0.04256,  -0.02427,  -0.00248,  -0.05913,   0.05273,  -0.01119,  -0.00974,  -0.07076,   0.02222,   0.10067,  -0.04170,  -0.00829,   0.02658,  -0.01265,  -0.03444,   0.00769,  -0.04170,  -0.04461,   0.01205,   0.00479,  -0.02717,   0.02077,  -0.01991,   0.04111,  -0.06494,  -0.01265,   0.03820,   0.00624,  -0.02136,   0.02513,   0.05709,  -0.00102,   0.01931,  -0.02136,  -0.00102,  -0.03008,  -0.06059,   0.00479,   0.06290,   0.02658,   0.04256,   0.00479,   0.03820,  -0.01846,  -0.08092,   0.02077,   0.03529,  -0.03298,   0.00043,   0.02222,  -0.01119,   0.04401,  -0.03298,  -0.04025,  -0.01410,   0.02513,  -0.01410,  -0.04461,  -0.00538,  -0.00538,  -0.00538,   0.05999,  -0.02281,  -0.04025,   0.00624,  -0.05913,   0.08178,  -0.03444,  -0.01265,  -0.01991,  -0.00683,   0.03965,   0.02077,  -0.06349,   0.04692,   0.04837,  -0.00393,  -0.03879,   0.07016,  -0.01119,  -0.05913,   0.05999,  -0.04751,  -0.02572,  -0.03153,  -0.04461,   0.04692,   0.01205,  -0.01700,  -0.04170,   0.03820,  -0.04170,   0.01641,   0.00188,   0.02658,  -0.01846,   0.00624,   0.02803,  -0.01119,   0.01205,   0.01060,   0.01641,   0.01786,  -0.01410,   0.04256,   0.03820,  -0.04606,   0.07307,  -0.02281,   0.00624,  -0.00683,  -0.00829,   0.10357,   0.02077,   0.04111,  -0.01846,   0.06290,   0.02222,  -0.05623,  -0.00102,  -0.00683,   0.01060,   0.03965,  -0.03298,  -0.01991,  -0.00102,   0.01786,  -0.01265,  -0.00393,  -0.00538,   0.05999,  -0.03298,  -0.01555,  -0.01119,   0.01060,  -0.01700,   0.04982,   0.02948,  -0.01119,  -0.04025,   0.11229,   0.06144,  -0.03153,   0.01931,  -0.01555,   0.03820,  -0.10126,   0.01496,   0.00333,  -0.03734,   0.03094,   0.09195,   0.06725,  -0.02717,   0.00769,  -0.03008,  -0.01555,   0.04256,  -0.05913,   0.00479,   0.02513,   0.02367,  -0.05187,   0.00769,  -0.00393,  -0.00248,  -0.01555,   0.00188,  -0.02863,   0.03239,   0.01350,   0.01786,  -0.00393,  -0.08092,   0.03965,  -0.00683,   0.00769,   0.00188,   0.01786,  -0.04751,   0.00915,   0.03675,   0.03529,  -0.04606,   0.02803,  -0.06640,  -0.00538,  -0.01410,  -0.01555,   0.00915,   0.00479,   0.00188,   0.04401,   0.02803,   0.00043,   0.00043,   0.00043,   0.00043,  -0.01991,  -0.03879,   0.05999,   0.00188,  -0.01846,   0.04256,  -0.02863,  -0.06930,  -0.01846,   0.02803,   0.04111,  -0.03153,   0.05418,  -0.06204,  -0.01555,  -0.04170,  -0.01846,  -0.04170,   0.09195,  -0.00538,   0.03529,   0.03384,  -0.04025,  -0.04606,   0.02222,  -0.01846,  -0.03298,   0.02658,  -0.01119,   0.01060,  -0.03153,   0.00333,   0.04837,  -0.02136,   0.06871,   0.03094,  -0.00248,  -0.00393,  -0.01991,  -0.02136,  -0.01991,   0.07597,   0.03675,  -0.04315,   0.00043,  -0.05768,   0.00915,   0.00915,  -0.04315,  -0.02281,  -0.04751,  -0.04315,  -0.04315,  -0.00683,   0.00915,   0.02222,  -0.02717,   0.00043,   0.00769,  -0.08383,   0.03384,  -0.04751,   0.05709,   0.04692,  -0.00102,   0.01641,  -0.02427,   0.01205,  -0.04025,   0.00043,  -0.06204,  -0.12596,  -0.07076,  -0.02136,   0.03675,  -0.01991,   0.01786,   0.04401,  -0.00538,   0.01641,   0.01641,   0.01205,  -0.01265,  -0.03298,   0.05999,   0.01641,  -0.00248,   0.08905,   0.04546,   0.00769,  -0.01265,  -0.01119,  -0.02863,   0.00915,  -0.02717,  -0.01846,  -0.02717,  -0.00829,   0.02948,  -0.04606,  -0.00102,   0.01496,   0.01641,  -0.01846,  -0.01410,  -0.01410,  -0.07221,  -0.01700,   0.02367,  -0.04025,   0.08323,  -0.03589,  -0.00393,   0.04546,   0.01641,  -0.06494,   0.04692,   0.05273,  -0.05187,   0.05854,  -0.04025,  -0.02281,  -0.01555,  -0.02281,   0.03675,   0.01350,   0.00915,   0.04401,   0.05273,   0.05273,  -0.01846,  -0.01846,   0.04692,   0.00188,  -0.01119,  -0.03008,   0.03675,  -0.03444,   0.03965,   0.04401,   0.09050,   0.01931,  -0.01700,  -0.04751,   0.04546,   0.01496,   0.01641,  -0.01265,   0.06290,  -0.03444,   0.00043,   0.03239,   0.02077,  -0.04170,  -0.04461,   0.04111,   0.00043,   0.00915,  -0.01119,   0.03384,  -0.02717,   0.05273,  -0.03298,  -0.03734,  -0.03734,  -0.00102,   0.02658,   0.06580,  -0.00393,  -0.00538,   0.03384,   0.00769,   0.05418,   0.03384,   0.07597,  -0.04606,   0.01496,  -0.02427,   0.02367,  -0.02572,  -0.01119,   0.03384,   0.00043,  -0.04315,  -0.00393,   0.00624,  -0.06785,   0.01350,   0.01931,  -0.03879,  -0.00102,  -0.03298,   0.08178,   0.04401,  -0.00683,  -0.00248,  -0.03734,   0.00043,  -0.01991,   0.01641,   0.02803,  -0.00102,  -0.00974,  -0.00538,  -0.01410,  -0.05913,  -0.01119,   0.01205,   0.01496,  -0.02717,   0.04837,   0.03529,   0.00624,  -0.03444,   0.00333,   0.01786,  -0.01555,  -0.02136,   0.00043,  -0.00538,  -0.04606,  -0.05042,  -0.01265,   0.01496,   0.02222,   0.08905,   0.08323,  -0.00974,   0.05127,   0.00769,  -0.00393,   0.03675,   0.02803,  -0.00102,   0.00479,   0.01350,  -0.04461,   0.04982,  -0.03298,  -0.04751,   0.03384,   0.02948,  -0.04025,  -0.00829,  -0.00102,   0.00043,   0.02803,  -0.05332,  -0.01410,   0.05563,   0.00333,  -0.00538,  -0.00974,  -0.03008,  -0.03589,   0.09340,   0.03529,  -0.02717,  -0.04896,  -0.01265,   0.02367,  -0.04025,   0.04111,  -0.01265,   0.00333,   0.07742,  -0.01555,   0.00769,  -0.02863,   0.04401,   0.03965,   0.01496,  -0.01846,   0.00188,  -0.01555,   0.08905,   0.00479,  -0.02572,   0.02367,  -0.01991,  -0.02427,   0.03239,  -0.03734,   0.00043,   0.00188,   0.04982,  -0.06930,  -0.03008,  -0.00102,  -0.07076,  -0.03153,   0.02658,   0.01786,   0.02222,  -0.03734,   0.02513,   0.07597,   0.01931,   0.00043,   0.05127,  -0.09690,  -0.00393,  -0.00829,   0.04692,  -0.02572,  -0.01119,  -0.03298,  -0.03153,  -0.03153,   0.01205,  -0.00102,  -0.03879,   0.00188,   0.04401,  -0.07657,  -0.04315,   0.06871,  -0.02281,  -0.03444,   0.00333,   0.05563,  -0.03734,  -0.02427,   0.05418,   0.00769,  -0.00829,   0.07742,   0.03820,  -0.04315,   0.00769,  -0.01846,   0.05709,  -0.01555,   0.02222,  -0.07511,  -0.06059,   0.01060,  -0.08819,   0.00915,  -0.00683,  -0.01846,  -0.00248,  -0.01119,   0.04546,  -0.04461,  -0.04896,   0.04546,   0.03820,   0.01496,  -0.03444,   0.07161,   0.00188,  -0.02427,  -0.05042,  -0.08383,  -0.00538,   0.06435,   0.07742,   0.02948,   0.01786,  -0.02136,   0.05127,   0.03384,  -0.01410,   0.00624,   0.03239,  -0.01700,   0.05854,  -0.02572,  -0.02572,   0.08469,  -0.02136,  -0.10562,  -0.02136,   0.00043,  -0.02136,  -0.01410,  -0.09109,  -0.01991,  -0.04461,  -0.02717,  -0.00974,  -0.01410,  -0.00538,   0.01496,   0.05854,   0.02658,   0.01205,   0.01350,  -0.01991,   0.00479,   0.00624,  -0.00102,   0.05127,   0.07452,  -0.05478,   0.06290,  -0.02863,  -0.06059,   0.00769,  -0.04606,  -0.01265,   0.01060,   0.01496,  -0.02572,   0.03384,  -0.01119,   0.06144,  -0.01410,  -0.03008,   0.01205,  -0.04606,   0.06290,   0.03529,  -0.00393,  -0.01555,   0.00188,   0.02222,   0.02077,   0.03965,  -0.04461,  -0.04461,  -0.01700,  -0.05913,   0.00915,   0.01205,   0.00333,  -0.03734,  -0.00393,   0.02658,  -0.01119,  -0.04751,  -0.00683,   0.06144,   0.02803,   0.01641,   0.02222,  -0.04896,   0.00624,  -0.01410,   0.01060,   0.00333,  -0.06640,   0.03965,   0.00333,   0.00479,   0.02222,  -0.01991,  -0.02572,   0.03239,  -0.00393,  -0.01846,  -0.00248,   0.02222,  -0.00102,  -0.01265,   0.05563,   0.05418,   0.07307,   0.02222,  -0.01555,   0.01641,  -0.03444,   0.05127,   0.06871,  -0.08528,  -0.00102,   0.01205,   0.04692,   0.01060,   0.01786,  -0.00974,  -0.02717,  -0.03734,  -0.04751,  -0.02717,   0.00043,   0.02658,  -0.03298,  -0.05042,  -0.02717,  -0.09981,   0.01931,  -0.00538,  -0.04025,   0.05563,  -0.02281,   0.01060,   0.00769,   0.00915,  -0.00974,   0.07452,   0.05563,   0.02513,  -0.06204,  -0.01119,  -0.09400,   0.04546,   0.00915,  -0.03734,  -0.06204,  -0.02572,  -0.01700,  -0.01555,   0.04982,  -0.02281,  -0.01119,  -0.03734,   0.03239,   0.01786,  -0.00102,   0.00624,   0.06144,  -0.01991,  -0.00102,  -0.02427,   0.09050,   0.08323,   0.04546,   0.02077,   0.02803,   0.07307,  -0.05332,  -0.04315,  -0.04315,   0.02077,  -0.03008,  -0.06785,   0.00188,   0.01641,   0.01786,   0.00479,   0.00333,  -0.01846,  -0.01846,  -0.03298,   0.01496,   0.04111,  -0.00393,   0.08323,   0.05999,  -0.00974,   0.01060,   0.02077,   0.02077,   0.03384,   0.10212,  -0.01265,   0.04692,  -0.00102,   0.02077,  -0.04025,   0.02948,   0.00188,   0.01060,   0.06725,  -0.03879,   0.05127,   0.05563,   0.06580,  -0.00248,  -0.00102,   0.04692,   0.05418,   0.01205,   0.01931,  -0.02136,  -0.01991,  -0.06640,   0.03529,   0.02513,  -0.02136
   0.02948,  -0.04896,  -0.00829,  -0.06640,  -0.00683,   0.04256,   0.05273,   0.01786,   0.03094,   0.00188,   0.03529,  -0.00102,   0.00188,  -0.01265,   0.04256,   0.01786,   0.03384,  -0.00393,  -0.00538,  -0.04606,  -0.01555,   0.02513,   0.03529,  -0.13177,   0.00915,  -0.06930,  -0.03734,   0.01931,   0.00624,  -0.05623,   0.04401,   0.01641,  -0.02572,   0.01496,   0.02222,   0.03384,  -0.02281,   0.04692,  -0.00538,   0.02513,  -0.03153,   0.06871,   0.10067,  -0.02717,  -0.00538,  -0.01410,   0.04111,  -0.08674,   0.02658,  -0.06494,   0.01786,   0.04256,  -0.02427,  -0.00538,  -0.02863,  -0.05187,  -0.03444,  -0.04315,  -0.02863,  -0.03153,   0.01060,  -0.05042,  -0.00974,  -0.02863,   0.04111,   0.00624,   0.02367,   0.03384,   0.00333,  -0.00829,  -0.03734,   0.00188,   0.02367,   0.04692,   0.01496,   0.00769,  -0.02863,  -0.01119,   0.06580,   0.00188,   0.04982,  -0.02863,   0.01350,   0.01641,   0.04111,   0.04111,   0.00188,  -0.00829,  -0.06930,   0.00769,  -0.00102,   0.00333,  -0.05478,   0.02222,   0.03529,  -0.04170,   0.01931,  -0.07076,   0.03094,   0.03965,   0.02513,   0.01496,   0.01350,  -0.01700,  -0.01555,   0.08614,   0.08323,  -0.01700,   0.03094,  -0.01555,  -0.00538,  -0.01846,  -0.01265,  -0.01846,   0.00043,  -0.01700,  -0.03879,  -0.05332,   0.00769,   0.03384,   0.01496,  -0.03444,   0.01496,   0.02222,   0.03965,  -0.00248,  -0.03734,  -0.00102,   0.02948,  -0.00248,  -0.03734,   0.04401,  -0.00683,  -0.03298,   0.03239,  -0.01700,   0.02077,   0.01786,  -0.04606,   0.00769,  -0.04315,   0.03820,   0.02513,   0.01350,  -0.01846,  -0.05042,   0.03094,   0.07307,   0.03239,  -0.02281,  -0.01991,   0.01350,   0.01496,  -0.00102,  -0.04606,   0.00333,  -0.01555,  -0.01410,  -0.01119,   0.00043,   0.05854,  -0.06059,   0.00624,   0.00769,  -0.06059,   0.00043,   0.04401,  -0.02281,  -0.05623,   0.03239,  -0.09690,  -0.03734,   0.00188,  -0.01119,   0.04546,   0.00333,   0.04111,   0.01786,  -0.01700,  -0.06930,  -0.02572,   0.00769,  -0.02136,   0.05418,  -0.05623,   0.00479,  -0.00538,   0.01786,   0.04692,   0.01786,  -0.04896,  -0.02281,  -0.03298,  -0.02863,  -0.04896,   0.01350,  -0.02136,   0.03529,   0.03675,   0.01641,  -0.00538,   0.01786,   0.08033,   0.04111,  -0.00974,   0.04982,  -0.00974,   0.07307,   0.02222,   0.00915,   0.08469,  -0.00683,  -0.01555,   0.03675,  -0.02281,  -0.03734,   0.07597,  -0.01846,   0.07452,  -0.02863,  -0.03153,   0.06290,  -0.02717,  -0.02572,  -0.01119,  -0.07511,  -0.02136,  -0.02717,   0.03239,   0.04256,  -0.00974,  -0.00248,  -0.02427,   0.01350,   0.01496,  -0.03153,   0.07597,   0.01786,  -0.02863,  -0.01991,   0.03239,  -0.06204,  -0.01700,  -0.03444,  -0.00248,   0.01205,  -0.09836,   0.00043,   0.05563,   0.04837,   0.00769,   0.01496,   0.03094,   0.04546,  -0.04896,  -0.00393,  -0.00683,   0.02513,   0.01205,   0.02222,   0.01786,  -0.01265,  -0.03298,   0.04692,  -0.05332,  -0.05478,   0.03529,   0.01496,  -0.04896,  -0.03444,  -0.06349,  -0.03153,   0.02222,  -0.04461,  -0.03298,  -0.03153,  -0.06204,   0.00479,  -0.02717,   0.00769,  -0.01700,  -0.07511,   0.00043,   0.03384,  -0.05187,   0.07307,  -0.02717,   0.04401,  -0.03008,   0.00624,  -0.00683,   0.01931,   0.01205,   0.00188,   0.01931,   0.05273,  -0.04461,  -0.03298,   0.07742,  -0.00538,   0.04692,   0.02658,   0.05563,  -0.03008,   0.02222,  -0.01265,  -0.05623,  -0.03008,   0.01786,   0.01060,  -0.01119,  -0.00974,   0.02658,   0.01205,  -0.00683,  -0.00829,  -0.00393,   0.04692,   0.07307,  -0.02863,  -0.00974,   0.04401,  -0.02717,  -0.07657,   0.00479,   0.00333,  -0.04170,   0.02803,   0.00188,   0.04546,   0.00769,  -0.03008,  -0.03589,   0.04982,  -0.00102,   0.02367,   0.03675,   0.04692,   0.02948,   0.03239,   0.00188,  -0.00974,  -0.00974,   0.04546,  -0.05623,  -0.08238,   0.07307,  -0.00393,   0.01496,   0.01060,   0.01786,  -0.04025,   0.03675,   0.04111,   0.02222,   0.03820,   0.00043,   0.06580,  -0.06349,  -0.07657,  -0.03734,   0.00188,  -0.01700,  -0.00248,   0.02658,   0.03239,  -0.00248,   0.06435,  -0.04315,   0.00043,   0.02948,  -0.05623,   0.04111,   0.00479,   0.04401,   0.01060,  -0.01555,  -0.05042,  -0.00102,   0.11084,   0.03094,   0.02077,  -0.02427,  -0.04315,  -0.03298,   0.04692,  -0.00393,   0.00624,   0.05273,  -0.03444,   0.03675,   0.02803,   0.03675,   0.03384,   0.05127,  -0.00974,   0.02948,   0.08323,   0.00333,  -0.00683,   0.04111,  -0.01265,   0.01350,   0.01205,   0.02513,  -0.02136,   0.06871,  -0.02281,  -0.01991,   0.01641,  -0.03444,  -0.04025,   0.04401,   0.05273,   0.00188,   0.02658,  -0.05332,  -0.03734,   0.01931,  -0.00683,   0.00043,  -0.05913,   0.02948,  -0.04606,  -0.01700,  -0.03008,   0.01205,   0.00188,  -0.04461,  -0.01846,   0.03965,   0.00043,  -0.04606,   0.05709,   0.00333,   0.04837,  -0.03879,   0.00915,   0.05418,   0.05273,   0.03965,  -0.02572,   0.10067,  -0.02572,   0.03965,  -0.00829,  -0.08092,  -0.01700,   0.05563,   0.04692,   0.06290,  -0.05768,  -0.07076,  -0.00974,   0.00043,  -0.07221,   0.02077,   0.02077,  -0.02281,   0.02367,  -0.02572,   0.03094,  -0.05478,   0.01205,  -0.00393,   0.01786,   0.01931,  -0.00248,   0.03384,   0.02513,   0.02077,   0.00624,  -0.00829,   0.04837,   0.00333,  -0.04751,   0.02222,  -0.03589,   0.02658,  -0.05042,  -0.03589,  -0.00974,  -0.00683,   0.04256,   0.01496,  -0.01700,  -0.00248,  -0.05478,  -0.00248,  -0.02281,   0.00043,  -0.00102,  -0.03734,  -0.02863,   0.02222,   0.00769,   0.00769,   0.04692,  -0.03298,  -0.05913,  -0.05623,  -0.02427,   0.01060,  -0.00393,  -0.02863,  -0.00393,   0.03820,   0.08033,   0.03239,   0.00333,  -0.00102,  -0.04025,   0.01060,   0.04546,  -0.00393,  -0.02863,   0.00333,  -0.03734,  -0.01265,   0.03094,  -0.00538,   0.06435,  -0.01700,  -0.04461,  -0.03298,   0.01786,  -0.04170,  -0.09400,  -0.02281,  -0.06494,  -0.05187,  -0.02136,  -0.06494,  -0.01410,   0.01641,   0.01060,  -0.12015,   0.03965,  -0.06930,   0.00333,   0.03239,   0.03820,  -0.03444,   0.02513,  -0.01119,   0.05999,   0.04401,   0.00624,   0.05127,  -0.05478,  -0.04751,  -0.05913,   0.05854,  -0.01555,  -0.00102,   0.06725,   0.02803,   0.02367,   0.05999,  -0.06349,   0.03094,   0.05127,  -0.00974,   0.03529,   0.04546,  -0.02281,  -0.01410,  -0.03734,   0.06290,  -0.04315,  -0.01555,  -0.05042,  -0.03879,  -0.06494,   0.02077,   0.01496,  -0.03153,   0.01641,   0.08033,   0.04256,   0.03820,   0.01060,  -0.04606,   0.03529,   0.02513,   0.02077,   0.04111,  -0.02717,  -0.05187,  -0.01410,   0.00043,   0.00043,   0.02077,  -0.02863,   0.07161,   0.02658,  -0.03444,  -0.03008,   0.03820,  -0.07947,   0.00333,  -0.05768,   0.03965,  -0.00538,   0.00333,   0.01786,   0.04256,  -0.05623,   0.00915,  -0.08674,   0.04692,  -0.00829,   0.04546,   0.02513,  -0.01846,   0.02803,   0.03239,  -0.01991,   0.03094,  -0.00829,   0.04837,   0.02658,   0.04546,   0.03529,  -0.01555,   0.03239,  -0.05332,  -0.00393,   0.02222,   0.01786,   0.01931,   0.07016,  -0.08819,  -0.01846,  -0.01265,   0.00769,  -0.01119,   0.03239,   0.00915,   0.03094,  -0.06785,  -0.01119,  -0.03734,  -0.07511,   0.02658,  -0.07076,  -0.02136,  -0.05478,  -0.00974,  -0.05042,  -0.06640,  -0.00102,  -0.04751,   0.01060,  -0.00974,  -0.05187,  -0.01265,  -0.08383,   0.02222,  -0.01410,  -0.04461,  -0.00102,   0.04692,  -0.02136,   0.00915,  -0.04461,   0.00333,   0.00043,   0.01641,   0.01786,  -0.01265,  -0.02572,   0.01060,  -0.03589,  -0.01700,   0.00769,  -0.03444,  -0.00974,   0.01931,   0.01205,   0.03820,  -0.02136,  -0.00974,  -0.04606,  -0.00102,  -0.03879,   0.03820,   0.02367,   0.03384,   0.03820,   0.02513,  -0.04896,   0.01496,   0.03094,   0.00043,   0.02513,   0.03675,   0.02222,   0.02948,   0.04837,   0.06871,   0.02948,   0.06435,  -0.03879,   0.01496,   0.03675,  -0.01119,   0.00333,   0.02222,   0.00188,  -0.00974,   0.02803,   0.03094,  -0.01265,  -0.01700,   0.00479,  -0.03444,  -0.03444,   0.01350,  -0.01700,   0.05273,  -0.05332,   0.06725,   0.03529,   0.01786,   0.04837,  -0.02281,  -0.02863,   0.00333,  -0.05042,  -0.04751,  -0.00102,  -0.05913,   0.03675,  -0.01265,  -0.00683,   0.04401,   0.02367,  -0.02572,  -0.01119,  -0.07366,   0.02513,  -0.03298,   0.04837,  -0.01991,   0.09050,  -0.00538,   0.02367,   0.00624,  -0.05913,   0.01641,   0.04111,   0.01060,  -0.04606,   0.08033,  -0.10272,   0.00188,  -0.01991,  -0.04461,   0.01641,   0.03820,   0.03529,   0.00479,   0.00188,   0.00333,  -0.08528,   0.00769,  -0.03879,   0.00915,  -0.00102,   0.04546,   0.01350,   0.00188,   0.01931,  -0.04315,   0.04546,   0.07161,   0.02803,   0.07888,   0.02948,  -0.03444,   0.02222,   0.02367,  -0.04315,   0.04546,   0.00769,   0.02803,   0.00188,   0.00479,   0.02222,  -0.00393,  -0.03589,  -0.04315,   0.01060,   0.00188,  -0.01991,  -0.02136,   0.01060,  -0.08528,   0.00479,  -0.00683,   0.09922,   0.00769,  -0.01846,   0.02513,   0.08759,   0.01931,   0.04837,   0.00333,   0.03820,  -0.04315,   0.00333,  -0.01846,  -0.02863,  -0.00683,   0.00624,  -0.01991,  -0.01846,  -0.04751,  -0.01700,   0.02803,  -0.03008,   0.01496,   0.01641,  -0.01265,  -0.02136,   0.02803,   0.01060,   0.01786,   0.04982,  -0.00248,   0.00624,  -0.05042,  -0.06930,   0.00043,   0.03384,  -0.02717,  -0.06349,   0.01060,  -0.05187,   0.00479,  -0.04315,  -0.01555,  -0.07947,  -0.01119,  -0.06204,   0.00043,   0.04982,  -0.00974,  -0.03008,   0.03384,   0.00915,  -0.02863,   0.03094,   0.05127,   0.09922,  -0.02281,  -0.02281,   0.02948,   0.02077,   0.02077,  -0.01265,   0.01641,  -0.00683,  -0.01846,  -0.05913,  -0.01265,  -0.05187,  -0.00102,   0.00624,   0.04837,   0.05418,  -0.07947,   0.02803,  -0.02717,  -0.08238,   0.02658,   0.01205,   0.04111,  -0.00683,  -0.00102,  -0.03444,   0.05854,  -0.04025,  -0.09109,  -0.02863,   0.03675,  -0.00974,   0.02658,   0.01350,  -0.01265,   0.06435,   0.02513,   0.02222,  -0.02427,  -0.01700,   0.02222,  -0.02717,  -0.00248,   0.02222,   0.03094,   0.01205,   0.00043,   0.02367,   0.02948,  -0.00829,  -0.02863,  -0.01119,   0.04692,  -0.04606,   0.04692,  -0.01846,  -0.01265,  -0.06494,   0.03965,   0.01350,   0.05999,  -0.04461,   0.03384,  -0.05913,  -0.03734,  -0.02572,  -0.01119,  -0.06494,   0.00769,   0.05418,  -0.09109,   0.03239,  -0.06785,  -0.01846,   0.03239,   0.03965,  -0.00248,   0.03820,  -0.00102,   0.02803,  -0.00829,  -0.04170,   0.00624,  -0.07657,  -0.03008,  -0.00393,  -0.00974,   0.08033,   0.01496,   0.01786,  -0.03879,  -0.04315,  -0.05623,   0.04692,   0.00915,  -0.03153,  -0.00102,   0.02658,  -0.01410,  -0.00248,   0.02948,   0.02658,  -0.04606,  -0.00538,   0.05418,   0.02803,  -0.04751,  -0.04315,  -0.03298,   0.01060,   0.04982,  -0.00829,   0.04982,   0.00624,  -0.03008,   0.05709,  -0.00393,   0.07161,  -0.03153,   0.04982,  -0.03444,   0.00479,   0.00769,  -0.03879,  -0.01265,  -0.02717,  -0.05623,  -0.02863,   0.07161,   0.03820,  -0.00683,  -0.02136,  -0.02427,   0.02367,  -0.00393,   0.05563,  -0.04896,  -0.03008,  -0.00102,  -0.02863,   0.00915,   0.00043,   0.06871,   0.03094,  -0.00102,   0.00188,   0.00479,   0.04546,   0.01350,   0.01931,  -0.02717,   0.05127,  -0.00829,   0.01786,   0.03239,  -0.03008,  -0.03153,   0.03965,   0.04982,   0.02077,   0.03239,  -0.07366,   0.01786,  -0.00683,   0.08033,  -0.00829,  -0.05187,   0.00769
   0.07888,  -0.00102,   0.06580,  -0.04896,  -0.00829,  -0.01991,   0.01060,   0.06144,   0.05999,  -0.00393,   0.00769,   0.03239,  -0.02427,  -0.00538,  -0.01700,   0.00769,  -0.02136,  -0.06785,   0.07307,  -0.00393,  -0.00248,  -0.08238,   0.03384,   0.02222,  -0.01991,   0.01496,   0.04256,  -0.00393,   0.04982,  -0.01410,  -0.05623,   0.02077,  -0.00683,   0.02367,  -0.02863,   0.00915,   0.01060,   0.06435,   0.02077,   0.00915,  -0.04315,  -0.01700,   0.01060,   0.00624,   0.00043,  -0.00683,   0.01350,  -0.01846,  -0.04606,   0.01205,   0.03820,  -0.01846,  -0.00974,  -0.04170,  -0.06059,   0.03239,   0.02803,   0.00479,  -0.02427,   0.05127,  -0.00683,   0.00043,  -0.01119,  -0.00102,   0.03239,  -0.04461,   0.00915,  -0.00538,  -0.08238,  -0.03734,   0.02803,  -0.04315,  -0.02572,   0.05854,  -0.02136,   0.05273,  -0.05187,  -0.12015,  -0.07366,   0.03239,  -0.06930,   0.01931,   0.03094,   0.01641,  -0.06349,  -0.04896,   0.04546,  -0.00683,   0.06725,  -0.00248,  -0.00683,   0.02222,   0.06580,   0.02222,   0.04546,   0.03529,   0.03820,   0.02948,   0.03675,   0.02222,  -0.02717,  -0.03444,  -0.00393,   0.00188,   0.04111,   0.03529,  -0.04025,   0.04111,   0.00479,  -0.01119,   0.02658,  -0.02281,  -0.08674,  -0.04606,   0.00479,  -0.09109,   0.00043,   0.05854,  -0.03008,   0.00333,  -0.03879,   0.02367,   0.06871,  -0.03153,   0.04837,   0.02222,   0.00188,   0.00624,  -0.01119,   0.01350,   0.03965,  -0.02863,  -0.02717,   0.04837,  -0.02717,  -0.04315,   0.01786,  -0.03879,  -0.06349,  -0.06349,  -0.03879,   0.01786,   0.03820,  -0.00829,   0.06871,  -0.05332,   0.01641,  -0.00683,   0.02222,   0.00915,  -0.06059,   0.03675,   0.00479,   0.01060,   0.07161,   0.03239,   0.02367,   0.03239,   0.02077,  -0.01846,  -0.01119,   0.04401,  -0.04025,  -0.03444,  -0.01700,   0.08759,   0.02367,   0.02077,   0.04546,   0.02513,   0.02513,   0.01931,   0.00769,  -0.01846,  -0.02427,   0.00043,   0.02658,   0.00624,   0.00479,  -0.05623,  -0.04606,   0.02077,  -0.01555,  -0.03589,   0.01205,   0.01641,   0.00479,   0.00479,  -0.01846,  -0.05623,  -0.08528,   0.08469,   0.01350,   0.00479,   0.00043,   0.00188,  -0.03879,  -0.04896,   0.04401,  -0.01846,  -0.01119,   0.09195,  -0.01265,  -0.02572,  -0.06785,  -0.03153,   0.04111,   0.03529,  -0.01265,  -0.01846,   0.05127,   0.04692,   0.01931,  -0.01119,  -0.00538,  -0.03008,  -0.00829,  -0.01700,   0.00188,   0.01641,   0.03675,  -0.00102,   0.08614,   0.01496,   0.05563,   0.01786,   0.03094,  -0.03879,  -0.09109,   0.01205,   0.00479,  -0.00248,   0.04982,  -0.03444,  -0.02427,   0.01205,   0.03820,  -0.00248,  -0.04606,  -0.05768,  -0.03153,  -0.00102,   0.03675,  -0.03153,  -0.00538,   0.01786,  -0.01410,   0.08614,   0.02367,  -0.05478,  -0.00829,  -0.03734,  -0.00829,   0.07888,   0.00479,   0.01496,   0.01931,   0.01786,   0.01931,   0.00624,   0.04692,  -0.02572,  -0.05042,   0.03965,  -0.02136,   0.00043,  -0.02863,   0.00043,  -0.00538,   0.00188,  -0.00102,   0.02513,   0.05854,   0.00043,   0.00188,  -0.00683,   0.00915,   0.01060,  -0.01846,  -0.04896,  -0.01846,   0.00915,   0.06144,   0.03675,   0.02513,   0.00188,  -0.01846,   0.00333,  -0.02427,   0.10793,   0.00479,   0.02367,  -0.00974,   0.01641,   0.08759,   0.01641,  -0.01410,   0.01350,   0.00188,  -0.06785,  -0.05623,   0.06871,   0.01205,  -0.04751,  -0.01119,   0.01786,  -0.02863,   0.07016,   0.00043,   0.03965,   0.02803,   0.05709,  -0.02136,  -0.04606,   0.00769,  -0.02572,   0.00769,   0.00479,  -0.00248,   0.00915,   0.03529,   0.03529,  -0.02863,  -0.04896,   0.01350,   0.02658,  -0.05332,   0.05418,  -0.00248,   0.01786,   0.02803,  -0.03444,  -0.03734,   0.04982,  -0.02281,   0.00043,  -0.01700,   0.07307,   0.00624,   0.02222,  -0.03589,  -0.04315,  -0.01119,  -0.02717,   0.01786,  -0.00102,  -0.01410,   0.00333,  -0.03734,  -0.00102,   0.08178,   0.01496,   0.05854,   0.02513,  -0.05042,  -0.06059,   0.05418,   0.03094,   0.00624,  -0.01555,   0.00479,   0.00333,  -0.03008,  -0.01265,  -0.01119,  -0.05187,  -0.00538,  -0.01991,   0.03529,   0.03675,  -0.02863,   0.03239,  -0.00683,  -0.05478,   0.00333,  -0.03298,   0.06580,  -0.03008,  -0.03153,  -0.03589,   0.05709,  -0.07802,  -0.06930,  -0.00974,   0.01060,   0.02948,  -0.04606,   0.04256,   0.02367,  -0.03589,   0.02222,  -0.01119,  -0.01846,   0.04111,  -0.06059,   0.02077,  -0.03879,  -0.02863,   0.01641,  -0.03153,  -0.00974,   0.01205,   0.04401,  -0.00102,  -0.07366,  -0.03444,  -0.03444,   0.00043,  -0.03298,  -0.01846,  -0.00829,   0.04546,  -0.02281,   0.03965,   0.02077,  -0.00974,   0.03820,   0.00333,   0.02367,  -0.01265,  -0.00974,  -0.02863,   0.00043,  -0.03589,  -0.02572,   0.01350,   0.04692,  -0.01846,   0.00333,   0.01931,   0.01060,   0.00769,   0.08614,   0.01786,  -0.04896,  -0.00683,  -0.04606,  -0.02281,   0.01350,  -0.01991,  -0.01410,   0.05999,  -0.04461,  -0.01555,  -0.00102,  -0.02281,  -0.10272,  -0.00683,   0.00624,  -0.02863,   0.00333,   0.00043,   0.00769,   0.07597,  -0.04461,  -0.01410,   0.00769,   0.00333,  -0.02717,  -0.00829,   0.06290,  -0.06494,  -0.03734,  -0.01991,  -0.01265,  -0.01410,  -0.03008,   0.10938,   0.03965,   0.01931,  -0.01410,  -0.04751,   0.01496,   0.01641,   0.03239,   0.01496,   0.02077,  -0.02281,   0.05273,   0.03384,  -0.02281,   0.03239,   0.02803,   0.00915,   0.03239,  -0.01119,  -0.04606,  -0.00248,  -0.03008,  -0.01410,   0.03094,   0.00188,   0.02222,   0.02367,  -0.01846,  -0.01265,  -0.01846,  -0.01555,   0.01350,  -0.01555,  -0.05768,  -0.03153,  -0.05187,   0.00479,  -0.04170,   0.02658,  -0.01265,   0.01350,   0.04546,  -0.08528,  -0.00102,   0.08905,   0.00188,   0.00043,   0.01786,   0.02222,  -0.07947,  -0.04315,   0.01786,   0.03094,   0.03675,   0.01350,  -0.05187,   0.02077,  -0.01410,   0.02803,   0.04256,   0.02658,   0.00043,  -0.00538,  -0.02572,   0.02513,  -0.03153,   0.01060,  -0.06640,  -0.03734,   0.01786,  -0.02427,  -0.04896,  -0.01555,   0.06580,   0.03384,   0.02948,  -0.00974,  -0.00102,   0.06725,   0.03820,   0.01786,  -0.00393,   0.04401,   0.06435,  -0.02572,   0.06580,  -0.01265,   0.03239,  -0.00974,   0.02077,   0.07307,   0.01205,   0.00333,   0.00915,  -0.01700,   0.01350,   0.02077,   0.01205,   0.00188,   0.04401,   0.06290,   0.00479,   0.00915,   0.01350,  -0.03008,  -0.09981,   0.00769,  -0.01555,  -0.01119,   0.00915,  -0.01846,  -0.00829,  -0.00829,  -0.01410,  -0.00538,  -0.07366,   0.00479,   0.00915,  -0.03008,  -0.01555,   0.07597,  -0.01555,   0.03384,   0.04837,   0.02948,  -0.05623,   0.00188,  -0.00248,   0.00624,  -0.01119,  -0.01700,   0.02513,  -0.03298,   0.04692,   0.07016,   0.03239,   0.02513,   0.01786,   0.00188,  -0.00393,   0.06725,   0.04692,   0.05999,  -0.02572,   0.01786,  -0.05623,   0.01350,  -0.02281,   0.01060,  -0.00393,   0.02367,  -0.06640,   0.00333,  -0.02427,  -0.02281,   0.02222,   0.01931,  -0.06204,   0.02948,   0.05273,   0.00333,   0.02513,  -0.03444,  -0.01265,   0.02658,   0.03239,   0.03529,  -0.00248,   0.01931,   0.00624,   0.03529,  -0.10707,  -0.01119,   0.01060,  -0.02281,  -0.02136,  -0.03589,   0.02367,   0.01350,  -0.00248,  -0.00974,   0.01931,  -0.00538,  -0.04461,  -0.00393,  -0.05042,   0.08905,  -0.03734,  -0.04025,   0.00769,  -0.01846,   0.03675,  -0.02572,  -0.05768,  -0.04896,  -0.00683,   0.02658,   0.04692,   0.01205,  -0.02572,  -0.07221,   0.00333,  -0.04025,   0.03675,  -0.03589,   0.03675,  -0.01700,  -0.03879,   0.00624,   0.01786,  -0.01410,   0.00479,   0.01060,  -0.02281,  -0.03589,  -0.03589,   0.11520,   0.01496,   0.07597,  -0.01991,  -0.00974,   0.01496,  -0.03298,  -0.05042,   0.01641,   0.03675,   0.00188,  -0.02717,   0.02222,  -0.02572,   0.02077,   0.02948,   0.02803,   0.01786,   0.02222,   0.01496,   0.01931,  -0.04170,   0.00915,  -0.00974,  -0.02427,  -0.02281,   0.03094,  -0.03298,   0.03529,  -0.03298,   0.00769,   0.00043,   0.02077,  -0.02717,  -0.01265,   0.02513,   0.00333,  -0.04606,   0.03094,   0.00479,  -0.00538,  -0.00102,  -0.04896,   0.03384,   0.02077,   0.03384,  -0.03153,   0.00043,   0.04111,  -0.03589,   0.05709,   0.02513,   0.04256,  -0.01265,   0.00915,   0.02948,   0.03675,  -0.11434,   0.01205,   0.04256,  -0.01991,  -0.00248,   0.02948,  -0.04315,   0.04982,  -0.02717,  -0.01119,   0.09486,  -0.03008,   0.01060,  -0.01265,   0.02513,  -0.00829,   0.03675,   0.03384,  -0.01846,   0.03239,   0.03529,   0.05709,  -0.01119,  -0.03444,   0.00043,  -0.04751,  -0.06204,  -0.00248,  -0.03879,   0.01786,  -0.00683,  -0.05332,   0.06290,  -0.08674,  -0.03298,  -0.00538,   0.00188,   0.03239,  -0.09836,  -0.01991,   0.01641,  -0.04170,   0.00188,   0.02222,   0.05854,  -0.03444,  -0.09836,  -0.00829,  -0.02136,  -0.04025,   0.04111,   0.03965,  -0.02863,   0.02367,  -0.04025,  -0.02572,  -0.04896,  -0.05768,  -0.01265,  -0.00393,  -0.02281,   0.05418,   0.00915,   0.00333,   0.00043,   0.06580,   0.06144,   0.01060,  -0.04461,  -0.03298,  -0.04170,   0.03384,   0.00769,   0.05418,  -0.00538,  -0.03879,  -0.01119,   0.02077,  -0.00102,   0.02803,   0.03965,   0.03965,  -0.01555,   0.00188,  -0.01991,   0.03965,   0.00624,   0.06435,   0.01060,   0.01641,   0.05273,  -0.02572,  -0.01555,   0.04982,  -0.00393,   0.01205,   0.04546,   0.02803,  -0.04751,  -0.00683,  -0.00248,   0.03529,  -0.05042,   0.00915,  -0.05332,   0.01060,  -0.03298,  -0.01555,   0.03820,  -0.01119,  -0.01410,   0.00043,  -0.04896,   0.02803,   0.00188,   0.03965,  -0.00829,   0.01931,  -0.01119,  -0.00829,  -0.06785,   0.05563,  -0.01265,  -0.01410,   0.02367,  -0.00393,   0.00333,   0.04111,   0.06435,  -0.00393,  -0.03589,   0.09340,  -0.03153,  -0.02281,  -0.01410,  -0.02717,  -0.01700,   0.01060,   0.01931,  -0.08819,  -0.09981,   0.04546,   0.06290,   0.06725,   0.08033,   0.01060,   0.00915,   0.07452,   0.02658,   0.01496,   0.02803,  -0.04315,   0.02948,  -0.03153,   0.00333,   0.03675,   0.02948,   0.02222,   0.01350,   0.06580,   0.01205,   0.01496,   0.01205,   0.05127,  -0.03879,  -0.00974,  -0.01410,  -0.03879,   0.01496,   0.01931,  -0.05042,   0.01496,   0.00915,  -0.00683,   0.05854,  -0.03879,   0.02222,  -0.05478,  -0.01265,  -0.01555,  -0.07366,   0.08905,   0.01786,  -0.03298,   0.02658,   0.02803,   0.01060,   0.05999,  -0.04025,  -0.04025,  -0.00538,   0.02658,  -0.05623,   0.05709,   0.00043,   0.01931,   0.03384,  -0.05478,  -0.04170,   0.01350,  -0.03444,   0.03384,   0.00043,  -0.09981,  -0.04751,   0.00188,   0.02077,   0.01496,  -0.03298,   0.05854,  -0.02572,  -0.07076,   0.02077,   0.02658,   0.02367,  -0.04461,   0.02222,  -0.01555,   0.04982,   0.05854,  -0.03008,   0.01350,  -0.02427,   0.00769,   0.00624,  -0.03589,  -0.02717,   0.00043,   0.06580,   0.02803,  -0.00393,   0.01205,   0.02367,  -0.03879,   0.02367,   0.04256,  -0.02427,   0.00333,  -0.03589,   0.02658,   0.02513,   0.02077,  -0.00974,   0.00479,  -0.06785,   0.05999,   0.00624,   0.01205,   0.01496,  -0.00248,  -0.08238,   0.02367,   0.00333,  -0.00102,  -0.03589,   0.02222,   0.03239,   0.08905,  -0.04606,  -0.02427,  -0.00538,   0.00624,   0.03384,  -0.01555,  -0.07511,  -0.01410,  -0.02136,  -0.00538,  -0.02717,  -0.00393,   0.04837,  -0.04315,   0.04982,  -0.01555,   0.00333,  -0.05187,   0.04256,  -0.00683,  -0.02427,   0.01496,  -0.00102,   0.01786,   0.01786,   0.03965
  -0.01265,   0.02948,   0.00188,   0.01060,  -0.02427,  -0.04751,  -0.01119,  -0.00974,   0.07161,  -0.04461,   0.01205,  -0.04315,   0.01350,   0.05127,   0.04982,  -0.02572,  -0.02136,   0.02658,  -0.10562,   0.00624,  -0.00102,   0.06290,   0.03384,   0.08033,   0.02513,   0.00915,  -0.01410,   0.04692,   0.03529,  -0.02717,   0.00769,   0.01931,  -0.07947,   0.02077,  -0.02863,   0.02367,  -0.00393,  -0.01265,  -0.04461,  -0.01410,   0.03675,  -0.00102,  -0.02863,  -0.00102,   0.02658,   0.01931,   0.00624,   0.10503,   0.00188,   0.02513,  -0.10126,   0.01060,  -0.03153,   0.00188,  -0.05478,   0.02948,   0.03529,  -0.04896,  -0.05332,   0.00333,   0.05709,  -0.03008,  -0.04606,  -0.03153,   0.04256,  -0.00974,   0.03239,  -0.01846,   0.01350,   0.00769,   0.00915,  -0.01410,   0.04546,  -0.04170,   0.05273,  -0.03298,  -0.04751,  -0.07802,   0.01931,  -0.00393,   0.01931,   0.02948,   0.00043,   0.02658,   0.02658,  -0.01119,  -0.06494,  -0.04751,  -0.03008,   0.03384,  -0.01410,   0.04982,  -0.06349,  -0.01265,   0.04546,  -0.02572,  -0.00393,  -0.04896,  -0.02863,  -0.03153,   0.01931,  -0.01555,   0.00915,  -0.00538,   0.05854,   0.05127,   0.02803,   0.03094,   0.02948,  -0.01555,   0.04111,   0.02222,   0.03820,  -0.02136,  -0.01846,  -0.02427,  -0.03153,   0.01641,   0.04546,  -0.00393,  -0.04461,   0.00769,   0.01931,   0.03384,   0.00624,   0.01641,  -0.04461,   0.01350,  -0.01119,   0.00915,   0.04401,   0.03239,  -0.00974,   0.00043,   0.03529,  -0.05768,   0.03820,   0.02803,  -0.03444,   0.10067,   0.02513,  -0.01119,   0.02513,  -0.00974,   0.06435,   0.00624,   0.01060,  -0.01555,  -0.04025,   0.00624,   0.01931,   0.01931,   0.00624,  -0.02572,   0.07016,  -0.05913,  -0.01846,  -0.02717,   0.02948,  -0.05478,  -0.05187,  -0.01265,   0.04837,  -0.01119,   0.06435,   0.02513,   0.06871,   0.00769,  -0.00974,  -0.00248,  -0.10417,   0.01496,   0.11665,  -0.01846,  -0.01700,   0.04401,  -0.04896,  -0.04606,   0.01641,   0.01641,   0.02803,  -0.05768,   0.03239,  -0.00829,   0.01786,  -0.00248,  -0.01846,  -0.03298,  -0.03879,  -0.01265,   0.04256,  -0.00683,  -0.00102,   0.03965,  -0.03444,   0.02803,   0.04256,  -0.02572,  -0.04170,  -0.01700,   0.02077,  -0.03008,   0.04692,  -0.04751,   0.06871,   0.02513,  -0.00393,  -0.00538,   0.00915,   0.00769,  -0.01555,   0.03529,   0.04546,  -0.01555,   0.03239,   0.03529,   0.05273,  -0.02572,   0.05709,  -0.02717,   0.04401,   0.06435,  -0.01991,  -0.03008,  -0.04751,  -0.00829,   0.01786,   0.01786,  -0.01700,   0.02222,  -0.00102,  -0.08528,  -0.04025,  -0.05042,  -0.05042,  -0.00683,  -0.02863,   0.07452,  -0.03008,  -0.03298,  -0.04025,  -0.01410,  -0.00393,   0.03239,  -0.00829,   0.07016,   0.08469,  -0.01846,  -0.02717,   0.05999,  -0.01700,   0.03094,   0.04111,  -0.01410,   0.05563,  -0.03298,   0.03384,  -0.01265,   0.06290,   0.02367,   0.00188,  -0.01991,   0.06725,  -0.01700,  -0.00248,  -0.04461,   0.01641,  -0.01991,  -0.00102,  -0.01991,   0.02367,  -0.04025,  -0.04606,   0.03529,   0.02222,   0.06290,  -0.01119,  -0.06059,  -0.02281,  -0.02427,   0.03384,   0.01496,   0.04111,   0.00624,  -0.00683,   0.02077,   0.06435,   0.07597,   0.07307,  -0.02427,  -0.02136,  -0.07511,   0.03384,  -0.06785,  -0.00974,   0.03820,  -0.02572,   0.04546,   0.02658,   0.01931,   0.01786,  -0.00248,   0.01350,   0.03384,   0.00479,   0.03239,  -0.00393,  -0.00538,  -0.01410,   0.02222,  -0.04025,  -0.02136,  -0.01991,  -0.03008,   0.04546,  -0.01265,   0.09922,   0.00915,  -0.00393,   0.04982,  -0.00829,  -0.03589,   0.05854,   0.02077,  -0.01119,  -0.00102,  -0.03153,  -0.04606,   0.03384,   0.01350,   0.01496,  -0.01119,   0.00333,   0.00624,   0.02658,   0.01641,  -0.04896,   0.02803,  -0.01555,  -0.08383,   0.00479,  -0.02136,  -0.00102,  -0.04461,  -0.00683,   0.05563,   0.07161,  -0.06349,   0.00333,   0.05854,  -0.00248,  -0.05913,   0.04982,  -0.07076,   0.03094,   0.04692,  -0.04606,   0.02222,  -0.02136,   0.09486,  -0.05768,  -0.00102,   0.00624,   0.00333,   0.03094,   0.02658,  -0.08674,  -0.06930,  -0.01265,  -0.03589,   0.08178,   0.06435,   0.03675,  -0.04751,   0.00915,  -0.05332,   0.04837,   0.04401,  -0.03444,   0.04837,  -0.03734,  -0.10562,   0.02077,  -0.05623,   0.00188,  -0.03153,  -0.01119,  -0.01991,  -0.01555,  -0.00974,   0.03529,  -0.01700,   0.01350,   0.01931,  -0.02427,  -0.05332,   0.03094,  -0.02572,  -0.01555,   0.00769,   0.04546,   0.01060,   0.01641,  -0.01265,   0.02077,  -0.03444,   0.05418,   0.04256,  -0.01991,   0.03820,  -0.00248,   0.01350,  -0.05913,   0.01496,   0.08323,  -0.00538,   0.00479,   0.02803,  -0.00538,  -0.03589,  -0.00829,   0.01350,   0.06871,   0.03094,   0.04401,   0.01496,  -0.06204,  -0.01119,   0.04982,  -0.03879,   0.03820,   0.00188,  -0.02863,   0.03384,   0.01060,   0.02513,  -0.00829,   0.07452,  -0.00538,  -0.01846,  -0.01991,   0.00043,   0.00479,   0.00915,   0.00043,  -0.02863,   0.00915,  -0.02863,  -0.03444,   0.08469,   0.08905,   0.07161,   0.02658,   0.01205,   0.02367,   0.05273,  -0.03444,  -0.05042,   0.00769,  -0.01265,  -0.05042,  -0.04896,  -0.05768,  -0.01555,   0.03094,   0.02948,  -0.02427,   0.00188,   0.03529,   0.04837,  -0.01265,   0.02077,  -0.02427,   0.03239,  -0.01555,  -0.02136,   0.04837,  -0.01265,   0.02367,   0.02222,   0.00769,   0.04256,  -0.02281,   0.06144,  -0.00829,  -0.02572,   0.01350,  -0.04025,   0.07452,   0.01931,  -0.08674,  -0.04025,   0.00624,  -0.01410,   0.02948,   0.00479,   0.03965,  -0.00102,   0.04837,  -0.00538,  -0.00683,   0.06435,   0.04256,  -0.03879,   0.02077,  -0.06204,  -0.01846,   0.00624,  -0.00248,  -0.01265,   0.05273,  -0.04751,   0.02658,  -0.05478,   0.03094,  -0.02717,  -0.03008,  -0.03298,   0.01931,  -0.00683,   0.03965,   0.00188,   0.03239,  -0.07076,  -0.01846,  -0.01410,  -0.05042,   0.01496,  -0.03008,   0.01060,   0.05854,  -0.02717,  -0.01700,  -0.05187,  -0.02136,  -0.01991,  -0.03444,   0.00188,   0.00624,  -0.00538,  -0.01700,  -0.01846,   0.01496,  -0.01991,  -0.03298,  -0.03589,   0.01496,  -0.01119,  -0.02136,  -0.06204,  -0.00683,   0.04111,  -0.02717,  -0.06785,  -0.03153,  -0.01265,   0.05273,   0.00479,  -0.01991,   0.03529,  -0.01119,  -0.03589,  -0.04606,  -0.00829,  -0.02572,   0.05709,   0.04692,  -0.00538,   0.08905,  -0.00248,  -0.01991,   0.03675,   0.03529,   0.00333,   0.00333,   0.04401,   0.00915,  -0.02572,   0.04256,   0.00915,   0.01641,  -0.04170,  -0.03734,   0.00624,   0.03965,  -0.08528,  -0.00102,   0.00624,  -0.04606,   0.01641,   0.01060,  -0.01410,  -0.00248,   0.01060,   0.00915,  -0.00102,  -0.03153,  -0.00248,   0.02658,   0.00479,   0.01496,  -0.04315,  -0.01555,  -0.00829,   0.04837,   0.03529,   0.01205,  -0.01846,  -0.02717,   0.00769,   0.02658,   0.02367,  -0.01700,  -0.01265,   0.02222,   0.02367,  -0.02717,  -0.03298,   0.01786,  -0.01119,  -0.03589,  -0.02572,   0.09340,  -0.00974,  -0.03298,  -0.03879,  -0.01991,   0.00188,  -0.07947,  -0.01991,   0.01496,  -0.01700,   0.01496,  -0.03879,   0.01060,  -0.00102,  -0.03008,   0.01786,   0.06290,   0.01060,   0.02513,  -0.05623,   0.00915,  -0.01265,   0.07307,   0.06290,  -0.01555,   0.02948,   0.00043,   0.03094,   0.03965,  -0.01846,  -0.00683,   0.03820,   0.00479,   0.03675,   0.02367,  -0.03153,  -0.01555,   0.00043,   0.02367,  -0.01265,   0.08614,   0.05273,   0.00769,   0.03675,   0.05999,  -0.02427,   0.06435,   0.06290,  -0.01265,  -0.06059,   0.00769,  -0.04606,  -0.04170,   0.00043,   0.02222,   0.01205,  -0.00393,   0.03529,   0.02803,   0.00769,  -0.01555,  -0.00829,  -0.01700,   0.02367,  -0.02717,  -0.03153,  -0.00102,  -0.03589,  -0.04751,  -0.07221,  -0.01846,   0.00333,  -0.02717,   0.04692,   0.03820,   0.02077,  -0.05187,  -0.04751,   0.05127,  -0.04315,   0.02803,   0.05563,   0.04692,  -0.08092,   0.06144,  -0.02572,   0.00333,  -0.00974,   0.07161,   0.04837,  -0.00248,  -0.04170,   0.00188,  -0.05332,   0.02658,   0.01931,  -0.01555,  -0.03008,   0.04546,  -0.01555,  -0.02717,  -0.01410,   0.01496,   0.02222,  -0.02427,  -0.01555,   0.01060,  -0.02863,  -0.01555,   0.01205,   0.02222,   0.00624,  -0.05187,  -0.10998,  -0.01555,   0.00188,   0.05273,   0.00479,  -0.06785,   0.05418,   0.03675,  -0.01555,  -0.07221,   0.00769,  -0.00974,   0.01060,  -0.01555,   0.01060,  -0.02717,  -0.04025,   0.04837,   0.02658,   0.02658,  -0.03153,  -0.03879,  -0.02136,  -0.00829,   0.01931,  -0.02427,  -0.01119,  -0.00248,   0.04546,  -0.05187,  -0.02572,  -0.04025,   0.00043,   0.01496,  -0.02717,  -0.06494,   0.00769,  -0.04315,  -0.04751,   0.01786,   0.00479,  -0.00393,   0.02658,  -0.01846,  -0.02717,  -0.05623,  -0.01991,   0.02658,  -0.04896,  -0.06204,   0.01350,   0.04982,  -0.01555,  -0.04315,   0.03384,  -0.01555,  -0.00683,   0.04692,  -0.01265,  -0.03444,  -0.00829,   0.02077,   0.00333,  -0.06494,  -0.00538,   0.01641,  -0.08528,  -0.02717,  -0.01991,   0.05127,  -0.01265,  -0.01265,   0.00479,  -0.02572,   0.05418,  -0.07076,  -0.01846,   0.02658,   0.02077,   0.00043,  -0.02863,  -0.04606,   0.03094,  -0.01265,   0.03384,   0.03094,   0.02658,  -0.00248,  -0.01410,  -0.01991,  -0.02572,   0.08469,  -0.01555,  -0.00974,  -0.01119,   0.03820,   0.02803,   0.03675,  -0.06349,   0.00479,   0.00043,   0.08759,  -0.02863,   0.02658,  -0.08238,  -0.04315,  -0.07076,   0.00915,  -0.00683,   0.01205,   0.02222,  -0.03153,  -0.01700,  -0.01991,  -0.04461,  -0.00102,   0.02803,  -0.00683,   0.02222,  -0.03879,  -0.03298,   0.05127,   0.00188,   0.03094,  -0.04751,   0.03965,  -0.03298,   0.03094,  -0.00102,   0.01931,  -0.04315,   0.01350,  -0.01265,  -0.07511,   0.02803,   0.00479,   0.01496,  -0.01119,  -0.05042,   0.02513,   0.03529,   0.05563,   0.01931,   0.04111,  -0.03589,   0.00915,   0.01496,  -0.05042,  -0.01119,   0.07452,   0.08469,   0.00188,  -0.03008,  -0.04896,   0.01931,   0.03094,  -0.01991,  -0.00829,   0.04111,   0.00479,   0.00043,  -0.01700,   0.03965,   0.01931,  -0.00393,  -0.01555,  -0.03153,  -0.02572,  -0.03008,   0.00479,   0.01496,   0.03965,   0.02803,   0.07452,   0.02222,  -0.01555,   0.08033,   0.08033,   0.05999,  -0.02863,  -0.05332,   0.01496,  -0.01119,  -0.03153,   0.01641,  -0.04315,  -0.01991,   0.05418,  -0.05478,   0.00769,  -0.00248,  -0.00974,   0.04256,  -0.04315,   0.03094,   0.11955,  -0.00538,  -0.06059,   0.01060,   0.01931,   0.00188,  -0.03734,  -0.04751,   0.05563,   0.03820,  -0.08964,   0.00769,   0.00043,  -0.00102,   0.04401,  -0.04606,   0.00479,   0.03384,   0.03529,   0.03239,   0.00624,   0.00769,   0.01931,  -0.03008,   0.01205,  -0.01700,  -0.03153,   0.00333,   0.01931,  -0.01410,  -0.06930,  -0.01555,   0.07161,   0.00043,  -0.00102,   0.07888,  -0.03444,   0.02367,   0.01350,   0.04111,   0.02803,  -0.01265,  -0.01991,   0.03820,  -0.03298,  -0.01991,   0.00188,   0.01641,   0.05854,  -0.00683,  -0.03734,  -0.07657,  -0.03298,   0.01205,   0.02077,  -0.01119,   0.06144,  -0.04896,   0.02077,   0.00333,   0.00333,  -0.05913,  -0.04025,  -0.03008,  -0.04315,   0.03239,   0.05127,   0.01931,   0.02658,  -0.05187,   0.04111,   0.04111,  -0.00829,  -0.04606,  -0.00102,   0.03529,   0.03965,   0.01060,  -0.01265,   0.03384,   0.02658,   0.01931,   0.04256,   0.02658,  -0.04315,   0.01786,  -0.02572,   0.01786,  -0.00538,   0.02803,   0.02077,   0.04692,   0.02367,  -0.04461
   0.00915,   0.03529,   0.08323,   0.03965,   0.05273,  -0.00683,   0.01060,  -0.05913,   0.06435,  -0.04025,  -0.03589,   0.01786,   0.01641,   0.03239,   0.00769,  -0.03589,  -0.01700,   0.00624,  -0.00102,  -0.02281,  -0.03008,   0.03675,   0.00043,  -0.02572,   0.03529,   0.00915,   0.02513,  -0.02136,  -0.00829,   0.05563,   0.01786,   0.05563,  -0.04896,  -0.00829,  -0.03734,  -0.00829,   0.04256,   0.00915,   0.01641,   0.02803,  -0.03734,  -0.00248,  -0.03589,   0.06725,  -0.06204,  -0.03153,   0.01931,   0.02658,   0.02658,  -0.00248,  -0.01700,  -0.11579,  -0.02717,   0.05273,   0.06290,   0.01641,  -0.01991,   0.00043,   0.01496,   0.02803,   0.02077,  -0.01410,  -0.03444,  -0.04751,  -0.04896,  -0.00974,  -0.00248,  -0.03298,   0.04692,   0.01350,   0.00915,  -0.00683,  -0.04751,   0.00479,  -0.01410,  -0.00683,  -0.01119,  -0.06930,  -0.04461,  -0.04896,   0.04692,   0.01205,  -0.03008,   0.04401,   0.00624,   0.05563,  -0.00393,   0.05273,  -0.04025,   0.01350,   0.03384,  -0.04315,   0.02077,   0.08469,   0.02948,  -0.00538,   0.04256,  -0.00102,  -0.02572,   0.03529,  -0.04606,  -0.02863,  -0.03008,  -0.00248,  -0.02281,   0.02948,   0.00769,  -0.06930,   0.01205,   0.05999,   0.03675,  -0.01700,  -0.00393,   0.00188,  -0.03153,   0.00769,  -0.03298,   0.02077,   0.04401,  -0.08383,  -0.00829,  -0.04751,  -0.05042,   0.02658,   0.01060,  -0.01555,   0.02077,  -0.00974,  -0.01846,   0.04837,   0.04401,  -0.00829,   0.01060,   0.00188,   0.02077,  -0.03734,  -0.01265,  -0.08674,  -0.03444,   0.01060,   0.02513,  -0.03589,  -0.04461,  -0.00829,  -0.04025,  -0.00393,  -0.01119,  -0.05478,  -0.05187,  -0.00829,  -0.02427,  -0.01700,  -0.01846,   0.01350,   0.01350,  -0.04461,  -0.01119,  -0.00974,   0.04982,  -0.03879,  -0.04896,   0.01496,   0.05854,  -0.03589,   0.00769,  -0.02717,   0.01931,   0.02513,   0.06871,   0.05127,   0.00043,  -0.02572,   0.01060,   0.00915,  -0.06930,  -0.00393,   0.03384,  -0.01410,  -0.08092,  -0.00538,  -0.02427,  -0.00538,  -0.01265,   0.02367,   0.04111,  -0.00683,  -0.03298,   0.01205,  -0.03008,  -0.02863,   0.01060,  -0.00393,   0.00333,  -0.04751,   0.00043,  -0.06494,  -0.02281,   0.07161,  -0.01991,   0.00479,  -0.01410,  -0.02136,   0.04256,  -0.02281,  -0.01119,   0.06725,  -0.00393,  -0.02717,   0.02222,  -0.02136,   0.04256,  -0.02136,  -0.06930,  -0.04461,  -0.07366,  -0.04751,  -0.06930,  -0.01555,   0.00624,  -0.03008,  -0.01410,   0.01931,   0.00915,   0.01786,   0.01350,  -0.09545,   0.00915,  -0.03298,  -0.00393,   0.00769,   0.01931,   0.04837,   0.03239,   0.04546,  -0.00974,  -0.06930,   0.04256,  -0.01410,  -0.04025,  -0.01265,   0.02077,  -0.07221,   0.01205,  -0.00829,  -0.00683,   0.07016,  -0.03298,  -0.06785,   0.00479,   0.05854,   0.04982,   0.00624,  -0.01410,  -0.02572,  -0.03879,   0.00915,   0.03529,   0.00915,   0.02803,  -0.02427,  -0.04025,   0.01060,  -0.03444,   0.06144,  -0.00248,  -0.03879,   0.02803,  -0.00974,  -0.04170,   0.03820,  -0.02863,   0.03529,  -0.01846,  -0.02572,   0.03820,   0.00479,  -0.06059,  -0.05623,   0.03675,  -0.03444,  -0.03879,   0.02803,  -0.06204,   0.00915,   0.01205,  -0.03298,  -0.02136,  -0.04751,  -0.01555,   0.01496,   0.00915,   0.03094,   0.00333,   0.00479,   0.00333,  -0.00538,  -0.01410,   0.03675,  -0.01265,  -0.07366,  -0.00829,   0.02803,  -0.04606,   0.02367,  -0.01846,  -0.06494,  -0.02281,   0.00479,  -0.05332,   0.01931,   0.04982,  -0.00393,  -0.02427,  -0.01555,  -0.04170,   0.06871,  -0.05478,  -0.02281,  -0.05187,   0.01641,  -0.01265,   0.01641,   0.02367,  -0.10126,  -0.07511,   0.00915,   0.01350,   0.02513,  -0.02136,  -0.03153,   0.01060,   0.00769,   0.01786,  -0.03879,  -0.05623,  -0.00393,  -0.00393,  -0.00683,   0.03384,  -0.00102,  -0.04896,   0.03094,  -0.00248,  -0.00248,  -0.01555,   0.00915,   0.03384,  -0.01700,   0.00624,  -0.01700,   0.01205,   0.05999,  -0.01846,   0.01060,  -0.07657,   0.03094,  -0.01410,  -0.00102,  -0.00683,   0.01641,  -0.03444,   0.04837,  -0.03444,   0.00333,   0.10067,  -0.05623,  -0.03589,   0.00915,   0.05999,  -0.05042,   0.07016,  -0.02717,  -0.00393,  -0.00102,  -0.04170,   0.01786,  -0.02136,  -0.02281,  -0.01555,  -0.11579,   0.00333,  -0.00538,  -0.03734,  -0.03444,   0.00333,  -0.02863,  -0.00829,  -0.06785,  -0.01555,   0.02658,  -0.01265,   0.02948,   0.00624,   0.03675,  -0.05332,  -0.06204,   0.01496,   0.03094,  -0.02717,  -0.01119,   0.02948,   0.00769,   0.10938,   0.07161,  -0.02863,   0.01350,   0.06290,   0.00915,  -0.01991,   0.00043,  -0.01555,  -0.00829,   0.01350,   0.01350,  -0.05042,  -0.03298,  -0.01846,   0.03094,   0.01931,   0.01786,  -0.05623,  -0.05187,   0.00188,   0.04837,   0.02513,   0.02803,   0.01350,  -0.03589,  -0.02863,   0.02658,  -0.00393,  -0.02572,  -0.01410,   0.02803,   0.04692,  -0.07366,   0.04401,   0.00188,   0.01786,   0.00624,   0.03529,  -0.03444,   0.01205,   0.01060,  -0.05623,   0.00333,  -0.04461,   0.02077,  -0.03008,   0.03529,   0.03675,  -0.01846,  -0.02717,   0.01786,  -0.03008,   0.02077,  -0.01410,   0.02658,  -0.02281,   0.10212,   0.03965,  -0.01265,   0.04401,   0.03675,   0.01931,  -0.05042,   0.03239,  -0.07511,   0.05563,  -0.00829,   0.01496,  -0.06785,  -0.01265,  -0.04461,  -0.03298,   0.03675,  -0.01410,  -0.03879,   0.02513,  -0.01846,  -0.03008,  -0.02717,  -0.03879,   0.01931,   0.12682,   0.00333,   0.01350,   0.02367,   0.00915,  -0.00393,   0.02367,  -0.03153,   0.04692,   0.00915,   0.00333,  -0.01265,  -0.03879,  -0.03734,  -0.06494,   0.06144,   0.08614,  -0.06349,   0.06435,  -0.05478,   0.00624,  -0.00393,  -0.05042,  -0.00102,  -0.01991,  -0.01991,  -0.00393,   0.03094,   0.03239,  -0.02572,   0.01060,  -0.04896,   0.01060,   0.02513,   0.03675,   0.07161,   0.01350,  -0.02281,   0.00769,  -0.07366,   0.03384,  -0.04896,  -0.11870,  -0.00102,  -0.00829,  -0.05623,   0.00333,   0.00769,   0.00043,  -0.04025,   0.03384,   0.02367,   0.01931,   0.00915,  -0.00102,  -0.02281,   0.03965,   0.03239,  -0.03444,  -0.04025,   0.01786,   0.03529,   0.02222,   0.00624,  -0.00393,  -0.05332,   0.01496,  -0.03153,   0.02658,  -0.01846,  -0.03879,   0.03094,  -0.01555,  -0.01410,  -0.00683,   0.00188,   0.06725,   0.00479,   0.02077,  -0.02136,  -0.00102,   0.03965,   0.02803,  -0.00102,  -0.01410,  -0.13032,  -0.00829,  -0.02427,   0.00333,   0.02658,  -0.07802,   0.08323,   0.07742,   0.01641,   0.08759,  -0.01119,  -0.04025,   0.01786,   0.01931,  -0.05478,   0.03675,   0.00624,  -0.00829,  -0.01119,  -0.04170,   0.01496,   0.06725,   0.07307,   0.02077,  -0.02136,  -0.04751,   0.01641,   0.03965,  -0.04315,   0.05709,  -0.03153,   0.04692,   0.00624,   0.02948,   0.01350,  -0.03879,   0.01350,  -0.08383,  -0.02136,  -0.07076,  -0.01700,  -0.03298,   0.05273,   0.01350,  -0.01410,  -0.01410,  -0.04896,   0.00479,   0.00769,  -0.04751,   0.01060,   0.04837,  -0.02863,  -0.05042,   0.04111,  -0.04751,  -0.01265,   0.07161,   0.04111,  -0.01410,   0.03820,   0.00479,  -0.01410,   0.04982,  -0.00974,   0.04111,   0.00188,  -0.03734,  -0.01265,  -0.05187,  -0.01846,   0.00915,   0.04982,   0.02948,  -0.04315,   0.06144,  -0.04751,   0.01350,  -0.00102,   0.08178,  -0.01119,   0.07307,  -0.02136,  -0.01700,  -0.00248,  -0.01119,  -0.01119,   0.00624,  -0.03734,   0.05563,   0.03529,  -0.04025,  -0.02863,   0.06435,  -0.00683,   0.01205,  -0.04751,   0.01496,  -0.05187,  -0.00829,  -0.03734,  -0.01846,  -0.00829,   0.03675,  -0.00248,  -0.02427,  -0.04025,  -0.01846,   0.03094,   0.02077,  -0.03008,  -0.02281,  -0.00102,  -0.00829,   0.07742,  -0.03298,  -0.01846,  -0.00393,  -0.09981,   0.03384,  -0.03589,  -0.01991,   0.07888,  -0.00248,  -0.00248,   0.00624,   0.01205,  -0.01846,  -0.00248,  -0.02427,  -0.05913,  -0.02863,  -0.02427,  -0.02427,  -0.04170,  -0.04751,  -0.00829,   0.01205,   0.01641,   0.02948,   0.01350,  -0.00538,   0.04401,   0.03239,   0.01205,   0.01350,  -0.07947,   0.00479,   0.01786,   0.01496,   0.07307,   0.03965,   0.02948,   0.01205,   0.04692,  -0.06204,  -0.02281,  -0.01846,  -0.03444,  -0.01555,  -0.04751,   0.01931,   0.02948,   0.08469,  -0.00683,  -0.04170,  -0.01265,   0.05854,   0.02658,  -0.00102,  -0.04751,   0.00624,   0.03529,   0.00915,   0.00479,   0.02077,   0.03675,   0.01350,   0.02513,   0.00333,  -0.03008,  -0.00248,  -0.01700,   0.06144,  -0.07657,  -0.05768,   0.02948,   0.01931,  -0.01991,  -0.00102,  -0.02717,  -0.05042,  -0.02281,   0.01786,   0.03820,  -0.00683,   0.05709,  -0.01700,   0.00479,   0.03820,  -0.00102,   0.02803,  -0.06785,  -0.08964,   0.02367,  -0.04170,   0.04111,  -0.00683,  -0.02572,  -0.04896,  -0.05478,  -0.04896,   0.01496,   0.01641,  -0.04896,  -0.03008,  -0.01555,  -0.01991,   0.00624,   0.01496,   0.03529,   0.03675,   0.00043,  -0.03298,  -0.01555,  -0.03153,  -0.01991,   0.02948,   0.03094,   0.00043,  -0.04751,   0.01931,   0.02513,   0.01060,  -0.03589,  -0.01846,   0.01496,   0.06290,   0.02513,  -0.01700,  -0.03153,   0.00769,  -0.05768,   0.04111,   0.04256,  -0.02572,  -0.08383,   0.01786,   0.01496,  -0.03589,   0.04401,  -0.02427,   0.00043,   0.00769,   0.05854,   0.01786,  -0.02281,  -0.00829,   0.01786,   0.04256,   0.01931,   0.01496,  -0.01555,   0.04837,   0.03239,   0.02367,  -0.00102,   0.04546,  -0.01700,   0.01931,   0.00624,   0.02948,  -0.00974,   0.00915,   0.02948,   0.00915,  -0.02136,   0.01060,  -0.01555,   0.03239,   0.02658,  -0.04025,   0.03675,   0.03965,  -0.06785,  -0.02717,   0.00624,  -0.03153,   0.02513,   0.03384,  -0.01410,   0.04401,   0.01931,   0.01786,  -0.01265,  -0.03153,  -0.00974,  -0.03008,  -0.00102,   0.03094,   0.03384,   0.01350,  -0.00974,  -0.03008,  -0.01555,  -0.03879,   0.00188,  -0.02427,   0.02367,   0.04837,  -0.00102,  -0.07221,  -0.04315,  -0.01119,   0.02222,  -0.00102,  -0.04751,  -0.01555,   0.03675,  -0.07947,  -0.01991,   0.02222,   0.02513,   0.03529,  -0.02281,  -0.00248,  -0.06494,  -0.01265,  -0.03153,   0.01205,   0.00188,   0.00769,   0.05273,  -0.00683,  -0.04170,   0.00769,  -0.04461,  -0.06349,  -0.00393,  -0.00393,  -0.00829,  -0.02863,   0.01205,  -0.00829,  -0.00538,   0.04837,  -0.04025,   0.03239,   0.01205,  -0.05332,  -0.01555,   0.08759,  -0.06640,  -0.01846,   0.04111,  -0.03153,   0.04982,  -0.03444,  -0.02863,  -0.06059,  -0.00538,  -0.00538,  -0.00538,   0.00188,  -0.01846,  -0.00538,   0.01350,   0.01350,   0.02803,  -0.06785,   0.03384,   0.03675,   0.00333,   0.05418,  -0.03589,  -0.07221,  -0.06640,   0.02222,   0.03239,   0.02513,  -0.01555,   0.04692,  -0.02572,  -0.00248,  -0.05913,   0.01931,  -0.08383,  -0.04896,   0.00624,   0.08759,  -0.02572,  -0.02136,   0.04837,   0.00043,  -0.01410,  -0.02572,   0.02367,  -0.03589,  -0.00974,  -0.01846,   0.02367,   0.00479,   0.05127,   0.06871,  -0.02427,   0.09195,   0.00479,   0.02367,  -0.04751,   0.01641,  -0.00248,   0.04111,  -0.04025,  -0.01119,  -0.00248,  -0.08819,  -0.01119,  -0.00393,   0.03820,  -0.06640,  -0.01991,   0.04837,   0.01350,  -0.03734,   0.01060,  -0.00102,   0.02803,   0.08614,  -0.08964,  -0.07802,   0.02367,   0.05273,   0.05273,  -0.06640,   0.04692,  -0.03589,   0.03965,  -0.01410,   0.03384,  -0.05623,  -0.00829,  -0.01265,  -0.05042,  -0.04025,   0.01786,   0.03675,   0.01496,   0.03384,   0.03384,   0.09631,  -0.03589,  -0.04315,  -0.05332,   0.00188,  -0.02136
